<Nnet>
<input> 60 60
<affinetransform> 41 60
 [ 
  -1.0913010835647583 0.1022724062204361 0.054554183036088943 0.51264667510986328 0.18014229834079742 -0.29649874567985535 -0.21731282770633698 0.13830423355102539 5.9319427236914635e-07 0.081879138946533203 -0.1022292897105217 0.27057644724845886 -0.077238380908966064 -0.049619767814874649 0.32186788320541382 0.047575343400239944 -0.3306887149810791 -0.36805072426795959 -0.17801348865032196 0.1860344409942627 0.1244933158159256 0.038268763571977615 0.069373182952404022 0.10982424020767212 0.31861093640327454 -0.12973466515541077 0.33053159713745117 -0.081228941679000854 -0.46131163835525513 -0.39082911610603333 -0.14015753567218781 0.070202909409999847 0.14679494500160217 0.10086029022932053 0.13972856104373932 -0.027076883241534233 0.17414206266403198 -0.17053039371967316 -0.088964536786079407 -0.25231605768203735 -0.024777991697192192 0.090813957154750824 -0.0085502061992883682 -0.04911404475569725 0.10944115370512009 0.07257833331823349 0.067724987864494324 -0.11840824782848358 0.0040805642493069172 -0.45468321442604065 -0.99943715333938599 -0.14368695020675659 0.73035043478012085 0.68834584951400757 0.40539339184761047 -0.068306170403957367 0.017332665622234344 0.1559375673532486 -0.0054457010701298714 -0.19352203607559204
  0.40872928500175476 0.072163425385951996 0.18500450253486633 -0.20234033465385437 -0.10522159188985825 0.026128927245736122 0.30501055717468262 0.12592217326164246 0.11748030781745911 0.025277396664023399 -0.1333489716053009 -0.099803455173969269 0.11542695015668869 -0.15898305177688599 0.1815735250711441 0.14524067938327789 -0.26642218232154846 -0.22990913689136505 0.098733723163604736 0.18493218719959259 0.14092378318309784 -0.026823259890079498 -0.042573858052492142 0.13661214709281921 0.1798393577337265 -0.45781335234642029 -0.11261007934808731 0.19949279725551605 -0.14864982664585114 -0.24148951470851898 -0.052958190441131592 0.21209791302680969 0.087717980146408081 -0.02277669869363308 0.041015408933162689 0.11138572543859482 0.25897574424743652 -0.32547789812088013 -0.34352761507034302 0.24380198121070862 0.22534967958927155 -0.080346405506134033 -0.11031055450439453 0.1366596519947052 0.049289785325527191 -0.0079118311405181885 -0.033441536128520966 0.014470444060862064 0.47554787993431091 -0.48306259512901306 -0.81268501281738281 0.0080375634133815765 0.79196059703826904 0.2467166930437088 -0.19671863317489624 -0.044591043144464493 0.070174135267734528 0.023470198735594749 -0.016214635223150253 -0.26918578147888184
  -0.43799421191215515 0.47889608144760132 1.0060775279998779 0.08519444614648819 -0.46735572814941406 -0.25703459978103638 -0.14143966138362885 -0.0052066571079194546 -0.33246883749961853 -0.37476298213005066 0.13397093117237091 0.32258886098861694 -0.48040199279785156 0.24733158946037292 0.26828700304031372 -0.26275014877319336 -0.11412149667739868 0.099574722349643707 0.063482314348220825 -0.060168799012899399 -0.19539780914783478 -0.089148856699466705 0.30192509293556213 0.12298659235239029 -0.29548296332359314 0.27697688341140747 0.13043338060379028 -0.14624769985675812 -0.066369369626045227 0.10849699378013611 0.0503038689494133 -0.12120505422353745 -0.1651238352060318 -0.041511949151754379 0.19274832308292389 0.1312764585018158 -0.22097790241241455 -0.032194856554269791 -0.038912266492843628 -0.017859218642115593 -0.16231679916381836 -0.030118513852357864 0.01975804939866066 -0.026572931557893753 -0.084223717451095581 -0.019120670855045319 0.026838231831789017 0.13028968870639801 0.28974631428718567 -0.11593601852655411 -0.26956319808959961 0.38346141576766968 -0.13486197590827942 -0.12834125757217407 -0.07387106865644455 -0.10841125249862671 -0.05249444767832756 -0.051991522312164307 -0.21638256311416626 0.16260448098182678
  0.58379667997360229 0.076081156730651855 -0.29348340630531311 0.086908496916294098 0.2055472731590271 -0.025809204205870628 -0.16549159586429596 0.16251747310161591 -0.0045333974994719028 -0.17344096302986145 -0.20128591358661652 -0.19451247155666351 0.20629775524139404 0.13322871923446655 -0.12048795819282532 0.10940422862768173 0.39003527164459229 0.15398406982421875 -0.18361476063728333 -0.092503651976585388 -0.0092053748667240143 -0.12554241716861725 -0.087159454822540283 -0.092648878693580627 0.016708513721823692 0.18330292403697968 -0.2253917008638382 0.170647993683815 0.49230071902275085 0.29057744145393372 -0.18014667928218842 -0.11974633485078812 0.086752258241176605 0.0063659870065748692 -0.061605777591466904 -0.002153951209038496 -0.096325606107711792 0.077096298336982727 -0.12861312925815582 0.12530606985092163 0.30561777949333191 0.22410660982131958 0.038555223494768143 -0.069491028785705566 0.026488875970244408 0.052214875817298889 -0.091489419341087341 0.030271353200078011 -0.16925641894340515 -0.19535507261753082 -0.049519356340169907 -0.41733181476593018 -0.10115934163331985 0.16680893301963806 0.22472588717937469 -0.026598468422889709 0.15259674191474915 0.1820397675037384 -0.091707177460193634 -0.040151279419660568
  0.28130415081977844 -0.41164872050285339 0.16485300660133362 0.014395091682672501 0.083408132195472717 -0.032010883092880249 0.032753903418779373 0.093446284532546997 0.24561136960983276 -0.15507398545742035 0.02846449613571167 -0.0020689056254923344 -0.54493612051010132 -0.044945631176233292 0.31731954216957092 0.0081645529717206955 0.054500855505466461 0.06727137416601181 0.19377930462360382 -0.038427360355854034 0.025406250730156898 -0.075688816606998444 0.023274844512343407 0.077739425003528595 -0.45609530806541443 0.18636803328990936 0.40735885500907898 0.0015790258767083287 0.02657264843583107 0.075950711965560913 0.19004285335540771 -0.17978394031524658 -0.0032366816885769367 -0.015447711572051048 -0.039436005055904388 0.064816221594810486 -0.32702073454856873 0.13465073704719543 0.32610949873924255 -0.11761698126792908 -0.0092235859483480453 0.10693157464265823 0.10039015859365463 -0.18207430839538574 0.023129768669605255 0.0021921894513070583 -0.035958461463451385 0.05306016281247139 -0.30390644073486328 0.16595245897769928 0.58748161792755127 -0.22781117260456085 -0.21113483607769012 0.086098328232765198 0.1025274246931076 -0.18367640674114227 0.1175106093287468 -0.10065040737390518 -0.074512630701065063 -0.060398224741220474
  0.30984607338905334 -0.274494469165802 0.56849735975265503 -0.38612890243530273 -0.13224406540393829 -0.069104596972465515 -0.08893951028585434 -0.24542394280433655 0.037964429706335068 -0.20061564445495605 0.070137262344360352 -0.15374588966369629 0.90880906581878662 -0.037301212549209595 0.31464904546737671 0.042497869580984116 -0.15577049553394318 -0.067979484796524048 -0.058027025312185287 -0.22784078121185303 0.036466136574745178 -0.09110521525144577 0.072563096880912781 -0.20979972183704376 0.86939722299575806 -0.22557677328586578 0.27100330591201782 0.14320577681064606 -0.23286598920822144 0.030904620885848999 -0.022886753082275391 -0.16851720213890076 0.08948913961648941 -0.073959313333034515 0.097739771008491516 -0.17368055880069733 0.2808363139629364 0.093896225094795227 -0.020769909024238586 0.18120741844177246 -0.15744462609291077 0.041621461510658264 0.013047471642494202 -0.046177156269550323 0.011892532929778099 -0.051628846675157547 -0.055267233401536942 -0.062052961438894272 -1.0305875539779663 -0.003735340666025877 -0.47833532094955444 0.071313776075839996 0.29442399740219116 0.051821738481521606 0.2650924026966095 0.26793888211250305 -0.037219658493995667 0.1726539134979248 -0.22063863277435303 0.33614504337310791
  -0.59479308128356934 0.24350839853286743 0.39383339881896973 -0.47432887554168701 -0.16659261286258698 0.14642298221588135 0.18806138634681702 -0.13868880271911621 -0.17879639565944672 0.023669520393013954 -0.035450443625450134 -0.16388237476348877 -0.50456011295318604 0.45196375250816345 0.36239543557167053 -0.44092738628387451 -0.38524767756462097 0.16176173090934753 0.22483909130096436 0.0064196735620498657 0.0036481884308159351 -0.070879317820072174 -0.14983780682086945 -0.027213510125875473 -0.10753601044416428 0.39837625622749329 0.23234198987483978 -0.3999989926815033 -0.40856224298477173 0.14420388638973236 0.14050470292568207 0.083627179265022278 0.040846295654773712 -0.1469145268201828 -0.16541489958763123 0.0092095332220196724 0.27450180053710938 0.20699609816074371 -0.016858369112014771 -0.16816940903663635 -0.061549890786409378 0.14194914698600769 0.07392650842666626 0.1365167498588562 0.023120533674955368 -0.15388450026512146 -0.073994234204292297 0.077649950981140137 0.29967629909515381 0.23686039447784424 -0.28350469470024109 0.28683373332023621 0.28650501370429993 0.18014433979988098 -0.0056783575564622879 -0.15132082998752594 -0.15524031221866608 -0.079191721975803375 0.013685779646039009 0.12475430220365524
  -2.4392342567443848 1.1173726320266724 -0.084558695554733276 -0.038777045905590057 0.038040608167648315 -0.1855638325214386 0.029497154057025909 0.17354565858840942 0.0925031378865242 -0.2226540744304657 -0.0031019547022879124 -0.15112967789173126 -0.75717622041702271 0.30090135335922241 -0.024630438536405563 0.074065037071704865 -0.097566761076450348 -0.036857139319181442 -0.03235100582242012 0.052536170929670334 0.0013805872295051813 -0.069051176309585571 0.0079408371821045876 -0.063586726784706116 0.18922650814056396 -0.10604473948478699 -0.16380900144577026 0.032391071319580078 -0.19261153042316437 0.051826775074005127 -0.041152250021696091 0.04047776386141777 -0.058508303016424179 -0.0095292804762721062 0.0053194020874798298 -0.040149398148059845 0.39723920822143555 -0.062756091356277466 -0.10886548459529877 0.064570233225822449 -0.018727777525782585 0.17640231549739838 0.025260506197810173 0.024739088490605354 -0.013408863916993141 0.018247803673148155 -0.010359355248510838 -0.020011702552437782 0.67367315292358398 -0.22426795959472656 -0.02524857223033905 0.17477300763130188 0.16303902864456177 0.1659824401140213 0.092931762337684631 0.093294061720371246 0.12491120398044586 0.058912362903356552 -0.096958816051483154 0.1404574066400528
  0.89493674039840698 0.076399587094783783 -0.16460734605789185 0.43785500526428223 0.43963733315467834 -0.064810879528522491 -0.050804797559976578 -0.39528161287307739 -0.018450334668159485 0.11226466298103333 -0.2772727906703949 -0.011764167807996273 0.55795437097549438 -0.35107579827308655 -0.019130367785692215 0.032369751483201981 -0.10371169447898865 -0.021879604086279869 0.014819327741861343 -0.26069992780685425 -0.00085136614507064223 -0.01817823201417923 -0.018277617171406746 0.017179133370518684 0.50211137533187866 -0.52816992998123169 -0.22776149213314056 -0.21613523364067078 -0.17764590680599213 0.078522004187107086 -0.011272156611084938 -0.19851261377334595 0.022756308317184448 -0.0718260258436203 -0.16486310958862305 -0.061826076358556747 0.12138978391885757 -0.26581823825836182 -0.045636292546987534 -0.24021171033382416 -0.090530894696712494 0.045746572315692902 -0.030609440058469772 -0.0077136517502367496 -0.0010619049426168203 -0.14014914631843567 -0.10076824575662613 -0.037180528044700623 0.24176080524921417 0.64819765090942383 0.57307446002960205 0.085301026701927185 -0.093634575605392456 -0.047179516404867172 -0.057824619114398956 -0.015639113262295723 -0.2480926513671875 -0.2846977710723877 -0.068759143352508545 -0.098187632858753204
  0.19176571071147919 -0.33873724937438965 -0.30225622653961182 -0.38169771432876587 -0.39799225330352783 -0.14254476130008698 -0.023223493248224258 0.18260747194290161 -0.047983650118112564 0.061028361320495605 0.27576634287834167 0.022889293730258942 -0.15560904145240784 -0.10214567929506302 -0.10667543113231659 -0.11748600006103516 -0.14320161938667297 0.053871437907218933 0.24840307235717773 0.062473997473716736 -0.13159620761871338 0.062475163489580154 0.034033015370368958 0.041107881814241409 -0.42542088031768799 -0.10401703417301178 -0.176807701587677 -0.16186784207820892 0.094895690679550171 0.044700596481561661 0.32778891921043396 0.15779842436313629 -0.058141153305768967 0.015107697807252407 -0.033207841217517853 0.063157536089420319 -0.08336610347032547 -0.06418406218290329 -0.13496272265911102 -0.16243389248847961 -0.18496982753276825 -0.035967666655778885 0.24486328661441803 0.20132389664649963 -0.014905257150530815 -0.070324644446372986 0.029242714866995811 0.096131354570388794 -0.66978847980499268 -0.13407416641712189 -0.59212172031402588 -0.16748744249343872 0.019317714497447014 0.23346157371997833 0.53501737117767334 0.5215904712677002 0.055228810757398605 -0.10796143859624863 0.01504203025251627 0.082473024725914001
  0.80595844984054565 -0.98623991012573242 -1.4092597961425781 0.023976175114512444 0.43346196413040161 -0.078919276595115662 0.22878207266330719 0.61931228637695312 0.51610082387924194 -0.11305819451808929 -0.25700864195823669 -0.23204605281352997 0.78195935487747192 -0.37022069096565247 -0.46008145809173584 -0.22673887014389038 0.082608684897422791 -0.19877874851226807 0.0016745663015171885 0.26728865504264832 0.13618075847625732 -0.075518473982810974 0.060955137014389038 -0.040290243923664093 0.011271496303379536 -0.080739937722682953 -0.17669600248336792 -0.21575923264026642 -0.14327310025691986 -0.053771145641803741 0.0098836813122034073 -0.027740208432078362 -0.046130824834108353 0.033960968255996704 0.12477227300405502 0.11326914280653 -0.42995601892471313 0.2490813285112381 0.36291596293449402 -0.033135328441858292 -0.14680905640125275 0.090603061020374298 -0.025793571025133133 -0.24218398332595825 -0.10391821712255478 0.035129275172948837 0.048663541674613953 0.14395509660243988 -1.015376091003418 1.0225623846054077 1.5281602144241333 0.50951826572418213 -0.24936744570732117 0.14168107509613037 -0.17894956469535828 -0.46177399158477783 -0.44355231523513794 0.035098224878311157 0.024549677968025208 0.11976859718561172
  0.10981068760156631 -0.1215214878320694 -0.14796212315559387 -0.4685032069683075 -0.10287071764469147 0.2245057076215744 -0.016200337558984756 0.16621555387973785 -0.067477330565452576 -0.18478415906429291 0.41891679167747498 0.21417275071144104 0.32031252980232239 0.15481734275817871 -0.20545029640197754 -0.07984490692615509 0.42558753490447998 0.18730743229389191 -0.14495208859443665 -0.17168958485126495 -0.057395409792661667 0.072793401777744293 0.2053140252828598 -0.019657598808407784 0.57056444883346558 0.17359377443790436 0.049020431935787201 0.21345916390419006 0.56616264581680298 0.094343766570091248 -0.28211790323257446 -0.43326923251152039 -0.01507878489792347 0.21385599672794342 0.075571388006210327 -0.16199661791324615 0.29484465718269348 -0.18707065284252167 0.24842217564582825 0.46312215924263 0.36134859919548035 -0.07782340794801712 -0.20959748327732086 -0.43165796995162964 0.0077233016490936279 0.16955307126045227 0.048891928046941757 -0.081501826643943787 -0.064468525350093842 -1.0576591491699219 0.098472356796264648 0.28819617629051208 0.32262507081031799 -0.28245848417282104 -0.13167929649353027 -0.16384774446487427 0.18893919885158539 0.076166436076164246 -0.083894431591033936 -0.12177084386348724
  -0.31357276439666748 -0.34600937366485596 0.1864757239818573 -0.58886516094207764 0.13588917255401611 -0.32001185417175293 0.0051649441011250019 0.72805440425872803 0.38824430108070374 -0.29229584336280823 -0.056672088801860809 -0.045843828469514847 0.096419110894203186 0.17289932072162628 -0.0058970046229660511 -0.15537360310554504 -0.0064309467561542988 0.027808960527181625 0.06019115075469017 0.17465287446975708 0.034011933952569962 -0.21080127358436584 -0.012701247818768024 0.066323816776275635 0.10032430291175842 0.13537903130054474 0.26505780220031738 -0.073769181966781616 -0.12731678783893585 0.12039951980113983 0.10227691382169724 -0.15635611116886139 -0.12495674937963486 -0.11493083834648132 -0.011580975726246834 0.12375485897064209 -0.18564106523990631 0.20531049370765686 0.27546083927154541 0.095125146210193634 -0.21740894019603729 0.087625078856945038 0.16662554442882538 -0.21226723492145538 -0.18067285418510437 0.039400085806846619 0.027431320399045944 0.13651667535305023 0.052605140954256058 0.35137307643890381 0.38267463445663452 -0.28609493374824524 -0.31528192758560181 0.074233375489711761 0.051737725734710693 0.012886403128504753 -0.26500174403190613 0.11268777400255203 0.093589760363101959 0.14215759932994843
  0.59395521879196167 -0.47190997004508972 -0.78113257884979248 -0.22489990293979645 -0.014353892765939236 0.047314677387475967 -0.029745226725935936 -0.15663668513298035 0.095110908150672913 0.19749988615512848 0.014570849016308784 -0.15770857036113739 -0.081348799169063568 -0.27412936091423035 -0.40935492515563965 -0.064454510807991028 0.11982246488332748 -0.016468213871121407 -0.077664591372013092 0.064179345965385437 0.029621174558997154 0.14389443397521973 -0.010143237188458443 -0.07428336888551712 -0.0048319417983293533 -0.0059924013912677765 0.017590845003724098 0.22963494062423706 0.084393717348575592 -0.22704821825027466 -0.062990702688694 0.16410022974014282 0.067030236124992371 0.11535082012414932 -0.11220258474349976 -0.094015434384346008 -0.18360339105129242 0.086750641465187073 0.28695517778396606 0.066345140337944031 -0.072433225810527802 -0.15880738198757172 -0.027302943170070648 0.20454700291156769 0.14630419015884399 -0.011589787900447845 -0.065030425786972046 -0.027550563216209412 0.75867193937301636 0.59575527906417847 1.2092667818069458 -0.05534665659070015 -0.9456978440284729 -0.4969254732131958 0.16277064383029938 0.030290158465504646 0.057154890149831772 -0.19681191444396973 -0.012231111526489258 -0.071675211191177368
  -0.89995193481445312 -0.067341074347496033 -0.76473510265350342 -0.3293880820274353 0.29321101307868958 0.22393594682216644 0.16320993006229401 0.2319597452878952 0.25511178374290466 0.18174839019775391 0.04822370782494545 0.1474035382270813 -0.021774111315608025 -0.56162941455841064 -0.97997385263442993 -0.56844794750213623 0.23401057720184326 0.33686479926109314 0.0049940338358283043 0.088576652109622955 0.22077690064907074 0.22852618992328644 0.11839059740304947 -0.073229491710662842 -0.10464341938495636 -0.41614991426467896 -0.83494997024536133 -0.33884361386299133 0.23256950080394745 0.26682165265083313 0.097373470664024353 0.044097945094108582 0.066851548850536346 0.21312209963798523 0.039981100708246231 0.0048140324652194977 0.11543987691402435 -0.019497225061058998 0.011777066625654697 0.034379489719867706 0.02146228589117527 0.13924546539783478 0.10445849597454071 -0.041614044457674026 -0.036941863596439362 0.028972644358873367 0.044059805572032928 0.07756747305393219 0.17931957542896271 0.58472859859466553 0.77443355321884155 0.40219250321388245 -0.28561007976531982 -0.057682260870933533 -0.044245768338441849 -0.088224105536937714 -0.16549549996852875 -0.1336740106344223 0.036295495927333832 0.12984669208526611
  0.083734221756458282 -0.58360111713409424 0.077986001968383789 -0.058419965207576752 0.0095630725845694542 -0.1791633814573288 -0.18040706217288971 -0.20443356037139893 -0.055015698075294495 -0.060090240091085434 -0.046916816383600235 -0.14186407625675201 -0.63392257690429688 -0.081709049642086029 0.54107552766799927 0.3895411491394043 0.14605207741260529 -0.077520720660686493 0.012564049102365971 0.11227405816316605 0.13482636213302612 -0.15735882520675659 -0.13433246314525604 0.0077814324758946896 -0.48481115698814392 -0.05204039067029953 0.36500805616378784 0.32916867733001709 0.13679242134094238 -0.10218796133995056 -0.0054172845557332039 0.16250438988208771 0.25872179865837097 -0.0817609503865242 -0.13955888152122498 0.087405845522880554 0.043363098055124283 -0.081797271966934204 0.084027335047721863 0.20686672627925873 0.07683601975440979 -0.002544202608987689 -0.045848112553358078 0.14850272238254547 0.11431677639484406 -0.0585198774933815 -0.021002030000090599 0.041079618036746979 -0.070256441831588745 -0.14788246154785156 -0.60068851709365845 -0.038219232112169266 -0.22528262436389923 -0.10705983638763428 -0.22169183194637299 0.051745619624853134 -0.14564432203769684 0.1232951357960701 0.25774523615837097 0.10761625319719315
  0.34682801365852356 0.41395965218544006 0.28903612494468689 -0.12374886125326157 -0.022319385781884193 -0.30815181136131287 -0.33300429582595825 -0.1268877238035202 0.15952958166599274 0.036843806505203247 0.040270917117595673 -0.11639507859945297 -0.060448102653026581 0.185479536652565 0.036606926470994949 -0.3392760157585144 -0.17049461603164673 -0.13968554139137268 -0.14244227111339569 -0.0024940567091107368 -0.00012380070984363556 0.033987931907176971 0.021987047046422958 0.038513567298650742 0.12328384071588516 0.2977621853351593 -0.023612493649125099 -0.40418240427970886 -0.17110100388526917 -0.094246864318847656 -0.15243697166442871 -0.064558736979961395 0.038415625691413879 0.067372255027294159 0.049402039498090744 0.028795920312404633 -0.28530365228652954 0.0882381871342659 -0.14618650078773499 -0.25482526421546936 -0.14593562483787537 -0.16645823419094086 -0.15965673327445984 -0.021487869322299957 0.088089793920516968 0.11686160415410995 0.052800554782152176 0.067505575716495514 -0.20523278415203094 0.10283865034580231 0.18259644508361816 0.00066630402579903603 -0.0069520808756351471 -0.65112763643264771 -0.34657484292984009 -0.14064763486385345 0.19082844257354736 0.16006051003932953 0.039053920656442642 0.17711792886257172
  -0.82196354866027832 0.38314011693000793 -0.1357690691947937 0.22722445428371429 0.2305021733045578 0.22022192180156708 -0.083830952644348145 -0.06466975063085556 0.15451014041900635 0.19468431174755096 0.017798289656639099 0.21730019152164459 0.027919156476855278 -0.19240552186965942 0.032494019716978073 -0.42785459756851196 -0.16600541770458221 -0.11230667680501938 -0.099506892263889313 0.099918782711029053 0.031820256263017654 -0.0036902371793985367 0.14079242944717407 -0.05548936128616333 -0.051845300942659378 -0.081449344754219055 -0.11729802936315536 -0.5372505784034729 -0.19086012244224548 -0.21665365993976593 -0.033183690160512924 0.096704401075839996 0.036133565008640289 -0.036411616951227188 0.074150986969470978 -0.051538698375225067 0.11240256577730179 -0.18379518389701843 -0.069487445056438446 -0.37567350268363953 -0.29218176007270813 -0.15692971646785736 -0.052121996879577637 0.08578791469335556 0.10849342495203018 0.023303711786866188 0.1238555908203125 -0.0043144030496478081 -1.0183855295181274 0.44017788767814636 0.039298858493566513 0.83882826566696167 0.29040199518203735 0.096772000193595886 0.14449058473110199 0.048352446407079697 -0.064416356384754181 0.22339640557765961 -0.0021130437962710857 0.41040796041488647
  0.4848858118057251 0.46303460001945496 0.3023565411567688 0.29636257886886597 0.086486153304576874 0.032373838126659393 0.27257582545280457 0.1111702024936676 0.024927984923124313 0.073294445872306824 -0.068739093840122223 -0.078263610601425171 0.45347145199775696 0.13522493839263916 -0.12786789238452911 0.15729030966758728 0.28185337781906128 0.1512819230556488 0.12447190284729004 0.11732752621173859 0.080460391938686371 0.046052757650613785 -0.16232894361019135 -0.20104265213012695 0.43308389186859131 -0.31175971031188965 -0.27745148539543152 0.050708170980215073 0.090716399252414703 0.11068727076053619 0.10689166188240051 0.078091561794281006 0.060830701142549515 -0.0073279403150081635 -0.062012840062379837 -0.2527393102645874 -0.38041365146636963 -0.21961262822151184 -0.28392875194549561 -0.12403936684131622 -0.060259602963924408 -0.014384722337126732 0.053653594106435776 -0.0056213811039924622 -0.045240242034196854 -0.047915264964103699 0.011061091907322407 -0.063635751605033875 -0.93190103769302368 -0.68133401870727539 -0.27116420865058899 -0.35196560621261597 -0.1967761367559433 0.0056428359821438789 0.2515217661857605 0.28612595796585083 0.11403863877058029 -0.095625132322311401 0.063993103802204132 0.23584175109863281
  0.0057749501429498196 0.33406847715377808 0.1770474910736084 0.31771808862686157 0.056302104145288467 -0.069574393332004547 0.055362023413181305 0.16025817394256592 -0.00029050174634903669 0.066549010574817657 -0.031678307801485062 0.21846011281013489 0.91447305679321289 -0.33081400394439697 0.09150388091802597 -0.54170364141464233 -0.27493548393249512 -0.13008129596710205 -0.11581294238567352 0.053794514387845993 0.03092411532998085 -0.068064361810684204 0.08522198349237442 -0.16608363389968872 0.56384527683258057 -0.39342758059501648 0.20670327544212341 -0.57202434539794922 -0.36051344871520996 -0.29352873563766479 -0.13940182328224182 0.0056940657086670399 -0.032748721539974213 -0.081495054066181183 0.22753968834877014 -0.18423962593078613 0.14205680787563324 -0.082907505333423615 0.16558285057544708 -0.26279798150062561 -0.073239423334598541 -0.16699150204658508 -0.058014769107103348 -0.1180545762181282 -0.054600097239017487 -0.067353084683418274 0.052879203110933304 -0.081544585525989532 0.47135475277900696 0.55839806795120239 0.46793940663337708 0.68241786956787109 0.0050049256533384323 -0.19711625576019287 0.24649205803871155 -0.062915876507759094 0.083006724715232849 -0.01769140362739563 -0.16299819946289062 -0.055160976946353912
  -0.54113554954528809 0.01473016943782568 0.3406861424446106 -0.15936669707298279 -0.39504748582839966 0.085438981652259827 -0.010435466654598713 -0.055419061332941055 -0.03722863644361496 0.077398188412189484 0.15080082416534424 -0.023306721821427345 -0.29639533162117004 0.27222362160682678 -0.10668191313743591 0.47670897841453552 0.34573760628700256 -0.33982774615287781 0.042071964591741562 0.012116570957005024 -0.035255260765552521 0.1919814795255661 -0.076880902051925659 -0.035476785153150558 0.0027621136978268623 0.52754408121109009 -0.12162249535322189 0.76664912700653076 0.52793234586715698 -0.2689133882522583 0.039237722754478455 -0.051673915237188339 0.015168657526373863 0.23127216100692749 -0.20509003102779388 0.084412224590778351 -0.066067568957805634 0.49587634205818176 -0.13077105581760406 0.58366107940673828 0.39959940314292908 0.17703723907470703 0.12010160833597183 -0.10717794299125671 -0.057329080998897552 0.096089892089366913 -0.20575645565986633 0.060596678406000137 -0.61844569444656372 -0.24635079503059387 -0.58406943082809448 -0.6532396674156189 -0.076394319534301758 0.49630200862884521 -0.076951302587985992 0.2126605361700058 0.10976578295230865 -0.096136637032032013 0.19785962998867035 0.23664288222789764
  1.7643182277679443 -0.20218221843242645 -0.83523154258728027 -0.41508147120475769 0.065536759793758392 0.26669523119926453 0.025610143318772316 0.12363038212060928 0.10084851831197739 0.17488044500350952 -0.081585176289081573 -0.24670964479446411 0.08898162841796875 -0.083422325551509857 -0.49525374174118042 -0.023555167019367218 -0.070861212909221649 0.20167718827724457 0.025570891797542572 -0.037104431539773941 -0.12489920109510422 0.18877565860748291 -0.034247018396854401 -0.026584098115563393 -1.1412811279296875 0.045921348035335541 0.0057511148042976856 0.11056055128574371 -0.070886589586734772 0.087465301156044006 0.030926425009965897 -0.057728055864572525 -0.10090493410825729 0.030202383175492287 -0.022130925208330154 0.12757565081119537 -1.8824148178100586 0.10070847719907761 0.45160481333732605 0.19198906421661377 0.053521435707807541 -0.13592259585857391 0.018485510721802711 -0.068247273564338684 0.043407361954450607 -0.091642290353775024 -0.040855571627616882 0.13044342398643494 -0.63177937269210815 -0.28469467163085938 0.95933955907821655 -0.00014908262528479099 -0.018347481265664101 -0.20797125995159149 -0.13808497786521912 -0.061835546046495438 0.15145498514175415 -0.34108135104179382 0.073344320058822632 -0.13355410099029541
  -1.1020151376724243 0.17834661900997162 0.11492370069026947 -0.53926080465316772 -0.22366702556610107 0.14274457097053528 0.2271307110786438 0.1742188036441803 -0.12285188585519791 0.090858787298202515 0.19396765530109406 0.029170678928494453 -0.28084540367126465 -0.15997596085071564 0.15784840285778046 -0.097336240112781525 -0.2909945547580719 -0.040162090212106705 0.1287953108549118 -0.074415251612663269 0.090946093201637268 0.036173164844512939 -0.11542710661888123 -0.014953508973121643 0.54096692800521851 -0.38758054375648499 -0.042577341198921204 -0.076243482530117035 -0.30426326394081116 -0.16020850837230682 0.12616477906703949 -0.098001919686794281 0.10833317786455154 0.052070699632167816 -0.083960361778736115 -0.090327918529510498 1.1842794418334961 -0.36970770359039307 -0.25700536370277405 0.20666028559207916 -0.12844784557819366 -0.25621047616004944 -0.051362704485654831 -0.21939718723297119 0.07230985164642334 0.16280503571033478 -0.13671670854091644 -0.075637124478816986 1.3938961029052734 -0.029729101806879044 -0.01001670490950346 0.32660123705863953 0.34893634915351868 0.13880515098571777 -0.12761297821998596 0.0093044796958565712 -0.083763450384140015 0.0069105145521461964 -0.095981612801551819 -0.02543327771127224
  -0.25872242450714111 0.027762234210968018 -0.075031787157058716 0.4488823413848877 0.045484986156225204 0.022023322060704231 -0.0075966157019138336 -0.24442903697490692 -0.038605771958827972 0.12942394614219666 -0.091017767786979675 0.15303893387317657 0.059835568070411682 -0.39401066303253174 -0.1452411413192749 -0.39266964793205261 0.2199762761592865 0.053537279367446899 0.092009909451007843 -0.04744642972946167 0.10980682820081711 -0.074147641658782959 -0.099657393991947174 -0.22941045463085175 0.10544496774673462 -0.2339242696762085 -0.30984458327293396 -0.39959779381752014 0.49143150448799133 0.12126445025205612 0.16534474492073059 0.087339878082275391 0.075222425162792206 -0.17956912517547607 -0.14191693067550659 -0.30362427234649658 0.016653282567858696 -0.022736402228474617 -0.081580035388469696 -0.18927600979804993 0.22284302115440369 0.10995545983314514 0.10546554625034332 0.17845231294631958 -0.029536686837673187 -0.17741295695304871 -0.047952841967344284 -0.19560286402702332 0.59250444173812866 0.1791449636220932 0.10249016433954239 0.0676160529255867 -0.016023159027099609 0.20042918622493744 0.068323992192745209 0.16411469876766205 -0.050757709890604019 -0.088876672089099884 0.0018379779066890478 -0.0054965619929134846
  -1.116695761680603 0.0010644476860761642 -0.26076903939247131 0.17347614467144012 0.15768754482269287 -0.13334272801876068 -0.25836989283561707 0.0058947713114321232 0.19083109498023987 0.27972897887229919 0.19939377903938293 0.23947252333164215 -0.013150783255696297 -0.2935752272605896 -0.21560859680175781 0.17569608986377716 -0.1158871129155159 -0.14965842664241791 -0.22913041710853577 -0.11829587072134018 0.094004005193710327 0.19553479552268982 0.17242410778999329 0.087656334042549133 0.055297054350376129 0.0060777822509407997 0.030387107282876968 0.24772363901138306 -0.10556754469871521 -0.16364966332912445 -0.2693641185760498 -0.028968287631869316 0.066978327929973602 0.034283563494682312 0.18447859585285187 0.055229656398296356 -0.096122853457927704 -0.18158987164497375 0.020805085077881813 0.1353466808795929 0.11277662217617035 -0.0016760015860199928 -0.10711668431758881 0.045003272593021393 -0.0075867576524615288 -0.052858326584100723 0.12700457870960236 0.027725957334041595 0.35845386981964111 0.083957858383655548 0.26018661260604858 0.29520624876022339 0.29731327295303345 0.18059581518173218 -0.03818950429558754 -0.08313925564289093 -0.24329112470149994 -0.031995043158531189 -0.1112588569521904 0.12020109593868256
  -0.18559347093105316 -0.090806320309638977 -0.329164057970047 -0.68178403377532959 -0.098343715071678162 -0.13159824907779694 0.1752239316701889 -0.24435041844844818 -0.070058047771453857 0.16047124564647675 0.0027411049231886864 -0.23672276735305786 0.5701715350151062 0.064709432423114777 0.027337180450558662 -0.27794089913368225 -0.094627879559993744 0.09792415052652359 0.068476922810077667 -0.082551226019859314 -0.051095001399517059 0.011471634730696678 0.00099487206898629665 -0.29630789160728455 0.6102338433265686 0.30048885941505432 0.14250154793262482 0.31800282001495361 0.0047406069934368134 0.13229890167713165 -0.0025414382107555866 0.0095930453389883041 -0.041781902313232422 -0.024372020736336708 -0.082669496536254883 -0.27061322331428528 0.25104078650474548 0.35799595713615417 0.42023837566375732 0.69619560241699219 -0.13113948702812195 -0.077398531138896942 -0.1128886416554451 0.034171190112829208 -0.12381730973720551 -0.15247166156768799 -0.13312602043151855 -0.10401801019906998 -2.1852307319641113 -0.29767829179763794 0.59748691320419312 1.0920578241348267 -0.017182011157274246 -0.30405205488204956 0.056729555130004883 0.32988032698631287 0.025278173387050629 0.028769262135028839 -0.020829528570175171 0.56824362277984619
  -0.013663480989634991 -0.34175398945808411 -0.10336121916770935 -0.047493040561676025 0.40910717844963074 0.19075191020965576 -0.010321366600692272 -0.34498551487922668 -0.049455747008323669 0.10425814986228943 0.14203561842441559 -0.23506976664066315 -0.57127887010574341 -0.058570429682731628 0.45545506477355957 0.20652617514133453 -0.070339091122150421 -0.33948647975921631 -0.14948117733001709 -0.0068813073448836803 0.089168280363082886 0.038307465612888336 -0.1412331759929657 -0.028080964460968971 -0.28985497355461121 -0.039193477481603622 0.40446853637695312 0.30039674043655396 -0.02997431717813015 -0.42664957046508789 -0.23851615190505981 0.12185083329677582 0.18009912967681885 0.041072443127632141 -0.28293335437774658 -0.033193424344062805 -0.21941046416759491 -0.17416805028915405 0.22714245319366455 0.14111816883087158 -0.069902606308460236 -0.2289511114358902 -0.25702911615371704 0.16027079522609711 0.17911918461322784 -0.048626597970724106 -0.073233343660831451 0.049414493143558502 -0.43814384937286377 0.043346520513296127 0.52781206369400024 0.45177781581878662 -0.087765716016292572 -0.27614358067512512 -0.27846032381057739 0.076089940965175629 -0.011914776638150215 -0.010134633630514145 0.23180109262466431 0.2001652717590332
  0.40430629253387451 -0.22560389339923859 -0.055948909372091293 -0.068750657141208649 -0.34890836477279663 0.12806771695613861 0.27284696698188782 -0.018553223460912704 0.019639331847429276 0.16793288290500641 0.044067557901144028 -0.047596301883459091 0.59365671873092651 0.23328588902950287 0.19794592261314392 0.012820880860090256 -0.10169354826211929 0.0084255766123533249 0.0098987184464931488 -0.17538699507713318 -0.17231893539428711 0.072275884449481964 0.10793676972389221 0.040697846561670303 0.62359273433685303 0.4437786340713501 0.3899991512298584 -0.056134097278118134 -0.23928990960121155 -0.16441947221755981 -0.10546126961708069 -0.18527945876121521 -0.17818252742290497 -0.0098556661978363991 0.0098788272589445114 0.014216843992471695 0.30986982583999634 0.44475093483924866 0.36440947651863098 0.029090305790305138 -0.087832987308502197 -0.31008771061897278 -0.087353087961673737 -0.20116090774536133 -0.17217575013637543 -0.13471430540084839 -0.09188687801361084 -0.018129933625459671 0.93774247169494629 -0.51177811622619629 0.1500280499458313 -0.36742690205574036 -0.13493826985359192 -0.20636330544948578 -0.049594726413488388 0.030356107279658318 -0.11360654979944229 -0.41185015439987183 -0.11728798598051071 -0.26317766308784485
  0.18316979706287384 -0.16496123373508453 -0.1818263977766037 0.13287344574928284 0.19348916411399841 -0.0075616417452692986 0.036473687738180161 -0.08767341822385788 0.15877650678157806 0.074402965605258942 -0.17195720970630646 -0.059945002198219299 -0.19842681288719177 -0.12809163331985474 0.40817058086395264 -0.027004655450582504 -0.24331779778003693 -0.063924670219421387 0.13729113340377808 -0.050325162708759308 0.071126364171504974 0.072770446538925171 -0.013276217505335808 -0.046082407236099243 -0.36595770716667175 -0.065412178635597229 0.69873416423797607 -0.27492904663085938 -0.37421008944511414 0.047793339937925339 0.18651703000068665 -0.10431429743766785 0.015575298108160496 0.1283181756734848 0.056571051478385925 -0.12409374117851257 -0.52079004049301147 0.073409706354141235 0.7430107593536377 -0.25211453437805176 -0.26534509658813477 0.097310915589332581 0.17046095430850983 -0.21578207612037659 0.039378192275762558 0.13456100225448608 -0.0076796547509729862 -0.13427753746509552 -1.0381420850753784 -0.0080198785290122032 0.88886886835098267 -0.22007548809051514 -0.21070766448974609 0.17976823449134827 0.076358988881111145 -0.35992458462715149 0.10534880310297012 0.093637488782405853 -0.045521959662437439 -0.085553795099258423
  -0.13910810649394989 -0.15391354262828827 -0.14126299321651459 -0.27306154370307922 -0.16856350004673004 -0.1846146434545517 -0.072097852826118469 0.17641276121139526 0.20819744467735291 0.0016779650468379259 0.017883528023958206 -0.053519502282142639 -0.37704566121101379 0.27990779280662537 -0.28039810061454773 0.12180003523826599 0.072411626577377319 -0.30531421303749084 0.18422181904315948 -0.057535208761692047 0.046787295490503311 0.03047512099146843 -0.01829087920486927 0.01857680082321167 -0.30020856857299805 0.58509862422943115 -0.36519256234169006 0.36946293711662292 -0.0011527100577950478 -0.44453904032707214 0.24904796481132507 -0.20409561693668365 -0.03003331646323204 0.091052636504173279 -0.02659081295132637 -0.010448936372995377 -0.14484667778015137 0.5958978533744812 -0.33364289999008179 0.40479558706283569 -0.064336620271205902 -0.31101253628730774 0.069802820682525635 -0.18053418397903442 -0.11114030331373215 0.13591958582401276 0.011518952436745167 -0.087335951626300812 -0.73427385091781616 0.47605514526367188 -0.62825518846511841 0.46636122465133667 0.0046749175526201725 -0.22832825779914856 0.017204765230417252 -0.057653870433568954 -0.068405658006668091 0.20326167345046997 0.048362482339143753 -0.034533888101577759
  -1.2259094715118408 0.86509472131729126 0.57775914669036865 1.1553808450698853 0.66956812143325806 0.34935501217842102 0.15381583571434021 0.43665465712547302 -0.090724080801010132 -0.3050568699836731 -0.13904117047786713 0.064726538956165314 -0.90083473920822144 -0.017903169617056847 0.018543187528848648 0.011611113324761391 -0.019583964720368385 -0.031700614839792252 -0.074456289410591125 0.17626132071018219 0.071753837168216705 0.077594146132469177 0.1850840151309967 0.060412965714931488 -0.62551254034042358 -0.33114057779312134 -0.091422207653522491 -0.20970898866653442 -0.33523893356323242 -0.34298574924468994 -0.19326220452785492 -0.22440773248672485 -0.014784022234380245 0.1566915363073349 0.1551438570022583 0.12715627253055573 -0.20268653333187103 -0.43292158842086792 -0.14041386544704437 -0.28149360418319702 -0.34861871600151062 -0.34152507781982422 -0.25133031606674194 -0.28506600856781006 0.13991877436637878 0.20207473635673523 0.096575208008289337 0.095687121152877808 0.94739365577697754 -0.24153187870979309 -0.15745797753334045 -0.38739109039306641 -0.33205857872962952 -0.008002561517059803 -0.1851603090763092 -0.052460312843322754 0.058255758136510849 0.22013577818870544 0.11366958916187286 0.064440280199050903
  0.6648639440536499 -0.4369635283946991 0.20460386574268341 0.36719924211502075 0.122811459004879 -0.4206499457359314 -0.41635483503341675 -0.1241980567574501 -0.20821613073348999 -0.17564684152603149 0.15007942914962769 -0.15886236727237701 0.46386134624481201 0.058821305632591248 -0.37129426002502441 0.12469043582677841 0.28738361597061157 -0.1356237530708313 -0.11574520915746689 0.14194211363792419 -0.19033995270729065 0.11448796838521957 0.14014770090579987 -0.11169856786727905 0.49733567237854004 0.54271543025970459 -0.10775899142026901 -0.0035684520844370127 -0.10090908408164978 0.059511423110961914 0.11666889488697052 0.010097404941916466 -0.3496914803981781 0.10926099121570587 0.16501510143280029 -0.045743986964225769 0.12594360113143921 0.14440836012363434 0.015089863911271095 -0.14130434393882751 -0.19086705148220062 0.20667149126529694 0.20647001266479492 -0.10786796361207962 -0.24950578808784485 0.026667051017284393 0.14029943943023682 0.044528394937515259 -0.30984154343605042 -0.54225879907608032 -0.45225265622138977 -0.52522182464599609 0.024901151657104492 0.53476423025131226 0.25732842087745667 -0.41823959350585938 -0.055316634476184845 0.14959153532981873 0.0023700071033090353 0.18845489621162415
  -0.011025779880583286 0.33396252989768982 0.7982596755027771 0.072615668177604675 -0.40208223462104797 -0.19902020692825317 0.24663054943084717 -0.11362140625715256 -0.25808224081993103 -0.32301586866378784 0.0013653867645189166 -0.10244493931531906 0.15587884187698364 -0.38475480675697327 -0.098438926041126251 -0.22683878242969513 0.016360091045498848 0.036728966981172562 -0.054615374654531479 -0.18267397582530975 -0.17841184139251709 0.01963345892727375 -0.013733994215726852 -0.032626159489154816 -0.18226885795593262 -0.73074507713317871 -0.53277391195297241 -0.15900620818138123 0.41809812188148499 0.11023630201816559 -0.26004877686500549 -0.23869799077510834 -0.068232521414756775 0.20781566202640533 -0.045485258102416992 0.094827085733413696 -0.031980220228433609 -0.40414240956306458 -0.2537960410118103 -0.073217473924160004 0.26486888527870178 -0.061739183962345123 -0.32966208457946777 -0.11555890738964081 0.20121251046657562 0.2177949994802475 -0.010559891350567341 0.010076098144054413 0.21705685555934906 0.62374168634414673 1.0643301010131836 0.67643994092941284 -0.17047737538814545 -0.29462108016014099 -0.065860986709594727 -0.092929325997829437 0.24361906945705414 -0.16133134067058563 0.00072701321914792061 -0.2566070556640625
  -0.72043371200561523 -1.0863851308822632 -0.56545895338058472 -0.65501385927200317 -0.13107472658157349 0.096688076853752136 0.1118122786283493 -0.081261873245239258 0.2096884548664093 -0.10156382620334625 -0.0099475672468543053 -0.10139551758766174 -0.33089342713356018 -0.30918928980827332 -0.16558389365673065 -0.38294026255607605 -0.23619984090328217 -0.20512869954109192 -0.096889175474643707 -0.076320730149745941 -0.029988840222358704 0.035696662962436676 0.10211610794067383 -0.0088363969698548317 -0.25405928492546082 0.057595357298851013 0.076056301593780518 -0.056732434779405594 -0.051397502422332764 -0.17727610468864441 -0.15077167749404907 -0.055635079741477966 -0.1472812294960022 0.085689432919025421 0.030983308330178261 0.093078888952732086 0.37141460180282593 0.33581289649009705 0.26251223683357239 0.17053337395191193 0.09943031519651413 0.028769295662641525 -0.11473963409662247 -0.073621988296508789 -0.045952610671520233 0.074307844042778015 -0.010779974982142448 -0.0038114406634122133 -0.12307751923799515 1.0272892713546753 0.0053098453208804131 0.77840119600296021 0.76380717754364014 0.60799121856689453 0.26978984475135803 -0.14186957478523254 -0.12780418992042542 0.082951962947845459 -0.26653161644935608 -0.1398938000202179
  -1.4121404886245728 0.31706741452217102 0.30382218956947327 0.44106951355934143 0.112045519053936 -0.13829082250595093 -0.35095986723899841 0.20738250017166138 -0.080657236278057098 -0.22689899802207947 0.24779179692268372 0.27258506417274475 -0.88116872310638428 0.10036163777112961 0.073285683989524841 0.067641705274581909 0.0055603203363716602 -0.080887168645858765 -0.05948382243514061 0.29556787014007568 -0.13062812387943268 -0.175853431224823 0.058009423315525055 0.042796403169631958 -0.44849801063537598 0.095198161900043488 0.024735592305660248 0.134658083319664 0.07344362884759903 -0.10764322429895401 0.047843556851148605 0.14105823636054993 -0.12879328429698944 -0.084455311298370361 -0.069838382303714752 0.00581787945702672 -0.14301095902919769 0.11791414022445679 0.027848565950989723 0.13230174779891968 0.15642654895782471 -0.10933326184749603 -0.0058886678889393806 -0.013440130278468132 -0.086125656962394714 -0.018478211015462875 -0.11362134665250778 -0.043927513062953949 0.56891167163848877 -0.29851189255714417 -0.20733031630516052 -0.070689573884010315 -0.093013286590576172 -0.18993934988975525 -0.10641581565141678 -0.10613097995519638 0.028530200943350792 0.047437358647584915 -0.062885716557502747 -0.096711620688438416
  -0.26553076505661011 0.44153398275375366 0.27629354596138 0.14526475965976715 -0.10617039352655411 0.039951518177986145 -0.16426724195480347 -0.066386409103870392 0.077163398265838623 -0.056241344660520554 -0.014769932255148888 0.22198851406574249 -0.051155414432287216 0.076704882085323334 -0.03891647607088089 -0.15201261639595032 0.11190015822649002 -0.038363236933946609 -0.29515346884727478 0.16776251792907715 -0.044803302735090256 0.064828850328922272 0.078817069530487061 -0.15048198401927948 -0.17041514813899994 -0.021653857082128525 -0.030279820784926414 -0.2408217191696167 0.18931113183498383 -0.092565074563026428 -0.38064485788345337 0.338489830493927 -0.11042662709951401 -0.052826907485723495 0.13491334021091461 -0.18883703649044037 0.018297575414180756 0.10627511888742447 0.013695861212909222 -0.2499106228351593 0.12602126598358154 -0.14476373791694641 -0.24243900179862976 0.2724241316318512 -0.10134132951498032 -0.17193393409252167 0.080124206840991974 -0.11619000136852264 -0.68848824501037598 0.54040396213531494 0.3311811089515686 -0.20823520421981812 -0.10826101154088974 0.11230988800525665 -0.069463863968849182 0.14210328459739685 -0.016555093228816986 -0.32618236541748047 0.043207783252000809 -0.16946177184581757
  1.4271374940872192 0.019312245771288872 0.66582965850830078 0.087038353085517883 -0.0209963358938694 -0.033698350191116333 0.059927996248006821 0.03825715184211731 -0.025315755978226662 -0.15180006623268127 0.16239972412586212 -0.12622007727622986 0.84915828704833984 0.017726948484778404 0.21216402947902679 0.158673495054245 -0.25043922662734985 -0.032123632729053497 -0.009867505170404911 -0.052679460495710373 0.078174404799938202 -0.07638375461101532 0.060154549777507782 -0.045246411114931107 0.2087857723236084 -0.14660842716693878 -0.089763343334197998 0.1221173033118248 -0.26026791334152222 0.0062029990367591381 0.066361472010612488 -0.053994763642549515 0.0289652980864048 -0.021444519981741905 -0.011470789089798927 0.036865647882223129 -0.61519718170166016 -0.10621191561222076 -0.56406712532043457 0.047860730439424515 -0.10307236760854721 0.12026659399271011 -0.019490901380777359 0.013269598595798016 -0.070874564349651337 0.099006213247776031 -0.099329352378845215 0.082219332456588745 -2.7701637744903564 0.75855904817581177 -0.70328515768051147 -0.081948883831501007 0.80429452657699585 0.28247562050819397 -0.16053351759910583 0.33736029267311096 -0.22446125745773315 0.32345080375671387 -0.40384137630462646 0.26834636926651001
  0.2890816330909729 -0.072446294128894806 -0.36030307412147522 -0.21924577653408051 0.30466997623443604 0.10245450586080551 0.47508668899536133 0.25521782040596008 0.074287228286266327 -0.26308205723762512 -0.36048704385757446 -0.19526806473731995 -0.29325312376022339 0.17412526905536652 0.063392750918865204 -0.26994422078132629 0.24009069800376892 0.25679254531860352 0.50543427467346191 0.21403253078460693 -0.0069987727329134941 -0.21792252361774445 0.015547255985438824 0.029674720019102097 -0.43846753239631653 0.46453669667243958 0.244391068816185 -0.11871933937072754 0.3685663640499115 0.38254493474960327 0.60026484727859497 0.11637289822101593 -0.045898586511611938 -0.10398056358098984 0.068092487752437592 0.021832086145877838 -0.39596402645111084 0.30635836720466614 0.34521713852882385 0.01901230588555336 0.18881992995738983 0.30187729001045227 0.54649442434310913 0.14716947078704834 -0.036673020571470261 -0.090022929012775421 -0.0016012272099032998 -0.09781164675951004 -0.33472234010696411 -0.33033612370491028 0.28321081399917603 0.11588737368583679 -0.095941357314586639 0.02793731726706028 0.58323973417282104 0.43787404894828796 0.19726860523223877 -0.069976426661014557 -0.21275782585144043 -0.16428618133068085
  0.42046895623207092 0.82626193761825562 0.38394701480865479 0.34738278388977051 0.026483183726668358 -0.078470267355442047 -0.02181616984307766 -0.51312988996505737 -0.13893863558769226 0.027240365743637085 -0.026955898851156235 -0.033200684934854507 0.29219987988471985 0.11752796173095703 0.076836772263050079 -0.018960632383823395 -0.35321682691574097 -0.25022014975547791 -0.089285463094711304 -0.22859786450862885 -0.11127158999443054 0.15906073153018951 0.04743565246462822 0.071536839008331299 0.0063394303433597088 -0.26766875386238098 -0.11477421969175339 -0.17047517001628876 -0.24178773164749146 -0.15831345319747925 -0.13454340398311615 -0.036653321236371994 -0.060447670519351959 0.16341468691825867 0.089936874806880951 0.17485451698303223 0.25412070751190186 -0.31599047780036926 -0.16841061413288116 -0.21452558040618896 -0.081966452300548553 -0.14228793978691101 -0.077439963817596436 0.16165955364704132 0.067969389259815216 0.060460548847913742 0.11431430280208588 0.10140298306941986 0.95654803514480591 -0.85978794097900391 -0.31534156203269958 -1.0386534929275513 -0.011117408983409405 0.17819710075855255 0.095321640372276306 0.54677504301071167 0.41475504636764526 -0.1351519376039505 0.1322605311870575 -0.36760514974594116
  0.33264252543449402 -0.21865059435367584 -0.38575237989425659 -0.30045539140701294 0.27278420329093933 0.041938275098800659 -0.20328125357627869 0.18660518527030945 0.23110763728618622 -0.19492039084434509 -0.2204398512840271 -0.24606505036354065 0.069130755960941315 0.11409060657024384 0.11979558318853378 0.22403931617736816 0.24770933389663696 -0.0425000861287117 -0.10246559977531433 0.053943466395139694 -0.041519656777381897 -0.19822561740875244 -0.16974037885665894 -0.0080417385324835777 -0.040816493332386017 0.33640632033348083 0.37051394581794739 0.61770921945571899 0.26231589913368225 -0.013056560419499874 -0.11258029937744141 -0.27077466249465942 -0.24240529537200928 -0.11902675032615662 -0.15936696529388428 0.040207840502262115 -0.098488911986351013 0.39600363373756409 0.50543570518493652 0.34192490577697754 -0.088564842939376831 -0.0104013467207551 -0.042539205402135849 -0.35957545042037964 -0.29474404454231262 -0.034703988581895828 -0.046864792704582214 0.038084134459495544 0.48220822215080261 0.39757776260375977 0.49142134189605713 0.024722253903746605 -0.45001903176307678 -0.15421998500823975 -0.43211638927459717 -0.53168797492980957 -0.27329537272453308 0.026508308947086334 -0.00082602992188185453 -0.016853144392371178
  0.33326855301856995 0.28966307640075684 0.27239707112312317 0.042287643998861313 -0.019165853038430214 0.013419201597571373 0.30345776677131653 0.038993116468191147 0.12984877824783325 0.025294795632362366 -0.23833806812763214 -0.064176462590694427 -0.035145416855812073 0.4326096773147583 -0.040466960519552231 -0.087334193289279938 0.00046378577826544642 -0.0031872096005827188 0.013550556264817715 0.015933476388454437 -0.035047806799411774 0.067483171820640564 0.063583552837371826 0.031589020043611526 0.10114718228578568 0.68802148103713989 0.15140816569328308 -0.0908656045794487 0.0047621899284422398 0.071703441441059113 -0.026550769805908203 -0.062423750758171082 -0.043838407844305038 0.050987385213375092 0.045155424624681473 -0.051489062607288361 -0.14438551664352417 0.36224839091300964 0.25636851787567139 -0.1650845855474472 -0.21702080965042114 0.075836129486560822 -0.021629646420478821 -0.036850672215223312 -0.074734099209308624 -0.0351363904774189 0.038423016667366028 -0.068323969841003418 0.2774483859539032 0.074473164975643158 0.18179048597812653 -0.21007426083087921 -0.18983985483646393 -0.045168366283178329 0.096630886197090149 -0.20657514035701752 -0.021118596196174622 -0.049531176686286926 -0.081948012113571167 -0.084213912487030029 ]
 [ 0.8562018871307373 -1.8303132057189941 2.8220741748809814 2.3253443241119385 0.12996460497379303 2.9428732395172119 -2.5850830078125 -4.7027420997619629 -2.2044699192047119 1.8542767763137817 2.7821769714355469 -2.1991016864776611 -0.54417461156845093 -0.46485370397567749 0.4923059344291687 -0.79249846935272217 0.60324728488922119 0.80761188268661499 0.90761178731918335 -1.2074261903762817 2.5089883804321289 -1.9085360765457153 -1.1257780790328979 -1.6515506505966187 -0.3117525577545166 2.7443113327026367 2.6855669021606445 -2.135066032409668 -2.9023332595825195 -4.3877906799316406 3.1441702842712402 -1.1373742818832397 -2.3245244026184082 0.91154175996780396 1.0442612171173096 -2.0291717052459717 -3.5464894771575928 5.5560827255249023 -3.4630062580108643 -2.4178006649017334 2.0902111530303955 ]
<sigmoid> 41 41
<affinetransform> 42 41
 [ 
  -0.34196552634239197 -0.93319171667098999 -0.01057947613298893 -0.017752546817064285 0.24906665086746216 0.10088381916284561 0.68731528520584106 -0.69830018281936646 1.5342650413513184 0.77513182163238525 0.50017482042312622 -0.85044252872467041 -1.3862473964691162 0.0093238772824406624 -0.54632192850112915 -1.3348946571350098 -1.0640723705291748 -1.1008718013763428 -0.038394805043935776 0.76887738704681396 -0.61914569139480591 -0.76797312498092651 1.2543776035308838 -0.9827083945274353 -1.0866727828979492 1.0512428283691406 0.82519876956939697 -0.72270649671554565 -0.1263260543346405 0.87461757659912109 1.0137252807617188 0.75614720582962036 0.26959317922592163 1.6465750932693481 -0.51459074020385742 0.058672267943620682 0.36482679843902588 0.33247783780097961 -1.4357821941375732 0.30562373995780945 -0.028365947306156158
  0.18947561085224152 0.40839877724647522 -1.6109671592712402 0.19807596504688263 0.29347485303878784 0.37297886610031128 -1.0851244926452637 -0.29883047938346863 0.53214818239212036 0.30877146124839783 0.71494066715240479 0.80821490287780762 0.28298911452293396 -0.36252453923225403 0.070286378264427185 -1.6400504112243652 0.17534743249416351 -0.83575844764709473 1.0548169612884521 0.01490675937384367 -0.45049756765365601 -0.97480165958404541 1.0970669984817505 1.4756877422332764 -1.1416189670562744 -0.55872297286987305 0.16659070551395416 -1.4083946943283081 -0.55388921499252319 -0.30607870221138 -0.47229883074760437 -0.8636704683303833 -0.49429970979690552 0.98009443283081055 -0.092481121420860291 0.46025958657264709 -0.6321379542350769 0.25885644555091858 0.020569542422890663 -0.88211929798126221 0.21100793778896332
  -0.38180363178253174 0.71543556451797485 -0.98500949144363403 -0.16887868940830231 0.093057654798030853 0.68480068445205688 -0.15641283988952637 0.20499895513057709 0.72525709867477417 0.87910133600234985 0.0077618109062314034 0.19045498967170715 -0.28956452012062073 -0.014386411756277084 0.82700389623641968 -0.3024010956287384 0.21267832815647125 0.73383402824401855 0.4459458589553833 1.3214298486709595 -0.47503948211669922 0.040401313453912735 0.87375938892364502 1.6437224149703979 -0.20186974108219147 0.16344881057739258 -0.4988512396812439 -1.5858502388000488 0.40380457043647766 0.5504305362701416 -0.11186168342828751 -0.1361355185508728 0.099077425897121429 -0.53704631328582764 0.37979501485824585 0.040100783109664917 0.022004084661602974 0.85063618421554565 -0.30565795302391052 0.11220201849937439 -0.58862036466598511
  -0.068692505359649658 0.031501591205596924 1.2194774150848389 0.25745522975921631 -0.48375365138053894 1.0088291168212891 -0.078836433589458466 0.10150369256734848 0.76253116130828857 -1.2219879627227783 -0.20221942663192749 1.6268672943115234 -0.091689534485340118 -0.37965598702430725 0.39813098311424255 0.38319951295852661 0.025181695818901062 -1.1206333637237549 -0.27060103416442871 -0.38379564881324768 -0.31608998775482178 -0.070778071880340576 -1.4040335416793823 0.67748153209686279 -0.65509617328643799 -0.72051513195037842 -0.51450479030609131 0.20835788547992706 -0.29094460606575012 -0.089330635964870453 0.16654008626937866 0.71113711595535278 -0.50694495439529419 -0.59393322467803955 -0.081909611821174622 -1.0092358589172363 -1.0552914142608643 0.91952359676361084 0.30182850360870361 0.64487463235855103 0.24328289926052094
  0.33457064628601074 -1.1213902235031128 0.072041191160678864 -0.78434455394744873 -0.48631659150123596 -0.0031485457438975573 -0.79169422388076782 0.16736142337322235 0.84534245729446411 -0.31262540817260742 0.45787841081619263 0.075745046138763428 0.57389140129089355 -0.89315199851989746 0.14455702900886536 0.36245435476303101 -0.2295474112033844 0.11279116570949554 -0.067254677414894104 0.65406882762908936 -0.59169477224349976 0.72334998846054077 -0.24794308841228485 -0.50515943765640259 -0.54503011703491211 -0.34834334254264832 -0.53691667318344116 0.38622257113456726 -1.0224578380584717 -0.84385961294174194 0.23003645241260529 -0.65807861089706421 0.65115165710449219 -1.1195188760757446 0.30005776882171631 -0.62631785869598389 0.058047160506248474 0.2993963360786438 -0.83600848913192749 -0.21338999271392822 -0.61026209592819214
  -0.83520799875259399 0.19330126047134399 -1.0501178503036499 0.25160476565361023 0.44544303417205811 -1.3721103668212891 0.5024142861366272 0.70929288864135742 0.66080611944198608 0.52577245235443115 -0.49718332290649414 -0.22688102722167969 -0.60273921489715576 -0.545509934425354 0.29621759057044983 0.53191214799880981 1.4581544399261475 0.52833718061447144 -0.48884019255638123 -0.75082814693450928 0.39097839593887329 0.83883190155029297 0.64529931545257568 -1.0253229141235352 0.053861387073993683 0.046244598925113678 -0.71268564462661743 -1.7294166088104248 0.81446689367294312 -0.80997270345687866 -0.22230437397956848 -0.095230430364608765 -0.82499808073043823 0.29931306838989258 -0.067442461848258972 1.3308160305023193 1.2907739877700806 0.64865076541900635 0.29585942625999451 -0.085724659264087677 0.99991852045059204
  0.091962553560733795 -0.60184955596923828 0.004952555987983942 0.87499868869781494 0.09982144832611084 -0.18453498184680939 -0.4776785671710968 -0.35571956634521484 0.12805718183517456 -1.195220947265625 -0.40222468972206116 0.62455308437347412 0.13771986961364746 0.98930943012237549 -0.19387628138065338 0.38345101475715637 0.54401767253875732 0.35388213396072388 1.5252958536148071 -0.23677918314933777 0.60108906030654907 0.2497173547744751 -0.69163495302200317 -0.010614779777824879 -0.83350890874862671 -0.66612434387207031 0.60132187604904175 0.54535222053527832 -0.52962654829025269 0.30710950493812561 -1.1226143836975098 -0.75450438261032104 -0.42477083206176758 -0.0084449825808405876 0.93335950374603271 -0.81202375888824463 -0.78899884223937988 0.69521385431289673 1.236430287361145 0.1102820411324501 -0.15046025812625885
  0.27712723612785339 0.38509893417358398 1.0268987417221069 -1.0138314962387085 0.64969158172607422 0.20250934362411499 -0.50854271650314331 -0.28283309936523438 -2.3028731346130371 0.343253493309021 3.1309623718261719 -1.8189011812210083 0.44249999523162842 2.415926456451416 -1.3608503341674805 -1.9530191421508789 -1.3517528772354126 0.058664791285991669 0.77792483568191528 0.24456183612346649 -0.52357381582260132 -1.6112656593322754 0.26327985525131226 0.48651987314224243 -0.31792163848876953 1.0708826780319214 0.912986159324646 0.16338714957237244 -0.18348826467990875 0.47720262408256531 1.0448762178421021 -1.8222250938415527 0.3493632972240448 -1.3163280487060547 0.10935579985380173 -0.35257554054260254 -0.634990394115448 -0.87216198444366455 -0.38068214058876038 -2.6409304141998291 0.034709438681602478
  1.5850502252578735 0.15621602535247803 0.55367279052734375 -1.4995592832565308 0.13526083528995514 -0.066471993923187256 0.28070321679115295 -0.050495609641075134 0.4303184449672699 -0.027533587068319321 1.3896666765213013 -0.59330064058303833 -0.087002933025360107 1.2767500877380371 -0.95550787448883057 -0.49253338575363159 -0.66457641124725342 0.98213112354278564 0.86944812536239624 0.93116277456283569 -0.77663326263427734 -0.75639772415161133 0.25423061847686768 0.22668050229549408 0.085103556513786316 0.41530215740203857 -0.058319341391324997 -0.68158018589019775 0.0073899244889616966 0.45234546065330505 -0.21965546905994415 -0.29735887050628662 -0.44252172112464905 0.25804102420806885 0.69548404216766357 -0.12273500859737396 -0.21038143336772919 0.26932570338249207 0.54879540205001831 -1.0388038158416748 -0.37975072860717773
  0.61826300621032715 0.33305269479751587 1.1539913415908813 -0.69906008243560791 0.6857110857963562 0.073393382132053375 0.2490619421005249 -0.24680939316749573 -0.14909082651138306 0.14207826554775238 0.97783446311950684 1.2178703546524048 -1.4606748819351196 -0.44317841529846191 0.52393656969070435 0.42998290061950684 -1.0419255495071411 -0.66457235813140869 -0.49386054277420044 -0.89629024267196655 0.46281799674034119 1.0705423355102539 -0.87883567810058594 -0.33405059576034546 -0.045553889125585556 -0.47314530611038208 0.060852613300085068 -0.09415484219789505 -0.6867375373840332 0.19312708079814911 -0.32604745030403137 -0.50741350650787354 0.85223078727722168 -0.66127365827560425 -0.47852954268455505 0.070367254316806793 0.56575757265090942 0.40771567821502686 -0.30022257566452026 0.61437439918518066 -0.60566407442092896
  -0.17126303911209106 0.65384179353713989 -0.43649867177009583 0.48638474941253662 -0.76647883653640747 -0.22160987555980682 0.57866907119750977 -0.16302193701267242 -0.49928456544876099 0.77684742212295532 -0.70453566312789917 0.23506258428096771 -0.38725972175598145 0.79511338472366333 -0.39883643388748169 -0.56039214134216309 0.2911076545715332 -1.2749670743942261 -0.020081676542758942 0.28090104460716248 0.70663607120513916 0.71643912792205811 -0.053094685077667236 -0.050719950348138809 -0.39815378189086914 0.095857314765453339 -0.76955956220626831 0.55878078937530518 0.75364041328430176 0.69193339347839355 0.29978606104850769 1.4450640678405762 -0.26954618096351624 -0.73063981533050537 0.75332075357437134 0.59787517786026001 -0.46547582745552063 0.8144524097442627 1.1477344036102295 0.57653594017028809 -0.58951890468597412
  0.10591916739940643 -0.8351447582244873 0.18114979565143585 -1.180538535118103 0.55981409549713135 -0.9698941707611084 0.53114259243011475 -0.64753806591033936 0.57238602638244629 0.02169802226126194 -0.96488410234451294 0.85165238380432129 -0.37633815407752991 0.65081673860549927 -0.98595625162124634 0.070034287869930267 0.85204529762268066 0.5804627537727356 0.79022479057312012 -0.27872881293296814 -0.11659048497676849 0.43831741809844971 0.15132862329483032 0.22610343992710114 -0.85383510589599609 -0.78351014852523804 -0.50526738166809082 0.26046356558799744 -0.64884340763092041 0.91943448781967163 0.53191471099853516 -0.7651793360710144 0.9347655177116394 -1.1881880760192871 -0.69074523448944092 0.59276086091995239 -0.1793287992477417 -0.046695496886968613 -0.42703491449356079 0.52174091339111328 -0.17604711651802063
  -0.2828008234500885 0.41187769174575806 0.30662807822227478 0.032430693507194519 0.41201129555702209 0.88560432195663452 1.4465039968490601 -0.39875456690788269 -0.27729454636573792 1.7711623907089233 0.33513692021369934 0.58506739139556885 0.1638905256986618 -0.29840901494026184 0.30362913012504578 0.78761696815490723 -0.53755122423171997 -1.0493956804275513 -0.012313911691308022 -0.33246463537216187 1.3174108266830444 1.09367835521698 -0.38582056760787964 1.6250264644622803 0.0016137047205120325 -1.7306371927261353 -1.6957021951675415 0.096734218299388885 1.7694770097732544 -0.71090811491012573 0.065958097577095032 -0.44923576712608337 -0.81907051801681519 -0.5691717267036438 0.42381221055984497 0.4156670868396759 0.38187158107757568 -0.91890245676040649 -1.3944470882415771 0.2881600558757782 0.081317998468875885
  0.11203693598508835 0.82469636201858521 0.8844749927520752 -0.25683671236038208 0.39649021625518799 0.46894308924674988 0.54394185543060303 0.38405102491378784 -0.95342379808425903 -0.89657771587371826 -1.2850407361984253 -0.51743459701538086 0.12794405221939087 -0.54868686199188232 -0.085878193378448486 1.2514959573745728 -1.0837572813034058 0.35124760866165161 0.22747321426868439 -0.15636377036571503 0.13669992983341217 0.52170455455780029 -0.22319594025611877 -0.41430133581161499 0.42803534865379333 -0.53710579872131348 0.13560467958450317 -0.26389285922050476 1.654568076133728 -0.97211766242980957 0.11910295486450195 0.42840206623077393 -0.8027532696723938 0.47782397270202637 -0.4673554003238678 -0.80596727132797241 -0.045846570283174515 -1.0413463115692139 -0.12394943088293076 -0.60290288925170898 0.36962041258811951
  -0.70260453224182129 0.42329445481300354 -0.57865285873413086 -1.6950827836990356 1.5071905851364136 0.16955511271953583 1.3886061906814575 1.1501032114028931 -0.023595927283167839 -1.6825323104858398 -0.29933017492294312 -1.1613007783889771 0.053985930979251862 -1.2529518604278564 -1.0955454111099243 -0.011472618207335472 -0.0071332007646560669 0.85820180177688599 -0.63485878705978394 1.1474525928497314 0.10932232439517975 0.35164892673492432 -1.1286149024963379 0.41848242282867432 -0.34234511852264404 0.25544065237045288 0.13418076932430267 0.2094026505947113 0.38867107033729553 0.23368051648139954 0.72497063875198364 -0.4298509955406189 0.79940426349639893 0.12805835902690887 -0.019029462710022926 0.34790694713592529 -1.0332021713256836 -0.10004162043333054 0.83683687448501587 -0.067465148866176605 -0.064886189997196198
  0.41855588555335999 1.442021369934082 -0.59910619258880615 0.14697279036045074 0.46182551980018616 0.56484085321426392 1.0877252817153931 1.1709790229797363 0.82054513692855835 0.54478663206100464 -1.5155016183853149 -0.71752309799194336 0.84961849451065063 -0.99530190229415894 0.18011021614074707 -0.10385949909687042 -0.53306925296783447 0.56270116567611694 -1.4072409868240356 1.1937167644500732 -1.2599506378173828 -0.0022746692411601543 -1.1086134910583496 -0.44225019216537476 -0.29448169469833374 1.2026786804199219 0.85893023014068604 0.35321122407913208 0.28580573201179504 0.70467543601989746 1.259366512298584 -0.037953995168209076 0.096248023211956024 0.630973219871521 -0.5002131462097168 0.40546995401382446 -0.39790540933609009 0.50859814882278442 -0.97640055418014526 0.0014200254809111357 0.0093070110306143761
  -0.85582840442657471 1.0865315198898315 -0.25336864590644836 1.3228150606155396 0.3462023138999939 -0.83579802513122559 0.11571478098630905 1.0716571807861328 0.54416376352310181 -0.46775993704795837 -0.96672040224075317 -0.26891487836837769 0.74466222524642944 0.25234410166740417 -2.1254417896270752 0.10350781679153442 0.74231541156768799 1.353959321975708 -1.0515773296356201 -0.17590799927711487 0.91160410642623901 1.144782543182373 0.78289133310317993 0.33568990230560303 0.27970194816589355 -0.19326719641685486 0.89361280202865601 -1.8602129220962524 0.39121893048286438 0.44327908754348755 -1.5044349431991577 -1.0077145099639893 0.021431552246212959 -0.97075396776199341 -0.45191973447799683 1.3657119274139404 0.56817412376403809 0.22772315144538879 1.1299532651901245 1.3359774351119995 -0.0026351569686084986
  -0.15831790864467621 0.61700332164764404 0.2914671003818512 0.22760263085365295 -2.339205265045166 -2.3218190670013428 1.4113402366638184 -1.5901079177856445 -0.53225600719451904 1.6596300601959229 -0.54204964637756348 0.57782566547393799 0.56712687015533447 1.4896906614303589 -0.43625840544700623 0.0081150196492671967 0.57858026027679443 -0.13135944306850433 1.0210152864456177 -1.6007794141769409 0.84617096185684204 -0.29590022563934326 -1.0391894578933716 0.52080321311950684 1.0218638181686401 -0.79691612720489502 -0.32409745454788208 0.43164515495300293 1.7408708333969116 -1.2053240537643433 0.55684930086135864 1.0888000726699829 2.1769979000091553 -0.14160694181919098 0.52837789058685303 -0.9871862530708313 2.0136735439300537 1.0220369100570679 -1.2458207607269287 0.25535544753074646 0.15337856113910675
  0.18468739092350006 -0.4129120409488678 0.96614646911621094 -1.0810247659683228 -0.13006900250911713 -0.87392187118530273 -0.088206306099891663 -0.50391781330108643 -1.3506057262420654 0.15013653039932251 0.24095962941646576 -0.75617861747741699 -0.98348730802536011 -0.38981756567955017 -0.41957032680511475 0.62088215351104736 -0.35089346766471863 -0.32539290189743042 0.6127854585647583 -1.0723657608032227 1.1969528198242188 1.5597342252731323 1.0524104833602905 -0.50522273778915405 0.35546329617500305 0.63395959138870239 -0.84357094764709473 0.23602239787578583 1.1032724380493164 -1.1078611612319946 0.08043748140335083 0.34270006418228149 0.81796300411224365 -0.84577798843383789 0.11907527595758438 -0.0084207067266106606 -0.34976917505264282 -0.65589481592178345 -0.16361446678638458 0.35378211736679077 -0.025214746594429016
  0.76814806461334229 0.30652898550033569 0.92680847644805908 0.18866108357906342 0.60961472988128662 -0.5096014142036438 0.11975190043449402 -0.87213307619094849 1.2462337017059326 0.55857104063034058 -1.0712361335754395 0.94407230615615845 0.72303533554077148 0.049342874437570572 -1.3374460935592651 -1.4877665042877197 -1.6910356283187866 -0.68446260690689087 1.1240397691726685 0.16687391698360443 -0.017675217241048813 0.51357722282409668 -0.17969779670238495 1.0615706443786621 0.93150269985198975 0.82103073596954346 -1.281025767326355 0.59868806600570679 -0.4614618718624115 1.3619184494018555 1.0885219573974609 0.45022296905517578 0.1802581399679184 0.21277385950088501 -0.476744145154953 -0.63348948955535889 -0.74966561794281006 0.45118376612663269 0.70349854230880737 1.3533122539520264 -0.040772117674350739
  -0.33127608895301819 0.054125379770994186 1.0508888959884644 0.22715961933135986 -0.04812227189540863 -0.90452343225479126 -0.36805728077888489 -0.76045513153076172 1.0513691902160645 -0.7469867467880249 0.33808904886245728 -0.67151898145675659 0.73849081993103027 0.27667787671089172 -0.71434050798416138 -0.079898633062839508 -0.4715951681137085 -0.33142054080963135 -0.32978585362434387 -0.62764942646026611 -0.95117849111557007 -0.58172589540481567 0.75153195858001709 -0.73760950565338135 0.033028002828359604 -0.91032826900482178 -0.72069293260574341 -0.36450597643852234 -0.018480956554412842 0.85189449787139893 -0.74561303853988647 -0.063541308045387268 0.72323256731033325 0.24450536072254181 -0.72762507200241089 0.67501205205917358 -0.0063964594155550003 0.068076483905315399 -0.72460001707077026 -0.74132615327835083 0.73891854286193848
  0.65898013114929199 0.09741518646478653 -0.67164278030395508 0.74822765588760376 0.1638035774230957 0.34503450989723206 -0.82880067825317383 -0.39125868678092957 1.4715561866760254 0.087181247770786285 -1.2787390947341919 0.081355780363082886 1.1363229751586914 -0.35431948304176331 -0.2022869884967804 -1.0976444482803345 -0.59549480676651001 -0.42744839191436768 -0.44285407662391663 -0.42421463131904602 0.87388157844543457 0.78514820337295532 0.84598708152770996 0.29166620969772339 -1.3005870580673218 0.71359342336654663 0.67817521095275879 1.0008947849273682 0.25495782494544983 0.78069412708282471 1.1466671228408813 0.40577006340026855 -0.62969952821731567 0.42792809009552002 -0.78622376918792725 0.89073038101196289 -0.81370055675506592 0.50465595722198486 0.56516003608703613 0.31506112217903137 -0.73703896999359131
  -1.3916733264923096 -0.65957331657409668 -0.62735664844512939 -0.20476117730140686 0.54622888565063477 0.53491491079330444 0.79555237293243408 0.12483657896518707 1.0425025224685669 -0.034938186407089233 -0.93322819471359253 -0.5226096510887146 -0.23327744007110596 -0.32229703664779663 -0.65280306339263916 0.21185287833213806 -0.38230207562446594 -0.22112621366977692 -0.20315323770046234 1.0036108493804932 -0.16516147553920746 0.43449297547340393 0.61433905363082886 -1.2544354200363159 -0.3678225576877594 0.70587670803070068 0.41912126541137695 0.2630954384803772 0.18071389198303223 0.020820450037717819 -0.84187084436416626 -0.65142661333084106 0.59652060270309448 -0.72793662548065186 -0.41391280293464661 -0.26212126016616821 -1.0406872034072876 0.56648093461990356 0.09571412205696106 -0.59131526947021484 -0.48339185118675232
  -0.2897169291973114 -1.5050594806671143 0.61050856113433838 0.8799394965171814 -0.58999496698379517 1.0354574918746948 1.3496860265731812 0.006725936196744442 0.55611783266067505 0.023075997829437256 2.0370857715606689 0.14034639298915863 0.13870961964130402 -0.92379903793334961 1.4532995223999023 0.31649240851402283 0.042431104928255081 0.3644045889377594 0.45945829153060913 0.99933332204818726 -0.17920458316802979 -0.27874100208282471 0.70301753282546997 -0.25109657645225525 0.91979420185089111 -0.65029162168502808 -1.5357077121734619 0.31387010216712952 -0.20863819122314453 -0.083079986274242401 -0.60267907381057739 -0.40569624304771423 1.0023846626281738 -0.49462440609931946 -0.54038530588150024 0.52989935874938965 -0.42583176493644714 -0.92999202013015747 0.6967388391494751 -1.5862318277359009 -0.1289372593164444
  0.19134397804737091 -0.61795961856842041 0.69704490900039673 0.81051987409591675 -0.51041263341903687 0.35766881704330444 0.7077101469039917 -0.076597519218921661 0.64914101362228394 -0.65900683403015137 0.90514010190963745 -0.31908544898033142 -0.057026579976081848 -0.5472216010093689 1.320178747177124 0.24452289938926697 0.00097205245401710272 1.0380954742431641 0.79151403903961182 0.40889596939086914 -0.81240397691726685 0.14493587613105774 0.62720984220504761 0.45490837097167969 0.56865584850311279 0.034116540104150772 -1.1212085485458374 0.1008121445775032 -0.17013569176197052 -0.16147011518478394 -0.36482065916061401 0.34842309355735779 1.1312694549560547 -0.058958139270544052 -0.49088186025619507 0.30457562208175659 -0.33882638812065125 0.1632167249917984 0.27286151051521301 -1.1790169477462769 0.44303199648857117
  -0.0054924557916820049 0.52996009588241577 1.0815705060958862 0.71065479516983032 0.56475621461868286 -0.31272125244140625 -0.052446462213993073 -0.23941038548946381 -0.59547275304794312 -0.097978867590427399 -0.99859732389450073 -0.67797952890396118 0.045724209398031235 0.1934199333190918 0.19920501112937927 -0.91790038347244263 -0.63943791389465332 -0.13275867700576782 0.51085507869720459 -0.49553528428077698 0.29682427644729614 1.0968824625015259 -0.62501227855682373 -0.41982820630073547 0.33940622210502625 -0.76202589273452759 -0.44771683216094971 -0.61921459436416626 -0.92830842733383179 -0.32516825199127197 0.39013078808784485 0.79663527011871338 0.10347528010606766 -0.73448210954666138 -0.84384489059448242 -1.0413223505020142 -0.59864252805709839 0.90747833251953125 0.05200977623462677 0.19947831332683563 0.18514074385166168
  -0.40260666608810425 -0.63946729898452759 -0.34351271390914917 -0.61460089683532715 -0.59215128421783447 -0.24512626230716705 -0.88175535202026367 0.68173319101333618 -0.3496931791305542 0.09049011766910553 -0.15910431742668152 -0.071131773293018341 0.24674095213413239 0.58134448528289795 0.15201586484909058 0.54426670074462891 -0.90171182155609131 0.73395931720733643 -0.58903384208679199 -0.25450503826141357 0.96194398403167725 0.3414541482925415 0.89832282066345215 -0.96138834953308105 -0.69483041763305664 -0.42446121573448181 0.49226850271224976 -0.4261382520198822 0.43710938096046448 -0.68165647983551025 -0.184885174036026 0.18167519569396973 0.25790444016456604 -0.91019344329833984 0.84898406267166138 -0.48163923621177673 0.41189596056938171 -1.0519692897796631 -0.053404618054628372 -0.65943539142608643 0.081554070115089417
  0.3149695098400116 -0.80191254615783691 -1.1122620105743408 -0.48026534914970398 -0.68161410093307495 1.4265676736831665 -0.21411769092082977 -0.46940851211547852 -0.39647504687309265 1.010942816734314 0.34168800711631775 -0.026334775611758232 0.055685516446828842 -0.71382302045822144 -0.33015066385269165 -0.42246893048286438 0.48282697796821594 -0.56335312128067017 0.3296489417552948 -0.26831582188606262 1.3346606492996216 -1.3972917795181274 -1.3732203245162964 -0.4116465151309967 0.01213943213224411 0.29655638337135315 0.75023078918457031 -1.1659995317459106 -0.23663726449012756 0.0081624947488307953 0.096430785953998566 -0.28467854857444763 0.34417203068733215 0.19339258968830109 -0.59119486808776855 -0.70947796106338501 -1.1817994117736816 0.92126810550689697 -1.2898894548416138 -0.536204993724823 0.423959881067276
  0.08998560905456543 0.63213950395584106 -0.9988061785697937 1.0605828762054443 0.61033976078033447 1.1318775415420532 -0.43469035625457764 0.57672876119613647 0.84235525131225586 -0.027618292719125748 0.070698760449886322 0.25865340232849121 0.92346096038818359 1.1114864349365234 0.26848939061164856 0.79149717092514038 0.06246744841337204 -1.1539747714996338 0.89292150735855103 -0.51751029491424561 0.22289475798606873 0.3130795955657959 0.090987905859947205 -1.2942187786102295 1.2495688199996948 0.27784863114356995 -0.82489430904388428 0.29334980249404907 0.15823468565940857 -0.088393829762935638 0.062895424664020538 -1.0507684946060181 -0.11570818722248077 -0.52127242088317871 -0.11343861371278763 -0.55781722068786621 -0.14189440011978149 -0.4753938615322113 1.1191291809082031 0.47317475080490112 -1.1156941652297974
  0.13650409877300262 0.87285494804382324 0.73073172569274902 0.080689199268817902 -0.57795798778533936 0.10424260795116425 -0.90705609321594238 -0.04116058349609375 0.37486556172370911 -1.0927032232284546 0.046747718006372452 0.49723762273788452 -0.22821477055549622 -0.60926467180252075 0.50147432088851929 0.72667193412780762 -0.24176575243473053 -0.17029470205307007 -0.58350247144699097 -0.13570135831832886 -0.43314352631568909 0.10829251259565353 -0.079413466155529022 0.58484774827957153 -0.64914065599441528 0.46226662397384644 0.59241420030593872 1.0515155792236328 0.97406524419784546 -0.29831266403198242 -0.076393909752368927 -0.9560280442237854 -0.58527976274490356 -1.29229736328125 0.3869183361530304 -0.070822782814502716 -0.52649903297424316 -1.3499071598052979 0.65306633710861206 0.64999556541442871 -0.63719719648361206
  0.69399780035018921 -0.98386180400848389 0.7511603832244873 0.30319115519523621 0.76893782615661621 -1.6129754781723022 -0.76325929164886475 2.2142817974090576 -0.74095505475997925 0.51484721899032593 0.74248218536376953 -0.037577547132968903 -0.81481003761291504 0.31269219517707825 0.17741145193576813 1.3980782032012939 0.18273246288299561 0.38408130407333374 0.37942129373550415 -0.081870809197425842 -0.40502354502677917 1.6916463375091553 1.0562201738357544 1.2690083980560303 -0.79216009378433228 -1.174464225769043 -0.044446822255849838 0.45880255103111267 -1.7336828708648682 1.2271157503128052 -1.5207812786102295 -0.10314586013555527 0.39754229784011841 -0.13086499273777008 -0.058746501803398132 -0.52784186601638794 1.5648678541183472 0.40392661094665527 0.0054929587058722973 -0.21149943768978119 1.0270531177520752
  -0.10291928052902222 -0.22141316533088684 -1.7432788610458374 0.11590682715177536 0.95989537239074707 -1.9569177627563477 0.069513045251369476 2.2054760456085205 1.7390316724777222 0.85545247793197632 -0.1994767040014267 0.65108984708786011 1.5284535884857178 -0.16981853544712067 -0.43428459763526917 1.8198250532150269 0.20411412417888641 1.0308817625045776 -0.61937952041625977 -0.59227442741394043 1.3977364301681519 1.4527690410614014 2.1448893547058105 -0.32792037725448608 -1.5200443267822266 -0.44071409106254578 0.4655209481716156 -0.38381215929985046 1.1680186986923218 0.051657229661941528 -1.8405469655990601 0.04272792860865593 -0.74663257598876953 0.17821270227432251 -0.28881865739822388 2.2390861511230469 1.9547073841094971 -0.49802574515342712 -0.081685058772563934 -1.4724464416503906 -0.20180262625217438
  -0.1533244252204895 -1.0503929853439331 1.1528240442276001 -0.035030156373977661 0.96634781360626221 -0.44170308113098145 -0.50735634565353394 -2.5479927062988281 -0.18800275027751923 -0.018056176602840424 1.1014976501464844 -1.7697925567626953 -0.52409613132476807 -1.009829044342041 1.7445348501205444 -1.1644887924194336 -1.701279878616333 0.16710512340068817 1.2479987144470215 -1.6407777070999146 0.62741744518280029 -1.8717688322067261 -1.3026572465896606 -0.97792518138885498 0.26076069474220276 0.81512999534606934 0.7047610878944397 0.32204234600067139 -1.2812033891677856 -1.2076908349990845 0.51178669929504395 -1.4518642425537109 -0.45180526375770569 1.2276229858398438 2.0681092739105225 -1.552661657333374 -1.5670907497406006 0.012529470957815647 -0.23094528913497925 -0.067665316164493561 -1.3732894659042358
  -0.047399401664733887 0.26730960607528687 0.35506850481033325 0.22090329229831696 0.23635454475879669 0.74209398031234741 0.40949520468711853 -2.1754939556121826 -0.88036608695983887 0.91699320077896118 1.1358568668365479 -0.87683045864105225 -1.3276705741882324 -1.5083593130111694 0.3521173894405365 -1.0542792081832886 -0.5728151798248291 0.75147563219070435 1.5383681058883667 -1.392781138420105 -0.090583674609661102 -0.63132989406585693 -1.5472503900527954 -0.71579569578170776 0.39698955416679382 2.040156364440918 -0.68566232919692993 -1.1049180030822754 -0.39847704768180847 -0.4136488139629364 0.4744950532913208 -1.5161752700805664 -0.45258837938308716 0.39749348163604736 0.57870084047317505 -1.54913330078125 -2.4237887859344482 -0.57399445772171021 -1.0140591859817505 0.031604036688804626 -0.13753095269203186
  0.31889352202415466 -0.24153746664524078 1.1248698234558105 -0.59765470027923584 0.19938556849956512 0.4641558825969696 0.22196416556835175 -3.1026244163513184 -0.2911190390586853 0.42599815130233765 1.4237093925476074 -1.1406664848327637 -0.55195063352584839 -1.2169796228408813 0.57229375839233398 -1.0541702508926392 -0.41813904047012329 -0.19361220300197601 1.3800698518753052 -1.9314171075820923 1.0292171239852905 -0.83512383699417114 -1.5786979198455811 -0.37468567490577698 0.34515058994293213 1.3774198293685913 0.068848587572574615 -1.0221414566040039 -0.58552157878875732 -0.78977411985397339 0.91519588232040405 -1.4660954475402832 -0.6825215220451355 1.02520751953125 0.55584293603897095 -0.94755464792251587 -2.6814255714416504 0.63606655597686768 -0.93882173299789429 0.16641846299171448 -1.9753649234771729
  0.24729031324386597 0.43808469176292419 0.42980551719665527 0.14398905634880066 0.91759693622589111 -1.0291416645050049 -0.67276257276535034 -0.077128209173679352 -0.37155398726463318 1.1758760213851929 -0.43977817893028259 -0.0037820388097316027 -0.094274289906024933 0.40271455049514771 0.1711333841085434 -0.51533257961273193 1.7357754707336426 -0.20969770848751068 -0.19362381100654602 -1.0381820201873779 0.76311582326889038 0.62112808227539062 0.27127450704574585 0.57527005672454834 0.14152280986309052 -0.82108920812606812 1.2129620313644409 -0.78753542900085449 -0.89417296648025513 -1.2593560218811035 -0.68723380565643311 0.18943995237350464 0.063225619494915009 -1.1217066049575806 -0.019670158624649048 -0.81786185503005981 0.35852554440498352 0.77760100364685059 -0.72354698181152344 -0.1392720639705658 1.3382577896118164
  0.45566815137863159 -1.0617774724960327 0.24137218296527863 0.88886600732803345 0.31327423453330994 -1.3182957172393799 0.3391139805316925 0.65887904167175293 -1.0967926979064941 -0.3163166344165802 -0.55293804407119751 -0.64306378364562988 -1.3985265493392944 0.080509781837463379 0.45425978302955627 0.595348060131073 1.0321627855300903 0.81842070817947388 -1.0904896259307861 -0.31661069393157959 0.19036063551902771 0.9492870569229126 -0.40153291821479797 -0.19518056511878967 -0.34404429793357849 -0.31958276033401489 -0.263872891664505 -0.55413371324539185 -0.96213549375534058 1.759865403175354 -0.073078729212284088 0.12291084229946136 0.12757016718387604 -0.27596363425254822 -0.79989033937454224 0.023748807609081268 1.7164770364761353 0.2701258659362793 -1.0544425249099731 0.42368689179420471 0.80744832754135132
  1.1417059898376465 -1.0169731378555298 0.55849021673202515 0.18846656382083893 0.043603699654340744 0.47444120049476624 -0.82723569869995117 0.35699528455734253 -0.11846496909856796 0.32265624403953552 1.113389253616333 0.065854966640472412 -1.0608139038085938 -0.73688668012619019 -0.49118077754974365 0.26620963215827942 0.34228304028511047 0.093690291047096252 -0.80090910196304321 0.13873989880084991 -0.31954538822174072 -1.2028310298919678 0.13816042244434357 0.84127038717269897 0.88593685626983643 0.20188410580158234 -0.4498583972454071 0.60756957530975342 -0.37223544716835022 0.35063841938972473 0.21375922858715057 0.15393300354480743 1.2724629640579224 -0.77734696865081787 -0.39934295415878296 0.85739719867706299 -0.060766324400901794 -0.66626375913619995 -0.71639156341552734 0.63963121175765991 -0.49771636724472046
  1.3713297843933105 -1.1101717948913574 0.11767573654651642 1.536288857460022 -0.39106547832489014 -1.4027746915817261 -0.069098100066184998 1.2888318300247192 1.0088685750961304 0.072805173695087433 1.0011847019195557 0.34124484658241272 -1.048725962638855 0.041757345199584961 -0.21515649557113647 0.15162526071071625 -0.74790817499160767 1.4970003366470337 -0.57155054807662964 1.1065067052841187 -0.59830951690673828 -1.0277278423309326 -0.67239183187484741 0.42860615253448486 0.65097701549530029 1.2918781042098999 -0.88585907220840454 0.34896957874298096 0.11371173709630966 0.6518741250038147 0.87324565649032593 -0.17907878756523132 0.20854027569293976 0.19816158711910248 -0.21467652916908264 0.011440702714025974 -0.27185755968093872 -0.17362105846405029 0.72065401077270508 0.30675944685935974 -0.30097225308418274
  1.3804956674575806 0.28325298428535461 -0.13623200356960297 0.75673031806945801 -0.14765650033950806 1.2356874942779541 0.28104576468467712 0.51032131910324097 -0.36637201905250549 0.62735706567764282 0.50026583671569824 0.73022180795669556 -0.30909129977226257 -0.34905090928077698 0.010470670647919178 -0.40271079540252686 0.3288942277431488 0.073143094778060913 0.59755569696426392 -0.065343767404556274 -0.70179939270019531 0.90364754199981689 0.78284680843353271 0.026352927088737488 -0.88970780372619629 -0.64202666282653809 -0.92831671237945557 -0.029541034251451492 -0.21418774127960205 -0.10884241014719009 -1.1353545188903809 0.079887643456459045 0.40798211097717285 0.31008315086364746 -0.59607237577438354 -0.37801250815391541 -0.61558550596237183 0.27799451351165771 0.88051456212997437 0.018786132335662842 -0.35825243592262268
  -1.1725571155548096 1.5756374597549438 -0.35673275589942932 -0.54721689224243164 0.56381702423095703 0.56779849529266357 0.48282501101493835 -0.91329741477966309 -0.24891670048236847 0.66643816232681274 -0.91333383321762085 -0.32208770513534546 -0.028356131166219711 -0.66749852895736694 0.98084938526153564 0.82455152273178101 -0.19788740575313568 -0.42126613855361938 -0.63330715894699097 1.3323771953582764 -0.425803542137146 0.523479163646698 -0.10675761103630066 0.095583826303482056 0.48416626453399658 -0.46221598982810974 0.50801652669906616 0.29985418915748596 0.44155624508857727 0.14735880494117737 1.1668803691864014 0.37070965766906738 -0.28697457909584045 -0.84167963266372681 0.15231290459632874 0.28262314200401306 -0.92004495859146118 -0.36303341388702393 0.56126308441162109 0.94584506750106812 0.10841096192598343
  -0.034719508141279221 -0.5906563401222229 -0.63480734825134277 0.62600076198577881 -1.186853289604187 -0.36724638938903809 0.54684364795684814 0.45543813705444336 0.37881788611412048 -1.3524559736251831 -1.0603721141815186 -0.10856243222951889 -1.8660441637039185 0.22827675938606262 -0.1579301506280899 -0.26667273044586182 2.0287454128265381 -0.32237949967384338 -0.65338015556335449 -1.0312676429748535 1.1224911212921143 1.3425313234329224 -0.31124189496040344 -0.40436974167823792 -0.11738321185112 -0.67442339658737183 -0.3735886812210083 -1.655876636505127 -1.3560118675231934 1.6965514421463013 -0.12172301858663559 -0.59784400463104248 -0.17207105457782745 0.39327546954154968 0.6400749683380127 0.35199195146560669 0.75010049343109131 0.81597900390625 0.78029000759124756 1.0187692642211914 0.76957011222839355 ]
 [ -0.17597620189189911 -0.20824415981769562 1.0000474452972412 0.27623781561851501 -0.47512874007225037 -0.14672264456748962 0.54620939493179321 -0.46678799390792847 0.26885333657264709 -0.09886564314365387 0.07651238888502121 -0.0854768306016922 -0.063890039920806885 -0.076848834753036499 -0.09466388076543808 0.32043567299842834 0.11475258320569992 0.43562930822372437 0.038089662790298462 -0.71004599332809448 -0.08033636212348938 0.11237886548042297 -0.092964515089988708 0.12322480231523514 0.190836101770401 0.057203441858291626 -0.0012589421821758151 0.081754915416240692 0.37232950329780579 -0.13932958245277405 0.38903123140335083 0.031074360013008118 -1.0247224569320679 -0.23825016617774963 -0.62773793935775757 -0.037487827241420746 0.23125764727592468 -0.31674984097480774 -0.069379344582557678 0.060151122510433197 0.28388118743896484 0.22097779810428619 ]
<softmax> 42 42
</Nnet>
