<Nnet>
<input> 60 60
<affinetransform> 41 60
 [ 
  -1.7563283443450928 0.23686288297176361 1.2167547941207886 1.1016918420791626 -0.30709263682365417 -0.69032871723175049 -0.18967811763286591 0.42614379525184631 -0.040060374885797501 -0.12906746566295624 0.11868596076965332 0.2062724232673645 0.21051995456218719 -0.23293693363666534 -0.13617989420890808 0.28149273991584778 0.081692710518836975 -0.15569901466369629 -0.24095198512077332 0.022493280470371246 0.19092163443565369 0.085684880614280701 0.13107901811599731 0.039635542780160904 0.46726229786872864 -0.34209287166595459 -0.37644326686859131 0.019148088991641998 0.038946542888879776 -0.10183408856391907 -0.15564484894275665 -0.12466855347156525 0.15011750161647797 0.1470315009355545 0.094009064137935638 0.0031173867173492908 0.37385445833206177 -0.12641192972660065 -0.43146431446075439 -0.37748372554779053 -0.0050023547373712063 0.013911412097513676 -0.050442114472389221 -0.20462861657142639 0.12785813212394714 0.15650510787963867 0.04780951514840126 -0.038146216422319412 0.4034760594367981 0.14857247471809387 -0.50799822807312012 -1.1229281425476074 -0.0071741677820682526 0.55967789888381958 0.22755077481269836 -0.19360247254371643 -0.047846823930740356 0.12481316924095154 -0.035880386829376221 -0.043989501893520355
  0.99198639392852783 -0.037024710327386856 -0.46528550982475281 -0.29371976852416992 0.27669772505760193 0.25839665532112122 0.056675586849451065 -0.24054820835590363 0.0079387184232473373 0.095835603773593903 -0.08791593462228775 -0.23252575099468231 -1.2075697183609009 -0.0276662427932024 0.4598965048789978 -0.02592841349542141 -0.34175583720207214 -0.20815661549568176 0.025951895862817764 0.1131049320101738 -0.047217864543199539 -0.12814275920391083 0.079537086188793182 0.21397417783737183 -0.10686288774013519 -0.56541818380355835 0.23498834669589996 0.16830763220787048 -0.6629871129989624 -0.50763607025146484 -0.31518343091011047 0.21367177367210388 0.21993638575077057 0.11544522643089294 0.15926598012447357 0.26467224955558777 0.87861651182174683 -0.36073258519172668 -0.078737400472164154 0.32062718272209167 -0.049863886088132858 -0.28708750009536743 -0.21122452616691589 0.20322117209434509 0.21261732280254364 0.1161811351776123 -0.011056756600737572 0.0046546086668968201 0.85826879739761353 -0.045616105198860168 -0.84271597862243652 -0.39220258593559265 0.54621589183807373 0.47706907987594604 0.044033259153366089 -0.18568219244480133 0.017159409821033478 0.1565927267074585 0.029967989772558212 -0.24071761965751648
  -0.061456460505723953 0.37791767716407776 0.85631388425827026 -0.10252545028924942 -0.58034050464630127 -0.14731499552726746 -0.044377788901329041 -0.26566046476364136 -0.35347273945808411 -0.058101464062929153 0.096795365214347839 0.18909475207328796 -0.53259247541427612 0.33999830484390259 0.12342825531959534 -0.12099365890026093 -0.22650817036628723 0.01633128710091114 -0.13964846730232239 -0.20337449014186859 -0.1543402224779129 -0.018248284235596657 0.20541004836559296 0.19898523390293121 -0.11253434419631958 0.3553043007850647 0.28838598728179932 -0.018846139311790466 -0.12878604233264923 0.03258620947599411 -0.15859429538249969 -0.1653735488653183 -0.076161414384841919 0.081283673644065857 0.10291801393032074 0.18672178685665131 -0.18173873424530029 0.29727673530578613 0.1417534202337265 0.15304857492446899 0.03278769925236702 -0.043399181216955185 -0.13663101196289062 0.010093866847455502 -0.019249346107244492 -0.0014980403939262033 0.017743907868862152 0.055132277309894562 -0.19190593063831329 -0.11431759595870972 -0.058951657265424728 -0.051312394440174103 -0.15749236941337585 0.018349643796682358 0.1216539740562439 -0.035408336669206619 -0.1379525363445282 -0.12993317842483521 -0.039823252707719803 0.13844218850135803
  0.80224812030792236 0.045562732964754105 -0.11596222221851349 0.14078333973884583 -0.29022926092147827 -0.043135374784469604 -0.071548320353031158 -0.020596299320459366 -0.10896386951208115 -0.081790894269943237 -0.049686934798955917 -0.1102699488401413 0.10710674524307251 0.079163916409015656 -0.28751331567764282 0.18120649456977844 0.57624924182891846 0.17326386272907257 -0.19234958291053772 -0.19921538233757019 0.067764505743980408 0.018283326178789139 -0.071165353059768677 -0.096014432609081268 0.13542792201042175 0.029203252866864204 -0.60703474283218384 0.12781554460525513 0.73444443941116333 0.21632245182991028 -0.33555573225021362 -0.20139613747596741 0.15103980898857117 0.078981503844261169 0.03219686821103096 -0.017725508660078049 0.41368010640144348 -0.017258720472455025 -0.34489977359771729 0.024877279996871948 0.4586142897605896 0.10701046139001846 -0.1427750438451767 -0.12066451460123062 0.097083799540996552 0.028334466740489006 0.052555467933416367 0.024288393557071686 -0.91126424074172974 0.20124061405658722 0.43894371390342712 -0.5331079363822937 -0.34136480093002319 0.39469575881958008 0.2098480761051178 -0.33294171094894409 -0.059705153107643127 0.0080799786373972893 0.046526845544576645 0.039610873907804489
  0.20132125914096832 -0.24414384365081787 0.17103178799152374 -0.23720020055770874 -0.13544769585132599 -0.029155276715755463 0.050768643617630005 0.073636427521705627 0.16558101773262024 -0.10662969946861267 -0.024550588801503181 0.032480623573064804 -0.70049810409545898 0.19625450670719147 0.33899548649787903 -0.19216197729110718 -0.10727527737617493 0.0084780193865299225 0.13659670948982239 -0.062458407133817673 0.12096444517374039 -0.11180759966373444 -0.047365464270114899 0.16281108558177948 -0.38253408670425415 0.37479850649833679 0.43401899933815002 -0.22341687977313995 0.083883829414844513 -0.0018556002760306001 0.060510270297527313 -0.068490549921989441 0.19063371419906616 -0.10872368514537811 -0.13354913890361786 0.07469186931848526 -0.093596167862415314 0.1199880987405777 0.21909578144550323 -0.12546662986278534 0.17197403311729431 -0.0013219504617154598 -0.030113950371742249 -0.066731154918670654 0.16616585850715637 -0.010631704702973366 -0.033922195434570312 0.045773033052682877 -0.055730860680341721 0.11534794420003891 0.22633661329746246 -0.02557724341750145 -0.21140262484550476 -0.19313642382621765 -0.05718575045466423 0.12941527366638184 0.14713668823242188 -0.037436861544847488 0.087393216788768768 0.029604176059365273
  -0.18236695230007172 -0.14673435688018799 0.32159778475761414 -0.60064572095870972 0.11424417793750763 -0.11561974883079529 -0.13193629682064056 0.039060506969690323 0.011821279302239418 -0.30470794439315796 0.12246555835008621 -0.32007578015327454 0.89791232347488403 0.39060813188552856 0.38762038946151733 0.10783511400222778 -0.080957718193531036 -0.1167425811290741 -0.056560643017292023 -0.1013650968670845 -0.012322857044637203 -0.15877662599086761 0.072997808456420898 -0.23777523636817932 0.92569065093994141 -0.2018476128578186 0.22326657176017761 0.10762809216976166 -0.39747035503387451 -0.070059314370155334 0.068854041397571564 -0.14195626974105835 0.10687392204999924 -0.084984064102172852 0.15218552947044373 -0.1516784280538559 1.4166642427444458 0.36520344018936157 0.25389325618743896 0.49309900403022766 -0.28628155589103699 -0.03369247168302536 0.10497207939624786 -0.18804039061069489 0.075087189674377441 0.016475334763526917 -0.095979958772659302 -0.016394611448049545 -2.5589418411254883 -0.34517613053321838 -0.65552371740341187 0.075658418238162994 0.32287773489952087 0.15920737385749817 0.1427273154258728 0.15378625690937042 -0.030040321871638298 0.31787365674972534 -0.23096971213817596 0.40914598107337952
  -1.1350984573364258 0.29004785418510437 1.0324453115463257 -0.68922460079193115 -0.45779824256896973 0.2255079597234726 0.54625707864761353 -0.024641372263431549 0.086128786206245422 -0.051504146307706833 -0.23711006343364716 -0.25832712650299072 -0.11081640422344208 0.35010513663291931 0.34527587890625 -0.33052819967269897 -0.33774706721305847 0.14093299210071564 0.2306424081325531 -0.070620343089103699 0.061589833348989487 0.032361261546611786 -0.069011442363262177 -0.16064967215061188 -0.17000505328178406 0.14296437799930573 0.28566360473632812 -0.31653708219528198 -0.28689700365066528 0.17196020483970642 0.054316114634275436 -0.029685044661164284 0.075587846338748932 -0.0093635404482483864 -0.011095268651843071 -0.043076604604721069 0.0037640698719769716 0.13855372369289398 0.11249219626188278 -0.15216338634490967 -0.19024251401424408 0.04172864556312561 0.0011841966770589352 0.047817245125770569 0.022777747362852097 -0.011341096833348274 0.027124263346195221 0.060243308544158936 0.27386131882667542 0.40682414174079895 -0.30224716663360596 0.24208053946495056 0.046051327139139175 0.053338006138801575 -0.030137868598103523 -0.058149132877588272 -0.060670953243970871 -0.057608284056186676 0.028798144310712814 0.22607813775539398
  -2.3877661228179932 1.1887267827987671 -0.38080063462257385 -0.079893104732036591 -0.055044911801815033 -0.11573090404272079 -0.048198379576206207 0.088697478175163269 0.045462381094694138 -0.046269431710243225 -0.071056388318538666 -0.14580322802066803 -0.19554632902145386 0.28503653407096863 -0.046422705054283142 0.094106540083885193 0.0043572420254349709 -0.14986255764961243 -0.0046545471996068954 0.016848569735884666 0.028544936329126358 -0.021430566906929016 -0.0049821375869214535 -0.0038444425445050001 0.067324072122573853 0.10327734798192978 -0.16854925453662872 0.16210781037807465 -0.068162202835083008 -0.061537221074104309 -0.055123917758464813 0.056530635803937912 -0.0065741143189370632 0.046755727380514145 0.012311202473938465 -0.019077852368354797 0.22726015746593475 -0.031308520585298538 -0.12472596764564514 0.095503136515617371 -0.0094497287645936012 0.092683382332324982 -0.060696680098772049 0.0091035002842545509 0.016459545120596886 0.08031916618347168 0.055415540933609009 0.014202485792338848 0.40487644076347351 -0.24597229063510895 0.053713824599981308 0.043279711157083511 0.16145281493663788 0.09187798947095871 -0.0046622054651379585 -0.018098853528499603 0.0090795913711190224 0.09765692800283432 -0.00635567307472229 0.12462716549634933
  0.011228082701563835 0.084390327334403992 0.099273324012756348 0.067446589469909668 -0.034590452909469604 0.13677988946437836 0.19373126327991486 0.088843166828155518 -0.074454285204410553 0.026834232732653618 0.021147660911083221 0.015380405820906162 0.75332307815551758 -0.35771378874778748 -0.2285480797290802 0.1720685213804245 -0.13737037777900696 0.004053894430398941 0.033974993973970413 -0.18226015567779541 0.056855030357837677 0.0092868376523256302 -0.097082041203975677 -0.095346838235855103 0.70010524988174438 -0.42834457755088806 -0.21093782782554626 0.19254192709922791 -0.047987863421440125 0.017183592543005943 0.037333447486162186 -0.26707804203033447 0.016967730596661568 0.022501725703477859 -0.13940234482288361 -0.13743405044078827 0.48614475131034851 -0.21474114060401917 0.048089228570461273 0.22336375713348389 0.033793173730373383 -0.022769693285226822 0.02118261530995369 -0.22477500140666962 -0.097355931997299194 -0.059250958263874054 -0.16625775396823883 -0.065099000930786133 0.025754688307642937 0.18837153911590576 0.18922995030879974 -0.09555535763502121 0.29146271944046021 0.20265856385231018 0.090568922460079193 0.017847172915935516 -0.10493326932191849 -0.16158324480056763 -0.25715509057044983 -0.17664073407649994
  0.065602876245975494 -0.44463250041007996 -0.25469407439231873 -0.39160248637199402 -0.23671938478946686 0.014855246990919113 0.13779883086681366 0.084752768278121948 -0.01897883228957653 0.13464248180389404 0.17224037647247314 0.022554390132427216 -0.25047406554222107 -0.12336181104183197 -0.053298607468605042 -0.2131752222776413 -0.15862397849559784 0.055056557059288025 0.31811392307281494 0.021739428862929344 -0.086997292935848236 0.028192989528179169 0.022691775113344193 0.029424004256725311 -0.44457730650901794 -0.28720936179161072 -0.21122118830680847 -0.26343649625778198 -0.12067548185586929 0.032809045165777206 0.35403773188591003 0.17906084656715393 0.003078782930970192 0.034411735832691193 0.0032046746928244829 0.058766216039657593 0.177824467420578 -0.24868392944335938 0.023627981543540955 -0.015083126723766327 -0.11898211389780045 -0.0035984159912914038 0.21669793128967285 0.1369895339012146 0.002508525038138032 -0.064349018037319183 0.0080856485292315483 0.058108817785978317 -0.45257028937339783 -0.23433835804462433 -0.8015788197517395 -0.026925904676318169 0.093757443130016327 0.25556415319442749 0.27322256565093994 0.40857759118080139 -0.086982034146785736 -0.055100474506616592 0.14560756087303162 0.12018679827451706
  1.1094506978988647 -1.0059151649475098 -1.408927321434021 0.026302190497517586 0.4549727737903595 -0.044134609401226044 0.28492498397827148 0.36901864409446716 0.49844282865524292 -0.05846366286277771 -0.299040287733078 -0.27526313066482544 0.15247917175292969 -0.15449656546115875 -0.21977250277996063 -0.18777854740619659 0.010547945275902748 -0.18185098469257355 0.071405500173568726 0.12407655268907547 0.027725392952561378 0.024369105696678162 0.034077271819114685 -0.087423525750637054 0.039946042001247406 0.12705790996551514 0.16202856600284576 -0.067582674324512482 -0.14412127435207367 -0.095115996897220612 -0.0060456828214228153 0.040416799485683441 -0.00082710431888699532 0.086516901850700378 0.062304738909006119 0.063337601721286774 -0.26879677176475525 0.35832422971725464 0.53762859106063843 0.050718262791633606 -0.13038159906864166 0.038533296436071396 -0.10985533148050308 -0.064147986471652985 -0.080303698778152466 0.0034509184770286083 0.038022387772798538 0.093144968152046204 -0.71268147230148315 0.51917529106140137 0.79032015800476074 0.12849101424217224 -0.2663131058216095 0.0059325229376554489 -0.093510009348392487 -0.18481133878231049 -0.22801795601844788 -0.074380211532115936 0.13864037394523621 0.12093430012464523
  0.015239078551530838 -0.31538417935371399 -0.35285195708274841 -0.17797732353210449 0.13902214169502258 0.30419662594795227 -0.13184508681297302 -0.049416877329349518 -0.0030129291117191315 -0.1470770537853241 0.025717612355947495 0.079993613064289093 -0.46794667840003967 0.15317448973655701 0.17980845272541046 -0.25058406591415405 0.20962139964103699 0.046866949647665024 -0.027632530778646469 -0.11075467616319656 -0.15036801993846893 -0.055979866534471512 0.1905616819858551 0.041089624166488647 0.43637660145759583 0.47488051652908325 0.38355553150177002 0.048232268542051315 0.35207349061965942 -0.017491722479462624 -0.12964595854282379 -0.27763405442237854 -0.094456717371940613 0.074094153940677643 0.094848744571208954 -0.065959304571151733 0.6427161693572998 0.20152871310710907 0.21364378929138184 0.15433891117572784 0.37538561224937439 0.047003179788589478 -0.089973747730255127 -0.32476785778999329 -0.035761609673500061 0.11236464977264404 0.045253563672304153 -0.16810122132301331 0.66956371068954468 -0.62951779365539551 -0.50168079137802124 0.16729302704334259 0.4745451807975769 0.044400632381439209 -0.028672860935330391 -0.21240562200546265 0.20064198970794678 0.054830607026815414 -0.15480954945087433 -0.2574630081653595
  -1.4294815063476562 -0.64857882261276245 -0.97237837314605713 -1.0862376689910889 0.36569762229919434 -0.078727409243583679 -0.18287332355976105 0.85530364513397217 0.22375029325485229 -0.18649275600910187 0.29169380664825439 -0.17311924695968628 0.35708683729171753 0.054434776306152344 -0.0056638587266206741 -0.14204572141170502 -0.18243001401424408 0.0093717947602272034 0.042398970574140549 0.11181407421827316 -0.047698363661766052 0.011509078554809093 0.091127388179302216 0.028006123378872871 0.24152831733226776 0.69645506143569946 0.66390949487686157 0.3668150007724762 -0.23625969886779785 -0.022041697055101395 0.17119939625263214 -0.21581049263477325 -0.10343432426452637 0.036206997931003571 -0.011401751078665257 0.061802845448255539 0.27648705244064331 0.36244705319404602 0.61387532949447632 0.58179914951324463 -0.30667620897293091 -0.077333495020866394 0.20154036581516266 -0.40190201997756958 -0.03550228476524353 0.10272493213415146 -0.061975046992301941 0.088574588298797607 0.62269109487533569 -0.73668491840362549 -0.58102124929428101 0.16771763563156128 0.13327224552631378 -0.087531127035617828 -0.099006257951259613 -0.18516905605792999 -0.056354928761720657 0.33589822053909302 -0.20838944613933563 0.097536765038967133
  0.11444739252328873 0.013062387704849243 -0.18431577086448669 -0.012883690185844898 0.091956175863742828 0.0014509969623759389 -0.11132223159074783 -0.11126209795475006 -0.15903744101524353 0.17143920063972473 0.20171855390071869 -0.10029659420251846 -0.025951199233531952 -0.24042147397994995 -0.54689604043960571 0.10029567033052444 0.3848077654838562 0.082571700215339661 -0.10075591504573822 -0.045587044209241867 0.059172052890062332 0.095540076494216919 -0.03295585885643959 -0.12557050585746765 0.50127577781677246 -0.43371686339378357 -0.48289090394973755 0.082268193364143372 0.23308087885379791 -0.067997351288795471 -0.068430930376052856 0.059738468378782272 0.15749312937259674 0.081704951822757721 -0.10082226246595383 -0.12428805232048035 0.2148735523223877 -0.24102804064750671 -0.16231104731559753 -0.089783377945423126 -0.12894488871097565 -0.14469274878501892 -0.044476337730884552 0.1310214102268219 0.26911461353302002 -0.052384786307811737 -0.1302008330821991 0.0074740364216268063 0.92270320653915405 0.88105368614196777 1.8310090303421021 -0.064515851438045502 -1.2935860157012939 -0.6909911036491394 0.24449442327022552 0.14688578248023987 -0.0011783221270889044 -0.3179585337638855 -0.15459780395030975 -0.075521297752857208
  -0.93366414308547974 0.12615221738815308 -0.53792697191238403 -0.2714933454990387 0.27927350997924805 0.12394480407238007 -0.045378189533948898 0.12645190954208374 0.051631700247526169 0.12272505462169647 0.25139260292053223 0.091160163283348083 0.23012256622314453 -0.44243049621582031 -0.83837693929672241 -0.39829689264297485 0.13511896133422852 0.21750624477863312 -0.030755046755075455 0.03877030685544014 0.14391151070594788 0.099761962890625 0.16971452534198761 -0.058562718331813812 0.03353428840637207 -0.24667726457118988 -0.79240500926971436 -0.28711822628974915 0.18963146209716797 0.22273209691047668 0.054528661072254181 -0.070222340524196625 0.070860639214515686 0.17069633305072784 0.078356683254241943 0.060591727495193481 0.024579672142863274 0.00042850518366321921 -0.068905018270015717 0.015565698966383934 -0.0033629003446549177 0.14299470186233521 0.06251082569360733 -0.07303214818239212 0.068784371018409729 0.086471475660800934 -0.02923274040222168 0.088396444916725159 0.0093775801360607147 0.32989448308944702 0.59286177158355713 0.16899971663951874 -0.080002106726169586 0.013559841550886631 0.042670868337154388 0.028029363602399826 -0.047851242125034332 -0.033016212284564972 -0.088932670652866364 0.082547508180141449
  0.1433461457490921 -0.33766397833824158 0.26287320256233215 0.57867002487182617 -0.037086162716150284 -0.32068344950675964 -0.11444050073623657 -0.04443923756480217 0.048104643821716309 -0.049837537109851837 -0.23669351637363434 -0.13183017075061798 -0.97589540481567383 -0.15286973118782043 0.32086101174354553 0.4002184271812439 0.19581997394561768 -0.16420775651931763 -0.070596739649772644 0.063843086361885071 0.16330538690090179 -0.024867866188287735 -0.24687224626541138 -0.051292572170495987 -0.4935876727104187 -0.038689091801643372 0.29425153136253357 0.16031715273857117 0.23922798037528992 -0.075197920203208923 -0.023099731653928757 0.05002015084028244 0.16053088009357452 -0.0086884219199419022 -0.22513291239738464 -0.092711657285690308 -0.12346737831830978 -0.10916943103075027 0.2035631537437439 -0.13202530145645142 0.030712971463799477 0.011768667958676815 -0.021480310708284378 0.094730831682682037 0.054255105555057526 -0.040678158402442932 -0.034481294453144073 -0.036307845264673233 -0.10681241005659103 -0.18656381964683533 -0.37767332792282104 -0.029333017766475677 -0.13341963291168213 -0.017073001712560654 -0.040863398462533951 0.24165363609790802 -0.10095992684364319 -0.044399421662092209 0.15320910513401031 0.04083474725484848
  0.28019005060195923 0.40401312708854675 0.31363728642463684 -0.09769081324338913 -0.27549958229064941 -0.28990465402603149 -0.16095796227455139 -0.064700603485107422 -0.037822384387254715 0.064061537384986877 0.1173025444149971 -0.054281450808048248 0.067864485085010529 0.14016091823577881 -0.23561382293701172 -0.33213430643081665 -0.3111056387424469 -0.14587488770484924 -0.12439458072185516 -0.11874028295278549 -0.045328419655561447 0.14092621207237244 0.028707046061754227 0.051134150475263596 0.04853753000497818 0.015740951523184776 -0.19914525747299194 -0.34415534138679504 -0.1618230789899826 -0.062865525484085083 -0.13979852199554443 -0.058889340609312057 0.023365840315818787 0.10096536576747894 0.0081184199079871178 0.047805488109588623 -0.2403026670217514 0.050402916967868805 -0.14918977022171021 -0.16599653661251068 -0.043165970593690872 -0.14088815450668335 -0.14870078861713409 -0.0038425198290497065 0.079228401184082031 0.029534762725234032 -0.06613960862159729 0.00055626331595703959 -0.33314850926399231 0.11897392570972443 0.17640195786952972 0.076674744486808777 0.12761855125427246 -0.24922917783260345 -0.1249510869383812 -0.055375654250383377 0.060482371598482132 0.0028251123148947954 -0.026233792304992676 0.040271714329719543
  0.12550540268421173 1.1071242094039917 0.29091379046440125 0.86917006969451904 0.54956018924713135 0.15449276566505432 -0.078942649066448212 -0.18796096742153168 0.17551551759243011 0.15352047979831696 -0.29724076390266418 0.088216111063957214 0.39985993504524231 -0.5527387261390686 -0.046916946768760681 -0.41940751671791077 -0.37724980711936951 -0.012459546327590942 0.063838846981525421 0.14271856844425201 0.052162006497383118 -0.084514982998371124 0.065721936523914337 -0.053221110254526138 -0.30464082956314087 -0.987140953540802 -1.0794703960418701 -0.90611535310745239 -0.23572066426277161 -0.0056056836619973183 0.082144312560558319 0.29878696799278259 -0.035171397030353546 0.029551837593317032 0.15078270435333252 0.046010684221982956 -1.2672296762466431 -0.59251236915588379 -0.93248927593231201 -0.38957193493843079 0.30876019597053528 0.24818997085094452 0.046990770846605301 0.23962731659412384 -0.028314784169197083 0.082102537155151367 -0.021362284198403358 0.10866759717464447 -0.36219146847724915 1.6969550848007202 1.1610016822814941 0.80695629119873047 -0.20637284219264984 -0.081741735339164734 0.06938132643699646 -0.23381598293781281 -0.26848894357681274 -0.040983960032463074 0.024623427540063858 0.2026563435792923
  0.298723965883255 0.40798911452293396 0.47633439302444458 0.32396847009658813 -0.084717258810997009 -0.0079023474827408791 0.29907724261283875 0.34360909461975098 0.20039419829845428 -0.038440771400928497 -0.12490814924240112 -0.16557024419307709 0.81044137477874756 0.26037934422492981 0.13324029743671417 0.58235007524490356 0.31991121172904968 0.18256716430187225 0.058092463761568069 0.011403212323784828 0.10850489139556885 0.018934827297925949 -0.20574298501014709 -0.14129140973091125 0.49200963973999023 -0.017968602478504181 -0.19137489795684814 0.29910376667976379 0.45106813311576843 0.2830052375793457 0.16166730225086212 -0.022554662078619003 -0.023203689604997635 0.082573786377906799 -0.12305860966444016 -0.041478250175714493 -0.011535434052348137 0.21841298043727875 -0.37752234935760498 0.05341150239109993 0.087791912257671356 0.11468178033828735 0.045619875192642212 -0.097350604832172394 -0.17155912518501282 0.11896911263465881 -0.041471417993307114 0.040291078388690948 -1.7496024370193481 -1.091157078742981 -0.28034618496894836 -0.96504682302474976 -0.56376868486404419 -0.25277909636497498 -0.067949488759040833 0.40761324763298035 0.10839375853538513 0.047021504491567612 0.28802439570426941 0.22811716794967651
  0.52989673614501953 0.3039531409740448 0.20145946741104126 -0.24461430311203003 -0.53499448299407959 -0.40641507506370544 -0.14411841332912445 0.2235867828130722 -0.018138248473405838 -0.003847077488899231 0.15966641902923584 0.13020120561122894 0.47117927670478821 -0.41050758957862854 0.089892089366912842 -0.39806097745895386 -0.36115264892578125 -0.24664734303951263 -0.078688301146030426 0.10643515735864639 0.059198815375566483 -0.00024929805658757687 0.15085640549659729 -0.022788055241107941 0.49056166410446167 0.021758247166872025 0.17834354937076569 -0.18843778967857361 -0.1869494616985321 -0.20175306499004364 -0.0020573136862367392 -0.047465279698371887 -0.014249874278903008 0.065850898623466492 0.09137948602437973 -0.025419630110263824 0.17323221266269684 0.23863857984542847 0.2748238742351532 0.11097370833158493 0.070772901177406311 -0.047805722802877426 0.04138537123799324 -0.069384180009365082 -0.039745375514030457 0.039585530757904053 0.004655009601265192 0.0026256709825247526 -0.097218632698059082 -0.1568736732006073 0.14119654893875122 0.30665108561515808 0.071051925420761108 -0.0090285371989011765 0.16552671790122986 -0.079941980540752411 -0.044163186103105545 -0.010824538767337799 0.012640652246773243 -0.06068333238363266
  0.005583121906965971 -0.0099027650430798531 0.42801958322525024 -0.57119548320770264 -0.66135519742965698 0.069964095950126648 -0.20216310024261475 0.085939504206180573 -0.033837262541055679 0.0017539560794830322 0.34658679366111755 -0.077188998460769653 -0.28070873022079468 0.20636498928070068 -0.20214287936687469 0.47038638591766357 0.14264783263206482 -0.26747363805770874 0.13066740334033966 0.093262806534767151 -0.029302023351192474 0.13254925608634949 -0.052945036441087723 0.081033520400524139 -0.44453150033950806 0.58778321743011475 -0.14896547794342041 0.74431854486465454 0.55840635299682617 -0.092182077467441559 0.11365624517202377 0.078761495649814606 -0.023276174440979958 0.22666218876838684 -0.17429839074611664 0.075039632618427277 0.14742180705070496 0.54448556900024414 0.0027960431762039661 0.72881263494491577 0.43099206686019897 0.17679259181022644 0.14847922325134277 -0.15149933099746704 -0.087529502809047699 0.14870770275592804 -0.18927997350692749 0.025454007089138031 -0.70475518703460693 -0.82080835103988647 -0.74614071846008301 -0.65274327993392944 -0.094712942838668823 0.46526297926902771 -0.016354523599147797 0.090582653880119324 0.093905597925186157 0.046495795249938965 0.11983995139598846 0.10422777384519577
  1.2899026870727539 0.011678046546876431 -0.4888685941696167 -0.02519366517663002 0.05238863080739975 0.090390570461750031 -0.056843150407075882 0.071237720549106598 0.082223132252693176 0.1184283122420311 -0.011906313709914684 -0.10019466280937195 0.45448407530784607 -0.011019835248589516 -0.2838190495967865 -0.053049169480800629 -0.056352246552705765 0.080505572259426117 -0.052883688360452652 -0.022293269634246826 -0.070435382425785065 0.087364263832569122 0.10368964076042175 0.009202948771417141 -0.66248178482055664 -0.20633997023105621 -0.092609882354736328 -0.047574747353792191 -0.13198666274547577 0.068542957305908203 0.044661294668912888 0.097531288862228394 -0.038218695670366287 -0.026329880580306053 0.064634650945663452 0.094954602420330048 -1.7448019981384277 -0.051306772977113724 0.11623317003250122 -0.033128309994935989 -0.14131619036197662 0.006660297978669405 0.11270634084939957 0.074351191520690918 0.047348037362098694 -0.039247915148735046 -0.019789582118391991 0.06603599339723587 -0.83748716115951538 0.05035845935344696 0.74767172336578369 0.10964523255825043 0.25900772213935852 0.057762399315834045 0.17900530993938446 -0.10376988351345062 0.092467829585075378 -0.14602775871753693 -0.13899469375610352 -0.14635054767131805
  -0.69419020414352417 0.12556751072406769 -0.016144869849085808 -0.036951467394828796 -0.014815024100244045 0.038171309977769852 0.084239266812801361 0.10085675865411758 -0.085681796073913574 0.10468079149723053 0.074093788862228394 0.05076262354850769 -0.29768317937850952 -0.052582759410142899 -0.0033747379202395678 -0.21194757521152496 -0.080805182456970215 -0.024877255782485008 0.027912352234125137 0.042744331061840057 -0.015205093659460545 -0.054199617356061935 0.013550985604524612 -0.064633041620254517 -0.15218657255172729 0.003530730027705431 0.021024817600846291 -0.12861216068267822 -0.11692781001329422 -0.1020626574754715 0.10921702533960342 0.051312439143657684 0.0037551152054220438 -0.047111697494983673 0.023661259561777115 -0.13588628172874451 0.085698395967483521 -0.12316245585680008 -0.11524156481027603 -0.04436955600976944 -0.22231616079807281 -0.22670821845531464 0.029054164886474609 0.014689906500279903 0.037926845252513885 0.07060597836971283 0.04636690765619278 -0.07615671306848526 1.9976949691772461 -0.21932901442050934 0.094886742532253265 -0.030166469514369965 -0.23883873224258423 -0.11143187433481216 -0.15782798826694489 -0.19516780972480774 0.11078235507011414 0.082999460399150848 -0.12202385812997818 -0.03199409693479538
  -0.11648798733949661 0.22937670350074768 0.3425523042678833 0.14550597965717316 -0.33711716532707214 0.0030840190593153238 0.15389838814735413 -0.15783892571926117 0.059651374816894531 0.21504656970500946 -0.062960363924503326 0.21113596856594086 0.18529897928237915 -0.39184561371803284 -0.45825734734535217 -0.53171271085739136 0.17700853943824768 -0.028489254415035248 0.0065669910982251167 -0.011295372620224953 0.26334711909294128 0.075167357921600342 -0.074203640222549438 -0.21331661939620972 0.11654535681009293 -0.61282515525817871 -0.59913522005081177 -0.56212842464447021 0.42339223623275757 0.10909837484359741 0.016686063259840012 0.14531601965427399 0.24014513194561005 -0.054075594991445541 -0.064541161060333252 -0.27374812960624695 0.4343661367893219 -0.095314957201480865 -0.16633231937885284 -0.17612384259700775 0.25661042332649231 -0.024317165836691856 -0.052581403404474258 0.16998948156833649 -0.01793159544467926 -0.10462093353271484 0.051999364048242569 -0.16895197331905365 0.3693777322769165 0.19210733473300934 0.11347106844186783 0.27854585647583008 0.095391996204853058 0.23121620714664459 0.12687471508979797 0.08096863329410553 -0.18290112912654877 -0.10100260376930237 0.11893828213214874 0.17741884291172028
  -1.4406787157058716 -0.13558286428451538 -0.26137635111808777 0.33367303013801575 -0.026069134473800659 -0.33296456933021545 -0.43985980749130249 0.19032059609889984 0.18224218487739563 0.37355983257293701 0.23429052531719208 0.46023485064506531 0.33945390582084656 -0.2704041600227356 -0.30377364158630371 -0.17753872275352478 -0.089537709951400757 -0.09512840211391449 -0.30931952595710754 -0.15799418091773987 0.15042494237422943 0.17229975759983063 0.24293546378612518 0.087278120219707489 -0.27142176032066345 -0.029215555638074875 -0.064850687980651855 -0.071428738534450531 0.089046686887741089 -0.025669043883681297 -0.17463603615760803 -0.010255994275212288 0.095953747630119324 0.013335984200239182 0.19649706780910492 0.028365302830934525 -0.096367478370666504 0.042804181575775146 0.1617749035358429 0.087112121284008026 0.0084420256316661835 -0.053240891546010971 -0.0022059911862015724 0.033642284572124481 0.0077168033458292484 -0.063667692244052887 0.14099813997745514 -0.059017561376094818 0.53495478630065918 -0.39758339524269104 0.17195673286914825 0.24213358759880066 0.052781637758016586 -0.19810871779918671 0.03653205931186676 0.1563047468662262 -0.010839882306754589 0.0031771832145750523 -0.06575331836938858 -0.0097103230655193329
  0.17474131286144257 -0.060750551521778107 -0.46786856651306152 -0.57936704158782959 -0.064804524183273315 0.09199843555688858 0.089818626642227173 -0.27038595080375671 -0.022779840975999832 0.16428695619106293 0.069436140358448029 -0.052281901240348816 0.41699567437171936 -0.30754163861274719 -0.33335036039352417 -0.42530021071434021 0.10016712546348572 0.037101857364177704 -0.064732037484645844 0.10967457294464111 0.073202215135097504 -0.028469262644648552 0.019461631774902344 -0.28512284159660339 -0.14988571405410767 0.011016959324479103 -0.020609350875020027 0.035679075866937637 0.29135903716087341 -0.0071929641999304295 -0.094209976494312286 0.091700091958045959 0.025285836309194565 -0.077337302267551422 -0.098092339932918549 -0.25566667318344116 0.61909770965576172 0.44411823153495789 0.34050789475440979 0.3916327953338623 -0.027734721079468727 -0.2068675309419632 -0.11717362701892853 0.036207783967256546 -0.064801804721355438 -0.05815284326672554 -0.080538354814052582 -0.06531466543674469 -2.3104097843170166 0.29058638215065002 1.1578739881515503 1.4133147001266479 -0.53282558917999268 -0.23695454001426697 0.16906370222568512 0.041914433240890503 -0.28086003661155701 -0.0084650507196784019 -0.01220791507512331 0.56773030757904053
  -0.644600510597229 -0.1324986070394516 0.1948074996471405 0.16390185058116913 0.038968507200479507 -0.030268106609582901 0.13516680896282196 -0.10809370130300522 0.11275316029787064 0.059225399047136307 -0.067033633589744568 0.037002094089984894 -0.024379316717386246 -0.090367883443832397 0.26620069146156311 0.14203234016895294 0.082507304847240448 -0.25491625070571899 -0.15693959593772888 -0.11996401101350784 0.095802746713161469 0.022142469882965088 -0.04061981663107872 -0.094960711896419525 -0.084829859435558319 -0.27462577819824219 0.16723573207855225 0.3269219696521759 0.26590907573699951 -0.17896321415901184 -0.17869411408901215 -0.070213019847869873 0.086693376302719116 0.088092796504497528 0.02349797822535038 -0.13255895674228668 -0.15250076353549957 -0.21929655969142914 0.16002047061920166 0.27337238192558289 0.16124007105827332 -0.21242347359657288 -0.26021933555603027 -0.060477577149868011 0.084185130894184113 0.078969851136207581 0.031106306239962578 -0.081292532384395599 -0.15528041124343872 -0.077869310975074768 0.76671731472015381 0.28533178567886353 -0.24855534732341766 -0.32608655095100403 -0.13847614824771881 0.021189246326684952 0.10018822550773621 -0.043191593140363693 0.10931377857923508 0.065787412226200104
  0.56118381023406982 0.10568705201148987 0.062921933829784393 0.30950519442558289 0.004981054924428463 0.077894829213619232 0.057440333068370819 -0.15023006498813629 -0.052714746445417404 0.02187805250287056 -0.032719280570745468 -0.0053207315504550934 0.44280040264129639 0.031431738287210464 0.20939415693283081 0.16025802493095398 0.040350835770368576 -0.019100593402981758 -0.086653359234333038 -0.19458168745040894 -0.18946826457977295 0.016737855970859528 0.0087113119661808014 -0.052812144160270691 0.90175670385360718 0.34141576290130615 0.42877301573753357 0.11572188138961792 -0.0063088345341384411 -0.1476205438375473 -0.22730197012424469 -0.24824242293834686 -0.17336583137512207 -0.046588864177465439 -0.039739146828651428 -0.12239846587181091 0.26968485116958618 0.44276046752929688 0.35808044672012329 0.14072932302951813 -0.028764750808477402 -0.19911657273769379 -0.069764517247676849 -0.19298848509788513 -0.20318847894668579 -0.13709597289562225 -0.10862886160612106 -0.17201602458953857 0.67481207847595215 -0.72243189811706543 -0.29826489090919495 -0.55411344766616821 -0.37392121553421021 -0.23745022714138031 -0.088128149509429932 -0.11830756813287735 0.00047248648479580879 -0.20923872292041779 -0.057453900575637817 -0.09977085143327713
  0.63121378421783447 -0.24956464767456055 -0.65405017137527466 0.41267731785774231 0.29597842693328857 -0.21192397177219391 -0.073206856846809387 0.08098042756319046 0.084780998528003693 -0.064084805548191071 -0.0041378322057425976 0.0206783227622509 -0.13169674575328827 -0.31116935610771179 -0.013181899674236774 0.024054879322648048 -0.10974886268377304 -0.0434853695333004 -0.047929920256137848 -0.01339817326515913 0.081871338188648224 -0.0032422512304037809 -0.067335836589336395 0.080367036163806915 -0.22148008644580841 -0.13020974397659302 0.34441456198692322 -0.27810385823249817 -0.13444933295249939 0.053210046142339706 0.058866832405328751 -0.074862666428089142 0.086366891860961914 0.072753526270389557 -0.10399132966995239 0.02283843606710434 -0.39978262782096863 0.22683115303516388 0.49241149425506592 -0.31736841797828674 -0.10158469527959824 0.19885960221290588 0.10122312605381012 -0.23947782814502716 0.089728154242038727 0.11139076948165894 -0.1236775666475296 -0.063963226974010468 -1.8073693513870239 0.46677812933921814 1.5900568962097168 -0.62825882434844971 -0.603981614112854 0.33641436696052551 0.19544871151447296 -0.35307720303535461 0.070252232253551483 0.047270942479372025 -0.049985926598310471 -0.050263196229934692
  0.98855769634246826 -0.4904952347278595 0.21071086823940277 -0.2698628306388855 0.10361675918102264 0.026317574083805084 0.038200452923774719 0.017599156126379967 0.04750669002532959 -0.039279613643884659 -0.012364747002720833 -0.051492556929588318 -0.62327706813812256 0.061280317604541779 -0.14340724050998688 0.0781048983335495 -0.040473990142345428 -0.008413330651819706 0.051245816051959991 0.056870687752962112 -0.00026302546029910445 0.011157365515828133 -0.020972380414605141 -0.092278644442558289 -0.47261524200439453 0.24065159261226654 -0.18505573272705078 0.11838973313570023 0.01056811586022377 -0.15140216052532196 0.10680674761533737 0.049144063144922256 -0.026825223118066788 0.023482119664549828 -0.067058995366096497 -0.058827489614486694 0.052770655602216721 0.42359006404876709 0.043673302978277206 0.27029114961624146 0.059402555227279663 -0.24336959421634674 0.036818303167819977 0.022374901920557022 -0.044506609439849854 -0.011136157438158989 -0.030158074572682381 -0.060287497937679291 -1.7567222118377686 0.82667374610900879 -0.78733819723129272 0.45660480856895447 0.024549420922994614 -0.1579737663269043 -0.11896777153015137 0.074494242668151855 -0.050843674689531326 0.025549739599227905 0.075435511767864227 -0.034161657094955444
  0.46502429246902466 0.70908743143081665 0.48507398366928101 1.5068837404251099 1.2856677770614624 0.84565848112106323 0.25350084900856018 0.11587495356798172 -0.070648692548274994 -0.28538835048675537 -0.3642941415309906 -0.13604600727558136 -1.5692497491836548 -0.12869216501712799 -0.14333824813365936 -0.10542284697294235 -0.05823734775185585 -0.039396040141582489 -0.036828503012657166 0.10986034572124481 -0.045627716928720474 0.066469088196754456 0.23598432540893555 0.16187283396720886 -0.93671464920043945 -0.39817774295806885 -0.31290599703788757 -0.50899302959442139 -0.46079656481742859 -0.28800761699676514 -0.096527412533760071 -0.068709306418895721 -0.12943907082080841 0.098273769021034241 0.15865093469619751 0.17706780135631561 -0.48971778154373169 -0.41560086607933044 -0.23999780416488647 -0.50890094041824341 -0.56310117244720459 -0.30176234245300293 -0.13587304949760437 -0.13261175155639648 0.032482828944921494 0.11830539256334305 0.04243551567196846 0.057973261922597885 1.2893691062927246 0.15809820592403412 -0.051442146301269531 -0.15665258467197418 -0.13878613710403442 0.073622077703475952 0.028477352112531662 -0.09831913560628891 0.0083484575152397156 0.11588986963033676 -0.066432856023311615 -0.16128958761692047
  -0.7087712287902832 0.035550244152545929 0.93945318460464478 0.45392793416976929 0.041152365505695343 -0.615761399269104 -0.17949119210243225 -0.029862675815820694 0.12657631933689117 -0.20689991116523743 -0.060969904065132141 -0.0078685292974114418 0.76375746726989746 -0.16043785214424133 -0.060577221214771271 0.39375618100166321 0.29642036557197571 -0.18111430108547211 0.0063749640248715878 0.16272324323654175 0.045370463281869888 0.024108216166496277 -0.026617111638188362 -0.048485562205314636 1.7844980955123901 -0.1375933438539505 -0.50026112794876099 0.091144636273384094 0.20081201195716858 0.1150413304567337 -0.009570511057972908 0.025937585160136223 -0.08103615790605545 0.086397513747215271 0.064132720232009888 -0.12099948525428772 1.2494796514511108 -0.15151166915893555 -0.5462920069694519 -0.33017593622207642 -0.0012218314222991467 0.44230341911315918 0.064114294946193695 -0.084316477179527283 -0.13151426613330841 0.074069082736968994 0.079347960650920868 -0.019306113943457603 -2.1545956134796143 0.31552156805992126 0.0012491478119045496 -0.51049357652664185 -0.48775213956832886 0.28708168864250183 0.33004507422447205 -0.10558322817087173 -0.21037356555461884 0.029601437970995903 0.11220995336771011 0.38081139326095581
  0.56932133436203003 0.6673274040222168 0.3585456907749176 -0.83319860696792603 -0.38797575235366821 0.20938724279403687 0.34827589988708496 0.091020971536636353 -0.20340391993522644 -0.19583657383918762 0.26577895879745483 -0.026625273749232292 0.1230669766664505 0.15436230599880219 -0.10549958050251007 -0.25184547901153564 -0.15325072407722473 0.15251754224300385 0.11064072698354721 0.064912736415863037 -0.041970718652009964 -0.082926154136657715 0.045872006565332413 0.13355204463005066 -0.038268774747848511 -0.35277548432350159 -0.40818724036216736 0.097909510135650635 0.16147527098655701 0.0577668696641922 -0.17005728185176849 -0.11397607624530792 0.082162000238895416 0.031493932008743286 -0.011982251890003681 0.11167168617248535 -0.18382564187049866 -0.59525418281555176 -0.57057750225067139 0.60191851854324341 0.56793028116226196 -0.098644338548183441 -0.33395287394523621 -0.26808768510818481 0.084306024014949799 0.26950734853744507 -0.080789603292942047 0.072666622698307037 -0.69544035196304321 -0.58789563179016113 0.45309895277023315 0.99837827682495117 0.3053709864616394 -0.26922604441642761 -0.43881756067276001 -0.20642657577991486 -0.0015125499339774251 0.20516453683376312 -0.057136591523885727 0.0051235351711511612
  -0.89938706159591675 -1.308958888053894 -0.79774010181427002 -0.62520277500152588 -0.67777734994888306 -0.38023975491523743 -0.026961874216794968 -0.16040374338626862 0.15247835218906403 0.11027582734823227 0.043298047035932541 0.036896597594022751 -0.1691783219575882 0.16666315495967865 0.006190344225615263 -0.063322633504867554 -0.12152525037527084 -0.37289014458656311 -0.27255338430404663 -0.21314594149589539 -0.15326748788356781 0.055687535554170609 -0.050487376749515533 0.077772445976734161 0.11076489090919495 0.41211971640586853 0.27051663398742676 0.28937989473342896 0.15856164693832397 -0.043974559754133224 -0.18639667332172394 -0.095778070390224457 -0.067965537309646606 0.025590592995285988 -0.090999901294708252 -0.037154577672481537 0.75138300657272339 0.44310733675956726 0.34341973066329956 0.25442138314247131 0.21539515256881714 0.29276612401008606 0.03503808006644249 0.043717961758375168 -0.06694735586643219 -0.080081164836883545 -0.059512637555599213 -0.16116343438625336 0.53346091508865356 0.38392120599746704 -0.10573472082614899 0.26085034012794495 0.71094906330108643 0.63221925497055054 0.39702123403549194 0.17573067545890808 -0.096750020980834961 -0.24517594277858734 -0.15048207342624664 -0.11377793550491333
  -1.5742644071578979 0.47934508323669434 0.36080899834632874 0.53142106533050537 -0.063239872455596924 -0.26445236802101135 -0.14629119634628296 0.57973802089691162 0.0047797132283449173 -0.36915957927703857 0.10780598223209381 0.24507103860378265 -0.62010037899017334 -0.27943694591522217 -0.011339643970131874 -0.08118574321269989 -0.083664871752262115 -0.082676686346530914 0.042464744299650192 0.31265941262245178 -0.018404817208647728 -0.12585924565792084 0.041894532740116119 0.045046314597129822 0.049841251224279404 -0.041938923299312592 0.0122417276725173 -0.021057765930891037 0.047379720956087112 -0.099472776055335999 0.073976404964923859 0.094833210110664368 -0.06129087507724762 -0.0779758021235466 -0.065739311277866364 -0.0036449534818530083 0.076288588345050812 -0.0036955429241061211 0.062187768518924713 -0.035625353455543518 0.015072241425514221 0.018884627148509026 0.075366146862506866 -0.099136866629123688 -0.021390335634350777 0.0050824698992073536 -0.10133416950702667 -0.044816412031650543 0.56425362825393677 0.079332239925861359 -0.070350959897041321 0.029926283285021782 -0.0048507465980947018 0.11598051339387894 0.10937459021806717 -0.22540126740932465 -0.07511429488658905 0.002704043872654438 -0.19891305267810822 -0.046343903988599777
  -0.018971206620335579 -0.12476230412721634 0.024226026609539986 -0.1833130270242691 0.24597562849521637 0.080077581107616425 -0.1710282564163208 0.17509883642196655 0.20072811841964722 -0.18655869364738464 0.035930708050727844 0.11207804083824158 -0.14861154556274414 0.23879152536392212 -0.077108629047870636 -0.12417224794626236 0.11722197383642197 0.11393646150827408 -0.16167570650577545 0.048029858618974686 -0.033481840044260025 -0.087042354047298431 0.13935898244380951 0.048737164586782455 -0.10528169572353363 0.27541589736938477 0.021549936383962631 -0.23879677057266235 0.083816990256309509 0.05948113277554512 -0.22161814570426941 0.12738735973834991 -0.056028403341770172 -0.13861867785453796 0.16305314004421234 0.065955363214015961 0.20668862760066986 0.14263388514518738 0.16182605922222137 -0.10546270757913589 0.031144905835390091 -0.080906413495540619 -0.15196001529693604 0.1077287346124649 -0.074677467346191406 -0.13149762153625488 0.081656470894813538 0.053775258362293243 -0.73778951168060303 0.42665064334869385 0.45149269700050354 -0.41445237398147583 -0.13858704268932343 0.034456368535757065 -0.15062859654426575 0.1663748174905777 0.00055853079538792372 -0.23490400612354279 0.032083261758089066 0.024699648842215538
  1.7532343864440918 -0.47295284271240234 0.2624187171459198 -0.31972941756248474 -0.43237686157226562 -0.17950372397899628 -0.16364680230617523 -0.26089051365852356 -0.041319426149129868 -0.074486799538135529 0.12182854861021042 -0.17941252887248993 0.7493518590927124 0.19302234053611755 0.34762462973594666 -0.062298212200403214 -0.12671004235744476 -0.084482736885547638 -0.10130512714385986 -0.10234515368938446 0.035281725227832794 -0.027041306719183922 -0.0259663425385952 -0.080225124955177307 -0.071661345660686493 0.2206064909696579 0.21356016397476196 0.19115681946277618 0.035954680293798447 -0.018186252564191818 0.031635899096727371 -0.0056839059107005596 0.051351685076951981 0.048852890729904175 -0.027385883033275604 0.03219335526227951 -0.2249845564365387 0.18439622223377228 -0.089144594967365265 0.30836617946624756 0.17076098918914795 0.096266433596611023 0.032616041600704193 0.10647446662187576 0.014989078976213932 0.04587738960981369 -0.084739543497562408 0.10491055250167847 -2.6208257675170898 0.3568166196346283 -0.75025898218154907 0.044832143932580948 0.62705707550048828 0.18632011115550995 -0.039314478635787964 0.34189951419830322 -0.042892493307590485 0.26977220177650452 -0.089038997888565063 0.25032934546470642
  0.8456270694732666 -0.46171438694000244 -0.39685443043708801 0.11077959090471268 0.11986134201288223 -0.023232728242874146 0.24907027184963226 0.2087332010269165 0.035494327545166016 -0.11673545092344284 -0.13332587480545044 -0.074187092483043671 -0.48904731869697571 0.31932342052459717 -0.014743100851774216 -0.16849584877490997 0.033439241349697113 -0.044060118496417999 0.22322818636894226 0.20136888325214386 -0.098418064415454865 -0.15748368203639984 0.085569210350513458 0.016420671716332436 0.13940370082855225 0.55130100250244141 -0.098977163434028625 -0.17695122957229614 0.32552993297576904 0.14584331214427948 0.26662540435791016 0.071585267782211304 -0.089904136955738068 -0.065552651882171631 0.060161449015140533 -0.040171302855014801 -0.68939495086669922 0.71772432327270508 0.29072153568267822 -0.20695377886295319 0.12251856178045273 0.38360872864723206 0.18460993468761444 0.016919005662202835 -0.22823414206504822 -0.095545202493667603 0.10672067850828171 -0.071198523044586182 -0.7144201397895813 -0.64039808511734009 0.163296177983284 0.28361475467681885 -0.1965857595205307 -0.032904781401157379 0.64859354496002197 0.23761487007141113 0.16493694484233856 -0.041623316705226898 -0.35880827903747559 -0.040533389896154404
  0.70941847562789917 0.59737706184387207 0.13701166212558746 0.91835188865661621 0.39913091063499451 -0.031114557757973671 0.009901038371026516 -0.58285683393478394 -0.25841525197029114 0.031618636101484299 -0.098096311092376709 0.13168998062610626 -0.19848206639289856 0.3016095757484436 -0.1785639226436615 0.19849681854248047 0.020734887570142746 -0.1214679479598999 0.020209848880767822 -0.19361115992069244 -0.11486977338790894 0.18653775751590729 0.057061266154050827 0.0053880959749221802 -0.043341796845197678 0.13278754055500031 0.12059471756219864 -0.069095328450202942 -0.29217711091041565 -0.19465212523937225 -0.073635190725326538 -0.056607551872730255 0.0087666912004351616 0.028169557452201843 0.036543272435665131 -0.01107811089605093 -0.45874571800231934 -0.45183351635932922 0.24640601873397827 -0.31693610548973083 -0.30367371439933777 -0.12681868672370911 -0.04808170348405838 0.076398119330406189 0.072051607072353363 -0.072005748748779297 0.057188276201486588 0.053278375416994095 0.73887187242507935 -0.59086853265762329 -0.11360809952020645 -1.1223307847976685 -0.2414688766002655 0.10961728543043137 0.16050398349761963 0.81393188238143921 0.40512970089912415 -0.19492277503013611 0.027972888201475143 -0.31099283695220947
  0.44771215319633484 -0.68564802408218384 -0.45662516355514526 -0.54620260000228882 0.018396284431219101 -0.045860938727855682 -0.055858217179775238 0.17092859745025635 0.26712816953659058 -0.18330496549606323 -0.20215235650539398 -0.34232711791992188 -0.11926478147506714 -0.031022440642118454 -0.023334948346018791 0.18948310613632202 0.3198506236076355 0.12455512583255768 0.10478179156780243 -0.033213678747415543 -0.031401365995407104 -0.1165265217423439 -0.18583904206752777 -0.0075668809004127979 -0.61274152994155884 0.16336171329021454 0.19832353293895721 0.64887720346450806 0.44981053471565247 0.23659308254718781 0.14725798368453979 -0.10194531828165054 -0.099845185875892639 -0.11085985600948334 -0.16957943141460419 0.1363578736782074 -0.46288511157035828 0.50788295269012451 0.36492934823036194 0.58473044633865356 0.18122765421867371 -0.016322337090969086 -0.044778913259506226 -0.15581415593624115 -0.21208570897579193 -0.045785561203956604 -0.061321515589952469 0.13378424942493439 1.4756920337677002 0.42616921663284302 0.51607012748718262 -0.46402394771575928 -0.95310711860656738 -0.4718552827835083 -0.6555362343788147 -0.40938341617584229 -0.4046623706817627 -0.12203087657690048 0.35890752077102661 0.088085845112800598
  -0.20514184236526489 0.089240469038486481 -0.26365941762924194 0.21632173657417297 0.23736761510372162 0.19464403390884399 0.20784656703472137 0.039919301867485046 0.076664038002490997 0.070781722664833069 -0.10888712108135223 -0.1067025363445282 0.16828452050685883 0.14709183573722839 0.021392945200204849 0.20672012865543365 -0.058643970638513565 0.0032581270206719637 0.022531112655997276 -0.22928786277770996 -0.056042630225419998 0.15936560928821564 0.033496428281068802 0.035580392926931381 0.027596976608037949 0.49969404935836792 0.10272117704153061 0.23089106380939484 -0.1778867244720459 0.054113317281007767 0.0016121647786349058 -0.25458857417106628 -0.09386838972568512 0.11164414882659912 -0.060298535972833633 0.0070805586874485016 -0.22281850874423981 0.34064874053001404 0.20582301914691925 0.09978756308555603 -0.23007659614086151 0.10741845518350601 -0.0089708771556615829 -0.21249347925186157 -0.05731494352221489 0.03772001713514328 -0.066721238195896149 0.0025023180060088634 1.0307788848876953 0.35171744227409363 0.38198748230934143 -0.09447014331817627 -0.014102472923696041 0.037904184311628342 0.025887653231620789 -0.15333205461502075 -0.10217798501253128 -0.13473635911941528 -0.1975463479757309 -0.13513763248920441 ]
 [ 0.96924895048141479 -3.0865504741668701 3.1793479919433594 2.2942168712615967 0.026832850649952888 2.9906694889068604 -2.6905426979064941 -4.5241122245788574 -1.5425287485122681 2.2833783626556396 2.1249988079071045 -1.9546883106231689 -2.2687821388244629 -0.95053917169570923 0.47597798705101013 -1.7263799905776978 1.2455688714981079 1.6404039859771729 0.47319582104682922 -0.98434680700302124 2.4834308624267578 -1.8273534774780273 -1.3705374002456665 -1.6292625665664673 0.19313468039035797 2.0933418273925781 3.1054222583770752 -2.5554945468902588 -4.2548694610595703 -4.3768773078918457 3.4458243846893311 -1.8189687728881836 -3.3384363651275635 1.4599616527557373 1.3470617532730103 -1.5602948665618896 -2.594362735748291 3.7031247615814209 -3.1808955669403076 -2.0454626083374023 1.9820597171783447 ]
<sigmoid> 41 41
<affinetransform> 42 41
 [ 
  0.7337263822555542 -2.2289862632751465 -0.76337242126464844 1.3258513212203979 -0.16781286895275116 -0.045369468629360199 0.48993077874183655 -0.44779321551322937 2.4271154403686523 0.72004413604736328 -0.0099229030311107635 -0.44575104117393494 0.54380279779434204 0.18597762286663055 -0.79969280958175659 -1.4363880157470703 -0.10515693575143814 0.63406163454055786 -0.85115349292755127 0.5919305682182312 -0.51212930679321289 -1.1452053785324097 1.2236796617507935 -2.1086604595184326 -1.9387158155441284 1.7963753938674927 0.45919489860534668 -0.3273158073425293 0.0075307511724531651 1.0998636484146118 1.9947077035903931 -0.56858283281326294 -0.61299377679824829 2.5418722629547119 -1.2534799575805664 -0.11684854328632355 0.19480405747890472 0.34805426001548767 -1.6046434640884399 -0.37165877223014832 -2.1656651496887207
  -0.63112711906433105 -0.1595168262720108 -1.5068376064300537 -0.31434482336044312 0.33429017663002014 0.60160648822784424 -1.4233189821243286 -0.075892716646194458 0.94950371980667114 -0.29428189992904663 0.068458147346973419 1.2755672931671143 -0.47021394968032837 -0.17542313039302826 0.70906287431716919 -0.50875210762023926 0.64908665418624878 -0.24813826382160187 1.3404803276062012 0.22853691875934601 -1.2197364568710327 -0.95167261362075806 0.27557912468910217 2.5839114189147949 -1.3580524921417236 -0.43468531966209412 -0.064384922385215759 -2.2142457962036133 -0.59351962804794312 0.57271087169647217 1.1020230054855347 -0.83562642335891724 -1.3267927169799805 0.96161139011383057 -0.20755946636199951 0.57386648654937744 -0.94414335489273071 -0.048536691814661026 -0.58598875999450684 -0.72492986917495728 0.31800466775894165
  -0.083513751626014709 0.054508943110704422 -1.6352373361587524 -0.12999342381954193 0.24409118294715881 0.51423978805541992 -0.038631413131952286 0.37409982085227966 1.1153473854064941 0.6797671914100647 -0.54996848106384277 0.78304398059844971 -0.16649904847145081 0.28776589035987854 0.50676006078720093 -0.062435515224933624 0.35226580500602722 1.0016504526138306 0.58986330032348633 0.44341003894805908 -1.1267497539520264 -0.23283436894416809 0.57579219341278076 1.4361597299575806 -0.15270066261291504 0.36137434840202332 -0.1718803197145462 -1.3174759149551392 0.38189682364463806 0.69091355800628662 -0.054191160947084427 -0.54353833198547363 -0.35163754224777222 0.053751293569803238 0.078099966049194336 -0.12437161058187485 -0.0099438484758138657 0.62077003717422485 0.14955376088619232 -0.044835831969976425 -0.62546581029891968
  0.63885366916656494 1.1198630332946777 2.125514030456543 1.4884864091873169 -0.23113511502742767 1.6998838186264038 -0.2292693704366684 -0.59873265027999878 0.52458995580673218 -0.61466312408447266 -0.014838090166449547 2.159900426864624 -1.4953886270523071 -1.0256651639938354 -0.31141871213912964 -1.041248083114624 -0.77924525737762451 0.16429267823696136 -0.02033148892223835 -0.044235926121473312 -0.57542574405670166 0.57487660646438599 -1.1889387369155884 0.46588036417961121 0.89086824655532837 -0.2437472939491272 -1.494135856628418 -0.022847078740596771 -0.88694936037063599 -0.2290375679731369 -2.4167931079864502 0.43296930193901062 0.044748131185770035 -2.8518049716949463 -0.35180029273033142 -0.89904952049255371 -1.9675323963165283 1.6679337024688721 1.2821580171585083 2.6033554077148438 -0.41602641344070435
  -0.01195954717695713 -0.81058657169342041 0.26080450415611267 -0.77728939056396484 -0.22916646301746368 0.12945465743541718 -0.90066725015640259 0.048855550587177277 0.90766191482543945 -0.86709296703338623 0.3523174524307251 0.052213579416275024 0.19461359083652496 -0.60539013147354126 -0.4564473032951355 0.66023194789886475 -0.08606787770986557 -0.29493212699890137 0.068781264126300812 0.7751765251159668 -0.55499285459518433 0.67577022314071655 -0.2552427351474762 -0.63551592826843262 -0.51632648706436157 -0.59577780961990356 -0.22514820098876953 0.89762216806411743 -0.81266075372695923 -0.9608798623085022 0.35672250390052795 -0.61160045862197876 0.72908645868301392 -1.7678474187850952 0.33340898156166077 -0.7012055516242981 -0.15798993408679962 0.13798373937606812 -0.12054084241390228 0.079428188502788544 -0.47020173072814941
  -0.87600845098495483 1.5756852626800537 -0.70822703838348389 -0.63980352878570557 0.3841821551322937 -2.0293941497802734 0.44194227457046509 1.4145587682723999 1.1086815595626831 0.59673821926116943 -0.62692445516586304 0.0050544673576951027 0.050771411508321762 -1.2774045467376709 0.80366420745849609 0.6879926323890686 1.6402789354324341 -1.1677253246307373 -0.64113724231719971 -1.550315260887146 1.2731606960296631 0.36336758732795715 1.0062617063522339 -0.93708431720733643 0.20536217093467712 0.79319947957992554 0.64222264289855957 -1.4012079238891602 1.3265352249145508 0.22808194160461426 0.32008793950080872 2.5068743228912354 -0.3184191882610321 -1.238556981086731 -0.9664154052734375 2.1876802444458008 1.9903596639633179 -0.93733340501785278 -0.61839556694030762 0.22098572552204132 0.5330655574798584
  0.031096996739506721 1.1737065315246582 0.84593617916107178 0.14128640294075012 1.2334935665130615 -0.42648211121559143 -0.3048119843006134 -0.43334287405014038 -0.5269702672958374 -1.1080540418624878 0.45616340637207031 0.87912446260452271 0.7765357494354248 0.61705082654953003 0.41811427474021912 0.43403488397598267 0.51840865612030029 0.43029016256332397 1.1635888814926147 -0.8399665355682373 0.69311147928237915 0.27276936173439026 -0.45936420559883118 0.61927390098571777 -0.41769564151763916 -0.11478389054536819 0.7342718243598938 0.66072577238082886 -1.6571626663208008 -0.012306107208132744 -1.9827245473861694 -0.45029425621032715 -0.91366654634475708 -0.90267473459243774 -0.28346237540245056 -0.89371883869171143 -0.58316993713378906 1.0137025117874146 1.5459624528884888 0.046475253999233246 -0.56132203340530396
  1.3260620832443237 -0.66375201940536499 0.036864694207906723 -1.3671494722366333 0.42273449897766113 -1.2486817836761475 0.3789503276348114 -0.58381253480911255 -1.0158199071884155 1.6297045946121216 4.2243447303771973 -2.4090778827667236 -1.549500584602356 2.4301238059997559 -1.9654464721679688 -3.1182284355163574 -1.4861904382705688 -0.42050212621688843 1.9759386777877808 0.67693674564361572 -0.25089329481124878 -2.1163153648376465 0.16512914001941681 0.28164094686508179 -0.47587442398071289 1.0511651039123535 1.1871428489685059 -0.83278965950012207 -0.046861186623573303 0.2093375027179718 0.28614896535873413 -2.7529804706573486 -0.24422919750213623 0.18539255857467651 2.1737625598907471 -0.14251713454723358 0.019074352458119392 -1.1948800086975098 -0.85147768259048462 -2.5736606121063232 0.094789348542690277
  0.99577528238296509 0.40597787499427795 0.50677257776260376 -1.2554569244384766 -0.076861269772052765 0.23490263521671295 0.34191539883613586 0.67595034837722778 0.13503487408161163 0.58766716718673706 1.8815847635269165 0.30113661289215088 0.072414398193359375 0.50428366661071777 -1.3770862817764282 -0.951557457447052 -0.53993558883666992 0.9708254337310791 0.17189645767211914 0.49237468838691711 -0.83767229318618774 -0.58730512857437134 0.36760836839675903 0.67074751853942871 0.31116592884063721 0.89772611856460571 -0.29774948954582214 -0.99389106035232544 -0.00089344597654417157 0.68848514556884766 0.18401159346103668 -0.62204986810684204 -0.69323116540908813 0.37819501757621765 0.82124775648117065 -0.46474635601043701 0.14792028069496155 -0.17101265490055084 1.0351555347442627 -1.5897793769836426 -0.60788774490356445
  1.2475340366363525 -0.73449891805648804 1.2495794296264648 0.55827111005783081 -0.95155757665634155 -1.0989017486572266 0.87960833311080933 -1.128831148147583 -0.746776282787323 -0.25653630495071411 0.81770104169845581 0.83605527877807617 -1.1624668836593628 0.1636589914560318 0.56322288513183594 1.3140352964401245 -1.9571317434310913 0.12309516966342926 -0.44223031401634216 -0.24702753126621246 0.26591816544532776 1.6531144380569458 0.02989533357322216 -0.63932651281356812 0.090555295348167419 -0.44303882122039795 -0.48443260788917542 0.22307759523391724 -0.98183262348175049 -0.53189414739608765 -1.0539654493331909 -0.66355311870574951 2.7019574642181396 -0.14710168540477753 0.0076205967925488949 -1.3514333963394165 1.2019804716110229 0.96389657258987427 -0.52578896284103394 1.1212130784988403 -0.73671352863311768
  0.011983367614448071 0.49551171064376831 -0.52651423215866089 0.34996181726455688 -2.7999374866485596 -0.89098256826400757 1.4057791233062744 -0.13390277326107025 -0.8564792275428772 0.28987827897071838 -0.47779792547225952 0.024705937132239342 -0.41313821077346802 0.44105339050292969 -0.35566502809524536 0.11871318519115448 1.1447385549545288 -0.89337968826293945 0.72550117969512939 1.0372530221939087 1.5248736143112183 0.14456312358379364 0.0021968602668493986 0.34962162375450134 -0.13002201914787292 -0.79462790489196777 -1.0443569421768188 1.1837667226791382 1.6379034519195557 0.53307747840881348 0.56054151058197021 -0.27182173728942871 1.1120057106018066 -0.057858575135469437 -0.17508955299854279 0.29401224851608276 -0.70915669202804565 2.5243666172027588 1.409537672996521 1.2386800050735474 -1.00718092918396
  -0.31739860773086548 -0.1258726567029953 0.24918459355831146 -1.6714884042739868 0.083879873156547546 -0.80985832214355469 0.11277368664741516 -0.80488365888595581 0.25879308581352234 0.17523878812789917 -1.0306335687637329 0.41020220518112183 -0.19381387531757355 0.45870468020439148 -1.4355185031890869 0.46711784601211548 0.87927627563476562 -0.0059442361816763878 0.67525827884674072 0.56001120805740356 0.15795597434043884 0.50026750564575195 0.50317156314849854 0.08068472146987915 -0.4733041524887085 -1.2621082067489624 -0.14234015345573425 0.73070222139358521 -0.35336187481880188 0.77025938034057617 0.21105299890041351 -0.026059407740831375 0.80788332223892212 -1.0355616807937622 -0.11195739358663559 0.33275389671325684 -0.27913540601730347 -0.18569865822792053 -0.15253354609012604 0.94730329513549805 -0.42539921402931213
  0.83171957731246948 -1.7031025886535645 0.55488014221191406 0.14519450068473816 -0.48892810940742493 0.14510577917098999 2.0426647663116455 -1.2125235795974731 0.06969868391752243 2.1432042121887207 0.54615718126296997 1.0038912296295166 -0.87953454256057739 1.6425269842147827 -0.3089299201965332 0.40308481454849243 -2.0118927955627441 -0.15047773718833923 -0.37297123670578003 -1.0602046251296997 1.8322917222976685 1.9742269515991211 -0.94722574949264526 2.0824477672576904 -0.62440335750579834 -2.3732516765594482 -1.3754869699478149 0.66186255216598511 1.9166589975357056 -1.6960140466690063 -1.5093421936035156 -0.97758650779724121 0.89330559968948364 -0.46094110608100891 1.8615390062332153 0.93462377786636353 1.2059080600738525 -0.58939909934997559 -0.71586769819259644 0.26041725277900696 0.11895298957824707
  -1.0627568960189819 0.7065814733505249 1.1528524160385132 -1.1016194820404053 -0.065491743385791779 -0.22563587129116058 1.7293704748153687 -1.0594842433929443 -0.26542931795120239 0.38343903422355652 -0.98982059955596924 -0.9707755446434021 0.37155959010124207 -0.86608588695526123 -0.75090891122817993 1.7159446477890015 -1.5754132270812988 0.14054407179355621 0.83757537603378296 -0.89908760786056519 1.0431113243103027 2.3922646045684814 1.3011534214019775 -0.013258202932775021 0.59609729051589966 -1.5051144361495972 0.62581926584243774 -0.045665614306926727 2.6028358936309814 -2.0991532802581787 -0.79990386962890625 1.291212797164917 -0.12165841460227966 -0.38232249021530151 -0.071382440626621246 -1.840815544128418 0.095333218574523926 -1.5029492378234863 -0.89445501565933228 0.078580163419246674 1.4027805328369141
  0.75365865230560303 0.30576354265213013 -0.87086397409439087 -1.2698409557342529 1.024492621421814 0.45602428913116455 1.5617669820785522 0.54219037294387817 -0.6514018177986145 -1.3629615306854248 -1.3418817520141602 -1.5469874143600464 -0.088112495839595795 -0.38140693306922913 -0.44566062092781067 -0.526356041431427 -0.45226520299911499 0.10246213525533676 -1.0351496934890747 0.69971334934234619 -0.58846920728683472 -1.1949303150177002 -1.8329035043716431 0.37830358743667603 -0.48709741234779358 0.69499897956848145 -0.055216483771800995 0.40796971321105957 1.553693413734436 -0.63681197166442871 1.6889926195144653 -0.24429628252983093 0.74479615688323975 0.40843510627746582 1.2439712285995483 0.70801025629043579 -0.40628233551979065 0.11665786057710648 -0.12401162087917328 0.19993281364440918 -0.39152592420578003
  0.39252611994743347 1.1048747301101685 -1.7433986663818359 -0.12849290668964386 0.76945233345031738 -0.042969785630702972 0.83707380294799805 1.5161229372024536 -0.01760152168571949 0.68198299407958984 -2.1510162353515625 -0.53422224521636963 1.0574847459793091 -0.9534727931022644 -0.41378805041313171 -0.35774973034858704 -0.5215604305267334 0.93746113777160645 -0.31198874115943909 1.8135112524032593 -1.9660336971282959 -0.8750835657119751 -1.4132765531539917 -0.83735007047653198 -0.26464983820915222 0.85144877433776855 1.1286660432815552 0.35256090760231018 0.94712144136428833 1.0384736061096191 1.6377705335617065 -0.56245255470275879 -0.0068444185890257359 1.1434085369110107 -0.39160099625587463 1.0889159440994263 -0.32007545232772827 1.0936181545257568 -0.71928942203521729 0.071089282631874084 0.30922490358352661
  -1.4026707410812378 1.969157338142395 -0.76181429624557495 -0.51985955238342285 1.33670973777771 0.46900200843811035 -0.3661029040813446 1.471173882484436 2.4892399311065674 -2.5717887878417969 -0.66991114616394043 -0.46427446603775024 -0.24716375768184662 -0.28018450736999512 -1.297602653503418 0.91859304904937744 1.3775817155838013 0.84635549783706665 -1.0689431428909302 -0.86702489852905273 2.0449626445770264 1.2973155975341797 1.4020758867263794 0.6979106068611145 0.26450064778327942 -0.5782666802406311 0.50424689054489136 -1.9670858383178711 -0.3895852267742157 0.85091769695281982 -1.4109518527984619 0.32537570595741272 -1.6458425521850586 -1.5109848976135254 -0.30418744683265686 2.4485177993774414 0.25969141721725464 -0.44601216912269592 0.49312585592269897 0.51373374462127686 1.2754408121109009
  0.53511506319046021 0.48852252960205078 -0.42371153831481934 0.3769676685333252 -2.6916987895965576 -2.9488205909729004 1.6205846071243286 -1.2826137542724609 -1.9464359283447266 1.8327102661132812 0.067461259663105011 -0.072128698229789734 0.87388283014297485 1.3328138589859009 -0.067459508776664734 0.48664060235023499 1.4099509716033936 -1.277443528175354 0.20662993192672729 -1.2719589471817017 0.88909226655960083 -0.63450884819030762 -1.9561395645141602 0.62949293851852417 0.18917475640773773 -0.32841858267784119 -1.3990538120269775 0.34128981828689575 2.1876320838928223 -1.5787061452865601 0.48388752341270447 -0.023311465978622437 2.0142040252685547 -0.71138894557952881 1.0796396732330322 -0.17121148109436035 2.3943099975585938 0.96713942289352417 -0.16672027111053467 0.33759844303131104 0.67306381464004517
  -1.7431498765945435 0.67014920711517334 1.72281813621521 -1.8344706296920776 -0.96375918388366699 -1.4595732688903809 0.822795569896698 -0.92329680919647217 -1.4819933176040649 0.86080688238143921 -0.018021214753389359 -0.3890400230884552 -0.50386238098144531 -0.73480969667434692 -0.62072581052780151 0.75091791152954102 0.23953922092914581 -0.61924088001251221 -0.3329138457775116 -2.0407140254974365 1.2573060989379883 1.9714869260787964 1.8679871559143066 -0.82231509685516357 1.0461252927780151 0.30331906676292419 0.086818031966686249 0.69301986694335938 2.1570038795471191 -2.9330878257751465 0.064878404140472412 2.668088436126709 1.4792313575744629 -0.68444991111755371 -0.020558122545480728 -1.4358417987823486 1.3657658100128174 -1.6103264093399048 -0.33195787668228149 0.26153582334518433 0.89208352565765381
  1.4266819953918457 -0.96833944320678711 1.4899333715438843 1.3753918409347534 -0.2102644294500351 0.36068224906921387 0.56612426042556763 -0.27507251501083374 2.4207534790039062 0.71937072277069092 -0.73515802621841431 1.2582041025161743 0.83460181951522827 -0.72872883081436157 -1.8706104755401611 -2.1633217334747314 -1.0255612134933472 0.025788377970457077 0.72274971008300781 0.68145447969436646 -0.55032491683959961 1.261439323425293 -0.50719571113586426 0.30448082089424133 0.40701499581336975 1.2566627264022827 -1.3687700033187866 -0.57834744453430176 0.030260730534791946 2.7652018070220947 0.48886486887931824 0.19018875062465668 0.6821972131729126 0.74756252765655518 -0.46628150343894958 -0.77358865737915039 -3.0964674949645996 1.7978624105453491 2.8253722190856934 1.4801453351974487 -1.7002702951431274
  -0.67647653818130493 0.3135046660900116 1.2633159160614014 -0.20901203155517578 -0.14427192509174347 -0.6517949104309082 -0.62569344043731689 -0.88075298070907593 1.2566018104553223 -0.27619066834449768 0.04785628616809845 -1.0212483406066895 0.21956343948841095 0.47575441002845764 -1.3746627569198608 0.011785752139985561 -0.34954756498336792 -0.69222748279571533 0.045424055308103561 -0.040483511984348297 -1.2140216827392578 -0.52835959196090698 0.79768651723861694 -0.90149974822998047 -0.32730370759963989 -0.68271511793136597 -0.30248638987541199 0.2752949595451355 -0.08691927045583725 0.736014723777771 -0.23366521298885345 -0.13069948554039001 0.78543281555175781 -0.7008015513420105 -0.55958676338195801 0.58633917570114136 -0.29134833812713623 0.39534458518028259 0.33807268738746643 -0.83161497116088867 0.3134269118309021
  1.2156697511672974 -0.36188122630119324 -0.28396052122116089 0.33253353834152222 0.48209249973297119 -0.28107672929763794 -0.41600990295410156 -0.28166258335113525 1.296099066734314 0.40568801760673523 -1.1006693840026855 -0.16255037486553192 3.0093231201171875 -0.19083274900913239 -0.59369969367980957 -0.49158370494842529 0.1720455139875412 0.80844449996948242 0.70627951622009277 0.80345439910888672 0.5020257830619812 0.38814744353294373 -0.76917660236358643 0.66808140277862549 -2.0870306491851807 0.35205712914466858 0.87863165140151978 0.59100323915481567 0.78206151723861694 0.68255752325057983 1.420171856880188 -0.59606397151947021 -0.15190492570400238 2.0722589492797852 -1.7183302640914917 0.98293471336364746 -1.6996275186538696 0.065480463206768036 1.9973162412643433 0.41865700483322144 -1.0446006059646606
  -1.644096851348877 -0.72413039207458496 -0.53499907255172729 -0.08084481954574585 0.52381515502929688 0.35168898105621338 0.85438734292984009 0.00024058140115812421 1.0531798601150513 0.039500042796134949 -0.85217267274856567 -1.0577441453933716 0.19298478960990906 0.22283312678337097 -0.94834387302398682 -0.98302829265594482 -0.27131572365760803 0.10576259344816208 -0.54006278514862061 1.1812210083007812 -0.38906154036521912 0.17191290855407715 0.22596220672130585 -1.4831094741821289 -1.0605037212371826 0.64850842952728271 0.29334744811058044 1.1674191951751709 0.29020246863365173 0.088748812675476074 -0.24712228775024414 0.47231286764144897 0.076331786811351776 -1.5877959728240967 -0.59309673309326172 0.60221433639526367 -1.6490278244018555 0.73220944404602051 0.68302804231643677 0.1904265433549881 -0.40551012754440308
  -1.1710721254348755 -1.9660084247589111 1.3636611700057983 0.89340907335281372 0.19536037743091583 1.7528930902481079 0.96295398473739624 0.45812880992889404 -0.04811415821313858 0.20266035199165344 1.9918416738510132 -0.47322991490364075 -0.48208603262901306 0.10485894978046417 1.5506745576858521 0.76430648565292358 -0.62446939945220947 0.88479405641555786 0.1978689432144165 1.2487763166427612 -0.93836557865142822 -0.81484466791152954 0.7391628623008728 0.59978568553924561 0.78891366720199585 -1.7840756177902222 -1.8237135410308838 0.90894114971160889 -0.35172820091247559 -0.64741045236587524 0.5516321063041687 0.16150037944316864 1.7731890678405762 0.82028645277023315 -0.3987618088722229 0.7043614387512207 -0.65867710113525391 -1.6117339134216309 -0.86143821477890015 -1.9096311330795288 0.33592569828033447
  -0.29880934953689575 -0.98350977897644043 1.5165849924087524 0.91362869739532471 -0.20653790235519409 0.21850013732910156 0.56558126211166382 0.29039978981018066 0.40022769570350647 -0.15139901638031006 0.7851453423500061 -0.23409363627433777 0.78960734605789185 -0.22584173083305359 1.063151478767395 0.80411452054977417 -0.26154804229736328 0.81087559461593628 -0.0073203942738473415 0.62080264091491699 -1.4365638494491577 -0.10798089951276779 0.76233762502670288 1.4681349992752075 -0.081028193235397339 -0.31942388415336609 -0.93976348638534546 0.043760798871517181 -0.3744928240776062 -0.55866974592208862 0.72109830379486084 0.3136126697063446 0.6073310375213623 0.049678616225719452 -0.73662889003753662 0.616965651512146 -0.213666632771492 -0.37633168697357178 -0.32678133249282837 -1.5350855588912964 0.16686110198497772
  -0.45133328437805176 1.0106048583984375 1.3915400505065918 1.2746330499649048 0.58158797025680542 -0.62471860647201538 -0.39856380224227905 -1.0884106159210205 -0.5652121901512146 0.33937978744506836 -0.59147483110427856 -0.4205571711063385 -0.30139786005020142 -0.40082544088363647 -0.090574219822883606 -0.84864223003387451 -0.917549729347229 -0.73445695638656616 0.15825627744197845 -0.85584050416946411 -0.33312240242958069 0.90212994813919067 -0.0099161043763160706 0.39089712500572205 0.97377097606658936 -0.94609099626541138 -1.4910610914230347 -1.1567792892456055 -0.49051627516746521 -1.2617485523223877 -0.84567630290985107 1.0660090446472168 0.76513046026229858 -1.1777681112289429 0.12264988571405411 -1.2737253904342651 0.45912808179855347 1.8121186494827271 0.62260299921035767 1.0702416896820068 1.5801512002944946
  -1.3189674615859985 0.11509856581687927 -0.11922958493232727 -1.0317928791046143 -0.12038422375917435 -0.065557926893234253 -0.33996689319610596 -0.15326304733753204 -0.42855435609817505 0.28522956371307373 -0.42401799559593201 -0.2019338458776474 0.28925114870071411 0.45273333787918091 -0.03716074675321579 1.003087043762207 -1.2587411403656006 0.32096579670906067 -0.37234321236610413 -0.51312226057052612 1.2231289148330688 1.2363168001174927 1.1607874631881714 -0.90950638055801392 -0.31637051701545715 -0.7778657078742981 0.79647374153137207 -0.011467793956398964 0.76800966262817383 -1.136784553527832 0.15755856037139893 0.12721654772758484 0.57646274566650391 -1.1164016723632812 0.68299412727355957 -0.67422819137573242 0.22571255266666412 -1.4640610218048096 -0.090703234076499939 -0.36915212869644165 0.49097186326980591
  1.221474289894104 0.35414481163024902 -1.5935800075531006 0.19566690921783447 -0.06213819608092308 1.2099469900131226 -0.32783061265945435 -1.1520042419433594 -0.76816689968109131 1.1470608711242676 0.095695085823535919 -0.2392755001783371 -0.30656936764717102 -0.59573245048522949 -0.39222598075866699 -0.72170329093933105 1.4435487985610962 -0.14501157402992249 0.26586282253265381 -0.78422677516937256 1.6781349182128906 -1.5162760019302368 -2.6929252147674561 -0.11065962165594101 -0.28634095191955566 1.2542784214019775 0.24834461510181427 -1.1415818929672241 -1.1001887321472168 -0.073341250419616699 -0.98820894956588745 -0.93593573570251465 -0.84264147281646729 -0.87058329582214355 -0.83776712417602539 -0.017663925886154175 -1.1605625152587891 1.0120664834976196 -1.3413362503051758 -0.43625235557556152 1.3664356470108032
  0.6944587230682373 2.2615783214569092 -0.88665485382080078 0.33861395716667175 1.0636193752288818 0.33872506022453308 -0.084046468138694763 -0.95762407779693604 0.85885477066040039 0.036055002361536026 -0.069426640868186951 -0.83443838357925415 1.1564176082611084 0.93894273042678833 0.15233705937862396 0.80752396583557129 -0.64614135026931763 0.37832090258598328 1.910008430480957 -0.0050321011804044247 -0.3963104784488678 0.674693763256073 -0.91148412227630615 -0.70335298776626587 0.88832074403762817 0.015303855761885643 -0.62445056438446045 0.16445128619670868 0.26495909690856934 0.28046140074729919 -1.1043572425842285 -0.40046045184135437 1.9856201410293579 0.76310515403747559 -0.8418535590171814 -0.16026510298252106 -1.2055200338363647 -0.8462793231010437 1.2078344821929932 1.1013082265853882 0.73384511470794678
  -1.0918065309524536 1.971920371055603 1.0607678890228271 0.031024457886815071 0.086434274911880493 0.74916571378707886 -0.57663404941558838 -0.43041551113128662 0.34687575697898865 -0.76104193925857544 0.084343232214450836 -0.36359000205993652 0.013464095070958138 -0.53539443016052246 0.43928173184394836 1.6421191692352295 -0.141383096575737 -0.57089275121688843 0.032783947885036469 0.75862520933151245 -0.056758634746074677 0.30224338173866272 -0.36437004804611206 0.32573121786117554 0.075269095599651337 -0.51291340589523315 0.77589112520217896 1.0745400190353394 0.49343201518058777 -0.57900100946426392 -0.81300920248031616 -0.18257498741149902 -0.19789604842662811 -1.3377193212509155 -0.14373880624771118 -0.19253356754779816 -0.87930059432983398 -1.5209802389144897 0.33490216732025146 0.83741104602813721 -0.62636834383010864
  0.66895478963851929 -0.77145105600357056 0.084783472120761871 0.63675820827484131 1.5377956628799438 -0.75301611423492432 -1.6407477855682373 2.8925726413726807 -0.38401961326599121 0.87775236368179321 0.63309729099273682 0.50419586896896362 -0.58110052347183228 0.0049420194700360298 0.24005122482776642 0.69596260786056519 -0.40814155340194702 0.32139107584953308 0.16243769228458405 0.29562187194824219 0.40187561511993408 2.2954366207122803 2.6991856098175049 0.043029535561800003 -0.90719103813171387 -0.72186571359634399 -0.31312787532806396 -0.33788156509399414 -2.3281898498535156 2.7754068374633789 -1.1922498941421509 -0.29316046833992004 -0.2856268584728241 -0.1788022369146347 -0.8541913628578186 -0.21280656754970551 -0.16540010273456573 0.42332810163497925 -0.62439775466918945 -0.026660842821002007 0.16671934723854065
  0.69608408212661743 -0.51970845460891724 -1.0924820899963379 -0.54960906505584717 1.1226944923400879 -1.0588889122009277 1.2242939472198486 2.7027342319488525 2.3968143463134766 1.5064272880554199 0.0107398871332407 0.65066742897033691 0.80482083559036255 0.7696804404258728 -0.65885484218597412 1.5194755792617798 -0.43991687893867493 1.1450912952423096 -0.31590604782104492 -0.56370657682418823 1.8391751050949097 2.4883699417114258 2.5371663570404053 -0.16429166495800018 -1.2566347122192383 -0.48981469869613647 1.2870031595230103 -0.51910531520843506 0.95026791095733643 1.2106074094772339 -2.098414421081543 -0.16358090937137604 -1.0265554189682007 -0.392007976770401 -1.4407320022583008 2.9594082832336426 0.83194065093994141 -1.6258516311645508 -1.1966738700866699 -0.69909030199050903 -1.1129603385925293
  0.98743653297424316 -1.4518992900848389 1.5988283157348633 0.11010757833719254 0.56401151418685913 0.025325898081064224 -1.1435827016830444 -3.1471259593963623 -0.44524955749511719 0.30514976382255554 1.1004579067230225 -2.1913418769836426 -0.92980331182479858 -0.87985420227050781 2.4259169101715088 -2.2077226638793945 -2.214672327041626 0.37036556005477905 0.37367323040962219 -4.8392834663391113 -0.52276080846786499 -1.7921870946884155 -0.83233994245529175 -1.230205774307251 -0.14498052000999451 1.1508661508560181 1.224118709564209 1.2623850107192993 -0.58293139934539795 -0.4686448872089386 0.40722483396530151 -1.7742974758148193 -0.6344444751739502 1.289128303527832 3.748570442199707 -1.1638282537460327 -0.29227161407470703 0.053623732179403305 -0.4085732102394104 -0.65963053703308105 -1.4433060884475708
  0.46506822109222412 -0.59036552906036377 0.24328960478305817 1.4166020154953003 0.30098143219947815 1.3388651609420776 0.24738536775112152 -2.1284723281860352 -0.34514522552490234 0.39375251531600952 0.87316906452178955 -0.33592799305915833 -1.3888444900512695 -1.5954277515411377 0.47589492797851562 -1.3073979616165161 -0.53474676609039307 0.79898786544799805 1.4813418388366699 -0.71666347980499268 1.0433436632156372 -0.70140683650970459 -2.4193322658538818 -0.72725528478622437 0.26798930764198303 2.1375222206115723 -1.0486617088317871 -2.2636730670928955 -1.4559850692749023 -0.87929338216781616 -0.39417138695716858 -2.629237174987793 -0.53833931684494019 0.3020700216293335 1.0961108207702637 -2.0420565605163574 -1.9806352853775024 -0.22707714140415192 -1.3918476104736328 -1.2659494876861572 -0.76234650611877441
  0.86887603998184204 -1.6856620311737061 0.35984238982200623 0.37980243563652039 0.23542365431785583 0.72883707284927368 -0.17756858468055725 -3.2590570449829102 0.063960760831832886 0.16183848679065704 1.2663482427597046 -1.0333433151245117 -1.0543690919876099 -1.1357995271682739 1.0075186491012573 -1.1938042640686035 -0.76210176944732666 0.67119580507278442 0.30175673961639404 -2.5420360565185547 1.6518415212631226 -1.1324529647827148 -1.0764033794403076 -1.2091193199157715 0.0037551173008978367 1.3550573587417603 -0.025614544749259949 -1.456592321395874 -0.99112147092819214 -1.088148832321167 0.43845722079277039 -2.1326608657836914 -0.47129353880882263 0.92224574089050293 1.058357834815979 -1.3791923522949219 -1.4908440113067627 1.3408055305480957 -1.1389678716659546 -0.46571201086044312 -2.1242763996124268
  0.071173965930938721 1.495471715927124 0.29904279112815857 0.2660638689994812 1.3032702207565308 -1.4925795793533325 -0.58570873737335205 0.073370888829231262 -0.67674118280410767 1.1098992824554443 -0.21488966047763824 0.35593518614768982 0.019564181566238403 0.059986993670463562 0.40681278705596924 -0.35265955328941345 1.6224606037139893 -1.1533271074295044 0.094769015908241272 -0.99221450090408325 0.80859440565109253 1.3311119079589844 -0.056391336023807526 0.33280742168426514 0.02547517791390419 -0.24464622139930725 1.463748574256897 -1.203895092010498 -1.5084714889526367 -2.0697736740112305 -0.83247596025466919 1.2100909948348999 -0.99593549966812134 -1.7304483652114868 0.1301867663860321 -0.024083875119686127 0.95506107807159424 1.4096857309341431 0.021727997809648514 0.3897697925567627 1.3597912788391113
  0.20544037222862244 -1.1253421306610107 -1.1338533163070679 0.49214479327201843 1.5225964784622192 -1.6663048267364502 -0.9104728102684021 2.499685525894165 -1.392174243927002 -0.40700644254684448 -0.1724126785993576 0.10611904412508011 -0.35062068700790405 -1.0940654277801514 0.50538671016693115 -0.28569281101226807 2.0119330883026123 -0.91586762666702271 -1.1233365535736084 -1.1685357093811035 -0.0078395716845989227 0.46620732545852661 0.17716909945011139 -0.52389043569564819 0.58266949653625488 0.36743888258934021 -0.13622087240219116 -0.7093086838722229 -1.3796308040618896 2.5735421180725098 0.35439810156822205 1.6611566543579102 0.058499429374933243 -0.98991590738296509 -0.47640487551689148 -0.812000572681427 2.1483776569366455 0.97605693340301514 -0.64055359363555908 0.87096309661865234 0.94415074586868286
  1.4760501384735107 -1.8784544467926025 -0.092915676534175873 -0.083368711173534393 -0.50543010234832764 1.2017226219177246 -0.68974155187606812 1.4759515523910522 -0.458595871925354 -0.88921153545379639 0.82947951555252075 0.3168577253818512 -1.9111052751541138 -0.061309151351451874 0.042539305984973907 1.0072129964828491 -0.42996859550476074 -0.26079678535461426 -1.4481005668640137 0.95098304748535156 -0.25659501552581787 -0.70012772083282471 0.050003908574581146 -0.12611138820648193 0.72895538806915283 0.76960223913192749 -0.99139171838760376 0.7960624098777771 -1.0843962430953979 0.19750243425369263 2.1104319095611572 0.1389378160238266 0.50869429111480713 0.64904624223709106 -0.52681106328964233 0.26824086904525757 0.61557453870773315 -1.1259269714355469 -1.7748451232910156 -1.1679295301437378 0.015300946310162544
  0.78932297229766846 -0.22161705791950226 0.28392049670219421 1.3693521022796631 -0.37479192018508911 -0.52753353118896484 -0.46946704387664795 2.3106167316436768 -0.19662494957447052 -0.59209787845611572 0.65434682369232178 0.20148612558841705 0.50747126340866089 -0.23384416103363037 0.39666366577148438 0.59908938407897949 -1.1812378168106079 1.3346914052963257 -0.52921992540359497 0.77821838855743408 -1.298230767250061 -1.693526029586792 -0.3867858350276947 -0.49950417876243591 1.1055227518081665 1.0552672147750854 -0.52717238664627075 1.2504442930221558 0.50132262706756592 1.0069421529769897 1.8790116310119629 -0.71454542875289917 -0.24484866857528687 0.69405162334442139 -0.9643135666847229 -0.061729978770017624 0.4822356104850769 -0.1889917254447937 -0.39640378952026367 -1.5508805513381958 -0.046277724206447601
  -0.21572314202785492 0.33022460341453552 0.012395704165101051 1.0414271354675293 0.052739959210157394 1.479246973991394 -0.057812739163637161 0.22840850055217743 0.70522034168243408 0.12260281294584274 -0.030271483585238457 1.0228970050811768 -0.4673689603805542 -0.38190329074859619 0.44728928804397583 -0.3366401195526123 0.60365134477615356 -0.40674048662185669 0.97879117727279663 1.531743049621582 -0.5110924243927002 1.5214148759841919 0.59450292587280273 0.32960760593414307 -0.35337802767753601 -0.88895827531814575 -1.4011857509613037 -1.2300056219100952 -0.3337455689907074 0.13658298552036285 0.14483131468296051 -0.33280181884765625 -0.34389623999595642 1.1337815523147583 -1.0877460241317749 -0.39799642562866211 -1.5113871097564697 0.24427010118961334 0.36116901040077209 -0.67907613515853882 -1.1080962419509888
  -1.5549160242080688 1.2737330198287964 0.12237055599689484 -0.911110520362854 -0.046763908118009567 0.55378931760787964 -0.033867660909891129 -1.1254637241363525 -0.66671866178512573 -0.24563932418823242 -1.164771556854248 -2.113673210144043 -0.89815741777420044 -0.3575320839881897 1.5080510377883911 -0.08193245530128479 -0.59718221426010132 -1.4933862686157227 0.0057342313230037689 2.053295373916626 0.10703462362289429 0.13465377688407898 -0.99135160446166992 1.1390185356140137 0.26506447792053223 -1.2003259658813477 1.0207499265670776 1.128144383430481 0.69323217868804932 -0.16717597842216492 2.5399806499481201 -0.33022725582122803 -0.26319396495819092 0.0055720922537147999 0.031975012272596359 0.85204535722732544 -1.7486401796340942 0.087599657475948334 -1.4508579969406128 0.36858448386192322 0.22941209375858307
  0.22379769384860992 -1.1876344680786133 -0.77693295478820801 0.83109235763549805 -0.20148980617523193 -0.20956845581531525 -0.91171550750732422 1.72630774974823 -0.71605509519577026 -2.7388148307800293 -0.024169398471713066 1.7694979906082153 -1.6639939546585083 -0.47190845012664795 0.87212264537811279 0.12656791508197784 3.4115262031555176 0.21661151945590973 -0.39940819144248962 -1.3662974834442139 0.5773698091506958 -0.60341477394104004 0.56678122282028198 -0.6268879771232605 0.0064743109978735447 0.013326466083526611 -1.1496787071228027 -2.4348549842834473 -2.5233750343322754 3.7658228874206543 -1.2678747177124023 -1.4318022727966309 -0.93758285045623779 -0.62824767827987671 0.061610143631696701 -1.2156634330749512 0.69151163101196289 0.18278014659881592 2.9545660018920898 1.1410428285598755 1.2773817777633667 ]
 [ -0.81168663501739502 -0.43550622463226318 2.3282599449157715 0.76300036907196045 -0.42357903718948364 0.015135161578655243 0.57169055938720703 -1.0790679454803467 0.56507682800292969 0.011809756979346275 -0.314218670129776 -0.082903161644935608 0.13454599678516388 0.069486416876316071 -0.31206181645393372 1.2713174819946289 0.75188106298446655 2.7433500289916992 0.3247968852519989 -1.8216041326522827 0.012850538827478886 -1.1993598937988281 -0.18563970923423767 -0.83433437347412109 0.9291985034942627 0.14392806589603424 0.20940107107162476 -0.33950379490852356 0.38312870264053345 0.082595087587833405 0.40699446201324463 0.16091816127300262 -2.4633300304412842 -0.94459456205368042 -0.98034679889678955 -0.931557297706604 -0.23500975966453552 -0.57631134986877441 0.040121819823980331 0.54102104902267456 1.2692269086837769 0.24092455208301544 ]
<softmax> 42 42
</Nnet>
