<Nnet>
<input> 60 60
<affinetransform> 41 60
 [ 
  -0.14669285714626312 0.12577320635318756 -0.11455840617418289 -0.081568904221057892 -0.037777002900838852 -0.19446034729480743 -0.1640968918800354 0.050686493515968323 -0.28672069311141968 0.096447691321372986 -0.084546126425266266 -0.15105023980140686 -0.13491545617580414 0.16830183565616608 -0.15628489851951599 -0.0268708486109972 -0.042917907238006592 -0.27183470129966736 -0.10004033893346786 -0.051348000764846802 -0.35484513640403748 0.038877643644809723 -0.26132297515869141 -0.15181379020214081 -0.1136617511510849 0.16379557549953461 -0.24517376720905304 0.011717948131263256 -0.068399697542190552 -0.39666074514389038 -0.0049688555300235748 -0.18616302311420441 -0.36271217465400696 0.032343093305826187 -0.40675091743469238 -0.10502822697162628 -0.13367322087287903 0.088237449526786804 -0.35677725076675415 0.0064972043037414551 -0.067325025796890259 -0.46782344579696655 0.10873668640851974 -0.22301849722862244 -0.23812058568000793 0.18023574352264404 -0.37057936191558838 -0.012620773166418076 -0.1589866429567337 0.024136388674378395 -0.42133453488349915 0.0029031597077846527 -0.03510676696896553 -0.46476441621780396 0.16111575067043304 -0.19472408294677734 -0.10369531810283661 0.31706127524375916 -0.2859174907207489 0.04285787045955658
  -0.0061472263187170029 -0.23881764709949493 -0.11346856504678726 0.36592990159988403 -0.22668249905109406 -0.14822883903980255 -0.018009673804044724 -0.14636117219924927 0.023695763200521469 0.1073661670088768 0.35693845152854919 0.13223569095134735 0.014172452501952648 -0.26997241377830505 -0.14981275796890259 0.307076096534729 -0.19317805767059326 -0.097567014396190643 -0.042835786938667297 -0.072391882538795471 -0.10037099570035934 0.13315142691135406 0.28396016359329224 0.11606258153915405 0.051054242998361588 -0.24804826080799103 -0.16762468218803406 0.18717728555202484 -0.09885675460100174 -0.031233308836817741 -0.089279890060424805 0.052367307245731354 -0.3666394054889679 0.11472773551940918 0.042398497462272644 0.055045824497938156 0.10115492343902588 -0.1880621612071991 -0.15321198105812073 0.074208445847034454 0.002158723771572113 0.020146891474723816 -0.13930504024028778 0.13878102600574493 -0.65355908870697021 0.057102169841527939 -0.23760940134525299 -0.017742352560162544 0.15037737786769867 -0.13622848689556122 -0.12613250315189362 0.004841717891395092 0.039979808032512665 0.047360528260469437 -0.15840490162372589 0.14704552292823792 -0.77587217092514038 0.021323312073945999 -0.36642622947692871 -0.073143400251865387
  -0.36309534311294556 0.42076846957206726 0.30348992347717285 -0.079655975103378296 -0.33550304174423218 0.10746116191148758 0.60640847682952881 0.14838132262229919 -0.46757903695106506 -0.26744735240936279 0.23220884799957275 0.61071962118148804 -0.25468543171882629 0.29730623960494995 0.22289852797985077 -0.10697485506534576 -0.31396540999412537 0.067090481519699097 0.43532714247703552 0.09962337464094162 -0.37483963370323181 -0.18999122083187103 0.19353240728378296 0.45495793223381042 -0.09824468195438385 0.12000489979982376 0.090755224227905273 -0.10338287800550461 -0.2105422168970108 0.042997773736715317 0.16538624465465546 0.028809640556573868 -0.18330363929271698 -0.054045617580413818 0.10389666259288788 0.19804222881793976 0.033861380070447922 -0.021024202927947044 -0.037008289247751236 -0.060287948697805405 -0.066671267151832581 0.060210332274436951 -0.038163669407367706 -0.044432815164327621 -0.0018069001380354166 0.048946231603622437 -0.0066145854070782661 -0.016081620007753372 0.11318767815828323 -0.090502068400382996 -0.10886788368225098 -0.024802230298519135 0.029574329033493996 0.085126206278800964 -0.10832332074642181 -0.0940680131316185 0.091608412563800812 0.094204314053058624 -0.093500122427940369 -0.11740593612194061
  -0.10185984522104263 0.099285028874874115 -0.023399274796247482 -0.065210156142711639 0.019371245056390762 0.17040388286113739 -0.077857926487922668 -0.026133952662348747 0.20240695774555206 -0.083198510110378265 -0.37759211659431458 0.25534665584564209 -0.14339278638362885 0.14621052145957947 -0.015610082074999809 -0.041177846491336823 0.090216562151908875 0.20436607301235199 -0.088741227984428406 -0.023404162377119064 0.22577045857906342 -0.038447756320238113 -0.47842293977737427 0.34177801012992859 -0.16143490374088287 0.16758391261100769 0.015551376156508923 -0.038002431392669678 0.14224140346050262 0.25256595015525818 -0.1252104640007019 -0.018620327115058899 0.22186297178268433 0.039882991462945938 -0.56004083156585693 0.4342835545539856 -0.15253712236881256 0.13577795028686523 0.067266732454299927 -0.077516838908195496 0.13224342465400696 0.28430840373039246 -0.20232921838760376 -0.0041532376781105995 0.19105428457260132 0.10039414465427399 -0.53122955560684204 0.48019176721572876 -0.15602444112300873 0.070620320737361908 0.091483123600482941 -0.12411507219076157 0.098012298345565796 0.2981618344783783 -0.24741747975349426 0.016722287982702255 0.17317380011081696 0.13076277077198029 -0.42777109146118164 0.46721360087394714
  -0.038401156663894653 -0.15749698877334595 0.12793068587779999 -0.011655885726213455 0.20942835509777069 -0.1319996565580368 -0.17986635863780975 -0.063139930367469788 -0.33357414603233337 0.39952155947685242 -0.056039977818727493 0.20558764040470123 0.017667414620518684 -0.18579627573490143 0.11045171320438385 -0.028242085129022598 0.15914610028266907 -0.079830162227153778 -0.14623896777629852 -0.10374414175748825 -0.26933738589286804 0.23702722787857056 -0.1148674488067627 0.24522498250007629 0.10461915284395218 -0.21257935464382172 0.071739830076694489 -0.035502374172210693 0.056252166628837585 0.023376403376460075 -0.06945405900478363 -0.14878793060779572 -0.1086893156170845 -0.12893323600292206 -0.22911034524440765 0.2933482825756073 0.18412016332149506 -0.25938811898231506 0.033461268991231918 -0.04580303281545639 -0.049138754606246948 0.13486172258853912 0.010407401248812675 -0.17095974087715149 0.062347441911697388 -0.5055655837059021 -0.33428576588630676 0.33073610067367554 0.22025305032730103 -0.30476388335227966 -0.00092476728605106473 -0.073538623750209808 -0.11132408678531647 0.19169838726520538 0.052871868014335632 -0.16469235718250275 0.16605682671070099 -0.65882015228271484 -0.35949316620826721 0.31676435470581055
  0.17886212468147278 -0.18522758781909943 0.17677009105682373 0.18506814539432526 0.081043258309364319 0.030821891501545906 0.15093080699443817 0.11102116107940674 -0.061244044452905655 0.37118163704872131 0.47844281792640686 0.096117220818996429 0.25167939066886902 -0.18043370544910431 0.16513200104236603 0.19006456434726715 0.045586150139570236 -0.028910184279084206 0.16488955914974213 0.084669753909111023 -0.07318580150604248 0.29885414242744446 0.47047755122184753 -0.0084200911223888397 0.32399880886077881 -0.1398937851190567 0.11545797437429428 0.182262122631073 -0.009508201852440834 -0.12256848067045212 0.22799302637577057 0.054575659334659576 -0.067637652158737183 0.15707699954509735 0.45317515730857849 -0.15339870750904083 0.34052267670631409 -0.094062738120555878 0.04581746831536293 0.18197508156299591 -0.028852539137005806 -0.17883573472499847 0.32484900951385498 0.038692343980073929 -0.042375419288873672 0.0078096082434058189 0.44840192794799805 -0.23884615302085876 0.30608248710632324 -0.064287625253200531 -0.0028766817413270473 0.17605480551719666 -0.015002022497355938 -0.17864653468132019 0.37135928869247437 0.034728772938251495 -0.018737524747848511 -0.06680586189031601 0.43109786510467529 -0.24034774303436279
  -0.10735062509775162 0.31098073720932007 0.16856321692466736 -0.18776910006999969 -0.20332008600234985 0.18433640897274017 0.16846106946468353 -0.062565967440605164 -0.12182211130857468 -0.029776275157928467 -0.029143510386347771 -0.003567724721506238 -0.11649476736783981 0.34839227795600891 0.22475847601890564 -0.20577555894851685 -0.26130151748657227 0.18378952145576477 0.2061474621295929 -0.064349927008152008 -0.19578327238559723 -0.10920470207929611 -0.055633377283811569 0.01398957334458828 -0.11688070744276047 0.38313215970993042 0.28819781541824341 -0.22576192021369934 -0.32760035991668701 0.16671992838382721 0.27102741599082947 -0.050332408398389816 -0.31200787425041199 -0.22698217630386353 -0.043901219964027405 0.086569346487522125 -0.12654471397399902 0.39730611443519592 0.3252793550491333 -0.23310463130474091 -0.36657270789146423 0.14632447063922882 0.34196570515632629 -0.017036790028214455 -0.41119661927223206 -0.30008864402770996 0.025534244254231453 0.18826073408126831 -0.131695955991745 0.40352031588554382 0.33281034231185913 -0.20934741199016571 -0.36290460824966431 0.11883257329463959 0.36506423354148865 0.0027493243105709553 -0.43729296326637268 -0.32512503862380981 0.075157128274440765 0.24823731184005737
  -0.49205276370048523 0.010028406977653503 0.3034643828868866 0.15697821974754333 -0.13995292782783508 -0.27485686540603638 0.038162600249052048 0.25122848153114319 0.13692708313465118 -0.12264489382505417 0.10672690719366074 0.20455493032932281 -0.52858078479766846 -0.018829237669706345 0.31563806533813477 0.13729536533355713 -0.18686932325363159 -0.25862011313438416 0.051298093050718307 0.26781737804412842 0.098079077899456024 -0.15413364768028259 0.18774779140949249 0.22477242350578308 -0.54761195182800293 -0.063524864614009857 0.31578001379966736 0.13684970140457153 -0.2153477668762207 -0.25831130146980286 0.058720335364341736 0.29000931978225708 0.047686956822872162 -0.20097504556179047 0.23200432956218719 0.24740779399871826 -0.5393223762512207 -0.085849262773990631 0.30276942253112793 0.18751989305019379 -0.20307211577892303 -0.29503470659255981 0.052898559719324112 0.29679611325263977 0.032252620905637741 -0.22741858661174774 0.20899730920791626 0.27207297086715698 -0.49868577718734741 -0.083503477275371552 0.28544223308563232 0.24572005867958069 -0.17006565630435944 -0.33437010645866394 0.033100403845310211 0.28732201457023621 0.036796495318412781 -0.21861186623573303 0.12234728038311005 0.26162669062614441
  0.5424121618270874 0.025175647810101509 -0.43362236022949219 -0.52288210391998291 0.054647769778966904 0.47908750176429749 0.014530329033732414 -0.56613481044769287 -0.21916265785694122 0.21122358739376068 0.062748469412326813 -0.31599020957946777 0.5000993013381958 0.058166615664958954 -0.35574251413345337 -0.3895905613899231 0.069020673632621765 0.3884064257144928 0.017934797331690788 -0.49377480149269104 -0.1618991494178772 0.20275421440601349 -0.0039826403371989727 -0.25909897685050964 0.39410707354545593 0.093589700758457184 -0.23873734474182129 -0.20185519754886627 0.10602451860904694 0.24017959833145142 0.0025923051871359348 -0.30141738057136536 -0.034566771239042282 0.16387705504894257 -0.12812748551368713 -0.19982790946960449 0.26872384548187256 0.11026471853256226 -0.13684913516044617 -0.047888252884149551 0.14154951274394989 0.094289578497409821 -0.016116157174110413 -0.08844197541475296 0.086196646094322205 0.098988398909568787 -0.23774038255214691 -0.15395838022232056 0.1644727885723114 0.10122329741716385 -0.089072152972221375 0.020212884992361069 0.15523353219032288 0.003623677184805274 -0.023603994399309158 0.046370025724172592 0.14143306016921997 0.067790910601615906 -0.26066297292709351 -0.10491028428077698
  -0.068691626191139221 -0.069022320210933685 -0.20551496744155884 -0.014535882510244846 0.061485186219215393 0.067308478057384491 0.33264225721359253 0.23262062668800354 0.12690865993499756 0.081468947231769562 -0.090188018977642059 0.011918846517801285 -0.12596435844898224 -0.15577273070812225 -0.24592237174510956 -0.13092745840549469 0.033167034387588501 0.09865579754114151 0.37428006529808044 0.36944597959518433 0.22406530380249023 0.099155835807323456 -0.040098648518323898 0.0098747387528419495 -0.15156298875808716 -0.21678610146045685 -0.28388899564743042 -0.2546657919883728 -0.01652948185801506 0.11599778383970261 0.41248494386672974 0.483501136302948 0.30285465717315674 0.10341858118772507 0.00079493422526866198 -0.017016706988215446 -0.098370067775249481 -0.20930054783821106 -0.26948529481887817 -0.32973003387451172 -0.077162191271781921 0.10263741761445999 0.4146665632724762 0.46155339479446411 0.26877191662788391 0.063618272542953491 -0.0078389961272478104 -0.05895015224814415 -0.012345359660685062 -0.19895376265048981 -0.22543604671955109 -0.34863981604576111 -0.13660247623920441 0.083559148013591766 0.37799367308616638 0.37090077996253967 0.18651486933231354 0.01792009174823761 -0.021096203476190567 -0.096488647162914276
  0.28602391481399536 -0.36114060878753662 -0.37599703669548035 -0.58221274614334106 -0.28849741816520691 -0.19211483001708984 0.014329755678772926 0.44627925753593445 0.32265767455101013 0.14200398325920105 0.15910142660140991 -0.047141224145889282 0.27655252814292908 -0.31660452485084534 -0.3384844958782196 -0.49075928330421448 -0.26951277256011963 -0.17303451895713806 0.018237793818116188 0.33914217352867126 0.23465745151042938 0.13976742327213287 0.20106968283653259 -0.027664680033922195 0.19367055594921112 -0.21919633448123932 -0.23806048929691315 -0.24921275675296783 -0.15875804424285889 -0.08719257265329361 0.0939616858959198 0.13747452199459076 0.07640867680311203 0.060057383030653 0.15859036147594452 0.034654513001441956 0.06955467164516449 -0.10975879430770874 -0.12394809722900391 0.020079208537936211 -0.025881705805659294 -0.0083589935675263405 0.20431876182556152 -0.011440573260188103 -0.048341825604438782 -0.036066807806491852 0.057545870542526245 0.11859320104122162 -0.026456205174326897 -0.012619326822459698 -0.049212347716093063 0.20094029605388641 0.049464166164398193 0.0050051682628691196 0.26762846112251282 -0.078595519065856934 -0.099825389683246613 -0.082065165042877197 -0.035904347896575928 0.17993775010108948
  0.0022965844254940748 -0.16900430619716644 -0.060640621930360794 0.070027783513069153 0.15892410278320312 -0.11862581968307495 -0.05236440896987915 0.02339169941842556 0.033059820532798767 -0.05053374171257019 0.075491815805435181 0.077968776226043701 0.054338041692972183 -0.27778494358062744 -0.14260327816009521 0.064751364290714264 0.22393715381622314 -0.12893065810203552 -0.15354828536510468 0.028879789635539055 0.16527432203292847 0.052037592977285385 0.048351239413022995 -0.035843305289745331 0.12927889823913574 -0.39501237869262695 -0.22699162364006042 0.081337638199329376 0.30440628528594971 -0.12417043000459671 -0.30299690365791321 0.0086383605375885963 0.35592257976531982 0.20527802407741547 -0.025648128241300583 -0.23577059805393219 0.20637832581996918 -0.47058528661727905 -0.2839987576007843 0.12421537190675735 0.36811515688896179 -0.11643675714731216 -0.42510911822319031 -0.019703574478626251 0.50605618953704834 0.30990323424339294 -0.12939438223838806 -0.41190364956855774 0.24299232661724091 -0.48804482817649841 -0.29610854387283325 0.15822523832321167 0.3920404314994812 -0.10688448697328568 -0.43305528163909912 -0.03538154810667038 0.5449184775352478 0.31167352199554443 -0.1954641193151474 -0.46913638710975647
  0.31381067633628845 -0.32136711478233337 0.034526526927947998 -0.086706817150115967 -0.33780026435852051 -0.42687663435935974 -0.0017841515364125371 0.3788418173789978 -0.26465541124343872 -0.50318711996078491 0.086065463721752167 0.31569138169288635 0.26860606670379639 -0.17661494016647339 -0.012638138607144356 -0.043558493256568909 -0.24899554252624512 -0.36791658401489258 0.0757274329662323 0.33040675520896912 -0.25073531270027161 -0.45527967810630798 0.031487789005041122 0.36580890417098999 0.22282351553440094 0.032988451421260834 -0.073789507150650024 -0.042945884168148041 -0.14315609633922577 -0.23412105441093445 0.12553316354751587 0.23367439210414886 -0.16483351588249207 -0.31756356358528137 -0.014491114765405655 0.30271080136299133 0.17655718326568604 0.16324681043624878 -0.13461466133594513 -0.11902157217264175 -0.075524300336837769 -0.071558453142642975 0.11185238510370255 0.17519401013851166 -0.047129936516284943 -0.13495820760726929 0.057059817016124725 0.18928550183773041 0.12690646946430206 0.1982187032699585 -0.18097648024559021 -0.18566976487636566 -0.035769782960414886 0.048160094767808914 0.094823986291885376 0.15718872845172882 0.030250418931245804 -0.007559413556009531 0.14358323812484741 0.12198172509670258
  0.04760105162858963 -0.019912239164113998 0.099319562315940857 0.011721324175596237 -0.10976728051900864 0.13502770662307739 0.17662939429283142 -0.056203782558441162 -0.15477873384952545 -0.031617868691682816 -0.067329138517379761 -0.068035461008548737 0.03929118812084198 -0.014065892435610294 0.19960331916809082 0.10990923643112183 -0.14561168849468231 0.015735713765025139 0.18940062820911407 -0.048682883381843567 -0.14954555034637451 -0.0079229474067687988 -0.14258432388305664 -0.038166679441928864 0.10094021260738373 -0.0027579369489103556 0.35100960731506348 0.2270234078168869 -0.23568420112133026 -0.17212881147861481 0.17488627135753632 -0.033115465193986893 -0.14263089001178741 -0.018943823873996735 -0.26698100566864014 -0.050847273319959641 0.21887017786502838 -0.029748037457466125 0.50840514898300171 0.29826620221138 -0.38231229782104492 -0.36173659563064575 0.099775031208992004 -0.0006857879925519228 -0.14790019392967224 -0.091003760695457458 -0.34113788604736328 -0.11201270669698715 0.29936316609382629 -0.088978298008441925 0.60435318946838379 0.2960561215877533 -0.50004386901855469 -0.44710811972618103 0.014580884017050266 0.048524748533964157 -0.14493474364280701 -0.16652992367744446 -0.30366158485412598 -0.15976697206497192
  -0.27026021480560303 -0.083969883620738983 -0.46686920523643494 -0.28878489136695862 0.34903809428215027 0.57203894853591919 0.14707247912883759 -0.11804921925067902 -0.19227167963981628 -0.00048999680439010262 0.49626541137695312 0.40253740549087524 -0.29009366035461426 -0.10410933941602707 -0.39726808667182922 -0.21363477408885956 0.31635874509811401 0.48417201638221741 0.16497980058193207 -0.098165839910507202 -0.20813718438148499 -0.073801033198833466 0.37150847911834717 0.37760686874389648 -0.22010014951229095 -0.10347495973110199 -0.26328498125076294 -0.090343289077281952 0.21221423149108887 0.26212224364280701 0.12912449240684509 -0.067443110048770905 -0.17917601764202118 -0.11589740961790085 0.1176178902387619 0.21954154968261719 -0.10654617846012115 -0.13916043937206268 -0.12863388657569885 0.026801072061061859 0.079123727977275848 0.032490063458681107 0.039981380105018616 -0.0099698826670646667 -0.095261886715888977 -0.086224101483821869 -0.046890813857316971 0.047098003327846527 -0.033323768526315689 -0.18181170523166656 -0.038663186132907867 0.098603315651416779 -0.00064460816793143749 -0.098955050110816956 -0.017055416479706764 0.044807545840740204 -0.018730085343122482 -0.025827324017882347 -0.10333541035652161 -0.044055841863155365
  -0.024359798058867455 -0.055847380310297012 0.056446775794029236 -0.089614555239677429 0.3056522011756897 -0.17325656116008759 0.13095928728580475 -0.13392852246761322 0.058189671486616135 -0.14974461495876312 0.31317728757858276 -0.073345214128494263 -0.091836690902709961 0.0088043324649333954 0.039033960551023483 -0.024317901581525803 0.4334929883480072 -0.18149709701538086 0.20240719616413116 -0.12775877118110657 0.040238521993160248 -0.20896600186824799 0.27174550294876099 0.031313266605138779 -0.13565951585769653 0.082807973027229309 0.017906701192259789 0.039743125438690186 0.54297715425491333 -0.21513405442237854 0.20412567257881165 -0.14263410866260529 -0.048633068799972534 -0.29875382781028748 0.25075483322143555 0.14744779467582703 -0.13018950819969177 0.075801253318786621 0.001017129048705101 0.028131866827607155 0.54277676343917847 -0.23490488529205322 0.091642044484615326 -0.14500908553600311 -0.13955399394035339 -0.32944032549858093 0.36065024137496948 0.20568561553955078 -0.12501265108585358 0.02189299650490284 -0.020403940230607986 -0.015812564641237259 0.48350521922111511 -0.21917089819908142 -0.013922926038503647 -0.11523211747407913 -0.14465247094631195 -0.27906119823455811 0.48741808533668518 0.20445016026496887
  -0.084413036704063416 0.39283764362335205 -0.2014768123626709 0.108249731361866 0.33100545406341553 0.052766520529985428 -0.49228981137275696 0.1415669322013855 0.12232035398483276 -0.17289946973323822 0.0074436641298234463 0.4673803448677063 -0.031235454604029655 0.34174051880836487 -0.20560066401958466 0.055964171886444092 0.24263425171375275 0.013465587981045246 -0.54700314998626709 0.15174798667430878 0.11970825493335724 -0.15669530630111694 0.081448376178741455 0.44598102569580078 0.014954709447920322 0.25292086601257324 -0.20434895157814026 0.013326888903975487 0.11507189273834229 -0.046896118670701981 -0.49779114127159119 0.13430260121822357 0.084513157606124878 -0.095971725881099701 0.15474395453929901 0.3759322464466095 0.034958194941282272 0.20429867506027222 -0.19135978817939758 0.010293977335095406 0.023650595918297768 -0.089444316923618317 -0.35615894198417664 0.067063570022583008 0.011660194024443626 -0.061147585511207581 0.14198672771453857 0.31807759404182434 0.05293089896440506 0.19680038094520569 -0.16572622954845428 0.023343823850154877 -0.013809239491820335 -0.11059212684631348 -0.24263815581798553 -0.0092566423118114471 -0.059360887855291367 -0.075331665575504303 0.073391236364841461 0.27249953150749207
  0.054021168500185013 -0.041355974972248077 0.15339839458465576 -0.33901935815811157 0.038337588310241699 -0.25227323174476624 -0.074428871273994446 -0.065724872052669525 -0.095352910459041595 0.0088997362181544304 0.50803500413894653 -0.29354164004325867 -0.028098173439502716 -0.014112673699855804 0.16265808045864105 -0.40626472234725952 0.074833601713180542 -0.27623096108436584 -0.093444734811782837 -0.054011087864637375 -0.022546634078025818 0.066040977835655212 0.44357472658157349 -0.24003545939922333 -0.14327484369277954 0.054618854075670242 0.16554498672485352 -0.46153366565704346 0.12577882409095764 -0.28947022557258606 -0.11107353866100311 -0.043778758496046066 0.10997577011585236 0.13575500249862671 0.21715612709522247 -0.11359035223722458 -0.25896209478378296 0.15303677320480347 0.16824598610401154 -0.47194728255271912 0.17833633720874786 -0.26992261409759521 -0.093174353241920471 -0.062960505485534668 0.20979852974414825 0.14955335855484009 -0.073977939784526825 0.02446356974542141 -0.31610530614852905 0.23121921718120575 0.17210160195827484 -0.42892661690711975 0.19369082152843475 -0.24052852392196655 -0.059952616691589355 -0.086351372301578522 0.22860978543758392 0.12014677375555038 -0.2449345588684082 0.10718303173780441
  0.093034334480762482 -0.061880454421043396 0.098442345857620239 0.24200257658958435 0.022192468866705894 0.059132106602191925 0.11022419482469559 -0.23800070583820343 -0.13611073791980743 -0.037518985569477081 -0.11651507765054703 -0.0012017976259812713 0.0076565337367355824 -0.080595746636390686 0.050105884671211243 0.2026427835226059 0.10315985232591629 0.13205330073833466 0.14865955710411072 -0.17835262417793274 -0.13872659206390381 -0.10145953297615051 -0.17240393161773682 -0.062151305377483368 -0.1904132068157196 -0.17789076268672943 -0.043307971209287643 0.094398096203804016 0.23031938076019287 0.24988844990730286 0.23567594587802887 0.011760863475501537 -0.074647404253482819 -0.16305063664913177 -0.20961755514144897 -0.1484699547290802 -0.44895198941230774 -0.30660742521286011 -0.16679386794567108 -0.034156247973442078 0.38182741403579712 0.37534129619598389 0.36354100704193115 0.30098253488540649 0.082741141319274902 -0.15200501680374146 -0.17624850571155548 -0.18195874989032745 -0.60353213548660278 -0.34084084630012512 -0.25199773907661438 -0.08920896053314209 0.48100832104682922 0.40880107879638672 0.42946413159370422 0.47232422232627869 0.20389913022518158 -0.10544413328170776 -0.15736058354377747 -0.17816881835460663
  0.017234481871128082 0.27813908457756042 -0.058513067662715912 -0.083379305899143219 -0.088443294167518616 -0.066698417067527771 0.17198994755744934 -0.14483505487442017 0.10968173295259476 0.2319602370262146 -0.0035818715114146471 -0.073943428695201874 0.068694420158863068 0.20451152324676514 -0.092471770942211151 -0.13052384555339813 -0.13648310303688049 -0.11752144247293472 0.16930092871189117 -0.071469388902187347 0.11282431334257126 0.1899632066488266 0.027387114241719246 -0.033850401639938354 0.18967999517917633 0.02099994570016861 -0.15387122333049774 -0.25071018934249878 -0.25075322389602661 -0.21604016423225403 0.089105181396007538 0.092293836176395416 0.11813495308160782 0.13814537227153778 0.10615463554859161 0.012347741052508354 0.3164411187171936 -0.2483847588300705 -0.22681812942028046 -0.4152941107749939 -0.3794955313205719 -0.27885493636131287 -0.042949344962835312 0.31430932879447937 0.17827099561691284 0.13591647148132324 0.23406961560249329 -0.0069724200293421745 0.37658986449241638 -0.4286632239818573 -0.25871574878692627 -0.49765655398368835 -0.41687050461769104 -0.27610453963279724 -0.11739045381546021 0.4415314793586731 0.22771839797496796 0.1457030177116394 0.29328233003616333 -0.064842075109481812
  -0.096256718039512634 0.32189655303955078 -0.25876954197883606 0.3295377790927887 0.30872851610183716 -0.37688404321670532 0.59514433145523071 -0.3714134693145752 0.15971744060516357 0.31934180855751038 -0.45049938559532166 0.39301022887229919 -0.038819544017314911 0.29145205020904541 -0.2015799880027771 0.24945993721485138 0.20309619605541229 -0.37374651432037354 0.5121425986289978 -0.36345657706260681 0.16425791382789612 0.2671673595905304 -0.36646547913551331 0.34609520435333252 -0.027989903464913368 0.17792890965938568 -0.11413037031888962 0.084195889532566071 0.075247727334499359 -0.26056298613548279 0.37252703309059143 -0.24588215351104736 0.18096913397312164 0.18646998703479767 -0.17450203001499176 0.24382883310317993 -0.065805107355117798 0.071609541773796082 -0.049526441842317581 -0.054110337048768997 -0.0021808631718158722 -0.11874912679195404 0.27107059955596924 -0.10339678078889847 0.17634138464927673 0.09739772230386734 -0.036504499614238739 0.14104241132736206 -0.087049692869186401 0.028938084840774536 -0.029742956161499023 -0.12327419966459274 -0.033709723502397537 -0.046575911343097687 0.21871002018451691 -0.031696394085884094 0.15563139319419861 0.028272209689021111 -0.0046190046705305576 0.081912003457546234
  -0.2318979799747467 -0.030531890690326691 -0.28779676556587219 -0.10457944124937057 -0.21506838500499725 -0.1679919958114624 -0.10228464752435684 -0.04962603747844696 -0.21446229517459869 0.45855876803398132 -0.13109752535820007 -0.11435834318399429 -0.30042785406112671 0.055001348257064819 -0.2877451479434967 -0.05366077646613121 -0.18038888275623322 -0.16515892744064331 -0.16240479052066803 -0.010285776108503342 -0.17869874835014343 0.39881324768066406 -0.10183031857013702 -0.14751473069190979 -0.3230259120464325 0.21264775097370148 -0.23807327449321747 0.031083686277270317 -0.13810437917709351 -0.1200919896364212 -0.2735426127910614 0.030437476933002472 -0.10255537927150726 0.18592695891857147 0.0065436409786343575 -0.23382669687271118 -0.3185182511806488 0.32426968216896057 -0.1585756242275238 0.094818897545337677 -0.12557743489742279 -0.053607672452926636 -0.37711969017982483 0.05726349726319313 -0.038495130836963654 -0.053539089858531952 0.1854681670665741 -0.30276119709014893 -0.30400070548057556 0.3374708890914917 -0.097803160548210144 0.10305453091859818 -0.13525275886058807 -0.0046801306307315826 -0.41262051463127136 0.073685742914676666 -0.014230911619961262 -0.18642984330654144 0.30956068634986877 -0.29629993438720703
  -0.36535224318504333 -0.09225001186132431 -0.10158602893352509 -0.08844398707151413 0.0021405485458672047 0.028348337858915329 -0.038859441876411438 0.10094831883907318 0.08648412674665451 -0.038850266486406326 -0.065614551305770874 -0.0038661907892674208 -0.46066507697105408 -0.17856699228286743 -0.1893250048160553 -0.16488811373710632 0.0019682189449667931 0.031856052577495575 0.039992377161979675 0.097001545131206512 0.13710507750511169 0.0048611941747367382 -0.0032131487969309092 0.015825245529413223 -0.51725220680236816 -0.23942314088344574 -0.295146644115448 -0.25432619452476501 -0.0081171467900276184 -0.018944593146443367 0.12291909009218216 0.021102486178278923 0.13026855885982513 -0.02509307861328125 0.001812193775549531 -0.024314362555742264 -0.45429742336273193 -0.24936589598655701 -0.34695729613304138 -0.33818793296813965 -0.074270032346248627 -0.13456593453884125 0.12365178763866425 -0.1342092752456665 0.011269055306911469 -0.1770760715007782 -0.082615092396736145 -0.15622512996196747 -0.32976865768432617 -0.28174057602882385 -0.34334754943847656 -0.4027579128742218 -0.15483465790748596 -0.20313674211502075 0.056649863719940186 -0.23074159026145935 -0.086104124784469604 -0.29752460122108459 -0.12914802134037018 -0.2753775417804718
  -0.30093082785606384 -0.064512148499488831 -0.015917200595140457 -0.26910680532455444 0.31836527585983276 -0.34688723087310791 -0.057068563997745514 -0.26126456260681152 -0.36304053664207458 -0.28898963332176208 -0.27709683775901794 0.029455201700329781 -0.2094532698392868 -0.13635875284671783 0.026454487815499306 -0.28573411703109741 0.29360640048980713 -0.34673067927360535 -0.086015596985816956 -0.20477019250392914 -0.37497904896736145 -0.20316794514656067 -0.13737925887107849 -0.018447322770953178 -0.096879355609416962 -0.20732554793357849 0.082046031951904297 -0.24122932553291321 0.26426461338996887 -0.26814776659011841 -0.031049186363816261 -0.064857609570026398 -0.35469093918800354 -0.023636074736714363 0.098111949861049652 -0.058406930416822433 -0.0057839942164719105 -0.23304280638694763 0.13774003088474274 -0.15375305712223053 0.24911022186279297 -0.17333149909973145 0.084329642355442047 0.060838423669338226 -0.36175635457038879 0.088330723345279694 0.23398040235042572 -0.063361205160617828 0.046072080731391907 -0.21954947710037231 0.16348479688167572 -0.074322499334812164 0.23454040288925171 -0.11801449209451675 0.16492654383182526 0.10144040733575821 -0.36372506618499756 0.11466548591852188 0.24059511721134186 -0.05063149705529213
  -0.14847902953624725 -0.19234411418437958 -0.029422972351312637 0.10968054831027985 -0.28070950508117676 0.16695813834667206 -0.26507508754730225 -0.10578485578298569 -0.22945621609687805 -0.16148985922336578 0.31689277291297913 -0.2751278281211853 -0.15087328851222992 -0.1810087114572525 -0.075719766318798065 0.16758976876735687 -0.27720290422439575 0.19898904860019684 -0.1838003545999527 -0.082076206803321838 -0.14895117282867432 -0.058245610445737839 0.31749945878982544 -0.17188321053981781 -0.15712746977806091 -0.17733974754810333 -0.14249983429908752 0.24048149585723877 -0.25930699706077576 0.25256603956222534 -0.021021099761128426 -0.014269924722611904 0.027056561782956123 0.10678675025701523 0.29926031827926636 0.038438491523265839 -0.18205165863037109 -0.18072846531867981 -0.20478537678718567 0.28830605745315552 -0.22554251551628113 0.3205377459526062 0.14726392924785614 0.058889932930469513 0.19945184886455536 0.21993416547775269 0.27970293164253235 0.2469169944524765 -0.20948015153408051 -0.16451752185821533 -0.2355179637670517 0.29925927519798279 -0.16749240458011627 0.3506808876991272 0.24491460621356964 0.10200908035039902 0.27489209175109863 0.25086900591850281 0.24780163168907166 0.3540475070476532
  0.087527908384799957 -0.099018208682537079 -0.00032853544689714909 -0.072747789323329926 -0.22798822820186615 -0.10569565743207932 0.10604319721460342 -0.09914388507604599 0.08103344589471817 0.038533888757228851 0.053548283874988556 0.0099266637116670609 0.01214741263538599 -0.042334064841270447 -0.095133118331432343 0.026303183287382126 -0.10773547738790512 -0.086892902851104736 0.24796606600284576 -0.097950227558612823 0.13435713946819305 0.15449327230453491 0.02615661732852459 0.09352169930934906 -0.038652263581752777 0.1279662698507309 -0.22453698515892029 0.21130828559398651 0.062368385493755341 -0.12891779839992523 0.44593334197998047 -0.16535821557044983 0.18120801448822021 0.26363247632980347 -0.099504411220550537 0.19670295715332031 -0.025188295170664787 0.33900025486946106 -0.31146067380905151 0.39770600199699402 0.19190102815628052 -0.21812903881072998 0.59536832571029663 -0.29471388459205627 0.17234450578689575 0.27678963541984558 -0.28189194202423096 0.27248746156692505 -0.013790387660264969 0.42390203475952148 -0.32383152842521667 0.47655764222145081 0.2416345477104187 -0.25698202848434448 0.63340264558792114 -0.36088261008262634 0.15584930777549744 0.25309380888938904 -0.35948678851127625 0.30499786138534546
  -0.070947661995887756 0.099151425063610077 0.046826876699924469 -0.14004711806774139 -0.13164624571800232 0.021091271191835403 0.043257184326648712 -0.037219032645225525 -0.0079090483486652374 -0.047449219971895218 0.16545799374580383 0.06118663027882576 -0.15493647754192352 0.06990303099155426 0.13070838153362274 -0.053663719445466995 -0.15886925160884857 -0.072022832930088043 0.044629812240600586 0.13305829465389252 0.038423404097557068 -0.12441273778676987 0.14942222833633423 0.10944428294897079 -0.3044435977935791 0.034371271729469299 0.23771680891513824 0.10133089125156403 -0.15398736298084259 -0.22872768342494965 0.051077157258987427 0.37751534581184387 0.12660451233386993 -0.23137398064136505 0.068279527127742767 0.19917610287666321 -0.45938560366630554 0.028571883216500282 0.33866092562675476 0.27244579792022705 -0.11989044398069382 -0.3836977481842041 0.054780390113592148 0.56978833675384521 0.18960112333297729 -0.31465980410575867 -0.062667511403560638 0.28714212775230408 -0.54092156887054443 0.05699659138917923 0.38475421071052551 0.36901485919952393 -0.099308006465435028 -0.47842809557914734 0.044679544866085052 0.61895352602005005 0.19077499210834503 -0.31756147742271423 -0.13292442262172699 0.34243649244308472
  -0.032916225492954254 -0.444134920835495 0.50862151384353638 -0.41033828258514404 -0.40693891048431396 0.28932568430900574 -0.27978086471557617 -0.29141548275947571 0.29656302928924561 -0.037166327238082886 -0.22594259679317474 0.22906923294067383 -0.061237599700689316 -0.37227943539619446 0.46381473541259766 -0.36175975203514099 -0.30598101019859314 0.25077760219573975 -0.2197221964597702 -0.25476616621017456 0.26839765906333923 -0.026432996615767479 -0.23465679585933685 0.2156398594379425 -0.05322583019733429 -0.18541398644447327 0.33429959416389465 -0.24595299363136292 -0.10844743996858597 0.14049018919467926 -0.12726286053657532 -0.15942145884037018 0.16995547711849213 -0.0028692095074802637 -0.22110624611377716 0.10595626384019852 -0.03070940263569355 -0.0084759946912527084 0.17613887786865234 -0.12574996054172516 0.08606315404176712 0.034152977168560028 -0.041852224618196487 -0.055202912539243698 0.086719632148742676 0.041356079280376434 -0.17322897911071777 -0.021278835833072662 -0.024927163496613503 0.087961144745349884 0.0649595707654953 -0.044189412146806717 0.19451822340488434 -0.0086111389100551605 0.011700687929987907 0.0018665362149477005 0.044314343482255936 0.094642765820026398 -0.12843629717826843 -0.079783551394939423
  -0.08132278174161911 -0.14741499722003937 0.18591597676277161 -0.010304125025868416 -0.0854383185505867 -0.10666728019714355 0.058524880558252335 -0.13333587348461151 -0.056358568370342255 0.18137136101722717 0.013483334332704544 0.088138103485107422 -0.081741467118263245 -0.20557232201099396 0.23216165602207184 -0.036313150078058243 -0.16356362402439117 -0.039270970970392227 0.077281929552555084 -0.21967646479606628 -0.041037391871213913 0.21948523819446564 0.00088591966778039932 0.062339015305042267 -0.089973889291286469 -0.29347938299179077 0.29068359732627869 -0.074826493859291077 -0.28192168474197388 0.080816067755222321 0.085357837378978729 -0.35783925652503967 -0.036722637712955475 0.29498666524887085 0.0075005199760198593 -0.00056123279500752687 -0.10148021578788757 -0.37328702211380005 0.33659550547599792 -0.11563423275947571 -0.37912020087242126 0.19159366190433502 0.068155772984027863 -0.49817168712615967 -0.050394073128700256 0.38093256950378418 0.047176256775856018 -0.059166107326745987 -0.087936259806156158 -0.38087064027786255 0.34299269318580627 -0.13057383894920349 -0.4058879017829895 0.22455096244812012 0.038708869367837906 -0.5593409538269043 -0.082870036363601685 0.40743571519851685 0.072545766830444336 -0.089161872863769531
  0.083656497299671173 -0.064732454717159271 -0.24604311585426331 0.14371314644813538 -0.24486713111400604 -0.1886555403470993 0.25009351968765259 -0.63070470094680786 0.31552386283874512 -0.50590890645980835 -0.018724936991930008 -0.012205298990011215 0.098765432834625244 -0.091415867209434509 -0.2466232031583786 0.12218131124973297 -0.27292543649673462 -0.21169513463973999 0.22606676816940308 -0.65072143077850342 0.3215499222278595 -0.52493149042129517 0.013245966285467148 -0.019854763522744179 0.10986415296792984 -0.096307553350925446 -0.22612257301807404 0.10555551946163177 -0.27945131063461304 -0.22776629030704498 0.18432503938674927 -0.62515866756439209 0.31399446725845337 -0.4930540919303894 0.04495823010802269 -0.017149163410067558 0.10394022613763809 -0.068293392658233643 -0.19219493865966797 0.11047407984733582 -0.2567504346370697 -0.22753354907035828 0.16666588187217712 -0.58361220359802246 0.28883808851242065 -0.46169915795326233 0.042918860912322998 -0.007095640990883112 0.10532570630311966 -0.016277771443128586 -0.15768831968307495 0.1302533745765686 -0.22146958112716675 -0.21867546439170837 0.16118291020393372 -0.54809451103210449 0.24487759172916412 -0.43060809373855591 0.0078853685408830643 -0.0035661433357745409
  -0.16961780190467834 -0.24292038381099701 0.14450791478157043 0.35408222675323486 0.070857353508472443 -0.2741280198097229 -0.033287715166807175 0.13037785887718201 0.14299151301383972 0.0129349110648036 -0.13529060781002045 -0.082801930606365204 -0.18821749091148376 -0.27201211452484131 0.18342511355876923 0.4212782084941864 0.068461708724498749 -0.33195695281028748 -0.056385144591331482 0.14027802646160126 0.19529080390930176 0.027286140248179436 -0.22105512022972107 -0.13033422827720642 -0.20259998738765717 -0.283773273229599 0.22258444130420685 0.49107339978218079 0.066536024212837219 -0.39272132515907288 -0.0850067138671875 0.15780262649059296 0.25513622164726257 0.043988212943077087 -0.30525144934654236 -0.17837764322757721 -0.20293287932872772 -0.29410159587860107 0.24499273300170898 0.5159604549407959 0.053751487284898758 -0.41951614618301392 -0.100545734167099 0.17333924770355225 0.26871573925018311 0.060976866632699966 -0.3228297233581543 -0.18396382033824921 -0.19660548865795135 -0.28874173760414124 0.24017848074436188 0.49984347820281982 0.037927310913801193 -0.41606137156486511 -0.092679299414157867 0.18615028262138367 0.25615778565406799 0.067064903676509857 -0.29706799983978271 -0.14731134474277496
  -0.0043428852222859859 0.081924565136432648 0.28540879487991333 -0.085947245359420776 0.23230762779712677 0.13596653938293457 -0.14861162006855011 0.507068932056427 -0.13001647591590881 0.50605511665344238 0.098667137324810028 0.042620886117219925 -0.053907148540019989 0.096877053380012512 0.27233174443244934 -0.062020961195230484 0.27582532167434692 0.17506390810012817 -0.081968896090984344 0.52437853813171387 -0.11123643815517426 0.51930022239685059 0.06809571385383606 0.079122431576251984 -0.096814766526222229 0.10518557578325272 0.2331824004650116 -0.036938581615686417 0.30050802230834961 0.20843334496021271 -0.0038943055551499128 0.50089633464813232 -0.087467871606349945 0.48062196373939514 0.024264343082904816 0.099208444356918335 -0.10386348515748978 0.095740079879760742 0.19254715740680695 -0.042085211724042892 0.28395399451255798 0.21528710424900055 0.016478132456541061 0.44846785068511963 -0.091982744634151459 0.43364468216896057 0.0097370743751525879 0.084769017994403839 -0.084166839718818665 0.074225999414920807 0.16641566157341003 -0.052476704120635986 0.24300168454647064 0.2047589123249054 0.0037677621003240347 0.39559093117713928 -0.10082317888736725 0.39399516582489014 0.035361289978027344 0.060126170516014099
  0.0010401983745396137 -0.13653922080993652 0.09643515944480896 -0.36379280686378479 0.058729764074087143 -0.10080830007791519 -0.14967794716358185 0.33512768149375916 -0.330344557762146 0.2491997629404068 -0.2172493189573288 -0.087907232344150543 0.039086125791072845 -0.16209770739078522 0.11409807950258255 -0.38843557238578796 0.044370375573635101 -0.091356381773948669 -0.15980318188667297 0.33934101462364197 -0.37324598431587219 0.27350810170173645 -0.21314714848995209 -0.1056692898273468 0.066207550466060638 -0.16184517741203308 0.11591961234807968 -0.37990617752075195 0.03704492375254631 -0.081074602901935577 -0.13614664971828461 0.32240903377532959 -0.38720130920410156 0.29603719711303711 -0.22565044462680817 -0.098157592117786407 0.078713610768318176 -0.12575525045394897 0.111897312104702 -0.32654276490211487 0.041931692510843277 -0.082909591495990753 -0.077295705676078796 0.27822369337081909 -0.36671924591064453 0.28572529554367065 -0.25183266401290894 -0.064326651394367218 0.086828485131263733 -0.07972291111946106 0.10441209375858307 -0.26014590263366699 0.049016233533620834 -0.082415424287319183 -0.036387141793966293 0.22872784733772278 -0.34368604421615601 0.26660448312759399 -0.27815982699394226 -0.04491998627781868
  -0.56312263011932373 -0.47478863596916199 -0.32378998398780823 -0.049496345221996307 0.43602249026298523 0.32577347755432129 0.47228747606277466 0.53573328256607056 0.33801162242889404 -0.070509985089302063 -0.21361511945724487 -0.25367742776870728 -0.44190695881843567 -0.35131439566612244 -0.21963624656200409 0.0099113769829273224 0.36485216021537781 0.25023126602172852 0.36729368567466736 0.36190333962440491 0.18533647060394287 -0.094296194612979889 -0.22138641774654388 -0.22606402635574341 -0.19796431064605713 -0.14994601905345917 -0.073700562119483948 0.071406558156013489 0.20681826770305634 0.14743010699748993 0.179595947265625 0.077222682535648346 -0.0035734777338802814 -0.093446612358093262 -0.17470651865005493 -0.14777737855911255 0.012429816648364067 -0.016769912093877792 0.050993364304304123 0.11187253892421722 0.058570761233568192 0.098250165581703186 0.037121035158634186 -0.11585330963134766 -0.097880162298679352 -0.061151899397373199 -0.072535045444965363 -0.038095314055681229 0.11506281048059464 0.050472598522901535 0.10846588760614395 0.13372629880905151 -0.01356170978397131 0.096935994923114777 -0.012006205506622791 -0.19942456483840942 -0.12794779241085052 -0.022892313078045845 -0.015257311053574085 0.023420963436365128
  -0.20059041678905487 0.045483555644750595 0.19978970289230347 0.25404256582260132 0.015747182071208954 -0.15092909336090088 -0.21062348783016205 -0.15760317444801331 -0.011279098689556122 0.31571206450462341 0.31374266743659973 0.16832263767719269 -0.2270488440990448 0.070177443325519562 0.20997525751590729 0.27772396802902222 0.041909191757440567 -0.14535361528396606 -0.23670017719268799 -0.27613714337348938 -0.067283168435096741 0.3516356348991394 0.36789214611053467 0.21202142536640167 -0.2315002828836441 0.097094669938087463 0.2099502831697464 0.28052985668182373 0.062762722373008728 -0.14456777274608612 -0.24984548985958099 -0.35736814141273499 -0.089719735085964203 0.32601171731948853 0.35186025500297546 0.21202857792377472 -0.19709178805351257 0.067615091800689697 0.18868723511695862 0.237476646900177 0.050585608929395676 -0.1419978141784668 -0.27497845888137817 -0.34297472238540649 -0.054506067186594009 0.27728024125099182 0.29773631691932678 0.13014553487300873 -0.15124429762363434 0.015262117609381676 0.16211272776126862 0.17491975426673889 0.024315830320119858 -0.13675671815872192 -0.27073571085929871 -0.25825369358062744 0.0019465993391349912 0.22647976875305176 0.24484136700630188 0.043870139867067337
  0.32478335499763489 0.16530930995941162 0.18024054169654846 0.16154678165912628 0.025977099314332008 0.097496204078197479 0.0086661772802472115 0.12705269455909729 -0.56576097011566162 -0.29891502857208252 -0.21407301723957062 -0.46883693337440491 0.22633866965770721 0.16619201004505157 0.11904701590538025 0.181107297539711 0.077114813029766083 0.12913548946380615 0.049646824598312378 0.16185598075389862 -0.49231335520744324 -0.26328888535499573 -0.11959555745124817 -0.39733642339706421 0.087018005549907684 0.14910304546356201 0.021792033687233925 0.20613707602024078 0.12767767906188965 0.12314940243959427 0.069323524832725525 0.13915960490703583 -0.35290881991386414 -0.20950686931610107 -0.047307588160037994 -0.29924866557121277 -0.003220709040760994 0.13831976056098938 -0.052623078227043152 0.23250241577625275 0.14646369218826294 0.065876580774784088 0.039409182965755463 0.054805390536785126 -0.26431655883789062 -0.20839904248714447 -0.08283214271068573 -0.27855801582336426 -0.034222565591335297 0.1250121146440506 -0.085225477814674377 0.23969604074954987 0.13532827794551849 0.016973584890365601 -0.0080133713781833649 -0.023586930707097054 -0.22025157511234283 -0.21314080059528351 -0.1454758495092392 -0.29025343060493469
  -0.015030598267912865 0.17991919815540314 -0.16370931267738342 0.17689082026481628 0.060182400047779083 -0.32369247078895569 0.42863082885742188 -0.24095603823661804 0.086448520421981812 0.31527352333068848 -0.27873292565345764 0.22353841364383698 -0.0446515753865242 0.1968199610710144 -0.18204620480537415 0.17290627956390381 0.0713767409324646 -0.28985336422920227 0.46483850479125977 -0.19766305387020111 0.13385204970836639 0.39607667922973633 -0.204777792096138 0.25860211253166199 -0.085407190024852753 0.24230441451072693 -0.19815021753311157 0.19368582963943481 0.11513566970825195 -0.22094599902629852 0.51462441682815552 -0.12459307163953781 0.16303859651088715 0.43758264183998108 -0.15105117857456207 0.27436009049415588 -0.10035239905118942 0.3176826536655426 -0.19440083205699921 0.23338180780410767 0.16862823069095612 -0.1570839136838913 0.53539359569549561 -0.10688543319702148 0.12296929955482483 0.38444578647613525 -0.20169651508331299 0.246692955493927 -0.090478360652923584 0.37384107708930969 -0.17562927305698395 0.26787370443344116 0.19562000036239624 -0.13328742980957031 0.51742589473724365 -0.11618766933679581 0.055645052343606949 0.30015599727630615 -0.26464894413948059 0.20753967761993408
  0.14864002168178558 0.12450137734413147 0.32792255282402039 0.16635246574878693 0.29759326577186584 0.24221859872341156 0.25423133373260498 0.3130931556224823 0.25213754177093506 0.4211561381816864 0.2781556248664856 0.2630811333656311 0.11614719033241272 0.13660140335559845 0.31751647591590881 0.15980152785778046 0.31798869371414185 0.25555571913719177 0.26992478966712952 0.33570513129234314 0.26824599504470825 0.42639446258544922 0.2841087281703949 0.28340774774551392 0.11577138304710388 0.14428983628749847 0.31339699029922485 0.15335540473461151 0.31905442476272583 0.26305007934570312 0.2685759961605072 0.34060639142990112 0.27295902371406555 0.39155316352844238 0.27121365070343018 0.28455758094787598 0.14913104474544525 0.13558238744735718 0.31469672918319702 0.13783532381057739 0.28817954659461975 0.26104062795639038 0.24874910712242126 0.32381078600883484 0.26566022634506226 0.3369717001914978 0.26462233066558838 0.25415635108947754 0.19287079572677612 0.11832299083471298 0.32025167346000671 0.12688882648944855 0.25344410538673401 0.25371876358985901 0.22376202046871185 0.29958480596542358 0.26268115639686584 0.31301259994506836 0.28458410501480103 0.22736947238445282
  0.087168045341968536 -0.13856291770935059 0.021092085167765617 -0.085395671427249908 -0.15888360142707825 0.18651005625724792 -0.16628408432006836 -0.098693527281284332 0.26435589790344238 -0.40636321902275085 0.16281232237815857 -0.1094902977347374 0.074832230806350708 -0.20861080288887024 0.042606454342603683 -0.13678376376628876 -0.20715726912021637 0.23993602395057678 -0.22129426896572113 -0.084079086780548096 0.29574745893478394 -0.47693628072738647 0.22240447998046875 -0.13214212656021118 0.040557507425546646 -0.26825717091560364 0.078877560794353485 -0.18310801684856415 -0.23980052769184113 0.28696915507316589 -0.28174218535423279 -0.070760451257228851 0.30756521224975586 -0.52081161737442017 0.27189940214157104 -0.14379988610744476 0.028502434492111206 -0.27170738577842712 0.11016602069139481 -0.19732904434204102 -0.25323620438575745 0.29017642140388489 -0.31879600882530212 -0.063750341534614563 0.26848503947257996 -0.526175856590271 0.28578504920005798 -0.14588092267513275 0.052057191729545593 -0.24099582433700562 0.13208505511283875 -0.18998439610004425 -0.25736159086227417 0.25443580746650696 -0.32622775435447693 -0.069472573697566986 0.21742336452007294 -0.51466429233551025 0.26836866140365601 -0.15092624723911285
  -0.3975871205329895 0.34091785550117493 0.065263897180557251 -0.076352767646312714 0.062825903296470642 -0.22085550427436829 -0.1768607497215271 0.098154179751873016 0.31032094359397888 -0.092890143394470215 0.38015526533126831 -0.12046020478010178 -0.27973228693008423 0.37541383504867554 0.064179599285125732 -0.043458960950374603 0.050384644418954849 -0.16798253357410431 -0.1258137971162796 0.062492944300174713 0.28313082456588745 -0.12863393127918243 0.24200212955474854 -0.24392169713973999 -0.087694458663463593 0.38963240385055542 0.056961450725793839 0.018081320449709892 0.024113316088914871 -0.020812671631574631 0.0067404885776340961 0.023820841684937477 0.20958669483661652 -0.18889854848384857 -0.013755782507359982 -0.40784648060798645 0.083494201302528381 0.3395388126373291 0.037868715822696686 0.049229729920625687 0.0056922044605016708 0.1437893807888031 0.14240427315235138 0.015396385453641415 0.14803193509578705 -0.19868355989456177 -0.22377832233905792 -0.53506302833557129 0.16766299307346344 0.25823760032653809 0.011319544166326523 0.037501450628042221 -0.0059806960634887218 0.23206023871898651 0.20815026760101318 0.010199916549026966 0.10340138524770737 -0.17301833629608154 -0.28272542357444763 -0.53790837526321411
  0.0060663353651762009 0.31322488188743591 -0.016570491716265678 -0.18185703456401825 -0.014362362213432789 0.33674132823944092 0.10802022367715836 -0.24971961975097656 -0.15418888628482819 0.12544070184230804 0.16311191022396088 -0.0054183276370167732 -0.044640734791755676 0.3488115668296814 -0.05127764493227005 -0.23491938412189484 0.010954564437270164 0.41216742992401123 0.13764354586601257 -0.29677915573120117 -0.19266748428344727 0.17430178821086884 0.24842590093612671 -0.0081048738211393356 -0.088513195514678955 0.37802523374557495 -0.079943358898162842 -0.27625104784965515 0.037252526730298996 0.46385753154754639 0.16864056885242462 -0.32600647211074829 -0.25012832880020142 0.17992834746837616 0.30466660857200623 0.0007335529662668705 -0.094178564846515656 0.37832054495811462 -0.086524426937103271 -0.28453385829925537 0.042785920202732086 0.45606067776679993 0.16562564671039581 -0.34117454290390015 -0.29160556197166443 0.12124235928058624 0.27500376105308533 -0.0007164758862927556 -0.067506067454814911 0.35273456573486328 -0.078258857131004333 -0.27697804570198059 0.023352475836873055 0.41757181286811829 0.14949733018875122 -0.32759997248649597 -0.29072433710098267 0.053414653986692429 0.20941479504108429 -0.010943909175693989 ]
 [ -0.62242817878723145 -0.13717721402645111 1.1023656129837036 2.2451982498168945 -0.32261541485786438 1.0389093160629272 -2.9048664569854736 -3.7754309177398682 -2.2573060989379883 1.5853451490402222 0.30240920186042786 -2.4619741439819336 -0.77592521905899048 -0.60494452714920044 0.090848028659820557 1.0946427583694458 0.87758296728134155 -0.59269434213638306 -0.29504773020744324 0.031010944396257401 3.2557756900787354 -0.44516047835350037 -0.74198287725448608 -0.12156930565834045 0.30171889066696167 2.8912127017974854 2.0029420852661133 -0.95582276582717896 -1.1375137567520142 -4.4104781150817871 3.7914068698883057 -2.1501839160919189 -2.7437548637390137 -0.22585232555866241 1.4437161684036255 -0.55190223455429077 -3.5507709980010986 5.8772068023681641 -4.1200771331787109 -0.23316572606563568 1.9763845205307007 ]
<sigmoid> 41 41
<affinetransform> 42 41
 [ 
  -0.66352051496505737 -0.97360777854919434 0.44308662414550781 -0.35452800989151001 0.8400617241859436 -0.89580482244491577 0.13610042631626129 0.30309379100799561 1.0707980394363403 0.18601040542125702 -0.010824880562722683 -0.3607078492641449 -0.98967874050140381 -0.13326850533485413 0.043449807912111282 0.11977772414684296 -0.27247917652130127 -0.54623067378997803 -0.12055192142724991 0.55834853649139404 -0.26143580675125122 0.38291653990745544 1.0465261936187744 -0.60809618234634399 -0.063453860580921173 -0.023819206282496452 0.56107902526855469 -0.88521772623062134 -0.65332573652267456 0.10083728283643723 0.17611554265022278 0.89624464511871338 0.1199927031993866 0.27505531907081604 -0.23597835004329681 0.29678624868392944 0.54073148965835571 0.13124234974384308 -0.058696366846561432 0.58828258514404297 0.34031260013580322
  0.2626475989818573 0.37615692615509033 -0.75318366289138794 0.33888307213783264 1.0179600715637207 0.56106865406036377 -0.99337714910507202 -0.36564245820045471 -0.21269616484642029 -0.015340760350227356 0.66652703285217285 1.0299050807952881 0.71910333633422852 -0.92259210348129272 -0.98522162437438965 -0.91862839460372925 0.70698189735412598 -0.98387563228607178 0.91364544630050659 -0.41688510775566101 0.090964093804359436 -0.28421914577484131 0.62206161022186279 0.58846199512481689 -0.64404916763305664 0.39965000748634338 0.95692640542984009 -0.95351862907409668 -0.56303566694259644 -0.5492512583732605 -0.88620805740356445 -0.9943695068359375 -0.65046751499176025 0.87622135877609253 0.26375529170036316 0.33529371023178101 -0.50960302352905273 -0.1157725602388382 0.14227205514907837 -0.33533021807670593 0.055141724646091461
  -0.13394336402416229 0.203531414270401 0.52926552295684814 -0.91771095991134644 0.20092137157917023 0.019944397732615471 0.14092198014259338 0.22945107519626617 0.82452893257141113 -0.027196634560823441 0.97773981094360352 -0.63836377859115601 -0.82368224859237671 0.6802215576171875 0.55380624532699585 -0.26130196452140808 -0.88136667013168335 -0.54247075319290161 0.36874353885650635 0.24980758130550385 0.033971771597862244 -0.77867370843887329 0.24592885375022888 0.74787008762359619 -0.62685191631317139 -0.46977078914642334 0.0033351369202136993 -0.85333287715911865 0.69799971580505371 -0.12131836265325546 -0.57617223262786865 -0.46062445640563965 0.62506252527236938 -0.92614215612411499 0.46556505560874939 0.57928669452667236 0.016292208805680275 0.76422381401062012 -0.75995761156082153 -0.24979352951049805 -0.1760689914226532
  0.61378675699234009 0.071647875010967255 0.71197336912155151 -0.95715075731277466 -0.28806456923484802 0.34640195965766907 0.34172597527503967 0.69294363260269165 0.14871235191822052 -0.50172477960586548 0.29571706056594849 0.35926160216331482 0.049691490828990936 0.78748965263366699 1.050406813621521 -0.083694837987422943 -0.93779915571212769 -0.97863799333572388 -0.90011513233184814 -0.60378545522689819 -0.18540573120117188 -0.20905020833015442 -0.73500651121139526 0.063881844282150269 -0.69359022378921509 0.38006949424743652 0.34863069653511047 -0.031584929674863815 0.85281330347061157 0.66681987047195435 0.67220044136047363 0.6945527195930481 -0.88700187206268311 0.1084137037396431 0.0018481645965948701 -1.074976921081543 -0.80833935737609863 0.88442134857177734 -0.86092233657836914 -0.26254004240036011 -0.19888520240783691
  0.60220879316329956 -0.98227864503860474 0.28763496875762939 -0.38029584288597107 -0.38051119446754456 0.28029742836952209 -0.68127238750457764 0.2752440869808197 0.97489005327224731 0.22587168216705322 0.88370966911315918 0.16085582971572876 0.80242317914962769 -0.79343593120574951 0.64829277992248535 0.59912139177322388 0.012683931738138199 0.44193387031555176 0.15628506243228912 0.80127286911010742 -0.23904030025005341 0.92769044637680054 -0.050791420042514801 -0.19444480538368225 -0.31351664662361145 -0.0091807926073670387 -0.32822304964065552 0.37567558884620667 -1.0154821872711182 -0.8520551323890686 0.54362720251083374 -0.48453250527381897 0.72685450315475464 -0.74291914701461792 0.55941689014434814 -0.42869043350219727 0.23386150598526001 0.80996507406234741 -0.8893733024597168 -0.15924602746963501 -0.27689176797866821
  -0.48913770914077759 0.13213834166526794 -0.13269121944904327 0.19462016224861145 0.79890596866607666 -0.27762755751609802 0.63971132040023804 -0.82182133197784424 0.82894152402877808 0.54535514116287231 0.41327297687530518 -0.96367043256759644 -0.99220782518386841 -0.65986394882202148 -0.33558598160743713 0.4741571843624115 0.93227112293243408 0.71993130445480347 -0.8159295916557312 0.31804728507995605 -0.34343746304512024 0.37246128916740417 -0.46535578370094299 -1.0360865592956543 0.88565272092819214 0.62622642517089844 -0.79892045259475708 -0.87995713949203491 0.15766613185405731 -0.58078432083129883 0.65555423498153687 -0.96421104669570923 -0.55652648210525513 0.47010928392410278 0.7154078483581543 0.4204457700252533 0.41580259799957275 1.0011063814163208 0.54421538114547729 0.44502308964729309 0.73969322443008423
  -0.48081004619598389 -0.36637148261070251 -0.747292160987854 0.7612115740776062 -0.61165165901184082 -0.11455827951431274 0.24169462919235229 -0.46056243777275085 0.60072416067123413 -0.49345758557319641 -0.98309826850891113 0.092141821980476379 0.41381940245628357 -0.1344488114118576 -0.35406213998794556 -0.57816070318222046 -0.75505882501602173 0.9337964653968811 1.075387716293335 -0.058068815618753433 -0.21028660237789154 -0.17373113334178925 -0.74462610483169556 -0.75570911169052124 -0.14299194514751434 -0.60476976633071899 0.38995584845542908 0.71456587314605713 0.65741735696792603 0.62756526470184326 -0.44213816523551941 -0.75724989175796509 -0.14139725267887115 -0.78421473503112793 0.12893460690975189 -0.87997311353683472 -0.90815287828445435 -0.6403079628944397 0.52114766836166382 -0.55027145147323608 -0.062751106917858124
  0.64930635690689087 0.006381454411894083 0.14714439213275909 -0.45801413059234619 0.50535100698471069 -0.18259640038013458 0.11970661580562592 1.0469598770141602 -1.0070487260818481 0.047972831875085831 0.71752256155014038 -0.62818145751953125 -0.051044877618551254 1.0129281282424927 -0.31925973296165466 -1.0226724147796631 0.14944411814212799 -0.062821485102176666 1.0698310136795044 -0.57173842191696167 -0.0922536700963974 0.14769718050956726 0.59628212451934814 0.65460413694381714 -0.69196349382400513 0.52955037355422974 -0.23384213447570801 0.59465408325195312 -0.1709723025560379 0.14312583208084106 0.60359221696853638 -1.0399911403656006 -0.15516480803489685 -1.0656865835189819 0.09432385116815567 0.050864201039075851 -0.20631411671638489 0.48691895604133606 -0.39683318138122559 -0.6930701732635498 0.18261320888996124
  0.98542630672454834 -0.8347887396812439 0.060708485543727875 -0.70320999622344971 -0.28904414176940918 -0.042182974517345428 0.27852743864059448 -0.14669169485569 0.99506074190139771 -0.86396777629852295 -0.27973181009292603 -0.87953698635101318 -0.71138942241668701 0.58905613422393799 -0.12271992862224579 -0.52189135551452637 -0.94695043563842773 0.026584474369883537 0.41881245374679565 0.71802783012390137 -0.25167819857597351 -0.98574888706207275 -0.94864004850387573 -0.17255175113677979 0.54238373041152954 -0.098703987896442413 -1.0191017389297485 -0.94390749931335449 0.054347231984138489 0.70425200462341309 -0.59196579456329346 0.60745877027511597 -0.85581868886947632 0.080694720149040222 0.18922172486782074 0.84874683618545532 0.029009373858571053 0.15340016782283783 0.74274766445159912 -0.60986334085464478 -0.7190176248550415
  0.80860531330108643 0.23056630790233612 0.9709923267364502 -0.78719526529312134 0.64872652292251587 1.0395958423614502 0.40046057105064392 0.15967313945293427 0.042234495282173157 0.45951783657073975 0.93900418281555176 0.79553425312042236 -0.9395872950553894 -0.79202353954315186 0.17098492383956909 -0.19333425164222717 -0.71136051416397095 -0.50981271266937256 -0.27127581834793091 -0.86356383562088013 0.3400401771068573 1.0660749673843384 -0.90527862310409546 -0.34583199024200439 -0.96690696477890015 -0.19732144474983215 0.0012899057473987341 -0.38196700811386108 -0.45999261736869812 1.0215499401092529 -0.4520200788974762 -0.32452908158302307 0.8793303370475769 -1.0397757291793823 -1.0213606357574463 0.99739950895309448 0.66047853231430054 0.18052193522453308 0.07430749386548996 0.48264837265014648 0.10143414884805679
  -0.30582529306411743 0.14184240996837616 -0.042246058583259583 1.0639665126800537 0.60814487934112549 -0.27225694060325623 -0.55841934680938721 0.058595839887857437 -0.62852150201797485 0.82604497671127319 -0.036452103406190872 -1.0165952444076538 -1.00615394115448 0.91883456707000732 0.25286546349525452 -1.057400107383728 -0.92699044942855835 -0.86274570226669312 -0.21184353530406952 -0.63446700572967529 0.81996560096740723 0.25596991181373596 0.3532656729221344 -0.43632537126541138 -0.89765137434005737 0.90907716751098633 0.060499481856822968 -0.26426407694816589 0.34123715758323669 1.0006659030914307 0.75063610076904297 0.53703993558883667 -0.75495260953903198 0.076389327645301819 1.0520246028900146 0.44242119789123535 -0.86259597539901733 -0.093088231980800629 0.71533602476119995 0.28281956911087036 0.083495974540710449
  0.0021404467988759279 -1.0609166622161865 0.0055054454132914543 -0.68937808275222778 0.43310162425041199 -1.0487791299819946 0.61931294202804565 -0.65032756328582764 0.80680966377258301 0.144229456782341 -0.80588603019714355 1.0079792737960815 -0.55401355028152466 0.70506799221038818 -0.69449812173843384 -0.061196263879537582 0.87332648038864136 0.64279800653457642 0.9143596887588501 -0.57057636976242065 0.15631374716758728 0.6011124849319458 0.05021345242857933 0.46887293457984924 -0.99247539043426514 -0.75127595663070679 -0.59523147344589233 0.004871872253715992 -0.88123571872711182 0.96727943420410156 0.52518326044082642 -0.95726472139358521 0.87665086984634399 -0.97718518972396851 -0.92323523759841919 0.56790804862976074 -0.05908237025141716 0.17661479115486145 -0.6753193736076355 0.63352435827255249 0.016411507502198219
  0.39461618661880493 0.25260907411575317 0.079322464764118195 -0.39244428277015686 0.26408401131629944 0.90748512744903564 0.76675856113433838 -0.71903824806213379 -0.59333127737045288 1.0635960102081299 0.99900907278060913 -0.37103590369224548 -0.83304107189178467 -0.23072683811187744 0.78505080938339233 0.75803577899932861 -0.11311735212802887 -0.76830673217773438 -0.54879111051559448 0.20858393609523773 -0.15478004515171051 0.92777985334396362 -0.11527510732412338 1.0707491636276245 -0.074683338403701782 -0.79373055696487427 -1.0718313455581665 -0.10762108862400055 0.69317060708999634 0.11139010637998581 -0.36081191897392273 -0.90726667642593384 -1.0529807806015015 -0.74426662921905518 0.68316847085952759 -0.33423784375190735 0.14484769105911255 -0.92974382638931274 -0.48190969228744507 0.61456096172332764 0.307757169008255
  0.45750746130943298 0.88644808530807495 0.68658173084259033 0.14689013361930847 -0.013588195666670799 0.80289125442504883 0.48997360467910767 0.0021304071415215731 -0.77721899747848511 -0.69100874662399292 -1.0388443470001221 -0.19298596680164337 -0.20435996353626251 -0.77310788631439209 0.45227783918380737 0.91023051738739014 -0.84663844108581543 0.65746617317199707 0.3527800440788269 0.27632486820220947 -0.51971250772476196 -0.34066760540008545 -0.41549447178840637 0.11163823306560516 0.22332833707332611 -0.25404635071754456 -0.11493828892707825 -0.070202089846134186 0.66122704744338989 -0.87642687559127808 0.14483162760734558 0.62235164642333984 -0.70220518112182617 0.73779195547103882 -0.78071117401123047 -0.5337529182434082 0.077398456633090973 -1.0626665353775024 0.17865118384361267 -0.76362943649291992 0.096111655235290527
  -0.27908173203468323 0.62489748001098633 -0.95261389017105103 -1.0553575754165649 0.73247325420379639 -0.31888243556022644 0.41372120380401611 1.054395318031311 0.48447427153587341 -1.0492241382598877 0.37979161739349365 -0.78391939401626587 -0.9849696159362793 -0.96332401037216187 -0.70844864845275879 -0.57766246795654297 0.3554624617099762 0.81633460521697998 -0.040392875671386719 1.0381492376327515 0.78566950559616089 0.66958326101303101 -1.038286566734314 0.83863967657089233 -0.68444931507110596 0.09031030535697937 0.011455459520220757 -0.85023218393325806 -0.66331136226654053 0.51715010404586792 0.42943015694618225 -0.27867886424064636 0.72946399450302124 0.64082574844360352 -0.74633097648620605 0.35965535044670105 -0.67912888526916504 -0.068804532289505005 0.92479610443115234 -0.88728469610214233 -0.39092221856117249
  0.13162879645824432 1.0584335327148438 0.36441454291343689 0.86176770925521851 0.45620608329772949 0.27990740537643433 -0.059471234679222107 -0.22801634669303894 1.0190874338150024 -0.092493318021297455 -0.77338898181915283 -0.8021547794342041 0.91751301288604736 -0.87601131200790405 0.76375848054885864 1.056010365486145 0.0048898784443736076 -0.0001717213453957811 -1.0003044605255127 -0.69622063636779785 -0.70275598764419556 0.80167323350906372 -0.44410961866378784 -0.71310198307037354 0.040931582450866699 0.95580971240997314 -0.90119975805282593 -0.27155333757400513 0.29748031497001648 0.13829939067363739 -0.87771880626678467 -0.83679312467575073 -0.40812927484512329 -0.42245516180992126 -0.30276146531105042 -0.75432085990905762 0.18666441738605499 0.62425994873046875 -0.95222723484039307 -0.52319920063018799 0.61987978219985962
  0.0066316770389676094 0.98685115575790405 0.57454955577850342 1.0265135765075684 -0.12064793705940247 -0.30580446124076843 0.76760923862457275 0.4603278636932373 0.076319083571434021 0.9286687970161438 -0.7413983941078186 -0.18501456081867218 0.93622064590454102 0.83238816261291504 -1.0327554941177368 -1.0625646114349365 -0.19529084861278534 0.89102751016616821 -0.83693718910217285 0.64523082971572876 0.17197304964065552 0.35702928900718689 -0.49945926666259766 0.82502049207687378 0.45202529430389404 -0.38015827536582947 0.69419139623641968 -1.0286350250244141 0.71510857343673706 0.5288231372833252 -0.95974081754684448 -0.20387382805347443 0.7506442666053772 -0.21833376586437225 -0.53028535842895508 -0.062556199729442596 0.61497503519058228 0.90973401069641113 0.68463575839996338 0.30138295888900757 0.13857448101043701
  -1.0458507537841797 0.6279948353767395 0.44764187932014465 0.12237655371427536 -1.0087118148803711 -0.61770462989807129 0.35435160994529724 -0.69710767269134521 -0.11873572319746017 0.74427539110183716 0.32168847322463989 0.25261342525482178 0.66770696640014648 -0.71378451585769653 0.30475199222564697 -0.35436484217643738 0.49039831757545471 -0.18839451670646667 0.85041242837905884 -0.74150347709655762 0.48907339572906494 0.19097377359867096 -0.99647146463394165 0.43615648150444031 0.91410362720489502 -0.86587470769882202 -0.5588228702545166 -0.11112191528081894 -0.064899854362010956 -0.095953293144702911 0.78034967184066772 0.32543331384658813 0.8847726583480835 -0.10906490683555603 -0.60491853952407837 -1.0275173187255859 1.0713117122650146 0.47372415661811829 -0.72137296199798584 0.14993688464164734 -0.18158408999443054
  0.58683133125305176 -0.46191045641899109 0.63854098320007324 -0.89312297105789185 -0.29416188597679138 -0.59512138366699219 -0.35839691758155823 -0.92340308427810669 -1.027906060218811 -0.057365607470273972 1.0360051393508911 -0.79096865653991699 -0.67035269737243652 -0.29492148756980896 -0.72629565000534058 0.62217438220977783 -0.70531105995178223 -0.64447587728500366 0.84338265657424927 -0.29899677634239197 0.49557963013648987 0.84607374668121338 0.65396827459335327 -0.16753894090652466 0.062660172581672668 0.96229934692382812 -1.0546226501464844 0.84556299448013306 0.17283385992050171 -0.74064528942108154 0.27955737709999084 -0.13703969120979309 0.86015987396240234 -1.0312960147857666 0.13633349537849426 0.55862069129943848 -0.9620479941368103 -0.80459672212600708 -0.12968803942203522 0.83745050430297852 -0.37010934948921204
  0.82303494215011597 0.26868727803230286 0.12423957884311676 -0.35920023918151855 0.49626675248146057 -0.17301276326179504 0.039029724895954132 -0.73642927408218384 0.22797365486621857 0.86586827039718628 0.41901740431785583 1.0205765962600708 0.18781551718711853 0.33184975385665894 -0.52149224281311035 -0.86357420682907104 -0.24851669371128082 0.30881160497665405 0.8929828405380249 0.97883570194244385 -0.2064984142780304 -0.11059225350618362 -0.35748574137687683 0.78146553039550781 1.0134881734848022 0.76795744895935059 -0.59141635894775391 0.59340161085128784 -0.84122329950332642 1.0667605400085449 0.79509860277175903 -0.63995552062988281 0.78988361358642578 0.25285083055496216 -0.042884416878223419 -0.63311141729354858 -0.98366641998291016 0.47125285863876343 -0.28710469603538513 0.8993944525718689 0.90478527545928955
  -0.29062098264694214 -0.047118742018938065 1.0019824504852295 0.49133440852165222 -0.052554626017808914 -0.9186408519744873 -0.22651763260364532 -0.72796553373336792 0.99974542856216431 -0.58936482667922974 0.56348788738250732 -0.68693196773529053 0.8679235577583313 0.2254648357629776 -0.33854269981384277 -0.12403937429189682 -0.50116455554962158 -0.21538321673870087 -0.41426581144332886 -0.79550397396087646 -0.82181179523468018 -0.54981338977813721 0.84292137622833252 -0.56990385055541992 0.10163744539022446 -1.0194622278213501 -0.89437848329544067 -0.53953683376312256 -0.080833099782466888 0.83819878101348877 -0.88684862852096558 -0.12068966776132584 0.72650331258773804 0.65507662296295166 -0.87532830238342285 0.73258674144744873 0.06223611906170845 0.24842025339603424 -0.93398004770278931 -0.7476961612701416 0.92590987682342529
  0.24820926785469055 -0.65458184480667114 -0.75894129276275635 -0.7690969705581665 -0.33464843034744263 0.32444450259208679 -1.0086801052093506 -0.46538180112838745 1.005757212638855 -0.42125189304351807 -0.16086992621421814 0.55999481678009033 1.0052211284637451 -0.22586312890052795 -1.0622501373291016 -0.25667211413383484 -0.41250374913215637 0.24570411443710327 -0.43358555436134338 -0.48859143257141113 0.5669739842414856 0.67576450109481812 0.6675485372543335 0.13712330162525177 -1.0616180896759033 -0.82188451290130615 0.70112752914428711 0.49803635478019714 0.83101630210876465 0.65334415435791016 0.78703403472900391 0.5208439826965332 -0.52989733219146729 -0.57177776098251343 0.029912054538726807 0.59119284152984619 0.22236213088035583 -0.24366094172000885 0.61905717849731445 -0.81953710317611694 -1.0524685382843018
  -0.91332584619522095 -0.25312709808349609 -1.0116970539093018 0.11285708844661713 0.30302414298057556 0.54996335506439209 0.16527722775936127 0.078952141106128693 0.92496246099472046 0.46243709325790405 -0.77671545743942261 -0.038368713110685349 -0.93019348382949829 -0.26971518993377686 -0.13217245042324066 0.71539652347564697 -0.6940995454788208 -0.13483889400959015 0.34253981709480286 0.66489136219024658 0.072402700781822205 0.4240548312664032 0.99824988842010498 -1.0183364152908325 -0.058555345982313156 0.70846599340438843 0.46194955706596375 -0.39762553572654724 -0.075319647789001465 -0.19040967524051666 -0.98674505949020386 -0.86894381046295166 0.73778694868087769 -0.21481698751449585 -0.6508336067199707 -0.6965489387512207 -0.89854425191879272 0.61347585916519165 0.02664586715400219 -1.0538409948348999 -0.8752521276473999
  -0.28215056657791138 -0.95958709716796875 0.20195846259593964 -0.4881683886051178 -0.80400669574737549 0.9294201135635376 0.75336748361587524 0.58771771192550659 -0.67823207378387451 0.48200541734695435 -0.61046379804611206 0.57661926746368408 -0.39235985279083252 -0.93980050086975098 0.63892149925231934 0.4559161365032196 -0.037515517324209213 0.20025977492332458 0.20463471114635468 1.0015964508056641 0.47758176922798157 -0.19443443417549133 0.98451155424118042 -0.25800108909606934 0.047509945929050446 -0.77761703729629517 -0.54944223165512085 -0.0083231134340167046 -0.072668634355068207 -0.61697995662689209 0.98550105094909668 0.025211634114384651 0.25300994515419006 -0.014380780979990959 -0.042437143623828888 0.827159583568573 0.45129913091659546 -0.85748159885406494 -0.69509822130203247 -0.47355017066001892 -0.78704851865768433
  0.93165463209152222 -0.10400095582008362 -0.83011823892593384 1.020606517791748 -0.70665568113327026 -0.26584619283676147 0.97112160921096802 0.818092942237854 0.26448318362236023 -1.0352939367294312 0.56935214996337891 -0.42395192384719849 0.42343875765800476 -0.15280425548553467 0.3778432309627533 -0.31188327074050903 0.27901279926300049 0.971016526222229 1.0418444871902466 -0.87667196989059448 0.21000045537948608 -1.0631729364395142 0.19609074294567108 -0.29718324542045593 -0.74807476997375488 0.14942765235900879 -0.93815702199935913 -0.96700316667556763 -0.65387308597564697 -0.4421459436416626 -0.58641254901885986 0.73909538984298706 1.0414314270019531 0.0040461579337716103 -0.47961413860321045 -0.87529152631759644 -0.82565999031066895 -0.20877398550510406 0.044806521385908127 -0.81106865406036377 0.27389320731163025
  0.32560399174690247 1.0367591381072998 0.96966105699539185 0.36089813709259033 0.50995677709579468 -0.43679550290107727 0.39357483386993408 0.29551959037780762 -0.18721133470535278 -0.46070131659507751 -0.95801222324371338 -1.0428251028060913 0.30170121788978577 0.47260463237762451 0.096841573715209961 -1.0224746465682983 -0.94737058877944946 0.11425840854644775 0.24869555234909058 0.17943988740444183 -0.16591000556945801 0.97655373811721802 -0.40544342994689941 -0.87920713424682617 0.33174693584442139 -0.04780355840921402 -0.15754669904708862 0.17749485373497009 -0.99216252565383911 0.26441687345504761 0.54173809289932251 1.0615785121917725 0.23776426911354065 -0.35815545916557312 -1.0529159307479858 -0.64057224988937378 -0.6510816216468811 0.52137863636016846 0.19575425982475281 -0.091121897101402283 -0.51258474588394165
  -0.22111020982265472 -0.80887347459793091 -0.37489140033721924 -0.5255730152130127 -0.80223417282104492 -0.27543899416923523 -0.91164529323577881 0.75842326879501343 -0.294545978307724 0.17312058806419373 -0.021244773641228676 -0.07879144698381424 0.28526365756988525 0.57651609182357788 0.13814786076545715 0.41623216867446899 -0.65197467803955078 0.86840707063674927 -0.74268150329589844 -0.20342153310775757 0.93239885568618774 0.22639112174510956 0.89999431371688843 -0.97812849283218384 -0.79489040374755859 -0.41580411791801453 0.44318118691444397 -0.46762534976005554 0.24921070039272308 -0.54156786203384399 -0.2134828120470047 0.2812475860118866 0.32629278302192688 -0.84871393442153931 0.83409076929092407 -0.27444705367088318 0.60072386264801025 -1.0487214326858521 -0.11929363757371902 -0.67022705078125 0.1775442361831665
  0.62103873491287231 -0.81868559122085571 -0.65900516510009766 -0.8424951434135437 -0.28037416934967041 0.70485883951187134 -0.19341617822647095 0.21069528162479401 -0.99673527479171753 0.92659252882003784 -0.68681353330612183 0.43736410140991211 0.70712012052536011 -0.65739315748214722 -1.045386791229248 -0.16946771740913391 -0.4749075174331665 -0.77755147218704224 0.71296811103820801 0.85891896486282349 1.0624977350234985 -1.0613851547241211 -0.96652007102966309 -0.33887597918510437 -0.098622627556324005 -0.95370775461196899 0.46923339366912842 -0.44452014565467834 0.13901744782924652 0.64459317922592163 -0.20847812294960022 -0.46143215894699097 0.33224397897720337 0.30286800861358643 -0.27123576402664185 -0.70194417238235474 -0.094901427626609802 0.92099153995513916 -0.76786530017852783 -1.0590939521789551 0.11809041351079941
  -0.39397293329238892 0.5130467414855957 -0.090744249522686005 0.59404581785202026 0.22441528737545013 0.86282360553741455 -0.98533868789672852 0.41695088148117065 0.7918626070022583 -0.34630662202835083 0.28161036968231201 -0.93341630697250366 0.45838591456413269 0.78051012754440308 0.2344023585319519 0.77078509330749512 0.44700786471366882 -1.0721452236175537 0.6790427565574646 -0.89310234785079956 0.10289806127548218 -0.003240406047552824 -0.5899086594581604 -0.31099462509155273 1.0375263690948486 0.9396025538444519 -0.65940171480178833 -0.80433201789855957 -0.84266865253448486 -1.0348513126373291 -0.53066283464431763 -0.80440157651901245 0.1125524565577507 -0.74966603517532349 -0.18021149933338165 -0.33289161324501038 -0.41115131974220276 -0.085556551814079285 0.99214744567871094 0.85249578952789307 -0.64454668760299683
  0.14647553861141205 0.18778413534164429 0.90425711870193481 0.60759079456329346 -0.85369515419006348 -0.15636457502841949 -0.7008017897605896 0.079964473843574524 0.37174162268638611 -0.81717514991760254 0.1102181002497673 0.36353197693824768 -0.35387074947357178 -1.0136867761611938 1.050872802734375 0.16147807240486145 -0.37118819355964661 0.24269893765449524 -0.87748992443084717 -0.68585401773452759 0.49521878361701965 0.21215786039829254 -0.29530978202819824 1.0665140151977539 -0.79043698310852051 0.86898404359817505 0.51632702350616455 0.84570521116256714 0.51973640918731689 -0.042262811213731766 0.01470903679728508 -1.0467385053634644 -0.67597299814224243 -0.65565413236618042 0.81215405464172363 0.14570082724094391 -0.28462031483650208 -0.92570710182189941 -0.17687156796455383 1.0702022314071655 0.33786857128143311
  0.79396772384643555 -0.061016473919153214 0.81535178422927856 0.56269210577011108 0.65038615465164185 -1.0707564353942871 0.14067523181438446 0.83720719814300537 -0.88732028007507324 0.035001479089260101 0.14428709447383881 -0.33236396312713623 -0.71476596593856812 0.864951491355896 -0.59342688322067261 0.94654399156570435 -0.16068738698959351 0.089700140058994293 0.83410948514938354 -0.96648776531219482 -1.0152734518051147 -0.429869145154953 -0.18873196840286255 0.95545357465744019 -0.94580990076065063 0.47801315784454346 0.98239463567733765 -0.1048082634806633 -0.68080848455429077 0.50335085391998291 -0.67848944664001465 -0.34811615943908691 1.0345472097396851 -0.95202064514160156 0.56090039014816284 -0.73787271976470947 0.56635671854019165 0.88173317909240723 -0.79579055309295654 0.65819376707077026 0.9533076286315918
  -0.13728658854961395 -0.84504330158233643 -0.53210651874542236 0.89135265350341797 0.95835447311401367 -0.98520135879516602 -0.70358866453170776 -0.96304422616958618 0.83233720064163208 0.42848074436187744 0.68473821878433228 0.19728660583496094 0.56932961940765381 -0.56667172908782959 0.18759933114051819 0.81790357828140259 0.44044086337089539 0.60361731052398682 -1.0401064157485962 -0.42743581533432007 0.78205990791320801 -0.082257002592086792 0.95634990930557251 -0.79338371753692627 -0.92947709560394287 0.33141160011291504 0.034186854958534241 0.32451409101486206 -0.32556262612342834 0.39484196901321411 -0.95268189907073975 -0.03372623398900032 -0.86911261081695557 0.89208710193634033 0.10348643362522125 0.59309875965118408 -0.6873355507850647 -0.81024616956710815 0.32477575540542603 -1.010576605796814 -0.30808287858963013
  0.64989888668060303 -0.58243227005004883 -0.32692265510559082 0.34118673205375671 1.0303796529769897 -0.77049076557159424 0.14327457547187805 0.60910874605178833 0.60756188631057739 -0.43311008810997009 0.94423156976699829 -0.58278745412826538 -0.30260366201400757 -0.79888981580734253 0.72068667411804199 -0.090027168393135071 -0.73330163955688477 0.69151145219802856 0.78278869390487671 -0.66639328002929688 1.0725206136703491 -0.0094645693898200989 0.17074641585350037 0.039480466395616531 -0.86866217851638794 -0.23184902966022491 -0.15046791732311249 0.66529422998428345 -0.041982971131801605 -0.16931493580341339 -0.28623190522193909 0.099353775382041931 0.53399646282196045 0.71124869585037231 0.86540782451629639 -1.0030620098114014 -0.7791903018951416 0.84914827346801758 0.18907849490642548 0.075978390872478485 -1.0070633888244629
  -0.76623314619064331 0.86029767990112305 -0.68272989988327026 0.14705398678779602 0.82000440359115601 0.21130144596099854 0.030122186988592148 -0.76320797204971313 -0.39296567440032959 0.77779746055603027 -0.66054797172546387 -0.49994450807571411 -0.88617348670959473 -0.39173668622970581 0.62914222478866577 -1.0382329225540161 -0.13033807277679443 0.97525328397750854 0.85772842168807983 -1.0569561719894409 -0.37574657797813416 0.18424694240093231 -0.67375743389129639 -0.048943638801574707 0.68688356876373291 1.0188419818878174 -1.025915265083313 -0.46683201193809509 0.3095758855342865 0.41556712985038757 0.47285494208335876 -0.99794751405715942 0.052952513098716736 -0.73345839977264404 0.9048997163772583 -1.0518946647644043 0.0018516847630962729 -0.63439565896987915 -0.5275428295135498 0.23660352826118469 -0.056941524147987366
  0.43935135006904602 -0.17905743420124054 0.86423575878143311 -0.64150303602218628 0.27463504672050476 -0.84647643566131592 0.79341596364974976 -0.94920945167541504 0.68467110395431519 0.87286347150802612 0.45781290531158447 0.93098115921020508 0.49378415942192078 0.75016164779663086 -0.36731886863708496 -0.92779427766799927 0.27817994356155396 0.23650801181793213 0.75361448526382446 -0.80117267370223999 0.75338703393936157 0.79506593942642212 0.20753189921379089 -0.2127133309841156 0.27877470850944519 0.45386287569999695 0.015757648274302483 -0.48744022846221924 0.26161009073257446 -0.2856486439704895 -0.055548802018165588 -0.94377613067626953 -0.45006147027015686 0.79091185331344604 -0.074334464967250824 -0.3869023323059082 -1.0434113740921021 0.92917823791503906 -0.45721739530563354 0.75588816404342651 -0.93036907911300659
  0.44004037976264954 0.077114470303058624 0.4442279040813446 0.426521897315979 0.92594701051712036 -0.43629711866378784 0.47395181655883789 -0.94857239723205566 0.016250433400273323 0.57770413160324097 0.42575493454933167 0.70151567459106445 0.81961226463317871 0.71474969387054443 -0.30714750289916992 -0.38585984706878662 0.91427081823348999 -0.45151960849761963 0.32881152629852295 -0.83270144462585449 0.23981189727783203 0.71459740400314331 0.93298006057739258 0.92622202634811401 0.61007082462310791 -0.014952478930354118 0.40128254890441895 -0.24577146768569946 0.56180822849273682 -0.57550019025802612 0.90902721881866455 -1.0256484746932983 -0.58464306592941284 0.015697937458753586 0.14120170474052429 0.057488169521093369 -0.32845950126647949 -0.004454280249774456 0.65663391351699829 -0.19367416203022003 -0.0016048917314037681
  -0.6048588752746582 -1.0621116161346436 0.48752680420875549 0.97264134883880615 0.48350778222084045 -0.94986855983734131 0.86809730529785156 -0.96367913484573364 -1.0298804044723511 -0.51357436180114746 -0.51988768577575684 -0.76262736320495605 -0.98670995235443115 -0.33199337124824524 0.98967140913009644 0.19853502511978149 -0.30760908126831055 0.70294159650802612 -0.36833572387695312 0.49560567736625671 -0.12666173279285431 0.5991700291633606 -0.78694379329681396 0.032987002283334732 -0.90955275297164917 -0.37331247329711914 -0.77826023101806641 -0.16861554980278015 -0.45889896154403687 0.61312419176101685 -0.70954430103302002 0.015894180163741112 0.0080426791682839394 -0.79949826002120972 -1.0140393972396851 0.27903294563293457 -0.34901610016822815 -0.30112168192863464 -0.95456695556640625 -0.51321864128112793 0.41328799724578857
  0.91386115550994873 -0.42880600690841675 0.86056149005889893 0.83878427743911743 0.46605926752090454 0.26096144318580627 -0.47833490371704102 0.034384980797767639 -0.14299014210700989 0.94308793544769287 0.89437413215637207 0.31619468331336975 -0.69933712482452393 -0.55930411815643311 -0.59409672021865845 0.23671524226665497 0.68643414974212646 -0.26667916774749756 0.097607828676700592 -0.56058645248413086 0.058515202254056931 0.10417629033327103 1.0373587608337402 0.6658896803855896 1.0152360200881958 -0.82627373933792114 0.37086975574493408 0.92955821752548218 -0.016378901898860931 0.48762723803520203 0.46972423791885376 -0.50204670429229736 0.92911022901535034 -0.8321571946144104 -0.77362418174743652 0.82061010599136353 0.0099615668877959251 -0.72944283485412598 -0.47709447145462036 0.54803794622421265 -0.91174197196960449
  -0.12445126473903656 -0.13573846220970154 0.60046219825744629 1.0616295337677002 -0.98710852861404419 -1.0266815423965454 -0.52339595556259155 -0.20434661209583282 -0.11547693610191345 0.94348984956741333 0.069600239396095276 0.82585263252258301 -0.17186498641967773 0.076976574957370758 -0.6204647421836853 0.026730706915259361 0.30143752694129944 0.23483230173587799 -0.56368350982666016 0.86374980211257935 0.6018749475479126 0.24402737617492676 -0.74448972940444946 0.82116585969924927 0.82344871759414673 1.01537024974823 -0.99090945720672607 0.79075300693511963 0.39127632975578308 0.44407540559768677 0.79540938138961792 -0.11764355003833771 0.15944807231426239 -0.59624296426773071 -0.21509703993797302 0.30358067154884338 -0.016391979530453682 0.48691919445991516 0.93933624029159546 0.62608450651168823 -0.58111709356307983
  0.88041055202484131 0.24122479557991028 0.21327513456344604 0.68550938367843628 -0.1301705539226532 0.7636982798576355 0.42954802513122559 1.0747120380401611 -0.56178027391433716 0.52707403898239136 0.12467749416828156 0.51914995908737183 -0.34284430742263794 -0.49155893921852112 -0.74440473318099976 -0.76410448551177979 0.462563157081604 0.25815814733505249 0.7996833324432373 -0.36885479092597961 -0.53482866287231445 0.50389814376831055 0.68986421823501587 0.56498038768768311 0.28055271506309509 -0.48518931865692139 -0.1467440277338028 -0.11792604625225067 0.021444477140903473 -1.0071918964385986 -0.79732930660247803 1.0187010765075684 1.0534070730209351 0.8385125994682312 0.70356476306915283 -1.0266655683517456 -0.32200387120246887 0.72115319967269897 0.7278892993927002 0.61794042587280273 -0.0056615369394421577
  -0.94682019948959351 0.89951539039611816 -0.44927528500556946 0.097054682672023773 -0.46875295042991638 -0.41655540466308594 0.86374717950820923 -0.84193909168243408 0.71033591032028198 0.88346290588378906 -0.38120469450950623 0.033792853355407715 -0.97917085886001587 -1.001407265663147 -0.0088277552276849747 0.81048965454101562 0.51283049583435059 -0.1258295476436615 -0.69532352685928345 0.80454027652740479 -0.079816073179244995 0.14275535941123962 0.38186877965927124 -0.076528631150722504 0.92290681600570679 -0.67227429151535034 0.76202303171157837 -1.012681245803833 0.57690423727035522 -0.56044942140579224 1.019661545753479 0.64049643278121948 -0.15105341374874115 -0.10556322336196899 -0.095950104296207428 0.41984096169471741 -0.64013868570327759 -0.38957908749580383 0.87795394659042358 0.96314811706542969 0.092039920389652252
  -0.67907685041427612 0.27045094966888428 -0.7498248815536499 -0.10484918206930161 -0.35491237044334412 0.55662542581558228 1.0403890609741211 -0.37128451466560364 0.52647095918655396 -0.56521165370941162 -0.34709411859512329 -0.78454828262329102 -0.83264422416687012 0.27335238456726074 -0.51343858242034912 0.51242750883102417 1.0130878686904907 -0.64792102575302124 -0.27825337648391724 -0.56670695543289185 0.74677473306655884 0.59195810556411743 -0.20629742741584778 -0.91646969318389893 -0.21912269294261932 -0.61324101686477661 -0.16706611216068268 -0.84488964080810547 -0.43032300472259521 -0.27734631299972534 0.54680037498474121 -0.46433120965957642 -0.17991304397583008 0.42418447136878967 0.41638419032096863 0.82735961675643921 -0.73143690824508667 1.0282858610153198 0.20351487398147583 -0.21464523673057556 -0.010894694365561008 ]
 [ 0.0 0.0 0.0 0.0 0.0 0.0 0.0 0.0 0.0 0.0 0.0 0.0 0.0 0.0 0.0 0.0 0.0 0.0 0.0 0.0 0.0 0.0 0.0 0.0 0.0 0.0 0.0 0.0 0.0 0.0 0.0 0.0 0.0 0.0 0.0 0.0 0.0 0.0 0.0 0.0 0.0 0.0 ]
<softmax> 42 42
</Nnet>
