<Nnet>
<input> 60 60
<affinetransform> 41 60
 [ 
  -1.6383750438690186 0.27550479769706726 0.71693485975265503 0.69262492656707764 -0.28680318593978882 -0.45958036184310913 -0.23624606430530548 0.42740011215209961 -0.084310956299304962 -0.086362756788730621 0.056593399494886398 0.34614372253417969 0.086840786039829254 -0.087320335209369659 0.15813213586807251 0.16356119513511658 -0.29716819524765015 -0.37885388731956482 -0.28075945377349854 0.21007825434207916 0.24442556500434875 0.033531736582517624 0.084172286093235016 -0.01014441717416048 0.49199378490447998 -0.27150711417198181 -0.021017361432313919 0.0377691350877285 -0.19457428157329559 -0.30747991800308228 -0.19395656883716583 -0.012258760631084442 0.21886055171489716 0.11861604452133179 0.11395575106143951 -0.037343684583902359 0.12495922297239304 -0.13634267449378967 -0.29092100262641907 -0.28501400351524353 0.14729636907577515 0.094503708183765411 0.021518198773264885 -0.16022051870822906 0.10277533531188965 0.14933739602565765 0.047095578163862228 -0.068337336182594299 -0.080188199877738953 -0.31402060389518738 -0.89625507593154907 -0.64768582582473755 0.65739566087722778 0.83370089530944824 0.35553759336471558 -0.16405676305294037 0.03016870841383934 0.222458615899086 0.0024323277175426483 -0.13667407631874084
  0.57142913341522217 0.055891707539558411 -0.38499867916107178 -0.32439148426055908 -0.014692974276840687 0.026640402153134346 0.17303252220153809 0.073638737201690674 0.096375800669193268 0.13818424940109253 0.040364664047956467 -0.11466438323259354 -0.23263689875602722 -0.15868230164051056 0.38498944044113159 0.16770458221435547 -0.42154604196548462 -0.31119376420974731 0.11121819168329239 0.10717853903770447 0.01710013672709465 -0.11364107578992844 0.052493106573820114 0.22020098567008972 -0.077635243535041809 -0.49689397215843201 0.16207647323608398 0.32445836067199707 -0.33242717385292053 -0.28755924105644226 -0.05732809379696846 0.14692693948745728 0.10077256709337234 0.01107511855661869 0.024786828085780144 0.1502259224653244 0.38188812136650085 -0.3504597544670105 -0.1277654618024826 0.3904685378074646 0.11838676035404205 -0.1533852219581604 -0.12005502730607986 0.086590498685836792 0.072083428502082825 0.054027602076530457 -0.073375195264816284 0.051684591919183731 0.66905677318572998 -0.29056096076965332 -0.74030888080596924 -0.33435675501823425 0.72719305753707886 0.47109940648078918 -0.14603334665298462 -0.12375468760728836 0.016666620969772339 0.029974529519677162 0.03293883427977562 -0.21555304527282715
  -0.22176122665405273 0.48380297422409058 1.0521783828735352 -0.019307011738419533 -0.71954035758972168 -0.26059076189994812 -0.11169528961181641 -0.22380988299846649 -0.35347998142242432 -0.049856547266244888 0.096597000956535339 0.28891342878341675 -0.57202237844467163 0.32455840706825256 0.1874055415391922 -0.25707715749740601 -0.19742104411125183 0.072674930095672607 -0.05487968772649765 -0.14684975147247314 -0.1231033056974411 -0.008160686120390892 0.24319078028202057 0.17426034808158875 -0.17326296865940094 0.42555326223373413 0.23084695637226105 -0.038454681634902954 0.032867290079593658 0.085314489901065826 -0.06351952999830246 -0.13821737468242645 -0.085932798683643341 0.010247190482914448 0.10070384293794632 0.12249830365180969 -0.27749523520469666 0.16188105940818787 0.060002509504556656 0.090109638869762421 -0.0079365475103259087 -0.015047700144350529 -0.052699532359838486 -0.0091644683852791786 -0.084517188370227814 -0.027306299656629562 0.049775853753089905 0.058042153716087341 -0.0026682671159505844 -0.19309484958648682 -0.14096623659133911 0.14641992747783661 -0.11032300442457199 0.007518052589148283 0.031678091734647751 -0.034857600927352905 -0.15081767737865448 -0.14856337010860443 -0.093467243015766144 0.2113720178604126
  0.72168606519699097 0.14210179448127747 -0.4692140519618988 0.24757646024227142 0.07671935111284256 -0.084454655647277832 -0.14577524363994598 0.17562311887741089 -0.02902628481388092 -0.1063404455780983 -0.18173658847808838 -0.148350790143013 0.32393407821655273 0.092710100114345551 -0.097271114587783813 0.11560262739658356 0.38517037034034729 0.23281611502170563 -0.18428762257099152 -0.1034257560968399 0.034711208194494247 -0.10195213556289673 -0.084018483757972717 -0.092542126774787903 0.13086055219173431 0.13102257251739502 -0.31722891330718994 0.067405939102172852 0.54374408721923828 0.26584950089454651 -0.19651113450527191 -0.15454350411891937 0.067301437258720398 0.021071974188089371 -0.062916144728660583 -0.027157451957464218 0.057126067578792572 0.13815844058990479 -0.14431901276111603 0.13648174703121185 0.33187976479530334 0.126283198595047 -0.019883036613464355 -0.12641996145248413 -0.0039359116926789284 0.01978716067969799 -0.075603529810905457 0.051034413278102875 -0.52665066719055176 -0.15688933432102203 0.22073674201965332 -0.36831247806549072 -0.18044698238372803 0.25657039880752563 0.20119117200374603 -0.043986648321151733 0.083995014429092407 0.099540337920188904 -0.07814662903547287 0.013647088780999184
  0.24922278523445129 -0.26532277464866638 0.20362795889377594 0.0061027347110211849 -0.01404907088726759 -0.039103161543607712 0.037540547549724579 -0.0051439818926155567 0.17473924160003662 -0.091416269540786743 -0.090907692909240723 -0.016416184604167938 -0.67419564723968506 0.01580851711332798 0.35848402976989746 -0.11551988124847412 0.02651483379304409 0.1085638701915741 0.21223229169845581 -0.078147910535335541 0.084701672196388245 -0.11655887216329575 -0.0557522252202034 0.13655993342399597 -0.365019291639328 0.29619726538658142 0.46638846397399902 -0.137989342212677 0.17573268711566925 0.078044697642326355 0.13785241544246674 -0.1402212381362915 0.16090816259384155 -0.12369068711996078 -0.12021931260824203 0.10243473201990128 -0.038499020040035248 0.096442751586437225 0.19909031689167023 -0.15873737633228302 0.16693238914012909 0.11141196638345718 -0.050117224454879761 -0.11451172828674316 0.12976720929145813 -0.015048644505441189 -0.037230484187602997 0.030361421406269073 -0.44463995099067688 0.34756791591644287 0.55546087026596069 -0.23418943583965302 -0.24392750859260559 -0.11115509271621704 -0.015623497776687145 0.037445634603500366 0.18677154183387756 -0.079046010971069336 0.00041054561734199524 0.058148931711912155
  -0.066427052021026611 -0.1793467104434967 0.44444829225540161 -0.52729034423828125 -0.10879378765821457 -0.12392795085906982 -0.067987158894538879 -0.1539587676525116 0.067257612943649292 -0.24646858870983124 0.074398428201675415 -0.19251260161399841 0.93676495552062988 0.26555630564689636 0.41096246242523193 0.068670034408569336 -0.19431716203689575 -0.16621117293834686 -0.071692131459712982 -0.18741729855537415 0.016932601109147072 -0.12159669399261475 0.038632806390523911 -0.26103976368904114 0.98874717950820923 -0.44465160369873047 0.25116407871246338 0.16739365458488464 -0.30900797247886658 -0.0099203847348690033 0.0075658354908227921 -0.16287633776664734 0.12616682052612305 -0.08663158118724823 0.11932452768087387 -0.18201185762882233 1.0081371068954468 0.23340590298175812 0.12673982977867126 0.39069229364395142 -0.19567935168743134 0.018403401598334312 0.038980152457952499 -0.13095512986183167 0.04229307547211647 -0.029680732637643814 -0.059716235846281052 -0.06319630891084671 -1.8754851818084717 -0.051627721637487411 -0.57725220918655396 0.10560926049947739 0.25051587820053101 0.1677984893321991 0.20620241761207581 0.23905231058597565 -0.051085744053125381 0.23635846376419067 -0.21507550776004791 0.3516884446144104
  -0.89380329847335815 0.30066227912902832 0.59409451484680176 -0.65763598680496216 -0.29481297731399536 0.2417680025100708 0.38508692383766174 -0.08507160097360611 -0.080223634839057922 0.011675429530441761 -0.19171249866485596 -0.20718337595462799 -0.35702592134475708 0.41369417309761047 0.28179308772087097 -0.40923133492469788 -0.41528433561325073 0.096109502017498016 0.24928963184356689 0.017877660691738129 0.048211880028247833 0.016575457528233528 -0.15220645070075989 -0.13146021962165833 -0.10398637503385544 0.32112732529640198 0.26513013243675232 -0.3301943838596344 -0.32916975021362305 0.12762510776519775 0.13753584027290344 0.043494656682014465 0.093099720776081085 -0.081882208585739136 -0.070735804736614227 -0.027604658156633377 0.17997497320175171 0.25479322671890259 0.13866245746612549 -0.079775765538215637 -0.047892656177282333 0.050520632416009903 0.092986442148685455 0.043115798383951187 0.025173056870698929 -0.11333201080560684 0.013795053586363792 0.07359766960144043 0.36205148696899414 0.2649264931678772 -0.30834731459617615 0.33857038617134094 0.29479604959487915 0.12611976265907288 -0.095614664256572723 -0.15022280812263489 -0.090406663715839386 -0.083552993834018707 0.072055995464324951 0.23027136921882629
  -2.989032506942749 1.3886641263961792 -0.18754394352436066 -0.059389553964138031 -0.041635401546955109 -0.19929610192775726 -0.018327102065086365 0.15409213304519653 0.039161894470453262 -0.15766440331935883 -0.00096425309311598539 -0.11053955554962158 -0.16520488262176514 0.091806337237358093 -0.11783304065465927 -0.0064094839617609978 -0.10887207835912704 -0.11331138759851456 -0.053525175899267197 0.021920764818787575 0.020790841430425644 -0.049575068056583405 0.023516939952969551 -0.035949911922216415 0.3621944785118103 -0.068178564310073853 -0.2412833571434021 0.095867261290550232 -0.042228899896144867 -0.045023135840892792 -0.079826675355434418 0.042605400085449219 -0.040074557065963745 0.014037764631211758 0.059802256524562836 0.018667815253138542 0.27483049035072327 0.0026732119731605053 -0.14147995412349701 0.098166570067405701 0.013759073801338673 0.12672358751296997 -0.058659017086029053 0.029825484380125999 -0.015131873078644276 0.018326273187994957 0.027958961203694344 -0.0027111449744552374 0.53614050149917603 -0.19123250246047974 0.025172991678118706 0.20235952734947205 0.17275388538837433 0.12657415866851807 0.045977894216775894 0.068249575793743134 -0.0036443849094212055 0.060636352747678757 -0.082936041057109833 0.18897947669029236
  0.4256846010684967 0.42448177933692932 0.11662379652261734 0.33482253551483154 0.25001686811447144 0.075091302394866943 0.058227885514497757 -0.16572335362434387 -0.11848973482847214 0.044988900423049927 -0.063949167728424072 0.065722100436687469 0.59582215547561646 -0.49123293161392212 -0.11087367683649063 0.10089756548404694 -0.11883564293384552 0.047763951122760773 0.070005573332309723 -0.23614439368247986 0.073002748191356659 -0.0014848241116851568 -0.039039317518472672 -0.097797088325023651 0.79581451416015625 -0.58141380548477173 -0.26093977689743042 0.061025999486446381 -0.075317181646823883 -0.009197271429002285 0.011630043387413025 -0.28014737367630005 0.050613842904567719 -0.053278610110282898 -0.17417876422405243 -0.11987446248531342 0.30958148837089539 -0.36303380131721497 -0.14088629186153412 0.031296394765377045 0.013856716454029083 -0.043638762086629868 -0.022153342142701149 -0.17003676295280457 -0.015937771648168564 -0.097808882594108582 -0.18555097281932831 -0.046431001275777817 0.33923497796058655 0.57159364223480225 0.3887673020362854 -0.0046091824769973755 0.059733863919973373 0.0047783525660634041 -0.11522763222455978 -0.10920838266611099 -0.23340389132499695 -0.21826601028442383 -0.1449006050825119 -0.12208706140518188
  -0.012119997292757034 -0.46905210614204407 -0.29332548379898071 -0.46323728561401367 -0.36991462111473083 -0.083159998059272766 0.098331347107887268 0.16625063121318817 -0.072447367012500763 0.085886135697364807 0.24124477803707123 0.060743667185306549 -0.15546730160713196 -0.090362884104251862 -0.059899415820837021 -0.078755810856819153 -0.068392187356948853 0.14137829840183258 0.35179817676544189 0.046753302216529846 -0.10350026190280914 0.016460729762911797 0.019908299669623375 -0.0041463347151875496 -0.42753922939300537 -0.12157043069601059 -0.1888526976108551 -0.1356717050075531 0.055227238684892654 0.10947886854410172 0.40252211689949036 0.15314954519271851 -0.021576253697276115 -0.029804157093167305 -0.031545784324407578 0.032440576702356339 0.15430139005184174 -0.15745167434215546 -0.066351510584354401 -0.093058884143829346 -0.23280087113380432 0.015350314788520336 0.20286045968532562 0.20217142999172211 0.0089914379641413689 -0.072755493223667145 0.068996556103229523 0.12838619947433472 -0.58392143249511719 -0.1832079291343689 -0.69629400968551636 -0.16096703708171844 0.029625579714775085 0.27618247270584106 0.3576805591583252 0.47744765877723694 -0.035476081073284149 -0.074687272310256958 0.10802130401134491 0.064900167286396027
  1.08702552318573 -0.95757871866226196 -1.4745762348175049 0.13226424157619476 0.42317143082618713 -0.12537126243114471 0.24026471376419067 0.47202903032302856 0.45584931969642639 -0.11061730980873108 -0.24266912043094635 -0.24214108288288116 0.3959277868270874 -0.1768534779548645 -0.32535243034362793 -0.19365493953227997 0.040176372975111008 -0.15716740489006042 0.069359928369522095 0.13681800663471222 0.053739726543426514 -0.015164203941822052 0.037970874458551407 -0.016419094055891037 -0.044223356992006302 0.14569485187530518 0.11572112143039703 -0.10385436564683914 -0.090282507240772247 -0.043335851281881332 0.0053302557207643986 -0.01481311209499836 -0.054214794188737869 0.049070578068494797 0.05377906933426857 0.058788839727640152 -0.29644307494163513 0.29869729280471802 0.4985634982585907 0.024542558938264847 -0.11350981891155243 0.007776196114718914 -0.15732382237911224 -0.15433742105960846 -0.11255720257759094 -0.027402637526392937 0.048485025763511658 0.10026634484529495 -0.83457958698272705 0.56625658273696899 1.0940849781036377 0.11421014368534088 -0.30041378736495972 0.085812889039516449 -0.19655275344848633 -0.24504221975803375 -0.26636752486228943 -0.027909930795431137 0.096384711563587189 0.16453178226947784
  0.14046290516853333 -0.16910956799983978 -0.47609561681747437 -0.58717107772827148 0.052505377680063248 0.42943644523620605 0.039163719862699509 0.063886143267154694 -0.12292563915252686 -0.1712968498468399 0.21616992354393005 0.13789284229278564 0.20286989212036133 0.20174229145050049 -0.093271538615226746 -0.30506956577301025 0.32262235879898071 0.19398124516010284 -0.11739597469568253 -0.081945084035396576 -0.12457909435033798 -0.029042253270745277 0.26792937517166138 0.025430727750062943 0.5312654972076416 0.460399329662323 0.31289863586425781 0.034181758761405945 0.43069586157798767 0.019946632906794548 -0.26888972520828247 -0.30285865068435669 -0.010361362248659134 0.14495272934436798 0.12403354048728943 -0.09096594899892807 0.39856863021850586 0.11391916126012802 0.30358701944351196 0.41587668657302856 0.33825835585594177 -0.05343921110033989 -0.18660163879394531 -0.36394906044006348 0.045529697090387344 0.14165772497653961 0.091754235327243805 -0.1006835475564003 0.16051207482814789 -0.98905336856842041 -0.10635543614625931 0.38332414627075195 0.40358197689056396 -0.23550581932067871 -0.22661593556404114 -0.24384962022304535 0.24536584317684174 0.14358310401439667 -0.12567377090454102 -0.21667084097862244
  -0.55114305019378662 -0.35045206546783447 -0.1086689829826355 -0.74420499801635742 0.1658882349729538 -0.26696580648422241 0.051153361797332764 0.90208739042282104 0.42419293522834778 -0.26877063512802124 0.02282356284558773 -0.13079270720481873 0.28122496604919434 0.23425629734992981 -0.052636001259088516 -0.22962911427021027 -0.14988937973976135 0.079492419958114624 0.092530317604541779 0.14993952214717865 0.039199814200401306 -0.088791780173778534 0.050035543739795685 0.046822071075439453 0.15889981389045715 0.30087205767631531 0.35281693935394287 -0.026448002085089684 -0.22398260235786438 0.12608028948307037 0.12117928266525269 -0.1608617901802063 -0.060766547918319702 -0.027458043769001961 0.032707557082176208 0.116020567715168 -0.10035549104213715 0.24190585315227509 0.2828289270401001 0.28086993098258972 -0.15364374220371246 0.072124876081943512 0.10226364433765411 -0.3526214063167572 -0.16216979920864105 0.097450129687786102 -0.0234348364174366 0.10049964487552643 0.071059420704841614 -0.11933691054582596 0.063322849571704865 -0.10008636862039566 -0.17559576034545898 -0.074975073337554932 -0.020048774778842926 -0.11700820177793503 -0.22815901041030884 0.19817414879798889 0.024905258789658546 0.16035865247249603
  0.37026616930961609 -0.28297272324562073 -0.53512924909591675 -0.25430029630661011 -0.023394878953695297 0.071256287395954132 0.00092217797646299005 -0.3531288206577301 -0.02686559222638607 0.3252197802066803 0.011608948931097984 -0.11523939669132233 -0.028432600200176239 -0.36904317140579224 -0.51725083589553833 -0.065891064703464508 0.1810765415430069 -0.025907011702656746 -0.11256745457649231 0.033349417150020599 0.05676424503326416 0.14209616184234619 0.0015989183448255062 -0.13291797041893005 0.23315942287445068 -0.17743811011314392 -0.23009862005710602 0.17316199839115143 0.045041915029287338 -0.18224066495895386 -0.11879975348711014 0.19212198257446289 0.11483690142631531 0.10650814324617386 -0.099340513348579407 -0.12348374724388123 -0.069020144641399384 0.035078369081020355 0.20100277662277222 0.0096420636400580406 -0.10767784714698792 -0.13956820964813232 -0.05936736986041069 0.25745856761932373 0.16994674503803253 -0.081208944320678711 -0.137571781873703 -0.031308349221944809 0.77695679664611816 0.75552535057067871 1.4059953689575195 0.055417571216821671 -0.99293047189712524 -0.44995075464248657 0.27638205885887146 0.10114657878875732 -0.062608405947685242 -0.26714226603507996 -0.037433162331581116 -0.045730911195278168
  -1.0242388248443604 0.020202865824103355 -0.43876031041145325 -0.35570982098579407 0.19804650545120239 0.16357189416885376 0.13626892864704132 0.15856972336769104 0.066396154463291168 0.12851701676845551 0.12557652592658997 0.16435721516609192 0.13097365200519562 -0.55610477924346924 -0.90946882963180542 -0.47410979866981506 0.15048833191394806 0.21611516177654266 -0.019558845087885857 0.12041670083999634 0.19349747896194458 0.16097703576087952 0.12690332531929016 -0.083559326827526093 0.082605607807636261 -0.33051708340644836 -0.84747445583343506 -0.26364010572433472 0.29268607497215271 0.26569503545761108 0.070741049945354462 0.065232433378696442 0.12915791571140289 0.21222800016403198 0.020881149917840958 -0.037247695028781891 0.18037758767604828 -0.01878809742629528 -0.060763176530599594 0.055253792554140091 0.083266176283359528 0.1486334502696991 0.075318910181522369 -0.081279270350933075 0.045881424099206924 0.058580715209245682 0.011094824410974979 0.028343465179204941 0.012130733579397202 0.36461061239242554 0.6321602463722229 0.17266905307769775 -0.15010686218738556 0.033710982650518417 0.01338102575391531 -0.036214839667081833 -0.098044902086257935 -0.095208518207073212 0.067913360893726349 0.1211421862244606
  0.28875976800918579 -0.53001385927200317 0.19728858768939972 0.18035018444061279 0.032564286142587662 -0.22360968589782715 -0.21146036684513092 -0.11042995750904083 -0.02226841077208519 -0.028543507680296898 -0.12129388004541397 -0.24280066788196564 -0.9804573655128479 -0.025260563939809799 0.51347070932388306 0.37106454372406006 0.096119970083236694 -0.14901073276996613 -0.014946809038519859 0.15483149886131287 0.17173768579959869 -0.091269470751285553 -0.19511447846889496 -0.00062605738639831543 -0.61641186475753784 -0.036754067987203598 0.34520280361175537 0.27268797159194946 0.10832811146974564 -0.071829721331596375 0.051440931856632233 0.081591017544269562 0.18858684599399567 -0.04418521374464035 -0.1789909154176712 0.01254793256521225 -0.075753308832645416 -0.11300419270992279 0.13111039996147156 0.10950350761413574 0.048604346811771393 0.022134970873594284 0.039327669888734818 0.0745667964220047 0.062010698020458221 -0.0012447047047317028 -0.067526377737522125 0.033935617655515671 0.032959073781967163 -0.2768852710723877 -0.58563464879989624 -0.12439637631177902 -0.22752057015895844 -0.030455896630883217 -0.1289265900850296 0.15480688214302063 -0.10929279029369354 0.12477525323629379 0.22342054545879364 0.088333703577518463
  0.38918131589889526 0.37295284867286682 0.3076690137386322 -0.16742576658725739 -0.13908036053180695 -0.28810948133468628 -0.27089765667915344 -0.060871206223964691 0.023397559300065041 0.094448268413543701 0.050104100257158279 -0.07527247816324234 -0.11434714496135712 0.17483648657798767 -0.086579903960227966 -0.36161923408508301 -0.21699364483356476 -0.12777060270309448 -0.14062456786632538 -0.047975905239582062 -0.010175083763897419 0.10698316991329193 0.036944512277841568 0.04743301123380661 0.10104135423898697 0.25053170323371887 -0.0083678504452109337 -0.34199947118759155 -0.15304653346538544 -0.13232412934303284 -0.11494246125221252 -0.055620819330215454 0.044934187084436417 0.11537527292966843 -0.047180436551570892 -0.0033939743880182505 -0.16578717529773712 0.096809700131416321 -0.131143718957901 -0.19265840947628021 -0.13701118528842926 -0.15289270877838135 -0.1502000093460083 -0.014610660262405872 0.10536161065101624 0.057791147381067276 -0.0028016434516757727 0.0088414028286933899 -0.36768683791160583 0.087306052446365356 0.10959506779909134 0.019674237817525864 0.057074509561061859 -0.40227118134498596 -0.1902526468038559 0.021449688822031021 0.11667613685131073 0.049738131463527679 0.04811689630150795 0.16344963014125824
  -0.72033488750457764 0.54459202289581299 -0.1995541900396347 0.44070139527320862 0.41812443733215332 0.17595170438289642 -0.14104042947292328 -0.14953465759754181 0.21341551840305328 0.26942691206932068 -0.086045563220977783 0.20559446513652802 0.075228676199913025 -0.40873816609382629 -0.10142085701227188 -0.56539243459701538 -0.23373796045780182 -0.13439947366714478 -0.0025132971350103617 0.1797604113817215 -0.020233344286680222 -0.079847626388072968 0.08548610657453537 -0.11407140642404556 -0.21535985171794891 -0.33750352263450623 -0.29624477028846741 -0.71150755882263184 -0.19623248279094696 -0.23049364984035492 -0.042903747409582138 0.17933578789234161 -0.026121404021978378 -0.10047902911901474 0.14563731849193573 -0.054046537727117538 -0.094380028545856476 -0.28543174266815186 -0.21458996832370758 -0.38110429048538208 -0.24930408596992493 -0.083873018622398376 -0.021297166123986244 0.14088693261146545 0.11986025422811508 0.025470880791544914 0.13536305725574493 0.046249557286500931 -0.74799728393554688 0.88770532608032227 0.2761702835559845 0.92430806159973145 0.12288622558116913 0.14780882000923157 0.10436510294675827 -0.083977468311786652 -0.081810995936393738 0.15217304229736328 0.032416023313999176 0.32712578773498535
  0.37247520685195923 0.56270641088485718 0.5845070481300354 0.48034623265266418 0.10074330866336823 0.10628629475831985 0.28796768188476562 0.069562867283821106 0.061306923627853394 0.10209017246961594 -0.12508854269981384 -0.12588219344615936 0.46950042247772217 -0.033276394009590149 0.051066908985376358 0.1892649233341217 0.3524596095085144 0.17717532813549042 0.08249867707490921 0.17403513193130493 0.090406633913516998 0.047246504575014114 -0.10077732056379318 -0.2066027969121933 0.62278503179550171 -0.38246509432792664 -0.28193482756614685 -0.040032807737588882 0.18914507329463959 0.10585054010152817 0.10353429615497589 0.17859545350074768 0.045503724366426468 0.039750073105096817 -0.044631287455558777 -0.16227893531322479 -0.22113701701164246 -0.02577151358127594 -0.4486415684223175 -0.15277580916881561 -0.018182985484600067 -0.010261846706271172 0.020904853940010071 -0.023997336626052856 -0.0556163489818573 0.047100592404603958 -0.046053815633058548 0.0073557114228606224 -1.5842486619949341 -0.63724452257156372 -0.40096327662467957 -0.46435648202896118 -0.41568541526794434 -0.19589562714099884 0.27450102567672729 0.38196104764938354 0.18347397446632385 -0.00075638864655047655 0.22315795719623566 0.35524562001228333
  0.25106969475746155 0.34116071462631226 0.27613061666488647 0.056571051478385925 -0.43146729469299316 -0.32866296172142029 -0.16177673637866974 0.13967384397983551 -0.070011630654335022 0.017046378925442696 0.13627816736698151 0.17646460235118866 0.71524262428283691 -0.53811120986938477 0.028950242325663567 -0.59516751766204834 -0.42900031805038452 -0.26918065547943115 -0.16236686706542969 0.11261339485645294 0.097528524696826935 -0.01112132053822279 0.16277359426021576 -0.091221682727336884 0.60341459512710571 -0.25640401244163513 0.091275542974472046 -0.42593413591384888 -0.2376549243927002 -0.27363505959510803 -0.073097273707389832 -0.05025264248251915 -0.017311923205852509 0.0016769773792475462 0.13508683443069458 -0.083684511482715607 0.20348066091537476 0.15767687559127808 0.22200888395309448 -0.062588706612586975 0.075992979109287262 -0.011546187102794647 -0.028258336707949638 -0.0778236985206604 -0.066749967634677887 -0.030192267149686813 -0.012457716278731823 -0.14170666038990021 0.12870281934738159 0.29655513167381287 0.33282497525215149 0.6252598762512207 0.075303941965103149 -0.089069955050945282 0.32975691556930542 -0.03692588210105896 0.0085184937343001366 -0.0075820037163794041 -0.09236617386341095 -0.070459723472595215
  -0.22892872989177704 0.11444412916898727 0.54879879951477051 -0.498006671667099 -0.71551603078842163 0.1162400022149086 -0.074945196509361267 0.061112403869628906 -0.068708725273609161 0.04300922155380249 0.36043745279312134 -0.02988738939166069 -0.19520065188407898 0.10253272205591202 -0.22187067568302155 0.4423183798789978 0.2209622710943222 -0.3356010913848877 0.10638660192489624 0.090049900114536285 0.0033105534967035055 0.10834857076406479 -0.0011326286476105452 -0.00024523964384570718 -0.23758469521999359 0.47029215097427368 -0.18169297277927399 0.84532713890075684 0.59685683250427246 -0.19089649617671967 0.13657005131244659 0.060189437121152878 0.079994075000286102 0.21348753571510315 -0.22999435663223267 0.098950654268264771 0.03697030246257782 0.49734956026077271 -0.047973502427339554 0.75406843423843384 0.45564183592796326 0.1669447273015976 0.12354425340890884 -0.1717253178358078 -0.016454041004180908 0.094709567725658417 -0.22375304996967316 0.019363444298505783 -0.60524153709411621 -0.56335651874542236 -0.70784229040145874 -0.72529494762420654 -0.078638628125190735 0.41265502572059631 -0.10668469220399857 0.16569137573242188 0.093035399913787842 -0.026604153215885162 0.17475332319736481 0.14784801006317139
  1.8555516004562378 0.22989164292812347 -0.5971992015838623 -0.20255528390407562 0.060129120945930481 0.28247588872909546 0.056622210890054703 0.0073066269978880882 0.021597383543848991 0.16839165985584259 0.012764117680490017 -0.081496499478816986 0.14588217437267303 -0.077226549386978149 -0.37512549757957458 -0.09401296079158783 -0.049012646079063416 0.10389114171266556 -0.041318595409393311 -0.013689935207366943 -0.039321247488260269 0.098267301917076111 0.070488765835762024 -0.011615985073149204 -0.95210868120193481 -0.25233566761016846 -0.17879889905452728 -0.069179326295852661 -0.081778459250926971 0.029412215575575829 -0.001839187229052186 0.13891848921775818 -0.0057533523067831993 -0.057436902076005936 0.014489532448351383 0.085990622639656067 -2.0437004566192627 -0.10064699500799179 0.24626575410366058 -0.023961326107382774 -0.052198346704244614 -0.1027902290225029 0.029352430254220963 0.12854509055614471 0.08191535621881485 -0.13855233788490295 -0.031217761337757111 -0.0087125254794955254 -0.71833240985870361 -0.10330600291490555 0.85488718748092651 0.34440430998802185 0.10156144201755524 -0.10961751639842987 0.1604800820350647 -0.11630044877529144 0.13782387971878052 -0.24027685821056366 -0.083667367696762085 -0.17972132563591003
  -0.83131176233291626 0.19600221514701843 -0.041357129812240601 -0.38021925091743469 -0.15742506086826324 0.068136066198348999 0.23570628464221954 0.19697603583335876 -0.039797306060791016 0.060440327972173691 0.13484282791614532 0.011758262291550636 -0.10644538700580597 -0.041305631399154663 0.045442916452884674 -0.065024562180042267 -0.2801225483417511 -0.027168210595846176 0.12062089145183563 -0.029483849182724953 -0.0091813262552022934 0.01921411044895649 -0.090219654142856598 -0.048798166215419769 -0.0027688636910170317 -0.19930510222911835 0.031987536698579788 -0.097875267267227173 -0.2578776478767395 -0.10416336357593536 0.13457842171192169 -0.071700088679790497 -0.026543153449892998 0.041479125618934631 -0.02222210168838501 -0.1226421594619751 0.4823341965675354 -0.22623582184314728 -0.12768672406673431 0.17546080052852631 -0.13232249021530151 -0.29649233818054199 0.07532607764005661 -0.18375952541828156 0.020018218085169792 0.16789112985134125 -0.035198207944631577 -0.058202683925628662 1.8858741521835327 -0.42568415403366089 0.10953709483146667 0.066230043768882751 0.1634482741355896 -0.089981265366077423 -0.27554109692573547 -0.099473185837268829 0.067127056419849396 -0.01722516305744648 -0.051174599677324295 -0.089900970458984375
  -0.1938362717628479 -0.017789237201213837 0.1823732852935791 0.47198957204818726 -0.13914012908935547 -0.048863228410482407 0.045213069766759872 -0.20624716579914093 0.030931888148188591 0.17957393825054169 -0.10881268233060837 0.14060795307159424 -0.070962280035018921 -0.36533570289611816 -0.28985172510147095 -0.40220770239830017 0.24586953222751617 0.0022035359870642424 0.040715377777814865 -0.049686245620250702 0.19169378280639648 0.044045936316251755 -0.13036097586154938 -0.25525936484336853 0.036199841648340225 -0.38742116093635559 -0.45103737711906433 -0.464140385389328 0.54832702875137329 0.13344602286815643 0.10216815024614334 0.07278887927532196 0.14835193753242493 -0.10565754026174545 -0.1456729918718338 -0.34689357876777649 0.3000960648059845 -0.18902069330215454 -0.17174611985683441 -0.39756670594215393 0.26438546180725098 0.070947252213954926 0.043370909988880157 0.21199122071266174 0.049421846866607666 -0.15481548011302948 -0.010674888268113136 -0.2148558646440506 0.68378674983978271 0.37273958325386047 0.16871625185012817 0.121523417532444 0.084222152829170227 0.19896598160266876 0.14332602918148041 0.2138967365026474 -0.099131584167480469 -0.22911627590656281 0.08129023015499115 0.051037225872278214
  -1.1514018774032593 -0.24428948760032654 -0.28965410590171814 0.048348031938076019 -0.00087007874390110373 -0.36511325836181641 -0.45533290505409241 0.04393715038895607 0.28370890021324158 0.36346510052680969 0.25574737787246704 0.37731382250785828 0.080786637961864471 -0.21192499995231628 -0.14096857607364655 0.065334692597389221 0.014497983269393444 -0.1236732229590416 -0.29221594333648682 -0.10922234505414963 0.11694123595952988 0.2014668732881546 0.24057261645793915 0.11953466385602951 0.16524159908294678 0.26961219310760498 0.076379567384719849 0.14175243675708771 0.044294357299804688 -0.065935820341110229 -0.2644171416759491 0.06299591064453125 0.11418125033378601 0.04965389147400856 0.23631669580936432 0.010755819268524647 0.033371206372976303 0.027881225571036339 0.097449310123920441 0.18884691596031189 0.046160604804754257 -0.019309140741825104 -0.062580399215221405 0.018545420840382576 -0.033300396054983139 -0.051020354032516479 0.1907467246055603 -0.043043468147516251 0.23432213068008423 -0.38413724303245544 0.21953825652599335 0.22616991400718689 0.024309920147061348 -0.060752689838409424 0.00020831497386097908 0.10028353333473206 -0.072016499936580658 -0.047269072383642197 -0.018645239993929863 0.16765239834785461
  -0.096431709825992584 -0.087254226207733154 -0.44330337643623352 -0.44674324989318848 -0.03754429891705513 -0.011497282423079014 0.18407917022705078 -0.014923966489732265 0.030371218919754028 0.12770120799541473 0.04211391881108284 -0.091862402856349945 0.55419564247131348 -0.22646959125995636 -0.13920842111110687 -0.37795278429985046 -0.13234046101570129 0.10884404182434082 0.0036285761743783951 -0.002781242597848177 0.013705180957913399 0.032376550137996674 0.025954693555831909 -0.21336708962917328 0.26679250597953796 0.16094069182872772 0.099202848970890045 0.11975807696580887 0.044599391520023346 0.068607300519943237 -0.020469281822443008 -0.052953038364648819 -0.020991161465644836 -0.0062941098585724831 -0.077221527695655823 -0.2102254182100296 0.51535296440124512 0.53982692956924438 0.45781636238098145 0.535847008228302 0.0097336815670132637 -0.1270478367805481 -0.12818242609500885 -0.086031340062618256 -0.13398608565330505 -0.036144137382507324 -0.13549052178859711 -0.072020977735519409 -2.6493110656738281 -0.16396404802799225 0.87392550706863403 1.1861693859100342 -0.13359051942825317 -0.34863892197608948 0.034660693258047104 0.20822447538375854 -0.16452965140342712 -0.043168436735868454 -0.082456722855567932 0.50197190046310425
  -0.35941901803016663 -0.35109654068946838 0.011731114238500595 -0.0060188053175806999 0.2895348072052002 0.17188887298107147 0.11451346427202225 -0.2521953284740448 -0.01261754147708416 0.054970424622297287 -0.039069779217243195 -0.098206952214241028 -0.43682795763015747 0.011432471685111523 0.50056380033493042 0.27553197741508484 -0.0099245654419064522 -0.36074149608612061 -0.21209484338760376 0.0041245818138122559 0.12317687273025513 0.029054976999759674 -0.095903687179088593 -0.072313219308853149 -0.071459576487541199 -0.061166156083345413 0.37831416726112366 0.32034000754356384 0.095495864748954773 -0.33512216806411743 -0.26323381066322327 0.082539983093738556 0.21782784163951874 0.066431261599063873 -0.079328618943691254 -0.06699717789888382 -0.18269748985767365 -0.12918399274349213 0.2854962944984436 0.20747081935405731 -0.0533096082508564 -0.27652963995933533 -0.20914943516254425 0.070950932800769806 0.16506041586399078 0.013399161398410797 0.037597965449094772 0.042157590389251709 -0.32514756917953491 -0.10235574096441269 0.58600646257400513 0.44608080387115479 -0.19409243762493134 -0.26158890128135681 -0.18463607132434845 -0.0019897057209163904 0.022032154724001884 0.059640385210514069 0.13140448927879333 0.17040745913982391
  0.37781363725662231 -0.13082318007946014 -0.15683527290821075 0.076865777373313904 -0.20769953727722168 -0.021665304899215698 0.10081357508897781 -0.10790201276540756 0.0053529171273112297 0.11264245957136154 0.065723851323127747 -0.026606833562254906 0.46377381682395935 0.074663817882537842 0.21637645363807678 0.13799154758453369 0.080989636480808258 0.032092560082674026 -0.022723475471138954 -0.15723375976085663 -0.18836107850074768 0.052200712263584137 0.066777646541595459 -0.019575519487261772 0.93254739046096802 0.48653993010520935 0.47599244117736816 0.1237565279006958 -0.051126129925251007 -0.090072214603424072 -0.10863695293664932 -0.21976868808269501 -0.18252317607402802 -0.0031060907058417797 -0.0367080457508564 -0.08804764598608017 0.33512002229690552 0.61057507991790771 0.43690162897109985 0.091010957956314087 -0.1285051703453064 -0.26328900456428528 -0.039606545120477676 -0.16246938705444336 -0.18950209021568298 -0.17323936522006989 -0.026500562205910683 -0.096156924962997437 0.67999082803726196 -0.80103123188018799 -0.1841629296541214 -0.49809077382087708 -0.34388476610183716 -0.27383255958557129 -0.12374459207057953 -0.036761082708835602 -0.032438717782497406 -0.30617675185203552 0.019145037978887558 -0.089195191860198975
  0.53526198863983154 -0.27950459718704224 -0.56987327337265015 0.39057028293609619 0.1952936053276062 -0.12733213603496552 -0.054610218852758408 -0.025718219578266144 0.06389898806810379 0.0099786492064595222 -0.07103082537651062 0.044671021401882172 -0.23970259726047516 -0.25808557868003845 0.052408058196306229 0.05524863675236702 -0.02772131934762001 -0.025240983814001083 -0.028244538232684135 -0.081619217991828918 0.07969442754983902 0.049533985555171967 -0.036005787551403046 0.04341486468911171 -0.24019183218479156 -0.067669205367565155 0.40703102946281433 -0.22400610148906708 -0.077172987163066864 0.083484135568141937 0.072439230978488922 -0.12603235244750977 0.075955852866172791 0.15950165688991547 -0.06379883736371994 -0.044509924948215485 -0.43571573495864868 0.24123319983482361 0.67554110288619995 -0.33606049418449402 -0.20102865993976593 0.18560059368610382 0.13895151019096375 -0.22201552987098694 0.011167338117957115 0.13458754122257233 -0.078397929668426514 -0.17302897572517395 -1.6234086751937866 0.34336122870445251 1.5878816843032837 -0.63638687133789062 -0.58805578947067261 0.34910759329795837 0.22446225583553314 -0.35494279861450195 0.06900370866060257 0.029801938682794571 -0.063093230128288269 -0.098763465881347656
  0.5569765567779541 -0.48284083604812622 0.0019458708120509982 -0.31184676289558411 -0.052016742527484894 -0.025617260485887527 0.002726077102124691 0.020578393712639809 0.10703226178884506 -0.01426665298640728 0.013958685100078583 -0.057035136967897415 -0.65345728397369385 0.19670680165290833 -0.2012888640165329 0.081386394798755646 0.031593523919582367 -0.064866602420806885 0.14188596606254578 -0.0076300096698105335 0.0064787198789417744 0.029256682842969894 -0.045651018619537354 -0.044117715209722519 -0.54524761438369751 0.41399276256561279 -0.26483055949211121 0.18005026876926422 0.024850096553564072 -0.20882619917392731 0.16923953592777252 -0.031994253396987915 -0.037873584777116776 0.049759399145841599 -0.075155496597290039 -0.087143354117870331 0.010009333491325378 0.54832422733306885 -0.1339128166437149 0.33837351202964783 0.019921248778700829 -0.25698432326316833 0.02641436830163002 -0.068874426186084747 -0.046112928539514542 0.026781346648931503 -0.039172440767288208 -0.084632605314254761 -1.3511438369750977 0.74575603008270264 -0.75824898481369019 0.36662459373474121 -0.017648171633481979 -0.19933468103408813 -0.11126041412353516 -0.0098055200651288033 -0.06349046528339386 0.11170855909585953 0.091474585235118866 -0.039106503129005432
  0.063536539673805237 0.94103676080703735 0.43306764960289001 1.2597516775131226 1.0699601173400879 0.7594413161277771 0.29025283455848694 0.23365633189678192 -0.13824169337749481 -0.23798026144504547 -0.31079798936843872 -0.084658242762088776 -0.99973511695861816 0.0079753613099455833 -0.12362497299909592 -0.16288614273071289 -0.12360837310552597 0.035909980535507202 -0.059761960059404373 0.16033783555030823 0.014750484377145767 0.072251476347446442 0.26624977588653564 0.20753228664398193 -1.1971865892410278 -0.37159255146980286 -0.13663490116596222 -0.40866941213607788 -0.50985407829284668 -0.29364624619483948 -0.1168249323964119 -0.073556892573833466 -0.095082506537437439 0.09862092137336731 0.22199250757694244 0.22967194020748138 -0.71715462207794189 -0.49906924366950989 -0.2173137366771698 -0.36019080877304077 -0.45686608552932739 -0.39388462901115417 -0.16682134568691254 -0.20480674505233765 0.11771455407142639 0.15970750153064728 0.060164805501699448 0.11499842256307602 1.2955032587051392 -0.26144957542419434 -0.13944721221923828 -0.16032347083091736 -0.085563808679580688 -0.021382171660661697 -0.10448671877384186 -0.14774347841739655 0.072397314012050629 0.18244485557079315 -0.071715489029884338 -0.11176126450300217
  0.04430786520242691 -0.48823028802871704 0.49257516860961914 0.61765587329864502 0.29127421975135803 -0.48094269633293152 -0.38935574889183044 -0.065026439726352692 0.015440691262483597 -0.22890739142894745 -0.0023880698718130589 -0.12181765586137772 0.45059496164321899 -0.15868410468101501 -0.30695417523384094 0.19320747256278992 0.38755583763122559 -0.22359918057918549 -0.069854117929935455 0.14245611429214478 -0.079809755086898804 0.03456367552280426 0.076248161494731903 -0.11560694128274918 1.2793903350830078 0.3238472044467926 -0.22601503133773804 -0.0098154880106449127 -0.013742922805249691 0.061765272170305252 -0.03481089323759079 -0.098304159939289093 -0.16256856918334961 0.1596410721540451 0.16394169628620148 -0.18007613718509674 0.64039134979248047 0.26488003134727478 -0.036870922893285751 -0.19583822786808014 -0.1868942528963089 0.33156919479370117 0.040977407246828079 -0.22197602689266205 -0.11862986534833908 0.10628702491521835 0.13912452757358551 -0.13763850927352905 -1.1119186878204346 -0.15236340463161469 -0.38262259960174561 -0.76185619831085205 -0.29249852895736694 0.60463964939117432 0.38952013850212097 -0.49747738242149353 -0.036930687725543976 0.17758201062679291 0.043789133429527283 0.33377647399902344
  0.18847104907035828 0.86233359575271606 0.80994713306427002 -0.10279059410095215 -0.45280173420906067 -0.034862063825130463 0.38585808873176575 0.06233493983745575 -0.24095945060253143 -0.29307225346565247 0.08751678466796875 -0.1804511547088623 0.39220041036605835 -0.22907665371894836 -0.22664342820644379 -0.1779092401266098 -0.11350662261247635 0.06404818594455719 0.10744799673557281 -0.068596780300140381 -0.10526032000780106 -0.095422238111495972 -0.024924945086240768 -0.00331461476162076 -0.18235987424850464 -1.0116730928421021 -0.69570940732955933 -0.07482968270778656 0.30690562725067139 0.15209639072418213 -0.17961640655994415 -0.22994914650917053 -0.026989327743649483 0.09340871125459671 0.0018726750276982784 0.14882668852806091 -0.20151162147521973 -0.77045744657516479 -0.52339631319046021 0.094396322965621948 0.48816630244255066 -0.034043688327074051 -0.50020748376846313 -0.20687927305698395 0.13736966252326965 0.27510541677474976 -0.10027476400136948 0.10074011981487274 -0.14744396507740021 0.53600543737411499 1.1876198053359985 0.69692683219909668 -0.0663108229637146 -0.37965765595436096 -0.18291278183460236 -0.067348971962928772 0.1728866845369339 -0.065371043980121613 0.034840133041143417 -0.10021243989467621
  -0.6482011079788208 -1.2645530700683594 -0.79230231046676636 -0.77755832672119141 -0.5493919849395752 -0.21925835311412811 0.0095954723656177521 -0.18647830188274384 0.16267566382884979 0.11184492707252502 0.09605010598897934 -0.059331499040126801 -0.29580336809158325 -0.11134542524814606 -0.044542916119098663 -0.23491881787776947 -0.34972137212753296 -0.41849443316459656 -0.26626306772232056 -0.18713819980621338 -0.10869204998016357 0.11736947298049927 0.026623286306858063 0.12731717526912689 -0.31641599535942078 0.37698265910148621 0.31638911366462708 0.18455515801906586 0.018457004800438881 -0.20092828571796417 -0.21340814232826233 -0.044068872928619385 -0.099496535956859589 0.083983518183231354 -0.041183255612850189 0.098461799323558807 0.52397948503494263 0.36132028698921204 0.29916122555732727 0.19843865931034088 0.32811465859413147 0.16215804219245911 -0.11788204312324524 0.015681887045502663 -0.0021679012570530176 -0.047211404889822006 -0.037289422005414963 -0.067398510873317719 0.6364893913269043 0.71715712547302246 -0.17813239991664886 0.50120764970779419 0.93995475769042969 0.89783662557601929 0.34367451071739197 -0.031444218009710312 -0.12493973225355148 -0.16679611802101135 -0.15775302052497864 -0.17460969090461731
  -1.3903207778930664 0.30931392312049866 0.3631252646446228 0.57446026802062988 0.21315450966358185 -0.17411097884178162 -0.33188346028327942 0.394438236951828 -0.037131093442440033 -0.34731322526931763 0.12726062536239624 0.1938682496547699 -0.65959805250167847 -0.14626529812812805 -0.059360232204198837 -0.013357434421777725 -0.0088257528841495514 -0.047836426645517349 0.027807731181383133 0.32000976800918579 0.017614260315895081 -0.1505071222782135 0.015223843045532703 -0.010678664781153202 -0.34892022609710693 -0.10327664017677307 -0.014924059621989727 -0.0046028681099414825 -0.11207085847854614 -0.14060088992118835 0.063864469528198242 0.12337711453437805 -0.024403583258390427 -0.07487921416759491 -0.034074161201715469 -0.0088737122714519501 -0.26825976371765137 0.077505633234977722 0.089312285184860229 -0.040154699236154556 0.059149902313947678 -0.030069824308156967 0.018796596676111221 -0.067864894866943359 -0.0060421274974942207 0.019439367577433586 -0.085798576474189758 -0.032763656228780746 0.95933079719543457 0.034566987305879593 -0.11007937043905258 0.078623689711093903 -0.077337659895420074 0.0079976115375757217 0.050624031573534012 -0.40741258859634399 0.0018772858893498778 0.16839763522148132 -0.16925004124641418 -0.049557704478502274
  -0.14784158766269684 -0.082334496080875397 0.18352958559989929 0.078508533537387848 0.089699983596801758 0.091266080737113953 -0.18367242813110352 -0.044633947312831879 0.16234506666660309 -0.071873314678668976 -0.07791861891746521 0.099693506956100464 -0.11963385343551636 0.15580140054225922 0.014908578246831894 -0.050205111503601074 0.18445464968681335 0.054905828088521957 -0.23108310997486115 0.11772696673870087 -0.010632623918354511 0.0047313421964645386 0.06658356636762619 -0.11817006021738052 -0.17242763936519623 0.11113476008176804 0.077881172299385071 -0.24326735734939575 0.078664109110832214 0.0012295085471123457 -0.33766651153564453 0.24792170524597168 -0.05653078481554985 -0.15279458463191986 0.16791749000549316 -0.066924385726451874 0.03638802096247673 0.18590755760669708 0.1028696671128273 -0.25499433279037476 0.053220342844724655 -0.15896026790142059 -0.24293515086174011 0.22604824602603912 -0.075445093214511871 -0.20732946693897247 0.079221062362194061 -0.012859038077294827 -0.7069694995880127 0.70537370443344116 0.45961692929267883 -0.37554460763931274 -0.16008464992046356 0.071731850504875183 -0.089789494872093201 0.18775694072246552 0.035468176007270813 -0.39029446244239807 0.07584603875875473 -0.065566867589950562
  1.4631627798080444 -0.28991624712944031 0.33125168085098267 -0.19374287128448486 -0.15453079342842102 -0.082896150648593903 -0.066084563732147217 -0.12585088610649109 -0.069009140133857727 -0.11905676871538162 0.066513925790786743 -0.22159305214881897 1.0010110139846802 0.22735941410064697 0.3487086296081543 0.099586427211761475 -0.1838451474905014 -0.044873807579278946 -0.087644129991531372 -0.096464201807975769 0.0070200199261307716 -0.088065080344676971 0.058922156691551208 -0.070600546896457672 0.22030460834503174 0.15172240138053894 0.16361066699028015 0.17511887848377228 -0.079049363732337952 -0.016793778166174889 0.033351872116327286 -0.027212671935558319 0.002710241824388504 -0.014806465245783329 -9.3465176178142428e-05 0.097884044051170349 -0.13802465796470642 0.055299516767263412 -0.34455603361129761 0.239529088139534 0.034202016890048981 0.093471512198448181 0.055465657263994217 0.03864920511841774 -0.016804881393909454 0.028774254024028778 -0.088627316057682037 0.11118288338184357 -3.0122969150543213 0.38770964741706848 -0.8206714391708374 -0.093109086155891418 0.68323296308517456 0.20988178253173828 -0.11599891632795334 0.37200883030891418 -0.1608026921749115 0.34090223908424377 -0.20893523097038269 0.29976770281791687
  0.80667483806610107 -0.42320969700813293 -0.6488834023475647 -0.090472787618637085 0.19046510756015778 -0.061040729284286499 0.34702610969543457 0.29514437913894653 -0.042168132960796356 -0.25521507859230042 -0.32759669423103333 -0.15692098438739777 -0.37324738502502441 0.34142354130744934 0.02121635340154171 -0.22444938123226166 0.16349765658378601 0.024062851443886757 0.32308197021484375 0.23294995725154877 -0.082655161619186401 -0.19739523530006409 0.093457207083702087 0.072069615125656128 -0.58609592914581299 0.89145272970199585 0.22351102530956268 -0.23857714235782623 0.4419446587562561 0.33444100618362427 0.37139123678207397 0.045552026480436325 -0.079046346247196198 -0.079164601862430573 0.13317227363586426 -0.00605727918446064 -0.61982560157775879 0.67239820957183838 0.35047903656959534 -0.10623842477798462 0.18108400702476501 0.32464355230331421 0.35810390114784241 0.0010812281398102641 -0.20101255178451538 -0.05875091627240181 0.1082320436835289 -0.10160623490810394 -0.38469398021697998 -0.78516244888305664 0.20637603104114532 0.27008450031280518 -0.28581845760345459 -0.18913061916828156 0.60887604951858521 0.32798853516578674 0.20290569961071014 -0.091970793902873993 -0.40884935855865479 -0.13309283554553986
  1.0337170362472534 0.56743335723876953 0.2144024670124054 0.91914743185043335 0.27760457992553711 -0.063541591167449951 -0.051402434706687927 -0.71588319540023804 -0.20203359425067902 -0.011723066680133343 -0.16447658836841583 0.012184450402855873 0.062922008335590363 0.33131623268127441 -0.090359970927238464 0.26670843362808228 -0.057382058352231979 -0.21246157586574554 0.059275358915328979 -0.31058582663536072 -0.16438049077987671 0.21053606271743774 -0.066314838826656342 0.12499808520078659 -0.39117389917373657 0.032638128846883774 0.042485553771257401 -0.17082831263542175 -0.18677178025245667 -0.18465505540370941 -0.093865655362606049 -0.0720781609416008 -0.035481952130794525 0.084520548582077026 0.0038322964683175087 0.12407035380601883 -0.30012542009353638 -0.33750802278518677 0.19266228377819061 -0.43029144406318665 -0.20936675369739532 -0.094373457133769989 -0.17427793145179749 0.21444360911846161 0.030574165284633636 -0.041217681020498276 0.094489209353923798 0.074164882302284241 0.64902299642562866 -0.60598325729370117 -0.084309540688991547 -1.2577081918716431 -0.18211901187896729 0.19185774028301239 0.18259279429912567 0.87169092893600464 0.43628367781639099 -0.24708284437656403 0.09727942943572998 -0.41129094362258911
  0.34343436360359192 -0.62284940481185913 -0.59605967998504639 -0.63600170612335205 0.055576581507921219 -0.045656133443117142 -0.11528515815734863 0.31027558445930481 0.37565603852272034 -0.13766816258430481 -0.20196880400180817 -0.32849538326263428 -0.081026725471019745 -0.038389399647712708 -0.076242119073867798 0.088815651834011078 0.1396203339099884 0.099134065210819244 0.09199630469083786 0.068223439157009125 -0.097366116940975189 -0.15849629044532776 -0.2318216860294342 -0.019390268251299858 -0.35600075125694275 0.28391104936599731 0.37693467736244202 0.70605695247650146 0.38361319899559021 0.1552828848361969 0.042303945869207382 -0.22447104752063751 -0.21439206600189209 -0.071001775562763214 -0.19983427226543427 0.11084412038326263 -0.26826846599578857 0.5201796293258667 0.47089406847953796 0.52900409698486328 0.096389532089233398 -0.014977963641285896 -0.0026945304125547409 -0.32526308298110962 -0.28114095330238342 0.0013698681723326445 -0.018930014222860336 0.12544456124305725 0.90586698055267334 0.42394661903381348 0.57911711931228638 -0.16575141251087189 -0.7011910080909729 -0.3810875415802002 -0.53716832399368286 -0.41926777362823486 -0.30516871809959412 -0.068279609084129333 0.23318290710449219 0.058271743357181549
  0.052917920053005219 0.35553237795829773 -0.0799260213971138 0.17265678942203522 0.096819385886192322 0.2022700309753418 0.28680124878883362 -0.012323100119829178 0.049957886338233948 0.12626858055591583 -0.15563492476940155 -0.023878578096628189 0.11561594903469086 0.2127576619386673 -0.075968466699123383 0.010570917278528214 -0.12964586913585663 0.018615724518895149 0.018808264285326004 -0.1423337459564209 -0.057576581835746765 0.11941093951463699 0.0059175007045269012 -0.039625596255064011 0.23365108668804169 0.50125318765640259 0.071489304304122925 0.037817563861608505 -0.1663396805524826 0.018796173855662346 0.042665649205446243 -0.18229134380817413 -0.016516294330358505 0.092967309057712555 -0.036040138453245163 -0.033791061490774155 0.063928857445716858 0.44797250628471375 0.26270106434822083 -0.090726494789123535 -0.24523383378982544 0.078935883939266205 -0.007261594757437706 -0.12332918494939804 -0.02272089384496212 -0.0031935959123075008 -0.092912450432777405 -0.033659201115369797 0.71780127286911011 0.40637382864952087 0.27043545246124268 -0.20606090128421783 -0.12845529615879059 0.046087931841611862 0.058690570294857025 -0.11987642198801041 -0.031517382711172104 -0.13356506824493408 -0.17120744287967682 -0.07172982394695282 ]
 [ 1.2018632888793945 -2.2800676822662354 3.3907852172851562 2.1421678066253662 0.033933483064174652 2.9147148132324219 -2.6397676467895508 -4.9724211692810059 -2.1926665306091309 1.9921495914459229 2.4122657775878906 -2.0146622657775879 -0.76736801862716675 -0.55693358182907104 0.4921700656414032 -1.3525229692459106 0.91371184587478638 1.0881688594818115 0.52527529001235962 -1.1298274993896484 2.4919466972351074 -2.1119277477264404 -1.0080870389938354 -1.9538657665252686 -0.10581041127443314 2.6316606998443604 2.8148081302642822 -2.4792253971099854 -3.9731900691986084 -4.4322085380554199 3.2795336246490479 -0.90307044982910156 -2.7945148944854736 1.4001047611236572 1.2665730714797974 -2.3194212913513184 -2.9879331588745117 4.8819975852966309 -3.632685661315918 -2.1023702621459961 2.6432530879974365 ]
<sigmoid> 41 41
<affinetransform> 42 41
 [ 
  -0.11368176341056824 -1.7877329587936401 -0.50159215927124023 0.32248711585998535 0.066079959273338318 0.09495987743139267 0.44227051734924316 -0.57476818561553955 1.7248423099517822 0.95759022235870361 0.17125201225280762 -0.73681706190109253 -0.79936718940734863 0.41847079992294312 -0.61063683032989502 -1.5193331241607666 -0.6327589750289917 -0.72566145658493042 -0.059634186327457428 0.94196969270706177 -0.73828804492950439 -1.1580528020858765 1.0811799764633179 -1.1942101716995239 -1.6706705093383789 1.5642540454864502 0.84422212839126587 -1.0082510709762573 -0.05472034215927124 0.91562372446060181 1.3957217931747437 0.66660219430923462 -0.049664679914712906 2.4456937313079834 -0.44954767823219299 -0.027175789698958397 0.32817617058753967 0.44779649376869202 -1.7560640573501587 0.19278918206691742 -1.3388340473175049
  -0.3335285484790802 -0.01534393522888422 -1.7388209104537964 0.083287343382835388 0.24328108131885529 0.40820813179016113 -1.0612789392471313 -0.17270003259181976 0.56572788953781128 0.20300832390785217 0.50413858890533447 0.89129912853240967 0.14037592709064484 -0.50530403852462769 0.49665993452072144 -1.5066304206848145 0.22326284646987915 -0.52901071310043335 1.1497882604598999 0.039326667785644531 -0.92082065343856812 -0.87437343597412109 0.70033693313598633 2.0649936199188232 -1.4340071678161621 -0.34018516540527344 0.14945860207080841 -1.7905296087265015 -0.59834235906600952 0.04491955041885376 0.1093033030629158 -0.65015864372253418 -0.80820268392562866 1.0164963006973267 -0.079672828316688538 0.46222096681594849 -0.79244643449783325 0.35669770836830139 -0.37052243947982788 -0.91133290529251099 0.45832207798957825
  -0.26284304261207581 0.39342713356018066 -1.2997381687164307 -0.033596303313970566 0.077910684049129486 0.67985522747039795 -0.077340163290500641 0.26292714476585388 0.94147175550460815 0.75862199068069458 -0.30377373099327087 0.51204913854598999 -0.20959693193435669 0.18666213750839233 0.50224435329437256 -0.25549411773681641 0.11435774713754654 0.80452454090118408 0.93411821126937866 0.77553516626358032 -0.7828705906867981 -0.06704334169626236 0.59227609634399414 1.7909940481185913 -0.1379670649766922 0.36973312497138977 -0.50071734189987183 -1.3712313175201416 0.30690851807594299 0.61431413888931274 -0.20983116328716278 -0.3327786922454834 -0.015000587329268456 -0.25254487991333008 0.35587102174758911 -0.069439016282558441 -0.12447242438793182 0.6804732084274292 -0.19862674176692963 0.066850557923316956 -0.27501711249351501
  0.22182987630367279 0.58662259578704834 1.9136283397674561 0.62951064109802246 -0.37896844744682312 1.3244384527206421 0.024342620745301247 -0.16737915575504303 0.81057286262512207 -0.79354071617126465 0.0032151318155229092 1.7473903894424438 -0.27407580614089966 -0.64833557605743408 0.12870654463768005 0.1239873468875885 -0.21983398497104645 -0.53316229581832886 0.064860403537750244 -0.1398145854473114 -0.51563841104507446 0.41993695497512817 -1.6764143705368042 0.3079935610294342 0.20310555398464203 -0.94150984287261963 -1.0588085651397705 -0.011159341782331467 -0.74281424283981323 -0.3863823413848877 -0.99935412406921387 0.514720618724823 -0.015487161464989185 -1.8250993490219116 -0.065473906695842743 -1.0332162380218506 -1.3686254024505615 1.1545037031173706 0.89665108919143677 1.5309126377105713 -0.098086632788181305
  0.22178234159946442 -1.0557528734207153 0.12511895596981049 -0.76853889226913452 -0.43529191613197327 0.050593148916959763 -0.83414846658706665 0.12630559504032135 0.93834090232849121 -0.5318678617477417 0.38293823599815369 0.12091203033924103 0.45234045386314392 -0.84283477067947388 -0.086983300745487213 0.44864767789840698 -0.16578736901283264 -0.05817558616399765 -0.054781164973974228 0.69658344984054565 -0.56172448396682739 0.71394848823547363 -0.26541292667388916 -0.55891013145446777 -0.54815804958343506 -0.41931891441345215 -0.44346058368682861 0.55709588527679443 -0.97344005107879639 -0.88346070051193237 0.25341108441352844 -0.63376784324645996 0.71795344352722168 -1.3418594598770142 0.316465824842453 -0.668285071849823 0.00020255464187357575 0.25014218688011169 -0.62769770622253418 -0.10119753330945969 -0.5566481351852417
  -0.75123119354248047 0.60251402854919434 -1.0772900581359863 -0.33398634195327759 0.53393375873565674 -1.7033231258392334 0.33552509546279907 1.2983900308609009 0.7077791690826416 0.51425361633300781 -0.57434028387069702 -0.11204280704259872 -0.33674442768096924 -0.93003082275390625 0.79799175262451172 0.76008254289627075 1.5848712921142578 0.10042785853147507 -0.48548510670661926 -1.0189265012741089 0.77007108926773071 0.60910767316818237 1.3238104581832886 -1.2801313400268555 0.091400951147079468 0.078086264431476593 0.027544258162379265 -1.8080766201019287 1.2339553833007812 -0.36440381407737732 -0.25093349814414978 1.1506367921829224 -0.45216017961502075 -0.41122591495513916 -0.48579123616218567 1.7831131219863892 1.9836434125900269 -0.11340922117233276 -0.14113737642765045 -0.1014382615685463 0.67498821020126343
  0.16729621589183807 -0.14877523481845856 0.41979053616523743 0.4243985116481781 0.7000395655632019 -0.2403593510389328 -0.31585782766342163 -0.25894871354103088 -0.25618010759353638 -1.2661080360412598 0.28283005952835083 0.9101938009262085 0.27532258629798889 0.7806781530380249 0.29988297820091248 0.37325850129127502 0.70407164096832275 0.26930543780326843 1.7178459167480469 -0.69056469202041626 0.4911249577999115 0.21250636875629425 -0.32252782583236694 0.13350602984428406 -0.4545389711856842 -0.81559401750564575 0.62936317920684814 0.72245991230010986 -1.379702091217041 0.14037691056728363 -1.7061874866485596 -0.74911367893218994 -0.516013503074646 -0.37171080708503723 0.31585294008255005 -0.95315492153167725 -0.64595991373062134 0.78279322385787964 1.7676560878753662 0.40710452198982239 -0.47973796725273132
  0.7604520320892334 0.24682477116584778 0.70515859127044678 -0.66486698389053345 0.6440054178237915 -0.64885419607162476 -0.31880873441696167 -0.8456377387046814 -2.0710313320159912 0.92430323362350464 3.5189564228057861 -2.2754385471343994 0.59681391716003418 2.5952267646789551 -1.7402170896530151 -2.3455691337585449 -1.5110182762145996 -0.52197688817977905 1.0221986770629883 0.40873822569847107 -0.036135353147983551 -2.173182487487793 0.26575359702110291 0.82861912250518799 -0.45759749412536621 1.0631339550018311 1.1790443658828735 0.028092795982956886 0.099753007292747498 0.42201074957847595 0.86060446500778198 -2.3003799915313721 0.28808495402336121 -0.82928323745727539 0.47999569773674011 -0.2097654789686203 -0.6013224720954895 -1.0771337747573853 -1.064740777015686 -2.7622737884521484 0.35206711292266846
  0.93755322694778442 0.53179389238357544 0.48807623982429504 -1.4576760530471802 -0.00087916932534426451 0.014741644263267517 0.26045820116996765 0.34414437413215637 0.45882225036621094 0.23958024382591248 1.4761195182800293 0.02795368991792202 0.10564421862363815 1.1476056575775146 -1.3131766319274902 -0.57227790355682373 -0.72564470767974854 1.2864671945571899 0.93304437398910522 0.49181976914405823 -1.0705859661102295 -0.62772953510284424 0.27817177772521973 0.47921520471572876 0.12006095051765442 0.66835606098175049 -0.33486118912696838 -0.64118111133575439 -0.069822043180465698 0.52421867847442627 -0.15603539347648621 -0.55940729379653931 -0.69926166534423828 0.28753820061683655 0.98493611812591553 -0.49632143974304199 -0.11324861645698547 0.050889190286397934 0.72922444343566895 -1.3499038219451904 -0.11073877662420273
  0.65193402767181396 0.11061238497495651 1.2763849496841431 -0.34193471074104309 0.11574636399745941 -0.49064469337463379 0.42206409573554993 -0.62958216667175293 -0.30397677421569824 -0.066728167235851288 0.97912567853927612 1.2182341814041138 -1.5913920402526855 -0.23222170770168304 0.55212587118148804 0.86575996875762939 -1.2627462148666382 -0.41133847832679749 -0.65543854236602783 -0.56730633974075317 0.60254800319671631 1.2711519002914429 -0.63461053371429443 -0.3287215530872345 0.23244166374206543 -0.63892096281051636 -0.091947041451931 0.10902125388383865 -0.92965692281723022 -0.32485106587409973 -0.54239130020141602 -0.42121076583862305 1.0534703731536865 -0.40288013219833374 -0.19774512946605682 -0.54797112941741943 1.0765863656997681 0.80155086517333984 -0.45728781819343567 0.8699982762336731 -1.0583553314208984
  -0.10495161265134811 0.67019563913345337 -0.31567874550819397 0.43183740973472595 -1.8000372648239136 -0.73523789644241333 1.1202621459960938 -0.29305011034011841 -0.90767747163772583 0.70265483856201172 -0.68389749526977539 0.30732542276382446 -0.93992280960083008 0.34058162569999695 -0.41722443699836731 -0.40821385383605957 0.89973568916320801 -1.3374518156051636 0.41837796568870544 0.5788920521736145 1.1231261491775513 0.48400464653968811 0.00940703134983778 0.1436195969581604 -0.03653765469789505 -0.054380424320697784 -1.1110023260116577 1.0764259099960327 1.3019682168960571 0.6315610408782959 0.55539041757583618 0.84506028890609741 0.21166786551475525 -0.58874291181564331 0.3627065122127533 0.37678241729736328 -0.57474040985107422 1.6472431421279907 1.3477922677993774 1.1087490320205688 -1.0493406057357788
  0.18162325024604797 -0.51887416839599609 0.2379622757434845 -1.4135839939117432 0.38345238566398621 -0.84482055902481079 0.3815055787563324 -0.70989030599594116 0.47811225056648254 0.066244766116142273 -1.0623657703399658 0.73205578327178955 -0.31356853246688843 0.59556978940963745 -1.1880897283554077 0.24947802722454071 0.85743796825408936 0.36001437902450562 0.72250187397003174 0.058238789439201355 -0.065460972487926483 0.39027640223503113 0.38124233484268188 0.14542452991008759 -0.72830134630203247 -0.97229772806167603 -0.38087332248687744 0.48781761527061462 -0.60966479778289795 0.85497570037841797 0.4910549521446228 -0.48740759491920471 0.95161455869674683 -1.160078763961792 -0.45113459229469299 0.47282397747039795 -0.24632567167282104 -0.18212048709392548 -0.2551054060459137 0.62689995765686035 -0.26039880514144897
  -0.073857046663761139 -0.31263154745101929 0.78441643714904785 0.22052238881587982 0.35259562730789185 0.5268900990486145 1.7482140064239502 -0.86452347040176392 0.059717830270528793 1.875343918800354 0.24879248440265656 0.58996003866195679 0.051095914095640182 0.47918832302093506 0.052246864885091782 0.34064760804176331 -1.0642697811126709 -1.177457332611084 -0.19369439780712128 -0.36627152562141418 1.8948798179626465 1.3801819086074829 -1.0719611644744873 2.2064306735992432 -0.043863549828529358 -1.8422783613204956 -1.7010034322738647 0.3877810537815094 2.1521060466766357 -1.3036986589431763 -0.2786136269569397 -0.4199194610118866 -0.22078318893909454 -0.6484953761100769 1.413239598274231 0.48643407225608826 0.68361920118331909 -0.85914880037307739 -1.5057073831558228 -0.082708112895488739 -0.26722574234008789
  -0.22511731088161469 0.94193732738494873 0.98447901010513306 -0.74509608745574951 0.4556114673614502 0.29009521007537842 0.95176172256469727 0.12255489826202393 -0.83274757862091064 -0.58493167161941528 -1.2574305534362793 -0.74943006038665771 0.36803489923477173 -0.54964131116867065 -0.33495080471038818 1.761034369468689 -1.3652770519256592 0.050174098461866379 0.45879688858985901 -0.59204316139221191 0.53998500108718872 1.5657178163528442 0.43682238459587097 -0.52551394701004028 0.29250764846801758 -0.85755079984664917 0.31948724389076233 -0.37473079562187195 2.3798048496246338 -1.3322267532348633 -0.089592680335044861 0.51286184787750244 -0.64114052057266235 -0.06529313325881958 -0.22339838743209839 -1.2998275756835938 -0.0539231076836586 -1.1294263601303101 -0.30553841590881348 -0.49768766760826111 0.71072250604629517
  -0.18620166182518005 0.40907713770866394 -0.66460263729095459 -1.6119608879089355 1.3810064792633057 0.38954940438270569 1.509935736656189 0.77463334798812866 -0.1345265656709671 -1.3881896734237671 -0.54211097955703735 -1.3276218175888062 0.28932979702949524 -1.0980368852615356 -0.82867676019668579 -0.10020966827869415 -0.30742138624191284 0.42922341823577881 -0.72976911067962646 0.95394891500473022 -0.28370791673660278 -0.39010903239250183 -1.3048989772796631 0.40820389986038208 -0.44706085324287415 0.37365567684173584 0.039318755269050598 0.40374422073364258 1.018985390663147 -0.20476062595844269 1.0527690649032593 -0.32783809304237366 0.87085574865341187 0.0013758799759671092 0.62652313709259033 0.42095685005187988 -0.97027587890625 -0.088382557034492493 0.60016340017318726 0.023869831115007401 -0.11088227480649948
  0.098294854164123535 1.3847318887710571 -1.2873992919921875 -0.083809152245521545 0.62744790315628052 0.076452732086181641 0.83556073904037476 1.4387578964233398 0.44634264707565308 0.61525565385818481 -1.9605690240859985 -0.63998961448669434 0.83836275339126587 -0.96822047233581543 -0.2053820788860321 -0.093997932970523834 -0.34948444366455078 0.4970630407333374 -0.35643932223320007 1.4917616844177246 -1.6758105754852295 -0.6580958366394043 -1.4936419725418091 -0.25021302700042725 -0.33122515678405762 1.1416538953781128 1.1596832275390625 0.23202650249004364 0.64111095666885376 0.86460787057876587 1.7477630376815796 -0.28683063387870789 -0.047697950154542923 0.9914240837097168 -0.55641496181488037 0.57316017150878906 -0.38175487518310547 0.93831753730773926 -0.57715189456939697 0.16989590227603912 0.34386283159255981
  -0.80938953161239624 1.5509794950485229 -0.5655902624130249 0.9105067253112793 0.74272722005844116 -0.302419513463974 0.058862004429101944 1.1338231563568115 1.2556476593017578 -1.394635796546936 -0.84773552417755127 -0.43139997124671936 0.54098784923553467 -0.31711190938949585 -2.0716817378997803 0.35297340154647827 0.91624635457992554 1.4269559383392334 -1.1356616020202637 -0.37853825092315674 1.642038106918335 1.5547857284545898 1.3830806016921997 0.51716840267181396 0.21289063990116119 -0.46437335014343262 0.66182255744934082 -2.0604972839355469 -0.17438173294067383 0.62607371807098389 -1.8096487522125244 -0.55886924266815186 -0.52289462089538574 -1.3096129894256592 -0.29784408211708069 2.0470640659332275 0.38756632804870605 -0.26156878471374512 0.92040258646011353 0.93353277444839478 0.57666581869125366
  0.32874470949172974 0.19696083664894104 0.048731379210948944 0.21102933585643768 -2.4472911357879639 -2.8440732955932617 1.7292574644088745 -1.4697926044464111 -1.0695899724960327 1.7443451881408691 -0.3259405791759491 0.57643365859985352 0.02287881076335907 1.3041090965270996 -0.32676023244857788 0.30211839079856873 0.95136994123458862 -0.32540208101272583 0.30975931882858276 -1.6168167591094971 0.78855186700820923 -0.53070753812789917 -1.4052064418792725 0.68122917413711548 0.49782571196556091 -0.28775647282600403 -0.78805196285247803 0.9326174259185791 2.0244159698486328 -1.5342057943344116 0.37051400542259216 0.33182951807975769 2.5423340797424316 -0.22104640305042267 1.1372431516647339 -0.80669939517974854 2.4702603816986084 1.111046314239502 -0.23394775390625 0.43233484029769897 0.36307096481323242
  -0.65001529455184937 -0.022337092086672783 1.3092565536499023 -1.7425156831741333 -0.39220234751701355 -0.96303904056549072 0.42244395613670349 -0.41097664833068848 -1.4091702699661255 0.25095248222351074 -0.16045935451984406 -0.57039260864257812 -1.1427911520004272 -0.39121714234352112 -0.4955609142780304 0.64401054382324219 -0.021192664280533791 0.027464557439088821 0.12787741422653198 -1.349474310874939 1.3656818866729736 1.9538536071777344 1.6840999126434326 -0.82660245895385742 0.57177954912185669 0.44054731726646423 -0.39299148321151733 0.22652336955070496 1.617017388343811 -1.7749216556549072 -0.086052998900413513 1.2839571237564087 1.1746171712875366 -0.58716875314712524 -0.14126920700073242 -0.81732386350631714 0.61823749542236328 -0.99242174625396729 -0.23850373923778534 0.32729485630989075 0.35679370164871216
  1.3088148832321167 -0.29601019620895386 1.5127657651901245 0.63737964630126953 -0.1151144728064537 -0.18349169194698334 0.40469714999198914 -0.77492934465408325 1.6180119514465332 0.81220948696136475 -1.0512397289276123 0.5846409797668457 0.88363951444625854 -0.34962296485900879 -1.3946547508239746 -2.0187931060791016 -1.9050244092941284 -0.72679907083511353 0.85820788145065308 0.04790184274315834 -0.17691193521022797 0.784618079662323 0.12014733999967575 0.71106284856796265 0.67860674858093262 1.3109894990921021 -1.0069236755371094 -0.04688558354973793 -0.062405146658420563 1.9570325613021851 0.76871305704116821 0.93130898475646973 0.46335181593894958 0.31800702214241028 -0.6237952709197998 -0.69525057077407837 -1.765467643737793 1.3336936235427856 2.0806248188018799 1.6203348636627197 -1.1867828369140625
  -0.39572754502296448 0.1533983051776886 1.1329693794250488 0.05289033055305481 -0.10316476970911026 -0.81544339656829834 -0.46170145273208618 -0.79628139734268188 1.1624764204025269 -0.61060202121734619 0.1814725250005722 -0.75552332401275635 0.57134062051773071 0.34233939647674561 -0.98612678050994873 0.011189667508006096 -0.44397342205047607 -0.46181732416152954 -0.15175840258598328 -0.4572201669216156 -1.0746419429779053 -0.55489224195480347 0.78028351068496704 -0.81080049276351929 -0.085061900317668915 -0.81165093183517456 -0.53200733661651611 -0.13358975946903229 -0.048820711672306061 0.80554622411727905 -0.55989795923233032 -0.120909683406353 0.77303987741470337 -0.17043653130531311 -0.630684494972229 0.65207111835479736 -0.081057995557785034 0.13101127743721008 -0.37850117683410645 -0.7999882698059082 0.64406430721282959
  1.0010999441146851 0.23103702068328857 -0.43893155455589294 0.70343071222305298 0.1017901822924614 0.22046451270580292 -1.1692354679107666 -0.1613098680973053 1.1123571395874023 0.39927667379379272 -1.5243474245071411 -0.11410365998744965 1.9270061254501343 -0.1213260143995285 -0.4072151780128479 -0.75657951831817627 -0.19793243706226349 0.11351234465837479 -0.25950339436531067 -0.30911591649055481 0.84452915191650391 0.066043339669704437 0.57044613361358643 0.85520422458648682 -1.6671687364578247 1.2653113603591919 0.64651316404342651 0.62500137090682983 0.45538860559463501 0.70945823192596436 1.2090096473693848 0.36429917812347412 -0.65151822566986084 0.99519401788711548 -1.7076393365859985 0.83690619468688965 -1.2143656015396118 0.37014573812484741 1.9601482152938843 0.80086851119995117 -1.0743390321731567
  -1.7059146165847778 -0.75541460514068604 -0.58026188611984253 -0.19813047349452972 0.55473744869232178 0.48815712332725525 0.94776809215545654 0.069666989147663116 1.1221250295639038 -0.019275801256299019 -0.85246700048446655 -0.72466522455215454 0.050853472203016281 -0.13772937655448914 -0.79041451215744019 -0.18943406641483307 -0.30883640050888062 -0.22071719169616699 -0.37850266695022583 1.0913422107696533 -0.40379351377487183 0.42298024892807007 0.45244169235229492 -1.3456881046295166 -0.64223438501358032 0.70402133464813232 0.36752060055732727 0.61934971809387207 0.27966630458831787 0.074445202946662903 -0.63511180877685547 -0.32116061449050903 0.31203553080558777 -1.1610865592956543 -0.49630036950111389 0.048689510673284531 -1.1924452781677246 0.65497487783432007 0.2726726233959198 -0.29438015818595886 -0.41870135068893433
  -0.77328819036483765 -1.8959952592849731 0.85901927947998047 1.197668194770813 -0.36052343249320984 1.6058474779129028 1.2315630912780762 0.26884552836418152 0.66686993837356567 -0.11373191326856613 2.1017324924468994 -0.4840470552444458 0.20268675684928894 -0.73068571090698242 1.5618541240692139 0.20153404772281647 -0.19040432572364807 0.5173945426940918 0.36218509078025818 1.1656612157821655 -0.63724952936172485 -0.098585642874240875 0.56820386648178101 -0.16710984706878662 1.1082956790924072 -1.4140633344650269 -1.619661808013916 0.69718825817108154 -0.33904528617858887 -0.2913547158241272 0.092323139309883118 -0.63516467809677124 1.3343030214309692 0.43688198924064636 -0.56101793050765991 0.68155103921890259 -0.74767768383026123 -1.0676852464675903 -0.31420528888702393 -2.2206501960754395 -0.12619149684906006
  -0.24151608347892761 -0.67845362424850464 1.1486737728118896 0.83978933095932007 -0.52698099613189697 0.46861127018928528 0.68447041511535645 0.18854686617851257 0.75673747062683105 -0.40049919486045837 0.63907909393310547 -0.21486599743366241 0.46011537313461304 -0.27683675289154053 1.3779921531677246 0.74482685327529907 -0.14586091041564941 0.87971091270446777 0.26745390892028809 0.47539088129997253 -1.1661577224731445 0.28311213850975037 0.53916388750076294 0.7847445011138916 0.25647673010826111 -0.081019416451454163 -1.1158015727996826 0.021412938833236694 -0.31723874807357788 -0.378091961145401 0.2632470428943634 0.14865930378437042 0.8894769549369812 0.2090306282043457 -0.74926692247390747 0.45454210042953491 -0.25108110904693604 -0.028933217748999596 -0.084694236516952515 -1.5827583074569702 0.5207783579826355
  -0.12815175950527191 0.70664423704147339 1.3577201366424561 0.84974181652069092 0.610107421875 -0.52268964052200317 -0.18843464553356171 -0.54007977247238159 -0.77751100063323975 0.12154535949230194 -0.85103148221969604 -0.41105097532272339 -0.044652264565229416 0.17463617026805878 0.11956365406513214 -0.6781654953956604 -0.71590524911880493 -0.43411350250244141 0.23584356904029846 -0.71724790334701538 0.22982726991176605 1.0701136589050293 -0.47726461291313171 -0.22658525407314301 0.57733672857284546 -1.141025185585022 -0.78944528102874756 -0.93431234359741211 -0.86732769012451172 -0.74535602331161499 -0.058551318943500519 0.82672363519668579 0.27948781847953796 -0.94911873340606689 -0.50537663698196411 -1.1845375299453735 -0.19948694109916687 1.3134729862213135 0.12025190889835358 0.60387498140335083 0.7409747838973999
  -0.67363840341567993 -0.45153149962425232 -0.28512799739837646 -0.76585537195205688 -0.3864230215549469 -0.19939817488193512 -0.72629827260971069 0.45796623826026917 -0.38408833742141724 0.051208037883043289 -0.30556488037109375 -0.088878512382507324 0.23503704369068146 0.53456896543502808 0.079186931252479553 0.81616240739822388 -0.9996337890625 0.65446531772613525 -0.53258806467056274 -0.3671746551990509 1.0384234189987183 0.73839461803436279 0.9290764331817627 -1.0027420520782471 -0.63549125194549561 -0.45726326107978821 0.60220396518707275 -0.34317082166671753 0.59345453977584839 -0.83716481924057007 -0.098402559757232666 0.020344650372862816 0.32805523276329041 -1.04701828956604 0.8734745979309082 -0.56988435983657837 0.35025939345359802 -1.1373598575592041 -0.012907126918435097 -0.58495086431503296 0.17092935740947723
  0.47944855690002441 -0.46442127227783203 -1.4742566347122192 -0.29481101036071777 -0.47328513860702515 1.2976516485214233 -0.092878922820091248 -0.8353416919708252 -0.30193448066711426 1.06297767162323 0.45563992857933044 -0.39069938659667969 -0.39891341328620911 -0.67919319868087769 -0.28810757398605347 -0.57874214649200439 1.2115199565887451 -0.34755459427833557 0.23452773690223694 -0.69765663146972656 1.4702047109603882 -1.3726383447647095 -1.9411983489990234 -0.36202070116996765 -0.11581869423389435 0.74985063076019287 0.50084429979324341 -1.2521059513092041 -0.6147124171257019 -0.10422956198453903 -0.3798290491104126 -0.33801150321960449 0.32081565260887146 -0.21837130188941956 -0.77457708120346069 -0.41113060712814331 -1.5253463983535767 0.87007027864456177 -1.4358917474746704 -0.38728204369544983 0.8760485053062439
  0.36231091618537903 1.3630044460296631 -1.2311359643936157 1.2310769557952881 0.77631604671478271 1.014045238494873 -0.29148116707801819 -0.043478876352310181 1.0333508253097534 0.32096183300018311 -0.050441835075616837 0.10855591297149658 0.80641186237335205 1.136325478553772 0.35512733459472656 0.7638092041015625 -0.33589726686477661 -0.86600190401077271 1.0048854351043701 -0.63801032304763794 -0.128167524933815 0.11283265799283981 -0.34997045993804932 -1.436109185218811 1.2553399801254272 -0.11049097031354904 -0.67046928405761719 0.082259409129619598 0.46936789155006409 0.065526291728019714 -0.33707687258720398 -1.0725594758987427 0.51203590631484985 -0.068935923278331757 -0.30403470993041992 -0.18724215030670166 -0.46676075458526611 -1.0810123682022095 1.1710377931594849 0.8399655818939209 0.14126074314117432
  -0.042589697986841202 1.366155743598938 0.82125937938690186 0.10548742115497589 -0.31893563270568848 0.44821655750274658 -0.87274527549743652 -0.21202078461647034 0.34804177284240723 -0.96161526441574097 0.041538693010807037 0.37735790014266968 -0.09935721755027771 -0.59093648195266724 0.38246405124664307 1.3482769727706909 0.019877202808856964 -0.38594967126846313 -0.50436699390411377 0.17782099545001984 -0.38725671172142029 0.27689823508262634 -0.043008394539356232 0.39301025867462158 -0.41656801104545593 0.00058905826881527901 0.71409279108047485 1.0495378971099854 0.80113226175308228 -0.36562520265579224 -0.27149951457977295 -0.71992278099060059 -0.53362935781478882 -1.2946398258209229 0.23724322021007538 -0.162110835313797 -0.60199999809265137 -1.4587103128433228 0.72137963771820068 0.60555768013000488 -0.81459915637969971
  0.27798673510551453 -1.0347877740859985 0.38834714889526367 0.52633017301559448 1.1127101182937622 -1.2381371259689331 -1.3841732740402222 2.5308752059936523 -0.74512219429016113 0.61883068084716797 0.85411137342453003 0.32795247435569763 -0.50349193811416626 0.081987105309963226 0.088761396706104279 1.1410224437713623 -0.29667741060256958 0.65545451641082764 0.22379672527313232 0.32801744341850281 0.15164440870285034 1.9610161781311035 1.9418461322784424 0.36408346891403198 -0.73396521806716919 -1.3232921361923218 -0.19394794106483459 0.22150041162967682 -2.1604814529418945 2.0178465843200684 -1.2322343587875366 -0.20448988676071167 -0.47748434543609619 -0.04059116542339325 -0.43742108345031738 -0.053634636104106903 0.73877918720245361 0.37932604551315308 -0.47342166304588318 -0.23373153805732727 0.51354688405990601
  0.30459731817245483 -0.25267916917800903 -1.614224910736084 -0.55344825983047485 0.97241514921188354 -1.5198954343795776 0.32649913430213928 2.6033899784088135 2.281796932220459 1.2057795524597168 -0.13505260646343231 0.60155981779098511 1.4128420352935791 0.3426564633846283 -0.42396953701972961 1.8993568420410156 0.10099264979362488 1.3097339868545532 -0.23313106596469879 -0.41314029693603516 1.7225912809371948 2.1278033256530762 2.3384857177734375 -0.0011387822451069951 -1.3586841821670532 -0.69785463809967041 0.71121352910995483 -0.54229432344436646 1.0541810989379883 0.38860327005386353 -2.2383797168731689 -0.27666071057319641 -0.72346729040145874 -0.39560973644256592 -0.8951602578163147 2.6487190723419189 1.7461124658584595 -0.85598981380462646 -0.52448040246963501 -1.0998197793960571 -0.2904646098613739
  -0.05342632532119751 -1.1099661588668823 1.500146746635437 0.12222513556480408 0.74653470516204834 -0.23296894133090973 -0.87475001811981201 -3.1272268295288086 0.11003046482801437 0.18460933864116669 1.0687564611434937 -2.2185432910919189 -0.70507055521011353 -0.92563313245773315 2.3214423656463623 -2.0056300163269043 -2.2047364711761475 0.31625694036483765 1.0766377449035645 -2.3426921367645264 0.028260888531804085 -2.066957950592041 -1.3003021478652954 -1.1830284595489502 0.26413741707801819 0.85668247938156128 0.95843428373336792 0.70236700773239136 -0.77837491035461426 -0.94030159711837769 0.58022010326385498 -1.7556817531585693 -0.85537397861480713 1.3062354326248169 2.7929301261901855 -0.94089591503143311 -0.72373074293136597 -0.27339255809783936 -0.29483151435852051 -0.26377871632575989 -1.3422888517379761
  0.55799674987792969 -0.12964633107185364 0.19956597685813904 0.69678235054016113 0.16802650690078735 1.0986937284469604 0.60696375370025635 -2.5073738098144531 -0.95211184024810791 0.57633435726165771 1.4285796880722046 -0.56605666875839233 -1.4024571180343628 -1.6218268871307373 0.28501883149147034 -1.2178398370742798 -0.48499712347984314 0.43360412120819092 1.8292500972747803 -0.9917149543762207 0.29115885496139526 -0.53787583112716675 -1.9523112773895264 -0.8873562216758728 0.26032015681266785 2.4497203826904297 -0.79265034198760986 -1.5385667085647583 -0.85991716384887695 -0.4641130268573761 -0.13818554580211639 -1.925597071647644 -0.61467510461807251 0.53681141138076782 0.47739627957344055 -2.0010619163513184 -2.6526420116424561 -0.57174259424209595 -1.3032931089401245 -0.26381513476371765 -0.27763134241104126
  0.53064215183258057 -0.77544856071472168 0.60534024238586426 -0.14477421343326569 0.21535517275333405 0.8705672025680542 -0.062922187149524689 -3.3471622467041016 -0.097510658204555511 0.33456137776374817 1.5470178127288818 -1.2672343254089355 -0.8648601770401001 -0.99577778577804565 0.89103823900222778 -1.5004466772079468 -0.66817629337310791 0.12191454321146011 0.74667531251907349 -1.9658809900283813 1.4329959154129028 -1.1064752340316772 -1.5331213474273682 -0.55996960401535034 0.073685191571712494 1.3885043859481812 0.086102567613124847 -1.4887293577194214 -0.82065951824188232 -0.77820765972137451 0.9567914605140686 -1.6385183334350586 -0.69713538885116577 0.82470738887786865 0.57262939214706421 -1.2006312608718872 -2.2591140270233154 0.97078758478164673 -1.1340823173522949 -0.022585775703191757 -2.0326941013336182
  0.13853445649147034 1.1084113121032715 0.30490416288375854 0.084629811346530914 0.95326048135757446 -1.6362425088882446 -0.63209688663482666 0.034979254007339478 -0.76903706789016724 1.3668851852416992 -0.31376835703849792 0.031953159719705582 -0.003948903176933527 0.04220287874341011 0.26232120394706726 -0.29568758606910706 1.7483038902282715 -0.29835504293441772 -0.11908993870019913 -1.1441193819046021 0.51636308431625366 1.0035942792892456 -0.31782963871955872 0.3654862642288208 0.13166786730289459 -0.77275264263153076 1.5221126079559326 -0.51503872871398926 -1.2517620325088501 -1.8508709669113159 -1.111625075340271 0.66877329349517822 0.26938411593437195 -1.2042760848999023 0.34448978304862976 -0.52654671669006348 0.72686636447906494 1.0377130508422852 -0.29952389001846313 0.22289219498634338 1.8008567094802856
  0.71059030294418335 -1.1893126964569092 -0.39155519008636475 0.38230809569358826 0.64886707067489624 -1.5817371606826782 -0.14245554804801941 1.5644441843032837 -1.2589336633682251 -0.34578919410705566 -0.14363314211368561 -0.6004069447517395 -1.0700286626815796 -0.2707507312297821 0.35655483603477478 0.039767544716596603 1.4788093566894531 0.31344684958457947 -1.3448280096054077 -0.88148701190948486 0.070841945707798004 0.77034860849380493 0.040825854986906052 -0.259747713804245 0.1259772777557373 -0.16070391237735748 -0.027628360316157341 -0.48138675093650818 -1.3551043272018433 2.2117924690246582 0.1744329035282135 0.66468209028244019 0.39254018664360046 -0.65817558765411377 -0.69409525394439697 -0.42067059874534607 2.1558077335357666 0.50192463397979736 -0.98466187715530396 0.82104074954986572 0.63999074697494507
  1.6350936889648438 -1.5468463897705078 0.35482415556907654 -0.11500697582960129 -0.090464219450950623 0.59397143125534058 -0.60269701480865479 0.92014604806900024 0.22242537140846252 -0.27633741497993469 1.1558243036270142 -0.03127911314368248 -1.7548104524612427 -0.5428500771522522 -0.50711596012115479 0.48528328537940979 0.047547463327646255 0.0966925248503685 -1.4410938024520874 0.89269250631332397 -0.29032370448112488 -1.2647939920425415 -0.29411435127258301 0.63624489307403564 0.66523438692092896 0.92071765661239624 -0.98389935493469238 0.65507596731185913 -0.83760327100753784 0.39644378423690796 1.1661478281021118 0.25741443037986755 1.31205153465271 -0.14544625580310822 -0.34298026561737061 0.64189326763153076 -0.074119031429290771 -0.51978880167007446 -1.2307734489440918 -0.30236801505088806 -0.2382647693157196
  0.98543322086334229 -0.91311275959014893 0.060748036950826645 1.5527753829956055 -0.25460365414619446 -0.85207998752593994 -0.099550843238830566 1.9629273414611816 0.95222711563110352 -0.36548945307731628 0.78048360347747803 0.52985644340515137 -0.85933434963226318 0.27013617753982544 -0.25346845388412476 0.51996690034866333 -1.0409154891967773 1.7535057067871094 -0.47171953320503235 0.74242383241653442 -0.96399486064910889 -1.4953155517578125 -0.50221443176269531 -0.26865825057029724 0.78216087818145752 1.0570944547653198 -0.77645778656005859 0.75064182281494141 0.28655362129211426 0.98029989004135132 1.6247079372406006 -0.39400491118431091 -0.16358460485935211 0.6306840181350708 -0.50553435087203979 0.094524681568145752 -0.0077035529538989067 -0.26720139384269714 -0.073786370456218719 -0.83853435516357422 -0.26389089226722717
  0.71743762493133545 0.48032447695732117 0.030652765184640884 0.89697074890136719 -0.015660962089896202 1.4457197189331055 0.1154857724905014 0.25988942384719849 -0.50975334644317627 0.3485429584980011 0.33811822533607483 0.96762311458587646 -0.39648464322090149 -0.29927194118499756 0.097404398024082184 -0.29537045955657959 0.19996054470539093 -0.081529974937438965 1.0648972988128662 0.7192191481590271 -0.58785802125930786 1.2740770578384399 0.98237103223800659 0.11376400291919708 -0.74362331628799438 -0.71245813369750977 -1.2901198863983154 -0.42528179287910461 -0.20760230720043182 0.09401228278875351 -0.59285736083984375 -0.12102146446704865 -0.19117675721645355 1.0170738697052002 -1.1255695819854736 -0.28958702087402344 -1.1551791429519653 0.12708181142807007 0.52353107929229736 -0.1995227038860321 -0.78059709072113037
  -1.3632527589797974 1.7298697233200073 -0.12034410238265991 -0.54202729463577271 0.46017423272132874 0.89663839340209961 0.13712607324123383 -1.3906166553497314 -0.6983986496925354 0.14617189764976501 -1.0142760276794434 -0.81858253479003906 -0.31328949332237244 -0.93074363470077515 1.3646868467330933 0.45616891980171204 -0.3341984748840332 -0.8833279013633728 -0.44988825917243958 1.8002150058746338 -0.14598444104194641 0.70790272951126099 -0.46384304761886597 0.55855351686477661 0.37004038691520691 -0.57583624124526978 0.45936188101768494 0.95058143138885498 0.34043949842453003 0.050282910466194153 1.875802755355835 -0.21399755775928497 -0.42992699146270752 -0.60031598806381226 0.08094942569732666 0.67207503318786621 -1.3565043210983276 -0.34606435894966125 -0.62235957384109497 0.43190485239028931 0.30472493171691895
  0.26557639241218567 -1.0751779079437256 -0.64253562688827515 1.1073002815246582 -0.67693716287612915 -0.74760007858276367 -0.054640118032693863 0.90679711103439331 -0.11053290963172913 -2.1859357357025146 -0.67264741659164429 0.76725310087203979 -1.9339239597320557 0.087995156645774841 0.25905287265777588 -0.34937518835067749 2.7374200820922852 0.002280473243445158 -0.82530105113983154 -1.2171015739440918 0.86975860595703125 0.48725590109825134 -0.089037775993347168 -0.34549838304519653 -0.029353387653827667 -0.62730801105499268 -0.51634657382965088 -2.1225214004516602 -1.8246176242828369 2.7678189277648926 -0.90629792213439941 -0.35878252983093262 -0.49423739314079285 -0.38849025964736938 0.67767500877380371 -0.18328194320201874 0.74555623531341553 0.71372944116592407 1.9948990345001221 1.2111592292785645 1.0785117149353027 ]
 [ -0.44572031497955322 -0.28565549850463867 1.6117844581604004 0.47168126702308655 -0.46554458141326904 -0.17478688061237335 0.6221587061882019 -0.69762217998504639 0.41309162974357605 -0.032586276531219482 0.058010030537843704 -0.059427417814731598 -0.090310148894786835 -0.013124137185513973 -0.14013050496578217 0.4819563627243042 0.4821532666683197 0.98722440004348755 0.18645164370536804 -1.3319687843322754 -0.054523680359125137 -0.51024150848388672 -0.12667864561080933 -0.098044261336326599 0.35666665434837341 0.12367771565914154 0.050461113452911377 -0.091196335852146149 0.63368362188339233 -0.0083364350721240044 0.54799705743789673 0.030483495444059372 -1.5759521722793579 -0.50435209274291992 -0.64139318466186523 -0.3693293035030365 0.066077888011932373 -0.48394724726676941 -0.13870012760162354 0.29157087206840515 0.61156326532363892 0.31286975741386414 ]
<softmax> 42 42
</Nnet>
