<Nnet>
<input> 60 60
<affinetransform> 41 60
 [ 
  -1.7286950349807739 0.25784173607826233 0.90313726663589478 0.78726810216903687 -0.35802894830703735 -0.4800676703453064 -0.19191412627696991 0.45228901505470276 -0.086509205400943756 -0.10808572918176651 0.085276305675506592 0.31457293033599854 0.17216101288795471 -0.13131886720657349 0.080545969307422638 0.22315880656242371 -0.18545027077198029 -0.31402245163917542 -0.29076233506202698 0.16152593493461609 0.27260023355484009 0.10337011516094208 0.092601947486400604 -0.046986814588308334 0.51475584506988525 -0.30003559589385986 -0.14833526313304901 0.066906578838825226 -0.058303989470005035 -0.24456652998924255 -0.18720549345016479 -0.043243415653705597 0.24298447370529175 0.13888797163963318 0.095329448580741882 -0.045658323913812637 0.12803612649440765 -0.13466481864452362 -0.31968054175376892 -0.31006872653961182 0.13835753500461578 0.08529982715845108 0.024564282968640327 -0.18215996026992798 0.11303804814815521 0.12399367243051529 0.028777185827493668 -0.081211604177951813 -0.087368249893188477 -0.23473790287971497 -0.77821105718612671 -0.82769834995269775 0.49419090151786804 0.79255127906799316 0.35707268118858337 -0.17129665613174438 0.009801461361348629 0.18973812460899353 0.011709725484251976 -0.11504689604043961
  0.60045009851455688 0.017882538959383965 -0.46247735619544983 -0.38864099979400635 0.022309271618723869 0.0793895423412323 0.13640035688877106 -0.034066092222929001 0.1278667151927948 0.13798984885215759 0.030443422496318817 -0.093401379883289337 -0.40420737862586975 -0.14206035435199738 0.46026384830474854 0.088887423276901245 -0.44470715522766113 -0.27605727314949036 0.079203270375728607 0.091546565294265747 0.038385927677154541 -0.1183856800198555 0.052807614207267761 0.24816201627254486 -0.12370986491441727 -0.48184141516685486 0.24285021424293518 0.28132578730583191 -0.38227030634880066 -0.31566709280014038 -0.1070721447467804 0.16075314581394196 0.13342465460300446 0.027184672653675079 0.037563439458608627 0.1458696722984314 0.46748882532119751 -0.33099371194839478 -0.08108115941286087 0.41780641674995422 0.045268170535564423 -0.2298131138086319 -0.1402621865272522 0.10343132168054581 0.11499751359224319 0.068409107625484467 -0.07499491423368454 0.023278316482901573 0.74737310409545898 -0.27236837148666382 -0.79456621408462524 -0.38141128420829773 0.6807931661605835 0.48747092485427856 -0.15530216693878174 -0.099772170186042786 0.046036455780267715 0.045394979417324066 0.037175718694925308 -0.25303009152412415
  -0.17759354412555695 0.48189988732337952 1.0472264289855957 -0.025410976260900497 -0.67014813423156738 -0.22355633974075317 -0.11115580052137375 -0.28100255131721497 -0.38597959280014038 -0.023833209648728371 0.087740369141101837 0.24947246909141541 -0.58571934700012207 0.30623599886894226 0.19461438059806824 -0.24325244128704071 -0.19863109290599823 0.061293870210647583 -0.059705197811126709 -0.16253522038459778 -0.13145394623279572 -3.2379175536334515e-05 0.26772263646125793 0.16846968233585358 -0.12908895313739777 0.43427139520645142 0.27369010448455811 -0.022442329674959183 0.0217705387622118 0.054392125457525253 -0.070929631590843201 -0.16002650558948517 -0.075511939823627472 0.036838475614786148 0.12598180770874023 0.1454189270734787 -0.20640632510185242 0.22007164359092712 0.085538491606712341 0.10723920911550522 0.034812547266483307 -0.028791338205337524 -0.061681553721427917 -0.012704800814390182 -0.057732176035642624 -0.026393972337245941 0.032329920679330826 0.020861519500613213 -0.041316092014312744 -0.18697795271873474 -0.11686111241579056 0.087716490030288696 -0.097056493163108826 0.013136335648596287 0.07206348329782486 -0.048613671213388443 -0.16312794387340546 -0.11193687468767166 -0.068355262279510498 0.16207858920097351
  0.79250246286392212 0.13379916548728943 -0.4710332453250885 0.24528095126152039 0.0039410116150975227 -0.086719274520874023 -0.13975760340690613 0.17202207446098328 0.0078991232439875603 -0.061416242271661758 -0.19230352342128754 -0.16402345895767212 0.34414973855018616 0.096269570291042328 -0.09830765426158905 0.12860056757926941 0.3807561993598938 0.193354532122612 -0.18079538643360138 -0.11385833472013474 0.047861471772193909 -0.052004896104335785 -0.1052611842751503 -0.11635933071374893 0.14398175477981567 0.12474644929170609 -0.34004741907119751 0.092646181583404541 0.54374122619628906 0.22933581471443176 -0.1990777850151062 -0.13904030621051788 0.081660136580467224 0.012425866909325123 -0.088869303464889526 -0.035465393215417862 0.13142068684101105 0.13910357654094696 -0.1417354941368103 0.14319401979446411 0.34230107069015503 0.10940616577863693 -0.024973753839731216 -0.07019440084695816 0.023115212097764015 -0.001741669257171452 -0.098656512796878815 0.040406230837106705 -0.56564241647720337 -0.15705844759941101 0.26903483271598816 -0.39502665400505066 -0.21382272243499756 0.23316237330436707 0.21168549358844757 -0.061996083706617355 0.077651537954807281 0.070055946707725525 -0.10713536292314529 0.0054669724777340889
  0.28467440605163574 -0.29175463318824768 0.21601162850856781 -0.010069075971841812 -0.072245307266712189 -0.030846253037452698 0.02533721923828125 -0.013828782364726067 0.15581388771533966 -0.063707321882247925 -0.075759962201118469 -0.023626567795872688 -0.72290980815887451 0.0051491810008883476 0.3527367115020752 -0.16113871335983276 -0.0039363675750792027 0.095027104020118713 0.18484902381896973 -0.065934643149375916 0.093764647841453552 -0.15521876513957977 -0.054056446999311447 0.12683309614658356 -0.39852356910705566 0.31209641695022583 0.45761755108833313 -0.20187857747077942 0.1184832826256752 0.045862901955842972 0.10539025068283081 -0.15209084749221802 0.16196557879447937 -0.13368335366249084 -0.090581759810447693 0.089230351150035858 0.0043680854141712189 0.098240189254283905 0.17453800141811371 -0.19085478782653809 0.13901573419570923 0.10005328059196472 -0.051918741315603256 -0.098158977925777435 0.12882959842681885 -0.024816717952489853 -0.029141204431653023 0.006075060460716486 -0.36039465665817261 0.37041518092155457 0.51691102981567383 -0.19190128147602081 -0.28225120902061462 -0.1747107058763504 -0.016241399571299553 0.076716974377632141 0.1873784214258194 -0.11903984099626541 0.034525923430919647 0.037297897040843964
  -0.11442570388317108 -0.12328555434942245 0.43437039852142334 -0.52394229173660278 -0.085621058940887451 -0.13118880987167358 -0.087788484990596771 -0.10782055556774139 0.02039850689470768 -0.24067398905754089 0.057746574282646179 -0.23404587805271149 0.94694393873214722 0.28318944573402405 0.37792009115219116 0.064760595560073853 -0.16444140672683716 -0.16814601421356201 -0.072307318449020386 -0.16950523853302002 0.024053283035755157 -0.11940409988164902 0.063711203634738922 -0.24165743589401245 0.96708869934082031 -0.42978331446647644 0.2258390337228775 0.12911239266395569 -0.32574251294136047 -0.050036337226629257 0.012358402833342552 -0.1895652711391449 0.12835626304149628 -0.068139053881168365 0.1681700199842453 -0.18942296504974365 1.1266943216323853 0.25749507546424866 0.15604525804519653 0.39985901117324829 -0.17481854557991028 0.007093657273799181 0.022456986829638481 -0.17524620890617371 0.0047285640612244606 -0.023283451795578003 -0.06283162534236908 -0.10226643830537796 -2.0037107467651367 -0.10803458094596863 -0.55686241388320923 0.11902401596307755 0.2830357551574707 0.15743868052959442 0.17912916839122772 0.23940545320510864 -0.071248531341552734 0.22871427237987518 -0.19648095965385437 0.3451235294342041
  -0.91127628087997437 0.26172560453414917 0.61334609985351562 -0.67645460367202759 -0.36322620511054993 0.25166261196136475 0.44603946805000305 -0.093541376292705536 -0.026856875047087669 0.014108924195170403 -0.22992973029613495 -0.22396160662174225 -0.25837108492851257 0.36659333109855652 0.26859721541404724 -0.39024996757507324 -0.43714964389801025 0.080173015594482422 0.24547643959522247 0.00091551034711301327 0.050672519952058792 0.049239043146371841 -0.15252383053302765 -0.13359174132347107 -0.093665093183517456 0.26047047972679138 0.26044261455535889 -0.32805785536766052 -0.31851735711097717 0.13047182559967041 0.094661027193069458 0.020615460351109505 0.058982249349355698 -0.058621685951948166 -0.06803092360496521 -0.03208010271191597 0.18543732166290283 0.24323652684688568 0.12600074708461761 -0.081394918262958527 -0.06735808402299881 0.035680610686540604 0.077421873807907104 0.043597899377346039 0.018661977723240852 -0.080079741775989532 0.028005287051200867 0.080712437629699707 0.43420016765594482 0.31289690732955933 -0.33713710308074951 0.34261578321456909 0.28960934281349182 0.13105188310146332 -0.078084968030452728 -0.10899486392736435 -0.10991606116294861 -0.11364922672510147 0.069617211818695068 0.23977942764759064
  -2.9796774387359619 1.3549745082855225 -0.2383188009262085 -0.10135596245527267 -0.049824554473161697 -0.18213529884815216 -0.0068892529234290123 0.14373672008514404 0.039528470486402512 -0.11924049258232117 -0.010230074636638165 -0.12353472411632538 -0.14915448427200317 0.11319898813962936 -0.11455748975276947 -0.0086046159267425537 -0.076459750533103943 -0.10598091781139374 -0.012923317030072212 0.014038697816431522 0.032562509179115295 -0.029631601646542549 0.064912877976894379 -0.019276844337582588 0.30126821994781494 -0.0040066237561404705 -0.24127364158630371 0.13352060317993164 -0.031965643167495728 -0.038287289440631866 -0.04493388906121254 0.048879813402891159 -0.017441298812627792 0.052701711654663086 0.040859799832105637 -0.012210550718009472 0.27341881394386292 0.015789154917001724 -0.13641221821308136 0.10881999135017395 0.008772759698331356 0.13148683309555054 -0.04259568452835083 0.050329159945249557 -0.022515179589390755 0.050544813275337219 0.046330194920301437 -0.0048250481486320496 0.51405149698257446 -0.17383368313312531 0.021902808919548988 0.18644824624061584 0.183762326836586 0.13469195365905762 0.020058341324329376 0.069138415157794952 -0.017449436709284782 0.075592890381813049 -0.064664110541343689 0.16022972762584686
  0.36191707849502563 0.42587742209434509 0.16414554417133331 0.28338977694511414 0.17364366352558136 0.11545423418283463 0.11450199782848358 -0.12072242051362991 -0.13107262551784515 0.063190452754497528 -0.084555499255657196 0.012699693441390991 0.64355218410491943 -0.52908837795257568 -0.14136025309562683 0.1237250491976738 -0.10472032427787781 0.084342285990715027 0.06322033703327179 -0.25125211477279663 0.093844406306743622 0.0015203756047412753 -0.044909253716468811 -0.12864825129508972 0.80596399307250977 -0.53861480951309204 -0.24412456154823303 0.13274084031581879 -0.077945582568645477 0.015210539102554321 0.040938358753919601 -0.28881451487541199 0.027664750814437866 -0.045816358178853989 -0.16478925943374634 -0.11573091149330139 0.31089645624160767 -0.37495481967926025 -0.11877516657114029 0.090640529990196228 0.019825449213385582 -0.031086070463061333 -0.015840798616409302 -0.19439728558063507 -0.049619462341070175 -0.10868148505687714 -0.1870114803314209 -0.03284841775894165 0.31825453042984009 0.45651906728744507 0.32039302587509155 -0.01899237371981144 0.099629111588001251 0.055383596569299698 -0.084023348987102509 -0.12963446974754333 -0.19944117963314056 -0.15398554503917694 -0.13995467126369476 -0.1542990654706955
  -0.036425009369850159 -0.50966846942901611 -0.32135564088821411 -0.52859234809875488 -0.38126277923583984 -0.050627406686544418 0.10682081431150436 0.1678580641746521 -0.028074663132429123 0.09239032119512558 0.229371577501297 0.052445933222770691 -0.18172064423561096 -0.098893694579601288 -0.069887563586235046 -0.1125316396355629 -0.080212980508804321 0.1078547015786171 0.34832584857940674 0.04337826743721962 -0.080004103481769562 0.032860115170478821 -0.017918065190315247 0.03440394252538681 -0.47143071889877319 -0.20588377118110657 -0.19234901666641235 -0.13350662589073181 0.04189717024564743 0.084332354366779327 0.39060303568840027 0.14861053228378296 -0.0043145888485014439 0.014088349416851997 -0.051096200942993164 0.096926085650920868 0.16011933982372284 -0.21966731548309326 -0.051112961024045944 -0.033491510897874832 -0.19913403689861298 -0.018505359068512917 0.18651698529720306 0.18484161794185638 0.0052905669435858727 -0.097263135015964508 0.05995456874370575 0.17295847833156586 -0.53191137313842773 -0.17872628569602966 -0.71131992340087891 -0.13016344606876373 0.03178376704454422 0.24773962795734406 0.26663190126419067 0.43199765682220459 -0.082320079207420349 -0.10765477269887924 0.16155803203582764 0.10421505570411682
  1.1350698471069336 -0.9744836688041687 -1.4910240173339844 0.13661244511604309 0.42334267497062683 -0.11176677048206329 0.22753550112247467 0.4735720157623291 0.44738727807998657 -0.097594454884529114 -0.27606076002120972 -0.25619027018547058 0.2889503538608551 -0.17221394181251526 -0.30083999037742615 -0.20497146248817444 0.0068390825763344765 -0.15246535837650299 0.065405763685703278 0.13110734522342682 0.040556147694587708 -0.025235315784811974 0.0292973592877388 -0.051023703068494797 -0.071781568229198456 0.15265172719955444 0.15219631791114807 -0.12244505435228348 -0.099513180553913116 -0.062129363417625427 0.018505645915865898 -0.020471440628170967 -0.024979209527373314 0.039566654711961746 0.057498887181282043 0.081953026354312897 -0.32136622071266174 0.30565842986106873 0.51495343446731567 0.0080733206123113632 -0.09299132227897644 0.010696691460907459 -0.14648766815662384 -0.12249287962913513 -0.069780029356479645 0.0011917578522115946 0.078196346759796143 0.080036081373691559 -0.85617583990097046 0.58016467094421387 1.0125272274017334 0.064344897866249084 -0.29593741893768311 0.052378840744495392 -0.16585129499435425 -0.22858159244060516 -0.25158211588859558 -0.015798062086105347 0.12813358008861542 0.13354842364788055
  0.17613959312438965 -0.22850476205348969 -0.54304426908493042 -0.52615422010421753 0.13321602344512939 0.44245529174804688 0.036850541830062866 -0.012923438102006912 -0.15061336755752563 -0.11939608305692673 0.19719353318214417 0.10832428932189941 0.099395342171192169 0.20559690892696381 -0.040234237909317017 -0.28838887810707092 0.28449177742004395 0.15062181651592255 -0.10903801023960114 -0.15168531239032745 -0.13874639570713043 0.013888787478208542 0.23753243684768677 0.021465674042701721 0.48319929838180542 0.46948236227035522 0.41615620255470276 0.032552041113376617 0.37021616101264954 -0.036212608218193054 -0.2190776914358139 -0.3034098744392395 0.0003991320263594389 0.16003121435642242 0.10743735730648041 -0.083464823663234711 0.43692818284034729 0.14444619417190552 0.35517987608909607 0.34751656651496887 0.30235883593559265 -0.053635198622941971 -0.15089823305606842 -0.36599418520927429 0.087016195058822632 0.14686644077301025 0.081580571830272675 -0.082662343978881836 0.29612061381340027 -0.90186071395874023 -0.20604832470417023 0.31309166550636292 0.43732565641403198 -0.18071317672729492 -0.19939683377742767 -0.26259851455688477 0.25702965259552002 0.14337003231048584 -0.17258250713348389 -0.21629919111728668
  -0.61354595422744751 -0.37326341867446899 -0.15849632024765015 -0.77388298511505127 0.21533569693565369 -0.21895940601825714 0.049009785056114197 0.93309581279754639 0.41108861565589905 -0.26088970899581909 0.086591482162475586 -0.089660286903381348 0.29873710870742798 0.16619274020195007 -0.03411029651761055 -0.21783033013343811 -0.11742015182971954 0.060747880488634109 0.077093392610549927 0.098873637616634369 0.0061827157624065876 -0.089252449572086334 0.030575031414628029 0.073537714779376984 0.19718120992183685 0.35318043828010559 0.39615547657012939 0.049647796899080276 -0.23932980000972748 0.081428118050098419 0.11611485481262207 -0.15110813081264496 -0.069620028138160706 0.0071008382365107536 0.0039126193150877953 0.11035753041505814 -0.036464788019657135 0.31721922755241394 0.31180113554000854 0.34673109650611877 -0.14763903617858887 0.014972143806517124 0.10423185676336288 -0.32928368449211121 -0.13287730515003204 0.10082950443029404 -0.017155781388282776 0.094786651432514191 0.11033909767866135 -0.28632768988609314 -0.02198408916592598 -0.080013006925582886 -0.1273873895406723 -0.14895762503147125 -0.079887278378009796 -0.075600899755954742 -0.1556270569562912 0.19523708522319794 0.0085047231987118721 0.13774754106998444
  0.32569977641105652 -0.20414973795413971 -0.4416690468788147 -0.17885591089725494 -0.027141725644469261 0.062643155455589294 -0.032022267580032349 -0.32108435034751892 -0.037197403609752655 0.31834486126899719 0.047299902886152267 -0.094855435192584991 0.0028470156248658895 -0.39942115545272827 -0.55702340602874756 -0.026151943951845169 0.19603179395198822 -0.022691797465085983 -0.10948833823204041 0.025569450110197067 0.05364687368273735 0.1526639312505722 -0.0013489278499037027 -0.16848523914813995 0.31798607110977173 -0.30718928575515747 -0.34666165709495544 0.14681284129619598 0.096464604139328003 -0.16389453411102295 -0.063932903110980988 0.20765738189220428 0.14950858056545258 0.13032150268554688 -0.07826407253742218 -0.12613764405250549 -0.0084231570363044739 -0.027065461501479149 0.12679240107536316 -0.011882786639034748 -0.11210652440786362 -0.15906955301761627 -0.050566636025905609 0.23726256191730499 0.22238034009933472 -0.075437240302562714 -0.12838084995746613 -0.040503010153770447 0.78387302160263062 0.84351778030395508 1.5307307243347168 0.092558644711971283 -1.0134077072143555 -0.49436637759208679 0.25607359409332275 0.092361040413379669 -0.070131056010723114 -0.29295158386230469 -0.046272855252027512 -0.060502476990222931
  -1.041851282119751 0.025679269805550575 -0.37256285548210144 -0.32452964782714844 0.20903339982032776 0.19644345343112946 0.13548271358013153 0.146587073802948 0.030641399323940277 0.090544901788234711 0.1534382551908493 0.12574812769889832 0.14339034259319305 -0.54128819704055786 -0.90312957763671875 -0.43972909450531006 0.1640779972076416 0.2083280086517334 -0.035675041377544403 0.10914764553308487 0.20038475096225739 0.12551392614841461 0.11526403576135635 -0.065263770520687103 0.083384223282337189 -0.29929637908935547 -0.88561564683914185 -0.26420134305953979 0.27799376845359802 0.24891673028469086 0.046566322445869446 -0.0062601789832115173 0.14021661877632141 0.17679452896118164 -0.000993349589407444 0.020119963213801384 0.14654770493507385 0.031355764716863632 -0.078214257955551147 0.031081922352313995 0.087318278849124908 0.13008527457714081 0.10230711847543716 -0.061602618545293808 0.056563597172498703 0.066227547824382782 -0.0015641456702724099 0.068096049129962921 -0.010991130955517292 0.3772321343421936 0.60824054479598999 0.1106598749756813 -0.15787157416343689 0.015849851071834564 0.047283146530389786 -0.051489297300577164 -0.088027238845825195 -0.035702239722013474 0.018435215577483177 0.13866659998893738
  0.27599525451660156 -0.52609139680862427 0.20210590958595276 0.19838112592697144 0.060634933412075043 -0.27527958154678345 -0.15730418264865875 -0.073555342853069305 -0.057881470769643784 -0.079315617680549622 -0.12676450610160828 -0.2247520387172699 -1.0455070734024048 0.035257861018180847 0.45574855804443359 0.37254533171653748 0.14825543761253357 -0.15685310959815979 -0.021242065355181694 0.1363697350025177 0.14315596222877502 -0.075430937111377716 -0.20368088781833649 -0.0029975138604640961 -0.61726844310760498 0.026518549770116806 0.33326339721679688 0.27737477421760559 0.14094370603561401 -0.10246092081069946 0.045055802911520004 0.065101608633995056 0.20128752291202545 -0.049617424607276917 -0.19680947065353394 0.0089006666094064713 -0.086341716349124908 -0.10872384160757065 0.18246915936470032 0.064422369003295898 0.088181830942630768 0.014256340451538563 0.055379152297973633 0.079716101288795471 0.062404152005910873 -0.016623398289084435 -0.045125052332878113 0.060125086456537247 0.03331071138381958 -0.27346590161323547 -0.5434410572052002 -0.11287139356136322 -0.18461175262928009 -0.034832295030355453 -0.096660807728767395 0.17690320312976837 -0.10728668421506882 0.11552443355321884 0.20614533126354218 0.10496086627244949
  0.3946603536605835 0.38319936394691467 0.30700722336769104 -0.15042136609554291 -0.17536669969558716 -0.32967156171798706 -0.27831324934959412 -0.077047377824783325 0.028469875454902649 0.061485182493925095 0.069632686674594879 -0.093191556632518768 -0.088231131434440613 0.15721540153026581 -0.12809765338897705 -0.35637763142585754 -0.25644594430923462 -0.11063864082098007 -0.20184744894504547 -0.039687734097242355 -0.015027130022644997 0.072658531367778778 0.0082733910530805588 -0.013541154563426971 0.10412871837615967 0.18802864849567413 -0.05430753156542778 -0.37022507190704346 -0.1365722268819809 -0.10345980525016785 -0.14405207335948944 -0.018779627978801727 0.014721638523042202 0.11839214712381363 -0.069049529731273651 0.016145354136824608 -0.1200983002781868 0.07916385680437088 -0.12087360024452209 -0.19245393574237823 -0.12865161895751953 -0.14908160269260406 -0.14574803411960602 -0.017832402139902115 0.08953886479139328 0.092604503035545349 -0.024087265133857727 -0.0018463388551026583 -0.38850098848342896 0.10074691474437714 0.12683691084384918 0.032390817999839783 0.025519488379359245 -0.35878452658653259 -0.14427667856216431 -0.022930029779672623 0.10984140634536743 0.076200835406780243 0.035799968987703323 0.10544845461845398
  -0.6448100209236145 0.62180024385452271 -0.18241384625434875 0.49578753113746643 0.41983529925346375 0.1682841032743454 -0.13205635547637939 -0.19996298849582672 0.20064759254455566 0.2757628858089447 -0.10243004560470581 0.21620954573154449 0.11266146600246429 -0.48851454257965088 -0.11507529020309448 -0.57324761152267456 -0.2762664258480072 -0.075316376984119415 0.038926724344491959 0.2236223965883255 -0.0098140211775898933 -0.10348576307296753 0.068501770496368408 -0.095336668193340302 -0.21782545745372772 -0.43805629014968872 -0.43347263336181641 -0.72111970186233521 -0.20052939653396606 -0.17579403519630432 -0.0071347686462104321 0.27586367726325989 -0.043718200176954269 -0.085283778607845306 0.11309200525283813 -0.058769993484020233 -0.20558358728885651 -0.29880991578102112 -0.31908637285232544 -0.40165135264396667 -0.17119266092777252 -0.028933888301253319 -0.0032562976703047752 0.14299741387367249 0.051599271595478058 0.044835243374109268 0.073101349174976349 0.044508345425128937 -0.6736951470375061 1.0749313831329346 0.40152639150619507 0.90127164125442505 0.035092845559120178 0.15006901323795319 0.099879555404186249 -0.15638285875320435 -0.10712888091802597 0.14421349763870239 0.049202717840671539 0.29706886410713196
  0.36247378587722778 0.58322685956954956 0.64027631282806396 0.52216637134552002 0.082194559276103973 0.078382499516010284 0.27121740579605103 0.099900230765342712 0.064763300120830536 0.06740511953830719 -0.1250942051410675 -0.12904448807239532 0.49277764558792114 -0.012163266539573669 0.072293154895305634 0.24073566496372223 0.36064174771308899 0.15070120990276337 0.061920139938592911 0.1822560727596283 0.12922662496566772 0.00085431354818865657 -0.11446475237607956 -0.22435557842254639 0.67835211753845215 -0.33345618844032288 -0.30432590842247009 -0.041983593255281448 0.2550787627696991 0.13281920552253723 0.12811994552612305 0.15282087028026581 0.050241913646459579 0.06757199764251709 -0.019487518817186356 -0.15502694249153137 -0.14943483471870422 0.032733526080846786 -0.45103287696838379 -0.12770405411720276 0.022694054991006851 0.029940670356154442 0.045659162104129791 -0.03383193165063858 -0.044275145977735519 0.10956346243619919 -0.013179167173802853 -0.0097546642646193504 -1.6932705640792847 -0.67014908790588379 -0.34580463171005249 -0.48126113414764404 -0.43853700160980225 -0.20618714392185211 0.24974167346954346 0.38715431094169617 0.17334197461605072 0.043451931327581406 0.24156472086906433 0.33635175228118896
  0.35053566098213196 0.36443215608596802 0.24694159626960754 -0.073641158640384674 -0.50704991817474365 -0.32724335789680481 -0.18269981443881989 0.12606845796108246 -0.068051554262638092 0.015021632425487041 0.15100386738777161 0.15154105424880981 0.67125964164733887 -0.5538860559463501 0.0010324410395696759 -0.60270661115646362 -0.42980474233627319 -0.25722053647041321 -0.11251568049192429 0.095830366015434265 0.074564188718795776 -0.036374956369400024 0.17501141130924225 -0.080171719193458557 0.61238360404968262 -0.21501576900482178 0.059304453432559967 -0.3987603485584259 -0.20376791059970856 -0.24959298968315125 -0.0084560532122850418 -0.027535794302821159 -0.0059054065495729446 0.0031233381014317274 0.13236755132675171 -0.076346904039382935 0.22041857242584229 0.17121481895446777 0.24523118138313293 -0.052368078380823135 0.14117895066738129 -0.0040406873449683189 -0.028489928692579269 -0.085192017257213593 -0.06697971373796463 0.011582562699913979 -0.04718315601348877 -0.10454702377319336 0.031572543084621429 0.16627815365791321 0.32445496320724487 0.50679558515548706 0.088297002017498016 -0.082660965621471405 0.28497785329818726 -0.0035261146258562803 -0.00031104544177651405 -0.0021292937453836203 -0.073492281138896942 -0.065506063401699066
  -0.15504303574562073 0.13192653656005859 0.55904972553253174 -0.51799744367599487 -0.70574039220809937 0.11007468402385712 -0.092477358877658844 0.11289718747138977 -0.061183299869298935 0.026056451722979546 0.33018112182617188 -0.01556591410189867 -0.18554103374481201 0.097231291234493256 -0.21826577186584473 0.45960322022438049 0.20521008968353271 -0.33586430549621582 0.12690253555774689 0.12792988121509552 -0.0038786996155977249 0.10527192801237106 -0.030341925099492073 0.015263424254953861 -0.3022419810295105 0.50603842735290527 -0.17521090805530548 0.85263413190841675 0.62071257829666138 -0.15182086825370789 0.14096403121948242 0.057384833693504333 0.031898923218250275 0.19134117662906647 -0.23299916088581085 0.081955932080745697 0.063115701079368591 0.51070237159729004 -0.020431200042366982 0.78739511966705322 0.43230360746383667 0.18746203184127808 0.1210644468665123 -0.16466429829597473 -0.029960280284285545 0.094026535749435425 -0.21696624159812927 0.01522349938750267 -0.62369632720947266 -0.6323363184928894 -0.71581411361694336 -0.74795281887054443 -0.096068225800991058 0.41356632113456726 -0.051291357725858688 0.1753963828086853 0.063942715525627136 -0.023728534579277039 0.15488147735595703 0.12719792127609253
  1.7808080911636353 0.14995004236698151 -0.57986158132553101 -0.1893719881772995 0.056439705193042755 0.21733109652996063 0.017779162153601646 0.041604772210121155 0.07140495628118515 0.18372321128845215 0.006086310837417841 -0.07191862165927887 0.18849661946296692 -0.096476368606090546 -0.37613698840141296 -0.11191467940807343 -0.036622807383537292 0.13029845058917999 -0.048640269786119461 0.028445793315768242 0.013098383322358131 0.11552359163761139 0.074650570750236511 -0.040129460394382477 -0.86850035190582275 -0.24751168489456177 -0.2199910581111908 -0.075190387666225433 -0.07717568427324295 0.060312848538160324 0.019424056634306908 0.1254679262638092 -0.02672855369746685 -0.023612074553966522 0.042203068733215332 0.098700709640979767 -2.0030853748321533 -0.11711902171373367 0.17719751596450806 -0.039052560925483704 0.0073837940581142902 -0.056377511471509933 0.054195240139961243 0.10568355023860931 0.052896834909915924 -0.1071137934923172 -0.047943904995918274 0.023325199261307716 -0.76268690824508667 -0.061728969216346741 0.8265841007232666 0.32334265112876892 0.18836453557014465 -0.068532973527908325 0.16652604937553406 -0.15380400419235229 0.11022170633077621 -0.21683937311172485 -0.15998218953609467 -0.21354985237121582
  -0.77430069446563721 0.21007883548736572 -0.046997778117656708 -0.30790388584136963 -0.17750963568687439 0.064826026558876038 0.19660092890262604 0.20586670935153961 -0.055264294147491455 0.1097600981593132 0.13173355162143707 0.0032364961225539446 -0.13400556147098541 -0.022794079035520554 0.053036369383335114 -0.072115018963813782 -0.25517478585243225 -0.020179055631160736 0.10140286386013031 -0.027713969349861145 -0.029553575441241264 -0.017513319849967957 -0.056848995387554169 -0.076491661369800568 -0.078950375318527222 -0.1186273992061615 0.045319993048906326 -0.1136665865778923 -0.23918576538562775 -0.060938894748687744 0.14790107309818268 -0.050539955496788025 -0.021490084007382393 0.0086034443229436874 -0.018550006672739983 -0.12304895371198654 0.31096935272216797 -0.15380463004112244 -0.11911209672689438 0.10263783484697342 -0.13927993178367615 -0.26851996779441833 0.047838941216468811 -0.17223693430423737 -0.010413448326289654 0.13612249493598938 -0.039269842207431793 -0.030471649020910263 1.9673858880996704 -0.44793754816055298 0.13742069900035858 0.013229222036898136 0.13378466665744781 -0.096456654369831085 -0.25988510251045227 -0.12430077791213989 0.070676542818546295 -0.0050612231716513634 -0.099547296762466431 -0.10512858629226685
  -0.19782833755016327 0.020181974396109581 0.25742006301879883 0.48165598511695862 -0.21146468818187714 -0.065591327846050262 0.057614445686340332 -0.1790938526391983 0.090916641056537628 0.1897827535867691 -0.081954464316368103 0.17641827464103699 -0.053697071969509125 -0.39376670122146606 -0.31251510977745056 -0.38177505135536194 0.23735477030277252 -0.015772562474012375 0.016799019649624825 -0.05918550118803978 0.24626307189464569 0.048714831471443176 -0.12730585038661957 -0.27029469609260559 0.037455059587955475 -0.46758148074150085 -0.47265937924385071 -0.45848247408866882 0.56073355674743652 0.1347179114818573 0.12316889315843582 0.11966802179813385 0.1632189005613327 -0.097464606165885925 -0.1169380322098732 -0.34553548693656921 0.29732006788253784 -0.21776090562343597 -0.1631876677274704 -0.3837127685546875 0.29073387384414673 0.03539661318063736 0.027828561142086983 0.15850698947906494 0.037340369075536728 -0.13496094942092896 -0.010705692693591118 -0.20204362273216248 0.63389229774475098 0.35105568170547485 0.22387063503265381 0.12631195783615112 0.089403562247753143 0.22181548178195953 0.090813383460044861 0.18882556259632111 -0.088332138955593109 -0.1727195531129837 0.091615520417690277 0.057814475148916245
  -1.1760032176971436 -0.25334438681602478 -0.31740716099739075 0.062290620058774948 -0.025494933128356934 -0.38680964708328247 -0.44027566909790039 0.055636394768953323 0.28219649195671082 0.37753233313560486 0.23785071074962616 0.43497076630592346 0.10401417315006256 -0.2039782702922821 -0.18180298805236816 -0.00067922240123152733 -0.019239041954278946 -0.12844553589820862 -0.29448899626731873 -0.1394847184419632 0.11562748998403549 0.19581848382949829 0.20887298882007599 0.1150842010974884 0.13026593625545502 0.22297562658786774 0.055286049842834473 0.062520816922187805 0.059989582747220993 -0.066605433821678162 -0.23552888631820679 0.038941800594329834 0.11131905019283295 0.030927157029509544 0.21722197532653809 0.023039203137159348 0.044955838471651077 0.033714961260557175 0.10664917528629303 0.14730320870876312 0.034699626266956329 -0.035667121410369873 -0.036530047655105591 0.015760557726025581 -0.032410599291324615 -0.068340428173542023 0.1928521990776062 -0.058532450348138809 0.23483273386955261 -0.46681508421897888 0.23939836025238037 0.2393304854631424 0.033033818006515503 -0.14390596747398376 -0.0075036236084997654 0.11911436170339584 -0.059557683765888214 -0.031514234840869904 -0.027196414768695831 0.15353797376155853
  -0.044299431145191193 -0.07262904942035675 -0.48588076233863831 -0.4583110511302948 0.033287335187196732 0.040734279900789261 0.14871203899383545 -0.03424520418047905 0.014371490105986595 0.13962966203689575 0.048033926635980606 -0.11361405253410339 0.53075575828552246 -0.21072623133659363 -0.16472223401069641 -0.38378012180328369 -0.07090112566947937 0.11325367540121078 -0.010940631851553917 -0.017981763929128647 0.02786141075193882 0.05460808053612709 0.018195498734712601 -0.23461098968982697 0.16554243862628937 0.20084214210510254 0.13196712732315063 0.11285874992609024 0.061284303665161133 0.055622532963752747 -0.048979580402374268 -0.066151507198810577 -0.041481617838144302 -0.022903438657522202 -0.062017656862735748 -0.23353368043899536 0.56170880794525146 0.56530827283859253 0.45646214485168457 0.50900763273239136 -0.014871186576783657 -0.13949832320213318 -0.13500608503818512 -0.09272485226392746 -0.12177621573209763 -0.049231287091970444 -0.11252749711275101 -0.093569807708263397 -2.6135423183441162 -0.10838886350393295 0.87360465526580811 1.2318292856216431 -0.13677844405174255 -0.31793045997619629 0.036683786660432816 0.19234032928943634 -0.14227142930030823 -0.01425524614751339 -0.070191062986850739 0.47143653035163879
  -0.45823672413825989 -0.32866537570953369 0.091002143919467926 0.060013193637132645 0.1910737156867981 0.11606623232364655 0.10689298063516617 -0.21652364730834961 0.019257690757513046 0.049404915422201157 -0.071391642093658447 -0.080091103911399841 -0.38232016563415527 -0.012099944055080414 0.46138796210289001 0.25988620519638062 0.022150302305817604 -0.33073148131370544 -0.22896939516067505 0.021156240254640579 0.11792246997356415 0.028989691287279129 -0.090757116675376892 -0.12204013764858246 -0.061909738928079605 -0.10170173645019531 0.31509190797805786 0.31907647848129272 0.18411730229854584 -0.28792056441307068 -0.277811199426651 0.069450996816158295 0.19547364115715027 0.080543525516986847 -0.057164587080478668 -0.098962359130382538 -0.1782524436712265 -0.11465955525636673 0.28277218341827393 0.20586423575878143 -0.0073748314753174782 -0.25490087270736694 -0.23381964862346649 0.05208563432097435 0.15398304164409637 0.0021242967341095209 0.023959556594491005 -0.023826323449611664 -0.24902653694152832 -0.080360531806945801 0.62172967195510864 0.397075355052948 -0.21346282958984375 -0.25821360945701599 -0.15180701017379761 -0.027999741956591606 0.078511573374271393 0.02911820076406002 0.1327735036611557 0.12987306714057922
  0.38048648834228516 -0.080619215965270996 -0.1381145566701889 0.063049815595149994 -0.15316203236579895 -0.0035811252892017365 0.059171654284000397 -0.11453264951705933 -0.00019580993102863431 0.068457901477813721 0.043859194964170456 -0.027732484042644501 0.44621521234512329 0.077331297099590302 0.22061978280544281 0.14643019437789917 0.11068440228700638 0.011604523286223412 -0.024655956774950027 -0.1569998562335968 -0.22478829324245453 0.065780848264694214 0.037199191749095917 -0.059500236064195633 1.0168085098266602 0.48143702745437622 0.50335502624511719 0.1630198210477829 -0.022135697305202484 -0.1131356880068779 -0.14781972765922546 -0.19498364627361298 -0.17443579435348511 -0.030125971883535385 -0.041446611285209656 -0.15264667570590973 0.37653869390487671 0.61067312955856323 0.446623295545578 0.10500501096248627 -0.1119406446814537 -0.23337902128696442 -0.043790336698293686 -0.14929865300655365 -0.19161610305309296 -0.17118148505687714 -0.06585327535867691 -0.14879260957241058 0.62952446937561035 -0.8269692063331604 -0.27086555957794189 -0.55087345838546753 -0.35085347294807434 -0.26596769690513611 -0.1119389608502388 -0.054751981049776077 -0.035249244421720505 -0.28719419240951538 -0.010699844919145107 -0.057162676006555557
  0.58739876747131348 -0.2769947350025177 -0.56990170478820801 0.38620525598526001 0.19182105362415314 -0.14402428269386292 -0.04447304829955101 -0.0031730537302792072 0.099658384919166565 -0.035429656505584717 -0.031869865953922272 0.075113728642463684 -0.21410457789897919 -0.26729336380958557 0.062840700149536133 0.053249198943376541 -0.042650170624256134 -0.045490596443414688 -0.027510887011885643 -0.084137380123138428 0.074765853583812714 0.026117634028196335 -0.038963444530963898 0.057595055550336838 -0.19863073527812958 -0.096438705921173096 0.39951059222221375 -0.23043094575405121 -0.062972620129585266 0.068963773548603058 0.073245182633399963 -0.12399988621473312 0.078168250620365143 0.13852477073669434 -0.074611984193325043 -0.050261858850717545 -0.41862228512763977 0.19945108890533447 0.61841148138046265 -0.32102078199386597 -0.15036462247371674 0.20490460097789764 0.15710838139057159 -0.22845485806465149 0.059146184474229813 0.12970790266990662 -0.089787311851978302 -0.15944753587245941 -1.717613697052002 0.34714889526367188 1.6157950162887573 -0.62876600027084351 -0.57676947116851807 0.3795454204082489 0.23910881578922272 -0.37926962971687317 0.090163104236125946 0.042674727737903595 -0.087498195469379425 -0.093045257031917572
  0.66337364912033081 -0.50218367576599121 0.045121297240257263 -0.34134474396705627 -0.012994697317481041 -0.059275772422552109 0.0084968740120530128 0.046604972332715988 0.071443706750869751 -0.032889552414417267 -0.045614477246999741 -0.067668363451957703 -0.69986504316329956 0.20839360356330872 -0.19866208732128143 0.068995989859104156 -0.0065080458298325539 -0.075224660336971283 0.11035503447055817 0.0087203485891222954 0.021228671073913574 0.020074671134352684 -0.025963621214032173 -0.072885915637016296 -0.56899833679199219 0.3639596700668335 -0.2231622040271759 0.18069243431091309 0.0076312110759317875 -0.22534692287445068 0.12794750928878784 0.0019132611341774464 0.0083765117451548576 0.025659017264842987 -0.066982775926589966 -0.09984000027179718 0.017770884558558464 0.52751940488815308 -0.051569998264312744 0.3545982837677002 0.029869288206100464 -0.25647276639938354 0.0045452304184436798 -0.023768007755279541 -0.03428979218006134 0.034896187484264374 -0.044675461947917938 -0.080892100930213928 -1.4337433576583862 0.78955221176147461 -0.74316084384918213 0.38750869035720825 -0.00689671840518713 -0.17802031338214874 -0.15266714990139008 0.055659860372543335 -0.03948686271905899 0.071081429719924927 0.034779231995344162 -0.063982963562011719
  0.21311993896961212 0.90185707807540894 0.41419178247451782 1.3177328109741211 1.2035048007965088 0.80968421697616577 0.28160598874092102 0.20544905960559845 -0.15405352413654327 -0.25553187727928162 -0.34987777471542358 -0.13631831109523773 -1.1403540372848511 -0.013493241742253304 -0.10976159572601318 -0.13093914091587067 -0.092098250985145569 -0.018837708979845047 -0.049979619681835175 0.17817594110965729 -0.038473900407552719 0.077081866562366486 0.25966745615005493 0.20474867522716522 -1.2080612182617188 -0.36843901872634888 -0.15099702775478363 -0.42309525609016418 -0.55923449993133545 -0.32303386926651001 -0.13303658366203308 -0.049160506576299667 -0.10984156280755997 0.099493123590946198 0.21802538633346558 0.17648763954639435 -0.72613251209259033 -0.4621124267578125 -0.22543956339359283 -0.39991474151611328 -0.51051473617553711 -0.38042530417442322 -0.17256459593772888 -0.20385640859603882 0.10884621739387512 0.14858566224575043 0.060478098690509796 0.074544206261634827 1.3484170436859131 -0.18863017857074738 -0.12922362983226776 -0.12612628936767578 -0.051946405321359634 0.006085903849452734 -0.055656760931015015 -0.1490425169467926 0.056869708001613617 0.18625791370868683 -0.058348488062620163 -0.14956922829151154
  -0.108745276927948 -0.38083237409591675 0.5893217921257019 0.59951770305633545 0.2692221999168396 -0.48507916927337646 -0.36356475949287415 -0.087415039539337158 0.028684727847576141 -0.22048607468605042 -0.022015362977981567 -0.10495693236589432 0.50330269336700439 -0.1974775493144989 -0.26186051964759827 0.17755401134490967 0.39931240677833557 -0.20288614928722382 -0.048715308308601379 0.14249251782894135 -0.084500700235366821 0.051739998161792755 0.092028394341468811 -0.10751850157976151 1.4757616519927979 0.21946127712726593 -0.30126598477363586 -0.0082564381882548332 0.051157381385564804 0.044663097709417343 -0.030851025134325027 -0.05646897479891777 -0.1561378687620163 0.146060511469841 0.13992525637149811 -0.18399697542190552 0.80367463827133179 0.21832083165645599 -0.10849031060934067 -0.22678275406360626 -0.13723728060722351 0.34859955310821533 0.037546113133430481 -0.1947627067565918 -0.13153448700904846 0.089320600032806396 0.12712094187736511 -0.098742544651031494 -1.3815590143203735 -0.0038510030135512352 -0.34795039892196655 -0.73162752389907837 -0.34578189253807068 0.58210456371307373 0.48738676309585571 -0.42176494002342224 -0.096768848598003387 0.17468872666358948 0.064057357609272003 0.37429901957511902
  0.23232287168502808 0.89278119802474976 0.78088206052780151 -0.20067416131496429 -0.43363076448440552 -0.0050673927180469036 0.40032973885536194 0.088721036911010742 -0.26146087050437927 -0.25837507843971252 0.17060121893882751 -0.1380389928817749 0.42733290791511536 -0.17961770296096802 -0.20189644396305084 -0.16595824062824249 -0.11575433611869812 0.071282736957073212 0.14954417943954468 -0.057447817176580429 -0.13728980720043182 -0.1167885884642601 -0.012885975651443005 0.044991623610258102 -0.15338395535945892 -0.98236781358718872 -0.69970953464508057 -0.032617270946502686 0.29914224147796631 0.15826041996479034 -0.13372208178043365 -0.20541386306285858 -0.026632189750671387 0.073731504380702972 0.0055494396947324276 0.16729424893856049 -0.22889257967472076 -0.82642275094985962 -0.60145026445388794 0.21435225009918213 0.57105016708374023 -0.031119938939809799 -0.50973337888717651 -0.22900785505771637 0.1189572811126709 0.31360077857971191 -0.10532865673303604 0.087682075798511505 -0.25346937775611877 0.41904067993164062 1.1380596160888672 0.75519800186157227 -0.06087382510304451 -0.40318194031715393 -0.25456699728965759 -0.088968761265277863 0.14797145128250122 -0.020391818135976791 0.066436707973480225 -0.093163587152957916
  -0.67018204927444458 -1.2784172296524048 -0.82676595449447632 -0.81725591421127319 -0.61345070600509644 -0.25121963024139404 -0.044408373534679413 -0.20783527195453644 0.13589499890804291 0.13535295426845551 0.1149398535490036 -0.047758553177118301 -0.27094650268554688 -0.024451620876789093 -0.059275899082422256 -0.16909866034984589 -0.27374270558357239 -0.43211233615875244 -0.30609968304634094 -0.22652715444564819 -0.11214625090360641 0.15904280543327332 0.029459398239850998 0.12746912240982056 -0.20612585544586182 0.44218575954437256 0.27700081467628479 0.24774201214313507 0.023612875491380692 -0.16991841793060303 -0.23482316732406616 -0.061037197709083557 -0.075782008469104767 0.096105538308620453 -0.05669238418340683 0.048630014061927795 0.55735915899276733 0.37899446487426758 0.29842713475227356 0.1896229088306427 0.31784135103225708 0.19365271925926208 -0.070732444524765015 0.058453980833292007 -0.0019490607082843781 -0.028877237811684608 -0.032441616058349609 -0.10444332659244537 0.7041059136390686 0.6851571798324585 -0.20120224356651306 0.41011521220207214 0.93387836217880249 0.86677283048629761 0.4020075798034668 0.029322953894734383 -0.10856892168521881 -0.16508033871650696 -0.15012909471988678 -0.13288091123104095
  -1.3836263418197632 0.28790709376335144 0.34742838144302368 0.57421916723251343 0.21110568940639496 -0.21241125464439392 -0.2934267520904541 0.43661168217658997 -0.048836719244718552 -0.38065034151077271 0.13333489000797272 0.18906418979167938 -0.6805875301361084 -0.21462289988994598 -0.071627117693424225 -0.038329031318426132 -0.018809610977768898 -0.076931200921535492 0.032689794898033142 0.32854375243186951 0.012648691423237324 -0.13469228148460388 0.026959078386425972 0.047418165951967239 -0.31794267892837524 -0.096542187035083771 0.0011135312961414456 0.007841428741812706 -0.092022374272346497 -0.15085612237453461 0.05708024650812149 0.10198561102151871 -0.057322908192873001 -0.065391339361667633 -0.035173188894987106 0.010878302156925201 -0.24864253401756287 0.084925554692745209 0.081744469702243805 -0.057608872652053833 0.011311111971735954 -0.030033433809876442 0.046374842524528503 -0.069906406104564667 -0.0053183031268417835 0.0050953184254467487 -0.064981862902641296 -0.069429978728294373 0.94222331047058105 0.086507193744182587 -0.076770707964897156 0.077486395835876465 -0.065431743860244751 0.047438297420740128 0.077189244329929352 -0.36053389310836792 -0.018835991621017456 0.11665469408035278 -0.16791968047618866 -0.07224748283624649
  -0.14108248054981232 -0.086342863738536835 0.20058533549308777 0.033779062330722809 0.075006656348705292 0.027432862669229507 -0.1587461531162262 -0.036330223083496094 0.17580355703830719 -0.11980497092008591 -0.069594934582710266 0.092301599681377411 -0.15337607264518738 0.17460769414901733 0.026802906766533852 -0.068574674427509308 0.1950296014547348 0.066599041223526001 -0.21653361618518829 0.079132638871669769 -0.03722941130399704 -0.014261825941503048 0.1015038788318634 -0.075842581689357758 -0.16485847532749176 0.095019795000553131 0.063054606318473816 -0.26471292972564697 0.086234480142593384 0.041321631520986557 -0.34669557213783264 0.21756678819656372 -0.039504732936620712 -0.11250142753124237 0.1593630462884903 -0.074061691761016846 0.078049339354038239 0.1718171238899231 0.11970815807580948 -0.26807025074958801 0.04677259549498558 -0.15338684618473053 -0.25923806428909302 0.23637822270393372 -0.058371920138597488 -0.17330756783485413 0.12114390730857849 0.016850927844643593 -0.70616179704666138 0.70643961429595947 0.53196227550506592 -0.38595432043075562 -0.17162306606769562 0.060937002301216125 -0.13303978741168976 0.19454938173294067 0.060166709125041962 -0.38942983746528625 0.078001447021961212 -0.039787136018276215
  1.5254307985305786 -0.37065392732620239 0.27133339643478394 -0.25268810987472534 -0.18995667994022369 -0.081600375473499298 -0.062370561063289642 -0.16326436400413513 -0.059568405151367188 -0.077442944049835205 0.10164900869131088 -0.2057795524597168 0.98381966352462769 0.25260132551193237 0.36348190903663635 0.060808960348367691 -0.17353777587413788 -0.045051664113998413 -0.10353652387857437 -0.11265391111373901 0.0096567301079630852 -0.042005769908428192 0.039603449404239655 -0.10167024284601212 0.12130726128816605 0.22179682552814484 0.20350587368011475 0.21055512130260468 -0.044400792568922043 -0.022615231573581696 0.027935057878494263 0.0012234051246196032 0.035168975591659546 0.016288090497255325 0.0091575775295495987 0.079615406692028046 -0.14365102350711823 0.082008406519889832 -0.26968896389007568 0.26739269495010376 0.047899052500724792 0.070749856531620026 0.068989604711532593 0.043217282742261887 -0.0041731321252882481 0.0034959833137691021 -0.037801656872034073 0.1221410408616066 -2.9841241836547852 0.29112017154693604 -0.79595977067947388 -0.078048005700111389 0.63431280851364136 0.15705606341362 -0.098095037043094635 0.38241446018218994 -0.1183323860168457 0.30933409929275513 -0.15494230389595032 0.25743955373764038
  0.85474783182144165 -0.44385820627212524 -0.62803685665130615 -0.027082351967692375 0.1681647002696991 -0.041220810264348984 0.32291984558105469 0.28364616632461548 -0.025891900062561035 -0.24527272582054138 -0.27892765402793884 -0.12001077830791473 -0.40578487515449524 0.37632617354393005 0.038941815495491028 -0.18257756531238556 0.1254570484161377 -0.013473222963511944 0.2742316722869873 0.24308773875236511 -0.072491228580474854 -0.214079350233078 0.096002824604511261 0.077150531113147736 -0.55248850584030151 0.89305609464645386 0.18851341307163239 -0.2492104172706604 0.43339663743972778 0.32374820113182068 0.30729490518569946 0.067134514451026917 -0.081848837435245514 -0.091679602861404419 0.12182090431451797 -0.011645916849374771 -0.66666501760482788 0.71291458606719971 0.34087085723876953 -0.15079866349697113 0.18895375728607178 0.37019896507263184 0.3186594545841217 0.020964471623301506 -0.23291292786598206 -0.067910425364971161 0.13535718619823456 -0.087731547653675079 -0.41155514121055603 -0.82951623201370239 0.20198030769824982 0.34005081653594971 -0.22521018981933594 -0.16106407344341278 0.62513238191604614 0.32189151644706726 0.17442789673805237 -0.085754379630088806 -0.41409376263618469 -0.10137899219989777
  1.0957280397415161 0.51600492000579834 0.22428537905216217 1.0161296129226685 0.28057417273521423 -0.094254083931446075 -0.025743599981069565 -0.70103263854980469 -0.23740482330322266 -0.0025526897516101599 -0.17227517068386078 0.065844900906085968 -0.03463016077876091 0.33314254879951477 -0.11572928726673126 0.28824394941329956 -0.022573128342628479 -0.1756647527217865 0.084354482591152191 -0.29859954118728638 -0.12138039618730545 0.20494170486927032 -0.069756887853145599 0.10065819323062897 -0.38783282041549683 0.016946788877248764 0.064516074955463409 -0.19142787158489227 -0.23513412475585938 -0.17012216150760651 -0.047028630971908569 -0.091011285781860352 0.0087863104417920113 0.055438335984945297 0.0040223980322480202 0.088727608323097229 -0.37492889165878296 -0.41003021597862244 0.2109643965959549 -0.47963261604309082 -0.22872075438499451 -0.05521661788225174 -0.14899307489395142 0.17233459651470184 0.060896657407283783 -0.072110570967197418 0.10075436532497406 0.076723359525203705 0.64954483509063721 -0.50227338075637817 -0.05888332799077034 -1.2373718023300171 -0.20692101120948792 0.1748722642660141 0.14211225509643555 0.88601410388946533 0.39995729923248291 -0.25388485193252563 0.1138080358505249 -0.39561370015144348
  0.36810532212257385 -0.65390348434448242 -0.59216070175170898 -0.60511535406112671 -0.007577978540211916 -0.066276311874389648 -0.11583127081394196 0.29352995753288269 0.36778458952903748 -0.15247578918933868 -0.18229909241199493 -0.34814295172691345 -0.054128631949424744 -0.023878525942564011 -0.094480149447917938 0.094536542892456055 0.14747537672519684 0.13593365252017975 0.10228189826011658 0.062875457108020782 -0.092518694698810577 -0.16357637941837311 -0.21310873329639435 -0.040992707014083862 -0.38670167326927185 0.26657453179359436 0.36247929930686951 0.70576786994934082 0.39261889457702637 0.16294050216674805 0.032381292432546616 -0.18558655679225922 -0.21049772202968597 -0.085821293294429779 -0.16763588786125183 0.090155117213726044 -0.27836811542510986 0.52052879333496094 0.45928263664245605 0.56448554992675781 0.099552944302558899 -0.037825513631105423 -0.039086155593395233 -0.27558451890945435 -0.23461766541004181 -0.039130371063947678 -0.032886166125535965 0.14962898194789886 1.0561747550964355 0.38517379760742188 0.54762858152389526 -0.23738135397434235 -0.74908983707427979 -0.40822935104370117 -0.55131638050079346 -0.38359668850898743 -0.30599033832550049 -0.10458619147539139 0.29733133316040039 0.025292646139860153
  -0.024316752329468727 0.34558326005935669 -0.1467040628194809 0.19760371744632721 0.10898488759994507 0.21130302548408508 0.27698284387588501 -0.024522639811038971 -0.0045776618644595146 0.11658451706171036 -0.15458950400352478 -0.023785835132002831 0.1416444331407547 0.20408955216407776 -0.072945877909660339 0.051172744482755661 -0.13556371629238129 0.027480125427246094 0.0071930009871721268 -0.18182298541069031 -0.077294439077377319 0.14308060705661774 0.029151029884815216 -0.045241862535476685 0.2161678820848465 0.51086115837097168 0.057883728295564651 0.054937779903411865 -0.18263217806816101 0.03745492547750473 0.034973785281181335 -0.18273164331912994 -0.023787502199411392 0.13988110423088074 -0.012868786230683327 -0.025665514171123505 0.045322541147470474 0.42280253767967224 0.24390946328639984 -0.10815019160509109 -0.26447439193725586 0.043952688574790955 -0.0044515151530504227 -0.1172361746430397 -0.016986226662993431 0.012410727329552174 -0.053616054356098175 -0.010848258621990681 0.7561371922492981 0.40847459435462952 0.28411775827407837 -0.2214779257774353 -0.11712663620710373 0.032154221087694168 0.012146033346652985 -0.1269262433052063 -0.025086633861064911 -0.16041897237300873 -0.16424259543418884 -0.099132604897022247 ]
 [ 1.2879637479782104 -2.4865579605102539 3.3866586685180664 2.1640362739562988 0.00081438099732622504 2.9140243530273438 -2.6525616645812988 -4.9541101455688477 -2.1272473335266113 2.1204586029052734 2.3644757270812988 -1.9033881425857544 -0.8166121244430542 -0.65798646211624146 0.47255685925483704 -1.47343909740448 1.0014607906341553 1.1615277528762817 0.5430869460105896 -1.1122280359268188 2.4797980785369873 -2.0326442718505859 -1.0578233003616333 -1.973360538482666 -0.027345862239599228 2.5192527770996094 2.8834044933319092 -2.5697746276855469 -4.0881648063659668 -4.4629120826721191 3.3635923862457275 -0.97251248359680176 -2.9050486087799072 1.3902319669723511 1.2558631896972656 -2.2512707710266113 -2.903430700302124 4.674562931060791 -3.6084043979644775 -2.1166477203369141 2.613598108291626 ]
<sigmoid> 41 41
<affinetransform> 42 41
 [ 
  -0.038578517735004425 -1.9562743902206421 -0.57202231884002686 0.39860817790031433 -0.015074490569531918 0.065466850996017456 0.42574712634086609 -0.52133935689926147 1.8326321840286255 0.92584222555160522 0.15566237270832062 -0.67507302761077881 -0.6900101900100708 0.4702613353729248 -0.59389126300811768 -1.5772614479064941 -0.47788983583450317 -0.47415792942047119 -0.13024799525737762 0.83853548765182495 -0.71877539157867432 -1.1639037132263184 1.037517786026001 -1.3643574714660645 -1.7793183326721191 1.6940646171569824 0.78925853967666626 -0.97505086660385132 -0.063897684216499329 0.9334600567817688 1.5975157022476196 0.66817402839660645 -0.16652818024158478 2.5234384536743164 -0.5471528172492981 -0.047583118081092834 0.33974963426589966 0.42810484766960144 -1.6906369924545288 0.15576037764549255 -1.6298646926879883
  -0.43359977006912231 -0.063766703009605408 -1.7030460834503174 0.038156658411026001 0.23073858022689819 0.44843462109565735 -1.0864441394805908 -0.1459231823682785 0.61880391836166382 0.147091343998909 0.44741559028625488 0.93626666069030762 0.11556017398834229 -0.50210309028625488 0.56339645385742188 -1.3682236671447754 0.28430962562561035 -0.48727944493293762 1.1579664945602417 0.059749890118837357 -1.0172730684280396 -0.86110419034957886 0.62437570095062256 2.1856200695037842 -1.4511624574661255 -0.29968735575675964 0.13561338186264038 -1.8990739583969116 -0.60213875770568848 0.12553861737251282 0.28719168901443481 -0.58113962411880493 -0.90565520524978638 1.0453534126281738 -0.11062730103731155 0.44983783364295959 -0.8233456015586853 0.30916604399681091 -0.43743899464607239 -0.90294903516769409 0.40088406205177307
  -0.24056914448738098 0.25365954637527466 -1.3391149044036865 -0.033057570457458496 0.10872755944728851 0.67722338438034058 -0.10573936253786087 0.29845485091209412 0.99160999059677124 0.71237456798553467 -0.36468437314033508 0.57064181566238403 -0.24354998767375946 0.24877868592739105 0.43687742948532104 -0.26375237107276917 0.13440583646297455 0.81795942783355713 0.96465146541595459 0.63379204273223877 -0.85466814041137695 -0.058549642562866211 0.58036166429519653 1.7829771041870117 -0.10217513144016266 0.38738995790481567 -0.43893447518348694 -1.3732304573059082 0.32965248823165894 0.61502730846405029 -0.18038593232631683 -0.40647783875465393 -0.037090562283992767 -0.16625215113162994 0.3008350133895874 -0.10820234566926956 -0.074879780411720276 0.66124993562698364 -0.095274791121482849 0.10107149183750153 -0.36360985040664673
  0.34406912326812744 0.71872913837432861 2.0527465343475342 0.76283293962478638 -0.30193933844566345 1.3871926069259644 0.080185294151306152 -0.25390848517417908 0.81198233366012573 -0.66632324457168579 0.066004566848278046 1.7659814357757568 -0.47424265742301941 -0.71744680404663086 0.064369246363639832 -0.057775791734457016 -0.30101531744003296 -0.40875396132469177 0.05198296532034874 -0.10015009343624115 -0.50188493728637695 0.50303852558135986 -1.7011821269989014 0.31516259908676147 0.36255544424057007 -0.95043504238128662 -1.152164101600647 -0.058340564370155334 -0.80366796255111694 -0.3986840546131134 -1.324731707572937 0.52824544906616211 0.11683393269777298 -2.0978553295135498 -0.081124573945999146 -0.98830544948577881 -1.5666466951370239 1.2223917245864868 0.98106777667999268 1.7728284597396851 -0.14128895103931427
  0.18777786195278168 -1.0271488428115845 0.15458731353282928 -0.76231074333190918 -0.40209478139877319 0.076451927423477173 -0.8456350564956665 0.11499445885419846 0.95879584550857544 -0.58363443613052368 0.38372150063514709 0.12549746036529541 0.42170804738998413 -0.81070417165756226 -0.1479223221540451 0.48259633779525757 -0.13969263434410095 -0.10259902477264404 -0.039931632578372955 0.71463680267333984 -0.55116951465606689 0.71054047346115112 -0.25793755054473877 -0.57065826654434204 -0.53503322601318359 -0.43377378582954407 -0.39936891198158264 0.61787891387939453 -0.95178705453872681 -0.89487791061401367 0.27395698428153992 -0.63061249256134033 0.73128926753997803 -1.3958760499954224 0.32654827833175659 -0.67195969820022583 -0.01816326379776001 0.24448002874851227 -0.55446916818618774 -0.068268932402133942 -0.53096240758895874
  -0.68883603811264038 0.75485026836395264 -1.0370787382125854 -0.45036599040031433 0.53201949596405029 -1.750910758972168 0.32323440909385681 1.3082445859909058 0.77494895458221436 0.54750847816467285 -0.57335138320922852 -0.090024344623088837 -0.30583924055099487 -1.0085532665252686 0.87688940763473511 0.73147189617156982 1.6006343364715576 -0.06922227144241333 -0.5243222713470459 -1.1032035350799561 0.88018059730529785 0.59683579206466675 1.3722831010818481 -1.2935067415237427 0.10482638329267502 0.16572457551956177 0.19584260880947113 -1.7395486831665039 1.2223399877548218 -0.24453581869602203 -0.23141077160835266 1.4570380449295044 -0.266325443983078 -0.64309000968933105 -0.57199525833129883 1.8664587736129761 2.0642261505126953 -0.31517204642295837 -0.25848940014839172 -0.01937040314078331 0.61579233407974243
  0.11150271445512772 0.098862573504447937 0.50335448980331421 0.32972362637519836 0.81197845935821533 -0.24920755624771118 -0.29808178544044495 -0.25147446990013123 -0.33247822523117065 -1.2458958625793457 0.29953348636627197 0.95589011907577515 0.35745462775230408 0.70894283056259155 0.35149028897285461 0.34474796056747437 0.68690145015716553 0.32227784395217896 1.6497875452041626 -0.76877927780151367 0.4963223934173584 0.21387876570224762 -0.29905304312705994 0.206448033452034 -0.44636979699134827 -0.78282660245895386 0.60483551025390625 0.66195213794708252 -1.4455175399780273 0.07905038446187973 -1.7792814970016479 -0.78098207712173462 -0.5231928825378418 -0.42787009477615356 0.19442582130432129 -0.95863306522369385 -0.62792325019836426 0.75954532623291016 1.7417231798171997 0.38329789042472839 -0.49762803316116333
  0.90851056575775146 0.061933033168315887 0.59850591421127319 -0.6447024941444397 0.59591192007064819 -0.87447738647460938 -0.21369600296020508 -0.91283845901489258 -1.9155780076980591 1.0926226377487183 3.6313755512237549 -2.383819580078125 0.57622414827346802 2.6365966796875 -1.9013280868530273 -2.463615894317627 -1.5420079231262207 -0.6455344557762146 1.1646566390991211 0.45752251148223877 -0.044792432337999344 -2.2613060474395752 0.23181839287281036 0.85765141248703003 -0.5090668797492981 1.0709161758422852 1.2162081003189087 -0.078638315200805664 0.094217240810394287 0.3710399866104126 0.75461661815643311 -2.3939590454101562 0.20353668928146362 -0.63324803113937378 0.70448410511016846 -0.11056883633136749 -0.52316951751708984 -1.0382593870162964 -1.128577709197998 -2.7045433521270752 0.36217391490936279
  0.84192228317260742 0.51286917924880981 0.52034634351730347 -1.381682276725769 -0.03665485605597496 0.049355216324329376 0.23453435301780701 0.39890104532241821 0.45383873581886292 0.31836771965026855 1.5046825408935547 0.15693202614784241 0.1356356143951416 1.0537139177322388 -1.4003633260726929 -0.60514360666275024 -0.70023888349533081 1.2234598398208618 0.87632608413696289 0.47242599725723267 -1.0636477470397949 -0.60818940401077271 0.30252847075462341 0.52105945348739624 0.14252717792987823 0.71225166320800781 -0.38639980554580688 -0.68405669927597046 -0.046809248626232147 0.53784912824630737 -0.093396015465259552 -0.61584091186523438 -0.77685880661010742 0.30061730742454529 1.0158413648605347 -0.51514643430709839 -0.046882756054401398 -0.015032002702355385 0.70687496662139893 -1.43483567237854 -0.183000847697258
  0.68203312158584595 -0.039755355566740036 1.2984938621520996 -0.22045084834098816 -0.080485530197620392 -0.62389469146728516 0.48934704065322876 -0.72823899984359741 -0.34303081035614014 -0.10988039523363113 0.94741642475128174 1.1391409635543823 -1.5787867307662964 -0.16648706793785095 0.56227099895477295 0.94855928421020508 -1.3718702793121338 -0.31486734747886658 -0.6391710638999939 -0.46473827958106995 0.58454424142837524 1.3423792123794556 -0.57566225528717041 -0.32987746596336365 0.2551632821559906 -0.63857352733612061 -0.13078662753105164 0.12442658841609955 -0.96147948503494263 -0.43012675642967224 -0.60376060009002686 -0.41630962491035461 1.2097909450531006 -0.36927735805511475 -0.13533599674701691 -0.70939463376998901 1.1578854322433472 0.87806981801986694 -0.48800432682037354 0.94412803649902344 -1.0927630662918091
  -0.012159268371760845 0.6842917799949646 -0.30469748377799988 0.46711480617523193 -2.0240156650543213 -0.81428724527359009 1.2252802848815918 -0.28793627023696899 -0.9859619140625 0.6108253002166748 -0.68140500783920288 0.28971773386001587 -1.0318728685379028 0.26370897889137268 -0.40214145183563232 -0.38959717750549316 0.98105615377426147 -1.3303015232086182 0.55361437797546387 0.67854422330856323 1.2475086450576782 0.42337584495544434 0.083135500550270081 0.2340068519115448 -0.044589675962924957 -0.18375396728515625 -1.1520365476608276 1.1597106456756592 1.3737152814865112 0.60260164737701416 0.61783713102340698 0.65097242593765259 0.39162275195121765 -0.51406240463256836 0.20853188633918762 0.32689601182937622 -0.636604905128479 1.8167133331298828 1.2987124919891357 1.1717255115509033 -1.0825978517532349
  0.16063904762268066 -0.4375889003276825 0.25809183716773987 -1.4617644548416138 0.34072050452232361 -0.81201112270355225 0.33665803074836731 -0.72817093133926392 0.45630735158920288 0.086726181209087372 -1.0622148513793945 0.68382149934768677 -0.29116657376289368 0.58347070217132568 -1.2412631511688232 0.30236756801605225 0.87012439966201782 0.29771021008491516 0.72011923789978027 0.15702584385871887 -0.025255229324102402 0.39038440585136414 0.4213595986366272 0.13116338849067688 -0.6740649938583374 -1.0185950994491577 -0.33027297258377075 0.55369287729263306 -0.58075606822967529 0.83832544088363647 0.46660056710243225 -0.41493117809295654 0.94214224815368652 -1.1291871070861816 -0.38089612126350403 0.44536685943603516 -0.2561471164226532 -0.19622993469238281 -0.22800390422344208 0.67650812864303589 -0.27594953775405884
  0.027264935895800591 -0.56809449195861816 0.83641719818115234 0.24529010057449341 0.24425843358039856 0.40131577849388123 1.8434864282608032 -0.95453733205795288 0.10480298846960068 1.9091078042984009 0.26961681246757507 0.60848480463027954 -0.076814301311969757 0.67980420589447021 -0.012761835940182209 0.28239288926124573 -1.2064296007156372 -1.1362835168838501 -0.29118749499320984 -0.45025956630706787 1.8752331733703613 1.4878091812133789 -1.1858847141265869 2.2424097061157227 -0.16816608607769012 -1.8965826034545898 -1.6537806987762451 0.47913849353790283 2.137526273727417 -1.4202948808670044 -0.44292870163917542 -0.44064745306968689 -0.086808845400810242 -0.67826342582702637 1.64198899269104 0.56274235248565674 0.77467823028564453 -0.79015636444091797 -1.3706870079040527 -0.1224183514714241 -0.24388054013252258
  -0.3511548638343811 0.93986177444458008 0.99608683586120605 -0.83889394998550415 0.40063020586967468 0.23698954284191132 1.0706025362014771 -0.035339333117008209 -0.74314355850219727 -0.44010055065155029 -1.2196147441864014 -0.79190438985824585 0.39109790325164795 -0.57371062040328979 -0.38972055912017822 1.8112155199050903 -1.4538776874542236 -0.014513213187456131 0.51803940534591675 -0.6946183443069458 0.62735074758529663 1.7715905904769897 0.58023363351821899 -0.49096775054931641 0.26928877830505371 -0.95158612728118896 0.35264521837234497 -0.34474468231201172 2.4698390960693359 -1.4456057548522949 -0.18529269099235535 0.59155780076980591 -0.58928406238555908 -0.17121940851211548 -0.20427630841732025 -1.4355182647705078 -0.032695665955543518 -1.1821708679199219 -0.38435667753219604 -0.41303068399429321 0.82550889253616333
  -0.0059051611460745335 0.38255065679550171 -0.67944967746734619 -1.5818924903869629 1.3337899446487427 0.43554764986038208 1.5212301015853882 0.70891934633255005 -0.19503580033779144 -1.3516719341278076 -0.65928095579147339 -1.3723150491714478 0.25945886969566345 -0.97864508628845215 -0.75983655452728271 -0.16103737056255341 -0.32996541261672974 0.35061773657798767 -0.75445598363876343 0.94048607349395752 -0.3423517644405365 -0.57356494665145874 -1.3701068162918091 0.40333902835845947 -0.4199410080909729 0.42969062924385071 0.029700936749577522 0.4482748806476593 1.1360992193222046 -0.30317258834838867 1.1629244089126587 -0.33288958668708801 0.85514748096466064 0.045977670699357986 0.77426207065582275 0.4616774320602417 -0.92498642206192017 -0.054613150656223297 0.47211861610412598 0.063499666750431061 -0.11516948789358139
  0.099864743649959564 1.3833709955215454 -1.4146099090576172 -0.12726183235645294 0.66901665925979614 0.030905311927199364 0.806171715259552 1.436949610710144 0.36270704865455627 0.53867912292480469 -2.0270707607269287 -0.59355753660202026 0.85732823610305786 -0.98136430978775024 -0.23140133917331696 -0.14122603833675385 -0.36400783061981201 0.59598511457443237 -0.27814063429832458 1.5851016044616699 -1.7319856882095337 -0.72737276554107666 -1.5250287055969238 -0.30642828345298767 -0.32810458540916443 1.1468956470489502 1.2048554420471191 0.23556466400623322 0.68533247709274292 0.92007875442504883 1.7301714420318604 -0.33412626385688782 -0.009585048072040081 1.0325858592987061 -0.50158047676086426 0.65038591623306274 -0.36242508888244629 1.0215809345245361 -0.4869944155216217 0.13602498173713684 0.33587285876274109
  -0.82528203725814819 1.65654456615448 -0.63817578554153442 0.68718159198760986 0.84438693523406982 -0.17141805589199066 -0.025215882807970047 1.1947288513183594 1.4909236431121826 -1.6456235647201538 -0.81384128332138062 -0.424449622631073 0.45770832896232605 -0.34235608577728271 -1.9214818477630615 0.53658181428909302 0.99725663661956787 1.4081679582595825 -1.1521170139312744 -0.43839704990386963 1.8102294206619263 1.5350672006607056 1.3690361976623535 0.59248203039169312 0.22073353826999664 -0.50393915176391602 0.61926281452178955 -2.0865950584411621 -0.22546878457069397 0.71250081062316895 -1.7932379245758057 -0.35965678095817566 -0.67907851934432983 -1.3792706727981567 -0.23731087148189545 2.1783218383789062 0.34317460656166077 -0.33708524703979492 0.74525892734527588 0.73891758918762207 0.74332743883132935
  0.40926170349121094 0.35070914030075073 -0.064759030938148499 0.21766142547130585 -2.4285047054290771 -2.8293998241424561 1.7584981918334961 -1.4289792776107788 -1.2475662231445312 1.7782764434814453 -0.26022306084632874 0.53956812620162964 0.073749423027038574 1.2730227708816528 -0.25014182925224304 0.39150646328926086 1.0595961809158325 -0.55061405897140503 0.25069236755371094 -1.5633773803710938 0.75489604473114014 -0.55479007959365845 -1.4841912984848022 0.70689898729324341 0.41339683532714844 -0.2471771240234375 -0.97277814149856567 0.91361242532730103 2.0966453552246094 -1.5519121885299683 0.33084398508071899 0.1849963515996933 2.5194327831268311 -0.27753707766532898 1.243773341178894 -0.67106473445892334 2.4917838573455811 1.0566647052764893 -0.062169123440980911 0.39451724290847778 0.45249879360198975
  -0.88507312536239624 0.10839082300662994 1.3902536630630493 -1.8812648057937622 -0.47073367238044739 -1.0009963512420654 0.54374188184738159 -0.44710838794708252 -1.4174994230270386 0.35625988245010376 -0.19212925434112549 -0.57060378789901733 -1.1490025520324707 -0.46464702486991882 -0.54075956344604492 0.69085073471069336 -0.010837024077773094 0.053707793354988098 0.063841663300991058 -1.4663181304931641 1.3705424070358276 2.0333435535430908 1.7387993335723877 -0.8670419454574585 0.63736003637313843 0.38931542634963989 -0.28031367063522339 0.29059913754463196 1.7102100849151611 -1.960410475730896 -0.10284633934497833 1.5138134956359863 1.2814599275588989 -0.56432539224624634 -0.15214142203330994 -0.98133623600006104 0.83895301818847656 -1.0966750383377075 -0.26263552904129028 0.3268674910068512 0.45775395631790161
  1.2998031377792358 -0.39869576692581177 1.563564658164978 0.74818366765975952 -0.22112751007080078 -0.05686580017209053 0.52718609571456909 -0.72234255075454712 1.7609039545059204 0.80463343858718872 -1.0005671977996826 0.54060393571853638 0.847667396068573 -0.4213624894618988 -1.5120340585708618 -2.0385878086090088 -1.7662161588668823 -0.67039883136749268 0.77152794599533081 0.20475153625011444 -0.21995356678962708 0.83539927005767822 0.10578500479459763 0.63544154167175293 0.6217002272605896 1.3548883199691772 -1.0332188606262207 -0.28290319442749023 -0.0086356354877352715 2.1308460235595703 0.71886605024337769 0.90338414907455444 0.54801833629608154 0.54320663213729858 -0.62193381786346436 -0.62015658617019653 -2.0691490173339844 1.5039459466934204 2.3611125946044922 1.5851507186889648 -1.3448399305343628
  -0.43040218949317932 0.18444405496120453 1.1635770797729492 0.016144899651408195 -0.10762714594602585 -0.78066468238830566 -0.48555228114128113 -0.80674076080322266 1.1880406141281128 -0.55242973566055298 0.16389526426792145 -0.7864496111869812 0.5265960693359375 0.3680061399936676 -1.0484665632247925 0.028008552268147469 -0.42719435691833496 -0.49901914596557617 -0.10081768780946732 -0.39717704057693481 -1.0943113565444946 -0.54649621248245239 0.80171298980712891 -0.82481926679611206 -0.10837414860725403 -0.77896493673324585 -0.47951799631118774 -0.064891360700130463 -0.054571829736232758 0.79544591903686523 -0.50253725051879883 -0.14165790379047394 0.78311717510223389 -0.26361030340194702 -0.61501580476760864 0.64522981643676758 -0.10471877455711365 0.1707042008638382 -0.26700514554977417 -0.81283271312713623 0.61617887020111084
  1.0125945806503296 0.21306012570858002 -0.43571579456329346 0.69642108678817749 0.071561582386493683 0.16728456318378448 -1.1079695224761963 -0.153604656457901 1.0885909795761108 0.408750981092453 -1.497688889503479 -0.11292433738708496 2.1217679977416992 -0.15865947306156158 -0.4350268542766571 -0.67943525314331055 -0.15012793242931366 0.35921820998191833 -0.16492138803005219 -0.11427994817495346 0.81433123350143433 0.080585233867168427 0.43705078959465027 0.90893644094467163 -1.7817237377166748 1.2312870025634766 0.69213593006134033 0.54561138153076172 0.4803626537322998 0.6839754581451416 1.2094151973724365 0.25726917386054993 -0.64443159103393555 1.2408238649368286 -1.8290249109268188 0.834575355052948 -1.288413405418396 0.32814228534698486 2.1763722896575928 0.7574305534362793 -1.0932334661483765
  -1.7494634389877319 -0.75272512435913086 -0.5774955153465271 -0.19331169128417969 0.54589605331420898 0.46872237324714661 0.95046550035476685 0.056788463145494461 1.1064815521240234 0.0039134998805820942 -0.84913349151611328 -0.78412538766860962 0.096155501902103424 -0.093952514231204987 -0.81872415542602539 -0.29823678731918335 -0.29734760522842407 -0.19962619245052338 -0.42053285241127014 1.1000642776489258 -0.44091427326202393 0.40803909301757812 0.41276279091835022 -1.3632183074951172 -0.70116811990737915 0.69684773683547974 0.35516619682312012 0.6961815357208252 0.29506668448448181 0.08260510116815567 -0.58135873079299927 -0.22087457776069641 0.26643452048301697 -1.2714989185333252 -0.52600687742233276 0.13235549628734589 -1.2452689409255981 0.66539484262466431 0.35082951188087463 -0.2455449104309082 -0.41616785526275635
  -0.93408882617950439 -2.0123863220214844 0.89742940664291382 1.208518385887146 -0.24823270738124847 1.6760826110839844 1.1904219388961792 0.34033861756324768 0.57065665721893311 -0.10403639078140259 2.0222532749176025 -0.55527389049530029 0.27086326479911804 -0.59395164251327515 1.5780773162841797 0.31669765710830688 -0.27344325184822083 0.55192762613296509 0.36712196469306946 1.1443226337432861 -0.7584959864616394 -0.21236668527126312 0.52050644159317017 -0.10651650279760361 1.0280760526657104 -1.5290254354476929 -1.6486175060272217 0.8215298056602478 -0.34776270389556885 -0.39279559254646301 0.21539375185966492 -0.62611132860183716 1.4339089393615723 0.55014175176620483 -0.57884758710861206 0.70418208837509155 -0.70454692840576172 -1.1400518417358398 -0.48791772127151489 -2.267533540725708 -0.020194109529256821
  -0.27652895450592041 -0.72090685367584229 1.1686232089996338 0.82898855209350586 -0.54477417469024658 0.44799894094467163 0.59944057464599609 0.21385987102985382 0.71179103851318359 -0.32448586821556091 0.64436709880828857 -0.22784188389778137 0.57554489374160767 -0.24026709794998169 1.3452498912811279 0.81707078218460083 -0.15938325226306915 0.80072188377380371 0.18956027925014496 0.49702522158622742 -1.2056443691253662 0.2086227685213089 0.52406364679336548 0.90449619293212891 0.1866753101348877 -0.13884833455085754 -1.0528370141983032 -0.0036807986907660961 -0.32357397675514221 -0.43339565396308899 0.39280104637145996 0.12845662236213684 0.82762521505355835 0.20357765257358551 -0.75178158283233643 0.45942792296409607 -0.20024074614048004 -0.1425887793302536 -0.12500038743019104 -1.5730358362197876 0.53151100873947144
  -0.1647590696811676 0.77395367622375488 1.4004292488098145 0.89373308420181274 0.61468899250030518 -0.56663554906845093 -0.22362242639064789 -0.63739305734634399 -0.79808580875396729 0.17915622889995575 -0.7999538779258728 -0.38985699415206909 -0.066556870937347412 0.11450614780187607 0.063040181994438171 -0.65414053201675415 -0.74683499336242676 -0.49234458804130554 0.17341840267181396 -0.74931460618972778 0.17178353667259216 1.0798075199127197 -0.43351578712463379 -0.166434645652771 0.63463687896728516 -1.1667368412017822 -0.88317078351974487 -0.99031358957290649 -0.83096408843994141 -0.83081459999084473 -0.22245769202709198 0.81941699981689453 0.3627065122127533 -0.99863141775131226 -0.42064735293388367 -1.2016623020172119 -0.047521680593490601 1.4009265899658203 0.16874046623706818 0.6943395733833313 0.88404339551925659
  -0.75676232576370239 -0.37568303942680359 -0.25079211592674255 -0.80966335535049438 -0.32532224059104919 -0.16933095455169678 -0.67425906658172607 0.37879589200019836 -0.39188310503959656 0.076599806547164917 -0.32753530144691467 -0.089951314032077789 0.23926162719726562 0.52290523052215576 0.057411663234233856 0.88762795925140381 -1.0211206674575806 0.6201748251914978 -0.5101129412651062 -0.3992755115032196 1.0781127214431763 0.83998417854309082 0.96186304092407227 -1.009857177734375 -0.59166771173477173 -0.4757879376411438 0.64642316102981567 -0.29916426539421082 0.62827277183532715 -0.87598544359207153 -0.051820352673530579 -0.0028921002522110939 0.35840710997581482 -1.0680686235427856 0.87080198526382446 -0.58563703298568726 0.34083026647567749 -1.1649293899536133 -0.0094452714547514915 -0.55766046047210693 0.22072534263134003
  0.6334037184715271 -0.32621082663536072 -1.4928394556045532 -0.23499795794487 -0.37613281607627869 1.2717986106872559 -0.12727169692516327 -0.90366154909133911 -0.33245831727981567 1.0557825565338135 0.44936093688011169 -0.3621581494808197 -0.49595749378204346 -0.65483254194259644 -0.33448725938796997 -0.57651519775390625 1.3751726150512695 -0.33285161852836609 0.26095372438430786 -0.75160408020019531 1.514225959777832 -1.3840073347091675 -2.0942234992980957 -0.33893090486526489 -0.13166080415248871 0.81128823757171631 0.44067168235778809 -1.1830058097839355 -0.71740472316741943 -0.10425511002540588 -0.50978130102157593 -0.3782230019569397 0.23887728154659271 -0.31742048263549805 -0.78597402572631836 -0.33299204707145691 -1.5507358312606812 0.88847082853317261 -1.4080899953842163 -0.36666861176490784 1.0481470823287964
  0.43086439371109009 1.4911156892776489 -1.2112883329391479 1.2215993404388428 0.80384707450866699 0.93115156888961792 -0.22173860669136047 -0.19049127399921417 1.0096509456634521 0.30745053291320801 -0.099365510046482086 -0.090711355209350586 0.79299342632293701 1.117786169052124 0.34179314970970154 0.77106201648712158 -0.47434386610984802 -0.68701225519180298 1.0961524248123169 -0.59011179208755493 -0.20938035845756531 0.18073181807994843 -0.49988824129104614 -1.3860881328582764 1.2280964851379395 -0.12671764194965363 -0.69234395027160645 0.094438701868057251 0.45919203758239746 0.1131502240896225 -0.48148703575134277 -1.0006166696548462 0.75917404890060425 0.053856305778026581 -0.41774603724479675 -0.13836744427680969 -0.60737836360931396 -1.0789245367050171 1.3076541423797607 0.9449923038482666 0.36344864964485168
  -0.19117377698421478 1.4811297655105591 0.84257048368453979 0.10159744322299957 -0.25406739115715027 0.51247906684875488 -0.84918671846389771 -0.25329932570457458 0.32977646589279175 -0.90856742858886719 0.046798810362815857 0.31299206614494324 -0.083412826061248779 -0.58606517314910889 0.39492243528366089 1.4349828958511353 0.048404354602098465 -0.44203141331672668 -0.45622959733009338 0.2677001953125 -0.35621607303619385 0.29956895112991333 -0.076705954968929291 0.36636537313461304 -0.31818154454231262 -0.11190552264451981 0.72285032272338867 1.0402940511703491 0.74418342113494873 -0.38886475563049316 -0.35967046022415161 -0.67213481664657593 -0.52287507057189941 -1.2908890247344971 0.15286807715892792 -0.16839933395385742 -0.62636274099349976 -1.4930224418640137 0.67900902032852173 0.60399925708770752 -0.82990092039108276
  0.28563892841339111 -1.0193238258361816 0.27911779284477234 0.57056224346160889 1.2026594877243042 -1.1028779745101929 -1.5022192001342773 2.6092565059661865 -0.68360239267349243 0.70090681314468384 0.85579550266265869 0.38639557361602783 -0.45969459414482117 -0.010865036398172379 0.081901654601097107 1.0551822185516357 -0.36632165312767029 0.71091282367706299 0.26137542724609375 0.33237931132316589 0.25144582986831665 1.9647876024246216 2.1057772636413574 0.20602709054946899 -0.71989625692367554 -1.2985595464706421 -0.26314911246299744 0.15393760800361633 -2.2113051414489746 2.1758308410644531 -1.2243691682815552 -0.20037095248699188 -0.57351303100585938 -0.12250446528196335 -0.53493672609329224 -0.058565672487020493 0.52947431802749634 0.43358874320983887 -0.5772584080696106 -0.16755408048629761 0.40703341364860535
  0.44211512804031372 -0.33195742964744568 -1.516048789024353 -0.60617828369140625 1.0162497758865356 -1.4376848936080933 0.43429309129714966 2.5981602668762207 2.3504619598388672 1.3215498924255371 -0.12974503636360168 0.59972155094146729 1.242943286895752 0.43776470422744751 -0.47042715549468994 1.8553735017776489 0.039580896496772766 1.3528757095336914 -0.1987893283367157 -0.45011702179908752 1.7498401403427124 2.1969141960144043 2.3610949516296387 0.0071097575128078461 -1.3075916767120361 -0.71295899152755737 0.79224801063537598 -0.54195660352706909 0.99310225248336792 0.54196435213088989 -2.2363917827606201 -0.30448925495147705 -0.75596100091934204 -0.47147449851036072 -1.1162195205688477 2.7217404842376709 1.5577466487884521 -0.98939788341522217 -0.62304317951202393 -0.96432089805603027 -0.47569039463996887
  0.084176167845726013 -1.1553306579589844 1.5582218170166016 0.13292114436626434 0.75281602144241333 -0.16778495907783508 -0.92932462692260742 -3.1660048961639404 0.10463280975818634 0.21230925619602203 1.1150268316268921 -2.2826921939849854 -0.75198239088058472 -0.9017486572265625 2.4039807319641113 -2.156773567199707 -2.1982970237731934 0.40928152203559875 0.96194124221801758 -2.6823873519897461 -0.12214416265487671 -2.0954701900482178 -1.2261271476745605 -1.2203301191329956 0.18445481359958649 0.90343451499938965 1.0486823320388794 0.80804461240768433 -0.70813286304473877 -0.81759142875671387 0.58326447010040283 -1.748383641242981 -0.8933061957359314 1.2800663709640503 2.9598848819732666 -0.85610467195510864 -0.59478741884231567 -0.29475396871566772 -0.30928421020507812 -0.3090880811214447 -1.3487794399261475
  0.62814277410507202 -0.24068053066730499 0.15511979162693024 0.87123090028762817 0.19099462032318115 1.1802592277526855 0.63413339853286743 -2.4942429065704346 -0.85737138986587524 0.50553256273269653 1.3785219192504883 -0.52134484052658081 -1.4125349521636963 -1.6246857643127441 0.35099977254867554 -1.2817661762237549 -0.49328252673149109 0.39514654874801636 1.8170833587646484 -0.85165458917617798 0.41563349962234497 -0.52326697111129761 -2.0264010429382324 -0.88109207153320312 0.23330861330032349 2.4692091941833496 -0.81592422723770142 -1.6745032072067261 -0.94888848066329956 -0.52220851182937622 -0.24215079843997955 -2.0667903423309326 -0.6212848424911499 0.47293627262115479 0.50495558977127075 -2.0870604515075684 -2.5919899940490723 -0.53711485862731934 -1.3805516958236694 -0.35597753524780273 -0.30646508932113647
  0.60745280981063843 -0.9751097559928894 0.52232235670089722 -0.08007456362247467 0.20253454148769379 0.84441691637039185 -0.10100005567073822 -3.341050386428833 -0.03589336946606636 0.28359672427177429 1.5472351312637329 -1.2673633098602295 -0.97883564233779907 -0.94505763053894043 0.92089802026748657 -1.5230283737182617 -0.71991938352584839 0.23034107685089111 0.61057412624359131 -2.0141768455505371 1.4966858625411987 -1.1355141401290894 -1.5175234079360962 -0.63785159587860107 0.021419113501906395 1.3649733066558838 0.11889100074768066 -1.5325080156326294 -0.83071047067642212 -0.78874576091766357 0.88847529888153076 -1.675350546836853 -0.72918504476547241 0.85143232345581055 0.57135558128356934 -1.2248783111572266 -2.0994446277618408 1.04590904712677 -1.1797271966934204 -0.051226381212472916 -2.0423040390014648
  0.081893421709537506 1.2335942983627319 0.27835476398468018 0.091930754482746124 0.98070305585861206 -1.66443932056427 -0.64510488510131836 0.053690887987613678 -0.81395912170410156 1.3228369951248169 -0.3005777895450592 0.093550920486450195 0.042313013225793839 0.035727623850107193 0.3054196834564209 -0.258564293384552 1.7216008901596069 -0.43240281939506531 -0.12805427610874176 -1.1985939741134644 0.55897200107574463 1.0684484243392944 -0.31176567077636719 0.39437103271484375 0.10204368084669113 -0.72330224514007568 1.4708443880081177 -0.56940943002700806 -1.2532069683074951 -1.9521446228027344 -1.1532567739486694 0.73025840520858765 0.15665608644485474 -1.3030816316604614 0.38454276323318481 -0.40180903673171997 0.78765904903411865 1.1038289070129395 -0.15386973321437836 0.18390794098377228 1.7273832559585571
  0.74766701459884644 -1.1960773468017578 -0.52558767795562744 0.3467317521572113 0.79636609554290771 -1.6517871618270874 -0.28889259696006775 1.7316746711730957 -1.3255140781402588 -0.32558146119117737 -0.14753198623657227 -0.52948474884033203 -0.98448038101196289 -0.38600030541419983 0.35579985380172729 -0.094318173825740814 1.5358556509017944 0.15689098834991455 -1.3688133955001831 -0.95700430870056152 0.053315639495849609 0.72435837984085083 0.16658258438110352 -0.31391528248786926 0.25086930394172668 -0.10220691561698914 0.011599862948060036 -0.468313068151474 -1.3847930431365967 2.2956199645996094 0.16479609906673431 0.81745892763137817 0.40528714656829834 -0.71717876195907593 -0.64108872413635254 -0.54253047704696655 2.1962335109710693 0.57513278722763062 -0.93149149417877197 0.89705175161361694 0.67869114875793457
  1.6423771381378174 -1.6278285980224609 0.26114165782928467 -0.19279249012470245 -0.10870407521724701 0.61808758974075317 -0.57950329780578613 1.0809372663497925 0.1570066511631012 -0.43216180801391602 1.137906551361084 0.033483237028121948 -1.8556088209152222 -0.44318830966949463 -0.47734981775283813 0.60086971521377563 -0.071251265704631805 0.040902387350797653 -1.4791347980499268 0.92240971326828003 -0.30951830744743347 -1.1998260021209717 -0.26892277598381042 0.52342921495437622 0.68886661529541016 0.97136187553405762 -1.0638878345489502 0.67726224660873413 -0.90210545063018799 0.38109084963798523 1.4109970331192017 0.26743113994598389 1.1708717346191406 -0.019845722243189812 -0.35726037621498108 0.55183506011962891 -0.015095890499651432 -0.53187054395675659 -1.3874779939651489 -0.53449583053588867 -0.22132444381713867
  0.92831826210021973 -0.77097052335739136 0.10695333778858185 1.5426696538925171 -0.26827210187911987 -0.81830728054046631 -0.13149991631507874 2.0604648590087891 0.74321866035461426 -0.39490914344787598 0.72685885429382324 0.57693445682525635 -0.64344453811645508 0.17557381093502045 -0.16835768520832062 0.51931554079055786 -1.0751330852508545 1.7983736991882324 -0.47737956047058105 0.71258080005645752 -1.0168555974960327 -1.5717753171920776 -0.5113677978515625 -0.40561726689338684 0.85186231136322021 1.0346134901046753 -0.70307749509811401 0.85174161195755005 0.2666967511177063 0.99264299869537354 1.6885207891464233 -0.49072897434234619 -0.18000754714012146 0.66045999526977539 -0.59230154752731323 0.029467495158314705 0.07728905975818634 -0.26058322191238403 -0.1616021990776062 -0.99188947677612305 -0.24450179934501648
  0.51962238550186157 0.49285426735877991 0.028499750420451164 0.91985738277435303 0.011787071824073792 1.4862668514251709 0.065426580607891083 0.27193659543991089 -0.35678884387016296 0.2982393205165863 0.26852443814277649 1.0236537456512451 -0.32625049352645874 -0.34604167938232422 0.16783326864242554 -0.28504735231399536 0.20608890056610107 -0.14801964163780212 1.1752833127975464 0.9161149263381958 -0.57680147886276245 1.345859169960022 1.0419670343399048 0.13893558084964752 -0.65617865324020386 -0.69368213415145874 -1.3604027032852173 -0.60917168855667114 -0.205057293176651 0.11156153678894043 -0.37826123833656311 -0.16412298381328583 -0.35463809967041016 1.1266798973083496 -1.1212388277053833 -0.33134958148002625 -1.2333685159683228 0.10735513269901276 0.41953998804092407 -0.28532645106315613 -0.7993500828742981
  -1.5014265775680542 1.6781147718429565 -0.073005631566047668 -0.58186882734298706 0.37512114644050598 0.87612640857696533 0.020679870620369911 -1.3937162160873413 -0.77704471349716187 0.012335547246038914 -0.99909770488739014 -1.0334980487823486 -0.3206939697265625 -0.88195860385894775 1.4135094881057739 0.30881068110466003 -0.37799486517906189 -1.0164754390716553 -0.27982285618782043 1.8335649967193604 -0.09232824295759201 0.63145333528518677 -0.55611050128936768 0.67341244220733643 0.39020466804504395 -0.61860740184783936 0.49831065535545349 1.1071046590805054 0.43524685502052307 -0.0076765497215092182 2.0751206874847412 -0.34187725186347961 -0.44498568773269653 -0.49791780114173889 0.058690764009952545 0.72328299283981323 -1.4748243093490601 -0.27454876899719238 -0.93289756774902344 0.33897683024406433 0.3414415717124939
  0.32561084628105164 -1.1240795850753784 -0.65821975469589233 1.1536160707473755 -0.59631931781768799 -0.74468201398849487 -0.20527869462966919 1.0381900072097778 -0.2416691780090332 -2.3352112770080566 -0.53033781051635742 0.99767357110977173 -1.9082531929016113 0.048879697918891907 0.38368856906890869 -0.28167009353637695 2.8723165988922119 0.051461033523082733 -0.88166350126266479 -1.2480096817016602 0.77442705631256104 0.27036944031715393 0.10155734419822693 -0.39148536324501038 -0.0002434910275042057 -0.56690192222595215 -0.59381890296936035 -2.1729056835174561 -1.9710187911987305 3.0175111293792725 -1.0291284322738647 -0.41255682706832886 -0.62509727478027344 -0.48210695385932922 0.66658264398574829 -0.39869740605354309 0.71192604303359985 0.62574136257171631 2.1803383827209473 1.2246946096420288 1.103495717048645 ]
 [ -0.49865472316741943 -0.31119370460510254 1.7484159469604492 0.54560810327529907 -0.44853147864341736 -0.15740369260311127 0.64110696315765381 -0.77341562509536743 0.45810034871101379 -0.01924472488462925 0.029632937163114548 -0.045100584626197815 -0.060632716864347458 -0.0038239257410168648 -0.14443603157997131 0.58758944272994995 0.58055794239044189 1.1579786539077759 0.21982598304748535 -1.4305238723754883 -0.03444136306643486 -0.69643372297286987 -0.13838496804237366 -0.16512171924114227 0.45904245972633362 0.12937426567077637 0.08307204395532608 -0.12094953656196594 0.63138395547866821 0.0085097774863243103 0.55372273921966553 0.031470797955989838 -1.7115910053253174 -0.56986206769943237 -0.6714361310005188 -0.5028647780418396 0.016372442245483398 -0.54633694887161255 -0.16183538734912872 0.3425331711769104 0.68076974153518677 0.30713546276092529 ]
<softmax> 42 42
</Nnet>
