<Nnet>
<input> 60 60
<affinetransform> 41 60
 [ 
  -1.8252089023590088 0.28457576036453247 1.1175696849822998 0.93897205591201782 -0.40578591823577881 -0.61033844947814941 -0.15582180023193359 0.47756177186965942 -0.070963948965072632 -0.1537310779094696 0.063630275428295135 0.30197641253471375 0.3096449077129364 -0.16147935390472412 -0.018835842609405518 0.27573460340499878 -0.020391771569848061 -0.25711676478385925 -0.3254619836807251 0.14101256430149078 0.24925531446933746 0.11724577844142914 0.087507687509059906 -0.00035167971509508789 0.56724804639816284 -0.29938673973083496 -0.31617823243141174 0.086958244442939758 0.078952163457870483 -0.16380251944065094 -0.21728508174419403 -0.080004125833511353 0.22032581269741058 0.18678882718086243 0.10334452241659164 0.0090161338448524475 0.19093509018421173 -0.12554900348186493 -0.38003802299499512 -0.31111049652099609 0.12085036188364029 0.020916605368256569 -0.041497360914945602 -0.18490232527256012 0.10683145374059677 0.1750369668006897 0.063533201813697815 -0.049904361367225647 -0.037521850317716599 -0.12484820187091827 -0.60363477468490601 -1.0306634902954102 0.23583680391311646 0.65442448854446411 0.3086848258972168 -0.18685451149940491 -0.010054545477032661 0.17351678013801575 0.044451102614402771 -0.047484636306762695
  0.75744062662124634 -0.049567446112632751 -0.56547737121582031 -0.40458002686500549 0.16126881539821625 0.1596238911151886 0.056848075240850449 -0.12440373748540878 0.074233405292034149 0.15888655185699463 -0.029755448922514915 -0.18736688792705536 -0.70233345031738281 -0.087277315557003021 0.55849611759185791 0.056502837687730789 -0.44236576557159424 -0.26456096768379211 0.064973533153533936 0.10737040638923645 -0.021515779197216034 -0.1271207332611084 0.071064852178096771 0.25003084540367126 -0.17320659756660461 -0.49312889575958252 0.35550716519355774 0.26358184218406677 -0.52551674842834473 -0.42643094062805176 -0.16368235647678375 0.22489586472511292 0.15283660590648651 0.02580944262444973 0.086265102028846741 0.21368846297264099 0.59240120649337769 -0.32938241958618164 -0.020517801865935326 0.42438054084777832 -0.018490122631192207 -0.29982152581214905 -0.17264473438262939 0.17254944145679474 0.14250154793262482 0.074865885078907013 -0.039562765508890152 0.027654737234115601 0.8319430947303772 -0.24516020715236664 -0.89817589521408081 -0.41887322068214417 0.65901291370391846 0.5110582709312439 -0.072723940014839172 -0.14470160007476807 0.057914592325687408 0.10136296600103378 0.057778600603342056 -0.26248213648796082
  -0.14200417697429657 0.47753053903579712 1.0005098581314087 -0.058550253510475159 -0.64024680852890015 -0.1590735912322998 -0.06554112583398819 -0.35156828165054321 -0.38265746831893921 -0.013126029632985592 0.066995903849601746 0.27424207329750061 -0.56947356462478638 0.29516145586967468 0.1604076474905014 -0.22974893450737 -0.22857990860939026 0.046493206173181534 -0.098716109991073608 -0.19119155406951904 -0.096688739955425262 -0.026073828339576721 0.22539892792701721 0.1518322080373764 -0.086490213871002197 0.41650515794754028 0.28512150049209595 -0.024358605965971947 -0.020521504804491997 0.048280775547027588 -0.10564893484115601 -0.14109572768211365 -0.054869234561920166 0.032322075217962265 0.1516994833946228 0.11888775229454041 -0.1320464164018631 0.27389386296272278 0.11047601699829102 0.14682795107364655 0.035514820367097855 -0.064413011074066162 -0.10196852684020996 -0.0010723341256380081 -0.095438390970230103 -0.046885270625352859 0.036919202655553818 0.034451760351657867 -0.1028938964009285 -0.1848040372133255 -0.12441869825124741 0.053343679755926132 -0.13901844620704651 0.035597275942564011 0.083801977336406708 -0.074686750769615173 -0.19165061414241791 -0.12123089283704758 -0.040588703006505966 0.17756891250610352
  0.81501895189285278 0.16943857073783875 -0.44817715883255005 0.26264175772666931 -0.10601664334535599 -0.039490897208452225 -0.095282271504402161 0.09730028361082077 -0.038147006183862686 -0.026374170556664467 -0.12184941023588181 -0.11131854355335236 0.28215888142585754 0.11598076671361923 -0.1361287385225296 0.16631312668323517 0.43222570419311523 0.20242290198802948 -0.14748725295066833 -0.1312391459941864 0.023445701226592064 -0.0029003366362303495 -0.097489915788173676 -0.1109759584069252 0.10902468860149384 0.10586725175380707 -0.41831865906715393 0.12456510961055756 0.61823725700378418 0.25307545065879822 -0.20516164600849152 -0.15354533493518829 0.076964050531387329 0.059392128139734268 -0.049557387828826904 -0.022693425416946411 0.23494113981723785 0.14465820789337158 -0.2114206999540329 0.12715816497802734 0.3845822811126709 0.12154441326856613 -0.062754370272159576 -0.079955980181694031 0.043455041944980621 0.013908088207244873 -0.055350601673126221 0.043781626969575882 -0.64278513193130493 -0.094069018959999084 0.33789762854576111 -0.46013328433036804 -0.21358942985534668 0.2666955292224884 0.18460418283939362 -0.10010792315006256 0.030581479892134666 0.032855961471796036 -0.054403580725193024 -0.0067881164140999317
  0.2569584846496582 -0.2413913905620575 0.21813395619392395 -0.11781156063079834 -0.079566486179828644 -0.04974336177110672 0.075077801942825317 0.04335460439324379 0.13723777234554291 -0.1322706937789917 -0.032803613692522049 0.028957527130842209 -0.80860978364944458 0.15642701089382172 0.35987371206283569 -0.16706299781799316 -0.0040925322100520134 0.085923686623573303 0.15979044139385223 -0.054840132594108582 0.094080366194248199 -0.13748131692409515 -0.076024919748306274 0.16134260594844818 -0.43878522515296936 0.37283983826637268 0.46071812510490417 -0.21236962080001831 0.13976395130157471 0.031357727944850922 0.034050650894641876 -0.083953574299812317 0.17408592998981476 -0.14222477376461029 -0.15214875340461731 0.1044013649225235 0.015038230456411839 0.027286328375339508 0.16366374492645264 -0.1905476450920105 0.19505636394023895 0.059563502669334412 -0.090560853481292725 -0.075402379035949707 0.15631559491157532 -0.03672858327627182 -0.070730030536651611 0.035545267164707184 -0.21149513125419617 0.26861605048179626 0.41060572862625122 -0.072798140347003937 -0.2421109527349472 -0.23408307135105133 -0.062311634421348572 0.12508253753185272 0.11732885986566544 -0.11854557693004608 0.059381861239671707 0.068339884281158447
  -0.13135766983032227 -0.1282726526260376 0.43157032132148743 -0.55111658573150635 0.029116017743945122 -0.11969614773988724 -0.11287742853164673 -0.060755670070648193 0.016832776367664337 -0.29342415928840637 0.069802448153495789 -0.27804097533226013 0.96330279111862183 0.36465173959732056 0.37671869993209839 0.063358038663864136 -0.12996439635753632 -0.13720099627971649 -0.045232951641082764 -0.13272063434123993 -0.0035593537613749504 -0.14965848624706268 0.036262072622776031 -0.24943648278713226 0.93204474449157715 -0.34271654486656189 0.2086397260427475 0.09488329291343689 -0.36305812001228333 -0.04446684941649437 0.045499011874198914 -0.16181086003780365 0.11791949719190598 -0.073397897183895111 0.11416827887296677 -0.17630936205387115 1.2763535976409912 0.3239942193031311 0.1814257800579071 0.4162362813949585 -0.21435061097145081 -0.03280351310968399 0.041326992213726044 -0.16796226799488068 0.052629116922616959 -0.0038272764068096876 -0.089969843626022339 -0.072164557874202728 -2.2606296539306641 -0.16357035934925079 -0.58717536926269531 0.11523819714784622 0.31211006641387939 0.14664170145988464 0.18225736916065216 0.23202522099018097 -0.038770940154790878 0.2833084762096405 -0.23573289811611176 0.36750340461730957
  -1.0056962966918945 0.28149920701980591 0.70517712831497192 -0.70798987150192261 -0.3993326723575592 0.26415422558784485 0.45746052265167236 -0.050290271639823914 0.024481873959302902 -0.003036250127479434 -0.22067147493362427 -0.20229634642601013 -0.16608983278274536 0.35049492120742798 0.29070162773132324 -0.37221252918243408 -0.36958858370780945 0.10332930833101273 0.23382984101772308 0.00018050111248157918 0.060406040400266647 0.028601471334695816 -0.085468225181102753 -0.1428324282169342 -0.16017419099807739 0.21855314075946808 0.25194686651229858 -0.33594352006912231 -0.23727811872959137 0.14349241554737091 0.081112578511238098 0.03016282431781292 0.065130375325679779 -0.037742920219898224 -0.035261251032352448 -0.047246053814888 0.08740060031414032 0.22793960571289062 0.12425808608531952 -0.07370033860206604 -0.089544646441936493 0.016222625970840454 0.050677888095378876 0.038022745400667191 -0.020201604813337326 -0.06559530645608902 0.0091800251975655556 0.057566739618778229 0.41141518950462341 0.41263553500175476 -0.35121658444404602 0.32336249947547913 0.20308540761470795 0.10952126234769821 -0.048741776496171951 -0.059305347502231598 -0.12125884741544724 -0.087985366582870483 0.049896400421857834 0.21900981664657593
  -2.81447434425354 1.296918511390686 -0.25313571095466614 -0.10675486177206039 -0.07107524573802948 -0.18572202324867249 -0.034318581223487854 0.14219604432582855 0.068638630211353302 -0.12003772705793381 0.010516775771975517 -0.12304648011922836 -0.13838037848472595 0.16065381467342377 -0.070793591439723969 0.037353280931711197 -0.05811290442943573 -0.15408481657505035 0.027719993144273758 0.044186308979988098 0.047486942261457443 -0.030888326466083527 0.0073389951139688492 -0.034926187247037888 0.21671830117702484 0.060096327215433121 -0.23085340857505798 0.14617873728275299 -0.072689473628997803 -0.080995939671993256 -0.042397961020469666 0.026791425421833992 0.00071220746031031013 0.058021269738674164 0.05587298795580864 0.028095316141843796 0.29772484302520752 -0.015258447267115116 -0.12095348536968231 0.10178717225790024 -0.042562916874885559 0.11255032569169998 -0.048906587064266205 0.026557745411992073 -0.010319322347640991 0.038892306387424469 0.043269824236631393 0.00070105248596519232 0.47135615348815918 -0.20029863715171814 0.032393474131822586 0.11546972393989563 0.15299578011035919 0.097741767764091492 0.010690166614949703 0.038430918008089066 -0.038807190954685211 0.07834295928478241 -0.039378579705953598 0.16743999719619751
  0.21494658291339874 0.29438924789428711 0.12060291320085526 0.1847512423992157 0.10546299815177917 0.12100618332624435 0.13243582844734192 0.0059025967493653297 -0.11297942698001862 0.023882174864411354 0.0052016256377100945 0.021080933511257172 0.66131538152694702 -0.47648778557777405 -0.20803156495094299 0.16520833969116211 -0.10052511841058731 0.060744635760784149 0.072439149022102356 -0.22567155957221985 0.095157206058502197 -0.0065215090289711952 -0.053821131587028503 -0.082150273025035858 0.75198781490325928 -0.45545035600662231 -0.18993109464645386 0.17200720310211182 -0.030507618561387062 0.0090583385899662971 0.053429499268531799 -0.30478614568710327 0.017459651455283165 -0.02792862243950367 -0.14929629862308502 -0.093080505728721619 0.34418877959251404 -0.34359902143478394 -0.039127863943576813 0.17226342856884003 0.035568587481975555 -0.037234198302030563 0.020078865811228752 -0.23850288987159729 -0.035426564514636993 -0.10592629015445709 -0.19937127828598022 -0.029841059818863869 0.28947213292121887 0.25779497623443604 0.24182192981243134 -0.065087877213954926 0.19291283190250397 0.11800286173820496 -0.008650531992316246 -0.093283869326114655 -0.17752997577190399 -0.15559267997741699 -0.24034661054611206 -0.16915088891983032
  -0.0036997790448367596 -0.53626036643981934 -0.31617358326911926 -0.50798547267913818 -0.33418530225753784 -0.061763841658830643 0.11853192746639252 0.13661317527294159 -0.022413583472371101 0.12752175331115723 0.18241161108016968 0.012505142018198967 -0.20644785463809967 -0.14135321974754333 -0.063941150903701782 -0.13702110946178436 -0.14365892112255096 0.094716541469097137 0.37939876317977905 0.033911090344190598 -0.071714214980602264 0.037867143750190735 0.042676892131567001 0.044496640563011169 -0.50744390487670898 -0.274015873670578 -0.18680760264396667 -0.16748437285423279 -0.042093988507986069 0.062004253268241882 0.41654959321022034 0.13381743431091309 0.010567178949713707 -0.0016303316224366426 -0.0088342577219009399 0.053601939231157303 0.19568817317485809 -0.22154170274734497 -0.021854456514120102 -0.0039852466434240341 -0.13720154762268066 -0.013894851319491863 0.24311406910419464 0.14892718195915222 0.0015360061079263687 -0.070418484508991241 0.070628635585308075 0.13487470149993896 -0.44856277108192444 -0.11953803151845932 -0.7473340630531311 -0.082968965172767639 0.074813902378082275 0.27604126930236816 0.24461954832077026 0.37649697065353394 -0.11014743149280548 -0.064495734870433807 0.15143762528896332 0.11654612421989441
  1.1725149154663086 -0.99709701538085938 -1.4824748039245605 0.12547898292541504 0.50423437356948853 -0.075648009777069092 0.26988920569419861 0.39352211356163025 0.43915155529975891 -0.11358842998743057 -0.29283967614173889 -0.26244249939918518 0.21163567900657654 -0.15519927442073822 -0.27786242961883545 -0.24072177708148956 0.039794191718101501 -0.15566268563270569 0.080135434865951538 0.13022266328334808 0.03804333508014679 -0.013091991655528545 0.041629727929830551 -0.025932431221008301 -0.0038640347775071859 0.16826361417770386 0.19133198261260986 -0.10116644948720932 -0.12112066149711609 -0.059376612305641174 0.016872663050889969 -0.036055710166692734 -0.0047665620222687721 0.042898040264844894 0.096915952861309052 0.091862261295318604 -0.25542989373207092 0.31945717334747314 0.55291920900344849 0.0444522425532341 -0.096528761088848114 0.0011499654501676559 -0.14240279793739319 -0.11862541735172272 -0.053987309336662292 -0.012100750580430031 0.051455620676279068 0.086267232894897461 -0.83752167224884033 0.55673885345458984 0.92745423316955566 0.099510639905929565 -0.27670234441757202 0.046420775353908539 -0.1301494687795639 -0.20345132052898407 -0.25183451175689697 -0.056148089468479156 0.13463966548442841 0.16008524596691132
  0.10512988269329071 -0.31318962574005127 -0.61845135688781738 -0.41104158759117126 0.19408781826496124 0.44991776347160339 -0.028625791892409325 -0.047887552529573441 -0.15192732214927673 -0.089940845966339111 0.15872159600257874 0.071744166314601898 -0.19826707243919373 0.19729810953140259 0.028270594775676727 -0.27719417214393616 0.24845239520072937 0.070402055978775024 -0.068118035793304443 -0.12053836137056351 -0.14018218219280243 0.013096838258206844 0.22929668426513672 0.03381110355257988 0.39449894428253174 0.48365569114685059 0.49969437718391418 0.091370396316051483 0.30338963866233826 -0.11789000034332275 -0.21093367040157318 -0.27307999134063721 0.0092391707003116608 0.1409575343132019 0.12320181727409363 -0.10611579567193985 0.49109327793121338 0.22199299931526184 0.37576153874397278 0.26769056916236877 0.26991209387779236 -0.08367583155632019 -0.14436639845371246 -0.28501838445663452 0.099613264203071594 0.13432586193084717 0.097907520830631256 -0.14644345641136169 0.47900688648223877 -0.72136235237121582 -0.36634284257888794 0.20713759958744049 0.47245872020721436 -0.12394902855157852 -0.1078813374042511 -0.20537643134593964 0.26391085982322693 0.097584649920463562 -0.16480903327465057 -0.24141281843185425
  -0.90753549337387085 -0.38796350359916687 -0.44015547633171082 -0.90777313709259033 0.3332240879535675 -0.11364620923995972 -0.031449094414710999 0.91337811946868896 0.3323768675327301 -0.23205274343490601 0.20326577126979828 -0.11681132763624191 0.33545008301734924 0.1547703742980957 -0.058579146862030029 -0.14735126495361328 -0.14856928586959839 0.050305332988500595 0.070427894592285156 0.060731168836355209 0.024537364020943642 -0.036464031785726547 0.026963053271174431 0.086618460714817047 0.28202393651008606 0.45162197947502136 0.44099360704421997 0.19324721395969391 -0.29585742950439453 0.0067663230001926422 0.11414725333452225 -0.22025330364704132 -0.079400278627872467 0.01171027310192585 -0.0053273146040737629 0.10069185495376587 0.07302846759557724 0.36172696948051453 0.33544623851776123 0.50417321920394897 -0.19373331964015961 -0.00017830560682341456 0.14377863705158234 -0.43098017573356628 -0.097603119909763336 0.12324059754610062 -0.04414178803563118 0.12396202981472015 0.24041177332401276 -0.61849641799926758 -0.26560652256011963 0.008969147689640522 -0.010067988187074661 -0.15132144093513489 -0.1211499348282814 -0.095893554389476776 -0.074643626809120178 0.24248157441616058 -0.086228780448436737 0.1305755227804184
  0.23762406408786774 -0.075427152216434479 -0.28810444474220276 -0.079552397131919861 0.001697801286354661 0.032115772366523743 -0.056383688002824783 -0.28370261192321777 -0.043942127376794815 0.2620551586151123 0.073235668241977692 -0.11558777838945389 0.012235693633556366 -0.36974534392356873 -0.58561903238296509 0.025381283834576607 0.23056694865226746 0.00055364484433084726 -0.082467958331108093 0.00564914895221591 0.083317428827285767 0.12598519027233124 -0.0089544644579291344 -0.1461874395608902 0.41251838207244873 -0.41903048753738403 -0.46507099270820618 0.12046132981777191 0.10461071133613586 -0.12052500247955322 -0.057669699192047119 0.17516675591468811 0.15095233917236328 0.096486411988735199 -0.081553362309932709 -0.11821049451828003 0.077568814158439636 -0.093062661588191986 -0.0057902168482542038 -0.066098935902118683 -0.14647538959980011 -0.16468912363052368 -0.054012615233659744 0.26485490798950195 0.2285967618227005 -0.057210668921470642 -0.12495130300521851 -0.0053562796674668789 0.79188656806945801 0.96181952953338623 1.7007284164428711 0.039382800459861755 -1.1663448810577393 -0.56979888677597046 0.25017255544662476 0.081379257142543793 -0.078376017510890961 -0.29145407676696777 -0.089485161006450653 -0.062492243945598602
  -0.97564148902893066 0.028963768854737282 -0.39132067561149597 -0.30233779549598694 0.19342085719108582 0.15711075067520142 0.072047464549541473 0.16448882222175598 -0.0021625440567731857 0.10235185176134109 0.19986812770366669 0.12438365817070007 0.18534356355667114 -0.50798195600509644 -0.90642476081848145 -0.38302510976791382 0.18627296388149261 0.17541272938251495 -0.048168826848268509 0.057536531239748001 0.15891797840595245 0.13977895677089691 0.17892499268054962 -0.064900390803813934 0.095158949494361877 -0.29469582438468933 -0.87036889791488647 -0.26429089903831482 0.27691546082496643 0.21853083372116089 0.028703702613711357 -0.023139987140893936 0.13246050477027893 0.20181182026863098 0.051123984158039093 0.0462220199406147 0.12132417410612106 0.043183036148548126 -0.068138681352138519 0.019268076866865158 0.032650798559188843 0.11653329432010651 0.044262208044528961 -0.058956686407327652 0.096649214625358582 0.055888865143060684 0.0014345702948048711 0.082853823900222778 -0.013272849842905998 0.35344478487968445 0.60563892126083374 0.11895428597927094 -0.13995188474655151 0.026202941313385963 0.048246666789054871 0.00020390178542584181 -0.079835325479507446 -0.043645866215229034 -0.024510268121957779 0.12775240838527679
  0.25482288002967834 -0.47732037305831909 0.26252332329750061 0.30729666352272034 0.039522252976894379 -0.28284934163093567 -0.15839052200317383 -0.068650722503662109 -0.037846233695745468 -0.066613711416721344 -0.14276356995105743 -0.180146723985672 -1.0641162395477295 -0.033390261232852936 0.38454541563987732 0.36390328407287598 0.16347812116146088 -0.19921401143074036 -0.04712662473320961 0.14585946500301361 0.13136698305606842 -0.075190871953964233 -0.23210509121417999 -0.03905012458562851 -0.60009050369262695 0.0059465714730322361 0.33999565243721008 0.18759818375110626 0.12150044739246368 -0.12692394852638245 0.001943106995895505 0.089703567326068878 0.17647461593151093 -0.024541102349758148 -0.1760028749704361 -0.045370869338512421 -0.090799279510974884 -0.10263185948133469 0.2117716521024704 -0.0057642599567770958 0.0062283659353852272 0.014057802967727184 0.012908406555652618 0.065205223858356476 0.062492061406373978 -0.02608121931552887 -0.018118085339665413 0.0046803709119558334 -0.041177134960889816 -0.25190657377243042 -0.51677924394607544 -0.068051181733608246 -0.16582384705543518 -0.0068319346755743027 -0.081755891442298889 0.20170047879219055 -0.10657592117786407 0.048545312136411667 0.18881340324878693 0.082881353795528412
  0.36457547545433044 0.39470332860946655 0.33046415448188782 -0.13676521182060242 -0.23446397483348846 -0.29628527164459229 -0.25923123955726624 -0.020272985100746155 -0.036953598260879517 0.066916204988956451 0.078453689813613892 -0.085612580180168152 -0.052262302488088608 0.1168578639626503 -0.1889725923538208 -0.34285712242126465 -0.27444592118263245 -0.10239608585834503 -0.17865556478500366 -0.036733571439981461 -0.029734324663877487 0.11371505260467529 0.029793396592140198 0.011467840522527695 0.052127145230770111 0.087649069726467133 -0.10866619646549225 -0.38136193156242371 -0.16471049189567566 -0.13524682819843292 -0.13135187327861786 -0.012392522767186165 0.02911544032394886 0.11598317325115204 -0.030121305957436562 -0.0037092366255819798 -0.1405816376209259 0.063974365592002869 -0.12013473361730576 -0.21173343062400818 -0.10705080628395081 -0.14493680000305176 -0.12873601913452148 0.0087475460022687912 0.075240060687065125 0.086241863667964935 -0.011186827905476093 0.033361919224262238 -0.39004117250442505 0.16777609288692474 0.13227894902229309 0.06722790002822876 0.089149504899978638 -0.28872209787368774 -0.1184694916009903 -0.0438048355281353 0.10524313896894455 0.061758190393447876 0.019515754655003548 0.11160419881343842
  -0.38111299276351929 0.83903801441192627 -0.030524874106049538 0.68403619527816772 0.44602471590042114 0.14940690994262695 -0.13969025015830994 -0.2812919020652771 0.1832968145608902 0.25172615051269531 -0.2001950740814209 0.17441970109939575 0.22638499736785889 -0.57507550716400146 -0.063204094767570496 -0.52185297012329102 -0.31810435652732849 -0.084747850894927979 0.062542200088500977 0.24773791432380676 0.022222483530640602 -0.10044687986373901 0.076224863529205322 -0.086441121995449066 -0.25231435894966125 -0.66639065742492676 -0.70067828893661499 -0.79677379131317139 -0.1792839914560318 -0.11151165515184402 0.049948304891586304 0.35803371667861938 -0.037863478064537048 -0.042332552373409271 0.13956199586391449 -0.023454740643501282 -0.50974762439727783 -0.34346228837966919 -0.5762220025062561 -0.39975515007972717 -0.0036185483913868666 0.056464053690433502 0.0059059560298919678 0.19955609738826752 0.042468242347240448 0.068307101726531982 0.0039957943372428417 0.054843761026859283 -0.62617111206054688 1.42046058177948 0.68374741077423096 0.80964100360870361 -0.15091755986213684 0.10126055777072906 0.1003844365477562 -0.17554600536823273 -0.19421303272247314 0.036601506173610687 0.074816562235355377 0.29454636573791504
  0.28925052285194397 0.52147591114044189 0.66670650243759155 0.47853755950927734 -0.012540038675069809 0.01804928295314312 0.2623918354511261 0.21265949308872223 0.12334638833999634 0.028411228209733963 -0.16407647728919983 -0.1207977831363678 0.56588149070739746 0.00038017879705876112 0.096460700035095215 0.32714104652404785 0.32710966467857361 0.14375966787338257 0.037250518798828125 0.16886833310127258 0.12353529781103134 0.029583059251308441 -0.13794505596160889 -0.20819960534572601 0.7428252100944519 -0.27322563529014587 -0.32210159301757812 0.0057054250501096249 0.30870011448860168 0.1950831413269043 0.089494228363037109 0.11627994477748871 0.0082704713568091393 0.06712852418422699 -0.034135758876800537 -0.15714468061923981 -0.014618672430515289 0.10290519893169403 -0.46580490469932556 -0.10966215282678604 0.043771971017122269 0.077213004231452942 0.025861062109470367 -0.033973418176174164 -0.098484709858894348 0.12456975132226944 -0.0047322032041847706 -0.023024909198284149 -1.8412795066833496 -0.76888751983642578 -0.26797306537628174 -0.58315068483352661 -0.48476415872573853 -0.21208830177783966 0.24509744346141815 0.41304990649223328 0.15584547817707062 0.039351217448711395 0.25705397129058838 0.33377733826637268
  0.45648348331451416 0.35251745581626892 0.26053494215011597 -0.15687651932239532 -0.60266363620758057 -0.40407046675682068 -0.18908038735389709 0.12172907590866089 -0.058654975146055222 0.0088781276717782021 0.18699873983860016 0.17014729976654053 0.59319192171096802 -0.54381221532821655 0.0046903970651328564 -0.55657839775085449 -0.43226784467697144 -0.27200928330421448 -0.082588307559490204 0.056188825517892838 0.038751829415559769 -0.011589259840548038 0.18135948479175568 -0.051452431827783585 0.5920988917350769 -0.07664152979850769 0.083325810730457306 -0.27846163511276245 -0.16912427544593811 -0.22857721149921417 0.030776945874094963 -0.080054387450218201 -0.023413060232996941 0.040835082530975342 0.12607067823410034 -0.036077253520488739 0.25554400682449341 0.196346715092659 0.2898021936416626 0.085328362882137299 0.14820767939090729 0.026551162824034691 0.013400468043982983 -0.080969944596290588 -0.050066236406564713 -0.021436762064695358 -0.029110429808497429 -0.084088988602161407 -0.047358416020870209 0.015101933851838112 0.27452853322029114 0.38943877816200256 0.037455890327692032 -0.034314408898353577 0.23571422696113586 -0.001619062852114439 -0.014537891373038292 -0.022324917837977409 -0.048042755573987961 -0.1021287813782692
  -0.10501042753458023 0.13812395930290222 0.51234030723571777 -0.56264394521713257 -0.67950940132141113 0.077174350619316101 -0.09057626873254776 0.060750391334295273 -0.055847469717264175 0.0008871760219335556 0.36627596616744995 -0.030214620754122734 -0.2150152325630188 0.1481507271528244 -0.20963206887245178 0.46489799022674561 0.14345139265060425 -0.32189622521400452 0.15404713153839111 0.076733507215976715 -0.022360581904649734 0.10078699141740799 -0.022020207718014717 0.064355850219726562 -0.40073153376579285 0.56956309080123901 -0.16163097321987152 0.82726013660430908 0.60716414451599121 -0.1001114547252655 0.16485254466533661 0.076170168817043304 -0.012922566384077072 0.20403622090816498 -0.22928906977176666 0.097014561295509338 0.065374694764614105 0.49754783511161804 0.016729922965168953 0.79424303770065308 0.42059490084648132 0.19300955533981323 0.13111589848995209 -0.18101628124713898 -0.050755005329847336 0.10267661511898041 -0.22625276446342468 0.033962462097406387 -0.68114817142486572 -0.81696075201034546 -0.72159320116043091 -0.76387923955917358 -0.093057684600353241 0.38144218921661377 -0.044944550842046738 0.1210215762257576 0.11394530534744263 -0.024266351014375687 0.1421487033367157 0.096620328724384308
  1.5822579860687256 0.13833732903003693 -0.5107349157333374 -0.13801275193691254 0.033934485167264938 0.19645453989505768 0.0027269769925624132 0.025692787021398544 0.049012213945388794 0.15999402105808258 0.0060474635101854801 -0.083510376513004303 0.31205421686172485 -0.074313811957836151 -0.32821464538574219 -0.080618113279342651 -0.073541909456253052 0.11165764927864075 -0.022591546177864075 0.0093925977125763893 -0.023871490731835365 0.091243818402290344 0.078463613986968994 0.010889307595789433 -0.76018130779266357 -0.21811294555664062 -0.18225528299808502 -0.050386965274810791 -0.11015677452087402 0.047201495617628098 0.033586908131837845 0.11536282300949097 -0.046795766800642014 -0.060206115245819092 0.093349277973175049 0.090356096625328064 -1.8977152109146118 -0.098901897668838501 0.12293963879346848 -0.046259406954050064 -0.041035529226064682 -0.018629349768161774 0.082996860146522522 0.078798308968544006 0.040693718940019608 -0.10312055796384811 -0.023432629182934761 0.045115184038877487 -0.82366573810577393 -0.013787985779345036 0.8028942346572876 0.24291224777698517 0.23887430131435394 -0.010015489533543587 0.14384336769580841 -0.18116897344589233 0.13755927979946136 -0.22734302282333374 -0.14075654745101929 -0.1443660706281662
  -0.74306094646453857 0.15089456737041473 -0.071080856025218964 -0.23240363597869873 -0.12122783809900284 0.064987733960151672 0.1618366539478302 0.09433089941740036 -0.032034717500209808 0.081581465899944305 0.10036472231149673 0.019584376364946365 -0.20113575458526611 -0.023173172026872635 0.024655640125274658 -0.11145069450139999 -0.16171243786811829 -0.034258965402841568 0.084048233926296234 -0.021437307819724083 -0.013593351468443871 -0.01037881150841713 -0.015052384696900845 -0.045909706503152847 -0.12841542065143585 -0.047020092606544495 0.06146998330950737 -0.11687174439430237 -0.23181901872158051 -0.10364526510238647 0.072501249611377716 -0.022586960345506668 -0.01523013599216938 0.002444887300953269 -0.022420775145292282 -0.095878772437572479 0.14904634654521942 -0.12187729775905609 -0.10243088752031326 0.04985605925321579 -0.203752800822258 -0.26585367321968079 0.03324349969625473 -0.069331780076026917 0.0067774700000882149 0.14900712668895721 -0.021080626174807549 -0.042694546282291412 2.0129141807556152 -0.42858633399009705 0.14203427731990814 0.0031946813687682152 0.049263257533311844 -0.10785078257322311 -0.23094123601913452 -0.12531110644340515 0.13169476389884949 0.060587674379348755 -0.10389021039009094 -0.066915005445480347
  -0.14237135648727417 0.11296650022268295 0.28034883737564087 0.35781320929527283 -0.25826480984687805 -0.061962522566318512 0.11363063752651215 -0.12095987796783447 0.064218513667583466 0.23134291172027588 -0.12387134879827499 0.19021473824977875 0.058276932686567307 -0.36626666784286499 -0.37101262807846069 -0.45899355411529541 0.24088798463344574 0.0080553349107503891 0.039234321564435959 -0.012488065287470818 0.24818556010723114 0.047651242464780807 -0.10855212807655334 -0.24982428550720215 0.11061820387840271 -0.50340336561203003 -0.52030664682388306 -0.50495731830596924 0.52919512987136841 0.17457364499568939 0.088527895510196686 0.11497124284505844 0.16411119699478149 -0.12434510886669159 -0.09227365255355835 -0.32137712836265564 0.36607339978218079 -0.19200478494167328 -0.18645264208316803 -0.30358847975730896 0.29328739643096924 0.033653788268566132 0.022896001115441322 0.15785664319992065 0.021390268579125404 -0.13368645310401917 0.01311940886080265 -0.19146870076656342 0.54645383358001709 0.32383525371551514 0.22956719994544983 0.1849607527256012 0.04574291780591011 0.25188571214675903 0.11045625060796738 0.1611027866601944 -0.099643565714359283 -0.20284992456436157 0.13195928931236267 0.10062681138515472
  -1.2184354066848755 -0.16066047549247742 -0.28555610775947571 0.16455772519111633 -0.01068295631557703 -0.38137763738632202 -0.43859577178955078 0.14179128408432007 0.25725656747817993 0.38130015134811401 0.25895485281944275 0.46950042247772217 0.14814664423465729 -0.18293711543083191 -0.22526650130748749 -0.058449093252420425 -0.038499537855386734 -0.15040872991085052 -0.30391576886177063 -0.14797326922416687 0.14228099584579468 0.16284464299678802 0.22848589718341827 0.070954300463199615 -0.0040336167439818382 0.12480480968952179 -0.01650705561041832 0.0019422663608565927 0.073111757636070251 -0.07105148583650589 -0.2102159708738327 0.0088170720264315605 0.14431652426719666 0.038706380873918533 0.2210257351398468 -0.00915552768856287 0.011346613056957722 0.068341925740242004 0.088470093905925751 0.10493610799312592 0.0081384237855672836 -0.073909491300582886 -0.022608159109950066 0.01661364920437336 -0.024674780666828156 -0.084173694252967834 0.1836714893579483 -0.055558573454618454 0.27402156591415405 -0.48855409026145935 0.19600488245487213 0.24802081286907196 0.043447196483612061 -0.20416316390037537 -0.021398596465587616 0.15720877051353455 -0.037179011851549149 -0.0095701199024915695 -0.011272842064499855 0.10273855924606323
  0.041549816727638245 -0.092649504542350769 -0.54627478122711182 -0.5322338342666626 0.093713119626045227 0.084273181855678558 0.092554286122322083 -0.08004259318113327 0.0050521255470812321 0.13222247362136841 0.10777562856674194 -0.13661602139472961 0.44555872678756714 -0.26391410827636719 -0.220164954662323 -0.41533425450325012 -0.023119209334254265 0.079298123717308044 -0.040757078677415848 0.024614607915282249 0.069283023476600647 0.048975791782140732 0.026445785537362099 -0.21527710556983948 0.03026239201426506 0.13654552400112152 0.12556038796901703 0.084590181708335876 0.054010640829801559 0.0059117903001606464 -0.085867591202259064 -0.04352613165974617 0.037450414150953293 -0.012079715728759766 -0.083320185542106628 -0.19859082996845245 0.64416873455047607 0.53458654880523682 0.42711246013641357 0.47201848030090332 -0.093444369733333588 -0.18795818090438843 -0.15658381581306458 -0.068882718682289124 -0.052302651107311249 -0.018868707120418549 -0.11474930495023727 -0.052746623754501343 -2.4839603900909424 -0.036175508052110672 0.86610090732574463 1.2894147634506226 -0.2396589070558548 -0.30626866221427917 0.10422638058662415 0.14790910482406616 -0.17380702495574951 -0.0096098585054278374 -0.10017950087785721 0.49227505922317505
  -0.57958579063415527 -0.2564733624458313 0.1741507351398468 0.12301555275917053 0.043403089046478271 0.038724053651094437 0.15209284424781799 -0.1790241003036499 0.051463879644870758 0.047543834894895554 -0.10573761165142059 -0.048215143382549286 -0.23398889601230621 -0.048506859689950943 0.37868005037307739 0.21334247291088104 0.0014335723826661706 -0.27652654051780701 -0.22375680506229401 -0.047477290034294128 0.13345848023891449 0.036269437521696091 -0.10688860714435577 -0.16012051701545715 -0.028656145557761192 -0.21523207426071167 0.25172117352485657 0.32336720824241638 0.20896956324577332 -0.23184648156166077 -0.24592502415180206 -0.017679551616311073 0.16170939803123474 0.10029924660921097 -0.05450846254825592 -0.10966789722442627 -0.17584802210330963 -0.16369500756263733 0.27971187233924866 0.2263072282075882 0.053093485534191132 -0.23984532058238983 -0.27126964926719666 0.013414413668215275 0.13327014446258545 0.070615589618682861 0.062433991581201553 -0.047896988689899445 -0.12372893840074539 -0.053189802914857864 0.70188301801681519 0.32962530851364136 -0.25685277581214905 -0.30143222212791443 -0.14326886832714081 -0.0064821839332580566 0.097989015281200409 0.036442235112190247 0.18760323524475098 0.096104852855205536
  0.43806961178779602 0.036118336021900177 -0.041983585804700851 0.17852507531642914 -0.079212822020053864 0.0062727443873882294 0.050588794052600861 -0.15427882969379425 -0.004352903924882412 0.05251443013548851 -0.041314590722322464 -0.025874471291899681 0.46632164716720581 0.056576509028673172 0.24608689546585083 0.17045162618160248 0.12010721862316132 -0.0052797766402363777 -0.054546568542718887 -0.20596115291118622 -0.17898169159889221 0.04303581640124321 0.001051698811352253 -0.10433948040008545 1.0284620523452759 0.44792124629020691 0.50412636995315552 0.15775254368782043 0.045472543686628342 -0.13458956778049469 -0.18681491911411285 -0.21254022419452667 -0.15973678231239319 -0.020051827654242516 -0.025815954431891441 -0.1484026312828064 0.36125010251998901 0.5967673659324646 0.43126708269119263 0.12534907460212708 -0.086839310824871063 -0.2208440899848938 -0.03967839851975441 -0.15223191678524017 -0.19667397439479828 -0.15436764061450958 -0.043060220777988434 -0.13001535832881927 0.63461816310882568 -0.77213329076766968 -0.30675160884857178 -0.5749894380569458 -0.41086632013320923 -0.24897788465023041 -0.11473517864942551 -0.11315219849348068 -0.0051740733906626701 -0.22656479477882385 0.024519914761185646 -0.029018312692642212
  0.5589103102684021 -0.24165183305740356 -0.63453000783920288 0.39200916886329651 0.25488030910491943 -0.17457601428031921 -0.051752842962741852 0.0064752739854156971 0.085630171000957489 -0.049126546829938889 -0.045451078563928604 0.061377882957458496 -0.22268497943878174 -0.25775858759880066 0.029755575582385063 0.031247425824403763 -0.06763901561498642 -0.035856761038303375 -0.014649004675447941 -0.073515594005584717 0.072377167642116547 -0.0025038912426680326 -0.048367176204919815 0.059160705655813217 -0.18459266424179077 -0.079863958060741425 0.38591209053993225 -0.27699679136276245 -0.078385539352893829 0.078369833528995514 0.059807617217302322 -0.11872977018356323 0.079383313655853271 0.11414938420057297 -0.10354447364807129 -0.036839012056589127 -0.36943322420120239 0.23413591086864471 0.54729366302490234 -0.28213977813720703 -0.098025165498256683 0.22809900343418121 0.12976276874542236 -0.21810965240001678 0.072715304791927338 0.13953623175621033 -0.094010181725025177 -0.12968809902667999 -1.8036154508590698 0.38867181539535522 1.6044454574584961 -0.62071233987808228 -0.59355175495147705 0.38973906636238098 0.22589880228042603 -0.37586548924446106 0.082697242498397827 0.052219703793525696 -0.094797536730766296 -0.10168721526861191
  0.8493151068687439 -0.51815503835678101 0.11702543497085571 -0.33953896164894104 0.03538152202963829 0.01012764498591423 0.034791592508554459 -0.002770120045170188 0.096331924200057983 -0.049481082707643509 0.027946386486291885 -0.064723312854766846 -0.69958698749542236 0.16906842589378357 -0.19217303395271301 0.058462917804718018 -0.056830953806638718 -0.036813989281654358 0.079062312841415405 0.012798585928976536 0.013069110922515392 0.0033492816146463156 -0.036756880581378937 -0.068165227770805359 -0.53620064258575439 0.30008962750434875 -0.21157315373420715 0.1207478865981102 -0.017143163830041885 -0.17373993992805481 0.083252139389514923 -0.0017793650040403008 -0.010801356285810471 0.048696942627429962 -0.041659772396087646 -0.04949270561337471 0.023767447099089622 0.49305814504623413 0.00083990255370736122 0.30449900031089783 0.030717093497514725 -0.27641886472702026 0.0082557294517755508 0.01287490501999855 -0.035932943224906921 0.020780788734555244 -0.045407742261886597 -0.088450059294700623 -1.6303141117095947 0.82447719573974609 -0.76256543397903442 0.42983224987983704 0.047242555767297745 -0.2009458988904953 -0.11422596871852875 0.054056402295827866 -0.053930312395095825 0.089473925530910492 0.026792136952280998 -0.030264416709542274
  0.36204883456230164 0.82901263236999512 0.42068123817443848 1.4307931661605835 1.2957197427749634 0.85990357398986816 0.28639873862266541 0.13575734198093414 -0.13611549139022827 -0.31087613105773926 -0.36377504467964172 -0.12243257462978363 -1.3912307024002075 -0.056788984686136246 -0.12171381711959839 -0.076140366494655609 -0.055776752531528473 -0.031004155054688454 -0.078270331025123596 0.16559544205665588 -0.032531850039958954 0.051556356251239777 0.26797622442245483 0.21238449215888977 -1.1465669870376587 -0.36745256185531616 -0.20735222101211548 -0.44234949350357056 -0.52555727958679199 -0.31617513298988342 -0.13158524036407471 -0.059664510190486908 -0.098434410989284515 0.12408585846424103 0.19579458236694336 0.20363326370716095 -0.63797581195831299 -0.44466403126716614 -0.20436055958271027 -0.46974265575408936 -0.55018645524978638 -0.35051530599594116 -0.15780647099018097 -0.15764178335666656 0.1004071906208992 0.13472923636436462 0.067288421094417572 0.069449871778488159 1.4221410751342773 -0.047053579241037369 -0.077025212347507477 -0.12202715873718262 -0.040645942091941833 0.028923718258738518 -0.007574174553155899 -0.1338580846786499 0.065580271184444427 0.13729588687419891 -0.086896404623985291 -0.17225836217403412
  -0.34501737356185913 -0.19777625799179077 0.72833269834518433 0.5965200662612915 0.19264863431453705 -0.53081107139587402 -0.33125540614128113 -0.10463318228721619 0.032138779759407043 -0.22644215822219849 -0.073449395596981049 -0.1021537184715271 0.59373974800109863 -0.26047542691230774 -0.2184397280216217 0.19981497526168823 0.39231815934181213 -0.19521741569042206 -0.078931547701358795 0.20046794414520264 -0.025967270135879517 0.017876170575618744 0.078298456966876984 -0.11735495179891586 1.6924632787704468 0.016286322847008705 -0.42573750019073486 0.027848996222019196 0.21191936731338501 0.037908293306827545 -0.067090503871440887 0.0018620826303958893 -0.12248843163251877 0.13113468885421753 0.12427503615617752 -0.19226555526256561 1.0616397857666016 0.10330875217914581 -0.26312321424484253 -0.24031791090965271 -0.083516351878643036 0.36592525243759155 0.057189229875802994 -0.14468054473400116 -0.11573746800422668 0.084552392363548279 0.10313811153173447 -0.075018368661403656 -1.7196085453033447 0.2476811408996582 -0.20123359560966492 -0.58535748720169067 -0.53652751445770264 0.46757906675338745 0.49849101901054382 -0.3241422176361084 -0.13105031847953796 0.088780343532562256 0.054598785936832428 0.41232097148895264
  0.32235497236251831 0.91309058666229248 0.63940566778182983 -0.48924601078033447 -0.45812833309173584 0.051116686314344406 0.37896549701690674 0.054707471281290054 -0.25415453314781189 -0.16752585768699646 0.18980789184570312 -0.081447511911392212 0.38006883859634399 -0.078144058585166931 -0.15995886921882629 -0.24805586040019989 -0.13914072513580322 0.086724303662776947 0.1628957986831665 0.0087784444913268089 -0.11884047091007233 -0.094132475554943085 -0.0059706335887312889 0.10471699386835098 -0.11965399980545044 -0.79975509643554688 -0.61492234468460083 0.0080589121207594872 0.23976099491119385 0.14163696765899658 -0.12436141073703766 -0.18667665123939514 0.019762376323342323 0.043702263385057449 0.0078341355547308922 0.11931528151035309 -0.25220862030982971 -0.85556709766387939 -0.66527211666107178 0.40300041437149048 0.66730046272277832 -0.070545785129070282 -0.51068538427352905 -0.28353706002235413 0.086333580315113068 0.33051976561546326 -0.12254350632429123 0.090281575918197632 -0.45997020602226257 0.08144090324640274 0.98100489377975464 0.80797123908996582 0.037093419581651688 -0.38646182417869568 -0.37488612532615662 -0.11604242771863937 0.11381727457046509 0.056818902492523193 0.053462173789739609 -0.052529916167259216
  -0.79166615009307861 -1.3450415134429932 -0.82844817638397217 -0.71633744239807129 -0.70436388254165649 -0.29903414845466614 -0.031313784420490265 -0.18725001811981201 0.130110964179039 0.074538186192512512 0.063593335449695587 -0.025932995602488518 -0.27641555666923523 0.023383563384413719 -0.038271404802799225 -0.084078967571258545 -0.2074694037437439 -0.39485087990760803 -0.28401747345924377 -0.20885723829269409 -0.13593268394470215 0.11845914274454117 -6.0920137912034988e-06 0.092529870569705963 -0.053801413625478745 0.45237764716148376 0.26002925634384155 0.28187805414199829 0.09183763712644577 -0.08534839004278183 -0.23423194885253906 -0.085096575319766998 -0.080183692276477814 0.056406930088996887 -0.0659833624958992 0.046772599220275879 0.59803080558776855 0.38382574915885925 0.32897478342056274 0.18981309235095978 0.27253901958465576 0.24417755007743835 -0.07127777487039566 0.052047252655029297 -0.021388731896877289 -0.065365247428417206 -0.05220402404665947 -0.1331135630607605 0.67463016510009766 0.5767592191696167 -0.13318580389022827 0.34697127342224121 0.87627416849136353 0.8166695237159729 0.38000056147575378 0.13425786793231964 -0.07609780877828598 -0.20004190504550934 -0.1669490784406662 -0.1422138512134552
  -1.3956407308578491 0.33489570021629333 0.36279094219207764 0.59073960781097412 0.17186170816421509 -0.21223524212837219 -0.23277908563613892 0.48647481203079224 -0.061247862875461578 -0.35364452004432678 0.13151200115680695 0.17122401297092438 -0.66501390933990479 -0.28882214426994324 -0.058022558689117432 -0.041687831282615662 -0.056396059691905975 -0.10511216521263123 0.040545191615819931 0.26943358778953552 -0.041998293250799179 -0.11948476731777191 0.067603535950183868 0.029865622520446777 -0.17668871581554413 -0.081483170390129089 0.0029950847383588552 0.039325594902038574 -0.063111878931522369 -0.16910946369171143 0.087139002978801727 0.078700348734855652 -0.059812188148498535 -0.083295129239559174 -0.061151742935180664 -0.023667514324188232 -0.1628531813621521 0.063979238271713257 0.050916716456413269 -0.05027814581990242 -0.0014414122560992837 -0.013654203154146671 0.055017706006765366 -0.10452860593795776 -0.014895249158143997 0.022251950576901436 -0.062683150172233582 -0.051066398620605469 0.82321810722351074 0.10840404033660889 -0.084796205163002014 0.069846145808696747 -0.041080538183450699 0.091712005436420441 0.080934539437294006 -0.32232013344764709 -0.054678194224834442 0.075658716261386871 -0.18771155178546906 -0.046884089708328247
  -0.086804389953613281 -0.15506361424922943 0.14882755279541016 -0.059499431401491165 0.096678704023361206 0.037257175892591476 -0.13677434623241425 0.090166933834552765 0.18701794743537903 -0.14901641011238098 -0.045131340622901917 0.084183163940906525 -0.10035765171051025 0.22740601003170013 -0.038559932261705399 -0.090769320726394653 0.14624924957752228 0.13944254815578461 -0.17232544720172882 0.10531248152256012 -0.028574870899319649 -0.042951643466949463 0.11159667372703552 -0.041271615773439407 -0.098845802247524261 0.13424958288669586 0.027244385331869125 -0.2869715690612793 0.07294958084821701 0.085793294012546539 -0.29185697436332703 0.19243881106376648 -0.054007198661565781 -0.11337492614984512 0.15338675677776337 -0.0012091025710105896 0.12925249338150024 0.1362852156162262 0.13730686902999878 -0.20854218304157257 0.059891968965530396 -0.080371670424938202 -0.19799220561981201 0.16268803179264069 -0.10123887658119202 -0.14494280517101288 0.092179037630558014 0.049652110785245895 -0.81096750497817993 0.68922454118728638 0.54327547550201416 -0.39589643478393555 -0.15652653574943542 0.085348360240459442 -0.14958605170249939 0.21574848890304565 0.038329511880874634 -0.30702736973762512 0.094093240797519684 0.012480146251618862
  1.6478393077850342 -0.44160202145576477 0.25256884098052979 -0.25297448039054871 -0.28147587180137634 -0.12024278938770294 -0.13047243654727936 -0.20199510455131531 -0.064191281795501709 -0.057759061455726624 0.068631760776042938 -0.18071076273918152 0.94284391403198242 0.22582758963108063 0.37651130557060242 0.031404346227645874 -0.13271741569042206 -0.051601670682430267 -0.13350890576839447 -0.11431902647018433 0.035407189279794693 -0.054977200925350189 0.04262048751115799 -0.053906805813312531 0.0061382399871945381 0.26163715124130249 0.22227232158184052 0.19567233324050903 -0.023340055719017982 -0.011928180232644081 0.021846942603588104 0.0050953417085111141 0.027499748393893242 0.026510545983910561 -0.038208849728107452 0.048609457910060883 -0.16630236804485321 0.1487223356962204 -0.17946484684944153 0.27997088432312012 0.08344624936580658 0.072996847331523895 0.070305429399013519 0.094035550951957703 -0.01350981742143631 0.048109464347362518 -0.03901367262005806 0.1251121312379837 -2.8975944519042969 0.26182681322097778 -0.78001576662063599 -0.046148605644702911 0.60998940467834473 0.16267445683479309 -0.076098442077636719 0.36826068162918091 -0.11336006969213486 0.30322763323783875 -0.10087788850069046 0.28145533800125122
  0.92939502000808716 -0.49881637096405029 -0.5701403021812439 0.021545553579926491 0.16779124736785889 -0.016020746901631355 0.29096323251724243 0.26118499040603638 -0.035550922155380249 -0.14693370461463928 -0.21472406387329102 -0.1018003448843956 -0.41676065325737 0.37101796269416809 0.017651356756687164 -0.16102106869220734 0.090324431657791138 -0.048782184720039368 0.23724892735481262 0.20288178324699402 -0.10061505436897278 -0.19514463841915131 0.066711373627185822 0.032241940498352051 -0.36361607909202576 0.80755531787872314 0.046183187514543533 -0.27089568972587585 0.38198497891426086 0.26409712433815002 0.24112571775913239 0.037998862564563751 -0.064375415444374084 -0.078949980437755585 0.077571526169776917 -0.040746390819549561 -0.73422360420227051 0.76833909749984741 0.29289671778678894 -0.25082167983055115 0.13036853075027466 0.39181283116340637 0.25485298037528992 0.0073811551555991173 -0.23565518856048584 -0.047871261835098267 0.13091820478439331 -0.098864786326885223 -0.52429294586181641 -0.81365591287612915 0.19408886134624481 0.37719056010246277 -0.21675746142864227 -0.14142446219921112 0.65333551168441772 0.27419427037239075 0.17879989743232727 -0.088806472718715668 -0.44076156616210938 -0.065967299044132233
  1.097592830657959 0.5057370662689209 0.2342928946018219 0.99855947494506836 0.34106197953224182 -0.10399330407381058 -0.02033817395567894 -0.65529853105545044 -0.2407076358795166 0.019191628322005272 -0.15001988410949707 0.044591661542654037 -0.11054844409227371 0.3661523163318634 -0.10738147795200348 0.26395314931869507 0.03919704258441925 -0.1201387345790863 0.065589308738708496 -0.27894139289855957 -0.11665788292884827 0.22459304332733154 -0.034132465720176697 0.045232217758893967 -0.27052390575408936 0.031129365786910057 0.10139870643615723 -0.17132076621055603 -0.27904942631721497 -0.16681614518165588 -0.038541574031114578 -0.088801130652427673 0.015998814254999161 0.055823471397161484 0.0059388456866145134 0.057949606329202652 -0.47290524840354919 -0.47357410192489624 0.18262960016727448 -0.45069673657417297 -0.2482125461101532 -0.067210979759693146 -0.093991167843341827 0.1331639289855957 0.066237345337867737 -0.076613858342170715 0.07690507173538208 0.090394265949726105 0.66055673360824585 -0.42038172483444214 -0.07764367014169693 -1.1433768272399902 -0.20245727896690369 0.12859100103378296 0.10651934891939163 0.85594797134399414 0.36174771189689636 -0.24593353271484375 0.13060615956783295 -0.3576815128326416
  0.36458301544189453 -0.69658619165420532 -0.58874613046646118 -0.6163715124130249 -0.059610117226839066 -0.096944279968738556 -0.11900427937507629 0.27151015400886536 0.30169028043746948 -0.13929551839828491 -0.17394018173217773 -0.35608309507369995 -0.082719676196575165 -0.046027131378650665 -0.060097590088844299 0.11730029433965683 0.19471867382526398 0.16429460048675537 0.10251946747303009 0.035236567258834839 -0.090962924063205719 -0.16710001230239868 -0.22030530869960785 -0.016506971791386604 -0.48359012603759766 0.24010613560676575 0.31308993697166443 0.70264434814453125 0.4407941997051239 0.2104826420545578 0.10495966672897339 -0.15257078409194946 -0.1640331894159317 -0.11558203399181366 -0.18089310824871063 0.12244805693626404 -0.35728496313095093 0.57771313190460205 0.39059653878211975 0.57148641347885132 0.1504085510969162 -0.04275241494178772 -0.057885836809873581 -0.25535339117050171 -0.23719094693660736 -0.024197624996304512 -0.043967492878437042 0.14211633801460266 1.2297823429107666 0.35628432035446167 0.50657588243484497 -0.35640847682952881 -0.81665724515914917 -0.4452897310256958 -0.59370279312133789 -0.39364749193191528 -0.3246828019618988 -0.07947869598865509 0.31671881675720215 0.058578260242938995
  -0.12169119715690613 0.24760922789573669 -0.17239418625831604 0.18068519234657288 0.11107126623392105 0.22206480801105499 0.28586703538894653 -0.053298495709896088 0.00032988656312227249 0.12364736944437027 -0.16657403111457825 -0.063708677887916565 0.17030245065689087 0.12748993933200836 -0.039656162261962891 0.096206791698932648 -0.11935067921876907 0.026295239105820656 0.0060459310188889503 -0.22052809596061707 -0.072363562881946564 0.15354931354522705 -0.0077176461927592754 -0.028198497369885445 0.1520543247461319 0.49328389763832092 0.04853072389960289 0.11420947313308716 -0.16702385246753693 0.037732560187578201 0.04163629561662674 -0.22575873136520386 -0.025488682091236115 0.16653119027614594 -0.036858163774013519 -0.050897929817438126 -0.020384665578603745 0.37349298596382141 0.2158486545085907 -0.037367559969425201 -0.21010731160640717 0.067706316709518433 0.038034483790397644 -0.14622537791728973 -0.012760095298290253 0.033617030829191208 -0.043647542595863342 0.011686679907143116 0.85230571031570435 0.44011068344116211 0.28811338543891907 -0.17451763153076172 -0.045462720096111298 0.03322799876332283 0.010309220291674137 -0.13315077126026154 -0.053754519671201706 -0.17838531732559204 -0.17167910933494568 -0.089809834957122803 ]
 [ 1.28961181640625 -2.7953894138336182 3.3500940799713135 2.2111537456512451 -0.058681976050138474 2.9037907123565674 -2.6988208293914795 -4.8597240447998047 -1.9520381689071655 2.3006138801574707 2.2875797748565674 -1.8029007911682129 -1.4134688377380371 -0.76978105306625366 0.48082271218299866 -1.5686358213424683 1.1473904848098755 1.2484230995178223 0.60711222887039185 -1.0405784845352173 2.4606723785400391 -1.9232431650161743 -1.1572175025939941 -1.8747987747192383 0.013663744553923607 2.3440351486206055 2.9733469486236572 -2.6309266090393066 -4.2037768363952637 -4.4582018852233887 3.4279687404632568 -1.2105187177658081 -3.0476112365722656 1.3962453603744507 1.2424339056015015 -1.9477040767669678 -2.7666034698486328 4.323946475982666 -3.4107728004455566 -2.1046075820922852 2.4329099655151367 ]
<sigmoid> 41 41
<affinetransform> 42 41
 [ 
  0.17125816643238068 -2.0853450298309326 -0.71669524908065796 0.57014304399490356 -0.10929980874061584 0.012860224582254887 0.38273608684539795 -0.45817583799362183 2.0795786380767822 0.82200336456298828 0.10853904485702515 -0.53502500057220459 -0.30377078056335449 0.48465052247047424 -0.59889328479766846 -1.6324702501296997 -0.27853521704673767 -0.059244640171527863 -0.36073756217956543 0.66381633281707764 -0.66300046443939209 -1.1597913503646851 1.0538768768310547 -1.6748968362808228 -1.8446112871170044 1.7843525409698486 0.69637203216552734 -0.8072693943977356 -0.03370390459895134 0.98582166433334351 1.8605899810791016 0.44662275910377502 -0.32979005575180054 2.606853723526001 -0.75506132841110229 -0.10743560642004013 0.325360506772995 0.37278646230697632 -1.5865011215209961 0.033440466970205307 -2.0286109447479248
  -0.58107388019561768 -0.14648623764514923 -1.5973351001739502 -0.044199693948030472 0.23574177920818329 0.49845212697982788 -1.1575796604156494 -0.11276980489492416 0.72700071334838867 0.0098595395684242249 0.33173894882202148 0.98701924085617065 -0.0036378249060362577 -0.43406626582145691 0.63312822580337524 -1.0960503816604614 0.40991532802581787 -0.43542280793190002 1.2121536731719971 0.094183623790740967 -1.1113705635070801 -0.85932505130767822 0.46839147806167603 2.3593883514404297 -1.4520167112350464 -0.31066417694091797 0.040289591997861862 -2.0352241992950439 -0.60786008834838867 0.26695802807807922 0.60274398326873779 -0.51941508054733276 -1.0794719457626343 1.024838924407959 -0.16592015326023102 0.45477509498596191 -0.88340151309967041 0.20128461718559265 -0.52328783273696899 -0.85108870267868042 0.34534734487533569
  -0.22292681038379669 0.10368794947862625 -1.4317525625228882 -0.035640820860862732 0.17780053615570068 0.63934814929962158 -0.11275714635848999 0.35873159766197205 1.0429891347885132 0.64076238870620728 -0.48766151070594788 0.67908728122711182 -0.26331275701522827 0.26352623105049133 0.40570014715194702 -0.2350165992975235 0.16334007680416107 0.8784523606300354 0.91136372089385986 0.50638401508331299 -0.99071574211120605 -0.17008119821548462 0.57569718360900879 1.691645622253418 -0.11226439476013184 0.36454540491104126 -0.38867676258087158 -1.3129928112030029 0.3422253429889679 0.58518892526626587 -0.1833595335483551 -0.48022404313087463 -0.15765897929668427 -0.030648035928606987 0.21712245047092438 -0.13320973515510559 -0.034873541444540024 0.64459353685379028 0.0017073147464543581 0.063021175563335419 -0.46048304438591003
  0.48767784237861633 0.9025503396987915 2.2028353214263916 0.99900597333908081 -0.20899641513824463 1.4663999080657959 0.13335481286048889 -0.3902546763420105 0.7376779317855835 -0.52720236778259277 0.09818229079246521 1.8004075288772583 -0.96552586555480957 -0.80763512849807739 -0.10025141388177872 -0.41991060972213745 -0.44874483346939087 -0.18860127031803131 -0.0068494109436869621 -0.014741973020136356 -0.49717676639556885 0.57779163122177124 -1.6525523662567139 0.38330382108688354 0.56875765323638916 -0.87263143062591553 -1.257846474647522 -0.11861804127693176 -0.891571044921875 -0.38648596405982971 -1.7742184400558472 0.53718990087509155 0.25607344508171082 -2.4811043739318848 -0.18477159738540649 -0.90948253870010376 -1.8520667552947998 1.3431625366210938 1.057310938835144 2.1548514366149902 -0.2174142599105835
  0.11829747259616852 -0.96943837404251099 0.19236375391483307 -0.7688947319984436 -0.34135302901268005 0.10224902629852295 -0.86794865131378174 0.093620143830776215 0.96776753664016724 -0.68344795703887939 0.37610867619514465 0.11459586024284363 0.35398271679878235 -0.75213038921356201 -0.2590794563293457 0.54017961025238037 -0.11053679883480072 -0.18467499315738678 -0.013744155876338482 0.7390972375869751 -0.55032461881637573 0.69810539484024048 -0.25155803561210632 -0.59270173311233521 -0.52298110723495483 -0.4789903461933136 -0.3352334201335907 0.71795141696929932 -0.90811163187026978 -0.91639208793640137 0.29910203814506531 -0.63305163383483887 0.74040836095809937 -1.5082600116729736 0.33353811502456665 -0.6767725944519043 -0.058708015829324722 0.21630525588989258 -0.41457194089889526 -0.018302291631698608 -0.50221538543701172
  -0.66699874401092529 1.057610034942627 -0.93920570611953735 -0.57356959581375122 0.50501453876495361 -1.889889121055603 0.31328180432319641 1.3479518890380859 0.87838554382324219 0.60234236717224121 -0.57738989591598511 -0.057013235986232758 -0.20013970136642456 -1.1486184597015381 0.92998665571212769 0.70216202735900879 1.5711798667907715 -0.4740033745765686 -0.61786043643951416 -1.3456054925918579 1.0567021369934082 0.57317209243774414 1.3796654939651489 -1.251323938369751 0.16494713723659515 0.37494519352912903 0.4367978572845459 -1.6226944923400879 1.2110251188278198 -0.011004575528204441 -0.057114318013191223 1.8810656070709229 -0.036598961800336838 -0.94300669431686401 -0.65481245517730713 1.9840575456619263 2.1112241744995117 -0.61077207326889038 -0.40117514133453369 0.12795320153236389 0.56936401128768921
  0.047415006905794144 0.52913045883178711 0.65208578109741211 0.24095520377159119 0.97536766529083252 -0.28913679718971252 -0.29428136348724365 -0.25281152129173279 -0.37850871682167053 -1.1920530796051025 0.37928012013435364 0.94542181491851807 0.47638177871704102 0.66571229696273804 0.41877520084381104 0.35645121335983276 0.68570762872695923 0.41243934631347656 1.5208408832550049 -0.83412027359008789 0.53984814882278442 0.23321354389190674 -0.33850830793380737 0.36606958508491516 -0.46287053823471069 -0.58965259790420532 0.63789141178131104 0.60680693387985229 -1.4879888296127319 0.0097610075026750565 -1.8468778133392334 -0.74232888221740723 -0.57494759559631348 -0.58104425668716431 0.017296010628342628 -0.92498749494552612 -0.59651672840118408 0.78664350509643555 1.7093597650527954 0.33293947577476501 -0.52909356355667114
  1.1728211641311646 -0.34512093663215637 0.43204879760742188 -0.6796533465385437 0.53185641765594482 -1.1466902494430542 -0.028170889243483543 -0.94368499517440796 -1.5831341743469238 1.3677136898040771 3.8678815364837646 -2.5360348224639893 0.0791507288813591 2.6363039016723633 -2.1391763687133789 -2.6970140933990479 -1.5821419954299927 -0.68257218599319458 1.4901195764541626 0.58079648017883301 -0.14844305813312531 -2.2769317626953125 0.1556963324546814 0.80145567655563354 -0.64475715160369873 1.1146161556243896 1.2344491481781006 -0.26324591040611267 0.077852174639701843 0.30930730700492859 0.58957070112228394 -2.5236129760742188 -0.015434576198458672 -0.33925262093544006 1.1040420532226562 0.012328815646469593 -0.35282602906227112 -0.98865288496017456 -1.1388223171234131 -2.5944292545318604 0.30979135632514954
  0.84182542562484741 0.49311891198158264 0.5230182409286499 -1.3172160387039185 -0.071161702275276184 0.12332604825496674 0.27636078000068665 0.47027820348739624 0.33127471804618835 0.46407222747802734 1.5666537284851074 0.31919920444488525 0.14430487155914307 0.90931022167205811 -1.4027471542358398 -0.72446215152740479 -0.53259176015853882 1.0838966369628906 0.7223740816116333 0.47540310025215149 -0.98425722122192383 -0.64796555042266846 0.35760781168937683 0.67036360502243042 0.27053457498550415 0.78288048505783081 -0.40475818514823914 -0.84095871448516846 -0.01840716227889061 0.55122077465057373 -0.017426822334527969 -0.63367420434951782 -0.88188362121582031 0.37402287125587463 1.0590850114822388 -0.4758603572845459 0.042333889752626419 -0.053766872733831406 0.77161377668380737 -1.4967849254608154 -0.33015727996826172
  0.77240204811096191 -0.31487017869949341 1.3262158632278442 0.028736703097820282 -0.45589169859886169 -0.83268207311630249 0.6182442307472229 -0.88765126466751099 -0.42922696471214294 -0.16458797454833984 0.85344213247299194 1.0230993032455444 -1.5112019777297974 -0.053974207490682602 0.55471009016036987 1.0534379482269287 -1.5887247323989868 -0.14873670041561127 -0.57989740371704102 -0.32386961579322815 0.52031421661376953 1.4477177858352661 -0.43496233224868774 -0.39017477631568909 0.25545135140419006 -0.63230913877487183 -0.2155221700668335 0.15311859548091888 -1.0081181526184082 -0.54852068424224854 -0.7488287091255188 -0.44490644335746765 1.6489320993423462 -0.31535607576370239 -0.070015430450439453 -0.9823879599571228 1.2509621381759644 0.96372413635253906 -0.52346897125244141 1.0581634044647217 -1.057246208190918
  0.018431052565574646 0.68817627429962158 -0.39383667707443237 0.47816970944404602 -2.3568894863128662 -0.94206929206848145 1.326301097869873 -0.256278395652771 -1.0303232669830322 0.48384371399879456 -0.6667136549949646 0.27426093816757202 -1.0192228555679321 0.2737581729888916 -0.37219783663749695 -0.28028035163879395 1.0305919647216797 -1.2638988494873047 0.65738534927368164 0.81663733720779419 1.3766798973083496 0.31541904807090759 0.16263389587402344 0.3007875382900238 -0.085401169955730438 -0.32839596271514893 -1.1596614122390747 1.1763483285903931 1.4754878282546997 0.57538610696792603 0.61268037557601929 0.27153879404067993 0.69020432233810425 -0.3567192554473877 0.011298781260848045 0.27820470929145813 -0.71668046712875366 2.0932683944702148 1.2726422548294067 1.2682541608810425 -1.1267545223236084
  0.041230663657188416 -0.32204774022102356 0.24943771958351135 -1.5577794313430786 0.25248116254806519 -0.80593794584274292 0.24967083334922791 -0.75860446691513062 0.3958580493927002 0.11007677763700485 -1.0757290124893188 0.58702212572097778 -0.2700011134147644 0.53590279817581177 -1.3295725584030151 0.37429308891296387 0.86470866203308105 0.17469388246536255 0.71535056829452515 0.29098299145698547 0.023859787732362747 0.40621542930603027 0.44729608297348022 0.10668160766363144 -0.60937130451202393 -1.1212166547775269 -0.27689561247825623 0.63052618503570557 -0.51871335506439209 0.81135541200637817 0.37813860177993774 -0.30540281534194946 0.90398132801055908 -1.098357081413269 -0.2927892804145813 0.39351639151573181 -0.26859518885612488 -0.22301752865314484 -0.19495300948619843 0.76003652811050415 -0.3375048041343689
  0.26193135976791382 -1.0365128517150879 0.86066561937332153 0.2827402651309967 -0.0024343200493603945 0.27287733554840088 2.005528450012207 -1.0804207324981689 0.15897473692893982 2.0077254772186279 0.35550501942634583 0.73285740613937378 -0.35189703106880188 1.0294315814971924 -0.10620765388011932 0.27282798290252686 -1.4352928400039673 -0.95254552364349365 -0.36233916878700256 -0.62014013528823853 1.8397939205169678 1.6714836359024048 -1.2617628574371338 2.2438552379608154 -0.36698144674301147 -2.0804822444915771 -1.5645303726196289 0.63300567865371704 2.0704255104064941 -1.5676126480102539 -0.76810961961746216 -0.56758159399032593 0.18010115623474121 -0.69109433889389038 1.8513768911361694 0.72102880477905273 0.96099114418029785 -0.65576708316802979 -1.0841434001922607 -0.10083916038274765 -0.17044495046138763
  -0.58187508583068848 0.89186263084411621 1.0449966192245483 -0.95194435119628906 0.27711746096611023 0.13348096609115601 1.2893660068511963 -0.36165201663970947 -0.55010318756103516 -0.15059660375118256 -1.1326771974563599 -0.88109266757965088 0.39750885963439941 -0.65160983800888062 -0.48928576707839966 1.8498152494430542 -1.5564612150192261 -0.022968130186200142 0.63769179582595825 -0.81670200824737549 0.78919583559036255 2.0788037776947021 0.80306816101074219 -0.37420615553855896 0.29604792594909668 -1.1306031942367554 0.44408181309700012 -0.24683399498462677 2.5801200866699219 -1.6480756998062134 -0.35995745658874512 0.80269837379455566 -0.45758399367332458 -0.29274800419807434 -0.15806719660758972 -1.6194785833358765 0.027395587414503098 -1.2851901054382324 -0.52541494369506836 -0.23492902517318726 1.0501483678817749
  0.28761580586433411 0.33041086792945862 -0.74424922466278076 -1.5095119476318359 1.2460405826568604 0.45383414626121521 1.5136322975158691 0.62013089656829834 -0.32854557037353516 -1.3665996789932251 -0.86594843864440918 -1.4498296976089478 0.095049582421779633 -0.73518848419189453 -0.64719408750534058 -0.29214176535606384 -0.36970236897468567 0.25325623154640198 -0.81954318284988403 0.9006161093711853 -0.4442935585975647 -0.8394390344619751 -1.5293558835983276 0.39436578750610352 -0.41272211074829102 0.51742398738861084 -0.015844117850065231 0.45742815732955933 1.308968186378479 -0.45038709044456482 1.325037956237793 -0.3535158634185791 0.80875784158706665 0.16475328803062439 0.96516090631484985 0.54896312952041626 -0.80475080013275146 0.012437921948730946 0.21990217268466949 0.14246539771556854 -0.17097631096839905
  0.19712963700294495 1.3161165714263916 -1.5634595155715942 -0.1791251003742218 0.75198996067047119 -0.016909101977944374 0.80950015783309937 1.4248673915863037 0.21446652710437775 0.48039057850837708 -2.0459227561950684 -0.62018698453903198 1.0181597471237183 -0.97595709562301636 -0.29258394241333008 -0.20136211812496185 -0.36207157373428345 0.83519667387008667 -0.29277434945106506 1.7424057722091675 -1.813357949256897 -0.81734579801559448 -1.5527244806289673 -0.46901804208755493 -0.30074712634086609 1.0901069641113281 1.2542603015899658 0.32560437917709351 0.7737724781036377 0.96374303102493286 1.7327170372009277 -0.39766815304756165 0.081655308604240417 1.0710786581039429 -0.48705646395683289 0.80540299415588379 -0.36454415321350098 1.124600887298584 -0.45498797297477722 0.062235008925199509 0.35240888595581055
  -0.98230153322219849 1.8195199966430664 -0.73696953058242798 0.21285116672515869 0.97730875015258789 0.082463063299655914 -0.1823287308216095 1.2734365463256836 1.900501012802124 -2.0267045497894287 -0.74927955865859985 -0.37523508071899414 0.23386232554912567 -0.27861160039901733 -1.6500500440597534 0.80571335554122925 1.1602143049240112 1.2507196664810181 -1.199892520904541 -0.53672552108764648 1.9838453531265259 1.4526034593582153 1.329497218132019 0.69535952806472778 0.23017527163028717 -0.50338685512542725 0.57211285829544067 -2.0501456260681152 -0.30236783623695374 0.81120282411575317 -1.7304787635803223 -0.051071513444185257 -0.97771012783050537 -1.4553437232971191 -0.18832698464393616 2.3036553859710693 0.30615827441215515 -0.41415849328041077 0.50134289264678955 0.52789890766143799 0.98565411567687988
  0.40316116809844971 0.55744791030883789 -0.17471291124820709 0.25482380390167236 -2.4716193675994873 -2.8305678367614746 1.7157741785049438 -1.3813982009887695 -1.5751045942306519 1.8274756669998169 -0.15362942218780518 0.3800768256187439 0.35147997736930847 1.2116754055023193 -0.15540802478790283 0.44828400015830994 1.2486499547958374 -0.95612025260925293 0.2162809818983078 -1.4458870887756348 0.77620434761047363 -0.59497290849685669 -1.6133570671081543 0.73000580072402954 0.29804441332817078 -0.2122233510017395 -1.252472996711731 0.71554899215698242 2.1615025997161865 -1.5885123014450073 0.35468077659606934 0.059369675815105438 2.3525321483612061 -0.42645493149757385 1.3278206586837769 -0.38947182893753052 2.4595229625701904 0.9904482364654541 0.044703099876642227 0.31514057517051697 0.57504624128341675
  -1.2903773784637451 0.34609949588775635 1.5087954998016357 -2.013634204864502 -0.63234400749206543 -1.1499671936035156 0.6758914589881897 -0.54867768287658691 -1.4265546798706055 0.56101346015930176 -0.16945117712020874 -0.5384519100189209 -1.0480268001556396 -0.59178757667541504 -0.56351858377456665 0.76017516851425171 -0.022738505154848099 -0.077360592782497406 -0.032521400600671768 -1.7152256965637207 1.3540040254592896 2.0993025302886963 1.8278462886810303 -0.88148784637451172 0.79506778717041016 0.31391587853431702 -0.10480819642543793 0.43470993638038635 1.8488742113113403 -2.2917518615722656 -0.091099433600902557 1.9026211500167847 1.4498715400695801 -0.57366591691970825 -0.1152636855840683 -1.2300643920898438 1.1081545352935791 -1.260629415512085 -0.28114131093025208 0.32551035284996033 0.63200801610946655
  1.2583235502243042 -0.6598246693611145 1.5674569606781006 0.9283369779586792 -0.25000935792922974 0.084025219082832336 0.6239885687828064 -0.59425020217895508 2.0061166286468506 0.73238474130630493 -0.94484949111938477 0.62175893783569336 0.78150671720504761 -0.59674900770187378 -1.6913508176803589 -2.0707032680511475 -1.4976911544799805 -0.51042729616165161 0.69608402252197266 0.4227941632270813 -0.33978423476219177 1.0040097236633301 -0.082415401935577393 0.52666115760803223 0.51864933967590332 1.3406307697296143 -1.2068183422088623 -0.63487958908081055 0.066298939287662506 2.420459508895874 0.61046350002288818 0.82445359230041504 0.62541580200195312 0.73439544439315796 -0.56868553161621094 -0.53485327959060669 -2.5228843688964844 1.6779557466506958 2.650376558303833 1.5371184349060059 -1.4813069105148315
  -0.51614189147949219 0.23319533467292786 1.1935546398162842 -0.064977444708347321 -0.12164463847875595 -0.74206751585006714 -0.53488129377365112 -0.82824212312698364 1.2126051187515259 -0.46255114674568176 0.12107416987419128 -0.86315315961837769 0.43385741114616394 0.40190964937210083 -1.1612461805343628 0.04003429040312767 -0.41045638918876648 -0.57821875810623169 -0.031030716374516487 -0.2914440929889679 -1.1401549577713013 -0.53856313228607178 0.81927728652954102 -0.85073298215866089 -0.16698482632637024 -0.74438047409057617 -0.41528844833374023 0.037735242396593094 -0.066079571843147278 0.77661794424057007 -0.41956359148025513 -0.17148350179195404 0.79041647911071777 -0.43109604716300964 -0.60238617658615112 0.62737083435058594 -0.15764695405960083 0.23205269873142242 -0.067656479775905609 -0.83581358194351196 0.53065311908721924
  1.0746806859970093 0.11706122010946274 -0.40235051512718201 0.61600404977798462 0.15913304686546326 0.057688511908054352 -0.87151646614074707 -0.16825138032436371 1.0840102434158325 0.38325265049934387 -1.3966164588928223 -0.11086250096559525 2.574892520904541 -0.24581152200698853 -0.6257176399230957 -0.56194764375686646 -0.063019514083862305 0.73505443334579468 -0.026958305388689041 0.25788545608520508 0.72081273794174194 0.1082833930850029 0.11591197550296783 0.91758894920349121 -1.9528883695602417 1.0070946216583252 0.73658418655395508 0.53626382350921631 0.59500181674957275 0.66314917802810669 1.2292447090148926 -0.10157506167888641 -0.57411658763885498 1.5930873155593872 -1.9243658781051636 0.93394750356674194 -1.4386430978775024 0.274222731590271 2.2847895622253418 0.61862361431121826 -1.0531067848205566
  -1.7710751295089722 -0.74277186393737793 -0.55616503953933716 -0.16311776638031006 0.5455622673034668 0.44630277156829834 0.93480062484741211 0.036027967929840088 1.0781817436218262 0.034106947481632233 -0.83354365825653076 -0.89503109455108643 0.14792336523532867 0.0069837318733334541 -0.86723440885543823 -0.49957761168479919 -0.26929154992103577 -0.12011338025331497 -0.47331616282463074 1.1315683126449585 -0.45087862014770508 0.36407241225242615 0.33630815148353577 -1.3956385850906372 -0.79923015832901001 0.69376260042190552 0.3540310263633728 0.84715187549591064 0.31573265790939331 0.091407641768455505 -0.46618574857711792 -0.0096982689574360847 0.20418919622898102 -1.4364297389984131 -0.55630964040756226 0.29599884152412415 -1.3552453517913818 0.69281959533691406 0.50167912244796753 -0.13554205000400543 -0.3995853066444397
  -1.0622053146362305 -2.1005494594573975 0.99360162019729614 1.1412245035171509 -0.074262097477912903 1.7345806360244751 1.1628656387329102 0.4069531261920929 0.32308405637741089 -0.0075409929268062115 1.9612802267074585 -0.6076086163520813 0.19427259266376495 -0.2895355224609375 1.5849282741546631 0.57606655359268188 -0.39145046472549438 0.64895713329315186 0.45192402601242065 1.1063064336776733 -0.90922713279724121 -0.42190393805503845 0.48449748754501343 -0.010697176679968834 0.92073887586593628 -1.73088538646698 -1.6766297817230225 0.95064198970794678 -0.32539936900138855 -0.52621734142303467 0.33987283706665039 -0.40616294741630554 1.5660383701324463 0.67916488647460938 -0.50527107715606689 0.68653720617294312 -0.63017159700393677 -1.3196821212768555 -0.63324487209320068 -2.2737915515899658 0.12984734773635864
  -0.3325076699256897 -0.84651821851730347 1.305138111114502 0.86165285110473633 -0.45557773113250732 0.38417577743530273 0.59387189149856567 0.22805090248584747 0.53156644105911255 -0.2233550101518631 0.71984249353408813 -0.27333569526672363 0.79801076650619507 -0.22561731934547424 1.2793524265289307 0.82112807035446167 -0.14580389857292175 0.84580546617507935 0.11800606548786163 0.55059337615966797 -1.3110238313674927 0.085116542875766754 0.5687749981880188 1.1270394325256348 0.075585335493087769 -0.26854893565177917 -0.96429687738418579 0.036049727350473404 -0.34474200010299683 -0.52732986211776733 0.59668213129043579 0.09654805064201355 0.71911972761154175 0.16293972730636597 -0.75889188051223755 0.50997364521026611 -0.16932730376720428 -0.22491924464702606 -0.16555945575237274 -1.5935255289077759 0.44391033053398132
  -0.22756721079349518 0.87958675622940063 1.4374427795410156 1.0047981739044189 0.60092055797576904 -0.59798413515090942 -0.27045422792434692 -0.79495900869369507 -0.75805038213729858 0.28907367587089539 -0.72095304727554321 -0.42139837145805359 -0.10306983441114426 -0.019393682479858398 0.0012818995164707303 -0.67136120796203613 -0.84814518690109253 -0.57707875967025757 0.11781802028417587 -0.80911201238632202 0.0419192835688591 1.0365787744522095 -0.30925717949867249 0.0083532780408859253 0.72369098663330078 -1.2039490938186646 -1.0646737813949585 -1.0479894876480103 -0.74422347545623779 -0.97824722528457642 -0.46907085180282593 0.89507341384887695 0.51171040534973145 -1.054044246673584 -0.23522597551345825 -1.2203618288040161 0.15833579003810883 1.548089861869812 0.29652613401412964 0.83743441104888916 1.1521140336990356
  -0.93390965461730957 -0.21899323165416718 -0.20473591983318329 -0.88722020387649536 -0.24447745084762573 -0.12230204045772552 -0.57873767614364624 0.22115592658519745 -0.40282389521598816 0.1379922479391098 -0.36856919527053833 -0.10432426631450653 0.25794827938079834 0.49668976664543152 0.016827205196022987 0.97137999534606934 -1.0842880010604858 0.52468883991241455 -0.47459769248962402 -0.44858512282371521 1.1360105276107788 0.99726700782775879 1.0271676778793335 -1.0032556056976318 -0.50849068164825439 -0.54410797357559204 0.70717895030975342 -0.20738622546195984 0.67885082960128784 -0.95108401775360107 0.02093079499900341 -0.0074151805602014065 0.41977369785308838 -1.0999209880828857 0.83362030982971191 -0.61998122930526733 0.31994682550430298 -1.2456824779510498 -0.01403479278087616 -0.50767844915390015 0.30902314186096191
  0.82569235563278198 -0.050412103533744812 -1.5770721435546875 -0.15468764305114746 -0.23133765161037445 1.2264174222946167 -0.21957843005657196 -1.0068286657333374 -0.41202008724212646 1.0836969614028931 0.44228875637054443 -0.27924126386642456 -0.58056217432022095 -0.59898316860198975 -0.31672918796539307 -0.62356370687484741 1.5037044286727905 -0.27339485287666321 0.26954841613769531 -0.81949597597122192 1.5575590133666992 -1.4233266115188599 -2.3226113319396973 -0.28799214959144592 -0.17194510996341705 0.91771596670150757 0.31550288200378418 -1.0975240468978882 -0.8912661075592041 -0.11825069785118103 -0.69647061824798584 -0.55967080593109131 -0.054707217961549759 -0.48430371284484863 -0.81582212448120117 -0.26011097431182861 -1.5372198820114136 0.9095451831817627 -1.3677778244018555 -0.3525119423866272 1.2848838567733765
  0.55875581502914429 1.770238995552063 -1.1704471111297607 1.0217933654785156 0.93193501234054565 0.7874826192855835 -0.095371700823307037 -0.4688621461391449 0.96101820468902588 0.1406964510679245 -0.1034565195441246 -0.42301610112190247 0.90572279691696167 1.0812318325042725 0.21308444440364838 0.77366888523101807 -0.62699580192565918 -0.22664758563041687 1.3355060815811157 -0.38223981857299805 -0.29329720139503479 0.35492327809333801 -0.69589328765869141 -1.2330858707427979 1.0655885934829712 -0.089420348405838013 -0.6956782341003418 0.12839643657207489 0.42329850792884827 0.18634063005447388 -0.75352668762207031 -0.84488868713378906 1.2631990909576416 0.33860722184181213 -0.64171189069747925 -0.085561126470565796 -0.7940518856048584 -1.013658881187439 1.4567666053771973 1.0898599624633789 0.57235538959503174
  -0.49976393580436707 1.6532121896743774 0.91077005863189697 0.10215406864881516 -0.13078345358371735 0.62082093954086304 -0.78796190023422241 -0.31902199983596802 0.31294944882392883 -0.82110720872879028 0.07119172066450119 0.13306142389774323 -0.055134862661361694 -0.58186101913452148 0.42441365122795105 1.5405917167663574 0.040743414312601089 -0.52303791046142578 -0.31802016496658325 0.4394565224647522 -0.25427445769309998 0.33204969763755798 -0.16787493228912354 0.33272376656532288 -0.15941682457923889 -0.26236897706985474 0.75102066993713379 1.0330734252929688 0.6559441089630127 -0.43801343441009521 -0.51289248466491699 -0.57152765989303589 -0.4550519585609436 -1.3028715848922729 0.018740637227892876 -0.17009724676609039 -0.67717033624649048 -1.5081111192703247 0.60388505458831787 0.64836174249649048 -0.79259610176086426
  0.43123900890350342 -0.98457294702529907 0.16784070432186127 0.63800668716430664 1.3227763175964355 -0.90821725130081177 -1.6487345695495605 2.7643396854400635 -0.60030204057693481 0.79021263122558594 0.7516016960144043 0.49569669365882874 -0.53864800930023193 -0.025646990165114403 0.13011595606803894 0.86191940307617188 -0.44519078731536865 0.74740171432495117 0.26810529828071594 0.26385980844497681 0.35360017418861389 2.0182538032531738 2.3850796222686768 0.032568879425525665 -0.71253162622451782 -1.1827727556228638 -0.32503795623779297 0.023072928190231323 -2.2723898887634277 2.43896484375 -1.2234843969345093 -0.24854022264480591 -0.57052773237228394 -0.18580672144889832 -0.67675012350082397 -0.13320544362068176 0.23549340665340424 0.48213216662406921 -0.64767587184906006 -0.074978873133659363 0.28170549869537354
  0.62786412239074707 -0.45514652132987976 -1.3413165807723999 -0.67486637830734253 1.1010808944702148 -1.2637500762939453 0.70632922649383545 2.5913121700286865 2.3621764183044434 1.4700767993927002 -0.11806511133909225 0.69785416126251221 0.96029287576675415 0.5300324559211731 -0.55248349905014038 1.7033262252807617 -0.083735913038253784 1.3788213729858398 -0.17712228000164032 -0.463675856590271 1.7983523607254028 2.2971343994140625 2.4089748859405518 -0.050293143838644028 -1.2345315217971802 -0.67011457681655884 0.97762197256088257 -0.52918410301208496 0.95929247140884399 0.77500170469284058 -2.2339315414428711 -0.23635862767696381 -0.86195051670074463 -0.51946097612380981 -1.3963280916213989 2.8495118618011475 1.3143379688262939 -1.2072384357452393 -0.82354778051376343 -0.76398253440856934 -0.73584747314453125
  0.39292773604393005 -1.2419623136520386 1.579380989074707 0.15062984824180603 0.7191234827041626 -0.063543021678924561 -1.0322242975234985 -3.137324333190918 -0.039635065943002701 0.25205904245376587 1.1871527433395386 -2.3403739929199219 -0.81248271465301514 -0.87567746639251709 2.4908974170684814 -2.2674064636230469 -2.2144346237182617 0.47480207681655884 0.78705358505249023 -3.3969435691833496 -0.34813857078552246 -2.0764179229736328 -1.0877296924591064 -1.2629358768463135 0.068659298121929169 1.0525935888290405 1.1490588188171387 0.99131882190704346 -0.66730397939682007 -0.63075894117355347 0.54448449611663818 -1.7409464120864868 -0.92526739835739136 1.2763696908950806 3.2461459636688232 -0.85393822193145752 -0.43669131398200989 -0.26999774575233459 -0.34652692079544067 -0.42429053783416748 -1.3942288160324097
  0.66923195123672485 -0.41350552439689636 0.14058901369571686 1.104810357093811 0.24902172386646271 1.2724319696426392 0.57838082313537598 -2.4063537120819092 -0.57460319995880127 0.41601964831352234 1.1805152893066406 -0.44545251131057739 -1.4616450071334839 -1.6456408500671387 0.40827178955078125 -1.3201936483383179 -0.570778489112854 0.46146252751350403 1.7158530950546265 -0.69439584016799927 0.63594776391983032 -0.5667271614074707 -2.1736631393432617 -0.84720432758331299 0.23063501715660095 2.424027681350708 -0.86033207178115845 -1.9062341451644897 -1.1037471294403076 -0.63441586494445801 -0.3610725998878479 -2.3158199787139893 -0.58537250757217407 0.40635553002357483 0.62368541955947876 -2.173792839050293 -2.433795690536499 -0.46625179052352905 -1.4806835651397705 -0.5975307822227478 -0.44830065965652466
  0.74390369653701782 -1.2836374044418335 0.4315115213394165 0.014711669646203518 0.21101415157318115 0.82532137632369995 -0.11922164261341095 -3.2990820407867432 0.044158730655908585 0.23520004749298096 1.4746195077896118 -1.2048772573471069 -1.0862900018692017 -0.95381456613540649 0.97924983501434326 -1.4789313077926636 -0.73829501867294312 0.41893488168716431 0.43287670612335205 -2.1242022514343262 1.5703392028808594 -1.1576544046401978 -1.4420233964920044 -0.81361812353134155 -0.010320756584405899 1.3517208099365234 0.15979582071304321 -1.5417077541351318 -0.86098414659500122 -0.88331103324890137 0.71841675043106079 -1.8395341634750366 -0.68886107206344604 0.8899880051612854 0.6088295578956604 -1.2763642072677612 -1.8730874061584473 1.1654297113418579 -1.2356096506118774 -0.15333165228366852 -2.0647778511047363
  0.10507041960954666 1.3732187747955322 0.29523977637290955 0.17462413012981415 1.0966465473175049 -1.6031031608581543 -0.62819045782089233 0.094874061644077301 -0.81847459077835083 1.2484664916992188 -0.21586869657039642 0.19324541091918945 0.10478510707616806 0.051189668476581573 0.40540909767150879 -0.25041842460632324 1.7216622829437256 -0.77244919538497925 -0.13380619883537292 -1.1519745588302612 0.65634721517562866 1.234113335609436 -0.26770845055580139 0.43929541110992432 0.066016398370265961 -0.58317363262176514 1.4622970819473267 -0.78519558906555176 -1.303138256072998 -2.0229117870330811 -1.0174555778503418 0.91847801208496094 -0.20996791124343872 -1.4758014678955078 0.43539264798164368 -0.22041897475719452 0.84372341632843018 1.1799570322036743 -0.030755266547203064 0.15702506899833679 1.5612218379974365
  0.67339783906936646 -1.1702119112014771 -0.76028949022293091 0.37584248185157776 1.0646839141845703 -1.6823912858963013 -0.56878817081451416 1.9979373216629028 -1.4252514839172363 -0.29641282558441162 -0.16766726970672607 -0.31034249067306519 -0.77335995435714722 -0.65529042482376099 0.39069062471389771 -0.23803751170635223 1.6174445152282715 -0.17705689370632172 -1.3696111440658569 -1.0922449827194214 0.033366523683071136 0.62202411890029907 0.31829497218132019 -0.41105300188064575 0.4317777156829834 0.062480457127094269 0.024062188342213631 -0.5308845043182373 -1.3982516527175903 2.4410903453826904 0.20211708545684814 1.0886813402175903 0.34142860770225525 -0.80410772562026978 -0.52326613664627075 -0.71076464653015137 2.2358818054199219 0.71006059646606445 -0.82916903495788574 0.92760938405990601 0.75714361667633057
  1.6032993793487549 -1.7135788202285767 0.14645186066627502 -0.18065376579761505 -0.23253950476646423 0.75300931930541992 -0.62303924560546875 1.3057584762573242 -0.012402879074215889 -0.64696711301803589 1.0856553316116333 0.17144639790058136 -1.9545050859451294 -0.28359562158584595 -0.3234373927116394 0.76002770662307739 -0.25573006272315979 -0.093066900968551636 -1.468783974647522 0.91505193710327148 -0.30172821879386902 -1.0558359622955322 -0.090408958494663239 0.3078683614730835 0.77583378553390503 0.98291760683059692 -1.1250689029693604 0.72149360179901123 -1.0440070629119873 0.33092263340950012 1.7350809574127197 0.28707590699195862 0.92965596914291382 0.25867584347724915 -0.41448259353637695 0.32935476303100586 0.16725574433803558 -0.70360296964645386 -1.6109917163848877 -0.84679323434829712 -0.14324085414409637
  0.80967962741851807 -0.49166089296340942 0.15154768526554108 1.4801734685897827 -0.354514479637146 -0.76364552974700928 -0.26216709613800049 2.1522068977355957 0.38574990630149841 -0.49722877144813538 0.64480704069137573 0.56912076473236084 -0.17885121703147888 0.01378388237208128 -0.0015563331544399261 0.59123814105987549 -1.1086902618408203 1.7401682138442993 -0.53659957647323608 0.74179130792617798 -1.1349599361419678 -1.6503158807754517 -0.44254675507545471 -0.54520505666732788 0.98610848188400269 1.0796910524368286 -0.5782092809677124 0.98099720478057861 0.30918052792549133 1.015898585319519 1.7355709075927734 -0.59587520360946655 -0.18835528194904327 0.69510328769683838 -0.67525160312652588 -0.096266970038414001 0.25614994764328003 -0.26697650551795959 -0.26185545325279236 -1.2063627243041992 -0.1848030686378479
  0.24342063069343567 0.44969591498374939 0.033154450356960297 0.95362579822540283 -0.01378965750336647 1.5341969728469849 -0.0097438972443342209 0.27027246356010437 0.042892474681138992 0.20528489351272583 0.13896927237510681 1.032900333404541 -0.30367916822433472 -0.4394029974937439 0.28782126307487488 -0.29987439513206482 0.3098989725112915 -0.30037528276443481 1.2781059741973877 1.1739637851715088 -0.53951269388198853 1.5114724636077881 0.97225046157836914 0.19524633884429932 -0.56284475326538086 -0.68591207265853882 -1.4798307418823242 -0.89480191469192505 -0.21216025948524475 0.10540716350078583 -0.075609400868415833 -0.22505263984203339 -0.50328457355499268 1.1642125844955444 -1.1047978401184082 -0.36976119875907898 -1.3565362691879272 0.11941570043563843 0.33751332759857178 -0.42383471131324768 -0.88664871454238892
  -1.5830205678939819 1.5763633251190186 -0.012879624962806702 -0.64864277839660645 0.17281819880008698 0.77267163991928101 -0.12970496714115143 -1.3340232372283936 -0.79802441596984863 -0.12520986795425415 -1.0454097986221313 -1.4651393890380859 -0.41024112701416016 -0.7156866192817688 1.4748502969741821 0.13579195737838745 -0.45813122391700745 -1.248146653175354 -0.018072128295898438 1.8676630258560181 0.053104981780052185 0.45573681592941284 -0.71226465702056885 0.87701725959777832 0.36809670925140381 -0.77109444141387939 0.6357187032699585 1.2495726346969604 0.54689222574234009 -0.091455705463886261 2.33758544921875 -0.43274024128913879 -0.35498011112213135 -0.30770134925842285 0.018875354900956154 0.81796431541442871 -1.642064094543457 -0.16821116209030151 -1.2632228136062622 0.2423088401556015 0.34735706448554993
  0.369861900806427 -1.1608561277389526 -0.68176627159118652 1.178276538848877 -0.47917771339416504 -0.63162064552307129 -0.45295912027359009 1.2686219215393066 -0.45187205076217651 -2.5074548721313477 -0.35033458471298218 1.3804494142532349 -1.8408621549606323 -0.10498695075511932 0.57837861776351929 -0.11621981114149094 3.0691554546356201 0.075257070362567902 -0.85954618453979492 -1.3387444019317627 0.67934602499008179 -0.052619516849517822 0.39197993278503418 -0.49335509538650513 0.036893032491207123 -0.37510943412780762 -0.76176989078521729 -2.2640750408172607 -2.2121696472167969 3.3891944885253906 -1.159569263458252 -0.68794214725494385 -0.82333499193191528 -0.58631306886672974 0.54754406213760376 -0.78012716770172119 0.69820088148117065 0.45926624536514282 2.4036052227020264 1.2032920122146606 1.1418066024780273 ]
 [ -0.6017991304397583 -0.3570658266544342 1.9914261102676392 0.64360356330871582 -0.43629598617553711 -0.11643701791763306 0.66946876049041748 -0.88239097595214844 0.5421290397644043 -0.0011420551454648376 -0.089379288256168365 -0.063296414911746979 0.03372206911444664 0.034242626279592514 -0.19319735467433929 0.8264240026473999 0.70736730098724365 1.551605224609375 0.27008792757987976 -1.6039708852767944 -0.023096803575754166 -0.98882144689559937 -0.143480584025383 -0.31648746132850647 0.66299378871917725 0.1473115086555481 0.13036519289016724 -0.19619221985340118 0.57719367742538452 0.047278150916099548 0.52325582504272461 0.080712169408798218 -1.9671560525894165 -0.70046603679656982 -0.74115663766860962 -0.70293796062469482 -0.081824064254760742 -0.59511560201644897 -0.18567721545696259 0.41589131951332092 0.83501380681991577 0.29733085632324219 ]
<softmax> 42 42
</Nnet>
