<Nnet>
<input> 60 60
<affinetransform> 70 60
 [ 
  0.71440654993057251 -1.1045373678207397 -0.86727672815322876 1.0019526481628418 0.51186054944992065 -0.77536642551422119 -0.45362895727157593 0.20703361928462982 0.47093087434768677 -0.055298581719398499 -0.2883313000202179 -0.29078039526939392 0.20850931107997894 -0.13610702753067017 -0.046438746154308319 0.40749660134315491 -0.09273374080657959 -0.28862950205802917 -0.022566180676221848 0.078442484140396118 -0.024536479264497757 -0.14918601512908936 -0.011344742029905319 0.18993210792541504 0.056929286569356918 0.37790682911872864 0.23133045434951782 -0.099421873688697815 -0.42466369271278381 -0.057591874152421951 0.19154724478721619 0.022907203063368797 -0.12126583606004715 -0.067126370966434479 0.042371802031993866 0.18179236352443695 0.020164072513580322 0.25066915154457092 0.16146834194660187 -0.40092536807060242 -0.23453716933727264 0.14065700769424438 0.22429557144641876 0.094311423599720001 -0.13085263967514038 0.043445415794849396 0.098624765872955322 0.041484866291284561 -0.28956851363182068 0.52418798208236694 -0.020398844033479691 -0.91914451122283936 -0.10146556049585342 0.42488369345664978 0.10072673857212067 -0.010616579093039036 -0.25356423854827881 0.21425339579582214 0.24143140017986298 -0.043535258620977402
  0.77977913618087769 -0.33140343427658081 -0.28690838813781738 -0.72380626201629639 -0.45925059914588928 0.0031697454396635294 0.33732625842094421 0.3078138530254364 -0.036523614078760147 0.12907811999320984 0.11416646838188171 -0.50791752338409424 0.37161791324615479 0.15955503284931183 0.11233145743608475 0.2259279191493988 -0.10759646445512772 0.025177767500281334 0.19169445335865021 0.14033995568752289 -0.0782809779047966 -0.040931873023509979 -0.12657895684242249 -0.20325809717178345 0.15610764920711517 -0.11485107243061066 0.17559079825878143 0.4290829598903656 0.082277216017246246 0.070790901780128479 0.23330381512641907 0.14691382646560669 -0.12874668836593628 -0.21015110611915588 -0.098095454275608063 -0.097383014857769012 -0.015904514119029045 -0.31997764110565186 -0.10749837011098862 0.17751897871494293 0.033174075186252594 -0.058623667806386948 0.16887860000133514 0.14945651590824127 -0.0036095725372433662 -0.058761876076459885 0.012098081409931183 0.0028978819027543068 -0.061766404658555984 -0.57960683107376099 -0.48154294490814209 -0.31645157933235168 -0.00048356782644987106 0.13323231041431427 0.1951727569103241 0.16821151971817017 0.010799366980791092 -0.16056868433952332 -0.24579168856143951 -0.15992328524589539
  -0.39842453598976135 0.45176208019256592 0.67280489206314087 0.49409759044647217 0.21162739396095276 -0.22144584357738495 -0.22487331926822662 -0.20531889796257019 -0.46020478010177612 -0.44645920395851135 0.10716158896684647 0.24049775302410126 -0.063201732933521271 0.061178106814622879 0.35253757238388062 -0.15666849911212921 -0.17407228052616119 0.012805976904928684 -0.011155543848872185 -0.066933922469615936 -0.15359680354595184 -0.16007412970066071 0.32792159914970398 0.12795393168926239 0.14966119825839996 -0.091173134744167328 -0.18247716128826141 -0.47206005454063416 -0.15462127327919006 0.19860193133354187 0.10470123589038849 -0.050049088895320892 0.12892937660217285 0.08755512535572052 0.27137026190757751 0.022409213706851006 0.61065679788589478 -0.088424153625965118 -0.49342942237854004 -0.43395417928695679 0.083042442798614502 0.30911228060722351 0.1970868855714798 0.089680522680282593 0.27839165925979614 0.23225551843643188 -0.061938751488924026 -0.23199597001075745 0.09864487498998642 -0.26329511404037476 -0.77396279573440552 -0.23933382332324982 0.30173683166503906 0.21195019781589508 0.32869496941566467 0.17595221102237701 0.3192305862903595 0.49798664450645447 -0.35893633961677551 -0.4162771999835968
  -0.43475252389907837 0.1322178989648819 0.42765212059020996 -0.4650123119354248 -0.080747015774250031 0.23700423538684845 -0.011876299045979977 -0.13194124400615692 -0.11087986826896667 -0.03580164909362793 0.070247642695903778 -0.0075149852782487869 -0.26744803786277771 0.13625085353851318 0.51894658803939819 0.15035977959632874 -0.34095123410224915 0.030503181740641594 0.05562271922826767 -0.2392999529838562 -0.11077647656202316 0.015126653015613556 -0.018449582159519196 0.14344014227390289 -0.17567789554595947 -0.056300736963748932 0.48184734582901001 0.26838472485542297 -0.33896797895431519 -0.17947736382484436 0.026711458340287209 -0.074871473014354706 -0.058056168258190155 0.035260699689388275 0.058297839015722275 0.065842330455780029 0.38871592283248901 -0.10740738362073898 0.089596092700958252 0.31547734141349792 -0.22177691757678986 -0.34912973642349243 -0.038482483476400375 0.14767991006374359 -0.0227996576577425 0.0083162821829319 0.029658598825335503 0.0062184892594814301 1.493643045425415 -0.79032039642333984 -2.077786922454834 -0.17197041213512421 0.85703396797180176 0.077897146344184875 -0.040015805512666702 0.4517078697681427 0.18060047924518585 0.099625252187252045 -0.083563424646854401 -0.27502623200416565
  -0.65339076519012451 0.22147327661514282 -0.24392381310462952 0.20102976262569427 0.057727046310901642 0.055884886533021927 0.10259935259819031 0.39671209454536438 0.24771519005298615 0.050938006490468979 -0.099219851195812225 0.47768524289131165 0.2130986750125885 0.056964334100484848 -0.22766242921352386 -0.16456730663776398 -0.035968273878097534 0.077837295830249786 -0.1283317506313324 0.11141431331634521 0.066714651882648468 -0.0030071032233536243 -0.10085228830575943 -0.15397109091281891 0.46074545383453369 -0.17455066740512848 -0.19069036841392517 -0.33928751945495605 -0.21872569620609283 0.074672184884548187 0.099461257457733154 0.14381808042526245 -0.030534502118825912 -0.058890849351882935 0.066349811851978302 -0.20211084187030792 0.75841015577316284 0.11741620302200317 0.22575300931930542 -0.1887550950050354 -0.29231342673301697 0.057230044156312943 0.042742561548948288 -0.037761244922876358 -0.09789092093706131 -0.026913123205304146 0.042594019323587418 -0.061003342270851135 1.2783025503158569 0.79879891872406006 0.63608372211456299 -0.0090400353074073792 -0.39777469635009766 -0.031505018472671509 0.072205483913421631 -0.050365366041660309 -0.14939752221107483 0.012494700960814953 -0.29206645488739014 -0.22772480547428131
  -0.047492165118455887 -0.040080547332763672 0.46310922503471375 0.30932727456092834 -0.082849174737930298 0.16586828231811523 0.14966364204883575 0.058405343443155289 0.18813444674015045 0.11384397745132446 -0.037977498024702072 0.0029847696423530579 -0.071525014936923981 -0.047350518405437469 0.18181605637073517 0.13560003042221069 0.19493748247623444 0.29908332228660583 0.052893675863742828 0.045281562954187393 0.13261683285236359 0.028830980882048607 -0.060887556523084641 -0.0064369114115834236 0.11340311169624329 0.15441752970218658 0.12135867029428482 0.14766524732112885 0.28910669684410095 0.2053183913230896 -0.036204196512699127 0.052324429154396057 0.17589317262172699 -0.024774093180894852 -0.093194469809532166 0.068656958639621735 0.13731586933135986 0.11537209898233414 0.21519878506660461 0.11634178459644318 0.31209105253219604 0.29756951332092285 0.047255050390958786 0.11797680705785751 0.16221319139003754 -0.15525883436203003 -0.013245163485407829 0.0049748383462429047 0.16196970641613007 -0.31831523776054382 0.234754279255867 0.013687196187674999 0.18794144690036774 0.45208361744880676 0.12612262368202209 0.28457590937614441 0.2820986807346344 -0.041950911283493042 0.24992455542087555 -0.05731356143951416
  0.15130755305290222 0.15700213611125946 0.041235063225030899 -0.093635141849517822 -0.31461027264595032 -0.0076770856976509094 0.30782729387283325 0.33104667067527771 0.17117807269096375 -0.27450358867645264 -0.17852737009525299 0.21223250031471252 0.23759689927101135 0.27543148398399353 0.21127687394618988 -0.094699300825595856 -0.22823487222194672 -0.1035909503698349 0.0036983408499509096 0.017821121960878372 0.051353540271520615 -0.11736264079809189 0.054722055792808533 0.087081372737884521 0.21389120817184448 0.012597112916409969 -0.058026857674121857 -0.20637717843055725 0.04607420414686203 0.056924749165773392 -0.076136186718940735 -0.20652031898498535 -0.042374111711978912 0.11141597479581833 0.3008885383605957 0.018318638205528259 -0.21062694489955902 -0.41278475522994995 -0.35437679290771484 0.018340440467000008 0.4321553111076355 0.21528981626033783 -0.20271262526512146 -0.40218740701675415 0.051435220986604691 0.35719430446624756 0.26342675089836121 -0.048850830644369125 -0.94701081514358521 -0.33239006996154785 0.27713096141815186 0.71080809831619263 0.66965979337692261 -0.03655664250254631 -0.39245188236236572 -0.25387585163116455 -5.9916521422564983e-05 0.2651563286781311 -0.20535759627819061 -0.067790262401103973
  0.48334133625030518 0.6482318639755249 0.93764495849609375 0.74435639381408691 0.24934947490692139 -0.095861539244651794 0.075433149933815002 -0.26651060581207275 -0.0034449510276317596 0.042337734252214432 -0.069384254515171051 -0.099161818623542786 0.47175139188766479 -0.076157361268997192 -0.04864613339304924 -0.25870367884635925 -0.49081024527549744 -0.11511245369911194 0.080567121505737305 0.038122512400150299 0.13562516868114471 0.052043210715055466 0.24570399522781372 -0.028429677709937096 0.1955312192440033 -0.15422289073467255 -0.4715726375579834 -0.64397686719894409 -0.39953163266181946 0.011210719123482704 0.15276932716369629 0.27119630575180054 0.21353210508823395 -0.018201069906353951 0.071903906762599945 -0.10622385889291763 0.18863488733768463 -0.30013337731361389 -0.49426552653312683 -0.43952733278274536 -0.31448003649711609 0.031839147210121155 0.10662247985601425 0.21718841791152954 0.06716802716255188 -0.014632893726229668 0.057838574051856995 -0.10207709670066833 -2.0569751262664795 -0.68786555528640747 -0.60856163501739502 0.4773399829864502 0.96084386110305786 0.57424622774124146 0.37264019250869751 0.38649201393127441 -0.063375875353813171 0.17614121735095978 -0.12431646883487701 0.2618306577205658
  1.0313756465911865 -0.381275475025177 -0.16869021952152252 0.36982357501983643 0.23527020215988159 -0.10649499297142029 -0.051942054182291031 0.088589072227478027 0.10420375317335129 0.030907344073057175 -0.052108582109212875 -0.056073375046253204 0.76055264472961426 -0.22551177442073822 -0.57779628038406372 0.26623663306236267 0.34155270457267761 -0.094402670860290527 -0.21466094255447388 0.10097248107194901 0.13829827308654785 0.041577182710170746 -0.13853330910205841 -0.068242199718952179 0.077222615480422974 0.12470734864473343 -0.53613084554672241 0.12424531579017639 0.4853573739528656 0.32334023714065552 -0.022749872878193855 -0.13023661077022552 0.082303807139396667 0.096490874886512756 -0.14313818514347076 0.0088979098945856094 -0.30905362963676453 0.078162901103496552 -0.02010168693959713 -0.092424787580966949 0.14754879474639893 0.13486136496067047 0.06976066529750824 -0.15169601142406464 -0.052789792418479919 0.0083157327026128769 -0.059432398527860641 0.096218682825565338 -0.57158851623535156 0.13145925104618073 0.39615392684936523 -0.38434839248657227 -0.039361678063869476 -0.10819714516401291 -0.2711566686630249 -0.11981925368309021 0.06708940863609314 -0.08585163950920105 -0.052120361477136612 -0.032945301383733749
  0.080211788415908813 -0.27639526128768921 -0.25173968076705933 -0.87384516000747681 0.079735852777957916 0.24989694356918335 0.24180862307548523 -0.18683390319347382 -0.18153674900531769 -0.2436227947473526 -0.016918355599045753 -0.043693900108337402 0.74345839023590088 0.47406941652297974 -0.29877525568008423 -0.27394253015518188 0.29671373963356018 0.20504830777645111 -0.13716937601566315 -0.54131472110748291 -0.14484067261219025 0.25892302393913269 0.242009237408638 -0.21703304350376129 0.70688557624816895 0.40880218148231506 -0.02846190519630909 0.062408443540334702 0.075310595333576202 0.16651836037635803 -0.041732434183359146 -0.43516680598258972 -0.093671977519989014 0.10915414988994598 0.26764917373657227 -0.1062629371881485 0.56809824705123901 0.38370507955551147 0.13033647835254669 0.19802625477313995 -0.080429680645465851 -0.084644950926303864 0.11862128227949142 -0.23241700232028961 -0.12011825293302536 -0.058264642953872681 0.14135479927062988 0.010597391985356808 0.07035084068775177 -0.29942107200622559 -0.30852308869361877 -0.23640090227127075 0.068514585494995117 0.27416950464248657 0.13950985670089722 0.12306900322437286 -0.024663129821419716 -0.082333885133266449 -0.086296305060386658 0.096356220543384552
  -0.14152772724628448 0.19114537537097931 -0.46743127703666687 0.29971164464950562 0.54468727111816406 0.10322155058383942 0.066578410565853119 0.043274659663438797 -0.057626068592071533 -0.047628931701183319 0.047320611774921417 0.1530209481716156 0.4029165506362915 -0.064667314291000366 0.23251634836196899 -0.2251017689704895 -0.35571607947349548 -0.078466475009918213 -0.17336863279342651 -0.13730023801326752 -0.13878560066223145 0.033654190599918365 0.064946860074996948 -0.03092530369758606 0.089427702128887177 -0.15504360198974609 0.25065475702285767 -0.50165790319442749 -0.64382219314575195 -0.24908508360385895 -0.24913516640663147 -0.2280404269695282 -0.16297607123851776 -0.093084514141082764 0.092263199388980865 0.0033146864734590054 -0.065197445452213287 -0.21705715358257294 0.070714913308620453 -0.48196104168891907 -0.36576122045516968 -0.41760852932929993 -0.24000930786132812 -0.18276481330394745 0.1132887676358223 -0.083935149013996124 0.030638556927442551 0.070796221494674683 1.1580075025558472 0.7099645733833313 0.44979023933410645 0.6320299506187439 0.48897618055343628 -0.10847533494234085 -0.20863258838653564 -0.23339088261127472 0.13460074365139008 0.047589708119630814 -0.21673020720481873 -0.18222646415233612
  1.6126835346221924 -0.63569682836532593 -1.1045264005661011 -0.82363063097000122 0.42661792039871216 0.40600308775901794 -0.093056611716747284 -0.25047779083251953 0.24082699418067932 0.35894721746444702 0.054732184857130051 -0.28251528739929199 0.24712811410427094 -0.1602475643157959 -0.22076793015003204 -0.26975026726722717 0.25828200578689575 0.20362365245819092 0.049240604043006897 0.013116011396050453 -0.10506840795278549 0.00068958615884184837 -0.037259891629219055 0.023159818723797798 0.039006419479846954 0.25370576977729797 0.079178668558597565 -0.026596030220389366 0.0041848383843898773 -0.018128478899598122 0.048333864659070969 0.088883906602859497 -0.1263643354177475 -0.066170327365398407 0.056258942931890488 0.091833882033824921 0.064013831317424774 0.18000157177448273 0.17009498178958893 0.1846403032541275 -0.024510331451892853 -0.077012218534946442 0.049322765320539474 0.064033553004264832 -0.036820925772190094 -0.045251112431287766 0.10094911605119705 0.14773640036582947 -0.35000047087669373 0.020201032981276512 0.39794573187828064 0.18688167631626129 -0.076720103621482849 -0.13072590529918671 0.093281567096710205 0.036639966070652008 -0.0034075719304382801 -0.030853122472763062 0.083565123379230499 0.10762619227170944
  0.85003101825714111 -0.47649359703063965 -0.74339139461517334 0.33063176274299622 -0.14705878496170044 0.07057807594537735 0.28926044702529907 -0.1365169882774353 -0.040474500507116318 0.21438729763031006 -0.12256791442632675 -0.03739575669169426 0.10571244359016418 -0.42347890138626099 0.090427927672863007 0.12083616852760315 -0.32996243238449097 -0.0573846735060215 0.24233725666999817 -0.0073669976554811001 -0.13868986070156097 0.064587458968162537 0.072273388504981995 0.0022290972992777824 0.04781351238489151 -0.14756260812282562 0.10801965743303299 0.13771465420722961 -0.1425192803144455 -0.24886535108089447 0.18959592282772064 0.084459386765956879 -0.090966872870922089 -0.012527449987828732 -0.014874591492116451 0.036927331238985062 -0.089943930506706238 -0.12835821509361267 0.050057128071784973 0.051472242921590805 0.024922827258706093 -0.12322376668453217 -0.032044935971498489 0.13260230422019958 0.064047500491142273 -0.07729484885931015 -0.023927660658955574 -0.0054311337880790234 0.33099040389060974 0.014847197569906712 -0.098294250667095184 0.049770638346672058 0.21226115524768829 -0.017363304272294044 -0.10101629793643951 -0.066046714782714844 0.14423695206642151 0.012669164687395096 -0.084161281585693359 -0.18127629160881042
  0.93683451414108276 0.52726936340332031 0.72650223970413208 0.095006741583347321 -0.092313803732395172 -0.035554062575101852 -0.46485209465026855 -0.42470830678939819 -0.47703644633293152 -0.37090367078781128 0.12747986614704132 -0.10706827789545059 0.099707469344139099 0.98500984907150269 0.76496350765228271 0.77311861515045166 0.53083890676498413 0.19620333611965179 0.21023561060428619 -0.29202288389205933 -0.31051424145698547 -0.27945429086685181 -0.26285359263420105 -0.20115646719932556 0.22696757316589355 0.043336339294910431 0.1561485081911087 0.058747917413711548 0.15994814038276672 -0.026217501610517502 0.15182717144489288 0.12052507698535919 0.056611791253089905 -0.1097157895565033 -0.081126339733600616 -0.13582558929920197 -0.052197970449924469 -0.42797425389289856 -0.49229270219802856 -0.37965101003646851 -0.26600661873817444 -0.040474981069564819 -0.094033695757389069 0.15686714649200439 0.18258604407310486 0.1311754435300827 0.063688233494758606 -0.04183989018201828 -1.263670802116394 -0.41630867123603821 -0.59053009748458862 -0.3572518527507782 -0.14375030994415283 -0.015561054460704327 -0.02715521864593029 0.068937122821807861 0.065827898681163788 0.34837737679481506 0.15511290729045868 0.42001503705978394
  -0.30432158708572388 0.74365615844726562 0.19889169931411743 0.48133471608161926 0.65324550867080688 0.27122452855110168 0.10380435734987259 0.42375144362449646 0.15947619080543518 0.10663653165102005 -0.044060368090867996 0.078995697200298309 0.39486244320869446 -0.0020461804233491421 0.12159411609172821 0.19274626672267914 0.0045597348362207413 0.16374588012695312 0.099508084356784821 0.1915849894285202 0.18461847305297852 0.073391921818256378 0.079045221209526062 -0.078232720494270325 0.44442376494407654 -0.064503036439418793 -0.36340087652206421 -0.29372814297676086 -0.13167925179004669 0.099797904491424561 0.2223745733499527 -0.050821945071220398 0.068691745400428772 -0.042084895074367523 0.032000083476305008 -0.06686624139547348 -0.0070094666443765163 -0.35112503170967102 -0.65721172094345093 -0.73872733116149902 -0.38995122909545898 -0.12978440523147583 -0.029736720025539398 -0.1300300806760788 0.032415632158517838 0.059293366968631744 0.029854167252779007 -0.067766360938549042 0.53047335147857666 -0.3296075165271759 0.84700685739517212 -0.39010021090507507 -0.98251104354858398 -0.74772840738296509 -0.52395510673522949 -0.4905950129032135 -0.2001611739397049 -0.099824391305446625 0.045298215001821518 0.1174023449420929
  0.29825562238693237 -0.020096099004149437 0.26805514097213745 -0.020426800474524498 0.052255049347877502 -0.10082307457923889 -0.059673044830560684 0.032353360205888748 0.056562479585409164 -0.053463876247406006 -0.096761338412761688 0.062510065734386444 0.48411795496940613 0.017903067171573639 -0.21690374612808228 0.077380411326885223 0.095680221915245056 0.023615103214979172 -0.061469677835702896 0.082085102796554565 -0.010742587968707085 0.038417123258113861 -0.079602517187595367 0.038706861436367035 0.59126347303390503 0.10422191768884659 -0.26228389143943787 0.2341264933347702 0.024785725399851799 0.030120791867375374 -0.06811099499464035 0.063369952142238617 -0.030295932665467262 0.086370967328548431 -0.017411438748240471 -0.12683975696563721 -0.24887888133525848 -0.062522284686565399 -0.15243071317672729 -0.0037323106080293655 -0.05225883424282074 0.20054779946804047 -0.0044538523070514202 -0.024960476905107498 -0.076742760837078094 -0.047545060515403748 0.094793148338794708 -0.085344210267066956 -2.8853545188903809 0.39480280876159668 -0.070425406098365784 -0.026771498844027519 0.028740808367729187 -0.046692557632923126 0.24006247520446777 0.10417018830776215 0.031595390290021896 -0.040216125547885895 0.06361813098192215 0.15695226192474365
  1.9647186994552612 0.84032511711120605 0.6284860372543335 -0.057117164134979248 -0.47463598847389221 -0.53460681438446045 -0.17871254682540894 -0.018881618976593018 0.20310719311237335 -0.10004780441522598 -0.10412771999835968 -0.29111874103546143 0.7527807354927063 0.12760031223297119 -0.028056465089321136 -0.18869857490062714 -0.26026210188865662 -0.27920529246330261 -0.18732908368110657 -0.023647047579288483 0.11357249319553375 0.076536029577255249 0.15439583361148834 -0.07745082676410675 0.17109115421772003 -0.047755997627973557 0.18058846890926361 0.10426013916730881 -0.1071835458278656 -0.17494635283946991 -0.14072622358798981 -0.17162550985813141 -0.031112866476178169 0.062920264899730682 0.084746159613132477 0.032107505947351456 -0.37015450000762939 -0.077226132154464722 0.11466591060161591 0.33437329530715942 0.045708563178777695 -0.034697361290454865 -0.052229698747396469 -0.11475422978401184 -0.080132178962230682 -0.03130648285150528 0.051680460572242737 0.11585363745689392 -0.78235197067260742 -0.42750692367553711 -0.093699939548969269 -0.06378454715013504 0.093173190951347351 -0.17247229814529419 -0.064083367586135864 -0.030575292184948921 -0.029939040541648865 0.12879209220409393 0.033597555011510849 0.17185990512371063
  0.1404118537902832 0.52940499782562256 -0.55334740877151489 -0.46518793702125549 0.18927192687988281 0.32666707038879395 0.25940123200416565 0.22337807714939117 0.034407898783683777 0.067604988813400269 -0.012447239831089973 -0.0058147315867245197 -0.18153722584247589 -0.045649349689483643 0.1169666051864624 -0.27521675825119019 -0.24987329542636871 0.16927219927310944 0.097908474504947662 0.10274185240268707 0.051873072981834412 -0.022860592231154442 0.10210978239774704 0.096513420343399048 -0.67990034818649292 0.057240474969148636 0.2282835841178894 -0.12191106379032135 -0.18449938297271729 0.019034527242183685 0.19058750569820404 0.12593789398670197 0.047919664531946182 -0.12088527530431747 0.062623374164104462 0.27922555804252625 -0.57085883617401123 -0.22038918733596802 0.38215035200119019 0.1162603422999382 -0.33745235204696655 -0.30333644151687622 0.00070483051240444183 0.1555180549621582 -0.0016041514463722706 -0.12705889344215393 0.032883040606975555 0.17868781089782715 -0.77907651662826538 -0.12348625063896179 0.65259301662445068 0.65951478481292725 -0.19539535045623779 -0.47711187601089478 0.10058244317770004 0.16739313304424286 0.14397737383842468 -0.073219150304794312 -0.15861262381076813 -0.050058376044034958
  -0.33708441257476807 -0.36615854501724243 0.45170542597770691 -0.21928542852401733 -0.24534203112125397 0.12708616256713867 0.093153618276119232 -0.20318466424942017 -0.021025959402322769 -0.16524036228656769 0.24292908608913422 0.1702498197555542 -0.38294500112533569 -0.1110733300447464 0.092926628887653351 -0.047575861215591431 0.19732986390590668 -0.23871923983097076 -0.048015553504228592 -0.046556506305932999 -0.066010430455207825 0.084317103028297424 -0.072282768785953522 -0.0027371605392545462 0.16336488723754883 0.1144370436668396 -0.45155912637710571 0.02693670429289341 0.45386537909507751 -0.18652305006980896 -0.16952717304229736 -0.06242872029542923 -0.0084147006273269653 0.25580230355262756 -0.042775686830282211 -0.18321618437767029 1.2253473997116089 0.15712973475456238 -0.69931286573410034 -0.21841688454151154 0.23772883415222168 0.2171252965927124 -0.34873715043067932 -0.12334554642438889 0.095191158354282379 0.21222038567066193 0.12849719822406769 -0.24556829035282135 1.0639405250549316 0.60651224851608276 -0.63969695568084717 -0.19439972937107086 0.15232446789741516 0.76390254497528076 0.083005033433437347 -0.33932727575302124 -0.06875871866941452 -0.021368350833654404 0.1484663337469101 -0.10778176784515381
  -0.10530527681112289 -0.11910586804151535 -0.145303875207901 -0.06191059947013855 0.20164889097213745 0.097295552492141724 -0.57602179050445557 0.001166731002740562 -0.017316505312919617 -0.013104816898703575 0.056728363037109375 -0.3068193793296814 0.12175150215625763 0.060245644301176071 -0.011325318366289139 0.089845314621925354 0.13062684237957001 -0.061657987534999847 -0.13478747010231018 0.095041200518608093 -0.14801189303398132 -0.14819760620594025 0.050761625170707703 -0.17413069307804108 0.013773595914244652 0.35114496946334839 0.15422134101390839 0.2886958122253418 0.024375127628445625 -0.213709756731987 0.15077351033687592 -0.045912560075521469 -0.29151886701583862 -0.093705877661705017 0.10298345983028412 -0.12543775141239166 -0.09418555349111557 0.35346925258636475 0.16212017834186554 0.34498295187950134 -0.21658080816268921 -0.2445228099822998 0.19405117630958557 -0.10873409360647202 -0.22983625531196594 0.1220434308052063 0.17194950580596924 -0.046575345098972321 -0.26871463656425476 0.16232022643089294 0.20263034105300903 0.48306617140769958 -0.3842519223690033 -0.2007371187210083 0.064999885857105255 -0.16802403330802917 -0.19266054034233093 0.21675729751586914 0.075716368854045868 0.20311109721660614
  -0.048484258353710175 0.44961258769035339 0.49112251400947571 0.11177495121955872 -0.23051129281520844 -0.13991326093673706 -0.1180674210190773 -0.090160712599754333 -0.077460169792175293 0.016000192612409592 0.073073685169219971 -0.036925293505191803 0.80200475454330444 -0.67672145366668701 -0.3775763213634491 -0.50448131561279297 0.057482495903968811 0.39257434010505676 0.19371841847896576 -0.26720163226127625 0.1182982474565506 -0.010060591623187065 -0.11168257147073746 -0.30453917384147644 0.47132906317710876 -0.68654733896255493 -0.7021365761756897 -0.77670192718505859 0.074269630014896393 0.17232058942317963 0.26903325319290161 -0.078250624239444733 0.061717059463262558 -0.051759865134954453 -0.064231537282466888 -0.1896856427192688 0.39322733879089355 -0.2348436564207077 -0.20659509301185608 -0.38518625497817993 -0.15703439712524414 -0.15042687952518463 -0.10150687396526337 0.052305940538644791 0.10501299053430557 -0.0066830916330218315 -0.063016071915626526 -0.061274714767932892 0.54745441675186157 0.78967040777206421 0.99778437614440918 0.93243670463562012 0.098577693104743958 -0.23951219022274017 -0.29927942156791687 0.16684752702713013 0.16993623971939087 0.14316877722740173 -0.087575249373912811 0.22330416738986969
  0.045554712414741516 -0.19189755618572235 0.28693100810050964 0.31164631247520447 0.13573215901851654 0.13552531599998474 0.13731394708156586 0.073914356529712677 -0.1699090451002121 -0.33311104774475098 0.093580842018127441 0.043739646673202515 -0.33445250988006592 -0.28001123666763306 -0.049775607883930206 0.049039822071790695 0.057243935763835907 0.23947551846504211 0.084945216774940491 0.032349769026041031 -0.18505038321018219 -0.2162834107875824 0.025347575545310974 0.18821938335895538 -0.6415935754776001 -0.20352223515510559 -0.047128438949584961 0.12806546688079834 0.30251368880271912 0.35270017385482788 0.072109811007976532 -0.10491809248924255 -0.22322674095630646 -0.16210374236106873 -0.041403226554393768 0.21764089167118073 -0.48687261343002319 -0.11962945014238358 -0.050967399030923843 0.24918623268604279 0.29927974939346313 0.20139338076114655 -0.020676808431744576 -0.20974184572696686 -0.25161910057067871 -0.09166223555803299 0.02755989134311676 0.12553997337818146 -0.13376423716545105 -0.37903672456741333 -0.17496617138385773 0.34188711643218994 0.35588881373405457 0.071542955935001373 0.015518629923462868 -0.24547456204891205 -0.29138320684432983 -0.17744594812393188 -0.10557462275028229 -0.17555709183216095
  -0.60398703813552856 0.0070476741530001163 -0.31760841608047485 -0.37344256043434143 0.16713219881057739 0.43524172902107239 0.083018973469734192 -0.36549460887908936 -0.058646716177463531 0.20597298443317413 0.24197395145893097 -0.28666436672210693 -0.13724061846733093 -0.2917553186416626 -0.028637958690524101 0.3464408814907074 0.26358717679977417 -0.20427694916725159 -0.086932085454463959 0.015906156972050667 0.24401837587356567 0.10419624298810959 -0.18682324886322021 -0.27079644799232483 0.35528260469436646 -0.46984589099884033 -0.16024620831012726 0.38833954930305481 0.32639780640602112 -0.39623191952705383 -0.18140548467636108 0.11814969778060913 0.28416892886161804 0.15455904603004456 -0.28183561563491821 -0.26766189932823181 0.50377613306045532 -0.26619225740432739 -0.19748269021511078 0.1964518129825592 0.24778707325458527 -0.096466526389122009 -0.11562734097242355 0.0080230142921209335 0.25907516479492188 0.12447695434093475 -0.11483889073133469 -0.13506950438022614 0.10942760109901428 0.34337180852890015 -0.14317144453525543 -0.33072936534881592 0.14737370610237122 0.4392775297164917 -0.056296441704034805 -0.1437346339225769 -0.0014394496101886034 0.10226649791002274 0.24524284899234772 0.12318650633096695
  -0.45742523670196533 -0.055245470255613327 0.14164741337299347 0.21025881171226501 0.14574445784091949 0.083460628986358643 0.311146080493927 0.086690425872802734 0.11144214123487473 0.024428931996226311 -0.15063896775245667 0.033600524067878723 0.051884748041629791 -0.15616905689239502 -0.086986936628818512 -0.011002324521541595 0.12170781940221786 0.021375378593802452 -0.094164371490478516 -0.097409553825855255 0.0087872901931405067 0.055638778954744339 0.060071844607591629 0.040021743625402451 0.031051440164446831 -0.03086460568010807 -0.27499669790267944 -0.17142052948474884 0.19439655542373657 -0.022308450192213058 -0.19325578212738037 -0.031009761616587639 0.024197356775403023 0.18409542739391327 0.15414427220821381 0.11315346509218216 -0.076527886092662811 0.024022607132792473 -0.07109629362821579 -0.2428203821182251 0.14323577284812927 -0.0077505288645625114 -0.15518683195114136 0.065842196345329285 -0.038842950016260147 -0.10093025863170624 -0.019295049831271172 -0.040037911385297775 1.8672422170639038 0.64246034622192383 1.021686315536499 0.025199702009558678 -0.32098913192749023 -0.31150743365287781 -0.17893475294113159 -0.44001507759094238 -0.35544320940971375 -0.69966930150985718 -0.61131423711776733 -0.78808224201202393
  0.21323928236961365 -0.0010428045643493533 -0.06967528909444809 0.56399446725845337 0.59151726961135864 0.48157450556755066 0.13873176276683807 -0.035403281450271606 0.061318226158618927 -0.10421279817819595 -0.23583909869194031 0.063258975744247437 -0.54878878593444824 0.14561402797698975 -0.024096725508570671 0.501475989818573 0.41625139117240906 0.20181302726268768 0.19610249996185303 -0.016363432630896568 -0.089633084833621979 0.0043802987784147263 -0.078368604183197021 0.18431319296360016 -0.20857049524784088 0.20641262829303741 0.3523021936416626 0.28653800487518311 0.12880638241767883 -0.030625391751527786 0.011229753494262695 -0.025588875636458397 -0.082808434963226318 -0.035489566624164581 0.018810488283634186 0.0608522929251194 0.27674990892410278 0.2864338755607605 0.32523435354232788 -0.12399864196777344 -0.38916113972663879 -0.4917539656162262 -0.16920813918113708 -0.14532099664211273 -0.13119421899318695 -0.071472294628620148 -0.052505996078252792 -0.059112034738063812 0.92564743757247925 -0.50734984874725342 -0.32221907377243042 -1.3026778697967529 -0.93991756439208984 -0.38235011696815491 -0.23872870206832886 0.093002490699291229 0.28313705325126648 0.2487475723028183 0.29980948567390442 -0.30506491661071777
  -0.46575292944908142 -0.26599481701850891 -0.24008843302726746 -0.17245487868785858 -0.64343816041946411 -0.43496757745742798 -0.32844024896621704 -0.10953698307275772 -0.052516885101795197 0.12437019497156143 0.30892008543014526 0.09598948061466217 0.080909870564937592 -0.21146625280380249 -0.17005079984664917 -0.047497749328613281 -0.25828373432159424 -0.25126299262046814 -0.17617323994636536 -0.035612087696790695 0.034121964126825333 0.14212822914123535 0.15793594717979431 0.13609775900840759 -0.021850088611245155 -0.23772768676280975 -0.010063598863780499 0.22601857781410217 0.047922458499670029 -0.19990198314189911 -0.28073981404304504 0.056952375918626785 0.099460579454898834 0.095761165022850037 0.12871931493282318 0.17561396956443787 0.070349730551242828 -0.053770478814840317 0.10626357793807983 0.39248937368392944 0.27554166316986084 -0.090712063014507294 -0.23941740393638611 -0.073901437222957611 -0.029268985614180565 0.02004060335457325 0.059944186359643936 0.040640443563461304 -0.43703645467758179 -0.14236976206302643 0.28132009506225586 0.55733126401901245 0.22722962498664856 -0.01047061663120985 -0.28893452882766724 -0.22838641703128815 -0.16479572653770447 0.041236285120248795 0.077884472906589508 -0.026378732174634933
  0.52120697498321533 -0.0097880680114030838 -0.17216512560844421 0.1627032458782196 0.22561356425285339 0.064742580056190491 -0.057182848453521729 0.19066415727138519 0.074651539325714111 -0.21843230724334717 -0.10938234627246857 0.085574090480804443 0.18105554580688477 -0.26075091958045959 -0.05392099916934967 -0.069669961929321289 0.066380016505718231 -0.14838676154613495 0.20120431482791901 0.34423866868019104 0.010277752764523029 -0.3493674099445343 -0.08056274801492691 -0.09491855651140213 -0.062112875282764435 -0.38569876551628113 -0.15895079076290131 0.017422523349523544 0.23637224733829498 -0.19861029088497162 0.30361112952232361 0.32472774386405945 0.03960694745182991 -0.35560658574104309 -0.12677180767059326 -0.11548193544149399 0.011897088028490543 -0.17974056303501129 -0.10219545662403107 0.052235234528779984 0.043308660387992859 -0.16659539937973022 0.019348299130797386 0.13103461265563965 -0.0079901088029146194 -0.22528918087482452 -0.074271783232688904 -0.11255189031362534 -0.3837343156337738 -0.07585635781288147 -0.1574571430683136 0.22431394457817078 0.11325950920581818 0.017186764627695084 -0.15400710701942444 0.13025519251823425 0.040427666157484055 0.020166687667369843 -0.081411406397819519 -0.020849801599979401
  0.49662858247756958 0.84919708967208862 0.74932622909545898 1.3469283580780029 0.47419920563697815 0.5476946234703064 0.10606764256954193 -0.42014718055725098 -0.39165553450584412 -0.0456429123878479 -0.26011934876441956 0.11268216371536255 -0.89012390375137329 -0.10072342306375504 -0.191181480884552 0.11646033823490143 0.16452175378799438 -0.01274526584893465 0.04987010732293129 0.14524438977241516 0.13152182102203369 0.13796021044254303 0.052261438220739365 0.20074394345283508 -0.71508669853210449 -0.72129255533218384 -0.55332255363464355 -0.77354514598846436 -0.35523721575737 -0.30711281299591064 -0.1875329464673996 0.22830970585346222 0.11365164816379547 0.11146819591522217 0.22949451208114624 0.067623317241668701 -0.74021708965301514 -0.55999851226806641 -0.42517033219337463 -0.56722325086593628 -0.087514974176883698 -0.058133587241172791 -0.16838015615940094 0.27898630499839783 0.08867354691028595 0.038107056170701981 0.10170441865921021 -0.054928291589021683 0.84939759969711304 0.69464331865310669 0.07703041285276413 -0.0078362040221691132 0.0035907935816794634 0.17052784562110901 0.1262294203042984 -0.27339795231819153 -0.0056499335914850235 -0.039478972554206848 -0.038107924163341522 -0.13783265650272369
  0.071224845945835114 -0.27526268362998962 -0.19729921221733093 -0.41473999619483948 -0.3251824676990509 -0.046108391135931015 -0.20740766823291779 0.26812043786048889 -0.11706139892339706 -0.0026130909100174904 0.10360856354236603 -0.16245383024215698 -0.63536494970321655 0.22847576439380646 -0.39654499292373657 0.50645220279693604 0.038239158689975739 -0.0075273583643138409 0.13514231145381927 0.022231688722968102 0.16816790401935577 -0.055250190198421478 -0.008666318841278553 0.11585302650928497 -0.57201105356216431 0.8401910662651062 -0.31074979901313782 0.84234827756881714 0.12390580773353577 -0.10305772721767426 0.17499659955501556 -0.18291240930557251 0.25488844513893127 -0.099512375891208649 -0.05201488733291626 0.12764449417591095 -0.34545662999153137 0.32691863179206848 -0.23648636043071747 0.35835188627243042 -0.0049493159167468548 0.02275349386036396 0.13720579445362091 -0.12198318541049957 0.15594704449176788 0.045246191322803497 0.072669222950935364 0.11751645058393478 0.17032043635845184 -0.044442065060138702 -0.026012705639004707 -0.019877424463629723 -0.22177310287952423 -0.15404829382896423 -0.1815158873796463 -0.25347408652305603 0.01565634086728096 0.075608216226100922 0.14869000017642975 0.078496098518371582
  -0.194629967212677 -0.10608132183551788 -0.28479489684104919 -0.1171317845582962 0.22933591902256012 0.11411263048648834 0.1973111480474472 0.36546024680137634 0.17153936624526978 -0.023201422765851021 0.08456885814666748 0.046961881220340729 0.2824375331401825 0.21984970569610596 -0.12049856036901474 0.16853147745132446 0.23731112480163574 0.26392936706542969 0.11988358944654465 -0.02890406921505928 -0.0057862680405378342 0.058178897947072983 -0.083849549293518066 -0.064578883349895477 0.041328217834234238 0.17552652955055237 0.036896079778671265 0.011806491762399673 -0.1131361797451973 0.32980841398239136 0.22115650773048401 0.033467933535575867 -0.13364353775978088 0.0095736552029848099 0.016476351767778397 0.01227919664233923 -0.14674603939056396 0.25257000327110291 0.15486730635166168 0.09676167368888855 -0.24629878997802734 -0.00046712107723578811 0.30896392464637756 0.10064731538295746 -0.13111001253128052 0.0105492128059268 -0.027962818741798401 0.17043334245681763 0.292279452085495 -0.51627880334854126 0.35545679926872253 -0.41138231754302979 -0.58519357442855835 -0.63103026151657104 -0.021060070022940636 0.62473213672637939 0.473856121301651 0.01742924191057682 -0.040323276072740555 0.082672879099845886
  -0.074340745806694031 0.23242747783660889 0.30295631289482117 -0.014680868946015835 0.022296210750937462 0.18436536192893982 -0.0065640597604215145 0.27475851774215698 0.20939993858337402 -0.20772966742515564 -0.17743873596191406 0.28901094198226929 0.024770963937044144 0.16836890578269958 0.19256038963794708 0.0019452683627605438 0.0057898848317563534 0.051763895899057388 0.04979492723941803 0.1887151300907135 -0.14933574199676514 -0.27943241596221924 0.082451850175857544 0.080576948821544647 -0.010658582672476768 0.1051349937915802 0.22637082636356354 0.093394286930561066 -0.0045187873765826225 -0.12159868329763412 0.029277436435222626 -0.029315663501620293 -0.42409706115722656 -0.29862105846405029 0.30021807551383972 0.084420911967754364 0.068712063133716583 -0.0087384320795536041 0.180241659283638 0.26180315017700195 0.0034998741466552019 -0.052114326506853104 0.059298757463693619 -0.18199244141578674 -0.40373480319976807 -0.15872322022914886 0.2191406786441803 0.02981332503259182 0.59142124652862549 -0.1091286838054657 -0.15453290939331055 0.52239561080932617 0.0437050461769104 0.12108480185270309 0.015995774418115616 -0.36888906359672546 -0.20907358825206757 0.16313031315803528 -0.0028200317174196243 -0.19615042209625244
  1.0129709243774414 -0.32870477437973022 -0.66825389862060547 0.96528911590576172 0.37571871280670166 0.01339263841509819 0.067184261977672577 -0.179213747382164 0.22075723111629486 0.1180000826716423 -0.3901083767414093 0.15151827037334442 0.14638411998748779 -0.14751483500003815 0.090730525553226471 0.23652954399585724 -0.063350498676300049 -0.14434024691581726 -0.13117006421089172 0.008533143438398838 0.07831311970949173 -0.016438979655504227 -0.058844238519668579 0.084641158580780029 -0.12556016445159912 -0.082152016460895538 0.39081931114196777 -0.17897266149520874 -0.20460391044616699 -0.10132379084825516 -0.21918770670890808 0.011528687551617622 0.02083568274974823 -0.094577193260192871 0.14932896196842194 -0.036248240619897842 -0.43360462784767151 0.027464987710118294 0.57058197259902954 -0.53037565946578979 -0.15417833626270294 -0.048957861959934235 -0.13712264597415924 0.093160636723041534 -0.0096455700695514679 -0.20588128268718719 0.16725769639015198 0.001896571833640337 -0.82145100831985474 0.48965030908584595 0.58385318517684937 -0.54560619592666626 0.069179266691207886 -0.031891372054815292 -0.1051333099603653 0.37631163001060486 -0.1107151210308075 -0.29333585500717163 0.18855835497379303 -0.12015985697507858
  -0.7626919150352478 0.060460340231657028 -0.16043487191200256 0.32763081789016724 0.13713324069976807 -0.047903086990118027 -0.12259407341480255 0.15499947965145111 0.18001538515090942 0.17945201694965363 0.056335475295782089 0.30490580201148987 -0.034308541566133499 -0.36629205942153931 -0.36164692044258118 0.18800055980682373 -0.0004630850744433701 0.068871118128299713 0.10427175462245941 0.020883895456790924 0.051663938909769058 0.18721333146095276 0.037253253161907196 0.14712874591350555 -0.28604650497436523 -0.52956694364547729 -0.55372625589370728 0.031242989003658295 -0.049961529672145844 0.1575581282377243 0.30208995938301086 0.084632702171802521 0.09400910884141922 0.24117748439311981 0.11433342844247818 0.16766190528869629 -0.44871550798416138 -0.48796814680099487 -0.48207181692123413 -0.32233434915542603 -0.20686091482639313 -0.032493799924850464 0.20169191062450409 0.27220401167869568 0.10874438285827637 0.17803002893924713 0.18153315782546997 0.12802265584468842 0.52069777250289917 0.49702125787734985 0.38530781865119934 -0.061491794884204865 -0.43341478705406189 -0.48316508531570435 -0.2387644499540329 -0.16202425956726074 -0.29111838340759277 -0.26204600930213928 -0.0068436372093856335 -0.18476900458335876
  0.67430961132049561 -0.73599112033843994 0.18955534696578979 -0.023366129025816917 -0.24551756680011749 -0.039482899010181427 0.12567389011383057 0.12904657423496246 -0.10276205092668533 -0.080745398998260498 0.074531115591526031 -0.014501643367111683 -0.66541188955307007 -0.14286521077156067 0.24461570382118225 -0.025704342871904373 -0.015510843135416508 0.17824858427047729 0.10931238532066345 -0.15909142792224884 -0.12400536239147186 0.15270319581031799 -0.023435825482010841 0.054421264678239822 -1.1562913656234741 0.5872465968132019 0.40720567107200623 -0.11879558116197586 0.17393240332603455 0.29093003273010254 0.16504311561584473 -0.33088096976280212 -0.091844350099563599 0.09887956827878952 -0.16966205835342407 0.17022833228111267 -0.75577449798583984 0.42862644791603088 0.30667856335639954 -0.20355246961116791 0.065061897039413452 0.11006840318441391 0.071326747536659241 -0.19875402748584747 0.07495424896478653 0.061283253133296967 -0.11573442071676254 0.051100917160511017 0.16766159236431122 -0.024696260690689087 0.28051584959030151 -0.12853100895881653 -0.28519910573959351 -0.096437633037567139 0.04763413593173027 -0.063631333410739899 0.050762791186571121 -0.09855092316865921 -0.010020293295383453 -0.15942239761352539
  -0.040835261344909668 -0.15979383885860443 0.59896433353424072 -0.055563248693943024 -0.4341900646686554 -0.08273160457611084 0.1351257860660553 0.0014767135726287961 -0.036362729966640472 -0.048642754554748535 -0.16047109663486481 -0.10997416824102402 0.035941779613494873 -0.034822966903448105 -0.11012723296880722 0.24502304196357727 0.11098127812147141 -0.046957429498434067 0.039529573172330856 0.083701714873313904 0.026516590267419815 -0.058634676039218903 -0.22349788248538971 -0.14787329733371735 0.11050644516944885 -0.016968594864010811 -0.19758088886737823 0.2435937374830246 0.061834350228309631 -0.082180805504322052 0.0019941488280892372 0.24941083788871765 0.10399886965751648 -0.12209615111351013 -0.12588508427143097 -0.14274722337722778 0.051743246614933014 0.19078880548477173 -0.041637599468231201 0.25204980373382568 -0.17963303625583649 -0.097277939319610596 0.025305178016424179 0.26899775862693787 0.037909526377916336 -0.16466832160949707 -0.10919726639986038 -0.0225859135389328 -0.71475672721862793 0.33232057094573975 0.43685939908027649 -0.20745840668678284 -1.068083643913269 -0.072497658431529999 0.001185231376439333 0.23420704901218414 -0.13287623226642609 -0.17727367579936981 0.31594869494438171 0.47295492887496948
  -0.7334902286529541 -0.26987719535827637 0.60030192136764526 0.65397953987121582 0.33651933073997498 -0.26965007185935974 -0.38802513480186462 -0.076742611825466156 0.20178081095218658 -0.040383908897638321 -0.082572467625141144 -0.12065607309341431 -0.10427920520305634 -0.5810931921005249 0.032686058431863785 0.1994645744562149 0.21866282820701599 -0.11858607828617096 -0.32599756121635437 -0.19855596125125885 0.24894779920578003 0.29964646697044373 0.076906934380531311 -0.2147107869386673 -0.26848971843719482 -0.42424872517585754 0.10345758497714996 0.3209674060344696 0.30955812335014343 -0.054203279316425323 -0.14316815137863159 -0.19135166704654694 0.051609605550765991 0.11282895505428314 -0.077769801020622253 -0.020472297444939613 0.074247144162654877 -0.010374963283538818 0.29742684960365295 0.014723753556609154 -0.040445059537887573 -0.10261895507574081 -0.0094557348638772964 0.021269645541906357 -0.051035292446613312 -0.071664534509181976 -0.047838564962148666 0.13840122520923615 0.030337369069457054 0.34030601382255554 0.11975625157356262 -0.12996220588684082 -0.085121937096118927 0.17748135328292847 0.16373234987258911 0.017560567706823349 -0.097928144037723541 -0.059759911149740219 0.07642914354801178 0.14205290377140045
  0.26723372936248779 0.16295395791530609 0.090664796531200409 -0.14557443559169769 0.041854981333017349 0.04042835533618927 -0.040219821035861969 0.01481751911342144 -0.062116213142871857 0.11192332208156586 0.035770133137702942 -0.10783804953098297 -0.016448309645056725 -0.15784822404384613 0.075258307158946991 0.35923179984092712 -0.35098326206207275 0.10690260678529739 -0.078215718269348145 0.0024807534646242857 0.30472716689109802 -0.041256941854953766 -0.2253260463476181 0.20785520970821381 -0.030645936727523804 -0.33919155597686768 -0.0083430493250489235 0.47485929727554321 -0.43867573142051697 0.074291318655014038 -0.19495801627635956 0.0091237993910908699 0.34769341349601746 -0.12591247260570526 -0.27712094783782959 0.3507658839225769 0.12238150089979172 -0.34703189134597778 -0.1508842259645462 0.35652661323547363 -0.14683510363101959 -0.078290283679962158 -0.19352011382579803 0.052510958164930344 0.18308083713054657 -0.011352904140949249 -0.1966007798910141 0.21811838448047638 0.6788400411605835 -0.074867673218250275 -0.17619949579238892 0.10183671116828918 -0.040907014161348343 0.087808869779109955 -0.3096923828125 0.018049180507659912 -0.12452363222837448 0.016631793230772018 0.19238646328449249 -0.027119981124997139
  -0.39097073674201965 0.85530513525009155 0.83969533443450928 0.28382372856140137 -0.26620832085609436 -0.060533404350280762 -0.25600814819335938 -0.60262209177017212 -0.21524728834629059 0.18726195394992828 0.13827688992023468 0.43106541037559509 -0.31836193799972534 0.34845083951950073 0.20465192198753357 -0.092081569135189056 0.043146699666976929 0.022243686020374298 -0.27798876166343689 -0.27156615257263184 -0.029928045347332954 0.23116204142570496 0.012448268942534924 -0.13055571913719177 0.13954237103462219 0.36694753170013428 -0.088718727231025696 -0.055687408894300461 0.41390416026115417 0.061781652271747589 -0.20662567019462585 -0.24828104674816132 -0.022665198892354965 0.051841866225004196 -0.22240841388702393 -0.275165855884552 0.20360210537910461 -0.18497022986412048 -0.16444568336009979 0.040403116494417191 0.43968924880027771 0.17243699729442596 0.065615303814411163 -0.042284399271011353 -0.0015595735749229789 -0.20276829600334167 -0.13554807007312775 -0.16223849356174469 0.12717089056968689 -0.85023170709609985 -0.32779380679130554 -0.10958258062601089 0.27303582429885864 0.25842803716659546 0.31417831778526306 0.18562212586402893 0.10994751751422882 -0.34959539771080017 -0.10509798675775528 -0.12302118539810181
  0.11681182682514191 0.031462687999010086 -0.46767270565032959 0.60822558403015137 -0.11475569754838943 0.17800888419151306 0.033156082034111023 -0.035174358636140823 0.3871992826461792 -0.14599572122097015 -0.14928846061229706 -0.02124360203742981 0.31816655397415161 0.12806624174118042 -0.37336647510528564 0.43654540181159973 -0.29225349426269531 0.19017109274864197 -0.018171356990933418 -0.16428868472576141 0.2432064563035965 -0.21633495390415192 0.058649744838476181 0.017376579344272614 0.30296981334686279 0.073046818375587463 -0.33107924461364746 0.22220520675182343 -0.44215899705886841 0.26697888970375061 0.03401004895567894 -0.19353090226650238 0.30283534526824951 -0.20203742384910583 0.1157575324177742 -0.073615066707134247 0.13372762501239777 0.016030611470341682 -0.19528158009052277 0.16013792157173157 -0.40837907791137695 0.26922664046287537 0.050410613417625427 -0.14723514020442963 0.30552652478218079 -0.18070234358310699 0.028350550681352615 -0.21001395583152771 0.06178673729300499 0.094541393220424652 -0.14417575299739838 0.22802621126174927 -0.35131964087486267 0.2240511029958725 0.0156999621540308 -0.10781227052211761 0.31867730617523193 -0.29677635431289673 -0.11820755153894424 -0.316141277551651
  1.150583028793335 0.26834899187088013 0.74629515409469604 -0.70281380414962769 -0.11776919662952423 0.26505321264266968 -0.20964664220809937 -0.21543975174427032 -0.16606132686138153 0.16942957043647766 0.13378612697124481 -0.10455680638551712 0.23418834805488586 0.041734553873538971 0.21267814934253693 -0.39788997173309326 0.082030348479747772 0.15522246062755585 -0.12101471424102783 0.085116535425186157 -0.044279012829065323 0.07614155113697052 0.13586130738258362 -0.16937842965126038 -0.19891925156116486 0.18066217005252838 0.10629836469888687 -0.12282110750675201 0.25668662786483765 -0.018343260511755943 -0.040924295783042908 -0.015066131018102169 -0.038195941597223282 0.04988006129860878 0.083764337003231049 -0.22237657010555267 -0.28388100862503052 0.069251067936420441 0.044566992670297623 -0.055860672146081924 0.15936228632926941 -0.20068810880184174 -0.14550592005252838 -0.12444350123405457 0.095365829765796661 0.12097704410552979 0.11536624282598495 -0.1135639101266861 -0.11391417682170868 0.063531219959259033 0.093733541667461395 -0.040952306240797043 0.0096532925963401794 -0.41649892926216125 -0.29641625285148621 -0.34582015872001648 0.10866669565439224 0.20247392356395721 0.17993161082267761 0.091576069593429565
  0.06550714373588562 0.39100596308708191 -0.31191921234130859 -0.37944832444190979 0.40295246243476868 0.49370265007019043 0.05469120666384697 -0.36412817239761353 0.20257860422134399 0.43658903241157532 -0.16768521070480347 -0.33330807089805603 0.36941725015640259 0.1780710369348526 -0.21829578280448914 -0.19837768375873566 0.14350849390029907 0.32550451159477234 -0.0022688242606818676 -0.44333899021148682 0.12017803639173508 0.25050029158592224 -0.143705815076828 -0.21431182324886322 0.36082783341407776 0.057902771979570389 -0.12635183334350586 -0.12440460920333862 -0.0090495673939585686 0.27705317735671997 -0.051812481135129929 -0.40938150882720947 0.10308808088302612 0.12035933136940002 -0.041727200150489807 0.00040209622238762677 0.09507337212562561 -0.060542449355125427 -0.020425032824277878 -0.029162023216485977 0.077157288789749146 0.14555247128009796 -0.045645233243703842 -0.15463784337043762 0.14703625440597534 0.058258287608623505 0.027459887787699699 0.19676779210567474 -0.32172581553459167 0.092492885887622833 0.055637821555137634 0.052147943526506424 0.29007813334465027 -0.079561471939086914 -0.058893691748380661 0.091094240546226501 0.17820610105991364 0.19276207685470581 0.10020926594734192 0.3384895920753479
  0.078185379505157471 -0.10708083957433701 -0.17647565901279449 -0.0077017508447170258 0.48887786269187927 0.019999243319034576 -0.18894542753696442 0.16528382897377014 0.26876425743103027 0.088077254593372345 -0.1362462192773819 -0.05038713663816452 0.17860551178455353 -0.41055646538734436 -0.23934772610664368 -0.10179874300956726 0.31509727239608765 0.31420734524726868 -0.028414532542228699 0.021956924349069595 0.21312502026557922 -0.01452361699193716 -0.1980036199092865 -0.17681264877319336 -0.029095450416207314 -0.47647303342819214 -0.5775265097618103 0.084938377141952515 0.54498922824859619 0.21204659342765808 0.013859165832400322 -0.076055929064750671 0.060425546020269394 -0.031849771738052368 -0.14477469027042389 -0.12297802418470383 0.011702248826622963 -0.29961758852005005 -0.2418769896030426 0.28808221220970154 0.49859467148780823 0.034246448427438736 -0.042260210961103439 -0.10288361459970474 -0.090226307511329651 -0.016415175050497055 -0.082265906035900116 -0.063411608338356018 0.44734621047973633 -0.21106497943401337 0.22687917947769165 0.14424848556518555 -0.17532142996788025 -0.29036206007003784 -0.034360945224761963 0.13337191939353943 -0.05194607749581337 -0.055457103997468948 0.16709379851818085 -0.086815193295478821
  0.5212395191192627 -0.01922338455915451 0.0058617047034204006 0.20908510684967041 0.2813982367515564 -0.000117067014798522 0.045291882008314133 0.042873866856098175 -0.26076200604438782 -0.1052422821521759 -0.0015877296682447195 -0.099694967269897461 -0.10762245953083038 -0.05056261271238327 0.059535257518291473 0.31194072961807251 0.31257635354995728 -0.045870773494243622 0.22818435728549957 -0.088060930371284485 -0.1858946830034256 0.15908989310264587 -0.20510785281658173 0.23496450483798981 -0.20279024541378021 -0.16642925143241882 0.029329493641853333 0.14897364377975464 0.23402340710163116 -0.12286404520273209 0.30076548457145691 -0.24496674537658691 -0.19187736511230469 0.3860228955745697 -0.42928940057754517 0.34432521462440491 -0.04627588763833046 -0.2945672869682312 0.095296517014503479 0.055155694484710693 0.056137435138225555 -0.026287322863936424 0.18596026301383972 -0.28643852472305298 -0.15370111167430878 0.38234615325927734 -0.35326460003852844 0.19486886262893677 0.19661946594715118 -0.18534916639328003 0.032729525119066238 0.042034465819597244 0.0074788294732570648 0.17942892014980316 0.26543399691581726 -0.29574769735336304 -0.14643125236034393 0.24561658501625061 -0.29658177495002747 -0.013756966218352318
  1.4056313037872314 0.4575747549533844 0.076211914420127869 0.73725408315658569 0.73251986503601074 0.28029069304466248 -0.015079764649271965 -0.24837605655193329 -0.22310879826545715 -0.15228605270385742 -0.21474011242389679 -0.16450449824333191 0.38746851682662964 0.14954613149166107 0.26716026663780212 0.43478971719741821 0.28809776902198792 0.038401171565055847 -0.0015679162461310625 -0.12673242390155792 -0.10663610696792603 -0.025231033563613892 -0.02242458239197731 -0.099065206944942474 -0.32749772071838379 -0.39459902048110962 -0.12490031123161316 -0.19834166765213013 -0.14269441366195679 0.059430502355098724 0.10318402945995331 0.15242141485214233 0.1305888444185257 -0.031367059797048569 0.10593998432159424 0.058634694665670395 -1.3203662633895874 -0.59852510690689087 -0.52361750602722168 -0.45769259333610535 -0.10180571675300598 0.23386272788047791 0.16917559504508972 0.37287402153015137 0.23262546956539154 -0.010721076279878616 0.049590662121772766 0.10366200655698776 -0.79086828231811523 -0.27431294322013855 -0.089602254331111908 -0.39385014772415161 -0.037501674145460129 0.011756282299757004 0.019353888928890228 0.33621543645858765 0.29000940918922424 0.007040056400001049 -0.065869435667991638 -0.03916490450501442
  0.52201318740844727 0.54961699247360229 0.20176698267459869 -0.22435563802719116 -0.10200096666812897 0.2388262003660202 -0.040985062718391418 0.17766615748405457 -0.12091409415006638 -0.084053024649620056 0.39617243409156799 0.13178415596485138 0.50184041261672974 0.13763855397701263 -0.27833148837089539 -0.17123112082481384 -0.058103922754526138 0.22150714695453644 -0.23464231193065643 -0.078079603612422943 -0.14483745396137238 0.046527691185474396 0.13522429764270782 0.027886347845196724 0.041276395320892334 -0.065827310085296631 -0.33741265535354614 -0.062240239232778549 0.080328993499279022 0.23603138327598572 -0.14862322807312012 -0.2210506945848465 -0.18894428014755249 0.097260378301143646 0.17247334122657776 0.16445821523666382 -0.27396446466445923 -0.16215869784355164 -0.24413482844829559 -0.0052484744228422642 0.10536056756973267 0.10337892919778824 0.024483628571033478 -0.11790968477725983 -0.24089060723781586 0.050743382424116135 0.20185121893882751 0.24103124439716339 -0.014115553349256516 -0.39225280284881592 0.067484773695468903 -0.029050745069980621 -0.014972180128097534 -0.01543209794908762 0.12884281575679779 -0.038468595594167709 -0.40864589810371399 -0.16799603402614594 0.22026251256465912 0.1174955740571022
  0.3324776291847229 0.15060095489025116 0.55198663473129272 0.6198078989982605 0.30135467648506165 0.16294197738170624 0.39360004663467407 0.34950992465019226 -0.030452447012066841 0.1277768611907959 0.08824794739484787 0.10634489357471466 -0.87164473533630371 -0.44166427850723267 -0.45263829827308655 -0.33801034092903137 -0.21309971809387207 0.084455676376819611 0.23367761075496674 0.41339606046676636 0.28676143288612366 0.080069594085216522 0.21812343597412109 0.30132019519805908 -0.77910864353179932 -0.24628548324108124 -0.50262981653213501 -0.58646273612976074 -0.18736310303211212 -0.01179953571408987 -0.069200441241264343 0.15883085131645203 0.22500966489315033 0.17071855068206787 0.11186325550079346 0.25478816032409668 -0.43175965547561646 -0.20732389390468597 -0.12286893278360367 -0.20090630650520325 -0.10512441396713257 0.015657441690564156 -0.15843281149864197 0.02075643464922905 0.11183631420135498 0.10344433784484863 0.12523147463798523 0.039250686764717102 0.35820993781089783 0.49344751238822937 0.46234989166259766 0.34627944231033325 -0.073458105325698853 -0.088482052087783813 -0.15548594295978546 -0.14736056327819824 -0.010427786968648434 -0.069497004151344299 0.028494451195001602 -0.14175674319267273
  -0.68214493989944458 -0.24053442478179932 0.17137224972248077 0.037154987454414368 -0.044496376067399979 0.59722989797592163 0.098881989717483521 0.076790899038314819 -0.10478061437606812 0.19893418252468109 0.095641419291496277 -0.085305690765380859 -0.46128490567207336 -0.20553234219551086 0.02135576494038105 0.25141021609306335 0.10267271101474762 0.29000368714332581 -0.14041483402252197 0.31112194061279297 -0.13888400793075562 0.23431801795959473 -0.23750485479831696 -0.057015921920537949 -0.18715152144432068 0.022712832316756248 -0.04114982858300209 0.32531291246414185 0.27332890033721924 0.15616665780544281 -0.29258602857589722 0.32997667789459229 -0.15630306303501129 0.28429141640663147 -0.33319577574729919 -0.016927480697631836 0.0032083687838166952 0.17849726974964142 -0.074057094752788544 0.14769643545150757 0.21298182010650635 0.042614046484231949 -0.25037437677383423 0.17751705646514893 -0.014571232721209526 0.063528522849082947 -0.19757166504859924 -0.074454545974731445 -0.86796492338180542 0.042549047619104385 0.1634063720703125 -0.3061181902885437 0.061424870043992996 0.079336896538734436 -0.33117419481277466 -0.023618653416633606 0.14743635058403015 0.0063546583987772465 0.17393535375595093 -0.13250580430030823
  -0.0024953458923846483 0.20292185246944427 -0.27847176790237427 0.20546804368495941 0.082258306443691254 -0.064987048506736755 0.13628320395946503 -0.082228288054466248 -0.098279647529125214 0.1694609671831131 0.040072076022624969 0.20783405005931854 -0.015334869734942913 -0.20464159548282623 -0.10004991292953491 -0.19113418459892273 -0.27080473303794861 -0.098579898476600647 -0.12558156251907349 0.082434743642807007 0.039746716618537903 0.092758812010288239 0.11086741834878922 0.13823530077934265 -0.10173221677541733 -0.61268442869186401 -0.2814038097858429 -0.44851824641227722 -0.35091662406921387 0.069215066730976105 -0.12830942869186401 0.27028501033782959 0.17591960728168488 0.013804313726723194 0.1102420836687088 0.011439863592386246 -0.27672287821769714 -0.44699248671531677 -0.46107304096221924 -0.25633484125137329 -0.088010460138320923 0.0082190381363034248 0.081300027668476105 0.26225334405899048 0.17494457960128784 0.045131813734769821 -0.049108609557151794 -0.087358862161636353 0.27250808477401733 0.44774934649467468 -0.20433051884174347 0.41373059153556824 0.56168580055236816 -0.022013340145349503 0.3820016086101532 0.1046777069568634 0.29233837127685547 0.061010383069515228 -0.31550222635269165 -0.1913331151008606
  0.081978395581245422 -0.071859672665596008 0.047891117632389069 -0.66272968053817749 -0.38394904136657715 0.0079990699887275696 0.31572145223617554 -0.081553801894187927 0.051181163638830185 0.037238914519548416 0.012317543849349022 -0.046271916478872299 -0.34021005034446716 0.087488263845443726 0.24752666056156158 -0.47292545437812805 -0.43934911489486694 0.016158320009708405 0.36021789908409119 0.2149902880191803 0.020709259435534477 -0.23457752168178558 -0.13139925897121429 0.053155194967985153 -0.11151348054409027 0.0073227761313319206 0.010087623260915279 -0.42499521374702454 -0.17758317291736603 0.22383815050125122 0.37724742293357849 0.15779505670070648 -0.044994067400693893 -0.18886968493461609 -0.1468837559223175 0.053107861429452896 0.31552737951278687 0.069761760532855988 -0.063178196549415588 -0.14267757534980774 0.092525079846382141 0.2372831404209137 0.21269218623638153 0.034373633563518524 -0.05628645047545433 -0.09195370227098465 -0.05485234409570694 0.048871986567974091 0.089216552674770355 0.17589133977890015 -0.14922720193862915 -0.13978089392185211 0.44523537158966064 0.21317547559738159 -0.017996164038777351 -0.19765548408031464 -0.040139418095350266 -0.056337065994739532 0.037421558052301407 0.0053715268149971962
  -1.0914475917816162 0.053682677447795868 0.87492692470550537 0.61226356029510498 -0.61642253398895264 -0.37458935379981995 -0.034405507147312164 0.40442454814910889 0.016709886491298676 -0.099323898553848267 -0.022456519305706024 0.21260166168212891 0.089661665260791779 0.20832675695419312 -0.016489466652274132 0.30537500977516174 0.069658964872360229 -0.041911378502845764 0.096898280084133148 0.090342752635478973 0.082533746957778931 0.067511305212974548 -0.14248026907444 0.090411029756069183 0.68538051843643188 0.38039350509643555 -0.37205696105957031 -0.10861000418663025 0.28810209035873413 0.35846987366676331 0.17987366020679474 -0.20411573350429535 -0.1042044386267662 0.042754407972097397 -0.025081690400838852 -0.012981869280338287 0.32847338914871216 0.11020180583000183 -0.42548894882202148 -0.32793724536895752 0.30189862847328186 0.42301851511001587 0.21131812036037445 -0.33291962742805481 -0.10788729786872864 0.082675725221633911 -0.0029347212985157967 -0.099997833371162415 0.63175606727600098 -0.74853575229644775 -0.89870023727416992 -1.1357594728469849 0.30810248851776123 0.32668620347976685 -0.089360296726226807 -0.031341865658760071 0.18205295503139496 -0.029685162007808685 0.047929760068655014 -0.42394623160362244
  0.17634153366088867 -0.72236943244934082 -0.53415495157241821 -0.37666335701942444 0.27447465062141418 0.082003124058246613 0.10696752369403839 0.23387394845485687 0.23033185303211212 -0.14972741901874542 -0.26039025187492371 -0.30429962277412415 0.23122294247150421 -0.35298427939414978 -0.36753815412521362 -0.35861992835998535 0.22463077306747437 0.13385263085365295 -0.22520554065704346 -0.06082611158490181 0.13369758427143097 -0.0028797411359846592 0.029535302892327309 -0.036320481449365616 -0.19349242746829987 0.054702591150999069 -0.12441350519657135 -0.056662946939468384 0.24804171919822693 0.26385721564292908 -0.19205622375011444 -0.1247754842042923 -0.086473077535629272 0.035292815417051315 0.21961480379104614 0.027434151619672775 -0.20587614178657532 0.49898594617843628 0.15562781691551208 0.34955823421478271 0.13182739913463593 0.127462238073349 0.0051158522255718708 -0.17981652915477753 -0.27498012781143188 0.049196366220712662 0.069904282689094543 0.047694742679595947 -0.35337495803833008 0.91359460353851318 0.72013962268829346 0.89446842670440674 -0.05122525617480278 0.001414099708199501 -0.17059381306171417 -0.55551058053970337 -0.45922195911407471 -0.11166210472583771 -0.27708590030670166 0.29558208584785461
  0.16884870827198029 0.23107782006263733 -0.034855972975492477 0.13100035488605499 -0.039813145995140076 0.0080492515116930008 -0.19399295747280121 -0.013731930404901505 -0.097174197435379028 0.0076985466293990612 0.021385276690125465 0.20200295746326447 0.2733454704284668 0.021295608952641487 -0.26948189735412598 0.096110321581363678 0.24413163959980011 -0.099635101854801178 -0.19555757939815521 0.2618955671787262 0.047571692615747452 -0.10686071217060089 -0.03134305402636528 0.074556931853294373 0.34556731581687927 -0.047305665910243988 -0.61701685190200806 0.083464406430721283 0.34631136059761047 -0.02592870220541954 -0.2215258777141571 0.42071539163589478 0.10684768110513687 -0.096816994249820709 0.014742925763130188 0.081817619502544403 0.43237024545669556 0.059159878641366959 -0.51498168706893921 0.12074635177850723 0.356557697057724 9.6524076070636511e-05 -0.18528445065021515 0.38303139805793762 0.056792944669723511 -0.17122991383075714 0.098551630973815918 0.05998283252120018 0.34213289618492126 -0.29997459053993225 -0.27288860082626343 0.17469191551208496 0.14584448933601379 -0.22051684558391571 -0.20434993505477905 0.17745682597160339 -0.0017804707167670131 -0.091229520738124847 0.21644681692123413 0.14774119853973389
  0.43144795298576355 0.30598828196525574 0.2974628210067749 0.86488312482833862 -0.23494809865951538 -0.012334821745753288 0.039770673960447311 -0.75965487957000732 -0.12270610779523849 0.41216987371444702 -0.13119535148143768 0.36813434958457947 -0.21509480476379395 -0.051423385739326477 -0.23434209823608398 -0.11321225762367249 -0.053568892180919647 0.17342399060726166 0.17160710692405701 -0.33384627103805542 -0.14926956593990326 0.20025879144668579 -0.21347817778587341 0.015614408068358898 -0.37161433696746826 0.10637243092060089 -0.25041100382804871 -0.56278795003890991 0.13942156732082367 0.18656958639621735 0.05188722163438797 0.08971133828163147 -0.20190858840942383 -0.11818475276231766 -0.11034057289361954 0.0071989209391176701 -0.610454261302948 0.074964463710784912 -0.042357884347438812 -0.33651593327522278 0.19580768048763275 0.00049937563017010689 -0.037343129515647888 0.46083390712738037 -0.037117671221494675 -0.24890539050102234 0.13243894279003143 0.056765466928482056 0.75532251596450806 -0.020499996840953827 0.33538255095481873 0.37578225135803223 0.036286648362874985 -0.28843319416046143 -0.24357907474040985 0.53547167778015137 0.22598168253898621 -0.39014649391174316 0.29754963517189026 -0.066321119666099548
  -0.54267066717147827 -0.24190406501293182 -0.24812676012516022 -0.063853688538074493 -0.13419561088085175 -0.12311112880706787 0.23041370511054993 -0.064320780336856842 -0.14606741070747375 0.074969187378883362 -0.22723792493343353 -0.086280427873134613 -0.37898483872413635 -0.26775974035263062 0.072787649929523468 0.072254307568073273 0.022275369614362717 -0.31860092282295227 0.077811956405639648 0.12635909020900726 0.15733322501182556 -0.020883308723568916 -0.16187331080436707 -0.11359363049268723 -0.29402956366539001 -0.20221874117851257 0.29418537020683289 0.23400998115539551 0.15133365988731384 -0.30578693747520447 0.0069904793053865433 0.071822047233581543 0.18959502875804901 -0.0176655612885952 -0.091826222836971283 -0.16993063688278198 -0.07198595255613327 -0.13757598400115967 0.24457913637161255 0.14637714624404907 0.010894664563238621 -0.1585930734872818 -0.039474889636039734 -0.013167615048587322 0.18198566138744354 -0.036946967244148254 0.013231638818979263 -0.16798385977745056 -0.8076249361038208 -0.32133868336677551 0.31438446044921875 0.15095092356204987 0.045239605009555817 -0.09822101891040802 0.0015703325625509024 -0.0089596519246697426 0.0042672688141465187 0.02741583064198494 -0.13967177271842957 -0.027835479006171227
  -0.56489658355712891 0.31746888160705566 0.14750906825065613 -0.05422157421708107 -0.089315734803676605 -0.11689246445894241 0.11262985318899155 0.20736746490001678 -0.14381827414035797 -0.051044154912233353 -0.027040271088480949 -0.12006499618291855 -0.71977859735488892 0.075341440737247467 0.0034817710984498262 -0.18612523376941681 -0.1346551775932312 -0.036941789090633392 0.029191453009843826 0.24348898231983185 0.063878551125526428 -0.030740153044462204 -0.012371422722935677 -0.10198263078927994 -0.57710003852844238 0.084927655756473541 -0.23921342194080353 -0.17062351107597351 0.040150769054889679 0.080343395471572876 0.0067251585423946381 0.27840873599052429 0.032544977962970734 0.050216764211654663 -0.092431455850601196 -0.040239229798316956 -0.33279800415039062 0.20298287272453308 -0.41741570830345154 -0.070285230875015259 0.00550101138651371 0.12193216383457184 -0.048295099288225174 0.26967933773994446 -0.018372200429439545 0.13956280052661896 -0.020033175125718117 0.049854550510644913 -0.425821453332901 0.46814829111099243 -0.37218761444091797 0.31555235385894775 -0.055533632636070251 -0.13912428915500641 -0.0005538183031603694 0.11247877031564713 -0.27538573741912842 0.34185150265693665 0.0076258480548858643 0.33249706029891968
  -0.079266481101512909 -0.29003235697746277 -0.37725305557250977 -0.42934912443161011 -0.28260242938995361 -0.16790373623371124 -0.3040829598903656 -0.25204643607139587 -0.12674897909164429 -0.078304417431354523 0.019683385267853737 0.021266484633088112 -0.26182341575622559 0.0091026807203888893 -0.19227144122123718 -0.18807551264762878 0.28034096956253052 0.054115872830152512 -0.066822394728660583 0.067397020757198334 0.12781952321529388 -0.028534693643450737 -0.18752534687519073 -0.098851077258586884 -0.32486999034881592 -0.017644276842474937 -0.39660245180130005 -0.087173447012901306 0.63389241695404053 0.25966370105743408 0.045965049415826797 0.22235734760761261 0.29780423641204834 0.069841310381889343 -0.11322809755802155 -0.083125509321689606 -0.3504350483417511 -0.061914160847663879 -0.39961621165275574 -0.079620584845542908 0.36649999022483826 0.24731600284576416 0.063543163239955902 0.18582995235919952 0.12162160873413086 -0.087082505226135254 -0.032044649124145508 0.034059304744005203 0.0072009842842817307 -0.26531597971916199 -0.59678715467453003 -0.10876481980085373 -0.11011996120214462 -0.10209991782903671 -0.13102668523788452 0.051428217440843582 0.041723195463418961 -0.055528886616230011 0.043663464486598969 0.10695415735244751
  0.69358372688293457 -1.1097514629364014 -0.23193249106407166 -0.68726646900177002 -0.98933088779449463 -0.40395236015319824 -0.35645076632499695 -0.5535285472869873 -0.33807125687599182 -0.097699940204620361 0.2085888683795929 -0.15356434881687164 0.11726608872413635 -0.0069770407862961292 -0.32194361090660095 -0.49156254529953003 -0.1775301992893219 -0.33833304047584534 -0.22672994434833527 -0.13273550570011139 -0.19554559886455536 -0.0054276306182146072 0.0012145173968747258 -0.01137714646756649 0.26829928159713745 0.91064655780792236 0.36618882417678833 0.27646604180335999 0.22139331698417664 -0.20919007062911987 -0.061347145587205887 0.10637005418539047 0.10369298607110977 0.032111797481775284 -0.13002957403659821 -0.01770489476621151 0.045679450035095215 0.50326192378997803 0.48133647441864014 0.59052616357803345 0.36840358376502991 0.28399398922920227 0.16186845302581787 0.1858237087726593 0.13330009579658508 -0.03751169890165329 -0.065591782331466675 -0.034315440803766251 -0.49648627638816833 -0.22029617428779602 -0.27640599012374878 0.044326953589916229 0.19381426274776459 0.53019380569458008 0.45955878496170044 0.31713390350341797 0.20543600618839264 0.16663700342178345 0.034668568521738052 0.14802354574203491
  -0.16535578668117523 0.24475966393947601 0.21988071501255035 -0.083498544991016388 -0.076969534158706665 0.055633582174777985 0.081681109964847565 -0.15329475700855255 -0.074545718729496002 0.15397419035434723 -0.040468696504831314 0.012093095108866692 -0.0039805006235837936 0.12425956875085831 0.32248044013977051 0.070698991417884827 -0.15143711864948273 -0.057887624949216843 0.051526904106140137 -0.020245611667633057 0.027879320085048676 -0.067045129835605621 -0.026561830192804337 0.057165380567312241 0.069672621786594391 -0.05737709254026413 -0.094012700021266937 0.07483307272195816 0.019275784492492676 -0.069793052971363068 0.039879791438579559 0.15175938606262207 -0.01007210835814476 -0.021285265684127808 -0.16962702572345734 0.14209593832492828 0.28591325879096985 0.10340869426727295 -0.60079962015151978 0.099905215203762054 0.33340561389923096 -0.017428917810320854 -0.044282447546720505 0.27248075604438782 -0.15109255909919739 0.040854211896657944 -0.22886231541633606 0.11040916293859482 0.58289998769760132 0.53248846530914307 -1.2761740684509277 0.43455973267555237 0.78332197666168213 -0.23527881503105164 -0.15027157962322235 0.28295576572418213 -0.42922285199165344 0.1379176527261734 -0.15326212346553802 -0.032678034156560898
  -0.084726527333259583 -0.033874101936817169 0.25647884607315063 -0.03423038125038147 -0.29622837901115417 -0.025885147973895073 0.084668487310409546 0.10229949653148651 0.04453732818365097 -0.016004394739866257 -0.15364038944244385 0.17837220430374146 -0.066098988056182861 0.028752904385328293 0.065612629055976868 -0.58159732818603516 0.1994529664516449 0.10692164301872253 -0.092916637659072876 0.38534185290336609 -0.040144357830286026 -0.15008735656738281 0.15107974410057068 -0.1803089827299118 -0.38631260395050049 0.31479275226593018 0.1730966717004776 -0.44478330016136169 0.36941707134246826 0.00020591821521520615 -0.077854283154010773 0.48388126492500305 -0.01277596689760685 -0.28956925868988037 0.15993273258209229 -0.14512361586093903 -0.36281910538673401 0.22607423365116119 0.034870684146881104 -0.20600265264511108 0.11432280391454697 -0.09999307245016098 0.12012103945016861 0.14270362257957458 0.034553375095129013 -0.19196055829524994 0.074860729277133942 0.0021449178457260132 -0.003197268582880497 -0.21749921143054962 -0.091286703944206238 0.19583211839199066 -0.18564245104789734 -0.37570664286613464 0.14280784130096436 -0.20977729558944702 0.16927982866764069 0.15874329209327698 -0.18267829716205597 0.062845543026924133
  0.42285436391830444 0.38737916946411133 0.26716718077659607 0.23512493073940277 -0.34068956971168518 -0.16288858652114868 -0.30657631158828735 -0.4686165452003479 -0.40997594594955444 0.046475179493427277 0.31060031056404114 -0.0029098656959831715 0.45095649361610413 -0.15311774611473083 -0.43025350570678711 0.036953777074813843 0.31119206547737122 -0.092481203377246857 -0.28028467297554016 -0.14546816051006317 -0.020246455445885658 0.085305094718933105 -0.037415798753499985 -0.078032024204730988 0.37171453237533569 -0.066448710858821869 -0.49088695645332336 0.26536697149276733 0.45888257026672363 -0.13486643135547638 -0.29714980721473694 -0.095407061278820038 0.0016150525771081448 0.13242316246032715 -0.16698108613491058 -0.1263023167848587 0.075953908264636993 -0.092382796108722687 -0.24898988008499146 0.23255443572998047 0.3310774564743042 0.062283996492624283 -0.14039349555969238 -0.068946108222007751 0.061737757176160812 0.088379628956317902 -0.10628701001405716 -0.12030460685491562 -0.43339556455612183 -0.11971914768218994 0.39687943458557129 -0.28048443794250488 -0.054413538426160812 0.12816938757896423 0.016804851591587067 -0.07387775182723999 -0.17048370838165283 -0.1663413941860199 0.20173646509647369 0.12088592350482941
  -0.060746274888515472 -0.0077925780788064003 0.011841803789138794 -0.005514797754585743 0.024887876585125923 0.0020483522675931454 0.0098000383004546165 -0.042140420526266098 0.039865963160991669 -0.018968790769577026 -0.06566513329744339 0.03440282866358757 -0.06760077178478241 -0.091244861483573914 -0.01825401559472084 -0.14228338003158569 -0.042198989540338516 0.21995073556900024 -0.20519505441188812 -0.21804754436016083 0.35799556970596313 -0.030398175120353699 -0.1860446035861969 0.097826510667800903 -0.15533414483070374 -0.020970653742551804 0.00092259765369817615 -0.36081898212432861 0.00016082450747489929 0.34006607532501221 -0.17162445187568665 -0.24654783308506012 0.39371061325073242 -0.084614507853984833 -0.33965826034545898 0.15651038289070129 -0.34593310952186584 0.17385737597942352 0.036576628684997559 -0.44626912474632263 -0.03347344696521759 0.36932811141014099 -0.10889113694429398 -0.13477751612663269 0.30156469345092773 -0.082479916512966156 -0.31981873512268066 0.15258775651454926 -0.45942777395248413 0.61158710718154907 0.43070879578590393 -0.41313999891281128 -0.24158477783203125 0.3749198317527771 0.010268189013004303 0.068742431700229645 0.064829893410205841 -0.2455153614282608 -0.10977096855640411 0.083935268223285675
  0.13412436842918396 0.36039689183235168 0.15214921534061432 0.46516665816307068 0.11254512518644333 0.47469982504844666 0.29309302568435669 -0.00053521606605499983 -0.18478545546531677 0.078509584069252014 -0.18647605180740356 -0.11139414459466934 -0.20188094675540924 0.14016415178775787 0.078892260789871216 0.10518557578325272 -0.14907160401344299 0.28745001554489136 0.22569799423217773 0.15723793208599091 -0.11132493615150452 0.038364656269550323 -0.04000464454293251 -0.040718995034694672 -0.38220122456550598 0.20853480696678162 -0.025956949219107628 0.094657599925994873 0.053675185889005661 0.28341981768608093 0.30169850587844849 0.15550319850444794 -0.10332155227661133 -0.073168501257896423 -0.22577278316020966 -0.10545546561479568 0.030265688896179199 0.11984213441610336 -0.050654392689466476 0.15696075558662415 -0.033384490758180618 0.07936781644821167 0.092870362102985382 -0.069054841995239258 -0.0025697809178382158 -0.078697681427001953 -0.28377097845077515 -0.17629365622997284 0.34521907567977905 0.30777809023857117 0.17307646572589874 0.24673500657081604 0.11514154821634293 0.13116492331027985 0.14434380829334259 -0.015037194825708866 0.077714771032333374 -0.10634907335042953 -0.34048977494239807 -0.31403979659080505
  -0.24819864332675934 0.26981130242347717 0.26285061240196228 0.16482952237129211 0.29693317413330078 -0.044310245662927628 0.16742146015167236 -0.16185714304447174 -0.002677067881450057 0.03722839429974556 -0.0051301568746566772 0.037040103226900101 0.12576459348201752 -0.063300810754299164 0.20250283181667328 -0.13622206449508667 0.23396910727024078 -0.27161067724227905 0.34576675295829773 -0.32422789931297302 0.27685210108757019 -0.18505683541297913 0.18953238427639008 -0.21843373775482178 0.17068915069103241 -0.3442675769329071 0.0023676024284213781 -0.28788173198699951 0.22030337154865265 -0.39405053853988647 0.4812169075012207 -0.44714206457138062 0.48293605446815491 -0.42103949189186096 0.35068374872207642 -0.28442412614822388 0.15674842894077301 -0.12029104679822922 -0.085978545248508453 -0.18706545233726501 0.22782239317893982 -0.35868063569068909 0.34629946947097778 -0.31245860457420349 0.33691981434822083 -0.27206212282180786 0.2818123996257782 -0.17474602162837982 0.19621618092060089 0.10785195231437683 -0.018247978761792183 -0.042883243411779404 0.2511754035949707 -0.20740382373332977 0.31167876720428467 -0.20412668585777283 0.22713083028793335 -0.25193381309509277 0.26256415247917175 -0.073594026267528534
  0.11080059409141541 0.049429278820753098 -0.080930992960929871 0.56298607587814331 0.10407312959432602 -0.046921249479055405 -0.092698156833648682 -0.10740846395492554 0.035703517496585846 0.19505949318408966 -0.27474614977836609 -0.086037114262580872 0.01731492206454277 0.025599878281354904 -0.30301269888877869 -0.23888294398784637 0.18722033500671387 0.41276991367340088 0.024803141131997108 -0.19387809932231903 -0.078436225652694702 0.21808387339115143 -0.080711796879768372 -0.17313513159751892 -0.46347144246101379 0.026170482859015465 -0.33955320715904236 -0.71542340517044067 0.17066611349582672 0.45490440726280212 0.14521707594394684 -0.10347438603639603 -0.076245486736297607 0.10649949312210083 0.15467950701713562 0.0094446670264005661 -0.48240450024604797 0.13100920617580414 0.024118432775139809 -0.32469087839126587 -0.089579269289970398 -0.015146356076002121 0.18661254644393921 0.25484085083007812 -0.11407167464494705 -0.057852346450090408 0.20303496718406677 0.21917079389095306 -0.16498008370399475 0.38349199295043945 0.95504236221313477 0.70132905244827271 -0.89953398704528809 -0.94533330202102661 -0.075565017759799957 0.49171295762062073 -0.028787801042199135 -0.42711165547370911 0.14353713393211365 0.16205167770385742
  -1.8364681005477905 0.12966680526733398 -0.23718830943107605 0.036708217114210129 -0.0010217977687716484 -0.27178370952606201 0.02652224525809288 0.11738476157188416 0.20483902096748352 -0.012096129357814789 -0.25984945893287659 0.13765107095241547 -0.072566792368888855 0.015397341921925545 -0.06340346485376358 0.015005498193204403 0.17162863910198212 0.09288884699344635 -0.032953370362520218 0.22944268584251404 -0.1304345428943634 -0.011910829693078995 -0.095949895679950714 0.077624961733818054 1.5322182178497314 0.20411787927150726 0.16582319140434265 0.12730944156646729 -0.085312448441982269 0.17993190884590149 -0.068217478692531586 0.063755534589290619 -0.058441076427698135 0.0042435177601873875 0.0059740273281931877 -0.17503418028354645 1.3098354339599609 -0.13114193081855774 0.2701663076877594 -0.040658880025148392 -0.27890577912330627 0.079817749559879303 0.046490184962749481 -0.19287019968032837 0.0028236613143235445 -0.050993442535400391 0.18647532165050507 -0.23262938857078552 0.048158824443817139 -0.79929184913635254 0.14249241352081299 -0.019871195778250694 -0.0052241850644350052 -0.042771067470312119 0.30209040641784668 -0.14947964251041412 0.096602201461791992 0.06519792228937149 0.11286144703626633 0.1742459237575531
  -0.19472499191761017 0.092249728739261627 -0.31354480981826782 0.22101540863513947 -0.26383167505264282 0.37999975681304932 0.15774266421794891 -0.16329972445964813 -0.24725012481212616 0.059932883828878403 0.21551376581192017 -0.13180132210254669 -0.3055703341960907 0.0015036547556519508 -0.2859531044960022 0.092604704201221466 -0.37176099419593811 0.41283330321311951 0.065090395510196686 -0.11782204359769821 -0.043755121529102325 -0.098219521343708038 0.28487852215766907 -0.36476081609725952 -0.26907658576965332 -0.31230923533439636 -0.41082829236984253 0.011739079840481281 -0.44452893733978271 0.46643590927124023 -0.018821863457560539 -0.056898005306720734 0.012784238904714584 -0.13380901515483856 0.28949695825576782 -0.40572723746299744 -0.049735642969608307 -0.14335741102695465 -0.30793389678001404 0.19382502138614655 -0.39561372995376587 0.33945587277412415 -0.040677595883607864 -0.094928763806819916 -0.0038003704976290464 -0.0076805073767900467 0.076748140156269073 -0.20748889446258545 -0.25097054243087769 0.10446055978536606 -0.35537794232368469 0.41362762451171875 -0.16749730706214905 0.24322326481342316 0.13487708568572998 -0.020895274356007576 0.072711363434791565 0.17240311205387115 -0.12703636288642883 -0.024590268731117249
  -0.36172142624855042 0.36134445667266846 -0.19789639115333557 0.33252459764480591 0.098856553435325623 -0.082166261970996857 0.27462610602378845 -0.36050772666931152 0.011450073681771755 0.07215273380279541 -0.34920060634613037 -0.067736707627773285 -0.36221686005592346 0.51210039854049683 -0.2201419323682785 0.1565810889005661 0.28988605737686157 -0.044679336249828339 0.13755235075950623 -0.20520289242267609 -0.065297871828079224 0.11820070445537567 -0.059670664370059967 -0.021136540919542313 -0.27573716640472412 0.57967352867126465 -0.12078094482421875 0.084139011800289154 0.3309064507484436 -0.020682724192738533 0.043655775487422943 0.015791028738021851 -0.077927932143211365 0.1184522807598114 0.071673452854156494 -0.084218062460422516 -0.20355197787284851 0.28938502073287964 -0.057631760835647583 -0.053502794355154037 0.21563628315925598 0.071387894451618195 -0.030054274946451187 0.20111225545406342 -0.077641360461711884 0.020670026540756226 0.10993407666683197 -0.14869973063468933 -0.58630090951919556 -0.14352989196777344 -0.30874371528625488 -0.39261355996131897 0.18773800134658813 0.18573272228240967 0.083137035369873047 0.2890809178352356 0.024991290643811226 0.049769002944231033 0.0094878906384110451 -0.032693210989236832
  0.94886136054992676 -0.40450063347816467 -0.53022181987762451 -1.0264333486557007 0.041924223303794861 0.37889271974563599 0.36788243055343628 0.34547382593154907 0.30894002318382263 -0.38323754072189331 -0.20786981284618378 -0.43177235126495361 -0.26674968004226685 -0.28600975871086121 -0.30122479796409607 -0.37721452116966248 0.093356683850288391 0.13103108108043671 0.29204860329627991 0.23905354738235474 -0.047499790787696838 -0.21162346005439758 0.057192828506231308 0.098299473524093628 -0.31238991022109985 -0.33255565166473389 -0.36365419626235962 -0.26122963428497314 0.0160504300147295 0.14760333299636841 0.048515204340219498 0.11798910796642303 0.048914134502410889 0.11878246814012527 0.057357858866453171 0.14804278314113617 -0.016343466937541962 0.14857520163059235 0.1892099529504776 0.19630429148674011 -0.076919659972190857 -0.029868513345718384 -0.13615359365940094 -0.082101330161094666 0.046514783054590225 0.2134188711643219 0.018649572506546974 0.063177786767482758 -0.070948205888271332 0.83623296022415161 0.63994413614273071 0.85448116064071655 -0.14161236584186554 -0.38461160659790039 -0.30136460065841675 -0.39093172550201416 -0.18048839271068573 0.11835731565952301 0.046930767595767975 0.089363731443881989
  0.095812477171421051 0.14417894184589386 0.24082894623279572 0.17500272393226624 -0.37604668736457825 -0.48432084918022156 -0.15706318616867065 0.25358530879020691 0.21081094443798065 -0.093224801123142242 0.039915557950735092 0.25287067890167236 0.096444390714168549 0.052379172295331955 -0.13225768506526947 -0.038179542869329453 -0.26911622285842896 -0.35449749231338501 -0.098887421190738678 0.21306614577770233 0.0063156755641102791 0.01873856782913208 -0.0059016547165811062 0.13020467758178711 0.070912547409534454 -0.083886496722698212 -0.21206279098987579 -0.18213529884815216 -0.31735590100288391 -0.35873886942863464 -0.11735282838344574 0.22095505893230438 -0.012595871463418007 0.14756284654140472 0.12227898836135864 0.12229651212692261 -0.032792754471302032 0.1297595351934433 0.023285582661628723 0.060609616339206696 -0.29470980167388916 -0.36296528577804565 -0.13717062771320343 0.20173297822475433 0.12393920123577118 0.22744449973106384 0.21538941562175751 0.22763197124004364 0.37586072087287903 0.23415109515190125 0.54406076669692993 0.23725883662700653 -0.3166668713092804 -0.18945859372615814 -0.22317883372306824 0.14743535220623016 0.14329251646995544 -0.084803923964500427 0.23607796430587769 0.037828419357538223
  -0.80029433965682983 0.63750720024108887 -0.19882994890213013 0.12897510826587677 0.038691908121109009 0.062157686799764633 -0.076361373066902161 0.081393435597419739 -0.081213608384132385 -0.025377970188856125 0.0018581321928650141 -0.12788026034832001 -1.2574433088302612 0.14558352530002594 -0.3886658251285553 -0.37717947363853455 0.06342652440071106 0.12754705548286438 -0.049422826617956161 0.19552429020404816 -0.25700250267982483 0.0093055414035916328 0.062943115830421448 0.085381850600242615 -0.54453998804092407 0.59941864013671875 -0.28770220279693604 -0.1657719761133194 0.17960932850837708 -0.027933323755860329 0.013733691535890102 0.047414045780897141 -0.10981287062168121 -0.018821865320205688 -0.098714686930179596 0.11092626303434372 -0.47727230191230774 -0.041174616664648056 0.039021212607622147 -0.096525341272354126 -0.0097009148448705673 -0.081002421677112579 0.022955318912863731 -0.062980093061923981 0.12305876612663269 0.066804938018321991 0.039521925151348114 0.026362881064414978 1.6644831895828247 -0.41043484210968018 0.090528853237628937 0.21095544099807739 0.11843772232532501 0.073056191205978394 0.044482886791229248 -0.24033774435520172 0.22059585154056549 0.056272946298122406 0.012387542054057121 -0.046700462698936462 ]
 [ -2.29335618019104 0.25322806835174561 0.15603747963905334 -2.7669949531555176 -0.82463598251342773 5.2290863990783691 2.4139432907104492 1.3121163845062256 2.7509560585021973 -1.3534742593765259 -2.7039847373962402 -1.8621094226837158 2.7551944255828857 -2.0055520534515381 1.2814308404922485 -3.6975932121276855 1.0486024618148804 0.30896037817001343 1.4773887395858765 -0.24368073046207428 -3.9156033992767334 -0.7735670804977417 -1.5226132869720459 1.8941373825073242 -2.8870739936828613 -0.33575668931007385 -2.7953028678894043 2.7854413986206055 2.5917577743530273 -3.3597836494445801 -3.5571615695953369 -2.3626277446746826 -0.49778583645820618 -0.86295986175537109 2.0714216232299805 4.1562409400939941 -3.3194150924682617 1.4748486280441284 0.278413325548172 3.3866913318634033 0.23973764479160309 -3.0325379371643066 -3.9843881130218506 -0.80360835790634155 -0.077424250543117523 -1.2200502157211304 -3.1660583019256592 -1.7020893096923828 2.2350482940673828 -2.247732400894165 2.1175553798675537 2.4238686561584473 -2.0145542621612549 -1.7553635835647583 -1.9272383451461792 -0.38090509176254272 1.1406772136688232 0.68798768520355225 3.447749137878418 2.6445450782775879 -3.263655424118042 0.30974921584129333 -2.8772182464599609 1.4536100625991821 2.966266393661499 -2.8322188854217529 2.2107498645782471 -1.7079280614852905 -0.42055794596672058 -3.6003804206848145 ]
<sigmoid> 70 70
<affinetransform> 56 70
 [ 
  0.42788949608802795 -0.7563704252243042 0.44102528691291809 0.40609702467918396 -0.76125752925872803 -0.35805422067642212 -0.25612902641296387 0.15054738521575928 -0.11403927952051163 -0.07500583678483963 0.280559241771698 0.39727693796157837 -0.48324358463287354 0.18312335014343262 0.91182535886764526 -0.13153071701526642 0.52271455526351929 0.14918401837348938 -0.38104039430618286 -0.096967794001102448 -0.77424448728561401 -0.26129257678985596 -0.33065584301948547 0.3906395435333252 0.17531466484069824 0.16906005144119263 -0.39869463443756104 0.65252876281738281 -0.2636435329914093 0.069649316370487213 0.38613641262054443 0.55907505750656128 0.15662257373332977 -1.0433259010314941 0.41653209924697876 -0.19876271486282349 0.036630421876907349 0.2805667519569397 -0.29550895094871521 0.50642836093902588 0.39093795418739319 -0.82349872589111328 -0.11094131320714951 0.1061626672744751 0.56494837999343872 0.06810934841632843 0.28637507557868958 0.024466805160045624 -0.3499312698841095 0.34482499957084656 -0.091512352228164673 -0.19930016994476318 0.56394052505493164 0.11380526423454285 -0.013709831051528454 -0.36729690432548523 0.1856195330619812 -0.56999242305755615 0.026577306911349297 -0.33382958173751831 0.11028122156858444 -0.20238842070102692 0.0052476665005087852 0.11153370141983032 -0.2192295640707016 -0.32465752959251404 0.26215922832489014 -0.37105992436408997 -0.069282770156860352 -0.0073289205320179462
  -0.42171743512153625 -0.47833320498466492 -0.64676922559738159 -0.41652742028236389 -0.35145711898803711 0.14305408298969269 0.16894286870956421 -0.46844285726547241 0.86973452568054199 0.26420179009437561 -0.49065315723419189 -0.51499128341674805 0.7194596529006958 0.12143838405609131 -0.13534136116504669 -0.020934905856847763 -0.27890017628669739 -0.51728051900863647 -0.31771689653396606 0.3357907235622406 0.12537519633769989 0.33309447765350342 -0.55281078815460205 0.033498585224151611 0.40910166501998901 0.31576082110404968 -0.35671383142471313 -0.06784164160490036 -0.48430788516998291 -0.10635578632354736 0.46740752458572388 -0.096266195178031921 -0.23626779019832611 -0.23576369881629944 -1.5119698047637939 -0.031793542206287384 0.040937170386314392 -0.025361821055412292 0.27502822875976562 -0.40794602036476135 0.14112496376037598 0.82782554626464844 -0.40390065312385559 0.54743671417236328 0.039768509566783905 -0.013353900983929634 0.049239702522754669 0.54398065805435181 -0.85775738954544067 -0.099702119827270508 -0.48704865574836731 0.50345402956008911 0.028360649943351746 0.38377121090888977 0.76119565963745117 -0.12085878849029541 0.11786668002605438 0.076851524412631989 -0.25191777944564819 0.95957744121551514 -0.42068180441856384 -0.42636725306510925 0.21808511018753052 -0.4872625470161438 0.36419731378555298 0.33263811469078064 -0.1622270941734314 -0.78436034917831421 0.095615081489086151 0.14588353037834167
  0.3565983772277832 0.12254124134778976 -0.12290205061435699 0.80564391613006592 -0.009671555832028389 0.26620164513587952 0.2053837925195694 -0.14687107503414154 -0.3906535804271698 -0.4254077672958374 -0.64640021324157715 0.47717800736427307 0.28480932116508484 0.076872102916240692 0.19606964290142059 1.5488089323043823 0.51413708925247192 -0.42209303379058838 -0.87693005800247192 -0.017939489334821701 0.038371995091438293 -0.15888573229312897 0.48443341255187988 0.11905145645141602 0.69150030612945557 0.14015302062034607 0.037905193865299225 -0.55479079484939575 0.19536828994750977 -0.33376157283782959 -0.35546529293060303 -0.16291654109954834 0.15499460697174072 0.36158451437950134 -0.17916314303874969 0.3843853771686554 0.45538800954818726 -0.077833831310272217 -0.3025471568107605 -0.098137162625789642 -0.51742029190063477 0.2342069000005722 0.034730095416307449 0.29995512962341309 -0.045580819249153137 0.31236878037452698 -0.048363160341978073 0.71967566013336182 0.025387143716216087 0.2145477831363678 -0.42501083016395569 0.036819037050008774 0.23134486377239227 0.24567952752113342 0.23030981421470642 0.27575510740280151 -0.17382247745990753 -0.29319712519645691 -0.31747245788574219 0.26550790667533875 -0.10180570185184479 -0.11904232203960419 0.21737286448478699 -0.23927882313728333 -0.68662840127944946 0.10921305418014526 0.046742778271436691 0.10634814202785492 0.51613938808441162 0.92064130306243896
  0.15029276907444 -0.04144657775759697 0.37096515297889709 -0.29855626821517944 0.24678786098957062 0.51909118890762329 -0.39524754881858826 0.67730122804641724 -0.041562013328075409 -0.049927223473787308 0.16688989102840424 0.54310441017150879 0.18498384952545166 -0.34491151571273804 -0.63439393043518066 0.015646243467926979 -0.051198944449424744 0.33475908637046814 0.1680418848991394 -0.13331599533557892 0.69014871120452881 0.13307653367519379 -0.0062645114958286285 -1.0186386108398438 -0.15351976454257965 0.67190974950790405 0.17927533388137817 0.63990342617034912 0.22768974304199219 -0.61255085468292236 -0.13502727448940277 -0.3210073709487915 0.35216265916824341 -0.31798171997070312 -0.0084560522809624672 -0.9492838978767395 -0.32237952947616577 0.52004784345626831 0.0965895876288414 -0.15938317775726318 -0.24629317224025726 -0.052064307034015656 -0.15265332162380219 -0.24596749246120453 -0.039209134876728058 -0.25263833999633789 0.043182354420423508 -0.24635355174541473 -0.0040909168310463428 0.51006817817687988 0.18567603826522827 0.054732941091060638 -0.67824059724807739 0.4238419234752655 -0.037685707211494446 0.087884463369846344 -0.54410064220428467 0.20034962892532349 0.76385283470153809 -0.032249573618173599 -0.20315797626972198 -0.31378349661827087 -0.0083599081262946129 0.23499774932861328 -0.36771786212921143 -0.050053119659423828 -0.079336792230606079 -0.0053112348541617393 0.27017879486083984 0.1128992959856987
  0.094672694802284241 0.064354121685028076 -0.040279034525156021 0.15025427937507629 0.012879947200417519 -0.35088711977005005 -0.13609768450260162 0.071041904389858246 -0.22025313973426819 -0.022767834365367889 0.15328410267829895 0.34194925427436829 -0.34878966212272644 -0.16689783334732056 -0.14553946256637573 -0.10121466964483261 -0.03455512598156929 -0.14714521169662476 0.13833090662956238 0.22844059765338898 0.087612368166446686 0.083489924669265747 0.18265850841999054 -0.0080866683274507523 -0.59021294116973877 -0.014276034198701382 0.14359463751316071 0.31404209136962891 -0.56052297353744507 -0.037124946713447571 0.52343738079071045 0.27362138032913208 0.050375062972307205 -0.011410844512283802 -0.035020232200622559 0.030383186414837837 -0.079169034957885742 -0.053575281053781509 -0.37649700045585632 0.10796907544136047 -0.31704100966453552 0.11475711315870285 0.34429100155830383 -0.36685141921043396 -0.015227057039737701 -0.5192720890045166 0.51476341485977173 -0.012116145342588425 -0.36693269014358521 0.072281442582607269 0.19045910239219666 -0.17260037362575531 0.22528694570064545 0.24080023169517517 0.23454201221466064 -0.28472381830215454 0.26362845301628113 0.12941570580005646 0.16866195201873779 -0.1545569896697998 -0.12241560220718384 0.43684142827987671 0.048540875315666199 0.087894931435585022 -0.26842960715293884 0.2803044319152832 -0.47343471646308899 0.21573252975940704 -0.043276276439428329 -0.20184719562530518
  -0.029144076630473137 -0.038531575351953506 0.25314196944236755 -0.045570723712444305 -0.14782552421092987 -0.10129959881305695 0.65594297647476196 0.23965586721897125 -0.62646061182022095 -0.35328638553619385 0.65396362543106079 -0.033233568072319031 -0.41390451788902283 -0.0025303007569164038 -0.085835814476013184 0.18060523271560669 0.14363701641559601 0.047063935548067093 0.040793213993310928 0.25671645998954773 -0.33012819290161133 -0.30211681127548218 0.68254655599594116 -0.046334303915500641 -0.17530196905136108 -0.26446038484573364 0.15995664894580841 0.13626964390277863 0.21946811676025391 0.31674301624298096 -0.1902741938829422 0.31165164709091187 0.25588870048522949 0.28727728128433228 0.45359060168266296 0.79852217435836792 0.15150485932826996 -0.37688535451889038 0.21529185771942139 -0.040135644376277924 0.079651065170764923 -0.37247300148010254 -0.14672195911407471 -0.3233649730682373 -0.23231017589569092 -0.15744943916797638 -0.090693652629852295 -0.26508313417434692 0.19877605140209198 -0.56455272436141968 0.074478365480899811 0.37645262479782104 0.0044573131017386913 -0.43770113587379456 -0.51517879962921143 0.32326313853263855 -0.067600160837173462 0.49993538856506348 -0.10765771567821503 -0.035794910043478012 -0.2572484016418457 0.007360490970313549 -0.34469571709632874 0.056588783860206604 0.051846757531166077 -0.14749552309513092 0.069373913109302521 -0.29608023166656494 -0.34194475412368774 -0.051403913646936417
  0.65124857425689697 0.29861149191856384 -0.17079044878482819 0.14463639259338379 0.030965263023972511 -0.062805436551570892 -0.25280448794364929 -0.21886426210403442 -0.18254904448986053 0.17356754839420319 0.19988393783569336 0.38727903366088867 -0.46993112564086914 0.3857123851776123 -0.28104943037033081 1.2159831523895264 0.0059418864548206329 0.20106689631938934 -0.49093014001846313 -0.36129480600357056 -0.024704990908503532 0.14230537414550781 0.34131422638893127 -0.47868895530700684 0.037908434867858887 -0.14593136310577393 0.21623121201992035 -0.67592984437942505 0.13349978625774384 0.0013936269097030163 -0.3643975555896759 0.39784041047096252 -0.14683978259563446 0.060113385319709778 0.69657337665557861 -0.48886924982070923 -0.22732140123844147 0.24097873270511627 -0.20541626214981079 0.038111146539449692 -0.7615586519241333 -0.46321091055870056 -0.028116587549448013 0.2107996940612793 -0.17348691821098328 -0.12377723306417465 0.53828060626983643 -0.21701987087726593 0.46237277984619141 0.021681131795048714 0.53232866525650024 -0.20262922346591949 0.053375966846942902 0.46062192320823669 -0.12357250601053238 0.10144999623298645 -0.45765659213066101 -0.49860021471977234 -0.10779482126235962 -1.140053391456604 -0.013442950323224068 0.0048637432046234608 -0.064112827181816101 0.44230547547340393 -0.96628463268280029 0.039750691503286362 -0.077708013355731964 0.38726097345352173 -0.081169620156288147 0.91639500856399536
