<Nnet>
<input> 60 60
<affinetransform> 70 60
 [ 
  0.31133091449737549 -0.95295804738998413 -0.4901793897151947 1.1441211700439453 0.55036413669586182 -0.84681010246276855 -0.49789637327194214 0.28476238250732422 0.37518617510795593 0.086473904550075531 -0.089340277016162872 -0.18074518442153931 0.12903426587581635 0.036126051098108292 0.11503325402736664 0.52870547771453857 0.12396107614040375 -0.30369529128074646 -0.16370569169521332 0.16993062198162079 0.070181779563426971 -0.08888079971075058 0.09700968861579895 0.073452956974506378 0.2599673867225647 0.64431154727935791 0.35003635287284851 -0.03604556992650032 -0.30796417593955994 0.012833543121814728 0.17270144820213318 0.058110922574996948 -0.014183701016008854 -0.17388930916786194 0.098565377295017242 0.14087462425231934 0.11527954041957855 0.035734765231609344 0.023740651085972786 -0.4591449499130249 -0.37792912125587463 0.31934288144111633 0.33193472027778625 -0.023173417896032333 -0.14504767954349518 -0.073152244091033936 0.13451185822486877 0.0064773755148053169 -0.72795134782791138 0.20622824132442474 -0.13783684372901917 -1.2451910972595215 -0.14937503635883331 0.80959838628768921 0.30940553545951843 -0.30530622601509094 -0.35754221677780151 0.3490663468837738 -0.0023483568802475929 0.043247021734714508
  0.97081500291824341 -0.39950785040855408 -0.22910068929195404 -0.49473059177398682 -0.18606562912464142 -0.015984643250703812 0.29164215922355652 0.18985982239246368 0.080345816910266876 -0.049358773976564407 -0.1560424417257309 -0.4133513867855072 -0.2157299667596817 0.37832662463188171 0.21282468736171722 0.28920850157737732 -0.013469714671373367 0.056128278374671936 0.13348472118377686 0.13735134899616241 -0.037595316767692566 0.03605550155043602 -0.095969468355178833 -0.0071624713018536568 -0.052392572164535522 0.037294112145900726 0.12514667212963104 0.14170040190219879 -0.10724032670259476 0.0048747439868748188 0.13879404962062836 0.21065075695514679 -0.062465831637382507 0.042369883507490158 -0.011778868734836578 0.082487612962722778 0.24689233303070068 -0.18039363622665405 -0.15594598650932312 -0.16888779401779175 -0.23514334857463837 -0.19691663980484009 0.068324357271194458 0.29670253396034241 0.055683236569166183 -0.012559233233332634 0.0060918251983821392 -0.019872386008501053 -0.040126010775566101 -0.42361289262771606 -0.66968405246734619 -0.35124886035919189 0.11777018010616302 0.17502059042453766 0.36533269286155701 0.28611019253730774 0.21592383086681366 -0.18388234078884125 -0.32078501582145691 -0.41932797431945801
  -0.6485450267791748 0.51611000299453735 0.87996482849121094 0.65495556592941284 0.062861084938049316 -0.36755579710006714 -0.19681935012340546 -0.13469459116458893 -0.62327408790588379 -0.48685958981513977 0.093528077006340027 0.15895788371562958 -0.21931196749210358 0.071243464946746826 0.27275830507278442 -0.27900117635726929 -0.042069043964147568 0.026521682739257812 -0.018572106957435608 0.006240461952984333 -0.24593204259872437 -0.06981407105922699 0.2773517370223999 0.10681766271591187 0.20659488439559937 0.051814258098602295 -0.096370160579681396 -0.33780515193939209 0.037678875029087067 0.13949126005172729 0.0159022007137537 -0.17243620753288269 -0.0383165143430233 0.074615649878978729 0.2366625964641571 0.056399460881948471 0.74161767959594727 -0.21955510973930359 -0.46893823146820068 -0.23854492604732513 0.048774749040603638 0.33903235197067261 0.12701548635959625 -0.069906622171401978 0.21238343417644501 0.075972199440002441 -0.055679943412542343 -0.031805034726858139 0.31497290730476379 -0.27487450838088989 -0.91658663749694824 -0.24704667925834656 0.26779079437255859 0.33981016278266907 0.17071287333965302 0.086378045380115509 0.609283447265625 0.49367853999137878 -0.40986451506614685 -0.36209243535995483
  0.1320326179265976 -0.22886043787002563 -0.47087028622627258 -0.50750672817230225 0.35085228085517883 0.17074723541736603 -0.031724371016025543 -0.21709322929382324 0.20284862816333771 0.14800257980823517 -0.038067091256380081 -0.15991172194480896 -0.16371595859527588 0.25089898705482483 0.7166866660118103 -0.11809904128313065 -0.35849502682685852 0.1151178777217865 -0.052880421280860901 -0.27411708235740662 -0.04759964719414711 0.0057705463841557503 0.11277588456869125 0.046600218862295151 -0.47313278913497925 0.31624886393547058 1.0721410512924194 0.043552730232477188 -0.55915886163711548 -0.044693984091281891 0.058446012437343597 -0.14142815768718719 -0.038178551942110062 -0.13975636661052704 0.1559528261423111 0.13997456431388855 -0.19771577417850494 0.0027708215638995171 0.849098801612854 0.38204720616340637 -0.49674120545387268 -0.37845981121063232 0.06725456565618515 0.17811422049999237 -0.11182708293199539 -0.20219135284423828 0.029305288568139076 0.049756012856960297 1.2535172700881958 -0.74930036067962646 -2.2439455986022949 0.27817508578300476 0.94416910409927368 -0.22681403160095215 -0.19638089835643768 0.65307748317718506 0.0080387871712446213 0.17056472599506378 -0.21733638644218445 -0.22606925666332245
  -0.95480054616928101 0.25550279021263123 -0.2206851989030838 0.1149621307849884 0.17607422173023224 0.0024446344468742609 -0.043311275541782379 0.24796150624752045 0.33342227339744568 -0.076144538819789886 0.0026230760850012302 0.2399037778377533 0.089559473097324371 -0.11788731068372726 -0.15807963907718658 -0.17091564834117889 0.12761466205120087 -0.13153165578842163 -0.16366681456565857 0.042890559881925583 0.052210502326488495 -0.030313510447740555 0.074005343019962311 -0.062950193881988525 0.28609937429428101 -0.10997232049703598 -0.037873901426792145 -0.13283008337020874 -0.0012737179640680552 -0.044358719140291214 0.059068005532026291 0.10152684897184372 -0.1108366996049881 -0.057867672294378281 0.09156789630651474 -0.15150953829288483 0.26894152164459229 -0.30703774094581604 0.043794360011816025 -0.24572883546352386 -0.0071262619458138943 0.31444951891899109 0.22650995850563049 0.05992591381072998 0.047706194221973419 0.04193471372127533 0.12529391050338745 -0.051603429019451141 2.4547662734985352 0.72778624296188354 0.99136084318161011 0.22024497389793396 -0.57957547903060913 -0.23046877980232239 0.17916424572467804 -0.159952312707901 -0.40677019953727722 -0.086178451776504517 -0.42451184988021851 -0.25521451234817505
  0.17382960021495819 -0.29600653052330017 0.48363697528839111 0.4016478955745697 -0.27456751465797424 0.35935136675834656 0.22483766078948975 0.18528576195240021 0.10024576634168625 -0.0023624717723578215 0.12868030369281769 -0.070405490696430206 -0.24015851318836212 -0.12755468487739563 0.062062181532382965 0.2908141016960144 0.17944036424160004 0.33371025323867798 0.19713029265403748 0.20574621856212616 0.045317590236663818 0.022534959018230438 -0.014610241167247295 0.010539195500314236 0.096707753837108612 0.24028691649436951 0.1031307652592659 0.41355094313621521 0.26291963458061218 0.0086289718747138977 0.0076251630671322346 0.14228563010692596 0.064024239778518677 -0.0096926819533109665 -0.13017512857913971 0.049822486937046051 0.14442218840122223 0.28153717517852783 0.20219418406486511 0.22314193844795227 0.38160982728004456 0.18263207376003265 0.063763387501239777 0.15884551405906677 0.041664864867925644 -0.10907833278179169 -0.056784015148878098 -0.034396026283502579 0.29036542773246765 -0.22087162733078003 0.21512129902839661 0.060805823653936386 0.21961015462875366 0.48794090747833252 0.13952547311782837 0.22897794842720032 0.20709826052188873 -0.029193338006734848 0.24103908240795135 -0.15044368803501129
  0.22512383759021759 0.076599292457103729 0.27079108357429504 0.02120666392147541 -0.56150156259536743 -0.12114382535219193 0.18152898550033569 0.36524778604507446 -0.016566500067710876 -0.31683522462844849 -0.18396081030368805 0.14814689755439758 0.41003695130348206 0.42620849609375 0.017816746607422829 -0.26179414987564087 -0.084602892398834229 -0.0010630413889884949 0.032541476190090179 0.033618196845054626 0.012075344100594521 -0.18224886059761047 0.06171850860118866 0.14099659025669098 0.40468323230743408 0.26850351691246033 -0.32576155662536621 -0.47412294149398804 0.12415099143981934 0.076556988060474396 -0.031449496746063232 -0.18814049661159515 -0.080726496875286102 0.0075623244047164917 0.26647317409515381 0.080520808696746826 0.16454121470451355 -0.46854281425476074 -0.62047362327575684 -0.15916106104850769 0.29730460047721863 0.079084374010562897 -0.30637726187705994 -0.42172813415527344 0.078831680119037628 0.34944561123847961 0.29439660906791687 -0.075879335403442383 -1.642619252204895 -0.67208129167556763 0.45120975375175476 1.1187137365341187 0.68251305818557739 -0.048745326697826385 -0.35599115490913391 -0.26855424046516418 0.23132483661174774 0.50842845439910889 -0.25893732905387878 -0.12205398082733154
  0.98070371150970459 0.97367548942565918 1.1413911581039429 1.0695217847824097 0.42171981930732727 0.03634364902973175 -0.032126434147357941 -0.30845785140991211 -0.12211325764656067 -0.0074779698625206947 -0.087967060506343842 -0.0068619754165410995 0.5946996808052063 -0.3412819504737854 -0.21015647053718567 -0.32630741596221924 -0.62259316444396973 -0.13695695996284485 -0.0090137254446744919 0.15282194316387177 0.045802537351846695 0.015285867266356945 0.11686500161886215 0.054451148957014084 -0.088898859918117523 -0.40838795900344849 -0.76445627212524414 -0.67679738998413086 -0.3388335108757019 -0.0063818315975368023 0.17203728854656219 0.28172075748443604 0.18734680116176605 0.045866802334785461 -0.013597671873867512 -0.052848733961582184 0.32532349228858948 -0.089907847344875336 -0.3301675021648407 -0.57794010639190674 -0.29852250218391418 0.036646593362092972 0.050778690725564957 0.20369073748588562 0.13522151112556458 0.019306816160678864 0.016012903302907944 -0.074148543179035187 -2.1998593807220459 -0.42067301273345947 -0.48668447136878967 0.55098921060562134 0.7777060866355896 0.40874245762825012 0.23820498585700989 0.14708080887794495 -0.14755308628082275 0.12508571147918701 -0.041296724230051041 0.10189295560121536
  0.91981315612792969 -0.26118782162666321 -0.49961793422698975 0.60084664821624756 0.48321545124053955 -0.1343407928943634 -0.19189432263374329 0.23454582691192627 0.2734682559967041 -0.1321907639503479 -0.10289687663316727 -0.12113174796104431 0.64257091283798218 -0.19492894411087036 -0.59480202198028564 0.21293962001800537 0.334786057472229 -0.16968065500259399 -0.15059788525104523 0.22756765782833099 0.14930996298789978 -0.15393179655075073 -0.1262311190366745 -0.13569849729537964 -0.046945668756961823 -0.038408331573009491 -0.6587529182434082 -0.10506968200206757 0.4849737286567688 0.32147496938705444 0.073765955865383148 -0.19005283713340759 0.15965619683265686 0.005847178865224123 -0.1399356871843338 -0.12800401449203491 -0.074076153337955475 -0.0037869727239012718 -0.018290627747774124 -0.2207363098859787 0.087668269872665405 0.086563266813755035 0.078363753855228424 -0.17514187097549438 -0.019691184163093567 0.0075757456943392754 -0.063464529812335968 0.028755340725183487 -0.14559315145015717 -0.04035278782248497 0.53783750534057617 -0.22911342978477478 0.10493074357509613 0.042717721313238144 -0.25876128673553467 -0.034956295043230057 0.056964315474033356 -0.098473414778709412 -0.12418852746486664 -0.1627686470746994
  0.014093665406107903 -0.29878869652748108 -0.20230966806411743 -0.6734776496887207 0.41612312197685242 0.43107759952545166 0.22700397670269012 -0.37581074237823486 -0.20439594984054565 -0.055152684450149536 0.25436884164810181 0.082052677869796753 1.0209453105926514 0.041630946099758148 -0.46474018692970276 -0.15489071607589722 0.32242822647094727 0.15592241287231445 -0.12120712548494339 -0.48502859473228455 -0.22463278472423553 0.28355419635772705 0.41255363821983337 -0.084474757313728333 0.9945296049118042 0.24676769971847534 -0.17005661129951477 0.26549577713012695 0.0023101430851966143 0.047641836106777191 0.027335226535797119 -0.47746869921684265 -0.30804827809333801 0.11522119492292404 0.20170637965202332 0.065907634794712067 0.55736815929412842 0.41159257292747498 0.28092136979103088 0.29777064919471741 -0.18239761888980865 -0.21484719216823578 0.15589645504951477 -0.15832407772541046 -0.11441358178853989 -0.10644404590129852 -0.078057847917079926 0.10139357298612595 -0.28441807627677917 -0.023807765915989876 -0.082972139120101929 -0.4244924783706665 -0.025600772351026535 0.3609258234500885 -0.058083038777112961 0.35307091474533081 0.078627139329910278 -0.29512465000152588 -0.12692134082317352 0.066773667931556702
  -0.39099135994911194 0.2197546511888504 -0.53012275695800781 0.24023209512233734 0.42968851327896118 0.21982522308826447 0.11527886986732483 -0.027437085285782814 -0.0094431210309267044 0.06824849545955658 -0.022459251806139946 0.17698022723197937 0.38637790083885193 -0.24592199921607971 0.22999072074890137 -0.20695789158344269 -0.34164771437644958 -0.13666185736656189 -0.17925551533699036 -0.030614893883466721 -0.071076527237892151 0.063028797507286072 0.17687426507472992 0.027398038655519485 0.12189978361129761 0.1975424587726593 0.21580907702445984 -0.30075514316558838 -0.44846406579017639 -0.3899213969707489 -0.37635493278503418 -0.083479613065719604 -0.21124297380447388 -0.13799157738685608 0.10670117288827896 0.0048725605010986328 -0.27988630533218384 -0.2109186202287674 0.078236475586891174 -0.51585662364959717 -0.48549944162368774 -0.47841653227806091 -0.34846693277359009 -0.036241747438907623 -0.025540187954902649 -0.15716709196567535 0.13832667469978333 0.031632602214813232 1.5032544136047363 0.52136832475662231 0.63519120216369629 0.69187229871749878 0.61322224140167236 0.18285733461380005 0.038283627480268478 -0.37356269359588623 0.10053184628486633 -0.04768429696559906 -0.32527559995651245 -0.3234192430973053
  1.5999867916107178 -1.0390856266021729 -1.6083276271820068 -0.86749643087387085 0.89746367931365967 0.42643016576766968 -0.16828827559947968 0.078277871012687683 0.33035185933113098 0.28813731670379639 0.020158281549811363 -0.45815557241439819 0.15188606083393097 0.1478850245475769 -0.15183736383914948 -0.24761456251144409 0.10260705649852753 0.20788134634494781 0.1218913346529007 -0.054830420762300491 -0.19814449548721313 0.045746970921754837 0.030916908755898476 0.0908207967877388 0.030855493620038033 0.5969623327255249 0.37151318788528442 -0.096733450889587402 -0.37923118472099304 -0.030086418613791466 0.13948240876197815 -0.026857873424887657 -0.1280924379825592 -0.037302356213331223 0.14629845321178436 0.20344528555870056 0.055907350033521652 0.4214119017124176 0.46189585328102112 0.15104404091835022 -0.30043798685073853 -0.15791225433349609 0.030277175828814507 -0.032591298222541809 -0.081327170133590698 -0.12322665005922318 0.029520684853196144 0.12467960268259048 -0.74908190965652466 -0.39071869850158691 0.4342288076877594 0.37640100717544556 -0.13251575827598572 -0.329863041639328 -0.041367091238498688 -0.070916026830673218 0.05335690826177597 -0.046211156994104385 -0.13250891864299774 -0.089066676795482635
  1.1669269800186157 -0.6669539213180542 -0.89174991846084595 0.79306203126907349 -0.10726027935743332 -0.098218776285648346 0.53128325939178467 -0.083071306347846985 -0.002371680922806263 0.13592195510864258 -0.17377269268035889 -0.11573735624551773 -0.098417773842811584 -0.5087009072303772 0.2302655428647995 -0.00081625347957015038 -0.1506129652261734 -0.0076572112739086151 0.18072064220905304 -0.04080725833773613 -0.028640592470765114 0.017859725281596184 0.059054665267467499 -0.012866472825407982 0.075357489287853241 -0.19943159818649292 0.075632847845554352 -0.039446227252483368 -0.041041240096092224 -0.12268530577421188 0.081727318465709686 -0.01476089283823967 -0.0082892626523971558 0.051900360733270645 0.07533709704875946 0.031507484614849091 -0.20546123385429382 -0.25563895702362061 0.064940005540847778 -0.0098219970241189003 0.023493928834795952 -0.14720772206783295 -0.011642321012914181 0.070042625069618225 0.041358098387718201 -0.034273821860551834 0.069926746189594269 0.039945341646671295 0.6141083836555481 0.021377230063080788 -0.22851292788982391 -0.022969381883740425 0.23025371134281158 -0.033591117709875107 -0.11175773292779922 -0.10411934554576874 0.050206881016492844 0.10427476465702057 -0.081105694174766541 -0.12406539916992188
  0.93876469135284424 0.6824306845664978 0.72377586364746094 0.22302637994289398 -0.15553529560565948 -0.14048023521900177 -0.73076546192169189 -0.76083743572235107 -0.54287666082382202 -0.33059185743331909 0.018646104261279106 0.054494578391313553 0.061533328145742416 0.818645179271698 0.64343297481536865 0.75645631551742554 0.55071449279785156 0.38440787792205811 0.19251574575901031 -0.34438827633857727 -0.32620418071746826 -0.2021879255771637 -0.32361850142478943 -0.058190815150737762 0.12164397537708282 -0.078648902475833893 0.02088555134832859 -0.011085593141615391 0.079634562134742737 0.017984285950660706 0.22019009292125702 0.071960948407649994 0.10672499239444733 -0.041518472135066986 -0.10778967291116714 -0.052439205348491669 0.068851955235004425 -0.40639606118202209 -0.29533344507217407 -0.44630849361419678 -0.22485391795635223 -0.10136165469884872 -0.071361072361469269 0.26921573281288147 0.24210722744464874 0.057451743632555008 0.092527568340301514 -0.093632623553276062 -1.0956523418426514 -0.22097015380859375 -0.29235365986824036 -0.21243709325790405 -0.13426943123340607 -0.25646114349365234 -0.074857190251350403 0.19687624275684357 0.069647215306758881 0.10932151228189468 0.14259332418441772 0.089383244514465332
  -0.89345026016235352 0.80546212196350098 0.068739302456378937 0.39934870600700378 0.74462485313415527 0.35705617070198059 0.13809607923030853 0.34437867999076843 0.075479559600353241 0.11769472062587738 0.0073368237353861332 -0.011618838645517826 0.70357334613800049 -0.0088514285162091255 0.3715880811214447 0.408701092004776 0.088795706629753113 0.19922998547554016 0.1301957368850708 0.23821292817592621 0.14397501945495605 0.016861911863088608 0.053987175226211548 -0.086113370954990387 0.80960565805435181 0.043408922851085663 -0.21730038523674011 -0.16440640389919281 0.0064894766546785831 0.11537283658981323 0.12370117008686066 -0.019293762743473053 0.029575055465102196 -0.13881766796112061 -0.071455128490924835 -0.13049325346946716 0.032182242721319199 -0.14597448706626892 -0.74748241901397705 -0.65535265207290649 -0.33718493580818176 -0.21722421050071716 -0.20006266236305237 -0.26296254992485046 -0.093370571732521057 0.0061266855336725712 -0.095181234180927277 -0.047826968133449554 0.26380082964897156 -0.85385900735855103 0.63432794809341431 -0.42529875040054321 -1.0606528520584106 -0.72123247385025024 -0.37380912899971008 -0.3681391179561615 -0.0982951819896698 0.010432823561131954 0.083413079380989075 0.27177771925926208
  0.17954643070697784 0.14318846166133881 0.36034759879112244 -0.055588603019714355 0.077339030802249908 0.0021922066807746887 0.009128236211836338 -0.046402793377637863 -0.03010263480246067 -0.0074521200731396675 -0.062237367033958435 0.011977633461356163 0.18389463424682617 -0.063172772526741028 -0.21579279005527496 -0.071941778063774109 0.075501993298530579 0.033041141927242279 -0.07625928521156311 0.10303685069084167 0.0296955406665802 2.9838090995326638e-05 -0.059187397360801697 0.020381513983011246 0.97438466548919678 0.17911592125892639 -0.38688784837722778 0.21440927684307098 -0.1110876053571701 0.03103116899728775 -0.050059191882610321 0.048406589776277542 0.0497438944876194 0.047493990510702133 0.039340164512395859 -0.070107840001583099 0.75538414716720581 -0.13414660096168518 -0.017294324934482574 0.11556046456098557 -0.098834529519081116 0.11636116355657578 0.069226093590259552 -0.097651757299900055 0.089318357408046722 -0.036104001104831696 0.056562747806310654 -0.10452353954315186 -3.7811727523803711 0.51528006792068481 -0.0209797453135252 0.023158608004450798 0.19136857986450195 -0.12705098092556 0.13479946553707123 0.18961387872695923 -0.016122924163937569 -0.06844821572303772 -0.1026080921292305 0.20090444386005402
  2.5534358024597168 1.0723470449447632 0.82363992929458618 -0.00016541598597541451 -0.59718567132949829 -0.78997445106506348 -0.23433786630630493 0.065228715538978577 0.18902081251144409 -0.10642798244953156 -0.0081347832456231117 -0.32833036780357361 0.27875807881355286 -0.075901627540588379 -0.060978148132562637 -0.21761548519134521 -0.37339144945144653 -0.3430672287940979 -0.18187135457992554 -0.029414728283882141 0.12490097433328629 0.11299759149551392 0.22477282583713531 -0.031534049659967422 0.016406621783971786 -0.26351246237754822 0.12500110268592834 0.14152117073535919 -0.10057598352432251 -0.12422521412372589 -0.13979284465312958 -0.16231884062290192 0.031830389052629471 0.086185790598392487 0.14610464870929718 0.03736003115773201 -0.081883251667022705 -0.11189921200275421 0.072254694998264313 0.32059770822525024 0.078094318509101868 0.085490085184574127 -0.10048294067382812 -0.1337314248085022 -0.057248406112194061 0.013069621287286282 0.082097090780735016 0.074818655848503113 -0.74078810214996338 -0.34112536907196045 -0.2516264021396637 0.0021404619328677654 0.21591995656490326 0.017143944278359413 -0.02855776809155941 -0.052300892770290375 -0.13159449398517609 0.11725921928882599 0.0074485098011791706 0.18973377346992493
  0.83939886093139648 0.67347347736358643 -0.83639770746231079 -0.59681308269500732 0.25373032689094543 0.3847404420375824 0.20800693333148956 -0.058181539177894592 0.14530079066753387 0.16202951967716217 -0.045180387794971466 0.10772214084863663 -0.17089200019836426 -0.014827045612037182 0.20683334767818451 -0.34039127826690674 -0.18054580688476562 0.11895621567964554 0.011319933459162712 -0.13959145545959473 -0.039431087672710419 0.010893696919083595 0.043705344200134277 0.082294575870037079 -0.81450849771499634 -0.10333177447319031 0.28325015306472778 -0.21527686715126038 -0.21133486926555634 -0.099578604102134705 0.11289281398057938 0.20209501683712006 -0.0039686430245637894 -0.068036407232284546 0.13778044283390045 0.055213939398527145 -0.6585579514503479 -0.26257827877998352 0.24596114456653595 0.14736749231815338 -0.28553953766822815 -0.33560752868652344 -0.020786754786968231 0.33718690276145935 0.032820314168930054 -0.090964779257774353 0.040473628789186478 -0.018817463889718056 -0.6237785816192627 0.18217651546001434 0.90129482746124268 0.67566323280334473 -0.2262432873249054 -0.20462164282798767 0.21626889705657959 0.23860354721546173 0.079392805695533752 -0.20750182867050171 -0.10138019919395447 -0.091405905783176422
  0.19017477333545685 -0.49065324664115906 0.48507797718048096 -0.028568992391228676 -0.094279445707798004 0.16474668681621552 0.10083213448524475 0.0014577083056792617 -0.18781523406505585 -0.18189410865306854 0.23129332065582275 0.19156865775585175 -0.73629486560821533 -0.040123879909515381 0.18692260980606079 -0.020243348553776741 0.10260254889726639 -0.19760710000991821 -0.10204383730888367 0.029903283342719078 -0.071199215948581696 -0.01955711655318737 -0.056988097727298737 0.16406489908695221 -0.3918362557888031 0.22236935794353485 -0.46090304851531982 -0.13315266370773315 0.18906109035015106 -0.20579056441783905 -0.15254494547843933 -0.15255504846572876 0.12387688457965851 0.16503216326236725 -0.034789729863405228 0.029851559549570084 1.6253799200057983 0.11329244822263718 -0.74766665697097778 -0.33357354998588562 0.27185004949569702 0.074508525431156158 -0.40682435035705566 -0.22413600981235504 0.20944124460220337 0.26656448841094971 0.070213563740253448 -0.19229590892791748 0.98971778154373169 0.54057848453521729 -0.59402960538864136 -0.016092138364911079 0.34908953309059143 0.73154789209365845 0.19435596466064453 -0.43118736147880554 -0.088688820600509644 0.14264924824237823 -0.054517414420843124 -0.21053528785705566
  0.12723289430141449 0.0035395310260355473 -0.77098900079727173 -0.18380869925022125 0.18552599847316742 -0.0675053671002388 -0.43930736184120178 0.18786761164665222 0.039666153490543365 0.10244560986757278 0.32490354776382446 -0.067469894886016846 0.56682783365249634 0.022146616131067276 0.13685871660709381 0.15799885988235474 0.0062789516523480415 -0.32406070828437805 -0.18199968338012695 -0.028534948825836182 -0.25325435400009155 -0.19136019051074982 -0.0050686243921518326 -0.012715203687548637 -0.3828149139881134 0.24216166138648987 0.62641555070877075 0.59587317705154419 0.040308788418769836 -0.14588336646556854 0.27135029435157776 -0.26601171493530273 -0.39997649192810059 -0.22603225708007812 -0.022289285436272621 0.029903877526521683 -0.34792089462280273 0.21619985997676849 0.49642443656921387 0.25387668609619141 -0.24869503080844879 0.074069373309612274 0.24227325618267059 -0.25223949551582336 -0.074434101581573486 -0.093528985977172852 -0.10349736362695694 -0.080544762313365936 -0.74823904037475586 0.039409630000591278 0.25641071796417236 0.046736188232898712 -0.28960397839546204 0.05095316469669342 -0.025157582014799118 -0.15827126801013947 0.088894888758659363 0.39630359411239624 -0.21852238476276398 -0.15459021925926208
  0.81577038764953613 1.0750051736831665 1.1427241563796997 0.51447892189025879 -0.56681692600250244 -0.84436875581741333 -0.4228985607624054 -0.21945425868034363 -0.10301812738180161 0.065967246890068054 0.069803215563297272 -0.018966184929013252 0.79568338394165039 -1.1416664123535156 -1.0652234554290771 -1.178997278213501 -0.41763722896575928 0.40840962529182434 0.39311966300010681 0.12839649617671967 0.29272189736366272 0.12078297883272171 0.060655299574136734 -0.14325205981731415 0.19134850800037384 -0.64471173286437988 -0.95790976285934448 -0.90143924951553345 0.12051150947809219 0.23808884620666504 0.24767671525478363 0.022117577493190765 0.078355535864830017 -0.029096789658069611 0.0072786528617143631 -0.075179070234298706 -0.089790217578411102 -0.12452875077724457 -0.13624595105648041 -0.13072365522384644 0.21728409826755524 -0.14560055732727051 -0.17318466305732727 -0.033036746084690094 0.008008279837667942 -0.13559965789318085 -0.16976277530193329 -0.18562176823616028 0.15850745141506195 0.62625020742416382 0.99280166625976562 1.1153939962387085 0.33600103855133057 -0.10235022008419037 -0.18455852568149567 0.035967160016298294 0.032432325184345245 0.078881561756134033 -0.038946978747844696 0.12095798552036285
  -0.14881563186645508 -0.29704099893569946 0.23755902051925659 0.51242941617965698 0.18074771761894226 -0.022858636453747749 -0.0095945028588175774 -0.1118144690990448 -0.27849274873733521 0.0059777544811367989 0.25247180461883545 -0.00019506226817611605 -0.049239017069339752 -0.16540351510047913 0.097393490374088287 0.32137283682823181 0.17909914255142212 0.049285884946584702 0.092810980975627899 -0.18651734292507172 -0.19550961256027222 -0.11152495443820953 0.011956386268138885 0.08440013974905014 -0.30565497279167175 -0.13686098158359528 -0.025144444778561592 0.16262298822402954 0.41433921456336975 0.28657174110412598 0.14271622896194458 -0.1833440363407135 -0.15829804539680481 -0.23574814200401306 -0.0904664546251297 0.21065928041934967 -0.55778241157531738 -0.13608723878860474 -0.15571832656860352 0.10469861328601837 0.32531648874282837 0.36158570647239685 0.069880068302154541 -0.070870362222194672 -0.07378995418548584 -0.14023962616920471 0.034594930708408356 0.20815198123455048 -0.47436490654945374 -0.56119567155838013 0.11949397623538971 0.367267906665802 0.20879518985748291 0.040768515318632126 -0.34320643544197083 -0.15841680765151978 -0.11108256876468658 -0.034601632505655289 -0.024294693022966385 -0.17004667222499847
  -0.54907399415969849 0.28220024704933167 -0.3956184983253479 -0.3934386670589447 0.26732513308525085 0.52649861574172974 0.16069072484970093 -0.40187019109725952 -0.10763310641050339 0.24694910645484924 0.39770278334617615 -0.17982889711856842 0.10681704431772232 -0.23464192450046539 0.0084387408569455147 0.24232028424739838 0.45002451539039612 -0.25631120800971985 -0.27528926730155945 -0.0099501991644501686 0.26936101913452148 0.12654280662536621 -0.088099882006645203 -0.34023234248161316 0.32707890868186951 -0.34106382727622986 -0.041711483150720596 0.10348332673311234 0.46384149789810181 -0.287445068359375 -0.33421814441680908 0.044932138174772263 0.28190246224403381 0.18601228296756744 -0.15898428857326508 -0.40166991949081421 0.38493087887763977 -0.25282195210456848 -0.12793938815593719 0.13464643061161041 0.13568718731403351 -0.04726734384894371 -0.085966438055038452 -0.076728306710720062 0.20635145902633667 0.14585329592227936 -0.12982216477394104 -0.16537003219127655 -0.18013928830623627 0.38252636790275574 -0.18107560276985168 -0.28272253274917603 -0.072307460010051727 0.42130571603775024 0.087492197751998901 -0.14440397918224335 -0.010045932605862617 0.032179050147533417 0.11597568541765213 0.24272549152374268
  0.13897329568862915 0.13221897184848785 0.18010273575782776 0.27928629517555237 0.15180911123752594 0.16832526028156281 0.30645084381103516 -0.057382531464099884 0.021231766790151596 0.04007229208946228 -0.07525237649679184 0.031144311651587486 -0.11473698168992996 -0.22069568932056427 -0.071731850504875183 -0.018540171906352043 0.019867802038788795 0.064845576882362366 -0.039231684058904648 -0.037621092051267624 0.034559924155473709 -0.026937535032629967 0.0019338224083185196 0.12529395520687103 -0.095090463757514954 -0.11975065618753433 -0.32837677001953125 -0.060506701469421387 0.16093313694000244 0.096636287868022919 0.012123258784413338 0.0043761138804256916 0.037516288459300995 0.12402466684579849 -0.0049540642648935318 0.031756989657878876 -0.68138504028320312 -0.32192200422286987 -0.3594188392162323 -0.4627450704574585 0.011233537457883358 0.05986294150352478 -0.12759582698345184 0.14712482690811157 0.11067546904087067 0.063931941986083984 0.022956565022468567 -0.0017363462829962373 2.6165115833282471 0.66465145349502563 1.4011243581771851 0.14049798250198364 -0.34224066138267517 -0.65326118469238281 -0.35307097434997559 -0.69193309545516968 -0.37104228138923645 -0.7152707576751709 -0.59146392345428467 -0.96835190057754517
  0.29474011063575745 -0.089348509907722473 0.056085217744112015 0.58608663082122803 0.78315490484237671 0.82547652721405029 0.29747956991195679 -0.18949133157730103 0.019148647785186768 -0.14824284613132477 -0.28025379776954651 -0.17186315357685089 -0.99070870876312256 0.057967621833086014 0.013141055591404438 0.462301105260849 0.42850330471992493 0.14849495887756348 0.24496546387672424 0.095565743744373322 -0.041407991200685501 -0.079299785196781158 -0.039300303906202316 0.064425364136695862 -0.20216095447540283 0.31522145867347717 0.30405431985855103 0.30130758881568909 0.093067280948162079 -0.08290477842092514 0.040311936289072037 0.11284878104925156 -0.035523004829883575 -0.044989850372076035 0.045940201729536057 0.21701358258724213 0.91042733192443848 0.47360137104988098 0.34373036026954651 0.0095397168770432472 -0.34101572632789612 -0.5263826847076416 -0.38185057044029236 -0.097571969032287598 -0.13971588015556335 -0.095621369779109955 0.018467875197529793 0.045521192252635956 1.0074460506439209 -0.66837590932846069 -0.70137518644332886 -1.2674887180328369 -1.0857323408126831 -0.5453910231590271 -0.34788751602172852 0.038578782230615616 0.23646339774131775 0.24366745352745056 0.23211334645748138 -0.16803853213787079
  -0.26039043068885803 -0.25641918182373047 -0.39857777953147888 -0.69072073698043823 -0.55538642406463623 -0.31546318531036377 -0.33898064494132996 -0.14802402257919312 -0.040784280747175217 0.19864559173583984 0.21759253740310669 -0.059660680592060089 0.19844208657741547 -0.29600462317466736 0.12134713679552078 0.089243844151496887 -0.2361835390329361 -0.28146177530288696 -0.21905346214771271 -0.0096452375873923302 0.098903961479663849 0.074361957609653473 0.055199671536684036 0.14160425961017609 -0.1346794068813324 -0.21630820631980896 0.22738872468471527 0.33684912323951721 -0.10829196125268936 -0.10445638746023178 -0.23455904424190521 -0.0935625359416008 -0.04416612908244133 -0.00074811209924519062 0.057239238172769547 0.14728663861751556 0.099295102059841156 0.0020968846511095762 0.1066310927271843 0.23582075536251068 0.23448772728443146 -0.052082240581512451 -0.14244377613067627 -0.15088267624378204 -0.067678801715373993 0.0023639209102839231 0.0086043067276477814 -0.028119903057813644 -0.73987782001495361 -0.42283117771148682 0.10092119872570038 0.46406242251396179 0.19734035432338715 -0.14565473794937134 -0.3376346230506897 -0.23280477523803711 -0.13334456086158752 -0.12682138383388519 0.0034467712976038456 -0.23162500560283661
  0.52188718318939209 -0.14539168775081635 -0.40545028448104858 0.34615135192871094 0.34777432680130005 0.23373623192310333 -0.23186503350734711 0.12210407853126526 0.12220571935176849 -0.1671796441078186 -0.055737696588039398 0.16974891722202301 -0.026125349104404449 -0.26591551303863525 0.014998815022408962 0.26288023591041565 -0.14578773081302643 -0.44831803441047668 0.12823072075843811 0.55677694082260132 -0.3046930730342865 -0.24254445731639862 0.046177621930837631 -0.0051873200573027134 -0.097693905234336853 -0.43628031015396118 -0.17545773088932037 0.28524330258369446 0.049275673925876617 -0.44081020355224609 0.20242151618003845 0.52466493844985962 -0.34531241655349731 -0.26950469613075256 0.066825039684772491 -0.059711646288633347 0.063760124146938324 -0.40849399566650391 -0.17060558497905731 0.0085212001577019691 0.051268842071294785 -0.086295023560523987 0.047622896730899811 0.22418944537639618 -0.084706097841262817 -0.16063041985034943 -0.03826112300157547 -0.11750113964080811 -0.32983234524726868 -0.14793702960014343 -0.15462014079093933 0.028815440833568573 0.10130453854799271 0.22182111442089081 -0.077887021005153656 -0.075546406209468842 0.18507006764411926 0.12192337214946747 0.026070810854434967 -0.0068960478529334068
  0.90194851160049438 0.8721306324005127 0.80996924638748169 1.4619137048721313 1.1486786603927612 0.72956961393356323 0.074371553957462311 -0.25656268000602722 -0.26625460386276245 -0.21935699880123138 -0.27697399258613586 -0.10905097424983978 -1.736189603805542 -0.35359716415405273 -0.44960260391235352 -0.11587247997522354 0.14027079939842224 0.074929632246494293 0.2058529406785965 0.31397107243537903 0.22142864763736725 0.14943514764308929 0.13988529145717621 0.14202706515789032 -0.78974837064743042 -0.79444938898086548 -0.66811197996139526 -0.92862296104431152 -0.79984664916992188 -0.34446534514427185 0.012569866143167019 0.21826592087745667 0.051354635506868362 0.13531641662120819 0.30139079689979553 0.21486188471317291 -0.74299699068069458 -0.48074248433113098 -0.50844556093215942 -0.41576871275901794 -0.26936882734298706 -0.17080903053283691 -0.12468352168798447 0.13949532806873322 0.049793828278779984 0.085906222462654114 0.087485283613204956 0.052984572947025299 1.2495019435882568 0.97240167856216431 0.42267993092536926 0.26147046685218811 0.085301958024501801 0.053642004728317261 -0.16280388832092285 -0.19947081804275513 -0.04253750666975975 -0.071742922067642212 -0.14898049831390381 -0.036202624440193176
  0.085535258054733276 -0.32240614295005798 -0.047742635011672974 -0.49574494361877441 -0.38370442390441895 0.044130429625511169 -0.17906856536865234 0.12210668623447418 0.011278457939624786 -0.020827045664191246 0.15211847424507141 -0.058884561061859131 -0.62731009721755981 0.27090755105018616 -0.24019712209701538 0.41634660959243774 0.024585006758570671 -0.14270478487014771 0.25835075974464417 0.118342325091362 0.077462099492549896 0.024687387049198151 -0.066905103623867035 0.018044332042336464 -0.67190653085708618 0.84123796224594116 -0.29654145240783691 0.72019505500793457 0.21697963774204254 -0.27104440331459045 0.29887452721595764 0.032214991748332977 0.047382194548845291 0.12105242162942886 -0.14269573986530304 0.10273569822311401 -0.44986799359321594 0.36962491273880005 -0.28450191020965576 0.11210332065820694 0.12242173403501511 0.029356762766838074 0.13479471206665039 -0.021111778914928436 0.085467971861362457 0.1071651354432106 -0.025302311405539513 0.068631775677204132 0.093499399721622467 -0.26027771830558777 -0.24457231163978577 -0.20948027074337006 -0.055379435420036316 0.083397634327411652 -0.15553435683250427 -0.27506279945373535 0.096625559031963348 0.14843139052391052 0.30606472492218018 0.019967608153820038
  -0.82601296901702881 -0.12004946172237396 -0.3381030261516571 -0.067588850855827332 0.37659922242164612 0.2495868057012558 -0.0039834193885326385 -0.069337688386440277 0.040067955851554871 -0.04226173460483551 -0.015730138868093491 0.19190272688865662 0.28273814916610718 0.093026287853717804 -0.1710251122713089 0.16722434759140015 0.27377524971961975 0.25359541177749634 -0.0081280888989567757 -0.10554598271846771 -0.067540660500526428 0.13395917415618896 -0.11474955826997757 0.003378754947334528 0.040510281920433044 0.24984575808048248 -0.073567964136600494 0.096483416855335236 -0.058617178350687027 0.28337234258651733 0.11377276480197906 0.047674734145402908 -0.051538355648517609 0.12390047311782837 0.020054265856742859 0.10189580172300339 -0.56111568212509155 0.3851524293422699 0.061356201767921448 0.21574778854846954 -0.19137835502624512 0.35478129982948303 0.42130866646766663 0.09787973016500473 -0.13476671278476715 0.01424838975071907 0.024824634194374084 0.19696077704429626 0.33573907613754272 -0.79707062244415283 0.31661346554756165 -0.5235787034034729 -0.75365668535232544 -0.53847634792327881 0.19656853377819061 0.82620388269424438 0.40363562107086182 -0.068205729126930237 -0.073256619274616241 0.065738968551158905
  -0.22579832375049591 -0.014547137543559074 0.24070513248443604 -0.48172500729560852 -0.29031392931938171 -0.034948624670505524 -0.067868880927562714 0.50827652215957642 0.60636109113693237 -0.23756943643093109 -0.34380707144737244 0.35809460282325745 0.4127679169178009 0.19492971897125244 0.065639376640319824 0.01541264820843935 -0.16809180378913879 -0.059339355677366257 0.073746822774410248 0.27611634135246277 -0.032865803688764572 -0.22492678463459015 -0.064653217792510986 0.14668527245521545 0.097218222916126251 0.15841838717460632 0.081238977611064911 0.17827105522155762 0.034076597541570663 -0.05860770121216774 -0.01276162825524807 0.038590222597122192 -0.23521679639816284 -0.17839233577251434 0.12461542338132858 0.042745016515254974 -0.18169319629669189 0.23079442977905273 0.31654736399650574 0.30584806203842163 0.21622556447982788 -0.13492661714553833 0.066063240170478821 -0.10770058631896973 -0.43072497844696045 -0.079294346272945404 0.23094603419303894 -0.037338688969612122 0.72664296627044678 -0.15297603607177734 -0.1148107647895813 0.46408161520957947 0.032707475125789642 0.0052234884351491928 0.016532208770513535 -0.63808965682983398 -0.37766951322555542 0.092569895088672638 0.22021673619747162 -0.2345307320356369
  1.1780647039413452 -0.50386697053909302 -0.95891481637954712 1.058983325958252 0.2290712296962738 -0.12136680632829666 0.010557645000517368 -0.068561658263206482 0.1765064150094986 0.08162805438041687 -0.25469663739204407 0.16780705749988556 -0.10723432153463364 -0.24124239385128021 0.22104464471340179 0.17182169854640961 -0.46858575940132141 -0.012700679711997509 -0.12028500437736511 -0.13962849974632263 0.13429823517799377 -0.045419659465551376 -0.00064489204669371247 0.11405109614133835 -0.09484449028968811 -0.10854083299636841 0.48992109298706055 -0.091189287602901459 -0.41634497046470642 0.080988876521587372 -0.17119987308979034 -0.18114764988422394 0.14909762144088745 -0.057751990854740143 0.038796186447143555 0.028535211458802223 -0.30199462175369263 0.079233676195144653 0.61089980602264404 -0.6170383095741272 0.032398182898759842 0.081839904189109802 -0.049460083246231079 -0.044157274067401886 -0.032184861600399017 -0.1131158322095871 0.021190371364355087 0.032106507569551468 -1.1269130706787109 0.83144307136535645 0.32463407516479492 -0.64433664083480835 0.53271496295928955 -0.25625330209732056 0.00016323997988365591 0.55500489473342896 -0.22625152766704559 -0.14372952282428741 0.14615558087825775 -0.30933675169944763
  -0.77257949113845825 -0.27087801694869995 -0.12698805332183838 -0.10228107869625092 0.016888849437236786 -0.11017703264951706 -0.29573473334312439 0.15441872179508209 -0.11237858980894089 0.12940949201583862 0.072269313037395477 0.22741726040840149 -0.075184643268585205 -0.1807093620300293 -0.1756584644317627 0.30710694193840027 0.33219450712203979 0.18496812880039215 0.4064176082611084 -0.021706130355596542 0.046081613749265671 0.054849926382303238 -0.057329297065734863 0.057134192436933517 -0.4126451313495636 -0.39982578158378601 -0.49713179469108582 0.11274629831314087 0.085145615041255951 0.29669821262359619 0.66772520542144775 0.16785807907581329 0.22011969983577728 0.15973085165023804 0.032550916075706482 0.14426019787788391 -0.49872452020645142 -0.79488241672515869 -0.75229942798614502 -0.58433866500854492 -0.37377160787582397 0.11497469991445541 0.28413975238800049 0.37958765029907227 0.30476221442222595 0.22377178072929382 0.34888321161270142 0.14951707422733307 1.1279641389846802 0.97127062082290649 0.57839071750640869 -0.13777384161949158 -0.50782781839370728 -0.62065184116363525 -0.58066123723983765 -0.41249999403953552 -0.3978983461856842 -0.37981340289115906 -0.18523497879505157 -0.23785732686519623
  1.508718729019165 -0.57838279008865356 -0.39551082253456116 0.11895236372947693 -0.034571859985589981 0.021744651719927788 0.085643477737903595 0.070842355489730835 -0.0083541776984930038 0.015764458104968071 0.059968549758195877 0.024165097624063492 -0.80555582046508789 -0.2750684916973114 0.048697061836719513 -0.11290815472602844 -0.076575048267841339 0.11242884397506714 0.1042504757642746 -0.10306279361248016 -0.089627213776111603 0.13742387294769287 0.022075137123465538 0.033298905938863754 -1.8068416118621826 0.61077070236206055 0.45714780688285828 -0.24637271463871002 0.045182682573795319 0.14832741022109985 0.067281432449817657 -0.21210944652557373 -0.083342783153057098 -0.010953668504953384 -0.051067732274532318 0.1195518970489502 -1.3246272802352905 0.51885360479354858 0.20505045354366302 -0.30553647875785828 0.11952522397041321 0.13349083065986633 -0.013110354542732239 -0.13510185480117798 0.1424115002155304 -0.11027763038873672 -0.050625964999198914 0.042410343885421753 0.75513797998428345 -0.21910321712493896 0.24627026915550232 0.0098955333232879639 -0.27579823136329651 -0.0055787810124456882 0.029615022242069244 -0.00043294113129377365 0.021283334121108055 -0.03999779000878334 0.049193143844604492 -0.086156338453292847
  0.098132789134979248 0.02916279062628746 0.5639348030090332 0.26589670777320862 -0.27407312393188477 0.22483877837657928 0.18310216069221497 -0.2853015661239624 -0.22430318593978882 -0.064275823533535004 0.035551272332668304 -0.10894368588924408 -0.12645353376865387 -0.11409670114517212 -0.12350772321224213 0.20207811892032623 0.017949145287275314 -0.066217988729476929 -0.011974235996603966 0.20084525644779205 0.050823230296373367 -0.11841202527284622 -0.17584758996963501 -0.057954210788011551 -0.062096219509840012 -0.17562492191791534 -0.16146798431873322 0.23494851589202881 0.012365805916488171 -0.15784969925880432 -0.073616519570350647 0.30348324775695801 0.22746196389198303 -0.11143549531698227 -0.22677214443683624 -0.080407589673995972 -0.10676704347133636 -0.19970338046550751 -0.24623507261276245 0.12652400135993958 -0.10258501768112183 -0.21426856517791748 -0.05958046019077301 0.38047111034393311 0.26688337326049805 -0.078588657081127167 -0.20756487548351288 -0.039890658110380173 -0.52067601680755615 0.66549253463745117 0.5645371675491333 -0.29349803924560547 -1.0879726409912109 -0.25872835516929626 0.13701881468296051 0.25632995367050171 -0.21686680614948273 -0.15245123207569122 0.20054996013641357 0.3296562135219574
  -0.60810202360153198 -0.30671188235282898 0.66536086797714233 0.76318162679672241 0.33741289377212524 -0.53489232063293457 -0.48077219724655151 -0.19827322661876678 0.30995893478393555 0.00522218132391572 -0.11882567405700684 -0.23401638865470886 0.19756728410720825 -0.50634288787841797 -0.12561853229999542 0.018603110685944557 0.11465122550725937 -0.10833757370710373 -0.19402532279491425 -0.28987115621566772 0.052212249487638474 0.20997776091098785 0.036516491323709488 -0.1586068719625473 -0.1467132568359375 -0.51943928003311157 -0.10357530415058136 0.24570731818675995 0.34873843193054199 0.021228520199656487 -0.052228949964046478 -0.21992400288581848 -0.00032783369533717632 0.11649817228317261 -0.14343197643756866 -0.056622643023729324 0.047553509473800659 -0.16641230881214142 0.21049202978610992 0.057211622595787048 0.14149871468544006 -0.11682519316673279 -0.0021107424981892109 -0.018579352647066116 -0.072692133486270905 -0.024485306814312935 -0.058229371905326843 0.04834158718585968 0.23651880025863647 0.069814808666706085 0.67316997051239014 0.030128099024295807 -0.063062302768230438 0.018756262958049774 0.10913998633623123 0.059587974101305008 -0.038291580975055695 -0.24247173964977264 0.079670660197734833 -0.008440731093287468
  -0.24088230729103088 0.78013616800308228 0.10201503336429596 -0.69026440382003784 0.48921480774879456 0.065775215625762939 0.13822519779205322 0.12305989861488342 -0.10275887697935104 0.091040492057800293 -0.024931332096457481 -0.22603552043437958 -0.16520372033119202 -0.07757529616355896 0.36969736218452454 -0.0094912340864539146 -0.49041888117790222 0.097693294286727905 -0.12398432940244675 0.13564981520175934 0.087340578436851501 -0.1109173521399498 0.039982806891202927 0.0090022431686520576 -0.0036852504126727581 -0.38790139555931091 0.20441201329231262 0.44898572564125061 -0.74323177337646484 -0.13662348687648773 -0.11226478219032288 0.066934786736965179 0.2191615104675293 -0.20646661520004272 -0.20906895399093628 0.3261411190032959 0.17464266717433929 -0.43248230218887329 0.045260831713676453 0.58218848705291748 -0.089076824486255646 -0.2989041805267334 -0.076246492564678192 -0.043552719056606293 0.30261269211769104 -0.048340730369091034 -0.36631214618682861 0.23431336879730225 1.134443998336792 -0.25532343983650208 -0.43224892020225525 0.076662749052047729 0.3707733154296875 -0.050350751727819443 -0.26783913373947144 -0.22722670435905457 0.097330488264560699 0.24425160884857178 -0.042124059051275253 -0.059291623532772064
  -0.69682478904724121 0.90110701322555542 0.8121379017829895 0.40551766753196716 -0.28860640525817871 0.12637852132320404 -0.45759487152099609 -0.95124572515487671 -0.12921340763568878 0.11263375729322433 -0.12227454036474228 0.36713957786560059 0.110214464366436 0.33458825945854187 0.028467707335948944 -0.090721763670444489 -0.12564109265804291 -0.16725987195968628 -0.20625688135623932 -0.37192913889884949 -0.14875704050064087 0.021035782992839813 -0.10698134452104568 -0.19206713140010834 0.44358885288238525 0.040618643164634705 -0.11442560702562332 0.061676204204559326 0.31043311953544617 -0.14061081409454346 -0.057316910475492477 -0.096307121217250824 -0.10649185627698898 0.0080029619857668877 -0.084752291440963745 -0.21564513444900513 -0.27484717965126038 -0.22654989361763 -0.056700300425291061 0.089170113205909729 0.41783052682876587 0.086448296904563904 0.13774426281452179 0.13544261455535889 -0.0095280008390545845 -0.015373564325273037 -0.016451332718133926 -0.12186755239963531 0.2869952917098999 -0.81231635808944702 -0.21711494028568268 -0.15679380297660828 0.089252330362796783 0.128180131316185 0.23572459816932678 0.27776113152503967 0.015173804946243763 -0.19483610987663269 0.09879833459854126 0.013385046273469925
  -0.084544792771339417 -0.16558511555194855 -0.52214115858078003 0.61344081163406372 -0.016039852052927017 -0.24435433745384216 0.058034937828779221 0.023915566504001617 0.13837185502052307 0.17879951000213623 -0.34182572364807129 0.097794041037559509 0.37467622756958008 0.091957956552505493 -0.35922113060951233 0.54873883724212646 -0.32306179404258728 -0.0032498228829354048 -0.034361507743597031 -0.082519188523292542 0.060086365789175034 -0.054459020495414734 -0.073546662926673889 0.1189107820391655 0.20506569743156433 0.043944790959358215 -0.22077931463718414 0.52405792474746704 -0.45205479860305786 0.14350050687789917 0.019457520917057991 -0.1831512451171875 0.1950516551733017 -0.1760893315076828 0.036475323140621185 -0.0021626816596835852 0.029820311814546585 -0.28107893466949463 -0.18141970038414001 0.32286140322685242 -0.40230968594551086 0.31333518028259277 0.096581503748893738 -0.19624987244606018 0.1716611385345459 -0.13792116940021515 0.06036754697561264 -0.10869291424751282 0.25304263830184937 -0.27410680055618286 -0.17839162051677704 0.60791951417922974 -0.45655959844589233 0.27281710505485535 0.22589515149593353 -0.34484738111495972 0.2665194571018219 -0.18341611325740814 0.029939727857708931 -0.20071251690387726
  1.8935401439666748 -0.48522183299064636 0.42475622892379761 -0.22781509160995483 -0.082459449768066406 0.18137560784816742 -0.11059944331645966 -0.24763184785842896 -0.15040098130702972 0.21923981606960297 0.020635249093174934 0.15987013280391693 0.12408477813005447 -0.013220677152276039 -0.19068236649036407 -0.26595103740692139 0.12284369021654129 0.21705706417560577 -0.23413842916488647 -0.059614084661006927 -0.066929079592227936 0.13156856596469879 0.037157192826271057 -0.040790081024169922 -0.096833251416683197 0.43035876750946045 -0.018779026344418526 -0.14632883667945862 0.12175074219703674 0.11090312153100967 -0.099354654550552368 -0.17659746110439301 0.0032064463011920452 0.12572082877159119 0.056699067354202271 -0.084417149424552917 -0.31173789501190186 0.12397836148738861 0.072499245405197144 -0.076041728258132935 -0.033386863768100739 -0.05733354389667511 -0.064169861376285553 -0.1466352790594101 0.15953080356121063 0.08340945839881897 0.11403439939022064 -0.026498971506953239 0.14528296887874603 0.024778462946414948 0.075815774500370026 0.035106472671031952 -0.15526428818702698 -0.34952056407928467 -0.25981020927429199 -0.30814251303672791 0.20452086627483368 0.18180392682552338 0.14232468605041504 0.0019154222682118416
  0.03372003510594368 0.5182194709777832 -0.36498349905014038 -0.6342012882232666 0.095607735216617584 0.57824194431304932 0.10543258488178253 -0.49572855234146118 -0.024666734039783478 0.37974569201469421 0.14345589280128479 -0.29931545257568359 0.56595784425735474 0.25818881392478943 -0.32192561030387878 -0.11390433460474014 0.064140461385250092 0.23583197593688965 -0.060344651341438293 -0.45241597294807434 0.12062112241983414 0.31977227330207825 -0.084356911480426788 -0.34509298205375671 0.3357204794883728 0.088190130889415741 -0.093177132308483124 0.026698626577854156 -0.012011753395199776 0.18785795569419861 -0.071965917944908142 -0.24933654069900513 0.10644464939832687 0.10203665494918823 0.024028163403272629 -0.076196886599063873 0.14418162405490875 -0.13963596522808075 0.1834118515253067 0.10484197735786438 0.032279688864946365 0.088681489229202271 -0.067368336021900177 -0.038828667253255844 0.1221708357334137 -0.065477915108203888 0.090870723128318787 0.17487625777721405 -0.42784103751182556 -0.19486768543720245 0.016698813065886497 -0.068579688668251038 0.40319368243217468 -0.021216642111539841 0.019563458859920502 0.076407097280025482 -0.060402967035770416 0.15314526855945587 -0.041592255234718323 0.27638846635818481
  -0.16855818033218384 -0.14052188396453857 -0.37592175602912903 0.25038129091262817 0.63672745227813721 0.19950979948043823 0.12382367253303528 0.14668416976928711 0.23023416101932526 0.082049377262592316 -0.17882522940635681 -0.0055803209543228149 0.19313965737819672 -0.54573529958724976 -0.30372330546379089 -0.43447759747505188 0.10271373391151428 0.22875910997390747 -0.007116733118891716 0.18612685799598694 0.2560437023639679 -0.077012240886688232 -0.2756936252117157 -0.25456458330154419 0.20149825513362885 -0.54527032375335693 -0.49979037046432495 -0.20279057323932648 0.25696653127670288 0.098995357751846313 -0.11653320491313934 0.085191927850246429 0.0964837446808815 -0.090227767825126648 -0.091007746756076813 -0.21439483761787415 0.099864952266216278 -0.20551885664463043 -0.15172103047370911 0.30098044872283936 0.39010509848594666 0.017951730638742447 -0.03460993617773056 -0.064026437699794769 -0.061494488269090652 -0.014485377818346024 -0.054882943630218506 -0.037826769053936005 0.38900038599967957 0.21375620365142822 0.14043299853801727 0.22280006110668182 0.056575249880552292 -0.20606610178947449 0.13677774369716644 0.062067247927188873 0.10449054837226868 0.082411959767341614 0.026461556553840637 0.010049229487776756
  0.68896001577377319 0.21560676395893097 -0.092874675989151001 -0.087931692600250244 0.07019399106502533 0.13191644847393036 0.07511572539806366 0.2839806079864502 -0.1938212513923645 -0.089471921324729919 0.092390701174736023 -0.12289752066135406 -0.43563634157180786 0.018685642629861832 0.019982995465397835 0.15731269121170044 0.164577916264534 0.067362025380134583 0.14311151206493378 -0.027417493984103203 -0.074133820831775665 0.094822712242603302 -0.18883022665977478 0.21527837216854095 -0.20829126238822937 -0.21147431433200836 0.13678883016109467 0.30341151356697083 0.25505161285400391 0.0079142777249217033 0.092390410602092743 -0.37499397993087769 -0.050122965127229691 0.35737937688827515 -0.44717535376548767 0.22509416937828064 -0.42807486653327942 -0.65585201978683472 0.23236408829689026 0.36754211783409119 0.1604049950838089 0.16672356426715851 0.16894569993019104 -0.52047878503799438 -0.084061816334724426 0.49050566554069519 -0.35589802265167236 0.14874505996704102 0.086782440543174744 -0.43523323535919189 0.043819766491651535 0.44264590740203857 0.09184110164642334 0.077311739325523376 0.31710788607597351 -0.47193324565887451 -0.31840628385543823 0.34550637006759644 -0.33525186777114868 -0.12644499540328979
  1.5746006965637207 0.81375396251678467 0.076222777366638184 0.80492395162582397 0.60700595378875732 0.21310324966907501 -0.04918111115694046 -0.35437744855880737 -0.31726944446563721 -0.10988081246614456 -0.20650865137577057 -0.12323344498872757 0.63048458099365234 0.45094913244247437 0.4382070004940033 0.51460576057434082 0.45911380648612976 0.088927820324897766 -0.0025782580487430096 0.0011820741929113865 -0.05558319017291069 -0.067255280911922455 -0.098459966480731964 -0.12687121331691742 -0.1809687614440918 -0.77592021226882935 -0.066596753895282745 -0.32525953650474548 -0.20519718527793884 0.061242498457431793 0.20243711769580841 0.29456841945648193 0.2786669135093689 -0.10096796602010727 0.10657785832881927 0.016000943258404732 -1.4730024337768555 -0.79323756694793701 -0.68271094560623169 -0.49653825163841248 -0.29904326796531677 0.20157279074192047 0.15776370465755463 0.27474117279052734 0.17594720423221588 0.0082306051626801491 0.10370102524757385 0.11425241827964783 -1.0887023210525513 -0.21845188736915588 -0.074221700429916382 -0.51642382144927979 -0.032894905656576157 -0.0045567401684820652 0.036853708326816559 0.092975258827209473 0.22079993784427643 0.15342000126838684 0.069661565124988556 0.10568133741617203
  0.85533857345581055 0.70125037431716919 0.58326786756515503 -0.061683207750320435 -0.1748480498790741 0.047397520393133163 0.12528212368488312 0.26384508609771729 -0.25860270857810974 -0.30515903234481812 0.26282280683517456 -0.011381465941667557 0.68304884433746338 -0.31124138832092285 -0.42582464218139648 -0.048430260270833969 0.016284825280308723 0.20993301272392273 -0.12970401346683502 0.040797151625156403 -0.089837558567523956 -0.037666942924261093 0.078192703425884247 0.014425520785152912 0.0001102817477658391 -0.38131633400917053 -0.53654688596725464 0.070980198681354523 0.11373555660247803 0.25310641527175903 -0.1730339527130127 -0.083869956433773041 -0.10185718536376953 0.048738189041614532 -0.0074636964127421379 -0.12860779464244843 -0.24478264153003693 -0.15255345404148102 -0.53383743762969971 -0.18528790771961212 -0.097808726131916046 0.20684289932250977 -0.067427195608615875 -0.17403760552406311 -0.11631214618682861 0.14260266721248627 0.082546330988407135 -0.0093213589861989021 -0.0072041833773255348 0.038438577204942703 0.1152801439166069 -0.23007407784461975 -0.12443631142377853 -0.052235759794712067 0.34339576959609985 -0.11492770910263062 -0.33226877450942993 0.07457452267408371 0.11331481486558914 0.33061227202415466
  0.44998306035995483 0.59359514713287354 0.76727992296218872 0.8921201229095459 0.42720988392829895 0.2574610710144043 0.57577711343765259 0.67566817998886108 0.059987880289554596 0.024844802916049957 -0.0044568958692252636 -0.060040134936571121 -1.090529203414917 -0.7010120153427124 -0.69866228103637695 -0.33175233006477356 -0.36922958493232727 0.11262240260839462 0.2000676691532135 0.34628188610076904 0.28924807906150818 0.3035396933555603 0.35498979687690735 0.29066821932792664 -0.69354104995727539 -0.23383462429046631 -0.6465383768081665 -0.46761777997016907 -0.17646138370037079 -0.0083544552326202393 -0.19634179770946503 -0.2166799008846283 0.081232145428657532 0.32103419303894043 0.26560238003730774 0.39019212126731873 -0.52884089946746826 -0.12261593341827393 -0.13155421614646912 -0.034655123949050903 0.060698844492435455 -0.057207569479942322 -0.17035984992980957 -0.22895003855228424 0.054993782192468643 0.05735301598906517 0.076683454215526581 0.1510719507932663 0.16977591812610626 0.16861478984355927 0.35723540186882019 0.1433107852935791 0.035645537078380585 0.0031168137211352587 -0.098715417087078094 -0.031865902245044708 -0.056605391204357147 -0.27003687620162964 -0.1147376224398613 -0.25447201728820801
  -1.5016175508499146 -0.28317594528198242 0.55608534812927246 -0.045657988637685776 -0.34936857223510742 0.53747451305389404 0.3991972804069519 0.038279008120298386 0.3392103910446167 0.25386571884155273 -0.31458228826522827 -0.087222374975681305 -0.15852247178554535 -0.046224977821111679 -0.054548420011997223 0.18934427201747894 -0.012254091911017895 0.19701628386974335 0.00064811191987246275 0.07771233469247818 0.16730587184429169 0.0088480729609727859 -0.086284592747688293 -0.18169224262237549 -0.13653925061225891 0.033806663006544113 -0.12924653291702271 0.10084672272205353 0.093592151999473572 0.16089428961277008 -0.070988528430461884 0.15694358944892883 0.065632611513137817 -0.043375011533498764 0.039280783385038376 -0.13634689152240753 0.13447754085063934 0.012493135407567024 -0.30285438895225525 0.12683746218681335 0.15935151278972626 -0.011012895032763481 -0.059895291924476624 0.12944059073925018 -0.068319782614707947 -0.034194845706224442 0.043271560221910477 0.037175372242927551 -0.78513389825820923 -0.10418359190225601 -0.26833969354629517 -0.13559481501579285 0.33801388740539551 0.087306894361972809 -0.3809058666229248 -0.21501897275447845 -0.028710203245282173 0.12158471345901489 0.14292657375335693 0.0046730302274227142
  -0.15447501838207245 0.048092681914567947 -0.24782589077949524 0.385621577501297 0.39943164587020874 -0.059147797524929047 -0.094785384833812714 0.049551136791706085 -0.13782472908496857 0.091659657657146454 0.20366618037223816 0.1884109228849411 0.20468366146087646 0.1799558699131012 0.13325086236000061 -0.17025142908096313 -0.37254902720451355 -0.12143386155366898 -0.14736869931221008 -0.034184034913778305 0.0071529997512698174 0.13595804572105408 0.28990122675895691 0.25395867228507996 -0.029349245131015778 -0.39193379878997803 -0.19042684137821198 -0.71033447980880737 -0.68141806125640869 0.1216558963060379 -0.106377974152565 0.011270109564065933 0.13878080248832703 0.14894263446331024 0.19114704430103302 0.039709050208330154 -0.91396826505661011 -0.89305895566940308 -0.66140651702880859 -0.74409359693527222 -0.20313064754009247 0.18511347472667694 0.22950154542922974 0.21442525088787079 0.21498672664165497 0.14509816467761993 -0.089157037436962128 -0.037823952734470367 0.055606592446565628 0.29646685719490051 -0.022258229553699493 0.61762040853500366 0.7617943286895752 -0.17095084488391876 0.53010076284408569 0.34318163990974426 0.28700891137123108 -0.013699149712920189 -0.56784963607788086 -0.49379438161849976
  0.10660254955291748 0.051576510071754456 0.21226051449775696 -0.092171087861061096 -0.038219884037971497 -0.143808513879776 0.1374223381280899 0.023459339514374733 0.22862885892391205 0.040746394544839859 -0.033378038555383682 -0.24849884212017059 -0.14117684960365295 0.15053972601890564 0.023302232846617699 -0.44784170389175415 -0.47453019022941589 0.088980346918106079 0.38770982623100281 0.15380816161632538 0.029948536306619644 -0.17357595264911652 -0.10303439199924469 -0.025984250009059906 -0.032904230058193207 0.10380067676305771 -0.18944939970970154 -0.58758580684661865 -0.40411931276321411 0.41264081001281738 0.55675417184829712 0.029939733445644379 -0.11084331572055817 -0.25440829992294312 -0.1628744900226593 0.045550353825092316 -0.0040217982605099678 0.13737417757511139 -0.12264852970838547 -0.39378184080123901 -0.13983769714832306 0.31359356641769409 0.32997468113899231 -0.057818762958049774 -0.23050045967102051 -0.19566558301448822 -0.069953694939613342 0.13364662230014801 0.080503672361373901 0.1504582017660141 -0.16054150462150574 -0.16496382653713226 0.51678210496902466 0.23397350311279297 -0.26669827103614807 -0.18462181091308594 -0.034774854779243469 -0.04439261183142662 0.075645372271537781 0.12347853183746338
  -1.3754426240921021 0.067850932478904724 1.0729092359542847 0.51306307315826416 -0.5855410099029541 -0.29126149415969849 -0.16504946351051331 0.33546361327171326 0.005145111121237278 -0.11044877767562866 -0.015168564394116402 0.13959066569805145 0.23882465064525604 0.21475113928318024 -0.078329935669898987 0.28410768508911133 0.021615060046315193 0.10874888300895691 0.11465424299240112 -0.07091725617647171 -0.024740824475884438 0.062408007681369781 -0.13832423090934753 0.1468922346830368 0.602580726146698 0.1528569757938385 -0.44774764776229858 0.038294125348329544 0.23762640357017517 0.27381324768066406 0.16721391677856445 -0.13757382333278656 -0.08174055814743042 0.01285901851952076 -0.087762758135795593 0.0884561687707901 0.37990498542785645 -0.023380879312753677 -0.56246721744537354 -0.36834132671356201 0.28631791472434998 0.28918281197547913 0.17990963160991669 -0.13947789371013641 -0.073891744017601013 0.046732842922210693 0.02235519140958786 -0.10192438960075378 1.0296280384063721 -0.49187257885932922 -0.75096511840820312 -1.1227281093597412 0.32385751605033875 0.23433452844619751 -0.054862558841705322 0.12914346158504486 0.24607647955417633 -0.083114176988601685 0.15341751277446747 -0.34973651170730591
  -0.52207756042480469 -0.72092264890670776 -0.38039267063140869 -0.45300784707069397 -0.082240261137485504 -0.077704280614852905 0.2006278783082962 0.33374804258346558 0.28522908687591553 -0.10029313713312149 -0.3187200129032135 -0.26778256893157959 0.18958686292171478 -0.41185230016708374 -0.37086492776870728 -0.39309963583946228 0.16361688077449799 0.035716243088245392 -0.23531918227672577 0.046154681593179703 0.22121019661426544 -0.020974857732653618 0.093487396836280823 -0.0032150591723620892 -0.13993711769580841 -0.082716479897499084 -0.35435551404953003 -0.058901600539684296 0.30187126994132996 0.24920293688774109 -0.2479548305273056 0.010544438846409321 -0.0018699496285989881 0.08780902624130249 0.18713724613189697 0.0679163858294487 -0.19010098278522491 0.25467678904533386 -0.05332469567656517 0.42488464713096619 0.35756856203079224 0.25617828965187073 -0.059237074106931686 -0.15196035802364349 -0.24642075598239899 0.13340643048286438 0.058035612106323242 -0.0012118287850171328 -0.32184147834777832 1.1038172245025635 0.86649191379547119 0.85317456722259521 0.12552061676979065 0.25585585832595825 -0.039219267666339874 -0.91868257522583008 -0.80098879337310791 -0.1590343564748764 -0.15958356857299805 0.29130709171295166
  0.079752556979656219 0.067738279700279236 0.061757873743772507 0.067890040576457977 0.11566026508808136 0.090864747762680054 -0.1639878898859024 0.032151125371456146 -0.0815931037068367 -0.030828686431050301 0.051034510135650635 0.17246641218662262 0.34663030505180359 -0.037658210843801498 -0.30219194293022156 0.16785381734371185 0.33109980821609497 -0.052695080637931824 -0.24967871606349945 0.2665441632270813 -6.4840540289878845e-05 -0.21010731160640717 0.034274451434612274 0.14796741306781769 0.44370946288108826 -0.067701354622840881 -0.46480852365493774 0.24933692812919617 0.33792167901992798 -0.13443650305271149 -0.3125317394733429 0.29716068506240845 0.040484841912984848 -0.30874744057655334 0.050296388566493988 0.20233096182346344 0.47266846895217896 0.055523920804262161 -0.53590768575668335 0.28601869940757751 0.39312335848808289 -0.05032850056886673 -0.19802932441234589 0.2535247802734375 0.11399038881063461 -0.15051274001598358 0.074321314692497253 0.17025873064994812 0.54599708318710327 -0.099982753396034241 -0.52379035949707031 0.12036575376987457 0.22440199553966522 -0.13575547933578491 -0.090201154351234436 0.11644545197486877 -0.0045675584115087986 0.079851239919662476 0.077599816024303436 0.053686469793319702
  0.99092942476272583 0.15976397693157196 0.42421972751617432 0.90805000066757202 -0.54696488380432129 -0.17366732656955719 0.25824105739593506 -0.958579421043396 0.2308354377746582 0.533058762550354 -0.6032712459564209 0.39260894060134888 -0.49738004803657532 -0.40000185370445251 -0.39626258611679077 -0.085434049367904663 0.10135665535926819 -0.11043047904968262 0.067283645272254944 -0.13191741704940796 -0.060162384063005447 0.17209488153457642 -0.24761220812797546 0.15196007490158081 -0.48782077431678772 -0.11223869770765305 -0.4019966721534729 -0.56060498952865601 0.48116374015808105 -0.059307578951120377 -0.34095516800880432 0.42976775765419006 -0.20027413964271545 -0.026784433051943779 0.0093644587323069572 -0.021618030965328217 -0.55203366279602051 0.14794719219207764 -0.13128034770488739 -0.43091467022895813 0.25687775015830994 -0.055001713335514069 -0.26225680112838745 0.55094051361083984 -0.1499285101890564 -0.15301638841629028 0.2004670649766922 -0.16401022672653198 0.73113501071929932 0.21453346312046051 0.34863963723182678 0.3485482931137085 -0.32772177457809448 0.26429572701454163 0.25122237205505371 0.1158025786280632 0.12871652841567993 -0.45997694134712219 0.36461800336837769 -0.11691805720329285
  -0.78493005037307739 -0.016012374311685562 -0.14518287777900696 -0.017149852588772774 0.17417582869529724 -0.008604707196354866 0.023511534556746483 -0.034442845731973648 -0.0085441954433917999 -0.076298616826534271 -0.24905243515968323 -0.069191798567771912 -0.39571356773376465 -0.23086819052696228 0.085877783596515656 0.08510686457157135 -0.092867262661457062 -0.40250551700592041 -0.091253168880939484 0.070391915738582611 0.15857492387294769 0.01296909898519516 -0.10111653804779053 -0.05741766095161438 -0.45128148794174194 -0.064108401536941528 0.36672770977020264 0.21597790718078613 -0.15696302056312561 -0.30163183808326721 0.070787161588668823 0.01302684098482132 0.12192251533269882 -0.011865259148180485 -0.063782155513763428 -0.093049749732017517 -0.018554620444774628 0.17439579963684082 0.25620388984680176 0.21264661848545074 -0.2267531156539917 -0.19358909130096436 0.10129432380199432 -0.043242089450359344 0.10979573428630829 -0.036493465304374695 -0.080337367951869965 -0.038899641484022141 -0.87142688035964966 -0.34180760383605957 -0.045991942286491394 0.0050825420767068863 -0.024663116782903671 -0.14636982977390289 -0.1956535130739212 0.14415422081947327 0.1685149073600769 0.10597692430019379 -0.21806944906711578 0.088003329932689667
  -0.23436549305915833 0.22937527298927307 0.23942440748214722 0.21334131062030792 0.17822925746440887 -0.14982706308364868 0.0098421713337302208 -0.085488058626651764 -0.13400347530841827 0.08217216283082962 -0.024555034935474396 -0.092727102339267731 -0.58514505624771118 0.21168862283229828 -0.0022841144818812609 -0.28028470277786255 -0.057424701750278473 0.033128771930932999 0.027372542768716812 0.1815042644739151 -0.11218058317899704 0.096561446785926819 0.062937982380390167 -0.065313003957271576 -0.55821937322616577 0.3101661205291748 -0.13100527226924896 -0.19911952316761017 0.10500753670930862 0.059757348150014877 -0.033874630928039551 0.20764191448688507 -0.10424505174160004 0.028012419119477272 -0.0068814661353826523 0.04312477633357048 -0.12574866414070129 0.29719129204750061 -0.34287667274475098 0.022403707727789879 0.13489550352096558 0.19186648726463318 -0.060137700289487839 0.31793400645256042 -0.11000189185142517 -0.0048883464187383652 0.0055739772506058216 0.047312598675489426 -0.35046878457069397 0.19763535261154175 -0.6275862455368042 0.32623699307441711 0.26542341709136963 -0.061275973916053772 -0.20712852478027344 0.4174526035785675 -0.33256086707115173 0.16163761913776398 0.061489447951316833 0.30337405204772949
  0.20843298733234406 -0.12057694047689438 -0.61980289220809937 -0.063826784491539001 0.059309192001819611 0.15987126529216766 -0.21375055611133575 -0.010596347972750664 -0.15497811138629913 -0.0032768961973488331 0.10337163507938385 0.11684763431549072 -0.18340450525283813 -0.083608537912368774 -0.34844392538070679 -0.26105818152427673 0.07725612074136734 0.17981866002082825 -0.002381898695603013 -0.020709902048110962 -0.082797050476074219 -0.079062454402446747 0.00050103658577427268 0.074271775782108307 -0.39196938276290894 0.036212306469678879 -0.43393772840499878 -0.12877474725246429 0.38067290186882019 0.12716442346572876 0.036247469484806061 -0.040569670498371124 -0.028286078944802284 -0.11347004026174545 -0.092945151031017303 0.056179482489824295 -0.39071628451347351 -0.023117613047361374 -0.35657033324241638 -0.17545703053474426 0.088419340550899506 0.074721939861774445 -0.037300556898117065 -0.012287101708352566 0.069405227899551392 -0.12603200972080231 -0.003440523287281394 0.054812327027320862 -0.34857386350631714 -0.50852644443511963 -0.81753349304199219 -0.097786106169223785 0.17833323776721954 0.014070727862417698 -0.036904465407133102 0.024796957150101662 0.13161198794841766 0.17033863067626953 0.10825389623641968 0.10212652385234833
  0.92788666486740112 -1.4552252292633057 -0.21720767021179199 -0.81171470880508423 -1.4857702255249023 -0.51521998643875122 -0.3205864429473877 -0.60652875900268555 -0.53392428159713745 -0.076144956052303314 0.1448771059513092 -0.31407561898231506 0.40808215737342834 -0.086540356278419495 -0.40976867079734802 -0.65234380960464478 -0.38658300042152405 -0.52405095100402832 -0.25026759505271912 -0.28875288367271423 -0.23208935558795929 0.10323242843151093 -0.099668323993682861 -0.10607583820819855 0.6399310827255249 0.99915236234664917 0.34660300612449646 0.097772650420665741 0.16517423093318939 -0.24810945987701416 -0.096000954508781433 0.029252557083964348 0.066731385886669159 0.064477257430553436 -0.14269623160362244 0.096058458089828491 0.24372492730617523 0.71824526786804199 0.70403379201889038 0.82687592506408691 0.68196415901184082 0.30170619487762451 0.17141430079936981 0.26236805319786072 0.19966119527816772 -0.00071688997559249401 -0.035083793103694916 0.1022048220038414 -1.2304563522338867 -0.35235920548439026 -0.30231586098670959 0.3354351818561554 0.52555710077285767 0.84571611881256104 0.60291945934295654 0.45833712816238403 0.31883412599563599 -0.063301563262939453 0.014782221056520939 0.067831180989742279
  -0.30728369951248169 -0.2651122510433197 0.55153059959411621 0.046225827187299728 -0.16066168248653412 -0.026083307340741158 0.11684172600507736 -0.03182557225227356 0.14208111166954041 0.0032490871381014585 -0.10857438296079636 -0.1148093119263649 0.078516162931919098 0.01871650293469429 0.56970864534378052 0.12001349031925201 -0.29003351926803589 -0.019447503611445427 0.12381450831890106 -0.09671357274055481 0.17878280580043793 -0.17833524942398071 -0.029837815091013908 0.028308972716331482 0.094815418124198914 0.026939256116747856 0.24649879336357117 -0.1137315034866333 -0.13542412221431732 -0.0020033216569572687 0.0863751620054245 -0.069997623562812805 0.084794379770755768 -0.090641647577285767 -0.078914657235145569 0.0033750196453183889 0.24673779308795929 0.19545945525169373 -0.4208386242389679 -0.41174870729446411 0.25108864903450012 0.09037182480096817 0.010930396616458893 0.055513292551040649 -0.10207411646842957 0.11830674111843109 -0.14483968913555145 0.077957421541213989 0.18748871982097626 0.89616537094116211 -1.7900180816650391 0.12692028284072876 1.0910588502883911 -0.27118077874183655 -0.038091901689767838 0.15776051580905914 -0.34835326671600342 0.37905776500701904 -0.1590934544801712 0.035034500062465668
  -0.080210484564304352 -0.060320399701595306 -0.07188086211681366 0.49647200107574463 -0.37134221196174622 -0.23320335149765015 0.29699146747589111 -0.17852199077606201 -0.026143062859773636 0.13213558495044708 -0.30847814679145813 0.20581932365894318 -0.13352686166763306 0.12870205938816071 0.11722754687070847 -0.82832258939743042 0.36550810933113098 0.055399402976036072 -0.14832313358783722 0.53132671117782593 -0.050980590283870697 -0.19108635187149048 0.27755433320999146 -0.30753737688064575 -0.62425518035888672 0.31034460663795471 0.48417738080024719 -0.86954671144485474 0.44190368056297302 0.12411481887102127 -0.2482881098985672 0.57435023784637451 0.013373449444770813 -0.349272221326828 0.35345044732093811 -0.18620365858078003 -0.27170547842979431 0.27000418305397034 0.16696900129318237 -0.39448827505111694 0.0027271716389805079 0.063984662294387817 0.11627654731273651 0.062297876924276352 -0.072181239724159241 -0.1249450296163559 0.15764956176280975 -0.0086312619969248772 0.17820227146148682 -0.27844902873039246 0.046804286539554596 0.82413142919540405 -0.30165153741836548 -0.32289236783981323 0.29906418919563293 -0.46652516722679138 0.24206948280334473 0.23206865787506104 -0.4188709557056427 0.16112762689590454
  0.20795635879039764 0.39176684617996216 0.51346951723098755 -0.1752438098192215 -0.4605928361415863 0.2147814929485321 -0.38434690237045288 -0.64179891347885132 -0.23036710917949677 0.26542150974273682 0.19135396182537079 0.034511212259531021 0.39435699582099915 -0.30640655755996704 -0.41634216904640198 0.25416591763496399 0.15837642550468445 -0.095461100339889526 -0.16194069385528564 -0.060178898274898529 0.055120948702096939 0.11144830286502838 -0.1540386974811554 0.017965324223041534 0.47213667631149292 -0.28528368473052979 -0.56821215152740479 0.72277939319610596 0.31769636273384094 -0.31541335582733154 -0.00448200898244977 0.19145850837230682 0.099501349031925201 -0.0041929483413696289 -0.16520203649997711 -0.0089446548372507095 0.50627142190933228 -0.27222859859466553 -0.38617309927940369 0.37696126103401184 0.36497437953948975 -0.15579330921173096 -0.071076191961765289 0.25715547800064087 0.10028915852308273 -0.032787289470434189 -0.15871863067150116 -0.11089146882295609 -1.1650847196578979 0.11246203631162643 0.48575007915496826 -0.83409392833709717 0.13617852330207825 0.19918017089366913 -0.053023248910903931 0.014150978997349739 -0.18361078202724457 -0.10592273622751236 0.25321662425994873 0.038071010261774063
  0.083477377891540527 -0.0071555781178176403 -0.078927934169769287 0.0099333459511399269 -0.09567684680223465 -0.14997908473014832 -0.078377284109592438 0.13481347262859344 -0.00068513309815898538 -0.10207464545965195 0.068154521286487579 -0.13451895117759705 0.027683254331350327 0.017621040344238281 -0.13746587932109833 -0.10200795531272888 0.035129319876432419 0.20584197342395782 -0.090875051915645599 -0.058835458010435104 0.22085309028625488 -0.19997604191303253 -0.062319368124008179 0.081566721200942993 0.06404799222946167 -0.01572585292160511 0.072560369968414307 -0.15267157554626465 0.018678748980164528 0.15216544270515442 -0.090569920837879181 -0.053127843886613846 0.31421545147895813 -0.2727813720703125 -0.12283211201429367 0.18194930255413055 -0.35527712106704712 0.042304426431655884 0.2136370986700058 -0.3540230393409729 0.024150658398866653 0.27559280395507812 -0.1675620824098587 -0.11216754466295242 0.41577872633934021 -0.15919457376003265 -0.26306900382041931 0.15103298425674438 -0.93660396337509155 0.94891399145126343 0.95748156309127808 -0.63447970151901245 -0.45010325312614441 0.54109907150268555 0.040825117379426956 -0.066333167254924774 0.18193304538726807 -0.098592832684516907 -0.29787266254425049 0.083352066576480865
  0.034710999578237534 0.39359414577484131 0.27043446898460388 0.38147971034049988 0.039923958480358124 0.36317604780197144 0.25777605175971985 0.061125289648771286 -0.27509373426437378 -0.070233352482318878 -0.14107181131839752 -0.10736844688653946 0.10017266869544983 -0.057116009294986725 -0.10143344849348068 -0.10621314495801926 -0.10242222994565964 0.24562592804431915 0.23916704952716827 0.15368752181529999 -0.1338164210319519 -0.12162414193153381 -0.14521068334579468 -0.1732277125120163 -0.41357192397117615 0.15469717979431152 -0.077022172510623932 0.083778731524944305 0.22690373659133911 0.24068839848041534 0.35736405849456787 0.18567474186420441 -0.1276734471321106 -0.090373307466506958 -0.2606397271156311 -0.21562285721302032 -0.16669631004333496 -0.086271844804286957 -0.13050863146781921 0.071205399930477142 0.0015635434538125992 0.042452730238437653 0.23542758822441101 -0.048313111066818237 -0.058590680360794067 -0.077849432826042175 -0.22167593240737915 -0.12764094769954681 0.27659672498703003 0.020590908825397491 0.28816518187522888 0.26771873235702515 0.15388664603233337 0.011880980804562569 -0.015910159796476364 -0.19507455825805664 -0.012306678108870983 -0.21403628587722778 -0.36492305994033813 -0.13968175649642944
  -0.16540314257144928 0.35041168332099915 0.12103375792503357 0.13341175019741058 0.26443383097648621 0.017428945749998093 0.1106463298201561 -0.031396336853504181 -0.097620517015457153 0.16949065029621124 0.067826949059963226 0.020980849862098694 0.36947643756866455 -0.068897195160388947 0.10140892118215561 -0.20060501992702484 0.13224688172340393 -0.37966105341911316 0.48750075697898865 -0.42819663882255554 0.28577277064323425 -0.26722562313079834 0.31658443808555603 -0.23638039827346802 0.27567124366760254 -0.37025347352027893 0.076610229909420013 -0.26556390523910522 0.14603404700756073 -0.51173853874206543 0.66937470436096191 -0.6359754204750061 0.52996331453323364 -0.54339355230331421 0.46270114183425903 -0.34552976489067078 0.036415290087461472 -0.17829076945781708 0.033465247601270676 -0.18571557104587555 0.15316665172576904 -0.3597506582736969 0.38158681988716125 -0.43737989664077759 0.35245621204376221 -0.32174482941627502 0.29924508929252625 -0.20570822060108185 -0.077899321913719177 0.20124851167201996 -0.015135832130908966 0.0078827571123838425 0.40095221996307373 -0.093572653830051422 0.29184377193450928 -0.2062145322561264 0.30659282207489014 -0.26124891638755798 0.05948345735669136 -0.055960621684789658
  -0.11694452166557312 0.20212078094482422 -0.36983495950698853 0.47511732578277588 0.35495951771736145 0.065262049436569214 -0.14926254749298096 -0.072918973863124847 0.042370669543743134 0.057221803814172745 -0.15686501562595367 -0.036958053708076477 0.3333248496055603 -0.069128990173339844 -0.34193003177642822 -0.20174959301948547 0.24517795443534851 0.4601767361164093 -0.15757659077644348 -0.24514417350292206 -0.0046029356308281422 0.070836834609508514 -0.051294818520545959 -0.18991269171237946 -0.21413631737232208 0.069977663457393646 -0.20699505507946014 -0.50047361850738525 0.14393076300621033 0.45910638570785522 0.023761298507452011 -0.245298832654953 -0.12886920571327209 0.0012785014696419239 -0.063160009682178497 -0.078904710710048676 -0.88721585273742676 -0.0064121019095182419 -0.069653280079364777 -0.47169986367225647 -0.023086652159690857 0.12843722105026245 0.27057680487632751 0.0030511419754475355 -0.18354207277297974 0.057799812406301498 0.065868973731994629 0.12233477085828781 -0.014926916919648647 0.54242002964019775 1.2421467304229736 0.72195279598236084 -1.0188722610473633 -1.2136274576187134 0.037534065544605255 0.5266377329826355 -0.089028716087341309 -0.1800333559513092 0.18592183291912079 0.08138573169708252
  -1.9568010568618774 0.12876373529434204 -0.29527905583381653 0.12393569201231003 -0.073399096727371216 -0.20074841380119324 0.065099142491817474 0.057859115302562714 0.083731018006801605 0.0054369433782994747 -0.22849695384502411 0.15986098349094391 -0.54390448331832886 -0.14458419382572174 -0.23783735930919647 -0.34007078409194946 0.22496667504310608 0.067146852612495422 -0.08629666268825531 0.13232962787151337 -0.21867556869983673 0.028076564893126488 0.017288079485297203 0.14671169221401215 1.5593701601028442 0.28975793719291687 0.11259792745113373 0.0060644964687526226 -0.06072615459561348 0.0087429741397500038 -0.1468595564365387 -0.022713091224431992 -0.076254323124885559 0.10690388083457947 0.07341119647026062 -0.063493087887763977 2.4976921081542969 0.18609608709812164 0.44336521625518799 0.15251405537128448 -0.40946415066719055 0.051812451332807541 0.14523625373840332 -0.18764983117580414 0.094220057129859924 -0.071782998740673065 0.17813688516616821 -0.25678938627243042 -0.52657735347747803 -1.0098406076431274 0.28920581936836243 -0.10419647395610809 -0.0020032569300383329 -0.073587290942668915 0.28972011804580688 -0.01513579860329628 -0.042813226580619812 -0.11770378798246384 -0.039320442825555801 -0.0077439257875084877
  -0.099882632493972778 0.041516628116369247 -0.48885473608970642 0.33180487155914307 -0.46022522449493408 0.42199757695198059 -0.0014088358730077744 -0.027024684473872185 -0.16289553046226501 -0.033062562346458435 0.12524181604385376 -0.30149254202842712 -0.3220316469669342 0.093242891132831573 -0.34198322892189026 0.33879926800727844 -0.54397201538085938 0.35638847947120667 -0.083699434995651245 -0.11791139096021652 -0.0096767712384462357 -0.068093612790107727 0.14235839247703552 -0.18734839558601379 -0.26167145371437073 -0.12039318680763245 -0.30216172337532043 0.26445412635803223 -0.6875419020652771 0.47809600830078125 -0.20516154170036316 -0.11054161936044693 0.015944333747029305 -0.081865318119525909 0.13794291019439697 -0.18906879425048828 -0.093823909759521484 -0.14749392867088318 -0.15916992723941803 0.23170650005340576 -0.51081186532974243 0.34669643640518188 -0.1303011029958725 -0.049891073256731033 0.069219790399074554 -0.049656454473733902 0.085574120283126831 -0.13921160995960236 -0.18088054656982422 0.15017487108707428 -0.44970005750656128 0.34529572725296021 -0.273834228515625 0.13888232409954071 -0.048902679234743118 0.11588610708713531 0.063298679888248444 0.023773573338985443 -0.19004061818122864 -0.059884686022996902
  -0.35204219818115234 0.89987963438034058 -0.53418326377868652 0.3426353931427002 0.84577745199203491 0.13729819655418396 0.087358966469764709 0.016022620722651482 -0.19195050001144409 0.098718114197254181 -0.28065282106399536 -0.026022395119071007 0.10901452600955963 0.8695451021194458 -0.051640585064888 0.016110531985759735 0.075899459421634674 -0.0029281738679856062 -0.033872678875923157 0.0029858695343136787 -0.15344122052192688 0.093693643808364868 0.11258130520582199 -0.053777482360601425 -0.29318559169769287 0.5619470477104187 0.03904273733496666 0.20119698345661163 -0.054182477295398712 0.20140284299850464 0.16675283014774323 0.00081706687342375517 -0.17372238636016846 0.013251355849206448 0.062830656766891479 -0.072358585894107819 -0.45616185665130615 0.14067395031452179 0.02466769702732563 0.14095523953437805 0.029035169631242752 0.081921197474002838 0.0262574702501297 0.061845008283853531 -0.12850601971149445 -0.01830744557082653 -0.019781624898314476 -0.090416662395000458 -0.80413776636123657 -1.1028236150741577 -0.42156872153282166 -0.72445023059844971 -0.34482738375663757 0.082433305680751801 0.066541895270347595 0.25012266635894775 0.14875519275665283 -0.051574710756540298 -0.021405849605798721 -0.0094934878870844841
  1.606054425239563 -0.43953603506088257 -1.010783314704895 -1.3998969793319702 -0.38494676351547241 0.23623855412006378 0.21301238238811493 0.059960439801216125 0.20683218538761139 0.042257577180862427 0.068126514554023743 -0.22690509259700775 -0.40624663233757019 -0.58789503574371338 -0.59780555963516235 -0.4810752272605896 0.006274394690990448 0.090821579098701477 0.24110648036003113 0.22246664762496948 0.10026390105485916 -0.083441741764545441 -0.03277379646897316 0.03195524588227272 -0.67746776342391968 -0.43355196714401245 -0.33117970824241638 0.037370406091213226 0.26626467704772949 0.22160406410694122 0.2443450391292572 0.099015593528747559 0.11635273694992065 0.050157766789197922 -0.27839791774749756 0.010031792335212231 -0.42782217264175415 0.28756359219551086 0.40568900108337402 0.4584556519985199 0.12276572734117508 0.10153553634881973 0.093288019299507141 0.017443852499127388 0.021386371925473213 0.045814014971256256 -0.04838205873966217 -0.076310351490974426 -0.028042905032634735 0.9051397442817688 0.95585978031158447 0.77686429023742676 0.13108654320240021 -0.17912067472934723 -0.41090169548988342 -0.014023791067302227 -0.16862915456295013 -0.023958645761013031 0.18115803599357605 0.039140578359365463
  -0.087168559432029724 0.26909518241882324 -0.051445037126541138 0.20829680562019348 -0.46400666236877441 -0.12676973640918732 0.17669463157653809 0.25430616736412048 -0.059920381754636765 0.085967540740966797 0.12550956010818481 0.23033647239208221 0.29240894317626953 0.076789088547229767 -0.15770839154720306 -0.048007715493440628 -0.30958861112594604 0.044102888554334641 0.050053119659423828 0.14363069832324982 -0.10454224050045013 0.12356782704591751 -0.093764267861843109 0.080956600606441498 0.18100520968437195 -0.21888640522956848 -0.23353932797908783 -0.19526125490665436 -0.16320228576660156 -0.09610198438167572 -0.13111302256584167 0.12954023480415344 -0.25552186369895935 0.097745910286903381 -0.086789362132549286 0.18542021512985229 -0.028053227812051773 0.16504129767417908 -0.1997181624174118 -0.057047341018915176 -0.045061685144901276 -0.31774446368217468 -0.21619768440723419 -0.013449808582663536 -0.13733053207397461 0.12317395955324173 -0.031863410025835037 0.19838748872280121 0.051121972501277924 0.35254889726638794 0.72136276960372925 0.36109986901283264 -0.19165456295013428 -0.43702605366706848 -0.55089735984802246 -0.093714639544487 -0.079145386815071106 -0.064925104379653931 0.31297796964645386 0.079431995749473572
  -0.26618674397468567 0.52023112773895264 -0.35912549495697021 0.052795384079217911 0.0073119737207889557 0.026002630591392517 -0.066392794251441956 0.074637137353420258 -0.17895661294460297 0.059001166373491287 -0.050946664065122604 -0.064815916121006012 -1.4336063861846924 0.21125529706478119 -0.42423698306083679 -0.39976117014884949 0.10244212299585342 0.10690528899431229 -0.043509490787982941 0.11041892319917679 -0.1910131573677063 0.051326416432857513 -0.013292474672198296 0.16469217836856842 -0.82573449611663818 0.77425098419189453 -0.21893531084060669 0.0066032423637807369 0.20176005363464355 -0.061851505190134048 0.009438246488571167 0.00083538942271843553 0.084177605807781219 0.035402774810791016 -0.080876760184764862 0.17134024202823639 -0.22634047269821167 0.15076863765716553 0.35052588582038879 0.034047491848468781 -0.074473448097705841 -0.149765744805336 -0.053100228309631348 -0.079421877861022949 0.18196049332618713 -0.031488116830587387 0.044799897819757462 0.0075240605510771275 1.5597070455551147 -0.82158595323562622 0.079909399151802063 -0.025287656113505363 0.096480950713157654 -0.023069482296705246 0.064592555165290833 -0.26630237698554993 0.17799194157123566 0.014060286805033684 0.05390380322933197 -0.10883976519107819 ]
 [ -2.3231973648071289 0.22375963628292084 0.099724002182483673 -2.7393972873687744 -0.55684792995452881 4.9492168426513672 2.6870501041412354 0.76267987489700317 3.0911147594451904 -1.4915108680725098 -2.8057971000671387 -1.3891444206237793 3.1904633045196533 -1.8276561498641968 1.3626260757446289 -3.8981757164001465 0.8715442419052124 -0.033871639519929886 1.5833388566970825 -0.4317629337310791 -3.4912681579589844 -1.1945706605911255 -1.7821860313415527 1.687635064125061 -3.4490096569061279 0.32781249284744263 -2.5899326801300049 3.1906588077545166 2.1125640869140625 -4.0411348342895508 -4.0277748107910156 -2.8080661296844482 -0.93986153602600098 -1.4381951093673706 1.9059525728225708 4.3636183738708496 -3.1984708309173584 1.5969454050064087 -0.097273744642734528 3.6593441963195801 0.61672842502593994 -3.457810640335083 -3.4214727878570557 -0.89476168155670166 -0.15454210340976715 -1.0078710317611694 -3.3805902004241943 -2.457216739654541 2.3159322738647461 -2.5400407314300537 2.2191424369812012 3.2570652961730957 -2.9330334663391113 -2.2927803993225098 -2.5944054126739502 -0.13817510008811951 1.0048420429229736 0.98890930414199829 3.9106004238128662 2.2230668067932129 -3.8167521953582764 1.1581047773361206 -3.1923270225524902 1.9827600717544556 3.0682969093322754 -2.7985551357269287 1.1159673929214478 -1.9612125158309937 -0.28828933835029602 -3.6037993431091309 ]
<sigmoid> 70 70
<affinetransform> 56 70
 [ 
  0.72227621078491211 -1.378237247467041 0.046795841306447983 0.3790641725063324 -1.271317720413208 -0.7814481258392334 -0.49203157424926758 0.76112639904022217 -0.045819822698831558 0.017459962517023087 0.71264123916625977 0.57948333024978638 -0.35252067446708679 -0.030037907883524895 1.2205394506454468 0.30127295851707458 -0.23479361832141876 0.29358658194541931 -1.4602869749069214 0.14037203788757324 -0.3586631715297699 -0.31934455037117004 0.12765909731388092 0.32560786604881287 0.46275094151496887 0.26321801543235779 -0.42247584462165833 1.8028085231781006 -0.33828595280647278 0.42073842883110046 0.40746483206748962 1.1394830942153931 -0.16916145384311676 -1.1125186681747437 -0.022679023444652557 0.17301580309867859 0.19698347151279449 0.43923348188400269 -0.40970006585121155 0.25269332528114319 0.51108229160308838 -0.973926842212677 -0.16089831292629242 0.074999451637268066 1.0369198322296143 0.1994626373052597 0.63461238145828247 -0.35700505971908569 -0.48184016346931458 0.71574580669403076 -0.26139327883720398 -0.42063409090042114 0.36425387859344482 0.11715671420097351 -0.48205640912055969 -0.2631174623966217 0.40880876779556274 -0.74045699834823608 -0.0057855416089296341 -0.50105440616607666 0.25736939907073975 -0.72957223653793335 0.20321768522262573 -0.078903935849666595 0.28579127788543701 -0.18083283305168152 0.72081327438354492 -0.51085954904556274 -0.082380287349224091 -1.0328775644302368
  0.73601144552230835 -0.70406109094619751 -1.0395139455795288 -0.15850019454956055 0.045885909348726273 0.18295879662036896 -0.18915078043937683 -0.48426142334938049 0.94277995824813843 0.61530721187591553 -0.11179006844758987 -0.88771456480026245 0.7189452052116394 0.20066770911216736 -0.35483402013778687 -0.25899803638458252 0.011646062135696411 -0.47082066535949707 -0.70499593019485474 0.26223373413085938 1.1016381978988647 0.85610926151275635 -0.62220215797424316 -0.22697703540325165 0.19842760264873505 0.13676765561103821 -0.34760791063308716 0.23480083048343658 -1.0797908306121826 -0.031607721000909805 0.55659300088882446 0.13165241479873657 0.12642994523048401 0.040642019361257553 -2.1228220462799072 0.16186773777008057 -0.44274178147315979 -0.33210048079490662 0.87801116704940796 -0.62048429250717163 -0.098720543086528778 0.79126113653182983 -0.41282859444618225 0.64753472805023193 0.31451347470283508 0.035232387483119965 0.38124817609786987 0.9997098445892334 -0.64015692472457886 -0.222463458776474 -0.90736711025238037 0.8909686803817749 -0.25440028309822083 0.50315701961517334 0.87746942043304443 -0.07418658584356308 -0.45976346731185913 -0.071363173425197601 -0.30794805288314819 0.82812410593032837 -0.64371985197067261 -0.16038158535957336 0.24950118362903595 -0.58367073535919189 0.42180648446083069 0.27009499073028564 0.1301635205745697 -0.89830958843231201 -0.26271507143974304 0.87699741125106812
  0.32935306429862976 0.15752209722995758 -0.012532341293990612 0.46476730704307556 0.23759859800338745 0.48923087120056152 0.22647444903850555 0.10634618997573853 -0.49170646071434021 -0.66738694906234741 -0.85426580905914307 -0.055643931031227112 0.3358403742313385 -0.44020482897758484 0.71775937080383301 1.8678544759750366 0.36420372128486633 -0.26519089937210083 -1.1590274572372437 -0.12444164603948593 0.098137088119983673 -0.22890941798686981 -0.0060870060697197914 0.23483377695083618 0.95469540357589722 0.5764804482460022 -0.20944699645042419 -0.51619714498519897 0.5192875862121582 -0.34871271252632141 -0.50335240364074707 -0.1040913462638855 0.49738359451293945 1.0221987962722778 0.015399426221847534 0.260926753282547 0.10852997004985809 0.30030196905136108 -0.19365377724170685 -0.1176086962223053 -0.38955488801002502 0.27025860548019409 0.33169257640838623 0.92817050218582153 0.6159968376159668 -0.19773243367671967 0.30727031826972961 1.1809444427490234 -0.33374583721160889 0.21174561977386475 -0.24746431410312653 -0.44915419816970825 0.65520274639129639 0.3461306095123291 0.20462805032730103 0.37522253394126892 -0.71844136714935303 -0.68194782733917236 -0.55602866411209106 0.31602922081947327 -0.36824476718902588 -0.22995372116565704 0.18273487687110901 -0.69157165288925171 -1.2441707849502563 -0.066093079745769501 -0.48486098647117615 -0.013285156339406967 0.54115712642669678 1.2933652400970459
  0.480966717004776 0.58507794141769409 0.047277133911848068 -0.37136062979698181 0.53650397062301636 0.30310308933258057 -0.36101654171943665 0.61853939294815063 -0.40870225429534912 -0.09255286306142807 0.52405393123626709 1.1554707288742065 0.22711798548698425 -0.60486865043640137 -0.91096365451812744 0.32456406950950623 0.11058014631271362 0.79389345645904541 0.16162368655204773 -0.43433851003646851 0.35391530394554138 -0.45909300446510315 -0.063042007386684418 -0.88093036413192749 -0.26240214705467224 0.84706056118011475 0.51087450981140137 0.79065680503845215 0.21077826619148254 -0.71822035312652588 0.16236178576946259 -0.55381196737289429 0.34099286794662476 -0.16618071496486664 -0.29648077487945557 -0.8611140251159668 -0.25112110376358032 0.50492805242538452 -0.1423071026802063 -0.27273663878440857 -0.30534306168556213 -0.25874704122543335 0.25290626287460327 -1.0733127593994141 0.33215272426605225 -0.080711148679256439 0.73531770706176758 0.062736146152019501 -0.2026258260011673 0.1325162947177887 0.427522212266922 -0.30671516060829163 -1.6442838907241821 0.55004149675369263 0.21526019275188446 -0.29438641667366028 -0.42600449919700623 0.626792311668396 1.3944845199584961 -0.15322069823741913 0.08720754086971283 -0.4349423348903656 0.55900925397872925 0.31602668762207031 -0.27899402379989624 0.41281500458717346 -0.0099539868533611298 0.57671290636062622 0.68860280513763428 -0.034010536968708038
  0.12564755976200104 0.37693420052528381 0.14370875060558319 0.34304860234260559 -0.26128572225570679 -0.22215272486209869 -0.39726167917251587 0.3620278537273407 -0.41216197609901428 0.28403005003929138 -0.13564561307430267 0.57395464181900024 -0.2946915328502655 -0.14550653100013733 -0.29510924220085144 0.21157842874526978 -0.27445751428604126 -0.34070020914077759 0.07910754531621933 0.50948071479797363 -0.00063151225913316011 -0.015126476995646954 0.26751703023910522 -0.26633846759796143 -0.79024690389633179 -0.12020768225193024 0.39910969138145447 0.94622063636779785 -0.85901808738708496 -0.033078759908676147 0.72552436590194702 0.45621404051780701 0.14554306864738464 0.40473440289497375 -0.38079154491424561 0.014799699187278748 -0.21419896185398102 -0.1886342465877533 -0.72154140472412109 -0.035213533788919449 -0.60540151596069336 0.14114430546760559 0.52412933111190796 -0.26967751979827881 0.49257814884185791 -0.76322340965270996 0.56174314022064209 -0.050119698047637939 -0.28219366073608398 -0.10269353538751602 0.29086744785308838 -0.028448421508073807 0.46949824690818787 0.29483270645141602 0.47283723950386047 -0.51046633720397949 0.67296266555786133 -0.020545421168208122 0.29779139161109924 -0.32987314462661743 -0.042124386876821518 0.45361870527267456 0.26773428916931152 -0.079879246652126312 -0.47081592679023743 0.40702047944068909 -0.50417667627334595 0.23417818546295166 -0.11854966729879379 0.038518816232681274
  -0.032955046743154526 -0.19562016427516937 0.15164634585380554 0.34035548567771912 0.12312103807926178 0.0090904142707586288 0.67274105548858643 -0.18024188280105591 -0.58124691247940063 -0.33069220185279846 0.8161892294883728 -0.52814030647277832 -0.54982703924179077 -0.15630166232585907 0.070628613233566284 0.35513228178024292 0.024669378995895386 -0.35138335824012756 0.18478593230247498 0.50791358947753906 -0.31026113033294678 -0.23018643260002136 0.8148270845413208 -0.1938537061214447 -0.48628845810890198 -0.1582440584897995 0.017721911892294884 0.46247062087059021 0.49410876631736755 0.39148220419883728 -0.38387984037399292 0.53537964820861816 0.50945866107940674 0.31074133515357971 0.40144011378288269 0.77591335773468018 0.41510665416717529 -0.49046260118484497 0.15505833923816681 -0.17473173141479492 0.019644711166620255 -0.23422926664352417 -0.088112764060497284 -0.34274876117706299 -0.47121742367744446 0.28557008504867554 -0.34684181213378906 -0.54667091369628906 0.54845708608627319 -0.33514252305030823 0.38862836360931396 0.38096380233764648 0.48916342854499817 -0.14150828123092651 -0.19834472239017487 0.43587794899940491 -0.28602629899978638 0.29383707046508789 -0.077086314558982849 0.032631538808345795 -0.06821335107088089 -0.039568293839693069 -0.31984910368919373 0.0046026227064430714 0.048250362277030945 -0.24726882576942444 0.08765178918838501 -0.41060805320739746 -0.30815878510475159 0.07359873503446579
  0.5160636305809021 0.6255805492401123 -0.21458214521408081 -0.38803878426551819 -0.018360447138547897 -0.14687518775463104 -0.18204014003276825 0.075514271855354309 -0.14613914489746094 0.29047542810440063 0.060495298355817795 -0.30221712589263916 -0.24951241910457611 0.69426155090332031 -0.50168406963348389 1.1309854984283447 0.17760418355464935 0.60369247198104858 0.032811008393764496 -0.08193545788526535 -0.032692570239305496 0.28096437454223633 0.15182679891586304 -0.24347835779190063 0.32647579908370972 -0.68585216999053955 0.13189981877803802 -1.1878222227096558 0.55677312612533569 0.084767729043960571 -0.37414881587028503 0.43596845865249634 -0.24602997303009033 0.49634155631065369 0.87273049354553223 -0.11057846993207932 -0.21347068250179291 -0.0050164517015218735 -1.225792407989502 -0.23973472416400909 -0.62658959627151489 -0.16320796310901642 -0.4631592333316803 0.45739135146141052 -0.076506704092025757 -0.042316697537899017 0.60370606184005737 0.29819533228874207 0.25420239567756653 -0.452869713306427 0.36647531390190125 -0.66447955369949341 -0.0043241200037300587 -0.068613596260547638 0.19754758477210999 -0.0031164037063717842 -0.38718459010124207 -0.91918861865997314 -0.084848307073116302 -1.3216174840927124 0.07248939573764801 -0.12481456249952316 -0.74319171905517578 0.29010340571403503 -1.2076244354248047 0.022428762167692184 0.090674705803394318 0.36696711182594299 -0.54110211133956909 1.4053668975830078
