<Nnet>
<input> 60 60
<affinetransform> 70 60
 [ 
  0.47874569892883301 -0.97452741861343384 -0.70069020986557007 0.70304411649703979 0.4690650999546051 -0.58245480060577393 -0.4318993091583252 0.078306332230567932 0.51355010271072388 0.094992473721504211 -0.37987411022186279 -0.2488253265619278 0.33929795026779175 -0.20485790073871613 0.00016071286518126726 0.41252550482749939 -0.035334736108779907 -0.27596837282180786 -0.026076985523104668 0.091026656329631805 0.029551468789577484 -0.077987164258956909 0.0040647964924573898 0.17501522600650787 0.16815690696239471 0.32057487964630127 0.35691562294960022 -0.003421831177547574 -0.32870915532112122 -0.10844366252422333 0.18040655553340912 0.082911208271980286 -0.16352365911006927 -0.12149959057569504 0.011123271659016609 0.27126258611679077 0.094107046723365784 0.34920701384544373 0.29715415835380554 -0.3256165087223053 -0.26524260640144348 0.070391125977039337 0.23855218291282654 0.11311832070350647 -0.21738949418067932 -0.041033022105693817 0.11774031072854996 0.15226909518241882 -0.14360670745372772 0.46073746681213379 -0.2195838987827301 -0.82070302963256836 -0.13028857111930847 0.45817583799362183 0.11009760946035385 -0.043221425265073776 -0.2714887261390686 0.063252910971641541 0.27752336859703064 -0.041306138038635254
  0.43183931708335876 -0.50608396530151367 -0.058384902775287628 -0.48144927620887756 -0.5604977011680603 -0.18936623632907867 0.29751062393188477 0.2008063942193985 -0.038782570511102676 0.011807759292423725 -0.040711358189582825 -0.52304321527481079 0.32708534598350525 -0.017100727185606956 0.020136198028922081 0.12125539034605026 -0.20771227777004242 -0.14505840837955475 0.21522209048271179 -0.0078306253999471664 -0.18975257873535156 -0.035325456410646439 -0.1846204549074173 -0.25246655941009521 0.4098774790763855 -0.078518420457839966 0.091151408851146698 0.34225839376449585 -0.013443284668028355 0.027310563251376152 0.24728655815124512 -0.011548831127583981 -0.21058148145675659 -0.076803438365459442 -0.20679846405982971 -0.12275557219982147 0.18365903198719025 -0.16019058227539062 -0.023275319486856461 0.32671859860420227 0.12792369723320007 0.11126808822154999 0.20223163068294525 0.10068544000387192 0.012330038473010063 0.012294004671275616 -0.066058099269866943 0.048353388905525208 0.097905874252319336 -0.27953654527664185 -0.301104336977005 0.021421937271952629 0.23558361828327179 0.2002888023853302 0.17330007255077362 0.21533690392971039 0.085703290998935699 -0.19373545050621033 -0.16511557996273041 -0.024682510644197464
  -0.2206590473651886 0.17398431897163391 0.51511520147323608 0.22067664563655853 0.027816152200102806 0.095729894936084747 -0.067656174302101135 -0.21433372795581818 -0.34214985370635986 -0.49239474534988403 0.058125175535678864 0.25662946701049805 0.080471739172935486 -0.033762123435735703 0.29219132661819458 -0.17505043745040894 -0.101543128490448 0.12350888550281525 0.06831841915845871 -0.16239471733570099 -0.053178019821643829 -0.17816834151744843 0.10744459927082062 0.034202609211206436 0.13546425104141235 -0.16451409459114075 -0.10721409320831299 -0.47561141848564148 -0.055995766073465347 0.16000944375991821 0.16550764441490173 -0.11086840182542801 0.25475209951400757 0.21250373125076294 -0.013768902979791164 -0.16907685995101929 0.42292636632919312 -0.14249287545681 -0.31562900543212891 -0.43653848767280579 -0.014480245299637318 0.15330974757671356 0.24335241317749023 0.0056703900918364525 0.31668463349342346 0.26528277993202209 -0.17618520557880402 -0.37646335363388062 -0.090632207691669464 -0.10197573900222778 -0.56193292140960693 -0.12134629487991333 0.20212392508983612 0.21316355466842651 0.45795443654060364 0.15787586569786072 0.20616534352302551 0.31456616520881653 -0.19801940023899078 -0.35203239321708679
  -0.73427361249923706 0.29641419649124146 0.77708268165588379 -0.289724200963974 -0.25675719976425171 0.14045765995979309 -0.0026236025150865316 -0.25821542739868164 -0.23378930985927582 0.0005889558233320713 0.11014823615550995 0.058498591184616089 -0.28068569302558899 0.15544670820236206 0.46812823414802551 0.024791140109300613 -0.36318707466125488 -0.013036375865340233 0.056955110281705856 -0.20490351319313049 -0.071274682879447937 0.065777994692325592 0.043706998229026794 0.12106531858444214 0.12615518271923065 0.04282538965344429 0.25836673378944397 0.21929648518562317 -0.20108774304389954 -0.1489643007516861 0.030716171488165855 -0.024114130064845085 0.034884840250015259 0.066350027918815613 -0.002492900937795639 0.083890073001384735 0.60254389047622681 -0.15208026766777039 -0.20321348309516907 0.28925797343254089 -0.050351213663816452 -0.21379345655441284 0.02143450453877449 0.19799606502056122 0.037771739065647125 -0.01031853910535574 -0.02820504829287529 0.014766132459044456 1.1090404987335205 -0.77469992637634277 -1.7596586942672729 -0.082234971225261688 0.77065402269363403 0.15452410280704498 -0.027780355885624886 0.46205323934555054 0.16491670906543732 0.028114330023527145 -0.096560470759868622 -0.2493891716003418
  -0.31632104516029358 0.21387125551700592 -0.1345071941614151 -0.0013747139601036906 0.092515736818313599 0.068914331495761871 0.24435603618621826 0.43038973212242126 0.32467859983444214 0.027746269479393959 -0.069820590317249298 0.29019942879676819 0.25325170159339905 0.058128457516431808 -0.1632663905620575 -0.25502792000770569 -0.096866950392723083 -0.024300098419189453 0.036418203264474869 0.23168787360191345 0.20021550357341766 -0.0089012505486607552 -0.1231217086315155 -0.13458921015262604 0.49707719683647156 -0.090481691062450409 -0.11856298893690109 -0.34809288382530212 -0.24968358874320984 -0.052875962108373642 0.10770575702190399 0.1552121639251709 -0.0013725243043154478 -0.040844924747943878 -0.01474696584045887 -0.25317522883415222 0.66911816596984863 0.37494209408760071 0.20635911822319031 -0.20580540597438812 -0.31109005212783813 -0.1030561700463295 -0.021216379478573799 -0.1475042849779129 -0.17364709079265594 -0.085588522255420685 -0.038279958069324493 -0.14047527313232422 0.79589635133743286 0.78170299530029297 0.46566247940063477 -0.07435549795627594 -0.24946115911006927 0.12220051884651184 0.12255098670721054 -0.08614860475063324 -0.070006690919399261 0.026686485856771469 -0.037957556545734406 -0.092403873801231384
  0.093099094927310944 0.070298783481121063 0.32487866282463074 0.23084039986133575 0.12761752307415009 0.19145399332046509 0.10906855762004852 0.089400820434093475 0.21061839163303375 0.094548344612121582 0.017954301089048386 0.056932367384433746 0.14993911981582642 0.051972653716802597 0.20311053097248077 0.18715076148509979 0.21762661635875702 0.23836517333984375 0.043325331062078476 0.0605306476354599 0.19639608263969421 0.013640009798109531 -0.031746510416269302 0.049608413130044937 0.27188795804977417 0.14168836176395416 0.15261590480804443 0.23868654668331146 0.25296324491500854 0.22504830360412598 0.024929352104663849 0.058050632476806641 0.22478446364402771 -0.056448239833116531 -0.079805053770542145 0.090105459094047546 0.30192437767982483 0.083242088556289673 0.19496408104896545 0.23755714297294617 0.24251237511634827 0.26940804719924927 0.056749705225229263 0.11263477802276611 0.21428914368152618 -0.15251603722572327 -0.057694554328918457 0.017891734838485718 0.29482051730155945 -0.14916171133518219 0.21426507830619812 0.18545900285243988 0.1514066755771637 0.31253847479820251 0.06593659520149231 0.18734940886497498 0.27081137895584106 -0.052867427468299866 0.10264670848846436 -0.015151017345488071
  -0.021330647170543671 -0.12077637016773224 -0.06257706880569458 -0.15564839541912079 0.047009695321321487 0.050245825201272964 0.24577723443508148 0.33479917049407959 0.06763254851102829 -0.39815840125083923 0.016460752114653587 0.20486640930175781 -0.017441874369978905 0.0047729066573083401 0.06331179291009903 0.042533088475465775 -0.00021060573635622859 -0.022640625014901161 0.059581667184829712 0.032535552978515625 -0.02023792453110218 -0.031679898500442505 0.049217406660318375 0.1708730012178421 0.017534278333187103 0.1271766871213913 0.17733678221702576 0.12709842622280121 0.012305205687880516 -0.0010873059509322047 -0.11413282155990601 -0.22278586030006409 0.03933333232998848 0.2662632167339325 0.11657249927520752 0.0057112947106361389 -0.20738179981708527 -0.054315816611051559 0.17442567646503448 0.14491502940654755 0.15528622269630432 -0.0055610612034797668 -0.18831028044223785 -0.34351268410682678 0.10965194553136826 0.38393035531044006 0.13915508985519409 -0.12254231423139572 -0.5225864052772522 -0.11152239888906479 0.36005941033363342 0.38805496692657471 0.22654590010643005 -0.2109219878911972 -0.20603948831558228 -0.34407320618629456 0.033532314002513885 0.26678657531738281 -0.1319340318441391 -0.11584995687007904
  0.27327623963356018 0.58615416288375854 0.78790116310119629 0.6429675817489624 0.11186771839857101 -0.10395315289497375 0.14792570471763611 -0.16503028571605682 -0.037963736802339554 0.0713978111743927 -0.020111683756113052 -0.056126631796360016 0.4718029797077179 -0.024125564843416214 0.023350253701210022 -0.13464629650115967 -0.39877411723136902 -0.084235675632953644 0.077767111361026764 0.013468916527926922 0.10180563479661942 0.10424122959375381 0.19757275283336639 -0.019721340388059616 0.40293398499488831 -0.25239890813827515 -0.53030961751937866 -0.51619213819503784 -0.38145610690116882 0.0083994856104254723 0.082605473697185516 0.22444617748260498 0.122145876288414 0.038518369197845459 0.11681455373764038 -0.10240694135427475 -0.061464041471481323 -0.53502810001373291 -0.59831887483596802 -0.40106338262557983 -0.19747012853622437 0.10011585056781769 0.17772367596626282 0.23127910494804382 0.10114366561174393 0.020574735477566719 0.099785000085830688 -0.018117286264896393 -1.7884745597839355 -0.410991370677948 -0.32637715339660645 0.20725034177303314 0.77715969085693359 0.44121554493904114 0.32224449515342712 0.33193323016166687 0.036178864538669586 0.083260029554367065 -0.093065917491912842 0.22958400845527649
  1.0938065052032471 -0.28669965267181396 -0.37486207485198975 0.11327629536390305 0.32325285673141479 0.20591901242733002 -0.037085644900798798 -0.059855882078409195 0.06373654305934906 0.1029827669262886 -0.030349932610988617 -0.13786581158638 0.78534436225891113 -0.2389470636844635 -0.60465651750564575 0.13704226911067963 0.47750800848007202 0.1113542914390564 -0.13282634317874908 -0.077152520418167114 0.19326357543468475 0.082760997116565704 -0.17781424522399902 -0.095929950475692749 0.19837424159049988 0.12882082164287567 -0.40976798534393311 0.15181548893451691 0.50202810764312744 0.26025885343551636 -0.0040527959354221821 -0.20754939317703247 0.0618111751973629 0.046978723257780075 -0.15227404236793518 0.063776671886444092 -0.3198225200176239 0.171442911028862 -0.0022988270502537489 -0.052254024893045425 0.11769599467515945 0.06679786741733551 0.0043800170533359051 -0.14467158913612366 -0.062498029321432114 -0.032325759530067444 -0.11223685741424561 0.094004087150096893 -0.59445983171463013 0.19131632149219513 0.46488231420516968 -0.37301981449127197 -0.26159384846687317 -0.12345008552074432 -0.30675685405731201 -0.035058543086051941 0.057721678167581558 -0.061939269304275513 -0.0044918451458215714 0.049943547695875168
  0.20143234729766846 -0.27113470435142517 -0.34246933460235596 -0.72947829961776733 0.0059035881422460079 0.20074327290058136 0.15738178789615631 -0.3172447681427002 -0.12306302785873413 -0.13169367611408234 -0.024729400873184204 -0.078170925378799438 0.65422290563583374 0.33927261829376221 -0.42845612764358521 -0.24821259081363678 0.29219362139701843 0.16525715589523315 -0.088921554386615753 -0.50068777799606323 -0.16414105892181396 0.19707502424716949 0.10730352252721786 -0.21090182662010193 0.82843577861785889 0.35396897792816162 -0.12034337967634201 0.12228778004646301 0.11610462516546249 0.064355924725532532 -0.1161310076713562 -0.38175469636917114 -0.10939464718103409 0.11786974221467972 0.14801099896430969 -0.12372950464487076 0.8509255051612854 0.36250928044319153 0.091228969395160675 0.32667931914329529 -0.015740698203444481 -0.08016088604927063 0.00089000724256038666 -0.13026893138885498 -0.11617305129766464 -0.034612745046615601 0.07906002551317215 0.001208668458275497 0.60557615756988525 -0.088897593319416046 -0.084575824439525604 -0.036960218101739883 0.038964040577411652 0.22691909968852997 0.069732710719108582 0.22529491782188416 -0.044057853519916534 -0.18317851424217224 -0.078993089497089386 0.076582439243793488
  0.0019621362444013357 0.2304496169090271 -0.26385441422462463 0.25461271405220032 0.48353585600852966 0.027928192168474197 0.064848862588405609 0.11483709514141083 -0.054957225918769836 0.084671035408973694 0.052291501313447952 0.17049494385719299 0.41091728210449219 -0.14926876127719879 0.11167147010564804 -0.36322468519210815 -0.35794097185134888 -0.13404788076877594 -0.16260041296482086 0.014394337311387062 -0.089835278689861298 -0.0012757099466398358 0.063870415091514587 -0.044519856572151184 0.10880535095930099 -0.26656326651573181 0.17669953405857086 -0.63872700929641724 -0.70117813348770142 -0.31192147731781006 -0.27957069873809814 -0.074047952890396118 -0.12834540009498596 -0.12525913119316101 0.080271333456039429 -0.0077921487390995026 0.064782246947288513 -0.15095691382884979 0.017086271196603775 -0.38882288336753845 -0.33286866545677185 -0.34847909212112427 -0.24174122512340546 -0.190746009349823 0.035382062196731567 -0.0092735579237341881 0.016685191541910172 0.058305900543928146 0.76013785600662231 0.64773648977279663 0.25498801469802856 0.70961868762969971 0.35340258479118347 -0.14286726713180542 -0.19491298496723175 -0.33023291826248169 -0.057058088481426239 0.095333755016326904 -0.14113974571228027 -0.094577468931674957
  1.2442529201507568 -0.48395201563835144 -0.77095603942871094 -0.51856780052185059 0.19730201363563538 0.37138223648071289 -0.17233708500862122 -0.40567606687545776 0.12747678160667419 0.30989366769790649 0.11544808000326157 -0.2683657705783844 0.40287095308303833 -0.30264636874198914 -0.22531427443027496 -0.27061444520950317 0.22568517923355103 0.14594408869743347 -0.021095190197229385 -0.0093076340854167938 0.02402026578783989 0.12101565301418304 0.015037283301353455 -0.06205642968416214 0.10407069325447083 -0.040024079382419586 -0.024121377617120743 -0.17072592675685883 0.22367197275161743 0.0019274919759482145 0.016427395865321159 0.13306592404842377 0.025862054899334908 0.084581300616264343 0.039321962743997574 0.030885670334100723 0.15822698175907135 0.15344850718975067 0.048732306808233261 -0.0085797375068068504 0.16038563847541809 0.00099348928779363632 0.071406759321689606 0.13960644602775574 0.038620978593826294 0.043290495872497559 0.12737056612968445 0.11974858492612839 -0.0023974173236638308 0.29309749603271484 0.21507671475410461 -0.050067350268363953 -0.033569727092981339 0.035419546067714691 0.099039070308208466 0.015700135380029678 -0.07781711220741272 -0.08287174254655838 0.21918593347072601 0.23847602307796478
  0.56145858764648438 -0.35346639156341553 -0.36730721592903137 0.25005677342414856 -0.17323553562164307 0.058472361415624619 0.18829940259456635 0.062872461974620819 -0.063320942223072052 0.069468528032302856 -0.18871282041072845 -0.1283402293920517 0.15375505387783051 -0.40730401873588562 -0.025388574227690697 0.25524628162384033 -0.30318537354469299 -0.17732687294483185 0.22596642374992371 0.23687346279621124 -0.084189340472221375 -0.018840452656149864 -0.011776878498494625 -0.037394747138023376 0.11408642679452896 -0.18033318221569061 -0.02624199166893959 0.26469522714614868 -0.15300995111465454 -0.25622659921646118 0.21960517764091492 0.22798731923103333 -0.0078554479405283928 0.019231153652071953 -0.069322720170021057 -0.050252325832843781 0.017762139439582825 -0.1278747171163559 -0.033024966716766357 0.13461102545261383 0.010332033969461918 -0.062487058341503143 -0.012881157919764519 0.086329691112041473 0.11438581347465515 0.065725564956665039 -0.034823060035705566 -0.11944349855184555 0.36988100409507751 -0.046870321035385132 -0.093346662819385529 0.048911858350038528 0.098264709115028381 0.030654102563858032 -0.090364277362823486 -0.22028309106826782 0.075596064329147339 0.14563432335853577 -0.076117262244224548 -0.17424620687961578
  0.99831557273864746 0.56946283578872681 0.86745285987854004 0.35419446229934692 0.055605951696634293 -0.073865041136741638 -0.40569040179252625 -0.40155684947967529 -0.44300168752670288 -0.38989311456680298 0.032896287739276886 -0.099704727530479431 0.094938434660434723 0.80186575651168823 0.56161755323410034 0.71906644105911255 0.40467384457588196 0.082561768591403961 0.088076360523700714 -0.28830620646476746 -0.22742636501789093 -0.27366888523101807 -0.20881137251853943 -0.15326960384845734 0.17221404612064362 0.030037280172109604 0.040227774530649185 0.02975795790553093 0.020055243745446205 -0.020089104771614075 0.0048174159601330757 0.040670912712812424 0.066490761935710907 -0.12583358585834503 -0.018016336485743523 -0.10757016390562057 -0.11638257652521133 -0.2890353798866272 -0.41314634680747986 -0.29822328686714172 -0.23057760298252106 0.0058710114099085331 -0.066520377993583679 0.15003849565982819 0.12038934975862503 0.094397865235805511 0.10596045851707458 0.033417217433452606 -0.98998987674713135 -0.3422953188419342 -0.48672416806221008 -0.45607742667198181 -0.12949845194816589 0.077831007540225983 0.090731911361217499 0.067740015685558319 0.10380546003580093 0.28171563148498535 0.13790102303028107 0.3552376925945282
  -0.11176366358995438 0.55900436639785767 0.2497582882642746 0.52626562118530273 0.4050215482711792 0.13910660147666931 0.0045746872201561928 0.27692627906799316 0.19667527079582214 0.12348520010709763 -0.082921698689460754 0.082002013921737671 0.18671166896820068 0.02472364716231823 -0.092159397900104523 0.08695586770772934 -0.045787688344717026 0.13219021260738373 0.051057498902082443 0.1674654632806778 0.19269463419914246 0.14043880999088287 0.10403820127248764 0.0044278381392359734 0.35909196734428406 -0.047082431614398956 -0.39212220907211304 -0.33800217509269714 -0.2884838879108429 0.082905769348144531 0.16714127361774445 0.0031196519266813993 0.12855525314807892 0.10918888449668884 0.10432108491659164 -0.018852269276976585 0.13051164150238037 -0.21697154641151428 -0.36992508172988892 -0.67921733856201172 -0.51717257499694824 -0.13309131562709808 -0.050174158066511154 -0.12061061710119247 0.058951813727617264 0.090295672416687012 0.087797023355960846 -0.034998819231987 0.37155097723007202 0.026981446892023087 0.74890971183776855 -0.5217546820640564 -0.79391491413116455 -0.63582980632781982 -0.41120254993438721 -0.41039130091667175 -0.13393984735012054 -0.15731410682201385 0.028778217732906342 0.0042124371975660324
  0.92734032869338989 -0.19224530458450317 0.067969992756843567 0.022322019562125206 0.14980639517307281 -0.0075726835057139397 -0.016890190541744232 0.021215878427028656 0.084237642586231232 -0.066336065530776978 -0.050157435238361359 0.0414259172976017 0.54617714881896973 0.03347117081284523 -0.20473594963550568 -0.0050401580519974232 0.014893770217895508 0.031421855092048645 -0.12435226887464523 -0.047538153827190399 0.032004952430725098 0.014124966226518154 -0.01418626494705677 -0.026246152818202972 -0.21389563381671906 0.056264840066432953 -0.22254294157028198 0.049921177327632904 0.020444951951503754 0.095308266580104828 0.01075440552085638 -0.046135339885950089 -0.072347253561019897 -0.0042577488347887993 -0.024460382759571075 -0.052607741206884384 -0.86491876840591431 0.089125886559486389 -0.27199810743331909 0.053682681173086166 -0.052318330854177475 0.14702671766281128 0.015174508094787598 0.051800690591335297 -0.10104608535766602 -0.039721444249153137 -0.0039909174665808678 0.034828092902898788 -2.0315210819244385 0.67067229747772217 0.19534972310066223 0.22358635067939758 -0.058512751013040543 -0.14532428979873657 0.055522684007883072 0.19284731149673462 0.086407124996185303 -0.059624738991260529 -0.14211341738700867 -0.054580863565206528
  1.5002673864364624 0.62029796838760376 0.52194195985794067 -0.049636367708444595 -0.52654647827148438 -0.51208633184432983 -0.15299232304096222 0.036394927650690079 0.13029220700263977 -0.037477701902389526 -0.011918459087610245 -0.21624374389648438 0.94581276178359985 0.20718248188495636 0.087158866226673126 -0.2068202942609787 -0.41805607080459595 -0.34341323375701904 -0.15935708582401276 0.034532863646745682 0.11636447906494141 0.073150686919689178 0.14931902289390564 -0.046737078577280045 0.27398982644081116 0.050553277134895325 0.089346997439861298 -0.07422783225774765 -0.1616605818271637 -0.16777163743972778 -0.094623789191246033 -0.13274158537387848 0.011893699876964092 0.061612412333488464 0.095348276197910309 0.04992116242647171 -0.34626731276512146 -0.019234485924243927 0.030333615839481354 0.24292571842670441 0.13442517817020416 -0.030754473060369492 -0.05174652487039566 -0.054438140243291855 -0.008122970350086689 -0.019983699545264244 0.019398702308535576 0.087933771312236786 -0.66761451959609985 -0.25514575839042664 0.10620848834514618 0.028493771329522133 0.14030948281288147 -0.17456266283988953 -0.15285083651542664 -0.032067686319351196 -0.054525088518857956 0.045648373663425446 0.0096795978024601936 0.13849517703056335
  -0.17936162650585175 0.52983248233795166 -0.38612517714500427 -0.43699118494987488 0.1662648618221283 0.34407329559326172 0.12155521661043167 0.14588244259357452 -0.10713125765323639 0.045071780681610107 0.024912741035223007 0.145163893699646 -0.11462996155023575 0.1671433299779892 0.094577223062515259 -0.20180676877498627 -0.12038479000329971 0.19454343616962433 0.14234529435634613 0.058231599628925323 0.080005206167697906 -0.074350409209728241 0.040350701659917831 0.097106732428073883 -0.44377335906028748 0.043819557875394821 0.18172234296798706 -0.046215645968914032 -0.14868122339248657 0.072148881852626801 0.25308701395988464 0.066637158393859863 0.17935924232006073 -0.10473018884658813 0.033511705696582794 0.14424267411231995 -0.41391280293464661 -0.2096451073884964 0.30671632289886475 0.063932605087757111 -0.27217695116996765 -0.19164639711380005 0.084640845656394958 0.068290375173091888 0.06638675183057785 -0.11512061208486557 0.012032981961965561 0.04385187104344368 -0.61857408285140991 -0.31649303436279297 0.40066477656364441 0.45641684532165527 -0.13949945569038391 -0.35387694835662842 0.078098677098751068 0.23889017105102539 0.10295698046684265 -0.068586058914661407 -0.14619737863540649 -0.011803194880485535
  -0.35262072086334229 -0.20606894791126251 0.32051783800125122 -0.15253728628158569 -0.2074260413646698 -0.023121792823076248 -0.075374431908130646 -0.10262635350227356 0.15395937860012054 -0.2496221512556076 0.17715209722518921 0.2086915522813797 -0.097982674837112427 0.023677714169025421 -0.050351854413747787 -0.078504003584384918 0.13334387540817261 -0.17199762165546417 -0.10785630345344543 0.015865212306380272 -0.024767931550741196 0.021200753748416901 -0.08697393536567688 -0.084610588848590851 0.22758632898330688 0.18105603754520416 -0.34507143497467041 0.01248858030885458 0.34210467338562012 -0.075844205915927887 -0.13774430751800537 -0.024994883686304092 -0.15376417338848114 0.23549702763557434 -0.075369343161582947 -0.12445390969514847 0.75103217363357544 0.25573381781578064 -0.470375657081604 -0.15225169062614441 0.21716424822807312 0.22196468710899353 -0.14812786877155304 -0.15055426955223083 -0.13302627205848694 0.24135279655456543 0.084270380437374115 -0.11686330288648605 0.98789197206497192 0.38933926820755005 -0.47065633535385132 -0.24506387114524841 0.10644318908452988 0.60263615846633911 0.022442348301410675 -0.24299465119838715 -0.051472153514623642 0.082034818828105927 0.2425837367773056 -0.098244629800319672
  -0.021889017894864082 -0.096220642328262329 0.041160736232995987 -0.036294892430305481 0.33287161588668823 0.05900023877620697 -0.40876775979995728 0.063672915101051331 -0.02355952188372612 -0.027483964338898659 0.0055268127471208572 -0.27054822444915771 0.084500566124916077 0.16851882636547089 0.069277696311473846 0.13338606059551239 0.25506451725959778 -0.033005762845277786 -0.09267348051071167 0.04749751091003418 -0.2120538204908371 -0.19388051331043243 0.11424225568771362 -0.10619350522756577 0.078299693763256073 0.27819409966468811 0.11614681780338287 0.30338597297668457 0.09589686244726181 -0.12425307184457779 0.097603708505630493 -0.031132388859987259 -0.3328951895236969 -0.14836975932121277 0.15798766911029816 -0.093964181840419769 -0.034893020987510681 0.17817619442939758 0.11689309775829315 0.33191078901290894 -0.096817128360271454 -0.17200914025306702 0.074993982911109924 -0.11364894360303879 -0.27479234337806702 0.037751846015453339 0.1507766991853714 -0.016690142452716827 -0.069120794534683228 0.053183164447546005 0.21493355929851532 0.32305115461349487 -0.2814047634601593 -0.14903472363948822 -0.021622274070978165 -0.21024642884731293 -0.26496949791908264 0.019366640597581863 0.045198079198598862 0.15393850207328796
  -0.33589434623718262 0.37672528624534607 0.17736947536468506 0.076434478163719177 -0.015975346788764 0.011365731246769428 -0.068658232688903809 -0.0039358208887279034 0.034947823733091354 -0.0069843661040067673 -0.023866523057222366 0.020837236195802689 0.71038460731506348 -0.49767211079597473 -0.24729180335998535 -0.45800086855888367 0.075442790985107422 0.30327215790748596 0.06609712541103363 -0.24929754436016083 0.13892556726932526 -0.023589514195919037 -0.10393976420164108 -0.33279365301132202 0.68242925405502319 -0.72644531726837158 -0.5855640172958374 -0.84279167652130127 0.070433817803859711 0.17068660259246826 0.18701796233654022 -0.11315897852182388 0.11089278012514114 -0.018355483189225197 0.02496245875954628 -0.24804806709289551 0.67602068185806274 -0.19912479817867279 -0.15788938105106354 -0.40311479568481445 -0.1174858883023262 -0.15390859544277191 -0.042449422180652618 -0.013120462186634541 0.10833296924829483 0.060408957302570343 0.036412376910448074 -0.022162105888128281 0.50642961263656616 0.68414729833602905 0.86096572875976562 0.87158799171447754 0.033829797059297562 -0.31702312827110291 -0.24643124639987946 0.082605868577957153 0.10008332878351212 0.15643976628780365 -0.0374433733522892 0.23754560947418213
  0.20875278115272522 -0.19554290175437927 0.24713452160358429 0.23313461244106293 0.18329264223575592 0.056127406656742096 0.2295946329832077 -0.0098438514396548271 -0.33295443654060364 -0.14216859638690948 0.21447239816188812 0.082031920552253723 -0.28882724046707153 -0.23823900520801544 -0.06447504460811615 0.11359225958585739 0.1827983558177948 0.15969613194465637 0.12443024665117264 0.059240691363811493 -0.24075932800769806 -0.10722260177135468 0.10272517055273056 0.12164810299873352 -0.47552263736724854 -0.2105560302734375 -0.10696662217378616 0.1527128666639328 0.22605367004871368 0.21197547018527985 0.01310235820710659 0.087556377053260803 -0.097701378166675568 -0.10743910074234009 -0.0320897176861763 0.14919908344745636 -0.41432160139083862 -0.23143085837364197 -0.13596616685390472 0.19927570223808289 0.20043203234672546 0.16595374047756195 -0.0036524832248687744 -0.033320363610982895 -0.090390287339687347 -0.17403344810009003 -0.091638393700122833 0.2375587522983551 0.064082063734531403 -0.3152637779712677 -0.13796500861644745 0.11432246118783951 0.16038991510868073 0.15069176256656647 0.039444752037525177 -0.17434291541576385 -0.17256081104278564 -0.39012253284454346 -0.22922426462173462 0.1656624972820282
  -0.60253322124481201 -0.35292571783065796 -0.41671758890151978 -0.12939025461673737 0.23621989786624908 0.098282091319561005 0.044373258948326111 -0.18336355686187744 0.14557293057441711 0.16208809614181519 0.047294795513153076 -0.096790120005607605 -0.2094888836145401 -0.37200090289115906 -0.015454042702913284 0.27108538150787354 0.14478939771652222 -0.36911609768867493 -0.014694687910377979 0.016189247369766235 0.22309389710426331 -0.044134017080068588 -0.22669437527656555 -0.12787620723247528 0.25060722231864929 -0.33829766511917114 -0.084454946219921112 0.28016269207000732 0.13303957879543304 -0.41801786422729492 -0.051510993391275406 0.099043190479278564 0.28129705786705017 0.038427412509918213 -0.31862545013427734 -0.19042715430259705 0.35023397207260132 -0.12611097097396851 -0.14536663889884949 0.12512744963169098 0.10476270318031311 0.062097277492284775 -0.12555487453937531 0.057717535644769669 0.17777338624000549 0.12105501443147659 -0.070588000118732452 -0.10799696296453476 0.035401523113250732 0.12404517829418182 -0.27152737975120544 -0.11913695931434631 0.14871683716773987 0.54498296976089478 -0.11674721539020538 0.048696946352720261 0.020130570977926254 0.25300472974777222 0.2293858528137207 0.043187733739614487
  -0.50066977739334106 -0.023030150681734085 -0.027179151773452759 0.11563680320978165 0.12408673763275146 0.082834243774414062 0.33445695042610168 -0.0052149631083011627 0.11590109765529633 0.10629676282405853 -0.020520944148302078 0.18560792505741119 -0.097238831222057343 -0.090754546225070953 -0.046477131545543671 0.068605832755565643 0.12587085366249084 0.038300346583127975 -0.05110742524266243 -0.044934630393981934 0.046568214893341064 0.094045914709568024 0.082278221845626831 0.076767131686210632 0.19945058226585388 0.017160290852189064 -0.10524415969848633 -0.11491341888904572 0.14038114249706268 -0.0062980535440146923 -0.18136855959892273 -0.036086432635784149 0.041661597788333893 0.094991251826286316 0.10698027163743973 -0.023695215582847595 0.28421378135681152 0.21916277706623077 0.099343277513980865 -0.13970430195331573 0.11805404722690582 -0.032815132290124893 -0.18691074848175049 -0.083229191601276398 -0.10697116702795029 -0.19012507796287537 -0.14801004528999329 -0.19129642844200134 1.3314865827560425 0.60542464256286621 0.80753922462463379 -0.056145817041397095 -0.27929186820983887 -0.18456847965717316 -0.22181145846843719 -0.37620678544044495 -0.2679692804813385 -0.57943236827850342 -0.54229754209518433 -0.56647634506225586
  0.081040620803833008 0.27845749258995056 -0.10347110778093338 0.23528383672237396 0.36576768755912781 0.43404534459114075 0.32558804750442505 0.24709963798522949 0.19448325037956238 0.076673470437526703 0.01978650875389576 0.16567054390907288 -0.24881525337696075 0.24413023889064789 0.10032646358013153 0.41902396082878113 0.18097810447216034 0.2532256543636322 0.20798769593238831 0.045545730739831924 -0.022949421778321266 0.014940377324819565 -0.099956758320331573 0.14618678390979767 -0.14330640435218811 0.075238145887851715 0.29059275984764099 0.29368159174919128 -0.050816521048545837 0.0040850285440683365 0.075676821172237396 -0.17207282781600952 -0.11413384974002838 0.01612040214240551 -0.060656268149614334 0.013650324195623398 0.059198196977376938 0.038978498429059982 0.18760578334331512 -0.16708143055438995 -0.29261577129364014 -0.33392071723937988 -0.065581060945987701 -0.29499033093452454 -0.18435151875019073 -0.005136947613209486 -0.096658326685428619 -0.07658560574054718 0.59328186511993408 -0.60867351293563843 -0.055904649198055267 -1.0291985273361206 -0.66908961534500122 -0.33288726210594177 -0.30142229795455933 0.055219601839780807 0.18279629945755005 0.073440834879875183 0.33455279469490051 -0.22733332216739655
  -0.69673490524291992 -0.28426012396812439 -0.079010404646396637 -0.037257440388202667 -0.41610643267631531 -0.5117490291595459 -0.36078691482543945 -0.071783699095249176 -0.018336838111281395 0.15251161158084869 0.24949505925178528 0.23195603489875793 -0.075814321637153625 -0.28168007731437683 -0.14727148413658142 -0.11868686974048615 -0.21919548511505127 -0.28498899936676025 -0.28416633605957031 -0.0085865138098597527 0.022486962378025055 0.2505546510219574 0.28990843892097473 0.023982802405953407 0.043382097035646439 -0.23194544017314911 -0.04934370145201683 0.081893593072891235 -0.019395263865590096 -0.14280107617378235 -0.26448091864585876 0.047752093523740768 0.035405337810516357 0.14202508330345154 0.21545185148715973 0.0086989449337124825 0.1791723221540451 -0.099289007484912872 0.14921855926513672 0.31150978803634644 0.12752291560173035 -0.076343007385730743 -0.17599925398826599 0.0023873075842857361 -0.017272075638175011 -0.019900992512702942 0.06303907185792923 -0.0098177827894687653 -0.052503395825624466 -0.039499133825302124 0.32466018199920654 0.55071616172790527 0.18648950755596161 0.010830221697688103 -0.15233300626277924 -0.086417950689792633 0.050875358283519745 0.11676163971424103 0.01929616741836071 0.049855947494506836
  0.3684714138507843 -0.16955658793449402 -0.2528536319732666 0.083072207868099213 0.26439520716667175 -0.035626929253339767 0.063662685453891754 0.19263441860675812 0.072668634355068207 -0.148393914103508 -0.025197902694344521 0.056664112955331802 0.33573204278945923 -0.28425568342208862 -0.0955023393034935 0.020574809983372688 0.16158796846866608 -0.113326795399189 0.1889752596616745 0.27629777789115906 0.13181206583976746 -0.33918184041976929 -0.1252564936876297 -0.025797631591558456 0.12065804749727249 -0.35040125250816345 -0.095817297697067261 -0.049510255455970764 0.19987457990646362 -0.13934653997421265 0.22727784514427185 0.23963628709316254 0.091398954391479492 -0.42783406376838684 -0.14509536325931549 -0.043783348053693771 -0.06076529249548912 -0.18111366033554077 -0.033323455601930618 -0.025652816519141197 0.10866470634937286 -0.17630840837955475 0.032928228378295898 0.13451975584030151 0.045937191694974899 -0.32071244716644287 -0.078021742403507233 0.011756493709981441 -0.34241735935211182 -0.043679490685462952 -0.017715074121952057 0.10576093941926956 0.16597910225391388 -0.13197509944438934 -0.075265347957611084 0.16164502501487732 0.03377097100019455 -0.20366093516349792 -0.046855330467224121 0.060052726417779922
  0.077244080603122711 0.76083546876907349 0.50079309940338135 1.1524137258529663 0.13543429970741272 0.3833388090133667 0.1987355649471283 -0.57367295026779175 -0.46478179097175598 0.085370868444442749 -0.13872626423835754 0.16219078004360199 -0.45949986577033997 -0.10823835432529449 -0.087682291865348816 0.19839459657669067 0.042297214269638062 0.0062876492738723755 0.072624832391738892 0.044421814382076263 0.018640425056219101 0.097821183502674103 0.05944395437836647 0.17438289523124695 -0.59832155704498291 -0.68094146251678467 -0.35657769441604614 -0.57196980714797974 -0.20609593391418457 -0.2269313782453537 -0.19251690804958344 0.35430732369422913 0.12059436738491058 0.03174557164311409 0.22926165163516998 0.044969573616981506 -0.35202273726463318 -0.36769875884056091 -0.29171469807624817 -0.51908314228057861 -0.088954940438270569 -0.061753246933221817 -0.15492554008960724 0.28908076882362366 0.19118465483188629 -0.021357018500566483 0.027548601850867271 -0.071116402745246887 0.63601362705230713 0.37949204444885254 -0.20163838565349579 -0.17287155985832214 0.10568518191576004 0.27459049224853516 0.16827686131000519 -0.23140710592269897 0.12307047843933105 0.024395182728767395 -0.18113364279270172 -0.28500336408615112
  0.077965117990970612 -0.19344285130500793 -0.17998553812503815 -0.11414553970098495 -0.27334845066070557 -0.072925515472888947 -0.17734555900096893 0.19920077919960022 -0.06297340989112854 -0.14262758195400238 0.030909685418009758 -0.25597664713859558 -0.588420569896698 0.13889862596988678 -0.33376979827880859 0.40050283074378967 -0.0017562570283189416 0.043262973427772522 0.028858974575996399 0.040161192417144775 0.13686218857765198 -0.070340722799301147 0.083961203694343567 0.094968616962432861 -0.50865769386291504 0.57621312141418457 -0.25575077533721924 0.70955771207809448 -0.019174082204699516 0.0018416951643303037 0.036182846873998642 -0.1922212690114975 0.23608143627643585 -0.11458838731050491 -0.031851429492235184 0.17445012927055359 -0.24230821430683136 0.25354531407356262 -0.17860779166221619 0.48529848456382751 -0.16115477681159973 0.046506773680448532 0.02909274585545063 -0.17940934002399445 0.20187065005302429 -0.066494010388851166 -0.031681366264820099 0.13141666352748871 0.052241601049900055 -0.12162846326828003 -0.12303074449300766 0.13876712322235107 -0.33036425709724426 -0.069347955286502838 -0.1173434853553772 -0.22462378442287445 0.13117045164108276 -0.065581120550632477 -0.040034633129835129 0.10972809046506882
  -0.09103056788444519 -0.074117816984653473 -0.13880407810211182 -0.10743924230337143 -0.054069492965936661 0.16338951885700226 0.1325654536485672 0.34251260757446289 0.15096002817153931 -0.03907032310962677 0.10521537065505981 0.088998779654502869 0.23158988356590271 0.19844776391983032 -0.12308598309755325 0.10256451368331909 0.12822884321212769 0.30367416143417358 0.12771995365619659 0.050985224545001984 0.047242026776075363 0.065890870988368988 -0.0057108821347355843 0.029265513643622398 0.088455945253372192 0.16704118251800537 0.0007734179962426424 0.04853840172290802 -0.0046818777918815613 0.29668363928794861 0.23825106024742126 0.057612847536802292 -0.097385309636592865 0.035095386207103729 0.0037092501297593117 0.11426014453172684 -0.08231702446937561 0.084570206701755524 0.1174352765083313 0.068051263689994812 -0.14847531914710999 -0.037014394998550415 0.17068585753440857 0.14126038551330566 -0.070729091763496399 0.025513820350170135 -0.053307507187128067 0.21026347577571869 0.036926358938217163 -0.58080184459686279 0.26080894470214844 -0.28809148073196411 -0.47099205851554871 -0.51595443487167358 -0.11420729756355286 0.5815625786781311 0.38288146257400513 0.030044941231608391 0.021066008135676384 0.083531253039836884
  -0.044520184397697449 0.17709405720233917 0.18445490300655365 0.35611149668693542 0.22346389293670654 -5.0514572649262846e-06 0.063567563891410828 0.0062570106238126755 -0.13016718626022339 -0.20344902575016022 0.056463230401277542 0.16155190765857697 0.078010164201259613 0.028362926095724106 0.10962216556072235 0.20936739444732666 0.10326725989580154 -0.16694313287734985 0.035979125648736954 -0.016167258843779564 -0.27223297953605652 -0.26546898484230042 0.26543739438056946 -0.03781002014875412 0.098208636045455933 -0.088285118341445923 0.073792949318885803 0.18028908967971802 0.072457402944564819 -0.31180128455162048 0.05124611034989357 -0.028572939336299896 -0.30965322256088257 -0.21310174465179443 0.40183845162391663 -0.066265784204006195 0.15201649069786072 -0.10232903063297272 0.041381467133760452 0.32961565256118774 0.090906105935573578 -0.27575996518135071 0.057420976459980011 -0.078823260962963104 -0.26846954226493835 -0.078021824359893799 0.19393190741539001 -0.089514657855033875 0.46113082766532898 0.056682057678699493 0.10267630964517593 0.5535622239112854 0.14571927487850189 -0.19485551118850708 0.057019956409931183 -0.17344783246517181 -0.19929569959640503 0.035300485789775848 -0.051239825785160065 -0.200381800532341
  0.5815117359161377 -0.28901243209838867 -0.38295719027519226 0.60407626628875732 0.19908709824085236 -0.028315620496869087 0.072497129440307617 -0.18970836699008942 0.084284469485282898 0.1099323108792305 -0.30640873312950134 0.091406553983688354 0.36140146851539612 -0.16649854183197021 0.034797202795743942 0.2492319643497467 -0.071402616798877716 -0.12138105183839798 -0.10163188725709915 0.050628814846277237 -0.025222102180123329 -0.13328500092029572 -0.06753048300743103 0.055229086428880692 -0.084177255630493164 -0.033411242067813873 0.25377315282821655 -0.082813739776611328 -0.10386544466018677 -0.049444224685430527 -0.23833706974983215 0.1895148903131485 -0.047453172504901886 -0.28115358948707581 0.095826774835586548 -0.012293408624827862 -0.47143152356147766 0.11132309585809708 0.35447239875793457 -0.29348587989807129 -0.022613238543272018 0.012838361784815788 -0.2831973135471344 0.26195496320724487 -0.050649985671043396 -0.26447814702987671 0.15876917541027069 -0.036601744592189789 -0.67224764823913574 0.29126328229904175 0.47042292356491089 -0.29693523049354553 0.008429868146777153 0.065174683928489685 -0.33164271712303162 0.3583514392375946 -0.049414262175559998 -0.3151322603225708 0.19607214629650116 -0.14872239530086517
  -0.39855033159255981 0.2170642614364624 -0.012254854664206505 0.5006636381149292 0.13223649561405182 -0.20860344171524048 0.0062637189403176308 0.0054874233901500702 0.18005326390266418 0.095061749219894409 -0.08011152595281601 0.17513054609298706 -0.15634962916374207 -0.32238012552261353 -0.32350197434425354 0.035289689898490906 -0.0027002082206308842 0.072866752743721008 0.013022584840655327 0.022121211513876915 0.060100402683019638 0.19129231572151184 0.21135355532169342 0.16542361676692963 -0.43847864866256714 -0.51589137315750122 -0.51332920789718628 -0.15599240362644196 -0.053674962371587753 0.20690546929836273 0.070785388350486755 0.11792222410440445 -0.0020426118280738592 0.14561547338962555 0.14190967381000519 0.20864982903003693 -0.35988631844520569 -0.41621413826942444 -0.35762766003608704 -0.25127789378166199 -0.17842307686805725 -0.020607013255357742 0.050662115216255188 0.16414172947406769 0.013647350482642651 0.132259801030159 0.030057623982429504 0.10237511247396469 0.14805914461612701 0.11781160533428192 0.21159020066261292 0.038508359342813492 -0.31493911147117615 -0.40276595950126648 -0.10134467482566833 -0.092514254152774811 -0.12665855884552002 -0.030375529080629349 -0.034021750092506409 -0.070276066660881042
  0.10221453756093979 -0.57851248979568481 0.43015989661216736 -0.19997242093086243 -0.43841427564620972 -0.065108641982078552 0.062997676432132721 0.15835382044315338 0.076007157564163208 0.0064713279716670513 0.098182536661624908 0.05967993289232254 -0.69784796237945557 0.13609129190444946 0.29433545470237732 -0.10018257796764374 0.10229616612195969 0.25426158308982849 0.17066222429275513 -0.063210152089595795 -0.10297024995088577 0.15234902501106262 0.0036463795695453882 0.1071331575512886 -0.7412981390953064 0.68083477020263672 0.32026013731956482 0.022428998723626137 0.34761428833007812 0.30546420812606812 0.12748901546001434 -0.24186238646507263 -0.089643798768520355 0.084268376231193542 -0.18194596469402313 0.051330354064702988 -0.44739609956741333 0.3944624662399292 0.38800039887428284 -0.011508825235068798 0.011687272228300571 0.094843924045562744 0.051972419023513794 -0.15834268927574158 0.020620798692107201 -0.013347050175070763 -0.079973608255386353 -0.043375603854656219 -0.052390296012163162 -0.18022140860557556 0.17921747267246246 -0.23019865155220032 -0.40962952375411987 -0.1099967285990715 -0.046249236911535263 -0.08329068124294281 0.00147369469050318 -0.1967703253030777 -0.047812826931476593 -0.081417039036750793
  -0.21006637811660767 -0.27629038691520691 0.43934723734855652 -0.050462439656257629 -0.39617452025413513 -0.15385949611663818 0.10591276735067368 0.035892106592655182 0.034015297889709473 0.015328960493206978 -0.27512070536613464 -0.094216190278530121 -0.032096926122903824 -0.088977761566638947 -0.059497196227312088 0.21112723648548126 0.071359306573867798 -0.11499961465597153 0.16968421638011932 0.063795089721679688 0.042429164052009583 0.018900655210018158 -0.19732978940010071 -0.15884275734424591 0.13557019829750061 0.095114417374134064 -0.19820661842823029 0.24435994029045105 0.10233073681592941 -0.056779466569423676 0.09934244304895401 0.1610964834690094 0.048785552382469177 -0.072884209454059601 -0.1158779039978981 -0.11884292215108871 0.22721783816814423 0.2974364161491394 0.088770605623722076 0.18462927639484406 -0.21694767475128174 0.014734139665961266 0.0092479297891259193 0.11471626162528992 -0.055542651563882828 -0.20642419159412384 -0.0047824974171817303 -0.005955863744020462 -0.3523888885974884 0.27843230962753296 0.5262826681137085 -0.24036605656147003 -0.92798143625259399 0.01266814861446619 -0.1693817675113678 0.047305606305599213 -0.19575311243534088 -0.20812998712062836 0.4257487952709198 0.35889321565628052
  -0.59009355306625366 -0.19585144519805908 0.44708672165870667 0.61152303218841553 0.35216319561004639 -0.21074040234088898 -0.29908645153045654 -0.035856619477272034 0.071163922548294067 -0.13322912156581879 -0.096311479806900024 -0.075851522386074066 -0.17625188827514648 -0.41195398569107056 0.21209718286991119 0.33161279559135437 0.22970232367515564 -0.22364687919616699 -0.37116646766662598 -0.13217957317829132 0.25405403971672058 0.26849693059921265 -0.03517460823059082 -0.31751802563667297 -0.16777472198009491 -0.3251475989818573 0.20930980145931244 0.32514333724975586 0.23496940732002258 -0.17807044088840485 -0.18756833672523499 -0.17518974840641022 0.094951726496219635 0.16743947565555573 -0.081916704773902893 -0.17418970167636871 -0.04190339520573616 -0.00069560518022626638 0.22144538164138794 0.0087373200803995132 -0.064126364886760712 -0.078337743878364563 0.020338088274002075 -0.12986095249652863 -0.13712507486343384 -0.10395397990942001 -0.01531520951539278 0.10366807132959366 -0.14920465648174286 0.24280610680580139 -0.045426324009895325 -0.17017854750156403 -0.077531911432743073 0.2299908846616745 0.29196837544441223 -0.063651695847511292 -0.17364352941513062 -0.036429334431886673 0.071986019611358643 0.18983431160449982
  0.083244502544403076 -0.11338561773300171 0.07123875617980957 0.25186300277709961 -0.30947300791740417 0.18306779861450195 0.0097874719649553299 -0.032336242496967316 -0.034386195242404938 0.10362683981657028 -0.082908757030963898 0.12347346544265747 0.070951968431472778 -0.22128720581531525 0.16495092213153839 0.28176337480545044 -0.49484354257583618 0.25110793113708496 -0.069332949817180634 -0.039992820471525192 0.1680428683757782 -0.010502551682293415 -0.16248475015163422 0.2757810652256012 0.11522263288497925 -0.25635150074958801 0.11758513748645782 0.18909308314323425 -0.50640583038330078 0.16763509809970856 -0.21414148807525635 -0.088384203612804413 0.14181080460548401 -0.11122482270002365 -0.13654114305973053 0.27514159679412842 0.23366114497184753 -0.23241662979125977 -0.090615421533584595 0.15196648240089417 -0.29182237386703491 0.046582087874412537 -0.25242435932159424 -0.028775349259376526 0.077479839324951172 -0.039407256990671158 -0.038306713104248047 0.15451036393642426 0.56355464458465576 0.082141019403934479 -0.20092920958995819 0.27726870775222778 -0.070109069347381592 0.083013512194156647 -0.23227384686470032 -0.023582575842738152 -0.03677697479724884 -0.0097008394077420235 0.067694023251533508 -0.034532032907009125
  -0.1086624339222908 0.71515238285064697 0.76794886589050293 0.16368594765663147 -0.29623213410377502 0.15524570643901825 -0.11444655805826187 -0.45818156003952026 -0.26823711395263672 0.10572519153356552 0.20440097153186798 0.26046991348266602 -0.26282289624214172 0.40115934610366821 0.28610691428184509 -0.039845123887062073 0.15674418210983276 0.20944015681743622 -0.17565378546714783 -0.29079717397689819 -0.15077957510948181 0.17602604627609253 -0.039763025939464569 -0.069776788353919983 -0.12458103895187378 0.34135344624519348 -0.060292139649391174 -0.064123190939426422 0.43514165282249451 0.16298186779022217 -0.17832475900650024 -0.21629451215267181 0.01693965308368206 0.057293988764286041 -0.25056153535842896 -0.13913869857788086 0.10513732582330704 -0.17671963572502136 -0.22777852416038513 -0.074599094688892365 0.41465890407562256 0.12474938482046127 0.044951111078262329 -0.0080114500597119331 0.10351948440074921 -0.16296552121639252 -0.10880745947360992 -0.12504833936691284 0.18711166083812714 -0.67504942417144775 -0.40193092823028564 -0.17981827259063721 0.23857469856739044 0.10997958481311798 0.18843507766723633 -0.0017978441901504993 0.10627523809671402 -0.25494563579559326 0.01142613124102354 -0.14382568001747131
  0.22590436041355133 0.0075818644836544991 -0.294514000415802 0.45366144180297852 -0.033470124006271362 0.23487553000450134 -0.089881688356399536 -0.037980899214744568 0.31315022706985474 -0.25484201312065125 0.15793861448764801 0.015330311842262745 0.33622407913208008 0.11699217557907104 -0.23707424104213715 0.34693923592567444 -0.10535668581724167 0.25122103095054626 -0.088251516222953796 -0.15677648782730103 0.19441673159599304 -0.27673566341400146 0.153896763920784 0.038938380777835846 0.28825780749320984 0.10164157301187515 -0.18286758661270142 0.15371353924274445 -0.22304150462150574 0.26193377375602722 -0.07062125951051712 -0.13204355537891388 0.17323185503482819 -0.20880040526390076 0.014084775932133198 -0.068158268928527832 0.16380494832992554 0.11721964180469513 -0.095991276204586029 0.045898105949163437 -0.19864653050899506 0.20203900337219238 -0.09843435138463974 -0.062498573213815689 0.1870085597038269 -0.079917646944522858 -0.11662858724594116 -0.22093352675437927 0.097583942115306854 0.21371753513813019 -0.013170577585697174 0.074968025088310242 -0.14200016856193542 0.14062698185443878 -0.11659820377826691 -0.060857407748699188 0.13012596964836121 -0.11394719034433365 -0.23471391201019287 -0.27736037969589233
  0.46958112716674805 0.3582862913608551 0.38328051567077637 -0.68941426277160645 -0.055663660168647766 0.098075218498706818 -0.26689907908439636 -0.10436364263296127 -0.26581147313117981 0.15684930980205536 0.17174369096755981 -0.12748138606548309 0.16247989237308502 0.17969918251037598 0.2760491669178009 -0.43417870998382568 0.16680300235748291 0.039675693958997726 -0.035531885921955109 0.044172745198011398 -0.183066725730896 0.028020983561873436 0.0040564541704952717 -0.14243318140506744 0.034348201006650925 0.2607065737247467 0.29479449987411499 -0.22575241327285767 0.30168312788009644 -0.11536067724227905 0.069430455565452576 -0.0038936368655413389 -0.10340587794780731 -0.0030992128886282444 -0.11540786921977997 -0.15100808441638947 0.060706302523612976 0.18564634025096893 0.28896093368530273 -0.2849617600440979 0.15776321291923523 -0.18565861880779266 -0.086192645132541656 -0.0019632782787084579 0.016853025183081627 0.14746488630771637 -0.011887270025908947 -0.13524805009365082 0.031553823500871658 0.033395495265722275 0.27563658356666565 -0.45748162269592285 0.009393828921020031 -0.26554584503173828 -0.23561885952949524 -0.091375671327114105 0.0067907390184700489 0.28241515159606934 0.1650116890668869 0.022973813116550446
  0.0021182680502533913 0.052283544093370438 0.059948056936264038 -0.37964338064193726 0.18679951131343842 0.2121427059173584 -0.21071940660476685 -0.1510278582572937 0.38263192772865295 0.34436526894569397 0.040556039661169052 -0.11848355829715729 0.2423827052116394 0.17220255732536316 0.081682257354259491 -0.19501882791519165 0.18014872074127197 0.25201267004013062 -0.081871815025806427 -0.32482236623764038 0.27933338284492493 0.18797844648361206 -0.10986132174730301 -0.12703533470630646 0.30511960387229919 0.24857230484485626 0.040975037962198257 -0.026175122708082199 0.11131114512681961 0.27407476305961609 0.0020469357259571552 -0.37026676535606384 0.18486464023590088 0.060459256172180176 -0.17408269643783569 -0.029837848618626595 0.21688544750213623 0.16362974047660828 -0.022157186642289162 0.061422914266586304 0.085323512554168701 0.16883672773838043 -0.049512244760990143 -0.18479777872562408 0.17179840803146362 0.030889863148331642 -0.12379495054483414 0.10523869097232819 -0.058336347341537476 0.15647992491722107 -0.0047315759584307671 0.17622216045856476 0.14078950881958008 0.033391904085874557 -0.098598293960094452 0.0019169795559719205 0.20013999938964844 0.092608824372291565 -0.11053196340799332 0.25937888026237488
  0.084580950438976288 -0.083962306380271912 -0.21268308162689209 0.056879397481679916 0.37512454390525818 -0.11569172888994217 -0.22376623749732971 0.053590893745422363 0.19461588561534882 0.0025203104596585035 -0.11617690324783325 -0.053008954972028732 0.061374668031930923 -0.40121734142303467 -0.22657613456249237 0.14966237545013428 0.35417017340660095 0.16207952797412872 -0.13648174703121185 -0.076629504561424255 0.094245836138725281 0.037956062704324722 -0.13674221932888031 -0.069547377526760101 -0.016416106373071671 -0.58523714542388916 -0.36019444465637207 0.30006355047225952 0.50718593597412109 0.2373674213886261 -0.018404575064778328 -0.11926621943712234 0.018574453890323639 0.059925653040409088 -0.17188489437103271 -0.070323176681995392 0.11253068596124649 -0.40482243895530701 -0.080096811056137085 0.33141577243804932 0.31982618570327759 0.10932312905788422 -0.037028800696134567 -0.12154233455657959 -0.10841250419616699 -0.037689298391342163 -0.1793060302734375 -0.071308732032775879 0.41019636392593384 -0.37320902943611145 0.13454072177410126 0.14625844359397888 -0.1468491405248642 -0.046553559601306915 0.0092496685683727264 0.06634753942489624 -0.076446093618869781 -0.10440832376480103 0.031359117478132248 -0.079257525503635406
  0.23308722674846649 -0.12086136639118195 -0.029566381126642227 0.15754705667495728 0.25271454453468323 -0.022313684225082397 0.054836045950651169 -0.062946826219558716 -0.18618609011173248 0.0065805749036371708 -0.1205974742770195 0.046414993703365326 0.11306402832269669 -0.15437674522399902 -0.004079451784491539 0.14168864488601685 0.20569999516010284 -0.076503679156303406 0.14323870837688446 -0.10146074742078781 -0.21261198818683624 0.17685921490192413 -0.18515786528587341 0.14364069700241089 0.1304585188627243 -0.21264639496803284 0.013940435834228992 0.032723665237426758 0.13223400712013245 -0.17724497616291046 0.23450520634651184 -0.1619219183921814 -0.26103094220161438 0.34039798378944397 -0.32569029927253723 0.18092204630374908 0.16364538669586182 -0.18201161921024323 0.038755882531404495 0.043681975454092026 0.089108891785144806 -0.16520975530147552 0.23160628974437714 -0.1958606094121933 -0.20055590569972992 0.34421402215957642 -0.33556017279624939 0.16209614276885986 0.2347140908241272 -0.045865833759307861 0.0082287946715950966 0.11224671453237534 0.18110707402229309 -0.027719493955373764 0.35138970613479614 -0.1709190309047699 -0.1606987863779068 0.22195799648761749 -0.34328103065490723 0.10175612568855286
  1.0436073541641235 0.33506777882575989 0.204570472240448 0.80694460868835449 0.66136717796325684 0.19933675229549408 0.082286879420280457 -0.17788095772266388 -0.1873028576374054 -0.057305585592985153 -0.24630355834960938 -0.015611834824085236 0.19187301397323608 0.15076474845409393 0.11267987638711929 0.31363016366958618 0.3039976954460144 0.17628772556781769 0.1116204634308815 -0.089029774069786072 -0.05902726948261261 0.033781949430704117 -0.065478846430778503 -0.0041967583820223808 -0.41607505083084106 -0.14374968409538269 -0.094885401427745819 -0.18003456294536591 -0.009912257082760334 0.12314070016145706 0.12516610324382782 0.085581645369529724 0.1456453800201416 -0.0006841153372079134 0.055730123072862625 0.077230699360370636 -0.97785991430282593 -0.33862325549125671 -0.27666601538658142 -0.49886813759803772 -0.11262474954128265 0.07774081826210022 0.045947961509227753 0.30730676651000977 0.19609425961971283 -0.084820427000522614 0.061213694512844086 -0.0030037516262382269 -0.4995867908000946 -0.30752250552177429 -0.084488369524478912 -0.51162374019622803 -0.22241014242172241 -0.11146032065153122 -0.055890671908855438 0.44312971830368042 0.26441565155982971 -0.0025769178755581379 0.14207157492637634 -0.18695901334285736
  0.20593161880970001 0.14623890817165375 0.097674749791622162 -0.033930860459804535 -0.1249861940741539 0.17835740745067596 -0.21171778440475464 -0.045527022331953049 -0.16309797763824463 0.0069951261393725872 0.33236551284790039 0.33579805493354797 0.19736975431442261 -0.10069748014211655 -0.2713702917098999 -0.086081497371196747 -0.081999264657497406 0.19151420891284943 -0.23027883470058441 -0.13578569889068604 -0.15263521671295166 0.17577147483825684 0.19325949251651764 0.34211069345474243 -0.010337512940168381 -0.20266067981719971 -0.2994627058506012 0.02236892469227314 0.069522693753242493 0.17924827337265015 -0.1425703763961792 -0.1035594642162323 -0.18362447619438171 0.22723530232906342 0.13695473968982697 0.40958234667778015 -0.14342552423477173 -0.32776382565498352 -0.20341718196868896 0.10195831209421158 0.084541648626327515 0.11895497143268585 -0.043728373944759369 0.068427883088588715 -0.26756259799003601 0.071787916123867035 0.25627815723419189 0.32182973623275757 -0.054893359541893005 -0.43839344382286072 -0.013229077681899071 0.15832413733005524 0.022399215027689934 0.10478321462869644 0.025926066562533379 0.21953301131725311 -0.35509246587753296 -0.18553571403026581 0.34372046589851379 0.12707911431789398
  0.23022826015949249 0.081965819001197815 0.38495689630508423 0.24660161137580872 0.22318588197231293 -0.025970723479986191 0.069433636963367462 -0.013943471945822239 -0.12311293184757233 0.050865691155195236 0.091971553862094879 -0.053170584142208099 -0.70815551280975342 -0.20438778400421143 -0.1365111917257309 -0.34162107110023499 0.064849108457565308 0.11481340229511261 0.081020481884479523 0.38798120617866516 0.16260361671447754 -0.0063317632302641869 0.24442987143993378 0.14338988065719604 -0.80752211809158325 -0.15427596867084503 -0.26150032877922058 -0.51866728067398071 -0.017427766695618629 -0.0049058552831411362 -0.057176955044269562 0.46975582838058472 0.23821517825126648 -0.008084968663752079 0.1140444278717041 0.16703782975673676 -0.60027587413787842 -0.20177184045314789 -0.18912228941917419 -0.24173319339752197 -0.10569716989994049 -0.087310180068016052 -0.085066080093383789 0.28583201766014099 0.17792984843254089 0.13327813148498535 0.13594572246074677 0.098077535629272461 -0.11529653519392014 -0.11287296563386917 -0.0088716223835945129 0.15430642664432526 -0.079371713101863861 -0.15065702795982361 0.026178302243351936 -0.010335648432374001 0.20573636889457703 0.27072367072105408 0.15216743946075439 0.13917861878871918
  -0.44842308759689331 0.014004616066813469 0.1432659924030304 0.079918816685676575 0.12050160020589828 0.37011200189590454 -0.16640233993530273 0.1815631091594696 -0.10159033536911011 0.1583750993013382 0.081883467733860016 -0.12818218767642975 -0.38227066397666931 0.013715591281652451 0.11586607247591019 0.2259192168712616 0.23484784364700317 0.25676289200782776 -0.26384195685386658 0.31227001547813416 -0.18305455148220062 0.16744381189346313 -0.19829937815666199 -0.026404080912470818 -0.27399447560310364 0.12541529536247253 0.12057048827409744 0.29654338955879211 0.30062249302864075 0.21601156890392303 -0.34884938597679138 0.32597756385803223 -0.18969094753265381 0.2276214212179184 -0.34127122163772583 0.018283823505043983 -0.27118492126464844 0.13385619223117828 0.08558192104101181 0.14652557671070099 0.19499814510345459 0.21437408030033112 -0.29053354263305664 0.26089805364608765 -0.045902594923973083 0.13724154233932495 -0.24600651860237122 -0.041337408125400543 -0.7408716082572937 -0.041616793721914291 0.14626248180866241 -0.14460980892181396 0.11140298843383789 0.27718764543533325 -0.25206071138381958 0.27261444926261902 0.10328476130962372 0.13417531549930573 0.062670156359672546 -0.02346518263220787
  -0.061009865254163742 0.039967093616724014 -0.1615932434797287 -0.074679523706436157 -0.07824968546628952 0.074561744928359985 0.12333763390779495 0.069063939154148102 -0.10663553327322006 0.18888647854328156 0.041662245988845825 0.052191741764545441 -0.097407713532447815 -0.35619345307350159 -0.15064226090908051 -0.25323045253753662 -0.2701316773891449 -0.04021158441901207 -0.04247887060046196 0.23553675413131714 -0.040626313537359238 0.051484536379575729 0.094672560691833496 0.033415231853723526 -0.10059733688831329 -0.54569298028945923 -0.29999545216560364 -0.30362367630004883 -0.19573917984962463 -0.019669583067297935 0.01737184077501297 0.37437868118286133 0.10070329159498215 0.06827884167432785 0.077876880764961243 -0.04814133420586586 -0.073546141386032104 -0.33344733715057373 -0.4502817690372467 -0.079739198088645935 -0.045769836753606796 -0.045202441513538361 0.074859075248241425 0.24623614549636841 0.18058782815933228 0.096548929810523987 -0.00069229910150170326 -0.072911553084850311 0.089334934949874878 0.23226170241832733 -0.33824875950813293 0.2593514621257782 0.34907907247543335 0.034271489828824997 0.31358438730239868 0.099250480532646179 0.21751509606838226 0.081494316458702087 -0.10384584218263626 0.024197515100240707
  -0.013668808154761791 -0.12550824880599976 0.058577701449394226 -0.55631417036056519 -0.39286661148071289 -0.10053004324436188 0.2061598151922226 0.018106864765286446 -0.14285843074321747 0.036940492689609528 0.084358423948287964 -0.063888520002365112 -0.32195457816123962 0.0063498653471469879 0.15507997572422028 -0.39972245693206787 -0.16418135166168213 -0.026039855554699898 0.27568060159683228 0.24946810305118561 0.014236196875572205 -0.038134101778268814 0.0054137492552399635 0.11499890685081482 -0.16695564985275269 0.092637129127979279 0.066653870046138763 -0.3121943473815918 0.022626608610153198 0.045561574399471283 0.24357500672340393 0.2575487494468689 0.11547806859016418 -0.066370688378810883 -0.088274724781513214 0.12419731169939041 0.27520421147346497 0.14492562413215637 0.023510634899139404 -0.25278377532958984 0.0980868861079216 0.12132378667593002 0.13092508912086487 0.12828069925308228 0.11257486790418625 -0.078175909817218781 -0.012763707898557186 0.0070500257425010204 -0.060342017561197281 0.070168301463127136 -0.15333518385887146 -0.25879654288291931 0.26738333702087402 0.010076390579342842 0.038001000881195068 -0.11153599619865417 -0.0259280726313591 -0.045218341052532196 0.0085298046469688416 -0.020492773503065109
  -0.62762993574142456 -0.025874806568026543 0.68778908252716064 0.48612606525421143 -0.44509133696556091 -0.38607186079025269 -0.033640209585428238 0.61159288883209229 0.16411224007606506 -0.27904871106147766 0.066304951906204224 0.32513511180877686 0.16247159242630005 0.28525769710540771 0.040478553622961044 0.29615199565887451 0.051543340086936951 -0.011874178424477577 0.0093271201476454735 0.18956585228443146 0.083944104611873627 -0.024455549195408821 -0.040456179529428482 0.064687415957450867 0.51892006397247314 0.46953272819519043 -0.15418374538421631 -0.0061163199134171009 0.14435581862926483 0.36314719915390015 0.11600986123085022 -0.2706817090511322 -0.17476508021354675 0.070541366934776306 0.10178201645612717 -0.10269555449485779 0.18670767545700073 0.11778529733419418 -0.28144517540931702 -0.19339175522327423 0.21438707411289215 0.32709473371505737 0.22253300249576569 -0.42043116688728333 -0.20870895683765411 0.14502641558647156 0.0066914311610162258 -0.14812034368515015 0.37800899147987366 -0.82073557376861572 -0.92035162448883057 -0.99926877021789551 0.26835337281227112 0.24615944921970367 0.032212518155574799 -0.1351708322763443 0.17896835505962372 0.12210030853748322 -0.11541695147752762 -0.39411604404449463
  0.23288922011852264 -0.61865466833114624 -0.42881590127944946 -0.32012569904327393 0.37265431880950928 0.12918618321418762 0.13740172982215881 0.11615662276744843 0.14131830632686615 -0.18466039001941681 -0.29330268502235413 -0.28654450178146362 0.10778430104255676 -0.27342349290847778 -0.32572031021118164 -0.23152421414852142 0.29106259346008301 0.19848264753818512 -0.12355437129735947 -0.12761279940605164 0.062897652387619019 -0.013387870043516159 -0.020382262766361237 -0.20667591691017151 -0.082614347338676453 0.18491348624229431 -0.094446182250976562 -0.03650159016251564 0.18845263123512268 0.30120605230331421 -0.17750391364097595 -0.22798198461532593 -0.064367212355136871 0.064529597759246826 0.17058630287647247 -0.11282741278409958 -0.054906107485294342 0.46520841121673584 0.22244185209274292 0.16611778736114502 0.01684458926320076 0.14194566011428833 -0.015523134730756283 -0.23354120552539825 -0.19324387609958649 0.061292711645364761 0.12100302428007126 0.065259091556072235 -0.25459250807762146 0.66963917016983032 0.50897181034088135 0.58256453275680542 0.0258916225284338 -0.049734611064195633 -0.051861550658941269 -0.41657060384750366 -0.27979856729507446 -0.13959065079689026 -0.24655188620090485 0.31772062182426453
  0.075605876743793488 0.18150833249092102 -0.2449699193239212 0.10036415606737137 0.078110456466674805 -0.051203154027462006 -0.21116873621940613 -0.02059527114033699 -0.045418329536914825 0.0010260054841637611 -0.014991448260843754 0.17830768227577209 0.26584592461585999 0.060098979622125626 -0.28262919187545776 0.081609062850475311 0.24345634877681732 -0.074217885732650757 -0.26007261872291565 0.20255103707313538 0.084673047065734863 -0.08206012099981308 -0.034998349845409393 0.021238557994365692 0.26364386081695557 0.020701780915260315 -0.46658489108085632 0.12580229341983795 0.30961617827415466 -0.0093749845400452614 -0.22946284711360931 0.39668339490890503 0.19017796218395233 -0.071304082870483398 0.031217217445373535 0.030310975387692451 0.28510448336601257 0.017929419875144958 -0.32787573337554932 0.13888846337795258 0.23860915005207062 -0.030646942555904388 -0.21773836016654968 0.40934920310974121 0.13138504326343536 -0.14216546714305878 0.064245708286762238 0.10376580059528351 0.16403010487556458 -0.23387761414051056 -0.20787283778190613 0.12233120203018188 0.076749898493289948 -0.23106181621551514 -0.25207945704460144 0.2735770046710968 0.043383687734603882 -0.078492313623428345 0.058049321174621582 0.20890039205551147
  0.33552923798561096 0.32094970345497131 -0.012796339578926563 0.58164215087890625 -0.11098948866128922 0.13802701234817505 0.04053356871008873 -0.64434987306594849 -0.035678841173648834 0.25441303849220276 -0.11344603449106216 0.37758001685142517 -0.11095942556858063 0.10504195839166641 -0.23698098957538605 0.013719045557081699 -0.054600808769464493 0.18398697674274445 0.16703648865222931 -0.29458847641944885 -0.11629296839237213 0.14491678774356842 -0.079870060086250305 0.13253593444824219 -0.28912568092346191 0.11454039067029953 -0.11444564908742905 -0.35275992751121521 0.097632020711898804 0.10178055614233017 0.14637725055217743 0.055475283414125443 -0.18704816699028015 -0.092171527445316315 0.0045320768840610981 -0.054400276392698288 -0.43997389078140259 -0.013846075162291527 0.18060107529163361 -0.3258366584777832 0.18406964838504791 -0.097308620810508728 0.017021825537085533 0.36537584662437439 -0.094955921173095703 -0.18575762212276459 0.12745882570743561 -0.058604583144187927 0.32702445983886719 -0.21754324436187744 0.5413702130317688 -0.14352734386920929 0.024730551987886429 -0.41918107867240906 -0.2474675178527832 0.40260359644889832 0.072475776076316833 -0.2706027626991272 0.19855524599552155 -0.12439251691102982
  -0.49837270379066467 -0.22850438952445984 -0.18587355315685272 0.095899097621440887 0.059554051607847214 -0.16937831044197083 0.050072841346263885 -0.11155868321657181 -0.063771039247512817 0.041890133172273636 -0.061802133917808533 -0.19639816880226135 -0.36543473601341248 -0.34415730834007263 0.070559851825237274 0.09583667665719986 0.017461992800235748 -0.26853793859481812 0.015069609507918358 0.033199284225702286 0.10445951670408249 0.0059287082403898239 -0.051744982600212097 -0.10158495604991913 -0.27236261963844299 -0.29411086440086365 0.20236216485500336 0.16815665364265442 0.12797175347805023 -0.25180083513259888 -0.081682339310646057 0.017970576882362366 0.14543865621089935 -0.028395000845193863 -0.078507900238037109 -0.036791484802961349 -0.22178143262863159 -0.24906393885612488 0.20302410423755646 0.12555846571922302 0.1094941645860672 -0.19107939302921295 -0.064555011689662933 0.030898701399564743 0.15837794542312622 -0.027140002697706223 -0.057952959090471268 -0.08955036848783493 -0.66380870342254639 -0.33276897668838501 0.18843504786491394 0.17343540489673615 0.20241528749465942 -0.2296062558889389 0.007055177353322506 0.052860457450151443 0.13209980726242065 0.070383161306381226 -0.18090352416038513 -0.02955794520676136
  -0.65100663900375366 0.35192710161209106 -0.20428575575351715 -0.018100112676620483 -0.12227179110050201 -0.12728869915008545 0.0036709695123136044 0.26915010809898376 -0.021703829988837242 -0.10470166802406311 0.029330231249332428 0.018546668812632561 -0.61189371347427368 0.13877792656421661 -0.1827380508184433 0.031782791018486023 -0.082290388643741608 0.014676780439913273 -0.062391661107540131 0.25664794445037842 0.075750522315502167 -0.054301254451274872 -0.0727987140417099 -0.130257248878479 -0.31777298450469971 0.16884715855121613 -0.19003652036190033 0.13968667387962341 -0.04079229012131691 0.050677496939897537 -0.10072270035743713 0.22563193738460541 0.10319256037473679 0.13892428576946259 -0.120286725461483 -0.10719233751296997 -0.23144663870334625 0.18400035798549652 -0.17557758092880249 0.17648626863956451 -0.077787496149539948 -0.0061089643277227879 -0.031127193942666054 0.21681898832321167 0.015966989099979401 0.28782114386558533 -0.067297801375389099 0.091861657798290253 -0.22854995727539062 0.20070019364356995 0.017926311120390892 0.2743297815322876 -0.24024118483066559 -0.2111828476190567 0.01494276151061058 0.06581299751996994 -0.24160176515579224 0.3078581690788269 -0.086611308157444 0.41986608505249023
  -0.0073287473060190678 -0.22992312908172607 -0.4343319833278656 -0.41803878545761108 -0.14338001608848572 -0.15810437500476837 -0.2956826388835907 -0.23535151779651642 -0.13558503985404968 -0.084621980786323547 0.064147785305976868 0.079092599451541901 -0.10135912895202637 -0.088562160730361938 -0.13479246199131012 -0.14837007224559784 0.081909202039241791 -0.067738771438598633 -0.12724272906780243 0.045617610216140747 0.091940179467201233 0.0070518963038921356 -0.10250400006771088 -0.033845577389001846 -0.14278361201286316 -0.15053725242614746 -0.2757527232170105 -0.044547144323587418 0.19056031107902527 0.011453728191554546 0.017472531646490097 0.19612476229667664 0.2666114866733551 0.1589076817035675 -0.019496705383062363 0.021848537027835846 -0.16809101402759552 -0.025188257917761803 -0.37277442216873169 -0.038371067494153976 0.12920404970645905 0.019116800278425217 -0.086857609450817108 -0.0019369636429473758 0.035584818571805954 -0.12128237634897232 -0.12642982602119446 0.032031167298555374 -0.22025902569293976 -0.087685711681842804 -0.64863771200180054 -0.12915576994419098 0.044681809842586517 -0.08878595381975174 -0.34602522850036621 -0.20004990696907043 -0.12472444027662277 -0.098230883479118347 -0.081240996718406677 0.098471939563751221
  0.64157712459564209 -0.5066065788269043 0.0069282185286283493 -0.44814011454582214 -0.56070870161056519 -0.31412643194198608 -0.39222273230552673 -0.16452653706073761 -0.12425682693719864 -0.23391264677047729 0.082658708095550537 -0.40424066781997681 0.23218323290348053 0.21633033454418182 0.049563392996788025 -0.17854419350624084 -0.15582980215549469 -0.29635143280029297 -0.22430546581745148 -0.024003535509109497 -0.12872599065303802 -0.038487173616886139 -0.031719021499156952 -0.11917616426944733 0.17921209335327148 0.69001513719558716 0.39315009117126465 0.24477104842662811 0.050996500998735428 -0.17298458516597748 -0.061971407383680344 -0.030372124165296555 -0.046738564968109131 0.043223761022090912 -0.067782998085021973 0.022279007360339165 -0.11584854125976562 0.29629114270210266 0.071915701031684875 0.24890139698982239 0.19558815658092499 0.20982411503791809 0.11361508816480637 -0.062637209892272949 0.051627296954393387 0.070045508444309235 0.017509911209344864 0.2071412056684494 -0.31032919883728027 -0.19793359935283661 -0.54647547006607056 -0.26087647676467896 0.20358431339263916 0.34172552824020386 0.23592562973499298 0.087145283818244934 0.20764939486980438 0.26445120573043823 0.061361156404018402 0.33014947175979614
  -0.22240343689918518 0.082708530128002167 0.043775450438261032 -0.031875215470790863 -0.12870128452777863 0.073666848242282867 -0.029816042631864548 -0.094132430851459503 0.098177537322044373 0.081353336572647095 -0.12093660980463028 0.11597428470849991 0.023643318563699722 0.078148752450942993 0.0987662672996521 0.18386271595954895 -0.037483803927898407 0.055537737905979156 -0.020661339163780212 0.020783128216862679 0.077890060842037201 -0.015859875828027725 -0.13710977137088776 0.12387885898351669 0.20250707864761353 0.0020452460739761591 -0.19771708548069 0.28045254945755005 0.13740783929824829 0.021485663950443268 0.024289319291710854 0.13569945096969604 -0.015928074717521667 0.024383040145039558 -0.099560849368572235 0.12737590074539185 0.40480920672416687 0.14093694090843201 -0.55847609043121338 0.30796244740486145 0.42323073744773865 -0.094967976212501526 0.0012198194162920117 0.17960165441036224 -0.21506781876087189 0.039258919656276703 0.00025260564871132374 0.05346360057592392 0.48089057207107544 0.21158455312252045 -0.96752947568893433 0.33744564652442932 0.72869449853897095 -0.24689535796642303 -0.011563945561647415 0.13913276791572571 -0.39498883485794067 0.11252067238092422 0.064798802137374878 -0.010369255207479
  -0.14746217429637909 0.26177471876144409 0.346406489610672 0.037386056035757065 -0.0077041201293468475 -0.011379961855709553 -0.17000356316566467 0.1308237761259079 -0.033801395446062088 0.031527906656265259 -0.075803734362125397 0.15279646217823029 -0.18401306867599487 0.20767708122730255 0.1681363433599472 -0.3165631890296936 0.10883751511573792 0.084780111908912659 -0.21632729470729828 0.29799455404281616 -0.14810210466384888 -0.069761037826538086 0.085710629820823669 -0.00081926945131272078 -0.34099814295768738 0.31817889213562012 0.11238893866539001 -0.2889382541179657 0.22086535394191742 0.032209731638431549 -0.098026126623153687 0.37217599153518677 -0.10085591673851013 -0.14376309514045715 0.10938578099012375 0.039712727069854736 -0.28306248784065247 0.23648208379745483 0.073599711060523987 -0.17732809484004974 0.13941255211830139 -0.12393852323293686 0.076652780175209045 0.22839550673961639 0.041762750595808029 -0.15566360950469971 0.082705549895763397 0.0054372409358620644 -0.12310433387756348 -0.038766350597143173 0.01502563338726759 -0.085982739925384521 -0.087197884917259216 -0.38141775131225586 0.07422202080488205 0.075138978660106659 0.16748800873756409 0.022968016564846039 0.012416503392159939 -0.08467477560043335
  0.29791092872619629 0.3638647198677063 0.033918663859367371 0.45084384083747864 -0.14699815213680267 -0.24659900367259979 -0.26711642742156982 -0.50677084922790527 -0.40624558925628662 0.13646334409713745 0.21172291040420532 -0.012408247217535973 0.40286216139793396 -0.1315913200378418 -0.38036668300628662 0.0032725371420383453 0.1560206413269043 -0.09967341274023056 -0.31653088331222534 -0.27387189865112305 -0.062531255185604095 0.15172065794467926 0.036587003618478775 -0.063111133873462677 0.31703153252601624 -0.078254789113998413 -0.40675008296966553 0.040270194411277771 0.34021648764610291 -0.053109955042600632 -0.23996682465076447 -0.21873828768730164 0.021301029250025749 0.14309470355510712 -0.11599346995353699 -0.073276124894618988 0.049372024834156036 -0.10104718804359436 -0.1918807327747345 0.07184552401304245 0.28001025319099426 0.097303003072738647 -0.051207438111305237 -0.039380654692649841 0.067526251077651978 0.048021532595157623 -0.088049106299877167 -0.036933071911334991 0.059548553079366684 -0.10154664516448975 0.35571137070655823 0.072707675397396088 0.0095107974484562874 0.079592220485210419 0.069869622588157654 0.037005383521318436 -0.11666218191385269 -0.20709455013275146 0.024634817615151405 0.13183088600635529
  -0.14089444279670715 0.034110959619283676 -0.05431167408823967 -0.22106650471687317 0.14074693620204926 0.1083025336265564 0.036875218152999878 -0.16700969636440277 0.14630819857120514 0.077664777636528015 -0.2117796391248703 -0.051535379141569138 -0.18406969308853149 -0.079838179051876068 0.078791186213493347 -0.25493037700653076 -0.042943205684423447 0.2098233699798584 -0.06361350417137146 -0.18698623776435852 0.40519210696220398 0.031081322580575943 -0.33117622137069702 0.054451745003461838 -0.21430942416191101 -0.12640479207038879 0.13340264558792114 -0.31851688027381897 -0.12235958129167557 0.29591479897499084 -0.094521909952163696 -0.12956707179546356 0.47883662581443787 -0.040242806077003479 -0.43496289849281311 0.15783974528312683 -0.1936722993850708 0.056270617991685867 0.14042085409164429 -0.23676194250583649 -0.13353408873081207 0.21198859810829163 -0.089836500585079193 -0.067884370684623718 0.3411729633808136 -0.092192590236663818 -0.41590020060539246 0.20750163495540619 -0.12824717164039612 0.33225244283676147 0.24490638077259064 -0.078281357884407043 -0.11183933913707733 0.087213918566703796 -0.047472596168518066 -0.028184143826365471 0.093619182705879211 -0.19531452655792236 -0.29490521550178528 0.19091564416885376
  0.097722753882408142 0.20432834327220917 0.12213693559169769 0.22761231660842896 -0.032437726855278015 0.3158295750617981 0.37417393922805786 0.13025565445423126 -0.018496964126825333 -0.15349127352237701 -0.18685051798820496 -0.061981122940778732 -0.31598225235939026 0.2020362913608551 0.04514651745557785 0.14478366076946259 -0.045692045241594315 0.31618008017539978 0.34326189756393433 0.17707854509353638 0.036218822002410889 0.056880954653024673 0.074176400899887085 0.10437938570976257 -0.37125220894813538 0.29013267159461975 0.010513177141547203 0.15258459746837616 0.061640560626983643 0.32190254330635071 0.24428205192089081 0.094608224928379059 -0.028875570744276047 0.03905550017952919 -0.12798513472080231 -0.01529936958104372 -0.05716121569275856 0.22237780690193176 0.026371043175458908 0.21330781280994415 -0.035736735910177231 0.13214792311191559 0.017974561080336571 -0.12710912525653839 -0.098116062581539154 -0.014054154977202415 -0.25687617063522339 -0.22730296850204468 0.25905227661132812 0.18386955559253693 0.10775870829820633 0.15442764759063721 0.053061541169881821 0.2095586359500885 0.096710234880447388 -0.083813227713108063 -0.071598835289478302 -0.10802795737981796 -0.33537378907203674 -0.43151858448982239
  -0.18437387049198151 0.22649523615837097 0.13990999758243561 0.11292529851198196 0.29875454306602478 -0.033117864280939102 0.14759956300258636 -0.23219381272792816 -0.074967391788959503 0.096991457045078278 0.020011795684695244 0.064278826117515564 0.15250755846500397 -0.08461838960647583 0.11034854501485825 -0.083148099482059479 0.15008632838726044 -0.22052440047264099 0.25601613521575928 -0.2643466591835022 0.17606116831302643 -0.12719129025936127 0.13545157015323639 -0.18128538131713867 0.18072979152202606 -0.25592455267906189 -0.0070620961487293243 -0.15699616074562073 0.16452911496162415 -0.31254273653030396 0.42502126097679138 -0.3414425253868103 0.41598004102706909 -0.38451072573661804 0.27664965391159058 -0.27922520041465759 0.069765664637088776 -0.080851040780544281 -0.056999940425157547 -0.10882576555013657 0.19405888020992279 -0.32748940587043762 0.40712669491767883 -0.30889388918876648 0.40764692425727844 -0.40645051002502441 0.2779642641544342 -0.23248030245304108 0.044811084866523743 0.079331271350383759 0.026289964094758034 -0.020512240007519722 0.19318361580371857 -0.24802720546722412 0.38683363795280457 -0.21596093475818634 0.35801759362220764 -0.38611516356468201 0.32015559077262878 -0.15152297914028168
  0.090039536356925964 0.060936495661735535 -0.0058833817020058632 0.27315542101860046 -0.008232874795794487 0.0038569786120206118 -0.07188638299703598 -0.093325257301330566 0.1138741597533226 0.07879224419593811 -0.24626772105693817 -0.27347767353057861 -0.029233623296022415 0.036665476858615875 -0.22487427294254303 -0.20684924721717834 0.10592120885848999 0.28902432322502136 0.061668571084737778 -0.088102564215660095 0.0019079966004937887 0.27638182044029236 0.030474314466118813 -0.23017771542072296 -0.33022448420524597 0.13544866442680359 -0.22264580428600311 -0.3840160071849823 0.075757436454296112 0.26647210121154785 0.16089910268783569 -0.01381379272788763 -0.09758438915014267 0.20572526752948761 0.20079784095287323 0.00067326793214306235 -0.28970268368721008 0.22508595883846283 0.10446974635124207 -0.16778293251991272 -0.1456446498632431 -0.11641868203878403 0.16795678436756134 0.25280669331550598 -0.1502220630645752 -0.13158529996871948 0.17736260592937469 0.30186179280281067 -0.34648233652114868 0.15377050638198853 0.56510597467422485 0.33796390891075134 -0.55627667903900146 -0.60772109031677246 0.029982250183820724 0.55042004585266113 -0.057620659470558167 -0.52186715602874756 0.10322977602481842 0.46347334980964661
  -1.1838940382003784 0.1242397278547287 -0.22689610719680786 0.10914158076047897 -0.086833685636520386 -0.08923330157995224 0.09590400755405426 0.067719422280788422 0.22578540444374084 -0.10603256523609161 -0.24182844161987305 0.1950162798166275 -0.28177785873413086 -0.08023526519536972 -0.093495935201644897 -0.0025379499420523643 -0.086126282811164856 0.039486277848482132 -0.027448829263448715 0.089708343148231506 0.018783304840326309 -0.07499491423368454 -0.12536919116973877 0.019545722752809525 0.70893955230712891 0.069881051778793335 0.1431986391544342 -0.022977406159043312 -0.13511458039283752 0.063919983804225922 -0.13503746688365936 -0.089389331638813019 -0.10200916230678558 -0.13116499781608582 -0.12474869936704636 -0.17128431797027588 0.84563934803009033 -0.092280484735965729 0.25294959545135498 -0.016773682087659836 -0.20004230737686157 0.060706257820129395 -0.012653873302042484 -0.17838539183139801 0.01944538950920105 -0.076736830174922943 0.048562053591012955 -0.11757612973451614 0.49099096655845642 -0.41704544425010681 0.18695394694805145 0.26091700792312622 0.042320519685745239 0.09576532244682312 0.2185482531785965 -0.064091935753822327 0.28005328774452209 0.11947578191757202 0.055886145681142807 0.25361204147338867
  -0.084386341273784637 0.032773666083812714 -0.22461588680744171 0.20463402569293976 -0.12031850218772888 0.34158527851104736 0.15217921137809753 -0.11493580788373947 -0.096504628658294678 -0.0089314505457878113 0.039031825959682465 -0.16208401322364807 -0.065444469451904297 -0.096958629786968231 -0.24104149639606476 0.089969009160995483 -0.17824000120162964 0.36637887358665466 0.11669287085533142 -0.025256611406803131 0.039110053330659866 -0.18870878219604492 0.105586938560009 -0.39708295464515686 -0.088097594678401947 -0.34156391024589539 -0.3345884382724762 -0.042876146733760834 -0.20901423692703247 0.39561691880226135 0.068072289228439331 0.045874293893575668 0.077916607260704041 -0.1847127228975296 0.2098223865032196 -0.51939207315444946 -0.052361760288476944 -0.20386697351932526 -0.23925872147083282 0.063047125935554504 -0.19031989574432373 0.29231417179107666 0.021364858373999596 -0.020292973145842552 0.0094770435243844986 0.0085721081122756004 0.094655945897102356 -0.37232524156570435 -0.2402644157409668 0.11361204087734222 -0.037931535392999649 0.32644334435462952 -0.020952066406607628 0.21238750219345093 0.12013402581214905 -0.044401168823242188 -0.072775349020957947 0.13495589792728424 -0.067472442984580994 -0.19152015447616577
  -0.053092740476131439 0.18180014193058014 -0.10817668586969376 0.12279590964317322 -0.10370150208473206 -0.10515479743480682 0.23423446714878082 -0.38662821054458618 0.081521272659301758 0.16136491298675537 -0.23038275539875031 0.020669896155595779 -0.24462753534317017 0.34264445304870605 -0.18914809823036194 0.18314580619335175 0.13578853011131287 -0.014681218191981316 0.21584837138652802 -0.34505131840705872 0.097680740058422089 0.16973230242729187 -0.15445953607559204 0.06414562463760376 -0.24368463456630707 0.50465846061706543 -0.1194598451256752 0.20221403241157532 0.26472795009613037 0.028091017156839371 0.16258832812309265 -0.17640422284603119 0.049698490649461746 0.093404695391654968 -0.049133472144603729 -0.0074710724875330925 -0.26428011059761047 0.34413737058639526 -0.092736311256885529 -0.02437874861061573 0.28340703248977661 0.14537271857261658 0.11987010389566422 0.085169091820716858 -0.041988007724285126 0.017867401242256165 0.10027057677507401 -0.10262239724397659 -0.41421675682067871 0.00071470555849373341 -0.25211694836616516 -0.42822489142417908 0.21213020384311676 0.16149501502513885 0.12248498946428299 0.20596033334732056 -0.082210071384906769 0.042337127029895782 0.19182218611240387 -0.0669412761926651
  0.44070494174957275 -0.31568989157676697 -0.34733262658119202 -1.0118178129196167 -0.11441826075315475 0.32434108853340149 0.31642428040504456 0.38562986254692078 0.33425295352935791 -0.2717035710811615 -0.080850191414356232 -0.23203787207603455 -0.14301180839538574 -0.28459388017654419 -0.36392948031425476 -0.46329253911972046 0.14532233774662018 0.16733568906784058 0.24576690793037415 0.3112466037273407 0.10479968786239624 -0.19406330585479736 -0.034274991601705551 0.023536441847681999 -0.14449210464954376 -0.24809511005878448 -0.35061699151992798 -0.19894887506961823 0.14783388376235962 0.12054940313100815 0.036943696439266205 0.13159780204296112 0.07039979100227356 0.033577587455511093 -0.015749040991067886 -0.0011788364499807358 -0.07045263797044754 0.14234142005443573 0.14878135919570923 0.28847554326057434 -0.070113860070705414 -0.11775762587785721 -0.1780114471912384 -0.14244639873504639 -0.057928789407014847 0.13543713092803955 0.043154757469892502 -0.022929469123482704 -0.2556188702583313 0.57982414960861206 0.52247852087020874 0.79673779010772705 -0.13451507687568665 -0.28301450610160828 -0.2552599310874939 -0.43141499161720276 -0.30391082167625427 0.13549484312534332 0.16701021790504456 0.075825124979019165
  0.20540751516819 0.10634659230709076 0.10720885545015335 0.0037582560908049345 -0.14104858040809631 -0.48147517442703247 -0.23704008758068085 0.069652803242206573 0.12024179100990295 0.088049344718456268 0.076380245387554169 0.29808494448661804 0.056944821029901505 -0.044843118637800217 -0.057671159505844116 -0.11254982650279999 -0.15534378588199615 -0.43130919337272644 -0.20529192686080933 0.063051313161849976 -0.067547984421253204 0.099849767982959747 0.12302959710359573 0.21861971914768219 0.029559614136815071 -0.066719092428684235 -0.071439288556575775 -0.1310342401266098 -0.19673895835876465 -0.37250789999961853 -0.097938664257526398 0.057323601096868515 -0.026455502957105637 0.19134122133255005 0.22931800782680511 0.09967263787984848 -0.060625519603490829 0.10885904729366302 0.10348588973283768 0.072275824844837189 -0.21395289897918701 -0.35370451211929321 -0.016013441607356071 0.11590497940778732 0.15054775774478912 0.17436593770980835 0.19186356663703918 0.026575682684779167 0.25878214836120605 0.22203575074672699 0.40152391791343689 0.15171244740486145 -0.2707054615020752 -0.36993694305419922 -0.11150400340557098 0.032047897577285767 0.18253900110721588 -0.11518009006977081 -0.045183416455984116 -0.21916452050209045
  -0.81581366062164307 0.88435584306716919 -0.064239941537380219 0.27164879441261292 0.051261112093925476 0.047818586230278015 -0.023856533691287041 0.13886983692646027 -0.035257227718830109 -0.15132658183574677 -0.036687310785055161 -0.19429598748683929 -1.2436445951461792 0.0073736291378736496 -0.32953989505767822 -0.25774338841438293 0.12122948467731476 0.098287545144557953 -0.017191367223858833 0.26108938455581665 -0.15449224412441254 -0.017867458984255791 0.01480869110673666 0.017967270687222481 -0.64268511533737183 0.24881207942962646 -0.5314793586730957 -0.3446274995803833 0.12349017709493637 -0.030363457277417183 -0.030577631667256355 0.096776142716407776 -0.096664458513259888 0.018222108483314514 -0.10871235281229019 0.10440447181463242 -0.36469355225563049 -0.059845123440027237 -0.084192954003810883 -0.13620299100875854 0.061771385371685028 0.0082589425146579742 -0.014821140095591545 0.00098317721858620644 0.048496745526790619 0.1318892240524292 0.030067570507526398 0.11487202346324921 1.6447269916534424 0.056688353419303894 0.25200268626213074 0.29850587248802185 0.011649335734546185 0.067318364977836609 -0.038685716688632965 -0.22861076891422272 0.15419429540634155 0.080146335065364838 0.082196794450283051 0.062739208340644836 ]
 [ -2.3608407974243164 0.084551893174648285 0.36045056581497192 -2.7434425354003906 -0.97766846418380737 5.2447090148925781 1.8477246761322021 1.4286284446716309 2.5192131996154785 -1.4777934551239014 -2.1765375137329102 -1.5460408926010132 2.5085744857788086 -1.9703055620193481 1.5311695337295532 -3.8380076885223389 0.97814178466796875 0.29071062803268433 1.193050742149353 0.093855343759059906 -3.8117849826812744 -0.34421145915985107 -1.0986889600753784 1.7693195343017578 -1.7809337377548218 -0.73245644569396973 -2.7268428802490234 2.3604774475097656 2.5914163589477539 -2.9426147937774658 -3.4386820793151855 -2.5249714851379395 0.20818378031253815 -0.51785212755203247 2.2110013961791992 4.0988202095031738 -2.8329451084136963 1.4052908420562744 0.25843197107315063 3.3154020309448242 0.3034287691116333 -2.6403429508209229 -4.087956428527832 -0.75792831182479858 -0.29201334714889526 -0.72697097063064575 -3.3103539943695068 -1.2480577230453491 1.9314614534378052 -1.9401416778564453 1.980009913444519 1.7138066291809082 -1.5892543792724609 -1.1577060222625732 -1.0389814376831055 -0.16614595055580139 1.1556237936019897 0.98551595211029053 3.0171468257904053 2.6707706451416016 -3.1574578285217285 0.38275367021560669 -2.8203840255737305 1.0491147041320801 2.9752063751220703 -3.0482418537139893 2.4085497856140137 -1.4753564596176147 -0.38991659879684448 -3.8925795555114746 ]
<sigmoid> 70 70
<affinetransform> 56 70
 [ 
  0.47994410991668701 -0.38499027490615845 0.19279724359512329 0.50026214122772217 -0.56991481781005859 -0.31786853075027466 0.07031877338886261 -0.37897291779518127 -0.07365012913942337 0.046015158295631409 0.4715486466884613 0.22407472133636475 -0.43961688876152039 0.26547494530677795 0.65636616945266724 -0.022171420976519585 0.70523470640182495 -0.036721829324960709 -0.075309202075004578 -0.12251129001379013 -0.5202944278717041 -0.0086159026250243187 -0.22200025618076324 0.32271865010261536 -0.09327264130115509 0.27539485692977905 -0.20785415172576904 0.16707989573478699 0.036608751863241196 0.10701439529657364 0.22546136379241943 0.33442124724388123 0.13086764514446259 -0.78994089365005493 0.42829975485801697 -0.22165323793888092 0.21224814653396606 0.1851528137922287 -0.074863918125629425 0.39823317527770996 0.12467927485704422 -0.5068696141242981 0.078338548541069031 -0.030963335186243057 0.25939929485321045 0.12001711130142212 0.29012489318847656 0.097478441894054413 -0.28512358665466309 0.11016128957271576 0.18193063139915466 -0.18139520287513733 0.3234388530254364 0.34539785981178284 0.20354495942592621 -0.3626139760017395 0.30912625789642334 -0.42069253325462341 -0.15080119669437408 -0.31518509984016418 0.065886363387107849 -0.01379106193780899 0.016815034672617912 0.045857913792133331 -0.13991336524486542 -0.14672949910163879 0.013824832625687122 -0.25731584429740906 0.11357766389846802 0.090785622596740723
  -0.61497026681900024 -0.28754517436027527 -0.55087512731552124 -0.48036706447601318 -0.25967034697532654 0.16059476137161255 0.12572996318340302 -0.52529102563858032 0.72391402721405029 0.33901324868202209 -0.63004028797149658 -0.31858059763908386 0.46236288547515869 0.026063617318868637 0.020439602434635162 -0.23355560004711151 -0.25296896696090698 -0.35201543569564819 -0.29905149340629578 0.079519249498844147 -0.071201279759407043 -0.03057396225631237 -0.3121720552444458 0.1358603835105896 0.12105803191661835 0.11763399094343185 -0.30950111150741577 -0.1080765500664711 -0.1224147230386734 -0.18837407231330872 0.28464695811271667 -0.054835222661495209 -0.040989309549331665 -0.16523408889770508 -1.2088580131530762 0.15858842432498932 0.010486702434718609 -0.20293234288692474 0.099928975105285645 -0.074024997651576996 0.097179852426052094 0.83636265993118286 -0.19739750027656555 0.50606054067611694 -0.042980238795280457 0.22830764949321747 -0.16706322133541107 0.11233557760715485 -0.67786496877670288 -0.031993981450796127 -0.30487629771232605 0.32404720783233643 0.095627784729003906 0.13517402112483978 0.46416044235229492 -0.17176932096481323 -0.031586416065692902 0.034892454743385315 -0.15629428625106812 0.88609325885772705 -0.10510022193193436 -0.36248546838760376 0.12218889594078064 -0.40593945980072021 0.2092994749546051 0.13850845396518707 -0.013503842055797577 -0.50909131765365601 0.13019873201847076 -0.061444040387868881
  0.19232749938964844 0.075897045433521271 -0.18142369389533997 0.53686815500259399 0.056451734155416489 0.0018059937283396721 -0.0062744505703449249 -0.094781011343002319 -0.31435030698776245 -0.07999604195356369 -0.3005753755569458 0.63797706365585327 0.21072575449943542 0.35568210482597351 0.21618209779262543 1.3631488084793091 0.47349104285240173 -0.21654315292835236 -0.63988107442855835 -0.0097625534981489182 0.058992631733417511 -0.15337914228439331 0.467436283826828 0.19303770363330841 0.65842002630233765 0.010609199292957783 0.05884837731719017 -0.56132405996322632 -0.11119036376476288 -0.15643788874149323 -0.27503591775894165 -0.027281027287244797 -0.13435958325862885 0.12345227599143982 -0.30269128084182739 0.27733483910560608 0.21377065777778625 -0.15312623977661133 -0.1709439754486084 -0.11037756502628326 -0.17408344149589539 0.12735995650291443 0.017364425584673882 0.24104201793670654 0.038002461194992065 0.29525747895240784 -0.11621350795030594 0.38702887296676636 0.27871045470237732 0.26080343127250671 -0.44368469715118408 0.18881899118423462 0.31590655446052551 0.17287707328796387 0.20755450427532196 0.31052416563034058 -0.055958777666091919 -0.051864944398403168 -0.14590960741043091 0.35820773243904114 0.034969966858625412 -0.060069169849157333 0.17546923458576202 -0.099084287881851196 -0.30173289775848389 0.055747218430042267 -0.018133562058210373 0.13130617141723633 0.38372451066970825 0.96650755405426025
  0.1051056832075119 -0.18454535305500031 0.20413088798522949 -0.37242364883422852 0.058874104171991348 0.40410816669464111 -0.19647052884101868 0.5412222146987915 0.091769665479660034 0.11050227284431458 0.11179744452238083 0.30591931939125061 0.13749116659164429 -0.23176680505275726 -0.49161249399185181 0.076608724892139435 -0.1747802197933197 0.36998331546783447 0.074287563562393188 -0.090914897620677948 0.64786088466644287 0.044104006141424179 0.004141220822930336 -0.88783138990402222 -0.020301202312111855 0.55675482749938965 -0.011360421776771545 0.55341607332229614 0.13050985336303711 -0.47023725509643555 -0.078009404242038727 -0.10148118436336517 0.2867656946182251 -0.17567627131938934 0.054150726646184921 -0.80515486001968384 -0.20475980639457703 0.42662087082862854 0.0070802583359181881 -0.045148108154535294 -0.14849917590618134 -0.046967212110757828 -0.22259454429149628 -0.20869041979312897 0.027080342173576355 -0.19467920064926147 0.022367401048541069 -0.31762295961380005 0.22719790041446686 0.52516108751296997 0.16613529622554779 0.092807546257972717 -0.37162777781486511 0.31920507550239563 0.022332213819026947 0.18773594498634338 -0.64549356698989868 0.052228212356567383 0.36096784472465515 -0.03688083216547966 -0.098917335271835327 -0.18569178879261017 -0.12993869185447693 0.25706157088279724 -0.25675088167190552 -0.04456740990281105 0.0088160792365670204 0.044928327202796936 0.048169802874326706 0.11637609452009201
  0.06254982203245163 -0.00071903516072779894 -0.0063252644613385201 0.22403132915496826 0.088871419429779053 -0.29744100570678711 -0.04044802114367485 0.12029927223920822 -0.082854673266410828 0.011372486129403114 0.23854793608188629 0.24588373303413391 -0.45438867807388306 -0.14879639446735382 -0.034274585545063019 -0.2138604074716568 -0.021478293463587761 -0.072603285312652588 0.12754873931407928 0.058838430792093277 0.20536342263221741 0.0046065817587077618 0.11680853366851807 0.10365526378154755 -0.40181383490562439 -0.041898954659700394 0.046602211892604828 0.13269859552383423 -0.61279964447021484 0.028089286759495735 0.36767667531967163 0.29061233997344971 0.09141317754983902 -0.13866512477397919 0.045108169317245483 0.003962196409702301 -0.12437018752098083 0.095794767141342163 -0.27870190143585205 0.35070198774337769 -0.14545650780200958 0.040284231305122375 0.21162585914134979 -0.17683194577693939 0.010903246700763702 -0.35733413696289062 0.49228698015213013 0.015072260051965714 -0.2845798134803772 0.072026647627353668 0.053255312144756317 -0.15392354130744934 0.10914880782365799 0.19746492803096771 0.1442728191614151 -0.16206464171409607 0.11180712282657623 -0.020366108044981956 0.2364526242017746 -0.040907178074121475 -0.090359501540660858 0.34339514374732971 -0.037085682153701782 -0.010994672775268555 -0.081814981997013092 0.23614689707756042 -0.49129205942153931 0.14191791415214539 -0.1111859455704689 -0.33332037925720215
  -0.17969357967376709 -0.033425658941268921 0.22913092374801636 -0.05008881539106369 -0.083489865064620972 -0.076500512659549713 0.48732978105545044 0.17858201265335083 -0.67722910642623901 -0.48756039142608643 0.45996996760368347 0.024225782603025436 -0.25357520580291748 -0.16119591891765594 -0.12921774387359619 0.13614551723003387 0.051391150802373886 0.14117114245891571 0.092854544520378113 0.25284966826438904 -0.34067496657371521 -0.19255012273788452 0.42130497097969055 0.16876344382762909 -0.029011517763137817 -0.16959190368652344 0.27080577611923218 0.052827987819910049 0.03993595764040947 0.37960803508758545 -0.066498830914497375 0.15461358428001404 0.1219833567738533 0.23955196142196655 0.39634233713150024 0.68099260330200195 0.085590310394763947 -0.29439663887023926 0.19757759571075439 -0.11105424910783768 0.056041590869426727 -0.30816209316253662 -0.13794568181037903 -0.35896316170692444 -0.204838827252388 -0.21555456519126892 -0.089012794196605682 -0.094870544970035553 0.19854041934013367 -0.58704298734664917 -0.053714022040367126 0.33715778589248657 -0.032447811216115952 -0.24529029428958893 -0.41319546103477478 0.23554183542728424 0.14451435208320618 0.39518892765045166 0.050659246742725372 -0.1556323766708374 -0.2187601625919342 -0.066025093197822571 -0.2263433039188385 0.10158909112215042 0.025096014142036438 -0.082199357450008392 -0.014659491367638111 -0.32910200953483582 -0.18070882558822632 0.14666640758514404
  0.78811335563659668 0.12979806959629059 -0.14070011675357819 0.27768650650978088 -0.02876211516559124 -0.039795659482479095 -0.19048766791820526 -0.18140439689159393 -0.2804621160030365 0.13518534600734711 0.27184399962425232 0.48721858859062195 -0.30146849155426025 0.20843583345413208 -0.19588765501976013 1.1219090223312378 0.101241335272789 0.2117895781993866 -0.39472970366477966 -0.35552984476089478 -0.060050196945667267 -0.051119580864906311 0.41119635105133057 -0.27528619766235352 0.20362339913845062 0.015589985996484756 0.13764196634292603 -0.55053389072418213 0.095383711159229279 -0.031223736703395844 -0.24969093501567841 0.31955710053443909 -0.17242912948131561 -0.14360737800598145 0.7180180549621582 -0.53334027528762817 -0.17741686105728149 0.20074661076068878 0.059746738523244858 -0.057705104351043701 -0.32465976476669312 -0.45568713545799255 -0.071995526552200317 -0.11829035729169846 -0.24902588129043579 -0.27091443538665771 0.15976795554161072 -0.10905302315950394 0.36367896199226379 0.15911571681499481 0.45107561349868774 0.026468062773346901 0.083066359162330627 0.29417043924331665 -0.088053092360496521 0.15957160294055939 -0.39733108878135681 -0.3115333616733551 -0.039895113557577133 -0.89086920022964478 0.02403121255338192 0.15543314814567566 -0.063533268868923187 0.37021699547767639 -0.70986342430114746 -0.074522688984870911 -0.072926074266433716 0.44592782855033875 0.017819495871663094 0.69008940458297729
