<Nnet>
<input> 60 60
<affinetransform> 70 60
 [ 
  0.66932970285415649 -1.0599961280822754 -0.84893983602523804 0.89622437953948975 0.47261908650398254 -0.72290384769439697 -0.4416356086730957 0.13752970099449158 0.49873852729797363 -0.01795075461268425 -0.34337303042411804 -0.28047552704811096 0.27327468991279602 -0.17729188501834869 -0.062117584049701691 0.40834826231002808 -0.096541516482830048 -0.28034564852714539 -0.036227036267518997 0.056794922798871994 -0.007401980459690094 -0.11042699217796326 0.0076356763020157814 0.18197105824947357 0.091005541384220123 0.3775249719619751 0.26961463689804077 -0.085518993437290192 -0.40318569540977478 -0.073386363685131073 0.19024348258972168 0.024259341880679131 -0.11860168725252151 -0.039340939372777939 0.037058282643556595 0.22306594252586365 0.053577177226543427 0.31083667278289795 0.23160775005817413 -0.38906550407409668 -0.2364984005689621 0.10321000218391418 0.22439436614513397 0.1023280918598175 -0.15264181792736053 0.038899324834346771 0.095648042857646942 0.09962790459394455 -0.20569832623004913 0.48902040719985962 -0.11717601865530014 -0.90649533271789551 -0.090631343424320221 0.44554576277732849 0.082954451441764832 -0.023496765643358231 -0.23365283012390137 0.14442694187164307 0.25182187557220459 -0.046056527644395828
  0.61460310220718384 -0.33351942896842957 -0.19409510493278503 -0.59549158811569214 -0.51655077934265137 -0.074543125927448273 0.31007486581802368 0.2687191367149353 -0.018204856663942337 0.11676584929227829 0.081571623682975769 -0.569347083568573 0.41007450222969055 0.10760566592216492 0.042889725416898727 0.19973619282245636 -0.13028496503829956 -0.019718682393431664 0.17001648247241974 0.084560811519622803 -0.11870845407247543 -0.040261123329401016 -0.16463963687419891 -0.28184589743614197 0.34053251147270203 -0.12844537198543549 0.11981748044490814 0.43523380160331726 0.10050604492425919 0.054578959941864014 0.21744994819164276 0.092173710465431213 -0.15709039568901062 -0.17092317342758179 -0.21529375016689301 -0.14931891858577728 0.10220442712306976 -0.28777003288269043 -0.049824275076389313 0.29853394627571106 0.16275033354759216 0.013998711481690407 0.16068112850189209 0.12077286839485168 0.024008966982364655 -0.042211603373289108 -0.1044955849647522 0.054477192461490631 0.0015913213137537241 -0.45173722505569458 -0.396738201379776 -0.13562043011188507 0.19624181091785431 0.19883331656455994 0.16317200660705566 0.17383091151714325 0.028588585555553436 -0.17671388387680054 -0.24963058531284332 -0.067513786256313324
  -0.28240126371383667 0.35339102149009705 0.66108149290084839 0.3656405508518219 0.16730640828609467 -0.068869628012180328 -0.1746567040681839 -0.22579856216907501 -0.44971278309822083 -0.49179083108901978 0.13244196772575378 0.30675011873245239 -0.0049375854432582855 0.051270201802253723 0.3663422167301178 -0.1159779280424118 -0.11823494732379913 0.065047822892665863 0.024525737389922142 -0.13006685674190521 -0.11474858224391937 -0.21706745028495789 0.25409775972366333 0.15999695658683777 0.13170923292636871 -0.14648453891277313 -0.16280150413513184 -0.46420702338218689 -0.090661056339740753 0.1940789669752121 0.1202474981546402 -0.066868811845779419 0.22548472881317139 0.13506506383419037 0.13543909788131714 -0.011264726519584656 0.53036016225814819 -0.14137823879718781 -0.46783533692359924 -0.4484594464302063 0.056196350604295731 0.23615804314613342 0.22393231093883514 0.088111110031604767 0.31606966257095337 0.25382432341575623 -0.13836798071861267 -0.31349357962608337 -0.001197036006487906 -0.2288152277469635 -0.75443875789642334 -0.21625964343547821 0.24077168107032776 0.15627610683441162 0.38416481018066406 0.18037571012973785 0.25838091969490051 0.40584680438041687 -0.25985312461853027 -0.4133886992931366
  -0.62651503086090088 0.27312830090522766 0.68511772155761719 -0.38534954190254211 -0.18728525936603546 0.17675966024398804 -0.0024914497043937445 -0.21974143385887146 -0.1220543384552002 -0.028967889025807381 0.050129290670156479 0.028661863878369331 -0.26827821135520935 0.12446802854537964 0.51176178455352783 0.10187867283821106 -0.37214115262031555 0.011914570815861225 0.051484864205121994 -0.21817745268344879 -0.064810343086719513 0.03124706819653511 -0.0029611343052238226 0.14434896409511566 -0.0038194025401026011 -0.10128477960824966 0.32277333736419678 0.23380891978740692 -0.30108851194381714 -0.19929192960262299 0.016473248600959778 -0.02052939310669899 -0.00087025528773665428 0.054111108183860779 0.022080307826399803 0.057666879147291183 0.53146684169769287 -0.16241554915904999 -0.094729222357273102 0.28702765703201294 -0.17031407356262207 -0.31910958886146545 0.0068667223677039146 0.15625642240047455 -0.0054906727746129036 -0.0032245253678411245 -0.00062050262931734324 0.047555655241012573 1.3860198259353638 -0.73605310916900635 -1.9222770929336548 -0.17159499228000641 0.79599642753601074 0.10977629572153091 -0.02123071625828743 0.44862911105155945 0.16134949028491974 0.036962095648050308 -0.069460362195968628 -0.23412182927131653
  -0.53058868646621704 0.2236655205488205 -0.28555187582969666 0.12580689787864685 0.080316871404647827 0.067913062870502472 0.19073060154914856 0.36348554491996765 0.26409792900085449 0.042631927877664566 -0.11163748055696487 0.41871938109397888 0.2137112021446228 0.04422779381275177 -0.25918737053871155 -0.19394004344940186 -0.039742916822433472 0.073306575417518616 -0.03830263763666153 0.13041813671588898 0.10385937988758087 -0.022754160687327385 -0.16151642799377441 -0.16069509088993073 0.47059163451194763 -0.13124263286590576 -0.19276747107505798 -0.33646619319915771 -0.20930734276771545 0.030480770394206047 0.1242145299911499 0.1385510116815567 -0.031370703130960464 -0.064829312264919281 -0.024310287088155746 -0.23128944635391235 0.78199511766433716 0.28075125813484192 0.24071073532104492 -0.17644630372524261 -0.33196377754211426 -0.058013297617435455 -0.010343256406486034 -0.084030076861381531 -0.14645737409591675 -0.067382276058197021 -0.0094783417880535126 -0.084409765899181366 1.1083775758743286 0.79364186525344849 0.55434507131576538 -0.068023987114429474 -0.38964715600013733 0.042156457901000977 0.085102967917919159 -0.055700536817312241 -0.12085749208927155 0.015131779946386814 -0.17011831700801849 -0.17498485743999481
  -0.018118957057595253 0.034674011170864105 0.41176542639732361 0.22856476902961731 0.02312072180211544 0.17305050790309906 0.11780006438493729 0.064717985689640045 0.1884157657623291 0.10309339314699173 -0.033073876053094864 0.062047816812992096 0.006826555822044611 0.016728874295949936 0.20076404511928558 0.12184330075979233 0.20824280381202698 0.26835379004478455 0.036508508026599884 0.055674005299806595 0.16205932199954987 0.019681971520185471 -0.06349790096282959 0.045758489519357681 0.15477435290813446 0.17800863087177277 0.14280605316162109 0.16818219423294067 0.28373697400093079 0.22559572756290436 -0.00020869773288723081 0.064488746225833893 0.19348356127738953 -0.04685581848025322 -0.087776578962802887 0.10725469142198563 0.18514935672283173 0.12570494413375854 0.21485030651092529 0.16794736683368683 0.2912309467792511 0.30172505974769592 0.065297536551952362 0.14843858778476715 0.18608585000038147 -0.1614396870136261 -0.010412469506263733 0.031648017466068268 0.19634409248828888 -0.22163991630077362 0.23284336924552917 0.090153224766254425 0.17120413482189178 0.39329537749290466 0.096980683505535126 0.28291359543800354 0.27249056100845337 -0.037522584199905396 0.2192537784576416 -0.033346366137266159
  0.11337728798389435 0.093717008829116821 -0.031050873920321465 -0.14808268845081329 -0.083491750061511993 0.087954111397266388 0.33504164218902588 0.31393155455589294 0.17346800863742828 -0.30564123392105103 -0.12441914528608322 0.27496752142906189 0.15014925599098206 0.20244146883487701 0.17145444452762604 -0.00030521309236064553 -0.14697231352329254 -0.060258165001869202 0.047071434557437897 -0.036412246525287628 -0.023999471217393875 -0.069920502603054047 0.014841709285974503 0.17236581444740295 0.15549080073833466 0.077338464558124542 0.11696495860815048 -0.0012813822831958532 -0.0080650988966226578 0.043288320302963257 -0.13119518756866455 -0.26778343319892883 -0.038190636783838272 0.19008302688598633 0.20685890316963196 0.024507217109203339 -0.23748214542865753 -0.29195171594619751 -0.038503199815750122 0.08018474280834198 0.2894446849822998 0.12816601991653442 -0.2425110787153244 -0.35945361852645874 0.021164152771234512 0.33890464901924133 0.18753547966480255 -0.1026424914598465 -0.7737499475479126 -0.27366042137145996 0.31877553462982178 0.53904634714126587 0.48542702198028564 -0.094584710896015167 -0.36865529417991638 -0.24465936422348022 -0.048214659094810486 0.23214957118034363 -0.14027442038059235 -0.072626598179340363
  0.29246741533279419 0.63194394111633301 0.86807554960250854 0.66719704866409302 0.18544407188892365 -0.10518517345190048 0.070031337440013885 -0.23438258469104767 -0.058350846171379089 0.025600861757993698 -0.05466875433921814 -0.080828085541725159 0.4595160186290741 -0.047067694365978241 0.0086005497723817825 -0.19160041213035583 -0.45921939611434937 -0.09677395224571228 0.05353473499417305 -0.0081422803923487663 0.089093983173370361 0.06026216596364975 0.20048058032989502 0.0086647672578692436 0.35318154096603394 -0.18942153453826904 -0.49309730529785156 -0.55711865425109863 -0.3815438449382782 0.016932759433984756 0.11373121291399002 0.23537911474704742 0.1809978187084198 0.0097117768600583076 0.059806954115629196 -0.096465148031711578 0.1390727311372757 -0.43446484208106995 -0.56145256757736206 -0.40649080276489258 -0.22553756833076477 0.09690384566783905 0.1431070864200592 0.25153622031211853 0.13571463525295258 0.038973655551671982 0.091848552227020264 -0.076368659734725952 -1.9534227848052979 -0.60419273376464844 -0.48881012201309204 0.34669026732444763 0.94128674268722534 0.55203306674957275 0.38681924343109131 0.38496845960617065 0.034545209258794785 0.15073840320110321 -0.11025591939687729 0.27631914615631104
  1.1063206195831299 -0.36678868532180786 -0.23105537891387939 0.2517649233341217 0.2801382839679718 0.047305174171924591 -0.002701970050111413 0.0063343695364892483 0.086420111358165741 0.074463494122028351 -0.094435691833496094 -0.067439980804920197 0.75995475053787231 -0.24450971186161041 -0.55797719955444336 0.19644200801849365 0.42073342204093933 0.029485015198588371 -0.15354490280151367 -0.016068695113062859 0.18420009315013885 0.067678399384021759 -0.18251727521419525 -0.01501446682959795 0.093574248254299164 0.13697299361228943 -0.43900105357170105 0.10196168720722198 0.49427753686904907 0.35806494951248169 -0.0043017296120524406 -0.20059370994567871 0.095000468194484711 0.082888424396514893 -0.11317529529333115 0.099176414310932159 -0.29238021373748779 0.067687340080738068 -0.01934492215514183 -0.11729495227336884 0.14364571869373322 0.11180087924003601 0.0036945948377251625 -0.19365106523036957 -0.020519785583019257 -0.016627078875899315 -0.056276861578226089 0.10819061845541 -0.50628381967544556 0.084435746073722839 0.42242279648780823 -0.42102029919624329 -0.13721677660942078 -0.16122289001941681 -0.32577052712440491 -0.098048441112041473 0.080833360552787781 -0.093878753483295441 -0.043209537863731384 -0.058470752090215683
  0.13900840282440186 -0.25470095872879028 -0.35576221346855164 -0.81652629375457764 0.04455171525478363 0.23802377283573151 0.21591083705425262 -0.27414670586585999 -0.17236712574958801 -0.19258931279182434 -0.030104013159871101 -0.020332852378487587 0.72472167015075684 0.45964977145195007 -0.36940732598304749 -0.2990608811378479 0.29539594054222107 0.22174377739429474 -0.13183216750621796 -0.56079208850860596 -0.14774131774902344 0.2419276237487793 0.17446401715278625 -0.19187262654304504 0.75556564331054688 0.41113978624343872 -0.036908291280269623 0.021912647411227226 0.08092951774597168 0.16556344926357269 -0.098079390823841095 -0.42065137624740601 -0.10211097449064255 0.12012629956007004 0.26508590579032898 -0.10543617606163025 0.66580003499984741 0.39238590002059937 0.13460306823253632 0.22006912529468536 -0.053577013313770294 -0.056020744144916534 0.048937983810901642 -0.16693143546581268 -0.14955413341522217 -0.048570100218057632 0.17982399463653564 -0.0022681788541376591 0.27393966913223267 -0.19835935533046722 -0.21725960075855255 -0.13729847967624664 0.069293424487113953 0.26330295205116272 0.11129104346036911 0.18302123248577118 -0.081752903759479523 -0.11271819472312927 -0.059575416147708893 0.068712152540683746
  -0.03362639993429184 0.21069374680519104 -0.42549526691436768 0.22003950178623199 0.53543370962142944 0.052514996379613876 0.05886484682559967 0.087376527488231659 -0.06732814759016037 0.02517576701939106 0.078283794224262238 0.15248279273509979 0.41602522134780884 -0.11389840394258499 0.19179762899875641 -0.31417292356491089 -0.39561837911605835 -0.14374713599681854 -0.15784671902656555 -0.074127033352851868 -0.12191049009561539 0.0062090661376714706 0.052252620458602905 -0.043394584208726883 0.073521293699741364 -0.21635724604129791 0.25513836741447449 -0.52380722761154175 -0.71476221084594727 -0.30540236830711365 -0.26357355713844299 -0.18277096748352051 -0.15628960728645325 -0.096154928207397461 0.073498614132404327 -0.0016673131613060832 -0.014490395784378052 -0.14241090416908264 0.078267201781272888 -0.38021746277809143 -0.35769382119178772 -0.38413119316101074 -0.21899227797985077 -0.18533264100551605 0.062860310077667236 -0.019844632595777512 0.0042361374944448471 0.046198070049285889 1.0305743217468262 0.70609718561172485 0.35762473940849304 0.68997973203659058 0.40287214517593384 -0.13203038275241852 -0.18223847448825836 -0.27990537881851196 0.035439282655715942 0.08944404125213623 -0.1961924135684967 -0.13653314113616943
  1.4849091768264771 -0.5103568434715271 -1.0140841007232666 -0.77110028266906738 0.36533096432685852 0.44000911712646484 -0.090048559010028839 -0.33266130089759827 0.20929731428623199 0.35768446326255798 0.050701100379228592 -0.25313854217529297 0.32084128260612488 -0.22926564514636993 -0.22611571848392487 -0.25814458727836609 0.28333044052124023 0.20158116519451141 0.037457827478647232 -0.020494049414992332 -0.061985690146684647 0.047410935163497925 -0.015975004062056541 0.0097964946180582047 0.051048818975687027 0.089445888996124268 0.021443689242005348 -0.075041867792606354 0.07156866043806076 -0.018109213560819626 0.019219484180212021 0.093181505799293518 -0.092427939176559448 -0.032700013369321823 0.060608718544244766 0.086592793464660645 0.13795429468154907 0.14106549322605133 0.1115865558385849 0.15655452013015747 0.018390053883194923 -0.03476087749004364 0.041325118392705917 0.075407572090625763 -0.039153724908828735 0.0048865890130400658 0.14123348891735077 0.15314431488513947 -0.14085319638252258 0.13681232929229736 0.38606142997741699 0.18163119256496429 -0.097808435559272766 -0.068549014627933502 0.071665965020656586 0.021212287247180939 -0.049816027283668518 -0.066128388047218323 0.16979408264160156 0.18162398040294647
  0.75709950923919678 -0.47241151332855225 -0.55953520536422729 0.25554460287094116 -0.15100771188735962 0.08484882116317749 0.23633500933647156 -0.073102518916130066 -0.064858332276344299 0.18245029449462891 -0.14929382503032684 -0.069055140018463135 0.15304465591907501 -0.45532828569412231 0.069848448038101196 0.18649807572364807 -0.30612125992774963 -0.13382105529308319 0.24341318011283875 0.12181472778320312 -0.15940244495868683 0.017838262021541595 0.073834061622619629 0.042396385222673416 0.037724889814853668 -0.16622138023376465 0.067089013755321503 0.20894534885883331 -0.12818749248981476 -0.26294165849685669 0.22727313637733459 0.16601599752902985 -0.089647367596626282 -0.046227861195802689 -0.018292805179953575 0.042820893228054047 -0.085803315043449402 -0.1139991357922554 -0.0052073737606406212 0.10547951608896255 0.047196395695209503 -0.091246560215950012 -0.048659835010766983 0.13504385948181152 0.1116567999124527 -0.037757586687803268 -0.022623185068368912 -0.028766322880983353 0.3338145911693573 0.05555427074432373 -0.10342513769865036 0.053035344928503036 0.17241497337818146 0.023299509659409523 -0.11302702128887177 -0.12980154156684875 0.060779303312301636 0.081850230693817139 -0.08922538161277771 -0.16487377882003784
  0.95626938343048096 0.52796846628189087 0.79919922351837158 0.18333251774311066 -0.030524337664246559 -0.062260452657938004 -0.42403316497802734 -0.38016772270202637 -0.43889477849006653 -0.3968995213508606 0.069242723286151886 -0.096446722745895386 0.065523259341716766 0.93527674674987793 0.68834292888641357 0.73316419124603271 0.46808826923370361 0.12110599875450134 0.16348108649253845 -0.26321935653686523 -0.28348514437675476 -0.30079096555709839 -0.23801806569099426 -0.19623547792434692 0.22638238966464996 0.062948517501354218 0.14766348898410797 0.023306606337428093 0.076837606728076935 -0.032767262309789658 0.086213737726211548 0.12565968930721283 0.039893381297588348 -0.13466575741767883 -0.025604067370295525 -0.14288817346096039 -0.054031353443861008 -0.39038869738578796 -0.47272601723670959 -0.36554360389709473 -0.24379640817642212 0.0051728994585573673 -0.077222838997840881 0.15946561098098755 0.15398775041103363 0.13114091753959656 0.087172754108905792 -0.01113593578338623 -1.1468570232391357 -0.41089007258415222 -0.58085870742797852 -0.40309593081474304 -0.099471703171730042 0.084786072373390198 0.067066222429275513 0.10741604864597321 0.093059264123439789 0.37849998474121094 0.17942237854003906 0.44291472434997559
  -0.16983146965503693 0.67309051752090454 0.24674013257026672 0.48734641075134277 0.56274431943893433 0.24268484115600586 0.05343928188085556 0.34194177389144897 0.11531029641628265 0.10123568028211594 -0.050050109624862671 0.087092958390712738 0.3283749520778656 -0.0050729988142848015 0.019113479182124138 0.11686079204082489 -0.021656867116689682 0.16655644774436951 0.073869921267032623 0.17000310122966766 0.18078285455703735 0.085240103304386139 0.088940799236297607 -0.034775834530591965 0.41680037975311279 -0.089454978704452515 -0.42586514353752136 -0.31823897361755371 -0.19205224514007568 0.1102171465754509 0.21208842098712921 -0.011005132459104061 0.13709567487239838 0.030971920117735863 0.074039183557033539 -0.024459861218929291 0.079386457800865173 -0.29857522249221802 -0.58639669418334961 -0.74875128269195557 -0.42319071292877197 -0.1471102237701416 -0.070787720382213593 -0.10814494639635086 0.047639407217502594 0.089651331305503845 0.065428934991359711 -0.030045513063669205 0.45860955119132996 -0.12852150201797485 0.80119061470031738 -0.44231525063514709 -0.86026424169540405 -0.73638278245925903 -0.54647880792617798 -0.49286952614784241 -0.20479196310043335 -0.13729174435138702 0.054992362856864929 0.079071536660194397
  0.58004134893417358 -0.054335590451955795 0.19135415554046631 0.043341681361198425 0.14210879802703857 -0.099620901048183441 -0.016632465645670891 0.025149635970592499 0.073041215538978577 -0.070592775940895081 -0.10743282735347748 0.063265182077884674 0.55701619386672974 0.028259916231036186 -0.21474552154541016 0.076189495623111725 0.061684716492891312 0.0037205896805971861 -0.095533140003681183 -0.0039289221167564392 0.030479872599244118 0.037564806640148163 -0.067102387547492981 -0.020853482186794281 0.22617661952972412 0.065473653376102448 -0.1936422735452652 0.164654940366745 0.037454072386026382 0.09972759336233139 -0.042162366211414337 -0.019851306453347206 -0.03914603590965271 0.063403919339179993 -0.035855155438184738 -0.10990719497203827 -0.5958372950553894 -0.01082069706171751 -0.20677186548709869 -0.015267113223671913 -0.038777850568294525 0.237935870885849 0.00066230189986526966 0.018869774416089058 -0.10020396113395691 -0.035135310143232346 0.058956075459718704 -0.0057183755561709404 -2.4650425910949707 0.55981665849685669 0.049413863569498062 0.084339641034603119 -0.025978099554777145 -0.068621709942817688 0.20350347459316254 0.19125360250473022 0.079992100596427917 -0.046738658100366592 0.036711875349283218 0.12487161159515381
  1.7812507152557373 0.77322566509246826 0.59273868799209595 0.010913803242146969 -0.51023435592651367 -0.53440600633621216 -0.15771283209323883 -0.0081341611221432686 0.17475117743015289 -0.061508785933256149 -0.095574669539928436 -0.30476763844490051 0.82717287540435791 0.16788950562477112 0.031815357506275177 -0.15001687407493591 -0.33402973413467407 -0.28093358874320984 -0.16592134535312653 -0.0025665261782705784 0.1285233199596405 0.087999381124973297 0.16701562702655792 -0.078968197107315063 0.18994255363941193 -0.0092639205977320671 0.15560770034790039 0.064045354723930359 -0.15276919305324554 -0.16232083737850189 -0.12631800770759583 -0.1680796891450882 -0.004404138308018446 0.073432788252830505 0.098738029599189758 0.04072628915309906 -0.36407682299613953 -0.074285924434661865 0.087795533239841461 0.31300145387649536 0.0771370530128479 -0.036278646439313889 -0.07233089953660965 -0.073998227715492249 -0.041225183755159378 -0.012569913640618324 0.025496218353509903 0.093565300107002258 -0.71191233396530151 -0.39275851845741272 0.016378896310925484 -0.011342993937432766 0.13700214028358459 -0.1903139054775238 -0.13254663348197937 0.0092206820845603943 -0.0042629856616258621 0.11047471314668655 0.027083819732069969 0.14308024942874908
  0.017145877704024315 0.51028811931610107 -0.46024572849273682 -0.47311565279960632 0.16581821441650391 0.36707735061645508 0.19317647814750671 0.20960144698619843 -0.0028371745720505714 0.059612732380628586 0.024777377024292946 0.075539648532867432 -0.12876072525978088 0.058440286666154861 0.13497011363506317 -0.25251621007919312 -0.19750389456748962 0.20141783356666565 0.11676020175218582 0.11179067939519882 0.073589690029621124 -0.050812497735023499 0.078519091010093689 0.08730047196149826 -0.5705028772354126 0.037964969873428345 0.20137332379817963 -0.13124991953372955 -0.16444775462150574 0.073168657720088959 0.20942659676074982 0.12698572874069214 0.091197662055492401 -0.10784469544887543 0.067996107041835785 0.22445693612098694 -0.5358617901802063 -0.22747538983821869 0.34780934453010559 0.083935685455799103 -0.32316774129867554 -0.23888789117336273 0.029073573648929596 0.15426230430603027 0.033811528235673904 -0.10783012956380844 0.061168048530817032 0.14395420253276825 -0.72331029176712036 -0.22385314106941223 0.53240978717803955 0.58266919851303101 -0.21010282635688782 -0.48192280530929565 0.044999022036790848 0.19411332905292511 0.14619934558868408 -0.090790607035160065 -0.17966638505458832 -0.0082834726199507713
  -0.41301003098487854 -0.33820593357086182 0.46332687139511108 -0.17129208147525787 -0.28587189316749573 0.04964853823184967 0.030359143391251564 -0.21770253777503967 0.062375739216804504 -0.20177939534187317 0.18347503244876862 0.18422099947929382 -0.29384028911590576 -0.077630236744880676 0.060327358543872833 -0.071546964347362518 0.1647099107503891 -0.22803139686584473 -0.054528601467609406 -0.042232956737279892 -0.045490249991416931 0.058951485902070999 -0.11025278270244598 -0.040364779531955719 0.18927277624607086 0.16195881366729736 -0.3897002637386322 0.02613627165555954 0.44272226095199585 -0.16296342015266418 -0.16024491190910339 -0.05886547639966011 -0.065247289836406708 0.27158039808273315 -0.087634220719337463 -0.1652989536523819 1.0077667236328125 0.25448858737945557 -0.59472984075546265 -0.1502498984336853 0.24293717741966248 0.22103288769721985 -0.24138902127742767 -0.15915669500827789 -0.00029902590904384851 0.21534807980060577 0.11959493160247803 -0.20898561179637909 1.0882364511489868 0.56141847372055054 -0.5993151068687439 -0.18047790229320526 0.1427374929189682 0.74545490741729736 0.10929104685783386 -0.304362952709198 -0.04352908581495285 0.00068829813972115517 0.24165536463260651 -0.1022770032286644
  -0.099573612213134766 -0.12116312235593796 -0.0026709514204412699 -0.041634004563093185 0.27549973130226135 0.042751733213663101 -0.47395387291908264 0.031942717730998993 0.020951496437191963 -0.028663612902164459 -0.043397929519414902 -0.33681249618530273 0.082282736897468567 0.10238860547542572 0.043777238577604294 0.07344934344291687 0.20694755017757416 -0.065941363573074341 -0.090720653533935547 0.093396037817001343 -0.15920330584049225 -0.17104336619377136 0.068793445825576782 -0.16458328068256378 0.037182305008172989 0.30716735124588013 0.13410325348377228 0.273031085729599 0.092124886810779572 -0.16050770878791809 0.15319137275218964 -0.013686039485037327 -0.32276874780654907 -0.12203607708215714 0.15261551737785339 -0.12994806468486786 -0.085306756198406219 0.26936864852905273 0.16456557810306549 0.36734133958816528 -0.14065641164779663 -0.24483233690261841 0.15702418982982635 -0.099741309881210327 -0.27702319622039795 0.073268644511699677 0.18846659362316132 -0.052081603556871414 -0.14532096683979034 0.13914534449577332 0.27620774507522583 0.47110408544540405 -0.34432229399681091 -0.23403061926364899 0.056890241801738739 -0.21112237870693207 -0.23543447256088257 0.09414876252412796 0.067663393914699554 0.18323346972465515
  -0.2487388551235199 0.40338584780693054 0.36270549893379211 0.11333830654621124 -0.069969691336154938 -0.066880956292152405 -0.091768309473991394 -0.028399890288710594 -0.041980333626270294 -0.033292416483163834 0.00320428516715765 0.0096661746501922607 0.76977735757827759 -0.55069315433502197 -0.2710411548614502 -0.45468604564666748 0.12690746784210205 0.36146792769432068 0.13156495988368988 -0.29551267623901367 0.10915357619524002 -0.030768135562539101 -0.1125040128827095 -0.32003790140151978 0.57306259870529175 -0.68577420711517334 -0.63111847639083862 -0.81299853324890137 0.081887274980545044 0.16495603322982788 0.21863743662834167 -0.13293153047561646 0.082798637449741364 -0.039177581667900085 -0.0264237429946661 -0.22033657133579254 0.53063488006591797 -0.24395166337490082 -0.19001458585262299 -0.42420914769172668 -0.12549519538879395 -0.16164115071296692 -0.11872748285531998 0.016335343942046165 0.13716785609722137 0.0328255295753479 -5.4474803619086742e-05 -0.045131854712963104 0.57151776552200317 0.68073147535324097 0.93137210607528687 0.89545845985412598 0.082914091646671295 -0.30305483937263489 -0.34145122766494751 0.089525848627090454 0.16753734648227692 0.13805386424064636 -0.12308233231306076 0.20135839283466339
  0.049737632274627686 -0.20576295256614685 0.26029354333877563 0.34413823485374451 0.18327905237674713 0.11341845989227295 0.15892815589904785 0.055780086666345596 -0.24639242887496948 -0.28579741716384888 0.11686974763870239 0.047401636838912964 -0.39726501703262329 -0.28873008489608765 -0.085565827786922455 0.10230926424264908 0.12991547584533691 0.23712243139743805 0.087664030492305756 0.087743557989597321 -0.21880820393562317 -0.20180283486843109 0.038916628807783127 0.14434874057769775 -0.64109820127487183 -0.20658195018768311 -0.045652791857719421 0.18545936048030853 0.28831243515014648 0.28447732329368591 0.049404263496398926 0.00013785617193207145 -0.18158504366874695 -0.1569894552230835 -0.059736359864473343 0.15952752530574799 -0.47703701257705688 -0.19195058941841125 -0.057032164186239243 0.27334091067314148 0.23521231114864349 0.14745534956455231 -0.0076662474311888218 -0.14365388453006744 -0.18215832114219666 -0.13008891046047211 -0.019959166646003723 0.14341621100902557 -0.014116782695055008 -0.40187999606132507 -0.16436575353145599 0.23268665373325348 0.23634298145771027 0.1300903856754303 0.067688845098018646 -0.21659205853939056 -0.24059461057186127 -0.22021284699440002 -0.1307360976934433 -0.058375857770442963
  -0.51663947105407715 -0.20939964056015015 -0.3821960985660553 -0.28626200556755066 0.23208743333816528 0.30274799466133118 0.024215184152126312 -0.27222004532814026 -0.0061315796338021755 0.15479616820812225 0.16851678490638733 -0.26096200942993164 -0.1626959890127182 -0.34519529342651367 -0.017276352271437645 0.37090590596199036 0.24420604109764099 -0.30512848496437073 -0.080001339316368103 0.022479023784399033 0.22130537033081055 0.021576141938567162 -0.20194120705127716 -0.25501912832260132 0.34822779893875122 -0.40632978081703186 -0.14671936631202698 0.39395108819007874 0.23479962348937988 -0.46372321248054504 -0.13883979618549347 0.12045515328645706 0.30994954705238342 0.091729000210762024 -0.33757993578910828 -0.25309428572654724 0.48619073629379272 -0.14451004564762115 -0.15516820549964905 0.16887876391410828 0.17928208410739899 -0.05805523693561554 -0.10239347815513611 0.0030117256101220846 0.23298907279968262 0.12191013991832733 -0.12508261203765869 -0.11841675639152527 0.12511180341243744 0.28979641199111938 -0.18700794875621796 -0.29375410079956055 0.13583074510097504 0.46382161974906921 -0.073802337050437927 -0.11309076845645905 0.014455512166023254 0.11882323026657104 0.24446412920951843 0.091376721858978271
  -0.56147605180740356 -0.025045616552233696 0.072692431509494781 0.16592572629451752 0.10095573216676712 0.05892355740070343 0.30942615866661072 0.049168244004249573 0.11806307733058929 0.080305002629756927 -0.086405202746391296 0.11435326933860779 -0.053065061569213867 -0.15453441441059113 -0.071100801229476929 0.0019068308174610138 0.088403508067131042 0.0088849756866693497 -0.11904679238796234 -0.084834195673465729 0.032929148524999619 0.11225093901157379 0.096536032855510712 0.078185431659221649 0.09986567497253418 -0.020957140251994133 -0.20654867589473724 -0.14884033799171448 0.12552769482135773 0.012401025742292404 -0.23024946451187134 -0.045366637408733368 0.047575622797012329 0.17509724199771881 0.18671128153800964 0.10510136932134628 0.11630076915025711 0.14273995161056519 -0.0038828635588288307 -0.24223597347736359 0.096579976379871368 -0.010487106628715992 -0.16662493348121643 -0.0012463628081604838 -0.085156425833702087 -0.14016661047935486 -0.074049957096576691 -0.069878138601779938 1.6214004755020142 0.6483689546585083 0.88564127683639526 -0.054015543311834335 -0.29298025369644165 -0.21092043817043304 -0.15589234232902527 -0.42870199680328369 -0.3024386465549469 -0.64488601684570312 -0.59086513519287109 -0.69304603338241577
  0.14801657199859619 0.082100696861743927 -0.064427092671394348 0.45907425880432129 0.52955842018127441 0.45474839210510254 0.22604078054428101 0.089713439345359802 0.16798008978366852 -0.043095313012599945 -0.1892373114824295 0.096166759729385376 -0.37574562430381775 0.17281380295753479 0.057925418019294739 0.53149300813674927 0.34149298071861267 0.23458702862262726 0.21432703733444214 0.022524025291204453 -0.05246107280254364 0.015563902445137501 -0.10338781028985977 0.15572462975978851 -0.20835094153881073 0.16763091087341309 0.34180882573127747 0.32900172472000122 0.08371330052614212 0.017310690134763718 0.086235426366329193 -0.078704051673412323 -0.11548079550266266 -0.0024378080852329731 0.022851444780826569 0.037545841187238693 0.12249774485826492 0.18513771891593933 0.25253155827522278 -0.16161580383777618 -0.31999161839485168 -0.43451282382011414 -0.08920624852180481 -0.21575658023357391 -0.16741348803043365 -0.032293058931827545 -0.086033903062343597 -0.061601556837558746 0.8789944052696228 -0.53441363573074341 -0.17792052030563354 -1.2305670976638794 -0.80711233615875244 -0.42897599935531616 -0.34169787168502808 0.088978774845600128 0.23721934854984283 0.18981948494911194 0.30577802658081055 -0.31609424948692322
  -0.59824222326278687 -0.29444071650505066 -0.16329656541347504 -0.082657024264335632 -0.60133081674575806 -0.51947253942489624 -0.31933704018592834 -0.091177709400653839 -0.034248389303684235 0.1333015114068985 0.24960875511169434 0.20102916657924652 0.014590268023312092 -0.26622393727302551 -0.21947959065437317 -0.10220499336719513 -0.24825151264667511 -0.26451826095581055 -0.21554616093635559 -0.012062516994774342 0.033621549606323242 0.20796170830726624 0.22176273167133331 0.10257648676633835 0.018991203978657722 -0.23662902414798737 -0.052299462258815765 0.1386723518371582 0.042360682040452957 -0.19115281105041504 -0.27103954553604126 0.084371909499168396 0.10392425209283829 0.15248826146125793 0.16755445301532745 0.11775092035531998 0.12555922567844391 -0.051898282021284103 0.14764614403247833 0.37441015243530273 0.23214346170425415 -0.086784824728965759 -0.19882144033908844 -0.01001892052590847 -0.017369380220770836 0.0063808402046561241 0.073916330933570862 0.010220741853117943 -0.18866170942783356 -0.037703569978475571 0.35148799419403076 0.53150844573974609 0.21627208590507507 0.019536152482032776 -0.21751652657985687 -0.14083881676197052 -0.081310197710990906 0.046497277915477753 0.04268902912735939 -0.015421578660607338
  0.4397340714931488 -0.053728964179754257 -0.21639697253704071 0.15910762548446655 0.27418151497840881 -0.015466470271348953 -0.048597782850265503 0.22179470956325531 0.093033879995346069 -0.18689329922199249 -0.049248926341533661 0.10946094244718552 0.27340748906135559 -0.24951675534248352 -0.065954118967056274 -0.0069651138037443161 0.1241028755903244 -0.119556725025177 0.19347850978374481 0.31954115629196167 0.091058194637298584 -0.36411416530609131 -0.1097603514790535 -0.081894919276237488 0.029317634180188179 -0.37760904431343079 -0.14076875150203705 -0.036302603781223297 0.19903223216533661 -0.14173181354999542 0.28948050737380981 0.28185489773750305 0.075718812644481659 -0.40249785780906677 -0.15247301757335663 -0.11428064107894897 -0.072897247970104218 -0.19052349030971527 -0.077102698385715485 -0.0086077991873025894 0.0246885996311903 -0.17820985615253448 0.02930748276412487 0.13646320998668671 0.02467791736125946 -0.24029240012168884 -0.058041326701641083 -0.048368189483880997 -0.48782876133918762 -0.10189446806907654 -0.13838504254817963 0.13241992890834808 0.092201344668865204 -0.091530494391918182 -0.15449078381061554 0.15075437724590302 0.064340345561504364 -0.05192190408706665 -0.059073816984891891 0.032290685921907425
  0.38979229331016541 0.80997365713119507 0.62741190195083618 1.3299475908279419 0.31681358814239502 0.49052157998085022 0.15856379270553589 -0.5019155740737915 -0.46821507811546326 -0.01772775687277317 -0.2164345383644104 0.1434764564037323 -0.6525428295135498 -0.10282351821660995 -0.17346581816673279 0.17464981973171234 0.14368465542793274 -0.02064303494989872 0.088774338364601135 0.097492575645446777 0.048691585659980774 0.10978019237518311 0.045343846082687378 0.21830056607723236 -0.69530707597732544 -0.72774249315261841 -0.49442782998085022 -0.67839807271957397 -0.24688105285167694 -0.26547995209693909 -0.19729085266590118 0.25770249962806702 0.078234918415546417 0.11051513254642487 0.22701774537563324 0.069571100175380707 -0.56116384267807007 -0.48637622594833374 -0.35593926906585693 -0.53948760032653809 -0.078790627419948578 -0.042922817170619965 -0.15765878558158875 0.31150159239768982 0.13833118975162506 0.042637210339307785 0.076768025755882263 -0.08854220062494278 0.850422203540802 0.59503990411758423 -0.034151274710893631 -0.12802974879741669 -0.0054561430588364601 0.16923768818378448 0.15836040675640106 -0.2598540186882019 0.05382528156042099 -0.014774981886148453 -0.11265126615762711 -0.18753433227539062
  0.049341391772031784 -0.22853517532348633 -0.20168927311897278 -0.27212879061698914 -0.30517241358757019 -0.048807859420776367 -0.20745527744293213 0.22429190576076508 -0.084353230893611908 -0.041905861347913742 0.026482205837965012 -0.25079753994941711 -0.62352991104125977 0.19647765159606934 -0.39920386672019958 0.47293692827224731 -0.017778556793928146 0.031578309834003448 0.05369563028216362 -0.0033181633334606886 0.16128906607627869 -0.055355101823806763 0.0061876815743744373 0.065902523696422577 -0.53321361541748047 0.74284732341766357 -0.2843700647354126 0.82832437753677368 0.0062260963022708893 -0.052977737039327621 0.086959019303321838 -0.21559877693653107 0.2600911557674408 -0.1112171933054924 -0.048060018569231033 0.13811317086219788 -0.27648124098777771 0.29606586694717407 -0.21100768446922302 0.46439114212989807 -0.12963634729385376 0.042616222053766251 0.07785613089799881 -0.15143755078315735 0.19318331778049469 -0.011460510082542896 0.024874793365597725 0.13661506772041321 0.11685726791620255 -0.074767589569091797 -0.08144696056842804 0.079594291746616364 -0.31277143955230713 -0.1203436404466629 -0.1645897775888443 -0.202524334192276 0.066391341388225555 0.01592828705906868 0.0567927286028862 0.1302349716424942
  -0.086445830762386322 -0.061086948961019516 -0.18321490287780762 -0.16269762814044952 0.078364983201026917 0.13333693146705627 0.1743243932723999 0.38970905542373657 0.19783245027065277 -0.03241671621799469 0.10728569328784943 0.047409262508153915 0.31992393732070923 0.24666942656040192 -0.11530820280313492 0.10057003796100616 0.17932777106761932 0.26628851890563965 0.13015459477901459 0.011888172477483749 0.046846162527799606 0.05846225842833519 -0.050950448960065842 -0.062286242842674255 0.090846151113510132 0.17816326022148132 0.0044961674138903618 0.017899097874760628 -0.032802138477563858 0.33523544669151306 0.2487066239118576 0.015402169898152351 -0.12091739475727081 0.016561204567551613 0.025818325579166412 0.026200097054243088 -0.12055716663599014 0.18229644000530243 0.14273880422115326 0.055171135812997818 -0.1727040708065033 -0.011909856460988522 0.26642942428588867 0.08436468243598938 -0.10101846605539322 0.028179192915558815 -0.019006654620170593 0.18026755750179291 0.18517035245895386 -0.59222042560577393 0.34921485185623169 -0.41985020041465759 -0.54139417409896851 -0.59028160572052002 -0.071483828127384186 0.5711054801940918 0.45408439636230469 0.02326582744717598 0.023684196174144745 0.077048122882843018
  -0.085375308990478516 0.20087949931621552 0.31318658590316772 0.22196677327156067 0.098048552870750427 0.132046177983284 0.012395136058330536 0.18108662962913513 0.0043569994159042835 -0.26294025778770447 -0.061392344534397125 0.26980981230735779 0.0045607918873429298 0.090088367462158203 0.18717034161090851 0.095787160098552704 0.044996917247772217 0.028304146602749825 0.060435619205236435 0.1251228004693985 -0.21576249599456787 -0.33945703506469727 0.2075803130865097 0.069057844579219818 0.046650178730487823 -0.001751888426952064 0.13430316746234894 0.1117367297410965 0.017958026379346848 -0.12857329845428467 0.040943894535303116 -0.026357008144259453 -0.37392106652259827 -0.29204809665679932 0.39240756630897522 0.024307630956172943 0.1493678092956543 -0.072823479771614075 0.057425957173109055 0.27750575542449951 0.0028351806104183197 -0.062184158712625504 0.050481945276260376 -0.1708320826292038 -0.34688270092010498 -0.115433469414711 0.22875246405601501 -0.038418237119913101 0.5656198263168335 0.0080873481929302216 -0.041795946657657623 0.54468673467636108 0.05828629806637764 0.063020966947078705 0.063223570585250854 -0.33743202686309814 -0.2021004855632782 0.12326891720294952 -0.026329973712563515 -0.19671511650085449
  0.89359194040298462 -0.37386500835418701 -0.56966710090637207 0.83222728967666626 0.29918187856674194 -0.0039569931104779243 0.066485896706581116 -0.2122131735086441 0.20215965807437897 0.083839915692806244 -0.38521912693977356 0.14432899653911591 0.23853017389774323 -0.16831097006797791 0.065698131918907166 0.28550559282302856 -0.073095560073852539 -0.15488632023334503 -0.089279599487781525 0.019838256761431694 0.056049499660730362 -0.091940000653266907 -0.074484214186668396 0.078485488891601562 -0.15175719559192657 -0.043753553181886673 0.36032816767692566 -0.11471381038427353 -0.17503988742828369 -0.09703981876373291 -0.22105196118354797 0.065990239381790161 -0.007283573504537344 -0.15751133859157562 0.10064650326967239 -0.03874623030424118 -0.49041420221328735 0.079968728125095367 0.50546836853027344 -0.4421769380569458 -0.10854572802782059 -0.010472500696778297 -0.19306966662406921 0.14311003684997559 -0.084957554936408997 -0.17636969685554504 0.15460355579853058 -0.015905069187283516 -0.74289023876190186 0.39064458012580872 0.58400356769561768 -0.45840424299240112 0.019751841202378273 0.047580361366271973 -0.18554206192493439 0.33114278316497803 -0.13484729826450348 -0.26960965991020203 0.19300401210784912 -0.12869778275489807
  -0.61669450998306274 0.23097920417785645 -0.062749981880187988 0.3832852840423584 0.20661048591136932 -0.095639720559120178 -0.097301855683326721 0.17182868719100952 0.187723308801651 0.18311172723770142 0.028755743056535721 0.21666541695594788 -0.093295186758041382 -0.28486844897270203 -0.37444967031478882 0.1261085569858551 0.02634676918387413 0.092234589159488678 0.064227931201457977 0.090843364596366882 0.071536943316459656 0.21571440994739532 0.11307588219642639 0.11960728466510773 -0.35610771179199219 -0.4794476330280304 -0.54683339595794678 -0.015981554985046387 -0.052870351821184158 0.16381238400936127 0.24155318737030029 0.13620898127555847 0.070499494671821594 0.20504234731197357 0.09312671422958374 0.1783306896686554 -0.41594797372817993 -0.47477230429649353 -0.43267109990119934 -0.28253516554832458 -0.22278445959091187 -0.070240512490272522 0.20039883255958557 0.24800029397010803 0.079125456511974335 0.14741982519626617 0.1062210351228714 0.10737594217061996 0.31438103318214417 0.25743597745895386 0.30098965764045715 -0.070937573909759521 -0.41361963748931885 -0.51579958200454712 -0.12716242671012878 -0.12505374848842621 -0.21749529242515564 -0.13985238969326019 0.00027030470664612949 -0.1498384028673172
  0.4506266713142395 -0.69498926401138306 0.29400035738945007 -0.067700237035751343 -0.26584863662719727 -0.075712166726589203 0.1240726113319397 0.13677521049976349 0.0062099378556013107 -0.052165664732456207 0.035922545939683914 0.0039100479334592819 -0.68909060955047607 -0.035716496407985687 0.24011270701885223 -0.058395162224769592 0.061036426573991776 0.19614358246326447 0.12417533248662949 -0.11880494654178619 -0.10094103962182999 0.18514010310173035 -0.046545583754777908 0.063675098121166229 -0.96452689170837402 0.63098078966140747 0.31879439949989319 -0.078742168843746185 0.27765995264053345 0.31745836138725281 0.11770600825548172 -0.28082150220870972 -0.089860275387763977 0.10375081747770309 -0.17978565394878387 0.12807288765907288 -0.61636155843734741 0.42975562810897827 0.37279310822486877 -0.13176879286766052 0.073242403566837311 0.11280017346143723 0.042789183557033539 -0.19320699572563171 0.042456507682800293 0.031150411814451218 -0.086638040840625763 0.051602382212877274 0.071655362844467163 -0.085931926965713501 0.31751006841659546 -0.17901095747947693 -0.32385581731796265 -0.15071430802345276 -0.052145987749099731 -0.079530082643032074 0.0072803916409611702 -0.16313852369785309 -0.0045291604474186897 -0.081084445118904114
  -0.10317588597536087 -0.20699052512645721 0.56647443771362305 -0.045125227421522141 -0.38933700323104858 -0.10835326462984085 0.14049543440341949 0.081433571875095367 0.060035698115825653 0.013009984046220779 -0.23855257034301758 -0.16684819757938385 0.028135018423199654 -0.11081036925315857 -0.10748326778411865 0.25263634324073792 0.091247156262397766 -0.097657307982444763 0.096202947199344635 0.063601680099964142 0.015906060114502907 -0.027247818186879158 -0.21416838467121124 -0.21172891557216644 0.15968401730060577 -0.0064124381169676781 -0.21195796132087708 0.27065262198448181 0.086781531572341919 -0.10762152075767517 0.041651565581560135 0.17371445894241333 0.029602194204926491 -0.085535012185573578 -0.094531424343585968 -0.13246925175189972 0.12691816687583923 0.25957345962524414 0.042114134877920151 0.26170256733894348 -0.18712992966175079 -0.027385823428630829 0.024785131216049194 0.16496489942073822 -0.034307919442653656 -0.20924217998981476 -0.049488123506307602 0.022056939080357552 -0.6599043607711792 0.28495147824287415 0.4707501232624054 -0.2591896653175354 -1.011508584022522 0.014372094534337521 -0.079840280115604401 0.15140816569328308 -0.11530791968107224 -0.22594654560089111 0.37531429529190063 0.48355025053024292
  -0.72457140684127808 -0.18299132585525513 0.58313900232315063 0.63824546337127686 0.35974174737930298 -0.22475837171077728 -0.34924152493476868 -0.049441948533058167 0.080187782645225525 -0.11064872890710831 -0.070720583200454712 -0.079904809594154358 -0.17087134718894958 -0.47372889518737793 0.10563414543867111 0.26478579640388489 0.27185699343681335 -0.11443941295146942 -0.33632805943489075 -0.16556999087333679 0.24317802488803864 0.2931632399559021 0.035865694284439087 -0.27153515815734863 -0.23478278517723083 -0.35778605937957764 0.11456730961799622 0.35197880864143372 0.30025285482406616 -0.084265999495983124 -0.14199845492839813 -0.1915881484746933 0.063903935253620148 0.096481531858444214 -0.086166553199291229 -0.078725621104240417 0.049561735242605209 -0.0011154990643262863 0.23081718385219574 -0.014828539453446865 -0.11924460530281067 -0.10988609492778778 0.015022204257547855 -0.060373801738023758 -0.089584507048130035 -0.1116664707660675 -0.026580996811389923 0.14420647919178009 -0.01697845570743084 0.28932628035545349 0.0089365588501095772 -0.19694611430168152 -0.203335240483284 0.17762891948223114 0.21951158344745636 -0.035553842782974243 -0.13746725022792816 -0.030283311381936073 0.11402051895856857 0.16546615958213806
  0.22693434357643127 -0.012707255780696869 0.027155343443155289 0.043814990669488907 -0.1686624139547348 0.11089536547660828 -0.01209089532494545 0.013054692186415195 -0.084569759666919708 0.09913606196641922 0.049545757472515106 -0.028398130089044571 0.040182430297136307 -0.17839130759239197 0.10573962330818176 0.35768961906433105 -0.42869937419891357 0.16745127737522125 -0.055694866925477982 -0.0048109786584973335 0.21467021107673645 -0.035085931420326233 -0.19816198945045471 0.21795128285884857 0.045019783079624176 -0.30703744292259216 0.027274224907159805 0.35390084981918335 -0.47576767206192017 0.13092978298664093 -0.18703363835811615 -0.025735657662153244 0.22767798602581024 -0.12398163974285126 -0.24936319887638092 0.27348199486732483 0.17473691701889038 -0.29207548499107361 -0.13711367547512054 0.26307180523872375 -0.2132347971200943 -0.0049823657609522343 -0.18916937708854675 0.039084289222955704 0.071549788117408752 -0.034229155629873276 -0.1424710750579834 0.15809565782546997 0.64439266920089722 -0.008594355545938015 -0.17473530769348145 0.2206493467092514 -0.076443426311016083 0.089744076132774353 -0.23690417408943176 0.023025127127766609 -0.14181281626224518 -0.050935961306095123 0.13561113178730011 -0.07048209011554718
  -0.20833720266819 0.77942365407943726 0.8244171142578125 0.23593753576278687 -0.26561471819877625 -0.025697577744722366 -0.15455567836761475 -0.50343608856201172 -0.30695927143096924 0.10320352762937546 0.17967227101325989 0.37992051243782043 -0.33478659391403198 0.3443218469619751 0.27805441617965698 -0.049945808947086334 0.15561316907405853 0.11011591553688049 -0.20026335120201111 -0.25739413499832153 -0.090052872896194458 0.2167622447013855 -0.013006442226469517 -0.075545281171798706 -0.012574632652103901 0.36600056290626526 -0.02577505074441433 -0.066082529723644257 0.44568142294883728 0.11413119733333588 -0.18543916940689087 -0.23354595899581909 0.016614574939012527 0.085972830653190613 -0.2366679459810257 -0.18304334580898285 0.19340144097805023 -0.19484026730060577 -0.18328423798084259 -0.025214223191142082 0.42220357060432434 0.16988442838191986 0.026432059705257416 -0.024824254214763641 0.04098651185631752 -0.19907507300376892 -0.12378450483083725 -0.11639976501464844 0.16231739521026611 -0.77558243274688721 -0.36776602268218994 -0.15845529735088348 0.23261624574661255 0.19131456315517426 0.23683516681194305 0.14950010180473328 0.074451684951782227 -0.33502516150474548 -0.036586500704288483 -0.096791259944438934
  0.17587241530418396 0.070953749120235443 -0.4178202748298645 0.54392635822296143 -0.080433964729309082 0.24584585428237915 -0.038586005568504333 -0.10851767659187317 0.37675628066062927 -0.24924175441265106 -0.040210794657468796 -0.059788044542074203 0.31726646423339844 0.17756646871566772 -0.33634129166603088 0.35897079110145569 -0.20940220355987549 0.25715580582618713 -0.065712571144104004 -0.21322339773178101 0.24617072939872742 -0.27647849917411804 0.10035548359155655 -0.016190366819500923 0.2900732159614563 0.11757993698120117 -0.29428565502166748 0.13480943441390991 -0.34825921058654785 0.30764400959014893 -0.044397316873073578 -0.18519186973571777 0.25390899181365967 -0.22365334630012512 0.097601443529129028 -0.09786234050989151 0.13509184122085571 0.069895327091217041 -0.18928393721580505 0.079851679503917694 -0.31114140152931213 0.24998167157173157 -0.040746767073869705 -0.10774164646863937 0.25214609503746033 -0.13899943232536316 -0.018613617867231369 -0.23506258428096771 0.075536176562309265 0.16471119225025177 -0.1029740497469902 0.18664711713790894 -0.24340987205505371 0.1635393351316452 -0.044747967272996902 -0.054808881133794785 0.23996897041797638 -0.18205747008323669 -0.17924576997756958 -0.29111954569816589
  0.82951956987380981 0.38218295574188232 0.58632934093475342 -0.74258881807327271 -0.035912692546844482 0.20551668107509613 -0.23677265644073486 -0.10296373069286346 -0.20263732969760895 0.16482347249984741 0.13237775862216949 -0.14634428918361664 0.22462029755115509 0.11517666280269623 0.30907076597213745 -0.44571638107299805 0.16343250870704651 0.1299983412027359 -0.059730172157287598 0.12699833512306213 -0.10098423808813095 0.054140724241733551 0.082695581018924713 -0.19103580713272095 -0.10026860982179642 0.17971739172935486 0.25794714689254761 -0.19762033224105835 0.30939608812332153 -0.064463503658771515 0.05049741268157959 0.057042241096496582 -0.055939536541700363 0.011665801517665386 0.057648170739412308 -0.19574834406375885 -0.091910496354103088 0.12751337885856628 0.17991410195827484 -0.20606529712677002 0.18065802752971649 -0.22230082750320435 -0.071286693215370178 -0.037061672657728195 0.088831774890422821 0.10565807670354843 0.1251903623342514 -0.10904153436422348 -0.0079376455396413803 0.049228865653276443 0.17621259391307831 -0.29434904456138611 0.033705927431583405 -0.40165740251541138 -0.23511974513530731 -0.25673329830169678 0.08012545108795166 0.18973967432975769 0.19417549669742584 0.038110978901386261
  0.052276324480772018 0.23350909352302551 -0.20732691884040833 -0.46107101440429688 0.35733264684677124 0.48670127987861633 -0.056035567075014114 -0.35179045796394348 0.30525234341621399 0.3961605429649353 -0.14207306504249573 -0.22188353538513184 0.32697376608848572 0.22461077570915222 -0.12264842540025711 -0.27960297465324402 0.21129816770553589 0.40519756078720093 -0.011384264566004276 -0.48540717363357544 0.22264225780963898 0.21849542856216431 -0.17856332659721375 -0.12212207913398743 0.35666510462760925 0.20024324953556061 -0.094433128833770752 -0.15377722680568695 0.04866090789437294 0.35417968034744263 -0.010823572985827923 -0.48088952898979187 0.1879822313785553 0.098960384726524353 -0.10601836442947388 0.063702099025249481 0.17514213919639587 0.090594388544559479 -0.074378691613674164 -0.040773577988147736 0.053186841309070587 0.20892588794231415 -0.037512633949518204 -0.22904500365257263 0.20751209557056427 0.033824056386947632 -0.049978777766227722 0.19719842076301575 -0.18490543961524963 0.15340264141559601 0.011930929496884346 0.11527013778686523 0.17747192084789276 0.0046830251812934875 -0.062146160751581192 0.0074188071303069592 0.24670708179473877 0.13009852170944214 -0.012144253589212894 0.33666753768920898
  0.097877249121665955 -0.15350179374217987 -0.21633359789848328 0.095401689410209656 0.44626554846763611 -0.098609156906604767 -0.237778440117836 0.10486166924238205 0.23339538276195526 0.059265609830617905 -0.12421060353517532 -0.086026512086391449 0.089915826916694641 -0.42606529593467712 -0.24986906349658966 0.083094008266925812 0.38001862168312073 0.27470248937606812 -0.085327111184597015 -0.059920415282249451 0.13427814841270447 0.042205661535263062 -0.15240402519702911 -0.092685908079147339 -0.10053148865699768 -0.53635168075561523 -0.53648334741592407 0.22137449681758881 0.57929062843322754 0.26110267639160156 -0.00063172576483339071 -0.12354149669408798 0.029222648590803146 0.023251747712492943 -0.16975325345993042 -0.057112798094749451 0.0056973225437104702 -0.35237157344818115 -0.20567163825035095 0.31226357817649841 0.44744932651519775 0.078510276973247528 -0.047928478568792343 -0.11957205832004547 -0.0910673588514328 -0.0062446864321827888 -0.13543953001499176 -0.043817073106765747 0.40022566914558411 -0.29949468374252319 0.21147975325584412 0.15431484580039978 -0.19242067635059357 -0.17959477007389069 -0.02712634764611721 0.12403351068496704 -0.041470367461442947 -0.062354292720556259 0.11133754998445511 -0.07644469290971756
  0.4204738438129425 -0.086124144494533539 0.00041630730265751481 0.20329420268535614 0.29173031449317932 0.017833905294537544 0.052148763090372086 0.0063778674229979515 -0.18688341975212097 -0.099716514348983765 -0.08226969838142395 -0.033439941704273224 0.027943342924118042 -0.12084776163101196 0.053448282182216644 0.24922239780426025 0.2862066924571991 -0.048129487782716751 0.22478000819683075 -0.075704582035541534 -0.17743682861328125 0.14345252513885498 -0.22103627026081085 0.21966637670993805 -0.047176200896501541 -0.21826030313968658 0.041550565510988235 0.099514909088611603 0.19323498010635376 -0.17886778712272644 0.30298224091529846 -0.18838700652122498 -0.20536598563194275 0.37210899591445923 -0.40957444906234741 0.32300138473510742 0.069327086210250854 -0.24179854989051819 0.090468928217887878 0.05524001270532608 0.060830458998680115 -0.13663338124752045 0.20904719829559326 -0.25009852647781372 -0.15831245481967926 0.37897273898124695 -0.3505454957485199 0.23170925676822662 0.25480353832244873 -0.13714736700057983 0.026637565344572067 0.06943134218454361 0.07237282395362854 0.06819993257522583 0.30359414219856262 -0.26917579770088196 -0.13419485092163086 0.24514929950237274 -0.31950393319129944 0.06206873431801796
  1.3484841585159302 0.4060664176940918 0.14517167210578918 0.77919799089431763 0.72735410928726196 0.28611293435096741 0.04015408456325531 -0.2085912674665451 -0.12458313256502151 -0.1131737232208252 -0.19668760895729065 -0.12875433266162872 0.34101557731628418 0.099558606743812561 0.20969566702842712 0.35294169187545776 0.25994062423706055 0.1049400269985199 0.017795629799365997 -0.090427733957767487 -0.072225123643875122 0.030278425663709641 0.0043362840078771114 -0.066879518330097198 -0.38412615656852722 -0.27810323238372803 -0.10523415356874466 -0.20496402680873871 -0.12218833714723587 0.040558036416769028 0.065850518643856049 0.11843148618936539 0.097272276878356934 0.0130179263651371 0.1278844028711319 0.057496160268783569 -1.1814537048339844 -0.47928255796432495 -0.44940435886383057 -0.47192355990409851 -0.068105138838291168 0.14638212323188782 0.13349883258342743 0.3196234405040741 0.23872682452201843 -0.014785487204790115 0.048101399093866348 0.076683886349201202 -0.69994264841079712 -0.25708764791488647 -0.13984435796737671 -0.39208829402923584 -0.044996432960033417 -0.01001335121691227 0.027972174808382988 0.35868161916732788 0.25928294658660889 0.001224120962433517 -0.053313948214054108 -0.0952892005443573
  0.31199580430984497 0.38893073797225952 0.089746460318565369 -0.18735499680042267 -0.10369744151830673 0.22624288499355316 -0.12640726566314697 0.12508463859558105 -0.14331191778182983 0.0048012593761086464 0.4405168890953064 0.25892528891563416 0.32174745202064514 0.037603177130222321 -0.35873591899871826 -0.15699872374534607 -0.060749992728233337 0.2132905125617981 -0.23444108664989471 -0.057052280753850937 -0.1671457439661026 0.11999304592609406 0.171632319688797 0.1962738037109375 0.0032066295389086008 -0.093959897756576538 -0.3539355993270874 0.01109346654266119 0.090201660990715027 0.1533486545085907 -0.14684069156646729 -0.14116720855236053 -0.19963520765304565 0.15127460658550262 0.12818227708339691 0.29952055215835571 -0.1784718781709671 -0.22280769050121307 -0.21930058300495148 0.091218262910842896 0.094880521297454834 0.037002179771661758 -0.032734859734773636 -0.0030639816541224718 -0.25333952903747559 -0.009884352795779705 0.21490971744060516 0.28418841958045959 -0.036103501915931702 -0.44765955209732056 0.010155721567571163 0.061079416424036026 -0.026100242510437965 0.018890000879764557 0.031266041100025177 0.10507389158010483 -0.41052168607711792 -0.29233652353286743 0.29822126030921936 0.067809849977493286
  0.28927883505821228 0.07688402384519577 0.51178663969039917 0.48569664359092712 0.28736796975135803 0.13993281126022339 0.29746949672698975 0.15791267156600952 -0.052510164678096771 0.13716496527194977 0.091635324060916901 0.068039022386074066 -0.82266527414321899 -0.34967720508575439 -0.32212051749229431 -0.30801397562026978 -0.066569410264492035 0.12576310336589813 0.1660664826631546 0.40091365575790405 0.2746829092502594 0.048602350056171417 0.20310549437999725 0.22488212585449219 -0.83566832542419434 -0.20904931426048279 -0.39261168241500854 -0.53031754493713379 -0.13466942310333252 -0.028104700148105621 -0.074218995869159698 0.31040027737617493 0.26866224408149719 0.11760048568248749 0.12719449400901794 0.17638768255710602 -0.48668426275253296 -0.18742468953132629 -0.13074162602424622 -0.21829865872859955 -0.1687777191400528 -0.063774116337299347 -0.15814441442489624 0.11790364980697632 0.14730098843574524 0.12890620529651642 0.15608939528465271 -0.0081756273284554482 0.15661022067070007 0.25037962198257446 0.2852996289730072 0.27513983845710754 -0.124016173183918 -0.12367244064807892 -0.096135467290878296 -0.10822669416666031 0.015197833068668842 0.1009492501616478 0.096728615462779999 -0.08697257936000824
  -0.57083368301391602 -0.13837246596813202 0.11400663107633591 0.06564534455537796 0.063286326825618744 0.51061660051345825 -0.028611445799469948 0.12528152763843536 -0.13543890416622162 0.21084071695804596 0.15352192521095276 -0.15480096638202667 -0.40970218181610107 -0.11345459520816803 0.063933335244655609 0.26676070690155029 0.17551688849925995 0.28386631608009338 -0.1866680383682251 0.32511657476425171 -0.19505015015602112 0.22014114260673523 -0.19746604561805725 -0.083475247025489807 -0.22588661313056946 0.0699014812707901 0.085959233343601227 0.36529785394668579 0.29795342683792114 0.16240598261356354 -0.3123830258846283 0.34690040349960327 -0.1742718368768692 0.29370108246803284 -0.35749471187591553 -0.028191331773996353 -0.15732420980930328 0.16758619248867035 0.077758513391017914 0.16375230252742767 0.19606062769889832 0.10073023289442062 -0.25692543387413025 0.22308693826198578 -0.025589829310774803 0.1179395392537117 -0.24046307802200317 -0.077759347856044769 -0.84819436073303223 -0.037564489990472794 0.21999818086624146 -0.27106529474258423 0.062629424035549164 0.16816014051437378 -0.25599077343940735 0.13330920040607452 0.14058113098144531 0.049259290099143982 0.1116868257522583 -0.086591087281703949
  0.017236148938536644 0.20508094131946564 -0.21398961544036865 0.071265347301959991 0.023707985877990723 -0.016079816967248917 0.15082526206970215 -0.040511120110750198 -0.083051852881908417 0.15961423516273499 0.02672467939555645 0.11616971343755722 -0.036577511578798294 -0.26766908168792725 -0.1244773343205452 -0.23021848499774933 -0.24477413296699524 -0.073750466108322144 -0.1189364418387413 0.16958999633789062 0.0033722245134413242 0.039798051118850708 0.10346054285764694 0.059059180319309235 -0.11789172887802124 -0.58691865205764771 -0.29810968041419983 -0.35892578959465027 -0.23988808691501617 0.024153435602784157 -0.08813660591840744 0.33537647128105164 0.1420837938785553 -0.0032197623513638973 0.080494388937950134 -0.046225007623434067 -0.15846551954746246 -0.40495702624320984 -0.4373403787612915 -0.17050826549530029 -0.079615466296672821 -0.0095401816070079803 0.062375076115131378 0.23092642426490784 0.19460725784301758 0.050256997346878052 -0.051426976919174194 -0.067996524274349213 0.19465415179729462 0.35292726755142212 -0.23383767902851105 0.29489326477050781 0.39886161684989929 0.050272546708583832 0.35273781418800354 0.037195507436990738 0.27504369616508484 0.06859956681728363 -0.22913549840450287 -0.028604919090867043
  0.068927198648452759 -0.045159250497817993 0.0070266756229102612 -0.71180671453475952 -0.37752184271812439 0.048228643834590912 0.31165984272956848 -0.067670680582523346 -0.069817602634429932 0.051332686096429825 0.093040406703948975 0.012807426042854786 -0.34991398453712463 0.10313864797353745 0.19885390996932983 -0.41940313577651978 -0.32788503170013428 0.023268070071935654 0.32438725233078003 0.20602664351463318 0.021186122670769691 -0.14797227084636688 -0.062425956130027771 0.11977732926607132 -0.13170275092124939 0.0736127570271492 0.042426031082868576 -0.32646054029464722 -0.12360020726919174 0.13231991231441498 0.33856260776519775 0.20589746534824371 0.022965600714087486 -0.14837896823883057 -0.13665416836738586 0.10974966734647751 0.37318643927574158 0.11201167851686478 -0.026941640302538872 -0.18584977090358734 0.055484436452388763 0.21065041422843933 0.19187271595001221 0.059312693774700165 0.051596898585557938 -0.094489119946956635 -0.048503197729587555 0.058462690562009811 0.030486423522233963 0.13398462533950806 -0.2046845406293869 -0.24770677089691162 0.35065925121307373 0.1576562374830246 -0.00031049424433149397 -0.18947878479957581 -0.040919892489910126 -0.077859103679656982 0.0079027079045772552 0.0081908004358410835
  -0.96022140979766846 0.05490386113524437 0.77938097715377808 0.59409195184707642 -0.50470840930938721 -0.38513782620429993 0.019577937200665474 0.46578457951545715 0.031007245182991028 -0.19044032692909241 -0.016390658915042877 0.28161525726318359 0.14427179098129272 0.27195212244987488 0.041182156652212143 0.3283592164516449 0.078616902232170105 -0.025214860215783119 0.07233380526304245 0.12232991307973862 0.085686951875686646 0.033105604350566864 -0.11322623491287231 0.063030272722244263 0.67205595970153809 0.44265365600585938 -0.25319197773933411 -0.10931306332349777 0.21039797365665436 0.37291976809501648 0.14461146295070648 -0.22448466718196869 -0.10919887572526932 0.059055577963590622 0.04631466418504715 -0.076566852629184723 0.29511639475822449 0.11862780898809433 -0.36588123440742493 -0.30407100915908813 0.25900852680206299 0.40642094612121582 0.17897254228591919 -0.35439082980155945 -0.15778489410877228 0.10278487205505371 0.020630786195397377 -0.13869403302669525 0.51313424110412598 -0.8114323616027832 -0.94628924131393433 -1.1014828681945801 0.31085219979286194 0.28693267703056335 -0.084471158683300018 -0.060030929744243622 0.1651795357465744 0.022959629073739052 -0.028864486142992973 -0.43491801619529724
  0.24231939017772675 -0.69460427761077881 -0.50435686111450195 -0.30848222970962524 0.39386773109436035 0.13505420088768005 0.13777486979961395 0.18178404867649078 0.19132456183433533 -0.17452329397201538 -0.3204670250415802 -0.32348707318305969 0.18433257937431335 -0.32331579923629761 -0.38636347651481628 -0.2989557683467865 0.26411047577857971 0.18698614835739136 -0.16724236309528351 -0.082239136099815369 0.13148905336856842 -0.0074059572070837021 0.02296949177980423 -0.13006933033466339 -0.1375240683555603 0.12052095681428909 -0.1048896312713623 -0.077713340520858765 0.18074329197406769 0.27768164873123169 -0.18278802931308746 -0.1505790650844574 -0.044783744961023331 0.065134607255458832 0.2265256941318512 -0.039599578827619553 -0.14330302178859711 0.51183372735977173 0.22527708113193512 0.23271209001541138 0.013196333311498165 0.096181787550449371 -0.0046944860368967056 -0.16629147529602051 -0.21032971143722534 0.064162597060203552 0.10418230295181274 0.069006010890007019 -0.30188477039337158 0.86900514364242554 0.67040926218032837 0.77219980955123901 -0.05643821507692337 -0.09479820728302002 -0.12497016042470932 -0.45598927140235901 -0.34244602918624878 -0.13054956495761871 -0.29588326811790466 0.32339051365852356
  0.10484528541564941 0.19592081010341644 -0.080427691340446472 0.083386942744255066 -0.02174554206430912 -0.0055649280548095703 -0.16519112884998322 -0.1002088189125061 -0.11762063950300217 -0.017445551231503487 -0.0021870236378163099 0.22914594411849976 0.25872927904129028 0.020528960973024368 -0.22165262699127197 0.037653632462024689 0.22714278101921082 -0.096032388508319855 -0.19041845202445984 0.20321501791477203 0.042609021067619324 -0.10450668632984161 -0.024227302521467209 0.073861032724380493 0.32868155837059021 -0.010319479741156101 -0.52303868532180786 0.075792238116264343 0.32766258716583252 -0.018579589203000069 -0.21385988593101501 0.4392353892326355 0.14121794700622559 -0.11914584785699844 0.03162117674946785 0.04535461962223053 0.37827563285827637 0.010257205925881863 -0.41517075896263123 0.12416744232177734 0.29621881246566772 0.010830676183104515 -0.18721000850200653 0.43691948056221008 0.094706170260906219 -0.19949395954608917 0.078922979533672333 0.036486491560935974 0.24492157995700836 -0.3148159384727478 -0.2084185779094696 0.19150206446647644 0.12543787062168121 -0.23025383055210114 -0.23361361026763916 0.2700042724609375 0.051156319677829742 -0.088318400084972382 0.1512400209903717 0.20490871369838715
  0.39376592636108398 0.33322736620903015 0.17880508303642273 0.77410799264907837 -0.19938777387142181 0.053976170718669891 -0.013526766560971737 -0.67815035581588745 -0.12639439105987549 0.36999800801277161 -0.079168505966663361 0.39862996339797974 -0.17072136700153351 0.035992801189422607 -0.26546987891197205 -0.076261125504970551 -0.077172368764877319 0.20485427975654602 0.1447451114654541 -0.29135951399803162 -0.18173809349536896 0.20478086173534393 -0.10893871635198593 0.08008672297000885 -0.36609894037246704 0.15331362187862396 -0.22063297033309937 -0.49207028746604919 0.1174551248550415 0.17836245894432068 0.10164857655763626 0.089179933071136475 -0.23936311900615692 -0.11200833320617676 -0.04159882664680481 -0.0097292475402355194 -0.55046117305755615 0.052931580692529678 0.032658390700817108 -0.34763824939727783 0.19606798887252808 -0.031889017671346664 0.01781536266207695 0.41794908046722412 -0.062013119459152222 -0.22552300989627838 0.11348678916692734 0.014279000461101532 0.63147717714309692 -0.11106313765048981 0.43299660086631775 0.17960385978221893 0.019456410780549049 -0.38707941770553589 -0.23449036478996277 0.45553663372993469 0.23380696773529053 -0.3472621738910675 0.23460580408573151 -0.09955519437789917
  -0.47470596432685852 -0.26755791902542114 -0.24269670248031616 0.0098931761458516121 -0.058411881327629089 -0.1864541620016098 0.12166503071784973 -0.08536984771490097 -0.1810440719127655 0.051067642867565155 -0.13929848372936249 -0.1771521270275116 -0.36385774612426758 -0.32845777273178101 0.029333395883440971 0.10904997587203979 0.05756630003452301 -0.28280693292617798 0.061948217451572418 0.10322091728448868 0.11641306430101395 0.008734983392059803 -0.11992976814508438 -0.11293438822031021 -0.26403534412384033 -0.2391558438539505 0.2235223650932312 0.24561911821365356 0.19514495134353638 -0.28292098641395569 -0.053164824843406677 0.09040292352437973 0.20915389060974121 0.028396019712090492 -0.10512631386518478 -0.12251105159521103 -0.11886490881443024 -0.19795233011245728 0.22889889776706696 0.18297436833381653 0.070907898247241974 -0.18579155206680298 -0.088000334799289703 0.03627781942486763 0.19865831732749939 0.020419269800186157 0.0024176461156457663 -0.17112705111503601 -0.69566088914871216 -0.33183979988098145 0.30053251981735229 0.18881529569625854 0.074978627264499664 -0.20049640536308289 -0.0036910739727318287 0.051361504942178726 0.052044767886400223 0.051582202315330505 -0.13513225317001343 -0.075626730918884277
  -0.68862426280975342 0.27681055665016174 -0.08281216025352478 -0.1400056928396225 -0.14086513221263885 -0.10727892071008682 0.1172238290309906 0.17583745718002319 -0.1065499559044838 -0.08786388486623764 -0.0087451357394456863 -0.10792060941457748 -0.80006164312362671 0.019641589373350143 -0.10175197571516037 -0.11787615716457367 -0.098302304744720459 0.00086539913900196552 0.032612234354019165 0.22446656227111816 0.11432211846113205 -0.059742484241724014 -0.067796647548675537 -0.10324612259864807 -0.54552394151687622 0.10858403146266937 -0.2037152498960495 -0.026435200124979019 -0.013014970347285271 0.051347933709621429 -0.019969645887613297 0.24556449055671692 0.12787923216819763 0.079565085470676422 -0.16821818053722382 -0.046724606305360794 -0.32651558518409729 0.21443174779415131 -0.31924456357955933 0.023634783923625946 -0.075918354094028473 0.044774577021598816 -0.036635845899581909 0.23254133760929108 0.030672010034322739 0.20288592576980591 -0.051057256758213043 0.072125904262065887 -0.37197795510292053 0.38296803832054138 -0.18990506231784821 0.27270784974098206 -0.20350173115730286 -0.1573350727558136 0.038666326552629471 0.026189437136054039 -0.25807476043701172 0.3479289710521698 -0.011420466937124729 0.38147535920143127
  -0.067163072526454926 -0.23159442842006683 -0.36100712418556213 -0.49965676665306091 -0.19976483285427094 -0.15975597500801086 -0.28185856342315674 -0.23348228633403778 -0.14222785830497742 -0.073683395981788635 0.081918239593505859 0.11253734678030014 -0.22892357409000397 -0.014063777402043343 -0.13473960757255554 -0.1796332448720932 0.25054287910461426 0.052360784262418747 -0.064070381224155426 0.074292190372943878 0.14208181202411652 0.018283603712916374 -0.1451452225446701 -0.043469939380884171 -0.26091349124908447 -0.078921668231487274 -0.32355457544326782 -0.046573765575885773 0.45876085758209229 0.20055915415287018 0.083895213901996613 0.2320515513420105 0.33670324087142944 0.12434019148349762 -0.070125468075275421 -0.029046619310975075 -0.25598511099815369 -0.081762321293354034 -0.38223335146903992 -0.030284458771348 0.27376264333724976 0.21710781753063202 0.061606593430042267 0.11927666515111923 0.15175168216228485 -0.10087306797504425 -0.047223057597875595 0.035870321094989777 -0.1153881773352623 -0.20481570065021515 -0.63124728202819824 -0.10479407012462616 -0.015236165374517441 -0.018675802275538445 -0.19166122376918793 -0.057370036840438843 -0.025182416662573814 -0.089808195829391479 0.028567135334014893 0.12730617821216583
  0.73225307464599609 -0.82724303007125854 -0.17475126683712006 -0.61724376678466797 -0.81273090839385986 -0.33254411816596985 -0.37688693404197693 -0.46201446652412415 -0.22333565354347229 -0.17031843960285187 0.15509967505931854 -0.25961250066757202 0.11677710711956024 0.09382212907075882 -0.17347615957260132 -0.37168112397193909 -0.13511887192726135 -0.29124081134796143 -0.18794459104537964 -0.06994958221912384 -0.16859769821166992 -0.023085204884409904 -0.026999406516551971 -0.020288968458771706 0.15738902986049652 0.82676047086715698 0.37666222453117371 0.33269217610359192 0.1919650137424469 -0.19572886824607849 -0.050819329917430878 0.091500252485275269 0.048975016921758652 0.059650883078575134 -0.10446227341890335 0.00037216930650174618 -0.054863680154085159 0.38975986838340759 0.30971965193748474 0.49898737668991089 0.27254244685173035 0.22803550958633423 0.12853443622589111 0.10088499635457993 0.093940079212188721 0.024792684242129326 -0.018088629469275475 0.03902362659573555 -0.40076717734336853 -0.29186761379241943 -0.39057642221450806 -0.071603737771511078 0.13517758250236511 0.43244326114654541 0.35784044861793518 0.22886227071285248 0.25497427582740784 0.2105676531791687 0.056623857468366623 0.18190740048885345
  -0.13848397135734558 0.14544251561164856 0.13436056673526764 0.002466975711286068 -0.10659189522266388 0.062765814363956451 -0.0086220744997262955 -0.12693937122821808 0.046549450606107712 0.13377003371715546 -0.13018481433391571 0.068754479289054871 0.021769491955637932 0.083594135940074921 0.18162329494953156 0.1387895792722702 -0.066717185080051422 0.0012425024760887027 -0.0234956294298172 0.014068195596337318 0.076040543615818024 -0.021046886220574379 -0.09457223117351532 0.11098518222570419 0.10090437531471252 -0.038560014218091965 -0.20797728002071381 0.15882693231105804 0.13693498075008392 0.031421814113855362 -0.010388920083642006 0.17482732236385345 -0.015380553901195526 0.024835437536239624 -0.15074437856674194 0.19021943211555481 0.31163224577903748 0.16771486401557922 -0.6345483660697937 0.21683426201343536 0.4272555410861969 0.010062649846076965 -0.049393080174922943 0.25274267792701721 -0.20819896459579468 0.052287381142377853 -0.14648568630218506 0.11854813992977142 0.56003767251968384 0.43058109283447266 -1.1348223686218262 0.45733338594436646 0.78202039003372192 -0.23882398009300232 -0.10310272127389908 0.24079151451587677 -0.44455480575561523 0.1383640468120575 -0.061755284667015076 0.020202670246362686
  -0.11851164698600769 0.088981397449970245 0.3668200671672821 0.0039435923099517822 -0.19079303741455078 -0.020040100440382957 -0.035662084817886353 0.13495689630508423 0.056046705693006516 -0.022304845973849297 -0.11313894391059875 0.20630088448524475 -0.091867469251155853 0.074524395167827606 0.10413827747106552 -0.45610129833221436 0.14995457231998444 0.11629223823547363 -0.12911087274551392 0.34432932734489441 -0.064275540411472321 -0.13616457581520081 0.11449810117483139 -0.1053515151143074 -0.31354048848152161 0.31443104147911072 0.12274322658777237 -0.36010181903839111 0.32591784000396729 0.0032229300122708082 -0.036349453032016754 0.41628631949424744 -0.037599045783281326 -0.22753475606441498 0.14058268070220947 -0.079976849257946014 -0.29049363732337952 0.21756355464458466 0.033328119665384293 -0.17871296405792236 0.17221307754516602 -0.13408875465393066 0.15949717164039612 0.1612342894077301 0.074980497360229492 -0.15556269884109497 0.085945300757884979 -0.029437102377414703 -0.037064995616674423 -0.13994379341602325 -0.071123495697975159 0.046905264258384705 -0.10692539066076279 -0.44071507453918457 0.16099704802036285 -0.10515786707401276 0.19270995259284973 0.15186746418476105 -0.10931321978569031 -0.048678185790777206
  0.37596496939659119 0.42514941096305847 0.11583656817674637 0.34881564974784851 -0.22016054391860962 -0.19669166207313538 -0.23796449601650238 -0.49890598654747009 -0.40176776051521301 0.05543966218829155 0.27055111527442932 -0.075351513922214508 0.45325121283531189 -0.14346309006214142 -0.39213111996650696 0.012923289090394974 0.2821526825428009 -0.094969891011714935 -0.28155109286308289 -0.19737939536571503 -0.021349824965000153 0.10620632022619247 0.0089087849482893944 -0.089148864150047302 0.33279016613960266 -0.080588646233081818 -0.42966765165328979 0.15487705171108246 0.41317880153656006 -0.11365767568349838 -0.26433882117271423 -0.13336855173110962 0.0067045059986412525 0.10434195399284363 -0.12107010930776596 -0.09637393057346344 0.027629179880023003 -0.096603237092494965 -0.20739628374576569 0.12536080181598663 0.31696835160255432 0.083373546600341797 -0.097103260457515717 -0.041102223098278046 0.063074804842472076 0.066721133887767792 -0.085139095783233643 -0.080085478723049164 -0.22700934112071991 -0.084852911531925201 0.4172806441783905 -0.1372595876455307 -0.00043884746264666319 0.12444564700126648 0.046549834311008453 0.002799763111397624 -0.16205085813999176 -0.16417567431926727 0.13377225399017334 0.15456828474998474
  -0.10457111895084381 0.0093819210305809975 -0.01008045207709074 -0.087155662477016449 0.14820335805416107 0.063660338521003723 0.014989817515015602 -0.16360709071159363 0.072433404624462128 0.046316985040903091 -0.11564385145902634 0.043143097311258316 -0.14015750586986542 -0.098364546895027161 0.059980101883411407 -0.20028693974018097 -0.0087995314970612526 0.24949714541435242 -0.16976423561573029 -0.27321657538414001 0.38370943069458008 -0.0073227658867835999 -0.25109276175498962 0.089353106915950775 -0.22299426794052124 -0.080325484275817871 0.10044214129447937 -0.38350802659988403 -0.034756746143102646 0.37243974208831787 -0.16447643935680389 -0.24497406184673309 0.44514760375022888 -0.087584935128688812 -0.37661099433898926 0.16225208342075348 -0.29891559481620789 0.13163420557975769 0.11933798342943192 -0.39368322491645813 -0.067232467234134674 0.33774545788764954 -0.11396677047014236 -0.11900164186954498 0.30746635794639587 -0.13271401822566986 -0.31879770755767822 0.2180592268705368 -0.33707317709922791 0.46453341841697693 0.34063813090324402 -0.26872828602790833 -0.15740281343460083 0.29198381304740906 -0.0014252020046114922 0.022293597459793091 0.06221688911318779 -0.28731095790863037 -0.11572375148534775 0.16200567781925201
  0.13290901482105255 0.28357598185539246 0.12609769403934479 0.37459844350814819 0.015073508955538273 0.40462490916252136 0.35112962126731873 0.0322527214884758 -0.095438346266746521 -0.0039015100337564945 -0.20894238352775574 -0.084471173584461212 -0.2606719434261322 0.15678821504116058 0.070553019642829895 0.098987869918346405 -0.13366700708866119 0.31007939577102661 0.27062639594078064 0.13847766816616058 -0.044569574296474457 0.034451939165592194 0.001765131251886487 0.018094085156917572 -0.36981800198554993 0.21468468010425568 0.001096649095416069 0.080356709659099579 0.057864658534526825 0.29537662863731384 0.25318783521652222 0.11164364963769913 -0.064512759447097778 -0.027727555483579636 -0.18982976675033569 -0.06306757777929306 0.0094157913699746132 0.17129932343959808 0.0045480341650545597 0.16320027410984039 -0.00036580607411451638 0.074343539774417877 0.027759840711951256 -0.12620371580123901 -0.052910584956407547 -0.03061228059232235 -0.27805197238922119 -0.1837971955537796 0.36074095964431763 0.27363577485084534 0.16274657845497131 0.19656127691268921 0.13630467653274536 0.16281826794147491 0.11747363209724426 -0.062965519726276398 0.0077203693799674511 -0.10327361524105072 -0.33046907186508179 -0.36712849140167236
  -0.21247018873691559 0.23512755334377289 0.20652298629283905 0.15431968867778778 0.28663459420204163 -0.069087840616703033 0.19398781657218933 -0.18961787223815918 -0.021406557410955429 0.048397857695817947 0.0045381747186183929 0.031904991716146469 0.15173618495464325 -0.08438679575920105 0.19153095781803131 -0.090544089674949646 0.20256870985031128 -0.25580543279647827 0.32932993769645691 -0.30453693866729736 0.24041125178337097 -0.16235247254371643 0.16004224121570587 -0.21100229024887085 0.20224989950656891 -0.31308275461196899 0.00039750165888108313 -0.22233361005783081 0.20759844779968262 -0.35482555627822876 0.47081479430198669 -0.42322459816932678 0.44716358184814453 -0.39459875226020813 0.30986523628234863 -0.2857246994972229 0.1519596129655838 -0.087423920631408691 -0.071737535297870636 -0.15573084354400635 0.22596818208694458 -0.34892606735229492 0.38318577408790588 -0.33473217487335205 0.35573682188987732 -0.31137844920158386 0.27657970786094666 -0.18745310604572296 0.1594264954328537 0.092616870999336243 0.0066452976316213608 -0.057405062019824982 0.21470260620117188 -0.23964698612689972 0.35674864053726196 -0.23349761962890625 0.29022625088691711 -0.28552716970443726 0.29992428421974182 -0.093032792210578918
  0.15838953852653503 0.051834400743246078 -0.043081652373075485 0.41968691349029541 0.035623665899038315 -0.055498577654361725 -0.10366217792034149 -0.11158062517642975 0.13817818462848663 0.17148971557617188 -0.27880233526229858 -0.13512907922267914 0.019723217934370041 0.04395376518368721 -0.31092390418052673 -0.26236435770988464 0.16129477322101593 0.34180951118469238 0.036130160093307495 -0.15115553140640259 -0.015929799526929855 0.26515495777130127 -0.025548756122589111 -0.19153103232383728 -0.40791243314743042 0.11666280031204224 -0.32135182619094849 -0.57865971326828003 0.16352705657482147 0.38624054193496704 0.1445399671792984 -0.070599183440208435 -0.10049691051244736 0.16901922225952148 0.20237046480178833 -0.004454110749065876 -0.39226794242858887 0.21306551992893219 0.045242909342050552 -0.21585099399089813 -0.056798987090587616 -0.059348378330469131 0.17513938248157501 0.27326613664627075 -0.15282094478607178 -0.071631155908107758 0.20754331350326538 0.23908078670501709 -0.21841931343078613 0.2755717933177948 0.73886549472808838 0.56901395320892334 -0.66700053215026855 -0.84873658418655396 -0.029920099303126335 0.52310460805892944 -0.049638491123914719 -0.48283404111862183 0.064095437526702881 0.29191908240318298
  -1.6393465995788574 0.16990603506565094 -0.16517345607280731 0.086846537888050079 -0.057960517704486847 -0.25583863258361816 0.068196170032024384 0.12902681529521942 0.21638622879981995 -0.073281534016132355 -0.22746561467647552 0.18985626101493835 -0.14929693937301636 -0.010557251982390881 -0.027945831418037415 0.04640381783246994 0.056992650032043457 0.05924079567193985 -0.02638995461165905 0.17649649083614349 -0.072782769799232483 -0.030711773782968521 -0.11047066003084183 0.041049789637327194 1.2068172693252563 0.12327559292316437 0.15220780670642853 0.046295065432786942 -0.10507300496101379 0.15320314466953278 -0.08097994327545166 -0.006853252649307251 -0.12197659909725189 -0.045899499207735062 -0.03715018555521965 -0.1958872526884079 1.0890349149703979 -0.18006184697151184 0.24187633395195007 -0.11753443628549576 -0.23069515824317932 0.10775234550237656 0.046087600290775299 -0.19904804229736328 -0.019322639331221581 -0.040509562939405441 0.16863375902175903 -0.16978691518306732 0.24909654259681702 -0.66974145174026489 0.17836970090866089 0.071542471647262573 0.082462489604949951 0.04302692785859108 0.2973441481590271 -0.12273071706295013 0.13563054800033569 0.09956948459148407 0.10274284332990646 0.24631844460964203
  -0.17431296408176422 0.13152611255645752 -0.23507298529148102 0.25083827972412109 -0.12941636145114899 0.34463313221931458 0.17440140247344971 -0.18301829695701599 -0.2207573801279068 0.052420485764741898 0.086477793753147125 -0.1440681517124176 -0.21709449589252472 -0.0042939246632158756 -0.23057609796524048 0.08206600695848465 -0.21072961390018463 0.40671685338020325 0.10357288271188736 -0.087490402162075043 -0.044139254838228226 -0.11614076048135757 0.18007342517375946 -0.40544041991233826 -0.21526388823986053 -0.34893456101417542 -0.39318501949310303 -0.080793134868144989 -0.28648844361305237 0.46772778034210205 0.036722354590892792 0.0082866847515106201 0.028893854469060898 -0.14313967525959015 0.24791918694972992 -0.48832771182060242 -0.10320661216974258 -0.20877157151699066 -0.29199209809303284 0.055626470595598221 -0.27479422092437744 0.35679391026496887 0.008310939185321331 -0.029015455394983292 0.00044214376248419285 0.036483891308307648 0.085187599062919617 -0.29862561821937561 -0.32952752709388733 0.063250042498111725 -0.1969955712556839 0.31724807620048523 -0.075644738972187042 0.25702497363090515 0.1613534539937973 -0.020948315039277077 0.030021140351891518 0.18128357827663422 -0.11257427185773849 -0.10626104474067688
  -0.24570216238498688 0.24149130284786224 -0.17532457411289215 0.21155230700969696 -0.0414905846118927 -0.090176314115524292 0.2376118004322052 -0.38436633348464966 0.004849772434681654 0.088737592101097107 -0.26231729984283447 -0.038832902908325195 -0.31254515051841736 0.42427694797515869 -0.25212216377258301 0.17007406055927277 0.20180472731590271 -0.030576685443520546 0.14426247775554657 -0.31336948275566101 -0.05027344822883606 0.12456994503736496 -0.090793102979660034 0.013993480242788792 -0.24795825779438019 0.57903021574020386 -0.1529487669467926 0.13119262456893921 0.31906402111053467 -0.017786238342523575 0.064988948404788971 -0.092807628214359283 -0.063408464193344116 0.097677633166313171 0.031653758138418198 -0.059451065957546234 -0.23556366562843323 0.35909116268157959 -0.10224919021129608 -0.056952778249979019 0.28836736083030701 0.085941202938556671 0.015271964482963085 0.16349898278713226 -0.058278996497392654 0.0088029643520712852 0.099696420133113861 -0.14095887541770935 -0.55489969253540039 0.021292027086019516 -0.31086397171020508 -0.42014145851135254 0.29180034995079041 0.17712672054767609 0.1031452938914299 0.29277631640434265 -0.035860873758792877 0.045954063534736633 0.073246501386165619 -0.05558307096362114
  0.74634498357772827 -0.34329304099082947 -0.44870007038116455 -0.95066946744918823 -0.030391218140721321 0.30479702353477478 0.32302054762840271 0.34424415230751038 0.40011376142501831 -0.34751603007316589 -0.21057702600955963 -0.32209756970405579 -0.20341046154499054 -0.28529977798461914 -0.32802665233612061 -0.36183756589889526 0.15256926417350769 0.13111996650695801 0.23168523609638214 0.25115889310836792 0.069207169115543365 -0.19043686985969543 -0.00056737812701612711 0.055850576609373093 -0.23151449859142303 -0.30405455827713013 -0.38588151335716248 -0.2450937032699585 0.095394350588321686 0.11505599319934845 0.019889133051037788 0.1276349276304245 0.079257093369960785 0.10404802113771439 0.031874429434537888 0.067075595259666443 0.014164559543132782 0.15143594145774841 0.16889382898807526 0.20161142945289612 -0.077049680054187775 -0.089038945734500885 -0.17384146153926849 -0.092401027679443359 -0.020752167329192162 0.17461784183979034 0.045678038150072098 0.048522047698497772 -0.12283554673194885 0.70216977596282959 0.59369885921478271 0.81772786378860474 -0.1649516224861145 -0.31739243865013123 -0.26411238312721252 -0.41502127051353455 -0.29534479975700378 0.048698492348194122 0.11000604927539825 0.094154529273509979
  0.12508189678192139 0.10340395569801331 0.20000414550304413 0.12395168840885162 -0.27849426865577698 -0.53678256273269653 -0.21268454194068909 0.19605500996112823 0.15266492962837219 -0.057735137641429901 0.07485111802816391 0.29940563440322876 0.050428584218025208 -0.03410036489367485 -0.088216155767440796 -0.049593441188335419 -0.23440077900886536 -0.43386173248291016 -0.16054768860340118 0.1899191290140152 -0.026762485504150391 0.029274867847561836 0.050402618944644928 0.19253037869930267 0.040741495788097382 -0.094292052090167999 -0.14678291976451874 -0.14861807227134705 -0.29812315106391907 -0.39950153231620789 -0.098707787692546844 0.18773533403873444 0.011092544533312321 0.16088002920150757 0.14968375861644745 0.12528787553310394 -0.025668779388070107 0.11382216215133667 0.066261358559131622 0.059753496199846268 -0.29823920130729675 -0.37164232134819031 -0.075318634510040283 0.21857936680316925 0.16618864238262177 0.23291122913360596 0.19477427005767822 0.17044652998447418 0.37396237254142761 0.23751072585582733 0.48078128695487976 0.17007048428058624 -0.31464782357215881 -0.26288461685180664 -0.17203877866268158 0.14867770671844482 0.1865343451499939 -0.050834182649850845 0.096805885434150696 -0.065872639417648315
  -0.75650888681411743 0.73253762722015381 -0.15063437819480896 0.20859228074550629 0.036179017275571823 0.035312909632921219 -0.047711730003356934 0.07929084450006485 -0.054506450891494751 -0.08463595062494278 0.02100367471575737 -0.19309417903423309 -1.2618944644927979 0.10137107223272324 -0.35230633616447449 -0.29741945862770081 0.070741765201091766 0.076546505093574524 -0.066593103110790253 0.21317592263221741 -0.20173743367195129 -0.024509526789188385 0.059195354580879211 0.011395178735256195 -0.64261102676391602 0.42680224776268005 -0.37363818287849426 -0.25842344760894775 0.14283163845539093 -0.035949457436800003 -0.053225856274366379 0.069674700498580933 -0.097033210098743439 0.012873471714556217 -0.046393230557441711 0.11787731945514679 -0.5486443042755127 -0.10165563970804214 -0.051575567573308945 -0.12201935052871704 0.036175664514303207 -0.0083800917491316795 -0.0088024875149130821 0.0075863385573029518 0.091760717332363129 0.1171691045165062 0.02513088658452034 0.059890247881412506 1.7161314487457275 -0.16165374219417572 0.13009415566921234 0.26449805498123169 0.080089978873729706 0.11709371954202652 -0.01935264840722084 -0.21284419298171997 0.16163980960845947 0.093096747994422913 0.032165538519620895 0.028066644445061684 ]
 [ -2.2935614585876465 0.20456016063690186 0.21074295043945312 -2.8072271347045898 -0.87957429885864258 5.2632737159729004 2.0858664512634277 1.4363335371017456 2.5267326831817627 -1.363761305809021 -2.432917594909668 -1.8045729398727417 2.584552526473999 -1.9778022766113281 1.3154939413070679 -3.7448649406433105 1.0245077610015869 0.3579445481300354 1.4284689426422119 -0.09625108540058136 -3.8990287780761719 -0.53540438413619995 -1.3364757299423218 1.9423435926437378 -2.4280240535736084 -0.58716225624084473 -2.8084766864776611 2.585207462310791 2.6550238132476807 -3.1402981281280518 -3.4817984104156494 -2.4351866245269775 -0.21149924397468567 -0.82207143306732178 2.1489665508270264 4.111361026763916 -3.078197717666626 1.4145522117614746 0.24699029326438904 3.349431037902832 0.19077561795711517 -2.916262149810791 -4.0666193962097168 -0.77167975902557373 -0.22407388687133789 -0.96840369701385498 -3.2016229629516602 -1.4306504726409912 2.1173183917999268 -2.0219881534576416 1.9653522968292236 2.1002473831176758 -1.831749439239502 -1.5511109828948975 -1.4806197881698608 -0.2900642454624176 1.2026369571685791 0.77496254444122314 3.1878731250762939 2.6660599708557129 -3.1959593296051025 0.33065328001976013 -2.8423275947570801 1.260978102684021 2.9568672180175781 -2.9336419105529785 2.366828441619873 -1.6353589296340942 -0.37846937775611877 -3.6702501773834229 ]
<sigmoid> 70 70
<affinetransform> 56 70
 [ 
  0.40982553362846375 -0.5364951491355896 0.42009121179580688 0.50187951326370239 -0.72814524173736572 -0.36262953281402588 -0.12761862576007843 -0.075203001499176025 -0.078954420983791351 -0.051534693688154221 0.32082757353782654 0.24593505263328552 -0.46234890818595886 0.28547653555870056 0.73693317174911499 -0.11642304062843323 0.62910294532775879 0.015926750376820564 -0.09399096667766571 -0.16963738203048706 -0.6678997278213501 -0.10641210526227951 -0.29914912581443787 0.35479021072387695 0.0041934465989470482 0.20204956829547882 -0.31676802039146423 0.42393001914024353 -0.088965967297554016 0.053739432245492935 0.27853745222091675 0.36028936505317688 0.18132105469703674 -0.9631463885307312 0.43469223380088806 -0.24409790337085724 0.15279348194599152 0.25640353560447693 -0.15671004354953766 0.44108134508132935 0.28466293215751648 -0.68090927600860596 0.0036064488813281059 0.076836474239826202 0.40071296691894531 0.08038841187953949 0.27582323551177979 0.083633869886398315 -0.29727593064308167 0.20914418995380402 0.019958142191171646 -0.20420072972774506 0.53268605470657349 0.22169312834739685 0.1367812305688858 -0.32448410987854004 0.25522777438163757 -0.43302059173583984 -0.13483121991157532 -0.31483379006385803 0.1049996018409729 -0.052079182118177414 -0.010849142447113991 0.07740609347820282 -0.23752821981906891 -0.24812319874763489 0.1166403591632843 -0.37715229392051697 -0.022936668246984482 0.10604939609766006
  -0.53743475675582886 -0.38690483570098877 -0.66715621948242188 -0.51443934440612793 -0.32487842440605164 0.15588171780109406 0.18207892775535583 -0.52340853214263916 0.79525208473205566 0.31033363938331604 -0.55988651514053345 -0.40326383709907532 0.62289047241210938 0.081983365118503571 -0.10022135823965073 -0.10856696218252182 -0.29501047730445862 -0.43163958191871643 -0.30730628967285156 0.23803423345088959 -0.0057580131106078625 0.17130488157272339 -0.47385686635971069 0.14432753622531891 0.30478304624557495 0.22314125299453735 -0.39279624819755554 -0.13061696290969849 -0.33357203006744385 -0.13348071277141571 0.40594533085823059 -0.065202601253986359 -0.16114680469036102 -0.19360314309597015 -1.3149327039718628 0.039958499372005463 0.081836119294166565 -0.11840276420116425 0.15351659059524536 -0.22865673899650574 0.17847155034542084 0.87282001972198486 -0.3382394015789032 0.5444905161857605 -0.028204005211591721 0.10675197839736938 -0.061228737235069275 0.24020244181156158 -0.82693058252334595 -0.078913047909736633 -0.33491531014442444 0.43806207180023193 0.090071052312850952 0.28160113096237183 0.63348120450973511 -0.17474578320980072 0.063117608428001404 0.033333234488964081 -0.22511488199234009 0.93172842264175415 -0.28739959001541138 -0.37070503830909729 0.12098170071840286 -0.45993804931640625 0.32648894190788269 0.2026301771402359 -0.064499877393245697 -0.59300577640533447 0.096472755074501038 0.054381478577852249
  0.27621650695800781 0.11947672814130783 -0.1439288854598999 0.68034547567367554 0.0075933863408863544 0.15047012269496918 0.15093116462230682 -0.12779027223587036 -0.37099897861480713 -0.24610427021980286 -0.51010185480117798 0.57709217071533203 0.22891263663768768 0.21655787527561188 0.22055962681770325 1.4863141775131226 0.53938585519790649 -0.32396239042282104 -0.80583542585372925 0.0099927596747875214 0.031567830592393875 -0.20466388761997223 0.50414395332336426 0.1415095329284668 0.69589328765869141 0.045192591845989227 0.044888932257890701 -0.63198542594909668 0.069990694522857666 -0.26155707240104675 -0.31867977976799011 -0.090544760227203369 0.028317991644144058 0.25271323323249817 -0.24232722818851471 0.33828002214431763 0.28819161653518677 -0.11964847147464752 -0.27115201950073242 -0.094435304403305054 -0.34091147780418396 0.17704764008522034 0.033638350665569305 0.23491968214511871 0.00062315165996551514 0.30022993683815002 -0.093649126589298248 0.55424273014068604 0.20365674793720245 0.26323911547660828 -0.4312991201877594 0.12396731227636337 0.2565453052520752 0.20369099080562592 0.1783817857503891 0.29926925897598267 -0.12012068182229996 -0.18775750696659088 -0.2166028618812561 0.33706653118133545 -0.078003205358982086 -0.056353654712438583 0.18831188976764679 -0.14343050122261047 -0.47635871171951294 0.10165593773126602 0.055503595620393753 0.11715222895145416 0.44435960054397583 0.93237107992172241
  0.11760000884532928 -0.088411577045917511 0.32098448276519775 -0.32585111260414124 0.17653496563434601 0.49029326438903809 -0.31374099850654602 0.60276550054550171 -0.0027764644473791122 0.071360312402248383 0.13225266337394714 0.42557114362716675 0.14411458373069763 -0.26405522227287292 -0.5320059061050415 -0.0012152346316725016 -0.064575016498565674 0.32859727740287781 0.14444030821323395 -0.1207503005862236 0.67136389017105103 0.090992212295532227 -0.011446448042988777 -0.96536624431610107 -0.10114755481481552 0.59801244735717773 0.067533858120441437 0.61304605007171631 0.20464016497135162 -0.5470154881477356 -0.12670952081680298 -0.22370319068431854 0.32989442348480225 -0.2696864902973175 0.024659864604473114 -0.88424628973007202 -0.27399089932441711 0.48244866728782654 0.054477740079164505 -0.097329229116439819 -0.19245554506778717 -0.040563683956861496 -0.17328381538391113 -0.1879081130027771 0.029612826183438301 -0.23860794305801392 0.015192769467830658 -0.29243198037147522 0.11812176555395126 0.53256875276565552 0.15223447978496552 0.056959569454193115 -0.52157652378082275 0.38625326752662659 -0.024056712165474892 0.15822012722492218 -0.64195913076400757 0.087588280439376831 0.53725814819335938 -0.032003335654735565 -0.1295689195394516 -0.23330599069595337 -0.093275539577007294 0.25588846206665039 -0.33630457520484924 -0.026727832853794098 -0.055840384215116501 0.01381160132586956 0.15075406432151794 0.099408254027366638
  0.083073489367961884 -0.0019016163423657417 -0.088308848440647125 0.16369320452213287 0.04347413033246994 -0.33654549717903137 -0.06816583126783371 0.052916388958692551 -0.13552044332027435 -0.035505115985870361 0.2047848105430603 0.3018796443939209 -0.4175790548324585 -0.16582074761390686 -0.071917831897735596 -0.15235030651092529 -0.036544669419527054 -0.091880783438682556 0.11132404208183289 0.1890600323677063 0.12839430570602417 0.067728057503700256 0.15875452756881714 0.060828901827335358 -0.53035980463027954 -0.032099377363920212 0.10520422458648682 0.21119216084480286 -0.60818427801132202 -0.017919650301337242 0.47487258911132812 0.30734759569168091 0.037860866636037827 -0.054232988506555557 0.023324195295572281 0.029666956514120102 -0.12897969782352448 0.0094271926209330559 -0.34907266497612 0.22155286371707916 -0.25239020586013794 0.050280597060918808 0.31531006097793579 -0.2782045304775238 -0.015926800668239594 -0.450111985206604 0.5100400447845459 -0.028723519295454025 -0.318744957447052 0.083406783640384674 0.1305047869682312 -0.1594705730676651 0.15808649361133575 0.24621818959712982 0.1867029219865799 -0.26040476560592651 0.1815834641456604 0.10567226260900497 0.22457453608512878 -0.074137002229690552 -0.12556976079940796 0.39026626944541931 -0.015187929384410381 0.054605957120656967 -0.19057661294937134 0.22832217812538147 -0.48016822338104248 0.19679851830005646 -0.056952137500047684 -0.27548736333847046
  -0.11154066026210785 -0.049898989498615265 0.27551555633544922 -0.05688823014497757 -0.13841786980628967 -0.084012076258659363 0.58789312839508057 0.22551020979881287 -0.62205857038497925 -0.41199290752410889 0.58867520093917847 0.035473193973302841 -0.34314784407615662 -0.088210947811603546 -0.11069796979427338 0.14994591474533081 0.097057163715362549 0.10529477894306183 0.072671450674533844 0.23946140706539154 -0.29523810744285583 -0.26583650708198547 0.60574793815612793 0.091904826462268829 -0.11548100411891937 -0.23728074133396149 0.24276913702487946 0.087980560958385468 0.14419493079185486 0.34795138239860535 -0.11047635972499847 0.24360373616218567 0.20740070939064026 0.29514035582542419 0.41611012816429138 0.74980872869491577 0.10098464787006378 -0.32590815424919128 0.23985515534877777 -0.054839927703142166 0.08410441130399704 -0.33097261190414429 -0.14568889141082764 -0.36671653389930725 -0.22480548918247223 -0.17513549327850342 -0.089038342237472534 -0.1517457515001297 0.21794998645782471 -0.57981342077255249 0.029101481661200523 0.38783368468284607 -0.039526164531707764 -0.39109936356544495 -0.51746302843093872 0.27775624394416809 0.020946985110640526 0.50363397598266602 -0.034012973308563232 -0.073924742639064789 -0.24247494339942932 -0.0092972731217741966 -0.30754932761192322 0.079367376863956451 0.034391961991786957 -0.082219548523426056 0.0023577122483402491 -0.31103932857513428 -0.29565653204917908 0.02087876945734024
  0.73762309551239014 0.22480082511901855 -0.22767841815948486 0.20212909579277039 0.053229905664920807 -0.017450083047151566 -0.2317928820848465 -0.29698300361633301 -0.21152453124523163 0.1896643191576004 0.27075788378715515 0.52459830045700073 -0.37354794144630432 0.20618140697479248 -0.20986494421958923 1.1253578662872314 0.050845053046941757 0.22615744173526764 -0.4782472550868988 -0.34844228625297546 -0.046852085739374161 0.021389899775385857 0.38065913319587708 -0.36679312586784363 0.11613797396421432 0.0056218346580862999 0.1974252313375473 -0.57703447341918945 0.12968744337558746 -0.018137440085411072 -0.31439036130905151 0.38163891434669495 -0.11759835481643677 -0.075792498886585236 0.70317238569259644 -0.50533914566040039 -0.2204965204000473 0.18331797420978546 0.0042781042866408825 -0.013738960027694702 -0.58610433340072632 -0.46793273091316223 -0.031710248440504074 0.021513441577553749 -0.17890550196170807 -0.18762318789958954 0.32194852828979492 -0.12009249627590179 0.42484697699546814 0.096649378538131714 0.53704071044921875 -0.052089039236307144 0.089551582932472229 0.40625539422035217 -0.16657924652099609 0.075323238968849182 -0.42507836222648621 -0.40205168724060059 -0.057996917515993118 -1.0366311073303223 -0.017936410382390022 0.078145027160644531 -0.051599539816379547 0.45629248023033142 -0.855876624584198 -0.0011045299470424652 -0.063519686460494995 0.47493425011634827 0.049591965973377228 0.79003715515136719
