<Nnet>
<rbm> 30 69
bern bern [
  0.20467044413089752 -0.025444382801651955 -0.085642576217651367 0.082024648785591125 0.20466980338096619 -0.085596390068531036 0.084617026150226593 0.20468345284461975 0.0282293651252985 -0.010158045217394829 -0.20369072258472443 -0.20369221270084381 -0.082712739706039429 0.20467102527618408 -0.20369172096252441 -0.010168617591261864 0.08644673228263855 0.029372664168477058 0.085877731442451477 -0.085670031607151031 -0.20369423925876617 -0.010229503735899925 0.087817452847957611 -0.20369809865951538 -0.025311859324574471 0.012065748684108257 0.20466776192188263 0.20466887950897217 0.20466706156730652 -0.20365850627422333 -0.085698068141937256 -0.0037109758704900742 -0.093983672559261322 0.028775591403245926 -0.09200703352689743 -0.0037339620757848024 0.086158789694309235 -0.010190320201218128 -0.010180315002799034 -0.010121394880115986 0.20467886328697205 0.088595479726791382 0.02829393744468689 -0.093820236623287201 -0.086989670991897583 -0.20369471609592438 0.086515516042709351 0.086597070097923279 -0.20369784533977509 -0.085693985223770142 0.045788213610649109 0.011845622211694717 -0.085599169135093689 0.012350241653621197 0.028196152299642563 -0.014067154377698898 -0.2015388160943985 0.085730940103530884 0.20467209815979004 0.0021710493601858616 -0.085321038961410522 0.20466804504394531 0.011615452356636524 -0.086177028715610504 0.012259419076144695 -0.010161709971725941 0.028300277888774872 -0.0039058208931237459 -0.010054310783743858
  -0.054922867566347122 -0.011778403073549271 -0.094909325242042542 -0.14322403073310852 -0.05492255836725235 -0.095176123082637787 -0.1731143444776535 -0.054926857352256775 0.010186941362917423 0.16417884826660156 0.054466672241687775 0.054466415196657181 0.17732740938663483 -0.054923038929700851 0.054466795176267624 0.16462908685207367 0.084844373166561127 0.011852662079036236 -0.1716383695602417 -0.094741389155387878 0.054467003792524338 0.16451118886470795 -0.16867148876190186 0.054467707872390747 -0.012626359239220619 -0.16862833499908447 -0.054922301322221756 -0.054922394454479218 -0.054922096431255341 0.05446353554725647 -0.094577684998512268 0.029468504711985588 0.15927878022193909 0.011474918574094772 0.1522538810968399 0.0295071080327034 -0.17159067094326019 0.16454045474529266 0.16447402536869049 0.16526107490062714 -0.054925661534070969 -0.15741737186908722 0.010774681344628334 0.15820929408073425 -0.078576169908046722 0.05446711927652359 0.082537844777107239 0.078717418015003204 0.054467421025037766 -0.094608120620250702 0.021695241332054138 -0.16865445673465729 -0.095161005854606628 -0.16829849779605865 0.010148442350327969 0.16858766973018646 0.054404038935899734 0.092030942440032959 -0.054923292249441147 -0.027377903461456299 0.17619127035140991 -0.054922226816415787 -0.1685912013053894 -0.091454260051250458 -0.1684635728597641 0.16467197239398956 0.011458599008619785 0.029796099290251732 0.16347801685333252
  -0.082106314599514008 0.10927867144346237 0.15890480577945709 0.106208436191082 -0.082108013331890106 0.15893509984016418 0.090721182525157928 -0.082075260579586029 -0.10984723269939423 -0.082467786967754364 0.084246747195720673 0.084244735538959503 -0.090549863874912262 -0.08210483193397522 0.084245361387729645 -0.083706222474575043 -0.15700142085552216 -0.11138598620891571 0.091627545654773712 0.15888476371765137 0.084241472184658051 -0.083249129354953766 0.094072803854942322 0.084235168993473053 0.10975048691034317 0.092153467237949371 -0.082113116979598999 -0.082110241055488586 -0.082114718854427338 0.084295317530632019 0.15886612236499786 0.0064921416342258453 -0.099808581173419952 -0.11089090257883072 -0.10175392031669617 0.0064999125897884369 0.091864384710788727 -0.083411149680614471 -0.08324567973613739 -0.0855998694896698 -0.082086347043514252 0.10102776437997818 -0.11024273186922073 -0.10011090338230133 0.15613044798374176 0.084240570664405823 -0.15651370584964752 -0.15565839409828186 0.084235548973083496 0.15887024998664856 -0.1235901415348053 0.092690415680408478 0.15893353521823883 0.090424694120883942 -0.10980847477912903 -0.089161105453968048 0.086906202137470245 -0.15820834040641785 -0.082102492451667786 -0.0054699466563761234 -0.091412462294101715 -0.082112237811088562 0.092934876680374146 0.15847565233707428 0.091178879141807556 -0.083841636776924133 -0.11067023128271103 0.0065559283830225468 -0.080749422311782837
  0.043809544295072556 -0.0091615207493305206 0.094497308135032654 0.12964226305484772 0.043809730559587479 0.094806551933288574 0.16991426050662994 0.043802540749311447 0.01075337827205658 -0.1788145899772644 -0.043935298919677734 -0.043934110552072525 -0.17557752132415771 0.043809141963720322 -0.043934870511293411 -0.17903852462768555 -0.082696303725242615 0.0088241510093212128 0.16754326224327087 0.094302937388420105 -0.043933432549238205 -0.17899870872497559 0.16278254985809326 -0.043931856751441956 -0.0082640349864959717 0.18136316537857056 0.043811231851577759 0.043810345232486725 0.043811623007059097 -0.043952528387308121 0.094113081693649292 -0.035014655441045761 -0.14842690527439117 0.0093018850311636925 -0.13975076377391815 -0.035059418529272079 0.1673627644777298 -0.17900189757347107 -0.17896643280982971 -0.1793244332075119 0.043805211782455444 0.14695566892623901 0.010112951509654522 -0.14707529544830322 0.07547016441822052 -0.043933220207691193 -0.08000975102186203 -0.075561672449111938 -0.043931663036346436 0.094148255884647369 -0.00400531105697155 0.1813039630651474 0.094789110124111176 0.1813550740480423 0.010798604227602482 -0.18151102960109711 -0.045085728168487549 -0.091037675738334656 0.043808560818433762 0.03265463188290596 -0.17333650588989258 0.043810900300741196 0.1812165230512619 0.090488575398921967 0.18137654662132263 -0.17905676364898682 0.0093749305233359337 -0.035394463688135147 -0.17843018472194672
  -0.049990564584732056 -0.0051130750216543674 -0.095489412546157837 -0.13839432597160339 -0.049990452826023102 -0.095769718289375305 -0.17164580523967743 -0.049990929663181305 0.0034850428346544504 0.16904449462890625 0.049673568457365036 0.049673054367303848 0.17630022764205933 -0.049990549683570862 0.049673542380332947 0.16942118108272552 0.084808334708213806 0.0052486485801637173 -0.16986791789531708 -0.095313049852848053 0.049673233181238174 0.16932782530784607 -0.16630333662033081 0.049673091620206833 -0.0059777544811367989 -0.17291726171970367 -0.049990791827440262 -0.049990609288215637 -0.04999079555273056 0.049677338451147079 -0.095141060650348663 0.031075876206159592 0.15522108972072601 0.004832967184484005 0.14767225086688995 0.031116420403122902 -0.1697755753993988 0.16934913396835327 0.16929303109645844 0.16994094848632812 -0.049991045147180557 -0.15356147289276123 0.0040915436111390591 0.15406136214733124 -0.078286945819854736 0.049673233181238174 0.082378767430782318 0.078353710472583771 0.049672853201627731 -0.09517282247543335 0.016211681067943573 -0.17291723191738129 -0.095753833651542664 -0.17268994450569153 0.0034440313465893269 0.17286616563796997 0.05002029612660408 0.092366218566894531 -0.049990542232990265 -0.028960064053535461 0.17478525638580322 -0.04999060183763504 -0.17284771800041199 -0.091857843101024628 -0.1728089302778244 0.16945609450340271 0.0047944416292011738 0.031419854611158371 0.16844704747200012
  -0.059482157230377197 -0.018060550093650818 -0.094337061047554016 -0.14765787124633789 -0.059481676667928696 -0.094591058790683746 -0.17435906827449799 -0.059489615261554718 0.016476217657327652 0.15947248041629791 0.058866199105978012 0.058866363018751144 0.17812564969062805 -0.05948251485824585 0.058866672217845917 0.15999157726764679 0.084830522537231445 0.01804918609559536 -0.17316782474517822 -0.094177372753620148 0.05886739119887352 0.15985025465488434 -0.17076496779918671 0.058868829160928726 -0.018892157822847366 -0.16448944807052612 -0.059480786323547363 -0.059481259435415268 -0.059480413794517517 0.058856770396232605 -0.094021506607532501 0.027896193787455559 0.16294226050376892 0.017707165330648422 0.15641763806343079 0.027932960540056229 -0.17316156625747681 0.15988720953464508 0.15981125831604004 0.16072860360145569 -0.059487197548151016 -0.16092081367969513 0.01704593189060688 0.16195927560329437 -0.078835219144821167 0.058867566287517548 0.082642175257205963 0.079016998410224915 0.058868546038866043 -0.094050332903862 0.026837408542633057 -0.16454078257083893 -0.094576522707939148 -0.16406305134296417 0.016440091654658318 0.16442854702472687 0.058419432491064072 0.091661825776100159 -0.05948302149772644 -0.025860769674181938 0.17734619975090027 -0.059480853378772736 -0.16448314487934113 -0.091051049530506134 -0.16427117586135864 0.16004164516925812 0.017711590975522995 0.028208116069436073 0.15867482125759125
  -0.082096129655838013 0.10926242172718048 0.15890383720397949 0.10621323436498642 -0.082097873091697693 0.15893420577049255 0.090735502541065216 -0.082065261900424957 -0.10983036458492279 -0.082488603889942169 0.084236599504947662 0.08423449844121933 -0.090565197169780731 -0.082094684243202209 0.084235191345214844 -0.083727046847343445 -0.15699836611747742 -0.11136940121650696 0.091641262173652649 0.15888398885726929 0.084231249988079071 -0.083269916474819183 0.094085238873958588 0.084225066006183624 0.1097341775894165 0.092173509299755096 -0.08210311084985733 -0.082100212574005127 -0.082104764878749847 0.084285132586956024 0.15886512398719788 0.0064853881485760212 -0.099816955626010895 -0.11087417602539062 -0.10176051408052444 0.0064931521192193031 0.091877996921539307 -0.083431892096996307 -0.083266489207744598 -0.085620291531085968 -0.082076266407966614 0.10103601217269897 -0.11022607982158661 -0.10011890530586243 0.15612635016441345 0.084230341017246246 -0.15651029348373413 -0.15565416216850281 0.084225498139858246 0.15886901319026947 -0.12357483804225922 0.092710584402084351 0.15893255174160004 0.090444989502429962 -0.1097915917634964 -0.089181229472160339 0.086895197629928589 -0.15820641815662384 -0.082092329859733582 -0.0054634297266602516 -0.09142700582742691 -0.082102209329605103 0.092954829335212708 0.15847417712211609 0.091199144721031189 -0.083862386643886566 -0.11065357178449631 0.0065491101704537868 -0.080770373344421387
  -0.20508380234241486 0.021259499713778496 0.084937430918216705 -0.083811543881893158 -0.205082967877388 0.084900833666324615 -0.084244459867477417 -0.20509892702102661 -0.023998528718948364 0.0071095805615186691 0.20401120185852051 0.20401278138160706 0.082099489867687225 -0.20508459210395813 0.20401224493980408 0.0071635679341852665 -0.085346318781375885 -0.025180242955684662 -0.085671067237854004 0.084958814084529877 0.20401506125926971 0.0072085554711520672 -0.087956622242927551 0.20401948690414429 0.0211374182254076 -0.0093424459919333458 -0.20508038997650146 -0.20508183538913727 -0.20507964491844177 0.20397518575191498 0.084981001913547516 0.0021962062455713749 0.095144934952259064 -0.024570081382989883 0.093530893325805664 0.0022179419174790382 -0.085977509617805481 0.0071749524213373661 0.0071590631268918514 0.0071829427033662796 -0.20509329438209534 -0.089676052331924438 -0.024072319269180298 0.095042183995246887 0.085694111883640289 0.20401567220687866 -0.08533264696598053 -0.08527885377407074 0.2040192037820816 0.084977909922599792 -0.041999612003564835 -0.0091410484164953232 0.084903128445148468 -0.0095626236870884895 -0.023964334279298782 0.01130210142582655 0.20163588225841522 -0.084886357188224792 -0.20508566498756409 -0.00070351996691897511 0.08490455150604248 -0.20508091151714325 -0.0089182155206799507 0.085347607731819153 -0.0095000630244612694 0.007161345798522234 -0.024088684469461441 0.002379709854722023 0.0069461558014154434
  -0.082103744149208069 0.10927446186542511 0.15890464186668396 0.10620968788862228 -0.082105405628681183 0.1589348167181015 0.090724892914295197 -0.082072652876377106 -0.10984282195568085 -0.082473240792751312 0.084244221448898315 0.084242187440395355 -0.090553842484951019 -0.082102172076702118 0.0842428058385849 -0.083711579442024231 -0.15700063109397888 -0.11138172447681427 0.091631025075912476 0.1588846892118454 0.084238991141319275 -0.083254538476467133 0.094075992703437805 0.08423258364200592 0.10974622517824173 0.092158637940883636 -0.082110561430454254 -0.082107678055763245 -0.082112237811088562 0.084292717278003693 0.15886585414409637 0.0064903926104307175 -0.099810674786567688 -0.11088652908802032 -0.10175555199384689 0.0064981598407030106 0.091867871582508087 -0.08341650664806366 -0.08325108140707016 -0.085605122148990631 -0.082083873450756073 0.1010299026966095 -0.11023850739002228 -0.1001129224896431 0.15612933039665222 0.084237970411777496 -0.15651285648345947 -0.15565738081932068 0.084233053028583527 0.15886998176574707 -0.12358620762825012 0.092695608735084534 0.15893323719501495 0.090429969131946564 -0.10980410128831863 -0.089166343212127686 0.086903370916843414 -0.15820778906345367 -0.082099951803684235 -0.0054682539775967598 -0.091416172683238983 -0.082109712064266205 0.092940010130405426 0.1584753543138504 0.091184191405773163 -0.083847016096115112 -0.11066591739654541 0.0065541602671146393 -0.080754809081554413
  0.20467045903205872 -0.025444414466619492 -0.08564256876707077 0.082024626433849335 0.20466978847980499 -0.085596397519111633 0.084617018699645996 0.20468343794345856 0.028229391202330589 -0.010158054530620575 -0.20369070768356323 -0.20369219779968262 -0.082712732255458832 0.20467102527618408 -0.20369170606136322 -0.010168627835810184 0.086446739733219147 0.029372692108154297 0.085877731442451477 -0.085670031607151031 -0.20369423925876617 -0.010229509323835373 0.087817452847957611 -0.20369808375835419 -0.025311883538961411 0.01206575334072113 0.20466774702072144 0.20466886460781097 0.20466703176498413 -0.20365850627422333 -0.085698090493679047 -0.0037109821569174528 -0.093983665108680725 0.028775610029697418 -0.09200701117515564 -0.0037339699920266867 0.086158782243728638 -0.010190329514443874 -0.01018032431602478 -0.010121393948793411 0.20467884838581085 0.088595472276210785 0.028293950483202934 -0.09382021427154541 -0.086989670991897583 -0.20369473099708557 0.086515523493289948 0.086597077548503876 -0.20369786024093628 -0.085693985223770142 0.045788224786520004 0.011845631524920464 -0.085599176585674286 0.012350244447588921 0.028196165338158607 -0.014067165553569794 -0.20153883099555969 0.085730940103530884 0.20467208325862885 0.0021710526198148727 -0.085321031510829926 0.20466804504394531 0.011615460738539696 -0.086177028715610504 0.012259421870112419 -0.010161718353629112 0.028300302103161812 -0.0039058267138898373 -0.010054317303001881
  -0.082093395292758942 0.10925783216953278 0.15890355408191681 0.10621453076601028 -0.082095101475715637 0.15893398225307465 0.090739406645298004 -0.082062482833862305 -0.10982552170753479 -0.082494497299194336 0.084233760833740234 0.084231659770011902 -0.090569473803043365 -0.082091875374317169 0.084232322871685028 -0.08373289555311203 -0.15699736773967743 -0.1113646924495697 0.091645218431949615 0.15888366103172302 0.084228463470935822 -0.083275839686393738 0.09408869594335556 0.084222301840782166 0.10972952097654343 0.092179186642169952 -0.082100309431552887 -0.08209739625453949 -0.082102037966251373 0.084282331168651581 0.15886478126049042 0.0064834807999432087 -0.099819250404834747 -0.11086946725845337 -0.1017623096704483 0.0064912335947155952 0.091881781816482544 -0.083437666296958923 -0.083272308111190796 -0.085626117885112762 -0.082073494791984558 0.10103840380907059 -0.11022133380174637 -0.1001211479306221 0.15612518787384033 0.084227599203586578 -0.15650932490825653 -0.15565299987792969 0.084222741425037384 0.15886873006820679 -0.12357050180435181 0.092716149985790253 0.15893244743347168 0.090450689196586609 -0.10978685319423676 -0.08918684720993042 0.086892202496528625 -0.15820595622062683 -0.082089565694332123 -0.0054616122506558895 -0.091431066393852234 -0.082099452614784241 0.092960447072982788 0.15847353637218475 0.091204829514026642 -0.083868250250816345 -0.11064882576465607 0.0065471762791275978 -0.080776363611221313
  0.084303386509418488 -0.11595840752124786 -0.15939106047153473 -0.10594283044338226 0.084305211901664734 -0.15940171480178833 -0.086609013378620148 0.0842694491147995 0.11662209033966064 0.074997417628765106 -0.086597658693790436 -0.086595267057418823 0.085988946259021759 0.084301650524139404 -0.086596012115478516 0.076297104358673096 0.15824636816978455 0.11808548867702484 -0.087783701717853546 -0.15938368439674377 -0.086591847240924835 0.075816169381141663 -0.090791627764701843 -0.086584955453872681 -0.11639897525310516 -0.085133157670497894 0.084310717880725861 0.084307648241519928 0.084312506020069122 -0.086651712656021118 -0.15937666594982147 -0.0093501107767224312 0.098171204328536987 0.11761095374822617 0.10081110149621964 -0.0093607651069760323 -0.088057674467563629 0.075986795127391815 0.075813233852386475 0.078286148607730865 0.08428143709897995 -0.099374137818813324 0.11699455231428146 0.098586171865463257 -0.15781314671039581 -0.086590789258480072 0.15792535245418549 0.15734274685382843 -0.086585357785224915 -0.1593785285949707 0.12965647876262665 -0.085701264441013336 -0.15940116345882416 -0.083305858075618744 0.11658522486686707 0.082029454410076141 -0.089581586420536041 0.15893147885799408 0.084299094974994659 0.0081728613004088402 0.087148748338222504 0.08430974930524826 -0.085960231721401215 -0.15921673178672791 -0.084102846682071686 0.076439172029495239 0.11739553511142731 -0.0094390837475657463 0.073196932673454285
  -0.08213689923286438 0.10933011025190353 0.1589076966047287 0.10619419068098068 -0.082138590514659882 0.15893809497356415 0.090676650404930115 -0.082106016576290131 -0.10990044474601746 -0.082402728497982025 0.084277600049972534 0.084275610744953156 -0.090502962470054626 -0.082135394215583801 0.084276221692562103 -0.083641722798347473 -0.15701150894165039 -0.11143871396780014 0.091585278511047363 0.15888795256614685 0.08427245169878006 -0.083184406161308289 0.094034694135189056 0.084266200661659241 0.10980165749788284 0.092090658843517303 -0.082143895328044891 -0.082140922546386719 -0.082145512104034424 0.084326222538948059 0.15886923670768738 0.0065132011659443378 -0.099783375859260559 -0.1109437569975853 -0.10173426568508148 0.006520991213619709 0.091822259128093719 -0.083346538245677948 -0.083180919289588928 -0.08553604781627655 -0.082117058336734772 0.10100208222866058 -0.11029586941003799 -0.10008650273084641 0.15614302456378937 0.084271498024463654 -0.15652529895305634 -0.15567217767238617 0.084266625344753265 0.15887323021888733 -0.12363793700933456 0.092627920210361481 0.15893654525279999 0.090361073613166809 -0.10986171662807465 -0.08909820020198822 0.086939327418804169 -0.15821392834186554 -0.082133181393146515 -0.0054904860444366932 -0.091367572546005249 -0.082143008708953857 0.092872418463230133 0.15848059952259064 0.091115780174732208 -0.083777144551277161 -0.11072298884391785 0.006577211432158947 -0.080683842301368713
  0.045741759240627289 -0.0063648014329373837 0.094389580190181732 0.13170219957828522 0.045741837471723557 0.094693347811698914 0.1705964058637619 0.045736275613307953 0.0079081989824771881 -0.17693281173706055 -0.045842025429010391 -0.045840982347726822 -0.17611274123191833 0.045741397887468338 -0.045841671526432037 -0.17718774080276489 -0.082869537174701691 0.0060175363905727863 0.16834951937198639 0.094198308885097504 -0.045840509235858917 -0.17713767290115356 0.16383384168148041 -0.045839190483093262 -0.0054736710153520107 0.17969289422035217 0.04574308916926384 0.045742377638816833 0.045743446797132492 -0.045856405049562454 0.094012022018432617 -0.034386962652206421 -0.15020100772380829 0.0064802020788192749 -0.14173893630504608 -0.034430917352437973 0.16818717122077942 -0.17714418470859528 -0.17710456252098083 -0.17752110958099365 0.045738376677036285 0.14861692488193512 0.0072750737890601158 -0.14888638257980347 0.075711712241172791 -0.045840330421924591 -0.080232575535774231 -0.075866267085075378 -0.045839004218578339 0.094046525657176971 -0.0063654850237071514 0.17964471876621246 0.094676129519939423 0.17964097857475281 0.0079524526372551918 -0.17987591028213501 -0.046823136508464813 -0.091062009334564209 0.045740962028503418 0.032004497945308685 -0.1740269660949707 0.045742813497781754 0.17955976724624634 0.090451866388320923 0.17968212068080902 -0.17720966041088104 0.0065443580970168114 -0.034760076552629471 -0.17650474607944489
  -0.082080833613872528 0.10923714935779572 0.1589021235704422 0.10622034966945648 -0.082082554697990417 0.15893277525901794 0.090757280588150024 -0.082050010561943054 -0.10980449616909027 -0.082520619034767151 0.084220930933952332 0.084218844771385193 -0.090588696300983429 -0.082079358398914337 0.084219522774219513 -0.083758644759654999 -0.15699344873428345 -0.11134400963783264 0.091662146151065826 0.15888214111328125 0.084215655922889709 -0.08330179750919342 0.09410395473241806 0.084209397435188293 0.10970911383628845 0.092204168438911438 -0.082087740302085876 -0.082084856927394867 -0.082089424133300781 0.0842694491147995 0.15886330604553223 0.0064749517478048801 -0.099829740822315216 -0.11084849387407303 -0.10177048295736313 0.0064826975576579571 0.091898798942565918 -0.083463631570339203 -0.083298295736312866 -0.085651800036430359 -0.082061000168323517 0.10104887932538986 -0.11020020395517349 -0.10013116151094437 0.15611977875232697 0.084214724600315094 -0.15650483965873718 -0.15564769506454468 0.084209822118282318 0.15886710584163666 -0.12355152517557144 0.092740945518016815 0.15893104672431946 0.090475961565971375 -0.10976580530405045 -0.089212149381637573 0.086878411471843719 -0.15820367634296417 -0.082077130675315857 -0.0054535232484340668 -0.091449335217475891 -0.082086898386478424 0.092985272407531738 0.15847140550613403 0.091230094432830811 -0.083894126117229462 -0.1106279268860817 0.0065385531634092331 -0.080802649259567261
  0.20467044413089752 -0.025444410741329193 -0.08564256876707077 0.082024633884429932 0.2046697735786438 -0.08559640496969223 0.084617026150226593 0.20468343794345856 0.028229400515556335 -0.01015804335474968 -0.20369070768356323 -0.20369219779968262 -0.082712739706039429 0.20467102527618408 -0.20369172096252441 -0.010168631561100483 0.086446724832057953 0.029372688382863998 0.08587772399187088 -0.085670031607151031 -0.20369422435760498 -0.0102295046672225 0.087817445397377014 -0.20369808375835419 -0.025311889126896858 0.012065750546753407 0.20466776192188263 0.20466886460781097 0.20466706156730652 -0.20365849137306213 -0.08569808304309845 -0.0037109814584255219 -0.093983657658100128 0.028775613754987717 -0.09200703352689743 -0.0037339706905186176 0.086158789694309235 -0.010190322995185852 -0.010180315002799034 -0.010121392086148262 0.20467884838581085 0.088595472276210785 0.028293963521718979 -0.093820191919803619 -0.086989685893058777 -0.20369473099708557 0.086515538394451141 0.086597077548503876 -0.20369783043861389 -0.085694015026092529 0.045788228511810303 0.011845621280372143 -0.085599176585674286 0.012350237928330898 0.028196167200803757 -0.014067159965634346 -0.2015388160943985 0.085730947554111481 0.20467208325862885 0.0021710584405809641 -0.085321031510829926 0.20466805994510651 0.011615462601184845 -0.086177043616771698 0.012259425595402718 -0.010161715559661388 0.028300302103161812 -0.00390582624822855 -0.010054315440356731
  -0.056844837963581085 -0.014410433359444141 -0.094671972095966339 -0.1450958251953125 -0.056844431906938553 -0.094933591783046722 -0.17365264892578125 -0.056850284337997437 0.012824263423681259 0.16222049295902252 0.056324120610952377 0.056324116885662079 0.17768105864524841 -0.056845098733901978 0.056324422359466553 0.1626993715763092 0.08484264463186264 0.014451165683567524 -0.17229591310024261 -0.094507686793804169 0.056324850767850876 0.16257157921791077 -0.16956524550914764 0.056325878947973251 -0.015251620672643185 -0.16690565645694733 -0.056843973696231842 -0.05684419721364975 -0.056843675673007965 0.056318372488021851 -0.094347186386585236 0.028816202655434608 0.16083186864852905 0.014088387601077557 0.15401573479175568 0.028854053467512131 -0.17226515710353851 0.16260418295860291 0.16253384947776794 0.16337551176548004 -0.056848570704460144 -0.15890085697174072 0.013404477387666702 0.15979856252670288 -0.078685805201530457 0.05632493644952774 0.082585632801055908 0.078846573829650879 0.056325573474168777 -0.094376824796199799 0.023851675912737846 -0.16694220900535583 -0.094918698072433472 -0.1665351390838623 0.012786742299795151 0.16685901582241058 0.056100446730852127 0.091881170868873596 -0.056845497339963913 -0.02674589492380619 0.17669440805912018 -0.056843936443328857 -0.16688139736652374 -0.091287560760974884 -0.16671828925609589 0.16274523735046387 0.014080792665481567 0.029137223958969116 0.16147869825363159
  -0.20508384704589844 0.021259427070617676 0.084937423467636108 -0.083811581134796143 -0.20508295297622681 0.084900826215744019 -0.084244489669799805 -0.20509894192218781 -0.023998448625206947 0.0071095540188252926 0.2040112167596817 0.20401284098625183 0.082099512219429016 -0.20508459210395813 0.20401225984096527 0.0071635311469435692 -0.085346288979053497 -0.025180170312523842 -0.085671097040176392 0.084958814084529877 0.20401512086391449 0.0072085359133780003 -0.087956652045249939 0.20401956140995026 0.021137351170182228 -0.0093424068763852119 -0.20508043467998505 -0.20508186519145966 -0.20507967472076416 0.20397524535655975 0.084980979561805725 0.002196185989305377 0.095144979655742645 -0.024570006877183914 0.093530952930450439 0.0022179251536726952 -0.085977561771869659 0.0071749188937246799 0.0071590333245694637 0.007182917557656765 -0.20509330928325653 -0.089676089584827423 -0.024072239175438881 0.095042221248149872 0.085694074630737305 0.20401571691036224 -0.085332602262496948 -0.085278816521167755 0.20401923358440399 0.084977902472019196 -0.041999541223049164 -0.0091410288587212563 0.084903106093406677 -0.0095625948160886765 -0.023964254185557365 0.011302083730697632 0.20163591206073761 -0.084886334836483002 -0.20508567988872528 -0.00070350122405216098 0.084904581308364868 -0.20508094131946564 -0.0089181903749704361 0.085347592830657959 -0.0095000406727194786 0.0071613197214901447 -0.024088600650429726 0.0023796870373189449 0.006946126464754343
  -0.060870647430419922 -0.020003294572234154 -0.094156995415687561 -0.14900502562522888 -0.060870114713907242 -0.094406872987747192 -0.17471572756767273 -0.060879126191139221 0.018418196588754654 0.15799608826637268 0.060202091932296753 0.060202289372682571 0.17834107577800751 -0.060871049761772156 0.060202527791261673 0.15853658318519592 0.084821000695228577 0.019962450489401817 -0.17361268401145935 -0.093999795615673065 0.06020345538854599 0.15838779509067535 -0.17138437926769257 0.060205139219760895 -0.020829811692237854 -0.16319124400615692 -0.060869023203849792 -0.060869630426168442 -0.060868620872497559 0.060190606862306595 -0.09384649246931076 0.027399582788348198 0.16404519975185394 0.019631404429674149 0.15767659246921539 0.027435785159468651 -0.17361952364444733 0.15842704474925995 0.15834827721118927 0.15930576622486115 -0.060876302421092987 -0.16197805106639862 0.018982283771038055 0.16308911144733429 -0.078914530575275421 0.060203645378351212 0.082669556140899658 0.079105429351329803 0.060204807668924332 -0.093874841928482056 0.028425339609384537 -0.16324979066848755 -0.094392649829387665 -0.16273480653762817 0.018382787704467773 0.16312034428119659 0.059636734426021576 0.091541565954685211 -0.060871638357639313 -0.025385038927197456 0.17767168581485748 -0.060869123786687851 -0.16319404542446136 -0.090923778712749481 -0.1629563570022583 0.15858866274356842 0.019642211496829987 0.027706582099199295 0.15716859698295593
  -0.08209306001663208 0.10925722867250443 0.15890350937843323 0.10621467232704163 -0.082094736397266388 0.15893398225307465 0.09073987603187561 -0.082062117755413055 -0.10982491821050644 -0.082495249807834625 0.084233373403549194 0.08423130214214325 -0.090570017695426941 -0.082091532647609711 0.084231965243816376 -0.083733610808849335 -0.15699727833271027 -0.11136409640312195 0.091645672917366028 0.15888361632823944 0.084228098392486572 -0.083276592195034027 0.094089142978191376 0.08422195166349411 0.10972890257835388 0.092179939150810242 -0.082099974155426025 -0.082097053527832031 -0.082101672887802124 0.084281966090202332 0.15886473655700684 0.0064832381904125214 -0.099819570779800415 -0.11086886376142502 -0.101762555539608 0.0064909891225397587 0.091882273554801941 -0.083438418805599213 -0.083273045718669891 -0.085626877844333649 -0.082073159515857697 0.10103870928287506 -0.11022073775529861 -0.10012141615152359 0.15612499415874481 0.084227249026298523 -0.15650919079780579 -0.15565289556980133 0.084222391247749329 0.15886867046356201 -0.12356990575790405 0.092716813087463379 0.15893234312534332 0.090451419353485107 -0.10978624224662781 -0.089187555015087128 0.086891792714595795 -0.15820586681365967 -0.082089200615882874 -0.0054613873362541199 -0.091431602835655212 -0.082099124789237976 0.092961154878139496 0.15847347676753998 0.091205529868602753 -0.083868987858295441 -0.11064822971820831 0.0065469262190163136 -0.080777093768119812
  -0.20508381724357605 0.02125944010913372 0.084937416017055511 -0.08381158858537674 -0.20508298277854919 0.084900811314582825 -0.084244474768638611 -0.20509892702102661 -0.023998454213142395 0.007109563797712326 0.20401120185852051 0.20401281118392944 0.08209952712059021 -0.20508459210395813 0.20401227474212646 0.0071635320782661438 -0.0853462815284729 -0.025180179625749588 -0.085671104490756989 0.084958814084529877 0.2040151059627533 0.0072085303254425526 -0.087956652045249939 0.20401954650878906 0.021137362346053123 -0.0093424143269658089 -0.20508040487766266 -0.20508185029029846 -0.20507967472076416 0.20397523045539856 0.084980964660644531 0.0021961878519505262 0.095144964754581451 -0.024570012465119362 0.093530930578708649 0.0022179204970598221 -0.085977546870708466 0.0071749230846762657 0.0071590384468436241 0.0071829133667051792 -0.20509330928325653 -0.089676089584827423 -0.024072257801890373 0.095042198896408081 0.085694082081317902 0.20401568710803986 -0.085332609713077545 -0.085278816521167755 0.20401923358440399 0.084977902472019196 -0.041999541223049164 -0.0091410288587212563 0.084903106093406677 -0.0095626069232821465 -0.023964263498783112 0.011302085593342781 0.20163588225841522 -0.084886349737644196 -0.20508566498756409 -0.00070350489113479853 0.084904581308364868 -0.20508092641830444 -0.0089181913062930107 0.085347607731819153 -0.0095000453293323517 0.0071613229811191559 -0.024088615551590919 0.0023796928580850363 0.0069461343809962273
  -0.082108877599239349 0.10928308963775635 0.15890505909919739 0.10620720684528351 -0.082110591232776642 0.15893536806106567 0.090717487037181854 -0.082077875733375549 -0.10985172539949417 -0.08246215432882309 0.084249407052993774 0.084247410297393799 -0.090545922517776489 -0.082107320427894592 0.084248065948486328 -0.083700761198997498 -0.15700222551822662 -0.11139046400785446 0.091624021530151367 0.15888521075248718 0.084244191646575928 -0.083243623375892639 0.094069629907608032 0.084237925708293915 0.10975493490695953 0.09214821457862854 -0.082115642726421356 -0.082112856209278107 -0.082117341458797455 0.084298007190227509 0.15886645019054413 0.006493967492133379 -0.099806457757949829 -0.11089536547660828 -0.10175222158432007 0.0065017365850508213 0.091860778629779816 -0.083405651152133942 -0.083240143954753876 -0.085594445466995239 -0.082088887691497803 0.10102558881044388 -0.11024726927280426 -0.10010886937379837 0.15613158047199249 0.084243275225162506 -0.15651470422744751 -0.15565946698188782 0.084238357841968536 0.15887045860290527 -0.12359412759542465 0.092685110867023468 0.15893381834030151 0.090419284999370575 -0.10981298983097076 -0.089155718684196472 0.086909085512161255 -0.15820877254009247 -0.082105040550231934 -0.0054716635495424271 -0.091408610343933105 -0.082114808261394501 0.092929594218730927 0.1584760844707489 0.091173596680164337 -0.083836041390895844 -0.11067471653223038 0.0065577658824622631 -0.080743789672851562
  -0.051222473382949829 -0.0067619658075273037 -0.095346711575984955 -0.1396021693944931 -0.051222257316112518 -0.095623724162578583 -0.17202398180961609 -0.051223710179328918 0.0051474045030772686 0.16785350441932678 0.050875570625066757 0.050875093787908554 0.17657364904880524 -0.0512225441634655 0.05087554082274437 0.16824831068515778 0.084822095930576324 0.0068868049420416355 -0.17032074928283691 -0.095172509551048279 0.050875358283519745 0.16814906895160675 -0.1669042706489563 0.050875451415777206 -0.0076225502416491508 -0.17186497151851654 -0.051222451031208038 -0.05122235044836998 -0.051222443580627441 0.050877578556537628 -0.095002464950084686 0.030684754252433777 0.15624421834945679 0.0064805196598172188 0.14882431924343109 0.030724870041012764 -0.17023953795433044 0.16817227005958557 0.16811338067054749 0.16879594326019287 -0.051223460584878922 -0.15452979505062103 0.0057492791675031185 0.15510661900043488 -0.07835814356803894 0.050875332206487656 0.082422792911529541 0.078448072075843811 0.050875198096036911 -0.095033928751945496 0.017572110518813133 -0.17187123000621796 -0.095608040690422058 -0.17161208391189575 0.0051069925539195538 0.17182107269763947 0.05112076923251152 0.092288583517074585 -0.051222566515207291 -0.028570275753736496 0.17515292763710022 -0.051222328096628189 -0.17180348932743073 -0.091758415102958679 -0.17174260318279266 0.16828522086143494 0.006447523832321167 0.03102470189332962 0.16723024845123291
  0.084260694682598114 -0.11588365584611893 -0.15939053893089294 -0.10596514493227005 0.084262475371360779 -0.15940169990062714 -0.086676269769668579 0.084226951003074646 0.1165430098772049 0.075095146894454956 -0.086556501686573029 -0.086554206907749176 0.086058564484119415 0.084259100258350372 -0.086554966866970062 0.076394259929656982 0.15823374688625336 0.11800719797611237 -0.087847933173179626 -0.15938304364681244 -0.086550615727901459 0.075913608074188232 -0.090849578380584717 -0.086543843150138855 -0.11632469296455383 -0.08522941917181015 0.084268219769001007 0.084265030920505524 0.084270037710666656 -0.086610555648803711 -0.15937617421150208 -0.0093195820227265358 0.098208017647266388 0.11753246188163757 0.10083944350481033 -0.0093302084133028984 -0.088121600449085236 0.076084159314632416 0.075910784304141998 0.078382380306720734 0.084238842129707336 -0.099413402378559113 0.11691585183143616 0.09862162172794342 -0.15779821574687958 -0.086549632251262665 0.15791048109531403 0.15732456743717194 -0.086544252932071686 -0.15937794744968414 0.12958581745624542 -0.085797101259231567 -0.15940116345882416 -0.08340318500995636 0.11650605499744415 0.082123897969722748 -0.089536964893341064 0.15892542898654938 0.084256522357463837 0.0081413863226771355 0.087215162813663483 0.084267333149909973 -0.086056046187877655 -0.15921328961849213 -0.084199696779251099 0.07653634250164032 0.11731711030006409 -0.0094082364812493324 0.073295705020427704
  -0.082106098532676697 0.1092783585190773 0.15890480577945709 0.10620856285095215 -0.082107797265052795 0.15893509984016418 0.090721547603607178 -0.082075081765651703 -0.10984685271978378 -0.082468226552009583 0.08424658328294754 0.084244586527347565 -0.090550191700458527 -0.082104578614234924 0.084245190024375916 -0.083706632256507874 -0.15700134634971619 -0.11138565093278885 0.091627836227416992 0.15888477861881256 0.084241308271884918 -0.083249554038047791 0.094073079526424408 0.084234975278377533 0.10975015908479691 0.092153884470462799 -0.082112893462181091 -0.082110010087490082 -0.082114510238170624 0.084295161068439484 0.15886616706848145 0.0064920191653072834 -0.099808737635612488 -0.11089050769805908 -0.10175403952598572 0.0064997845329344273 0.09186466783285141 -0.083411566913127899 -0.083246104419231415 -0.085600271821022034 -0.082086160778999329 0.10102794319391251 -0.11024238169193268 -0.10011104494333267 0.15613037347793579 0.084240414202213287 -0.15651364624500275 -0.15565827488899231 0.084235385060310364 0.15887026488780975 -0.12358979135751724 0.092690862715244293 0.15893352031707764 0.090425156056880951 -0.10980812460184097 -0.089161515235900879 0.086906000971794128 -0.15820826590061188 -0.082102298736572266 -0.0054697776213288307 -0.091412752866744995 -0.082112044095993042 0.092935316264629364 0.15847565233707428 0.091179311275482178 -0.083842046558856964 -0.11066988855600357 0.0065557989291846752 -0.080749824643135071
  0.20467047393321991 -0.025444414466619492 -0.085642583668231964 0.082024633884429932 0.2046697735786438 -0.08559640496969223 0.084617011249065399 0.20468345284461975 0.028229398652911186 -0.010158054530620575 -0.20369072258472443 -0.20369221270084381 -0.082712732255458832 0.20467101037502289 -0.20369172096252441 -0.010168635286390781 0.086446747183799744 0.029372686520218849 0.085877709090709686 -0.085670031607151031 -0.20369423925876617 -0.010229508392512798 0.087817437946796417 -0.20369809865951538 -0.025311894714832306 0.012065752409398556 0.20466774702072144 0.20466887950897217 0.20466704666614532 -0.20365849137306213 -0.085698090493679047 -0.0037109910044819117 -0.093983680009841919 0.028775615617632866 -0.092007018625736237 -0.0037339762784540653 0.086158782243728638 -0.010190336965024471 -0.010180321522057056 -0.010121404193341732 0.20467884838581085 0.088595464825630188 0.028293957933783531 -0.093820206820964813 -0.086989685893058777 -0.20369473099708557 0.086515523493289948 0.086597084999084473 -0.20369787514209747 -0.085694007575511932 0.045788243412971497 0.011845625936985016 -0.08559919148683548 0.012350237928330898 0.028196174651384354 -0.014067164622247219 -0.20153883099555969 0.085730932652950287 0.20467208325862885 0.0021710556466132402 -0.085321038961410522 0.20466805994510651 0.011615460738539696 -0.086177043616771698 0.012259424664080143 -0.010161725804209709 0.028300303965806961 -0.0039058276452124119 -0.010054327547550201
  0.20467041432857513 -0.025444453582167625 -0.085642583668231964 0.082024581730365753 0.20466974377632141 -0.085596427321434021 0.084616981446743011 0.20468343794345856 0.028229445219039917 -0.010158085264265537 -0.20369069278240204 -0.20369221270084381 -0.082712732255458832 0.20467099547386169 -0.20369170606136322 -0.010168666020035744 0.086446762084960938 0.029372731223702431 0.085877701640129089 -0.085670061409473419 -0.20369423925876617 -0.010229539126157761 0.087817423045635223 -0.20369808375835419 -0.025311948731541634 0.012065769173204899 0.20466771721839905 0.20466886460781097 0.20466701686382294 -0.20365847647190094 -0.085698112845420837 -0.0037109989207237959 -0.093983642756938934 0.028775645419955254 -0.092006988823413849 -0.0037339895498007536 0.08615875244140625 -0.010190365836024284 -0.010180349461734295 -0.010121425613760948 0.20467884838581085 0.0885954350233078 0.028294013813138008 -0.093820184469223022 -0.086989685893058777 -0.20369473099708557 0.086515523493289948 0.086597084999084473 -0.20369786024093628 -0.08569403737783432 0.04578828439116478 0.011845637112855911 -0.085599206387996674 0.012350250035524368 0.028196219354867935 -0.014067192561924458 -0.2015388160943985 0.085730940103530884 0.20467205345630646 0.0021710554137825966 -0.085321024060249329 0.20466801524162292 0.01161547563970089 -0.086177051067352295 0.012259434908628464 -0.010161747224628925 0.028300346806645393 -0.0039058388210833073 -0.010054352693259716
  0.084238432347774506 -0.11584465205669403 -0.15939028561115265 -0.10597693175077438 0.084240242838859558 -0.15940138697624207 -0.086711391806602478 0.084204688668251038 0.11650212854146957 0.075146228075027466 -0.086534798145294189 -0.086532376706600189 0.086095020174980164 0.084236785769462585 -0.086533144116401672 0.076444923877716064 0.15822717547416687 0.11796682327985764 -0.087881386280059814 -0.15938250720500946 -0.08652881532907486 0.075964465737342834 -0.09087960422039032 -0.08652208000421524 -0.1162860244512558 -0.085279315710067749 0.084245949983596802 0.084242783486843109 0.084247671067714691 -0.086588680744171143 -0.15937560796737671 -0.0093035530298948288 0.098227418959140778 0.11749200522899628 0.10085461288690567 -0.0093141635879874229 -0.08815474808216095 0.076135061681270599 0.075961492955684662 0.078432485461235046 0.084216617047786713 -0.09943380206823349 0.116875059902668 0.098640389740467072 -0.15779019892215729 -0.086527913808822632 0.15790309011936188 0.15731547772884369 -0.086522474884986877 -0.15937742590904236 0.12954945862293243 -0.085846781730651855 -0.15940061211585999 -0.083453640341758728 0.11646517366170883 0.082173243165016174 -0.08951336145401001 0.15892231464385986 0.084234222769737244 0.0081252055242657661 0.087250001728534698 0.084244988858699799 -0.086105644702911377 -0.15921138226985931 -0.084249958395957947 0.076586917042732239 0.11727651953697205 -0.0093920286744832993 0.07334715873003006
  0.20467039942741394 -0.025444479659199715 -0.085642606019973755 0.082024574279785156 0.20466972887516022 -0.08559640496969223 0.084616981446743011 0.20468340814113617 0.028229439631104469 -0.010158088989555836 -0.20369069278240204 -0.20369219779968262 -0.082712732255458832 0.20467099547386169 -0.20369172096252441 -0.010168667882680893 0.086446769535541534 0.02937273308634758 0.085877694189548492 -0.085670046508312225 -0.20369422435760498 -0.010229536332190037 0.087817393243312836 -0.20369806885719299 -0.025311948731541634 0.0120657654479146 0.20466771721839905 0.20466884970664978 0.20466701686382294 -0.20365849137306213 -0.085698112845420837 -0.0037110068369656801 -0.093983642756938934 0.028775654733181 -0.092007003724575043 -0.0037339974660426378 0.086158744990825653 -0.010190369561314583 -0.010180352255702019 -0.010121424682438374 0.20467884838581085 0.0885954350233078 0.028294015675783157 -0.093820184469223022 -0.08698967844247818 -0.20369470119476318 0.086515545845031738 0.086597099900245667 -0.20369786024093628 -0.08569403737783432 0.045788276940584183 0.011845622211694717 -0.085599213838577271 0.012350249104201794 0.02819623239338398 -0.014067197218537331 -0.20153883099555969 0.085730955004692078 0.20467203855514526 0.0021710535511374474 -0.085321038961410522 0.20466801524162292 0.011615476571023464 -0.086177058517932892 0.012259426526725292 -0.010161746293306351 0.028300335630774498 -0.0039058483671396971 -0.010054345242679119
  -0.055764209479093552 -0.012929106131196022 -0.094806574285030365 -0.14404451847076416 -0.05576382577419281 -0.095071196556091309 -0.17335236072540283 -0.055768780410289764 0.011340336874127388 0.16332535445690155 0.0552801713347435 0.055280055850744247 0.17748518288135529 -0.055764444172382355 0.055280372500419617 0.16378824412822723 0.084844797849655151 0.012989090755581856 -0.17192871868610382 -0.094640202820301056 0.055280756205320358 0.16366590559482574 -0.1690649688243866 0.055281594395637512 -0.013774113729596138 -0.16787765920162201 -0.055763516575098038 -0.055763695389032364 -0.055763255804777145 0.055275995284318924 -0.094477944076061249 0.029184432700276375 0.15996050834655762 0.012617900036275387 0.15302702784538269 0.029222723096609116 -0.17188833653926849 0.16369649767875671 0.16362856328487396 0.16443939507007599 -0.055767428129911423 -0.15806837379932404 0.011924813501536846 0.15890710055828094 -0.078624933958053589 0.055280804634094238 0.082560017704963684 0.078775040805339813 0.055281300097703934 -0.094507969915866852 0.022638490423560143 -0.16790834069252014 -0.095055997371673584 -0.16752980649471283 0.011302263475954533 0.16783474385738373 0.055147174745798111 0.091966830193996429 -0.055764734745025635 -0.027102263644337654 0.17641440033912659 -0.055763483047485352 -0.16784588992595673 -0.091382287442684174 -0.16770264506340027 0.16383220255374908 0.01260539423674345 0.029509197920560837 0.16260670125484467 ]
 [ -0.080566659569740295 -0.012601490132510662 -0.20522166788578033 0.19353455305099487 -0.080560483038425446 -0.20625694096088409 0.18384689092636108 -0.080673716962337494 0.014367991127073765 -0.17517270147800446 0.07260015606880188 0.072603888809680939 -0.20391468703746796 -0.080571413040161133 0.072603926062583923 -0.17280720174312592 0.15698288381099701 0.014629228971898556 0.18111951649188995 -0.20455597341060638 0.072613827884197235 -0.17365340888500214 0.18038804829120636 0.072631604969501495 -0.012289834208786488 0.15304580330848694 -0.080543801188468933 -0.080553233623504639 -0.080538161098957062 0.072473086416721344 -0.20392574369907379 -0.15690059959888458 -0.24786072969436646 0.014350481331348419 -0.25225871801376343 -0.15700560808181763 0.18226911127567291 -0.17336316406726837 -0.17368677258491516 -0.16904501616954803 -0.080635964870452881 0.19390280544757843 0.014246345497667789 -0.24922530353069305 -0.14422284066677094 0.072616420686244965 0.14813332259654999 0.13493563234806061 0.072629623115062714 -0.2040543407201767 0.026845306158065796 0.15175776183605194 -0.20619975030422211 0.15715785324573517 0.014356516301631927 -0.16219967603683472 0.06722007691860199 0.18440845608711243 -0.080579221248626709 0.14990684390068054 -0.20542281866073608 -0.080546222627162933 0.15123835206031799 -0.19193010032176971 0.15538282692432404 -0.17254792153835297 0.014053675346076488 -0.15778106451034546 -0.17836803197860718 ]
 [ -0.089709050953388214 -0.16477319598197937 -0.18660224974155426 0.12961262464523315 -0.14895892143249512 -0.17891530692577362 -0.18661455810070038 0.088714614510536194 -0.18660551309585571 -0.089708976447582245 -0.18661774694919586 0.18163615465164185 -0.18655723333358765 0.13635307550430298 -0.18662960827350616 -0.089709043502807617 -0.17077572643756866 0.08871440589427948 -0.18316757678985596 -0.18661803007125854 0.08871450275182724 -0.18660013377666473 -0.15298633277416229 0.18176460266113281 -0.18660341203212738 -0.089708872139453888 -0.089708663523197174 0.18182414770126343 -0.08970855176448822 -0.16740740835666656 ]
</Nnet>
