<Nnet>
<rbm> 56 70
bern bern [
  0.3230966329574585 -0.18708598613739014 -0.010015540756285191 0.30760765075683594 -0.12946808338165283 -0.075873583555221558 0.13608033955097198 -0.44823691248893738 0.042207945138216019 0.1083630844950676 0.20478333532810211 0.019311929121613503 -0.10592453181743622 0.16297858953475952 0.52385389804840088 -0.08827267587184906 0.49632945656776428 -0.13733795285224915 -0.05241687223315239 0.043933015316724777 -0.20029835402965546 0.046004954725503922 -0.0080312946811318398 0.13785767555236816 -0.069958262145519257 0.21286331117153168 -0.022495876997709274 -0.11994278430938721 -0.049492888152599335 0.10478351265192032 0.15758658945560455 0.1241416335105896 -0.13559766113758087 -0.26923355460166931 0.12175814062356949 -0.21216773986816406 0.16902272403240204 0.12569496035575867 0.033655218780040741 0.10535166412591934 0.036560855805873871 -0.16582758724689484 0.031022591516375542 -0.085950031876564026 0.085813917219638824 0.13253307342529297 -0.017651000991463661 0.1223912313580513 -0.12518139183521271 0.10835226625204086 0.14969721436500549 -0.06892365962266922 0.01031400915235281 0.048378344625234604 0.036021389067173004 -0.3044407069683075 0.19750592112541199 -0.08694719523191452 -0.10350895673036575 -0.13634133338928223 -0.019117113202810287 -0.064472243189811707 0.057371899485588074 0.050521012395620346 0.083153605461120605 0.017318310216069221 -0.090721830725669861 -0.13951657712459564 0.08101712167263031 -0.15802168846130371
  -0.28838858008384705 0.011021360754966736 -0.10072093456983566 -0.10462377220392227 0.083652518689632416 -0.072309240698814392 0.15611742436885834 -0.093867748975753784 0.35015061497688293 0.23316846787929535 -0.40810707211494446 0.10554361343383789 0.067073307931423187 -0.0080306436866521835 -0.069261454045772552 -0.052134383469820023 -0.027177931740880013 -0.11998030543327332 -0.047427043318748474 -0.1525244414806366 0.096489876508712769 -0.040113333612680435 0.050839882344007492 0.077786475419998169 0.020075831562280655 -0.11624839901924133 -0.097593791782855988 -0.03374408558011055 -0.035112034529447556 -0.23931698501110077 -0.011887574568390846 -0.035201892256736755 -0.028810622170567513 -0.1365397572517395 -0.67545104026794434 0.25526517629623413 -0.0040143784135580063 -0.26136445999145508 0.034918308258056641 0.015845946967601776 0.040170241147279739 0.6619189977645874 0.026277069002389908 0.12266352027654648 -0.057695843279361725 -0.072772383689880371 -0.056580215692520142 0.065438933670520782 -0.15781953930854797 0.20755983889102936 -0.23965612053871155 0.076210469007492065 0.0093983029946684837 0.014081033878028393 0.19445998966693878 0.024264080449938774 0.01893584243953228 -0.026388602331280708 -0.072200775146484375 0.57560878992080688 0.10068657994270325 -0.14542828500270844 0.063423618674278259 -0.23726217448711395 -0.048374045640230179 0.03701377660036087 -0.040968813002109528 -0.15536674857139587 -0.01493467390537262 -0.1265091747045517
  0.0301686841994524 0.041839718818664551 -0.2550680935382843 0.038588035851716995 -0.042146936058998108 -0.42806056141853333 -0.009072011336684227 -0.046257775276899338 -0.066019885241985321 -0.046162642538547516 -0.06127394363284111 0.28589349985122681 -0.077406339347362518 0.073713816702365875 -0.0019005427602678537 0.26237127184867859 -0.024384139105677605 -0.17179094254970551 -0.45532995462417603 -0.040556717664003372 -0.019825613126158714 0.12543563544750214 0.35312843322753906 0.016784416511654854 0.36383721232414246 -0.06064290925860405 0.17338350415229797 -0.087715312838554382 0.010378571227192879 -0.036602292209863663 -0.11673102527856827 -0.061840854585170746 -0.1963929682970047 0.12582574784755707 0.0096877859905362129 0.061414517462253571 -0.032822713255882263 -0.010564590804278851 -0.27230748534202576 0.015724731609225273 -0.25824683904647827 -0.0077940523624420166 0.13600490987300873 0.10098860412836075 -0.037569638341665268 0.40827828645706177 -0.078701131045818329 -0.15835700929164886 0.15708597004413605 -0.043162457644939423 -0.057239782065153122 0.09156307578086853 0.20080913603305817 0.21571521461009979 0.22290082275867462 0.44559791684150696 -0.024180188775062561 0.033677641302347183 -0.17128889262676239 -0.040976546704769135 0.11264072358608246 -0.050688773393630981 0.2039036899805069 -0.11612099409103394 0.10035347193479538 -0.042884185910224915 0.063179761171340942 0.0034128958359360695 0.39935639500617981 0.22787854075431824
  -0.044555976986885071 -0.13482195138931274 0.091053172945976257 -0.32255452871322632 -0.14886501431465149 0.13173818588256836 -0.1132752001285553 0.23658397793769836 0.15571549534797668 0.2256259024143219 -0.20614081621170044 0.048969045281410217 -0.052070889621973038 -0.16762439906597137 -0.28258097171783447 0.072262264788150787 -0.17205320298671722 0.22458122670650482 0.077753745019435883 -0.2403392493724823 0.14531984925270081 -0.15140010416507721 0.046000145375728607 -0.49084416031837463 -0.091225035488605499 0.15613426268100739 -0.060351792722940445 0.17593570053577423 0.038487479090690613 -0.3326990008354187 -0.067152775824069977 0.036036282777786255 0.13579730689525604 0.054666988551616669 -0.058371711522340775 -0.29086658358573914 -0.058862786740064621 0.27316039800643921 0.047461181879043579 -0.027586579322814941 -0.0054683489724993706 0.011902029626071453 -0.13638739287853241 -0.10570362955331802 -0.030827721580862999 -0.045391514897346497 -0.025085777044296265 -0.18350854516029358 0.1974770724773407 0.29803138971328735 0.251230388879776 0.10969363152980804 -0.1089073047041893 0.047064069658517838 -0.020718434825539589 0.11452725529670715 -0.48698467016220093 0.085535101592540741 0.097106330096721649 0.045148968696594238 -0.065160669386386871 -0.065369904041290283 -0.036234311759471893 0.076183244585990906 -0.10114244371652603 0.018041197210550308 0.054282315075397491 0.070564329624176025 -0.032424867153167725 0.13451772928237915
  0.067227624356746674 -0.016553061082959175 -0.10486637055873871 0.0013168350560590625 0.14779137074947357 -0.15521053969860077 -0.049659628421068192 -0.069555453956127167 -0.0020195164252072573 0.044815685600042343 0.10582944750785828 0.15836027264595032 -0.32981482148170471 -0.048295591026544571 0.044364742934703827 -0.15653400123119354 0.042659666389226913 -0.18329766392707825 0.11099085211753845 0.087566889822483063 0.10472376644611359 -0.0043892175890505314 0.04915512353181839 0.041592754423618317 -0.19127616286277771 0.058694846928119659 0.014791680499911308 0.027858596295118332 -0.55241566896438599 0.09512714296579361 0.27765527367591858 0.28595289587974548 0.065774440765380859 -0.10544949024915695 -0.066524095833301544 -0.079095102846622467 -0.068094886839389801 -0.016409037634730339 -0.16184565424919128 0.38554286956787109 -0.14962995052337646 0.051850050687789917 -0.098025813698768616 0.054701454937458038 0.059966292232275009 -0.1852484792470932 0.34183654189109802 0.14352045953273773 -0.30198830366134644 0.075441226363182068 -0.028627300634980202 -0.042831193655729294 0.075236640870571136 0.15624091029167175 0.081092841923236847 -0.012073933146893978 0.027059935033321381 -0.075222879648208618 0.30987009406089783 -0.031095020473003387 -0.14811034500598907 0.20715667307376862 -0.21693567931652069 -0.034316480159759521 0.031438667327165604 0.24414288997650146 -0.55817770957946777 0.017186300829052925 -0.15843421220779419 -0.10180305689573288
  -0.17271478474140167 -0.091952525079250336 0.085840769112110138 0.027364177629351616 -0.14870695769786835 0.13636566698551178 0.21429261565208435 0.0090686818584799767 -0.51312357187271118 -0.53884828090667725 0.2023729681968689 -0.0088506657630205154 -0.0084526911377906799 0.094321362674236298 -0.051860935986042023 -0.014363679103553295 -0.067468330264091492 0.13200962543487549 -0.015322402119636536 0.21060113608837128 -0.1544627845287323 -0.0041736895218491554 -0.0010039217304438353 0.093667902052402496 -0.056802712380886078 0.023674413561820984 0.012622465379536152 -0.034873370081186295 0.077771812677383423 0.33977442979812622 0.021439880132675171 -0.011176907457411289 0.041598442941904068 0.15254306793212891 0.29376819729804993 0.28945446014404297 -0.038392260670661926 -0.1593545526266098 -0.016432296484708786 -0.043353412300348282 0.013883027248084545 -0.27799344062805176 -0.070076785981655121 -0.19618523120880127 -0.0064623551443219185 -0.027534645050764084 0.026462234556674957 -0.12960775196552277 0.12685833871364594 -0.49213320016860962 -0.17650285363197327 0.085771627724170685 -0.036387637257575989 0.0056252037174999714 -0.1199154406785965 0.022421065717935562 0.12508665025234222 0.03839338943362236 0.10057993233203888 -0.19165883958339691 -0.17147593200206757 0.028706509619951248 -0.089555211365222931 0.2033279687166214 -0.038233969360589981 -0.081732183694839478 0.081167198717594147 -0.21585702896118164 -0.042630475014448166 0.22705444693565369
  0.34710037708282471 0.14798769354820251 0.047566883265972137 0.24728655815124512 -0.19588704407215118 0.097421824932098389 -0.10054620355367661 -0.028401598334312439 0.057547233998775482 0.083358041942119598 -0.0074558090418577194 -0.069827698171138763 -0.083859197795391083 0.27090290188789368 0.091195300221443176 0.15412278473377228 0.080027826130390167 0.014644728973507881 -0.044713720679283142 -0.19310343265533447 -0.23552337288856506 -0.0077256937511265278 -0.026060087606310844 -0.18942779302597046 -0.017953056842088699 0.045844320207834244 -0.029589004814624786 -0.23765875399112701 0.11157412081956863 -0.15624570846557617 -0.08924981951713562 0.020597359165549278 -0.062446638941764832 0.24628143012523651 0.41852647066116333 -0.32148095965385437 -0.034842725843191147 0.47883859276771545 0.055704269558191299 -0.062558539211750031 -0.012341094203293324 -0.40906596183776855 -0.071864381432533264 -0.16680648922920227 -0.1045708954334259 0.021030312404036522 0.028554977849125862 -0.073623679578304291 0.1536773294210434 0.074083514511585236 0.50279951095581055 0.025479497388005257 0.016242152079939842 -0.081288628280162811 -0.1308414489030838 -0.096076115965843201 -0.13527914881706238 0.048672836273908615 0.11278589069843292 -0.36607116460800171 -0.048808533698320389 0.2095029205083847 -0.13372524082660675 0.01927625760436058 -0.040363602340221405 -0.048084713518619537 0.065611749887466431 0.11858191341161728 -0.019044255837798119 0.14922539889812469
  -0.014818800613284111 -0.034736353904008865 0.22337718307971954 0.0069473055191338062 0.054870624095201492 0.44645661115646362 0.023191479966044426 0.0058558396995067596 0.094816401600837708 0.06461479514837265 0.0679011270403862 -0.28338158130645752 0.14024190604686737 -0.037452768534421921 0.061012875288724899 -0.310140460729599 0.070554807782173157 0.11623960733413696 0.4707082211971283 0.069591216742992401 -0.029411546885967255 -0.12054608017206192 -0.36215364933013916 0.0063972221687436104 -0.33995649218559265 0.074696868658065796 -0.22483915090560913 0.058698885142803192 0.026584934443235397 0.028134007006883621 0.16893373429775238 0.025576742365956306 0.15684518218040466 -0.14240311086177826 -0.0073616402223706245 -0.058043450117111206 -0.0018304879777133465 0.017505800351500511 0.28606772422790527 -0.047252830117940903 0.23247553408145905 0.0074082273058593273 -0.11093277484178543 -0.12015582621097565 0.04398060217499733 -0.37383019924163818 0.039795815944671631 0.13414362072944641 -0.1765715628862381 0.05432925745844841 0.077827058732509613 -0.096220321953296661 -0.18620748817920685 -0.22261017560958862 -0.2192685604095459 -0.51010066270828247 0.060358215123414993 0.028716063126921654 0.13627716898918152 0.064900912344455719 -0.16023741662502289 0.07418561726808548 -0.19268614053726196 0.12843535840511322 -0.13618174195289612 0.010091297328472137 -0.043209362775087357 -0.01119385939091444 -0.36881843209266663 -0.2581125795841217
  0.34832966327667236 0.13895538449287415 0.043794162571430206 0.24274371564388275 -0.19970475137233734 0.093265451490879059 -0.088187523186206818 -0.041371859610080719 0.088270485401153564 0.11572159081697464 -0.036601580679416656 -0.047681268304586411 -0.095388732850551605 0.27454513311386108 0.098025187849998474 0.15755270421504974 0.092484600841999054 0.0092006335034966469 -0.051793660968542099 -0.22518844902515411 -0.23236130177974701 -0.024094242602586746 -0.010034780018031597 -0.20177651941776276 -0.023267589509487152 0.05518728494644165 -0.045504823327064514 -0.24155943095684052 0.10382415354251862 -0.1849747896194458 -0.08715086430311203 0.024789055809378624 -0.060368422418832779 0.22604623436927795 0.38565957546234131 -0.33301600813865662 -0.035410750657320023 0.49468091130256653 0.057149123400449753 -0.057444203644990921 -0.0068149385042488575 -0.38079652190208435 -0.073308311402797699 -0.16445823013782501 -0.11472437530755997 0.017897313460707664 0.029194654896855354 -0.069930128753185272 0.14853598177433014 0.1074376180768013 0.52031069993972778 0.027521293610334396 0.016547320410609245 -0.068155340850353241 -0.11114316433668137 -0.098865792155265808 -0.14884041249752045 0.043387025594711304 0.11265368014574051 -0.34494057297706604 -0.048547208309173584 0.19613754749298096 -0.13173985481262207 0.0041079428046941757 -0.051654912531375885 -0.043336711823940277 0.058992478996515274 0.10415045171976089 -0.018446559086441994 0.14965561032295227
  0.27870535850524902 0.094970926642417908 0.039855103939771652 0.14310601353645325 -0.18067130446434021 0.10374325513839722 -0.036159303039312363 -0.040003556758165359 0.25123593211174011 0.28346732258796692 -0.21264511346817017 0.050295870751142502 -0.11053255200386047 0.22871173918247223 0.062424346804618835 0.17083346843719482 0.095423541963100433 0.010460725985467434 -0.052005160599946976 -0.39719036221504211 -0.16764789819717407 -0.1242498904466629 0.056294266134500504 -0.27061364054679871 -0.050182119011878967 0.071753397583961487 -0.14332059025764465 -0.2084440290927887 0.08420129120349884 -0.34685307741165161 -0.098669171333312988 0.011896061711013317 -0.014071948826313019 0.11340033262968063 0.15828077495098114 -0.34521418809890747 -0.054471340030431747 0.51927369832992554 0.078980475664138794 -0.061015117913484573 0.046424403786659241 -0.17349943518638611 -0.072216644883155823 -0.11976432800292969 -0.16979853808879852 -0.026579871773719788 0.019081190228462219 -0.04872354120016098 0.13056902587413788 0.27826857566833496 0.55065512657165527 0.038034319877624512 -0.00075175083475187421 -0.013157649897038937 -0.0080670313909649849 -0.092533499002456665 -0.23321020603179932 0.021783199161291122 0.1056860089302063 -0.18053406476974487 -0.032850682735443115 0.096852920949459076 -0.1147446483373642 -0.078932955861091614 -0.12776391208171844 -0.03015742264688015 0.055009227246046066 0.040568575263023376 -0.03258403018116951 0.14156615734100342
  0.12941509485244751 -0.045518673956394196 -0.062961339950561523 0.41565665602684021 -0.20224018394947052 -0.053110666573047638 0.32417809963226318 -0.53449982404708862 0.033491421490907669 0.0049275225028395653 -0.054159838706254959 0.060502104461193085 -0.073459014296531677 0.38333168625831604 0.44305163621902466 -0.08298008143901825 0.40218168497085571 -0.22083443403244019 -0.16842806339263916 0.0084762824699282646 -0.3584534227848053 0.070665523409843445 0.0043226475827395916 0.22075176239013672 -0.014464104548096657 0.11181586235761642 -0.084126986563205719 -0.33520355820655823 -0.005913970060646534 0.059352055191993713 0.11910957098007202 0.051830179989337921 -0.15117013454437256 -0.081739529967308044 -0.070853017270565033 0.11238688230514526 0.073986910283565521 0.0015133178094401956 0.0010939543135464191 0.075397834181785583 0.014756539836525917 0.041384782642126083 0.026030534878373146 -0.14722698926925659 0.013165716081857681 0.066351249814033508 0.00037071315455250442 0.086899049580097198 -0.15277744829654694 -0.012707262299954891 0.033663883805274963 0.0092333806678652763 0.048548046499490738 0.044811561703681946 0.048827733844518661 -0.25244626402854919 0.25253754854202271 -0.069613084197044373 -0.03476276621222496 0.064209640026092529 -0.056402761489152908 -0.014987033791840076 -0.030146753415465355 -0.094279192388057709 0.017593134194612503 -0.045387543737888336 -0.065534912049770355 -0.30999404191970825 0.032801434397697449 -0.049615629017353058
  -0.073535650968551636 0.099068358540534973 -0.013938921503722668 0.023429237306118011 -0.066792145371437073 0.16991190612316132 0.030932199209928513 0.087854564189910889 0.037791188806295395 -0.038923349231481552 -0.13634289801120758 -0.10852977633476257 0.43180340528488159 0.081297971308231354 -0.037318587303161621 0.085059672594070435 -0.078349530696868896 -0.03892110288143158 -0.045286115258932114 -0.043411456048488617 -0.18729174137115479 0.072812125086784363 -0.092319279909133911 -0.012331199832260609 0.25981661677360535 -0.077233761548995972 -0.19781917333602905 -0.067645087838172913 0.44320133328437805 -0.12425851821899414 -0.1833404153585434 -0.42996817827224731 0.037025447934865952 0.14383712410926819 0.054364588111639023 0.13890865445137024 -0.19888733327388763 0.018008062615990639 0.024678347632288933 -0.36775821447372437 0.033209629356861115 -0.029752247035503387 0.21914492547512054 0.0020950720645487309 0.014841889962553978 0.18423618376255035 -0.21366308629512787 -0.10575435310602188 0.23297567665576935 -0.074639640748500824 0.037679292261600494 0.043035250157117844 -0.036136414855718613 -0.043451473116874695 -0.01009056344628334 0.0099796336144208908 -0.002216848311945796 0.17267270386219025 -0.15585340559482574 0.084630846977233887 0.028498925268650055 -0.12987475097179413 0.040239516645669937 -0.010383991524577141 -0.19578579068183899 -0.38827395439147949 0.46317052841186523 0.0066755032166838646 0.1680266410112381 0.094498634338378906
  0.072970576584339142 0.015156051144003868 -0.14049169421195984 0.016960820183157921 0.17440076172351837 -0.15638731420040131 -0.060258194804191589 -0.064474262297153473 0.011232214979827404 0.050940293818712234 0.099452465772628784 0.16451422870159149 -0.27630534768104553 -0.039496123790740967 0.053450409322977066 -0.17562289535999298 0.034786608070135117 -0.2456963062286377 0.11717468500137329 0.10861127078533173 0.077060259878635406 0.022822512313723564 0.03507528081536293 0.056822430342435837 -0.14711424708366394 0.05405629426240921 -0.031114876270294189 0.017943492159247398 -0.5537106990814209 0.088495291769504547 0.29585108160972595 0.22561462223529816 0.087630026042461395 -0.094226241111755371 -0.064622998237609863 -0.05977151170372963 -0.13760913908481598 -0.015556612052023411 -0.19932569563388824 0.37150108814239502 -0.18281999230384827 0.053450271487236023 -0.048145066946744919 0.077244259417057037 0.087679415941238403 -0.16543370485305786 0.35526150465011597 0.152131587266922 -0.31618738174438477 0.076278612017631531 -0.026202123612165451 -0.056304212659597397 0.087811999022960663 0.18318046629428864 0.098983578383922577 -0.009173516184091568 0.040669664740562439 -0.045300602912902832 0.32253441214561462 -0.016059195622801781 -0.17050433158874512 0.2182578444480896 -0.24331493675708771 -0.051060136407613754 -0.0097112888470292091 0.19036385416984558 -0.55271047353744507 0.031432047486305237 -0.13916027545928955 -0.10826940834522247
  -0.33293256163597107 0.17668837308883667 0.013406790792942047 -0.3104436993598938 0.12531463801860809 0.081298276782035828 -0.12474554032087326 0.44098919630050659 -0.043027818202972412 -0.11241299659013748 -0.20597371459007263 -0.01942044124007225 0.10848721116781235 -0.16300873458385468 -0.51931881904602051 0.086192719638347626 -0.48916712403297424 0.1362522691488266 0.056216411292552948 -0.043510884046554565 0.1990525871515274 -0.048464931547641754 0.005573824979364872 -0.13468994200229645 0.065376035869121552 -0.21135394275188446 0.015138442628085613 0.11969950795173645 0.054306067526340485 -0.10290897637605667 -0.15559887886047363 -0.12714312970638275 0.13697057962417603 0.26124498248100281 -0.1302279531955719 0.21938872337341309 -0.16914381086826324 -0.13583771884441376 -0.030434241518378258 -0.10783637315034866 -0.02974926121532917 0.17569912970066071 -0.031956758350133896 0.082515038549900055 -0.084524363279342651 -0.13340482115745544 0.014854099601507187 -0.12167192995548248 0.12602570652961731 -0.11176563799381256 -0.15733802318572998 0.074224047362804413 -0.013667589984834194 -0.047199144959449768 -0.033841125667095184 0.29674375057220459 -0.19211797416210175 0.088882789015769958 0.10303030163049698 0.14612011611461639 0.017754126340150833 0.056115690618753433 -0.05877356231212616 -0.047013107687234879 -0.087228164076805115 -0.022042959928512573 0.09291299432516098 0.12887509167194366 -0.080458454787731171 0.15537816286087036
  0.034216247498989105 0.12517048418521881 -0.087225049734115601 0.31688383221626282 0.14734864234924316 -0.12828922271728516 0.12162241339683533 -0.24035347998142242 -0.15692846477031708 -0.2290225476026535 0.20511926710605621 -0.048250745981931686 0.052181504666805267 0.16390952467918396 0.28262096643447876 -0.075055129826068878 0.17535389959812164 -0.22295960783958435 -0.073939234018325806 0.2416800856590271 -0.14150704443454742 0.14735716581344604 -0.046940062195062637 0.49219492077827454 0.08642926812171936 -0.15435604751110077 0.056235406547784805 -0.17314410209655762 -0.036088798195123672 0.33471226692199707 0.069870144128799438 -0.036438316106796265 -0.13424044847488403 -0.062660522758960724 0.048684630542993546 0.29712560772895813 0.060496274381875992 -0.28381288051605225 -0.044779825955629349 0.02664119191467762 0.011257616803050041 -0.0010275759268552065 0.13374519348144531 0.10335611552000046 0.03184746578335762 0.042889509350061417 0.02216772548854351 0.18361929059028625 -0.19801279902458191 -0.30038338899612427 -0.2597256600856781 -0.10666459798812866 0.10590707510709763 -0.046055082231760025 0.022184267640113831 -0.11892823129892349 0.49000382423400879 -0.084496535360813141 -0.098413057625293732 -0.035830136388540268 0.064173512160778046 0.057951930910348892 0.036961574107408524 -0.07323358952999115 0.099487312138080597 -0.01879398338496685 -0.054175253957509995 -0.078770570456981659 0.031736321747303009 -0.13744387030601501
  -0.010093622840940952 -0.0067804893478751183 0.21134743094444275 0.015718573704361916 0.064208447933197021 0.4500260055065155 0.010846416465938091 0.014018448069691658 0.10784322768449783 0.070124156773090363 0.056527972221374512 -0.29945433139801025 0.16842213273048401 -0.033221770077943802 0.059250593185424805 -0.30865606665611267 0.057944431900978088 0.081098631024360657 0.47603699564933777 0.0740547776222229 -0.042975470423698425 -0.089153982698917389 -0.39188376069068909 0.017224350944161415 -0.31366655230522156 0.062053591012954712 -0.24727612733840942 0.05151715874671936 0.020023653283715248 0.022701963782310486 0.15550981462001801 -0.013503524474799633 0.19257409870624542 -0.12529073655605316 -0.009714541956782341 -0.043379496783018112 -0.03952474519610405 0.015193764120340347 0.25850310921669006 -0.054208558052778244 0.2255883663892746 0.013137128204107285 -0.074558630585670471 -0.094267942011356354 0.071491025388240814 -0.37376511096954346 0.066025279462337494 0.16457569599151611 -0.18479573726654053 0.055339723825454712 0.074469909071922302 -0.10471571981906891 -0.18803459405899048 -0.20916968584060669 -0.21197105944156647 -0.50129687786102295 0.066454872488975525 0.023739740252494812 0.16221627593040466 0.076302297413349152 -0.15036042034626007 0.071262262761592865 -0.2269463837146759 0.10530143231153488 -0.15575331449508667 -0.027886195108294487 -0.042035307735204697 0.0045771980658173561 -0.36971476674079895 -0.26455801725387573
  0.051840182393789291 -0.077495001256465912 0.095666125416755676 -0.026548037305474281 0.026500483974814415 -0.24159286916255951 -0.077103011310100555 -0.044303018599748611 -0.052590485662221909 0.03152872622013092 0.14661626517772675 -0.021002471446990967 -0.28504538536071777 -0.13415418565273285 -0.0021921270526945591 0.014930896461009979 0.049914084374904633 0.27416488528251648 -0.12755294144153595 0.085762880742549896 0.25641027092933655 -0.062199953943490982 0.12199350446462631 0.024513853713870049 -0.08596578985452652 0.036428891122341156 0.45858153700828552 0.11132833361625671 -0.069149211049079895 0.14059659838676453 -0.0080478573217988014 0.38626790046691895 -0.23913434147834778 -0.10265702754259109 -0.037840131670236588 -0.11651860177516937 0.4997636079788208 -0.085785120725631714 0.13472352921962738 0.13836026191711426 0.04884348064661026 0.027233321219682693 -0.21892434358596802 -0.011280413717031479 -0.055095527321100235 -0.0095279477536678314 -0.14848260581493378 -0.010231813415884972 -0.0876874178647995 0.038443159312009811 -0.10668057948350906 -0.097862504422664642 0.016006913036108017 -0.14934837818145752 -0.087108924984931946 0.078131407499313354 0.015267269685864449 -0.18485754728317261 -0.25078770518302917 -0.073696225881576538 0.18971095979213715 -0.0038042394444346428 0.33148461580276489 0.026320887729525566 0.40313845872879028 0.42706739902496338 -0.10415690392255783 0.059634201228618622 -0.021347133442759514 -0.10938838124275208
  -0.39274492859840393 0.10364972054958344 0.0078598000109195709 -0.3322719931602478 0.098896488547325134 0.077564582228660583 -0.040532942861318588 0.37943729758262634 -0.034634597599506378 -0.12259858101606369 -0.23925040662288666 0.023846643045544624 0.089896492660045624 -0.15502782166004181 -0.48361626267433167 0.096808955073356628 -0.43850001692771912 0.12371367216110229 0.041335232555866241 -0.082798957824707031 0.19568271934986115 -0.070022985339164734 0.037438761442899704 -0.10166772454977036 0.033768005669116974 -0.21730062365531921 -0.0184585340321064 0.11346978694200516 0.04555833712220192 -0.10833023488521576 -0.15780819952487946 -0.11893148720264435 0.12818960845470428 0.19253002107143402 -0.2227277010679245 0.26852568984031677 -0.15599067509174347 -0.19864125549793243 -0.020782230421900749 -0.095476701855659485 0.0035241460427641869 0.25933721661567688 -0.035109840333461761 0.082066573202610016 -0.10724647343158722 -0.12783516943454742 0.012419268488883972 -0.11375775188207626 0.12815204262733459 -0.1179099977016449 -0.21841096878051758 0.1242775171995163 -0.021109882742166519 -0.022274622693657875 0.020377827808260918 0.27918463945388794 -0.16194155812263489 0.069908738136291504 0.097418561577796936 0.21530498564243317 0.027461150661110878 -0.010660173371434212 -0.053165748715400696 -0.049601025879383087 -0.10654487460851669 -0.028145734220743179 0.087472043931484222 0.039016447961330414 -0.065762773156166077 0.15886735916137695
  0.34839633107185364 0.13933195173740387 0.043855395168066025 0.24298878014087677 -0.1995464563369751 0.093307003378868103 -0.088637672364711761 -0.04098091647028923 0.087300613522529602 0.11468560993671417 -0.035616204142570496 -0.048382140696048737 -0.095048144459724426 0.27449885010719299 0.097871638834476471 0.15750876069068909 0.09212176501750946 0.0092878742143511772 -0.051622837781906128 -0.22415332496166229 -0.23249311745166779 -0.023503171280026436 -0.010516735725104809 -0.20131124556064606 -0.023039763793349266 0.054821420460939407 -0.044939558953046799 -0.24150869250297546 0.10404615104198456 -0.18403360247612 -0.087237179279327393 0.02466701902449131 -0.06050819531083107 0.22674863040447235 0.38680723309516907 -0.33268040418624878 -0.035390116274356842 0.49420949816703796 0.05706237256526947 -0.057571534067392349 -0.0070422603748738766 -0.38176906108856201 -0.07323109358549118 -0.16448485851287842 -0.11441571265459061 0.018065107986330986 0.029204882681369781 -0.070023953914642334 0.14869916439056396 0.10634700953960419 0.51978939771652222 0.027462871745228767 0.01660689152777195 -0.068579040467739105 -0.11175163090229034 -0.098739705979824066 -0.14833799004554749 0.04355660080909729 0.1126595139503479 -0.34569978713989258 -0.048508584499359131 0.19664807617664337 -0.13180254399776459 0.0045661213807761669 -0.051241088658571243 -0.043476995080709457 0.0591709204018116 0.10468857735395432 -0.018406787887215614 0.14964331686496735
  0.035636581480503082 0.12523019313812256 -0.086995258927345276 0.31789246201515198 0.14653009176254272 -0.1277863085269928 0.12140819430351257 -0.24074165523052216 -0.1572955995798111 -0.2290438711643219 0.20594936609268188 -0.048629052937030792 0.052387740463018417 0.16466434299945831 0.28357627987861633 -0.07524619996547699 0.17609614133834839 -0.22286617755889893 -0.073904275894165039 0.24207144975662231 -0.14264801144599915 0.14760242402553558 -0.047290746122598648 0.49151581525802612 0.086570754647254944 -0.15335188806056976 0.056126456707715988 -0.17358991503715515 -0.03544268012046814 0.33487150073051453 0.070186860859394073 -0.036519229412078857 -0.13438314199447632 -0.062068164348602295 0.0507793128490448 0.29590928554534912 0.060379348695278168 -0.28213828802108765 -0.044666137546300888 0.026397056877613068 0.010958881117403507 -0.0031380048021674156 0.13372436165809631 0.10243342816829681 0.032238408923149109 0.043404769152402878 0.021958881989121437 0.18318210542201996 -0.19757221639156342 -0.30029997229576111 -0.25800508260726929 -0.10692411661148071 0.1058560237288475 -0.046110183000564575 0.021437868475914001 -0.11959994584321976 0.48971888422966003 -0.084001302719116211 -0.098356433212757111 -0.037225779145956039 0.063453912734985352 0.058555454015731812 0.036757785826921463 -0.072552002966403961 0.099445514380931854 -0.019232826307415962 -0.053723271936178207 -0.078464165329933167 0.03192632645368576 -0.13718470931053162
  -0.18527999520301819 -0.10987312346696854 -0.17125435173511505 -0.12434061616659164 0.039244763553142548 0.20422567427158356 0.072133675217628479 0.070504389703273773 0.007624676451086998 -0.038500469177961349 -0.033600050956010818 0.20769228041172028 0.22142466902732849 0.034303378313779831 -0.067311652004718781 -0.26513296365737915 -0.043464850634336472 -0.1145021915435791 0.20868925750255585 0.10036498308181763 -0.1228761151432991 -0.17675065994262695 0.12802650034427643 -0.18786388635635376 -0.059175882488489151 0.11314783245325089 -0.33607897162437439 0.017397528514266014 0.086939752101898193 -0.14132016897201538 0.39738476276397705 -0.069009087979793549 -0.16470727324485779 0.016241647303104401 -0.012752619571983814 0.014333090744912624 -0.36183372139930725 0.047644104808568954 0.070100508630275726 -0.071228981018066406 -0.26213669776916504 -0.00231557572260499 -0.093409046530723572 -0.25850194692611694 -0.10286989808082581 0.059025637805461884 -0.15168863534927368 -0.45430091023445129 0.044717311859130859 0.010301641188561916 0.09320899099111557 0.19761329889297485 0.058767665177583694 0.031878668814897537 0.020868103951215744 -0.15409310162067413 -0.12116113305091858 0.54759752750396729 0.017864055931568146 0.15184907615184784 -0.5268750786781311 0.242489293217659 -0.038575828075408936 0.26269367337226868 -0.32581502199172974 -0.071077406406402588 0.00402809027582407 -0.085783310234546661 0.08363611251115799 0.081436179578304291
  -0.075264550745487213 -0.0028489483520388603 0.11959411203861237 -0.010045172646641731 -0.15876492857933044 0.16054368019104004 0.059124302119016647 0.063705466687679291 -0.0027882708236575127 -0.047880850732326508 -0.10243501514196396 -0.16140763461589813 0.31613215804100037 0.042479600757360458 -0.044281639158725739 0.15776880085468292 -0.034815754741430283 0.20426799356937408 -0.10821037739515305 -0.09102727472782135 -0.095071054995059967 -0.0074550826102495193 -0.047429703176021576 -0.047405950725078583 0.17376400530338287 -0.052246265113353729 -0.0053405901417136192 -0.022029181942343712 0.55822575092315674 -0.091684401035308838 -0.27870503067970276 -0.26827123761177063 -0.072396956384181976 0.094402879476547241 0.061226174235343933 0.074421018362045288 0.091072119772434235 0.010183626785874367 0.17764255404472351 -0.38419359922409058 0.16409936547279358 -0.046795938163995743 0.080129094421863556 -0.066434711217880249 -0.065771192312240601 0.17854104936122894 -0.35125771164894104 -0.14782753586769104 0.30613565444946289 -0.075768895447254181 0.024253508076071739 0.048715192824602127 -0.082923352718353271 -0.16498862206935883 -0.087198972702026367 0.0038810239639133215 -0.029733113944530487 0.069744817912578583 -0.31706282496452332 0.033088568598031998 0.15183386206626892 -0.21636267006397247 0.22665201127529144 0.044811449944972992 -0.020643359050154686 -0.22930650413036346 0.55868393182754517 -0.027532750740647316 0.15273295342922211 0.10005218535661697
  -0.069238811731338501 -0.15649619698524475 0.049787789583206177 0.23845961689949036 -0.41675183176994324 0.15072548389434814 0.47329020500183105 -0.39507231116294861 -0.095644652843475342 -0.13276609778404236 -0.22138839960098267 0.11418450623750687 -0.093888461589813232 0.40091785788536072 0.19552351534366608 -0.010567979887127876 0.22841411828994751 0.0097633004188537598 -0.16297687590122223 -0.13501845300197601 -0.38478624820709229 -0.075493074953556061 0.051945745944976807 -0.014342635869979858 -0.10950640588998795 0.1827813982963562 -0.17938154935836792 -0.30634018778800964 0.10638696700334549 -0.039660211652517319 0.033273443579673767 0.040025088936090469 -0.025056665763258934 0.048891399055719376 -0.06571410596370697 0.18601696193218231 0.0072197155095636845 0.064267970621585846 0.064939297735691071 -0.019453186541795731 0.077926814556121826 0.015259674750268459 -0.10835063457489014 -0.33205130696296692 -0.075421065092086792 -0.035097796469926834 -0.0099082663655281067 -0.087658487260341644 0.045171935111284256 -0.09356476366519928 0.076741956174373627 0.16776205599308014 -0.062237091362476349 0.058718383312225342 0.011399311944842339 -0.17702500522136688 0.019132290035486221 -0.018213041126728058 0.094368048012256622 0.081990532577037811 -0.16759058833122253 -0.08020453155040741 -0.12196160852909088 -0.0029928754083812237 -0.12873432040214539 -0.10064598917961121 0.060943793505430222 -0.48413670063018799 -0.050508685410022736 0.21498645842075348
  -0.19572833180427551 0.029326913878321648 0.024610981345176697 -0.087823949754238129 -0.25370591878890991 0.19198773801326752 0.10290387272834778 0.16690421104431152 -0.13660593330860138 -0.23374471068382263 -0.19688849151134491 -0.00030221691122278571 0.097611017525196075 0.14554575085639954 -0.24585498869419098 0.14486445486545563 -0.22277496755123138 0.1100044921040535 -0.045882396399974823 -0.12398793548345566 -0.18310359120368958 -0.020445525646209717 0.0059361634775996208 -0.21873944997787476 0.02183845080435276 -0.04474291205406189 -0.12532930076122284 -0.11014173179864883 0.22523124516010284 -0.13236324489116669 -0.16605532169342041 -0.14487132430076599 0.06088503822684288 0.35893389582633972 0.12784098088741302 0.14512798190116882 -0.21313253045082092 0.078207157552242279 0.020365064963698387 -0.15151253342628479 -0.03714410588145256 -0.11693992465734482 -0.086313024163246155 -0.20306932926177979 -0.097432419657707214 -0.0043342574499547482 -0.025809768587350845 -0.25968101620674133 0.30089810490608215 -0.19286161661148071 0.073285073041915894 0.2627890408039093 -0.06515280157327652 -0.02721109427511692 -0.062133241444826126 0.13380445539951324 -0.20373600721359253 0.17159861326217651 0.18266136944293976 -0.0029101034160703421 -0.13337637484073639 0.052530549466609955 -0.18290325999259949 0.087850503623485565 -0.17338089644908905 -0.19157524406909943 0.22318580746650696 -0.099825456738471985 -0.0047068786807358265 0.30666142702102661
  -0.17271403968334198 -0.091952517628669739 0.085840024054050446 0.027360120788216591 -0.14870065450668335 0.13635899126529694 0.21428877115249634 0.0090743573382496834 -0.51313084363937378 -0.5388525128364563 0.20238104462623596 -0.0088478131219744682 -0.0084540480747818947 0.094313189387321472 -0.05186302587389946 -0.0143614886328578 -0.067471608519554138 0.13201093673706055 -0.015325060114264488 0.21060730516910553 -0.15445576608181 -0.0041710282675921917 -0.0010002973722293973 0.09367157518863678 -0.056797388941049576 0.023674607276916504 0.012628779746592045 -0.034865584224462509 0.077767729759216309 0.33978283405303955 0.021438959985971451 -0.011177089996635914 0.041602354496717453 0.15254105627536774 0.29377266764640808 0.28945630788803101 -0.038390617817640305 -0.15935827791690826 -0.016438448801636696 -0.043350297957658768 0.0138813192024827 -0.27799642086029053 -0.070072636008262634 -0.19617770612239838 -0.0064578070305287838 -0.027531074360013008 0.026464767754077911 -0.12960392236709595 0.12685808539390564 -0.49213746190071106 -0.17650845646858215 0.085767142474651337 -0.036385949701070786 0.0056304177269339561 -0.11991249024868011 0.02243087999522686 0.12508863210678101 0.038389615714550018 0.100578673183918 -0.19166366755962372 -0.17147193849086761 0.028703724965453148 -0.089551337063312531 0.20332826673984528 -0.038228947669267654 -0.081730671226978302 0.081166192889213562 -0.2158527672290802 -0.042626846581697464 0.22705556452274323
  0.16397738456726074 0.082655705511569977 -0.082673154771327972 -0.033570084720849991 0.14423976838588715 -0.1314367800951004 -0.20851337909698486 -0.011710532940924168 0.51598608493804932 0.5389370322227478 -0.20544274151325226 0.0069520082324743271 0.011451161466538906 -0.096736952662467957 0.052075356245040894 0.013499477878212929 0.07065168023109436 -0.13100758194923401 0.019833091646432877 -0.21169456839561462 0.15610021352767944 0.0021774517372250557 -0.0020690665114670992 -0.096305765211582184 0.05276014655828476 -0.022433323785662651 -0.017610615119338036 0.036602213978767395 -0.07203838974237442 -0.34262236952781677 -0.020902551710605621 0.0092223705723881721 -0.041129961609840393 -0.15728422999382019 -0.30223405361175537 -0.28744563460350037 0.038497254252433777 0.15257744491100311 0.020533489063382149 0.040443025529384613 -0.0092130210250616074 0.28759074211120605 0.067383632063865662 0.19245341420173645 0.007897278293967247 0.027202198281884193 -0.030698828399181366 0.12738490104675293 -0.12405966967344284 0.49348235130310059 0.1720704585313797 -0.079154595732688904 0.032581169158220291 -0.0065341857261955738 0.12051931768655777 -0.027512365952134132 -0.12569950520992279 -0.034368392080068588 -0.10128933191299438 0.20202066004276276 0.17117008566856384 -0.03506811335682869 0.089005656540393829 -0.19907419383525848 0.03535735234618187 0.078426547348499298 -0.078357324004173279 0.21053507924079895 0.043554123491048813 -0.22971981763839722
  -0.33295047283172607 0.17666910588741302 0.013406121172010899 -0.31045261025428772 0.12530866265296936 0.081295803189277649 -0.12472527474164963 0.44097593426704407 -0.043029412627220154 -0.1124175488948822 -0.20598365366458893 -0.019408054649829865 0.10847771912813187 -0.16301000118255615 -0.51931554079055786 0.086193770170211792 -0.48915934562683105 0.1362522691488266 0.056211985647678375 -0.043521177023649216 0.19905547797679901 -0.048474181443452835 0.0055830571800470352 -0.13468474149703979 0.065365694463253021 -0.21135485172271729 0.015131164342164993 0.11969956755638123 0.054299414157867432 -0.1029096320271492 -0.15559864044189453 -0.12713879346847534 0.1369699090719223 0.26122695207595825 -0.13025352358818054 0.21940059959888458 -0.1691402941942215 -0.1358550637960434 -0.030433427542448044 -0.10783269256353378 -0.02974158339202404 0.1757204681634903 -0.031960397958755493 0.082513801753520966 -0.08453156054019928 -0.13340781629085541 0.014854858629405499 -0.12167114764451981 0.12602409720420837 -0.11176824569702148 -0.15735547244548798 0.074233740568161011 -0.013670589774847031 -0.04719230905175209 -0.033828809857368469 0.29674175381660461 -0.19211415946483612 0.088875427842140198 0.10302907228469849 0.14613591134548187 0.01775469072163105 0.056098513305187225 -0.058772344142198563 -0.04701504111289978 -0.087233781814575195 -0.022041236981749535 0.092907898128032684 0.12885093688964844 -0.080458603799343109 0.15538054704666138
  0.16398227214813232 0.082660079002380371 -0.082672074437141418 -0.033566169440746307 0.14423945546150208 -0.13143406808376312 -0.20851615071296692 -0.0117090018466115 0.51598829030990601 0.53893989324569702 -0.20544156432151794 0.0069491243921220303 0.011454299092292786 -0.096734128892421722 0.052077289670705795 0.013499404303729534 0.07065264880657196 -0.13100756704807281 0.019834646955132484 -0.21169336140155792 0.15609757602214813 0.0021794685162603855 -0.0020713482517749071 -0.096307255327701569 0.052762046456336975 -0.022432027384638786 -0.017610426992177963 0.036600813269615173 -0.072034493088722229 -0.34262362122535706 -0.020902374759316444 0.0092211030423641205 -0.041130535304546356 -0.15727980434894562 -0.30222746729850769 -0.28744849562644958 0.038496457040309906 0.15258404612541199 0.020535048097372055 0.040442001074552536 -0.0092135528102517128 0.28758567571640015 0.067384235560894012 0.19245222210884094 0.0078984079882502556 0.027203669771552086 -0.030699925497174263 0.12738415598869324 -0.12405809760093689 0.49348446726799011 0.17207740247249603 -0.079155623912811279 0.032582070678472519 -0.0065358891151845455 0.12051621824502945 -0.027514073997735977 -0.12570019066333771 -0.034365471452474594 -0.10128876566886902 0.20201796293258667 0.17116926610469818 -0.035063832998275757 0.089005142450332642 -0.19907328486442566 0.035358276218175888 0.078425310552120209 -0.078354395925998688 0.21053962409496307 0.043554648756980896 -0.22972042858600616
  -0.10866174846887589 -0.25709185004234314 0.070327483117580414 0.16997246444225311 -0.39939489960670471 0.14567515254020691 0.51849007606506348 -0.39802435040473938 -0.14772768318653107 -0.15944597125053406 -0.17683839797973633 0.16661714017391205 -0.12652575969696045 0.32314789295196533 0.2048475593328476 -0.035143278539180756 0.25131040811538696 0.049818992614746094 -0.14840483665466309 -0.11933237314224243 -0.3248993456363678 -0.12361588329076767 0.093197964131832123 -0.006680789403617382 -0.14646784961223602 0.22986000776290894 -0.18636500835418701 -0.22488555312156677 0.069214724004268646 0.011278755962848663 0.069505922496318817 0.067874923348426819 0.0062812292017042637 -0.055504679679870605 -0.096853062510490417 0.19249628484249115 0.034547973424196243 0.016940563917160034 0.059964291751384735 0.0075449561700224876 0.10594498366117477 0.034310277551412582 -0.11463900655508041 -0.32244852185249329 -0.064715497195720673 -0.040430650115013123 -0.00901041179895401 -0.080103971064090729 0.036526832729578018 -0.10422518104314804 0.019701886922121048 0.15413813292980194 -0.07967396080493927 0.10766135901212692 0.046796277165412903 -0.17251265048980713 0.024803897365927696 -0.044723272323608398 0.076676540076732635 0.085799649357795715 -0.18336963653564453 -0.15235611796379089 -0.086583405733108521 0.033568225800991058 -0.13040894269943237 -0.075076296925544739 0.041634015738964081 -0.54540252685546875 -0.047022886574268341 0.21310032904148102
  -0.12496798485517502 -0.29876020550727844 0.075585685670375824 0.13712106645107269 -0.38745057582855225 0.13612858951091766 0.53299039602279663 -0.39572694897651672 -0.16643451154232025 -0.16699196398258209 -0.16064153611660004 0.19403953850269318 -0.14544332027435303 0.28688204288482666 0.20516480505466461 -0.038971986621618271 0.25789865851402283 0.063769809901714325 -0.14619569480419159 -0.11883778125047684 -0.29350361227989197 -0.14419949054718018 0.1165190190076828 -0.0037150878924876451 -0.159804567694664 0.24470287561416626 -0.18712083995342255 -0.18936696648597717 0.048348817974328995 0.029352892190217972 0.08082154393196106 0.080221898853778839 0.019421912729740143 -0.1013551652431488 -0.11409563571214676 0.1927570253610611 0.04531434178352356 -0.0034634608309715986 0.052936088293790817 0.022298911586403847 0.11640499532222748 0.04673183336853981 -0.1153939887881279 -0.31085950136184692 -0.063244521617889404 -0.040510114282369614 -0.0055930661037564278 -0.075032375752925873 0.034067507833242416 -0.10556461662054062 -0.0053837154991924763 0.14915743470191956 -0.083830870687961578 0.13235011696815491 0.067604117095470428 -0.16202042996883392 0.025251401588320732 -0.0589618980884552 0.069810517132282257 0.087074615061283112 -0.1847851425409317 -0.18459238111972809 -0.070704095065593719 0.044310662895441055 -0.13004815578460693 -0.062271345406770706 0.030045703053474426 -0.56748324632644653 -0.042149070650339127 0.2138419896364212
  0.35740205645561218 0.00023753802815917879 0.044916998594999313 0.16239817440509796 0.075136780738830566 -0.032794836908578873 -0.2515886127948761 3.2833144359756261e-05 -0.21630692481994629 -0.097578443586826324 0.52321207523345947 -0.19500598311424255 0.031293317675590515 -0.093999803066253662 0.21804295480251312 -0.14615829288959503 0.12932416796684265 0.006450907327234745 0.11673323810100555 0.36809220910072327 -0.018789730966091156 0.1411852091550827 -0.15574228763580322 0.054891191422939301 0.032050423324108124 0.14819467067718506 0.17135652899742126 0.11023798584938049 -0.022183602675795555 0.32000324130058289 0.15164186060428619 0.051268890500068665 -0.037431571632623672 -0.021717183291912079 0.5439918041229248 -0.28727194666862488 0.086033046245574951 0.13459073007106781 -0.03662191703915596 0.036480706185102463 -0.090458579361438751 -0.53442525863647461 0.054670978337526321 -0.023159358650445938 0.21176257729530334 0.11750305444002151 -0.0081393662840127945 0.036231681704521179 -0.046991176903247833 -0.092501483857631683 0.12768536806106567 -0.22495073080062866 0.015937004238367081 -0.050326500087976456 -0.20764601230621338 -0.13467952609062195 0.11331383138895035 0.024354539811611176 -0.084016047418117523 -0.436290442943573 -0.060927588492631912 0.1428074985742569 0.058832515031099319 0.21021239459514618 0.16329167783260345 0.02087525837123394 -0.038323674350976944 0.25973802804946899 0.043768409639596939 -0.16444401443004608
  0.19233989715576172 0.12996961176395416 0.16938395798206329 0.13437147438526154 -0.020409258082509041 -0.13049080967903137 -0.057192347943782806 -0.068501867353916168 0.028166646137833595 0.061179228127002716 0.0089527452364563942 -0.23905383050441742 -0.12177100032567978 -0.033583961427211761 0.098752535879611969 0.24710066616535187 0.053511228412389755 0.037492990493774414 -0.15205971896648407 -0.11383442580699921 0.072042211890220642 0.20993088185787201 -0.21352921426296234 0.21353168785572052 0.088022924959659576 -0.1077587679028511 0.20006133615970612 -0.018415214493870735 -0.079191669821739197 0.1226242259144783 -0.40827709436416626 -0.060894370079040527 0.29306277632713318 -0.044079173356294632 0.0026496294885873795 0.01231875829398632 0.24627107381820679 -0.03938799723982811 -0.10857340693473816 0.02543841116130352 0.29357582330703735 0.016465883702039719 0.19083938002586365 0.3103252649307251 0.17134641110897064 -0.082974061369895935 0.21328425407409668 0.55443406105041504 -0.066875375807285309 0.0031220971141010523 -0.078846238553524017 -0.22968807816505432 -0.096440896391868591 0.013139781542122364 0.011525657959282398 0.10661738365888596 0.14523755013942719 -0.55453848838806152 0.048770185559988022 -0.12049082666635513 0.52312266826629639 -0.29613789916038513 -0.06190040335059166 -0.29889628291130066 0.21895495057106018 -0.062930189073085785 0.023624548688530922 0.077927559614181519 -0.10498300194740295 -0.10380976647138596
  -0.17271400988101959 -0.09195246547460556 0.085840016603469849 0.027360111474990845 -0.1487005352973938 0.13635897636413574 0.21428869664669037 0.0090744495391845703 -0.51313090324401855 -0.5388525128364563 0.20238114893436432 -0.0088478196412324905 -0.0084539884701371193 0.094313144683837891 -0.051863010972738266 -0.014361457899212837 -0.067471608519554138 0.13201090693473816 -0.015325047075748444 0.2106073796749115 -0.15445570647716522 -0.0041709612123668194 -0.0010002744384109974 0.093671619892120361 -0.056797288358211517 0.023674597963690758 0.012628834694623947 -0.034865498542785645 0.077767767012119293 0.33978289365768433 0.021438952535390854 -0.011177128180861473 0.041602399200201035 0.15254107117652893 0.29377278685569763 0.28945630788803101 -0.038390625268220901 -0.15935830771923065 -0.01643848605453968 -0.043350294232368469 0.013881305232644081 -0.27799654006958008 -0.070072561502456665 -0.19617760181427002 -0.0064577474258840084 -0.027530990540981293 0.026464760303497314 -0.12960389256477356 0.12685808539390564 -0.49213749170303345 -0.17650848627090454 0.085767067968845367 -0.036385904997587204 0.0056304493919014931 -0.11991248279809952 0.022430961951613426 0.12508869171142578 0.038389630615711212 0.10057864338159561 -0.19166374206542969 -0.17147190868854523 0.028703726828098297 -0.089551284909248352 0.20332828164100647 -0.038228869438171387 -0.081730693578720093 0.081166237592697144 -0.21585264801979065 -0.042626772075891495 0.22705556452274323
  -0.037118971347808838 -0.13529101014137268 0.092205487191677094 -0.3170674741268158 -0.15378984808921814 0.13440148532390594 -0.1134127676486969 0.23352585732936859 0.15403886139392853 0.22579002380371094 -0.20230253040790558 0.047643605619668961 -0.051394563168287277 -0.16320353746414185 -0.27684122323989868 0.071259833872318268 -0.16731958091259003 0.22488677501678467 0.077604696154594421 -0.23902331292629242 0.13883623480796814 -0.15056495368480682 0.044577721506357193 -0.4944797158241272 -0.09084678441286087 0.16190546751022339 -0.061590377241373062 0.17321506142616272 0.041752416640520096 -0.33223262429237366 -0.06530722975730896 0.035755697637796402 0.13503460586071014 0.057023480534553528 -0.048006262630224228 -0.29730501770973206 -0.059434756636619568 0.28214895725250244 0.048129595816135406 -0.028762592002749443 -0.0067781973630189896 0.0012229763669893146 -0.1365894079208374 -0.11091937869787216 -0.029003890231251717 -0.042682096362113953 -0.026163214817643166 -0.18574991822242737 0.19969655573368073 0.29886111617088318 0.26051035523414612 0.10859239101409912 -0.10933046787977219 0.047206338495016098 -0.024091377854347229 0.11054188013076782 -0.48849141597747803 0.087913297116756439 0.097434602677822113 0.038138892501592636 -0.069194503128528595 -0.062808245420455933 -0.037401534616947174 0.079623997211456299 -0.10180365294218063 0.015622268430888653 0.056525189429521561 0.071061290800571442 -0.031378593295812607 0.13608336448669434
  0.020572900772094727 0.14918898046016693 0.23900282382965088 0.092353120446205139 -0.016955368220806122 0.24627184867858887 -0.11439374089241028 0.072624459862709045 0.10626239329576492 0.047878868877887726 0.029603824019432068 -0.46008706092834473 0.24551913142204285 0.015504775568842888 -0.029459422454237938 -0.058816429227590561 -0.023788943886756897 0.32142278552055359 0.14996054768562317 0.06831185519695282 0.00040598554187454283 -0.0097108697518706322 -0.30048468708992004 0.028659798204898834 -0.065591350197792053 -0.10381871461868286 0.1779230535030365 -0.023574020713567734 0.4353359043598175 -0.0064772563055157661 -0.162899449467659 0.0077080028131604195 -0.17645598948001862 0.10817302763462067 0.073823705315589905 -0.032788079231977463 0.33320322632789612 -0.017287563532590866 0.43429338932037354 -0.29109683632850647 0.23618686199188232 -0.037242680788040161 -0.13379432260990143 -0.10586581379175186 -0.05739077553153038 -0.12300196290016174 -0.34175583720207214 -0.017795834690332413 0.02390071377158165 -0.014906909316778183 0.038433700799942017 -0.080181576311588287 -0.1436769962310791 -0.51021623611450195 -0.33490431308746338 -0.28383243083953857 0.068409711122512817 0.010633418336510658 -0.28070783615112305 0.026409445330500603 0.17147760093212128 0.054496802389621735 0.19490709900856018 0.072205625474452972 0.19023138284683228 0.080768883228302002 0.32886794209480286 0.16897007822990417 -0.15923167765140533 -0.20999884605407715
  0.077785171568393707 0.092648789286613464 -0.13053442537784576 0.18080702424049377 0.067328557372093201 -0.27433145046234131 -0.072238460183143616 -0.12983162701129913 0.068889893591403961 0.061101440340280533 0.073725670576095581 0.046588249504566193 -0.025007642805576324 0.11569064855575562 0.12069613486528397 0.0058107567019760609 0.11739177256822586 0.011798751540482044 -0.21902772784233093 0.10685157775878906 0.020465293899178505 -0.012675067409873009 0.22563344240188599 0.10465525090694427 0.12043778598308563 -0.090809106826782227 0.32999947667121887 -0.13037748634815216 0.18184852600097656 0.0067136283032596111 0.079732500016689301 0.20091883838176727 -0.60041040182113647 0.045068107545375824 -0.00012987427180632949 -0.047253493219614029 0.30848422646522522 -0.047428745776414871 0.16899116337299347 -0.031221907585859299 -0.15350030362606049 0.022040367126464844 -0.13123275339603424 -0.084496401250362396 -0.19651353359222412 0.2453579306602478 -0.37989982962608337 -0.27775609493255615 -0.0090613896027207375 0.015704400837421417 -0.013341213576495647 0.023540299385786057 0.18614719808101654 -0.2265736311674118 -0.049982473254203796 0.012101464904844761 0.13045454025268555 0.16424784064292908 -0.45066559314727783 0.0027202540077269077 0.049780111759901047 0.20157249271869659 0.44313728809356689 0.033828213810920715 0.30478560924530029 0.28411993384361267 0.067579112946987152 0.099000364542007446 0.22235335409641266 -0.087437711656093597
  -0.074113786220550537 0.1133139580488205 -0.051210261881351471 0.026062691584229469 -0.047420449554920197 0.18005794286727905 0.029967790469527245 0.088997416198253632 0.050585772842168808 -0.034188579767942429 -0.14776785671710968 -0.078010976314544678 0.42877006530761719 0.09703768789768219 -0.036271940916776657 0.061013683676719666 -0.084995247423648834 -0.11153142154216766 -0.011150757782161236 -0.044648587703704834 -0.2110765278339386 0.081484086811542511 -0.09738999605178833 -0.015415498055517673 0.24838434159755707 -0.079162731766700745 -0.26298046112060547 -0.08416622132062912 0.37522265315055847 -0.14031606912612915 -0.1389467716217041 -0.44542059302330017 0.071292571723461151 0.15271799266338348 0.048779681324958801 0.14357404410839081 -0.28963395953178406 0.030489377677440643 -0.019197924062609673 -0.33294931054115295 -0.0060325660742819309 -0.023947989568114281 0.23694789409637451 0.0088089816272258759 0.025417622178792953 0.16428184509277344 -0.14722974598407745 -0.096630692481994629 0.20660385489463806 -0.06668398529291153 0.052769407629966736 0.05941496416926384 -0.021344795823097229 -0.00023540046822745353 0.015241619199514389 0.00099702866282314062 -0.0056074266321957111 0.20295526087284088 -0.074188895523548126 0.094968192279338837 -0.027199706062674522 -0.088750742375850677 -0.039123781025409698 -0.017757091671228409 -0.25467073917388916 -0.41396009922027588 0.39618736505508423 0.005932678934186697 0.15451598167419434 0.098323315382003784
  -0.011187362484633923 0.016564013436436653 0.21553368866443634 0.0087468316778540611 0.061844363808631897 0.44300270080566406 -0.0062371743842959404 0.034278035163879395 0.10801485925912857 0.066217385232448578 0.042762480676174164 -0.32009211182594299 0.16263768076896667 -0.039525717496871948 0.034074567258358002 -0.28263857960700989 0.029352743178606033 0.073475055396556854 0.47131550312042236 0.064285121858119965 -0.035978168249130249 -0.060083206743001938 -0.41755354404449463 0.017637955024838448 -0.30206221342086792 0.041308153420686722 -0.23952144384384155 0.051140055060386658 0.00021713101887144148 0.020999791100621223 0.11690263450145721 -0.02935512363910675 0.23644667863845825 -0.09789653867483139 -0.011981827206909657 -0.032520707696676254 -0.05295288935303688 0.009149487130343914 0.23060508072376251 -0.04645732045173645 0.23187434673309326 0.018546793609857559 -0.057099919766187668 -0.065812356770038605 0.091977372765541077 -0.38825470209121704 0.10519356280565262 0.20260682702064514 -0.18261486291885376 0.050064638257026672 0.062842331826686859 -0.10652139782905579 -0.19587834179401398 -0.19946786761283875 -0.21039378643035889 -0.46746650338172913 0.058089371770620346 -0.0093011055141687393 0.20080947875976562 0.075799852609634399 -0.11621396988630295 0.060825806111097336 -0.26345452666282654 0.078567340970039368 -0.15284182131290436 -0.045871216803789139 -0.050385855138301849 0.022718580439686775 -0.38396373391151428 -0.258107990026474
  -0.089850187301635742 -0.1089516282081604 0.11878445744514465 -0.18973222374916077 -0.060199331492185593 0.27916529774665833 0.081918708980083466 0.1259300708770752 -0.065785393118858337 -0.059960532933473587 -0.070626512169837952 -0.032241102308034897 0.052029214799404144 -0.12185481935739517 -0.11055076122283936 -0.019530180841684341 -0.10705240815877914 -0.026555953547358513 0.22526328265666962 -0.096921339631080627 -0.024656312540173531 0.0063297227025032043 -0.21641966700553894 -0.1043732613325119 -0.10904301702976227 0.10001981258392334 -0.3551119863986969 0.13824445009231567 -0.16418124735355377 -0.010228667408227921 -0.059630744159221649 -0.22240504622459412 0.59159862995147705 -0.063513711094856262 -0.0081633850932121277 0.052518002688884735 -0.32821476459503174 0.038777284324169159 -0.16961503028869629 0.015811236575245857 0.14410676062107086 -0.013033418916165829 0.14361746609210968 0.080804571509361267 0.19940519332885742 -0.22408668696880341 0.35924631357192993 0.25817462801933289 0.014166194014251232 -0.013534895144402981 0.0087949670851230621 -0.018856631591916084 -0.18230201303958893 0.23727302253246307 0.061914682388305664 -0.021076111122965813 -0.12546621263027191 -0.13433451950550079 0.43139240145683289 0.014590409584343433 -0.070038735866546631 -0.21035042405128479 -0.42987063527107239 -0.020595088601112366 -0.32504278421401978 -0.30255228281021118 -0.052808769047260284 -0.10807263106107712 -0.19964711368083954 0.083660408854484558
  0.13320350646972656 0.27442935109138489 -0.33652493357658386 0.21268358826637268 0.24426925182342529 -0.2144131064414978 -0.13100510835647583 -0.077272802591323853 0.14972864091396332 0.098000779747962952 0.0078922519460320473 0.10922875255346298 0.09814918041229248 0.13554184138774872 0.14813937246799469 -0.097688481211662292 0.032818835228681564 -0.56481486558914185 -0.014134226366877556 0.13379184901714325 -0.13403575122356415 0.22231514751911163 -0.0016272244974970818 0.19679230451583862 0.21822835505008698 -0.12161315232515335 -0.15138006210327148 -0.16914509236812592 -0.25501510500907898 -0.016759300604462624 0.19447113573551178 -0.16232860088348389 -0.031321726739406586 0.075589090585708618 -0.025967605412006378 0.063619770109653473 -0.37145763635635376 -0.014827451668679714 -0.29808318614959717 0.12899565696716309 -0.31360986828804016 0.059471920132637024 0.2437746673822403 0.19306673109531403 0.10857383161783218 0.12040399760007858 0.21061564981937408 0.10058704018592834 -0.21874316036701202 0.047623343765735626 0.0032995743677020073 -0.055201523005962372 0.21529082953929901 0.17470367252826691 0.15629094839096069 0.036963529884815216 0.17892253398895264 0.14462383091449738 0.13305860757827759 0.062579028308391571 -0.10779792070388794 0.2491595447063446 -0.17864453792572021 -0.17681446671485901 -0.12434270977973938 -0.13432618975639343 -0.25201153755187988 0.15612997114658356 0.12400566786527634 -0.11577417701482773
  -0.14771668612957001 0.062310826033353806 0.0039650890976190567 0.029722070321440697 -0.27461203932762146 0.20179742574691772 0.1121499091386795 0.067971237003803253 -0.090323388576507568 -0.21292856335639954 -0.18736180663108826 -0.050552062690258026 0.1102825328707695 0.25435882806777954 -0.1499084085226059 0.1432001143693924 -0.13909347355365753 0.027141578495502472 -0.041673954576253891 -0.11714798957109451 -0.25447461009025574 0.031983651220798492 -0.031030129641294479 -0.14829841256141663 0.011873485520482063 -0.097191013395786285 -0.12574625015258789 -0.2132476270198822 0.25388723611831665 -0.13629794120788574 -0.15559333562850952 -0.13980111479759216 -0.035375691950321198 0.3846893310546875 0.1343182772397995 0.14520423114299774 -0.20195135474205017 0.073709495365619659 0.044914327561855316 -0.14918625354766846 -0.037018660455942154 -0.11540219187736511 -0.075979128479957581 -0.22400073707103729 -0.12378991395235062 0.03398977592587471 -0.041795007884502411 -0.26054719090461731 0.29660716652870178 -0.19280628859996796 0.087653480470180511 0.29996469616889954 -0.019460584968328476 -0.07496245950460434 -0.091007433831691742 0.042761154472827911 -0.12142428010702133 0.1987486332654953 0.16385293006896973 0.0068503553047776222 -0.12013897299766541 0.10655396431684494 -0.19134257733821869 0.08005097508430481 -0.15426735579967499 -0.20881904661655426 0.21816617250442505 -0.093861758708953857 0.023039704188704491 0.2659166157245636
  0.031598776578903198 0.12503394484519958 -0.087651833891868591 0.31504195928573608 0.14882253110408783 -0.12921001017093658 0.12207111716270447 -0.23970566689968109 -0.1562088280916214 -0.22891819477081299 0.2035163938999176 -0.047509338706731796 0.051770132035017014 0.16254763305187225 0.28088492155075073 -0.074743501842021942 0.17402322590351105 -0.22314202785491943 -0.074021212756633759 0.24091213941574097 -0.13943634927272797 0.14685894548892975 -0.046276822686195374 0.4934057891368866 0.086144022643566132 -0.15614502131938934 0.056385379284620285 -0.17234998941421509 -0.037305437028408051 0.33436498045921326 0.06932549923658371 -0.036272868514060974 -0.13396553695201874 -0.063795022666454315 0.044747259467840195 0.29935562610626221 0.060707774013280869 -0.28686267137527466 -0.044987045228481293 0.027099855244159698 0.011810941621661186 0.002913390751928091 0.13376730680465698 0.10501942783594131 0.031120004132390022 0.041907202452421188 0.022553764283657074 0.18442736566066742 -0.19887152314186096 -0.30046311020851135 -0.26285815238952637 -0.10620890557765961 0.10598605871200562 -0.045924864709377289 0.023579038679599762 -0.11772887408733368 0.49048954248428345 -0.085423834621906281 -0.098516419529914856 -0.033215031027793884 0.065456897020339966 0.056816242635250092 0.037329249083995819 -0.074527263641357422 0.099526949226856232 -0.017974548041820526 -0.055038496851921082 -0.079405628144741058 0.031357455998659134 -0.13792163133621216
  -0.4628404974937439 -0.051258545368909836 0.033829931169748306 -0.38548868894577026 0.091679193079471588 0.10168767720460892 0.06327221542596817 0.30713936686515808 -0.10830304026603699 -0.1900392472743988 -0.15149238705635071 0.044517777860164642 0.1108892485499382 -0.21778106689453125 -0.39798617362976074 0.043180122971534729 -0.34293809533119202 0.1481306254863739 0.07853187620639801 -0.021328901872038841 0.21161374449729919 -0.091340601444244385 0.040456835180521011 -0.028306359425187111 -0.016413198783993721 -0.16513150930404663 -0.049804244190454483 0.19187718629837036 0.0469200499355793 -0.0075580026023089886 -0.10858803242444992 -0.11077878624200821 0.14434227347373962 0.036760162562131882 -0.26615101099014282 0.326170414686203 -0.10931289196014404 -0.32003846764564514 0.0061058355495333672 -0.090211845934391022 0.060209516435861588 0.28998363018035889 -0.021311772987246513 0.077607758343219757 -0.067836642265319824 -0.10908418148756027 -0.0118867177516222 -0.08898182213306427 0.11289995908737183 -0.17125563323497772 -0.34141549468040466 0.13926936686038971 -0.061130382120609283 0.0085254861041903496 0.059807993471622467 0.21262308955192566 -0.079113207757472992 0.050072748214006424 0.051290802657604218 0.26522901654243469 0.01375922467559576 -0.12872840464115143 -0.010858796536922455 0.026682432740926743 -0.11431997269392014 -0.041790001094341278 0.097540713846683502 -0.071566790342330933 -0.046941425651311874 0.11991831660270691
  0.067609794437885284 -0.12443791329860687 0.076595321297645569 -0.030306944623589516 0.034745912998914719 -0.1857309490442276 -0.029123809188604355 -0.087896771728992462 -0.060243166983127594 0.027654748409986496 0.15751470625400543 0.052433967590332031 -0.41216662526130676 -0.11083505302667618 0.034909971058368683 -0.04661170020699501 0.089086085557937622 0.1616862416267395 -0.012146545574069023 0.053825493901968002 0.2274354100227356 -0.085044138133525848 0.098133184015750885 0.018317723646759987 -0.23162361979484558 0.080047778785228729 0.30738970637321472 0.097527392208576202 -0.31301254034042358 0.15246836841106415 0.10856033861637115 0.44647911190986633 -0.10006831586360931 -0.15779286623001099 -0.045661196112632751 -0.14136724174022675 0.35189971327781677 -0.047194290906190872 0.052652239799499512 0.29686129093170166 0.032130632549524307 0.023508502170443535 -0.24525521695613861 -0.015230734832584858 -0.028818724676966667 -0.14207452535629272 0.087515063583850861 0.083304375410079956 -0.18385355174541473 0.057320773601531982 -0.068858705461025238 -0.069542109966278076 0.010430083610117435 -0.033489901572465897 -0.034800071269273758 0.004612509161233902 0.011093424633145332 -0.21323500573635101 0.0065275928936898708 -0.094641916453838348 0.065586626529693604 0.057086706161499023 0.10163598507642746 0.027505777776241302 0.29491949081420898 0.42504516243934631 -0.33791646361351013 -0.0037233121693134308 -0.13677509129047394 -0.10425539314746857
  -0.066668130457401276 -0.25526678562164307 0.043619647622108459 -0.4033128023147583 0.26494202017784119 -0.076782241463661194 -0.20803894102573395 0.22349017858505249 0.00056060077622532845 0.09446251392364502 0.25771716237068176 0.0082024522125720978 0.032306324690580368 -0.54458320140838623 -0.086307264864444733 -0.13183371722698212 -0.059138551354408264 0.12623822689056396 0.20514674484729767 0.16832086443901062 0.43204551935195923 -0.053711388260126114 0.00094659416936337948 -0.045321393758058548 -0.045204624533653259 0.094125129282474518 0.084182806313037872 0.50419765710830688 -0.15354655683040619 0.11953286081552505 0.10533407330513 0.04671623557806015 0.13821020722389221 -0.37673652172088623 -0.11106549203395844 -0.17037560045719147 0.085936807096004486 -0.16871924698352814 -0.031798016279935837 0.079465776681900024 0.021913435310125351 0.085838481783866882 0.054695632308721542 0.21308781206607819 0.17553412914276123 0.024420164525508881 -0.027927083894610405 0.073655061423778534 -0.065046057105064392 0.13521046936511993 -0.20636376738548279 -0.13828247785568237 -0.064306579530239105 0.089529700577259064 0.068017028272151947 0.071914412081241608 -0.065197356045246124 -0.040556486696004868 -0.13117489218711853 0.049953006207942963 0.062701210379600525 -0.2092907577753067 0.18756167590618134 0.14341329038143158 0.081896848976612091 0.11234239488840103 -0.077619634568691254 0.16765908896923065 0.045565299689769745 -0.22526800632476807
  0.16397981345653534 0.082657940685749054 -0.082672670483589172 -0.033568207174539566 0.14423978328704834 -0.1314355731010437 -0.20851485431194305 -0.011709624901413918 0.51598691940307617 0.53893834352493286 -0.20544195175170898 0.0069506298750638962 0.011452699080109596 -0.096735730767250061 0.052076254040002823 0.013499494642019272 0.070652082562446594 -0.13100755214691162 0.019833823665976524 -0.21169380843639374 0.15609903633594513 0.0021785299759358168 -0.0020701116882264614 -0.096306398510932922 0.05276121199131012 -0.022432697936892509 -0.017610356211662292 0.036601673811674118 -0.072036527097225189 -0.34262281656265259 -0.020902486518025398 0.0092217577621340752 -0.041130203753709793 -0.15728199481964111 -0.30223068594932556 -0.28744691610336304 0.038496904075145721 0.15258060395717621 0.020534120500087738 0.040442638099193573 -0.0092133311554789543 0.28758808970451355 0.067384019494056702 0.19245299696922302 0.0078979125246405602 0.027203010395169258 -0.030699305236339569 0.12738461792469025 -0.12405891716480255 0.49348330497741699 0.17207376658916473 -0.079155191779136658 0.03258167952299118 -0.0065349284559488297 0.12051782757043839 -0.02751297689974308 -0.12569980323314667 -0.034367043524980545 -0.10128907114267349 0.20201916992664337 0.17116977274417877 -0.035065997391939163 0.089005507528781891 -0.19907377660274506 0.035357959568500519 0.078425988554954529 -0.078355953097343445 0.21053743362426758 0.04355446994304657 -0.22972011566162109
  -0.17811396718025208 -0.31166315078735352 0.27515915036201477 -0.37942633032798767 0.016521643847227097 0.28188210725784302 0.0051132524386048317 0.20151892304420471 -0.068020083010196686 -0.01115883607417345 0.10361780971288681 -0.11433147639036179 0.032313726842403412 -0.38256818056106567 -0.17127929627895355 -0.1338391900062561 -0.078950010240077972 0.38030076026916504 0.3150959312915802 0.022741114720702171 0.2786918580532074 -0.2011055052280426 -0.13090269267559052 -0.16619853675365448 -0.26668375730514526 0.15540291368961334 -0.048411514610052109 0.39562627673149109 0.029389766976237297 0.059904899448156357 0.022194206714630127 0.061128143221139908 0.24968139827251434 -0.27234286069869995 -0.075227223336696625 -0.090622358024120331 0.12275908887386322 -0.083772726356983185 0.18516598641872406 -0.045232251286506653 0.25110259652137756 0.042526595294475555 -0.11438499391078949 -0.030716056004166603 0.069171890616416931 -0.21555334329605103 -0.044400490820407867 0.030271884053945541 0.039338897913694382 0.045773565769195557 -0.097606003284454346 -0.049705378711223602 -0.22960688173770905 -0.051054935902357101 -0.095538176596164703 -0.12866316735744476 -0.15277338027954102 -0.067479662597179413 0.0016963530797511339 0.057336416095495224 -0.023108575493097305 -0.24240498244762421 0.036202125251293182 0.2148856520652771 -0.035778224468231201 0.063346624374389648 0.063945509493350983 -0.041944824159145355 -0.19303017854690552 -0.095278561115264893
  -0.33300170302391052 0.17661440372467041 0.013404703699052334 -0.31047829985618591 0.12529301643371582 0.081289403140544891 -0.12466884404420853 0.44093984365463257 -0.043034672737121582 -0.11243031919002533 -0.20600970089435577 -0.019373586401343346 0.10845112800598145 -0.16301533579826355 -0.51930910348892212 0.086195290088653564 -0.4891389012336731 0.13625270128250122 0.056200999766588211 -0.043549027293920517 0.19906485080718994 -0.048500936478376389 0.0056085772812366486 -0.13467057049274445 0.065335959196090698 -0.21135628223419189 0.01511093694716692 0.11970093846321106 0.054280098527669907 -0.10291095077991486 -0.15559618175029755 -0.12712572515010834 0.13696931302547455 0.26117578148841858 -0.13032495975494385 0.21943379938602448 -0.16913022100925446 -0.13590364158153534 -0.030430927872657776 -0.1078224778175354 -0.029720064252614975 0.17578043043613434 -0.031971115618944168 0.082509994506835938 -0.084551386535167694 -0.13341742753982544 0.014857059344649315 -0.12166865915060043 0.12601883709430695 -0.11177561432123184 -0.15740469098091125 0.074259452521800995 -0.013679459691047668 -0.047173384577035904 -0.033794943243265152 0.29673537611961365 -0.19210392236709595 0.08885500580072403 0.10302586108446121 0.14617934823036194 0.017755400389432907 0.056050583720207214 -0.058768671005964279 -0.047019731253385544 -0.087249599397182465 -0.02203570120036602 0.092892877757549286 0.12878406047821045 -0.080459639430046082 0.15538696944713593
  0.10456100851297379 0.59279251098632812 -0.20134265720844269 0.23230940103530884 0.29532930254936218 -0.14334852993488312 -0.31413179636001587 0.14756815135478973 0.20264345407485962 0.093387655913829803 -0.083898670971393585 -0.17978167533874512 0.21625272929668427 0.14211863279342651 -0.091340437531471252 0.031615462154150009 -0.2070079892873764 -0.32668057084083557 -0.026982996612787247 0.093932144343852997 -0.069603919982910156 0.25161164999008179 -0.14995384216308594 0.19727130234241486 0.28850233554840088 -0.35872671008110046 0.063427813351154327 -0.22487381100654602 0.0091821402311325073 -0.072524122893810272 -0.088022314012050629 -0.20839798450469971 -0.1043558344244957 0.35073363780975342 0.031264323741197586 0.12126197665929794 -0.19359554350376129 -0.025668758898973465 -0.10499308258295059 -0.073870889842510223 -0.18432465195655823 0.061078492552042007 0.17530326545238495 0.23205573856830597 0.0025851312093436718 0.0095944777131080627 0.05401766300201416 0.11012019217014313 -0.14390738308429718 -0.020567439496517181 0.010470855049788952 -0.11795295774936676 0.17000418901443481 -0.15698553621768951 -0.054558757692575455 0.099174931645393372 0.16216230392456055 0.087540850043296814 0.0096985446289181709 0.038228679448366165 0.12418510019779205 0.34541216492652893 -0.083326354622840881 -0.26776641607284546 0.038485128432512283 -0.073396533727645874 -0.023265659809112549 0.38829141855239868 0.0067657851614058018 -0.13323245942592621
  0.16395498812198639 0.082635633647441864 -0.082678630948066711 -0.033592235296964645 0.14424785971641541 -0.13145676255226135 -0.20850406587123871 -0.011711531318724155 0.51596707105636597 0.53891938924789429 -0.2054402083158493 0.0069684628397226334 0.011435496620833874 -0.096758358180522919 0.052064504474401474 0.013502617366611958 0.070643946528434753 -0.13100641965866089 0.019822990521788597 -0.21169368922710419 0.156119704246521 0.0021711380686610937 -0.0020544726867228746 -0.096294842660427094 0.052757102996110916 -0.022439412772655487 -0.017604928463697433 0.036616887897253036 -0.072060152888298035 -0.34260767698287964 -0.020904546603560448 0.0092277657240629196 -0.041123468428850174 -0.1573072075843811 -0.30226004123687744 -0.28742989897727966 0.038502488285303116 0.1525435596704483 0.020520057529211044 0.040451183915138245 -0.0092121558263897896 0.28761139512062073 0.06738550215959549 0.19246706366539001 0.0078967306762933731 0.027199661359190941 -0.030691158026456833 0.12739202380180359 -0.1240670457482338 0.49346840381622314 0.17203322052955627 -0.079154558479785919 0.032578989863395691 -0.0065206475555896759 0.12053694576025009 -0.027493754401803017 -0.12569363415241241 -0.034385785460472107 -0.10129330307245255 0.20202897489070892 0.17117825150489807 -0.035091012716293335 0.089012131094932556 -0.19907914102077484 0.035358455032110214 0.078433521091938019 -0.078371413052082062 0.210518479347229 0.043555907905101776 -0.22971569001674652
  -0.35422950983047485 -0.13705797493457794 -0.037286777049303055 -0.23667742311954498 0.19473642110824585 -0.083352915942668915 0.082304738461971283 0.047670025378465652 -0.12002279609441757 -0.15342028439044952 0.066811047494411469 0.020211623981595039 0.11022358387708664 -0.27312734723091125 -0.10030380636453629 -0.15999074280261993 -0.098547928035259247 -0.0053861471824347973 0.062017139047384262 0.2589360773563385 0.22408440709114075 0.042837601155042648 -0.011369448155164719 0.21446286141872406 0.025118865072727203 -0.064831867814064026 0.057717230170965195 0.24070653319358826 -0.087757527828216553 0.2141212671995163 0.08465992659330368 -0.031179090961813927 0.055080488324165344 -0.20476096868515015 -0.35231310129165649 0.34692028164863586 0.035894490778446198 -0.51629400253295898 -0.054381269961595535 0.0488697849214077 0.0046916971914470196 0.35414639115333557 0.072097554802894592 0.1547711193561554 0.12619872391223907 -0.012146075256168842 -0.033378053456544876 0.062919571995735168 -0.13802894949913025 -0.14555862545967102 -0.54052311182022095 -0.020081445574760437 -0.019334979355335236 0.051774714142084122 0.088964439928531647 0.093932941555976868 0.16591469943523407 -0.032449975609779358 -0.11168579757213593 0.32854893803596497 0.047531098127365112 -0.18494290113449097 0.12636815011501312 0.017490504309535027 0.061343908309936523 0.032740958034992218 -0.048607867211103439 -0.094708718359470367 0.020310962572693825 -0.15105096995830536
  0.054452434182167053 -0.085206463932991028 0.098502352833747864 -0.026072638109326363 0.0225572120398283 -0.23491759598255157 -0.067662864923477173 -0.053319953382015228 -0.056115597486495972 0.029082758352160454 0.14633168280124664 -0.01238581445068121 -0.31706959009170532 -0.12862695753574371 0.0014896538341417909 0.010831853374838829 0.055791914463043213 0.26438742876052856 -0.11332393437623978 0.075687460601329803 0.25463658571243286 -0.066867180168628693 0.11790727078914642 0.02367890439927578 -0.11480548977851868 0.041378732770681381 0.44357386231422424 0.10683120042085648 -0.11102023720741272 0.14429576694965363 0.0033353553153574467 0.40554368495941162 -0.21676608920097351 -0.10926857590675354 -0.040365375578403473 -0.12054277956485748 0.48776224255561829 -0.080450117588043213 0.12460874766111374 0.16733072698116302 0.05256272479891777 0.027565125375986099 -0.2302209734916687 -0.012970823794603348 -0.053975153714418411 -0.036753915250301361 -0.10789208114147186 0.00929225143045187 -0.1032574251294136 0.039757333695888519 -0.10229779779911041 -0.093005552887916565 0.012862853705883026 -0.13482558727264404 -0.081744953989982605 0.068510279059410095 0.013888794928789139 -0.20055918395519257 -0.20732103288173676 -0.079983167350292206 0.17799410223960876 0.0042237564921379089 0.29416751861572266 0.023353355005383492 0.39408117532730103 0.43495181202888489 -0.14431534707546234 0.047159541398286819 -0.045904166996479034 -0.10674196481704712
  0.19251024723052979 -0.034511495381593704 -0.022916823625564575 0.087192505598068237 0.25127172470092773 -0.1905752420425415 -0.099343664944171906 -0.17108736932277679 0.13689817488193512 0.23286660015583038 0.19815124571323395 -0.0012189496774226427 -0.096275001764297485 -0.14559264481067657 0.2492094486951828 -0.14557252824306488 0.22777269780635834 -0.1120070144534111 0.047974508255720139 0.12576259672641754 0.18278691172599792 0.020467879250645638 -0.0081623410806059837 0.21905747056007385 -0.023078281432390213 0.046102046966552734 0.12267819046974182 0.10934190452098846 -0.22124986350536346 0.13298138976097107 0.16776761412620544 0.14315763115882874 -0.062116090208292007 -0.36222133040428162 -0.12991803884506226 -0.14439395070075989 0.2134377509355545 -0.082555308938026428 -0.018969869241118431 0.14977633953094482 0.039545271545648575 0.12074729800224304 0.085404224693775177 0.20049838721752167 0.09949028491973877 0.0059125111438333988 0.022924337536096573 0.25922113656997681 -0.29999151825904846 0.19226816296577454 -0.075304597616195679 -0.26016974449157715 0.06409832090139389 0.027224946767091751 0.061974611133337021 -0.13821227848529816 0.2063828706741333 -0.16854095458984375 -0.18407987058162689 0.0070593482814729214 0.13301078975200653 -0.05546337366104126 0.18276527523994446 -0.085090942680835724 0.17260168492794037 0.18904970586299896 -0.22225005924701691 0.097132429480552673 0.0068670096807181835 -0.30947348475456238
  -0.073632180690765381 0.11125843226909637 -0.072600610554218292 0.025914872065186501 -0.038690786808729172 0.1946338415145874 0.036502517759799957 0.083107411861419678 0.058660969138145447 -0.029656834900379181 -0.15341195464134216 -0.052569951862096786 0.41507551074028015 0.10846102237701416 -0.030242564156651497 0.039495233446359634 -0.081338562071323395 -0.15929555892944336 0.020876927301287651 -0.05011361837387085 -0.22769196331501007 0.07917061448097229 -0.10024049878120422 -0.021514454856514931 0.22365912795066833 -0.072703555226325989 -0.31517496705055237 -0.094255246222019196 0.3187021017074585 -0.15109530091285706 -0.09960782527923584 -0.44495490193367004 0.09828484058380127 0.14895620942115784 0.04388735443353653 0.13994267582893372 -0.35157990455627441 0.043397862464189529 -0.045782476663589478 -0.29907292127609253 -0.028702208772301674 -0.021036775782704353 0.2401534765958786 0.0064254356548190117 0.030211113393306732 0.14126838743686676 -0.093589343130588531 -0.088990435004234314 0.1848088800907135 -0.057393111288547516 0.067980386316776276 0.074271813035011292 -0.014453369192779064 0.032367777079343796 0.033202528953552246 -0.016358813270926476 -0.010281498543918133 0.22182604670524597 -0.0082129621878266335 0.099945351481437683 -0.074276357889175415 -0.059997666627168655 -0.10129640996456146 -0.016984472051262856 -0.29903805255889893 -0.42587566375732422 0.33909633755683899 -0.0034171103034168482 0.13675609230995178 0.10071693360805511
  -0.17271648347377777 -0.091954521834850311 0.08583948016166687 0.027358509600162506 -0.14870069921016693 0.13635796308517456 0.21429027616977692 0.0090733636170625687 -0.51313167810440063 -0.53885376453399658 0.20237994194030762 -0.0088465660810470581 -0.0084554357454180717 0.094312287867069244 -0.051863845437765121 -0.014361508190631866 -0.067471928894519806 0.13201068341732025 -0.015325693413615227 0.21060645580291748 -0.15445481240749359 -0.0041720732115209103 -0.00099936407059431076 0.093672245740890503 -0.056798476725816727 0.023673830553889275 0.012628361582756042 -0.03486531600356102 0.077766045928001404 0.33978304266929626 0.021438876166939735 -0.01117655448615551 0.041602417826652527 0.15253901481628418 0.29376918077468872 0.28945761919021606 -0.038390375673770905 -0.15936143696308136 -0.016438912600278854 -0.043349962681531906 0.01388164609670639 -0.27799376845359802 -0.070073015987873077 -0.19617733359336853 -0.0064586079679429531 -0.027531916275620461 0.026465205475687981 -0.12960372865200043 0.1268572062253952 -0.4921383261680603 -0.17651157081127167 0.085767775774002075 -0.036386437714099884 0.0056309853680431843 -0.1199110820889473 0.022431273013353348 0.12508903443813324 0.038388371467590332 0.10057840496301651 -0.19166210293769836 -0.17147175967693329 0.028701825067400932 -0.089551322162151337 0.20332761108875275 -0.038229621946811676 -0.08173021674156189 0.081164836883544922 -0.21585516631603241 -0.042627248913049698 0.22705577313899994
  -0.062818147242069244 0.074680931866168976 -0.095082402229309082 0.019070737063884735 -0.023538416251540184 0.24057821929454803 0.07118949294090271 0.053067971020936966 0.054742902517318726 -0.030896387994289398 -0.14244797825813293 0.010001098737120628 0.32625856995582581 0.12224265933036804 -0.0007774422992952168 -0.016300959512591362 -0.052344221621751785 -0.25890511274337769 0.11865495145320892 -0.069440796971321106 -0.25124362111091614 0.062237296253442764 -0.11911746859550476 -0.026319479569792747 0.11388634145259857 -0.036876905709505081 -0.44610297679901123 -0.10065814107656479 0.1240856796503067 -0.14308816194534302 0.0017697260482236743 -0.4081747829914093 0.21136769652366638 0.1019829586148262 0.037184685468673706 0.12114416807889938 -0.48398876190185547 0.07302643358707428 -0.11657539010047913 -0.17537911236286163 -0.049832824617624283 -0.02319171279668808 0.22781109809875488 0.0069283023476600647 0.055437479168176651 0.040776979178190231 0.093880809843540192 -0.017855936661362648 0.10668239742517471 -0.040571928024291992 0.097566492855548859 0.095456808805465698 -0.01631590910255909 0.13050374388694763 0.079250022768974304 -0.075311519205570221 -0.013171316124498844 0.21058849990367889 0.19599336385726929 0.087385065853595734 -0.18188244104385376 -0.0096934214234352112 -0.28503924608230591 -0.013609970919787884 -0.39523467421531677 -0.43619528412818909 0.15331950783729553 -0.050116673111915588 0.050508424639701843 0.10234682261943817 ]
 [ -0.63765490055084229 -0.60770928859710693 -0.1503223329782486 -2.1156511306762695 -0.36317986249923706 1.188685417175293 0.29768601059913635 0.87342065572738647 1.1650761365890503 -0.90612369775772095 -0.39676022529602051 0.20680573582649231 0.34410026669502258 -1.6628412008285522 1.5354772806167603 -0.75520241260528564 0.38352522253990173 0.0095747457817196846 -0.25208017230033875 0.029181048274040222 -1.1078436374664307 0.037744719535112381 0.39585968852043152 0.28461971879005432 -0.12189395725727081 -0.011571571230888367 -0.52027755975723267 1.2092617750167847 0.67722302675247192 -1.292147159576416 -1.7846041917800903 -0.87819355726242065 -0.19430966675281525 -0.62507861852645874 1.0388319492340088 1.5703372955322266 -1.0475533008575439 0.67628437280654907 -0.3776874840259552 2.4638621807098389 -0.32464522123336792 -1.211344838142395 -2.1793768405914307 0.33507901430130005 0.084257349371910095 0.3657454252243042 -1.7268843650817871 -0.80492740869522095 0.64383280277252197 -0.91948938369750977 0.47673717141151428 0.66627317667007446 0.043148070573806763 0.240434929728508 0.11429882049560547 0.32084915041923523 0.075728490948677063 0.13616828620433807 1.2578415870666504 0.93002998828887939 -1.2872738838195801 -0.19347353279590607 -0.96209341287612915 0.16629557311534882 2.3842120170593262 -1.1730495691299438 0.73133963346481323 -0.31660515069961548 0.36839866638183594 -2.7675330638885498 ]
 [ -0.11944373697042465 0.27839779853820801 -0.25514748692512512 0.17791703343391418 0.4753870964050293 0.13136672973632812 -0.26122769713401794 0.14883622527122498 -0.22284266352653503 0.038034748286008835 -0.038231827318668365 -0.52024257183074951 0.41187354922294617 0.12222003936767578 -0.16984233260154724 0.10639860481023788 0.020482651889324188 0.2975388765335083 -0.22443567216396332 -0.17474877834320068 0.11797283589839935 -0.45739454030990601 0.47634479403495789 -0.60456293821334839 0.13134241104125977 -0.13131880760192871 0.12230419367551804 -0.1313537061214447 0.59109145402908325 0.64031296968460083 -0.66533136367797852 -0.276765376329422 0.13134162127971649 0.15397763252258301 -0.53824979066848755 -0.32451069355010986 -0.46890360116958618 0.11779027432203293 0.28635692596435547 -0.17667505145072937 -0.49051481485366821 -0.16051922738552094 0.3997022807598114 0.39562371373176575 0.089979112148284912 -0.13133668899536133 0.25146147608757019 0.1225435882806778 -0.44164705276489258 -0.13118602335453033 0.16833879053592682 0.099631838500499725 0.60393601655960083 -0.40577009320259094 0.13136096298694611 -0.11933998763561249 ]
</Nnet>
