<Nnet>
<rbm> 69 56
bern bern [
  -0.0046607921831309795 0.10757885128259659 0.017904344946146011 0.079805001616477966 0.060459919273853302 -0.22629263997077942 -0.012270362116396427 -0.022580031305551529 -0.0008540828712284565 0.063723862171173096 -0.055675312876701355 -0.059289257973432541 0.061112232506275177 0.0016452159034088254 -0.081625685095787048 -0.019520508125424385 0.053007654845714569 -0.0039872913621366024 -0.0012113761622458696 -0.081903703510761261 -0.060389798134565353 -0.062534928321838379 -0.13070659339427948 -0.11815750598907471 -0.22629240155220032 0.22522006928920746 0.0016439203172922134 0.22522014379501343 -0.13580755889415741 -0.13454720377922058 -0.043473560363054276 0.059544671326875687 -0.22629243135452271 0.07833118736743927 -0.015874505043029785 0.028241351246833801 -0.057151954621076584 -0.015398262068629265 -0.030976772308349609 0.058482922613620758 -0.12413054704666138 -0.081099450588226318 -0.03599078580737114 0.053243514150381088 0.093532204627990723 0.22522009909152985 -0.0040911445394158363 0.0016403470654040575 0.070868037641048431 0.22521956264972687 -0.014539291150867939 0.05317441001534462 0.11681170761585236 -0.05623132735490799 -0.22629249095916748 -0.055500682443380356
  0.076228946447372437 -0.11315979063510895 -0.011992071755230427 0.11696532368659973 -0.085866264998912811 -0.032457448542118073 0.25683951377868652 0.027194969356060028 0.26281186938285828 0.263946533203125 0.062079932540655136 0.088267795741558075 -0.083698980510234833 -0.078732907772064209 -0.1208750307559967 0.025935467332601547 -0.099142305552959442 -0.097616322338581085 0.26263359189033508 -0.11999981850385666 0.082767300307750702 0.083712182939052582 0.12514732778072357 0.11493649333715439 -0.032462019473314285 0.031269840896129608 -0.07873910665512085 0.031272798776626587 0.089258790016174316 0.072565719485282898 0.027161978185176849 -0.074092887341976166 -0.03246205672621727 0.12176580727100372 0.041666552424430847 -0.0016342061571776867 0.092970065772533417 0.019228497520089149 0.0012495506089180708 -0.023333167657256126 0.13866347074508667 -0.12246865034103394 -0.14946620166301727 -0.097712025046348572 -0.17719648778438568 0.031271219253540039 -0.072017215192317963 -0.078756727278232574 -0.017458101734519005 0.031251333653926849 -0.26755067706108093 -0.099917098879814148 -0.1156306192278862 0.09793303906917572 -0.032463282346725464 0.098428428173065186
  -0.10130978375673294 -0.032989408820867538 0.035019420087337494 0.088963359594345093 -0.13206954300403595 0.069931112229824066 0.082014217972755432 -0.03147212415933609 0.080613993108272552 0.080432519316673279 -0.046562224626541138 0.15267829596996307 -0.12376983463764191 0.10147126019001007 -0.089647382497787476 -0.027710435912013054 -0.12918460369110107 0.094962149858474731 0.080646075308322906 -0.089422464370727539 0.1062294989824295 0.12928925454616547 0.071280002593994141 0.1898064911365509 0.069929249584674835 -0.068988382816314697 0.10146944224834442 -0.06898750364780426 0.051348447799682617 0.042111285030841827 -0.068802870810031891 -0.092594429850578308 0.069929249584674835 0.090125761926174164 0.01232573390007019 -0.045381903648376465 0.15572534501552582 -0.026020657271146774 0.049514412879943848 -0.035620085895061493 0.18306143581867218 -0.090065799653530121 0.066987574100494385 -0.15516966581344604 -0.1086980327963829 -0.068988025188446045 -0.02127508819103241 0.10146380215883255 0.007875390350818634 -0.06899474561214447 -0.077302269637584686 -0.13512714207172394 -0.18979096412658691 0.15553231537342072 0.069928884506225586 0.13620218634605408
  -0.079861737787723541 0.0088305128738284111 -0.026321854442358017 0.21175196766853333 -0.07560073584318161 -0.11509754508733749 0.12854669988155365 0.023301567882299423 0.13798199594020844 0.19384138286113739 -0.097635991871356964 0.079781830310821533 -0.074286147952079773 0.076963730156421661 -0.21450921893119812 0.025242013856768608 -0.079985871911048889 0.060985423624515533 0.13766162097454071 -0.21428015828132629 0.071164689958095551 0.073527835309505463 -0.0081049650907516479 0.10558302700519562 -0.11510054767131805 0.1150091215968132 0.076959602534770966 0.11501072347164154 -0.030433693900704384 -0.038974110037088394 -0.078492328524589539 -0.059791933745145798 -0.11510057747364044 0.21298430860042572 0.03449799120426178 -0.055803757160902023 0.083903044462203979 0.02747742086648941 0.055053222924470901 -0.050723128020763397 0.089984700083732605 -0.21491554379463196 0.0050686472095549107 -0.087962038815021515 -0.034118082374334335 0.1150098443031311 0.033314250409603119 0.076948568224906921 0.00023108845925889909 0.11499848961830139 -0.1489100307226181 -0.082220032811164856 -0.10717769712209702 0.086872629821300507 -0.11510121822357178 0.081220455467700958
  -0.0046638529747724533 0.10758091509342194 0.017907537519931793 0.079800963401794434 0.060460403561592102 -0.2262907475233078 -0.012276610359549522 -0.022584080696105957 -0.00086058088345453143 0.063716739416122437 -0.055677041411399841 -0.059290148317813873 0.061112783849239349 0.0016478045145049691 -0.081622175872325897 -0.019524484872817993 0.053009409457445145 -0.0039842799305915833 -0.0012178648030385375 -0.081900157034397125 -0.060391891747713089 -0.062535889446735382 -0.13070958852767944 -0.11815892159938812 -0.22629038989543915 0.22521750628948212 0.0016465061344206333 0.22521768510341644 -0.13580989837646484 -0.13454930484294891 -0.043474826961755753 0.059545736759901047 -0.22629040479660034 0.078326992690563202 -0.015876656398177147 0.028242528438568115 -0.057152990251779556 -0.015402044169604778 -0.030978437513113022 0.058484014123678207 -0.12413249164819717 -0.081095792353153229 -0.035986777395009995 0.053244296461343765 0.093534693121910095 0.22521762549877167 -0.0040919608436524868 0.0016429249662905931 0.070869490504264832 0.2252170592546463 -0.014533094130456448 0.053175996989011765 0.11681263148784637 -0.056232713162899017 -0.22629052400588989 -0.055502790957689285
  -0.10172192007303238 -0.032984402030706406 0.03477642685174942 0.08930186927318573 -0.13195058703422546 0.070116296410560608 0.081709198653697968 -0.031317159533500671 0.080300025641918182 0.080161020159721375 -0.047076843678951263 0.15242181718349457 -0.12371442466974258 0.10189714282751083 -0.089966356754302979 -0.027586810290813446 -0.12889067828655243 0.095393531024456024 0.080332271754741669 -0.089742563664913177 0.10621317476034164 0.1292058527469635 0.071061953902244568 0.1898978054523468 0.070114351809024811 -0.06915699690580368 0.10189523547887802 -0.069156087934970856 0.051233056932687759 0.042040430009365082 -0.06889837235212326 -0.092645049095153809 0.07011432945728302 0.090457193553447723 0.012390962801873684 -0.045595981180667877 0.15543778240680695 -0.025885777547955513 0.04972560703754425 -0.036122880876064301 0.18298308551311493 -0.090382374823093414 0.067483551800251007 -0.15485113859176636 -0.10822503268718719 -0.069156557321548462 -0.02065613865852356 0.10188975185155869 0.0074798348359763622 -0.069163106381893158 -0.076971478760242462 -0.13482148945331573 -0.18987149000167847 0.15523044764995575 0.070113986730575562 0.13591426610946655
  -0.144828200340271 0.031208677217364311 -0.081811971962451935 0.22049589455127716 -0.047562170773744583 -0.078410573303699493 0.032380305230617523 0.065644972026348114 0.038685478270053864 0.096713393926620483 -0.17141374945640564 0.037687670439481735 -0.05308673158288002 0.14316508173942566 -0.22114244103431702 0.065195389091968536 -0.038146570324897766 0.13205109536647797 0.038440592586994171 -0.2212434858083725 0.056908696889877319 0.048788510262966156 -0.058146543800830841 0.092640243470668793 -0.078412063419818878 0.07942904531955719 0.14316351711750031 0.079429470002651215 -0.060199514031410217 -0.060165151953697205 -0.090162463486194611 -0.050302501767873764 -0.078412100672721863 0.21988518536090851 0.047418590635061264 -0.099064454436302185 0.038154974579811096 0.070202760398387909 0.097098328173160553 -0.10905743390321732 0.053226597607135773 -0.22094732522964478 0.099297858774662018 -0.039455413818359375 0.061485346406698227 0.079429224133491516 0.13759171962738037 0.14315952360630035 -0.045739974826574326 0.079425424337387085 -0.046774901449680328 -0.038362659513950348 -0.094063267111778259 0.039400193840265274 -0.078412249684333801 0.038763321936130524
  -0.0046017183922231197 0.10754133015871048 0.017852431163191795 0.07987532764673233 0.060449473559856415 -0.2263312041759491 -0.012152208015322685 -0.022512210533022881 -0.00073143665213137865 0.063857361674308777 -0.055639423429965973 -0.059270437806844711 0.061100933700799942 0.0015938340220600367 -0.081689000129699707 -0.019453564658761024 0.052973385900259018 -0.0040464936755597591 -0.0010888742981478572 -0.081966601312160492 -0.060352224856615067 -0.062515832483768463 -0.13064993917942047 -0.11813215166330338 -0.2263309508562088 0.22526705265045166 0.0015925408806651831 0.22526721656322479 -0.13576385378837585 -0.1345098465681076 -0.043450910598039627 0.059524230659008026 -0.22633093595504761 0.078403830528259277 -0.015837561339139938 0.028223477303981781 -0.05712929368019104 -0.015334987081587315 -0.03095126710832119 0.058467954397201538 -0.12409387528896332 -0.081163510680198669 -0.036068938672542572 0.053225323557853699 0.09347977489233017 0.22526708245277405 -0.0040858620777726173 0.0015889492351561785 0.070846512913703918 0.22526665031909943 -0.014657524414360523 0.053142469376325607 0.11679448187351227 -0.05620376393198967 -0.22633098065853119 -0.055460751056671143
  -0.074951887130737305 0.11148206144571304 0.0018433749210089445 -0.11072064936161041 0.088383324444293976 0.031008969992399216 -0.25470194220542908 -0.017423443496227264 -0.26042753458023071 -0.26031374931335449 -0.064429499208927155 -0.092767193913459778 0.085296988487243652 0.077581398189067841 0.11480413377285004 -0.016590354964137077 0.10192593932151794 0.09623449295759201 -0.26025885343551636 0.11393784731626511 -0.082488201558589935 -0.085740700364112854 -0.12461798638105392 -0.11601117998361588 0.031013479456305504 -0.029633590951561928 0.077587589621543884 -0.029636533930897713 -0.087902210652828217 -0.070929177105426788 -0.025617703795433044 0.073761172592639923 0.031013496220111847 -0.11547035723924637 -0.037224467843770981 -0.0028501343913376331 -0.097688786685466766 -0.010079286061227322 0.0030671355780214071 0.015961674973368645 -0.1408698707818985 0.11638226360082626 0.14853033423423767 0.10254240036010742 0.1810869574546814 -0.029634943231940269 0.081444576382637024 0.077605202794075012 0.010051868855953217 -0.029615176841616631 0.2650454044342041 0.10316009819507599 0.11681804805994034 -0.10249665379524231 0.03101472370326519 -0.10150811076164246
  0.2318214625120163 -0.097707398235797882 -0.011477011255919933 -0.084946364164352417 0.062999017536640167 -0.024078698828816414 0.13187685608863831 0.028996704146265984 0.13413798809051514 0.10116872936487198 0.18379497528076172 -0.079761624336242676 0.058002114295959473 -0.23259761929512024 0.083179131150245667 0.023057729005813599 0.050703492015600204 -0.23612068593502045 0.13410438597202301 0.083820760250091553 -0.040990903973579407 -0.061585325747728348 0.091764949262142181 -0.10203962028026581 -0.024080308154225349 0.022320970892906189 -0.2325998842716217 0.022322455421090126 0.083145312964916229 0.077932849526405334 0.13459305465221405 0.030826816335320473 -0.024080315604805946 -0.081328950822353363 0.0059251924976706505 0.082502283155918121 -0.079855330288410187 0.012087655253708363 -0.085114710032939911 0.043316427618265152 -0.057607058435678482 0.082012251019477844 -0.23327177762985229 0.077177591621875763 -0.08754054456949234 0.022321684285998344 -0.095229953527450562 -0.23260706663131714 -0.02695034071803093 0.022312557324767113 -0.13540388643741608 0.055865839123725891 0.10261209309101105 -0.076292484998703003 -0.024080939590930939 -0.057501252740621567
  0.0093849757686257362 -0.11111929267644882 -0.025632916018366814 -0.073753088712692261 -0.061209656298160553 0.22400681674480438 0.02082614041864872 0.030875334516167641 0.0097823292016983032 -0.05393291637301445 0.058044992387294769 0.059254016727209091 -0.062224797904491425 -0.0063326298259198666 0.075584620237350464 0.027599981054663658 -0.054779503494501114 -0.0012103486806154251 0.010126573964953423 0.07589443027973175 0.063124962151050568 0.06350359320640564 0.13582822680473328 0.11978526413440704 0.22400631010532379 -0.22283479571342468 -0.0063314917497336864 -0.22283488512039185 0.14036230742931366 0.13874851167201996 0.045359138399362564 -0.061666190624237061 0.22400632500648499 -0.072101354598999023 0.020200258120894432 -0.031260371208190918 0.057196691632270813 0.023082826286554337 0.033940967172384262 -0.062844537198543549 0.12618568539619446 0.075001373887062073 0.029910096898674965 -0.053407661616802216 -0.096818313002586365 -0.22283479571342468 0.0075060930103063583 -0.0063283154740929604 -0.075890198349952698 -0.22283510863780975 0.0053831604309380054 -0.054647434502840042 -0.11837230622768402 0.056590255349874496 0.22400639951229095 0.057037148624658585
  0.0093802791088819504 -0.11111743748188019 -0.025632515549659729 -0.073756441473960876 -0.061207875609397888 0.2240113765001297 0.020817052572965622 0.030873911455273628 0.0097728446125984192 -0.053943231701850891 0.058041028678417206 0.059251207858324051 -0.062223352491855621 -0.0063279997557401657 0.075588040053844452 0.027598397806286812 -0.054775632917881012 -0.0012051179073750973 0.010117122903466225 0.075897753238677979 0.063122712075710297 0.063501745462417603 0.13582442700862885 0.11978377401828766 0.22401091456413269 -0.22283948957920074 -0.0063268551602959633 -0.22283942997455597 0.14036001265048981 0.13874688744544983 0.045358259230852127 -0.06166490912437439 0.2240108847618103 -0.072105035185813904 0.02019917219877243 -0.031260807067155838 0.057193558663129807 0.023081449791789055 0.033941231667995453 -0.062846608459949493 0.12618283927440643 0.075004793703556061 0.029917376115918159 -0.053404282778501511 -0.096812188625335693 -0.22283950448036194 0.0075101256370544434 -0.0063236868008971214 -0.07589171826839447 -0.22283986210823059 0.0053928252309560776 -0.054643616080284119 -0.11837093532085419 0.056586712598800659 0.22401098906993866 0.05703325942158699
  0.15978454053401947 -0.043279942125082016 0.063610665500164032 -0.20922304689884186 0.051213178783655167 0.075191177427768707 -0.014009521342813969 -0.046928413212299347 -0.019678520038723946 -0.077258944511413574 0.17773108184337616 -0.045407194644212723 0.054989881813526154 -0.1580687016248703 0.20989303290843964 -0.047579564154148102 0.040929049253463745 -0.14809805154800415 -0.019455734640359879 0.21007068455219269 -0.054394960403442383 -0.051662232726812363 0.068324685096740723 -0.093863174319267273 0.075192280113697052 -0.076071575284004211 -0.1580674797296524 -0.076071850955486298 0.070266768336296082 0.069910787045955658 0.099794082343578339 0.047497466206550598 0.075192287564277649 -0.20818629860877991 -0.038550578057765961 0.094521351158618927 -0.046014294028282166 -0.053668741136789322 -0.092996008694171906 0.096904143691062927 -0.053590737283229828 0.20956064760684967 -0.1159416064620018 0.047110695391893387 -0.065348275005817413 -0.076071687042713165 -0.1279132068157196 -0.15806439518928528 0.03029819019138813 -0.076069273054599762 0.027373237535357475 0.042129091918468475 0.095416508615016937 -0.046585094183683395 0.075192376971244812 -0.042417600750923157
  -0.0046578841283917427 0.10757695883512497 0.017901934683322906 0.079808317124843597 0.06045934185385704 -0.22629453241825104 -0.01226451713591814 -0.022576836869120598 -0.00084803847130388021 0.063730441033840179 -0.055673528462648392 -0.059288263320922852 0.061111625283956528 0.0016426527872681618 -0.08162873238325119 -0.019517354667186737 0.05300593376159668 -0.0039902417920529842 -0.0012053472455590963 -0.081906750798225403 -0.060387954115867615 -0.062533944845199585 -0.13070386648178101 -0.11815620958805084 -0.22629429399967194 0.2252223789691925 0.0016413588309660554 0.22522246837615967 -0.13580545783042908 -0.13454550504684448 -0.043472457677125931 0.059543650597333908 -0.22629427909851074 0.07833467423915863 -0.015872739255428314 0.028240559622645378 -0.057150769978761673 -0.015395286493003368 -0.030975611880421638 0.058482304215431213 -0.12412878125905991 -0.081102557480335236 -0.035994697362184525 0.053242549300193787 0.093529537320137024 0.22522240877151489 -0.0040910639800131321 0.0016377909341827035 0.070867113769054413 0.22522188723087311 -0.014545159414410591 0.053172819316387177 0.11681089550256729 -0.056229930371046066 -0.22629430890083313 -0.055498715490102768
  0.0093821147456765175 -0.11111796647310257 -0.025631565600633621 -0.073755942285060883 -0.061208859086036682 0.22400939464569092 0.020820377394556999 0.030873289331793785 0.009776286780834198 -0.053939539939165115 0.058042947202920914 0.0592525415122509 -0.062224071472883224 -0.0063299918547272682 0.075587354600429535 0.02759784460067749 -0.054777346551418304 -0.001207311637699604 0.010120555758476257 0.075897112488746643 0.063123345375061035 0.063502483069896698 0.13582582771778107 0.1197841688990593 0.22400899231433868 -0.2228376716375351 -0.0063288365490734577 -0.2228376567363739 0.14036069810390472 0.13874731957912445 0.04535839706659317 -0.061665307730436325 0.22400900721549988 -0.072104401886463165 0.020199030637741089 -0.031260062009096146 0.057195063680410385 0.023080853745341301 0.033940386027097702 -0.062844954431056976 0.12618394196033478 0.075004115700721741 0.029914284124970436 -0.053406015038490295 -0.096815101802349091 -0.22283764183521271 0.0075073097832500935 -0.0063256761059165001 -0.075890347361564636 -0.22283802926540375 0.0053891432471573353 -0.054645337164402008 -0.11837145686149597 0.056588314473628998 0.22400905191898346 0.057034809142351151
  0.23140016198158264 -0.097139783203601837 -0.012182186357676983 -0.086075104773044586 0.064135871827602386 -0.023310786113142967 0.12939108908176422 0.029454715549945831 0.13157474994659424 0.098465658724308014 0.18320252001285553 -0.081224657595157623 0.059011414647102356 -0.23219142854213715 0.084308110177516937 0.02346346341073513 0.052069656550884247 -0.23551987111568451 0.13154351711273193 0.084942422807216644 -0.041886001825332642 -0.062704361975193024 0.090750806033611298 -0.10332418233156204 -0.023312309756875038 0.021521035581827164 -0.23219388723373413 0.02152247354388237 0.082618400454521179 0.077613182365894318 0.13479116559028625 0.031511560082435608 -0.023312307894229889 -0.082497619092464447 0.0057945540174841881 0.082240022718906403 -0.081401415169239044 0.012524059042334557 -0.084922060370445251 0.042800456285476685 -0.05918213352560997 0.083154447376728058 -0.23195093870162964 0.078735865652561188 -0.085555300116539001 0.021521734073758125 -0.093787826597690582 -0.23220057785511017 -0.027670135721564293 0.021512802690267563 -0.13281643390655518 0.057285934686660767 0.10385867953300476 -0.077880628407001495 -0.023312933743000031 -0.058946214616298676
  0.087086334824562073 0.030363649129867554 -0.049635317176580429 -0.073485583066940308 0.13672925531864166 -0.061186499893665314 -0.091328151524066925 0.042289458215236664 -0.090210966765880585 -0.088576629757881165 0.027069615200161934 -0.16444721817970276 0.12542513012886047 -0.087021932005882263 0.074628427624702454 0.036982379853725433 0.14151968061923981 -0.080368347465991974 -0.090240858495235443 0.074368350207805634 -0.10596146434545517 -0.13267169892787933 -0.076827652752399445 -0.18534925580024719 -0.061184316873550415 0.060595482587814331 -0.087019674479961395 0.060594338923692703 -0.052564498037099838 -0.041526392102241516 0.066435270011425018 0.089076146483421326 -0.061184301972389221 -0.074846498668193817 -0.0073491954244673252 0.035140883177518845 -0.1689411997795105 0.035462647676467896 -0.039840653538703918 0.011139381676912308 -0.185501828789711 0.075110867619514465 -0.049486640840768814 0.1693427562713623 0.12652535736560822 0.060594979673624039 0.049171499907970428 -0.087012946605682373 -0.028687290847301483 0.060602795332670212 0.087234467267990112 0.14815951883792877 0.18542765080928802 -0.16928203403949738 -0.061183881014585495 -0.14883224666118622
  -0.071925804018974304 0.10919744521379471 -0.00026398702175356448 -0.10960879176855087 0.090267755091190338 0.029927628114819527 -0.25217130780220032 -0.015513530932366848 -0.25780421495437622 -0.25781753659248352 -0.063500717282295227 -0.095945961773395538 0.086715623736381531 0.074444487690925598 0.11359211802482605 -0.014976027421653271 0.10441913455724716 0.09287445992231369 -0.25763890147209167 0.11273624747991562 -0.083531111478805542 -0.087551653385162354 -0.12412279844284058 -0.11791394650936127 0.029932118952274323 -0.028650086373090744 0.074450679123401642 -0.028653040528297424 -0.087257824838161469 -0.070241644978523254 -0.023218777030706406 0.074143253266811371 0.029932137578725815 -0.11430042237043381 -0.036310981959104538 -0.0022919944021850824 -0.10101237893104553 -0.0086535820737481117 0.0022652589250355959 0.014082271605730057 -0.14265987277030945 0.11515150964260101 0.14510378241539001 0.1057942807674408 0.18142069876194 -0.028651442378759384 0.082627378404140472 0.074468120932579041 0.0075144772417843342 -0.028631860390305519 0.26224139332771301 0.10583855956792831 0.118641197681427 -0.10578867048025131 0.029933331534266472 -0.10428126901388168
  -0.13945414125919342 0.028211839497089386 -0.081731624901294708 0.22326764464378357 -0.048327524214982986 -0.082046672701835632 0.040841005742549896 0.06620364636182785 0.047477588057518005 0.10587497800588608 -0.1674603670835495 0.038357902318239212 -0.053843896836042404 0.13769826292991638 -0.22404898703098297 0.065667495131492615 -0.039604749530553818 0.12603572010993958 0.047223031520843506 -0.22412067651748657 0.058046802878379822 0.04950467124581337 -0.054619554430246353 0.093088887631893158 -0.082048371434211731 0.083013668656349182 0.13769672811031342 0.083014160394668579 -0.057793278247117996 -0.05825907364487648 -0.088301271200180054 -0.051357999444007874 -0.082048393785953522 0.22282113134860992 0.048115085810422897 -0.097511656582355499 0.038991227746009827 0.070373646914958954 0.095500081777572632 -0.10828293859958649 0.054890070110559464 -0.22390742599964142 0.091635562479496002 -0.040495377033948898 0.056368838995695114 0.083013832569122314 0.13400916755199432 0.13769200444221497 -0.045904271304607391 0.083009660243988037 -0.05588110163807869 -0.039769366383552551 -0.094521552324295044 0.040441248565912247 -0.082048602402210236 0.040096621960401535
  -0.10105067491531372 -0.032990381121635437 0.035173863172531128 0.088748708367347717 -0.13214495778083801 0.06981196254491806 0.082205139100551605 -0.031571254134178162 0.080810487270355225 0.080602705478668213 -0.046237833797931671 0.15284109115600586 -0.12380462139844894 0.10120304673910141 -0.089445441961288452 -0.02778952568769455 -0.12937062978744507 0.094690442085266113 0.080842554569244385 -0.089219585061073303 0.10623914003372192 0.12934140861034393 0.071415714919567108 0.18974769115447998 0.069809913635253906 -0.068880088627338409 0.10120110213756561 -0.068879172205924988 0.051419142633676529 0.042153697460889816 -0.068743988871574402 -0.092561535537242889 0.069809913635253906 0.089915290474891663 0.012283750809729099 -0.045246679335832596 0.15590772032737732 -0.026106733828783035 0.049380850046873093 -0.035300217568874359 0.18310965597629547 -0.089865237474441528 0.066674850881099701 -0.15537194907665253 -0.10899623483419418 -0.068879678845405579 -0.021667394787073135 0.1011955589056015 0.0081277703866362572 -0.068886324763298035 -0.077509962022304535 -0.13532131910324097 -0.18973921239376068 0.15572385489940643 0.069809600710868835 0.13638466596603394
  0.0093739079311490059 -0.11111411452293396 -0.025627987459301949 -0.073763802647590637 -0.06120648980140686 0.2240166962146759 0.020804192870855331 0.030867628753185272 0.0097594363614916801 -0.053958091884851456 0.058036934584379196 0.059248615056276321 -0.062222056090831757 -0.0063223661854863167 0.075594805181026459 0.027592096477746964 -0.05477147176861763 -0.001198622165247798 0.010103708133101463 0.075904443860054016 0.063118822872638702 0.063499577343463898 0.13581874966621399 0.11978128552436829 0.22401618957519531 -0.22284562885761261 -0.0063212178647518158 -0.22284562885761261 0.14035589993000031 0.13874357938766479 0.045356355607509613 -0.06166284903883934 0.22401614487171173 -0.072112597525119781 0.020195640623569489 -0.031259413808584213 0.057190578430891037 0.023075522854924202 0.03393903374671936 -0.062846250832080841 0.12617900967597961 0.075011551380157471 0.029926219955086708 -0.053401604294776917 -0.096806056797504425 -0.2228456437587738 0.0075108804740011692 -0.0063180490396916866 -0.075890637934207916 -0.22284603118896484 0.0054059145040810108 -0.05463959276676178 -0.11836928129196167 0.056583132594823837 0.22401618957519531 0.057028457522392273
  0.23153480887413025 -0.097287051379680634 -0.011670635081827641 -0.085838131606578827 0.063648790121078491 -0.023558339104056358 0.13023923337459564 0.029043223708868027 0.13244690001010895 0.099359899759292603 0.18350337445735931 -0.080574378371238708 0.058595377951860428 -0.23232834041118622 0.084062188863754272 0.023082554340362549 0.051504071801900864 -0.23571844398975372 0.13241498172283173 0.0846991166472435 -0.041571196168661118 -0.06224113330245018 0.091127514839172363 -0.10283482074737549 -0.023559892550110817 0.021771209314465523 -0.23233050107955933 0.021772624924778938 0.082796111702919006 0.07770836353302002 0.13466623425483704 0.031269803643226624 -0.023559900000691414 -0.082247130572795868 0.005733853206038475 0.082456633448600769 -0.080717802047729492 0.012135481461882591 -0.085113145411014557 0.043175779283046722 -0.058557339012622833 0.082904137670993805 -0.23242202401161194 0.078042656183242798 -0.086393669247627258 0.021771885454654694 -0.094564817845821381 -0.23233747482299805 -0.027226310223340988 0.021762911230325699 -0.13370001316070557 0.056688733398914337 0.10337574034929276 -0.077188074588775635 -0.023560542613267899 -0.058348760008811951
  -0.12966953217983246 0.024108262732625008 -0.076142303645610809 0.22614854574203491 -0.051786992698907852 -0.089772894978523254 0.057141732424497604 0.062234323471784592 0.064423896372318268 0.12342231720685959 -0.15825159847736359 0.042946688830852509 -0.056669294834136963 0.12763994932174683 -0.22731222212314606 0.061851587146520615 -0.044733285903930664 0.11498206853866577 0.064151719212532043 -0.22732961177825928 0.060418955981731415 0.052548285573720932 -0.047708891332149506 0.094852179288864136 -0.089774847030639648 0.090535566210746765 0.12763787806034088 0.090536259114742279 -0.053791489452123642 -0.055485449731349945 -0.086392566561698914 -0.053323499858379364 -0.089774869382381439 0.22600533068180084 0.047347746789455414 -0.092201307415962219 0.044056493788957596 0.066079817712306976 0.090201079845428467 -0.10235191136598587 0.059695437550544739 -0.22726917266845703 0.076662227511405945 -0.046049878001213074 0.043518234044313431 0.090535856783390045 0.12138861417770386 0.12763223052024841 -0.041602805256843567 0.090530149638652802 -0.073510318994522095 -0.04506971687078476 -0.096376866102218628 0.045826531946659088 -0.089775137603282928 0.045140955597162247
  0.0093614412471652031 -0.11110773682594299 -0.025620723143219948 -0.073777154088020325 -0.061203241348266602 0.22402738034725189 0.020779114216566086 0.030857102945446968 0.0097332745790481567 -0.053986806422472 0.058028284460306168 0.059243112802505493 -0.062219053506851196 -0.0063110296614468098 0.075607083737850189 0.027581522241234779 -0.054762829095125198 -0.0011856186902150512 0.010077605955302715 0.075916692614555359 0.063111506402492523 0.063495062291622162 0.13580773770809174 0.11977662891149521 0.22402690351009369 -0.22285768389701843 -0.0063098901882767677 -0.22285774350166321 0.14034821093082428 0.13873720169067383 0.045352935791015625 -0.06165897473692894 0.2240268886089325 -0.072126314043998718 0.020189588889479637 -0.031257443130016327 0.057184025645256042 0.02306564524769783 0.033935889601707458 -0.062846571207046509 0.1261712908744812 0.075024053454399109 0.029944015666842461 -0.053395546972751617 -0.096792973577976227 -0.2228577584028244 0.0075142891146242619 -0.0063067185692489147 -0.075889676809310913 -0.22285796701908112 0.005431703757494688 -0.054631303995847702 -0.1183658167719841 0.056575629860162735 0.2240268737077713 0.057018984109163284
  0.075130954384803772 -0.11233639717102051 -0.011556759476661682 0.11720697581768036 -0.086372435092926025 -0.032626785337924957 0.25620070099830627 0.026777390390634537 0.2621769905090332 0.26355484127998352 0.061416976153850555 0.089105837047100067 -0.084090970456600189 -0.077608600258827209 -0.12108951061964035 0.025599988177418709 -0.099804691970348358 -0.096460491418838501 0.26199880242347717 -0.12021768093109131 0.083073459565639496 0.084202416241168976 0.12471339851617813 0.11546478420495987 -0.032631374895572662 0.031469915062189102 -0.077614784240722656 0.031472906470298767 0.088777907192707062 0.072076663374900818 0.026286818087100983 -0.074207715690135956 -0.032631397247314453 0.12198872864246368 0.04148796945810318 -0.0019351018127053976 0.093850910663604736 0.018959129229187965 0.0016119946958497167 -0.02296055294573307 0.13907361030578613 -0.12267714738845825 -0.14839662611484528 -0.098577819764614105 -0.17702227830886841 0.031471259891986847 -0.072065301239490509 -0.077632308006286621 -0.016771107912063599 0.031451493501663208 -0.26690143346786499 -0.1006288155913353 -0.11613812297582626 0.09880935400724411 -0.032632626593112946 0.099167004227638245
  -0.22527888417243958 0.088583022356033325 0.0023523371201008558 0.10166081786155701 -0.069141097366809845 0.017619742080569267 -0.10794101655483246 -0.018659785389900208 -0.10935621708631516 -0.074399098753929138 -0.18104258179664612 0.085305973887443542 -0.064434528350830078 0.22599685192108154 -0.1000288724899292 -0.012966207228600979 -0.058506038039922714 0.22759859263896942 -0.10935045033693314 -0.10059216618537903 0.04895448312163353 0.067913651466369629 -0.081377863883972168 0.11129907518625259 0.017620833590626717 -0.015725711360573769 0.22599895298480988 -0.015726882964372635 -0.075538739562034607 -0.071661971509456635 -0.13263626396656036 -0.037514373660087585 0.017620829865336418 0.09847540408372879 0.0014072173507884145 -0.086885839700698853 0.085784755647182465 -0.0026205584872514009 0.089468225836753845 -0.050077307969331741 0.06798987090587616 -0.099003970623016357 0.21992357075214386 -0.083441779017448425 0.075478293001651764 -0.015726294368505478 0.096339389681816101 0.22600433230400085 0.02123488113284111 -0.015719108283519745 0.11003652960062027 -0.063439570367336273 -0.11177370697259903 0.082833930850028992 0.017621347680687904 0.065141625702381134
  -0.0046741324476897717 0.10758710652589798 0.017914982512593269 0.079789943993091583 0.060462567955255508 -0.22628387808799744 -0.012296836823225021 -0.022594163194298744 -0.00088158040307462215 0.063694141805171967 -0.055683813989162445 -0.059293840080499649 0.06111493706703186 0.0016569539438933134 -0.081612087786197662 -0.019534511491656303 0.053015653043985367 -0.0039737969636917114 -0.0012388468021526933 -0.08189024031162262 -0.060398094356060028 -0.062539301812648773 -0.13071916997432709 -0.11816325038671494 -0.22628352046012878 0.22520932555198669 0.0016556627815589309 0.22520942986011505 -0.1358172595500946 -0.13455541431903839 -0.043478507548570633 0.059549137949943542 -0.22628350555896759 0.078315563499927521 -0.015882331877946854 0.028244815766811371 -0.05715743824839592 -0.015411467291414738 -0.030981851741671562 0.058485366404056549 -0.12413895130157471 -0.081085771322250366 -0.035973001271486282 0.053248163312673569 0.09354449063539505 0.22520937025547028 -0.0040910891257226467 0.0016520824283361435 0.070871971547603607 0.22520893812179565 -0.014512685127556324 0.053181957453489304 0.1168154776096344 -0.056237947195768356 -0.22628365457057953 -0.055509835481643677
  -0.004668413195759058 0.1075836569070816 0.017910700291395187 0.079796150326728821 0.060461405664682388 -0.2262876033782959 -0.012285592965781689 -0.022588465362787247 -0.00086991192074492574 0.063706673681735992 -0.055680088698863983 -0.05929185077548027 0.061113800853490829 0.001651845988817513 -0.081617765128612518 -0.019528836011886597 0.053012214601039886 -0.003979644738137722 -0.0012271964224055409 -0.081895813345909119 -0.060394600033760071 -0.062537483870983124 -0.1307138055562973 -0.11816086620092392 -0.2262873500585556 0.22521381080150604 0.0016505590174347162 0.22521395981311798 -0.13581308722496033 -0.13455189764499664 -0.043476417660713196 0.05954723060131073 -0.2262873649597168 0.078321956098079681 -0.015879184007644653 0.028243448585271835 -0.057155050337314606 -0.01540613267570734 -0.030979877337813377 0.058484520763158798 -0.12413540482521057 -0.081091426312923431 -0.035980671644210815 0.053246136754751205 0.093539141118526459 0.2252139151096344 -0.0040914486162364483 0.0016469781985506415 0.070870421826839447 0.225213423371315 -0.014524046331644058 0.053178660571575165 0.11681388318538666 -0.056235123425722122 -0.22628740966320038 -0.055505957454442978
  -0.0046772914938628674 0.10758904367685318 0.017917566001415253 0.079786323010921478 0.060463149100542068 -0.22628171741962433 -0.01230310183018446 -0.022597670555114746 -0.00088808260625228286 0.063687048852443695 -0.055685792118310928 -0.059294924139976501 0.061115622520446777 0.0016597145004197955 -0.081608831882476807 -0.019537942484021187 0.053017567843198776 -0.0039706295356154442 -0.0012453426606953144 -0.081886962056159973 -0.06040007621049881 -0.062540359795093536 -0.13072215020656586 -0.11816467344760895 -0.22628146409988403 0.22520676255226135 0.0016584218246862292 0.22520694136619568 -0.13581962883472443 -0.1345573365688324 -0.043479591608047485 0.059550251811742783 -0.22628144919872284 0.078311800956726074 -0.015884196385741234 0.028245694935321808 -0.057158712297677994 -0.015414714813232422 -0.030983163043856621 0.058486010879278183 -0.12414093315601349 -0.081082440912723541 -0.035968773066997528 0.053249243646860123 0.093547448515892029 0.22520686686038971 -0.0040911794640123844 0.0016548515995964408 0.070873022079467773 0.22520647943019867 -0.014506404288113117 0.053183779120445251 0.11681640148162842 -0.056239526718854904 -0.22628152370452881 -0.055512093007564545
  0.0094867730513215065 -0.11116804927587509 -0.025678239762783051 -0.073654301464557648 -0.061238903552293777 0.22391639649868011 0.021027648821473122 0.030946312472224236 0.0099922735244035721 -0.053702879697084427 0.058119915425777435 0.05930279940366745 -0.062250521034002304 -0.0064271697774529457 0.075492173433303833 0.027672024443745613 -0.054852824658155441 -0.0013182343682274222 0.010336264967918396 0.075802534818649292 0.063181504607200623 0.06353992223739624 0.1359173059463501 0.1198212057352066 0.22391596436500549 -0.22273622453212738 -0.0064260358922183514 -0.22273637354373932 0.140422523021698 0.13879536092281342 0.045384496450424194 -0.061696697026491165 0.2239159494638443 -0.071999073028564453 0.020242467522621155 -0.031269188970327377 0.057253468781709671 0.023149445652961731 0.033958505839109421 -0.062830418348312378 0.12624755501747131 0.074907653033733368 0.029762072488665581 -0.053462803363800049 -0.096930749714374542 -0.22273625433444977 0.0074624218977987766 -0.0064228661358356476 -0.075887538492679596 -0.22273661196231842 0.0051743374206125736 -0.054718893021345139 -0.11839953809976578 0.056654885411262512 0.22391602396965027 0.057116188108921051
  -0.10079707205295563 -0.032993990927934647 0.03532133623957634 0.088542520999908447 -0.13221654295921326 0.069698631763458252 0.082393370568752289 -0.031664241105318069 0.081004120409488678 0.080770634114742279 -0.045922141522169113 0.15299749374389648 -0.12383770942687988 0.10094165056943893 -0.0892505943775177 -0.027863360941410065 -0.12954984605312347 0.094425559043884277 0.081036202609539032 -0.089024066925048828 0.10624951124191284 0.12939205765724182 0.071550354361534119 0.18969161808490753 0.069696687161922455 -0.06877630203962326 0.10093967616558075 -0.06877543032169342 0.051490936428308487 0.042198151350021362 -0.068684570491313934 -0.092530220746994019 0.069696657359600067 0.089713603258132935 0.012244496494531631 -0.045116040855646133 0.15608330070972443 -0.026187527924776077 0.049252595752477646 -0.034992918372154236 0.18315757811069489 -0.089671842753887177 0.066370606422424316 -0.15556541085243225 -0.10928551852703094 -0.06877591460943222 -0.022045020014047623 0.10093406587839127 0.0083689382299780846 -0.068782582879066467 -0.077713511884212494 -0.13550782203674316 -0.18968905508518219 0.15590780973434448 0.069696292281150818 0.13656073808670044
  -0.0034502104390412569 0.081529967486858368 0.3332972526550293 -0.13697515428066254 -0.083191744983196259 -0.05464848130941391 0.0069670053198933601 -0.31121149659156799 0.0078548677265644073 -0.0022958570625633001 0.095634005963802338 0.14358417689800262 -0.053585149347782135 0.00088079884881153703 0.13330197334289551 -0.296965092420578 -0.075317427515983582 0.0028161471709609032 0.007900850847363472 0.13318152725696564 -0.012992670759558678 0.0699491947889328 -0.0076024597510695457 0.017130749300122261 -0.054647143930196762 0.051646813750267029 0.00087900878861546516 0.051647309213876724 -0.045985061675310135 -0.05867018923163414 -0.067243054509162903 0.014951669611036777 -0.054647091776132584 -0.13764671981334686 -0.12710633873939514 0.17122817039489746 0.14827893674373627 -0.29284271597862244 -0.16373588144779205 0.24639253318309784 0.056388538330793381 0.13351018726825714 -0.04001728817820549 -0.14801983535289764 -0.1483805775642395 0.0516471266746521 -0.32921397686004639 0.00087278441060334444 0.24926558136940002 0.05164661630988121 -0.0098345587030053139 -0.09031292051076889 -0.01785554364323616 0.14155171811580658 -0.05464731901884079 0.087062016129493713
  0.11073867976665497 -0.034431636333465576 0.013160562142729759 -0.20860861241817474 0.072386197745800018 0.12017468363046646 -0.090164244174957275 -0.0066719655878841877 -0.099161833524703979 -0.15979576110839844 0.12307280302047729 -0.078499153256416321 0.070315830409526825 -0.10773612558841705 0.2111954540014267 -0.009592241607606411 0.072943940758705139 -0.09361691027879715 -0.098853163421154022 0.21113264560699463 -0.063017912209033966 -0.069837726652622223 0.036496158689260483 -0.099311076104640961 0.1201770231127739 -0.1200314536690712 -0.10773298144340515 -0.12003263831138611 0.055531419813632965 0.062123052775859833 0.096851401031017303 0.052437383681535721 0.1201770156621933 -0.20891930162906647 -0.025213895365595818 0.056846510618925095 -0.08219899982213974 -0.013846296817064285 -0.056184709072113037 0.044911943376064301 -0.077636092901229858 0.21129898726940155 -0.039904884994029999 0.085780017077922821 0.0070557133294641972 -0.12003196775913239 -0.041008327156305313 -0.1077238991856575 -0.01321850810199976 -0.12002342194318771 0.11028843373060226 0.076010838150978088 0.10117436200380325 -0.084083303809165955 0.12017752230167389 -0.074941001832485199
  -0.072820171713829041 0.10987627506256104 0.00051038706442341208 -0.11023977398872375 0.089630618691444397 0.030515996739268303 -0.25305408239364624 -0.016202919185161591 -0.25873163342475891 -0.25880014896392822 -0.063622266054153442 -0.094860248267650604 0.086241394281387329 0.075380042195320129 0.11425905674695969 -0.015566451475024223 0.10357066243886948 0.093899913132190704 -0.25856503844261169 0.11339972168207169 -0.083187364041805267 -0.086939215660095215 -0.12414787709712982 -0.11727499216794968 0.030520502477884293 -0.02920546755194664 0.075386092066764832 -0.02920842356979847 -0.08732905238866806 -0.070328712463378906 -0.023924905806779861 0.074019163846969604 0.030520517379045486 -0.1149497851729393 -0.036652419716119766 -0.0024130819365382195 -0.099879324436187744 -0.0091871805489063263 0.0024728043936192989 0.014780427329242229 -0.14201885461807251 0.11582432687282562 0.14620254933834076 0.10468938946723938 0.18118774890899658 -0.029206819832324982 0.082105286419391632 0.075403757393360138 0.0083698993548750877 -0.029187200590968132 0.26324892044067383 0.10492714494466782 0.11803138256072998 -0.10466811805963516 0.03052174486219883 -0.1033366397023201
  0.098784685134887695 -0.031519483774900436 0.00039832602487877011 -0.20292983949184418 0.0775618776679039 0.12538091838359833 -0.10535857826471329 0.0034598119091242552 -0.11478607356548309 -0.17429402470588684 0.10794219374656677 -0.086999081075191498 0.073928236961364746 -0.095609612762928009 0.20586135983467102 -6.4545602072030306e-05 0.080901682376861572 -0.080895960330963135 -0.11446871608495712 0.20574524998664856 -0.064838401973247528 -0.074324458837509155 0.027346985414624214 -0.10095720738172531 0.12538343667984009 -0.12504123151302338 -0.095606058835983276 -0.1250426173210144 0.050100933760404587 0.058254551142454147 0.094925865530967712 0.053254209458827972 0.12538346648216248 -0.20353773236274719 -0.021547278389334679 0.047568324953317642 -0.091407373547554016 -0.0038794591091573238 -0.047237578779459 0.031525306403636932 -0.084077626466751099 0.20606184005737305 -0.023441873490810394 0.095443323254585266 0.025235775858163834 -0.12504188716411591 -0.019280765205621719 -0.095595844089984894 -0.024049568921327591 -0.12503211200237274 0.12625578045845032 0.084440268576145172 0.10281847417354584 -0.093535080552101135 0.12538403272628784 -0.083123952150344849
  -0.003377165412530303 0.081480331718921661 0.33326935768127441 -0.13697205483913422 -0.083189427852630615 -0.054638970643281937 0.0070476937107741833 -0.31117117404937744 0.0079364990815520287 -0.002224592724815011 0.095694407820701599 0.1435837596654892 -0.053584415465593338 0.00081276858691126108 0.13330325484275818 -0.29692703485488892 -0.075328439474105835 0.0027448642067611217 0.007982475683093071 0.1331830769777298 -0.012976597063243389 0.069952704012393951 -0.0075413626618683338 0.017137393355369568 -0.054637562483549118 0.051642142236232758 0.00081097020301967859 0.051642574369907379 -0.045930575579404831 -0.058619692921638489 -0.067200116813182831 0.014942580834031105 -0.054637525230646133 -0.13764190673828125 -0.12708696722984314 0.17123301327228546 0.14827984571456909 -0.29280906915664673 -0.16373613476753235 0.246387779712677 0.056409630924463272 0.13351075351238251 -0.040092151612043381 -0.14801749587059021 -0.14843350648880005 0.05164240300655365 -0.32923036813735962 0.00080474885180592537 0.24924224615097046 0.051641926169395447 -0.0099111450836062431 -0.090321741998195648 -0.017856817692518234 0.14155563712120056 -0.054637782275676727 0.087075650691986084
  -0.13907881081104279 0.028345558792352676 -0.080395929515361786 0.22321924567222595 -0.048868931829929352 -0.082900680601596832 0.041818190366029739 0.064989380538463593 0.048508070409297943 0.10700536519289017 -0.16681604087352753 0.039144154638051987 -0.054247915744781494 0.13726238906383514 -0.22407005727291107 0.064515329897403717 -0.040239498019218445 0.12553656101226807 0.048252139240503311 -0.22413963079452515 0.058168467134237289 0.049942564219236374 -0.054373539984226227 0.093291610479354858 -0.082902319729328156 0.083813413977622986 0.13726057112216949 0.083813980221748352 -0.05785665288567543 -0.058438953012228012 -0.088577732443809509 -0.051458336412906647 -0.082902327179908752 0.22278699278831482 0.047674138098955154 -0.096761099994182587 0.039827093482017517 0.069216124713420868 0.094740621745586395 -0.10718830674886703 0.055361408740282059 -0.22393301129341125 0.090712204575538635 -0.041398130357265472 0.055198237299919128 0.083813667297363281 0.1322864294052124 0.13725592195987701 -0.044823352247476578 0.083809323608875275 -0.057007092982530594 -0.040465295314788818 -0.094767346978187561 0.041277680546045303 -0.082902558147907257 0.040732797235250473
  0.23149530589580536 -0.097254626452922821 -0.011926356703042984 -0.085870593786239624 0.063841164112091064 -0.023480089381337166 0.1299605518579483 0.029261060059070587 0.13216081261634827 0.099074110388755798 0.18337494134902954 -0.080837264657020569 0.058755438774824142 -0.23228585720062256 0.084100037813186646 0.023286188021302223 0.051722094416618347 -0.23565708100795746 0.13212895393371582 0.08473619818687439 -0.041677910834550858 -0.062419869005680084 0.090995274484157562 -0.10301274806261063 -0.023481640964746475 0.021694658324122429 -0.23228819668292999 0.021696075797080994 0.082739867269992828 0.077683053910732269 0.13472720980644226 0.031351979821920395 -0.023481648415327072 -0.082283750176429749 0.0057876119390130043 0.082344800233840942 -0.080993250012397766 0.012340634129941463 -0.085010401904582977 0.042988404631614685 -0.058791056275367737 0.082943379878997803 -0.23226194083690643 0.078322850167751312 -0.086066968739032745 0.021695336326956749 -0.094218224287033081 -0.23229506611824036 -0.027436748147010803 0.021686399355530739 -0.1334090530872345 0.056921482086181641 0.10355362296104431 -0.077464699745178223 -0.023482261225581169 -0.058579005300998688
  0.23155686259269714 -0.097341984510421753 -0.011875085532665253 -0.085691414773464203 0.063700608909130096 -0.023586390540003777 0.13030456006526947 0.029241681098937988 0.13251571357250214 0.099451929330825806 0.18344232439994812 -0.080660000443458557 0.058628059923648834 -0.23234419524669647 0.08392266184091568 0.023271901533007622 0.05154944583773613 -0.23574285209178925 0.13248369097709656 0.084559887647628784 -0.041555248200893402 -0.062278818339109421 0.091132409870624542 -0.10284345597028732 -0.023587984964251518 0.021806975826621056 -0.23234647512435913 0.021808398887515068 0.082815296947956085 0.077731721103191376 0.1347106546163559 0.031258463859558105 -0.023588003590703011 -0.082099169492721558 0.0058236084878444672 0.082359693944454193 -0.080805398523807526 0.012321518734097481 -0.085015624761581421 0.043026361614465714 -0.058587323874235153 0.082764230668544769 -0.23244203627109528 0.07813437283039093 -0.086315639317035675 0.021807635203003883 -0.094370134174823761 -0.23235335946083069 -0.027371309697628021 0.021798675879836082 -0.13376669585704803 0.056743547320365906 0.10339081287384033 -0.077270112931728363 -0.023588614538311958 -0.058396138250827789
  0.23066221177577972 -0.096188060939311981 -0.013098330236971378 -0.087809957563877106 0.065836228430271149 -0.022216377779841423 0.12554246187210083 0.029982218518853188 0.12760989367961884 0.094307206571102142 0.18224203586578369 -0.083410881459712982 0.060528039932250977 -0.23148760199546814 0.086032480001449585 0.023917799815535545 0.054146371781826019 -0.2345193475484848 0.1275818794965744 0.086655475199222565 -0.04328087717294693 -0.064392127096652985 0.08911190927028656 -0.10528594255447388 -0.022217830643057823 0.020367588847875595 -0.23149004578590393 0.020368956029415131 0.081710509955883026 0.077019840478897095 0.13500954210758209 0.032570753246545792 -0.022217854857444763 -0.084295235574245453 0.0055285259149968624 0.081905923783779144 -0.08371511846780777 0.013031981885433197 -0.0847010537981987 0.04210369661450386 -0.061591487377882004 0.084899730980396271 -0.22988227009773254 0.081061221659183502 -0.082525238394737244 0.020368246361613274 -0.091698512434959412 -0.23149639368057251 -0.028642239049077034 0.020359661430120468 -0.12882786989212036 0.05943671241402626 0.1057523712515831 -0.080264747142791748 -0.022218462079763412 -0.061145409941673279
  -0.0046230512671172619 0.10755463689565659 0.017870279029011726 0.079850591719150543 0.060453403741121292 -0.22631697356700897 -0.012194616720080376 -0.022535737603902817 -0.00077546911779791117 0.06380956619977951 -0.055652651935815811 -0.059277437627315521 0.061105035245418549 0.0016124832909554243 -0.081666737794876099 -0.019476801156997681 0.052985891699790955 -0.0040250401943922043 -0.0011328530963510275 -0.081944458186626434 -0.060365531593561172 -0.062522724270820618 -0.13067008554935455 -0.11814118921756744 -0.22631664574146271 0.22525011003017426 0.0016111840959638357 0.22525034844875336 -0.13577951490879059 -0.1345231682062149 -0.043458901345729828 0.059531502425670624 -0.22631664574146271 0.078378260135650635 -0.015850421041250229 0.028229456394910812 -0.057137716561555862 -0.015356916002929211 -0.030959933996200562 0.058472566306591034 -0.12410711497068405 -0.08114103227853775 -0.036040555685758591 0.053232230246067047 0.09349910169839859 0.225250244140625 -0.0040867943316698074 0.0016076051397249103 0.070853628218173981 0.2252495288848877 -0.014614997431635857 0.053154166787862778 0.11680059134960175 -0.056213937699794769 -0.22631673514842987 -0.055475186556577682
  -0.10363426804542542 0.017737897112965584 -0.047398146241903305 0.22199533879756927 -0.065237462520599365 -0.10849808901548386 0.097648985683917999 0.039351575076580048 0.10640820115804672 0.16535802185535431 -0.1268654465675354 0.063657931983470917 -0.066645063459873199 0.10101708024740219 -0.22412773966789246 0.040319569408893585 -0.064377397298812866 0.08630390465259552 0.10610021650791168 -0.22401201725006104 0.066422022879123688 0.064339548349380493 -0.027856094762682915 0.10064947605133057 -0.1085006445646286 0.10875098407268524 0.10101377964019775 0.10875221341848373 -0.043279837816953659 -0.048834420740604401 -0.084244281053543091 -0.056991063058376312 -0.10850065946578979 0.22259604930877686 0.039752025157213211 -0.071856409311294556 0.06649201363325119 0.043544568121433258 0.070500880479812622 -0.073312960565090179 0.075962871313095093 -0.22432687878608704 0.037021499127149582 -0.06972842663526535 0.0014322622446343303 0.10875153541564941 0.072372257709503174 0.10100512206554413 -0.017267666757106781 0.10874257236719131 -0.11690258234739304 -0.065832674503326416 -0.10227621346712112 0.068933844566345215 -0.10850115120410919 0.065243341028690338
  -0.074096329510211945 0.11084360629320145 0.0014167584013193846 -0.11071702092885971 0.088831566274166107 0.03096819669008255 -0.25412178039550781 -0.017025921493768692 -0.25983855128288269 -0.2598545253276825 -0.064009182155132294 -0.093513570725917816 0.085640415549278259 0.076701819896697998 0.11477736383676529 -0.016264121979475021 0.10251578688621521 0.095315806567668915 -0.25967097282409668 0.1139136403799057 -0.082749724388122559 -0.086172826588153839 -0.1243584156036377 -0.11647342145442963 0.030972683802247047 -0.029617559164762497 0.076707899570465088 -0.029620515182614326 -0.087604410946369171 -0.070622809231281281 -0.024939903989434242 0.073859229683876038 0.030972722917795181 -0.11545167863368988 -0.037045065313577652 -0.0026390748098492622 -0.09847133606672287 -0.0098051233217120171 0.0028009482193738222 0.015585746616125107 -0.14126276969909668 0.11635059863328934 0.14764456450939178 0.10331068187952042 0.18103951215744019 -0.029618917033076286 0.081588469445705414 0.076725661754608154 0.0094526251778006554 -0.02959921583533287 0.26443088054656982 0.10379365831613541 0.1172623410820961 -0.10327377170324326 0.030973939225077629 -0.10216429084539413
  0.10884284228086472 -0.034128490835428238 0.010856684297323227 -0.20770224928855896 0.073270641267299652 0.12124869972467422 -0.092637099325656891 -0.0048084156587719917 -0.1017163097858429 -0.16222992539405823 0.12061364203691483 -0.079978480935096741 0.070922337472438812 -0.10580951720476151 0.21034796535968781 -0.0078416019678115845 0.074297703802585602 -0.091592304408550262 -0.10140588879585266 0.21027663350105286 -0.063290588557720184 -0.070599839091300964 0.035099726170301437 -0.09954727441072464 0.12125115096569061 -0.12107264250516891 -0.10580627620220184 -0.121073879301548 0.054774966090917587 0.061630524694919586 0.096673347055912018 0.052533507347106934 0.12125116586685181 -0.20805945992469788 -0.02452249638736248 0.055237062275409698 -0.083801671862602234 -0.012032096274197102 -0.054634448140859604 0.042532779276371002 -0.078668788075447083 0.21046654880046844 -0.03720947727560997 0.08746039867401123 0.01005471870303154 -0.12107322365045547 -0.037264183163642883 -0.10579702258110046 -0.015204178169369698 -0.12106440961360931 0.11291294544935226 0.077452100813388824 0.10141085833311081 -0.085723653435707092 0.12125165015459061 -0.076339296996593475
  -0.075233615934848785 -0.033350784331560135 0.04853338748216629 0.069842159748077393 -0.13754799962043762 0.057634618133306503 0.1014372780919075 -0.039314541965723038 0.10066843032836914 0.098282814025878906 -0.015363345853984356 0.16666790843009949 -0.12558305263519287 0.075039513409137726 -0.071218781173229218 -0.033736065030097961 -0.14571942389011383 0.068102359771728516 0.10068906098604202 -0.070916607975959778 0.10681686550378799 0.13316522538661957 0.084382481873035431 0.18317282199859619 0.057632226496934891 -0.057202938944101334 0.075036890804767609 -0.057201683521270752 0.058355119079351425 0.046475004404783249 -0.062195252627134323 -0.088717944920063019 0.0576322041451931 0.071441560983657837 0.0086883902549743652 -0.032801609486341476 0.17163346707820892 -0.032735433429479599 0.037517163902521133 -0.0056071900762617588 0.18654328584671021 -0.071777775883674622 0.036141224205493927 -0.17252416908740997 -0.13623617589473724 -0.057202398777008057 -0.0573553666472435 0.075029574334621429 0.031053885817527771 -0.057211048901081085 -0.098005093634128571 -0.15226335823535919 -0.18331174552440643 0.17238608002662659 0.057631712406873703 0.15272976458072662
  0.0093721179291605949 -0.11111324280500412 -0.025627084076404572 -0.073765687644481659 -0.061205971986055374 0.22401818633079529 0.02080058865249157 0.030866255983710289 0.009755672886967659 -0.053962200880050659 0.058035612106323242 0.059247788041830063 -0.062221568077802658 -0.0063207270577549934 0.075596541166305542 0.027590727433562279 -0.054770197719335556 -0.0011967415921390057 0.010099947452545166 0.075906172394752502 0.063117764890193939 0.063498891890048981 0.13581711053848267 0.11978061497211456 0.2240176647901535 -0.22284738719463348 -0.0063195819966495037 -0.2228473424911499 0.14035472273826599 0.138742595911026 0.045355889946222305 -0.061662305146455765 0.22401769459247589 -0.072114519774913788 0.020194854587316513 -0.031259160488843918 0.057189531624317169 0.023074241355061531 0.03393864631652832 -0.062846414744853973 0.12617790699005127 0.075013302266597748 0.029928790405392647 -0.053400687873363495 -0.096804074943065643 -0.2228473573923111 0.0075115207582712173 -0.0063164010643959045 -0.075890518724918365 -0.22284772992134094 0.00540962815284729 -0.054638329893350601 -0.11836873739957809 0.056581992655992508 0.22401775419712067 0.057027067989110947
  0.0834459587931633 0.030223842710256577 -0.051808115094900131 -0.070653490722179413 0.13747471570968628 -0.059305261820554733 -0.093935593962669373 0.043644696474075317 -0.092911332845687866 -0.090993531048297882 0.022641891613602638 -0.16647252440452576 0.12562422454357147 -0.083338797092437744 0.071886114776134491 0.038063127547502518 0.14386288821697235 -0.076632149517536163 -0.092939615249633789 0.071615912020206451 -0.10595551878213882 -0.13318771123886108 -0.078543119132518768 -0.18429736793041229 -0.059303104877471924 0.058779340237379074 -0.083336286246776581 0.058778185397386551 -0.053403310477733612 -0.041990812867879868 0.065588347613811493 0.088418923318386078 -0.059303078800439835 -0.072072252631187439 -0.0066932612098753452 0.033255565911531448 -0.17124590277671814 0.036628339439630508 -0.038051802664995193 0.0066357324831187725 -0.18589076399803162 0.072387196123600006 -0.045164991170167923 0.17184644937515259 0.13039104640483856 0.058778811246156693 0.0544842928647995 -0.083329364657402039 -0.032224602997303009 0.058786928653717041 0.090024843811988831 0.15059740841388702 0.1843891441822052 -0.17171694338321686 -0.059302642941474915 -0.15118978917598724
  0.077379487454891205 0.030249202623963356 -0.055140145123004913 -0.066283009946346283 0.13849152624607086 -0.056311383843421936 -0.098383136093616486 0.045670554041862488 -0.097513824701309204 -0.095117449760437012 0.015480857342481613 -0.16944175958633423 0.125814288854599 -0.077222056686878204 0.067640624940395355 0.039681181311607361 0.14739063382148743 -0.070411615073680878 -0.097539216279983521 0.067352995276451111 -0.10590586811304092 -0.13387387990951538 -0.081419385969638824 -0.18254993855953217 -0.056309118866920471 0.055870626121759415 -0.077219575643539429 0.055869396775960922 -0.054894458502531052 -0.042888190597295761 0.064027309417724609 0.087370879948139191 -0.056309103965759277 -0.067800119519233704 -0.0056858710013329983 0.030215870589017868 -0.17465077340602875 0.038398187607526779 -0.035170730203390121 -0.00035311112878844142 -0.18644022941589355 0.06817328929901123 -0.038000945001840591 0.17555001378059387 0.13658487796783447 0.055870071053504944 0.062856420874595642 -0.077212102711200714 -0.037595897912979126 0.055878620594739914 0.094757065176963806 0.15425710380077362 0.18264223635196686 -0.17533513903617859 -0.056308608502149582 -0.15473981201648712
  0.0093620354309678078 -0.1111082136631012 -0.025622056797146797 -0.073775805532932281 -0.06120319664478302 0.22402703762054443 0.020780492573976517 0.030858650803565979 0.0097347293049097061 -0.053985182195901871 0.058028340339660645 0.059243131428956985 -0.062219083309173584 -0.006311412900686264 0.07560594379901886 0.027583030983805656 -0.054763022810220718 -0.0011860958766192198 0.010079038329422474 0.075915530323982239 0.063112087547779083 0.063495278358459473 0.13580833375453949 0.11977697163820267 0.22402648627758026 -0.22285710275173187 -0.0063102841377258301 -0.22285716235637665 0.14034877717494965 0.13873779773712158 0.045353278517723083 -0.061659250408411026 0.22402650117874146 -0.072124943137168884 0.020190391689538956 -0.03125801682472229 0.057184066623449326 0.023067105561494827 0.033936642110347748 -0.06284729391336441 0.12617164850234985 0.075022876262664795 0.029943352565169334 -0.053395416587591171 -0.096793085336685181 -0.22285713255405426 0.0075152567587792873 -0.0063070985488593578 -0.075890421867370605 -0.22285734117031097 0.005430400837212801 -0.054631456732749939 -0.11836599558591843 0.056575749069452286 0.22402650117874146 0.05701933428645134
  -0.10084380209445953 -0.032995209097862244 0.035292096436023712 0.088582597672939301 -0.13220216333866119 0.069721996784210205 0.082359582185745239 -0.031644959002733231 0.080969266593456268 0.080740094184875488 -0.04598134383559227 0.15296681225299835 -0.12383107095956802 0.10099031031131744 -0.089288152754306793 -0.027847934514284134 -0.12951502203941345 0.094474859535694122 0.08100128173828125 -0.089061811566352844 0.10624819248914719 0.12938240170478821 0.071526728570461273 0.18970312178134918 0.069720029830932617 -0.068797364830970764 0.10098840296268463 -0.068796418607234955 0.051479402929544449 0.042191892862319946 -0.068694464862346649 -0.092536680400371552 0.069720007479190826 0.089752957224845886 0.012252739630639553 -0.045140951871871948 0.15604911744594574 -0.026170942932367325 0.049277503043413162 -0.035053122788667679 0.18314936757087708 -0.089709140360355377 0.066427551209926605 -0.15552727878093719 -0.1092311218380928 -0.068796984851360321 -0.021971922367811203 0.10098276287317276 0.0083209006115794182 -0.068803779780864716 -0.077676139771938324 -0.1354714035987854 -0.18969911336898804 0.15587174892425537 0.069719664752483368 0.13652676343917847
  -0.046546898782253265 0.09095030277967453 -0.020801976323127747 -0.091342277824878693 0.10664208978414536 0.013081731274724007 -0.22543366253376007 0.0037887061480432749 -0.22974500060081482 -0.22797507047653198 -0.058828461915254593 -0.12304059416055679 0.098944127559661865 0.04863545298576355 0.095013707876205444 0.001799415098503232 0.1253722608089447 0.064487375319004059 -0.22962172329425812 0.094254501163959503 -0.091361910104751587 -0.10265540331602097 -0.12193429470062256 -0.13390512764453888 0.013085914775729179 -0.012003710493445396 0.048640996217727661 -0.012006396427750587 -0.084386713802814484 -0.067189976572990417 -0.004007555078715086 0.077287197113037109 0.0130859250202775 -0.095495402812957764 -0.026593634858727455 0.00093624374130740762 -0.12918303906917572 0.0065665687434375286 -0.0025387965142726898 -0.0032458966597914696 -0.15823504328727722 0.096398919820785522 0.1141006276011467 0.1337621659040451 0.18590733408927917 -0.012004951946437359 0.095544949173927307 0.048657018691301346 -0.014168752357363701 -0.011986961588263512 0.23264636099338531 0.12845735251903534 0.13453999161720276 -0.13348843157291412 0.013087037019431591 -0.12712481617927551
  -0.22500760853290558 0.088306441903114319 0.0028374793473631144 0.10185033828020096 -0.069689363241195679 0.017499417066574097 -0.10693395882844925 -0.01901448518037796 -0.10832905769348145 -0.073398590087890625 -0.18057966232299805 0.086038008332252502 -0.064906947314739227 0.22573272883892059 -0.10022053867578506 -0.01329116802662611 -0.059169307351112366 0.22727081179618835 -0.10832369327545166 -0.10078041255474091 0.049351837486028671 0.068444967269897461 -0.080804422497749329 0.11188405007123947 0.017500482499599457 -0.015595370903611183 0.22573433816432953 -0.015596541576087475 -0.075181767344474792 -0.071398884057998657 -0.13268184661865234 -0.037816692143678665 0.017500491812825203 0.098682679235935211 0.0013756114058196545 -0.086673565208911896 0.086555413901805878 -0.0029626111499965191 0.089291922748088837 -0.049702413380146027 0.068747453391551971 -0.099201537668704987 0.2193295806646347 -0.084217555820941925 0.074459575116634369 -0.015595924109220505 0.095491424202919006 0.2257397472858429 0.021633338183164597 -0.015588843263685703 0.10901293158531189 -0.064133159816265106 -0.11234362423419952 0.083619125187397003 0.017501009628176689 0.065843395888805389
  -0.10169854015111923 -0.032985016703605652 0.034790080040693283 0.089282788336277008 -0.13195756077766418 0.070106029510498047 0.081726565957069397 -0.031325895339250565 0.080317862331867218 0.080176360905170441 -0.04704773798584938 0.15243619680404663 -0.12371762841939926 0.1018730029463768 -0.089948467910289764 -0.027593787759542465 -0.12890717387199402 0.095368996262550354 0.080350197851657867 -0.089724607765674591 0.10621413588523865 0.12921079993247986 0.071074455976486206 0.18989276885986328 0.070104114711284637 -0.069147743284702301 0.10187116265296936 -0.069146834313869476 0.051239695399999619 0.042044553905725479 -0.068892784416675568 -0.092642337083816528 0.07010408490896225 0.090438582003116608 0.012387383729219437 -0.045583814382553101 0.15545395016670227 -0.025893425568938255 0.049713533371686935 -0.036094769835472107 0.18298745155334473 -0.090364597737789154 0.067455470561981201 -0.15486904978752136 -0.10825181752443314 -0.069147355854511261 -0.020691029727458954 0.10186556726694107 0.0075019029900431633 -0.069153964519500732 -0.076990343630313873 -0.13483859598636627 -0.18986721336841583 0.15524759888648987 0.070103779435157776 0.13593043386936188
  -0.22627070546150208 0.089731954038143158 0.0017199096037074924 0.10017987340688705 -0.067624613642692566 0.018379459157586098 -0.11163322627544403 -0.018396111205220222 -0.11314617842435837 -0.078271046280860901 -0.18218159675598145 0.083402365446090698 -0.063064783811569214 0.22695954144001007 -0.098553210496902466 -0.01275082491338253 -0.056628003716468811 0.2288263738155365 -0.11313759535551071 -0.099128320813179016 0.047630757093429565 0.066403582692146301 -0.083166934549808502 0.10950066894292831 0.018380630761384964 -0.016534408554434776 0.22696124017238617 -0.016535630449652672 -0.0766778364777565 -0.072513118386268616 -0.13267219066619873 -0.036482501775026321 0.01838064007461071 0.096929788589477539 0.0010894640581682324 -0.087163396179676056 0.08376823365688324 -0.0023335244040936232 0.089650176465511322 -0.050565317273139954 0.065740905702114105 -0.09750693291425705 0.22205795347690582 -0.081408768892288208 0.078391626477241516 -0.016534995287656784 0.098191745579242706 0.22696709632873535 0.020623398944735527 -0.016527505591511726 0.11383932083845139 -0.061507601290941238 -0.11003424972295761 0.080744624137878418 0.018381170928478241 0.063168548047542572
  -0.075021803379058838 0.11153289675712585 0.0018820567056536674 -0.11074592173099518 0.088340334594249725 0.031043356284499168 -0.25476151704788208 -0.017455797642469406 -0.2604890763759613 -0.26037421822547913 -0.0644502192735672 -0.092692367732524872 0.085264541208744049 0.07765594869852066 0.11483373492956161 -0.016615947708487511 0.10186593234539032 0.096314586699008942 -0.26032081246376038 0.11396708339452744 -0.082459747791290283 -0.085697345435619354 -0.1246238648891449 -0.11596303433179855 0.03104785829782486 -0.029663773253560066 0.077661953866481781 -0.029666725546121597 -0.087910652160644531 -0.07093830406665802 -0.025670990347862244 0.073751077055931091 0.031047888100147247 -0.11549700051546097 -0.037241034209728241 -0.0028700677212327719 -0.097610317170619965 -0.010100608691573143 0.0030945325270295143 0.01600007526576519 -0.14082479476928711 0.11641237884759903 0.14861460030078888 0.10246722400188446 0.18108102679252625 -0.029665123671293259 0.081426829099655151 0.077679678797721863 0.010104678571224213 -0.029645366594195366 0.265114426612854 0.10309609025716782 0.11677353084087372 -0.10241855680942535 0.031049100682139397 -0.10144015401601791
  0.22769393026828766 -0.091263800859451294 -0.0052889548242092133 -0.099690072238445282 0.066651530563831329 -0.016495641320943832 0.11345407366752625 0.022118575870990753 0.11497817933559418 0.079745270311832428 0.1837194412946701 -0.082790307700634003 0.062009468674659729 -0.22846595942974091 0.097966186702251434 0.016423078253865242 0.055478088557720184 -0.23030409216880798 0.11496850103139877 0.09855157881975174 -0.046300690621137619 -0.065483249723911285 0.086356222629547119 -0.1080663725733757 -0.01649683341383934 0.014563915319740772 -0.22846795618534088 0.014565150253474712 0.079873435199260712 0.075640082359313965 0.13330863416194916 0.035340707749128342 -0.016496846452355385 -0.096381552517414093 0.00078618869883939624 0.085318081080913544 -0.083205528557300568 0.0058411802165210247 -0.087925530970096588 0.048287086188793182 -0.064225241541862488 0.096901021897792816 -0.22318720817565918 0.080749616026878357 -0.080159328877925873 0.014564493671059608 -0.096434004604816437 -0.2284734845161438 -0.023329133167862892 0.014556910842657089 -0.11572126299142838 0.060463264584541321 0.10849335044622421 -0.080135785043239594 -0.01649739034473896 -0.062219530344009399
  0.015151280909776688 -0.11344516277313232 -0.026661686599254608 -0.06887952983379364 -0.063343964517116547 0.21803970634937286 0.032303348183631897 0.033252254128456116 0.021765828132629395 -0.040765874087810516 0.062713280320167542 0.062619909644126892 -0.063993655145168304 -0.011944393627345562 0.070795550942420959 0.030129887163639069 -0.059486042708158493 -0.0075917672365903854 0.022094821557402611 0.071141868829727173 0.066067144274711609 0.065728262066841125 0.14056922495365143 0.12161576747894287 0.21803891658782959 -0.21665056049823761 -0.011943541467189789 -0.21665059030056 0.14322966337203979 0.14078092575073242 0.046333640813827515 -0.063313014805316925 0.21803893148899078 -0.067023418843746185 0.021853869780898094 -0.030993776395916939 0.061054807156324387 0.025329258292913437 0.033965378999710083 -0.06070249155163765 0.12971162796020508 0.070146158337593079 0.020953763276338577 -0.057432305067777634 -0.10406536608934402 -0.21665056049823761 0.0031332881189882755 -0.011941173113882542 -0.074389025568962097 -0.21665157377719879 -0.0068116700276732445 -0.059320598840713501 -0.11995286494493484 0.060878708958625793 0.2180388867855072 0.061879497021436691
  0.098323389887809753 0.030633870512247086 -0.042950045317411423 -0.082450211048126221 0.13407661020755768 -0.066546797752380371 -0.083217814564704895 0.038164582103490829 -0.081837572157382965 -0.081206820905208588 0.040927357971668243 -0.15781702101230621 0.1244814395904541 -0.098400406539440155 0.083300724625587463 0.033711548894643784 0.13397508859634399 -0.091892212629318237 -0.081871882081031799 0.083073005080223083 -0.10573237389326096 -0.1307462602853775 -0.071199402213096619 -0.18822921812534332 -0.066544808447360992 0.065741673111915588 -0.098398402333259583 0.065740637481212616 -0.049670025706291199 -0.039809167385101318 0.069060765206813812 0.090885244309902191 -0.066544771194458008 -0.083628475666046143 -0.0092326588928699493 0.040956806391477585 -0.16145133972167969 0.031914360821247101 -0.045357301831245422 0.025004696100950241 -0.18386344611644745 0.083724543452262878 -0.062767177820205688 0.16123616695404053 0.11425484716892242 0.065741196274757385 0.032656501978635788 -0.098392471671104431 -0.01778244785964489 0.065748266875743866 0.078603334724903107 0.14030715823173523 0.18825307488441467 -0.16139675676822662 -0.066544413566589355 -0.1412365585565567
  -0.0046534407883882523 0.1075742170214653 0.01789824478328228 0.079813458025455475 0.060458533465862274 -0.226297527551651 -0.012255698442459106 -0.022571973502635956 -0.0008388586575165391 0.063740447163581848 -0.055670764297246933 -0.059286784380674362 0.061110783368349075 0.0016387478681281209 -0.081633433699607849 -0.01951252855360508 0.053003333508968353 -0.003994727972894907 -0.001196178374812007 -0.081911437213420868 -0.060385175049304962 -0.062532499432563782 -0.13069960474967957 -0.11815441399812698 -0.22629722952842712 0.2252260148525238 0.0016374577535316348 0.22522613406181335 -0.13580219447612762 -0.13454258441925049 -0.043470803648233414 0.059542082250118256 -0.22629724442958832 0.078340038657188416 -0.015870042145252228 0.028239306062459946 -0.057148989289999008 -0.015390748158097267 -0.030973838642239571 0.058481361716985703 -0.12412606179714203 -0.081107206642627716 -0.03600064292550087 0.053241081535816193 0.093525514006614685 0.225226029753685 -0.0040909098461270332 0.0016338776331394911 0.070865631103515625 0.22522543370723724 -0.014554026536643505 0.053170327097177505 0.11680947989225388 -0.056227806955575943 -0.22629733383655548 -0.055495645850896835
  0.0086723947897553444 -0.084883905947208405 -0.33789610862731934 0.13793660700321198 0.082712180912494659 0.055361885577440262 -0.0010390421375632286 0.31652125716209412 -0.0017843007808551192 0.0079024778679013252 -0.091227658092975616 -0.14338400959968567 0.052976250648498535 -0.0060228072106838226 -0.13422051072120667 0.30214431881904602 0.073910512030124664 -0.0081338156014680862 -0.0018351903418079019 -0.13407409191131592 0.014630119316279888 -0.069323942065238953 0.013020321726799011 -0.016250191256403923 0.055360369384288788 -0.052279144525527954 -0.0060210907831788063 -0.052279539406299591 0.050996284931898117 0.063404016196727753 0.069758795201778412 -0.016122901812195778 0.055360332131385803 0.13875497877597809 0.12967543303966522 -0.17245025932788849 -0.1480255126953125 0.29765972495079041 0.16498187184333801 -0.24826088547706604 -0.054671820253133774 -0.13447591662406921 0.034599993377923965 0.14773014187812805 0.14431272447109222 -0.052279386669397354 0.32967236638069153 -0.0060150735080242157 -0.25249218940734863 -0.052279353141784668 0.0037942887283861637 0.0891147181391716 0.01706400141119957 -0.141098752617836 0.055360503494739532 -0.085802823305130005
  0.15405015647411346 -0.04081358015537262 0.062231764197349548 -0.21266363561153412 0.052294045686721802 0.080863893032073975 -0.023615581914782524 -0.046269327402114868 -0.029733436182141304 -0.088127076625823975 0.17351795732975006 -0.046567048877477646 0.055948350578546524 -0.1521613597869873 0.21355155110359192 -0.046894874423742294 0.042747244238853455 -0.14153063297271729 -0.029497645795345306 0.21369770169258118 -0.055434752255678177 -0.052586551755666733 0.065136648714542389 -0.094057798385620117 0.080865219235420227 -0.081632934510707855 -0.15216012299060822 -0.081633225083351135 0.06853918731212616 0.06879742443561554 0.098411500453948975 0.048460036516189575 0.080865226686000824 -0.21180137991905212 -0.038827277719974518 0.092143237590789795 -0.0473891980946064 -0.052689850330352783 -0.090542957186698914 0.094994939863681793 -0.05521286278963089 0.21327514946460724 -0.10710291564464569 0.048773042857646942 -0.059521865099668503 -0.081633053719997406 -0.12276089936494827 -0.15215609967708588 0.029254794120788574 -0.081629939377307892 0.03792288526892662 0.043953720480203629 0.09567338228225708 -0.04816846176981926 0.080865338444709778 -0.044097032397985458
  -0.0046723661944270134 0.10758613795042038 0.017914056777954102 0.079791583120822906 0.060462117195129395 -0.22628514468669891 -0.012293447740375996 -0.022592799738049507 -0.00087804975919425488 0.063697941601276398 -0.055682521313428879 -0.059293117374181747 0.061114534735679626 0.0016553231980651617 -0.081613607704639435 -0.01953313872218132 0.053014498203992844 -0.0039756414480507374 -0.0012353184865787625 -0.081891782581806183 -0.060397084802389145 -0.06253872811794281 -0.13071759045124054 -0.118162602186203 -0.22628481686115265 0.22521066665649414 0.0016540313372388482 0.22521089017391205 -0.13581596314907074 -0.1345544159412384 -0.04347798228263855 0.059548564255237579 -0.22628478705883026 0.078317254781723022 -0.015881538391113281 0.028244594112038612 -0.057156585156917572 -0.015410198830068111 -0.030981484800577164 0.058485403656959534 -0.12413783371448517 -0.081087291240692139 -0.035975433886051178 0.053247362375259399 0.093542560935020447 0.2252107709646225 -0.0040916437283158302 0.0016504552913829684 0.070871777832508087 0.22521032392978668 -0.014516185037791729 0.053180832415819168 0.11681495606899261 -0.056236948817968369 -0.22628489136695862 -0.055508598685264587
  -0.22495107352733612 0.088304713368415833 0.0034724553115665913 0.10160817950963974 -0.070050179958343506 0.017540458589792252 -0.10664524137973785 -0.019574983045458794 -0.10804171860218048 -0.07317747175693512 -0.18024653196334839 0.086562812328338623 -0.065191559493541718 0.22566942870616913 -0.099990621209144592 -0.013817586936056614 -0.059577763080596924 0.22719968855381012 -0.10803614556789398 -0.10054977983236313 0.049506381154060364 0.068771891295909882 -0.080550149083137512 0.11218008399009705 0.017541531473398209 -0.015644434839487076 0.22567106783390045 -0.015645591542124748 -0.075051724910736084 -0.071319334208965302 -0.13280043005943298 -0.037929363548755646 0.017541542649269104 0.098445229232311249 0.0011775478487834334 -0.08639322966337204 0.08710218220949173 -0.0034887415822595358 0.089030779898166656 -0.049220345914363861 0.069163888692855835 -0.098973304033279419 0.21913914382457733 -0.084772691130638123 0.073842756450176239 -0.015644991770386696 0.094717077910900116 0.22567637264728546 0.022118983790278435 -0.015637904405593872 0.10872825980186462 -0.064575232565402985 -0.11264270544052124 0.084161676466464996 0.017542043700814247 0.066277101635932922
  -0.095914915204048157 -0.033046893775463104 0.038070209324359894 0.084669589996337891 -0.13351178169250488 0.067500762641429901 0.086015902459621429 -0.033346828073263168 0.084734693169593811 0.084024779498577118 -0.03989536315202713 0.15593402087688446 -0.12439976632595062 0.095941998064517975 -0.085562244057655334 -0.029183130711317062 -0.13292887806892395 0.089358285069465637 0.084764875471591949 -0.085321016609668732 0.10644332319498062 0.13031841814517975 0.074117809534072876 0.18858557939529419 0.067498661577701569 -0.066727615892887115 0.095939897000789642 -0.066726610064506531 0.052865587174892426 0.043054156005382538 -0.067519821226596832 -0.091893412172794342 0.067498646676540375 0.085923798382282257 0.011521574109792709 -0.042652666568756104 0.15938717126846313 -0.027639441192150116 0.046863645315170288 -0.029140224680304527 0.18402700126171112 -0.08601021021604538 0.060549993067979813 -0.15918956696987152 -0.11474932730197906 -0.0667271688580513 -0.029173782095313072 0.095933884382247925 0.012949272058904171 -0.066734321415424347 -0.081602953374385834 -0.1390206515789032 -0.18866385519504547 0.15938316285610199 0.067498281598091125 0.13990785181522369
  -0.22583824396133423 0.089222222566604614 0.0019494295120239258 0.10088152438402176 -0.068273395299911499 0.018016429618000984 -0.1099974513053894 -0.018468501046299934 -0.11146535724401474 -0.076541602611541748 -0.18171164393424988 0.084208697080612183 -0.063654690980911255 0.22653947770595551 -0.099252238869667053 -0.01280452124774456 -0.057432550936937332 0.22828659415245056 -0.11145821958780289 -0.099822238087654114 0.048209253698587418 0.067051701247692108 -0.082397617399692535 0.11027990281581879 0.018017573282122612 -0.016149483621120453 0.22654150426387787 -0.016150688752532005 -0.076190464198589325 -0.072150632739067078 -0.13265235722064972 -0.036935050040483475 0.018017563968896866 0.097659863531589508 0.0012497248826548457 -0.087063170969486237 0.084623344242572784 -0.0024189604446291924 0.089590065181255341 -0.050389919430017471 0.066709756851196289 -0.098215371370315552 0.22111684083938599 -0.082271263003349304 0.077143840491771698 -0.016150059178471565 0.097430236637592316 0.22654691338539124 0.020858880132436752 -0.016142722219228745 0.11215048283338547 -0.062333665788173676 -0.11078765988349915 0.081632576882839203 0.018018091097474098 0.064012877643108368
  0.23135393857955933 -0.097082488238811493 -0.012282034382224083 -0.086179815232753754 0.064266368746757507 -0.023232175037264824 0.12912538647651672 0.029526395723223686 0.131301149725914 0.098180137574672699 0.18312792479991913 -0.081394873559474945 0.05912567675113678 -0.23214635252952576 0.084413506090641022 0.023528348654508591 0.052225183695554733 -0.23545446991920471 0.1312699019908905 0.085047192871570587 -0.041982784867286682 -0.062831319868564606 0.090637676417827606 -0.10346604138612747 -0.023233696818351746 0.02143973670899868 -0.23214861750602722 0.0214411411434412 0.082560315728187561 0.077578291296958923 0.13481628894805908 0.031585492193698883 -0.023233700543642044 -0.082606561481952667 0.0057902652770280838 0.082200266420841217 -0.081581071019172668 0.012592097744345665 -0.084889926016330719 0.04272649809718132 -0.059358749538660049 0.083261303603649139 -0.23180697858333588 0.078917384147644043 -0.085327073931694031 0.021440409123897552 -0.093606933951377869 -0.23215542733669281 -0.027764683589339256 0.021431516855955124 -0.13254015147686005 0.057448394596576691 0.10399690270423889 -0.078064478933811188 -0.023234333842992783 -0.059110645204782486
  -0.073132634162902832 0.11012425273656845 0.00095690658781677485 -0.1107744425535202 0.08931635320186615 0.030992986634373665 -0.25349345803260803 -0.016587553545832634 -0.2592046856880188 -0.2593873143196106 -0.063499510288238525 -0.094312474131584167 0.08601321280002594 0.075717970728874207 0.11481478065252304 -0.01590307243168354 0.10314621031284332 0.09429352730512619 -0.25903692841529846 0.11395420879125595 -0.083025559782981873 -0.086635500192642212 -0.12402810901403427 -0.11696543544530869 0.030997481197118759 -0.029664352536201477 0.075723975896835327 -0.02966732531785965 -0.087231479585170746 -0.070241235196590424 -0.024174557998776436 0.073964357376098633 0.030997510999441147 -0.11549206078052521 -0.036850772798061371 -0.0024027044419199228 -0.099309280514717102 -0.0095024602487683296 0.0025106559041887522 0.015190334990620613 -0.14166896045207977 0.1163826584815979 0.14667282998561859 0.10413819551467896 0.1809544563293457 -0.029665712267160416 0.081724070012569427 0.075741581618785858 0.0087973447516560555 -0.029646025970578194 0.26377889513969421 0.1044715940952301 0.11774024367332458 -0.10410549491643906 0.030998717993497849 -0.10286160558462143
  -0.0028323235455900431 0.081108927726745605 0.33306241035461426 -0.13695028424263 -0.083171971142292023 -0.054567392915487289 0.0076476838439702988 -0.31087422370910645 0.0085434643551707268 -0.0016958150081336498 0.096143856644630432 0.14357684552669525 -0.053578615188598633 0.00030399998649954796 0.13331347703933716 -0.29664549231529236 -0.075408443808555603 0.0022118138149380684 0.0085892491042613983 0.13319560885429382 -0.01285899244248867 0.06997670978307724 -0.00708736851811409 0.017184844240546227 -0.054565977305173874 0.051605269312858582 0.00030219490872696042 0.051605690270662308 -0.045525457710027695 -0.058243967592716217 -0.06687985360622406 0.014874960295855999 -0.05456596240401268 -0.1376064270734787 -0.12694382667541504 0.17126849293708801 0.14828446507453918 -0.29255980253219604 -0.16373977065086365 0.24635134637355804 0.056564811617136002 0.1335163414478302 -0.040651384741067886 -0.14800012111663818 -0.1488264799118042 0.051605556160211563 -0.32935172319412231 0.00029594067018479109 0.24906526505947113 0.051605004817247391 -0.010481479577720165 -0.090385332703590393 -0.01786576583981514 0.14158163964748383 -0.054566178470849991 0.087173722684383392
  0.23234346508979797 -0.098471038043498993 -0.010547847487032413 -0.08326779305934906 0.061439912766218185 -0.025222573429346085 0.13532820343971252 0.028396079316735268 0.13770094513893127 0.10496029257774353 0.18451642990112305 -0.077769294381141663 0.056612338870763779 -0.23310109972953796 0.081499174237251282 0.022527139633893967 0.048842016607522964 -0.23690174520015717 0.13766391575336456 0.082150824368000031 -0.039758384227752686 -0.06005018949508667 0.09310150146484375 -0.10026533901691437 -0.025224212557077408 0.023508356884121895 -0.23310370743274689 0.023509824648499489 0.083809494972229004 0.078312166035175323 0.13428796827793121 0.029879214242100716 -0.025224221870303154 -0.079595997929573059 0.0061299907974898815 0.082832939922809601 -0.07774951308965683 0.011517301201820374 -0.085353374481201172 0.043974500149488449 -0.05545271560549736 0.080314204096794128 -0.23506931960582733 0.075053885579109192 -0.090221986174583435 0.023509060963988304 -0.097147151827812195 -0.23311097919940948 -0.025976482778787613 0.023499684408307076 -0.13900771737098694 0.053931206464767456 0.10088865458965302 -0.074128814041614532 -0.025224875658750534 -0.055533360689878464 ]
 [ 0.088485054671764374 -0.13062024116516113 -0.35455676913261414 0.089034795761108398 -0.32192286849021912 0.01915142685174942 0.081817179918289185 0.36246392130851746 0.091356977820396423 0.2008291482925415 -0.16034887731075287 0.29427582025527954 -0.316904217004776 -0.086012169718742371 -0.090414427220821381 0.36247625946998596 -0.35296106338500977 -0.015677392482757568 0.090883843600749969 -0.09193073958158493 0.2114812433719635 0.31919342279434204 0.12882313132286072 -0.51400893926620483 0.019140968099236488 -0.017396692186594009 -0.085996262729167938 -0.017398828640580177 0.15929269790649414 0.1594410240650177 -0.088104777038097382 -0.21129915118217468 0.019140841439366341 0.081074759364128113 0.11663639545440674 -0.22361087799072266 0.28679376840591431 0.35547435283660889 0.22501890361309052 -0.15826910734176636 -0.27640891075134277 -0.087605118751525879 0.13286469876766205 -0.2918161153793335 0.18580710887908936 -0.017397986724972725 0.29123798012733459 -0.085953548550605774 -0.15802404284477234 -0.017397340387105942 -0.10573691874742508 -0.34634283185005188 0.51702731847763062 0.28936606645584106 0.019142741337418556 0.34201806783676147 ]
 [ 0.11065509170293808 -0.17848232388496399 -0.51986360549926758 -0.037245858460664749 0.11067578196525574 -0.52113479375839233 -0.093190491199493408 0.11030212044715881 0.16867412626743317 0.074211664497852325 -0.13369689881801605 -0.13368561863899231 0.058705803006887436 0.11063838750123978 -0.13368463516235352 0.078777000308036804 0.4608757495880127 0.17463934421539307 -0.09464477002620697 -0.51904362440109253 -0.13365104794502258 0.077464886009693146 -0.088849961757659912 -0.13359218835830688 -0.17999325692653656 -0.12536218762397766 0.1107306033372879 0.11070000380277634 0.11074873059988022 -0.13411448895931244 -0.51827943325042725 0.19134168326854706 -0.036985069513320923 0.1725289523601532 -0.052495930343866348 0.19113446772098541 -0.091797120869159698 0.077818915247917175 0.077139772474765778 0.086217388510704041 0.11042545735836029 -0.052226029336452484 0.17005635797977448 -0.040374178439378738 -0.45031061768531799 -0.13364280760288239 0.45054256916046143 0.43486952781677246 -0.13359953463077545 -0.5184406042098999 0.22265215218067169 -0.12742322683334351 -0.52106302976608276 -0.11787835508584976 0.16847875714302063 0.10576054453849792 -0.15026932954788208 0.49219235777854919 0.11061287671327591 -0.20774723589420319 0.053368724882602692 0.11072287708520889 -0.12780106067657471 -0.50419706106185913 -0.121161088347435 0.079246073961257935 0.1714065819978714 0.18961870670318604 0.067958220839500427 ]
</Nnet>
