<Nnet>
<rbm> 42 30
gauss bern [
  -0.71240532398223877 -1.0453381538391113 0.47573098540306091 -0.38064780831336975 0.90195316076278687 -0.96180319786071777 0.1461276113986969 0.3254241943359375 1.1496889591217041 0.19971470534801483 -0.01162240281701088 -0.38728296756744385 -1.0625932216644287 -0.14308705925941467 0.046650964766740799 0.12860232591629028 -0.29255405068397522 -0.58647418022155762 -0.12943357229232788 0.59948480129241943 -0.28069707751274109 0.41112789511680603 1.1236289739608765 -0.65289759635925293 -0.068128816783428192 -0.025574084371328354 0.60241645574569702 -0.9504360556602478 -0.70145946741104126 0.10826645791530609
  0.28199812769889832 0.40387022495269775 -0.8086743950843811 0.36385023593902588 1.0929582118988037 0.60240530967712402 -1.0665640830993652 -0.39258110523223877 -0.22836652398109436 -0.016470989212393761 0.71563339233398438 1.105783224105835 0.77208322286605835 -0.99056398868560791 -1.0578076839447021 -0.98630821704864502 0.75906866788864136 -1.0563626289367676 0.98095816373825073 -0.44759908318519592 0.097665861248970032 -0.30515897274017334 0.66789191961288452 0.63181686401367188 -0.69149941205978394 0.42909419536590576 1.0274279117584229 -1.0237690210342407 -0.60451728105545044 -0.58971726894378662
  -0.14381162822246552 0.21852657198905945 0.56825911998748779 -0.98532319068908691 0.21572422981262207 0.021413799375295639 0.15130439400672913 0.24635586142539978 0.88527601957321167 -0.029200345277786255 1.0497747659683228 -0.68539512157440186 -0.88436698913574219 0.73033678531646729 0.5946078896522522 -0.28055334091186523 -0.94630128145217896 -0.58243727684020996 0.39591068029403687 0.26821210980415344 0.036474641412496567 -0.83604240417480469 0.26404765248298645 0.80296933650970459 -0.6730351448059082 -0.50438112020492554 0.0035808526445180178 -0.9162021279335022 0.74942475557327271 -0.13025647401809692
  0.65900743007659912 0.076926529407501221 0.76442790031433105 -1.0276687145233154 -0.30928769707679749 0.37192308902740479 0.36690261960029602 0.74399614334106445 0.15966871380805969 -0.53868931531906128 0.31750398874282837 0.38573017716407776 0.053352508693933487 0.84550786018371582 1.1277954578399658 -0.08986104279756546 -1.0068914890289307 -1.050739049911499 -0.96643102169036865 -0.64826923608779907 -0.19906547665596008 -0.22445195913314819 -0.78915804624557495 0.068588331341743469 -0.7446904182434082 0.40807107090950012 0.37431603670120239 -0.033911943435668945 0.91564422845840454 0.71594774723052979
  0.6465764045715332 -1.0546479225158691 0.30882644653320312 -0.40831407904624939 -0.40854531526565552 0.30094832181930542 -0.73146504163742065 0.29552266001701355 1.0467150211334229 0.24251274764537811 0.94881683588027954 0.17270687222480774 0.86154162883758545 -0.85189223289489746 0.69605571031570435 0.6432616114616394 0.013618418946862221 0.47449329495429993 0.16779935359954834 0.86030656099319458 -0.25665155053138733 0.99603796005249023 -0.054533470422029495 -0.2087704986333847 -0.33661496639251709 -0.0098571870476007462 -0.35240486264228821 0.40335345268249512 -1.0902978181838989 -0.91483020782470703
  -0.52517485618591309 0.14187362790107727 -0.14246723055839539 0.20895877480506897 0.85776525735855103 -0.29808172583580017 0.68684202432632446 -0.88236892223358154 0.89001369476318359 0.58553415536880493 0.44372081756591797 -1.0346688032150269 -1.0653085708618164 -0.70847934484481812 -0.36031025648117065 0.50909066200256348 1.0009560585021973 0.77297216653823853 -0.87604314088821411 0.34147939085960388 -0.36874017119407654 0.39990231394767761 -0.4996408224105835 -1.1124202013015747 0.95090311765670776 0.67236357927322388 -0.85778087377548218 -0.94478785991668701 0.16928216814994812 -0.62357354164123535
  -0.51623368263244629 -0.39336386322975159 -0.802348792552948 0.81729370355606079 -0.65671497583389282 -0.12299834936857224 0.25950145721435547 -0.49449431896209717 0.64498245716094971 -0.52981305122375488 -1.055527925491333 0.09893035888671875 0.44430747628211975 -0.14435431361198425 -0.38014763593673706 -0.62075668573379517 -0.81068772077560425 1.0025937557220459 1.1546167135238647 -0.062347028404474258 -0.22577944397926331 -0.18653075397014618 -0.79948633909225464 -0.8113858699798584 -0.15352685749530792 -0.6493261456489563 0.41868579387664795 0.7672114372253418 0.70585250854492188 0.67380106449127197
  0.69714391231536865 0.0068516074679791927 0.15798524022102356 -0.49175825715065002 0.54258269071578979 -0.19604916870594025 0.1285259872674942 1.1240944862365723 -1.0812429189682007 0.051507227122783661 0.77038592100143433 -0.67446261644363403 -0.054805602878332138 1.0875554084777832 -0.34278115630149841 -1.098017692565918 0.1604543924331665 -0.067449852824211121 1.1486507654190063 -0.61386114358901978 -0.099050447344779968 0.15857875347137451 0.64021313190460205 0.70283204317092896 -0.74294382333755493 0.56856495141983032 -0.25107043981552124 0.63846516609191895 -0.18356867134571075 0.15367060899734497
  1.0580275058746338 -0.89629167318344116 0.065181173384189606 -0.75501888990402222 -0.31033942103385925 -0.045290801674127579 0.29904791712760925 -0.15749919414520264 1.0683717727661133 -0.927620530128479 -0.30034103989601135 -0.94433677196502686 -0.76380091905593872 0.63245481252670288 -0.13176131248474121 -0.56034165620803833 -1.0167169570922852 0.028543082997202873 0.44966843724250793 0.77092844247817993 -0.27022057771682739 -1.0583738088607788 -1.0185309648513794 -0.18526448309421539 0.58234375715255737 -0.10597600042819977 -1.0941839218139648 -1.0134497880935669 0.058351259678602219 0.75613772869110107
  0.86817920207977295 0.2475532591342926 1.0425300598144531 -0.8451918363571167 0.6965213418006897 1.1161879301071167 0.42996445298194885 0.17143703997135162 0.045346114784479141 0.49337276816368103 1.0081852674484253 0.85414516925811768 -1.008811354637146 -0.85037583112716675 0.18358223140239716 -0.2075781375169754 -0.76376992464065552 -0.54737311601638794 -0.29126203060150146 -0.92718684673309326 0.36509257555007935 1.144618034362793 -0.97197496891021729 -0.37131112813949585 -1.0381437540054321 -0.2118590772151947 0.0013849394163116813 -0.41010838747024536 -0.49388253688812256 1.0968124866485596
  -0.32835695147514343 0.15229262411594391 -0.045358534902334213 1.1423541307449341 0.65294986963272095 -0.29231542348861694 -0.59956085681915283 0.062912881374359131 -0.67482775449752808 0.88690376281738281 -0.039137709885835648 -1.091492772102356 -1.0802822113037109 0.9865296483039856 0.2714952826499939 -1.1353038549423218 -0.99528634548187256 -0.92630839347839355 -0.22745108604431152 -0.68121129274368286 0.88037651777267456 0.2748284637928009 0.37929248809814453 -0.46847158670425415 -0.96378576755523682 0.97605329751968384 0.064956776797771454 -0.28373372554779053 0.36637777090072632 1.0743899345397949
  0.0022981439251452684 -1.1390795707702637 0.0059110582806169987 -0.74016797542572021 0.46501031517982483 -1.1260478496551514 0.66494071483612061 -0.69824039936065674 0.86625128984451294 0.15485554933547974 -0.86525958776473999 1.0822420120239258 -0.59483045339584351 0.75701379776000977 -0.74566519260406494 -0.065704889595508575 0.93766868114471436 0.69015610218048096 0.98172503709793091 -0.6126134991645813 0.16783013939857483 0.64539939165115356 0.053912922739982605 0.50341707468032837 -1.0655958652496338 -0.80662614107131958 -0.63908505439758301 0.0052308072336018085 -0.94616067409515381 1.038543701171875
  0.42368951439857483 0.27121999859809875 0.085166536271572113 -0.42135757207870483 0.28354036808013916 0.97434401512145996 0.82324939966201782 -0.77201330661773682 -0.63704484701156616 1.1419563293457031 1.0726109743118286 -0.39837193489074707 -0.89441525936126709 -0.24772560596466064 0.84288930892944336 0.81388401985168457 -0.12145126610994339 -0.82491165399551392 -0.58922326564788818 0.22395133972167969 -0.16618344187736511 0.99613392353057861 -0.12376798689365387 1.1496363878250122 -0.080185621976852417 -0.85220861434936523 -1.1507984399795532 -0.11555006355047226 0.74423986673355103 0.11959675699472427
  0.49121427536010742 0.95175701379776001 0.73716557025909424 0.15771223604679108 -0.014589305035769939 0.86204415559768677 0.52607238292694092 0.0022873645648360252 -0.83448052406311035 -0.74191874265670776 -1.115381121635437 -0.2072041779756546 -0.21941615641117096 -0.83006656169891357 0.48559936881065369 0.97729164361953735 -0.90901446342468262 0.70590490102767944 0.37877106666564941 0.29668307304382324 -0.55800223350524902 -0.3657662570476532 -0.44610598683357239 0.11986316740512848 0.23978202044963837 -0.27276319265365601 -0.12340635061264038 -0.075374223291873932 0.70994287729263306 -0.94099748134613037
  -0.29964303970336914 0.67093676328659058 -1.0227975845336914 -1.1331108808517456 0.78643810749053955 -0.34237605333328247 0.44420209527015686 1.1320778131484985 0.52016782760620117 -1.1265256404876709 0.4077727198600769 -0.8416745662689209 -1.0575371980667114 -1.0342968702316284 -0.76064354181289673 -0.62022167444229126 0.38165110349655151 0.87647795677185059 -0.043368816375732422 1.1146348714828491 0.84355360269546509 0.7189146876335144 -1.1147822141647339 0.90042632818222046 -0.73487603664398193 0.096963904798030853 0.012299438938498497 -0.91287297010421753 -0.71218079328536987 0.55525106191635132
  0.14132653176784515 1.1364134550094604 0.39126276969909668 0.9252583384513855 0.48981702327728271 0.30052953958511353 -0.063852772116661072 -0.24481542408466339 1.0941686630249023 -0.099307753145694733 -0.83036834001541138 -0.86125344038009644 0.98511070013046265 -0.94055134057998657 0.82002830505371094 1.1338118314743042 0.0052501396276056767 -0.00018437289691064507 -1.0740017890930176 -0.74751466512680054 -0.75453144311904907 0.8607364296913147 -0.47682932019233704 -0.76563972234725952 0.043947212398052216 1.0262289047241211 -0.96759551763534546 -0.29156002402305603 0.31939715147018433 0.14848858118057251
  0.0071202651597559452 1.059557318687439 0.61687940359115601 1.1021418571472168 -0.12953665852546692 -0.32833456993103027 0.82416278123855591 0.49424245953559875 0.081941887736320496 0.99708837270736694 -0.79602086544036865 -0.19864548742771149 1.0051965713500977 0.89371424913406372 -1.1088436841964722 -1.1408489942550659 -0.20967887341976166 0.95667386054992676 -0.89859843254089355 0.6927681565284729 0.18464313447475433 0.38333338499069214 -0.53625684976577759 0.88580381870269775 0.48532819747924805 -0.40816637873649597 0.74533587694168091 -1.1044197082519531 0.76779413223266602 0.56778413057327271
  -1.1229037046432495 0.67426228523254395 0.48062184453010559 0.13139262795448303 -1.0830285549163818 -0.66321396827697754 0.38045844435691833 -0.74846702814102173 -0.1274835616350174 0.7991098165512085 0.34538882970809937 0.27122467756271362 0.71690022945404053 -0.76637250185012817 0.32720455527305603 -0.38047263026237488 0.52652835845947266 -0.20227445662021637 0.91306644678115845 -0.79613369703292847 0.52510583400726318 0.20504374802112579 -1.0698864459991455 0.46829026937484741 0.98145014047622681 -0.92966794967651367 -0.59999412298202515 -0.11930881440639496 -0.069681346416473389 -0.10302264243364334
  0.63006609678268433 -0.49594166874885559 0.6855853796005249 -0.95892375707626343 -0.31583425402641296 -0.63896685838699341 -0.38480177521705627 -0.99143469333648682 -1.1036369800567627 -0.061592012643814087 1.112332820892334 -0.84924322366714478 -0.71974080801010132 -0.31664979457855225 -0.77980542182922363 0.66801297664642334 -0.75727474689483643 -0.69195753335952759 0.90551877021789551 -0.3210253119468689 0.53209137916564941 0.90840810537338257 0.70214933156967163 -0.17988236248493195 0.067276649177074432 1.0331965684890747 -1.132321834564209 0.90785974264144897 0.18556737899780273 -0.79521220922470093
  0.88367199897766113 0.28848278522491455 0.13339291512966156 -0.38566428422927856 0.5328291654586792 -0.18575946986675262 0.0419052354991436 -0.79068559408187866 0.24476958811283112 0.92966103553771973 0.44988846778869629 1.0957673788070679 0.20165279507637024 0.35629874467849731 -0.55991315841674805 -0.92719793319702148 -0.26682615280151367 0.33156326413154602 0.95877325534820557 1.0509512424468994 -0.22171217203140259 -0.11874011904001236 -0.38382348418235779 0.83903992176055908 1.0881568193435669 0.82453662157058716 -0.63498890399932861 0.63712036609649658 -0.90320032835006714 1.1453540325164795
  -0.31203246116638184 -0.050590213388204575 1.0758033990859985 0.52753341197967529 -0.056426580995321274 -0.98632156848907471 -0.24320629239082336 -0.78159826993942261 1.0734015703201294 -0.63278621435165405 0.605002760887146 -0.73754161596298218 0.93186771869659424 0.24207593500614166 -0.36348479986190796 -0.13317796587944031 -0.53808784484863281 -0.2312515527009964 -0.44478678703308105 -0.85411268472671509 -0.88235872983932495 -0.59032082557678223 0.90502351522445679 -0.61189144849777222 0.10912557691335678 -1.0945709943771362 -0.96027171611785889 -0.57928711175918579 -0.086788468062877655 0.89995300769805908
  0.26649606227874756 -0.70280808210372925 -0.81485623121261597 -0.8257601261138916 -0.35930362343788147 0.34834790229797363 -1.0829945802688599 -0.49966874718666077 1.079856276512146 -0.45228755474090576 -0.17272199690341949 0.60125237703323364 1.0792807340621948 -0.2425035685300827 -1.1405112743377686 -0.27558240294456482 -0.44289493560791016 0.26380634307861328 -0.4655299186706543 -0.52458834648132324 0.6087457537651062 0.72555136680603027 0.71673011779785156 0.14722585678100586 -1.139832615852356 -0.88243675231933594 0.75278300046920776 0.53472912311553955 0.89224135875701904 0.70147919654846191
  -0.98061501979827881 -0.27177619934082031 -1.0862337350845337 0.12117182463407516 0.32534942030906677 0.59048187732696533 0.17745400965213776 0.084768936038017273 0.99310898780822754 0.49650710821151733 -0.83393985033035278 -0.041195522993803024 -0.99872541427612305 -0.28958642482757568 -0.14191024005413055 0.76810324192047119 -0.74523723125457764 -0.14477312564849854 0.36777642369270325 0.71387714147567749 0.07773696631193161 0.45529702305793762 1.0717958211898804 -1.0933622121810913 -0.06286940723657608 0.76066213846206665 0.49598366022109985 -0.4269205629825592 -0.080868817865848541 -0.20443809032440186
  -0.30293798446655273 -1.0302846431732178 0.21683773398399353 -0.52413415908813477 -0.86324185132980347 0.99789506196975708 0.80887174606323242 0.63101780414581299 -0.72820073366165161 0.51751708984375 -0.65543967485427856 0.61910164356231689 -0.42126691341400146 -1.0090402364730835 0.68599396944046021 0.48950570821762085 -0.040279470384120941 0.21501389145851135 0.21971115469932556 1.0753889083862305 0.51276755332946777 -0.2087593674659729 1.0570453405380249 -0.27700930833816528 0.051010236144065857 -0.8349078893661499 -0.58992230892181396 -0.0089363185688853264 -0.078022487461566925 -0.66243588924407959
  1.0002942085266113 -0.11166321486234665 -0.89127707481384277 1.0957995653152466 -0.75871849060058594 -0.285432368516922 1.0426688194274902 0.87836587429046631 0.28396895527839661 -1.1115691661834717 0.61129909753799438 -0.45518654584884644 0.45463556051254272 -0.16406209766864777 0.40568080544471741 -0.33486124873161316 0.29956904053688049 1.0425560474395752 1.1186022758483887 -0.9412606954574585 0.22547222673892975 -1.1415021419525146 0.21053771674633026 -0.31907817721366882 -0.80318909883499146 0.1604367196559906 -1.0072757005691528 -1.0382469892501831 -0.70204716920852661 -0.47472098469734192
  0.34959283471107483 1.1131422519683838 1.0411007404327393 0.3874872624874115 0.54752779006958008 -0.46897634863853455 0.42257142066955566 0.31729194521903992 -0.20100410282611847 -0.4946434497833252 -1.0285936594009399 -1.1196551322937012 0.32392901182174683 0.5074237585067749 0.10397636890411377 -1.097805380821228 -1.0171680450439453 0.12267638742923737 0.26701816916465759 0.19266009330749512 -0.17813341319561005 1.0485012531280518 -0.43531444668769836 -0.94398266077041626 0.35618835687637329 -0.051325481384992599 -0.16915394365787506 0.19057177007198334 -1.0652600526809692 0.2838977575302124
  -0.23740047216415405 -0.86846715211868286 -0.40251147747039795 -0.56429457664489746 -0.86133873462677002 -0.29573193192481995 -0.97881066799163818 0.81430000066757202 -0.31624659895896912 0.18587522208690643 -0.022809980437159538 -0.084596395492553711 0.30628043413162231 0.61899083852767944 0.14832589030265808 0.44689801335334778 -0.70000886917114258 0.93238687515258789 -0.79739850759506226 -0.21840858459472656 1.0010932683944702 0.24307046830654144 0.96630126237869263 -1.0501919984817505 -0.8534538745880127 -0.44643846154212952 0.47583252191543579 -0.50207757949829102 0.26757127046585083 -0.58146780729293823
  0.66679370403289795 -0.8790021538734436 -0.7075573205947876 -0.90456587076187134 -0.3010307252407074 0.75678926706314087 -0.20766609907150269 0.22621823847293854 -1.0701696872711182 0.99485909938812256 -0.73741441965103149 0.46958687901496887 0.75921708345413208 -0.7058265209197998 -1.1224055290222168 -0.18195322155952454 -0.50989627838134766 -0.83483749628067017 0.76549595594406128 0.92219972610473633 1.1407771110534668 -1.1395825147628784 -1.0377283096313477 -0.36384263634681702 -0.10588864237070084 -1.0239720344543457 0.50380408763885498 -0.47727012634277344 0.14925955235958099 0.69208347797393799
  -0.42299884557723999 0.55084538459777832 -0.097429826855659485 0.63781207799911499 0.24094906449317932 0.9263920783996582 -1.0579334497451782 0.44766968488693237 0.85020303726196289 -0.37182071805000305 0.30235797166824341 -1.002185583114624 0.4921574592590332 0.83801412582397461 0.25167191028594971 0.82757258415222168 0.47994112968444824 -1.1511353254318237 0.72907114028930664 -0.95890158414840698 0.11047906428575516 -0.0034791426733136177 -0.63337016105651855 -0.33390712738037109 1.1139661073684692 1.0088276863098145 -0.70798307657241821 -0.86359107494354248 -0.90475219488143921 -1.1110938787460327
  0.15726710855960846 0.20161910355091095 0.97087812423706055 0.65235495567321777 -0.91659104824066162 -0.16788472235202789 -0.75243330001831055 0.085855849087238312 0.39912965893745422 -0.87738043069839478 0.11833840608596802 0.39031514525413513 -0.3799421489238739 -1.0883700847625732 1.1282957792282104 0.17337495088577271 -0.39853546023368835 0.26057976484298706 -0.9421389102935791 -0.73638421297073364 0.53170394897460938 0.22778856754302979 -0.31706666946411133 1.1450893878936768 -0.84867233037948608 0.93300634622573853 0.55436736345291138 0.90801244974136353 0.55802792310714722 -0.045376520603895187
  0.85246318578720093 -0.065511852502822876 0.87542271614074707 0.60414838790893555 0.69830328226089478 -1.1496442556381226 0.15103946626186371 0.89888834953308105 -0.95269352197647095 0.037580210715532303 0.15491743385791779 -0.35685083270072937 -0.7674262523651123 0.92867672443389893 -0.63714754581451416 1.0162805318832397 -0.17252601683139801 0.096308790147304535 0.89556241035461426 -1.0376936197280884 -1.0900735855102539 -0.46153968572616577 -0.20263677835464478 1.0258464813232422 -1.01549232006073 0.51323074102401733 1.0547724962234497 -0.11253000050783157 -0.73096692562103271 0.54043513536453247
  -0.14740116894245148 -0.90730172395706177 -0.57130944728851318 0.957023024559021 1.028961181640625 -1.0577859878540039 -0.75542545318603516 -1.0339963436126709 0.89365953207015991 0.46004900336265564 0.73518621921539307 0.21182166039943695 0.61127495765686035 -0.6084212064743042 0.20142069458961487 0.87816250324249268 0.47289028763771057 0.64808875322341919 -1.1167361736297607 -0.45892709493637085 0.83967810869216919 -0.088317282497882843 1.0268088579177856 -0.85183620452880859 -0.99795621633529663 0.35582831501960754 0.036705568432807922 0.34842261672019958 -0.34954842925071716 0.42393189668655396
  0.6977800726890564 -0.6253429651260376 -0.35100865364074707 0.36632362008094788 1.106292724609375 -0.82725661993026733 0.15383030474185944 0.65398472547531128 0.65232396125793457 -0.46501943469047546 1.0137977600097656 -0.62572425603866577 -0.32489794492721558 -0.85774791240692139 0.77378320693969727 -0.096659913659095764 -0.78732752799987793 0.74245846271514893 0.84046059846878052 -0.71548974514007568 1.1515383720397949 -0.010161870159208775 0.18332614004611969 0.042389184236526489 -0.93266075849533081 -0.24893048405647278 -0.16155362129211426 0.7143096923828125 -0.04507606104016304 -0.18178920447826385
  -0.82268530130386353 0.92368006706237793 -0.73302990198135376 0.15788815915584564 0.88041818141937256 0.22686906158924103 0.032341435551643372 -0.81943720579147339 -0.4219173789024353 0.8351016640663147 -0.70921379327774048 -0.53677785396575928 -0.95146220922470093 -0.42059785127639771 0.67549419403076172 -1.1147246360778809 -0.13994072377681732 1.0471049547195435 0.9209214448928833 -1.1348272562026978 -0.40342968702316284 0.19782131910324097 -0.7233964204788208 -0.052549555897712708 0.73748964071273804 1.0939050912857056 -1.1014994382858276 -0.50122576951980591 0.33238387107849121 0.44618400931358337
  0.47172051668167114 -0.19224946200847626 0.92790824174880981 -0.68876570463180542 0.29486876726150513 -0.90884047746658325 0.8518708348274231 -1.0191423892974854 0.73511421680450439 0.9371715784072876 0.49154222011566162 0.99957108497619629 0.53016364574432373 0.80542969703674316 -0.39438104629516602 -0.99614942073822021 0.2986748218536377 0.25393271446228027 0.80913692712783813 -0.86019903421401978 0.80889272689819336 0.85364234447479248 0.22282178699970245 -0.22838497161865234 0.29931339621543884 0.48730120062828064 0.016918592154979706 -0.52335232496261597 0.28088420629501343 -0.30669379234313965
  0.4724602997303009 0.082795865833759308 0.47695636749267578 0.45794585347175598 0.99416607618331909 -0.46844124794006348 0.50887018442153931 -1.018458366394043 0.017447682097554207 0.62026643753051758 0.45712238550186157 0.75319975614547729 0.8799971342086792 0.76740878820419312 -0.32977655529975891 -0.41428804397583008 0.98162961006164551 -0.48478525876998901 0.35303667187690735 -0.89405059814453125 0.25748002529144287 0.76724529266357422 1.001717209815979 0.99446135759353638 0.65501773357391357 -0.016054101288318634 0.43084701895713806 -0.26387867331504822 0.60319942235946655 -0.61790007352828979
  -0.6494218111038208 -1.1403626203536987 0.52344530820846558 1.0443005561828613 0.5191301703453064 -1.0198500156402588 0.93205428123474121 -1.0346781015396118 -1.1057567596435547 -0.55141192674636841 -0.55819034576416016 -0.81881386041641235 -1.0594056844711304 -0.35645294189453125 1.0625853538513184 0.21316207945346832 -0.3302721381187439 0.75473076105117798 -0.39547282457351685 0.53211939334869385 -0.13599351048469543 0.64331382513046265 -0.8449217677116394 0.035417314618825912 -0.97656393051147461 -0.40081623196601868 -0.83559846878051758 -0.18103829026222229 -0.49270829558372498 0.65829610824584961
  0.9811897873878479 -0.46039825677871704 0.92396330833435059 0.90058165788650513 0.50039613246917725 0.28018775582313538 -0.51357614994049072 0.036918289959430695 -0.15352492034435272 1.012569785118103 0.96026700735092163 0.33949029445648193 -0.75086075067520142 -0.60051083564758301 -0.63786673545837402 0.25415521860122681 0.73700714111328125 -0.28632670640945435 0.1047990694642067 -0.60188758373260498 0.062826305627822876 0.11185146868228912 1.1137861013412476 0.71494907140731812 1.0900334119796753 -0.88714933395385742 0.39819353818893433 0.99804329872131348 -0.017585614696145058 0.52355313301086426
  -0.13362020254135132 -0.14573897421360016 0.64470118284225464 1.1398450136184692 -1.0598336458206177 -1.1023222208023071 -0.56195712089538574 -0.21940183639526367 -0.1239846870303154 1.0130013227462769 0.074728034436702728 0.88669723272323608 -0.18452711403369904 0.082647815346717834 -0.66617745161056519 0.028700089082121849 0.32364591956138611 0.25213354825973511 -0.60521280765533447 0.92738646268844604 0.64621800184249878 0.26200607419013977 -0.79933995008468628 0.88166517019271851 0.88411623239517212 1.0901775360107422 -1.0639146566390991 0.84901165962219238 0.42010357975959778 0.47679263353347778
  0.9452747106552124 0.25899702310562134 0.2289881557226181 0.73601424694061279 -0.13976085186004639 0.81996369361877441 0.46119493246078491 1.1538913249969482 -0.60316938161849976 0.56590616703033447 0.13386309146881104 0.55739825963973999 -0.36810332536697388 -0.52777451276779175 -0.79924869537353516 -0.82039982080459595 0.49664247035980225 0.27717790007591248 0.85859990119934082 -0.39603012800216675 -0.57423210144042969 0.54102277755737305 0.74068993330001831 0.60660523176193237 0.30122241377830505 -0.52093559503555298 -0.15755537152290344 -0.12661424279212952 0.023024396970868111 -1.0813966989517212
  -1.0165770053863525 0.96578711271286011 -0.48237559199333191 0.1042051762342453 -0.50328826904296875 -0.44724506139755249 0.9273836612701416 -0.90396881103515625 0.76266986131668091 0.94855195283889771 -0.40928992629051208 0.036282535642385483 -1.0513111352920532 -1.0751858949661255 -0.009478139691054821 0.87020242214202881 0.55061322450637817 -0.13510003685951233 -0.74655145406723022 0.86381465196609497 -0.085696510970592499 0.1532728523015976 0.41000291705131531 -0.082166865468025208 0.99090182781219482 -0.72180402278900146 0.81816500425338745 -1.0872904062271118 0.61940759420394897 -0.60174047946929932
  -0.72910773754119873 0.29037639498710632 -0.80506813526153564 -0.11257393658161163 -0.38106048107147217 0.59763479232788086 1.1170395612716675 -0.39863887429237366 0.5652586817741394 -0.60685354471206665 -0.37266623973846436 -0.84234976768493652 -0.8939892053604126 0.29349160194396973 -0.55126607418060303 0.55018055438995361 1.0877270698547363 -0.69565653800964355 -0.29875367879867554 -0.6084589958190918 0.80179327726364136 0.63557058572769165 -0.22149637341499329 -0.98399055004119873 -0.23526652157306671 -0.65842151641845703 -0.17937467992305756 -0.90713679790496826 -0.46202698349952698 -0.29777976870536804 ]
 [ 0.0 0.0 0.0 0.0 0.0 0.0 0.0 0.0 0.0 0.0 0.0 0.0 0.0 0.0 0.0 0.0 0.0 0.0 0.0 0.0 0.0 0.0 0.0 0.0 0.0 0.0 0.0 0.0 0.0 0.0 ]
 [ 0.0 0.0 0.0 0.0 0.0 0.0 0.0 0.0 0.0 0.0 0.0 0.0 0.0 0.0 0.0 0.0 0.0 0.0 0.0 0.0 0.0 0.0 0.0 0.0 0.0 0.0 0.0 0.0 0.0 0.0 0.0 0.0 0.0 0.0 0.0 0.0 0.0 0.0 0.0 0.0 0.0 0.0 ]
</Nnet>
