<Nnet>
<input> 60 60
<affinetransform> 75 60
 [ 
  -0.21294009685516357 0.33906161785125732 0.045516632497310638 -0.16113120317459106 0.50119638442993164 -0.26479068398475647 -0.26870372891426086 0.21976539492607117 -0.37427031993865967 -0.094210252165794373 0.16246701776981354 -0.30441504716873169 -1.0933722257614136 0.22603897750377655 0.0027153575792908669 -0.70707440376281738 0.67170441150665283 -0.18698976933956146 -0.23524123430252075 0.52697759866714478 -0.17204737663269043 -0.13460260629653931 0.26183584332466125 -0.36076849699020386 -0.39735022187232971 0.097299255430698395 0.1929021030664444 -0.41061374545097351 0.17508704960346222 -0.037762857973575592 -0.026638949289917946 0.19365681707859039 0.053668513894081116 -0.068212583661079407 0.080067634582519531 -0.098067201673984528 0.51617723703384399 -0.23710153996944427 0.11603432148694992 0.30905786156654358 -0.45245391130447388 0.10210041701793671 0.24230673909187317 -0.25276890397071838 0.22768673300743103 -0.016875622794032097 -0.14964844286441803 0.12270433455705643 1.0616083145141602 -0.42906561493873596 -0.38146054744720459 0.95375823974609375 -0.73034542798995972 0.23290093243122101 0.25885874032974243 -0.49756309390068054 0.3200933039188385 0.19040830433368683 -0.39142802357673645 0.44783449172973633
  -0.56067705154418945 -0.080859221518039703 -0.47751748561859131 -0.46545687317848206 0.026898903772234917 -0.15137410163879395 -0.36514586210250854 0.16701547801494598 0.18698608875274658 0.15251839160919189 0.19562400877475739 0.076781146228313446 1.2185819149017334 0.18723101913928986 0.0721302330493927 0.14721453189849854 -0.039800882339477539 0.1783292293548584 -0.15836110711097717 -0.036003246903419495 0.14228290319442749 0.024187594652175903 -0.055670827627182007 -0.05795733630657196 0.86803889274597168 0.66853266954421997 -0.082246899604797363 0.18368512392044067 0.16917963325977325 0.37848168611526489 0.17120549082756042 -0.053623147308826447 -0.07438361644744873 -0.0021374353673309088 -0.07004072517156601 -0.27498254179954529 -1.2818299531936646 0.21874304115772247 -0.0829201340675354 -0.098785236477851868 0.13481912016868591 0.42467415332794189 0.3244040310382843 -0.063768774271011353 -0.21788817644119263 -0.049320708960294724 -0.13208957016468048 -0.0400741808116436 -1.2419577836990356 -0.7018771767616272 0.89578241109848022 0.56908553838729858 -0.45555198192596436 -0.68489181995391846 0.19471177458763123 0.11237013339996338 -0.25806546211242676 -0.19430673122406006 -0.20685489475727081 0.23720903694629669
  -0.43165820837020874 -0.034786868840456009 0.45614773035049438 0.4272824227809906 -0.75743180513381958 -0.30988869071006775 0.60782015323638916 0.17167933285236359 -0.27572548389434814 0.079289495944976807 -0.12636139988899231 0.094411149621009827 0.37336376309394836 0.16244913637638092 -0.71948754787445068 0.16087993979454041 0.24174025654792786 -0.21924091875553131 0.10098607838153839 0.2932790219783783 -0.1796652227640152 0.00025273405481129885 0.010336892679333687 -0.10796100646257401 0.46040821075439453 0.0097366459667682648 -0.72147369384765625 0.05553707480430603 0.54356503486633301 -0.084960855543613434 -0.19630737602710724 0.050808191299438477 0.052747882902622223 0.018174352124333382 0.05262485146522522 -0.16645516455173492 0.23866927623748779 -0.070940464735031128 -0.39018180966377258 -0.1658480167388916 0.4625014066696167 0.13852159678936005 -0.31704249978065491 -0.16462591290473938 0.23156188428401947 -0.051971748471260071 0.10432885587215424 -0.10390115529298782 -1.1107120513916016 0.16726323962211609 1.4405167102813721 -0.94542485475540161 -0.20671352744102478 0.87732750177383423 -0.21434830129146576 -0.50308030843734741 0.2554333508014679 -0.045008301734924316 -0.0037472106050699949 0.2521892786026001
  -0.78524065017700195 0.35751980543136597 -0.41352921724319458 0.25247633457183838 0.49091142416000366 -0.10695579648017883 -0.10902842879295349 0.089935444295406342 -0.081281103193759918 0.31837469339370728 -0.15029118955135345 0.23497302830219269 0.41619902849197388 0.18820984661579132 -0.12402483075857162 0.32951444387435913 0.20130826532840729 -0.036957751959562302 0.097936943173408508 -0.13522191345691681 0.018721599131822586 0.17790919542312622 -0.19043444097042084 0.30058839917182922 0.13947777450084686 0.28692606091499329 0.25284057855606079 0.19642750918865204 -0.098421558737754822 -0.21450705826282501 0.18216270208358765 -0.12702730298042297 0.14543887972831726 -0.044649157673120499 -0.11590126901865005 0.29911857843399048 0.01662912592291832 -0.17805695533752441 -0.00096521666273474693 0.13759981095790863 0.024176407605409622 -0.16586297750473022 0.065230116248130798 -0.016625598073005676 -0.053460299968719482 0.063471481204032898 -0.15701931715011597 0.13847601413726807 -0.14740799367427826 -0.098599240183830261 -0.48493912816047668 0.20173752307891846 0.31500941514968872 -0.11742759495973587 -0.04478999599814415 0.036448653787374496 -0.19372133910655975 0.21130900084972382 -0.24890854954719543 -0.03605220839381218
  0.7168734073638916 0.23032797873020172 0.33537328243255615 0.081373177468776703 -0.67272275686264038 0.37252774834632874 -0.11700645089149475 0.17642244696617126 -0.027300950139760971 -0.087023869156837463 0.063829720020294189 0.029753554612398148 -0.36152657866477966 0.22319798171520233 -0.37765973806381226 0.23658286035060883 -0.18827857077121735 0.36824306845664978 -0.41782191395759583 0.56135821342468262 -0.49324044585227966 0.33722707629203796 -0.18672463297843933 0.19612260162830353 -0.022553946822881699 -0.066146314144134521 -0.63754665851593018 0.37720131874084473 0.054545454680919647 0.21384480595588684 -0.51158446073532104 0.6212317943572998 -0.64458060264587402 0.4699714183807373 -0.31787362694740295 0.31314381957054138 0.079357437789440155 0.068304874002933502 -0.47565457224845886 0.21306595206260681 0.21474741399288177 0.09795958548784256 -0.40461108088493347 0.55070602893829346 -0.50592470169067383 0.35171011090278625 -0.23494192957878113 0.18438400328159332 -0.032671768218278885 0.31528431177139282 -0.19805823266506195 0.081889443099498749 -0.21152804791927338 0.046853698790073395 -0.22129732370376587 0.39245489239692688 -0.22932863235473633 -0.012536430731415749 0.030967986211180687 0.10943227261304855
  -0.72719001770019531 -0.32034307718276978 0.44352492690086365 0.51996511220932007 -0.31269949674606323 -0.37121695280075073 -0.017595624551177025 0.25571748614311218 0.072234451770782471 -0.18707287311553955 -0.068403676152229309 0.084679543972015381 -0.69690746068954468 0.0023802754003554583 0.39901235699653625 0.32168737053871155 -0.086085699498653412 -0.32189309597015381 -0.096304081380367279 0.095953106880187988 0.0049363891594111919 -0.14840810000896454 -0.13723139464855194 0.054886598140001297 -0.40448260307312012 0.029915172606706619 0.40481716394424438 0.11253978312015533 -0.083098836243152618 -0.24616509675979614 -0.048798870295286179 0.02079678513109684 -0.013668195344507694 -0.025357894599437714 -0.13333936035633087 -0.0075213862583041191 -0.11680255830287933 -0.021981660276651382 0.18064145743846893 0.051567085087299347 -0.10931412130594254 -0.16490651667118073 -0.068744905292987823 0.013407404534518719 -0.00050204613944515586 0.06649906188249588 -0.084160007536411285 -0.024223841726779938 0.21089409291744232 -0.00070862408028915524 0.35765635967254639 -0.11182273179292679 -0.27092459797859192 -0.0061892061494290829 0.098703540861606598 0.033669404685497284 0.02666417695581913 -0.08814229816198349 -0.059696000069379807 -0.037991639226675034
  -0.12219593673944473 -0.065762311220169067 0.33150425553321838 -0.42756503820419312 0.079641155898571014 0.0099303163588047028 0.14150230586528778 0.15110832452774048 0.13522110879421234 -0.023129481822252274 -0.26141968369483948 -0.037126019597053528 -0.30310079455375671 -0.18795403838157654 0.094086185097694397 0.086964473128318787 -0.067751377820968628 -0.22383780777454376 0.10642337054014206 0.29184699058532715 0.17319174110889435 -0.017722444608807564 -0.15636292099952698 -0.033091053366661072 1.2191357612609863 -0.12599962949752808 -0.43805241584777832 0.085996344685554504 -0.22233384847640991 -0.4924328625202179 -0.056940045207738876 0.23594288527965546 0.19235977530479431 0.1127079576253891 -0.011022131890058517 -0.31960815191268921 1.8970044851303101 0.2915351390838623 -0.15222550928592682 0.27918490767478943 -0.038272958248853683 -0.047229845076799393 -0.029858646914362907 -0.29890605807304382 -0.0068529266864061356 0.22980447113513947 0.10374226421117783 -0.2873501181602478 -1.0275311470031738 -0.1723930686712265 0.36417734622955322 -0.42085146903991699 -0.26103615760803223 0.29772394895553589 0.1550823450088501 -0.15489716827869415 -0.31027650833129883 -0.11163762211799622 0.33217382431030273 0.23967164754867554
  0.1940949559211731 -0.79870235919952393 0.25786170363426208 -0.73724645376205444 -0.71830397844314575 -0.44236883521080017 0.3942488431930542 0.481874018907547 0.035299893468618393 -0.17633089423179626 0.078840158879756927 -0.28615137934684753 -0.30345389246940613 0.44829079508781433 0.31552526354789734 0.156279057264328 0.054101768881082535 0.001950968406163156 0.10328613966703415 0.10314740240573883 -0.028163589537143707 0.083173170685768127 -0.039030250161886215 0.012725912034511566 -0.61094975471496582 0.43777287006378174 -0.14591881632804871 0.20859439671039581 0.38625216484069824 0.37207478284835815 0.089811839163303375 -0.02510509267449379 0.13794179260730743 0.037183210253715515 -0.11881953477859497 0.055876024067401886 -0.35711416602134705 0.46190351247787476 -0.27100631594657898 0.39449954032897949 0.33582514524459839 0.27219870686531067 0.03919423371553421 -0.042218085378408432 0.0062174513004720211 0.0053249713964760303 -0.099071934819221497 0.046393387019634247 1.4066550731658936 0.14256729185581207 0.3802092969417572 -0.061441410332918167 -0.42038708925247192 -0.52628111839294434 -0.50623399019241333 -0.3304695188999176 -0.34903168678283691 -0.27174839377403259 -0.011292234063148499 -0.038053631782531738
  2.7467827796936035 -0.70409965515136719 0.67271512746810913 0.062312819063663483 -0.14702905714511871 0.13440875709056854 0.11049810796976089 -0.1585661768913269 0.064575172960758209 -0.17215362191200256 0.3643803596496582 -0.2810223400592804 0.18653900921344757 -0.21403869986534119 -0.33172333240509033 -0.27089321613311768 0.20548875629901886 0.13697177171707153 0.04574163630604744 -0.019910167902708054 -0.027271745726466179 0.048721231520175934 -0.066460207104682922 -0.095966227352619171 -0.031218327581882477 -0.010744445957243443 -0.22231772541999817 -0.10986479371786118 0.1861090213060379 0.027196360751986504 -0.025789977982640266 0.019916113466024399 0.012229445390403271 0.0076499585993587971 -0.15442283451557159 0.030735444277524948 0.070987164974212646 0.50610125064849854 -0.12269932776689529 0.20412327349185944 0.034530118107795715 -0.090225391089916229 0.022874847054481506 0.045812182128429413 -0.022804319858551025 -0.06025252491235733 -0.27302953600883484 0.052810121327638626 -2.0675184726715088 0.38434889912605286 0.10981549322605133 0.044851064682006836 -0.55882501602172852 -0.039651770144701004 0.14978298544883728 0.2448076456785202 0.0035582052078098059 -0.012792334891855717 -0.018904941156506538 0.14859230816364288
  1.1029822826385498 -0.11748706549406052 0.26737606525421143 -0.13000491261482239 -0.043115321546792984 -0.126349076628685 0.064348973333835602 0.024845477193593979 -0.15078482031822205 -0.057566836476325989 -0.0017200817819684744 -0.10380252450704575 -0.093547657132148743 0.055124420672655106 -0.092843413352966309 -0.012987229041755199 -0.10900730639696121 0.010194109752774239 -0.071343846619129181 0.044746659696102142 0.022140966728329659 -0.009103880263864994 -0.025413714349269867 -0.02501365914940834 -0.20745214819908142 -0.15895572304725647 -0.074028149247169495 -0.047600284218788147 -0.11421336233615875 0.062551617622375488 -0.049000110477209091 -0.009599488228559494 0.047997117042541504 0.028806224465370178 -0.04281940683722496 0.027595944702625275 0.13271315395832062 -0.20709598064422607 0.011961282230913639 0.12008261680603027 -9.3417475000023842e-07 0.02914024144411087 0.013635674491524696 0.026964312419295311 0.053565178066492081 0.01999325305223465 -0.014677436091005802 0.03067067451775074 -2.4455194473266602 0.8792339563369751 -0.46652263402938843 0.40555042028427124 0.40619942545890808 0.15466552972793579 -0.053040593862533569 0.10155931115150452 0.013651673682034016 0.072234004735946655 -0.018331199884414673 0.034964386373758316
  -0.10982635617256165 -0.3159768283367157 -0.22697728872299194 0.42880699038505554 0.5068284273147583 -0.1222376674413681 -0.14608666300773621 -0.1581493467092514 -0.2531474232673645 0.027916448190808296 -0.050140306353569031 -0.047072138637304306 0.27412638068199158 -0.23276937007904053 -0.19493167102336884 -0.18905006349086761 -0.036418493837118149 0.18630190193653107 -0.10445083677768707 -0.07207181304693222 -0.16861173510551453 0.032691109925508499 0.13832554221153259 0.082244642078876495 0.46766647696495056 -0.50087577104568481 0.022755414247512817 -0.42991301417350769 -0.73140937089920044 0.14451918005943298 0.051087796688079834 0.0086465543136000633 -0.10123356431722641 0.030494220554828644 0.23148258030414581 0.10017780959606171 0.52829611301422119 0.07396998256444931 -0.0041994201019406319 -0.29426488280296326 -0.32854744791984558 0.12558667361736298 0.02825833298265934 0.030802594497799873 0.055083248764276505 0.020362595096230507 -0.065973587334156036 -0.15789726376533508 -0.37315720319747925 0.23866166174411774 0.14149610698223114 -0.37188664078712463 0.15843881666660309 -0.18959598243236542 0.24403108656406403 0.19298188388347626 0.26108038425445557 -0.060860283672809601 -0.34989076852798462 -0.33175510168075562
  -1.9471428394317627 -0.74310487508773804 -0.61932992935180664 -0.65281856060028076 -0.28772124648094177 -0.028246007859706879 0.014052159152925014 0.48012834787368774 0.36512687802314758 0.21009908616542816 0.24141082167625427 0.25076457858085632 -0.90823328495025635 -0.57787150144577026 -0.31056159734725952 -0.66879618167877197 -0.35800382494926453 -0.14696717262268066 -0.13726213574409485 0.13402260839939117 0.11478237807750702 -0.0016965263057500124 0.16514782607555389 0.07141837477684021 -0.18980734050273895 0.34186133742332458 0.11131954193115234 0.27918344736099243 0.1732366532087326 0.025094617158174515 -0.076985560357570648 -0.077268205583095551 -0.089016333222389221 -0.014790142886340618 -0.079285286366939545 -0.042327195405960083 0.89032864570617676 0.71486479043960571 0.67177176475524902 0.52625572681427002 0.20624713599681854 0.034501273185014725 0.027244098484516144 -0.308847576379776 -0.1057649552822113 -0.020838690921664238 -0.11422955989837646 -0.09177841991186142 1.5346331596374512 0.10984022915363312 0.076446458697319031 0.48698383569717407 0.24842047691345215 -0.029892865568399429 0.074758641421794891 -0.13255928456783295 -0.13952679932117462 -0.02345770038664341 -0.13734146952629089 -0.085765145719051361
  -0.31659954786300659 0.99816060066223145 1.1025347709655762 -0.08568621426820755 -0.017066940665245056 0.23305295407772064 -0.58470135927200317 -0.44288724660873413 -0.1805233508348465 -0.1066422238945961 -0.085691623389720917 0.13651235401630402 -0.65424418449401855 0.078748591244220734 0.084555201232433319 -0.11773301661014557 0.068822160363197327 0.23361606895923615 0.095415748655796051 0.13392940163612366 0.075659804046154022 -0.18681274354457855 -0.12798753380775452 0.080150008201599121 -0.28185755014419556 0.069586671888828278 -0.11315698176622391 0.056200701743364334 0.28349226713180542 -0.040762409567832947 0.12659884989261627 0.20348362624645233 0.025151589885354042 -0.081758663058280945 -0.14224447309970856 -0.026511067524552345 0.10207176953554153 -0.051411993801593781 -0.19894625246524811 0.066861569881439209 0.18472230434417725 -0.0065896785818040371 0.037156004458665848 0.045633867383003235 0.024364743381738663 0.095545917749404907 0.046061277389526367 -0.077540412545204163 0.28480309247970581 -0.35238185524940491 -0.46875277161598206 -0.072436638176441193 -0.065074868500232697 0.094794154167175293 0.006198774091899395 -0.036596100777387619 -0.05230339989066124 0.22261770069599152 0.21949456632137299 0.005679648369550705
  0.56832224130630493 -0.0024117704015225172 -0.48801323771476746 -0.54049032926559448 -0.056495100259780884 0.18763989210128784 -0.038258008658885956 -0.36588597297668457 -0.19197095930576324 0.26071807742118835 0.11220762133598328 -0.24100597202777863 0.42607831954956055 0.30662974715232849 0.19421909749507904 0.18208007514476776 -0.018009044229984283 0.17761223018169403 0.091773509979248047 -0.10672972351312637 -0.069689467549324036 -0.014786222018301487 0.067434936761856079 -0.097342699766159058 -0.085770457983016968 0.28096070885658264 0.39861610531806946 0.36368125677108765 0.079806096851825714 0.011658312752842903 0.20020711421966553 0.19673815369606018 0.023724457249045372 -0.13771207630634308 -0.0063049984164535999 0.079218439757823944 -0.28300085663795471 0.053178049623966217 0.35339313745498657 0.3308112621307373 -0.043750841170549393 -0.047236945480108261 0.1709257960319519 0.2606014609336853 -0.03100968524813652 -0.27204149961471558 -0.19843260943889618 0.10803218185901642 -1.3861680030822754 -0.46044251322746277 0.22740758955478668 0.69381254911422729 0.033999606966972351 -0.59049564599990845 0.065245151519775391 0.68828672170639038 0.19205081462860107 0.015533344820141792 -0.30054911971092224 -0.11334113031625748
  -0.42708343267440796 -0.14579027891159058 0.17790025472640991 -0.38407152891159058 -0.27543333172798157 -0.14425370097160339 0.17175818979740143 0.25842538475990295 0.088816069066524506 0.00057105714222416282 0.069840505719184875 -0.25948300957679749 0.19238647818565369 -0.033163841813802719 0.12118767946958542 -0.013993592001497746 -0.14842785894870758 0.17682427167892456 0.078508444130420685 0.10989128053188324 0.097567863762378693 -0.04560428112745285 0.043945144861936569 0.0045687220990657806 0.031462136656045914 0.047181911766529083 -0.12326964735984802 0.045229718089103699 0.019103012979030609 0.22618928551673889 0.2540971040725708 0.24293100833892822 0.03514326736330986 -0.099151864647865295 -0.11233939230442047 -0.024065978825092316 -0.17870789766311646 -0.16891025006771088 -0.15487338602542877 -0.05901273712515831 0.020442996174097061 0.077828183770179749 0.25532221794128418 0.23553141951560974 -0.051783900707960129 -0.13575781881809235 -0.1663118302822113 0.014792333357036114 0.37510010600090027 -0.13262295722961426 -0.34643581509590149 -0.33718898892402649 0.12281674891710281 0.045206893235445023 0.31821423768997192 0.37012910842895508 0.037864804267883301 -0.2840937077999115 -0.27856320142745972 -0.3044036328792572
  0.3367304801940918 -0.00030446366872638464 -0.51571792364120483 -0.19872097671031952 0.09333917498588562 -0.077646113932132721 -0.0012212079018354416 0.1591033935546875 0.27424672245979309 0.060074076056480408 -0.16087934374809265 -0.093038760125637054 0.051137387752532959 0.16542509198188782 0.55301946401596069 -0.11140508949756622 -0.54872417449951172 -0.16617001593112946 0.23569437861442566 0.2832680344581604 -0.020167058333754539 -0.12443821132183075 -0.032728765159845352 -0.0072055300697684288 0.017423702403903008 0.22582706809043884 0.64983218908309937 -0.29176104068756104 -0.88470345735549927 -0.21649220585823059 0.32735279202461243 0.26652464270591736 -0.21546526253223419 -0.15624092519283295 0.15493568778038025 -0.093425512313842773 0.012953652068972588 0.19093921780586243 0.13713504374027252 -0.44861817359924316 -0.53603225946426392 -0.067108042538166046 0.15873001515865326 0.10311561822891235 -0.041841313242912292 -0.037862978875637054 0.059149637818336487 -0.045393448323011398 0.22828292846679688 0.076932050287723541 -0.37240099906921387 0.1350366473197937 0.33445075154304504 0.053510122001171112 0.03742421418428421 -0.13159076869487762 0.14457499980926514 0.024195298552513123 0.016495807096362114 0.12334519624710083
  -0.095136173069477081 0.38819396495819092 0.28938496112823486 0.19088360667228699 -0.21366353332996368 -0.028911389410495758 -0.076599083840847015 0.098995611071586609 -0.28445327281951904 0.010212733410298824 0.38223055005073547 0.34559279680252075 -0.088938266038894653 0.24570479989051819 0.71357285976409912 0.41559240221977234 -0.39622879028320312 -0.10852626711130142 -0.081133134663105011 -0.071767829358577728 -0.16077660024166107 -0.0094313304871320724 0.11702532321214676 0.23127856850624084 -0.22145049273967743 0.11118052899837494 0.51198285818099976 0.29890209436416626 -0.08084733784198761 -0.18759791553020477 -0.09686654806137085 -0.072358548641204834 -0.011768264696002007 -0.0020810193382203579 0.027465216815471649 -0.020460940897464752 -0.36265814304351807 -0.42087084054946899 0.13734175264835358 -0.090434938669204712 0.085197925567626953 -0.079023405909538269 -0.014747639186680317 -0.039953626692295074 0.17351561784744263 -0.016339907422661781 -0.12607119977474213 -0.080233879387378693 1.4155101776123047 -0.92870217561721802 -1.8398587703704834 -0.97059255838394165 0.92084789276123047 0.51940524578094482 0.21821077167987823 0.08558596670627594 0.54467976093292236 0.25430366396903992 -0.33329266309738159 -0.70092982053756714
  1.8172017335891724 1.0918136835098267 0.68992888927459717 0.97378110885620117 0.020865617319941521 -0.57062321901321411 -0.29959291219711304 -0.45083129405975342 0.058645468205213547 -0.059360850602388382 -0.11247511208057404 -0.093593120574951172 -0.079990170896053314 -1.5517613887786865 -0.59080588817596436 -1.3296329975128174 -0.60141080617904663 0.015754269436001778 -0.072753742337226868 0.1385541558265686 0.0042225574143230915 0.024453440681099892 0.16909530758857727 -0.11554507166147232 -1.7714179754257202 -0.53647994995117188 -0.047126516699790955 -0.77874636650085449 0.12081607431173325 0.12195167690515518 0.043858181685209274 0.064126685261726379 -0.12412920594215393 -0.062750227749347687 -0.036387257277965546 0.04493110254406929 -0.73936349153518677 0.26513943076133728 0.43476271629333496 0.049774214625358582 0.23129220306873322 0.16174519062042236 0.20830704271793365 0.27582186460494995 -0.040873128920793533 -0.12023690342903137 -0.032670285552740097 0.13142640888690948 1.9575326442718506 0.55691373348236084 -0.093410849571228027 0.79921585321426392 0.14408190548419952 0.1158796101808548 0.058929845690727234 -0.2911013662815094 -0.082336485385894775 0.080888815224170685 -0.16638419032096863 -0.20243401825428009
  -0.71608644723892212 -0.94360125064849854 -0.20591713488101959 -0.25788965821266174 -0.53234922885894775 -0.19912856817245483 0.17515778541564941 -0.12621878087520599 0.0879940465092659 -0.088897071778774261 0.090798042714595795 -0.077738858759403229 0.72705954313278198 -0.24674315750598907 0.23990817368030548 -0.23749886453151703 -0.27627754211425781 0.016275137662887573 -0.11486392468214035 -0.21868462860584259 0.0030949902720749378 -0.0305892713367939 0.10369386523962021 -0.22920878231525421 0.74137187004089355 0.18679571151733398 0.15806262195110321 0.13052549958229065 -0.13500681519508362 0.33831939101219177 0.0047734016552567482 -0.13406208157539368 0.0039033971261233091 0.1143224835395813 0.032656013965606689 -0.11136140674352646 0.16442865133285522 0.76266252994537354 0.18760080635547638 0.46265119314193726 0.45468613505363464 0.26265725493431091 0.043634571135044098 0.088256753981113434 -0.16555798053741455 0.023722575977444649 -0.21025842428207397 0.059325847774744034 -1.5700825452804565 0.90624946355819702 -0.72618299722671509 0.28053244948387146 0.92538291215896606 -0.11456000804901123 -0.1303083747625351 0.55057698488235474 -0.16617721319198608 -0.14598472416400909 -0.12066704034805298 0.20759619772434235
  0.61224031448364258 0.059073556214570999 0.017905350774526596 0.67225247621536255 0.015439051203429699 -0.25035578012466431 -0.29450753331184387 -0.39379632472991943 0.40728828310966492 0.16475209593772888 -0.44383412599563599 0.077158465981483459 0.047072164714336395 0.28997710347175598 0.13829512894153595 0.40310946106910706 0.020034881308674812 -0.12608490884304047 -0.1449773907661438 0.010639137588441372 0.18373316526412964 0.068288609385490417 -0.29732084274291992 0.050879389047622681 -0.33125090599060059 -0.0036150726955384016 -0.031807702034711838 -0.050985828042030334 0.25316593050956726 0.059021763503551483 -0.15051659941673279 0.099954381585121155 0.090991750359535217 -0.034970104694366455 -0.23086400330066681 -0.16669489443302155 -0.31216168403625488 0.058306023478507996 0.089908227324485779 -0.31291541457176208 0.14416396617889404 0.099009700119495392 -0.13872669637203217 0.18139982223510742 -0.018156422302126884 -0.10650157928466797 -0.0079050315544009209 -0.200543612241745 0.055853057652711868 -0.23413114249706268 0.076185047626495361 0.0020219576545059681 0.053611882030963898 -0.011857137084007263 -0.075500816106796265 0.058304812759160995 0.069553278386592865 -0.059353124350309372 0.061788458377122879 -0.16175748407840729
  2.2406768798828125 -0.12432821094989777 -0.94543898105621338 -0.66156423091888428 0.27440360188484192 0.51397645473480225 -0.014256927184760571 -0.33160462975502014 0.17573639750480652 0.19792842864990234 -0.040735505521297455 -0.27142775058746338 -0.57885539531707764 -0.065186277031898499 -0.16474810242652893 -0.2179044783115387 0.028607591986656189 0.13832844793796539 0.13975957036018372 -0.05040469765663147 -0.13881908357143402 -0.0028987231198698282 0.046689003705978394 0.02703213132917881 -1.1772981882095337 0.35131675004959106 0.28256472945213318 0.053718406707048416 -0.10592518001794815 -0.060918081551790237 0.02178649790585041 0.17994873225688934 -0.11191082745790482 -0.12772856652736664 0.055410604923963547 0.15706862509250641 -0.76331102848052979 0.30438506603240967 0.53163164854049683 0.36458903551101685 -0.21477605402469635 -0.24685990810394287 -0.065096579492092133 0.24556632339954376 0.020275432616472244 -0.10987108945846558 0.0024026087485253811 0.12460939586162567 -0.70686513185501099 -0.36558538675308228 0.26800283789634705 0.59943974018096924 0.3104950487613678 -0.1654694676399231 -0.12962058186531067 0.041989605873823166 0.063909366726875305 0.028835173696279526 -0.00010898272739723325 -0.057203825563192368
  -1.4127411842346191 0.52598577737808228 0.4611586332321167 -0.14177151024341583 -0.21024943888187408 0.31890231370925903 0.5970568060874939 -0.13168419897556305 -0.22412772476673126 0.084046058356761932 0.028490342199802399 0.043926969170570374 -0.44518321752548218 0.23548285663127899 0.37712439894676208 0.13298116624355316 -0.22842955589294434 0.023107804358005524 0.079804249107837677 0.14419612288475037 -0.097920119762420654 -0.078876815736293793 0.011162638664245605 0.054236173629760742 0.10701002180576324 -0.035049039870500565 0.22834128141403198 0.31862267851829529 -0.10383827984333038 -0.11461605131626129 -0.062961272895336151 0.17045079171657562 -0.062683597207069397 -0.14726673066616058 -0.126847043633461 -0.025068335235118866 0.3887382447719574 -0.45148900151252747 -0.14725200831890106 0.26905709505081177 -0.12397917360067368 -0.26431417465209961 -0.17428822815418243 0.11609804630279541 -0.0085989423096179962 -0.17853078246116638 -0.14827485382556915 -0.094624482095241547 0.96610146760940552 -0.64437896013259888 -0.34929066896438599 0.0066964700818061829 0.20688486099243164 -0.22093039751052856 -0.42037168145179749 -0.10011588037014008 0.21633924543857574 -0.073171362280845642 -0.030427271500229836 -0.064606465399265289
  0.26114356517791748 0.94077998399734497 -0.078629679977893829 0.45657598972320557 0.14846794307231903 -0.012445027008652687 -0.15027199685573578 0.16915826499462128 -0.032583329826593399 0.038495626300573349 -0.14908565580844879 -0.038682043552398682 0.4448477029800415 -0.18711310625076294 -0.16195456683635712 0.099202528595924377 -0.047838363796472549 0.1379108726978302 0.12178011238574982 0.17589534819126129 -0.0628371462225914 0.046837013214826584 -0.038957338780164719 -0.023778853937983513 -0.35943642258644104 -0.45477014780044556 0.043992087244987488 0.079665929079055786 -0.18944904208183289 -0.11291097104549408 0.1991790384054184 0.30229529738426208 -0.011228420771658421 -0.095283165574073792 -0.08301486074924469 0.027319205924868584 -1.9709025621414185 -0.47556117177009583 0.1092710942029953 -0.083586856722831726 -0.096445038914680481 -0.43512681126594543 0.077279336750507355 0.29162758588790894 -0.014148875139653683 -0.094653695821762085 -0.068076044321060181 0.093773193657398224 0.53219419717788696 -0.60972148180007935 0.2914767861366272 -0.081314779818058014 -0.21745572984218597 -0.40106520056724548 -0.083833672106266022 0.02339930459856987 0.30162596702575684 -0.1641404926776886 0.055298071354627609 -0.11233673989772797
  0.067155301570892334 0.16524012386798859 0.54058045148849487 0.3583417534828186 -0.24940712749958038 -0.16580232977867126 0.20711760222911835 0.042147818952798843 0.028186433017253876 -0.10218790173530579 -0.34448319673538208 0.013777986168861389 0.94525712728500366 0.029304776340723038 0.27408862113952637 0.13304422795772552 -0.11133525520563126 0.19739334285259247 0.22201810777187347 -0.047593895345926285 -0.054513175040483475 -0.11411446332931519 -0.056593809276819229 -0.16064256429672241 0.035319682210683823 -0.02541930228471756 -0.050993207842111588 0.052817840129137039 0.07462599128484726 0.26568549871444702 0.079108141362667084 -0.075629211962223053 -0.10878952592611313 -0.052923128008842468 -0.08564593642950058 -0.1389693021774292 -0.50387609004974365 0.10079465061426163 0.071064837276935577 -0.076869301497936249 0.10812889784574509 0.28529232740402222 0.077254556119441986 -0.14290252327919006 -0.17409272491931915 -0.15529400110244751 -0.0076907309703528881 0.02690584771335125 -1.5740188360214233 0.023308290168642998 0.10232780873775482 0.27543559670448303 0.067888498306274414 -0.24942080676555634 0.1595311313867569 0.43892094492912292 -0.2038903534412384 -0.22424815595149994 0.035816650837659836 0.08090585470199585
  0.48716598749160767 -0.16888852417469025 -0.15123987197875977 0.6347038745880127 0.34191402792930603 0.068441741168498993 -0.46718180179595947 -0.25012564659118652 -0.3295307457447052 -0.019871380180120468 0.22128370404243469 0.087329916656017303 -0.72302901744842529 -0.065209686756134033 -0.010162817314267159 0.57433336973190308 0.6718909740447998 0.21067540347576141 0.2230520099401474 -0.25456240773200989 -0.10061591118574142 -0.10498537123203278 -0.30124226212501526 -0.11071276664733887 -0.23514731228351593 -0.40344557166099548 0.14288358390331268 0.18047551810741425 0.030844457447528839 -0.10966276377439499 0.25565996766090393 -0.17321659624576569 0.01712954044342041 -0.12321083247661591 -0.029078112915158272 0.028492474928498268 -0.039480071514844894 -0.50932919979095459 -0.1530144214630127 -0.47634729743003845 -0.22756266593933105 -0.011331068351864815 -0.076738089323043823 0.018083853647112846 0.21882437169551849 -0.015562135726213455 0.0094837546348571777 -0.0070251449942588806 1.1940313577651978 1.2901949882507324 0.83834093809127808 -0.82861274480819702 -1.005954384803772 -0.33315274119377136 -0.2942865788936615 0.011954784393310547 -0.17007537186145782 0.0034302184358239174 -0.028378307819366455 -0.16844439506530762
  -0.44272485375404358 -0.54924517869949341 0.45766642689704895 0.5543748140335083 -0.030728571116924286 -0.48477673530578613 -0.5034441351890564 -0.030387885868549347 0.26848563551902771 0.04286627471446991 -0.13293707370758057 -0.25493380427360535 0.0985431969165802 -0.19091060757637024 -0.096639513969421387 0.11955698579549789 0.059455424547195435 -0.00050398940220475197 0.027130592614412308 0.037100531160831451 0.13187901675701141 0.016815243288874626 -0.12264607101678848 0.0036283563822507858 0.24443541467189789 0.389974445104599 0.16783635318279266 -0.15043860673904419 -0.28366410732269287 0.028421394526958466 0.28064492344856262 0.064398564398288727 -0.059219691902399063 -0.1540180891752243 -0.0751471146941185 0.10746844857931137 0.066659934818744659 0.32796865701675415 0.059440825134515762 -0.30784359574317932 -0.31792053580284119 0.1201116070151329 0.41421803832054138 0.23695775866508484 -0.20158566534519196 -0.15235675871372223 -0.0098291169852018356 0.090571925044059753 0.36959105730056763 0.56629538536071777 -1.0341871976852417 -1.0410525798797607 -0.019647989422082901 0.61484110355377197 0.240412637591362 0.025932416319847107 -0.47140523791313171 0.069689713418483734 0.29069352149963379 0.086752481758594513
  -0.20328816771507263 0.18470023572444916 0.27619278430938721 -0.036080077290534973 -0.12627418339252472 -0.080432869493961334 -0.14440774917602539 0.019686738029122353 0.0999593585729599 0.10168115794658661 0.038971588015556335 0.36059069633483887 0.23951934278011322 0.011581605300307274 -0.21804873645305634 -0.096801668405532837 0.12943410873413086 -0.21633937954902649 -0.11915433406829834 0.3241974413394928 0.030444793403148651 -0.15126049518585205 0.16578182578086853 0.00028617482166737318 0.085956081748008728 0.12052346765995026 -0.36307001113891602 -0.077393382787704468 0.077870368957519531 -0.30880054831504822 -0.18918967247009277 0.46969646215438843 0.081181555986404419 -0.28255492448806763 0.28675132989883423 -0.04136531800031662 0.29640468955039978 0.0095612248405814171 -0.25119394063949585 0.10755892843008041 0.045354202389717102 -0.27694326639175415 -0.20252937078475952 0.30474007129669189 0.057939324527978897 -0.20799341797828674 0.21462607383728027 0.023378418758511543 -0.085526645183563232 0.051131296902894974 0.013188393786549568 -0.22105243802070618 0.012469625100493431 0.00010646181181073189 -0.5299486517906189 0.054373815655708313 0.27202534675598145 -0.079970374703407288 0.022873057052493095 0.11189576238393784
  -0.24776767194271088 -0.94129449129104614 -0.70551091432571411 -1.2189064025878906 -1.5523635149002075 -0.89385360479354858 -0.69110262393951416 -0.66406130790710449 -0.32570123672485352 -0.037769299000501633 -0.04199560359120369 -0.24159333109855652 0.7339206337928772 -0.0066658174619078636 -0.025021350011229515 -0.27560505270957947 -0.20074506103992462 -0.25351935625076294 -0.14776484668254852 -0.22195474803447723 -0.28703892230987549 -0.11187183111906052 -0.16591455042362213 -0.043855275958776474 0.4839617908000946 0.39696782827377319 0.35972058773040771 0.34873834252357483 0.32158109545707703 0.011666132137179375 0.22897090017795563 0.18734146654605865 0.026921980082988739 -0.010366653092205524 -0.13320295512676239 -0.043244529515504837 0.58191126585006714 0.48321759700775146 0.52262777090072632 0.6336517333984375 0.62755459547042847 0.34893375635147095 0.30528894066810608 0.37376463413238525 0.11855185031890869 -0.011071048676967621 -0.034977525472640991 -0.0035457881167531013 -1.125805139541626 -0.097679540514945984 0.14364024996757507 0.45126122236251831 0.59273511171340942 0.72182571887969971 0.41320663690567017 0.26274615526199341 0.26579776406288147 -0.0087769804522395134 0.10804744064807892 0.18939179182052612
  -0.30378758907318115 -0.85254430770874023 -0.58394253253936768 -0.86875975131988525 -0.63738071918487549 -0.15670536458492279 -0.17027671635150909 0.034080781042575836 0.28405991196632385 0.046622339636087418 0.13765761256217957 0.055870965123176575 -0.30165755748748779 0.10804038494825363 -0.036607146263122559 0.19804854691028595 0.46937355399131775 -0.0417286716401577 0.046113315969705582 -0.068417571485042572 -0.11255516111850739 -0.026070505380630493 -0.15774288773536682 -0.078915916383266449 -0.094054378569126129 0.91562622785568237 0.97836560010910034 1.0366517305374146 0.75476193428039551 0.033652722835540771 0.060671843588352203 -0.12912687659263611 -0.1351848691701889 -0.078501708805561066 -0.3360501229763031 -0.10027239471673965 1.8392038345336914 0.90066343545913696 1.0011142492294312 0.48926347494125366 -0.014190554618835449 -0.21953000128269196 -0.092357367277145386 -0.21550852060317993 -0.058204006403684616 -0.084979519248008728 -0.049175485968589783 -0.21368259191513062 -0.13289506733417511 -1.1686556339263916 -0.88684755563735962 -0.80287998914718628 -0.53648644685745239 0.069608628749847412 -0.058804616332054138 -0.061228252947330475 0.013834968209266663 0.090099520981311798 0.33488884568214417 0.12285074591636658
  -0.10703304409980774 0.089139424264431 -0.29843083024024963 0.14442877471446991 0.43891769647598267 0.42854282259941101 0.10626745969057083 -0.44264498353004456 -0.3094957172870636 0.022735865786671638 -0.010404597967863083 -0.074229240417480469 -0.14005054533481598 -0.089366130530834198 0.24087558686733246 0.053843159228563309 -0.15855216979980469 -0.081021323800086975 -0.11116568744182587 -0.0060535715892910957 0.036790244281291962 0.041161596775054932 -0.020044177770614624 -0.11791998893022537 -0.23519739508628845 -0.050715889781713486 0.26121124625205994 0.17136116325855255 -0.17785118520259857 -0.10982522368431091 0.085188776254653931 0.13598343729972839 0.10763370245695114 0.013812409713864326 -0.10389812290668488 -0.043029222637414932 -0.01620088703930378 0.088202252984046936 -0.015516926534473896 0.13524755835533142 -0.27861189842224121 -0.21657803654670715 0.1289026141166687 0.40262696146965027 0.32529261708259583 0.065538257360458374 -0.20040716230869293 -0.001089347992092371 -0.21357613801956177 0.23467861115932465 0.27752938866615295 -0.64066708087921143 -1.1898962259292603 -0.49275690317153931 0.13804742693901062 0.63350313901901245 0.093888320028781891 -0.017061013728380203 0.34515443444252014 0.40256583690643311
  -0.10599754005670547 0.27393010258674622 -0.12998351454734802 -0.079728975892066956 0.2168755829334259 0.11892562359571457 -0.038009911775588989 0.17219871282577515 -0.19773669540882111 -0.10975325852632523 0.24426746368408203 0.094019107520580292 0.38093632459640503 -0.22120946645736694 -0.32129377126693726 0.22609955072402954 0.10243262350559235 -0.25150969624519348 -0.052910760045051575 0.22634692490100861 -0.23787854611873627 -0.057693470269441605 0.23768611252307892 -0.09723055362701416 0.094024866819381714 -0.28826427459716797 -0.070306979119777679 0.39726054668426514 0.13156887888908386 -0.23381920158863068 -0.01777789369225502 0.15880386531352997 -0.22919881343841553 -0.078953482210636139 0.23743797838687897 -0.11720284819602966 -0.063252374529838562 -0.27032327651977539 -0.16846716403961182 0.39321997761726379 0.18530477583408356 -0.20765523612499237 0.054502788931131363 0.05350257083773613 -0.162066251039505 0.011773507110774517 0.17110355198383331 -0.15778253972530365 0.12497744709253311 -0.65876775979995728 -0.1000315397977829 0.030289065092802048 -0.012757609598338604 -0.13133339583873749 0.0989651158452034 -0.12206397950649261 -0.045588821172714233 0.11871781945228577 0.054053708910942078 -0.074699655175209045
  -0.91863816976547241 0.36395445466041565 -0.12151822447776794 0.39637768268585205 0.15939629077911377 0.16995465755462646 0.31550940871238708 -0.096106156706809998 -0.14179804921150208 -0.14746825397014618 -0.033612094819545746 0.33355993032455444 0.19378755986690521 0.40902793407440186 -0.20223602652549744 0.15043295919895172 0.1303112804889679 0.18505954742431641 -0.030539071187376976 -0.28300935029983521 -0.00053018366452306509 0.075551018118858337 -0.003647377947345376 0.018823090940713882 -0.016426976770162582 -0.19105985760688782 -0.19761562347412109 -0.38224557042121887 -0.22599007189273834 0.20758196711540222 -0.21595503389835358 -0.15474602580070496 0.11232967674732208 0.083100199699401855 0.13441219925880432 0.046241145581007004 0.11731039732694626 -0.63324517011642456 -0.20910915732383728 -0.33333507180213928 -0.31884860992431641 0.096966288983821869 -0.14550827443599701 0.019394492730498314 0.12384574115276337 0.084808185696601868 0.1336694210767746 -0.025996755808591843 1.3360726833343506 -0.67513155937194824 0.0076386411674320698 -0.018467850983142853 0.28677287697792053 -0.33124610781669617 0.16132494807243347 0.41861036419868469 -0.086050033569335938 -0.061272807419300079 -0.11728711426258087 -0.46486103534698486
  -0.67506867647171021 -0.12321633100509644 0.61871451139450073 0.75292694568634033 0.25494274497032166 -0.37971147894859314 -0.47552916407585144 -0.28419065475463867 0.1711919903755188 0.052859477698802948 -0.0065031358972191811 -0.021036809310317039 0.027773056179285049 -0.60116207599639893 -0.39466345310211182 0.14611096680164337 0.39337122440338135 -0.030649857595562935 -0.28398802876472473 -0.13936355710029602 0.20636670291423798 0.32137632369995117 -0.01232195645570755 -0.15395519137382507 -0.36023145914077759 -0.27997377514839172 0.014201195910573006 0.20418688654899597 0.23626869916915894 -0.004391099326312542 -0.17009903490543365 -0.076804310083389282 0.0411408431828022 0.12278324365615845 -0.14011621475219727 -0.13030454516410828 -0.088996179401874542 0.059929639101028442 0.035146947950124741 -0.23110412061214447 -0.13766293227672577 0.014463324099779129 0.041775841265916824 0.13646787405014038 0.0087447976693511009 -0.1016092449426651 -0.049816429615020752 -0.012053178623318672 0.12647436559200287 0.39921340346336365 0.3040614128112793 -0.2130449116230011 -0.20658889412879944 0.23195658624172211 0.30807062983512878 -0.013553859665989876 -0.16605792939662933 -0.227137491106987 0.090171553194522858 0.078641138970851898
  -0.31686410307884216 -0.30330568552017212 0.45173493027687073 -0.12910738587379456 -0.13111478090286255 -0.12137196958065033 0.27071556448936462 0.36385172605514526 -0.12322063744068146 -0.2389136403799057 0.0215638168156147 0.020053498446941376 -0.78931450843811035 0.17827767133712769 0.4046923816204071 -0.048398248851299286 -0.32112699747085571 -0.090353801846504211 0.23789513111114502 0.073026426136493683 -0.19740952551364899 -0.20213785767555237 0.093007266521453857 0.21580317616462708 -0.23880207538604736 0.26238077878952026 0.46282476186752319 0.025972295552492142 -0.37687993049621582 -0.16933256387710571 0.089003466069698334 0.078396670520305634 -0.057138565927743912 -0.12094111740589142 0.042447332292795181 0.14087176322937012 -0.044798344373703003 -0.022022929042577744 0.30941879749298096 -0.05449187383055687 -0.24628986418247223 -0.12590840458869934 -0.095319516956806183 -0.0067254733294248581 0.062560342252254486 -0.0022126748226583004 -0.063136368989944458 -0.035072684288024902 0.51838409900665283 -0.12759406864643097 -0.45221492648124695 0.24973776936531067 0.2336546778678894 -0.22957794368267059 -0.19206099212169647 0.12612825632095337 0.074037790298461914 0.084713764488697052 -0.14487248659133911 -0.17125165462493896
  0.089614510536193848 -0.054892934858798981 0.28893691301345825 0.22564664483070374 -0.48566073179244995 -0.099042169749736786 -0.1002662181854248 -0.28613483905792236 0.16230091452598572 0.153687983751297 0.2881007194519043 -0.29584619402885437 -0.4730987548828125 -0.01926080510020256 0.2494177371263504 -0.072142340242862701 -0.3572286069393158 -0.037182308733463287 0.028528701514005661 -0.31881988048553467 0.30916312336921692 0.19397823512554169 0.0077833854593336582 -0.2921760082244873 -0.74094957113265991 0.047126535326242447 -0.23303672671318054 -0.24872083961963654 -0.035649199038743973 0.13094045221805573 0.09940415620803833 -0.078068181872367859 0.16176334023475647 0.26287728548049927 -0.23768638074398041 -0.24236869812011719 -0.31059789657592773 0.17906612157821655 -0.38315063714981079 -0.21879121661186218 0.097224146127700806 0.24732957780361176 0.050156980752944946 0.02111801877617836 0.10942916572093964 0.19533193111419678 -0.38123705983161926 -0.12325743585824966 -0.3764168918132782 -0.36572295427322388 -0.14412310719490051 -0.015793608501553535 -0.20241071283817291 -0.20217840373516083 -0.17353245615959167 0.25394392013549805 0.23542097210884094 0.083941347897052765 -0.27333498001098633 0.23319576680660248
  -0.13870608806610107 -0.22832722961902618 -0.22275292873382568 -0.17586381733417511 0.0096360314637422562 0.17905452847480774 0.22630667686462402 0.082964226603507996 0.14559595286846161 0.10380738228559494 -0.091068357229232788 0.066139250993728638 0.44632786512374878 -0.35930410027503967 0.13376805186271667 0.023458763957023621 -0.022748962044715881 0.084227584302425385 0.14576709270477295 -0.1408439576625824 0.12903280556201935 -0.0041399057954549789 -0.10724177211523056 -0.061734221875667572 0.71895378828048706 -0.50630921125411987 0.0090323332697153091 -0.12318456172943115 -0.15129284560680389 0.038883354514837265 0.18928554654121399 -0.082139275968074799 0.14546583592891693 -0.059015829116106033 -0.13520243763923645 -0.14524102210998535 0.85970813035964966 -0.19169396162033081 -0.0031156335026025772 0.093628846108913422 0.078528188169002533 -0.097962841391563416 0.084357596933841705 -0.20330707728862762 0.04970298707485199 0.017971033230423927 -0.089046768844127655 -0.15912318229675293 0.00060502853011712432 0.056568574160337448 0.057101380079984665 0.091953694820404053 0.38853394985198975 -0.010156795382499695 0.077806010842323303 0.077912040054798126 -0.040160614997148514 -0.20755466818809509 -0.05852334201335907 -0.12484592944383621
  -1.4210324287414551 0.16313101351261139 0.98343020677566528 -0.64527654647827148 -0.072284214198589325 0.26582074165344238 0.14772842824459076 -0.13894866406917572 0.027907287701964378 0.19779835641384125 -0.032499879598617554 -0.07043040543794632 -0.25349122285842896 0.20804652571678162 0.36625555157661438 -0.31097903847694397 -0.21901421248912811 0.30812877416610718 0.09193217009305954 -0.17463381588459015 -0.0068477122113108635 0.16868974268436432 0.014069664292037487 -0.14254161715507507 -0.15970389544963837 0.054307423532009125 0.31330838799476624 -0.1905936598777771 -0.33910936117172241 0.18973937630653381 0.099997133016586304 -0.018563471734523773 0.011280459351837635 0.0077666114084422588 0.058384574949741364 -0.11089242249727249 -0.068670697510242462 0.17767728865146637 0.15906824171543121 -0.012013869360089302 -0.26514658331871033 0.025833778083324432 0.12364203482866287 0.025089766830205917 -0.029308144003152847 -0.024298075586557388 0.048602737486362457 0.030803713947534561 -0.043849945068359375 -0.051538523286581039 -0.24725086987018585 0.24812862277030945 -0.15937688946723938 -0.053962916135787964 0.028957361355423927 -0.062184032052755356 0.10591520369052887 0.056265093386173248 -0.038843918591737747 0.065127342939376831
  0.57827860116958618 -0.35338732600212097 -0.054118327796459198 -0.14876332879066467 0.19988244771957397 -0.053564354777336121 -0.0066412342712283134 0.070734396576881409 0.035954993218183517 -0.19239917397499084 -0.11477317661046982 -0.1685783863067627 -0.15352223813533783 0.23650917410850525 -0.14686860144138336 0.061325374990701675 0.20199780166149139 0.092159420251846313 0.23024946451187134 0.14048899710178375 -0.011839154176414013 -0.074013270437717438 -0.035983290523290634 0.20535220205783844 0.56850486993789673 0.058459267020225525 0.052171558141708374 0.21625034511089325 0.45680719614028931 0.23921217024326324 0.29188132286071777 0.1116051971912384 0.00082240946358069777 -0.08401460200548172 -0.13259059190750122 0.12590476870536804 0.023205133154988289 0.45463463664054871 0.19739238917827606 0.32937264442443848 0.40060973167419434 0.50938409566879272 0.29913893342018127 0.093306519091129303 -0.13391144573688507 -0.080249294638633728 -0.049008402973413467 0.000154528534039855 -1.1926270723342896 -0.49245154857635498 -0.29329264163970947 -0.81436353921890259 -0.63445180654525757 -0.080602996051311493 0.69104999303817749 0.47017163038253784 0.12503190338611603 -0.0074255308136343956 0.054629247635602951 -0.161490797996521
  -0.58318078517913818 0.75554484128952026 0.76138955354690552 1.2673754692077637 0.5667375922203064 0.1747804582118988 -0.015950329601764679 0.22329001128673553 0.054641414433717728 -0.092696540057659149 -0.27267295122146606 0.35936319828033447 -1.0377452373504639 -0.053188785910606384 -0.072513416409492493 -0.30231267213821411 -0.31262859702110291 -0.089912988245487213 -0.12469246983528137 0.1651422381401062 0.088391020894050598 0.10738090425729752 0.30582869052886963 0.14531058073043823 -0.42815741896629333 -0.28139367699623108 -0.36521095037460327 -0.5636555552482605 -0.43921086192131042 -0.26400542259216309 -0.19273397326469421 0.034948550164699554 0.090990781784057617 0.092541314661502838 0.33372887969017029 0.050424870103597641 -0.22427698969841003 -0.086610883474349976 -0.21880155801773071 -0.2442983090877533 -0.22473070025444031 -0.2052912712097168 -0.12560616433620453 -0.097632899880409241 -0.01283551100641489 0.13171860575675964 0.090650521218776703 -0.065254040062427521 0.74071615934371948 -0.42891204357147217 -0.16543629765510559 -0.13293103873729706 0.11866242438554764 0.015599662438035011 0.095888391137123108 0.11170992255210876 -0.043151579797267914 0.088462360203266144 0.081447102129459381 -0.04146111011505127
  -0.45428097248077393 -0.3431757390499115 0.21348915994167328 0.13015027344226837 -0.12368004769086838 -0.3466435968875885 -0.037499379366636276 0.12382271885871887 0.096606932580471039 -0.041633773595094681 -0.12683121860027313 -0.099407598376274109 -0.038549453020095825 -0.28082683682441711 0.27507004141807556 0.36338266730308533 0.072528503835201263 -0.21640542149543762 -0.21242395043373108 0.042480524629354477 0.18579448759555817 0.082334898412227631 -0.1649755984544754 -0.058977209031581879 0.057800840586423874 -0.40561977028846741 0.44371974468231201 0.40559291839599609 0.053694672882556915 -0.24204413592815399 -0.26110345125198364 -0.026483457535505295 0.18714801967144012 0.15088871121406555 -0.15203170478343964 -0.03517473116517067 -0.038649164140224457 -0.14841833710670471 0.33183187246322632 0.27004417777061462 0.052351091057062149 -0.090400166809558868 -0.14828181266784668 -0.11313802003860474 0.12396595627069473 0.055806666612625122 -0.013640781864523888 0.015249189920723438 -0.44843250513076782 -0.25932857394218445 0.21810737252235413 0.0092068109661340714 0.16321568191051483 -0.16077584028244019 0.02775225043296814 0.063464730978012085 0.072056569159030914 -0.01237050723284483 0.086121626198291779 -0.084548309445381165
  0.74536824226379395 0.21690168976783752 0.81370729207992554 0.94216912984848022 0.60140949487686157 -0.047020826488733292 0.15852323174476624 0.2240796685218811 -0.088602520525455475 -0.13211947679519653 -0.15985952317714691 -0.25306174159049988 -0.88309061527252197 0.13794694840908051 -0.22168898582458496 0.53616124391555786 0.20790556073188782 0.28757590055465698 0.30187490582466125 0.30282890796661377 -0.013465111143887043 0.023759765550494194 0.009688839316368103 0.14063011109828949 -0.66929572820663452 -0.37516307830810547 -0.63402795791625977 -0.35437512397766113 -0.37986248731613159 0.083602160215377808 0.17372091114521027 0.15579569339752197 0.10428981482982635 0.14293104410171509 0.19286972284317017 0.20182067155838013 -0.46224996447563171 -0.41507142782211304 -0.41132858395576477 -0.36136698722839355 -0.26523023843765259 -0.024769658222794533 -0.054686371237039566 -0.071597777307033539 0.0331525057554245 0.18499769270420074 0.1923423707485199 0.18847981095314026 -0.59216344356536865 0.051905840635299683 -0.11934326589107513 0.017329709604382515 0.35642525553703308 0.027201548218727112 -0.23884685337543488 -0.32880732417106628 -0.13021349906921387 0.04110293835401535 0.055846244096755981 0.11008418351411819
  0.56572937965393066 -0.55870360136032104 0.34769994020462036 -0.42122572660446167 -0.32315516471862793 0.016968555748462677 0.25216895341873169 -0.032022677361965179 0.21145051717758179 -0.1194046288728714 0.03560219332575798 -0.11676467210054398 0.57331258058547974 0.33381140232086182 0.77274459600448608 0.090134121477603912 -0.42881917953491211 -0.20197020471096039 0.018615454435348511 -0.13243743777275085 0.094972394406795502 -0.18744659423828125 -0.039300978183746338 -0.13097716867923737 0.29614770412445068 -0.44366443157196045 0.59819972515106201 0.063714504241943359 -0.31522426009178162 -0.17016839981079102 0.011496652849018574 -0.21231658756732941 0.16067026555538177 -0.088263958692550659 0.014803431928157806 -0.038053005933761597 -0.099895581603050232 -0.52018254995346069 -0.23015174269676208 0.055114340037107468 0.029207348823547363 0.033512450754642487 -0.03129994124174118 -0.047019023448228836 -0.026122510433197021 0.036415856331586838 -0.087504975497722626 0.045317269861698151 -0.1111166700720787 0.628132164478302 -0.92157036066055298 0.13585047423839569 0.63247454166412354 0.2765716016292572 0.070318959653377533 0.13309691846370697 -0.16086596250534058 0.17733347415924072 -0.20328155159950256 0.067779392004013062
  -0.38825151324272156 0.54174453020095825 0.28173503279685974 -0.14787584543228149 -0.24253983795642853 -0.14894400537014008 -0.15919625759124756 -0.019430531188845634 -0.0084912162274122238 0.21674470603466034 0.088234648108482361 0.10204039514064789 0.22200515866279602 -0.42967218160629272 -0.35065138339996338 -0.27666455507278442 0.21787858009338379 0.17472615838050842 0.23360469937324524 0.20210008323192596 0.39244678616523743 -0.16875280439853668 -0.39490443468093872 -0.30744719505310059 0.31366950273513794 -0.94539600610733032 -1.071287989616394 -0.45483842492103577 0.47454142570495605 0.26087930798530579 0.32149213552474976 0.24793659150600433 0.31319493055343628 -0.14009447395801544 -0.27304419875144958 -0.34310927987098694 0.71615684032440186 -0.39779141545295715 -0.61837410926818848 -0.24264517426490784 0.1479225754737854 0.067276157438755035 0.050791572779417038 0.099299602210521698 0.17310880124568939 0.02557775005698204 -0.025039827451109886 -0.19693005084991455 -0.69859051704406738 0.8980901837348938 0.91023856401443481 0.63462162017822266 -0.37650904059410095 -0.34315779805183411 -0.22559399902820587 0.059476010501384735 -0.28870174288749695 0.14002889394760132 0.35888367891311646 0.36027431488037109
  -0.32869693636894226 -0.013462099246680737 -0.13152399659156799 0.3030303418636322 -0.43325841426849365 -0.26420792937278748 -0.027217496186494827 0.20698355138301849 0.04960457980632782 -0.17409069836139679 -0.16731016337871552 0.035022050142288208 0.39124041795730591 -0.017682919278740883 -0.26985689997673035 0.23687349259853363 -0.40428826212882996 0.14627593755722046 0.00022817781427875161 -0.0075360559858381748 0.028520198538899422 -0.038372412323951721 -0.1700068861246109 0.12135718017816544 -0.1217915341258049 0.19635194540023804 -0.15684042870998383 0.44231167435646057 -0.55420565605163574 0.083576597273349762 0.063297837972640991 -0.045347597450017929 0.089352771639823914 -0.056402307003736496 -0.16576376557350159 0.24068878591060638 0.2450694739818573 0.22859090566635132 0.090067580342292786 0.25875884294509888 -0.36485540866851807 0.074946947395801544 0.083439528942108154 0.025372721254825592 0.031137265264987946 -0.055902156978845596 -0.13236042857170105 0.15194782614707947 -0.37097784876823425 -0.13942268490791321 0.1384260505437851 0.12893712520599365 -0.19634686410427094 -0.094871044158935547 0.098546035587787628 0.33286029100418091 0.083895377814769745 -0.035562735050916672 -0.16409865021705627 -0.01143241673707962
  0.51947897672653198 0.66104477643966675 0.38399171829223633 0.0012301255483180285 -0.18654602766036987 -0.30264127254486084 -0.087606720626354218 0.10549995303153992 0.025178784504532814 0.0817713662981987 0.14418664574623108 0.12257901579141617 0.56538951396942139 -0.1501186192035675 -0.4723694920539856 -0.4418671727180481 -0.36228600144386292 -0.12552422285079956 -0.22429198026657104 -0.047854345291852951 0.0084072249010205269 0.10238763689994812 0.076918743550777435 -0.030186420306563377 0.42231976985931396 -0.27087411284446716 -0.28476235270500183 -0.40232545137405396 -0.35346671938896179 -0.15191957354545593 -0.20910352468490601 -0.10615980625152588 0.028613312169909477 0.075398698449134827 0.020100628957152367 -0.018870782107114792 0.36738839745521545 -0.039947766810655594 -0.018465679138898849 -0.1972348541021347 -0.15432974696159363 -0.11956217885017395 -0.16594485938549042 -0.065191835165023804 0.0592915378510952 0.075235649943351746 -0.0060684490017592907 -0.014455575495958328 -0.013174505904316902 0.35804623365402222 0.28243193030357361 0.26382607221603394 -0.0069109979085624218 -0.062575869262218475 0.088324613869190216 0.031290162354707718 -0.043925940990447998 0.13279920816421509 -0.057493641972541809 -0.070301838219165802
  0.68192917108535767 1.0215425491333008 1.6131271123886108 1.0091700553894043 0.14160294830799103 -0.10696665942668915 -0.11656610667705536 -0.41854855418205261 -0.3404809832572937 -0.2027982771396637 -0.14632226526737213 0.034659598022699356 0.79230177402496338 -0.36343482136726379 -0.41569125652313232 -0.52678406238555908 -0.31683951616287231 0.018085416406393051 0.036705311387777328 0.19120612740516663 0.17871128022670746 0.075795970857143402 0.20079280436038971 0.093186669051647186 0.17925097048282623 -0.67940336465835571 -0.97779655456542969 -0.71390068531036377 0.050239615142345428 0.14254277944564819 0.26434594392776489 0.25119256973266602 0.27061882615089417 -0.0035181243438273668 -0.014349066652357578 -0.16085241734981537 0.20580904185771942 -0.50124090909957886 -0.80097341537475586 -0.64902865886688232 -0.065058037638664246 -0.13503231108188629 0.019326223060488701 0.17931625247001648 0.16937428712844849 -0.038738157600164413 0.016162117943167686 -0.046912498772144318 -0.50040721893310547 -0.073831759393215179 0.077883794903755188 0.077662341296672821 0.24066448211669922 0.095914542675018311 0.055680528283119202 -0.019131718203425407 -0.067696802318096161 -0.038719236850738525 -0.099635757505893707 0.11786724627017975
  -0.46606367826461792 -0.46848490834236145 -0.44343036413192749 -0.4498879611492157 -0.12545295059680939 -0.025059239938855171 0.16690635681152344 0.016984844580292702 -0.018198678269982338 -0.12338007986545563 0.055313196033239365 0.05574948713183403 0.11084581166505814 -0.74321019649505615 -0.56803333759307861 -0.62623172998428345 -0.46221625804901123 -0.010232467204332352 0.021427182480692863 0.12964886426925659 0.047511585056781769 0.024265782907605171 0.27370715141296387 0.18980945646762848 0.1463562548160553 -0.27855104207992554 -0.36976626515388489 -0.41352707147598267 -0.28204512596130371 -0.17248599231243134 -0.2759154736995697 -0.015481559559702873 0.12814342975616455 0.087579540908336639 0.15814298391342163 0.06798708438873291 0.51973742246627808 0.49546858668327332 0.2077600508928299 0.10598410665988922 0.066097661852836609 -0.087500803172588348 -0.24614414572715759 -0.10044402629137039 -0.018040360882878304 0.041137069463729858 -0.069789871573448181 -0.16928672790527344 0.020292595028877258 1.6578167676925659 1.6179652214050293 1.5351748466491699 0.9059109091758728 0.10420762747526169 -0.25259050726890564 -0.67856305837631226 -0.38174846768379211 -0.0024650297127664089 -0.38979494571685791 -0.18697451055049896
  0.3687548041343689 0.27000623941421509 -0.19470514357089996 -0.25016498565673828 0.23689594864845276 0.1974189430475235 0.21682906150817871 0.30257624387741089 0.24394333362579346 -0.017203204333782196 0.01793665811419487 0.22317744791507721 0.25687029957771301 -0.014880009926855564 -0.024179531261324883 0.17163647711277008 0.04903537780046463 -0.045876879245042801 0.059065897017717361 -0.031475469470024109 0.051733579486608505 0.011726051568984985 0.11676005274057388 0.019271435216069221 0.071448065340518951 0.055670611560344696 -0.13722647726535797 0.12201093882322311 0.097057357430458069 0.050886727869510651 -0.056227095425128937 0.035912316292524338 -0.00099387718364596367 -0.11818638443946838 -0.026000838726758957 -0.13827180862426758 -0.2692817747592926 -0.25918388366699219 0.041276518255472183 -0.15829499065876007 -0.049856878817081451 -0.032148160040378571 -0.13633377850055695 -0.076961547136306763 -0.039803776890039444 -0.008945235051214695 -0.056179013103246689 -0.22121062874794006 1.170991063117981 0.65513664484024048 0.94950878620147705 0.13315337896347046 -0.63749963045120239 -0.2214089035987854 0.030044792219996452 -0.79318785667419434 -0.68265032768249512 -0.27782613039016724 -0.36925151944160461 -0.33380946516990662
  -1.305063009262085 0.31247076392173767 -0.011943966150283813 -0.5278056263923645 0.39711576700210571 -0.087264269590377808 -0.23603492975234985 0.096638210117816925 0.026219660416245461 0.014348271302878857 0.23642018437385559 0.1598602831363678 0.59214162826538086 0.051015917211771011 0.047325674444437027 0.032411012798547745 0.0078469179570674896 0.17568258941173553 -0.25298783183097839 -0.13604338467121124 0.13978730142116547 0.099865354597568512 0.078915603458881378 0.080680690705776215 0.31631097197532654 0.20152316987514496 0.077890507876873016 -0.25625720620155334 -0.14621861279010773 0.2572387158870697 -0.29340270161628723 -0.11592316627502441 0.014804989099502563 0.026341473683714867 0.10485610365867615 0.03409101814031601 -0.011022310703992844 0.12395519018173218 0.061705868691205978 -0.15809804201126099 -0.16363304853439331 0.073882453143596649 -0.021037817001342773 -0.020329359918832779 -0.097725078463554382 -0.09291115403175354 0.055280864238739014 0.087666518986225128 -0.62114173173904419 0.29198351502418518 0.058839619159698486 0.05835535004734993 -0.14277940988540649 -0.25238430500030518 0.046768199652433395 0.18776893615722656 -0.11728863418102264 -0.21100245416164398 0.035285476595163345 0.21867364645004272
  -0.25573611259460449 0.22152151167392731 0.29764893651008606 -0.031340211629867554 0.11197341233491898 0.12217278033494949 0.058073978871107101 0.0047463052906095982 0.021096277981996536 -0.13154630362987518 0.038391169160604477 0.10912546515464783 0.4662841260433197 0.12021154165267944 -0.032452095299959183 -0.069526247680187225 0.064910717308521271 0.12071783095598221 0.024858208373188972 -0.10398757457733154 0.045170556753873825 0.15179452300071716 -0.022253502160310745 -0.042526792734861374 0.46135821938514709 -0.1050136387348175 -0.14934109151363373 -0.1295953094959259 -0.071798630058765411 0.20455124974250793 0.047313980758190155 -0.022940808907151222 0.065991327166557312 0.11932813376188278 0.037585508078336716 -0.045606724917888641 -0.28731220960617065 -0.41665893793106079 -0.52724093198776245 -0.33122164011001587 -0.03464118018746376 0.24687233567237854 0.15488706529140472 0.030775921419262886 0.052350316196680069 0.080514341592788696 -0.025671221315860748 -0.035310845822095871 0.062391120940446854 -0.21124815940856934 -0.81777465343475342 -0.6430550217628479 0.71503651142120361 0.30326834321022034 0.20375390350818634 0.19625411927700043 0.33023113012313843 0.026046775281429291 -0.21936485171318054 -0.10784732550382614
  -1.7652376890182495 1.8121975660324097 2.1349499225616455 0.1883074939250946 -0.88843822479248047 -0.11712004989385605 -0.37434488534927368 -0.38566797971725464 -0.60572856664657593 -0.10300032794475555 0.49839696288108826 0.49811607599258423 0.31554985046386719 -0.2157241553068161 -0.52604126930236816 0.069237954914569855 0.10382021963596344 0.10388842225074768 0.062732942402362823 0.078477106988430023 0.10136575251817703 0.038587063550949097 -0.048469062894582748 -0.040071334689855576 0.7594602108001709 -0.70371925830841064 -0.93965691328048706 -0.034553911536931992 0.36044293642044067 0.059849034994840622 0.20036964118480682 0.22540378570556641 0.12344039231538773 0.035833779722452164 -0.16179272532463074 -0.17519944906234741 0.53841316699981689 -0.38629436492919922 -0.77762901782989502 0.025731602683663368 0.28960713744163513 0.019844720140099525 0.11965740472078323 0.10042556375265121 0.12096180021762848 0.079586721956729889 -0.17823567986488342 -0.13509723544120789 -0.43144518136978149 -0.073323704302310944 0.090602219104766846 -0.24132609367370605 -0.10734568536281586 0.011660090647637844 0.18710136413574219 -0.024252694100141525 0.044675096869468689 0.033934138715267181 -0.021936250850558281 0.11424307525157928
  -0.23995919525623322 -0.63798356056213379 0.27171069383621216 -0.2944604754447937 -0.092506580054759979 -0.30508708953857422 -0.36713489890098572 0.099081724882125854 0.20939831435680389 -0.20619940757751465 -0.12432046234607697 0.12881863117218018 -0.32895028591156006 0.10471276938915253 -0.12597063183784485 0.0035507522989064455 -0.22402571141719818 0.024345723912119865 -0.039605621248483658 0.31591519713401794 -0.027944868430495262 -0.11469414830207825 -0.15099276602268219 0.086014620959758759 -0.52574706077575684 0.27439653873443604 -0.20952238142490387 0.093852944672107697 -0.108263298869133 -0.045506753027439117 0.11168805509805679 0.41832262277603149 -0.11510207504034042 -0.17330355942249298 -0.051156125962734222 0.13186810910701752 -0.42326754331588745 0.17322187125682831 -0.24721461534500122 -0.057018183171749115 -0.032455150038003922 0.014424407854676247 0.21359233558177948 0.26604670286178589 -0.18682114779949188 -0.10775060951709747 0.066549293696880341 0.15296939015388489 -0.2762865424156189 0.095053024590015411 -0.099994063377380371 -0.061621431261301041 -0.27138057351112366 0.078601889312267303 0.38472875952720642 0.056590508669614792 -0.27245676517486572 -0.055906541645526886 0.13714969158172607 0.11199470609426498
  0.26080629229545593 -0.059448443353176117 -0.066182807087898254 -0.081502318382263184 -0.24713930487632751 -0.013399679213762283 0.028179869055747986 0.14606174826622009 -0.10912410914897919 0.0016398667357861996 -0.00013177376240491867 0.033540468662977219 0.0090631041675806046 0.18164029717445374 -0.205704465508461 -0.34054520726203918 0.32901391386985779 0.16819049417972565 0.0085528995841741562 0.02032831683754921 -0.13942441344261169 0.083932392299175262 0.087098658084869385 -0.2341584712266922 -1.1401810646057129 0.93571019172668457 -0.07475610077381134 -0.41279119253158569 0.36365458369255066 0.12499897927045822 0.17767097055912018 -0.17308633029460907 -0.18569952249526978 -0.054352656006813049 0.076782196760177612 -0.12385541200637817 -1.6881325244903564 0.61251688003540039 0.73021095991134644 -0.13457135856151581 0.019191974774003029 -0.090063445270061493 0.18884161114692688 -0.1111300066113472 -0.004087359644472599 -0.15932361781597137 0.034703761339187622 0.1558024138212204 2.0777287483215332 -1.4305950403213501 0.054425671696662903 0.76723146438598633 -0.52262216806411743 -0.018806340172886848 -0.13577258586883545 0.17034539580345154 0.36676150560379028 -0.060292843729257584 -0.16906803846359253 0.022213926538825035
  -0.96547502279281616 0.18331721425056458 -0.22381983697414398 0.017122391611337662 0.015566268004477024 0.16338713467121124 -0.24395881593227386 0.12722891569137573 -0.10192955285310745 0.052768584340810776 0.11928322166204453 -0.044698800891637802 0.33294898271560669 -0.021110450848937035 0.35048991441726685 0.053146351128816605 -0.30231589078903198 0.2170291393995285 -0.26449805498123169 0.028571339324116707 0.074741341173648834 -0.074328094720840454 -0.085283137857913971 0.066022336483001709 0.33119606971740723 -0.37658882141113281 0.39293801784515381 0.21510361135005951 -0.48426949977874756 0.45719695091247559 -0.40756267309188843 0.15183940529823303 0.11360849440097809 -0.14466866850852966 -0.095299191772937775 0.063601382076740265 0.14574973285198212 -0.46800321340560913 0.057621553540229797 0.079430103302001953 -0.32898083329200745 0.43521517515182495 -0.16786275804042816 -0.00424526771530509 0.17397588491439819 -0.085392877459526062 -0.10253877937793732 0.034168221056461334 0.72610735893249512 -0.65762835741043091 0.32261428236961365 -0.24802139401435852 -0.0030084094032645226 0.41789066791534424 -0.078044764697551727 -0.10642175376415253 0.18644155561923981 0.060481138527393341 -0.054361242800951004 0.026161488145589828
  -0.42362502217292786 -0.13865186274051666 -0.61682385206222534 -0.29464080929756165 0.19653281569480896 0.41420555114746094 0.58773297071456909 0.71683633327484131 0.38858696818351746 0.21103280782699585 0.10126616060733795 -0.0085537219420075417 -0.3902030885219574 -0.64932948350906372 -0.71627211570739746 -0.43215867877006531 -0.22382728755474091 0.068069897592067719 0.31380778551101685 0.54539388418197632 0.33257448673248291 0.13791674375534058 0.22858484089374542 0.055268701165914536 -0.57810992002487183 -0.19599941372871399 -0.29077023267745972 -0.1639624685049057 -0.17614899575710297 -0.13194523751735687 0.085208334028720856 0.2547379732131958 0.13629923760890961 0.057824324816465378 0.022490978240966797 0.058741599321365356 -0.52653253078460693 0.1614469587802887 0.37165075540542603 0.17193968594074249 0.0017662926111370325 -0.1231323629617691 -0.12132284045219421 -0.06413114070892334 0.0017044073902070522 -0.072828680276870728 -0.077036231756210327 0.061772190034389496 -0.062596775591373444 0.38386011123657227 0.49571719765663147 0.20190049707889557 0.20502357184886932 0.077635206282138824 -0.20808948576450348 -0.1685912013053894 -0.21762256324291229 -0.04266294464468956 -0.049808971583843231 0.071356937289237976
  0.05789291113615036 0.26371672749519348 -0.3496088981628418 0.25273773074150085 0.056697949767112732 0.13204866647720337 -0.034984208643436432 -0.091454565525054932 -0.014489874243736267 0.04418833926320076 0.066823028028011322 -0.2291886955499649 0.020503286272287369 0.27801734209060669 -0.44550308585166931 0.45850178599357605 -0.34023568034172058 -0.026933113113045692 0.07019805908203125 -0.1699984073638916 0.23630139231681824 -0.3230612576007843 0.30352574586868286 -0.22531284391880035 -0.1369846910238266 0.19688929617404938 -0.55719047784805298 0.66242152452468872 -0.44665277004241943 0.14017009735107422 0.073544882237911224 -0.21730664372444153 0.33854940533638 -0.42248180508613586 0.4062286913394928 -0.25040799379348755 -0.16300895810127258 0.25911861658096313 -0.42467537522315979 0.54147142171859741 -0.40425044298171997 0.20569796860218048 0.0023450669832527637 -0.14006392657756805 0.21411141753196716 -0.24145041406154633 0.2407439798116684 -0.18270553648471832 -0.25502583384513855 -0.019003679975867271 -0.42510047554969788 0.40832513570785522 -0.48517802357673645 0.090981252491474152 0.11240478605031967 -0.13009515404701233 0.17258316278457642 -0.31647491455078125 0.050206519663333893 -0.030847497284412384
  0.41186660528182983 -0.29714286327362061 0.14378969371318817 0.43878579139709473 0.45828303694725037 0.29507002234458923 0.45473507046699524 0.4464210569858551 0.012892154976725578 -0.30389973521232605 -0.26603740453720093 -0.021377269178628922 -0.29705309867858887 0.26638799905776978 0.13404789566993713 0.13832493126392365 0.18063446879386902 0.14687980711460114 0.36129701137542725 0.29073956608772278 0.068186149001121521 -0.023675648495554924 0.071735486388206482 -0.013603447936475277 -0.12637993693351746 0.33931174874305725 -0.055732421576976776 0.1381981372833252 0.079255171120166779 0.20116032660007477 0.23739537596702576 0.21574197709560394 0.11773461103439331 0.10917837172746658 0.053867176175117493 -0.040766853839159012 -0.37229019403457642 -0.0079867932945489883 -0.12619884312152863 -0.06959831714630127 -0.0042091649957001209 0.067911997437477112 0.19743269681930542 0.22974041104316711 0.13067667186260223 -0.0019381251186132431 0.049003321677446365 0.015922276303172112 0.63426113128662109 -0.18622292578220367 0.04156152531504631 0.018626213073730469 -0.046785596758127213 0.08259321004152298 0.35133063793182373 0.17877551913261414 0.17914791405200958 0.086900651454925537 -0.21778963506221771 0.033167734742164612
  0.41010826826095581 -0.1915014386177063 -0.74997669458389282 -1.0857357978820801 -0.91946429014205933 -0.74601483345031738 -0.55150848627090454 -0.092465326189994812 -0.20140425860881805 0.31076022982597351 0.46409693360328674 0.26596713066101074 -0.38334223628044128 -0.050674967467784882 0.059714294970035553 -0.16364894807338715 -0.14927162230014801 -0.13909058272838593 0.064460575580596924 -0.062973655760288239 0.0026575005613267422 0.0098908636718988419 -0.053271286189556122 0.0049547841772437096 -1.1704312562942505 -0.18245869874954224 0.10881032794713974 0.28502258658409119 0.27976438403129578 0.28834453225135803 0.33409583568572998 0.18749511241912842 0.29087045788764954 0.029426455497741699 -0.074547082185745239 0.064577147364616394 -0.72362571954727173 0.24755886197090149 0.34485426545143127 0.57007437944412231 0.62261772155761719 0.40787214040756226 0.24848715960979462 0.11894543468952179 0.18388514220714569 -0.00286107137799263 -0.13061988353729248 -0.016202779486775398 0.84213399887084961 0.15665511786937714 0.068178422749042511 0.37717610597610474 0.26288270950317383 0.37766596674919128 -0.012340749613940716 0.22369693219661713 -0.01260712742805481 -0.06068040058016777 0.079552508890628815 0.014464276842772961
  0.79187524318695068 0.49255481362342834 0.12025381624698639 -0.18447853624820709 0.070937268435955048 0.062494546175003052 0.297040194272995 0.15400707721710205 0.12231504917144775 -0.14733421802520752 -0.2148989737033844 -0.16718858480453491 0.081899091601371765 0.044815316796302795 0.3425942063331604 -0.14051622152328491 0.027362450957298279 -0.020435480400919914 -0.064561523497104645 -0.12040824443101883 0.028652770444750786 -0.12410690635442734 -0.18863143026828766 -0.10339305549860001 -0.31926673650741577 -0.58286464214324951 0.15117464959621429 -0.1177537739276886 0.012287489138543606 -0.092776864767074585 -0.25497239828109741 0.005574297159910202 0.24053214490413666 -0.060666199773550034 -0.1980527937412262 -0.028738092631101608 -0.1055426299571991 -0.087656587362289429 0.43425947427749634 0.13435934484004974 -0.15762624144554138 -0.2588004469871521 -0.15751217305660248 0.037445884197950363 0.15062910318374634 -0.045730993151664734 -0.054150547832250595 0.056315727531909943 0.40243566036224365 -0.025147940963506699 0.25816944241523743 0.20586802065372467 -0.43800485134124756 -0.49126148223876953 -0.21721968054771423 0.10279952734708786 -0.1051725298166275 -0.088084287941455841 0.1655719131231308 0.089555040001869202
  -0.35745200514793396 -0.2679269015789032 0.072628453373908997 0.55225908756256104 0.22330375015735626 0.0094092292711138725 0.13267399370670319 0.19116131961345673 0.15706758201122284 0.056452982127666473 -0.17340278625488281 -0.0085916649550199509 0.30699002742767334 -0.085532538592815399 0.21326722204685211 0.33933904767036438 0.30452251434326172 0.1838231086730957 0.062072213739156723 -0.07287200540304184 -0.089706778526306152 -0.093511447310447693 0.028449287638068199 -0.024927485734224319 0.54621690511703491 0.21804428100585938 0.31643682718276978 0.37054702639579773 0.3013274073600769 0.15323202311992645 0.074212975800037384 -0.16884741187095642 -0.18886536359786987 -0.080828666687011719 0.050285361707210541 0.013506903313100338 0.83491623401641846 0.60667639970779419 0.23128440976142883 0.039927419275045395 0.067908160388469696 -0.0091205760836601257 -0.093580357730388641 -0.1862214207649231 -0.18842026591300964 -0.12786640226840973 -0.040840327739715576 0.017111115157604218 0.69150644540786743 0.10645823925733566 0.13441148400306702 -0.82445335388183594 -0.80079299211502075 -0.4275524914264679 -0.4745173454284668 -0.014166227541863918 0.081872537732124329 -0.10387449711561203 0.20763373374938965 -0.026974072679877281
  0.42695131897926331 -0.32925623655319214 -0.24469666182994843 0.69018024206161499 -0.19469954073429108 0.098565869033336639 0.23346218466758728 0.048142135143280029 0.11566329747438431 0.23745787143707275 -0.32068467140197754 -0.0037984023801982403 0.23895250260829926 -0.28351151943206787 -0.13534735143184662 0.082197912037372589 -0.14898619055747986 0.012379704974591732 0.083989635109901428 -0.0054516592063009739 -0.10113804042339325 0.034420732408761978 -0.020475689321756363 -0.029264476150274277 -0.41691368818283081 0.3434370756149292 -0.22370898723602295 -0.05626765638589859 0.049787994474172592 0.12064453214406967 0.14739738404750824 0.078310444951057434 -0.1336614191532135 -0.095835380256175995 0.041505500674247742 0.10001770406961441 -0.5171358585357666 0.47602999210357666 0.041256338357925415 -0.54005491733551025 0.095999628305435181 0.071577981114387512 -0.067538179457187653 0.13508117198944092 0.020180180668830872 -0.13894248008728027 0.054921213537454605 0.093005381524562836 -0.78185033798217773 0.84317892789840698 0.95197123289108276 -0.90482974052429199 -0.2396472692489624 0.095986858010292053 -0.056690182536840439 -0.011537754908204079 0.23022142052650452 -0.17021220922470093 0.083989016711711884 0.17133629322052002
  0.96205908060073853 0.53994953632354736 0.61684304475784302 -0.38774806261062622 -0.5776599645614624 -0.27444624900817871 -0.23154643177986145 -0.29168900847434998 -0.18016223609447479 -0.1307084709405899 0.030012235045433044 -0.049410916864871979 0.11824623495340347 0.33782488107681274 0.18402096629142761 -0.40549018979072571 -0.46737748384475708 -0.20853662490844727 -0.31488928198814392 -0.054338835179805756 -0.027161506935954094 0.068949706852436066 0.18216472864151001 0.097019389271736145 0.3992505669593811 0.35821402072906494 0.2366633415222168 0.029858261346817017 -0.0068500032648444176 -0.072809219360351562 -0.22854897379875183 -0.080318592488765717 -0.083838768303394318 0.046798869967460632 0.099718213081359863 0.066876634955406189 0.080339863896369934 0.11079107224941254 0.020132424309849739 0.22725526988506317 0.14349721372127533 -0.044158950448036194 0.045748043805360794 -0.01269229780882597 -0.10966499149799347 0.046199925243854523 0.016508743166923523 -0.04467349499464035 -0.73268449306488037 -0.55963718891143799 -0.3157145082950592 0.047339480370283127 0.050452489405870438 0.17632710933685303 0.36366435885429382 -0.024553529918193817 0.026208030059933662 0.0085405884310603142 -0.025184223428368568 0.062451977282762527
  -0.20939068496227264 0.63633650541305542 0.14515294134616852 -1.0316241979598999 -0.054481957107782364 0.061181690543889999 -0.22557637095451355 0.066582754254341125 -0.073491081595420837 0.04532758891582489 0.26708263158798218 -0.18568499386310577 0.083245836198329926 -0.78032034635543823 -0.18289758265018463 0.42998334765434265 -0.22172802686691284 -0.14980241656303406 0.062673799693584442 0.052469938993453979 0.20036827027797699 0.11721732467412949 -0.015430265106260777 0.093261122703552246 0.43602481484413147 -0.087451264262199402 -0.32645136117935181 0.77291005849838257 0.024514930322766304 -0.12466324865818024 0.21616500616073608 -0.092733532190322876 0.04287293553352356 0.1205461248755455 -0.10960879921913147 0.059536371380090714 0.10216888040304184 0.051846068352460861 -0.016164824366569519 1.0046403408050537 0.41095784306526184 -0.16770610213279724 0.063378177583217621 -0.21278417110443115 -0.060892403125762939 0.15463599562644958 -0.21632228791713715 0.10583572834730148 0.56887519359588623 -0.43196675181388855 -0.047301165759563446 -0.38210698962211609 -0.25023055076599121 0.35998010635375977 -0.55372226238250732 -0.34501942992210388 -0.13313944637775421 -0.12875697016716003 0.18727162480354309 0.12273206561803818
  0.57086831331253052 -0.30813917517662048 -0.15191307663917542 -0.1437242329120636 0.15381342172622681 0.078350938856601715 0.017642421647906303 0.04892418161034584 0.16465815901756287 0.10289748758077621 -0.0054811635054647923 -0.015302378684282303 -0.36493277549743652 0.021720457822084427 -0.49065703153610229 -0.10615574568510056 0.22326555848121643 0.10776253789663315 -0.051030606031417847 -0.1500265896320343 0.15863217413425446 0.11434696614742279 0.089707590639591217 0.096815720200538635 -0.050932209938764572 -0.19408594071865082 -0.28065338730812073 -0.033408630639314651 -0.086928851902484894 -0.30076825618743896 -0.24368029832839966 -0.044640522450208664 0.32800722122192383 0.248713418841362 0.26653757691383362 0.16480199992656708 -0.48673328757286072 -0.41974174976348877 -0.28285318613052368 -0.048076529055833817 -0.15917614102363586 -0.28534343838691711 -0.20927006006240845 0.15771666169166565 0.31701794266700745 0.30504196882247925 0.26636913418769836 0.11667314916849136 -0.72184288501739502 0.45150578022003174 0.64913284778594971 0.1065564751625061 -0.50986897945404053 -0.23615822196006775 0.28081998229026794 0.36503276228904724 0.068127438426017761 0.29602703452110291 0.15393176674842834 0.14489248394966125
  0.32096502184867859 -0.053674988448619843 -0.3139369785785675 -0.11552954465150833 0.18575078248977661 0.28150808811187744 -0.11100554466247559 -0.031852323561906815 -0.14727497100830078 -0.093950793147087097 -0.027321180328726768 -0.042377613484859467 0.30560383200645447 0.048537619411945343 -0.20458757877349854 0.16810661554336548 0.19458368420600891 0.14874744415283203 0.15931354463100433 0.16783565282821655 -0.17518578469753265 -0.098262988030910492 0.043019350618124008 0.0065800454467535019 0.31617507338523865 -0.27346524596214294 -0.25862672924995422 0.3345586359500885 0.14329662919044495 0.069770477712154388 0.17530590295791626 0.20700474083423615 -0.11356328427791595 -0.13804294168949127 0.026262907311320305 -0.059807837009429932 -0.31367102265357971 -0.25097250938415527 -0.36726850271224976 0.13356523215770721 -0.066833741962909698 -0.016619782894849777 0.11388570815324783 0.15384559333324432 0.0083959056064486504 -0.0039554848335683346 0.10278449952602386 -0.021369107067584991 0.4290618896484375 -0.52435964345932007 -0.63088858127593994 -0.08074951171875 0.024458980187773705 -0.043146930634975433 0.14787939190864563 0.0059452629648149014 0.0040275715291500092 0.031893290579319 0.029504932463169098 -0.05825294554233551
  0.67232018709182739 0.14110833406448364 -0.089460305869579315 0.27432835102081299 -0.22855030000209808 0.18765720725059509 0.051214773207902908 -0.086008913815021515 0.06248793751001358 0.12111020088195801 0.038661088794469833 0.15331548452377319 -0.45809650421142578 -0.44321379065513611 -0.1155284121632576 -0.3062974214553833 -0.18929795920848846 0.084919139742851257 -0.04774455726146698 -0.057658005505800247 0.02718440443277359 0.063664339482784271 -0.10508750379085541 0.14807397127151489 -1.2391115427017212 -0.28558340668678284 -0.49347856640815735 -0.29042059183120728 0.42649981379508972 0.053643502295017242 -0.034905225038528442 0.018669946119189262 -0.11043792963027954 0.15180326998233795 -0.30825096368789673 0.21851705014705658 -1.7207180261611938 -0.23723706603050232 -0.3145827054977417 -0.10763294249773026 0.44843205809593201 -0.090936474502086639 -0.03464043140411377 0.14675663411617279 -0.066732734441757202 0.056380320340394974 -0.0010374051053076982 0.095838397741317749 2.0385706424713135 0.56095921993255615 0.86552292108535767 0.22356604039669037 -0.24594095349311829 -0.18080031871795654 -0.0039218459278345108 -0.16425597667694092 0.023320391774177551 -0.32276433706283569 0.40952613949775696 -0.40610605478286743
  -0.6047065258026123 0.22006739675998688 -0.044338934123516083 0.39882481098175049 0.31877049803733826 0.15756210684776306 0.19035664200782776 0.15162934362888336 0.090732567012310028 0.12797458469867706 -0.0073974225670099258 0.15110930800437927 -0.12089810520410538 -0.16126677393913269 -0.098854139447212219 0.13097923994064331 -0.0027806977741420269 0.10958134382963181 0.15715484321117401 0.0068372203968465328 0.066746294498443604 0.005960018839687109 0.049973718822002411 0.035968322306871414 -0.047630399465560913 -0.25954040884971619 -0.13735908269882202 -0.17508020997047424 -0.064371556043624878 0.052052929997444153 0.061217416077852249 -0.055121313780546188 -0.0047447206452488899 -0.072688274085521698 -0.03065410815179348 0.063815690577030182 -1.1988261938095093 -0.53989076614379883 -0.19329153001308441 -0.43482524156570435 -0.091749370098114014 -0.17856289446353912 -0.006456596776843071 -0.031819462776184082 0.068228863179683685 -0.11134637147188187 0.039995044469833374 -0.029551027342677116 4.9155888557434082 0.30438297986984253 1.2409055233001709 -0.82205879688262939 -0.55545401573181152 -0.81902205944061279 -0.63480591773986816 -0.71317493915557861 -0.19076119363307953 -0.30704015493392944 -0.25587433576583862 -0.8524785041809082
  -0.26508119702339172 -0.63527095317840576 -0.35476008057594299 -0.95601171255111694 0.3604891300201416 0.23260161280632019 0.098983354866504669 0.87759768962860107 0.23665986955165863 -0.17697764933109283 0.37367174029350281 -0.20872201025485992 0.42903348803520203 0.08308081328868866 0.091730482876300812 0.11195489019155502 -0.35831084847450256 0.10758253186941147 0.077096998691558838 -0.041580989956855774 0.011479683220386505 -0.096569858491420746 0.0020297158043831587 0.10716377943754196 0.39307749271392822 0.53580093383789062 0.022121956571936607 0.67843300104141235 -0.34125128388404846 0.18623985350131989 0.1571783721446991 -0.34604346752166748 -0.20849435031414032 0.046024356037378311 -0.11027687788009644 0.050757016986608505 -0.12873402237892151 0.46815478801727295 0.088927276432514191 0.52924412488937378 -0.23126417398452759 -0.04950188472867012 0.062586501240730286 -0.63709789514541626 -0.12291518598794937 0.16819247603416443 -0.2678089439868927 0.13505829870700836 0.00081557291559875011 -0.24629853665828705 -0.046540949493646622 -0.16548153758049011 0.56875067949295044 -0.29408356547355652 -0.44985640048980713 -0.097445972263813019 0.026859741657972336 0.17202615737915039 -0.2521110475063324 -0.15662874281406403
  -0.68807780742645264 0.020948393270373344 0.72217077016830444 -0.46123084425926208 -0.33711081743240356 0.18511207401752472 0.19715727865695953 -0.02199903316795826 -0.1192532479763031 0.070098571479320526 -0.0087293367832899094 -0.057739980518817902 0.061971705406904221 0.24694551527500153 0.13557827472686768 0.0069975731894373894 -0.062569603323936462 -0.018997197970747948 0.060173619538545609 -0.00030478512053377926 -0.1177632212638855 0.028711630031466484 0.04571131244301796 -0.070605672895908356 0.26983597874641418 -0.092068508267402649 -0.23841565847396851 0.23528964817523956 0.028474943712353706 -0.10443490743637085 -0.17839673161506653 0.095680423080921173 -0.04866737499833107 -0.00011009594891220331 0.009911135770380497 0.019195830449461937 0.29301086068153381 -0.12525251507759094 -0.67396068572998047 0.3250826895236969 0.26594248414039612 -0.0014879999216645956 -0.21867072582244873 0.11444246768951416 0.057068135589361191 -0.0028483706992119551 0.033683948218822479 0.0042194789275527 1.6335574388504028 -0.4250980019569397 -1.6934006214141846 0.58410936594009399 0.79110515117645264 -0.11198370903730392 -0.11777673661708832 0.038851369172334671 0.020874470472335815 0.12309204041957855 -0.023545693606138229 -0.0055376552045345306
  -0.12724784016609192 -0.013151568360626698 -0.35072222352027893 -0.055508621037006378 -0.33696311712265015 -0.34192320704460144 -0.21178914606571198 -0.10360173135995865 -0.17983132600784302 0.0045672585256397724 -0.005686719436198473 -0.052550405263900757 0.02079305611550808 -0.072663314640522003 -0.025388132780790329 -0.056795340031385422 -0.16453969478607178 -0.21809758245944977 -0.01633489690721035 0.024940608069300652 -0.035807766020298004 -0.013587049208581448 -0.036601487547159195 -0.048080373555421829 -0.090829044580459595 0.018438978120684624 -0.31411182880401611 -0.070243842899799347 -0.013213158585131168 -0.19798676669597626 0.0055327964946627617 -0.062409952282905579 -0.030802629888057709 0.032347779721021652 -0.084392964839935303 -0.036466952413320541 -0.17647933959960938 -0.2220776230096817 -0.46800228953361511 -0.26037219166755676 -0.17366370558738708 -0.12938638031482697 -0.033017121255397797 -0.070332013070583344 -0.029900353401899338 0.00019617601356003433 0.030213108286261559 -0.0016651303740218282 -0.56076318025588989 -0.29447329044342041 -0.32313317060470581 -0.43197709321975708 -0.34329968690872192 -0.47238335013389587 -0.39057570695877075 -0.22444742918014526 -0.26147383451461792 -0.017672352492809296 -0.067058943212032318 -0.085260570049285889
  -2.1488749980926514 0.049590189009904861 -0.51730382442474365 -0.12794700264930725 0.49743244051933289 0.4902569055557251 0.18793211877346039 -0.052886858582496643 0.048773925751447678 0.16603784263134003 -0.36483475565910339 0.00040821250877343118 0.12609118223190308 0.41321200132369995 -0.013127397745847702 0.24094457924365997 0.11712554097175598 0.051734320819377899 -0.033199060708284378 0.010737732984125614 -0.064251281321048737 0.065045945346355438 -0.21354858577251434 -0.081626132130622864 -0.1203560084104538 0.17347845435142517 0.034772325307130814 0.12598748505115509 0.20614723861217499 0.080742970108985901 -0.11543522030115128 0.16068877279758453 -0.018134411424398422 0.0033965341281145811 -0.13659770786762238 -0.1233951523900032 -0.2085186243057251 0.014677362516522408 -0.1753561794757843 -0.060485612601041794 0.070811115205287933 0.04578930139541626 -0.028990091755986214 0.19019836187362671 -0.033041529357433319 0.042306818068027496 -0.014803195372223854 -0.10344725847244263 -0.26173433661460876 0.0080809276551008224 -0.077870823442935944 -0.15449793636798859 -0.27418914437294006 0.045645061880350113 0.21231773495674133 0.1414695531129837 0.10665126144886017 -0.11437821388244629 0.13135220110416412 0.080183260142803192
  -1.3598132133483887 0.092125207185745239 0.77067697048187256 0.72635841369628906 -0.16600854694843292 -0.30741837620735168 0.044703133404254913 0.15689204633235931 -0.14609642326831818 -0.084565229713916779 0.055777069181203842 0.40052810311317444 -0.66654443740844727 -0.74168556928634644 -1.1649162769317627 -0.81881272792816162 -0.036231767386198044 0.28372940421104431 -0.044686418026685715 -0.022654477506875992 0.16717401146888733 0.20693421363830566 0.25654098391532898 0.15308962762355804 0.33201134204864502 -0.57861900329589844 -1.462712287902832 -0.92574244737625122 0.43579122424125671 0.54177850484848022 0.1404903382062912 -0.16995625197887421 -0.014119561761617661 0.15974780917167664 0.050789263099431992 -0.039191726595163345 0.67046421766281128 0.10506585240364075 -0.34529450535774231 -0.16376027464866638 0.27257934212684631 0.26471847295761108 0.046166885644197464 -0.006571570411324501 0.0084693925455212593 0.13507775962352753 -0.02678333967924118 -0.16482521593570709 0.60343241691589355 0.43685275316238403 1.2101411819458008 0.80512124300003052 -0.38752400875091553 -0.4962095320224762 -0.078427799046039581 0.27087253332138062 -0.05887233093380928 -0.18146428465843201 0.10910317301750183 0.11199770867824554
  0.087205924093723297 0.19861122965812683 0.96462118625640869 0.13967816531658173 -0.077843889594078064 0.19968774914741516 0.39413684606552124 -1.0284593105316162 -0.083828389644622803 0.54147768020629883 -0.43369442224502563 -0.06788364052772522 -0.54848212003707886 -0.21579796075820923 0.16365070641040802 -0.075071170926094055 -0.19867873191833496 -0.020078197121620178 0.15168870985507965 -0.48786994814872742 0.023932615295052528 0.25134006142616272 -0.10873138159513474 -0.050802763551473618 -0.079704679548740387 0.047920320183038712 0.060943875461816788 0.0041084042750298977 -0.32411772012710571 -0.027800394222140312 0.020645046606659889 -0.13026280701160431 -0.063591785728931427 -0.013407324440777302 0.032143715769052505 -0.025588857010006905 0.16399846971035004 0.13220703601837158 0.092719674110412598 0.20752404630184174 -0.11652898043394089 -0.28710409998893738 -0.08241281658411026 0.32931035757064819 -0.12771017849445343 -0.34289804100990295 0.20614057779312134 0.010531304404139519 0.88837593793869019 -0.13274967670440674 -1.1729723215103149 -0.14383326470851898 0.56453108787536621 -0.14220468699932098 -0.35707175731658936 1.2674314975738525 0.065318629145622253 -0.58444088697433472 0.25449645519256592 0.12627212703227997
  0.027208490297198296 -0.55215471982955933 -0.18062545359134674 -0.93703222274780273 -0.79123592376708984 -0.29080694913864136 0.018830530345439911 0.50087130069732666 0.46954503655433655 0.19401112198829651 -0.01667884923517704 -0.071191921830177307 0.44536593556404114 0.17141494154930115 0.13212370872497559 0.18892036378383636 -0.16443906724452972 -0.051993712782859802 0.0099053829908370972 0.079057648777961731 0.080099314451217651 0.049299880862236023 -0.017031963914632797 0.09996439516544342 0.20904777944087982 0.10062368214130402 0.09891510009765625 0.18571427464485168 -0.13353794813156128 -0.10328537970781326 -0.15943817794322968 0.0028091634158045053 -0.061638332903385162 0.032120343297719955 0.028988460078835487 0.063097923994064331 -0.71340286731719971 -0.10978873074054718 0.04636836051940918 0.096096716821193695 0.14118568599224091 -0.11275818943977356 -0.15313328802585602 0.055096894502639771 -0.12181131541728973 0.11887647956609726 0.15424402058124542 0.030881777405738831 -0.67655664682388306 0.34584912657737732 0.1116601899266243 0.65772491693496704 0.45473754405975342 0.28459012508392334 0.073584809899330139 -0.64369404315948486 -0.54060429334640503 -0.12689435482025146 0.065092973411083221 0.038093410432338715
  -3.0603883266448975 0.83869892358779907 -0.15118540823459625 0.13116161525249481 -0.26653715968132019 -0.19140143692493439 0.16224347054958344 0.29682379961013794 0.015376132912933826 -0.31446951627731323 0.12106327712535858 -0.14106504619121552 -0.2259145975112915 0.10455749928951263 -0.15313613414764404 0.025466909632086754 0.04307970404624939 -0.081019513309001923 0.081685580313205719 -0.04256482794880867 -0.059464775025844574 -0.017075151205062866 -0.030601391568779945 -0.045385304838418961 0.28083771467208862 -0.0040725995786488056 -0.32141143083572388 0.067432112991809845 0.12168844044208527 0.055809851735830307 0.035980220884084702 -0.090158693492412567 -0.042710412293672562 0.055689997971057892 -0.058553010225296021 -0.056491561233997345 0.64919018745422363 0.050699859857559204 -0.072805151343345642 0.12738396227359772 0.1484379917383194 0.1977856308221817 0.037573035806417465 0.0029942658729851246 -0.056398313492536545 0.040962431579828262 -0.045992892235517502 -0.076068654656410217 0.1852274090051651 0.076473735272884369 -0.019899763166904449 0.18500284850597382 0.079744510352611542 0.20595012605190277 0.098620489239692688 0.17440876364707947 -0.045211408287286758 0.095027327537536621 -0.097659848630428314 0.075163573026657104 ]
 [ -2.3076412677764893 -2.6591212749481201 -2.4349205493927002 -3.8728294372558594 -3.3179514408111572 1.6904222965240479 -0.34236794710159302 -0.82889699935913086 3.0309967994689941 -3.5365300178527832 -2.9369769096374512 2.5159826278686523 -1.2938389778137207 0.41226628422737122 0.38241890072822571 -1.3828601837158203 -2.9571754932403564 -2.366600513458252 -1.7363935708999634 -2.6012499332427979 -1.6097607612609863 0.72989434003829956 -1.5148769617080688 2.1040527820587158 0.11190187931060791 -3.1576619148254395 2.3700642585754395 1.742952823638916 -2.4904851913452148 2.4249272346496582 -2.2348153591156006 -1.3633646965026855 3.7740542888641357 -1.6813898086547852 -1.4950907230377197 -0.484000563621521 -4.003532886505127 2.7508316040039062 2.4373092651367188 -1.1663777828216553 -1.0335344076156616 2.756136417388916 -2.5866875648498535 2.3622384071350098 2.2747740745544434 -1.3350081443786621 -0.82274258136749268 -3.1293814182281494 -2.2616138458251953 -0.22511270642280579 2.5263934135437012 -2.5051684379577637 2.1817252635955811 4.0357437133789062 2.2923848628997803 -3.6508076190948486 4.1700148582458496 -0.90300309658050537 -3.2634847164154053 -3.4240977764129639 -0.54653871059417725 0.73375004529953003 -4.3296127319335938 0.53715568780899048 -0.29386112093925476 -3.2493762969970703 0.21320927143096924 -2.7913765907287598 3.6911807060241699 0.53316968679428101 0.66796219348907471 -1.1802122592926025 -2.9445631504058838 2.8069248199462891 -5.6353325843811035 ]
<sigmoid> 75 75
<affinetransform> 33 75
 [ 
  -1.4633040428161621 -0.39893651008605957 -0.94426953792572021 -0.91938662528991699 -0.83393353223800659 -0.13938224315643311 -0.36786511540412903 0.3023267388343811 -0.75241947174072266 -0.067168347537517548 0.12941136956214905 -0.36243158578872681 0.66557246446609497 -0.73468458652496338 0.54373794794082642 -0.12748882174491882 -0.47276350855827332 0.68298459053039551 -0.54082167148590088 -1.0914545059204102 -0.12905709445476532 0.058503512293100357 -1.0372227430343628 -0.002681660233065486 -0.9624708890914917 0.39326369762420654 -0.27729430794715881 -0.50728613138198853 0.5591508150100708 -0.89860272407531738 -0.22447139024734497 -0.96874409914016724 -0.25371482968330383 -0.03751218318939209 -0.076977953314781189 0.26223891973495483 -0.51704394817352295 0.71981841325759888 0.7509649395942688 0.240343376994133 0.80856508016586304 1.2549891471862793 -0.55443298816680908 0.015760259702801704 -0.017557278275489807 -0.38523951172828674 -0.14118462800979614 -0.30661502480506897 0.6404796838760376 0.22781722247600555 0.42361259460449219 -0.46073266863822937 1.1150633096694946 0.11987072229385376 -0.33421355485916138 -0.23806408047676086 0.06933196634054184 0.62879842519760132 -0.28688502311706543 -0.33646804094314575 0.15832445025444031 -0.067818939685821533 -0.19310483336448669 -0.36305779218673706 -0.15460330247879028 -0.74519789218902588 -0.64231055974960327 -0.39787769317626953 1.9295293092727661 0.13552482426166534 0.64647394418716431 0.20211407542228699 -1.0093561410903931 -0.81551259756088257 1.0629174709320068
  0.13182225823402405 0.020675985142588615 -0.44941231608390808 0.89078646898269653 0.40641182661056519 -0.66896623373031616 -0.39504897594451904 0.083381928503513336 -0.61953818798065186 -0.37651017308235168 1.1167359352111816 0.1696011871099472 1.0012491941452026 -0.42077481746673584 0.31095987558364868 1.0360069274902344 1.2261546850204468 -0.081048041582107544 0.59535378217697144 0.23502704501152039 0.24050115048885345 0.98708629608154297 -0.2437874972820282 -0.11642378568649292 -0.87565279006958008 -0.16714926064014435 0.41625210642814636 0.62125968933105469 -0.58694332838058472 -0.50621545314788818 0.25840499997138977 0.70807325839996338 0.63970136642456055 -0.33677774667739868 -0.056651689112186432 0.3270021378993988 0.56663656234741211 0.19818079471588135 -0.081346206367015839 0.18633602559566498 -0.014901784248650074 -0.98410230875015259 1.090040922164917 -0.018916819244623184 0.15994541347026825 0.056416656821966171 -0.34365439414978027 -0.91959738731384277 -0.50961512327194214 -0.2608722448348999 -2.2024898529052734 0.080409161746501923 -0.57247245311737061 -0.79356616735458374 0.19034387171268463 0.35629326105117798 0.49997210502624512 -0.48535361886024475 1.2446458339691162 -0.11294515430927277 0.11273200809955597 -0.3735649585723877 0.45998567342758179 1.0950081348419189 -0.18598121404647827 -0.67972660064697266 0.35491818189620972 -0.07334466278553009 1.0377416610717773 0.14557665586471558 -1.3023203611373901 0.13058702647686005 -0.43487608432769775 -0.32950058579444885 0.43598324060440063
  -0.29416146874427795 0.70494788885116577 -0.51363092660903931 -0.64304834604263306 -0.28837200999259949 -0.58788925409317017 0.14761210978031158 -0.5178489089012146 -2.388005256652832 0.78908765316009521 1.515912652015686 -0.25860515236854553 -1.2809461355209351 -0.12154541164636612 -1.1541788578033447 -1.2625513076782227 1.1370507478713989 -0.25735726952552795 -0.2243058979511261 -0.59450268745422363 0.70313739776611328 -0.22163087129592896 0.57087469100952148 -0.058272220194339752 -0.56663036346435547 0.38723814487457275 1.2151997089385986 -0.37725839018821716 0.24528264999389648 -0.24868424236774445 -0.71271580457687378 0.19972103834152222 0.69185978174209595 -0.64645624160766602 0.87535196542739868 -0.40269464254379272 -0.99586319923400879 0.050774920731782913 -0.16081592440605164 0.35759401321411133 -0.35547372698783875 0.53742867708206177 0.50591659545898438 0.40420308709144592 -0.68146532773971558 0.040953174233436584 0.41060817241668701 -1.0207279920578003 -1.7714508771896362 -1.4560776948928833 0.42657142877578735 0.17785362899303436 -0.26305675506591797 0.63519573211669922 -0.075053371489048004 0.055322363972663879 0.38943535089492798 0.55506002902984619 0.6424521803855896 1.6668214797973633 -0.88946586847305298 0.26291105151176453 0.30574333667755127 0.19281113147735596 0.048118539154529572 -0.33199810981750488 0.093155629932880402 -0.26841038465499878 -0.089995555579662323 0.33822309970855713 -0.75210732221603394 0.36300018429756165 -0.18492259085178375 0.17536281049251556 0.3400857150554657
