<Nnet>
<input> 60 60
<affinetransform> 88 60
 [ 
  -0.63481104373931885 -0.20311394333839417 0.51490342617034912 0.65054053068161011 -0.096266232430934906 -0.24057209491729736 0.02012847363948822 0.11105501651763916 0.17368873953819275 -0.070703774690628052 -0.11795409023761749 0.031848553568124771 -0.08775445818901062 0.24830767512321472 0.13561795651912689 0.44329768419265747 0.038303043693304062 -0.17567890882492065 -0.073873497545719147 -0.012480822391808033 -0.058636248111724854 0.053005814552307129 -0.12375486642122269 0.2328735888004303 0.28121018409729004 0.36657953262329102 -0.10374028980731964 0.09803462028503418 -0.074759013950824738 -0.010538686066865921 0.076711662113666534 0.046553276479244232 -0.10744214057922363 0.048258751630783081 0.0363200344145298 0.13059338927268982 0.79561203718185425 0.30215239524841309 -0.36857876181602478 -0.33987560868263245 -0.16136723756790161 0.18083018064498901 0.15756790339946747 -0.10778935998678207 -0.018603816628456116 0.087055541574954987 0.0188162662088871 -0.11790008842945099 0.11281192302703857 -1.1666991710662842 -0.92100667953491211 -1.305633544921875 0.38877111673355103 0.63319569826126099 0.11516875773668289 -0.065559618175029755 0.22384189069271088 0.11361675709486008 0.13283273577690125 -0.28573060035705566
  -0.56209975481033325 -0.2514781653881073 0.21989971399307251 0.5536884069442749 -0.028323952108621597 -0.39787605404853821 -0.30553218722343445 0.11529820412397385 0.41911718249320984 0.20864285528659821 -0.24718001484870911 -0.34783682227134705 0.33166328072547913 -0.30831801891326904 0.22015681862831116 0.3314550518989563 0.21426530182361603 -0.25557062029838562 -0.33779814839363098 -0.0091043319553136826 0.33894255757331848 0.14306925237178802 -0.10918303579092026 -0.41474810242652893 -0.22064363956451416 -0.49027818441390991 -0.036557000130414963 0.15354405343532562 0.25838294625282288 -0.19699856638908386 -0.24306556582450867 -0.01592584140598774 0.19345693290233612 0.14794112741947174 -0.18861865997314453 -0.34914132952690125 0.024073615670204163 -0.11933720111846924 -0.021651687100529671 -0.03951600193977356 0.16034944355487823 -0.035360801964998245 -0.088561728596687317 -0.024344479665160179 0.076691143214702606 0.028322950005531311 -0.086087867617607117 -0.14503198862075806 0.0032576217781752348 0.063511498272418976 0.18543952703475952 0.32791510224342346 0.050408679991960526 -0.036646571010351181 -0.11950355023145676 -0.049257855862379074 0.015845585614442825 -0.027329973876476288 0.044012546539306641 -0.0015417392132803798
  0.18451191484928131 -0.91371893882751465 -0.30654579401016235 -0.008410613052546978 0.32791125774383545 -0.030234584584832191 -0.079433627426624298 -0.43665376305580139 -0.041181169450283051 -0.1203017383813858 -0.069985747337341309 -0.097067318856716156 -0.071879833936691284 0.39908617734909058 0.0029102109838277102 0.11261411011219025 0.034064952284097672 -0.080200023949146271 -0.092618748545646667 -0.1871759295463562 -0.25461387634277344 0.10354561358690262 0.26290452480316162 0.14107301831245422 0.44188171625137329 1.0139412879943848 0.82565832138061523 0.30250653624534607 -0.46052929759025574 -0.26218622922897339 -0.20788346230983734 0.11197198182344437 -0.034394614398479462 0.058916497975587845 0.25465574860572815 0.13666579127311707 0.93202674388885498 0.19202055037021637 0.80181902647018433 -0.20426534116268158 -0.88318389654159546 -0.39712464809417725 -0.010207283310592175 0.21056932210922241 0.23575960099697113 -0.17281299829483032 0.038687996566295624 -0.00042424752609804273 -0.37634798884391785 -1.3333649635314941 -1.5003107786178589 -0.69842129945755005 0.76619744300842285 0.3286145031452179 0.47060665488243103 0.49549257755279541 0.60101509094238281 0.2210930734872818 -0.43913042545318604 -0.28149628639221191
  0.096777617931365967 -0.10540115088224411 -0.29516643285751343 0.22981265187263489 0.13149356842041016 -0.20308302342891693 0.02891683392226696 0.18487805128097534 -0.037783849984407425 -0.10059457272291183 0.16800680756568909 -0.21038496494293213 -0.16615632176399231 0.074064329266548157 0.031759999692440033 -0.03445173054933548 -0.063298791646957397 -0.01536899246275425 0.1829192191362381 -0.054120402783155441 0.039819296449422836 -0.0018904958851635456 0.048871740698814392 -0.027846492826938629 -0.25883647799491882 -0.093198485672473907 0.40684518218040466 -0.16818694770336151 -0.30836734175682068 -0.00012981187319383025 0.28933227062225342 -0.27436047792434692 -0.00076566741336137056 0.15241077542304993 -0.014092075638473034 -0.061277765780687332 -0.1487271636724472 0.0078070526942610741 0.60024112462997437 -0.081851348280906677 -0.46228963136672974 0.11410257965326309 0.35830050706863403 -0.41455799341201782 -0.11882145702838898 0.31173059344291687 -0.055763576179742813 -0.10929308831691742 -0.90907758474349976 0.041234336793422699 0.97702562808990479 -0.14310352504253387 -0.51048636436462402 0.30857741832733154 0.43163740634918213 -0.67717218399047852 -0.16946022212505341 0.57227855920791626 -0.39173558354377747 -0.07235553115606308
  1.0718477964401245 -0.49764782190322876 0.25415891408920288 0.27970987558364868 -0.26197877526283264 0.13843764364719391 0.34150037169456482 -0.35687282681465149 0.48970010876655579 -0.23837085068225861 0.11006242781877518 -0.062713667750358582 0.31889656186103821 -0.36017853021621704 0.24029570817947388 0.24981027841567993 -0.5978807806968689 0.21438075602054596 0.11471947282552719 -0.36047601699829102 0.38688212633132935 -0.3948342502117157 0.23284982144832611 -0.18134775757789612 -0.12515608966350555 -0.10929208248853683 -0.32850831747055054 0.06531059741973877 -0.16232384741306305 0.24295085668563843 -0.0066780685447156429 -0.095634795725345612 0.01291371788829565 -0.15321967005729675 0.085073351860046387 -0.18214668333530426 -1.3723535537719727 0.61211365461349487 -0.4950544536113739 -0.15977068245410919 0.52876198291778564 0.0035242615267634392 -0.06957726925611496 0.26139363646507263 -0.17662535607814789 0.036758262664079666 -0.18492165207862854 0.0029230802319943905 -0.91970056295394897 0.6429937481880188 0.28064975142478943 -0.38476324081420898 0.51068300008773804 -0.50348615646362305 -0.43257305026054382 0.597808837890625 -0.53394401073455811 0.81970065832138062 -0.1542498767375946 0.36777901649475098
  -0.69077074527740479 -0.62208139896392822 0.44175362586975098 0.69277095794677734 -0.048845376819372177 -0.59174615144729614 -0.18096175789833069 0.72389483451843262 0.24673934280872345 -0.50310617685317993 -0.3312019407749176 0.18842014670372009 -0.43411228060722351 -0.19862185418605804 0.28819391131401062 0.10379964113235474 -0.022134175524115562 -0.38171905279159546 -0.08999904990196228 0.44091564416885376 0.064125224947929382 -0.2438790500164032 -0.066649042069911957 0.23503154516220093 -0.40315893292427063 -0.086825914680957794 0.073228128254413605 -0.1944640725851059 -0.072070278227329254 -0.29399463534355164 -0.15274235606193542 0.16563624143600464 0.15568436682224274 -0.016019664704799652 -0.030670406296849251 0.040842875838279724 -0.04845191165804863 -0.002914738841354847 -0.01673734188079834 -0.29903420805931091 0.048955488950014114 -0.041173726320266724 -0.15576890110969543 -0.047612056136131287 0.19259251654148102 0.10786708444356918 -0.07112700492143631 -0.24060645699501038 0.71183270215988159 0.079088941216468811 0.17285135388374329 0.52753621339797974 -0.1968318372964859 0.11607139557600021 0.44124594330787659 -0.33279967308044434 -0.35195589065551758 0.12613171339035034 0.01882336288690567 -0.42779874801635742
  -1.0419157743453979 0.24539144337177277 0.58042728900909424 -0.57424145936965942 -0.27290478348731995 0.18099284172058105 0.043894603848457336 -0.24600942432880402 -0.012888313271105289 0.16147466003894806 0.13277480006217957 -0.055881727486848831 -0.34570726752281189 0.10262909531593323 0.60719841718673706 0.0037431202363222837 -0.31952682137489319 0.16641151905059814 0.10370330512523651 -0.26000753045082092 -0.056042946875095367 0.14783322811126709 0.049710940569639206 -0.015778422355651855 -0.36732840538024902 0.10292831063270569 0.61339408159255981 -0.00039476962410844862 -0.40911701321601868 -0.11606011539697647 0.059274397790431976 0.0068567297421395779 -0.12753951549530029 0.0016516853356733918 0.061663500964641571 0.023180032148957253 -0.24496540427207947 0.2401488870382309 0.26249584555625916 0.15917621552944183 -0.23382590711116791 -0.04782809317111969 0.041158735752105713 0.085226260125637054 -0.10780066251754761 -0.091240443289279938 0.040521524846553802 0.082875601947307587 0.51198530197143555 -0.20451901853084564 -0.56980049610137939 0.19346089661121368 0.061286326497793198 0.015675323083996773 0.074308648705482483 0.088893100619316101 0.021405516192317009 0.044971242547035217 0.068396098911762238 0.12579971551895142
  1.4500000476837158 0.00018603881471790373 1.3161144256591797 0.88492858409881592 -1.0016020536422729 -0.77444463968276978 0.050359498709440231 0.1464751809835434 -0.021427532657980919 -0.092069976031780243 -0.1549840122461319 -0.00068116944748908281 0.3144679069519043 -0.062167849391698837 0.43644571304321289 0.14308704435825348 -0.4814077615737915 -0.40800285339355469 -0.062858693301677704 0.059913028031587601 0.1337260901927948 -0.074798159301280975 -0.078174762427806854 0.042314387857913971 -0.086781583726406097 -0.1427505761384964 -0.043741475790739059 -0.35886585712432861 -0.13749885559082031 -0.073263652622699738 -0.11962033808231354 0.045164581388235092 0.091524727642536163 -0.058727849274873734 -0.010675052180886269 0.055406726896762848 0.068722635507583618 -0.0389077328145504 -0.34059637784957886 -0.48851734399795532 0.14437921345233917 0.20932677388191223 -0.055300269275903702 0.13109470903873444 -0.052732117474079132 -0.089169658720493317 0.063076384365558624 -0.036527030169963837 -0.73542249202728271 0.33740133047103882 -0.67987632751464844 -0.032472308725118637 0.54306715726852417 0.21973633766174316 -0.0024849323090165854 0.055596571415662766 -0.16569004952907562 -0.12532477080821991 -0.025292694568634033 -0.10801701992750168
  -0.63128954172134399 0.15478891134262085 -0.44839960336685181 0.073257505893707275 0.29127904772758484 0.16923362016677856 0.35015061497688293 0.13205194473266602 0.028266571462154388 0.051032237708568573 0.024528918787837029 0.17090873420238495 0.230860635638237 -0.32492050528526306 0.11384267359972 -0.045358918607234955 -0.072098925709724426 0.03676721453666687 -0.14303557574748993 0.03971390426158905 -0.026474893093109131 -0.032180823385715485 0.046749677509069443 0.022408947348594666 0.3497769832611084 -0.28141459822654724 -0.068965449929237366 -0.53247255086898804 -0.34087082743644714 -0.12532463669776917 -0.33921888470649719 -0.15448878705501556 -0.10302523523569107 -0.11078295111656189 0.10366334766149521 -0.12059135735034943 0.098279848694801331 -0.55181032419204712 0.12652166187763214 -0.49056026339530945 -0.43363937735557556 -0.34028291702270508 -0.41490623354911804 -0.11573734134435654 -0.070931881666183472 -0.22948770225048065 0.027320945635437965 -0.10354972630739212 1.7590038776397705 1.0646077394485474 1.151357889175415 1.1116074323654175 0.78396785259246826 0.17505937814712524 0.27275955677032471 -0.25471031665802002 -0.060516200959682465 -0.2714422345161438 -0.55705225467681885 -0.3342348039150238
  -0.3071269690990448 0.34373018145561218 -0.55494588613510132 0.034526322036981583 0.39444828033447266 0.43423712253570557 0.29337215423583984 -0.22196148335933685 -0.12492968142032623 0.17301212251186371 0.016022782772779465 0.23527011275291443 0.018911160528659821 0.021381283178925514 -0.098999723792076111 0.10320950299501419 0.028632808476686478 -0.18110588192939758 -0.16142834722995758 -0.10935712605714798 -0.036357831209897995 0.047686092555522919 -0.01967080682516098 0.084174402058124542 0.029120504856109619 -0.26450467109680176 0.33518269658088684 -0.021588459610939026 -0.23633085191249847 -0.41768059134483337 -0.21499088406562805 -0.013553474098443985 -0.034143127501010895 -0.019554173573851585 -0.14617371559143066 -0.072800487279891968 -0.19227440655231476 -0.70364499092102051 -0.060985799878835678 0.045118432492017746 -0.43547701835632324 -0.4088141918182373 -0.2519858181476593 -0.0026520779356360435 0.17283868789672852 -0.01591871865093708 -0.10230874270200729 -0.13041211664676666 -0.12913084030151367 -1.1930077075958252 0.87261247634887695 0.22077231109142303 -0.49002736806869507 -0.14524884521961212 -0.047353733330965042 -0.27845907211303711 -0.062103930860757828 -0.31043535470962524 0.056465413421392441 0.076881848275661469
  0.50161057710647583 0.76603710651397705 -0.16451260447502136 0.16568394005298615 0.15922558307647705 0.047986552119255066 -0.086377851665019989 0.050717305392026901 -0.30002245306968689 0.08346635103225708 0.42415395379066467 0.18365645408630371 -0.13304716348648071 0.27376139163970947 0.54818248748779297 0.31559795141220093 -0.16434766352176666 0.063443973660469055 -0.097429811954498291 -0.19036100804805756 -0.077521204948425293 0.12028132379055023 0.057424344122409821 0.073962949216365814 -0.16754239797592163 -0.077030971646308899 0.60751575231552124 0.21145489811897278 -0.027698468416929245 -0.00078920647501945496 -0.023543706163764 -0.30897986888885498 0.025263717398047447 0.076141610741615295 -0.078072719275951385 -0.011325717903673649 -0.4906952977180481 -0.53518056869506836 0.12386646866798401 -0.12756805121898651 0.056520771235227585 0.068681731820106506 0.044900186359882355 -0.28563728928565979 0.12290541082620621 0.016503555700182915 -0.11301757395267487 -0.0092479893937706947 0.71659260988235474 -1.1073639392852783 -1.4897059202194214 -0.74124258756637573 0.72964233160018921 0.49207305908203125 0.35249701142311096 0.56286722421646118 0.31749898195266724 -0.066668294370174408 -0.37783545255661011 -0.51877695322036743
  -0.14134664833545685 0.20237375795841217 0.30076220631599426 -0.45212048292160034 -0.96313893795013428 -0.49341553449630737 -0.025198055431246758 0.63751876354217529 0.73512226343154907 0.2646058201789856 -0.1513562947511673 0.077794857323169708 0.20133036375045776 0.025079689919948578 -0.41071739792823792 -0.52970683574676514 -0.48170396685600281 0.10287201404571533 0.23819002509117126 -0.11982639133930206 -0.019256317988038063 0.035399846732616425 -0.012940771877765656 -0.011506877839565277 -0.8020637035369873 -0.24563871324062347 -0.24161393940448761 -0.058476079255342484 0.24549068510532379 0.28574424982070923 0.019346045330166817 0.0057769380509853363 -0.10452233254909515 -0.01367596909403801 0.052282873541116714 -0.039188724011182785 -0.91288465261459351 -0.20708069205284119 0.39013251662254333 0.47348561882972717 0.78564208745956421 0.14779171347618103 -0.11687391251325607 -0.1080670952796936 -0.41735729575157166 -0.045333720743656158 0.14988218247890472 -0.010051434859633446 0.92580908536911011 -0.15335702896118164 -0.050636813044548035 0.88005995750427246 0.85832816362380981 0.32817775011062622 0.036618530750274658 -0.46543172001838684 -0.43452334403991699 -0.27832469344139099 0.039900790899991989 -0.054167579859495163
  -0.0078247133642435074 -0.36410528421401978 -0.070253625512123108 0.21673999726772308 0.26608410477638245 -0.22652263939380646 0.037569038569927216 0.05157586932182312 -0.030627747997641563 -0.11546596884727478 -0.06503073126077652 0.25371012091636658 0.051232114434242249 -0.33305391669273376 -0.14064522087574005 0.047810975462198257 0.28748553991317749 -0.036927644163370132 -0.16771917045116425 7.8210141509771347e-06 0.085770323872566223 0.021379327401518822 0.028340650722384453 0.12529662251472473 0.15808415412902832 -0.1643715500831604 -0.12573349475860596 -0.14643400907516479 0.22065237164497375 0.1913173496723175 -0.23888738453388214 -0.1918904036283493 0.090878099203109741 0.029707908630371094 0.10987914353609085 0.10746747255325317 0.6460641622543335 0.28107878565788269 -0.069559313356876373 -0.43081122636795044 0.081206142902374268 0.27419638633728027 -0.045272864401340485 -0.25517013669013977 -0.14470106363296509 0.075615726411342621 0.29888194799423218 0.0059795971028506756 0.94241428375244141 0.55820655822753906 -0.16049587726593018 -0.41190657019615173 -0.29561352729797363 0.5550047755241394 0.38836723566055298 -0.32122766971588135 -0.6770254373550415 -0.08609279990196228 0.31034836173057556 0.017277002334594727
  0.032657813280820847 0.17950689792633057 -0.034598495811223984 0.23653323948383331 0.26512598991394043 0.43766996264457703 0.1452627032995224 -0.15033039450645447 0.053944159299135208 -0.0010626718867570162 -0.23172928392887115 -0.10670004785060883 -1.0976505279541016 -0.34278053045272827 -0.074248470366001129 0.38410204648971558 0.34708279371261597 0.23586010932922363 0.18754500150680542 0.19918105006217957 0.017984934151172638 0.037564750760793686 -0.074618108570575714 -0.034744076430797577 -0.19818016886711121 0.38028609752655029 0.34785941243171692 0.51727086305618286 0.40684917569160461 0.041732359677553177 0.12731580436229706 0.13311368227005005 -0.048193879425525665 -0.027404645457863808 -0.067271552979946136 0.028294125571846962 1.5217112302780151 1.1278507709503174 0.69890868663787842 0.32325738668441772 -0.089410006999969482 -0.45635807514190674 -0.32191962003707886 -0.30191215872764587 -0.29098793864250183 -0.23275494575500488 -0.037013765424489975 -0.053684435784816742 0.71621441841125488 -0.9963034987449646 -0.62352919578552246 -1.3301273584365845 -1.0155016183853149 -0.48343843221664429 -0.33653026819229126 -0.069870740175247192 0.27485641837120056 0.10318535566329956 0.47717517614364624 -0.075947895646095276
  0.26091161370277405 -0.97117477655410767 -1.5096625089645386 0.13364453613758087 1.2071733474731445 0.31937989592552185 -0.44273748993873596 -0.24421815574169159 0.84514892101287842 0.12677894532680511 -0.85486209392547607 -0.045563254505395889 -0.33502349257469177 -0.06191277876496315 0.74004358053207397 0.20878300070762634 -0.51501065492630005 -0.11184661835432053 -0.041096929460763931 0.25447118282318115 0.040382012724876404 -0.23732392489910126 0.03010246530175209 0.3479958176612854 -0.19058363139629364 0.29171258211135864 0.96890497207641602 -0.007927674800157547 -0.72258543968200684 -0.1920025646686554 0.0039991959929466248 0.26709118485450745 -0.26949384808540344 -0.31947749853134155 0.35813525319099426 0.22026515007019043 -0.26480704545974731 0.29194369912147522 0.57479274272918701 -0.24440895020961761 -0.26217421889305115 -0.23235964775085449 0.14625808596611023 0.25344553589820862 -0.29710090160369873 -0.18723323941230774 0.26960459351539612 -0.0057362252846360207 0.40910619497299194 0.47084817290306091 -0.61223989725112915 0.0724373459815979 0.1416161060333252 -0.21831583976745605 0.26266098022460938 0.043789234012365341 -0.21875743567943573 0.2235567718744278 0.20504960417747498 -0.31066820025444031
  -0.056696046143770218 -0.090529114007949829 0.077778086066246033 0.10365521907806396 -0.24385905265808105 -0.063179999589920044 0.2622702419757843 0.015668198466300964 0.25425362586975098 0.081028491258621216 -0.16739504039287567 -0.10088066011667252 -0.55105417966842651 0.15278097987174988 0.42544671893119812 -0.41834747791290283 -0.2225746214389801 0.0065552010200917721 0.042901340872049332 -0.22433392703533173 0.14653602242469788 0.21285858750343323 -0.14624296128749847 -0.078834369778633118 -0.41814577579498291 0.31736475229263306 0.3630792498588562 -0.51085597276687622 -0.1774846613407135 -0.033660590648651123 0.024398770183324814 -0.23715108633041382 0.27167639136314392 0.27107527852058411 -0.20760138332843781 -0.082316391170024872 0.11438347399234772 0.30709505081176758 0.64432781934738159 -0.30749255418777466 -0.17126098275184631 -0.11752722412347794 -0.045752514153718948 -0.073394045233726501 0.20323488116264343 0.10324506461620331 -0.14187406003475189 -0.057143785059452057 -0.37954041361808777 0.52277857065200806 0.015359694138169289 -0.16823320090770721 -0.33091580867767334 0.0044115516357123852 0.15330672264099121 0.31408563256263733 0.17667113244533539 -0.16858102381229401 0.021290279924869537 0.089835420250892639
  1.5591349601745605 0.45003467798233032 -0.98215091228485107 -1.468477725982666 -0.58640003204345703 0.76250284910202026 0.65142065286636353 -0.11334262788295746 -0.13674770295619965 0.2135528177022934 0.21163468062877655 0.0013312925584614277 -0.11067701131105423 0.061730805784463882 -0.096295028924942017 0.085534319281578064 -0.083102047443389893 0.034965574741363525 0.21684296429157257 0.11278680711984634 -0.013072330504655838 -0.1688179224729538 -0.16434650123119354 -0.017513701692223549 -0.058550417423248291 -0.28769755363464355 -0.27167892456054688 -0.022582788020372391 0.072926819324493408 -0.21072742342948914 -0.15662631392478943 0.18427826464176178 0.21688291430473328 -0.042884483933448792 -0.074215762317180634 -0.039850015193223953 -0.18950332701206207 -0.074147321283817291 0.088846080005168915 0.3635915219783783 0.23911480605602264 -0.17770473659038544 -0.16750498116016388 0.019025970250368118 0.07309790700674057 -0.0031897928565740585 -0.074948713183403015 -0.039382684975862503 -0.069632917642593384 0.047050002962350845 0.30515599250793457 0.36725431680679321 0.069303646683692932 0.072028614580631256 -0.062816008925437927 0.061155498027801514 -0.093741565942764282 -0.070814378559589386 -0.04099983349442482 -0.15617744624614716
  -1.2957814931869507 1.0485852956771851 -0.21927623450756073 0.049486849457025528 0.046146206557750702 -0.068248778581619263 -0.17005559802055359 0.18353351950645447 -0.13191580772399902 -0.16273404657840729 0.081596203148365021 -0.18619704246520996 -0.83014470338821411 0.45298147201538086 -0.24270275235176086 -0.13310855627059937 -0.010487310588359833 0.038578588515520096 -0.022678155452013016 0.15514291822910309 -0.052002478390932083 -0.12517067790031433 0.06728634238243103 0.0054742880165576935 -0.41076987981796265 0.19411954283714294 -0.25426220893859863 0.00115151924546808 -0.020691055804491043 -0.051185667514801025 0.011484421789646149 0.05713915079832077 -0.021968169137835503 -0.029981879517436028 -0.06592569500207901 0.1081063523888588 -0.14310969412326813 0.042261306196451187 -0.031464774161577225 0.063001736998558044 -0.092338129878044128 -0.04579569399356842 -0.0052479468286037445 0.054396480321884155 0.073498807847499847 0.01459463220089674 0.014026302844285965 0.06528058648109436 0.9575924277305603 -0.25093129277229309 0.16070611774921417 0.020712237805128098 0.20233948528766632 0.010932209901511669 -0.0014094804646447301 -0.018853243440389633 0.047011546790599823 0.12138999253511429 -0.031802132725715637 -0.022008650004863739
  0.93499714136123657 1.0524944067001343 0.64963960647583008 1.4835758209228516 1.0901646614074707 0.2450346052646637 -0.20208023488521576 -0.618416428565979 -0.34165728092193604 -0.35420680046081543 -0.46836274862289429 -0.12875819206237793 1.1502077579498291 0.092878267168998718 0.43343600630760193 0.054464306682348251 -0.21629822254180908 -0.22373265027999878 -0.10389354825019836 -0.28706857562065125 -0.12397633492946625 -0.040060058236122131 0.030707625672221184 -0.10606860369443893 0.45109406113624573 -0.72229987382888794 0.17322656512260437 -0.61665451526641846 -0.57323694229125977 -0.29606541991233826 -0.13625562191009521 0.033405136317014694 0.058554958552122116 0.0028619165532290936 0.1759093850851059 -0.1182045191526413 -0.15810836851596832 -0.26875972747802734 -0.17477267980575562 -0.41144901514053345 -0.076742641627788544 -0.029578153043985367 -0.088951632380485535 -0.037711791694164276 -0.016834381967782974 0.039849001914262772 0.041938118636608124 -0.12773121893405914 -0.12769621610641479 0.11660634726285934 -0.11345726251602173 -0.21782457828521729 -0.18336062133312225 0.052372191101312637 0.17571674287319183 0.029552081599831581 -0.092754147946834564 0.024901252239942551 -0.033304106444120407 0.069958329200744629
  0.0023045563139021397 0.23122839629650116 0.31593704223632812 0.088457673788070679 -0.6621776819229126 0.37895277142524719 0.076977171003818512 0.24959182739257812 -0.21746732294559479 -0.11948082596063614 0.14393432438373566 0.0020758612081408501 -0.072226196527481079 0.39397332072257996 -0.2986590564250946 0.1655653715133667 -0.17713646590709686 0.17051546275615692 -0.13154061138629913 0.35314580798149109 -0.3351292610168457 0.1877676397562027 -0.091428846120834351 0.044883172959089279 0.14514642953872681 0.063021183013916016 -0.58036202192306519 0.33560842275619507 -0.043465949594974518 -0.089269191026687622 -0.19830173254013062 0.31398823857307434 -0.36074984073638916 0.24503666162490845 -0.11429958790540695 0.16206832230091095 0.10670241713523865 -0.11797434836626053 -0.64346474409103394 0.25532203912734985 0.10893541574478149 -0.11003482341766357 -0.26703435182571411 0.29853668808937073 -0.30303150415420532 0.30643391609191895 0.015460856258869171 0.15132823586463928 0.21640042960643768 0.35202279686927795 -0.62395113706588745 0.17278069257736206 0.27334299683570862 -0.14459839463233948 -0.4942181408405304 0.49972540140151978 -0.38383233547210693 0.1017640233039856 0.022351427003741264 0.2018839418888092
  0.84299230575561523 -0.39228659868240356 -1.0636460781097412 -0.60880380868911743 0.61554497480392456 0.075155742466449738 -0.56475734710693359 0.18060855567455292 0.34625557065010071 0.15384541451931 0.068454064428806305 -0.12388476729393005 0.95640361309051514 0.040151096880435944 -0.43843761086463928 -0.2571789026260376 0.35645502805709839 0.18873849511146545 -0.055602714419364929 -0.09219639003276825 0.084059722721576691 0.06849699467420578 0.090670108795166016 -0.034030281007289886 0.40969234704971313 0.16599093377590179 -0.15747566521167755 -0.1184871718287468 -0.021363914012908936 0.070943929255008698 0.021952653303742409 0.066608510911464691 -0.00011644093319773674 0.068853653967380524 0.057400010526180267 0.021709408611059189 0.16664649546146393 0.32433745265007019 0.10358911752700806 0.1113775223493576 -0.14388029277324677 0.091716453433036804 0.092384502291679382 0.0035224873572587967 0.036428719758987427 0.029406996443867683 0.050236620008945465 0.020238939672708511 -0.69704645872116089 -0.19090405106544495 0.3666921854019165 0.29492297768592834 -0.24984623491764069 -0.14027130603790283 0.35203582048416138 -0.14501680433750153 -0.20258204638957977 -0.0049403253942728043 -0.018973620608448982 0.11981929838657379
  -0.86804026365280151 0.41160032153129578 -0.2661798894405365 0.030801795423030853 0.48346933722496033 -0.1602918803691864 -0.092196054756641388 0.32616832852363586 -0.021134290844202042 -0.078287675976753235 -0.033437680453062057 0.035241145640611649 0.084383681416511536 0.15222981572151184 0.0021263659000396729 -0.35643813014030457 0.20824018120765686 -0.33214631676673889 0.10527734458446503 0.1159270703792572 -0.16717758774757385 0.082062602043151855 0.024817446246743202 -0.13335728645324707 0.054914310574531555 0.13557709753513336 -0.093123473227024078 -0.24978162348270416 0.28444457054138184 -0.31728553771972656 0.14248433709144592 -0.0046703387051820755 -0.10641089826822281 0.099124319851398468 0.035922612994909286 -0.044325150549411774 -0.16705708205699921 0.35193216800689697 -0.024163233116269112 -0.061983309686183929 0.17624394595623016 -0.1541469544172287 0.045733701437711716 -0.026060326024889946 -0.1527574211359024 0.017199615016579628 0.075046703219413757 0.056991301476955414 -0.51243245601654053 -0.38093125820159912 -0.16765502095222473 -0.14773726463317871 -0.11288177222013474 0.0061271772719919682 0.14692938327789307 -0.045406527817249298 0.14602698385715485 -0.076778814196586609 -0.028173632919788361 0.03624371811747551
  -0.28831064701080322 0.36517226696014404 0.31777462363243103 -0.76425141096115112 0.19019702076911926 0.075640313327312469 -0.38287168741226196 0.80032777786254883 0.35885894298553467 -0.33264535665512085 0.23950093984603882 0.091715969145298004 0.14152269065380096 -0.11290179193019867 -0.24209927022457123 0.010624837130308151 -0.24436371028423309 0.00034927536034956574 0.041667994111776352 0.10658576339483261 0.035897295922040939 -0.0061885658651590347 0.073741257190704346 0.078031659126281738 0.41037049889564514 0.032556481659412384 -0.35217595100402832 0.57067662477493286 -0.10325206816196442 -0.12424140423536301 0.28274035453796387 -0.20659714937210083 -0.25818637013435364 0.12687720358371735 -0.06513185054063797 -0.085787832736968994 0.5943065881729126 0.15752343833446503 -0.073114991188049316 1.0601783990859985 -0.025097504258155823 -0.32769691944122314 0.24778914451599121 -0.66984289884567261 -0.35760506987571716 0.25829517841339111 -0.26259773969650269 -0.0363939069211483 0.89859914779663086 -0.21943649649620056 0.28292077779769897 -0.0071542039513587952 -0.081855274736881256 0.20785535871982574 -0.054030947387218475 -0.707511305809021 -0.32359680533409119 -0.016030758619308472 -0.25151452422142029 -0.032820865511894226
  0.61974096298217773 -0.47354552149772644 0.26974526047706604 -0.25705143809318542 0.18575446307659149 0.18038851022720337 0.23180514574050903 -0.15098923444747925 -0.15327350795269012 0.083968363702297211 -0.17815586924552917 -0.11391779780387878 -1.1096343994140625 -0.097503364086151123 -0.15624339878559113 0.23045976459980011 0.25184902548789978 -0.011519123800098896 -0.047750476747751236 0.022069221362471581 0.10297854244709015 0.099361732602119446 -0.087277956306934357 0.022347729653120041 -1.1277644634246826 0.22672149538993835 0.070540100336074829 0.24602730572223663 0.12887905538082123 0.12922105193138123 -0.16071867942810059 -0.034664653241634369 0.11937125027179718 0.019021190702915192 -0.026588840410113335 -0.1046677902340889 -0.93412834405899048 -0.053854312747716904 0.24703992903232574 0.16269649565219879 0.0098062139004468918 0.059534277766942978 -0.011772477999329567 0.017511336132884026 0.005138949491083622 -0.031939655542373657 0.074399828910827637 -0.04468175396323204 -0.22788935899734497 -0.51962321996688843 -0.43407344818115234 -0.016549881547689438 0.043956063687801361 0.025637822225689888 -0.19362422823905945 0.085732236504554749 0.01882050558924675 -0.034699283540248871 0.07297525554895401 -0.036725912243127823
  -0.66644042730331421 1.0510290861129761 0.44310170412063599 -0.17349117994308472 0.19264179468154907 0.017695300281047821 -0.24373112618923187 -0.2297617495059967 -0.4578891396522522 0.72878503799438477 -0.0091851102188229561 -0.21528854966163635 0.30972012877464294 -0.43932077288627625 -0.16064979135990143 -0.038648340851068497 -0.16065247356891632 -0.28646042943000793 0.012058018706738949 -0.023421136662364006 0.13866159319877625 0.16053861379623413 0.10566474497318268 -0.13603059947490692 0.15214626491069794 -0.41111448407173157 -0.3078920841217041 0.2516322135925293 0.028975909575819969 -0.19973152875900269 0.20719166100025177 -0.093143031001091003 0.24190656840801239 -0.39892682433128357 0.034979995340108871 0.039886552840471268 0.27883496880531311 -0.48527681827545166 -0.052780166268348694 0.20878534018993378 -0.044817809015512466 -0.14257559180259705 0.23564790189266205 -0.06379728764295578 0.27320995926856995 -0.57100152969360352 0.024604983627796173 0.25162297487258911 1.3062219619750977 -0.27641415596008301 -0.1699577271938324 -0.013161223381757736 -0.0385177843272686 0.087298870086669922 -0.099913224577903748 -0.15139029920101166 0.36257544159889221 -0.50266396999359131 0.0078544532880187035 0.14469434320926666
  -0.38937896490097046 0.37336143851280212 0.73795431852340698 0.088776633143424988 -0.11825859546661377 0.17552913725376129 -0.45398968458175659 -0.65270811319351196 -0.46013456583023071 0.0027258258778601885 0.10062003880739212 0.44034317135810852 0.33189675211906433 0.076688781380653381 -0.44467532634735107 0.093840382993221283 0.44127508997917175 0.24393568933010101 -0.18783479928970337 -0.15613164007663727 0.096564747393131256 -0.034662526100873947 -0.1309131383895874 -0.16467010974884033 0.31102266907691956 0.38306954503059387 -0.60579425096511841 0.10058148950338364 0.80890518426895142 0.33120018243789673 0.12520334124565125 -0.18364863097667694 -0.062548860907554626 -0.16071502864360809 -0.22835846245288849 -0.25544619560241699 -0.50172954797744751 0.11634612828493118 -0.060678023844957352 0.018803736194968224 0.30115652084350586 0.23403474688529968 0.2638842761516571 -0.018663531169295311 -0.18702775239944458 -0.14796897768974304 0.03230150043964386 0.029402906075119972 -0.060751877725124359 -0.17639593780040741 0.60292458534240723 -0.2711123526096344 -0.56038504838943481 -0.1598530113697052 0.024758761748671532 0.17862139642238617 0.13313491642475128 0.20075766742229462 -0.1430591344833374 0.12450506538152695
  0.4635864794254303 -0.41336145997047424 0.31293994188308716 -0.096853964030742645 -0.068783462047576904 -0.11013789474964142 -0.0032828010153025389 0.033232893794775009 -0.05823294073343277 -0.021309206262230873 -0.019511152058839798 0.11997158080339432 -0.45119035243988037 0.30525726079940796 0.16086651384830475 -0.14350526034832001 0.081443950533866882 -0.031737890094518661 0.025080149993300438 0.16767694056034088 -0.12163925170898438 0.072478599846363068 0.036495644599199295 -0.043236192315816879 -0.88041937351226807 0.14153429865837097 0.14145876467227936 -0.32141393423080444 0.071268007159233093 -0.079506270587444305 0.10356540232896805 0.096088476479053497 -0.16519992053508759 0.085857458412647247 0.032049503177404404 -0.032511014491319656 0.14182323217391968 0.32669401168823242 -0.069184422492980957 -0.079911932349205017 0.17005656659603119 -0.11426939070224762 0.028071863576769829 0.014879724942147732 0.016873959451913834 0.07217840850353241 -0.042121667414903641 -0.075201675295829773 1.2629667520523071 0.15124675631523132 -1.8605960607528687 1.2268328666687012 0.14617197215557098 -0.016878165304660797 0.18947447836399078 -0.30598297715187073 0.19496552646160126 0.2437010258436203 -0.13026992976665497 -0.21028642356395721
  -0.28068196773529053 -0.41623350977897644 0.10948162525892258 -0.083473503589630127 -0.042384181171655655 -0.050743911415338516 -0.26764374971389771 -0.12063359469175339 0.025466402992606163 0.081272318959236145 0.12989053130149841 0.16687858104705811 -0.036423023790121078 0.39559480547904968 -0.25108826160430908 0.091815218329429626 0.27071312069892883 -0.025911387056112289 -0.11667696386575699 -0.05068545788526535 -0.13316424190998077 -0.096759162843227386 0.0053457929752767086 -0.026569418609142303 0.43818482756614685 0.46951788663864136 0.15825115144252777 0.14130114018917084 0.099142484366893768 -0.063690036535263062 -0.19938243925571442 -0.2088983952999115 -0.16657267510890961 -0.26259809732437134 -0.0099013485014438629 0.01385602168738842 0.57215261459350586 0.41565650701522827 0.33818027377128601 0.16964741051197052 0.161544069647789 -0.14545491337776184 -0.3114781379699707 -0.26965329051017761 -0.1069723442196846 -0.12131259590387344 -0.042568489909172058 0.011682183481752872 0.21675711870193481 0.35511329770088196 0.50837910175323486 -0.043789535760879517 -0.47208061814308167 -0.32027733325958252 -0.52130705118179321 -0.3492186963558197 -0.022807281464338303 0.20075103640556335 0.25041055679321289 0.32020062208175659
  -0.79029017686843872 -0.065739735960960388 -0.20478823781013489 -0.040377259254455566 0.085407480597496033 0.14064545929431915 -0.077099740505218506 0.037892498075962067 -0.074049688875675201 -0.082054585218429565 -0.028761498630046844 -0.024811310693621635 -0.6118924617767334 0.35076004266738892 -0.089550934731960297 0.29864683747291565 -0.0042179878801107407 -0.13267631828784943 0.030531842261552811 -0.0083427242934703827 0.29045045375823975 -0.22391830384731293 0.21347497403621674 -0.057610400021076202 -0.45601150393486023 0.34310933947563171 -0.19550450146198273 0.41556388139724731 -0.18623948097229004 0.040143266320228577 0.16312162578105927 -0.39005276560783386 0.27522575855255127 -0.26093310117721558 0.29555097222328186 -0.18098516762256622 -0.35911431908607483 -0.011270291171967983 -0.39586004614830017 -0.017087593674659729 -0.22867752611637115 0.07140534371137619 0.13034874200820923 -0.31462359428405762 0.11684902012348175 -0.089768484234809875 0.29396134614944458 -0.12850490212440491 0.32463163137435913 0.21401922404766083 -0.19668933749198914 -0.051644299179315567 -0.18790873885154724 -0.25668185949325562 -0.015092475339770317 -0.45649829506874084 0.15637238323688507 -0.054740399122238159 0.16824223101139069 -0.21249362826347351
  0.55071794986724854 -0.43908706307411194 -1.1207776069641113 -0.97074830532073975 0.38606888055801392 0.36225157976150513 -0.27803769707679749 -0.34925872087478638 0.46319442987442017 0.47878533601760864 -0.021363921463489532 -0.24675573408603668 0.47237616777420044 -0.20052726566791534 -0.16479869186878204 0.38437199592590332 0.05050387978553772 -0.27175414562225342 -0.19685672223567963 0.1069229319691658 0.24939000606536865 0.013158286921679974 -0.27930322289466858 -0.063030354678630829 0.044825945049524307 -0.16686122119426727 0.061480753123760223 0.49616581201553345 -0.19361017644405365 -0.43560820817947388 -0.099529832601547241 0.47212579846382141 0.14619384706020355 -0.075583748519420624 -0.27926808595657349 -0.079771675169467926 -0.25934502482414246 0.29079598188400269 0.38430607318878174 0.35142609477043152 -0.28148210048675537 -0.2187027633190155 0.047713831067085266 0.20515419542789459 -0.13215777277946472 -0.10376022756099701 0.022454071789979935 0.054322574287652969 -0.75256335735321045 0.254707932472229 1.141901969909668 0.14279253780841827 -0.36179199814796448 -0.19315233826637268 0.18009848892688751 -0.27320218086242676 -0.60706311464309692 -0.28456738591194153 0.32850980758666992 0.26544016599655151
  1.7337462902069092 0.026445778086781502 -0.012962092645466328 0.40644517540931702 -0.1146717444062233 0.058011583983898163 -0.17401239275932312 -0.14174194633960724 -0.05090240016579628 0.14621853828430176 -0.34173133969306946 -0.15801949799060822 0.58686155080795288 0.35441455245018005 0.16986383497714996 0.48767167329788208 0.38937711715698242 0.20525984466075897 0.11393439024686813 0.063848502933979034 -0.12097690999507904 0.11073185503482819 -0.17024324834346771 -0.038971342146396637 -0.85683035850524902 0.079356878995895386 -0.090571373701095581 -0.086947016417980194 0.066558815538883209 0.025769779458642006 0.1078818142414093 0.28963476419448853 -0.097344711422920227 -0.14888834953308105 0.11010939627885818 0.13080862164497375 -2.0631608963012695 -0.070430770516395569 -0.19317232072353363 -0.24032148718833923 0.084208488464355469 -0.15806408226490021 -0.021678749471902847 0.29586619138717651 0.028995605185627937 -0.11164009571075439 0.15399570763111115 0.083439171314239502 -0.63482588529586792 -0.28213676810264587 0.084294192492961884 -0.36933964490890503 -0.13924840092658997 -0.07893969863653183 -0.0063353581354022026 -0.44570839405059814 0.30722135305404663 0.034517824649810791 0.25023347139358521 -0.019431332126259804
  -0.32166180014610291 0.81761050224304199 0.53817826509475708 0.80149132013320923 0.87982296943664551 0.023228313773870468 0.13458523154258728 -0.078007429838180542 -0.2463931143283844 -0.13993142545223236 -0.28776857256889343 -0.15295764803886414 0.52800154685974121 -0.45303276181221008 -0.07804485410451889 -0.39260581135749817 -0.53349846601486206 -0.16248208284378052 -0.079835951328277588 0.17602238059043884 0.30481493473052979 0.23885819315910339 0.30877119302749634 0.19626542925834656 1.4280564785003662 -0.84074532985687256 -0.7681698203086853 -1.0535708665847778 -1.4024677276611328 -0.29686823487281799 -0.12448754906654358 0.021163748577237129 0.22266483306884766 0.26371550559997559 0.3715241551399231 0.20157332718372345 0.16646257042884827 -0.08803674578666687 -0.61445510387420654 -0.35433495044708252 -0.23763015866279602 0.16153262555599213 0.032239224761724472 -0.10890744626522064 -0.02565571665763855 0.096208550035953522 -0.093965515494346619 -0.14628732204437256 -1.2633925676345825 0.50421571731567383 0.83446419239044189 1.2176789045333862 1.2412686347961426 0.11539604514837265 -0.096863694489002228 -0.16086481511592865 -0.24648089706897736 -0.32489511370658875 -0.25381070375442505 -0.18100722134113312
  -0.38300436735153198 0.15390010178089142 -0.13862882554531097 0.20400248467922211 0.47543793916702271 -0.032930713146924973 -0.03198714554309845 0.027269693091511726 -0.012476328760385513 0.031139727681875229 -0.098013602197170258 0.13800978660583496 0.36730867624282837 -0.3573269248008728 -0.19274693727493286 -0.45867988467216492 -0.017625955864787102 0.049978703260421753 0.073984481394290924 0.26636666059494019 0.25027871131896973 -0.16069537401199341 -0.27428701519966125 -0.2683027982711792 0.33555600047111511 -0.95215135812759399 -0.69876760244369507 -0.33235514163970947 0.33215978741645813 0.11849889159202576 0.054263252764940262 0.25822499394416809 0.38379192352294922 -0.14225268363952637 -0.16250419616699219 -0.34454017877578735 0.64959609508514404 -0.29318362474441528 -0.14054873585700989 0.0077421674504876137 0.17244699597358704 -0.088492751121520996 0.0025391986127942801 0.12440278381109238 0.17696967720985413 -0.1069212481379509 -0.13042210042476654 -0.23305252194404602 0.16468976438045502 0.32085537910461426 0.11610037088394165 0.17985144257545471 0.46678370237350464 -0.1133420541882515 -0.060206454247236252 0.0042137741111218929 0.12102445960044861 0.18437008559703827 -0.0094120921567082405 -0.036579079926013947
  1.2310307025909424 -0.57691860198974609 -1.4056353569030762 -0.56100451946258545 0.75269842147827148 0.22145272791385651 -0.30729007720947266 -0.015356884337961674 0.49640771746635437 0.36911389231681824 0.11276985704898834 -0.13246463239192963 -0.10900294035673141 0.094366312026977539 0.17580941319465637 -0.25686585903167725 -0.10204463452100754 0.39531755447387695 0.21661601960659027 -0.15267239511013031 -0.17147867381572723 -0.020250635221600533 0.15923379361629486 0.29182210564613342 -0.74975770711898804 0.10384868085384369 0.52676385641098022 0.032757535576820374 -0.4273686408996582 0.13516740500926971 0.37123847007751465 0.0086328396573662758 -0.34263160824775696 -0.20546296238899231 0.063523650169372559 0.35476875305175781 -0.22671395540237427 0.14492063224315643 0.43351590633392334 -0.014340165071189404 -0.18231794238090515 0.036366201937198639 0.17479178309440613 -0.045461904257535934 -0.32371553778648376 -0.3032875657081604 -0.092715375125408173 0.12327104806900024 0.070573456585407257 0.564727783203125 0.76093006134033203 0.63134676218032837 0.24038375914096832 -0.21504120528697968 -0.1493811309337616 -0.16139562427997589 -0.22319449484348297 -0.47356915473937988 -0.46944695711135864 -0.40669733285903931
  0.91546773910522461 0.84457993507385254 -0.3640485405921936 0.3299049437046051 0.48418021202087402 -0.022679110988974571 -0.018085215240716934 0.25320661067962646 -0.58657705783843994 0.0095059871673583984 0.21446815133094788 -0.11611779034137726 -0.11775404959917068 -0.12050531804561615 -0.37724286317825317 0.08090653270483017 -0.013828233815729618 -0.19382354617118835 -0.10099774599075317 0.00038369424873962998 -0.033729430288076401 0.026736056432127953 0.0072754640132188797 -0.10503075271844864 -0.39977246522903442 -0.69178617000579834 0.31534501910209656 0.22897292673587799 -0.48720863461494446 -0.36345779895782471 -0.046434905380010605 0.06160307303071022 0.072565890848636627 -0.070667363703250885 0.022059712558984756 0.11003375798463821 -0.70616859197616577 -0.19974313676357269 0.55754315853118896 0.22707386314868927 -0.26335728168487549 -0.26709562540054321 -0.010536471381783485 0.096182815730571747 -0.013071063905954361 -0.10411179065704346 -0.11817076057195663 0.15440328419208527 -0.23614329099655151 0.099045328795909882 0.61269867420196533 -0.0089614745229482651 -0.27552682161331177 -0.16759240627288818 -0.073067359626293182 0.3820938766002655 -0.06832866370677948 -0.40098974108695984 0.12953422963619232 0.21168726682662964
  0.78726649284362793 0.27591964602470398 -0.1533842533826828 0.18276947736740112 0.045940287411212921 0.025713209062814713 -0.19225402176380157 -0.018968364223837852 -0.032238300889730453 -0.037979558110237122 -0.17748402059078217 -0.0033404959831386805 -0.21798497438430786 -0.45077759027481079 0.044023711234331131 -0.18761487305164337 -0.19183163344860077 0.073020681738853455 0.012602639384567738 -0.022519370540976524 0.079118281602859497 -0.093166440725326538 -0.0091928225010633469 0.20192480087280273 -0.018621351569890976 -0.72256797552108765 0.1656193882226944 0.26377850770950317 -0.44781798124313354 0.090396776795387268 0.23534767329692841 -0.16234159469604492 0.177665114402771 -0.15760362148284912 -0.024029145017266273 0.17144042253494263 -0.092784211039543152 -0.24470628798007965 0.16942347586154938 0.29213190078735352 -0.61383724212646484 0.1318323016166687 0.36719772219657898 -0.20810145139694214 0.17160864174365997 -0.088105440139770508 -0.035347513854503632 0.23804593086242676 0.69870138168334961 -0.19461151957511902 -0.30507174134254456 0.49933871626853943 -0.16785506904125214 -0.17263960838317871 0.48799470067024231 0.014947123825550079 -0.10555817931890488 0.29667028784751892 -0.19291922450065613 0.045681789517402649
  2.4780318737030029 -0.61217248439788818 0.60911887884140015 -0.724132239818573 -1.1952815055847168 -0.27325919270515442 0.074518576264381409 -0.084183849394321442 0.075462847948074341 0.031806498765945435 0.067273266613483429 -0.24790790677070618 -0.15382589399814606 0.3262728750705719 -0.10957420617341995 0.48514309525489807 0.61873883008956909 0.2519930899143219 0.24897377192974091 0.1876458078622818 0.025081370025873184 -0.1354195773601532 -0.25924453139305115 -0.14005269110202789 -0.31254050135612488 0.090413346886634827 -0.28591451048851013 0.1899714469909668 0.48452469706535339 -0.025488076731562614 0.17275203764438629 0.18609341979026794 -0.071501806378364563 -0.11324861645698547 -0.14339333772659302 -0.062920957803726196 0.030581561848521233 -0.15754060447216034 0.1655103862285614 -0.092336632311344147 0.095756411552429199 -0.15757495164871216 -0.13422273099422455 -0.081782683730125427 -0.16064862906932831 -0.15971469879150391 0.075801059603691101 0.10671549290418625 0.071504130959510803 0.19633230566978455 0.10334717482328415 -0.047674328088760376 0.18126380443572998 0.10597908496856689 -0.180166095495224 -0.38201647996902466 -0.30696612596511841 -0.086831547319889069 0.17072764039039612 0.22740438580513
  0.54050725698471069 0.17539264261722565 -0.13466431200504303 -0.29441824555397034 0.058438841253519058 0.13136103749275208 0.16010046005249023 0.19676379859447479 -0.54733425378799438 0.12405961006879807 0.51170790195465088 -0.22692902386188507 -0.94027036428451538 -0.20908026397228241 0.74269682168960571 0.047223169356584549 -0.4812280535697937 -0.12156232446432114 0.27400735020637512 -0.09883088618516922 0.074721068143844604 -0.19079454243183136 0.023786474019289017 0.066210947930812836 -0.78167527914047241 -0.63021016120910645 0.82187259197235107 0.3336510956287384 -0.30087572336196899 -0.33179813623428345 0.10603491216897964 -0.14955505728721619 0.28582665324211121 -0.11253264546394348 -0.21901682019233704 0.18223269283771515 0.45587617158889771 -0.45193633437156677 0.05256267637014389 0.40869373083114624 0.055318564176559448 -0.3244304358959198 -0.3116607666015625 0.13119038939476013 0.27297812700271606 0.02517046220600605 -0.15791822969913483 0.039965663105249405 1.0102128982543945 0.7442551851272583 -1.5694706439971924 -0.44959932565689087 0.81597262620925903 0.39692524075508118 -0.43625980615615845 -0.026957716792821884 0.0057708611711859703 0.29003620147705078 -0.070614472031593323 -0.074436843395233154
  0.24349026381969452 -0.34856522083282471 -0.31506401300430298 -0.74881094694137573 -0.47931578755378723 -0.51011711359024048 -0.1662667989730835 -0.27441224455833435 -0.24846544861793518 0.05667969211935997 0.13370369374752045 -0.22336485981941223 0.075719073414802551 -0.12535452842712402 0.17209582030773163 -0.079962588846683502 -0.049992218613624573 -0.15233893692493439 -0.12963530421257019 -0.14975053071975708 -0.111667200922966 0.0071236193180084229 -0.038348555564880371 -0.074894241988658905 -0.096370048820972443 -0.14346024394035339 0.088014200329780579 -0.067879155278205872 -0.072002202272415161 -0.12732923030853271 -0.1067245751619339 -0.1436755359172821 -0.11172497272491455 0.0012162636267021298 -0.073484472930431366 0.010549291968345642 -0.1133640855550766 -0.14269031584262848 -0.11495105177164078 -0.087586678564548492 -0.15962548553943634 -0.13379490375518799 -0.041731406003236771 -0.10580398887395859 -0.027056625112891197 -0.0010419784812256694 0.031237220391631126 0.061411872506141663 -0.27576851844787598 -0.34615853428840637 -0.37169381976127625 -0.30278030037879944 -0.13917016983032227 -0.4894879162311554 -0.348370760679245 -0.17758917808532715 -0.15866005420684814 -0.093171551823616028 0.012651856057345867 0.015148256905376911
  0.6636282205581665 0.17992216348648071 -0.2147333174943924 0.41962072253227234 -0.28214773535728455 -0.060476522892713547 -0.15402020514011383 -0.090046405792236328 0.08301650732755661 0.25882524251937866 -0.13253191113471985 0.12230589985847473 0.29115679860115051 0.014610318467020988 -0.27797436714172363 -0.46010369062423706 -0.29570856690406799 -0.0036604530178010464 -0.09292466938495636 0.15599527955055237 0.16426776349544525 0.077349789440631866 0.11687987297773361 -0.093503966927528381 0.0099763469770550728 0.045545868575572968 -0.25722554326057434 -0.81175637245178223 -0.30762794613838196 -0.19252289831638336 0.0010420536855235696 0.29812595248222351 0.077748313546180725 -0.11971946060657501 0.14425097405910492 0.00031019822927191854 -0.42416879534721375 0.031971864402294159 0.036709688603878021 -0.28694555163383484 -0.23539429903030396 -0.2992476224899292 -0.0069974181242287159 0.27388551831245422 -0.025295184925198555 -0.1445622444152832 0.14541536569595337 0.12587398290634155 -0.72390073537826538 0.42110550403594971 -0.13278743624687195 0.38324105739593506 -0.084340043365955353 0.21622782945632935 -0.118905209004879 0.31981110572814941 0.40467339754104614 0.025217581540346146 -0.03609832376241684 -0.0079040192067623138
  -1.4888089895248413 0.24642424285411835 0.43647581338882446 0.34300562739372253 -0.60352188348770142 -0.54239004850387573 0.23815938830375671 0.49331375956535339 0.2676016092300415 -0.50752413272857666 -0.14437068998813629 0.090823233127593994 -0.24046929180622101 -0.095600977540016174 0.2270088791847229 0.1857827752828598 -0.4901597797870636 -0.1595018208026886 0.40893834829330444 0.11654386669397354 -0.087134428322315216 -0.13386650383472443 0.061129949986934662 0.031330019235610962 -0.31378775835037231 -0.26185113191604614 -0.20391206443309784 0.19146423041820526 -0.17478235065937042 -0.1896519809961319 0.21653643250465393 0.11817499250173569 -0.21158468723297119 -0.025408564135432243 0.0026174047961831093 0.058050580322742462 0.0092658717185258865 0.030524116009473801 -0.24169419705867767 0.05892336368560791 0.15693485736846924 -0.12622728943824768 0.064884252846240997 0.06159915030002594 -0.1642964631319046 0.085439607501029968 -0.036033786833286285 -0.043219391256570816 0.22556896507740021 0.1922098845243454 -0.26587373018264771 -0.115147665143013 -0.039770524948835373 0.057775598019361496 0.075057774782180786 0.15446272492408752 -0.13492666184902191 -0.026242580264806747 0.028945460915565491 -0.090002082288265228
  0.024173425510525703 -0.40807822346687317 -0.32862916588783264 -0.63328826427459717 -0.28457513451576233 -0.085028842091560364 -0.12700155377388 0.17933563888072968 0.090695761144161224 -0.035439833998680115 0.13430415093898773 -0.074706397950649261 0.053422369062900543 0.26203992962837219 0.58028489351272583 0.45288661122322083 -0.090946227312088013 -0.41134819388389587 -0.25173497200012207 0.28907293081283569 0.26927047967910767 0.0084226084873080254 -0.1630014181137085 -0.1240922287106514 -0.28703555464744568 0.160831019282341 0.31188967823982239 0.33829349279403687 -0.10277405381202698 -0.21075439453125 -0.0037633161991834641 0.45546701550483704 0.25427868962287903 0.021725850179791451 -0.20200981199741364 -0.14251741766929626 -0.37688204646110535 0.33928325772285461 0.036903530359268188 0.043335307389497757 0.033028893172740936 0.28807398676872253 0.25923106074333191 0.2285304069519043 0.032054651528596878 0.019470592960715294 -0.20540003478527069 -0.069401554763317108 -0.90723109245300293 0.50497633218765259 -0.2013750821352005 0.007377848494797945 -0.01559858862310648 0.53761506080627441 0.48318472504615784 -0.24114525318145752 -0.44803225994110107 -0.39408305287361145 0.061300169676542282 0.36704063415527344
  -1.0673151016235352 -0.61787182092666626 -1.019527792930603 -0.28004854917526245 0.36839556694030762 0.29796141386032104 0.70398062467575073 0.76084452867507935 0.45982074737548828 0.13829515874385834 -0.23057954013347626 -0.21224993467330933 -0.30859866738319397 -0.89947259426116943 -0.72872519493103027 -0.84488499164581299 -0.71242338418960571 -0.13121409714221954 0.079673416912555695 0.36805009841918945 0.26244497299194336 0.21401804685592651 0.29520070552825928 0.070639446377754211 -0.19673794507980347 0.13450141251087189 0.30386346578598022 0.036559782922267914 -0.27943360805511475 -0.045641250908374786 -0.089389093220233917 -0.059475138783454895 -0.012271333485841751 0.037618532776832581 0.12880627810955048 0.13857914507389069 0.27243578433990479 0.49077260494232178 0.55276304483413696 0.32314887642860413 0.13756328821182251 0.043734915554523468 0.026662737131118774 -0.19708006083965302 -0.089774854481220245 -0.043737635016441345 0.022424880415201187 0.08512173593044281 1.03571617603302 0.35519525408744812 0.22303347289562225 0.45575219392776489 0.37635636329650879 -0.076980963349342346 -0.2359381765127182 -0.28454476594924927 -0.12525835633277893 -0.13268989324569702 -0.20048923790454865 -0.14784926176071167
  -0.76915335655212402 -0.27887976169586182 -0.58589363098144531 -0.58138757944107056 -0.7055199146270752 -0.337522953748703 0.11235728114843369 -0.23631425201892853 -0.056426789611577988 0.12437989562749863 0.1253773421049118 0.14160603284835815 1.0012264251708984 -0.55815380811691284 -0.14370733499526978 -0.79331713914871216 -0.76396328210830688 -0.56864535808563232 -0.35808083415031433 -0.083558127284049988 0.11883068084716797 0.20128652453422546 0.24314427375793457 0.1124659925699234 0.63716500997543335 0.51023727655410767 0.52338266372680664 0.26012036204338074 0.30894875526428223 0.083381675183773041 -0.25797659158706665 -0.10435827076435089 -0.11840976029634476 -0.044710971415042877 -0.23054248094558716 -0.14123660326004028 0.086012750864028931 0.88575088977813721 0.56741464138031006 0.75004935264587402 0.75408846139907837 0.45581689476966858 0.27046239376068115 0.16577166318893433 -0.094468094408512115 -0.33323389291763306 -0.36993107199668884 -0.35184919834136963 0.71618592739105225 -0.38830253481864929 -0.026895979419350624 -0.1356278657913208 -0.0027451934292912483 0.18827167153358459 0.28698030114173889 0.18703971803188324 0.19313175976276398 -0.25655224919319153 -0.057366471737623215 -0.017727581784129143
  0.46719807386398315 0.017796019092202187 -0.39154583215713501 0.81995820999145508 0.53683477640151978 -0.020750472322106361 0.11177977174520493 -0.026594970375299454 0.013945620507001877 -0.098547682166099548 -0.16809971630573273 -0.2235332727432251 0.11944261938333511 0.1302591860294342 -0.13571961224079132 0.12799209356307983 0.44846025109291077 0.16411375999450684 0.046093054115772247 -0.039651945233345032 -0.11991051584482193 -0.068768084049224854 -0.098716579377651215 -0.029915094375610352 -0.4191376268863678 0.10526053607463837 -0.10348652303218842 -0.0094936629757285118 0.30158522725105286 0.32828375697135925 0.21378578245639801 0.11158689856529236 -0.020389329642057419 -0.25946381688117981 -0.31738775968551636 0.079851746559143066 -0.38250470161437988 0.083850182592868805 -0.24042050540447235 -0.31970453262329102 -0.061761356890201569 0.29167872667312622 0.10542269796133041 0.13735176622867584 0.06774362176656723 -0.20678634941577911 -0.19778904318809509 0.016842655837535858 -0.38626226782798767 -0.16242733597755432 0.19876646995544434 -0.29743614792823792 -0.34960007667541504 -0.0059008430689573288 -0.38306635618209839 0.24975262582302094 0.13697777688503265 -0.10943643003702164 -0.1990344226360321 0.052413571625947952
  0.27094203233718872 -0.10622031986713409 0.20047420263290405 -0.4691428542137146 -0.33960133790969849 -0.040067575871944427 -0.23202811181545258 0.20203287899494171 -0.10787174850702286 0.057584110647439957 0.43334114551544189 0.028123015537858009 -0.076109029352664948 0.11621557176113129 0.34125828742980957 0.48802202939987183 -0.06228291243314743 -0.26736781001091003 -0.21028944849967957 -0.021741634234786034 0.13187719881534576 -0.0098527297377586365 -0.0055471118539571762 0.10769098997116089 0.0098639903590083122 -0.23701563477516174 0.39610791206359863 0.64579123258590698 -0.16164964437484741 -0.17915523052215576 -0.31297668814659119 -0.27629706263542175 0.23351621627807617 0.12835411727428436 -0.13646170496940613 0.072936676442623138 0.016739649698138237 -0.16979880630970001 0.28018856048583984 0.273090660572052 0.047814078629016876 -0.14130982756614685 -0.1594017893075943 -0.12649855017662048 0.070189006626605988 0.018388316035270691 -0.044714238494634628 -0.070990487933158875 -0.68569368124008179 -0.21325963735580444 -0.068169422447681427 0.26228386163711548 0.41893410682678223 0.13633078336715698 -0.037798751145601273 -0.044331420212984085 -0.21148830652236938 -0.056034509092569351 -0.078619316220283508 -0.18865892291069031
  0.15097299218177795 0.05806012824177742 -0.049746528267860413 -0.23610146343708038 -0.25891801714897156 0.35126259922981262 0.28901553153991699 0.074221782386302948 -0.078833594918251038 -0.19696611166000366 0.085161425173282623 0.47171038389205933 -0.16848886013031006 0.030213681980967522 0.054468411952257156 0.024732306599617004 -0.028986856341362 -0.1050916463136673 0.0075903395190834999 -0.10779863595962524 -0.11477486789226532 -0.056225188076496124 0.049372848123311996 0.14428664743900299 -0.07570551335811615 -0.27490559220314026 -0.34575244784355164 -0.0030965423211455345 0.44570490717887878 0.0491524338722229 -0.17403610050678253 -0.21294005215167999 -0.034692667424678802 0.26069903373718262 0.13411431014537811 -0.068262994289398193 0.39016669988632202 -0.2100616842508316 -0.44274124503135681 -0.058178871870040894 0.4119829535484314 -0.074797861278057098 -0.45710226893424988 -0.34393736720085144 0.070200145244598389 0.32820659875869751 0.25712618231773376 -0.2090897262096405 -0.98463094234466553 -0.44277709722518921 1.2606279850006104 1.1756381988525391 0.14778991043567657 -0.67300856113433838 -0.40209499001502991 -0.010028421878814697 0.53117930889129639 0.024433594197034836 -0.24615383148193359 -0.28338614106178284
  2.7202122211456299 1.2533160448074341 0.71178781986236572 0.049075324088335037 -0.35862764716148376 -0.58426135778427124 -0.34630694985389709 0.0046949982643127441 0.046834796667098999 -0.069024734199047089 0.0028872315306216478 -0.33616968989372253 0.025253022089600563 -0.28064298629760742 -0.079715907573699951 -0.52260518074035645 -0.59601813554763794 -0.31114968657493591 -0.13054962456226349 0.093500211834907532 0.1179438978433609 0.12237463891506195 0.12993934750556946 -0.043648209422826767 -0.22639639675617218 -0.11764143407344818 0.22851043939590454 0.11527790129184723 -0.1206849217414856 -0.035122111439704895 0.0015800950350239873 -0.13400603830814362 -0.010108932852745056 0.073612034320831299 -0.023833364248275757 -0.042552780359983444 -0.335723876953125 -0.24931429326534271 0.00049113784916698933 0.20561040937900543 0.085162997245788574 0.19851000607013702 0.078057967126369476 -0.080996990203857422 0.026117157191038132 -0.014235269278287888 -0.010265764780342579 -0.029360737651586533 -0.54353147745132446 -0.37934914231300354 -0.1673615574836731 -0.011040653102099895 0.28942278027534485 0.0058554615825414658 0.074464485049247742 -0.076828576624393463 -0.059683389961719513 -0.045565318316221237 -0.1288541704416275 0.016719412058591843
  -0.75161385536193848 0.52449643611907959 -0.19405096769332886 0.2183319628238678 0.056060042232275009 0.20959338545799255 0.13041244447231293 0.21448914706707001 0.38906928896903992 0.33042171597480774 0.13704214990139008 0.36483320593833923 0.19378651678562164 -0.047988537698984146 0.11994415521621704 -0.029474964365363121 0.206212118268013 0.15518702566623688 -0.090568594634532928 0.063480190932750702 0.21345426142215729 0.050538945943117142 0.05529993399977684 -0.11201491951942444 0.70833390951156616 0.13550394773483276 0.24159872531890869 0.030452005565166473 0.30244335532188416 0.095110863447189331 0.01990402489900589 0.1004655584692955 0.058466382324695587 0.046825364232063293 -0.029431106522679329 -0.20365579426288605 1.0025146007537842 0.12412463873624802 0.34944084286689758 0.13562250137329102 -0.091462224721908569 0.03723372146487236 0.05876116082072258 -0.11913395673036575 -0.3393930196762085 -0.010786131024360657 -0.010920146480202675 -0.10379361361265182 0.24484886229038239 -0.61250203847885132 -0.039958123117685318 -0.26501703262329102 -0.71396243572235107 -0.28383374214172363 0.12248627841472626 0.030358023941516876 -0.13039463758468628 -0.010026197880506516 0.33630058169364929 0.22072817385196686
  -0.020184533670544624 0.85324341058731079 1.1002821922302246 0.46818491816520691 -0.088045775890350342 0.46634325385093689 0.15525709092617035 -0.49905189871788025 -0.52167564630508423 -0.22616595029830933 -0.32800766825675964 -0.12749235332012177 -0.28774017095565796 0.2947465181350708 0.10914825648069382 -0.087716750800609589 -0.10208526998758316 0.4396783709526062 0.48492446541786194 0.19774866104125977 -0.061966180801391602 -0.2177024781703949 -0.24552802741527557 -0.057754527777433395 -0.06947026401758194 0.029190598055720329 -0.21401669085025787 -0.037924163043498993 0.099886305630207062 0.40675067901611328 0.2563309371471405 0.11992288380861282 0.1083020344376564 -0.046289794147014618 -0.15778353810310364 0.010593520477414131 -0.17473040521144867 -0.20408402383327484 -0.48381060361862183 -0.010731706395745277 0.2157476395368576 0.057081788778305054 0.028150929138064384 -0.022682288661599159 0.07312224805355072 0.067708984017372131 -0.043464083224534988 -0.022095929831266403 0.029512824490666389 -0.19699235260486603 0.14816451072692871 -0.15666468441486359 0.14814448356628418 -0.50451463460922241 -0.20598913729190826 -0.084472112357616425 0.0054969950579106808 -0.055962789803743362 0.17455883324146271 -0.012585388496518135
  -0.15620812773704529 0.24721133708953857 -0.012084349989891052 -0.049123484641313553 -0.080608785152435303 -0.027862668037414551 0.077244721353054047 0.080411739647388458 -0.40143245458602905 0.046839471906423569 0.11820159107446671 -0.074544087052345276 0.020035076886415482 0.052232727408409119 -0.47106513381004333 0.023271435871720314 0.46225693821907043 0.030112575739622116 -0.18046659231185913 0.4308001697063446 -0.19458909332752228 0.13154998421669006 -0.11871705949306488 -0.026780091226100922 0.33166763186454773 -0.051280148327350616 -0.47211229801177979 0.019605603069067001 0.32637786865234375 -0.10899733006954193 -0.12476211786270142 0.31601464748382568 -0.0054786298424005508 0.088707998394966125 -0.1109260618686676 -0.035288628190755844 0.036073185503482819 -0.3136894702911377 -0.10021858662366867 -0.060552626848220825 -0.15307977795600891 -0.27903607487678528 -0.073288187384605408 0.050419081002473831 0.3809988796710968 -0.056925307959318161 0.049230925738811493 -0.0015725175617262721 0.014558806084096432 -0.36250254511833191 2.07792067527771 -0.11344963312149048 -1.4090427160263062 0.031402364373207092 0.38936221599578857 -0.77906280755996704 0.50226122140884399 -0.19551752507686615 0.22251845896244049 -0.034830834716558456
  -0.42197892069816589 0.61793899536132812 -0.36286646127700806 -0.46297121047973633 0.35445559024810791 0.45852068066596985 0.041057590395212173 0.21741004288196564 -0.069441072642803192 0.0048547671176493168 0.11582581698894501 0.44190087914466858 -0.1862492561340332 0.45392706990242004 0.52429693937301636 -0.0033027436584234238 -0.23692919313907623 -0.00043993178405798972 -0.14171156287193298 0.024970574304461479 0.0055979965254664421 0.043472018092870712 0.13504163920879364 0.34001201391220093 0.14565372467041016 0.28676983714103699 0.3476434051990509 -0.24502338469028473 -0.18703350424766541 0.047355171293020248 -0.010243047960102558 0.077946871519088745 0.14326037466526031 -0.067219257354736328 0.088092125952243805 0.17916764318943024 0.35599532723426819 -0.073076225817203522 0.19053065776824951 -0.013625519350171089 -0.18484100699424744 -0.28059941530227661 -0.088964186608791351 0.058714680373668671 0.18635876476764679 0.030421782284975052 0.024783028289675713 -0.066743284463882446 -0.65049922466278076 -0.62017756700515747 -0.19997692108154297 -0.24895942211151123 -0.079708963632583618 -0.19432322680950165 0.16899262368679047 0.069861330091953278 0.26288527250289917 0.11193950474262238 0.1518343985080719 -0.1030457392334938
  0.59142088890075684 0.12451213598251343 -0.35251972079277039 -0.44942408800125122 0.29055583477020264 0.31654444336891174 -0.26667624711990356 -0.049368202686309814 0.10104354470968246 0.15207915008068085 -0.12340622395277023 -0.09579882025718689 0.28594315052032471 0.66563928127288818 0.03896699845790863 0.20800614356994629 0.098272494971752167 0.33567288517951965 0.18894182145595551 -0.18443383276462555 -0.037854708731174469 0.0098771285265684128 0.06396012008190155 0.010365178808569908 0.0021992395631968975 0.11079439520835876 0.17648968100547791 0.26660633087158203 -0.14543907344341278 0.27247536182403564 0.27566459774971008 -0.020544925704598427 -0.17302097380161285 -0.030829031020402908 -0.0040591545403003693 -0.051980964839458466 -1.6085284948348999 -0.35583296418190002 0.0099400170147418976 0.065132573246955872 -0.23466479778289795 0.012467276304960251 0.51037454605102539 0.26018449664115906 -0.15649877488613129 -0.14053751528263092 0.015521427616477013 0.035164423286914825 -0.015194801613688469 -1.1567585468292236 0.29213574528694153 0.39127835631370544 -0.82124859094619751 -1.2996214628219604 0.038941122591495514 0.85920798778533936 0.27347078919410706 -0.16462388634681702 -0.057156853377819061 0.050459973514080048
  0.73730236291885376 1.0231353044509888 0.48820039629936218 0.20351611077785492 -0.55875682830810547 -0.2418811172246933 0.076416753232479095 -0.65027755498886108 -0.057158749550580978 0.15321597456932068 -0.38542884588241577 0.58040452003479004 0.19906766712665558 0.20354636013507843 -0.010248078033328056 0.20378457009792328 -0.15925657749176025 -0.11649327725172043 -0.14665167033672333 -0.13222713768482208 0.0071511426940560341 0.079277820885181427 -0.14779633283615112 0.14198799431324005 -0.37818583846092224 0.008960135281085968 -0.19197095930576324 0.18681667745113373 0.15674272179603577 -0.07573322206735611 -0.10155787318944931 0.010065529495477676 -0.0060533666983246803 -0.0093338415026664734 0.024044932797551155 0.035847883671522141 -0.46342161297798157 -0.1147962212562561 -0.11642073839902878 0.018822807818651199 0.31339630484580994 -0.063481159508228302 -0.020367367193102837 0.16173256933689117 0.0021487290505319834 -0.15859179198741913 0.12232501059770584 -0.059034105390310287 -0.40066933631896973 -0.62781643867492676 -0.047078344970941544 -0.52764290571212769 -0.029497561976313591 0.049149706959724426 -0.12624913454055786 0.4088822603225708 0.12124722450971603 -0.19990721344947815 0.16829532384872437 -0.10098706185817719
  0.47069424390792847 0.43949759006500244 0.3916153609752655 0.76323091983795166 0.5042794942855835 0.42988631129264832 0.40449982881546021 0.5707210898399353 0.061895269900560379 0.20863032341003418 0.083429969847202301 0.037887979298830032 -1.501981258392334 -0.9670567512512207 -0.99650460481643677 -0.89339578151702881 -0.8376692533493042 -0.18616293370723724 0.069733269512653351 0.11588855087757111 0.24945458769798279 0.3629717230796814 0.41322401165962219 0.43373575806617737 -0.94594478607177734 -0.018499631434679031 -0.44592157006263733 -0.040426157414913177 0.0576646588742733 -0.28452673554420471 -0.28382018208503723 -0.36749589443206787 -0.066918700933456421 0.18361850082874298 -0.025182699784636497 0.31685483455657959 -0.36621400713920593 0.11917208135128021 0.11558958142995834 0.3664899468421936 0.25439602136611938 0.10136443376541138 0.050076358020305634 -0.062125623226165771 -0.049719981849193573 -0.11583615094423294 -0.13468010723590851 -0.038417868316173553 0.67433005571365356 0.42715194821357727 0.35801491141319275 -0.085322067141532898 0.075752101838588715 0.20861859619617462 0.067740701138973236 0.17498123645782471 -0.0034107833635061979 -0.33358174562454224 -0.08378814160823822 -0.47760507464408875
  0.047662306576967239 0.56870251893997192 -0.055570919066667557 0.4363781213760376 0.49814403057098389 -0.061867088079452515 -0.18728022277355194 0.19922448694705963 -0.152592733502388 0.3393920361995697 -0.2669510543346405 0.40374207496643066 -0.085536748170852661 -0.083063997328281403 -0.24983625113964081 0.17212758958339691 0.30933842062950134 -0.11538404226303101 0.0029426063410937786 0.12625615298748016 -0.32681939005851746 0.41432294249534607 -0.52266550064086914 0.56163012981414795 -0.22861745953559875 -0.30490842461585999 -0.25559446215629578 -0.1417209804058075 0.22767440974712372 -0.1474231630563736 0.047111775726079941 0.061148624867200851 -0.44657415151596069 0.33057242631912231 -0.53390794992446899 0.42173752188682556 -0.44196119904518127 -0.37239551544189453 -0.25528731942176819 -0.30696293711662292 0.094493500888347626 -0.13715521991252899 0.063862890005111694 0.0038999046664685011 -0.29217159748077393 0.29207748174667358 -0.26265496015548706 0.33398595452308655 0.4656396210193634 0.024869512766599655 0.33360764384269714 0.19906580448150635 -0.12829403579235077 -0.4697001576423645 0.24986518919467926 -0.16805355250835419 0.23639640212059021 -0.31491959095001221 0.33665338158607483 -0.38990208506584167
  -0.68806833028793335 -0.29232117533683777 -0.23665313422679901 0.098217703402042389 0.22029006481170654 0.26800891757011414 0.18166746199131012 0.057819094508886337 0.00012618512846529484 -0.14346006512641907 0.031064774841070175 -0.095286495983600616 0.082955077290534973 0.012335446663200855 0.25640052556991577 0.072469167411327362 0.1557929664850235 0.15768168866634369 0.12972129881381989 -0.13507416844367981 -0.11824140697717667 -0.19421729445457458 -0.15790070593357086 -0.090597338974475861 -0.10540322214365005 -0.22567224502563477 0.31197565793991089 0.12336120009422302 -0.021633800119161606 0.23340238630771637 0.25177282094955444 -0.089736990630626678 -0.22153426706790924 -0.23388539254665375 -0.16276530921459198 -0.0090890135616064072 -0.0077560623176395893 0.13784052431583405 0.18644864857196808 0.18835215270519257 0.064640618860721588 0.28900125622749329 0.32559019327163696 0.11433692276477814 -0.10509391874074936 -0.21140033006668091 -0.21530112624168396 0.018160084262490273 0.0014882032992318273 0.051696363836526871 -0.28671285510063171 -0.61145961284637451 -0.090268835425376892 0.26704713702201843 0.38318938016891479 0.46167305111885071 0.48605421185493469 -0.084063582122325897 -0.13022628426551819 -0.27378112077713013
  -1.5634740591049194 -1.2095499038696289 -2.0226531028747559 -1.3084036111831665 -0.091483116149902344 0.68918311595916748 0.76181769371032715 0.84058153629302979 0.35624071955680847 0.038687076419591904 -0.18859271705150604 0.044869441539049149 -0.37343558669090271 0.57952731847763062 0.46171033382415771 0.34424987435340881 0.032864280045032501 -0.097298137843608856 0.023955192416906357 -0.30651891231536865 -0.090972572565078735 -0.11750427633523941 -0.050447952002286911 0.03490733727812767 0.39189675450325012 0.73340249061584473 0.78676742315292358 0.23169462382793427 -0.28479450941085815 -0.4814278781414032 -0.34858858585357666 -0.21085575222969055 -0.16351683437824249 0.052103716880083084 0.26152792572975159 0.11413613706827164 0.38853660225868225 0.60360795259475708 0.87969225645065308 0.28293618559837341 -0.012945118360221386 -0.37062868475914001 -0.22484457492828369 -0.15133678913116455 -0.18860235810279846 -0.04425445944070816 0.040073312819004059 -0.090597271919250488 1.1892112493515015 0.033222373574972153 0.47550186514854431 0.57516306638717651 0.36597532033920288 0.13996510207653046 -0.12725830078125 -0.16941718757152557 -0.038259312510490417 -0.066814102232456207 -0.045815352350473404 -0.29487684369087219
  1.0224456787109375 -0.81594341993331909 0.075897805392742157 -0.23486092686653137 0.78651022911071777 0.81435561180114746 0.42046898603439331 -0.92260575294494629 -0.16029144823551178 -0.077883899211883545 -0.73368948698043823 -0.71781444549560547 0.18402990698814392 0.10197387635707855 0.10702527314424515 0.18552617728710175 0.096240364015102386 -0.039849240332841873 0.032272856682538986 -0.36928218603134155 -0.098254576325416565 0.022232882678508759 -0.24222800135612488 -0.13421967625617981 0.026782559230923653 0.06876479834318161 0.15135619044303894 0.16854602098464966 -0.16205312311649323 -0.20976655185222626 -0.13884510099887848 0.065351180732250214 0.10755334794521332 0.046048164367675781 -0.0040506590157747269 -0.01842900738120079 0.06510249525308609 0.048626814037561417 0.10251445323228836 0.1710100919008255 0.053197361528873444 -0.049520708620548248 -0.10893271118402481 0.2976016104221344 0.15827687084674835 0.010427143424749374 0.083642512559890747 0.0045799650251865387 -0.17175570130348206 0.30828171968460083 -0.34700292348861694 -0.037595160305500031 -0.12150627374649048 0.017929006367921829 0.11062416434288025 0.33368685841560364 0.038349498063325882 -0.068496629595756531 0.27845427393913269 0.056149840354919434
  0.1284017413854599 0.26161360740661621 0.084327749907970428 0.35630032420158386 0.53257787227630615 -0.085253730416297913 0.26145851612091064 0.16035552322864532 0.10376838594675064 -0.19667275249958038 -0.13762809336185455 -0.14685980975627899 0.21806704998016357 0.25381359457969666 0.2952934205532074 0.497467041015625 0.31891682744026184 0.14371597766876221 0.36830368638038635 0.17810635268688202 0.21870137751102448 -0.032513439655303955 0.043562214821577072 -0.31298214197158813 0.33082196116447449 -0.33037835359573364 0.14305700361728668 0.13344879448413849 0.082399047911167145 0.29635030031204224 0.33824637532234192 0.18190039694309235 0.26138925552368164 0.16306973993778229 0.10534470528364182 -0.22549192607402802 0.17168134450912476 -0.10278742015361786 -0.12336079776287079 0.01443344634026289 0.029382273554801941 0.12853391468524933 0.2241901308298111 0.24725592136383057 0.25586047768592834 0.16471834480762482 0.10038633644580841 -0.071417123079299927 -0.16649539768695831 -0.089159563183784485 -0.31950470805168152 -0.40280836820602417 -0.13573326170444489 -0.15328902006149292 0.12485330551862717 0.46140635013580322 0.27522286772727966 -0.0065553369931876659 0.051705438643693924 0.23149842023849487
  0.31159242987632751 -0.12285144627094269 -0.062233012169599533 -0.38942995667457581 -0.29677048325538635 -0.15382538735866547 0.14469823241233826 0.21982133388519287 -0.16469736397266388 -0.019483327865600586 0.18305723369121552 -0.26201480627059937 -0.28653675317764282 0.25922876596450806 0.23341186344623566 0.11786386370658875 -0.10138321667909622 0.10122376680374146 0.057283461093902588 -0.091674551367759705 0.25672397017478943 0.064009346067905426 -0.3006032407283783 0.20937569439411163 -0.31501311063766479 0.12149063497781754 0.14064006507396698 0.15357787907123566 0.099217943847179413 0.073113381862640381 0.070571392774581909 -0.10756106674671173 0.3084334135055542 0.15094009041786194 -0.35376706719398499 0.43348845839500427 0.054833743721246719 -0.30155438184738159 -0.2539961040019989 0.10159497708082199 0.26632079482078552 0.10306324064731598 -0.018490521237254143 -0.13460053503513336 0.24110603332519531 0.14905872941017151 -0.26311975717544556 0.31523248553276062 -0.48604714870452881 0.2173854261636734 0.011659533716738224 -0.066903285682201385 0.23369918763637543 0.17789089679718018 -0.31620645523071289 -0.31309375166893005 -0.31880015134811401 0.34566429257392883 -0.1460367888212204 0.085186600685119629
  -1.6767429113388062 0.67768168449401855 1.6149076223373413 -0.66650575399398804 0.0011771633289754391 0.1365416944026947 -0.44235020875930786 0.29943943023681641 0.012735680676996708 -0.24762366712093353 -0.095804989337921143 0.14154428243637085 0.32617026567459106 0.36885225772857666 -0.076498568058013916 0.019635351374745369 0.4046846330165863 0.13193930685520172 -0.25584685802459717 0.18601846694946289 0.035311337560415268 -0.055332999676465988 0.033122483640909195 -0.015102610923349857 0.30962356925010681 -0.14922556281089783 -0.11966395378112793 -0.0052528087981045246 0.23548008501529694 0.23793359100818634 -0.15233960747718811 -0.053773511201143265 0.13594959676265717 -0.11079803109169006 0.078581474721431732 -0.1411745548248291 0.20582857728004456 -0.16462196409702301 -0.33962255716323853 -0.20230479538440704 0.11686757206916809 0.24077165126800537 0.053061503916978836 -0.072576135396957397 0.095623612403869629 0.05480043962597847 0.016899965703487396 -0.036426041275262833 -0.4753226637840271 0.31155943870544434 -0.11516918987035751 -0.081539660692214966 -0.59507882595062256 0.051037974655628204 0.21432285010814667 -0.16471639275550842 -0.02055007591843605 -0.019637502729892731 -0.057722080498933792 0.17439012229442596
  -0.37156975269317627 0.16507428884506226 -0.31688055396080017 0.26170787215232849 -0.25561535358428955 -0.062201950699090958 0.057246223092079163 0.017829319462180138 -0.028200598433613777 0.070018164813518524 -0.042586784809827805 0.034770864993333817 -0.18053367733955383 0.18645280599594116 -0.045561026781797409 0.0011798940831795335 -0.012963127344846725 -0.0010576692875474691 0.11150313168764114 0.053479563444852829 -0.010679475031793118 -0.013832056894898415 -0.01326668169349432 -0.023510720580816269 -0.49417579174041748 -0.022258579730987549 -0.078825943171977997 -0.11831201612949371 0.028973756358027458 -0.0010857050074264407 0.12261579185724258 0.085782922804355621 -0.0032970227766782045 -0.092887662351131439 -0.013876865617930889 -0.018394626677036285 -1.2339326143264771 0.13263347744941711 0.17539806663990021 -0.23166115581989288 0.23105010390281677 -0.12679295241832733 -0.07412014901638031 0.048890527337789536 0.070447303354740143 -0.097640767693519592 -0.0073708053678274155 0.015110294334590435 3.5157897472381592 -1.1373116970062256 0.5980108380317688 -0.060143709182739258 -0.12152125686407089 0.10386817157268524 -0.066766411066055298 -0.23484493792057037 0.13679376244544983 0.061107587069272995 0.16684852540493011 -0.11234313249588013
  0.71747440099716187 0.052889116108417511 -0.28228762745857239 -0.8158378005027771 0.30521038174629211 0.43561843037605286 -0.027843350544571877 -0.26960882544517517 -0.21886797249317169 -0.046582289040088654 0.2605023980140686 0.0036593608092516661 0.14518854022026062 0.57337647676467896 -0.064239367842674255 -0.045566465705633163 0.38812935352325439 -0.068529009819030762 -0.2604101300239563 -0.27366065979003906 0.054514143615961075 0.18248923122882843 0.09300580620765686 -0.22402505576610565 0.092313423752784729 0.27225631475448608 -0.14951238036155701 -0.085113584995269775 -0.062065064907073975 0.040123298764228821 -0.059808682650327682 -0.31855037808418274 -0.022307891398668289 0.15642726421356201 0.12396106868982315 -0.057335492223501205 0.1646384596824646 0.16197477281093597 -0.2313203364610672 -0.30677026510238647 -0.24163934588432312 -0.085078991949558258 -0.053184602409601212 -0.21532440185546875 -0.0024644883815199137 0.042172439396381378 0.18982908129692078 -0.014078229665756226 1.1473865509033203 -0.19964867830276489 -0.1837165504693985 0.01791088655591011 0.024301072582602501 0.16600644588470459 0.41297945380210876 -0.16208761930465698 -0.30163386464118958 0.0068614357151091099 0.14061105251312256 -0.14391881227493286
  -0.025258636102080345 0.47524812817573547 0.23397162556648254 0.067001573741436005 -0.11603951454162598 -0.097011029720306396 0.068707197904586792 -0.5084955096244812 0.2052573561668396 0.15336397290229797 -0.38751685619354248 0.38693597912788391 -1.6555286645889282 -0.4468134343624115 -0.30792313814163208 -0.35560232400894165 0.34405416250228882 -0.36400699615478516 -0.24045416712760925 0.20733378827571869 -0.089157745242118835 0.0059968945570290089 0.025850018486380577 -0.064889200031757355 -0.88436621427536011 -0.53299432992935181 -0.3791528046131134 -0.4454459547996521 0.28728020191192627 -0.31192579865455627 -0.39961060881614685 0.38553923368453979 -0.067016176879405975 0.070459276437759399 0.15808545053005219 -0.17401377856731415 0.73936235904693604 -0.14049211144447327 0.071142531931400299 -0.086217403411865234 -0.16122974455356598 -0.042703684419393539 -0.061969969421625137 0.28537073731422424 0.13493703305721283 -0.08613181859254837 0.095042303204536438 -0.29117348790168762 2.0153319835662842 0.46630403399467468 0.42456901073455811 0.75972354412078857 -0.34374839067459106 0.54391074180603027 0.59251564741134644 -0.17472964525222778 -0.10586228221654892 -0.16549608111381531 -0.0039526065811514854 0.01313764788210392
  0.05131896585226059 -0.19589143991470337 -0.051332611590623856 -0.44318270683288574 -0.24543261528015137 0.070676587522029877 0.021207882091403008 -0.20695002377033234 -0.02015439048409462 0.092434227466583252 0.071642100811004639 -0.10144935548305511 -0.44256666302680969 -0.031173110008239746 0.071092985570430756 -0.42931625247001648 -0.31062838435173035 0.24399368464946747 0.25837799906730652 -0.21706794202327728 0.13795930147171021 0.079546727240085602 -0.33154326677322388 -0.15313787758350372 -0.38497918844223022 -0.28585529327392578 -0.049858324229717255 -0.38722839951515198 -0.39971372485160828 0.28352391719818115 0.28373271226882935 -0.1805088073015213 0.051252637058496475 0.21458758413791656 -0.41840687394142151 -0.20843832194805145 -0.12940342724323273 -0.010651472024619579 -0.18715004622936249 -0.28675034642219543 -0.2251916378736496 0.21370358765125275 0.12293127924203873 0.059590324759483337 0.10214779525995255 0.11996769160032272 -0.2774556577205658 -0.12852297723293304 -0.15044263005256653 0.71268618106842041 0.19500087201595306 0.35510960221290588 -0.1976592093706131 -0.40057548880577087 -0.070844106376171112 0.58465009927749634 0.12108579277992249 -0.37412452697753906 0.12144052982330322 -0.0061389375478029251
  -1.2805231809616089 -1.0221922397613525 -0.80720508098602295 -1.3748986721038818 -1.1796489953994751 -0.6390572190284729 -0.17791813611984253 0.047535646706819534 0.10842842608690262 0.25179970264434814 0.35555949807167053 0.084610283374786377 2.0424230098724365 0.40261238813400269 0.62748825550079346 0.24588415026664734 -0.11971466243267059 -0.17827922105789185 -0.20069161057472229 -0.278298020362854 -0.13533635437488556 -0.13721182942390442 -0.18167729675769806 -0.16932643949985504 0.78682798147201538 0.76439708471298218 0.67086732387542725 0.91896235942840576 0.72493487596511841 0.30443865060806274 0.17245177924633026 -0.18639345467090607 -0.10794015973806381 -0.1872335821390152 -0.34619531035423279 -0.24099269509315491 0.38589254021644592 0.43062624335289001 0.32512420415878296 0.47152787446975708 0.36618605256080627 0.28049057722091675 0.20648165047168732 -0.071627020835876465 -0.088204815983772278 -0.10346737504005432 -0.12033133953809738 -0.027556683868169785 -0.58242237567901611 -0.57520312070846558 -0.26877102255821228 -0.40119576454162598 0.074444092810153961 0.025733690708875656 -0.13808366656303406 0.12591548264026642 0.057117432355880737 -0.062005415558815002 0.11287723481655121 0.0005039761308580637
  0.085648171603679657 -0.20393984019756317 0.074411690235137939 0.17909635603427887 0.17946833372116089 0.079743266105651855 -0.021689046174287796 -0.13749761879444122 -0.087199531495571136 -0.11043117940425873 0.040827948600053787 0.0086787370964884758 -0.56828075647354126 -0.083727367222309113 -0.05611836165189743 -0.13146406412124634 -0.12235578894615173 0.011420815251767635 -0.020394900813698769 -0.029057104140520096 0.12972395122051239 0.060611285269260406 0.045113645493984222 0.10492385178804398 0.0347130186855793 0.034686774015426636 -0.10330456495285034 -0.055930115282535553 -0.056782566010951996 -0.064196303486824036 0.030111085623502731 -0.042087946087121964 0.097187124192714691 0.10591964423656464 0.036798425018787384 0.08849402517080307 -1.298579216003418 -0.4022006094455719 -0.42868861556053162 -0.37474158406257629 0.034771151840686798 0.14331898093223572 0.016786452382802963 0.1610463410615921 0.15506446361541748 0.14585320651531219 0.099414169788360596 0.032145123928785324 3.7939472198486328 0.87756353616714478 1.3975738286972046 -0.20758411288261414 -0.47507119178771973 -0.80701601505279541 -0.49215421080589294 -0.58472782373428345 -0.30797919631004333 -0.56226509809494019 -0.57971948385238647 -0.96926087141036987
  -0.06660296767950058 0.13687174022197723 0.26425909996032715 0.052050266414880753 -0.068125754594802856 0.0031198731157928705 0.013743305578827858 -0.46680200099945068 -0.018398704007267952 0.1641337126493454 -0.065411508083343506 0.016946015879511833 -0.32467809319496155 0.083099067211151123 0.27614212036132812 0.34933876991271973 -0.056006181985139847 -0.18990488350391388 -0.17987142503261566 -0.061881035566329956 0.26452231407165527 -0.012681528925895691 -0.20879717171192169 -0.099769704043865204 -0.44351339340209961 -0.56613403558731079 -0.10881305485963821 0.24257200956344604 -0.21853101253509521 -0.16702336072921753 -0.23337092995643616 0.11924887448549271 0.52386564016342163 -0.049289584159851074 -0.30571860074996948 -0.15558381378650665 -0.17165903747081757 -0.39763087034225464 -0.30568188428878784 -0.14864926040172577 -0.26871359348297119 -0.13198032975196838 -0.076842233538627625 0.43065720796585083 0.21660326421260834 -0.02122742123901844 -0.21511729061603546 0.048912249505519867 0.1164727509021759 1.3828647136688232 0.039040502160787582 -0.759987473487854 -0.69231635332107544 0.16263818740844727 0.62076985836029053 0.73428618907928467 -0.71064770221710205 -0.32851648330688477 0.42923900485038757 0.48283883929252625
  -0.20742766559123993 -0.21716837584972382 0.017003204673528671 -0.32857748866081238 -0.15099020302295685 0.17576299607753754 0.0026305795181542635 -0.10761300474405289 -0.15056400001049042 0.047379743307828903 -0.078618124127388 -0.12480835616588593 0.0083285253494977951 0.20954768359661102 0.17265847325325012 0.072334565222263336 -0.20277474820613861 -0.23554371297359467 -0.046377629041671753 0.17487944662570953 -0.069793045520782471 0.044744133949279785 0.061672985553741455 -0.046542249619960785 0.070333033800125122 0.078217148780822754 0.37483924627304077 -0.020230384543538094 -0.09883483499288559 -0.26974219083786011 -0.14699217677116394 -0.01978302001953125 -0.12052790075540543 0.00271588284522295 0.13614784181118011 0.012765279971063137 -0.12691093981266022 0.33727225661277771 0.062435552477836609 0.32771101593971252 0.076096504926681519 -0.2685052752494812 0.055454403162002563 -0.081746220588684082 -0.16952201724052429 0.016550948843359947 0.12196007370948792 0.16083259880542755 -0.82973146438598633 -0.96260946989059448 -1.3667744398117065 0.6109088659286499 1.1422021389007568 0.53153914213180542 -0.18387623131275177 -0.05196002870798111 0.24377617239952087 0.17112956941127777 0.12789520621299744 0.27546340227127075
  -0.36591354012489319 1.4213982820510864 0.5535157322883606 0.80838096141815186 1.2629358768463135 0.83704817295074463 0.84144502878189087 0.87273794412612915 0.50105339288711548 0.28574788570404053 -0.09521012008190155 0.1783030778169632 -0.24640345573425293 -0.084680512547492981 0.39955177903175354 0.73443609476089478 0.19560147821903229 0.21257829666137695 0.08347301185131073 0.31315788626670837 0.27611902356147766 0.060008697211742401 0.095747999846935272 0.16523413360118866 -0.18568223714828491 -0.52300059795379639 -0.55822330713272095 -0.26266798377037048 -0.28693139553070068 0.12870363891124725 -0.20905080437660217 -0.22396789491176605 -0.22329926490783691 -0.086938820779323578 -0.093108907341957092 -0.10070423781871796 -0.65280807018280029 -0.50941908359527588 -0.91854268312454224 -0.75452518463134766 -0.48508942127227783 -0.35548979043960571 -0.4354548454284668 -0.48257207870483398 -0.36169826984405518 -0.15993271768093109 -0.061640344560146332 -0.052010893821716309 0.15411266684532166 -0.13920453190803528 0.20627623796463013 -0.27949097752571106 -0.50837075710296631 -0.60986483097076416 -0.47476160526275635 -0.59902989864349365 -0.42153388261795044 -0.3155190646648407 -0.15064460039138794 -0.048484534025192261
  -0.35377120971679688 0.21579506993293762 0.89502042531967163 -0.0046037286520004272 -0.67596828937530518 -0.44014891982078552 0.39465716481208801 0.1373685747385025 -0.32893660664558411 -0.24093152582645416 -0.043697558343410492 -0.10356508940458298 0.16804265975952148 -0.29627948999404907 -0.46858400106430054 -0.078822709619998932 0.50956922769546509 0.27084863185882568 -0.23568817973136902 -0.19382590055465698 0.072042830288410187 0.21940574049949646 0.0092035084962844849 -0.15890328586101532 0.33577513694763184 -0.69950133562088013 -0.46311488747596741 0.17277954518795013 0.64485430717468262 0.16062282025814056 -0.57592004537582397 -0.31692725419998169 0.38488006591796875 0.44311654567718506 0.069768659770488739 -0.025972209870815277 0.10794126987457275 -0.43354624509811401 0.12047126144170761 0.69988512992858887 0.34990748763084412 -0.36343860626220703 -0.36147838830947876 0.080456346273422241 0.21162790060043335 0.096180066466331482 -0.16157719492912292 -0.11227037012577057 -0.27840626239776611 0.37760239839553833 0.77569425106048584 0.038906238973140717 -0.79954642057418823 -0.3505706787109375 0.15748432278633118 0.3176291286945343 -0.22679682075977325 -0.3671087920665741 0.02005242183804512 0.12555095553398132
  -1.1014813184738159 -0.18225640058517456 0.12189755588769913 -0.013405739329755306 -0.11368729919195175 -0.21753236651420593 -0.23838131129741669 0.21225862205028534 0.11829614639282227 0.16812677681446075 0.10017453879117966 0.071866653859615326 0.21705612540245056 -0.033742953091859818 -0.30241397023200989 0.15235124528408051 0.19518522918224335 0.36771386861801147 0.46130380034446716 -0.037996996194124222 0.082385115325450897 0.03107200562953949 -0.0099395494908094406 -0.10184579342603683 0.27700543403625488 0.22148264944553375 -0.44233620166778564 -0.079549312591552734 0.20329800248146057 0.49664503335952759 0.69339817762374878 0.29784524440765381 0.14890812337398529 0.11813253164291382 0.019722364842891693 -0.037456590682268143 0.31111878156661987 -0.3108038604259491 -0.69564282894134521 -1.0469156503677368 -0.63018524646759033 -0.00084009376587346196 0.26973176002502441 0.17000612616539001 0.24377579987049103 0.28265637159347534 0.31431201100349426 0.0050785131752490997 1.0924924612045288 -0.047406282275915146 0.78525751829147339 -0.019844753667712212 -0.686942458152771 -1.1495189666748047 -1.1456040143966675 -0.55338585376739502 -0.27037280797958374 -0.34852054715156555 0.068733423948287964 0.28908470273017883
  0.86507886648178101 -0.26659271121025085 -0.28394171595573425 0.25057798624038696 0.17014384269714355 -0.30940678715705872 -0.056089334189891815 0.13394704461097717 0.041966255754232407 -0.0018448051996529102 -0.051426343619823456 0.018556989729404449 -0.63930594921112061 0.1135513111948967 -0.048925697803497314 -0.53641879558563232 0.31045529246330261 0.29679688811302185 -0.13102823495864868 -0.21726801991462708 0.092199400067329407 0.061409961432218552 -0.10675615817308426 -0.039293855428695679 -0.86605548858642578 0.63099771738052368 0.16248846054077148 -0.48420926928520203 0.14430251717567444 0.41522005200386047 -0.089023925364017487 -0.21479262411594391 0.084440603852272034 0.055430032312870026 -0.08821578323841095 0.079433269798755646 -0.87417745590209961 0.68223392963409424 0.76158851385116577 -0.33261558413505554 -0.47038546204566956 0.14809778332710266 0.028044002130627632 -0.094439946115016937 -0.071743965148925781 -0.052487298846244812 0.022005451843142509 -0.00054067966993898153 0.63557183742523193 -0.48290741443634033 0.71350061893463135 0.87560248374938965 -0.67646902799606323 -0.78726392984390259 0.10174773633480072 0.19286113977432251 -0.20207986235618591 -0.42959126830101013 0.038426667451858521 -0.034324876964092255
  -0.064839661121368408 0.26007765531539917 -0.52844679355621338 -0.87808889150619507 0.44189241528511047 0.079042457044124603 0.18590430915355682 0.52030134201049805 -0.13304546475410461 -0.25718685984611511 0.33517703413963318 -0.1394774317741394 -0.44170773029327393 0.22918544709682465 0.085323192179203033 -0.44187194108963013 0.093309983611106873 -0.15252295136451721 -0.24294517934322357 0.35611030459403992 0.025769222527742386 -0.24972768127918243 0.2434065043926239 -0.14156705141067505 0.18355613946914673 0.47697398066520691 0.22661888599395752 -0.02023002877831459 -0.24453777074813843 -0.31190666556358337 -0.042480338364839554 0.13174828886985779 0.15436035394668579 -0.28200167417526245 0.071618355810642242 -0.1272595226764679 0.65985238552093506 0.50849974155426025 0.23400093615055084 0.24047653377056122 -0.40672758221626282 -0.18810068070888519 0.0094847902655601501 -0.31024128198623657 0.01276888232678175 -0.0062127667479217052 -0.19658869504928589 -0.064778648316860199 0.5516207218170166 -0.70320689678192139 -0.26323509216308594 0.14340600371360779 -0.43522071838378906 0.22173836827278137 -0.04979299008846283 -0.42460817098617554 0.16206130385398865 0.58530181646347046 -0.49329793453216553 0.087627455592155457
  -0.1420997679233551 -0.28139969706535339 -0.34923088550567627 0.58865678310394287 -0.13794893026351929 -0.096142925322055817 0.031345169991254807 0.0069692996330559254 -0.054190721362829208 0.1169142946600914 -0.0085668433457612991 -0.1078563928604126 -0.047860186547040939 0.16214317083358765 -0.2843458354473114 0.41202285885810852 -0.30508899688720703 0.084791429340839386 -0.0079276030883193016 -0.056514795869588852 0.061496429145336151 0.028004443272948265 -0.097264721989631653 -0.0052807247266173363 -0.053722713142633438 0.25627049803733826 -0.39085733890533447 0.53424328565597534 -0.50493210554122925 0.12771271169185638 0.0024912287481129169 -0.13008195161819458 0.14898589253425598 -0.040222417563199997 -0.16325844824314117 0.042301077395677567 0.10141857713460922 0.28430905938148499 -0.25659358501434326 0.51247239112854004 -0.58351743221282959 0.16912001371383667 0.063188023865222931 -0.093611270189285278 0.15646682679653168 0.0011318709002807736 -0.21522039175033569 0.068016313016414642 -0.28239628672599792 -0.16536325216293335 -0.11857997626066208 0.78908324241638184 -0.68026548624038696 0.21352212131023407 0.1926683634519577 0.02227797731757164 0.15076586604118347 -0.13287061452865601 -0.2472061812877655 0.019993003457784653
  0.55636179447174072 -0.62154805660247803 0.53673231601715088 -0.12184512615203857 -0.2796347439289093 -0.2665306031703949 -0.38408383727073669 0.21541334688663483 0.25719323754310608 -0.46745750308036804 0.15305408835411072 0.38906413316726685 -0.33127376437187195 -0.16247180104255676 0.2742893397808075 -0.1502261608839035 -0.081430844962596893 -0.18989168107509613 -0.24309934675693512 0.34399840235710144 0.25737717747688293 -0.14365530014038086 0.25587791204452515 0.15188814699649811 0.0094267157837748528 -0.17152471840381622 0.098920442163944244 -0.12839685380458832 0.2086644172668457 -0.18290981650352478 -0.17533746361732483 0.19663402438163757 0.2143862247467041 -0.12848256528377533 0.12238059192895889 0.076361611485481262 0.31120255589485168 -0.28312960267066956 -0.09358910471200943 -0.12439604103565216 0.18995271623134613 -0.090061329305171967 -0.059199672192335129 0.0048656109720468521 0.1136011928319931 -0.060131262987852097 0.14795969426631927 0.040676664561033249 0.52389812469482422 0.37650299072265625 -0.24601610004901886 0.034722790122032166 0.25920376181602478 0.1790163516998291 0.030112136155366898 -0.42575380206108093 -0.015398785471916199 0.14637504518032074 0.090411059558391571 0.048106539994478226
  -0.026246920228004456 0.31897589564323425 0.16118998825550079 -0.10572008043527603 0.31761011481285095 -0.019552042707800865 0.11248830705881119 0.013190235942602158 -0.05968770757317543 -0.095071785151958466 -0.058992147445678711 -0.16072516143321991 -1.0414047241210938 0.17167802155017853 0.16382597386837006 0.001066551310941577 0.1404908299446106 -0.074657700955867767 0.13658300042152405 0.036856081336736679 0.091516606509685516 -0.10844232141971588 0.089482828974723816 0.059448372572660446 0.7769274115562439 0.18935327231884003 0.10319451242685318 0.15774373710155487 0.054033100605010986 -0.1937217116355896 -0.078134126961231232 -0.11303324997425079 0.1866239458322525 0.07009357213973999 0.044560503214597702 0.086601763963699341 3.6369650363922119 0.25811329483985901 0.048889044672250748 0.20793087780475616 -0.36976677179336548 0.14356203377246857 -0.18471048772335052 -0.089668303728103638 0.018385188654065132 0.060741227120161057 0.050274893641471863 -0.29074972867965698 -2.5419929027557373 -0.66395890712738037 -0.38731813430786133 -0.34374746680259705 -0.25713717937469482 0.12120023369789124 -0.050650190562009811 0.067986562848091125 -0.31068900227546692 0.039831362664699554 -0.048797078430652618 0.18369431793689728
  -1.5169568061828613 -1.7592073678970337 -2.5133051872253418 -1.086841344833374 0.65017479658126831 0.48308873176574707 0.7864232063293457 1.1792157888412476 0.79320323467254639 0.063764616847038269 -0.17725068330764771 -0.26879924535751343 -0.093853481113910675 0.86395120620727539 0.97620201110839844 0.75890529155731201 0.45317539572715759 -0.15515099465847015 -0.25106057524681091 -0.49327710270881653 -0.42936769127845764 -0.21151918172836304 -0.082165420055389404 0.034852802753448486 0.74411916732788086 0.67890530824661255 1.3385521173477173 0.69368922710418701 -0.43822517991065979 -0.4218926727771759 -0.61008560657501221 -0.70936280488967896 -0.37255638837814331 0.052842408418655396 0.20350900292396545 0.23739470541477203 0.75263714790344238 0.2813841700553894 0.60038083791732788 0.44995325803756714 -0.16736721992492676 -0.13763925433158875 -0.32406732439994812 -0.40821826457977295 -0.1985560804605484 0.066134750843048096 -0.019016526639461517 -0.078722745180130005 0.84079581499099731 -0.24499346315860748 -0.19186897575855255 -0.79276156425476074 -0.56969070434570312 -0.07595333456993103 0.16725456714630127 0.10553009808063507 0.082140043377876282 -0.089345529675483704 0.033563140779733658 -0.044290710240602493
  -1.1510940790176392 0.20276150107383728 -0.28486490249633789 -0.87012147903442383 0.30041044950485229 -0.091833077371120453 -0.16348530352115631 0.24879704415798187 0.051258780062198639 -0.1068573072552681 0.32433468103408813 -0.23372243344783783 0.43909180164337158 0.027204951271414757 -0.014595015905797482 0.3193003237247467 -0.40671741962432861 -0.021113136783242226 -0.077005460858345032 -0.22860826551914215 0.2465653121471405 0.17017121613025665 -0.29112756252288818 0.13155995309352875 1.0003774166107178 -0.26227867603302002 -0.081292100250720978 0.51620465517044067 -0.58271735906600952 0.12003588676452637 -0.081259310245513916 -0.23849004507064819 0.38822680711746216 0.1307031661272049 -0.48153471946716309 0.2490149587392807 0.61733025312423706 -0.084949769079685211 0.1202080100774765 0.3651261031627655 -0.1406710147857666 -0.029832635074853897 -0.012194395065307617 -0.079560697078704834 0.13572399318218231 0.022888174280524254 -0.3334963321685791 0.13739985227584839 -0.59943872690200806 -0.017388369888067245 0.16680771112442017 -0.40930458903312683 0.45791611075401306 -0.2194349467754364 -0.11961411684751511 0.35692322254180908 -0.16173173487186432 -0.21256798505783081 0.094971135258674622 -0.31993892788887024
