<Nnet>
<input> 60 60
<affinetransform> 60 60
 [ 
  0.40839940309524536 0.024244934320449829 -0.26104533672332764 -0.13541781902313232 -0.043853271752595901 0.018427532166242599 -0.10144159197807312 0.016735823825001717 0.04542887955904007 0.10551374405622482 0.011542903259396553 0.097394198179244995 -0.3456633985042572 -0.18856120109558105 0.11692560464143753 -0.21324232220649719 -0.26647982001304626 -0.12478110939264297 -0.056394651532173157 0.10389722138643265 0.078451819717884064 -0.077574402093887329 0.10571205615997314 -0.072201445698738098 -0.32046663761138916 -0.15805687010288239 -0.060386635363101959 -0.2841331958770752 -0.19082683324813843 -0.22981941699981689 -0.077234573662281036 0.14397381246089935 0.068866640329360962 -0.11076126247644424 0.058197692036628723 -0.071298152208328247 0.31415295600891113 -0.01128313597291708 -0.10152824223041534 -0.22102303802967072 -0.19884979724884033 -0.30225163698196411 -0.060686532407999039 0.14970354735851288 0.083021804690361023 -0.07409745454788208 0.009669112041592598 -0.075036220252513885 -1.0449087619781494 0.49395489692687988 -0.3457263708114624 -0.028066428378224373 -0.12262296676635742 -0.11552076041698456 -0.32336708903312683 0.28934291005134583 -0.01248176209628582 0.011760739609599113 0.031642843037843704 0.2123916894197464
  0.72559612989425659 0.098233669996261597 0.73990762233734131 0.021109115332365036 -0.52322959899902344 -0.26251813769340515 0.012652023695409298 -0.0019750497303903103 0.0078588705509901047 -0.13563147187232971 -0.33970218896865845 -0.18826286494731903 0.2294733077287674 0.53296005725860596 0.57647377252578735 0.39075940847396851 -0.083383500576019287 -0.29182767868041992 0.024743098765611649 0.17030839622020721 0.026000065729022026 -0.15119932591915131 -0.21971592307090759 -0.13174116611480713 0.3938634991645813 0.012548681348562241 0.5780673623085022 0.15985874831676483 -0.38107952475547791 -0.27927306294441223 0.051938775926828384 0.2594200074672699 0.023019736632704735 -0.1487739086151123 0.05617089569568634 -0.075942032039165497 0.35108867287635803 0.10549738258123398 0.17006659507751465 0.030037533491849899 -0.16433432698249817 -0.18279145658016205 -0.077011421322822571 0.070148997008800507 -0.070332050323486328 -0.047474056482315063 0.084670081734657288 0.0078459987416863441 -0.88926279544830322 -0.16378000378608704 -0.2900332510471344 -0.19019207358360291 0.095941610634326935 0.052958901971578598 -0.08500225841999054 -0.18987536430358887 -0.086719304323196411 0.077501200139522552 0.15796855092048645 0.089789658784866333
  0.1804049164056778 -0.62100493907928467 -0.46909499168395996 -0.44534125924110413 0.39380598068237305 0.17352062463760376 -0.35194244980812073 -0.24384127557277679 0.02786087803542614 -0.22486107051372528 0.013346957974135876 -0.10689204931259155 -0.34599339962005615 0.29521608352661133 0.069211088120937347 -0.08254425972700119 0.20632834732532501 0.020615991204977036 -0.27858704328536987 -0.10197765380144119 -0.10691316425800323 0.09078080952167511 0.13470964133739471 0.10352658480405807 0.78174871206283569 0.99712300300598145 1.3493472337722778 0.53787738084793091 -0.3801301121711731 -0.20229481160640717 -0.20443747937679291 -0.074560515582561493 0.079395271837711334 0.037061586976051331 0.19736014306545258 0.10404372215270996 1.1491074562072754 0.276018887758255 0.82130241394042969 0.26580893993377686 -0.83011555671691895 -0.34350690245628357 0.21532858908176422 -0.10777531564235687 -0.064934432506561279 -0.092310428619384766 0.046913318336009979 -0.027015373110771179 -0.6910635232925415 -1.5357962846755981 -1.7323908805847168 -0.46382227540016174 0.57710260152816772 -0.10176903009414673 0.27683240175247192 0.36300131678581238 0.098677098751068115 0.20175629854202271 -0.39073684811592102 -0.23161375522613525
  -0.041303824633359909 0.058398913592100143 0.83592873811721802 0.22740866243839264 -0.47479686141014099 0.10851717740297318 0.50260597467422485 -1.0646469593048096 0.32272827625274658 0.53918164968490601 -0.57007670402526855 0.23540772497653961 -0.13896931707859039 -0.30477988719940186 -0.068658381700515747 0.21549320220947266 0.18704020977020264 -0.11852779984474182 -0.033282984048128128 -0.14809553325176239 0.16550783812999725 0.12062769383192062 -0.1004188135266304 -0.029843073338270187 -0.34193190932273865 -0.5129392147064209 -0.45121285319328308 0.031803444027900696 0.40520581603050232 -0.06955835223197937 -0.38627815246582031 0.24413524568080902 -0.023365277796983719 -0.075871869921684265 0.096711263060569763 0.017588548362255096 -0.030180132016539574 -0.14451290667057037 -0.3821672797203064 -0.25231245160102844 0.24334205687046051 -0.11395645886659622 -0.29146373271942139 0.61877173185348511 -0.2415342777967453 -0.22070688009262085 0.22810302674770355 -0.03911755234003067 0.70137590169906616 0.73047471046447754 -0.10263598710298538 -0.27777326107025146 -0.31824222207069397 0.17006359994411469 0.27540796995162964 0.74401509761810303 -0.28412351012229919 -0.65220296382904053 0.49028113484382629 -0.01812470331788063
  2.1124513149261475 -0.24499963223934174 -0.46341517567634583 0.37148469686508179 -0.27806481719017029 0.15955831110477448 -0.10795868933200836 0.12511493265628815 -0.016871629282832146 0.0038440970238298178 -0.074871644377708435 -0.15551592409610748 -0.12658290565013885 -0.14703892171382904 -0.26443758606910706 -0.12213247269392014 0.058229871094226837 0.25257742404937744 0.059937678277492523 -0.095510572195053101 -0.11384314298629761 0.093813017010688782 -0.095945559442043304 -0.030284972861409187 -1.8834179639816284 0.2430395781993866 0.19517245888710022 -0.34582003951072693 0.031695012003183365 0.062538616359233856 0.054347246885299683 0.057859413325786591 -0.06042896956205368 -0.094665184617042542 -0.007204987108707428 0.12892891466617584 -2.1925294399261475 0.21312980353832245 0.59917140007019043 -0.042588945478200912 -0.084383957087993622 -0.23619134724140167 -0.023933395743370056 0.068554669618606567 0.042383186519145966 -0.092188537120819092 0.078457750380039215 0.09680609405040741 0.72006845474243164 -0.16165786981582642 -0.12557375431060791 0.32770925760269165 0.20341940224170685 -0.11527072638273239 -0.0036765746772289276 -0.075893975794315338 0.34161809086799622 0.059612736105918884 0.053499091416597366 -0.14441461861133575
  -0.021678989753127098 0.3402063250541687 0.60964363813400269 -0.035013958811759949 -0.27638208866119385 -0.047158528119325638 -0.13237796723842621 -0.50110310316085815 -0.18315547704696655 0.036429047584533691 -0.1820320338010788 0.20950894057750702 0.037843048572540283 -0.28862258791923523 -0.56351077556610107 -0.19356468319892883 0.17768393456935883 0.098445884883403778 0.1268346756696701 0.11966393142938614 0.16294284164905548 0.12505167722702026 -0.21783992648124695 -0.058488551527261734 -0.029017871245741844 -0.46285057067871094 -0.60674947500228882 -0.32611954212188721 0.21751190721988678 0.13051918148994446 0.24206677079200745 0.37874001264572144 0.28709372878074646 -0.00050970003940165043 -0.10174661129713058 -0.12417441606521606 -0.18468724191188812 -0.30519795417785645 -0.29909688234329224 -0.17953771352767944 -0.003193290438503027 0.10786046832799911 0.14418382942676544 0.38788488507270813 0.13728286325931549 -0.012643064372241497 0.12446699291467667 0.021248318254947662 -0.4140411913394928 0.20151738822460175 -0.43380627036094666 -0.18415345251560211 0.14857351779937744 0.25275847315788269 0.21429638564586639 0.13918687403202057 -0.06430719792842865 -0.15662451088428497 0.15888375043869019 0.086641989648342133
  -0.008410060778260231 0.24634520709514618 0.021801833063364029 0.041380982846021652 0.4682527482509613 -0.12014434486627579 -0.30262869596481323 0.40916386246681213 -0.34812378883361816 0.13790549337863922 0.21354290843009949 -0.20420730113983154 -0.33645027875900269 0.2123301774263382 -0.518543541431427 -0.17578990757465363 0.52246725559234619 -0.10680555552244186 -0.28645661473274231 0.43782490491867065 -0.39359927177429199 0.22658801078796387 0.13297498226165771 -0.15799179673194885 -0.29589793086051941 0.33957546949386597 -0.28104293346405029 -0.30779966711997986 0.35785979032516479 -0.068450018763542175 -0.26281604170799255 0.23271897435188293 -0.22133649885654449 0.079611070454120636 0.083010166883468628 -0.13478726148605347 -0.3594602644443512 0.321990966796875 0.14358372986316681 -0.1314581036567688 0.10858874022960663 -0.077217452228069305 -0.11780012398958206 -0.026574114337563515 0.074983954429626465 0.031312830746173859 0.061249863356351852 -0.033891674131155014 0.42178705334663391 -0.46876496076583862 0.43917009234428406 -0.0031635810155421495 -0.30730581283569336 0.015293862670660019 0.14670288562774658 -0.57123363018035889 0.43995463848114014 -0.24411442875862122 0.15899248421192169 -0.016249507665634155
  0.26322165131568909 -0.26145300269126892 -0.14098545908927917 0.18756088614463806 -0.20727455615997314 -0.16768641769886017 -0.12566885352134705 -0.35831508040428162 -0.010910377837717533 0.034644681960344315 -0.10022712498903275 0.066656284034252167 -0.53988182544708252 0.07284904271364212 0.07704133540391922 -0.11448562145233154 0.02106279693543911 -0.13075253367424011 -0.24100275337696075 0.14611528813838959 0.018655054271221161 -0.052985362708568573 -0.030698195099830627 0.086061820387840271 -0.34203383326530457 0.2707800567150116 0.13301809132099152 -0.11181525886058807 0.21770811080932617 -0.014567121863365173 -0.30080640316009521 0.27520155906677246 0.060513198375701904 -0.044930566102266312 0.099555693566799164 0.17597424983978271 -0.31684234738349915 0.46840012073516846 0.070410624146461487 -0.26005971431732178 0.25377258658409119 0.10403095185756683 -0.18668991327285767 0.39770561456680298 0.056651931256055832 -0.096311070024967194 0.1306973397731781 0.18114714324474335 -0.84797632694244385 0.69013851881027222 0.038713175803422928 -0.16290639340877533 -0.39977937936782837 -0.2978152334690094 -0.30126705765724182 0.025368086993694305 0.13669124245643616 0.14862646162509918 0.42667794227600098 0.3312593400478363
  -0.9220009446144104 0.12843453884124756 0.64641851186752319 -0.76086533069610596 -0.20065896213054657 0.44679754972457886 0.058481477200984955 -0.16791070997714996 -0.014202641323208809 0.090868070721626282 0.039805237203836441 -0.20645894110202789 -0.0066762790083885193 0.28318500518798828 0.54703348875045776 0.078431300818920135 -0.19104486703872681 0.090057879686355591 0.076683729887008667 -0.098009206354618073 -0.072831004858016968 0.0444142185151577 -0.05629764124751091 -0.023628940805792809 -0.16380240023136139 0.033096142113208771 0.26915469765663147 0.15412774682044983 -0.18709909915924072 -0.062170781195163727 0.039689145982265472 0.031139224767684937 -0.054794177412986755 -0.01976778544485569 -0.041763205081224442 0.048756308853626251 0.070291526615619659 -0.11104445159435272 -0.24442113935947418 0.31995916366577148 0.070071592926979065 -0.18672490119934082 -0.094401583075523376 0.15686379373073578 0.0078170010820031166 -0.062174543738365173 -0.08263792097568512 0.06103862076997757 1.7879778146743774 -0.83658766746520996 -2.097095251083374 0.69031482934951782 0.7390560507774353 -0.24885869026184082 -0.030714001506567001 0.12241114675998688 0.16748486459255219 0.12127278000116348 -0.11768931895494461 -0.032524965703487396
  -0.24895758926868439 0.036810863763093948 -0.35981795191764832 0.12394427508115768 0.49690216779708862 0.098410524427890778 -0.03941778838634491 0.097032070159912109 0.213981032371521 0.15199506282806396 -0.14471742510795593 -0.088282324373722076 0.35052961111068726 -0.42931818962097168 -0.14416307210922241 -0.18684646487236023 0.25059905648231506 0.088088594377040863 0.099254406988620758 0.12292899936437607 0.35191977024078369 -0.02785341814160347 -0.26687625050544739 -0.31272730231285095 0.40566167235374451 -0.67724084854125977 -0.4025816023349762 -0.27148926258087158 0.35288327932357788 0.065415948629379272 0.14193281531333923 0.16068847477436066 0.2589493989944458 -0.057258658111095428 -0.15700432658195496 -0.39229363203048706 0.51985687017440796 -0.2902226448059082 -0.14982905983924866 -0.1474306732416153 0.14938396215438843 0.034492135047912598 0.10545670986175537 0.0047844136133790016 0.082177378237247467 -0.023275803774595261 -0.065634384751319885 -0.17842721939086914 -0.032132353633642197 0.025362169370055199 -0.1438860148191452 0.31216588616371155 0.30518624186515808 -0.078048326075077057 -0.11744723469018936 0.10821949690580368 0.04098096489906311 0.074304699897766113 0.078651599586009979 0.10319279879331589
  -1.1281604766845703 0.044254858046770096 0.6433875560760498 -0.41426417231559753 -0.25574365258216858 0.060855947434902191 0.23794767260551453 -0.25683721899986267 0.045241709798574448 0.2719891369342804 0.044774103909730911 -0.070289373397827148 -0.50922554731369019 0.092309474945068359 0.75027036666870117 -0.21751488745212555 -0.48819756507873535 0.10398592799901962 0.16274476051330566 -0.28887048363685608 -0.020009497180581093 0.24718616902828217 0.042053282260894775 -0.17297869920730591 -0.32097643613815308 0.084725260734558105 0.48249810934066772 -0.28153154253959656 -0.38925603032112122 0.13403952121734619 0.024548029527068138 -0.16151748597621918 0.016958599910140038 0.16415131092071533 0.082987353205680847 -0.073023043572902679 -0.030758719891309738 0.38169917464256287 0.22972339391708374 -0.052143946290016174 -0.19953255355358124 0.030352910980582237 -0.016779953613877296 0.0064455256797373295 -0.04272957518696785 0.04614190012216568 0.044489379972219467 0.042015857994556427 -0.016503462567925453 0.13517305254936218 -0.18073160946369171 0.39565375447273254 0.021421439945697784 -0.014753354713320732 -0.037121374160051346 0.076834097504615784 -0.10635367780923843 -0.043593809008598328 0.031894616782665253 0.11142304539680481
  0.58700472116470337 0.51757568120956421 0.44350892305374146 -0.52768498659133911 -0.94673424959182739 -0.035108737647533417 0.15423491597175598 -0.13057932257652283 -0.12859754264354706 0.073874987661838531 0.16248741745948792 -0.11295396834611893 -0.39219123125076294 0.34665709733963013 -0.31634423136711121 0.025983519852161407 0.31097325682640076 0.017537109553813934 0.0086497347801923752 0.00082170282257720828 0.19203127920627594 0.060159958899021149 -0.16997815668582916 -0.18763332068920135 -0.61058682203292847 -0.2140951007604599 -0.26140502095222473 0.28188210725784302 0.54572206735610962 -0.033499564975500107 -0.095647275447845459 0.11273695528507233 0.29493814706802368 0.064807869493961334 -0.1651732325553894 -0.10641829669475555 0.025917209684848785 -0.31304454803466797 -0.2918819785118103 0.27231138944625854 0.31506675481796265 0.028665214776992798 -0.027778265997767448 0.23638351261615753 0.20960137248039246 0.038342412561178207 -0.059119883924722672 0.013605246320366859 -1.4279700517654419 -0.59113991260528564 0.045346394181251526 0.11938949674367905 -0.43229332566261292 -0.095559269189834595 -0.054146356880664825 0.22791363298892975 0.27265062928199768 0.51939725875854492 0.41974237561225891 0.4265998899936676
  -0.94249910116195679 -0.60779792070388794 -0.41399660706520081 -0.88667142391204834 -0.6950838565826416 0.0090664969757199287 0.030493173748254776 0.28571358323097229 0.3598325252532959 0.15109099447727203 0.081354372203350067 0.1187828853726387 -0.34207507967948914 -0.21914060413837433 0.14016109704971313 -0.34995254874229431 -0.13849145174026489 -0.15787096321582794 -0.10864616930484772 -0.050043217837810516 0.087631098926067352 0.065030537545681 -0.072287894785404205 0.01605600118637085 -0.42808422446250916 0.20091816782951355 0.2108137458562851 0.13231717050075531 0.19839102029800415 -0.13052427768707275 -0.13208447396755219 -0.028045937418937683 -0.029268020763993263 0.071154467761516571 0.011376960203051567 -0.046381168067455292 0.62669193744659424 0.65739059448242188 0.5713227391242981 0.59445697069168091 0.29577645659446716 -0.10347579419612885 -0.12530070543289185 -0.20950014889240265 -0.18894469738006592 0.053808990865945816 -0.0097554884850978851 -0.096314162015914917 1.179653525352478 -0.0061714798212051392 -0.39561885595321655 0.75677794218063354 0.54390943050384521 0.28827717900276184 0.15536901354789734 -0.50862282514572144 -0.36224719882011414 -0.16535577178001404 -0.067155726253986359 -0.09097810834646225
  -0.83281344175338745 -0.15255828201770782 -1.1863996982574463 0.18128156661987305 0.44184726476669312 0.1395178884267807 -0.13471187651157379 0.077711679041385651 -0.10991717129945755 0.38734456896781921 -0.13179533183574677 0.25678366422653198 -0.10391570627689362 0.015301473438739777 -0.0056327544152736664 0.50084930658340454 0.36587786674499512 -0.14555658400058746 -0.055070139467716217 -0.073353603482246399 0.080026723444461823 0.10072972625494003 -0.092071615159511566 0.10362937301397324 -0.22579318284988403 0.2762429416179657 0.4022960364818573 0.30365750193595886 -0.035403039306402206 -0.27982237935066223 -0.029261102899909019 -0.071641243994235992 0.10798382014036179 0.01705663837492466 0.07280421257019043 0.099322430789470673 0.07125728577375412 0.0035032518208026886 0.47673702239990234 0.15955217182636261 -0.11674286425113678 -0.16964925825595856 0.019641255959868431 -0.08009684830904007 0.032317090779542923 -0.086992979049682617 0.13083648681640625 0.052359018474817276 -0.11218591779470444 -0.23853690922260284 -0.42348217964172363 -0.0034367605112493038 0.3306100070476532 0.064137622714042664 -0.098440766334533691 0.030337296426296234 0.033844579011201859 0.10981649905443192 0.021711461246013641 -0.093506805598735809
  0.20306085050106049 0.53504341840744019 -0.54185283184051514 -0.37622544169425964 0.52292835712432861 0.47638857364654541 -0.10870145261287689 -0.31639760732650757 -0.0080706905573606491 0.31813555955886841 0.10639625042676926 -0.046084515750408173 0.055076319724321365 0.079152107238769531 0.16697567701339722 0.014059758745133877 -0.10312119126319885 0.17153522372245789 0.14140930771827698 -0.092497065663337708 -0.10866190493106842 -0.032163333147764206 0.034226074814796448 -0.0014659120934084058 0.30465924739837646 0.11173630505800247 0.060441765934228897 -0.082417823374271393 -0.22373475134372711 0.095875822007656097 0.20336002111434937 0.038979716598987579 -0.089404821395874023 -0.16134284436702728 -0.070672288537025452 -0.020540026947855949 -0.69535732269287109 0.09126020222902298 0.20786195993423462 0.04114142432808876 -0.28502374887466431 -0.097265630960464478 0.22401091456413269 0.19291546940803528 -0.040452338755130768 -0.2130095511674881 -0.095938436686992645 0.092757344245910645 0.28553411364555359 -0.70828264951705933 0.70201373100280762 0.47048354148864746 -0.53589367866516113 -0.6949925422668457 0.12000641226768494 0.61482334136962891 0.20211215317249298 -0.27343323826789856 -0.14082114398479462 0.070532627403736115
  0.12311309576034546 0.62827372550964355 0.45145180821418762 0.75901210308074951 -0.10000208020210266 -0.42840081453323364 -1.1575859785079956 -0.61668229103088379 0.30991736054420471 -0.0067277620546519756 0.19945932924747467 0.11395233869552612 -0.43911916017532349 -0.50865828990936279 -0.021684043109416962 -0.31292265653610229 0.0087756793946027756 -0.18613772094249725 -0.12266310304403305 0.26968151330947876 0.20521526038646698 -0.14471401274204254 0.094906367361545563 -0.19780263304710388 -0.30999365448951721 -0.33904054760932922 -0.52156209945678711 -0.60965311527252197 0.20572762191295624 -0.088255390524864197 0.3611413836479187 0.42355483770370483 -0.049898155033588409 -0.05029585212469101 -0.089323252439498901 -0.23976041376590729 0.28142127394676208 0.072378471493721008 -0.17060583829879761 -0.33743375539779663 -0.12312035262584686 0.090394653379917145 0.41946730017662048 0.19343879818916321 -0.0025175753980875015 0.018987720832228661 -0.18164436519145966 -0.052928689867258072 0.70938736200332642 0.025274025276303291 0.34376567602157593 0.50777167081832886 -0.40000802278518677 0.079482503235340118 0.41688054800033569 -0.13520842790603638 0.075019665062427521 0.39099627733230591 -0.24818991124629974 0.14379841089248657
  -0.96634155511856079 -1.067413330078125 -1.0926903486251831 -1.1440333127975464 -1.2367630004882812 -0.76989823579788208 -0.2936260998249054 -0.63284659385681152 -0.18381544947624207 0.11627677083015442 0.095411732792854309 0.080783464014530182 0.46287164092063904 0.062242981046438217 0.21919773519039154 -0.24843518435955048 -0.16251459717750549 -0.43904638290405273 -0.36129856109619141 -0.30008342862129211 -0.21567714214324951 -0.10818357020616531 0.010689293965697289 -0.10387624055147171 0.72091257572174072 0.60669606924057007 0.73381531238555908 0.47740074992179871 0.44531062245368958 0.059189718216657639 0.0034299490507692099 -0.0082710469141602516 0.050369847565889359 -0.16517511010169983 -0.19168417155742645 -0.20673643052577972 0.66469866037368774 0.40477252006530762 0.51518535614013672 0.49407795071601868 0.48583433032035828 0.39915850758552551 0.28508475422859192 0.28297170996665955 0.11562515050172806 -0.18879649043083191 -0.089232705533504486 -0.12596982717514038 0.48109537363052368 -0.096254222095012665 0.02906232513487339 0.11526061594486237 0.38021016120910645 0.46701481938362122 0.33947715163230896 0.40267810225486755 0.20875830948352814 -0.0040354644879698753 0.00033402995904907584 0.10111445933580399
  -0.91374015808105469 -0.70199549198150635 -0.49950706958770752 -1.5442491769790649 -1.1160143613815308 -0.76992636919021606 -0.060665864497423172 0.52151840925216675 0.39821285009384155 0.39021944999694824 0.42119970917701721 0.15831419825553894 1.4907810688018799 0.23974508047103882 0.086645729839801788 0.050540074706077576 -0.29968240857124329 0.015620235353708267 -0.09793882817029953 0.022374644875526428 0.016683178022503853 -0.0242634117603302 -0.013945704326033592 -0.065240837633609772 0.52047723531723022 0.5044395923614502 0.22048121690750122 0.61744987964630127 0.40210971236228943 0.49499943852424622 0.079168699681758881 -0.048436902463436127 -0.051076836884021759 -0.14787378907203674 -0.20536315441131592 -0.18302203714847565 -1.0941059589385986 0.023459287360310555 0.018586225807666779 0.4661577045917511 0.60331249237060547 0.29314571619033813 0.20284494757652283 -0.097450055181980133 -0.10851556062698364 -0.05853889137506485 -0.07006729394197464 0.1141580194234848 -0.03667149692773819 -0.2253011018037796 0.14209261536598206 0.2569219172000885 0.038188260048627853 -0.21128635108470917 -0.078084513545036316 -0.12974849343299866 -0.039763391017913818 -0.070395737886428833 -0.092406205832958221 0.041634242981672287
  -0.95798349380493164 0.18049892783164978 -0.44207131862640381 0.015216374769806862 -0.26098456978797913 0.10489459335803986 0.1484685093164444 0.1234913095831871 -0.095716528594493866 0.057924229651689529 0.10507022589445114 -0.036851592361927032 -0.027860555797815323 0.050281751900911331 0.04146866500377655 -0.08114025741815567 -0.043567657470703125 0.042367111891508102 -0.0067597180604934692 -0.0083901919424533844 -0.057183172553777695 -0.0055376514792442322 0.061347819864749908 0.024348054081201553 -0.276887446641922 -0.083623692393302917 0.22664764523506165 -0.074785053730010986 0.073506474494934082 0.042928621172904968 -0.018635334447026253 -0.01968703418970108 0.01049617026001215 -0.049490071833133698 0.04748990386724472 0.02257637120783329 -0.51544088125228882 -0.14569495618343353 0.00034988607512786984 -0.0037783277221024036 0.031191827729344368 -0.07618366926908493 -0.098773270845413208 -0.096556998789310455 0.11385968327522278 -0.008565080352127552 -0.0019721183925867081 -0.024660583585500717 2.8224575519561768 -0.93707019090652466 0.14928567409515381 -0.044472966343164444 0.15336838364601135 0.14508067071437836 -0.066692084074020386 -0.49192097783088684 0.19636900722980499 0.24007111787796021 -0.082212388515472412 -0.028076194226741791
  -0.56343066692352295 -0.77826023101806641 -0.38434123992919922 -0.74571776390075684 -0.59410160779953003 -0.14079532027244568 0.052282974123954773 0.11635486781597137 0.04983844980597496 -0.10909930616617203 0.069184154272079468 -0.073961466550827026 -0.37442198395729065 0.42989042401313782 0.060910813510417938 0.49909099936485291 0.61261695623397827 0.0060481601394712925 0.068712234497070312 -0.12605613470077515 -0.20673497021198273 0.0092473719269037247 -0.14329043030738831 -0.085686050355434418 0.19388943910598755 0.55810433626174927 0.31595137715339661 0.72476494312286377 0.63327664136886597 0.14106133580207825 0.077529050409793854 -0.094520770013332367 -0.059371553361415863 0.032533831894397736 -0.19838044047355652 -0.077136605978012085 2.3490028381347656 1.3229875564575195 0.7623627781867981 0.77945888042449951 0.0083358483389019966 -0.097694739699363708 -0.14634884893894196 -0.27605962753295898 -0.016880998387932777 0.021839510649442673 -0.1351965069770813 -0.26877346634864807 -0.46918699145317078 -1.3759477138519287 -0.37200355529785156 -1.1866604089736938 -0.59581446647644043 0.015637341886758804 -0.057809170335531235 0.16085514426231384 0.14349551498889923 -0.16277629137039185 0.31825792789459229 0.12701408565044403
  -0.59320592880249023 -0.32780015468597412 0.26236337423324585 -0.0012384621659293771 -0.23117636144161224 0.044780686497688293 0.13187006115913391 0.39997407793998718 0.23185135424137115 -0.17312659323215485 -0.14198610186576843 0.14568592607975006 -0.1781805157661438 0.13055719435214996 -0.0038703249301761389 0.27774220705032349 0.15151962637901306 0.12570875883102417 0.17594236135482788 0.15098331868648529 -0.0025799861177802086 -0.12932205200195312 -0.071199402213096619 0.084035731852054596 -0.32349422574043274 0.096487939357757568 0.064932443201541901 0.19601871073246002 0.30018103122711182 0.23291714489459991 0.10604929178953171 0.046240288764238358 -0.10384493321180344 -0.11980678141117096 0.026104234158992767 0.029097046703100204 -0.085384435951709747 -0.14155781269073486 0.12878790497779846 0.083773903548717499 0.37338274717330933 0.1548735648393631 0.1414811760187149 -0.15274247527122498 -0.26164573431015015 -0.12543068826198578 0.14625237882137299 -0.035181812942028046 0.18093335628509521 -0.43265137076377869 -0.58318227529525757 -0.14018973708152771 0.61456364393234253 0.34588012099266052 -0.019135298207402229 -0.62421518564224243 -0.29567199945449829 0.137136310338974 0.10621004551649094 -0.14460135996341705
  0.17192074656486511 -0.26009738445281982 -0.10800183564424515 -0.29612299799919128 0.37944307923316956 0.66942077875137329 0.29897287487983704 -0.17248457670211792 -0.018208874389529228 -0.17237050831317902 -0.27865764498710632 -0.2277332991361618 -0.28933122754096985 0.52321332693099976 0.60134291648864746 0.52813822031021118 0.25425562262535095 -0.083597637712955475 0.032577503472566605 0.23963987827301025 -0.1585385650396347 -0.210222527384758 -0.35964071750640869 -0.29645547270774841 0.085303105413913727 0.29841005802154541 0.64494884014129639 0.31714382767677307 -0.13962742686271667 -0.085740327835083008 0.21687032282352448 0.23181386291980743 -0.10433255881071091 -0.21275326609611511 -0.25454628467559814 -0.1877242773771286 0.25929263234138489 0.11815754324197769 0.045085880905389786 0.041226711124181747 -0.46647936105728149 -0.0095893032848834991 0.24687325954437256 0.096268601715564728 -0.082388691604137421 -0.16238392889499664 -0.13762016594409943 0.1444878876209259 -0.070419460535049438 -0.12199301272630692 -1.05591881275177 -0.80449491739273071 -0.19789953529834747 0.19447581470012665 -0.24476444721221924 -0.17749442160129547 -0.017433850094676018 0.20300032198429108 0.27237695455551147 0.32234945893287659
  0.0061289425939321518 -0.22327916324138641 0.18793982267379761 -0.31760299205780029 -0.088453210890293121 -0.15849830210208893 -0.32519540190696716 0.055434450507164001 0.090555064380168915 -0.049532297998666763 -0.015890883281826973 -0.15937982499599457 -0.067536473274230957 0.076313033699989319 0.2369668036699295 0.45919987559318542 0.3100028932094574 -0.018324732780456543 0.016131937503814697 -0.091454081237316132 0.00016496493481099606 -0.10213153809309006 -0.30500483512878418 -0.11685018241405487 0.20164558291435242 0.23993661999702454 0.11669348925352097 0.5676005482673645 0.3936612606048584 0.099279902875423431 0.20162928104400635 -0.13524630665779114 -0.11358563601970673 -0.13572540879249573 -0.25091537833213806 -0.052522063255310059 0.23917299509048462 0.55845719575881958 0.14254586398601532 0.32853266596794128 0.21197818219661713 0.0037613585591316223 -0.1112530529499054 -0.14995284378528595 -0.26716384291648865 -0.097536467015743256 -0.023606142029166222 0.1043015792965889 0.45332273840904236 0.32667726278305054 0.33200335502624512 -0.61430931091308594 -0.68371576070785522 -0.33295461535453796 -0.84931200742721558 -0.47046461701393127 -0.38848233222961426 -0.060830585658550262 0.49805310368537903 0.21671342849731445
  3.1954433917999268 -1.1226069927215576 0.22457744181156158 -0.10226861387491226 0.082695677876472473 0.046185936778783798 -0.19899183511734009 -0.26934218406677246 -0.12153221666812897 0.23513779044151306 -0.061023864895105362 0.19122868776321411 0.28344574570655823 0.039736676961183548 0.023095780983567238 -0.0089438976719975471 0.16589434444904327 0.10128399729728699 -0.12196700274944305 -0.10589336603879929 0.049589946866035461 -0.0052393842488527298 -0.02882964164018631 0.016161447390913963 -0.15600568056106567 -0.043230902403593063 0.28754967451095581 -0.050038214772939682 -0.018002787604928017 0.10023097693920135 -0.035484347492456436 -0.11259914189577103 0.062534786760807037 -0.078114762902259827 0.04095318540930748 -0.0093754064291715622 -0.35256636142730713 -0.15375439822673798 0.083520345389842987 -0.075806908309459686 -0.059924066066741943 -0.076510898768901825 0.01348558347672224 -0.06586795300245285 0.036862440407276154 -0.034211568534374237 0.022568222135305405 0.060822382569313049 -0.31822463870048523 0.077868618071079254 0.06776447594165802 -0.14054009318351746 -0.16656428575515747 -0.21844014525413513 0.098053932189941406 -0.058281511068344116 0.010779405944049358 -0.10473749041557312 0.16576646268367767 -0.013565999455749989
  -0.82391989231109619 -0.040857508778572083 -0.23909427225589752 0.30112847685813904 -0.14502085745334625 -0.34387549757957458 -0.38469642400741577 -0.10112182796001434 -0.25064736604690552 -0.02102905698120594 0.14504297077655792 -0.0069739650934934616 0.22934125363826752 0.14966778457164764 0.18989290297031403 0.42557615041732788 -0.13671302795410156 0.074814096093177795 -0.19790665805339813 0.039790540933609009 -0.073614344000816345 0.028394699096679688 0.081788718700408936 -0.046934489160776138 -0.31276369094848633 0.28493776917457581 0.18366850912570953 0.50314480066299438 -0.11568719148635864 0.29343074560165405 -0.14007009565830231 0.016995806246995926 -0.011876228265464306 -0.099333725869655609 -0.069637641310691833 0.017738601192831993 -0.50454419851303101 -0.26465302705764771 -0.21431100368499756 0.045043427497148514 -0.068526454269886017 0.33947628736495972 0.12170501798391342 0.099781155586242676 0.016473069787025452 -0.13849979639053345 -0.18270817399024963 0.036571063101291656 -0.046151719987392426 0.32188096642494202 -0.20717845857143402 0.0078035937622189522 0.097276315093040466 0.16962821781635284 0.091414228081703186 0.22989225387573242 0.166612908244133 -0.12702377140522003 -0.39830842614173889 -0.059597689658403397
  -0.61998879909515381 1.105390191078186 0.21836671233177185 0.74826204776763916 0.68683904409408569 0.170170858502388 -0.32320123910903931 0.25585421919822693 0.036799781024456024 0.0035670660436153412 -0.12531127035617828 0.1056038960814476 -0.26192617416381836 -0.20614221692085266 -0.019786892458796501 -0.10990211367607117 -0.11201564222574234 -0.070661686360836029 -0.088102430105209351 0.15312172472476959 0.14374811947345734 0.064371049404144287 0.18376286327838898 0.096710488200187683 -0.49430352449417114 -0.39299103617668152 -0.39369675517082214 -0.32460078597068787 -0.27070486545562744 -0.16201579570770264 0.013193082064390182 0.0089749060571193695 0.043517459183931351 -0.0031279262620955706 0.14125920832157135 0.09711892157793045 -0.39499571919441223 -0.47118553519248962 -0.36474424600601196 -0.2538658082485199 -0.28654259443283081 -0.12066919356584549 0.020518574863672256 -0.077141694724559784 0.017977852374315262 0.017802635207772255 0.1367250382900238 0.22246195375919342 0.68722128868103027 -0.77109056711196899 0.051004372537136078 -0.14288847148418427 -0.44718331098556519 -0.035042412579059601 0.092329740524291992 -0.13863560557365417 -0.1222892701625824 0.068124882876873016 0.19333431124687195 0.19465276598930359
  0.53302991390228271 -0.44147050380706787 -0.88696867227554321 -0.57555043697357178 0.23989968001842499 0.34538659453392029 0.014173094183206558 -0.2205004096031189 0.22457705438137054 0.14805561304092407 -0.12898977100849152 -0.17736969888210297 -1.2387008666992188 -0.31798917055130005 0.094285286962985992 -0.27740448713302612 -0.020322134718298912 -0.23677743971347809 -0.13628681004047394 0.12525299191474915 0.011519472114741802 -0.010078590363264084 -0.025661801919341087 -0.056907292455434799 -1.0844600200653076 0.29275718331336975 0.68758350610733032 0.32651728391647339 -0.15790084004402161 -0.46271923184394836 -0.10525761544704437 0.16738976538181305 -0.088791385293006897 0.0027451924979686737 -0.050816833972930908 0.045890294015407562 0.1917862743139267 0.70431196689605713 0.99534612894058228 0.61062461137771606 -0.2912050187587738 -0.37640228867530823 -0.012005561031401157 0.071194775402545929 -0.14258448779582977 -0.14078840613365173 -0.080819427967071533 0.1098913848400116 0.81652748584747314 -0.0047776652500033379 -0.16059510409832001 0.49413681030273438 -0.24681618809700012 0.15768912434577942 0.23130320012569427 0.023568170145153999 -0.15832832455635071 -0.13753680884838104 0.077439688146114349 0.073725126683712006
  1.6807470321655273 -1.5249502658843994 -2.1472349166870117 -0.80417072772979736 0.7893715500831604 0.28532621264457703 0.36420387029647827 0.14836837351322174 0.61435157060623169 0.43600365519523621 -0.16892014443874359 -0.59212195873260498 0.32075706124305725 0.12663073837757111 0.33455550670623779 -0.23014016449451447 -0.27754783630371094 0.044345840811729431 0.044422905892133713 -0.13528715074062347 -0.14498338103294373 -0.031678535044193268 0.21604993939399719 0.10075933486223221 -0.52310919761657715 0.46657642722129822 0.48049592971801758 -0.090467274188995361 -0.2296193540096283 0.19044004380702972 -0.024318192154169083 -0.067642420530319214 -0.10710972547531128 -0.069916442036628723 0.094971738755702972 0.20993992686271667 -0.55941504240036011 0.32907149195671082 0.40180206298828125 0.16922241449356079 -0.072076320648193359 0.04285421222448349 -0.095717422664165497 0.099411852657794952 -0.14991328120231628 -0.15343505144119263 -0.030094768851995468 0.1663321852684021 0.1813008040189743 0.11513082683086395 0.41188493371009827 0.51125723123550415 0.038255039602518082 -0.39790454506874084 -0.20229834318161011 0.026188688352704048 -0.070861794054508209 -0.18319229781627655 -0.14560170471668243 -0.14041344821453094
  0.48316431045532227 0.27304196357727051 -0.65550225973129272 0.74762952327728271 0.61768734455108643 0.17022581398487091 0.19996406137943268 -0.1784481406211853 -0.21716856956481934 0.13150745630264282 -0.020446479320526123 -0.0052839228883385658 -0.062549255788326263 0.28146585822105408 -0.078184038400650024 -0.12129064649343491 0.11600003391504288 0.021463651210069656 0.2034170925617218 -0.075225375592708588 -0.26049798727035522 0.16077059507369995 0.15347197651863098 0.017042426392436028 -0.11759509891271591 0.31605732440948486 -0.23603689670562744 -0.15392941236495972 0.082184299826622009 0.12889313697814941 0.27621945738792419 -0.17886754870414734 -0.16541458666324615 0.21399571001529694 -0.03963698074221611 -0.067814372479915619 -0.51390612125396729 0.25802528858184814 -0.14644137024879456 -0.17733868956565857 0.071321979165077209 0.13014921545982361 0.021954786032438278 -0.048092607408761978 -0.11101526767015457 0.012787912040948868 -0.12825401127338409 -0.056453447788953781 -1.0849068164825439 -0.4318244457244873 0.017270289361476898 -0.53871721029281616 -0.23536144196987152 0.048604194074869156 0.10519517958164215 0.21321181952953339 0.14270013570785522 -0.20423167943954468 -0.057332810014486313 -0.020443413406610489
  -0.085022009909152985 0.22205305099487305 0.42147794365882874 -0.45978310704231262 -0.020406885072588921 0.0094010410830378532 -0.21381457149982452 -0.16569483280181885 -0.053417235612869263 0.030777990818023682 0.13311545550823212 -0.026267604902386665 -0.15593840181827545 -0.097996808588504791 0.034897077828645706 -0.048861827701330185 0.50958460569381714 -0.42489290237426758 0.2798149585723877 -0.17268389463424683 0.087954722344875336 0.079153120517730713 -0.20933608710765839 0.086151406168937683 -0.14992077648639679 0.099672429263591766 -0.069221742451190948 0.08429524302482605 0.68634593486785889 -0.59062480926513672 0.39121067523956299 -0.13816355168819427 0.20231752097606659 0.16566582024097443 -0.32974550127983093 0.25338703393936157 0.061873584985733032 -0.12573584914207458 -0.025367178022861481 0.0021546611096709967 0.4192412793636322 -0.24789005517959595 0.21393343806266785 0.028469782322645187 0.082532733678817749 0.07841183990240097 -0.20457158982753754 0.12431450188159943 0.051273178309202194 0.0085107218474149704 0.16104081273078918 -0.32265481352806091 -0.17062234878540039 -0.14169910550117493 0.068769089877605438 -0.031049454584717751 -0.032003249973058701 0.012397310696542263 -0.079104810953140259 0.25127211213111877
  -1.4447602033615112 0.034355394542217255 -0.37043657898902893 -0.27599048614501953 0.083874665200710297 -0.18616883456707001 -0.014862421900033951 0.22306710481643677 -0.026894442737102509 0.10401681810617447 0.11700832098722458 -0.04805128276348114 -0.22482283413410187 -0.871570885181427 -0.46376565098762512 -0.83554744720458984 -0.17445054650306702 0.087838321924209595 -0.011755170300602913 0.14293022453784943 0.15451465547084808 0.018428582698106766 0.12676700949668884 -0.039874538779258728 0.53843766450881958 -0.52060788869857788 -0.41356667876243591 -0.50523436069488525 -0.35014775395393372 0.15550298988819122 0.19790096580982208 0.047948796302080154 0.23025816679000854 -0.0048176147975027561 0.0032709620427340269 0.016543358564376831 1.1168994903564453 0.17544145882129669 0.065053246915340424 0.19544287025928497 -0.11708010733127594 -0.12988099455833435 0.043398089706897736 -0.16283100843429565 0.05111277848482132 -0.026973368600010872 -0.015104720368981361 0.0077513339929282665 0.55679416656494141 0.80649071931838989 1.0426222085952759 1.0504459142684937 0.1991112232208252 -0.063561484217643738 -0.065526410937309265 -0.25149115920066833 -0.27077299356460571 -0.071667276322841644 -0.24185247719287872 0.0766025111079216
  0.46315810084342957 0.5501638650894165 -0.53634524345397949 0.27922847867012024 0.71074092388153076 0.20331420004367828 0.24690715968608856 -0.12040335685014725 0.066757179796695709 0.14674653112888336 -0.22560089826583862 -0.26918476819992065 -0.78740185499191284 -0.60508006811141968 0.41884472966194153 -0.22629369795322418 -0.54552018642425537 -0.19432409107685089 0.053872346878051758 0.21672110259532928 0.090593136847019196 -0.077142991125583649 0.18858727812767029 0.22450520098209381 0.54395449161529541 -0.85822677612304688 0.12732440233230591 -0.059274256229400635 -1.0911415815353394 -0.56631600856781006 -0.28743848204612732 0.070047229528427124 0.30573734641075134 0.17023122310638428 0.25425964593887329 0.265848308801651 1.1092724800109863 -0.21320450305938721 -0.21603406965732574 0.20585677027702332 0.014266227371990681 -0.049389299005270004 -0.25271028280258179 0.045470301061868668 0.07686818391084671 0.038184519857168198 -0.060492780059576035 -0.12328102439641953 0.15336862206459045 0.47098541259765625 -0.48000842332839966 -0.065463855862617493 0.67117029428482056 0.42205843329429626 -0.010764848440885544 -0.11600344628095627 -0.18159891664981842 -0.11888466030359268 0.027352647855877876 -0.01992323249578476
  0.89096164703369141 -0.069317683577537537 0.10063003748655319 -0.10191644728183746 0.009283985011279583 -0.11928693205118179 -0.07543463259935379 -0.018214907497167587 0.041192807257175446 -0.12263952195644379 0.037131037563085556 -0.19683004915714264 0.76111608743667603 0.09338698536157608 0.33877623081207275 0.11316953599452972 -0.19457347691059113 -0.050446201115846634 -0.09170222282409668 -0.014148849993944168 0.080825738608837128 -0.082092761993408203 0.080439679324626923 -0.1063002422451973 0.26145642995834351 -0.018337052315473557 0.089968428015708923 0.1088748499751091 -0.11622730642557144 0.03681487962603569 -0.061318788677453995 0.0033482115250080824 -0.0079524535685777664 -0.041088283061981201 0.068475395441055298 -0.056886687874794006 -0.67478179931640625 -0.076919816434383392 -0.39030629396438599 0.075603388249874115 0.11289691925048828 0.19297930598258972 0.064492359757423401 0.048202160745859146 0.0065603898838162422 0.033297162503004074 -0.0082176551222801208 0.10060418397188187 -2.5171780586242676 0.53244376182556152 -0.51237571239471436 0.10295587033033371 0.77857714891433716 0.3279615044593811 0.051963489502668381 0.090147487819194794 -0.1942240446805954 0.19718211889266968 -0.21173441410064697 0.2151789516210556
  -0.084459774196147919 0.76361441612243652 0.79203909635543823 -0.17826643586158752 -0.083315752446651459 0.20095832645893097 -0.25582683086395264 -0.24495156109333038 0.052005574107170105 -0.040097787976264954 -0.11459141224622726 0.21798400580883026 -1.0947425365447998 0.48946955800056458 0.019379455596208572 -0.24173019826412201 0.090915121138095856 0.27391842007637024 -0.16430017352104187 0.034933481365442276 0.14272665977478027 -0.11992958933115005 0.037198498845100403 0.17627814412117004 -0.94205433130264282 0.2197754979133606 -0.18191392719745636 -0.31632930040359497 0.27532649040222168 0.1380896121263504 -0.21604138612747192 -0.0067422972060739994 0.050043452531099319 0.025886008515954018 -0.020425349473953247 0.08690161257982254 -0.61098188161849976 -0.37560358643531799 -0.35511285066604614 -0.12795956432819366 0.14541260898113251 -0.028595369309186935 0.018693052232265472 0.04984678328037262 0.017728570848703384 0.13934504985809326 0.020223518833518028 -0.041487045586109161 1.7572826147079468 -0.49911788105964661 -0.06522524356842041 0.26170402765274048 -0.19674436748027802 -0.23279957473278046 0.18970048427581787 -0.10049296915531158 -0.090076163411140442 0.053854569792747498 0.076864376664161682 -0.19832856953144073
  0.7525564432144165 -0.0067427782341837883 -0.40977787971496582 -0.74918216466903687 0.28426700830459595 0.41830134391784668 -0.1707611083984375 -0.4539966881275177 -0.22322285175323486 0.064125388860702515 0.15764373540878296 -0.17934563755989075 0.51425343751907349 0.068699546158313751 -0.05034169927239418 -0.072203733026981354 0.31394204497337341 0.18825632333755493 -0.030487567186355591 -0.30738097429275513 -0.075676538050174713 0.095007620751857758 0.19941958785057068 -0.078718647360801697 0.73171752691268921 -0.014673712663352489 -0.0055354675278067589 0.24086067080497742 0.064129091799259186 0.091397084295749664 -0.047134194523096085 -0.21205472946166992 0.0068914443254470825 0.073595508933067322 0.22907847166061401 0.014905590564012527 0.59755128622055054 0.016270335763692856 0.036568764597177505 0.13343963027000427 -0.00078512157779186964 0.091605812311172485 0.051958560943603516 -0.13157598674297333 -0.039247114211320877 -0.027092345058917999 0.11720634996891022 0.049056965857744217 -0.36541736125946045 -0.030691256746649742 -0.11969730257987976 -0.1712055504322052 0.076882533729076385 0.096252396702766418 0.17102472484111786 -0.01542226318269968 -0.066907539963722229 0.11902252584695816 -0.070063315331935883 0.047213632613420486
  -1.3384182453155518 0.2911074161529541 0.092288203537464142 -0.92063742876052856 0.34171807765960693 -0.065525263547897339 -0.1837993711233139 0.0698409304022789 0.09084368497133255 -0.13345631957054138 0.17066319286823273 0.070917531847953796 -0.1189696192741394 0.45274502038955688 0.07133222371339798 0.028122434392571449 0.024244524538516998 0.013264101929962635 -0.22309595346450806 -0.16737024486064911 0.12002705037593842 0.044434826821088791 0.06225644052028656 0.12206458300352097 0.51385921239852905 0.27161279320716858 0.023572612553834915 -0.052662249654531479 -0.15730300545692444 0.10358116030693054 -0.26416024565696716 -0.24260276556015015 0.098262675106525421 0.18153271079063416 0.0926557257771492 0.086232565343379974 0.44420707225799561 -0.18336288630962372 0.032859280705451965 -0.067839920520782471 -0.16923472285270691 0.11702704429626465 -0.10023753345012665 -0.16401244699954987 -0.0062406100332736969 0.098551824688911438 0.093971848487854004 0.023893216624855995 -0.55205893516540527 0.17376498878002167 0.10176130384206772 -0.08642520010471344 0.01048277597874403 -0.24290305376052856 -0.0057578757405281067 0.094510823488235474 -0.11496268957853317 -0.046767737716436386 0.019060999155044556 0.15551890432834625
  0.91781193017959595 0.36110451817512512 0.43127334117889404 0.49993264675140381 0.32113900780677795 -0.08319941908121109 0.26810294389724731 -0.0176556296646595 -0.23112677037715912 -0.02058965340256691 -0.14337874948978424 -0.10441114008426666 -0.75851261615753174 -0.1240425705909729 -0.018819075077772141 -0.0027236314490437508 0.20584340393543243 -0.012606330215930939 0.039744339883327484 -0.01482939999550581 -0.032219886779785156 0.053114701062440872 0.013971156440675259 -0.033141147345304489 -0.19569024443626404 -0.13691058754920959 -0.10355294495820999 0.034026928246021271 0.32857850193977356 0.12631204724311829 -0.1600116640329361 -0.14720642566680908 0.090238615870475769 0.18236197531223297 -0.097946532070636749 -0.10544502735137939 0.23978099226951599 -0.0026659206487238407 0.14887721836566925 0.11592373251914978 0.144915372133255 0.058400213718414307 -0.19855871796607971 -0.22706122696399689 0.089046165347099304 0.078238047659397125 -0.12898695468902588 -0.20571364462375641 -0.044805094599723816 -0.14421276748180389 0.22599013149738312 0.69552832841873169 0.22710837423801422 0.15054850280284882 -0.49537837505340576 -0.64982181787490845 -0.11194364726543427 -0.088410750031471252 -0.089937001466751099 0.024687552824616432
  -0.24552379548549652 0.85588318109512329 0.72067844867706299 0.15771986544132233 0.11490312963724136 0.096877843141555786 -0.11198567599058151 -0.097714804112911224 0.049668606370687485 -0.29020905494689941 0.0068549299612641335 0.10113036632537842 0.016051109880208969 0.091575153172016144 0.23588937520980835 -0.16772513091564178 -0.011477780528366566 0.17207534611225128 0.031848590821027756 -0.16335785388946533 0.01629549078643322 -0.028305757790803909 -0.022063277661800385 0.033722799271345139 -0.1177411749958992 0.072289176285266876 0.28979602456092834 -0.0055068321526050568 -0.011300287209451199 0.10609672963619232 -0.038912735879421234 -0.23452341556549072 -0.037978731095790863 -0.084580443799495697 -0.12736628949642181 -0.031997546553611755 0.38497358560562134 0.25153708457946777 0.1689894050359726 0.34894761443138123 0.16106705367565155 0.11590880900621414 -0.005492375697940588 -0.27550536394119263 -0.012199213728308678 0.031316056847572327 -0.16904464364051819 -0.09940541535615921 0.34611588716506958 -0.24224662780761719 -0.24344837665557861 -0.10163350403308868 0.33244198560714722 0.27946096658706665 0.21876761317253113 0.29825073480606079 0.034115619957447052 -0.13415138423442841 -0.14807426929473877 -0.12032318115234375
  0.14719298481941223 0.29065254330635071 0.3484797477722168 0.11888755112886429 -0.19434711337089539 0.10030301660299301 0.047171816229820251 0.25246208906173706 0.11552572995424271 -0.16725748777389526 0.097114428877830505 0.041134253144264221 -0.017874618992209435 0.060936823487281799 -0.28641942143440247 -0.056955691426992416 -0.099501743912696838 0.18872068822383881 -0.12306568771600723 0.20185910165309906 -0.37221729755401611 0.37354469299316406 -0.29794710874557495 0.26486104726791382 -0.001610148698091507 0.096477590501308441 -0.42144322395324707 0.20860540866851807 0.082393325865268707 0.1092548593878746 -0.19019976258277893 0.19215936958789825 -0.58052617311477661 0.57430917024612427 -0.53078776597976685 0.39474526047706604 -0.1097133606672287 -0.016805149614810944 -0.37459617853164673 0.22717532515525818 0.12941379845142365 0.048724643886089325 -0.18644164502620697 0.07585887610912323 -0.52784049510955811 0.56336277723312378 -0.39735871553421021 0.25921723246574402 -0.17748764157295227 -0.18653169274330139 -0.37352144718170166 0.090300098061561584 0.033554054796695709 -0.11434990912675858 -0.21564276516437531 0.29745268821716309 -0.50883752107620239 0.3047645092010498 -0.16991508007049561 0.02046753466129303
  -0.20029699802398682 0.26914587616920471 -0.15636962652206421 0.22443123161792755 -0.017115123569965363 -0.29085642099380493 0.029458425939083099 -0.08754170686006546 0.043113179504871368 0.09463992714881897 -0.031056113541126251 -0.11345500499010086 -0.12380384653806686 0.30531376600265503 -0.46399778127670288 0.34372988343238831 -0.15615937113761902 -0.23501232266426086 0.30349576473236084 -0.28416222333908081 0.14550565183162689 -0.037870578467845917 0.047238226979970932 -0.06580846756696701 -0.14646394550800323 0.32090207934379578 -0.64907920360565186 0.42002794146537781 -0.17929007112979889 -0.29214560985565186 0.37390202283859253 -0.38770860433578491 0.27914068102836609 -0.16590316593647003 0.066959448158740997 -0.10177307575941086 -0.027828624472022057 0.37611469626426697 -0.45246410369873047 0.30887311697006226 -0.058806780725717545 -0.20946420729160309 0.1957586258649826 -0.22470492124557495 0.14336018264293671 -0.098195940256118774 0.062968946993350983 -0.10379602015018463 -0.19730913639068604 0.071489132940769196 -0.26143684983253479 0.30394914746284485 -0.037861306220293045 -0.18989476561546326 0.12669207155704498 -0.097359716892242432 0.09449293464422226 -0.051477883011102676 -0.033361375331878662 -0.12598143517971039
  -0.038977615535259247 -0.63633573055267334 -0.13222320377826691 -0.19876617193222046 -0.27946379780769348 -0.1193339005112648 -0.020376395434141159 0.091875925660133362 0.16558845341205597 -0.07494160532951355 -0.02579772099852562 0.12991179525852203 -0.4569353461265564 -0.30042985081672668 -0.41820427775382996 -0.21696513891220093 0.21968229115009308 -0.00017637794371694326 0.06081143394112587 0.21535287797451019 0.0035513627808541059 -0.12030249089002609 0.021965013816952705 0.1141417920589447 -0.60713136196136475 0.26087835431098938 -0.090146876871585846 0.10263315588235855 0.40546053647994995 0.040447622537612915 0.03595864400267601 0.17806854844093323 0.030092461034655571 -0.11067640036344528 0.021053582429885864 0.078240044414997101 0.18823026120662689 0.12055462598800659 0.25429356098175049 0.10203789919614792 0.037778429687023163 -0.060625612735748291 -0.077099151909351349 0.028426541015505791 0.01610124483704567 -0.085885047912597656 0.11626172810792923 -0.0066133337095379829 2.408482551574707 0.97321659326553345 1.0051165819168091 0.22762417793273926 -0.74019086360931396 -0.59684669971466064 -0.48776671290397644 -0.84627920389175415 -0.3826427161693573 -0.050186034291982651 -0.22694367170333862 -0.29188096523284912
  -0.37034422159194946 -0.32893845438957214 0.71260297298431396 0.75088554620742798 0.30167543888092041 -0.32871809601783752 -0.40967297554016113 -0.20123015344142914 0.21104516088962555 0.043850809335708618 -0.032659795135259628 -0.19841086864471436 0.13614656031131744 -0.47861945629119873 -0.091949827969074249 0.29427540302276611 0.35187500715255737 -0.14509615302085876 -0.3016684353351593 -0.19045621156692505 0.20429301261901855 0.29474747180938721 -0.019225062802433968 -0.17499507963657379 -0.16148041188716888 -0.37626868486404419 -0.014031938277184963 0.35435751080513 0.2633834183216095 -0.021698573604226112 -0.11837538331747055 -0.091522432863712311 0.09282374382019043 0.15996633470058441 -0.13011941313743591 -0.11670073121786118 -0.071314439177513123 -0.031188176944851875 0.19209177792072296 0.045230574905872345 -0.17910769581794739 -0.073223814368247986 0.026896869763731956 0.0092074163258075714 0.021397063508629799 -0.025277959182858467 -0.018474714830517769 -0.023502480238676071 -0.14333696663379669 0.18033620715141296 0.2393147349357605 -0.31990119814872742 -0.19042748212814331 0.061528921127319336 0.30971565842628479 0.046358015388250351 -0.11508490890264511 -0.11242815107107162 0.017501695081591606 0.07874578982591629
  -0.40276810526847839 0.1422673761844635 -0.31057485938072205 0.33414995670318604 -0.16914813220500946 -0.29717853665351868 0.053585723042488098 0.15814819931983948 -0.012952025048434734 0.0024523541796952486 -0.27056285738945007 0.02388557605445385 -0.52154666185379028 -0.20793403685092926 0.63078600168228149 0.40925833582878113 -0.26913195848464966 -0.27983543276786804 -0.02137543261051178 0.25109297037124634 0.16823919117450714 -0.16572195291519165 -0.24304910004138947 0.015191622078418732 -0.26003327965736389 -0.58507317304611206 0.64731240272521973 0.42815724015235901 -0.2746531069278717 -0.37478119134902954 -0.016621392220258713 0.12064994871616364 0.23248046636581421 -0.081298291683197021 -0.2901265025138855 -0.14443185925483704 -0.31052678823471069 -0.53568923473358154 0.22039169073104858 0.054898843169212341 0.052440408617258072 -0.15591840445995331 -0.11857012659311295 0.12049724161624908 0.16020932793617249 -0.028869101777672768 -0.10719677805900574 -0.038911357522010803 -0.18310381472110748 -0.096553944051265717 -0.25007039308547974 -0.1596703976392746 0.10553869605064392 -0.10826656222343445 0.049262773245573044 0.47101524472236633 0.025039801374077797 0.010413382202386856 0.12224404513835907 -0.023454001173377037
  -0.49076160788536072 0.51904505491256714 0.68516790866851807 0.37610024213790894 -0.42817568778991699 -0.01087514404207468 0.11473938077688217 -0.049752138555049896 -0.44814273715019226 -0.028813466429710388 0.26639324426651001 0.49287024140357971 -0.32297033071517944 0.0055327359586954117 0.48324930667877197 0.12443530559539795 -0.40513470768928528 -0.27360516786575317 0.059483803808689117 0.090451635420322418 -0.11439033597707748 -0.036991894245147705 0.12859424948692322 0.21144412457942963 -0.1306765079498291 -0.12913365662097931 0.15667828917503357 -0.0024658769834786654 -0.028093250468373299 -0.28356251120567322 -0.054144326597452164 0.063788414001464844 0.054593868553638458 -0.0039325663819909096 0.058347094804048538 0.0367472805082798 0.34923139214515686 -0.16097444295883179 -0.16715534031391144 -0.070343486964702606 0.20379085838794708 -0.11138477921485901 -0.1467861533164978 0.00083529757102951407 0.19079633057117462 0.061589710414409637 -0.044946756213903427 -0.058436702936887741 1.5090770721435547 -0.60486346483230591 -1.342499852180481 -0.77538907527923584 0.72350400686264038 0.63912308216094971 0.083452597260475159 0.068649172782897949 0.70059549808502197 0.21442362666130066 -0.27913796901702881 -0.72869390249252319
  0.38771671056747437 0.10777768492698669 -0.37114301323890686 0.34462332725524902 0.077791586518287659 0.031385008245706558 -0.27394029498100281 -0.22937588393688202 0.1834898442029953 0.053497206419706345 -0.20799581706523895 -0.09277644008398056 0.41871172189712524 -0.24667008221149445 -0.4594159722328186 0.30190947651863098 0.50830614566802979 -0.10303622484207153 -0.35594630241394043 -0.032043308019638062 0.24548989534378052 0.10734022408723831 -0.19316846132278442 -0.21052788197994232 0.4674910306930542 -0.29390400648117065 -0.73129183053970337 0.061737671494483948 0.52767640352249146 0.17075981199741364 -0.27930155396461487 -0.18924377858638763 0.17127105593681335 0.28169393539428711 -0.064409822225570679 -0.18931268155574799 0.057556554675102234 -0.021050417795777321 -0.39292743802070618 -0.033430963754653931 0.27549535036087036 0.32797828316688538 0.06626090407371521 -0.17120657861232758 -0.029517339542508125 0.12241512537002563 0.12201263010501862 0.025302045047283173 -0.28438889980316162 0.31376147270202637 0.83830821514129639 -0.46725040674209595 -0.37443503737449646 0.2764127254486084 0.27806404232978821 -0.18657313287258148 -0.22432161867618561 -0.16288672387599945 0.20604480803012848 0.15516126155853271
  -0.21393689513206482 -0.41377097368240356 -0.13030622899532318 0.47732597589492798 0.38184911012649536 0.055173367261886597 0.045147016644477844 0.13484540581703186 0.13507552444934845 -0.15386131405830383 -0.071906626224517822 0.0029334716964513063 0.1401199996471405 0.030984874814748764 0.076445475220680237 0.3738190233707428 0.42425945401191711 0.27401483058929443 0.14117017388343811 0.010134886018931866 -0.024745600298047066 -0.073479682207107544 -0.04627276211977005 -0.017099756747484207 0.052382830530405045 0.019084613770246506 -0.12476540356874466 -0.16119515895843506 0.19768252968788147 0.35387375950813293 0.22227099537849426 0.11963789165019989 -0.0073454128578305244 -0.064537033438682556 0.049771320074796677 0.040241219103336334 0.23716369271278381 0.23290130496025085 -0.077015385031700134 -0.34348204731941223 -0.12076175957918167 0.24606145918369293 0.2835354208946228 0.1143336221575737 0.026936091482639313 -0.050269458442926407 -0.0033960971049964428 -0.026654226705431938 -0.0085060056298971176 -0.25785443186759949 -0.28041833639144897 -0.47228133678436279 -0.48700115084648132 -0.3996005654335022 0.14565230906009674 0.38743758201599121 0.33126136660575867 0.046401616185903549 -0.088933259248733521 -0.16167815029621124
  -0.43260321021080017 0.13534051179885864 0.12629981338977814 -0.3311598002910614 -0.091007284820079803 0.040616307407617569 -0.18945051729679108 0.070440448820590973 -0.10188274830579758 -0.16060107946395874 0.097129233181476593 0.010891776531934738 0.41359871625900269 0.16455493867397308 -0.2528344988822937 0.043997842818498611 0.017646171152591705 0.06645481288433075 0.0014450408052653074 0.024566164240241051 -0.019139304757118225 -0.0048237890005111694 0.0047670640051364899 -0.12569378316402435 0.095690742135047913 -0.18496724963188171 -0.42854714393615723 0.17349928617477417 0.0054067140445113182 0.0033286542166024446 0.045340899378061295 0.085363700985908508 -0.029414284974336624 0.013920673169195652 0.12373348325490952 -0.19327729940414429 0.35269740223884583 -0.14834654331207275 -0.34956464171409607 0.30045256018638611 0.01335620041936636 -0.098103873431682587 0.086824454367160797 0.25933992862701416 -0.081382639706134796 -0.055840715765953064 0.24395604431629181 -0.17275187373161316 1.1691051721572876 -0.34880650043487549 -1.0623915195465088 0.69962114095687866 0.17756952345371246 -0.050338484346866608 0.10526265949010849 0.28182739019393921 -0.19831198453903198 0.25502592325210571 0.24457789957523346 -0.073247194290161133
  0.18928827345371246 -0.43311995267868042 -0.32397592067718506 -0.92132365703582764 -0.44392886757850647 -0.12642541527748108 -0.35621166229248047 -0.070797517895698547 -0.17012397944927216 0.065127260982990265 0.38365936279296875 -0.15447022020816803 -1.0824819803237915 0.070552438497543335 -0.078025847673416138 0.30003902316093445 0.074223972856998444 -0.010609203949570656 0.15291525423526764 0.025248626247048378 -0.0050658890977501869 0.16437944769859314 -0.038565050810575485 0.17729257047176361 -0.8044893741607666 0.46626681089401245 -0.17920342087745667 0.67650330066680908 0.34629613161087036 0.1424475759267807 0.39915576577186584 0.078912593424320221 0.12300334870815277 0.15120021998882294 -0.23252846300601959 0.23056626319885254 0.19347222149372101 0.38576957583427429 -0.00289679947309196 0.51114249229431152 0.22017200291156769 0.12721878290176392 0.14454485476016998 -0.064411059021949768 0.18792881071567535 0.10893500596284866 -0.12014653533697128 0.15087434649467468 0.04994017630815506 -0.58336681127548218 0.039274785667657852 -0.42404100298881531 0.086748160421848297 0.43290698528289795 -0.3440975546836853 0.17284217476844788 0.033095449209213257 -0.071110211312770844 0.14531277120113373 -0.14407956600189209
  -0.026714596897363663 -0.14640170335769653 0.057177789509296417 -0.27100622653961182 0.07901560515165329 0.12386686354875565 0.022506482899188995 -0.0015506261261180043 0.18068237602710724 -0.087600991129875183 0.068290963768959045 -0.17743854224681854 -0.15114264190196991 -0.1666359156370163 -0.04858756810426712 -0.11268755048513412 0.028419047594070435 0.16217510402202606 0.048072755336761475 -0.20550619065761566 0.23120191693305969 0.024249257519841194 -0.19847699999809265 0.10644329339265823 -0.36202487349510193 -0.047306414693593979 0.26922205090522766 -0.18706904351711273 0.066450685262680054 0.20944775640964508 0.11642925441265106 -0.30202040076255798 0.24347300827503204 0.065680041909217834 -0.33701130747795105 0.04460032656788826 -0.20036420226097107 -0.071040064096450806 0.34955602884292603 -0.22264713048934937 -0.041786815971136093 0.16731296479701996 0.12681913375854492 -0.26256406307220459 0.20805396139621735 0.067376293241977692 -0.2874625027179718 0.061866365373134613 -0.81833285093307495 0.30420437455177307 0.63217329978942871 -0.44888502359390259 -0.36376786231994629 0.34999895095825195 0.23536144196987152 -0.25342538952827454 0.24070237576961517 -0.032871641218662262 -0.25876548886299133 -0.15413020551204681
  -1.0741919279098511 0.18907570838928223 -0.055865660309791565 0.54548364877700806 0.55574923753738403 0.27331310510635376 -0.11384401470422745 -0.26508060097694397 -0.070779584348201752 0.12353798747062683 0.060094308108091354 0.27204206585884094 0.43173208832740784 -0.13043463230133057 0.22949963808059692 0.039602518081665039 0.12131652235984802 0.016677085310220718 -0.2232431024312973 -0.18558552861213684 -0.051493927836418152 0.071407243609428406 0.075072146952152252 -0.16619187593460083 0.83024632930755615 -0.48679372668266296 -0.10526079684495926 -0.3079676628112793 -0.41984492540359497 -0.300152987241745 -0.22772835195064545 -0.1162162721157074 0.10686511546373367 0.052822045981884003 0.1701948344707489 -0.054538220167160034 0.622528076171875 -0.23403465747833252 -0.26368242502212524 0.056220080703496933 -0.30446714162826538 -0.31910842657089233 -0.13844279944896698 -0.013688747771084309 0.040499459952116013 0.043272338807582855 -0.056737799197435379 -0.042503993958234787 0.0044205705635249615 0.31979537010192871 0.15478551387786865 -0.044646535068750381 -0.057092402130365372 -0.065746389329433441 -0.40484577417373657 0.081774115562438965 -0.0067013418301939964 0.043776914477348328 0.0066578378900885582 0.11154588311910629
  -0.43570730090141296 -0.26793941855430603 -0.090625330805778503 0.0069689503870904446 0.17050030827522278 -0.11908645182847977 -0.40772318840026855 -0.32806134223937988 -0.034770190715789795 -0.058344241231679916 -0.077447205781936646 -0.035874683409929276 -0.48496600985527039 -0.070049084722995758 0.29077622294425964 0.15424400568008423 -0.16620975732803345 -0.29051202535629272 0.063718035817146301 -0.078048452734947205 -0.11181193590164185 -0.032232604920864105 0.040653955191373825 0.063320361077785492 -0.20064440369606018 0.11978035420179367 0.29396694898605347 0.15089917182922363 -0.14924496412277222 -0.22228720784187317 0.11113455146551132 -0.12603217363357544 -0.16493134200572968 -0.00049328565364703536 0.20049324631690979 0.055991578847169876 -0.3031674325466156 -0.13525678217411041 -0.13567551970481873 0.1189035177230835 0.19146116077899933 0.13543254137039185 0.16774171590805054 -0.024410039186477661 -0.10145115107297897 0.089724242687225342 0.2527778148651123 0.022284843027591705 -0.80795681476593018 -0.73122304677963257 -1.1469779014587402 0.12513606250286102 0.62410116195678711 0.35058662295341492 -0.0070189293473958969 0.22502695024013519 0.22364071011543274 0.32271751761436462 0.1700672060251236 0.11332967877388
  -1.3150012493133545 -1.0112990140914917 -1.1414616107940674 -0.25114783644676208 1.0928167104721069 0.40456682443618774 0.23861511051654816 1.0255306959152222 0.28785687685012817 -0.34311315417289734 0.16742093861103058 -0.12370047718286514 -0.73705416917800903 -0.11693188548088074 -0.1081383153796196 0.20958736538887024 0.34627258777618408 0.21470619738101959 0.33964556455612183 0.19674023985862732 -0.021280206739902496 -0.16834039986133575 -0.037135131657123566 0.11172933876514435 -0.166080042719841 -0.26376646757125854 0.081630751490592957 0.21366697549819946 -0.28918486833572388 -0.11817556619644165 0.04773271456360817 -0.22517487406730652 -0.084057696163654327 0.03735274076461792 0.04470544308423996 0.19402582943439484 0.30986183881759644 0.20491902530193329 0.090087190270423889 0.085875585675239563 -0.33175477385520935 -0.12527927756309509 -0.20953565835952759 -0.27691251039505005 -0.064049243927001953 0.23219257593154907 0.056450854986906052 0.1142021119594574 1.0813831090927124 0.7838059663772583 0.31772226095199585 -0.022506546229124069 -0.63135755062103271 -0.22054269909858704 -0.38443365693092346 -0.24618592858314514 -0.028071429580450058 0.2114262580871582 0.026374032720923424 0.13353385031223297
  0.51921135187149048 -0.070227831602096558 0.222461998462677 0.34014388918876648 -0.0029838969931006432 0.059698093682527542 0.40159216523170471 0.40431326627731323 -0.0044776010327041149 0.021208576858043671 0.01140898559242487 0.16446208953857422 0.29891765117645264 0.26554301381111145 0.095363140106201172 0.27823486924171448 0.19710581004619598 0.080124944448471069 0.21527788043022156 0.082845181226730347 -0.11556287109851837 -0.067846223711967468 0.05822807177901268 0.086547978222370148 0.69568759202957153 0.58343327045440674 0.13052240014076233 0.26600134372711182 0.24217619001865387 0.040188878774642944 0.15046416223049164 -0.074474342167377472 -0.023388482630252838 0.022573903203010559 0.077372774481773376 0.02256549708545208 0.4759654700756073 0.42420655488967896 0.28557169437408447 0.11276554316282272 0.18009132146835327 0.044174842536449432 0.067798510193824768 -0.0074426829814910889 0.00761075085029006 0.010005156509578228 -0.0070180026814341545 0.0095498142763972282 0.31574013829231262 0.45795142650604248 0.49373731017112732 0.17318670451641083 -0.15794815123081207 0.15479551255702972 -0.078444644808769226 -0.0043858634307980537 -0.011474238708615303 0.091226719319820404 0.32903960347175598 0.093051031231880188
  2.588557243347168 -0.48241129517555237 0.60487145185470581 -0.40335077047348022 -0.79638081789016724 -0.37835416197776794 -0.39628168940544128 -0.34616532921791077 -0.087800085544586182 -0.14962874352931976 0.11575251072645187 -0.32226219773292542 0.63989353179931641 -0.045801274478435516 -0.1425568163394928 -0.18669615685939789 -0.040567830204963684 -0.076268903911113739 0.0039826100692152977 -0.010370217263698578 0.010404080152511597 -0.0060989344492554665 -0.083583079278469086 -0.0068601635284721851 0.24834221601486206 -0.023620860651135445 0.092688672244548798 -0.25556796789169312 -0.044523183256387711 -0.23578548431396484 0.011562586762011051 0.084022104740142822 0.039989426732063293 0.03483668714761734 -0.010757331736385822 0.086913414299488068 0.17205053567886353 0.077879622578620911 0.25174438953399658 0.17002728581428528 -0.080948695540428162 -0.10461951792240143 0.036610811948776245 0.097987383604049683 0.073991648852825165 0.032345648854970932 0.069341227412223816 0.20148429274559021 -2.5265641212463379 0.11779917031526566 -0.36520293354988098 0.71044164896011353 0.56532728672027588 0.46083751320838928 0.11103473603725433 0.18358059227466583 0.061553835868835449 0.23619268834590912 0.012259031645953655 0.15419907867908478
  -0.025887895375490189 0.54420250654220581 0.92408919334411621 0.036044184118509293 -0.33208367228507996 0.040594369173049927 -0.0417463518679142 -0.46450001001358032 -0.63739991188049316 0.02719440683722496 0.1404460072517395 -0.1619715690612793 0.1920851469039917 0.27525308728218079 0.20236670970916748 0.30676084756851196 -0.0063053914345800877 0.13647957146167755 0.10508357733488083 -0.24469974637031555 -0.22551688551902771 -0.060617335140705109 -0.10711202770471573 -0.024172263219952583 0.057484138756990433 -0.17188574373722076 -0.25928935408592224 0.15955977141857147 0.05814056470990181 0.11365653574466705 0.12030359357595444 -0.11614219844341278 -0.003588374238461256 -0.11475981026887894 -0.13638854026794434 0.026250239461660385 -0.22080902755260468 -0.2360425740480423 -0.51706171035766602 -0.073111869394779205 0.078920654952526093 0.028673052787780762 -0.060883499681949615 0.08846282958984375 0.060414273291826248 -0.044031005352735519 -0.12101436406373978 0.026706704869866371 -0.17526361346244812 -0.032843459397554398 -0.13194280862808228 0.036960646510124207 -0.062024537473917007 -0.37121617794036865 -0.33710083365440369 0.16104795038700104 0.16094018518924713 -0.0072912778705358505 -0.15400674939155579 0.17489378154277802
  0.63361233472824097 -0.092040561139583588 -0.17772357165813446 -0.01027289405465126 0.072628974914550781 0.13372422754764557 -0.11451528966426849 0.10803356021642685 0.010730813257396221 0.22809657454490662 0.07506512850522995 -0.11541149020195007 0.72958123683929443 -0.12091858685016632 -0.053655851632356644 0.81412756443023682 -0.7318115234375 0.050630863755941391 0.053614221513271332 -0.66172802448272705 0.29849877953529358 0.30435404181480408 -0.46716794371604919 0.43228429555892944 0.32282751798629761 0.0056435917504131794 -0.0457504503428936 0.28813862800598145 -0.25165665149688721 -0.016818996518850327 -0.045658957213163376 -0.46485045552253723 0.21072323620319366 0.235470250248909 -0.32498112320899963 0.23630234599113464 -0.28603315353393555 0.032100681215524673 0.22920835018157959 -0.052827175706624985 0.29324588179588318 -0.22347079217433929 -0.24607686698436737 -0.0089492769911885262 0.1382334977388382 0.023158738389611244 -0.045874938368797302 -0.057508792728185654 -0.34488114714622498 0.16057971119880676 0.080325603485107422 -0.59712165594100952 0.56868976354598999 -0.12099258601665497 -0.30080884695053101 0.29327964782714844 -0.014350922778248787 -0.27314391732215881 0.30779328942298889 -0.36910340189933777
  0.096683360636234283 -0.16763176023960114 0.27073773741722107 -0.18559540808200836 -0.4724598228931427 -0.2764294445514679 -0.10455096513032913 -0.1304173469543457 -0.029099710285663605 0.0043420419096946716 -0.16920189559459686 -0.082370348274707794 0.16954463720321655 -0.14377112686634064 -0.075677201151847839 -0.46394252777099609 -0.26193442940711975 -0.044173039495944977 -0.088388070464134216 0.044755890965461731 -0.012998322956264019 -0.090355299413204193 -0.01999250240623951 -0.044569153338670731 0.11612454801797867 0.044343110173940659 -0.089958198368549347 -0.39301294088363647 0.02990475669503212 0.10445503145456314 -0.013749788515269756 0.14025638997554779 0.018353581428527832 -0.043795209378004074 0.034741878509521484 0.017981311306357384 1.4211279153823853 0.84911924600601196 0.33321624994277954 0.24864980578422546 0.022090701386332512 0.1802830845117569 -0.059424206614494324 0.15757888555526733 -0.086431704461574554 -0.0080238236114382744 0.0092622833326458931 -0.037501618266105652 -3.7604594230651855 -0.5089564323425293 -0.88998383283615112 1.2024492025375366 0.97344100475311279 0.62709683179855347 0.40890350937843323 0.20558632910251617 0.042768791317939758 0.29131051898002625 0.098128639161586761 0.54275214672088623
  2.553335428237915 0.35537406802177429 0.38358178734779358 -0.38614174723625183 -0.7452094554901123 -0.52955257892608643 -0.31313955783843994 0.25322863459587097 -0.089278288185596466 0.099625542759895325 0.52307265996932983 -0.2588464617729187 -0.11271124333143234 -0.39045089483261108 -0.087480291724205017 -0.072343006730079651 -0.34732750058174133 -0.2157922238111496 0.17979231476783752 0.07627076655626297 0.021585157141089439 0.071693941950798035 0.25689876079559326 0.099477171897888184 -0.44108957052230835 0.020050132647156715 -0.17726892232894897 0.23690679669380188 0.14526847004890442 -0.19359678030014038 0.27206218242645264 -0.1606409102678299 -0.063947692513465881 0.1132654994726181 -0.11741503328084946 0.16266551613807678 -0.074466034770011902 0.11924725025892258 0.06748344749212265 0.13869090378284454 0.14962385594844818 0.00031006103381514549 0.079617410898208618 -0.12183227390050888 -0.055458512157201767 -0.029091423377394676 -0.12068063765764236 0.020582396537065506 -0.10452359169721603 -0.10445690900087357 0.069328352808952332 -0.065745577216148376 0.29418593645095825 0.29053866863250732 -0.056550078094005585 -0.1986391693353653 -0.064887136220932007 -0.15739096701145172 -0.043241944164037704 -0.0081545272842049599
  -0.13485212624073029 0.17008364200592041 -0.27549636363983154 0.17284014821052551 -0.01923765242099762 0.016527453437447548 -0.18019045889377594 -0.03966912254691124 0.14177800714969635 0.11916547268629074 -0.11869402974843979 0.04592534527182579 -0.12361020594835281 0.29450345039367676 0.12346847355365753 -0.13978064060211182 -0.17245402932167053 0.0031371407676488161 -0.04016987606883049 0.011097579263150692 0.14340847730636597 0.040141180157661438 0.0052330982871353626 0.06144394725561142 -0.19838841259479523 0.66169863939285278 -0.021181907504796982 -0.23116271197795868 -0.14764811098575592 0.01328596007078886 -0.039706915616989136 0.085803389549255371 0.052422501146793365 -0.0235615074634552 0.036932554095983505 0.0089143626391887665 -0.053337801247835159 0.49735331535339355 0.0057547744363546371 -0.3704913854598999 -0.085624024271965027 0.019098132848739624 -0.052049126476049423 0.23195083439350128 -0.031993374228477478 -0.050188593566417694 0.081317894160747528 -0.0081275040283799171 0.26760277152061462 0.86583089828491211 -0.2515360414981842 -0.28408825397491455 0.028993409126996994 0.26408180594444275 -0.016142863780260086 0.29482197761535645 0.041693825274705887 -0.022193524986505508 -0.060515549033880234 -0.013752100989222527
  -0.43372648954391479 -0.25051581859588623 0.5936850905418396 0.98060721158981323 0.24355334043502808 -0.33018290996551514 -0.18064630031585693 0.16887751221656799 0.16171889007091522 0.038753598928451538 -0.1836133599281311 -0.25935599207878113 -0.25245013833045959 -0.20473615825176239 -0.037770789116621017 0.15449535846710205 0.11223166435956955 -0.057336285710334778 -0.036682110279798508 -0.0043470878154039383 0.072131603956222534 0.071442790329456329 0.014375499449670315 0.070009633898735046 0.079439200460910797 0.153654545545578 0.07940153032541275 -0.19287168979644775 -0.25707823038101196 -0.019076801836490631 0.17143365740776062 -0.01595771312713623 -0.061586543917655945 0.0055756364017724991 0.031531751155853271 0.13608422875404358 0.18657104671001434 0.33296048641204834 0.09543677419424057 -0.31668180227279663 -0.25679925084114075 0.16923950612545013 0.2674185037612915 0.027016965672373772 -0.095872104167938232 -0.10073030740022659 -0.0012171977432444692 -0.007470189593732357 1.0910662412643433 0.28898316621780396 -1.3390849828720093 -1.2653825283050537 -0.05244266614317894 0.58121705055236816 0.20159746706485748 -0.0076044676825404167 -0.14814184606075287 0.013274991884827614 0.10487337410449982 -0.017339626327157021 ]
 [ -0.81946378946304321 -0.34577760100364685 -2.4764001369476318 -2.9682490825653076 -2.494194507598877 0.57382708787918091 -2.7714581489562988 1.7229850292205811 3.1032841205596924 -3.8690736293792725 -4.1329503059387207 1.3046469688415527 1.9486428499221802 -4.1992850303649902 -1.7093708515167236 -2.5433666706085205 1.065767765045166 -2.2320632934570312 3.992013692855835 -1.8542519807815552 -1.2947055101394653 0.73749196529388428 -2.8395345211029053 6.1702098846435547 0.37955734133720398 2.6990165710449219 1.5834965705871582 -2.5352683067321777 1.870984673500061 2.0772497653961182 -0.73987925052642822 -3.2997879981994629 -2.0911076068878174 -2.0495812892913818 -1.3441336154937744 -2.3341274261474609 -0.47906309366226196 -0.99973940849304199 -3.2003123760223389 -3.845186710357666 0.35614347457885742 3.552095890045166 -0.96593391895294189 -3.4417319297790527 1.7602907419204712 -1.2600126266479492 0.35009175539016724 -0.032156419008970261 -3.0484118461608887 -2.7389280796051025 1.8427590131759644 -1.2530473470687866 4.6635928153991699 2.314216136932373 -1.8579927682876587 -3.6932566165924072 0.3983900249004364 -1.1877304315567017 0.81227767467498779 -3.2899200916290283 ]
<sigmoid> 60 60
<affinetransform> 50 60
 [ 
  -0.37570154666900635 0.91182535886764526 -1.0190483331680298 -0.20469509065151215 0.05801701545715332 0.33279263973236084 -1.1247025728225708 0.2704508900642395 0.60981482267379761 -1.401050329208374 -0.16491232812404633 -0.85124963521957397 -0.64531803131103516 -1.1832840442657471 -0.5095750093460083 -0.61923712491989136 -0.20715391635894775 -0.27231529355049133 -0.38788509368896484 -0.053610950708389282 0.8775629997253418 -0.36259147524833679 -1.3311716318130493 -0.2159702330827713 0.25887104868888855 0.46450024843215942 0.8560987114906311 -1.4598169326782227 -0.31526201963424683 0.34985712170600891 -0.10785892605781555 -1.1144858598709106 0.39698812365531921 -0.62186062335968018 0.033759493380784988 0.43300563097000122 -0.050586525350809097 0.49483901262283325 -1.2346200942993164 -1.1658039093017578 -0.29351970553398132 0.047305136919021606 -0.51495361328125 -0.23669835925102234 0.53565537929534912 0.26902559399604797 0.18224450945854187 0.042065002024173737 -0.15585353970527649 0.95189708471298218 0.32378411293029785 -0.063511498272418976 0.048196569085121155 -0.41129204630851746 -1.0956453084945679 -0.60435235500335693 0.64454716444015503 0.23901921510696411 -0.33714613318443298 0.56140625476837158
  0.25770428776741028 -0.19351865351200104 0.2523091733455658 0.69689613580703735 1.5654072761535645 0.29742920398712158 -0.095761127769947052 0.24173995852470398 -0.8414037823677063 -0.30115064978599548 0.60029745101928711 -0.32803821563720703 0.43667128682136536 0.38816213607788086 1.7123780250549316 0.18085220456123352 0.10672593861818314 0.79449427127838135 1.3862254619598389 -0.90583842992782593 0.26638084650039673 -0.15221193432807922 0.50631219148635864 -0.35958787798881531 -0.16739337146282196 -0.12356310337781906 -0.17245574295520782 1.5912100076675415 0.17670077085494995 -0.14717021584510803 -0.44913199543952942 0.47251623868942261 -0.14314538240432739 2.0051579475402832 -0.074671424925327301 0.14920732378959656 0.75526010990142822 0.43562483787536621 -0.38709360361099243 -0.0036648737732321024 -0.35385563969612122 -0.95749765634536743 0.80214983224868774 1.8180688619613647 0.20878130197525024 -0.37496432662010193 0.18239906430244446 0.25692775845527649 -0.3226015567779541 -0.22713547945022583 0.19500280916690826 1.0457665920257568 0.11748386174440384 -1.4439452886581421 0.97945654392242432 -0.5073656439781189 -0.34466174244880676 -0.50729316473007202 -0.53914004564285278 1.4423389434814453
  0.44904699921607971 0.76365005970001221 -0.27157700061798096 0.066863417625427246 0.6298719048500061 0.048047486692667007 -0.94358569383621216 0.36505046486854553 -1.1112735271453857 -0.50295901298522949 0.44351157546043396 0.039153322577476501 -0.5848240852355957 0.16372449696063995 0.89107286930084229 -0.16190209984779358 -0.16188468039035797 0.1031607910990715 -0.10195416212081909 0.3820856511592865 -1.0518102645874023 0.026412388309836388 -0.72295576333999634 0.12074765563011169 -0.28562325239181519 0.32059842348098755 0.549640953540802 -0.42360100150108337 -0.29306966066360474 0.29905259609222412 0.60499709844589233 0.3739243745803833 1.2264113426208496 -0.66701811552047729 -0.38991013169288635 -0.11712393164634705 -0.15053679049015045 -0.67214411497116089 0.2038804292678833 -0.37831494212150574 0.16555283963680267 0.29316481947898865 0.3502422571182251 0.499879390001297 -0.34452566504478455 -0.30674335360527039 0.069764882326126099 0.48752763867378235 -0.27095454931259155 0.70214289426803589 0.0029140552505850792 0.20389574766159058 0.030048757791519165 -0.765380859375 -0.34542998671531677 -0.28864255547523499 0.034743912518024445 -1.3289700746536255 -1.195193886756897 0.93825995922088623
  -0.98786962032318115 -0.64915835857391357 0.90725916624069214 -0.87756288051605225 1.0076143741607666 0.068742655217647552 0.76100176572799683 0.50463408231735229 0.60122299194335938 -0.48846936225891113 -2.4639198780059814 1.8841129541397095 -0.32088103890419006 -0.11500740796327591 -0.21540252864360809 0.77095955610275269 -0.22018352150917053 0.5069919228553772 -1.9041075706481934 0.80332344770431519 -0.60136109590530396 -0.31433993577957153 0.77702343463897705 -1.7746249437332153 -0.2514064610004425 -0.47396719455718994 0.033958423882722855 0.63628435134887695 -0.83098942041397095 0.783863365650177 -0.23031529784202576 0.8034355640411377 0.41918566823005676 0.56024950742721558 -0.17902049422264099 0.74305516481399536 0.33554208278656006 -0.31610909104347229 -0.95144069194793701 0.3160194456577301 0.52353858947753906 0.92960238456726074 0.64988744258880615 0.66547811031341553 -0.056397765874862671 -0.26607093214988708 -1.0353666543960571 -0.39214593172073364 -1.3172017335891724 0.45495951175689697 1.0073751211166382 -0.092592887580394745 -0.0094630084931850433 -0.61765182018280029 -0.54557836055755615 0.92735201120376587 -0.15358185768127441 -0.47351893782615662 1.7060153484344482 0.014008465223014355
  0.25767838954925537 -0.21335102617740631 -0.77691394090652466 -0.66833490133285522 -0.34378635883331299 0.67694360017776489 -0.87274742126464844 -0.041636951267719269 -0.29074808955192566 1.7937568426132202 0.57109761238098145 0.5359538197517395 -0.0014548520557582378 -0.14731912314891815 -1.2242764234542847 -0.33027347922325134 -0.22991344332695007 0.32740700244903564 0.34386852383613586 0.52470582723617554 1.0497521162033081 -0.20012274384498596 -0.32065472006797791 -1.0456783771514893 0.16160190105438232 0.34688931703567505 0.96078222990036011 0.027427231892943382 0.049309715628623962 0.20346546173095703 0.47417241334915161 0.52544701099395752 -0.35540661215782166 -0.11702501028776169 -0.93274074792861938 0.19597089290618896 -1.0129544734954834 -0.18811474740505219 -0.54425323009490967 -0.66016632318496704 -1.3875713348388672 0.99035370349884033 -0.28387105464935303 0.14973452687263489 -0.33365291357040405 0.90255850553512573 0.37132862210273743 0.84987771511077881 0.075205482542514801 -0.56729364395141602 -0.63316988945007324 1.1296852827072144 1.0619279146194458 0.21187517046928406 0.37993443012237549 -0.73708587884902954 0.77055364847183228 0.33002549409866333 0.48659762740135193 -1.5470300912857056
  -0.94084155559539795 1.0807554721832275 -0.32798084616661072 0.31868299841880798 -1.1062216758728027 -1.0405645370483398 0.043680701404809952 -0.36387678980827332 1.0454548597335815 -0.26680281758308411 1.0003008842468262 -0.18809139728546143 -0.0022029927931725979 -0.024104584008455276 -1.0678874254226685 0.46261298656463623 0.06786288321018219 -0.12787838280200958 2.051006555557251 -0.4305051863193512 -0.80139678716659546 0.53526157140731812 -0.31995916366577148 0.73272073268890381 0.62014257907867432 -0.42222008109092712 0.35759282112121582 0.62156391143798828 -0.79891979694366455 -0.45661574602127075 -0.59512996673583984 -0.55134952068328857 -1.7455196380615234 -0.56062525510787964 0.609527587890625 0.25623047351837158 -0.40190473198890686 1.1665688753128052 0.26244610548019409 0.56935054063796997 0.032971344888210297 -0.8075680136680603 -0.17387033998966217 -0.89793449640274048 0.75161391496658325 0.29616743326187134 0.93061971664428711 -0.27360129356384277 0.92764192819595337 0.025734880939126015 -0.22764609754085541 -0.45139375329017639 -0.62052541971206665 0.13941372931003571 -0.86160457134246826 0.088171489536762238 0.79600405693054199 0.33277550339698792 -0.48750296235084534 -0.4340241551399231
  -0.03361925482749939 -0.23249076306819916 -0.88578474521636963 -1.3629227876663208 -1.4416306018829346 1.1347464323043823 -0.4419836699962616 0.52946102619171143 1.504097580909729 -0.17851467430591583 0.83960187435150146 0.075246013700962067 1.1691775321960449 -0.41949594020843506 0.73468315601348877 0.69066911935806274 -0.56712800264358521 -1.2380496263504028 0.68754351139068604 -1.1835790872573853 0.81568491458892822 -0.30851569771766663 -0.3822251558303833 0.0057760206982493401 0.55846792459487915 -1.1952323913574219 0.20805570483207703 0.41688266396522522 -0.30421227216720581 0.09757513552904129 1.475338339805603 -0.88425880670547485 0.074211925268173218 0.17324939370155334 -0.26272541284561157 0.36527541279792786 0.29647234082221985 -0.076119393110275269 -0.55001962184906006 -0.26057320833206177 0.72677499055862427 -0.038184203207492828 0.24265749752521515 -1.0145459175109863 -0.42635852098464966 0.93325400352478027 -0.48422735929489136 -0.024383021518588066 -0.45229873061180115 0.1655469685792923 0.24134965240955353 -0.61670559644699097 0.36706310510635376 -2.0258009433746338 -0.70973497629165649 -0.37203782796859741 0.56451976299285889 0.34065347909927368 0.40843707323074341 -0.27928295731544495
  0.0029965243302285671 0.23209583759307861 -0.71878319978713989 -0.59490519762039185 -0.17407827079296112 -0.41696327924728394 0.31302645802497864 -0.25557833909988403 -0.46199500560760498 0.65454286336898804 -0.069639846682548523 -0.027516866102814674 0.93622803688049316 -0.068314872682094574 0.73516172170639038 -0.71930867433547974 0.35069939494132996 -1.6075108051300049 0.23716704547405243 -1.5834461450576782 -0.99138820171356201 0.14371141791343689 -0.25224041938781738 0.79448890686035156 -1.1007677316665649 -0.57790964841842651 -1.0253170728683472 0.53483551740646362 -0.16212828457355499 -0.92774748802185059 1.1070411205291748 0.66533952951431274 0.05935683473944664 -0.29369735717773438 0.24792592227458954 1.0916016101837158 -0.40862467885017395 0.24868161976337433 0.83456724882125854 0.7503054141998291 0.88125115633010864 0.078257046639919281 0.78373533487319946 0.11419109255075455 -0.46879070997238159 1.0260884761810303 0.060585953295230865 -1.1780656576156616 0.82982414960861206 1.4155553579330444 0.22857345640659332 -1.1631171703338623 -1.224833607673645 0.4909045398235321 -1.0994095802307129 0.046077985316514969 -0.95583796501159668 0.40235698223114014 -0.17822754383087158 -0.24091801047325134
  0.5695757269859314 0.35459378361701965 0.95529043674468994 0.02261091023683548 -0.80774277448654175 -0.58931058645248413 0.47115084528923035 0.26273304224014282 -1.1320383548736572 -0.16631647944450378 1.1328916549682617 -0.72226071357727051 0.18886280059814453 -0.27974876761436462 0.044342845678329468 0.26703691482543945 0.51726758480072021 -0.07884293794631958 -0.45545777678489685 -0.75290954113006592 0.17189328372478485 0.69338572025299072 1.2113254070281982 -0.25983929634094238 -0.096504934132099152 0.39680033922195435 0.78044909238815308 -0.24465540051460266 0.0069921417161822319 0.13092876970767975 -0.17402993142604828 0.66494572162628174 -0.82995593547821045 0.10042962431907654 -0.84812843799591064 0.34249165654182434 -0.81524175405502319 0.22199264168739319 -0.013399497605860233 0.14762821793556213 0.25195303559303284 1.429317831993103 -0.76837092638015747 -0.75396710634231567 -1.0059249401092529 0.3220723569393158 -0.50347220897674561 -0.22641174495220184 -0.35097238421440125 -0.10912822186946869 -0.32375597953796387 0.78717309236526489 -0.48502486944198608 0.44779473543167114 0.0048087309114634991 0.70501744747161865 0.15322539210319519 0.13546864688396454 -0.48872986435890198 -2.5603263378143311
  0.8867034912109375 0.35719791054725647 0.068246088922023773 -0.54978859424591064 0.68356800079345703 0.15384183824062347 0.77151089906692505 -0.7059255838394165 -0.55134576559066772 1.2603414058685303 1.2236841917037964 -0.12013358622789383 -0.51393508911132812 -0.20293985307216644 -0.30036339163780212 -0.015014619566500187 -0.65463531017303467 -0.20936238765716553 0.23819245398044586 0.033707302063703537 0.14002105593681335 -0.52873051166534424 0.012374897487461567 -0.061734758317470551 -0.3965853750705719 -0.48763689398765564 0.08333289623260498 0.91859114170074463 0.90054595470428467 0.60111916065216064 0.13033203780651093 -0.90315568447113037 -0.42480209469795227 -0.097491845488548279 1.5966098308563232 -0.32768926024436951 -0.18366310000419617 -0.48097455501556396 0.037653915584087372 0.10617488622665405 -0.0026447402779012918 -1.3513633012771606 -0.24412323534488678 -0.84805339574813843 1.080497145652771 0.34077221155166626 0.26881760358810425 0.94809019565582275 0.53047573566436768 -0.77453744411468506 -0.46677997708320618 0.01276166457682848 0.4065595269203186 0.074037551879882812 -0.25153249502182007 -0.30965796113014221 -0.012671250849962234 0.8912777304649353 0.48014861345291138 0.27300646901130676
  0.59169465303421021 -1.2684019804000854 -0.11516661942005157 -0.04286566749215126 -0.10922367125749588 0.93312597274780273 -0.12083147466182709 0.13572520017623901 -0.25454467535018921 0.52184009552001953 0.15753749012947083 0.33537814021110535 0.046270787715911865 -0.30923032760620117 0.38467979431152344 -0.15428246557712555 0.47138562798500061 0.0096872542053461075 0.28790712356567383 -0.03679388016462326 0.50059103965759277 0.48588526248931885 -1.4410498142242432 0.0039053922519087791 0.51254516839981079 -0.187732994556427 -0.24479813873767853 -0.0885271355509758 -0.086318761110305786 0.39692360162734985 -0.18799972534179688 0.4369538426399231 0.80849552154541016 -0.58751833438873291 -0.42167076468467712 -1.5896652936935425 0.029955940321087837 -0.20326696336269379 -0.28326386213302612 -0.30214202404022217 -0.57217180728912354 -0.50735193490982056 0.53112220764160156 -0.27858403325080872 0.36599653959274292 0.97109127044677734 0.35907876491546631 0.67443293333053589 0.43294399976730347 -0.56887924671173096 -1.3201661109924316 0.31926339864730835 0.46084895730018616 -0.80290281772613525 -0.32807144522666931 -0.38917523622512817 0.40047317743301392 -1.1492193937301636 -0.20175591111183167 -0.23533962666988373
  0.67902147769927979 -0.12293084710836411 1.0216134786605835 0.076490245759487152 0.3431185781955719 -0.31074348092079163 0.25643643736839294 0.4226374626159668 1.1507763862609863 0.85257536172866821 -0.86006832122802734 0.056292720139026642 -0.30148142576217651 0.58626675605773926 -0.11906725913286209 0.55592972040176392 0.35262107849121094 0.90931081771850586 0.27602565288543701 -0.81145393848419189 0.30925211310386658 -0.76419305801391602 -0.17446765303611755 0.32389733195304871 -0.89820581674575806 0.40021774172782898 -0.020443588495254517 0.57085698843002319 0.095484837889671326 -0.37412121891975403 -0.19209520518779755 0.34846159815788269 -0.87276250123977661 -1.3422849178314209 0.41134870052337646 0.33338841795921326 0.74597054719924927 0.0092743290588259697 0.025622455403208733 -0.06401275098323822 -1.3346116542816162 0.38538023829460144 0.88873708248138428 1.2821060419082642 -0.010851386003196239 0.088070720434188843 -0.12007010728120804 0.41384032368659973 -0.13338334858417511 0.64705502986907959 -0.26919293403625488 -0.16459479928016663 -0.11052184551954269 -0.42408952116966248 -0.68901503086090088 0.25417646765708923 -0.19966590404510498 0.74379420280456543 -0.51511657238006592 0.65337413549423218
  -1.1457458734512329 -0.27272126078605652 0.79339665174484253 0.25656893849372864 -1.0549235343933105 0.23780037462711334 0.2887631356716156 0.24780984222888947 -0.133668452501297 0.13484977185726166 0.55335777997970581 -0.1791788786649704 -0.11360140144824982 0.11478263139724731 -0.1380128413438797 0.6601938009262085 -0.079457208514213562 0.20751176774501801 0.89193892478942871 1.3266652822494507 -0.73113328218460083 0.066065572202205658 -0.72298431396484375 -1.0480813980102539 -0.16262581944465637 1.8176535367965698 -0.46401703357696533 0.68889224529266357 0.24846763908863068 0.31077945232391357 0.11212481558322906 0.80053162574768066 -0.90338361263275146 -0.44301027059555054 -0.79034709930419922 0.21453937888145447 -1.1387101411819458 0.49843829870223999 -0.12140191346406937 -0.73318248987197876 0.58655661344528198 0.92124307155609131 -0.4181513786315918 0.53709864616394043 -0.097515255212783813 0.10633386671543121 0.34829705953598022 -1.2029556035995483 -0.46436578035354614 0.12331696599721909 0.10248707979917526 -0.45383289456367493 1.1797846555709839 0.28517255187034607 0.43429401516914368 -0.10888498276472092 -0.92131966352462769 0.38608703017234802 0.63459467887878418 1.221966028213501
  0.052858110517263412 0.87069815397262573 -0.28325709700584412 0.040199317038059235 0.35929626226425171 -0.26935693621635437 0.50522667169570923 -0.82819890975952148 -0.29667586088180542 1.1382479667663574 -0.22946815192699432 0.34423211216926575 -1.1053483486175537 -0.33472061157226562 0.26925700902938843 0.26910707354545593 0.034504655748605728 1.4202901124954224 0.2764417827129364 0.31220707297325134 -0.6349824070930481 0.28669020533561707 0.16316767036914825 0.01907075010240078 -0.11114505678415298 -0.50575494766235352 1.0233770608901978 -0.86860311031341553 0.40523800253868103 -0.8197672963142395 0.27342766523361206 0.65127456188201904 0.48662352561950684 0.24346442520618439 0.97560584545135498 0.030428063124418259 -0.77117139101028442 0.11748376488685608 0.46860706806182861 0.89728891849517822 1.3636023998260498 -0.44059079885482788 -0.11504596471786499 0.36695122718811035 0.1839483380317688 0.90755981206893921 -0.12678593397140503 -0.012841861695051193 0.01383694913238287 -0.62825101613998413 -0.71651637554168701 -0.26756823062896729 -0.61735278367996216 -1.106032133102417 -0.44563084840774536 -0.077671244740486145 0.45475104451179504 0.59771895408630371 0.59509027004241943 0.16239172220230103
  0.23045480251312256 0.58002173900604248 -0.67422616481781006 0.24755030870437622 -0.9905087947845459 1.3222308158874512 -0.20761938393115997 0.96971744298934937 -0.50468754768371582 0.096557170152664185 1.8240032196044922 0.15065965056419373 0.41119018197059631 0.1465885192155838 -0.041986472904682159 -0.23404461145401001 -0.11517412960529327 0.29062291979789734 0.46159553527832031 -0.41289514303207397 0.17575368285179138 -0.81421405076980591 -0.20294982194900513 1.097331166267395 0.38635158538818359 0.23275281488895416 0.37711966037750244 -1.4228789806365967 -0.47673794627189636 -0.088270120322704315 0.39039477705955505 -0.34975895285606384 -0.31341814994812012 -0.09861978143453598 -0.55610817670822144 0.46673563122749329 -0.7163577675819397 -0.24748750030994415 0.12958347797393799 -0.41006156802177429 0.056722778826951981 -0.36478680372238159 0.18802717328071594 -1.0993480682373047 -1.0817643404006958 1.5475707054138184 0.62196415662765503 -0.11716782301664352 -0.073324128985404968 0.1479174792766571 -1.0216473340988159 -0.65748792886734009 0.22667557001113892 0.15946328639984131 0.044728536158800125 -0.20269039273262024 0.43409711122512817 1.2477214336395264 -1.2800761461257935 0.48853585124015808
  0.058711666613817215 -0.80134344100952148 -0.50728285312652588 0.52991938591003418 1.6132481098175049 0.095687970519065857 -0.084447629749774933 -0.32054814696311951 0.37824335694313049 -0.7633894681930542 -0.31172823905944824 0.062145773321390152 0.83510130643844604 0.28565508127212524 0.18528822064399719 0.34312552213668823 0.091525807976722717 0.38649716973304749 -2.3356828689575195 0.38197717070579529 -0.2286144495010376 0.90055352449417114 -0.32675287127494812 -1.8645213842391968 -0.086924850940704346 0.35470744967460632 -0.61048239469528198 0.77857440710067749 -1.4039506912231445 0.20809903740882874 0.53108012676239014 -0.45622166991233826 0.55073821544647217 1.1516754627227783 1.0873733758926392 0.035917732864618301 0.84866034984588623 -0.13311846554279327 -0.53402084112167358 0.45534989237785339 -0.30180823802947998 -0.56696337461471558 1.112699031829834 -0.67057508230209351 -0.65609109401702881 -0.49991446733474731 -0.47762459516525269 0.45692503452301025 -0.79391521215438843 1.6803621053695679 0.77003329992294312 0.017489485442638397 0.4425564706325531 -0.25854474306106567 0.18859240412712097 0.43212103843688965 -0.45657745003700256 0.77683383226394653 -0.14093701541423798 1.4362556934356689
  0.25963482260704041 -0.68395477533340454 0.32206615805625916 -0.16004009544849396 0.21448197960853577 0.069276340305805206 0.63214319944381714 0.11891549080610275 -0.30880820751190186 0.32403180003166199 -0.88034915924072266 0.51777255535125732 0.48666471242904663 -0.71783274412155151 -0.84964412450790405 0.56660312414169312 -0.049856998026371002 -0.32069757580757141 -0.41651606559753418 0.7139892578125 -0.95402443408966064 1.1082278490066528 -0.79814088344573975 -0.53660506010055542 -0.081634417176246643 0.33712875843048096 -1.4834102392196655 1.5722215175628662 -0.72272384166717529 -0.18982107937335968 0.30039069056510925 -0.066085085272789001 0.17425763607025146 0.36485505104064941 1.0170159339904785 1.528201699256897 0.067735746502876282 -0.37989258766174316 0.037354189902544022 0.25701022148132324 0.82838207483291626 -1.0322388410568237 0.11466184258460999 -1.042261004447937 0.62104940414428711 -0.74972128868103027 -0.57219958305358887 0.16621163487434387 0.21236269176006317 -0.0099000521004199982 0.3500194251537323 -0.3718564510345459 0.15336108207702637 0.69841271638870239 -0.65654546022415161 0.99983406066894531 -0.1921427845954895 -0.37069985270500183 0.78576987981796265 -0.094642624258995056
  1.2870535850524902 -0.3772428035736084 -0.3017425537109375 -0.72720801830291748 -0.36884954571723938 -0.24407011270523071 -0.38726696372032166 -0.93114906549453735 0.6212083101272583 -0.32119143009185791 -0.073395319283008575 0.53634369373321533 -0.11420495063066483 0.010642725974321365 -0.098196335136890411 0.0049017211422324181 -0.3843323290348053 0.65075993537902832 -0.37457177042961121 0.13508184254169464 0.850963294506073 0.10859489440917969 0.10736624896526337 -0.89625054597854614 0.83274763822555542 0.57439470291137695 0.3561718761920929 0.046131409704685211 0.61390018463134766 0.6873670220375061 0.034628156572580338 -0.0062002432532608509 -0.96422255039215088 -0.25724384188652039 -0.60594147443771362 0.40059500932693481 -0.38962757587432861 -0.27951130270957947 -0.57528698444366455 -0.30050420761108398 -0.40234300494194031 -0.27057021856307983 -0.83113092184066772 -0.89110428094863892 -0.37875229120254517 0.68273186683654785 -0.69215863943099976 0.67781335115432739 -0.72865158319473267 -0.33654522895812988 -0.54252123832702637 0.27012038230895996 -0.21528282761573792 0.5153810977935791 -0.45242878794670105 -0.11283832043409348 1.1961792707443237 -1.1821428537368774 0.95348352193832397 -0.6126091480255127
  -0.59989464282989502 -0.66365641355514526 -0.49979999661445618 -0.16344979405403137 -0.34404927492141724 0.68428099155426025 -1.2366917133331299 -0.2487419992685318 1.6528654098510742 0.255501389503479 -0.39605748653411865 0.18017858266830444 -0.32241031527519226 1.1274980306625366 -0.85478019714355469 0.51519715785980225 -0.016884785145521164 1.0651711225509644 1.8557431697845459 0.71479296684265137 -0.97055435180664062 -0.47107845544815063 -1.0738159418106079 1.4405134916305542 -1.2603968381881714 0.057701490819454193 0.66476178169250488 -0.80108606815338135 1.1561164855957031 -0.3679293692111969 0.30331334471702576 -0.93264549970626831 -0.027745405212044716 -0.66256386041641235 -0.29850959777832031 -0.23219588398933411 0.77441418170928955 -0.82213377952575684 0.81671255826950073 1.5939949750900269 -0.57620561122894287 -0.2182818204164505 -0.34354326128959656 -0.6366201639175415 1.0520130395889282 0.26873010396957397 -0.47224301099777222 -0.26900261640548706 -0.95248228311538696 -0.068037606775760651 -0.52455484867095947 0.2210586816072464 0.36317753791809082 -0.08502575010061264 -0.033943288028240204 -0.097743988037109375 -1.0962373018264771 0.56210708618164062 0.14654015004634857 -0.13310432434082031
