<Nnet>
<rbm> 60 60
gauss bern [
  -0.2046382874250412 -0.20088781416416168 -0.24619360268115997 -0.20707650482654572 -0.027881041169166565 -0.2652510404586792 -0.026783913373947144 -0.16387759149074554 -0.23368640244007111 -0.14422386884689331 -0.31042543053627014 0.13194531202316284 -0.17193436622619629 -0.18769116699695587 -0.21213610470294952 -0.2219519317150116 -0.03896959125995636 -0.28416821360588074 -0.097381316125392914 -0.26063710451126099 -0.23672150075435638 -0.031930897384881973 -0.29147970676422119 0.094767749309539795 -0.15113900601863861 -0.079982966184616089 -0.11754093319177628 -0.14292699098587036 0.0042297393083572388 -0.21340656280517578 -0.034315250813961029 -0.26944127678871155 -0.17271624505519867 0.065798752009868622 -0.30664739012718201 0.013275935314595699 -0.16117416322231293 0.069725476205348969 0.0098396753892302513 -0.0004315029364079237 0.08130963146686554 -0.075456604361534119 0.18927393853664398 -0.073490366339683533 -0.0050463704392313957 0.1525358110666275 -0.19528380036354065 0.021948186680674553 -0.19018720090389252 0.16914428770542145 0.088869713246822357 0.12357010692358017 0.13660013675689697 0.024635925889015198 0.37787565588951111 0.13947728276252747 0.14891190826892853 0.24524307250976562 0.0070037883706390858 0.12997937202453613
  0.21920730173587799 0.053520333021879196 0.39528128504753113 0.18546177446842194 -0.29683983325958252 -0.20327474176883698 0.17232376337051392 0.068199433386325836 -0.13175125420093536 -0.15584106743335724 -0.33797004818916321 -0.077947460114955902 0.22301328182220459 0.12416677176952362 0.38153520226478577 0.24785882234573364 -0.27144256234169006 -0.28573152422904968 0.085921153426170349 0.0021160326432436705 -0.11121552437543869 -0.16451007127761841 -0.37285846471786499 -0.070757649838924408 0.19242723286151886 0.10008174926042557 0.30512082576751709 0.19836725294589996 -0.26249319314956665 -0.23899038136005402 0.032099887728691101 0.012553105130791664 -0.063994951546192169 -0.11502524465322495 -0.22499136626720428 -0.051300939172506332 0.1016085147857666 0.018280532211065292 0.17237186431884766 0.054250583052635193 -0.19996573030948639 -0.022633492946624756 0.083399169147014618 0.067680120468139648 -0.080220162868499756 -0.045657798647880554 -0.041007880121469498 -0.056297387927770615 0.035781275480985641 -0.022085564211010933 0.057271864265203476 -0.081917420029640198 -0.13539133965969086 0.15389165282249451 0.13372921943664551 0.078564278781414032 -0.1503002941608429 -0.029331149533390999 0.034559298306703568 -0.10041653364896774
  -0.042795710265636444 0.10511354357004166 0.054902650415897369 0.2089824378490448 -0.105416439473629 0.3198445737361908 -0.3592454195022583 -0.076025858521461487 -0.094891063868999481 -0.044323522597551346 -0.055104814469814301 0.026290342211723328 -0.0050604324787855148 0.032494869083166122 0.083861991763114929 0.16459564864635468 -0.12390633672475815 0.20974573493003845 -0.25589174032211304 -0.015054430812597275 -0.15514865517616272 -0.054908435791730881 -0.14130158722400665 0.023271393030881882 0.029838349670171738 -0.11138038337230682 0.09061037003993988 0.051695868372917175 -0.13546772301197052 0.0084113981574773788 -0.045091021806001663 -0.01501068938523531 -0.19320227205753326 0.046197641640901566 -0.24901615083217621 -0.015489470213651657 0.042064033448696136 -0.26401758193969727 0.043428663164377213 -0.067035138607025146 -0.1173550933599472 -0.14056845009326935 0.18005521595478058 -0.12323068082332611 -0.13153433799743652 0.28973478078842163 -0.31871762871742249 -0.072762556374073029 0.054136894643306732 -0.33392396569252014 -0.015111740678548813 -0.11812175065279007 -0.085336379706859589 -0.18404626846313477 0.28895232081413269 -0.23135635256767273 -0.043353721499443054 0.47560113668441772 -0.33774518966674805 -0.12110961228609085
  0.03190205991268158 0.051169753074645996 -0.096261531114578247 0.090325616300106049 0.04919014498591423 -0.0057629961520433426 -0.059415128082036972 0.030180085450410843 -0.10811998695135117 -0.18933890759944916 0.14641301333904266 -0.16769778728485107 0.068967550992965698 -0.017293751239776611 -0.078013680875301361 0.02023325115442276 -0.023919450119137764 -0.012190300039947033 -0.1235085129737854 0.047767315059900284 -0.11656718701124191 -0.22921924293041229 0.23080605268478394 -0.22003555297851562 0.065257139503955841 -0.12088331580162048 -0.048685524612665176 -0.074122093617916107 -0.084727093577384949 0.011337497271597385 -0.19073539972305298 0.10788087546825409 -0.12386495620012283 -0.2754729688167572 0.34747785329818726 -0.30658373236656189 0.046268031001091003 -0.18378341197967529 -0.033943630754947662 -0.13452416658401489 -0.10317820310592651 0.030891789123415947 -0.22811532020568848 0.15922985970973969 -0.14211653172969818 -0.30826970934867859 0.41683274507522583 -0.3861767053604126 0.063753053545951843 -0.18575894832611084 -0.026322003453969955 -0.15719690918922424 -0.11106690019369125 0.021021658554673195 -0.24016574025154114 0.16764616966247559 -0.17574453353881836 -0.32195276021957397 0.41113770008087158 -0.43475779891014099
  -0.036578908562660217 -0.12859249114990234 -0.007759439293295145 -0.28541326522827148 0.04925144836306572 -0.2314789891242981 -0.33899497985839844 0.064345210790634155 -0.14825169742107391 0.39131081104278564 0.011446792632341385 -0.25881710648536682 -0.18581964075565338 -0.0086828181520104408 -0.003202793188393116 -0.19460465013980865 0.084182560443878174 -0.21855363249778748 -0.1283670961856842 0.038150385022163391 -0.07385166734457016 0.16702647507190704 0.032021712511777878 -0.093414872884750366 -0.30163893103599548 0.14032560586929321 -0.016139773651957512 -0.09062107652425766 0.049709830433130264 -0.21477411687374115 0.092945478856563568 -0.064942017197608948 0.081478230655193329 -0.070409566164016724 0.11689938604831696 -0.015299295075237751 -0.31123051047325134 0.18897305428981781 -0.050079133361577988 -0.085605710744857788 -0.067313544452190399 -0.23151233792304993 0.13148485124111176 -0.22347244620323181 0.20708946883678436 -0.087948054075241089 0.20287197828292847 -0.19243147969245911 -0.26517260074615479 0.13928093016147614 -0.076852716505527496 -0.14422357082366943 -0.16422228515148163 -0.22885146737098694 0.043426685035228729 -0.31343767046928406 0.2315579354763031 -0.01257704570889473 0.23310738801956177 -0.38205713033676147
  -0.054778128862380981 -0.13747760653495789 -0.17647373676300049 -0.32357022166252136 -0.098017066717147827 0.098664730787277222 0.066161319613456726 -0.022219602018594742 0.027499120682477951 -0.21812845766544342 -0.43402782082557678 -0.16305649280548096 -0.090079300105571747 -0.18450909852981567 -0.19748911261558533 -0.33713999390602112 -0.11604755371809006 0.0679439976811409 0.058874297887086868 0.12303384393453598 0.14970816671848297 -0.079909145832061768 -0.30466350913047791 -0.20123483240604401 -0.12829437851905823 -0.19705133140087128 -0.23243898153305054 -0.30902436375617981 -0.098872609436511993 0.056513361632823944 0.02627241238951683 0.18612037599086761 0.18094758689403534 -0.052317071706056595 -0.29726707935333252 -0.27023154497146606 -0.14648164808750153 -0.17157460749149323 -0.24371364712715149 -0.27497473359107971 -0.084320522844791412 0.060166765004396439 -0.023180039599537849 0.087943561375141144 0.11653139442205429 -0.11022619158029556 -0.32490032911300659 -0.22340932488441467 -0.15991024672985077 -0.15367512404918671 -0.24528886377811432 -0.25158801674842834 -0.064549505710601807 0.09634745866060257 -0.030711552128195763 -0.010061643086373806 0.11397019028663635 -0.045448668301105499 -0.21041916310787201 -0.079057782888412476
  -0.12305150926113129 0.023187069222331047 0.12292949110269547 -0.30372732877731323 0.17184774577617645 -0.1162940189242363 -0.18354044854640961 0.37159886956214905 -0.28340327739715576 0.094633542001247406 0.20543891191482544 -0.25844371318817139 -0.11203718930482864 0.044679436832666397 0.11367800831794739 -0.31245085597038269 0.19803126156330109 -0.14444771409034729 -0.1841699630022049 0.37148746848106384 -0.31607821583747864 0.15306837856769562 0.19576506316661835 -0.30881416797637939 -0.089724272489547729 0.076449669897556305 0.082426808774471283 -0.27076047658920288 0.21506839990615845 -0.16042725741863251 -0.14024317264556885 0.3485388457775116 -0.30138805508613586 0.16827547550201416 0.16380877792835236 -0.30893564224243164 -0.076857626438140869 0.10148926079273224 0.052993346005678177 -0.20130924880504608 0.21541483700275421 -0.15797749161720276 -0.079681701958179474 0.31729373335838318 -0.23062077164649963 0.14383040368556976 0.13689067959785461 -0.25236606597900391 -0.068023085594177246 0.11532922834157944 0.028158210217952728 -0.14690917730331421 0.20367644727230072 -0.1421990841627121 -0.035624966025352478 0.29565742611885071 -0.15468901395797729 0.13377121090888977 0.1350039541721344 -0.18573901057243347
  -0.039912369102239609 0.23064084351062775 -0.13770338892936707 0.13560578227043152 0.045049972832202911 0.12393618375062943 -0.29713901877403259 0.16591295599937439 0.085743159055709839 -0.12138153612613678 0.044699486345052719 0.086887821555137634 -0.022860849276185036 0.24990467727184296 -0.17838923633098602 0.11369291692972183 0.070796661078929901 0.10620622336864471 -0.34442564845085144 0.21141332387924194 0.080118611454963684 -0.11515470594167709 -0.0065425243228673935 0.14768423140048981 -0.0055825337767601013 0.27956613898277283 -0.21539479494094849 0.094314649701118469 0.1047312319278717 0.069895483553409576 -0.35174742341041565 0.25125575065612793 0.073817692697048187 -0.1052771657705307 -0.065199054777622223 0.23366749286651611 0.013415295630693436 0.3244476318359375 -0.22252961993217468 0.094135977327823639 0.11529206484556198 0.020885756239295006 -0.32950824499130249 0.23414669930934906 0.08237062394618988 -0.11672639101743698 -0.06272483617067337 0.30999132990837097 0.028441913425922394 0.35050532221794128 -0.20282174646854401 0.095655128359794617 0.10229545086622238 -0.01248494628816843 -0.30838626623153687 0.18907277286052704 0.083008773624897003 -0.14211843907833099 -0.032835766673088074 0.33674249053001404
  0.1099599301815033 -0.084832221269607544 -0.066024802625179291 0.039353698492050171 -0.14441409707069397 -0.021221337839961052 0.080221801996231079 0.010703979060053825 0.050339259207248688 0.069781236350536346 0.060826938599348068 0.024662164971232414 0.13750198483467102 -0.0083060730248689651 -0.13485673069953918 0.15671519935131073 -0.10277920216321945 -0.033810600638389587 0.18651698529720306 -0.028975049033761024 0.012561289593577385 0.0452406145632267 -0.033575337380170822 0.0067758890800178051 0.16919536888599396 0.092604130506515503 -0.2491765022277832 0.30118796229362488 -0.049302779138088226 -0.080720484256744385 0.33182412385940552 -0.078489460051059723 0.049837708473205566 0.084575511515140533 -0.067807354032993317 0.070903480052947998 0.17671510577201843 0.1939094215631485 -0.35397511720657349 0.4181043803691864 0.014112900011241436 -0.15231406688690186 0.43776747584342957 -0.14240729808807373 0.1186855137348175 0.10329516977071762 -0.12927365303039551 0.18657834827899933 0.15938648581504822 0.23359319567680359 -0.39265289902687073 0.4410586953163147 0.054353997111320496 -0.20410047471523285 0.44582530856132507 -0.18776701390743256 0.13577696681022644 0.059037625789642334 -0.2134384959936142 0.23521549999713898
  0.057859942317008972 -0.22557733952999115 -0.20916174352169037 -0.44150924682617188 -0.058077048510313034 0.13374163210391998 0.065353184938430786 0.015932708978652954 0.15396079421043396 -0.26903107762336731 -0.37398257851600647 -0.23190873861312866 0.031983200460672379 -0.27394989132881165 -0.24147899448871613 -0.43534120917320251 -0.043240610510110855 0.1118643656373024 0.094200007617473602 0.12567251920700073 0.23912046849727631 -0.19948343932628632 -0.31202924251556396 -0.25170353055000305 -0.011626193299889565 -0.29649561643600464 -0.26383459568023682 -0.39473810791969299 -0.031152544543147087 0.084937840700149536 0.081925049424171448 0.17536915838718414 0.24945364892482758 -0.19241802394390106 -0.30429893732070923 -0.27440670132637024 -0.035677798092365265 -0.27651700377464294 -0.26322975754737854 -0.34528112411499023 -0.027292951941490173 0.061131130903959274 0.044737868010997772 0.12000121921300888 0.19210377335548401 -0.20706427097320557 -0.30556145310401917 -0.20208929479122162 -0.054523419588804245 -0.25250792503356934 -0.2506771981716156 -0.30652451515197754 -0.021147539839148521 0.062810398638248444 0.027047712355852127 0.075898393988609314 0.18025708198547363 -0.14639070630073547 -0.22920817136764526 -0.077022284269332886
  -0.14393684267997742 0.28472024202346802 0.23197740316390991 -0.30530744791030884 -0.34630602598190308 0.10477364808320999 0.28778570890426636 0.07580217719078064 -0.1870771050453186 -0.16772311925888062 0.070850856602191925 0.18567758798599243 -0.1450168639421463 0.27529686689376831 0.24557720124721527 -0.29075005650520325 -0.37035813927650452 0.076732821762561798 0.27247709035873413 0.083697527647018433 -0.17579670250415802 -0.16642139852046967 0.038596190512180328 0.13221442699432373 -0.13783136010169983 0.24231168627738953 0.24570684134960175 -0.25228303670883179 -0.37666773796081543 0.03967362642288208 0.2451062947511673 0.10343634337186813 -0.15422619879245758 -0.16589032113552094 0.031130308285355568 0.10073816776275635 -0.14890918135643005 0.19377323985099792 0.21888923645019531 -0.19788861274719238 -0.34610685706138611 0.023261932656168938 0.2437751442193985 0.13453026115894318 -0.1362045556306839 -0.15474161505699158 0.047849901020526886 0.11828456073999405 -0.15393476188182831 0.16615608334541321 0.18895290791988373 -0.13133040070533752 -0.29923772811889648 0.004240402951836586 0.24672883749008179 0.1509452760219574 -0.11214118450880051 -0.15065495669841766 0.041262675076723099 0.1480516642332077
  0.04399949312210083 0.04472023993730545 -0.013436064124107361 -0.055600915104150772 -0.11063022911548615 -0.021916024386882782 0.031624831259250641 0.010513343848288059 -0.045791361480951309 -0.052340872585773468 0.14608775079250336 0.091318026185035706 -0.028120934963226318 0.013124250806868076 -0.036004442721605301 0.034343365579843521 0.022402357310056686 -0.031943794339895248 0.0054361140355467796 0.082339487969875336 0.065092675387859344 0.0047919964417815208 0.1320345550775528 0.036664906889200211 -0.12410502880811691 -0.060069546103477478 -0.049479536712169647 0.15585462749004364 0.18752212822437286 -0.094277933239936829 -0.066207766532897949 0.17740550637245178 0.24579456448554993 0.044295568019151688 0.029877100139856339 -0.061384528875350952 -0.20506376028060913 -0.17265848815441132 -0.071573726832866669 0.24031725525856018 0.2845262885093689 -0.20738629996776581 -0.1594003438949585 0.26500934362411499 0.45063877105712891 0.058777786791324615 -0.10777591913938522 -0.09867703914642334 -0.2500557005405426 -0.27878224849700928 -0.10186672955751419 0.26351943612098694 0.29112666845321655 -0.30136433243751526 -0.21326687932014465 0.32222732901573181 0.59193438291549683 0.09075184166431427 -0.16643376648426056 -0.06853562593460083
  -0.034805465489625931 0.0036017883103340864 -0.13197912275791168 -0.085246764123439789 -0.10232383757829666 0.031563062220811844 0.0081438599154353142 0.13170009851455688 0.097922913730144501 -0.1131516620516777 -0.13137634098529816 -0.0017472484614700079 -0.066580168902873993 -0.012417180463671684 -0.047319460660219193 -0.034128185361623764 -0.096850842237472534 -0.027014365419745445 -0.1109621524810791 0.096985414624214172 0.10047107189893723 -0.011796353384852409 0.037787932902574539 0.02129080519080162 -0.16692937910556793 -0.010645979084074497 0.088046729564666748 0.093976244330406189 0.0010489247506484389 -0.064143940806388855 -0.24131980538368225 -0.055317811667919159 0.079474657773971558 0.134280726313591 0.2393583208322525 0.10272011160850525 -0.2825828492641449 0.073347091674804688 0.22135420143604279 0.28150701522827148 0.1524462103843689 -0.074769489467144012 -0.31826657056808472 -0.34558317065238953 -0.014954525046050549 0.22394938766956329 0.29502826929092407 0.20991282165050507 -0.32068592309951782 0.19027349352836609 0.29092937707901001 0.40851560235023499 0.23188912868499756 -0.094742558896541595 -0.34065669775009155 -0.55711603164672852 -0.096261374652385712 0.25188124179840088 0.23245382308959961 0.25910115242004395
  0.01104290783405304 0.16546770930290222 -0.082867436110973358 0.21273337304592133 0.10674505680799484 -0.21527121961116791 0.41596060991287231 -0.11071949452161789 0.14640717208385468 0.36746871471405029 -0.21229647099971771 0.21976524591445923 0.040311038494110107 0.189106285572052 -0.078556478023529053 0.21963490545749664 0.086819805204868317 -0.16809138655662537 0.44047147035598755 -0.069394119083881378 0.13314448297023773 0.29094475507736206 -0.21789579093456268 0.13142125308513641 0.054603949189186096 0.20172293484210968 -0.10522858798503876 0.21927060186862946 0.070374898612499237 -0.10781005024909973 0.47574475407600403 -0.0093669453635811806 0.15921556949615479 0.29186061024665833 -0.14120927453041077 0.11890184134244919 0.053828924894332886 0.22208346426486969 -0.14910662174224854 0.22427527606487274 0.074827045202255249 -0.097021065652370453 0.46673989295959473 -0.049676679074764252 0.1618245542049408 0.35217565298080444 -0.13768155872821808 0.18499596416950226 0.044484760612249374 0.25300288200378418 -0.17455700039863586 0.23805506527423859 0.096549652516841888 -0.12026360630989075 0.42854464054107666 -0.12348475307226181 0.10592423379421234 0.33987358212471008 -0.22902701795101166 0.21341800689697266
  -0.021268704906105995 0.0095752691850066185 -0.12690180540084839 -0.041031818836927414 0.15170356631278992 0.10690059512853622 0.062056228518486023 -0.048008643090724945 0.099355779588222504 0.064191192388534546 -0.076841168105602264 -0.088648416101932526 -0.055066574364900589 -0.037229496985673904 0.0223191287368536 0.010919718071818352 0.029365459457039833 -0.0095164133235812187 0.060570035129785538 0.0056384103372693062 0.06716630607843399 0.0012094432022422552 -0.024996155872941017 -0.0066867666319012642 -0.059368383139371872 -0.14536403119564056 0.21724042296409607 0.079051688313484192 -0.18130320310592651 -0.21204864978790283 0.060462687164545059 0.11956851184368134 0.0024341298267245293 -0.10271885246038437 0.030381014570593834 0.093437738716602325 -0.02934846468269825 -0.28268334269523621 0.39946410059928894 0.14828629791736603 -0.39470270276069641 -0.44436442852020264 0.040889330208301544 0.29657942056655884 -0.062613040208816528 -0.22745978832244873 0.070110917091369629 0.15953265130519867 -0.0053009297698736191 -0.34751808643341064 0.51352548599243164 0.20378376543521881 -0.50578773021697998 -0.58965635299682617 0.014199027791619301 0.43752020597457886 -0.069171592593193054 -0.29676485061645508 0.082578070461750031 0.17689061164855957
  -0.29156884551048279 0.37778842449188232 -0.24376039206981659 -0.0046704337000846863 -0.04395594447851181 -0.22033961117267609 -0.1751696765422821 -0.043588981032371521 0.024245241656899452 0.025418750941753387 -0.29683119058609009 -0.37858587503433228 -0.198724165558815 0.30521196126937866 -0.2247624546289444 -0.025834893807768822 -0.17076218128204346 -0.17716631293296814 -0.23596131801605225 -0.029980825260281563 -0.035773292183876038 -0.0073744291439652443 -0.023576011881232262 -0.21175254881381989 -0.089812435209751129 0.15775744616985321 -0.241633340716362 -0.035638656467199326 -0.2579420804977417 -0.083460576832294464 -0.25317832827568054 0.076191015541553497 -0.062711790204048157 0.074453137814998627 0.21699902415275574 0.02731856144964695 -0.00039121272857300937 0.051461037248373032 -0.28457349538803101 -0.0021202950738370419 -0.21884697675704956 -0.015166186727583408 -0.2023310661315918 0.20013125240802765 -0.07757917046546936 0.21793362498283386 0.029356824234127998 0.058305837213993073 0.078118607401847839 0.020518716424703598 -0.30166628956794739 0.038350142538547516 -0.14364835619926453 -0.009981752373278141 -0.15684551000595093 0.2314794510602951 -0.1100388690829277 0.27208942174911499 -0.30128782987594604 -0.04548361524939537
  -0.056232903152704239 -0.11814960837364197 0.22584804892539978 0.075071200728416443 -0.073041863739490509 0.054631110280752182 0.0016471457201987505 -0.081488028168678284 -0.31899917125701904 -0.34208223223686218 -0.48492532968521118 -0.30462807416915894 -0.11816407740116119 -0.099624469876289368 0.16256830096244812 0.10488432645797729 0.048514481633901596 0.21884490549564362 0.165522500872612 -0.077828370034694672 -0.24375517666339874 -0.082079991698265076 -0.25937864184379578 -0.18550260365009308 -0.1673993319272995 -0.057189017534255981 0.10830959677696228 0.17431409657001495 0.16574917733669281 0.34979841113090515 0.32021269202232361 -0.0632939413189888 -0.13749448955059052 0.10479635745286942 -0.044062148779630661 -0.041619051247835159 -0.12026147544384003 -0.042009752243757248 0.11775411665439606 0.21402475237846375 0.13504244387149811 0.27485150098800659 0.23560988903045654 -0.07528986781835556 -0.13254401087760925 -0.081048935651779175 -0.095204919576644897 -0.077253967523574829 -0.039466742426156998 -0.097945384681224823 0.13443659245967865 0.17990691959857941 0.014024966396391392 0.13740725815296173 0.057710390537977219 -0.059508673846721649 -0.14899727702140808 -0.31146684288978577 -0.20056250691413879 -0.17768442630767822
  0.092513576149940491 0.066448770463466644 -0.018949337303638458 0.077255047857761383 -0.09722457081079483 -0.070151306688785553 0.13229958713054657 0.25689807534217834 0.13142675161361694 0.29610395431518555 -0.11165308207273483 -0.17411807179450989 0.018954841420054436 0.074654974043369293 -0.082569710910320282 0.060997143387794495 -0.087953366339206696 -0.07439759373664856 0.12555493414402008 0.071277908980846405 0.1029706746339798 0.3924567699432373 -0.01838313601911068 -0.024775508791208267 -0.069867625832557678 0.10213180631399155 -0.16732023656368256 0.030335269868373871 -0.047217544168233871 -0.14750745892524719 0.039766166359186172 -0.23725572228431702 -0.14686848223209381 0.10865405201911926 -0.24297404289245605 0.03111652098596096 -0.13435061275959015 0.091252990067005157 -0.22977402806282043 -0.02494548074901104 -0.0058934716507792473 -0.25321617722511292 -0.053822319954633713 -0.330619215965271 -0.31875976920127869 -0.2189362645149231 -0.45101082324981689 -0.0085158925503492355 -0.16494947671890259 0.04166518896818161 -0.25577232241630554 -0.069676950573921204 0.012158116325736046 -0.28749239444732666 -0.088863536715507507 -0.19262532889842987 -0.22395746409893036 -0.21933592855930328 -0.34282600879669189 -0.014789196662604809
  -0.21356284618377686 -0.083567023277282715 -0.091944776475429535 0.19439321756362915 0.1165350154042244 -0.094805814325809479 0.30493453145027161 0.18530631065368652 -0.059114806354045868 -0.028865423053503036 0.34722736477851868 0.041197258979082108 -0.098220653831958771 -0.19954495131969452 -0.069763600826263428 0.17117832601070404 0.014300079084932804 -0.14735937118530273 0.26378488540649414 0.052587218582630157 -0.022451544180512428 0.069524176418781281 0.44592657685279846 0.14300018548965454 0.051141366362571716 -0.30120536684989929 -0.021727100014686584 0.1472705751657486 -0.042963530868291855 -0.16278095543384552 0.21298299729824066 -0.058253075927495956 -0.012447024695575237 0.12662796676158905 0.39536738395690918 0.1667984277009964 0.20787625014781952 -0.34619274735450745 0.025630088523030281 0.12227708101272583 -0.0028762307483702898 -0.11593225598335266 0.13843172788619995 -0.051954753696918488 -0.038372799754142761 0.12371564656496048 0.2117006778717041 -0.015405395068228245 0.31289371848106384 -0.35215300321578979 0.045701771974563599 0.089074775576591492 0.054787870496511459 -0.052717257291078568 0.075031131505966187 0.014187307097017765 -0.02533712238073349 0.18487007915973663 0.11780090630054474 -0.18533790111541748
  -0.019547631964087486 0.029749542474746704 -0.32457399368286133 0.084109365940093994 0.011650322936475277 -0.28369387984275818 0.14588643610477448 -0.0069235088303685188 -0.12868133187294006 0.16416563093662262 -0.17173050343990326 0.092312566936016083 0.023401780053973198 0.088779434561729431 -0.23803088068962097 0.11582008004188538 0.030001688748598099 -0.15165799856185913 0.16100597381591797 0.021968943998217583 -0.21804039180278778 -0.012606475502252579 -0.26381328701972961 -0.049500901252031326 0.089563451707363129 0.11725343763828278 -0.077087476849555969 0.090947024524211884 0.034403149038553238 -0.016939971596002579 0.052478957921266556 0.048324991017580032 -0.363739013671875 -0.17598146200180054 -0.29108124971389771 -0.27195265889167786 0.12130793184041977 0.054983381181955338 0.062644734978675842 -0.0016842583427205682 0.024455374106764793 -0.011995458044111729 -0.16384990513324738 0.095402322709560394 -0.42924368381500244 -0.04928642138838768 -0.10333921760320663 -0.3616611659526825 0.10653293132781982 -0.01297138724476099 0.12228203564882278 -0.061838448047637939 0.031457066535949707 -0.04988749697804451 -0.29876145720481873 0.14092032611370087 -0.3804851770401001 0.18430458009243011 0.094940848648548126 -0.32448258996009827
  -0.13718070089817047 -0.021611891686916351 0.17656773328781128 -0.034896049648523331 0.29834643006324768 0.13902775943279266 -0.027135210111737251 0.049934577196836472 0.11379676312208176 -0.41555443406105042 0.1164194718003273 0.089269392192363739 -0.11254528909921646 -0.05810343474149704 0.14335663616657257 0.011617469601333141 0.25880277156829834 0.16814936697483063 -0.029067227616906166 0.049323532730340958 0.062331479042768478 -0.49326354265213013 0.16353887319564819 0.024171587079763412 -0.099703468382358551 -0.073472142219543457 0.026051534339785576 0.12012827396392822 0.20788945257663727 0.14770600199699402 0.028847483918070793 0.024303574115037918 -0.12568779289722443 -0.47031673789024353 0.088123701512813568 -0.096010081470012665 -0.068945653736591339 -0.018027044832706451 -0.11284089088439941 0.24732044339179993 0.1739095151424408 0.016540398821234703 0.10689631104469299 -0.019663060083985329 -0.33123183250427246 -0.18993987143039703 0.027602341026067734 -0.13076847791671753 -0.044786922633647919 0.045452509075403214 -0.18470562994480133 0.33293408155441284 0.17367614805698395 -0.087055981159210205 0.15836182236671448 -0.040197081863880157 -0.37326726317405701 0.15389426052570343 0.087393239140510559 -0.061462316662073135
  0.16662532091140747 -0.05286480113863945 0.088950499892234802 0.22041584551334381 -0.13942253589630127 0.37770164012908936 0.046699032187461853 0.10540703684091568 -0.035888895392417908 -0.14476791024208069 -0.17465409636497498 -0.15085843205451965 0.14846163988113403 0.070064634084701538 0.083008982241153717 0.25652450323104858 -0.19135358929634094 0.32814401388168335 0.011527610011398792 -0.041949823498725891 -0.064844638109207153 -0.19899949431419373 -0.10638004541397095 -0.092231333255767822 0.10317729413509369 0.19535109400749207 0.028613630682229996 0.23622824251651764 -0.22914101183414459 0.20621353387832642 -0.080313391983509064 -0.13192130625247955 0.032473493367433548 -0.20525750517845154 -0.026732813566923141 -0.065208815038204193 -0.00052240968216210604 0.2395922988653183 -0.073126703500747681 0.17650222778320312 -0.1783934086561203 0.10861095786094666 -0.15319854021072388 0.021991277113556862 0.33479458093643188 -0.012058965861797333 0.099694341421127319 -0.081567585468292236 -0.12723289430141449 0.23870380222797394 -0.1581895649433136 0.13655993342399597 -0.053694348782300949 0.089978061616420746 -0.13796217739582062 0.24348588287830353 0.60378628969192505 0.2482178658246994 0.21083095669746399 -0.066164664924144745
  0.027050182223320007 0.12170779705047607 0.28690072894096375 0.15220814943313599 -0.086068049073219299 -0.14264771342277527 -0.33284103870391846 -0.29471555352210999 -0.2677651047706604 -0.08151400089263916 0.065224416553974152 0.008983338251709938 0.042874474078416824 0.17470595240592957 0.29676830768585205 0.20803025364875793 -0.053722791373729706 -0.12834581732749939 -0.31960120797157288 -0.37134131789207458 -0.34498801827430725 -0.07621503621339798 0.011023248545825481 -0.029008775949478149 0.02301204577088356 0.24011500179767609 0.3151136040687561 0.27637952566146851 0.012753572314977646 -0.083880022168159485 -0.28186959028244019 -0.41966184973716736 -0.38047346472740173 -0.058082018047571182 -0.040252871811389923 -0.042052380740642548 -0.03499232605099678 0.28330060839653015 0.32342138886451721 0.33196556568145752 0.077695943415164948 -0.047110371291637421 -0.25020670890808105 -0.40528947114944458 -0.35061615705490112 -0.066562451422214508 -0.080331601202487946 -0.0048551326617598534 -0.09077618271112442 0.29834002256393433 0.31279394030570984 0.3384147584438324 0.11151911318302155 -0.041579727083444595 -0.24435235559940338 -0.35279777646064758 -0.28246051073074341 -0.084177888929843903 -0.080513946712017059 0.042128067463636398
  0.43960759043693542 -0.46121171116828918 0.033998817205429077 -0.2087717205286026 -0.1884705126285553 0.044274657964706421 0.046544089913368225 0.045106962323188782 -0.1452556848526001 0.076675184071063995 0.14977152645587921 -0.018055042251944542 0.62767910957336426 -0.4279419481754303 0.058878514915704727 -0.16219423711299896 -0.21003113687038422 0.00076129788067191839 0.015776941552758217 -0.061033550649881363 -0.18191790580749512 0.044372912496328354 0.068363077938556671 -0.10002762079238892 0.73827719688415527 -0.34342169761657715 0.053124319761991501 -0.1046568900346756 -0.18366964161396027 -0.022954564541578293 0.010627435520291328 -0.13136737048625946 -0.1560056060552597 0.033916663378477097 -0.0039830403402447701 -0.15307991206645966 0.6856619119644165 -0.30246853828430176 0.0093713812530040741 -0.089546449482440948 -0.11190108209848404 0.010552204214036465 0.035441901534795761 -0.085257858037948608 -0.096765995025634766 0.049817383289337158 -0.041937451809644699 -0.15565575659275055 0.52514368295669556 -0.27811717987060547 -0.053419694304466248 -0.10345560312271118 -0.037528879940509796 0.057839009910821915 0.059709444642066956 -0.015904201194643974 -0.053615264594554901 0.046628180891275406 -0.045408815145492554 -0.1270771324634552
  -0.03139863908290863 0.0071263508871197701 -0.18560455739498138 0.25210142135620117 0.082464076578617096 -0.027616798877716064 -0.041412826627492905 0.26266840100288391 -0.063780277967453003 -0.058626934885978699 0.28005260229110718 -0.23085896670818329 -0.045049950480461121 -0.0022666705772280693 -0.12173616886138916 0.16782170534133911 0.042289018630981445 0.10402891039848328 -0.037113197147846222 0.21570803225040436 0.038069982081651688 -0.21370901167392731 0.18723662197589874 -0.25399896502494812 -0.098906032741069794 0.024748807772994041 0.0076518971472978592 0.040625184774398804 0.030430590733885765 0.27681159973144531 0.034114763140678406 0.12114682048559189 0.16961570084095001 -0.32112476229667664 -0.048353180289268494 -0.15844839811325073 -0.13245606422424316 0.13093282282352448 0.16352362930774689 -0.052800897508859634 0.049621183425188065 0.35912317037582397 0.1187148243188858 -0.012449533678591251 0.16519889235496521 -0.29311871528625488 -0.33287966251373291 0.01863434910774231 -0.12451805174350739 0.2071615606546402 0.2615303099155426 -0.096698552370071411 0.040092863142490387 0.34945541620254517 0.14943079650402069 -0.10241249203681946 0.083396919071674347 -0.20643489062786102 -0.45770540833473206 0.14811131358146667
  -0.076634220778942108 0.13762399554252625 0.1275201290845871 0.088069647550582886 0.25699526071548462 0.16925272345542908 -0.1878269761800766 0.20539863407611847 -0.18758057057857513 0.21223223209381104 -0.38747227191925049 0.58092129230499268 -0.038504302501678467 -0.032439891248941422 0.075438715517520905 0.00073237071046605706 0.14305399358272552 0.21212702989578247 -0.19122940301895142 0.12583236396312714 -0.057081840932369232 0.12118786573410034 -0.17431198060512543 0.49126014113426208 -0.023404078558087349 -0.19828322529792786 0.01658199168741703 -0.077743381261825562 0.038504168391227722 0.17869062721729279 -0.13945971429347992 0.040221117436885834 0.071557246148586273 0.028302082791924477 0.058297570794820786 0.37351551651954651 0.021926211193203926 -0.26462152600288391 0.023247266188263893 -0.1157117560505867 -0.01458248682320118 0.05829310417175293 -0.13006806373596191 0.0087015116587281227 0.030267698690295219 -0.0070224213413894176 0.14048232138156891 0.26531690359115601 0.094978116452693939 -0.28141355514526367 0.066991783678531647 -0.13147298991680145 -0.042338784784078598 -0.043384283781051636 -0.1638914942741394 0.029032258316874504 -0.067537784576416016 0.0099631957709789276 0.13158977031707764 0.15493693947792053
  -0.15270866453647614 -0.014156309887766838 -0.14343366026878357 -0.15156625211238861 -0.26464563608169556 0.069911397993564606 -0.31306639313697815 0.19446425139904022 0.16413640975952148 0.21204382181167603 0.11301656812429428 0.14130225777626038 -0.085303939878940582 0.051289498805999756 -0.13110199570655823 0.017638925462961197 -0.20620575547218323 0.12449429929256439 -0.18274536728858948 0.16251961886882782 0.16846285760402679 0.15992559492588043 0.025995027273893356 0.15392066538333893 0.061611086130142212 0.097976535558700562 -0.088221751153469086 0.26780974864959717 -0.131723552942276 0.24229349195957184 0.00074658938683569431 0.068345576524734497 0.084336146712303162 -0.10326527059078217 -0.11276666820049286 0.071858257055282593 0.20943796634674072 0.018658814951777458 -0.057761520147323608 0.4222474992275238 -0.10333938151597977 0.36432990431785583 0.10481772571802139 0.006888542789965868 0.021909449249505997 -0.29365494847297668 -0.0310628991574049 -0.013282262720167637 0.26309084892272949 -0.09514223039150238 -0.071605704724788666 0.42975679039955139 -0.089960545301437378 0.42433121800422668 0.1433040052652359 0.026816761121153831 0.050447680056095123 -0.24306480586528778 0.18438041210174561 -0.014579293318092823
  0.27172717452049255 -0.40983131527900696 -0.28867635130882263 0.028731402009725571 0.37695476412773132 -0.044636543840169907 -0.46765708923339844 -0.15691840648651123 0.36024540662765503 0.28601619601249695 -0.11447618901729584 -0.49463182687759399 0.24993738532066345 -0.34398373961448669 -0.23465962707996368 0.079990953207015991 0.33819606900215149 -0.048033423721790314 -0.39571848511695862 -0.13603690266609192 0.30069476366043091 0.25694140791893005 -0.092852436006069183 -0.40100282430648804 0.16669952869415283 -0.20421144366264343 -0.13778239488601685 0.13355804979801178 0.25156012177467346 -0.046541642397642136 -0.22132319211959839 -0.087031282484531403 0.18820159137248993 0.15056252479553223 -0.066053405404090881 -0.20241528749465942 0.071076512336730957 -0.066075652837753296 -0.04208538681268692 0.16130907833576202 0.16344954073429108 -0.048675742000341415 -0.078243069350719452 -0.03927404060959816 0.062627173960208893 0.027211016044020653 -0.046240165829658508 -0.029100634157657623 0.0058578178286552429 0.018179753795266151 0.0056130602024495602 0.15951517224311829 0.1074504628777504 -0.06372031569480896 -0.023477103561162949 -0.025124434381723404 -0.02275749109685421 -0.030574122443795204 -0.025158654898405075 0.049652736634016037
  -0.096777915954589844 0.33352485299110413 -0.153375044465065 0.32576218247413635 0.2127932608127594 -0.30345308780670166 0.55029672384262085 -0.31077000498771667 0.1826288253068924 0.28952819108963013 -0.28289809823036194 0.22832421958446503 -0.046018879860639572 0.24495837092399597 -0.11228202283382416 0.20916804671287537 0.099067144095897675 -0.25249120593070984 0.45886451005935669 -0.24544030427932739 0.18915495276451111 0.21689485013484955 -0.18098168075084686 0.11207771301269531 -0.048208337277173996 0.10798925906419754 -0.056432466953992844 0.047704257071018219 -0.012302054092288017 -0.1267351508140564 0.3362734317779541 -0.1120423749089241 0.19765923917293549 0.15592700242996216 -0.022944776341319084 0.0054100989364087582 -0.063866958022117615 0.034634027630090714 -0.023292135447263718 -0.048488914966583252 -0.076038852334022522 -0.043169673532247543 0.24044820666313171 -0.054957829415798187 0.17088168859481812 0.14981856942176819 0.049828112125396729 -0.032130908221006393 -0.055691301822662354 0.023983344435691833 -0.016371207311749458 -0.077603504061698914 -0.097235418856143951 -0.024146215990185738 0.18333728611469269 -0.061012532562017441 0.1453496515750885 0.16288773715496063 0.041824344545602798 -0.030312741175293922
  -0.088971428573131561 0.1387721449136734 -0.14388614892959595 -0.1275763213634491 0.40431159734725952 -0.21582645177841187 0.075155444443225861 0.017164278775453568 0.089009322226047516 -0.159738689661026 0.028569824993610382 0.25080975890159607 -0.073762699961662292 0.1857655793428421 -0.11535162478685379 -0.1182936504483223 0.41836872696876526 -0.24642495810985565 0.083830535411834717 -0.01287483423948288 0.077238656580448151 -0.16774143278598785 -0.0071552442386746407 0.29469546675682068 -0.049025952816009521 0.19003503024578094 -0.081746950745582581 -0.12568928301334381 0.38098403811454773 -0.25795653462409973 0.10234937071800232 -0.051583487540483475 0.074774347245693207 -0.16034430265426636 -0.021156417205929756 0.3118414580821991 -0.052937079221010208 0.15748453140258789 -0.056324180215597153 -0.13587315380573273 0.31616345047950745 -0.2351992279291153 0.12200088053941727 -0.081205248832702637 0.075743377208709717 -0.16189517080783844 -0.0084319207817316055 0.31542646884918213 -0.079062923789024353 0.12378676235675812 -0.055414505302906036 -0.1438312828540802 0.26314598321914673 -0.2133079469203949 0.13715273141860962 -0.096455469727516174 0.07317708432674408 -0.16945980489253998 0.0068797939456999302 0.31292137503623962
  0.232630655169487 -0.14920391142368317 -0.061897095292806625 -0.39813399314880371 -0.28296718001365662 -0.14247635006904602 -0.037107232958078384 0.2763160765171051 0.20361524820327759 0.052238710224628448 0.15936490893363953 -0.040044534951448441 0.33502784371376038 -0.16569991409778595 -0.10433550179004669 -0.41195258498191833 -0.32725036144256592 -0.13479414582252502 -0.060233920812606812 0.19931203126907349 0.16069215536117554 0.057493962347507477 0.18871165812015533 -0.19424988329410553 0.35999962687492371 -0.12067432701587677 -0.12914448976516724 -0.3108670711517334 -0.28148430585861206 -0.11383452266454697 0.02090095728635788 0.079401835799217224 0.11907605826854706 0.10058674961328506 0.14320021867752075 -0.23695559799671173 0.28362447023391724 -0.010503313504159451 -0.11229892820119858 -0.13316218554973602 -0.1584731787443161 -0.12196549773216248 0.12670931220054626 -0.011275168508291245 0.083797864615917206 0.13636603951454163 0.025896860286593437 -0.1177666187286377 0.20081433653831482 0.10739791393280029 -0.070363424718379974 0.021063180640339851 -0.070336304605007172 -0.15770731866359711 0.17142632603645325 -0.067946635186672211 0.040384989231824875 0.15101464092731476 -0.08590378612279892 0.010726364329457283
  0.16406996548175812 -0.40299990773200989 0.061234422028064728 0.19152702391147614 0.012810123153030872 -0.45831450819969177 -0.2669927179813385 0.30732381343841553 0.22280155122280121 -0.17496994137763977 -0.25451698899269104 -0.037760283797979355 0.17793169617652893 -0.39520406723022461 0.052643183618783951 0.21314951777458191 0.0071626207791268826 -0.44747060537338257 -0.25185760855674744 0.29786437749862671 0.22244065999984741 -0.21682846546173096 -0.3093738853931427 -0.027506489306688309 0.15609745681285858 -0.34796077013015747 0.025552144274115562 0.20194999873638153 0.0072686001658439636 -0.37503880262374878 -0.20659536123275757 0.25601688027381897 0.21268543601036072 -0.18757796287536621 -0.2567192018032074 0.0066203880123794079 0.095007635653018951 -0.26404482126235962 -0.0088515337556600571 0.17302277684211731 0.03696141391992569 -0.2666449248790741 -0.13208693265914917 0.21468722820281982 0.17634850740432739 -0.14341922104358673 -0.15651561319828033 0.055977631360292435 0.03740355372428894 -0.18929380178451538 -0.028430221602320671 0.16340839862823486 0.070640347898006439 -0.18988499045372009 -0.075626492500305176 0.17438901960849762 0.11742021888494492 -0.12961280345916748 -0.11538686603307724 0.065672114491462708
  0.098227985203266144 -0.0091719534248113632 0.22957666218280792 -0.1005353108048439 0.16126029193401337 0.12170670181512833 -0.10658196359872818 0.40985149145126343 -0.20789352059364319 0.30842328071594238 0.026224251836538315 -0.024831198155879974 0.05732668936252594 0.063645780086517334 0.21540157496929169 -0.033621139824390411 0.20693486928939819 0.10215986520051956 -0.061708342283964157 0.38275930285453796 -0.15230335295200348 0.34910479187965393 -0.057412244379520416 0.028027882799506187 0.0071343677118420601 0.14460542798042297 0.1718272864818573 0.027372948825359344 0.25777873396873474 0.08608274906873703 -0.012065994553267956 0.34788715839385986 -0.069186486303806305 0.36765089631080627 -0.11808115243911743 0.077199041843414307 -0.050532057881355286 0.17757131159305573 0.11068259924650192 0.022550875321030617 0.29678687453269958 0.10247355699539185 0.011831833049654961 0.34410902857780457 -0.068720430135726929 0.33969524502754211 -0.094714760780334473 0.096345789730548859 -0.09914872795343399 0.171995609998703 0.056554798036813736 -0.0035425357054919004 0.29643449187278748 0.12661910057067871 0.018459469079971313 0.3359585702419281 -0.098277509212493896 0.30405780673027039 -0.017472727224230766 0.099730543792247772
  -0.17231196165084839 0.33038803935050964 -0.023684872314333916 -0.1980162113904953 -0.056656897068023682 0.39432418346405029 0.25137662887573242 -0.25689002871513367 -0.14375476539134979 0.16055504977703094 0.23334679007530212 0.094287514686584473 -0.18049927055835724 0.28488841652870178 -0.027734667062759399 -0.23218171298503876 -0.057223908603191376 0.40688169002532959 0.24394418299198151 -0.19602710008621216 -0.12202005088329315 0.21335163712501526 0.32172483205795288 0.11773147433996201 -0.15318536758422852 0.27376818656921387 -0.0170864537358284 -0.22711008787155151 -0.035364538431167603 0.35914677381515503 0.21387282013893127 -0.1470399796962738 -0.12333905696868896 0.17428396642208099 0.22049686312675476 0.046260926872491837 -0.071070253849029541 0.27762728929519653 0.012652513571083546 -0.18699945509433746 -0.032392557710409164 0.25172948837280273 0.12917295098304749 -0.1643667072057724 -0.10596898198127747 0.12396322190761566 0.07404182106256485 -0.055339209735393524 0.013606513850390911 0.25767761468887329 0.04775320366024971 -0.14394494891166687 -0.062313985079526901 0.15216311812400818 0.055057592689990997 -0.1834540069103241 -0.058818012475967407 0.14747273921966553 0.05240587517619133 -0.092629246413707733
  0.41246643662452698 -0.10680617392063141 -0.35961738228797913 -0.26691862940788269 0.19996970891952515 0.37633678317070007 -0.062111180275678635 -0.43692746758460999 -0.1980031430721283 0.19598421454429626 0.10121443867683411 -0.21674026548862457 0.38984239101409912 -0.044427689164876938 -0.2937723696231842 -0.17077401280403137 0.19463798403739929 0.34787559509277344 -0.04869471862912178 -0.51394879817962646 -0.2174348384141922 0.20761844515800476 0.10267432034015656 -0.1623256653547287 0.32983773946762085 -0.022925663739442825 -0.19061589241027832 -0.061639226973056793 0.16887286305427551 0.26377388834953308 -0.029023539274930954 -0.44974514842033386 -0.16340641677379608 0.19083030521869659 0.063125357031822205 -0.11655578762292862 0.24427047371864319 -0.044201318174600601 -0.10231572389602661 0.018129771575331688 0.13869045674800873 0.13613890111446381 -0.0077887722291052341 -0.25739988684654236 -0.081707023084163666 0.11488944292068481 -0.024245044216513634 -0.09027775377035141 0.16804037988185883 -0.081225372850894928 -0.058769755065441132 0.048073071986436844 0.11886132508516312 0.024405781179666519 -0.0055399774573743343 -0.07936365157365799 -0.02417542040348053 0.045425496995449066 -0.10393065959215164 -0.086583323776721954
  -0.20220255851745605 -0.160464808344841 0.31639480590820312 -0.28752744197845459 -0.0010517642367631197 -0.046534262597560883 -0.10777726024389267 -0.0043971603736281395 -0.001933353953063488 0.060139887034893036 -0.068018905818462372 0.11004326492547989 -0.10995177179574966 -0.18622182309627533 0.34422701597213745 -0.29638749361038208 -0.12814193964004517 0.038847122341394424 -0.17052623629570007 -0.15191560983657837 0.14158293604850769 0.10115165263414383 -0.10467702895402908 0.060069777071475983 -0.01550254225730896 -0.19914774596691132 0.29559704661369324 -0.2702619731426239 -0.23848356306552887 0.14392904937267303 -0.2014155238866806 -0.28804764151573181 0.26410210132598877 0.15620291233062744 -0.10839364677667618 0.014797955751419067 0.0032489297445863485 -0.13199974596500397 0.18481042981147766 -0.1780608743429184 -0.20084661245346069 0.13576053082942963 -0.12757334113121033 -0.34517472982406616 0.2214193195104599 0.16066399216651917 -0.14646370708942413 0.072159141302108765 -0.0054305847734212875 -0.010151125490665436 0.094862550497055054 -0.063454441726207733 -0.091766208410263062 0.052832085639238358 -0.030821191146969795 -0.34870392084121704 0.092148475348949432 0.12289956957101822 -0.22541753947734833 0.14814950525760651
  -0.24501655995845795 0.21153119206428528 0.061615835875272751 -0.08646681159734726 0.18840757012367249 0.32390269637107849 0.17485983669757843 -0.22937828302383423 -0.0025725518353283405 0.335531085729599 0.1676306277513504 -0.22754828631877899 -0.18949957191944122 0.14077536761760712 0.074693828821182251 0.0055871233344078064 0.11358768492937088 0.15228985249996185 0.080890879034996033 -0.22967095673084259 0.097795337438583374 0.2119019627571106 -0.10599671304225922 -0.329559326171875 -0.13110943138599396 0.026194829493761063 0.078846536576747894 0.1176958754658699 0.030935937538743019 0.018932333216071129 -0.049221299588680267 -0.16168947517871857 0.20846134424209595 0.16484555602073669 -0.25855454802513123 -0.34127143025398254 -0.10751224309206009 -0.060152832418680191 0.085764870047569275 0.19753576815128326 0.029718514531850815 0.086445972323417664 -0.12200341373682022 -0.07944922149181366 0.14732326567173004 0.17056803405284882 -0.20960499346256256 -0.2979729175567627 -0.10062166303396225 -0.083768799901008606 0.094671681523323059 0.20558081567287445 0.060691237449645996 0.19670666754245758 -0.14090220630168915 -0.056037776172161102 -0.019792249426245689 0.12444740533828735 -0.14849190413951874 -0.28510481119155884
  -0.022976860404014587 -0.096447058022022247 0.18116539716720581 -0.17632688581943512 -0.0057190000079572201 0.09135022759437561 0.044341612607240677 -0.37617367506027222 0.015867026522755623 0.22052830457687378 -0.18441241979598999 0.040987510234117508 0.038249462842941284 -0.10269827395677567 0.23589207231998444 -0.18696890771389008 -0.011036340147256851 -0.0031901991460472345 -0.0086711738258600235 -0.27584734559059143 -0.034794878214597702 -0.066485136747360229 -0.08266633003950119 0.10981777310371399 0.097846582531929016 -0.07306768000125885 0.24566766619682312 -0.17085592448711395 0.12111587822437286 -0.10287570953369141 -0.051336959004402161 -0.076051890850067139 -0.059404559433460236 -0.38672256469726562 -0.014492963440716267 0.16767118871212006 0.12223728746175766 -0.0018481129081919789 0.17965921759605408 -0.1114313006401062 0.37229645252227783 -0.12696720659732819 -0.025138495489954948 0.088130995631217957 -0.021260358393192291 -0.46679589152336121 -0.13367769122123718 0.12039429694414139 0.11597989499568939 0.071576781570911407 0.095457799732685089 -0.052133314311504364 0.54236865043640137 -0.094963379204273224 0.022260621190071106 0.13504134118556976 0.04008430615067482 -0.34708824753761292 -0.28149279952049255 0.032916557043790817
  0.11554472148418427 -0.18970395624637604 0.13267207145690918 -0.20535653829574585 -0.056841827929019928 0.061044901609420776 -0.10282024741172791 0.23538833856582642 -0.21237525343894958 0.24876189231872559 -0.28801017999649048 0.082951821386814117 0.13223522901535034 -0.19549846649169922 0.14879931509494781 -0.22164025902748108 -0.061432793736457825 0.074785664677619934 -0.1164347305893898 0.2248435765504837 -0.25435158610343933 0.26813584566116333 -0.30243015289306641 0.083670221269130707 0.14161957800388336 -0.17361129820346832 0.15437906980514526 -0.2264135330915451 -0.042153473943471909 0.084343060851097107 -0.1351291686296463 0.23388317227363586 -0.27483007311820984 0.28390899300575256 -0.31508401036262512 0.086481116712093353 0.14432050287723541 -0.12894657254219055 0.15633894503116608 -0.20495718717575073 -0.007864207960665226 0.084375187754631042 -0.13689374923706055 0.24914087355136871 -0.25888434052467346 0.24795776605606079 -0.30276042222976685 0.091629691421985626 0.14224052429199219 -0.082271188497543335 0.15642409026622772 -0.16835334897041321 0.025618964806199074 0.084215044975280762 -0.12931054830551147 0.25426125526428223 -0.24059948325157166 0.21139812469482422 -0.31042447686195374 0.081713616847991943
  -0.075391978025436401 0.08878009021282196 -0.19536671042442322 0.13578648865222931 -0.034716900438070297 -0.20733898878097534 0.20023928582668304 -0.4002240002155304 0.24137720465660095 -0.28875845670700073 0.07556452602148056 -0.012200376950204372 -0.033416524529457092 0.0096188066527247429 -0.19931098818778992 0.070375949144363403 -0.098326541483402252 -0.21062865853309631 0.18260668218135834 -0.41303697228431702 0.24651110172271729 -0.3680967390537262 0.18262428045272827 -0.066158071160316467 0.00045092921936884522 -0.076378226280212402 -0.18579831719398499 0.013501578941941261 -0.16397956013679504 -0.21091790497303009 0.16283980011940002 -0.42035523056983948 0.25340655446052551 -0.41722729802131653 0.27359631657600403 -0.11056861281394958 0.025079470127820969 -0.11543864011764526 -0.15212327241897583 0.0071512553840875626 -0.2093358039855957 -0.22612439095973969 0.15907077491283417 -0.44306758046150208 0.26548439264297485 -0.4104326069355011 0.26733064651489258 -0.13475385308265686 0.059598803520202637 -0.097245827317237854 -0.10653881728649139 0.037398025393486023 -0.2197447270154953 -0.24468150734901428 0.14853937923908234 -0.45793044567108154 0.25025659799575806 -0.37818670272827148 0.19880741834640503 -0.14153662323951721
  -0.044954169541597366 -0.10636167973279953 -0.077948562800884247 -0.16715668141841888 -0.08079083263874054 0.030232498422265053 -0.049921702593564987 0.12781403958797455 0.072385139763355255 -0.029904033988714218 0.020964022725820541 -0.035908408463001251 0.030363854020833969 0.023485938087105751 -0.0023157983087003231 -0.081830121576786041 -0.10557956993579865 -0.075197190046310425 -0.091788105666637421 0.048483740538358688 0.063445620238780975 0.030740588903427124 0.064585022628307343 0.011076720431447029 0.22353897988796234 0.23887284100055695 0.12695430219173431 0.0046366802416741848 -0.18677116930484772 -0.22918279469013214 -0.1976085752248764 -0.10416225343942642 -0.0062399264425039291 0.079279884696006775 0.097108222544193268 0.060708649456501007 0.44347167015075684 0.38971659541130066 0.24800847470760345 0.017675101757049561 -0.32357338070869446 -0.33077672123908997 -0.31283226609230042 -0.26516926288604736 -0.12807944416999817 0.075763732194900513 0.10669108480215073 0.1147218644618988 0.51160919666290283 0.37163999676704407 0.29041829705238342 -0.033319380134344101 -0.40768575668334961 -0.28432470560073853 -0.31613168120384216 -0.2842114269733429 -0.17062711715698242 0.083107516169548035 0.16524975001811981 0.18099088966846466
  -0.27244764566421509 -0.25208002328872681 0.31735873222351074 0.57066279649734497 0.10721371322870255 -0.37507131695747375 -0.085292957723140717 0.10748185962438583 0.2729332447052002 0.10320368409156799 -0.23468565940856934 -0.17763166129589081 -0.24809518456459045 -0.25259187817573547 0.27388086915016174 0.49493193626403809 0.076204538345336914 -0.33024582266807556 -0.082187540829181671 0.082047291100025177 0.22484417259693146 0.10896074026823044 -0.20439881086349487 -0.17712964117527008 -0.20351038873195648 -0.21336431801319122 0.1947924792766571 0.37755066156387329 0.046130098402500153 -0.23699912428855896 -0.043693490326404572 0.048567250370979309 0.1441420316696167 0.089508622884750366 -0.16292920708656311 -0.14312691986560822 -0.15143503248691559 -0.15076825022697449 0.13125714659690857 0.26704800128936768 0.016339793801307678 -0.12524187564849854 0.005463350098580122 -0.0044039245694875717 0.052098877727985382 0.053580883890390396 -0.10585075616836548 -0.090772852301597595 -0.10929121822118759 -0.098678022623062134 0.097091175615787506 0.1942133754491806 -0.0079487673938274384 -0.039086911827325821 0.044645030051469803 -0.036351412534713745 0.011398951523005962 0.027834607288241386 -0.068282611668109894 -0.062238290905952454
  -0.087184444069862366 -0.061447437852621078 0.031083179637789726 0.28081107139587402 -0.23861241340637207 0.10543844848871231 0.0086794178932905197 -0.11688267439603806 0.16775709390640259 0.30257561802864075 -0.049503196030855179 -0.23365701735019684 -0.07850944995880127 -0.1053897887468338 0.019902031868696213 0.19017654657363892 -0.2268383800983429 0.11940538883209229 -0.023494582623243332 -0.060875598341226578 0.17736071348190308 0.26352900266647339 0.039678074419498444 -0.34604477882385254 -0.10762793570756912 -0.10994561761617661 0.0025516871828585863 0.060741569846868515 -0.11860170960426331 0.081635035574436188 0.017148192971944809 0.051448583602905273 0.10845490545034409 0.17755171656608582 0.23763267695903778 -0.34104412794113159 -0.17871873080730438 -0.019141366705298424 -0.0039753671735525131 0.00020470767049118876 0.044360019266605377 -0.016122961416840553 0.15467455983161926 0.15553180873394012 -0.035833746194839478 0.072271771728992462 0.45435994863510132 -0.14292007684707642 -0.22989186644554138 0.090165704488754272 0.0037176108453422785 0.016125855967402458 0.14716659486293793 -0.097445882856845856 0.25450494885444641 0.20148913562297821 -0.14442439377307892 -0.010201077908277512 0.55570775270462036 0.064665794372558594
  -0.033194836229085922 -0.040256056934595108 0.015192876569926739 0.1387556791305542 0.032314334064722061 -0.10600537806749344 0.021461525931954384 -0.0071361991576850414 -0.036124631762504578 -0.054282810539007187 -0.004476720467209816 0.089468315243721008 0.00039391341852024198 -0.11441976577043533 -0.05651681125164032 0.1074976921081543 0.14362870156764984 -0.069454625248908997 -0.091231726109981537 -0.03754831850528717 0.06060384213924408 0.041774116456508636 0.018840497359633446 -0.00067668291740119457 0.096004009246826172 -0.20979738235473633 -0.14628057181835175 0.062418028712272644 0.27238729596138 -0.025737663730978966 -0.27672746777534485 -0.12086446583271027 0.18822973966598511 0.18040339648723602 -0.004047861322760582 -0.21081750094890594 0.2272455245256424 -0.29872497916221619 -0.22045895457267761 0.02840411476790905 0.34865245223045349 -0.013135338202118874 -0.42101001739501953 -0.19486825168132782 0.29688537120819092 0.29375669360160828 -0.057012155652046204 -0.42030096054077148 0.30146124958992004 -0.34588465094566345 -0.24411413073539734 0.02175537496805191 0.36614462733268738 -0.0041492721065878868 -0.41655251383781433 -0.1910088062286377 0.34325402975082397 0.30636540055274963 -0.093086220324039459 -0.48878821730613708
  0.45045635104179382 0.13951581716537476 -0.39046493172645569 -0.10442524403333664 0.3165605366230011 0.37328320741653442 -0.078339986503124237 -0.30642333626747131 -0.032333001494407654 0.15666015446186066 -0.12411125749349594 -0.1992521733045578 0.39314377307891846 0.14988712966442108 -0.34316343069076538 -0.082690134644508362 0.32364940643310547 0.3363010585308075 -0.10188895463943481 -0.34232300519943237 -0.040090296417474747 0.14686413109302521 -0.13599766790866852 -0.18586219847202301 0.32976830005645752 0.096647731959819794 -0.25134113430976868 -0.093453779816627502 0.22872081398963928 0.25596365332603455 -0.087114132940769196 -0.29220610857009888 -0.050457701086997986 0.1413356214761734 -0.040510687977075577 -0.11643730103969574 0.27942967414855957 0.014764733612537384 -0.1398150622844696 -0.12310544401407242 0.079892769455909729 0.14774300158023834 -0.047394562512636185 -0.16119305789470673 -0.08687562495470047 0.05898759514093399 0.034582685679197311 -0.046583399176597595 0.25611069798469543 -0.036834932863712311 -0.051533177495002747 -0.14517010748386383 -0.038287874311208725 0.050061672925949097 -0.026645300909876823 -0.05722891166806221 -0.1087484210729599 -0.041965704411268234 0.065187759697437286 -0.014983978122472763
  -0.020319061353802681 -0.095856450498104095 -0.19109927117824554 -0.1769595742225647 0.036350741982460022 0.11459269374608994 0.29007411003112793 0.31165042519569397 0.26306736469268799 0.072253406047821045 0.051836017519235611 -0.017195867374539375 -0.0076197977177798748 -0.12879954278469086 -0.19131819903850555 -0.19581389427185059 0.016215128824114799 0.10515468567609787 0.2974216639995575 0.32795462012290955 0.31680509448051453 0.064075395464897156 0.076735325157642365 0.016868429258465767 0.013189476914703846 -0.1991354376077652 -0.19337758421897888 -0.22973412275314331 -0.016836881637573242 0.07214750349521637 0.28173360228538513 0.34794214367866516 0.36285504698753357 0.052268519997596741 0.12366273254156113 0.026723211631178856 0.032557744532823563 -0.25282242894172668 -0.20983090996742249 -0.26095697283744812 -0.028131753206253052 0.021754069253802299 0.27096030116081238 0.35373005270957947 0.35271096229553223 0.048921301960945129 0.12675456702709198 -0.0072995461523532867 0.043216843158006668 -0.26782035827636719 -0.2190140038728714 -0.26212209463119507 -0.0091646183282136917 -0.00094034313224256039 0.26270520687103271 0.34021240472793579 0.31082442402839661 0.051948189735412598 0.09729272872209549 -0.063287518918514252
  0.065206617116928101 -0.29871207475662231 -0.19383367896080017 0.18437376618385315 -0.10505874454975128 0.14458930492401123 0.07454293966293335 -0.086401484906673431 -0.41141679883003235 0.18767452239990234 0.076269745826721191 0.30000865459442139 0.015910757705569267 -0.34459197521209717 -0.21984429657459259 0.13891242444515228 -0.16419430077075958 0.086357474327087402 -0.04747578501701355 0.072684578597545624 -0.32328695058822632 0.1567118912935257 0.13381808996200562 0.22416800260543823 -0.052374385297298431 -0.27402070164680481 -0.25424206256866455 0.11741599440574646 -0.20455878973007202 0.020121952518820763 -0.13440428674221039 0.21607914566993713 -0.17335611581802368 0.09778238832950592 0.14417390525341034 0.060132026672363281 -0.10756718367338181 -0.051078185439109802 -0.26819500327110291 0.19972284138202667 -0.17339423298835754 -1.5623591025359929e-05 -0.081230655312538147 0.15089483559131622 -0.17004156112670898 -0.057149399071931839 -0.026675455272197723 -0.086425282061100006 -0.11437030881643295 0.14706723392009735 -0.24332860112190247 0.28422272205352783 -0.1332259327173233 0.00089858146384358406 0.0068623204715549946 -0.025080384686589241 -0.25871714949607849 -0.21741338074207306 -0.2314339280128479 -0.1431887149810791
  0.032105449587106705 -0.38646134734153748 -0.10076704621315002 -0.099139176309108734 -0.410411536693573 0.016786644235253334 -0.14824371039867401 -0.2112397700548172 0.3198276162147522 -0.067415818572044373 0.18503667414188385 0.1625802218914032 -0.12109725177288055 -0.27622503042221069 -0.13100090622901917 -0.034852117300033569 -0.26049995422363281 0.051397111266851425 0.015347803011536598 -0.18469178676605225 0.3084089457988739 -0.047645941376686096 0.034104853868484497 0.31152701377868652 -0.25646635890007019 -0.11701250076293945 -0.11733878403902054 -0.013235486112535 -0.053503882139921188 0.069314680993556976 0.099721446633338928 -0.053362108767032623 0.20138534903526306 0.068124569952487946 -0.10058753192424774 0.38710868358612061 -0.27712911367416382 -0.026798883453011513 -0.06782851368188858 -0.11106809228658676 0.040123298764228821 0.042841985821723938 -0.062827281653881073 0.10054755955934525 -0.026942677795886993 0.22697499394416809 -0.091031596064567566 0.25704258680343628 -0.23173147439956665 -0.027149733155965805 -0.026773234829306602 -0.23478259146213531 0.023784587159752846 0.012729765847325325 -0.26059535145759583 0.19371744990348816 -0.21815289556980133 0.30834352970123291 -0.015812734141945839 0.067775487899780273
  -0.012636939994990826 -0.19422440230846405 0.2242349237203598 -0.26530998945236206 -0.31471475958824158 0.17264755070209503 -0.2589956521987915 -0.18247708678245544 0.31191828846931458 -0.43047001957893372 0.36688578128814697 -0.20320115983486176 -0.084817230701446533 -0.18397305905818939 0.19478271901607513 -0.26128530502319336 -0.20404373109340668 0.20615096390247345 -0.22843389213085175 -0.13133659958839417 0.27957639098167419 -0.3442920446395874 0.35948064923286438 -0.18982353806495667 -0.10574287921190262 -0.092194050550460815 0.1460510641336441 -0.19753509759902954 -0.069696426391601562 0.14199468493461609 -0.16844043135643005 -0.10584965348243713 0.17641445994377136 -0.22043402493000031 0.24974337220191956 -0.14896708726882935 -0.069999136030673981 0.0015387547900900245 0.11110527813434601 -0.11963226646184921 0.011831278912723064 0.059952244162559509 -0.10529281944036484 -0.097109042108058929 0.098165646195411682 -0.13742688298225403 0.13584168255329132 -0.11553339660167694 -0.038587655872106552 0.047965764999389648 0.098818287253379822 -0.063489861786365509 0.043805204331874847 0.023906242102384567 -0.052152834832668304 -0.087855450809001923 0.08595101535320282 -0.099582448601722717 0.073250614106655121 -0.097246639430522919
  0.035767428576946259 0.045089077204465866 -0.055013816803693771 0.10237240046262741 0.066167645156383514 0.07900489866733551 -0.10360528528690338 -0.06229870393872261 -0.026294136419892311 -0.075747348368167877 -0.06553022563457489 0.097925052046775818 0.092233091592788696 -0.021664585918188095 -0.017585229128599167 0.048569101840257645 -0.069399788975715637 0.059468463063240051 -0.18078787624835968 -0.080949835479259491 0.0079622725024819374 -0.14375735819339752 -0.029942821711301804 0.10994987189769745 0.10715105384588242 -0.16573797166347504 0.047635499387979507 -0.046851981431245804 -0.23203578591346741 0.12705816328525543 -0.27638176083564758 -0.077136583626270294 0.099276408553123474 -0.24485203623771667 0.045007988810539246 0.10129836201667786 0.065293766558170319 -0.30577805638313293 0.10283798724412918 -0.14458620548248291 -0.34756442904472351 0.25506624579429626 -0.3609168529510498 -0.043782323598861694 0.18814393877983093 -0.35742184519767761 0.14101484417915344 0.044136304408311844 0.045980896800756454 -0.35052895545959473 0.1151154637336731 -0.20729045569896698 -0.39750286936759949 0.30650979280471802 -0.40698900818824768 -0.042488604784011841 0.21582821011543274 -0.42444673180580139 0.2023736983537674 -0.016789995133876801
  -0.3398626446723938 0.07589896023273468 0.20247794687747955 0.26416468620300293 0.075955085456371307 -0.2386435866355896 -0.35584717988967896 -0.39891985058784485 -0.038912482559680939 0.13271114230155945 0.33287602663040161 0.28812950849533081 -0.28367781639099121 0.070973023772239685 0.16217857599258423 0.21005788445472717 0.073381848633289337 -0.18713623285293579 -0.32843005657196045 -0.31909403204917908 0.049269381910562515 0.31988438963890076 0.40542745590209961 0.18620863556861877 -0.18693652749061584 0.059013567864894867 0.10120978951454163 0.10641999542713165 0.0090776197612285614 -0.12748390436172485 -0.25249022245407104 -0.16300280392169952 0.06710178405046463 0.24799872934818268 0.22290802001953125 0.007116497028619051 -0.12160027772188187 -0.017198521643877029 0.03096441924571991 -0.042121529579162598 -0.084724642336368561 -0.06964479386806488 -0.18290549516677856 0.0012095813872292638 0.077667675912380219 0.035807661712169647 0.018771234899759293 -0.020717103034257889 -0.11765943467617035 -0.11227834224700928 -0.027591722086071968 -0.1554403156042099 -0.12105188518762589 -0.011621090583503246 -0.09676525741815567 0.15810713171958923 0.17396464943885803 -0.0044652046635746956 0.03939390555024147 0.093995921313762665
  -0.5679050087928772 -0.4475313127040863 -0.30248409509658813 0.0039735487662255764 0.42564734816551208 0.41604983806610107 0.37325954437255859 0.31313860416412354 0.15695986151695251 -0.11145756393671036 -0.22714410722255707 -0.11655385047197342 -0.46597057580947876 -0.32426676154136658 -0.20224827527999878 0.063329383730888367 0.36682122945785522 0.2659321129322052 0.31129482388496399 0.24843819439411163 0.1086084172129631 -0.043577853590250015 -0.16537864506244659 -0.041404929012060165 -0.19829390943050385 -0.12656621634960175 -0.062016792595386505 0.096482306718826294 0.20040503144264221 0.053650122135877609 0.15694630146026611 0.084765031933784485 0.00041647607577033341 -0.030739586800336838 -0.10622108727693558 -0.020167320966720581 0.037587791681289673 -0.035602260380983353 0.04449714720249176 0.075476124882698059 0.044149741530418396 -0.018398536369204521 0.044174615293741226 -0.027173709124326706 -0.065251618623733521 -0.044887389987707138 -0.013847975060343742 -0.023076187819242477 0.1496136337518692 -0.0097236214205622673 0.080355241894721985 0.053752988576889038 -0.027425162494182587 0.012026146985590458 0.017080007120966911 -0.074874900281429291 -0.08463103324174881 -0.028898011893033981 0.049960244446992874 -0.02363918349146843
  0.078252986073493958 0.10072217136621475 0.26311430335044861 0.1506982296705246 0.30953305959701538 0.23111593723297119 0.26551634073257446 0.30475535988807678 0.25899073481559753 0.33359387516975403 0.28347602486610413 0.21457511186599731 0.10155031830072403 0.14079053699970245 0.25338205695152283 0.15987598896026611 0.29410567879676819 0.19530563056468964 0.256072998046875 0.25490018725395203 0.20744340121746063 0.25844380259513855 0.20379984378814697 0.18213289976119995 0.14997541904449463 0.13661536574363708 0.24151003360748291 0.14835299551486969 0.25502115488052368 0.16398964822292328 0.24180124700069427 0.22574482858181 0.21760886907577515 0.23948055505752563 0.21187205612659454 0.1768948882818222 0.1762937605381012 0.090628631412982941 0.2153402715921402 0.11724450439214706 0.22146156430244446 0.1511901319026947 0.23129463195800781 0.21902225911617279 0.25454610586166382 0.23940770328044891 0.24756212532520294 0.17539794743061066 0.19561295211315155 0.054834488779306412 0.1945786327123642 0.093162573873996735 0.20228543877601624 0.14212381839752197 0.20950353145599365 0.20054630935192108 0.25974506139755249 0.21596509218215942 0.23662985861301422 0.14899562299251556
  0.63101798295974731 0.09062204509973526 0.17622753977775574 0.052233651280403137 -0.029573643580079079 -0.12733370065689087 -0.058213755488395691 -0.22893568873405457 -0.14550162851810455 -0.069794006645679474 -0.13505686819553375 -0.24416144192218781 0.50381040573120117 0.031216364353895187 0.18322774767875671 0.027944205328822136 -8.4916675405111164e-05 -0.038981359452009201 0.061129964888095856 0.054704956710338593 0.14897447824478149 0.13983352482318878 0.17739814519882202 0.0033337532076984644 0.31071516871452332 0.028943175449967384 0.17801837623119354 0.04561937227845192 0.054598722606897354 0.052360512316226959 0.15160459280014038 0.2280227392911911 0.23571790754795074 0.14509624242782593 0.17017146944999695 0.10611631721258163 0.20087167620658875 0.11352115869522095 0.18934813141822815 0.086648546159267426 0.081226840615272522 0.10493017733097076 0.15000179409980774 0.18114155530929565 0.099382132291793823 0.14654141664505005 0.0493973009288311 0.053191587328910828 0.16239945590496063 0.20619989931583405 0.21081331372261047 0.13465656340122223 0.087625972926616669 0.13939148187637329 0.14174830913543701 0.11760696023702621 0.044599588960409164 0.32777836918830872 0.14316987991333008 0.07567470520734787
  -0.007384592667222023 0.30438095331192017 -0.10018045455217361 0.011359958909451962 -0.043101280927658081 -0.063992269337177277 -0.065877735614776611 -0.2061561793088913 -0.56987988948822021 -0.36820420622825623 0.045011620968580246 -0.11336638033390045 -0.011379622854292393 0.22696810960769653 -0.188511922955513 0.034387797117233276 -0.018406026065349579 -0.12778271734714508 0.018927477300167084 -0.11005130410194397 -0.24502059817314148 -0.26652556657791138 -0.10858180373907089 -0.10457955300807953 0.0021068269852548838 0.13314059376716614 -0.27830639481544495 0.045909762382507324 0.027238745242357254 -0.24495774507522583 0.07733425498008728 -0.019683465361595154 0.094338968396186829 -0.15537795424461365 -0.1899370551109314 -0.02455265074968338 0.040095869451761246 0.064438112080097198 -0.31460356712341309 0.0019944848027080297 0.064402617514133453 -0.32736125588417053 0.033944472670555115 -0.021016137674450874 0.07451794296503067 -0.16554708778858185 -0.02062673307955265 0.098733521997928619 0.078471049666404724 0.02296149916946888 -0.30967113375663757 -0.049557458609342575 0.072377540171146393 -0.33414104580879211 -0.039043392986059189 -0.058955922722816467 -0.083573460578918457 -0.17950272560119629 0.17956507205963135 0.157952681183815
  0.18748494982719421 -0.13143561780452728 -0.10441117733716965 0.24592974781990051 -0.3153529167175293 0.1033884584903717 0.17795048654079437 -0.47096842527389526 0.32370471954345703 -0.14173009991645813 -0.21275794506072998 0.23807573318481445 0.15872891247272491 -0.14182917773723602 -0.096980020403862 0.25155657529830933 -0.31679320335388184 0.13607807457447052 0.18395601212978363 -0.47643601894378662 0.31626135110855103 -0.16532652080059052 -0.22236914932727814 0.28260624408721924 0.14803384244441986 -0.13789233565330505 -0.075296014547348022 0.23757247626781464 -0.29998406767845154 0.14511306583881378 0.15194271504878998 -0.44100987911224365 0.26977875828742981 -0.1590382307767868 -0.21787074208259583 0.28460761904716492 0.15774361789226532 -0.134010910987854 -0.049434870481491089 0.21030640602111816 -0.28479638695716858 0.13817816972732544 0.11156461387872696 -0.38934984803199768 0.22113832831382751 -0.13134735822677612 -0.20357732474803925 0.24960401654243469 0.17675231397151947 -0.12173687666654587 -0.028642794117331505 0.18591979146003723 -0.26620614528656006 0.12656961381435394 0.083359897136688232 -0.34796375036239624 0.17377795279026031 -0.12856009602546692 -0.20681455731391907 0.19744029641151428
  0.093179613351821899 -0.12188027799129486 -0.18602481484413147 -0.049047466367483139 0.099773012101650238 0.018620759248733521 -0.039050068706274033 0.02489011362195015 -0.099592827260494232 -0.12054178863763809 0.049225449562072754 -0.005496111698448658 0.083722487092018127 -0.029276952147483826 -0.17037850618362427 -0.00048803802928887308 0.081408612430095673 0.015213925391435623 -0.029897004365921021 -0.1010255366563797 -0.1647343784570694 -0.098364800214767456 0.12639714777469635 0.072635188698768616 -0.014593522995710373 -0.01712457463145256 -0.16727937757968903 -0.0092972097918391228 0.071612268686294556 0.086663909256458282 0.00030555808916687965 -0.20496228337287903 -0.22082507610321045 -0.042954623699188232 0.27737408876419067 0.1888127326965332 -0.25610136985778809 -0.11330690234899521 -0.23559141159057617 -0.082521967589855194 0.17737060785293579 0.29075667262077332 0.13367944955825806 -0.1398887038230896 -0.19243697822093964 -0.00041108200093731284 0.34347480535507202 0.30825167894363403 -0.48893505334854126 -0.14681097865104675 -0.32347211241722107 -0.12010592967271805 0.34084290266036987 0.46268513798713684 0.30320873856544495 0.0021371850743889809 -0.10660926252603531 0.019698448479175568 0.22485801577568054 0.34806877374649048
  0.18316005170345306 -0.28752854466438293 0.11967496573925018 0.039155695587396622 -0.20985198020935059 -0.21494580805301666 0.042759064584970474 0.11018545180559158 -0.36421442031860352 -0.087040767073631287 0.47035029530525208 -0.18608851730823517 0.17341521382331848 -0.24467073380947113 0.07379826158285141 0.093498528003692627 -0.17702896893024445 -0.21891593933105469 0.10937341302633286 0.01785559207201004 -0.3554958701133728 -0.06993972510099411 0.41962191462516785 -0.15062586963176727 0.16902606189250946 -0.17079344391822815 0.0078063593246042728 0.12858441472053528 -0.0888981893658638 -0.20846423506736755 0.14843399822711945 -0.06223691999912262 -0.29039198160171509 -0.0093922875821590424 0.27870497107505798 -0.098433710634708405 0.16109111905097961 -0.13996145129203796 -0.045046068727970123 0.11299074441194534 0.011453796178102493 -0.15759481489658356 0.13458617031574249 -0.035956203937530518 -0.22274427115917206 0.047136362642049789 0.14228196442127228 -0.062311455607414246 0.15347786247730255 -0.13142292201519012 -0.074623554944992065 0.079091094434261322 0.073441624641418457 -0.11038993299007416 0.10521934926509857 0.018760938197374344 -0.19728463888168335 0.053936239331960678 0.05205051600933075 -0.062500715255737305
  0.020964190363883972 0.22372041642665863 -0.071584641933441162 0.044014450162649155 0.057633571326732635 0.030655959621071815 -0.10337191820144653 0.1222248449921608 0.31579574942588806 -0.3029312789440155 -0.091271795332431793 0.21638590097427368 0.061577990651130676 0.26001787185668945 -0.055162392556667328 0.022423142567276955 0.0088279861956834793 -0.047707352787256241 -0.11861187964677811 0.035819623619318008 0.32831588387489319 -0.12531223893165588 -0.0029812734574079514 0.10612731426954269 0.087139137089252472 0.32294347882270813 -0.014012235216796398 -0.0043006530031561852 0.0068590505979955196 -0.099349088966846466 -0.057459577918052673 -0.0069061079993844032 0.26801237463951111 0.055854089558124542 0.07380983978509903 -0.13824635744094849 0.063377454876899719 0.38908129930496216 0.034520722925662994 -0.01932879351079464 0.10041026026010513 -0.073169991374015808 0.069030687212944031 0.057871405035257339 0.073345474898815155 -0.024148788303136826 -0.042502570897340775 -0.43708625435829163 0.033431820571422577 0.41942167282104492 0.058759640902280807 -0.024225875735282898 0.17039681971073151 -0.031838711351156235 0.15256789326667786 0.1086527407169342 -0.12188312411308289 -0.22452220320701599 -0.22693885862827301 -0.59126615524291992
  -0.062647216022014618 0.0055848211050033569 0.10855861008167267 0.16596069931983948 0.019985595718026161 -0.11550726741552353 -0.053393345326185226 0.0035749364178627729 0.073147423565387726 0.038635276257991791 -0.13813003897666931 0.048844292759895325 0.002632184186950326 -0.010879768058657646 -0.026339214295148849 0.0098802270367741585 0.075470007956027985 -0.013395105488598347 -0.067494198679924011 -0.01778106763958931 0.049575604498386383 0.037205707281827927 -0.089442841708660126 0.00047310857917182148 0.12772084772586823 0.0067874821834266186 -0.22020262479782104 -0.2198328971862793 0.13654592633247375 0.17275595664978027 -0.071165665984153748 -0.098051838576793671 -0.023997198790311813 0.072525940835475922 0.046176508069038391 -0.044557180255651474 0.29241818189620972 0.050987906754016876 -0.39245343208312988 -0.4226679801940918 0.16368812322616577 0.37031298875808716 -0.067117601633071899 -0.25737544894218445 -0.11496225744485855 0.11838692426681519 0.22230564057826996 -0.08252328634262085 0.41780957579612732 0.053910151124000549 -0.47579926252365112 -0.53122454881668091 0.14993813633918762 0.50016456842422485 -0.067678600549697876 -0.39255684614181519 -0.15550525486469269 0.14734241366386414 0.33231154084205627 -0.12549567222595215 ]
 [ -0.14866255223751068 0.54774409532546997 0.48806604743003845 -0.44590368866920471 -0.44999715685844421 -0.30950435996055603 -0.094493448734283447 -0.13323381543159485 -0.16439621150493622 -0.69787710905075073 0.49117878079414368 0.057975538074970245 -0.51879775524139404 0.51933205127716064 0.44858852028846741 -0.60813766717910767 -0.1747058779001236 -0.11587230116128922 -0.065771661698818207 0.0647125244140625 -0.77123266458511353 -0.77241975069046021 -0.088221341371536255 0.031818896532058716 -0.78099077939987183 0.32281646132469177 0.40255370736122131 -0.8119240403175354 -0.16886341571807861 0.050797760486602783 -0.26981514692306519 0.20386207103729248 -1.0793472528457642 -0.52733492851257324 -0.30277574062347412 0.085847929120063782 -0.82791668176651001 0.040037699043750763 0.43925866484642029 -0.83829021453857422 -0.51901072263717651 0.1611437052488327 -0.44975724816322327 0.19344420731067657 -0.6445242166519165 -0.45007240772247314 -0.038126450031995773 0.15744636952877045 -0.71241766214370728 -0.13536487519741058 0.51252180337905884 -0.72415435314178467 -0.85349398851394653 0.14117662608623505 -0.57105147838592529 -0.032250035554170609 -0.31962382793426514 -0.86578202247619629 -0.093360893428325653 0.035173378884792328 ]
 [ -0.81557083129882812 -0.29457375407218933 -0.42187803983688354 -2.8641266822814941 -0.37998110055923462 0.97298234701156616 -2.4121432304382324 1.3916469812393188 1.9839085340499878 -5.344548225402832 -2.8031644821166992 1.1373922824859619 0.67675530910491943 -3.5823626518249512 -2.2954268455505371 -0.35759726166725159 -0.31087270379066467 -0.55953717231750488 1.0502927303314209 -0.51321393251419067 0.1228066012263298 0.3522166907787323 -4.3268523216247559 6.6707773208618164 0.39800587296485901 1.0933665037155151 0.43125548958778381 -1.795340895652771 2.382767915725708 1.7351788282394409 -0.38382261991500854 -3.246190071105957 -1.9710211753845215 -1.098565936088562 -2.3891303539276123 -1.0151699781417847 0.40298658609390259 -0.34816807508468628 -2.971019983291626 -3.6233630180358887 0.40237492322921753 3.2898638248443604 0.41848117113113403 -1.5380134582519531 1.9677516222000122 -1.27849280834198 0.07460051029920578 0.16377855837345123 -2.7740345001220703 -2.3797941207885742 0.56969374418258667 -0.41368746757507324 5.0044770240783691 1.168041467666626 -0.30800417065620422 -4.371220588684082 -0.052748434245586395 -1.2265329360961914 -0.038235098123550415 -1.8940860033035278 ]
</Nnet>
