<Nnet>
<rbm> 50 60
bern bern [
  -0.045003101229667664 -0.050043646246194839 -0.094078235328197479 -0.086173780262470245 -0.091550655663013458 -0.22423231601715088 -0.047830376774072647 0.13112790882587433 -0.019257910549640656 -0.21484115719795227 0.29838690161705017 -0.3770449161529541 0.08429371565580368 0.07530646026134491 -0.26729050278663635 -0.093989744782447815 0.20119713246822357 -0.066804446280002594 -0.20653526484966278 -0.028896629810333252 0.19553913176059723 0.086241923272609711 0.20831841230392456 -0.19453012943267822 0.16913238167762756 0.069696485996246338 0.052153732627630234 -0.41527250409126282 0.038531672209501266 0.14754964411258698 -0.30777552723884583 -0.54817557334899902 0.079229973256587982 0.57997560501098633 0.10407431423664093 -0.056959573179483414 0.032238569110631943 0.070072345435619354 -0.10726924985647202 -0.12794369459152222 0.017727667465806007 -0.3397219181060791 -0.059439383447170258 -0.40903112292289734 0.13056595623493195 -0.22389994561672211 -0.077546127140522003 -0.10286480188369751 -0.015555187128484249 -0.06891922652721405 -0.018170466646552086 -0.055245876312255859 0.12198509275913239 0.029404342174530029 0.049140546470880508 -0.050773698836565018 0.31740814447402954 -0.13208979368209839 0.077839814126491547 0.12449604272842407
  -0.044565130025148392 -0.50416231155395508 -0.25001266598701477 -0.019226634874939919 0.045896563678979874 0.028123967349529266 0.013487868942320347 0.16709473729133606 0.0033857289236038923 -0.019247055053710938 -0.0064586680382490158 -0.072190366685390472 0.026449717581272125 0.062953062355518341 -0.35646006464958191 -0.011961111798882484 -0.14035207033157349 -0.14035314321517944 0.032076265662908554 -0.18767113983631134 0.10888280719518661 -0.045363668352365494 -0.25158706307411194 -0.18532426655292511 0.072610408067703247 0.13112358748912811 0.061549361795186996 -0.11634953320026398 0.065878227353096008 0.23171092569828033 -0.063911557197570801 -0.40991705656051636 0.082714252173900604 0.46563002467155457 0.22613415122032166 -0.11945036053657532 -0.014476022683084011 -0.10286901146173477 -0.15990282595157623 -0.085398107767105103 -0.21513421833515167 -0.38881152868270874 0.082636728882789612 -0.068241775035858154 0.19704669713973999 0.19595228135585785 0.00017380414647050202 0.14947155117988586 0.012234472669661045 -0.065203256905078888 0.01629064604640007 0.14544755220413208 0.17380672693252563 -0.077375277876853943 -0.013514624908566475 -0.13046836853027344 0.52580457925796509 -0.15457572042942047 -0.017942303791642189 0.33632194995880127
  -0.12006580084562302 -0.06659659743309021 0.19219671189785004 -0.2551569938659668 -0.29135194420814514 -0.058124415576457977 0.13368520140647888 -0.030629877001047134 -0.1513172835111618 -0.084234438836574554 -0.00057209702208638191 0.032761987298727036 0.022841010242700577 0.026216929778456688 0.01431107334792614 -0.19552122056484222 -0.05246131494641304 -0.22788338363170624 0.077965609729290009 -0.15816260874271393 -0.28841423988342285 -0.069168709218502045 -0.18603962659835815 0.089948229491710663 -0.12229842692613602 0.49547794461250305 0.064304091036319733 0.0097047202289104462 -0.04705878347158432 -0.18434986472129822 0.0378744937479496 -0.027848470956087112 0.47497296333312988 0.092561595141887665 -0.0076131578534841537 0.28851372003555298 0.065222218632698059 -0.045673083513975143 0.47098526358604431 -0.50434082746505737 -0.052297409623861313 0.016577158123254776 0.049660928547382355 0.021957606077194214 0.0012817599344998598 0.19467541575431824 -0.014752155169844627 0.22855740785598755 -0.15515878796577454 -0.066668182611465454 0.036276131868362427 0.059658613055944443 0.37903714179992676 0.31621861457824707 -0.62247562408447266 -0.11349103599786758 -0.017019659280776978 -0.14082141220569611 -0.31431177258491516 0.027883663773536682
  0.0032287449575960636 -0.2352641224861145 -0.091464430093765259 -0.073674827814102173 0.099578060209751129 0.18274269998073578 0.01033502072095871 0.067027099430561066 0.075823493301868439 0.12543600797653198 -0.34415140748023987 0.53533720970153809 0.019220625981688499 0.085770010948181152 0.10449792444705963 0.058097429573535919 -0.27329322695732117 -0.038489554077386856 0.22469080984592438 -0.175881028175354 -0.12940411269664764 -0.032731249928474426 -0.39842480421066284 -0.05921410396695137 -0.049275793135166168 0.063215658068656921 0.030229363590478897 0.34772807359695435 0.10819981247186661 0.059128697961568832 0.13725654780864716 0.37081429362297058 0.084389336407184601 -0.36566421389579773 -0.17628395557403564 -0.033047109842300415 0.05436287447810173 -0.16077695786952972 -0.031661022454500198 -0.018350252881646156 -0.23940528929233551 0.3206513524055481 0.16932179033756256 0.34762340784072876 -0.13975867629051208 0.3965778648853302 -0.014961622655391693 0.22119925916194916 -0.067977651953697205 -0.055223342031240463 0.096845850348472595 0.2433045357465744 0.13876433670520782 -0.034225042909383774 -0.16800828278064728 -0.065362967550754547 -0.10204973816871643 -0.10608802735805511 -0.01328718289732933 -0.11513090133666992
  0.080513559281826019 -0.27152207493782043 -0.059045054018497467 -0.10453468561172485 -0.023042192682623863 0.30060270428657532 -0.014374052174389362 0.050855923444032669 0.075888276100158691 0.22692205011844635 -0.25450217723846436 0.3641626238822937 -0.13328054547309875 0.12434402853250504 -0.091509297490119934 -0.037802666425704956 0.13074494898319244 0.0082645220682024956 0.047378119081258774 -0.050001252442598343 0.13558025658130646 -0.0053007807582616806 -0.34263274073600769 -0.15920084714889526 0.23201450705528259 0.020162330940365791 0.047826096415519714 0.24283306300640106 0.10858292132616043 0.10699489712715149 -0.10205253958702087 0.13637937605381012 0.12388604879379272 -0.17158854007720947 -0.083120182156562805 -0.14365807175636292 0.19414499402046204 -0.033720012754201889 -0.033853050321340561 -0.1013253927230835 -0.52533161640167236 0.21173135936260223 0.08328680694103241 0.21001778542995453 0.0008605396724306047 0.38235676288604736 0.0092004546895623207 0.082943834364414215 -0.12124531716108322 -0.13599671423435211 -0.16958637535572052 0.4985758364200592 0.10244026035070419 -0.15605893731117249 -0.11256513744592667 -0.10098601132631302 0.081472627818584442 -0.22964923083782196 0.035762820392847061 -0.05996183305978775
  -0.083994254469871521 0.26465058326721191 0.063114337623119354 0.086289897561073303 0.041797321289777756 -0.32013839483261108 0.0088255954906344414 -0.029157733544707298 -0.06966448575258255 -0.24351686239242554 0.21704122424125671 -0.32856708765029907 0.17303930222988129 -0.11485707759857178 0.086713440716266632 0.058334492146968842 -0.16398200392723083 0.00069519359385594726 -0.051821809262037277 0.039349164813756943 -0.16245000064373016 0.017775947228074074 0.35360929369926453 0.1578662097454071 -0.25602295994758606 -0.015163635835051537 -0.050879940390586853 -0.19840697944164276 -0.096256740391254425 -0.10298582166433334 0.098088003695011139 -0.11805002391338348 -0.1178269162774086 0.14865322411060333 0.078878723084926605 0.16083459556102753 -0.16507163643836975 0.023329650983214378 0.025718949735164642 0.097484774887561798 0.54984581470489502 -0.17744769155979156 -0.07634270191192627 -0.16648885607719421 0.0071039265021681786 -0.40573740005493164 -0.030629334971308708 -0.077938862144947052 0.11455199867486954 0.13079389929771423 0.21481852233409882 -0.52267462015151978 -0.092737540602684021 0.17073288559913635 0.10336070507764816 0.10234067589044571 -0.11132479459047318 0.20984946191310883 -0.018519172444939613 0.051431000232696533
  -0.19601751863956451 -0.23436667025089264 -0.27374047040939331 -0.099450781941413879 -0.064291760325431824 -0.03288738802075386 -0.40664982795715332 0.21234408020973206 0.089791573584079742 -0.023359533399343491 0.0073956525884568691 0.18167766928672791 0.16203054785728455 0.020826747640967369 0.020090442150831223 -0.20051358640193939 -0.29349812865257263 -0.28555822372436523 0.076571613550186157 -0.59892940521240234 -0.049229450523853302 0.25838139653205872 -0.22016802430152893 -0.088005997240543365 0.11126448214054108 0.17320287227630615 0.31821030378341675 -0.06167178601026535 0.11679143458604813 0.17775355279445648 0.0096483547240495682 0.017122263088822365 -0.20753572881221771 0.072175204753875732 -0.12729454040527344 0.16824007034301758 -0.1305202841758728 -0.022160852327942848 -0.35012036561965942 0.19312728941440582 -0.024958571419119835 -0.062996402382850647 0.047754112631082535 -0.043159477412700653 -0.10249976813793182 0.2486615926027298 -0.18708223104476929 0.35519486665725708 0.23928196728229523 0.26091375946998596 0.1807580441236496 0.010201881639659405 0.22732877731323242 0.033067092299461365 -0.15385545790195465 0.20099601149559021 0.1361842155456543 -0.28573915362358093 0.029754515737295151 0.0064903488382697105
  0.028462676331400871 -0.069629296660423279 0.013762440532445908 0.15888799726963043 0.063046947121620178 0.39341598749160767 0.084010854363441467 -0.21699061989784241 -0.045026607811450958 0.33330798149108887 -0.016909303143620491 0.048958469182252884 -0.30670967698097229 -0.12149366736412048 0.12290354818105698 0.060618679970502853 -0.28484848141670227 -0.013472383841872215 0.14404493570327759 -0.051614977419376373 -0.28016221523284912 -0.15301716327667236 -0.38317093253135681 0.25076320767402649 -0.15882740914821625 -0.032722383737564087 -0.028942249715328217 0.15836533904075623 -0.10165799409151077 -0.13906404376029968 0.55590325593948364 0.27923673391342163 -0.10127515345811844 -0.14065654575824738 0.12127266079187393 0.12335047125816345 -0.23266510665416718 -0.073321729898452759 0.19500486552715302 0.15859362483024597 0.01137110497802496 -0.17749552428722382 0.0039017947856336832 0.16854532063007355 0.019721319898962975 0.42260774970054626 0.075694680213928223 0.21508745849132538 0.1379769891500473 0.15177382528781891 -0.20190590620040894 -0.0075396951287984848 -0.14862433075904846 -0.016165025532245636 -0.042803820222616196 0.087091244757175446 -0.04232841357588768 0.13347348570823669 -0.1402648389339447 0.18997669219970703
  -0.014315136708319187 0.15754039585590363 -0.13975100219249725 -0.070682696998119354 0.014114717021584511 -0.19311311841011047 -0.0022106766700744629 0.13209280371665955 -0.014420841820538044 -0.22655709087848663 0.15588003396987915 0.23406679928302765 0.18592548370361328 0.033571150153875351 0.37312904000282288 -0.083657868206501007 -0.02375507541000843 -0.096792019903659821 0.13796809315681458 -0.13652414083480835 0.14187315106391907 -0.023056337609887123 0.030618980526924133 -0.22082598507404327 0.054985415190458298 0.12788859009742737 0.014903864823281765 -0.26565006375312805 0.047225899994373322 0.1530131995677948 -0.20706102252006531 0.20383958518505096 0.062862128019332886 -0.21298320591449738 -0.55079984664916992 -0.089432872831821442 -0.18865752220153809 0.015346811152994633 -0.10070741921663284 -0.05383797362446785 -0.019363038241863251 0.3283807635307312 0.071276463568210602 -0.27717268466949463 -0.54258233308792114 -0.0044194147922098637 0.0020567874889820814 0.078022442758083344 -0.050691764801740646 -0.03778669610619545 0.20137184858322144 0.073675602674484253 0.15260624885559082 -0.059450067579746246 -0.034913346171379089 -0.10351439565420151 -0.10644219070672989 0.022213632240891457 -0.016535229980945587 -0.43667256832122803
  0.0015012257499620318 -0.15581238269805908 0.13821613788604736 0.055009555071592331 -0.029055062681436539 0.16599203646183014 -0.011943882331252098 -0.12116412818431854 0.031029753386974335 0.21019801497459412 -0.16794273257255554 -0.23530706763267517 -0.17201231420040131 -0.019134398549795151 -0.39209720492362976 0.072609469294548035 0.03172742947936058 0.093385115265846252 -0.14035773277282715 0.13238519430160522 -0.13492964208126068 0.043543700128793716 -0.015256081707775593 0.22408472001552582 -0.051466759294271469 -0.12791077792644501 -0.0034078287426382303 0.27257907390594482 -0.036271583288908005 -0.14715553820133209 0.18726319074630737 -0.21997533738613129 -0.055593200027942657 0.22400398552417755 0.56043213605880737 0.081543736159801483 0.20565243065357208 -0.016736682504415512 0.087643645703792572 0.044238574802875519 0.02172745019197464 -0.32587388157844543 -0.068118229508399963 0.28009071946144104 0.56439888477325439 -0.012967472895979881 -0.010911643505096436 -0.093740053474903107 0.040751609951257706 0.025323331356048584 -0.19731785356998444 -0.081035442650318146 -0.13250283896923065 0.084420919418334961 0.030253427103161812 0.10554051399230957 0.10994714498519897 -0.03018057718873024 0.028483454138040543 0.43826004862785339
  0.026036392897367477 -0.18288594484329224 -0.10352732986211777 -0.03032321110367775 -0.16611255705356598 0.42270460724830627 -0.056290820240974426 -0.078219503164291382 0.096813157200813293 0.32367518544197083 0.0071041341871023178 0.12809863686561584 -0.3935350775718689 0.063690014183521271 -0.015146437101066113 -0.1613398939371109 0.062900513410568237 -0.08941476047039032 0.11219878494739532 -0.11928201466798782 0.056983362883329391 -0.035274956375360489 -0.49291345477104187 0.020719824358820915 0.2211126834154129 0.036941982805728912 0.12659075856208801 -0.0013300842838361859 0.050470318645238876 0.070947177708148956 0.17205601930618286 0.11535295844078064 0.035006828606128693 -0.019888166338205338 -0.013231161050498486 -0.11878474801778793 -0.13518111407756805 -0.0082403514534235001 0.050970975309610367 -0.011880555190145969 -0.44550281763076782 -0.12126028537750244 0.0097976233810186386 -0.037954583764076233 0.0033097919076681137 0.61288332939147949 0.070984303951263428 0.16027121245861053 -0.024533873423933983 -0.023075371980667114 -0.42902582883834839 0.41707673668861389 0.08809332549571991 -0.062678351998329163 -0.10148770362138748 0.0037332421634346247 0.19188305735588074 -0.1015012189745903 -0.069800719618797302 0.073517031967639923
  0.041669033467769623 0.053479239344596863 0.096597917377948761 0.072445310652256012 0.087406642735004425 0.21409742534160614 0.038681924343109131 -0.12815500795841217 0.03144846111536026 0.20850735902786255 -0.31000179052352905 0.38595977425575256 -0.075486421585083008 -0.06448335200548172 0.26348283886909485 0.091455623507499695 -0.20529226958751678 0.069145843386650085 0.20805099606513977 0.023470247164368629 -0.20255760848522186 -0.076376840472221375 -0.20467136800289154 0.19813613593578339 -0.17462900280952454 -0.069223061203956604 -0.047651361674070358 0.42864334583282471 -0.02932024747133255 -0.14562477171421051 0.30480292439460754 0.55254232883453369 -0.075460560619831085 -0.58339947462081909 -0.10281048715114594 0.059224657714366913 -0.022249761968851089 -0.073544666171073914 0.10347269475460052 0.12451257556676865 -0.013679785653948784 0.35005363821983337 0.062273647636175156 0.41876840591430664 -0.12400993704795837 0.21860046684741974 0.070639222860336304 0.10062825679779053 0.0080859502777457237 0.061278093606233597 0.023937921971082687 0.049224633723497391 -0.11115285754203796 -0.013984560035169125 -0.054973777383565903 0.055483903735876083 -0.32541754841804504 0.12637747824192047 -0.07176903635263443 -0.12778766453266144
  -0.3054041862487793 -0.035348773002624512 -0.15722303092479706 0.12220454961061478 -0.05536341667175293 -0.32948669791221619 0.14730249345302582 -0.17068979144096375 0.20485574007034302 -0.22365440428256989 -0.12768752872943878 0.10638340562582016 0.0021007547620683908 0.10294647514820099 0.085692763328552246 -0.12104747444391251 -0.24963830411434174 -0.23767390847206116 0.61070901155471802 -0.047707550227642059 -0.026615535840392113 0.013866337016224861 -0.18418589234352112 0.19379021227359772 -0.22246162593364716 -0.10212121158838272 0.096519112586975098 0.04747873917222023 0.062475617974996567 -0.14417940378189087 0.2710704505443573 0.0076716057956218719 0.14988249540328979 -0.016838708892464638 0.058035004884004593 -0.32848173379898071 -0.15051615238189697 -0.37191829085350037 -0.077874563634395599 -0.055787980556488037 0.052196338772773743 0.022517647594213486 0.43512982130050659 0.063344903290271759 -0.01826014369726181 0.2314496636390686 0.18350687623023987 -0.115206278860569 -0.085762456059455872 -0.18830056488513947 0.043884128332138062 -0.077637039124965668 0.35758012533187866 0.43929505348205566 -0.1545989066362381 -0.14256580173969269 0.094267621636390686 0.49532026052474976 -0.13182814419269562 0.02874138206243515
  -0.076670460402965546 0.23773008584976196 0.16938219964504242 0.23444297909736633 -0.0095354262739419937 0.073472484946250916 0.079299509525299072 -0.27877789735794067 -0.11219964176416397 0.17306837439537048 0.065245784819126129 -0.21383090317249298 -0.17781327664852142 -0.18567515909671783 0.11502183973789215 0.017484698444604874 -0.080847896635532379 -0.0023725770879536867 0.0088431369513273239 0.10901251435279846 -0.22645854949951172 -0.0016675154911354184 0.090732403099536896 0.3416837751865387 -0.18258079886436462 -0.14108690619468689 -0.035570919513702393 0.12756910920143127 -0.22082342207431793 -0.33101680874824524 0.41536670923233032 0.15195460617542267 -0.14787653088569641 -0.081016846001148224 0.23469941318035126 0.20859822630882263 -0.10508932918310165 0.033293064683675766 0.21592500805854797 0.18284296989440918 0.31343251466751099 -0.15488716959953308 -0.051351021975278854 0.1287241131067276 0.12430151551961899 -0.029327364638447762 0.015073397196829319 -0.073859989643096924 0.20880474150180817 0.2236139178276062 -0.11942461878061295 -0.2947106659412384 -0.20265829563140869 0.16097800433635712 -0.0027455340605229139 0.17026530206203461 -0.21826948225498199 0.27486106753349304 -0.067374743521213531 0.1586490273475647
  -0.23810330033302307 0.0045743919909000397 -0.046916678547859192 0.4482370913028717 0.037177287042140961 0.10938367992639542 0.1758384108543396 -0.016515502706170082 -0.4278600811958313 0.19601571559906006 0.12203629314899445 -0.064298667013645172 -0.039598796516656876 -0.38245478272438049 0.14370347559452057 0.0020317852031439543 -0.050866667181253433 -0.26587721705436707 -0.040770009160041809 -0.067959323525428772 0.065297462046146393 0.07592473179101944 0.023032210767269135 0.13641273975372314 0.089228354394435883 0.022395005449652672 0.090979576110839844 0.027682380750775337 -0.46498093008995056 -0.30424681305885315 0.19869208335876465 0.1224864274263382 -0.11138612776994705 -0.055387049913406372 0.012454801239073277 0.16968731582164764 -0.11685124784708023 0.040830124169588089 0.099395371973514557 0.10144194960594177 0.12035232782363892 -0.13961973786354065 0.051267798990011215 0.050869662314653397 -0.069694891571998596 0.052044130861759186 0.021410159766674042 0.042116675525903702 0.45708641409873962 0.42964693903923035 0.027892978861927986 -0.10233138501644135 -0.19006803631782532 -0.082396991550922394 -0.10197905451059341 -0.012226237915456295 -0.038944564759731293 0.13425450026988983 -0.0524711012840271 0.095115788280963898
  -0.051988709717988968 -0.59507501125335693 -0.21108619868755341 0.016020424664020538 0.13170129060745239 0.16144616901874542 0.057571724057197571 0.18259645998477936 -0.048696763813495636 0.12256258726119995 -0.22831626236438751 0.16884933412075043 0.039120219647884369 0.022884877398610115 -0.32140898704528809 0.085775919258594513 -0.2640664279460907 -0.12320232391357422 0.049355991184711456 -0.20525260269641876 -0.0084210280328989029 -0.03605898842215538 -0.35586687922477722 -0.13726523518562317 0.029366234317421913 0.12016917765140533 0.048861555755138397 0.19679953157901764 0.027455765753984451 0.14980138838291168 0.052396342158317566 -0.17229598760604858 0.091821283102035522 0.20253783464431763 0.20535901188850403 -0.040945392102003098 0.10202570259571075 -0.14998900890350342 -0.10878947377204895 -0.067972123622894287 -0.25498408079147339 -0.20070236921310425 0.13024841248989105 0.24343475699424744 0.21539026498794556 0.31435149908065796 -0.042534846812486649 0.21155153214931488 0.050405759364366531 -0.013081394135951996 0.080569058656692505 0.19823679327964783 0.13150277733802795 -0.10483123362064362 -0.099653512239456177 -0.13717281818389893 0.34685385227203369 -0.216215580701828 0.012782621197402477 0.31480294466018677
  0.0014790251152589917 -0.15581756830215454 0.13820762932300568 0.054998058825731277 -0.02907157875597477 0.16595330834388733 -0.01195675041526556 -0.12114362418651581 0.031049439683556557 0.21017193794250488 -0.16795641183853149 -0.23531056940555573 -0.17199258506298065 -0.019119013100862503 -0.39212524890899658 0.072598375380039215 0.031733818352222443 0.093374602496623993 -0.14035592973232269 0.13238085806369781 -0.13491636514663696 0.043570943176746368 -0.015238826163113117 0.22408761084079742 -0.051458887755870819 -0.12791065871715546 -0.0033904311712831259 0.27258193492889404 -0.036257375031709671 -0.14714673161506653 0.18723967671394348 -0.22000603377819061 -0.055582024157047272 0.22402477264404297 0.56044787168502808 0.081527113914489746 0.20567144453525543 -0.01674194447696209 0.087622694671154022 0.044226732105016708 0.02173248864710331 -0.32587620615959167 -0.06810896098613739 0.28009259700775146 0.56443071365356445 -0.012987243942916393 -0.010920337401330471 -0.093761324882507324 0.040742076933383942 0.025310037657618523 -0.19730858504772186 -0.081044115126132965 -0.13247224688529968 0.084453970193862915 0.030249606817960739 0.10553758591413498 0.10995997488498688 -0.030186176300048828 0.028499782085418701 0.43826854228973389
  0.23206530511379242 -0.0017354539595544338 0.047171670943498611 -0.453797847032547 -0.041336081922054291 -0.11588896811008453 -0.18547563254833221 0.01767629012465477 0.43250152468681335 -0.19806298613548279 -0.12726001441478729 0.069400869309902191 0.04685555025935173 0.38594231009483337 -0.14401064813137054 -0.0075796479359269142 0.050099477171897888 0.26260104775428772 0.04168633371591568 0.05877608060836792 -0.066422708332538605 -0.065087318420410156 -0.019033407792448997 -0.13393333554267883 -0.089560031890869141 -0.021463576704263687 -0.083461031317710876 -0.02001572772860527 0.4663948118686676 0.30208671092987061 -0.20168806612491608 -0.11850938946008682 0.1088830754160881 0.053594820201396942 -0.012833449058234692 -0.16455219686031342 0.12261471152305603 -0.042106609791517258 -0.10497551411390305 -0.100293830037117 -0.11795517802238464 0.14545254409313202 -0.048243705183267593 -0.04598347470164299 0.070989057421684265 -0.055427689105272293 -0.025960449129343033 -0.041179195046424866 -0.4543006420135498 -0.42752823233604431 -0.022994471713900566 0.098026752471923828 0.19568844139575958 0.090529851615428925 0.096053421497344971 0.018605586141347885 0.034838635474443436 -0.13832630217075348 0.055326689034700394 -0.097853764891624451
  0.23185378313064575 -0.0022810115478932858 0.050035703927278519 -0.45161429047584534 -0.039601195603609085 -0.11860961467027664 -0.17028866708278656 0.016247749328613281 0.4256872832775116 -0.20136110484600067 -0.1270497590303421 0.067764721810817719 0.046433202922344208 0.38462069630622864 -0.14489057660102844 -0.0031978539191186428 0.050244923681020737 0.26261815428733826 0.043324094265699387 0.067785546183586121 -0.067514277994632721 -0.072642505168914795 -0.018628625199198723 -0.13428871333599091 -0.094312950968742371 -0.018631123006343842 -0.090145044028759003 -0.020066849887371063 0.46129170060157776 0.29746752977371216 -0.20067644119262695 -0.12144810706377029 0.12185271829366684 0.055660881102085114 -0.011768292635679245 -0.16814926266670227 0.12438784539699554 -0.045692078769207001 -0.093376271426677704 -0.11227476596832275 -0.11758991330862045 0.14513932168483734 -0.044552497565746307 -0.045578572899103165 0.071047231554985046 -0.056926194578409195 -0.022386722266674042 -0.045863118022680283 -0.46042793989181519 -0.43536084890365601 -0.022524634376168251 0.097756229341030121 0.19820408523082733 0.093581549823284149 0.091706827282905579 0.0074335630051791668 0.03484826534986496 -0.13220690190792084 0.052020564675331116 -0.096682421863079071
  0.045364398509263992 0.54360133409500122 0.24819312989711761 -0.0051366002298891544 -0.06918518990278244 -0.066793769598007202 -0.03454883024096489 -0.16373336315155029 0.014700583182275295 -0.019365740939974785 0.0501125268638134 0.030133159831166267 -0.01744040846824646 -0.046322684735059738 0.35803470015525818 -0.010286226868629456 0.16457869112491608 0.14195665717124939 -0.044533859938383102 0.18572987616062164 -0.094590954482555389 0.055357597768306732 0.28664302825927734 0.17650814354419708 -0.067175142467021942 -0.12546418607234955 -0.055521696805953979 0.056174527853727341 -0.051102861762046814 -0.21300210058689117 0.03294682502746582 0.37524580955505371 -0.082902036607265472 -0.41973644495010376 -0.2369530200958252 0.11362577974796295 -0.0036531316582113504 0.11692716181278229 0.14955323934555054 0.078727081418037415 0.23670782148838043 0.36696216464042664 -0.097996026277542114 0.0035431215073913336 -0.20649993419647217 -0.23399916291236877 -0.0036299570929259062 -0.16363756358623505 -0.025946687906980515 0.051928948611021042 -0.021494012326002121 -0.16861464083194733 -0.15895742177963257 0.096193030476570129 0.026211965829133987 0.14041668176651001 -0.51157808303833008 0.15589180588722229 0.020898051559925079 -0.35038578510284424
  -0.014397211372852325 0.15754735469818115 -0.13976918160915375 -0.070728756487369537 0.014027555473148823 -0.19330118596553802 -0.0022623457480221987 0.13214601576328278 -0.014351376332342625 -0.22668159008026123 0.15587158501148224 0.23397383093833923 0.18599312007427216 0.033628500998020172 0.3729972243309021 -0.08372526615858078 -0.023671634495258331 -0.096827246248722076 0.13794775307178497 -0.13651199638843536 0.14195379614830017 -0.022956792265176773 0.030740939080715179 -0.22082176804542542 0.05502532422542572 0.12787379324436188 0.014958943240344524 -0.26569667458534241 0.047270767390727997 0.15303722023963928 -0.20719383656978607 0.20365272462368011 0.062899976968765259 -0.21284772455692291 -0.55071133375167847 -0.089508466422557831 -0.18858371675014496 0.015344845131039619 -0.10078743100166321 -0.053893916308879852 -0.019335420802235603 0.32833161950111389 0.071292571723461151 -0.27722331881523132 -0.54244726896286011 -0.0045529128983616829 0.0020295185968279839 0.077898211777210236 -0.050736322999000549 -0.037852037698030472 0.20138314366340637 0.073623888194561005 0.15271042287349701 -0.059323176741600037 -0.034911241382360458 -0.10352466255426407 -0.10636887699365616 0.022209456190466881 -0.016481902450323105 -0.4366324245929718
  -0.014335453510284424 0.024676142260432243 -0.062130089849233627 -0.20722478628158569 -0.085924804210662842 -0.34278687834739685 -0.12741382420063019 0.25847771763801575 0.095390133559703827 -0.30749607086181641 -0.00058066373458132148 0.014783122576773167 0.27493211627006531 0.14906829595565796 -0.11370684206485748 -0.082282431423664093 0.24042476713657379 0.0068053165450692177 -0.11916740238666534 -0.00043242500396445394 0.28063052892684937 0.14157651364803314 0.28908863663673401 -0.25824534893035889 0.17688621580600739 0.065471440553665161 0.051444265991449356 -0.16180101037025452 0.15101170539855957 0.22112055122852325 -0.54713231325149536 -0.23421533405780792 0.093964487314224243 0.1111794039607048 -0.16387100517749786 -0.15575538575649261 0.17833559215068817 0.077709011733531952 -0.2253296971321106 -0.15750138461589813 -0.072539873421192169 0.1761501133441925 -0.023218877613544464 -0.17786900699138641 -0.041524559259414673 -0.32240340113639832 -0.079293869435787201 -0.16017290949821472 -0.1681223064661026 -0.17202535271644592 0.16789942979812622 0.065529748797416687 0.18733587861061096 0.0032583000138401985 0.049669928848743439 -0.084878616034984589 0.076006241142749786 -0.1836380809545517 0.14345784485340118 -0.19960117340087891
  -0.30122777819633484 -0.046766612678766251 -0.14944624900817871 0.10490924865007401 -0.051671948283910751 -0.32267215847969055 0.14670047163963318 -0.16484098136425018 0.1980857253074646 -0.22283972799777985 -0.13531406223773956 0.11693292111158371 0.011971219442784786 0.10539901256561279 0.083683580160140991 -0.11574285477399826 -0.27069824934005737 -0.23808141052722931 0.60314172506332397 -0.06257668137550354 -0.054955393075942993 0.0096170054748654366 -0.19502931833267212 0.19156865775585175 -0.23551753163337708 -0.080913498997688293 0.093590781092643738 0.058884419500827789 0.067525632679462433 -0.14387941360473633 0.27776229381561279 0.012190211564302444 0.16191436350345612 -0.017064200714230537 0.057334374636411667 -0.30112498998641968 -0.14179566502571106 -0.37361732125282288 -0.062629483640193939 -0.067744717001914978 0.057268057018518448 0.026262849569320679 0.43164464831352234 0.076928891241550446 -0.01724172942340374 0.23844720423221588 0.17038196325302124 -0.092551089823246002 -0.089076198637485504 -0.18612393736839294 0.059411033987998962 -0.081753171980381012 0.36663493514060974 0.44309580326080322 -0.17639045417308807 -0.14065699279308319 0.085089720785617828 0.47181910276412964 -0.13759341835975647 0.032488830387592316
  -0.24586817622184753 -0.0017319998005405068 -0.043335836380720139 0.4683845043182373 0.049449514597654343 0.087002083659172058 0.2498793751001358 -0.018814967945218086 -0.4534391462802887 0.17415767908096313 0.11802133172750473 -0.071162112057209015 -0.038556694984436035 -0.38555970788002014 0.13257786631584167 0.025214726105332375 -0.048630993813276291 -0.26724085211753845 -0.025864902883768082 -0.020340880379080772 0.073888331651687622 0.046058367937803268 0.028942015022039413 0.13329985737800598 0.071067646145820618 0.023294981569051743 0.061995726078748703 0.028685377910733223 -0.48774725198745728 -0.32264214754104614 0.19926902651786804 0.10091687738895416 -0.053359579294919968 -0.042176969349384308 0.021792374551296234 0.13347309827804565 -0.10651317983865738 0.017141386866569519 0.13874273002147675 0.048202782869338989 0.12066114693880081 -0.14193171262741089 0.078333467245101929 0.053981825709342957 -0.063803359866142273 0.041072633117437363 0.041876453906297684 0.0068600047379732132 0.42895811796188354 0.38712558150291443 0.03115655854344368 -0.10366032272577286 -0.17511568963527679 -0.065061978995800018 -0.11191300302743912 -0.071578405797481537 -0.030969806015491486 0.17341585457324982 -0.059053264558315277 0.10287036746740341
  0.15455980598926544 -0.02386074885725975 0.070693299174308777 -0.35962831974029541 -0.014612500555813313 -0.20492066442966461 0.11171168088912964 0.020136551931500435 0.25788846611976624 -0.27678456902503967 -0.10858956724405289 0.03635556623339653 0.072699539363384247 0.32560184597969055 -0.15593647956848145 0.060249719768762589 0.030758263543248177 0.19169344007968903 0.079247258603572845 0.18677236139774323 -0.069867990911006927 -0.15912508964538574 0.0026827077381312847 -0.13569948077201843 -0.15937019884586334 0.047863993793725967 -0.16662836074829102 -0.028078090399503708 0.31856998801231384 0.18187662959098816 -0.17670553922653198 -0.18890467286109924 0.35412564873695374 0.11533042788505554 0.0054194987751543522 -0.21725019812583923 0.15095970034599304 -0.12090238183736801 0.0956277996301651 -0.3248494565486908 -0.080628328025341034 0.12044697254896164 0.054729703813791275 -0.040556572377681732 0.068208113312721252 -0.088630996644496918 0.027518931776285172 -0.12712527811527252 -0.50112062692642212 -0.51667779684066772 0.024036822840571404 0.062709689140319824 0.26957988739013672 0.17704758048057556 -0.020477408543229103 -0.19408594071865082 0.044374119490385056 -0.013843020424246788 0.0014201255980879068 -0.063780024647712708
  -0.044078703969717026 -0.043338853865861893 -0.095201499760150909 -0.086144715547561646 -0.097534507513046265 -0.22256650030612946 -0.051051080226898193 0.13064330816268921 -0.018684055656194687 -0.21376572549343109 0.30537793040275574 -0.37728133797645569 0.07958240807056427 0.073614545166492462 -0.25887933373451233 -0.099801406264305115 0.20689494907855988 -0.06832364946603775 -0.20560204982757568 -0.029453236609697342 0.20140966773033142 0.08555864542722702 0.20787304639816284 -0.19475837051868439 0.17414367198944092 0.071124985814094543 0.054294869303703308 -0.42360684275627136 0.037212446331977844 0.14968442916870117 -0.3105567991733551 -0.54214096069335938 0.076224759221076965 0.57411950826644897 0.094917446374893188 -0.059553831815719604 0.023491987958550453 0.075123630464076996 -0.10734077543020248 -0.12637028098106384 0.014617442153394222 -0.33764550089836121 -0.063655845820903778 -0.41861832141876221 0.12140275537967682 -0.22141264379024506 -0.074730128049850464 -0.10256785899400711 -0.01545348297804594 -0.066946446895599365 -0.024294076487421989 -0.051167819648981094 0.12097795307636261 0.02650986984372139 0.051261547952890396 -0.049184873700141907 0.31651079654693604 -0.13055942952632904 0.075651712715625763 0.11699143797159195
  -0.2416023463010788 0.0024783257395029068 -0.046188157051801682 0.45501929521560669 0.040777172893285751 0.10183446854352951 0.19902469217777252 -0.017059491947293282 -0.43637263774871826 0.1888863742351532 0.12120870500802994 -0.066719301044940948 -0.038957003504037857 -0.38396409153938293 0.14039205014705658 0.0089201377704739571 -0.050826303660869598 -0.26740968227386475 -0.035861965268850327 -0.053862717002630234 0.067779071629047394 0.067096933722496033 0.024849718436598778 0.13565607368946075 0.083482958376407623 0.023072315379977226 0.082499928772449493 0.027658620849251747 -0.47268250584602356 -0.31050649285316467 0.19934482872486115 0.11548590660095215 -0.093201413750648499 -0.050748538225889206 0.015443596988916397 0.15879887342453003 -0.11405186355113983 0.033193837851285934 0.11166496574878693 0.084862157702445984 0.12110517919063568 -0.1409645676612854 0.06010856106877327 0.051605291664600372 -0.067955397069454193 0.048743139952421188 0.027587413787841797 0.031368833035230637 0.44913759827613831 0.41711825132369995 0.029347674921154976 -0.10341683775186539 -0.18487410247325897 -0.076323516666889191 -0.10575701296329498 -0.03060472197830677 -0.036297116428613663 0.1467001736164093 -0.054683499038219452 0.097867242991924286
  -0.20368930697441101 -0.11608901619911194 -0.36689135432243347 0.25365900993347168 0.1280977874994278 -0.27967303991317749 0.21152210235595703 0.15727004408836365 0.16302265226840973 -0.20636402070522308 -0.1243685856461525 0.12477287650108337 0.040022622793912888 0.089685708284378052 -0.11648135632276535 0.085873015224933624 0.0046296748332679272 -0.076787784695625305 0.26492762565612793 0.17999717593193054 0.43642738461494446 0.085443101823329926 0.01402873732149601 -0.1368725448846817 0.13075675070285797 -0.34459209442138672 0.023782361298799515 -0.012662798166275024 0.032391339540481567 0.13942255079746246 -0.11171230673789978 -0.13999108970165253 0.057977590709924698 0.029830377548933029 -0.030540551990270615 -0.70055383443832397 -0.023448580875992775 -0.23246468603610992 -0.38506585359573364 0.0096249440684914589 -0.12679398059844971 0.027338724583387375 0.32005807757377625 -0.030047934502363205 0.021767040714621544 -0.0073023103177547455 0.1157035231590271 -0.41392797231674194 -0.079148605465888977 -0.26839417219161987 -0.01270967535674572 0.081921227276325226 0.15490145981311798 0.085286736488342285 0.27978348731994629 -0.31265118718147278 0.2121722549200058 0.33363994956016541 0.26794719696044922 -0.034237824380397797
  -0.016747282817959785 -0.078174524009227753 -0.14160366356372833 -0.30581372976303101 -0.12754032015800476 -0.023033168166875839 -0.60038167238235474 0.18964768946170807 0.30420634150505066 -0.036400750279426575 -0.028687875717878342 0.11679321527481079 0.1293184757232666 0.17798911035060883 -0.062471527606248856 -0.20114083588123322 -0.066896744072437286 -0.04424745962023735 -0.084969893097877502 -0.44636344909667969 -0.022531958296895027 0.30124589800834656 -0.060919240117073059 -0.1152467355132103 0.16468971967697144 0.057544458657503128 0.27326664328575134 -0.051772661507129669 0.31353679299354553 0.28439942002296448 -0.16758173704147339 -0.018144160509109497 -0.28020453453063965 0.044761333614587784 -0.096388034522533417 0.13928557932376862 0.0029234392568469048 0.093482263386249542 -0.41377538442611694 0.25429755449295044 -0.055468358099460602 0.0311090387403965 -0.11902762204408646 -0.069156154990196228 0.0029287687502801418 0.061363603919744492 -0.22713290154933929 0.22976294159889221 0.058105655014514923 0.12650212645530701 0.068992726504802704 0.035996362566947937 0.14799052476882935 0.0019462417112663388 0.014863603748381138 0.34256699681282043 0.050097938627004623 -0.40788710117340088 0.13777372241020203 -0.06961020827293396
  -0.28438442945480347 0.2063814103603363 -0.035410653799772263 -0.082981370389461517 -0.46469354629516602 -0.088644556701183319 -0.59930616617202759 0.0086701437830924988 0.29854020476341248 0.044701777398586273 0.00035330330138094723 -0.046968892216682434 -0.10013147443532944 0.057077370584011078 -0.01823253370821476 -0.42978006601333618 0.26733466982841492 -0.21252112090587616 -0.0045313253067433834 -0.29451021552085876 0.15084558725357056 0.54204976558685303 0.055442634969949722 0.20337095856666565 0.34000310301780701 -0.09748685359954834 0.47965770959854126 -0.011160708032548428 0.092691466212272644 -0.071297310292720795 -0.083924330770969391 0.02509690634906292 -0.30056276917457581 -0.04158315435051918 0.035629633814096451 0.021722964942455292 -0.0015219050692394376 0.11777694523334503 -0.32049202919006348 0.24058443307876587 -0.052512358874082565 -0.0013490020064637065 -0.061850603669881821 -0.078808732330799103 0.15640164911746979 0.049892041832208633 -0.09984259307384491 -0.076405510306358337 0.17152300477027893 0.23053337633609772 -0.25630369782447815 0.017148416489362717 0.15519680082798004 0.28569009900093079 -0.083429023623466492 0.39234763383865356 -0.034473739564418793 -0.12318523228168488 0.11662996560335159 -0.061781473457813263
  0.074731230735778809 -0.23169027268886566 -0.16839684545993805 -0.24002818763256073 0.0062083844095468521 -0.079598397016525269 -0.084367029368877411 0.28018155694007874 0.11676681041717529 -0.17487600445747375 -0.068483002483844757 0.2159322053194046 0.18162448704242706 0.18960919976234436 -0.11545868217945099 -0.020501092076301575 0.081677675247192383 0.003840284887701273 -0.010754982009530067 -0.11062444746494293 0.22658129036426544 0.0073928493075072765 -0.084377236664295197 -0.33861014246940613 0.18092897534370422 0.14038337767124176 0.037448730319738388 -0.12211990356445312 0.22227853536605835 0.33287030458450317 -0.41884616017341614 -0.14815318584442139 0.14745791256427765 0.078893475234508514 -0.23493838310241699 -0.20762918889522552 0.10820513963699341 -0.031256530433893204 -0.21824225783348083 -0.18340367078781128 -0.30995920300483704 0.15880732238292694 0.049881596118211746 -0.12654954195022583 -0.1219109445810318 0.023228244855999947 -0.019278671592473984 0.069805167615413666 -0.21052852272987366 -0.22620409727096558 0.12038945406675339 0.28955638408660889 0.20551885664463043 -0.15360985696315765 0.0028340010903775692 -0.16705793142318726 0.21362793445587158 -0.2768060564994812 0.072126530110836029 -0.161356121301651
  0.03878432884812355 -0.17700077593326569 0.14835967123508453 -0.23387542366981506 -0.079362787306308746 -0.013110538944602013 0.35909026861190796 0.058511089533567429 -0.2453291267156601 -0.11459491401910782 0.004927435889840126 0.070953056216239929 0.070524856448173523 0.039869736880064011 -0.026408132165670395 0.012536185793578625 -0.083662532269954681 -0.092814937233924866 0.007409960962831974 0.0016383200418204069 -0.22267639636993408 -0.27272960543632507 -0.18334297835826874 -0.10745716840028763 -0.15915890038013458 0.4932732880115509 -0.13592870533466339 -0.032822232693433762 -0.055214595049619675 -0.048500817269086838 -0.054706379771232605 -0.080794170498847961 0.58793723583221436 0.12738458812236786 -0.07393316924571991 0.17043790221214294 0.087161004543304443 -0.061318580061197281 0.52294075489044189 -0.59983706474304199 -0.11161006987094879 0.031875692307949066 0.040752701461315155 -0.0037618607748299837 -0.075430892407894135 0.12981940805912018 0.019042663276195526 0.201507568359375 -0.26333296298980713 -0.2103583961725235 0.11470299959182739 0.12692850828170776 0.2945912778377533 0.10520985722541809 -0.46749868988990784 -0.31801223754882812 0.047159586101770401 -0.15346002578735352 -0.26939761638641357 0.012546439655125141
  -0.084062591195106506 0.26434069871902466 0.063155904412269592 0.08610108494758606 0.042358111590147018 -0.32044190168380737 0.0088296718895435333 -0.028636718168854713 -0.069636747241020203 -0.24380713701248169 0.21621927618980408 -0.32774493098258972 0.1739128977060318 -0.1147632971405983 0.0866054967045784 0.058895047754049301 -0.16472415626049042 0.00085127347847446799 -0.051860474050045013 0.039162181317806244 -0.16295747458934784 0.018002605065703392 0.35378262400627136 0.15779908001422882 -0.25645905733108521 -0.015070478431880474 -0.05095316469669342 -0.19743683934211731 -0.096030652523040771 -0.10291218757629395 0.098059453070163727 -0.11770015209913254 -0.1177249550819397 0.14815340936183929 0.078815005719661713 0.16118150949478149 -0.16441841423511505 0.023078771308064461 0.025505857542157173 0.097476094961166382 0.55032777786254883 -0.17669576406478882 -0.076100237667560577 -0.16546444594860077 0.0072793415747582912 -0.4061279296875 -0.031019881367683411 -0.077765554189682007 0.11452969163656235 0.13079521059989929 0.21588264405727386 -0.52307623624801636 -0.092578500509262085 0.17089489102363586 0.10321053117513657 0.10229317098855972 -0.11187846213579178 0.20947374403476715 -0.018155859783291817 0.051318146288394928
  -0.084095805883407593 0.26419135928153992 0.063177429139614105 0.086007870733737946 0.042629241943359375 -0.3205927312374115 0.0088297901675105095 -0.028382331132888794 -0.069619297981262207 -0.24395163357257843 0.21581785380840302 -0.32734549045562744 0.17434075474739075 -0.11471498757600784 0.086550652980804443 0.059166166931390762 -0.16507844626903534 0.00092847109772264957 -0.051878351718187332 0.039073586463928223 -0.16319887340068817 0.018116088584065437 0.35387012362480164 0.1577659398317337 -0.25666746497154236 -0.015026284381747246 -0.050986889749765396 -0.19696420431137085 -0.095917776226997375 -0.10287529230117798 0.098039649426937103 -0.1175328865647316 -0.11767452210187912 0.14791096746921539 0.078785151243209839 0.16134767234325409 -0.16409556567668915 0.022957392036914825 0.025399414822459221 0.097470946609973907 0.55056071281433105 -0.17632554471492767 -0.075980804860591888 -0.16496582329273224 0.0073671056888997555 -0.40632188320159912 -0.031208304688334465 -0.077684678137302399 0.11451678723096848 0.1307930052280426 0.21640110015869141 -0.52326935529708862 -0.092498473823070526 0.170975461602211 0.10313858836889267 0.10226994752883911 -0.11214605718851089 0.20929145812988281 -0.017977522686123848 0.051261790096759796
  0.2378431111574173 0.0027366667054593563 0.044815979897975922 -0.46718534827232361 -0.049320463091135025 -0.10038669407367706 -0.23577453196048737 0.018592294305562973 0.45122480392456055 -0.18293933570384979 -0.12547922134399414 0.074687615036964417 0.045647662132978439 0.38868427276611328 -0.1364666074514389 -0.022979596629738808 0.049001552164554596 0.26441538333892822 0.032633334398269653 0.02738315612077713 -0.071748167276382446 -0.044931285083293915 -0.02331705205142498 -0.13144072890281677 -0.077317677438259125 -0.023368578404188156 -0.063948594033718109 -0.019840918481349945 0.48258048295974731 0.31464356184005737 -0.20172020792961121 -0.10327427089214325 0.069005116820335388 0.04373694583773613 -0.0188448466360569 -0.14132548868656158 0.11583083122968674 -0.026558488607406616 -0.13230982422828674 -0.063546538352966309 -0.11876197904348373 0.14783655107021332 -0.066004857420921326 -0.04735390841960907 0.067313931882381439 -0.047614824026823044 -0.038979392498731613 -0.017951935529708862 -0.43589344620704651 -0.39954307675361633 -0.025783473625779152 0.099534563720226288 0.18526914715766907 0.078733287751674652 0.10381130874156952 0.058843601495027542 0.029442921280860901 -0.16377100348472595 0.060003761202096939 -0.10329438745975494
  -0.0068994569592177868 0.17098402976989746 -0.14759264886379242 -0.044462930411100388 -0.13965432345867157 -0.1659056693315506 -0.034001119434833527 0.0011241616448387504 -0.0075521129183471203 -0.20392076671123505 0.54439818859100342 -0.29977577924728394 -0.052109010517597198 0.014567308127880096 0.17822307348251343 -0.20653058588504791 0.0888790562748909 -0.13045328855514526 0.030604427680373192 -0.10808796435594559 0.1602708101272583 -0.074537172913551331 0.047585990279912949 -0.13022845983505249 0.091008447110652924 0.13845536112785339 0.041437484323978424 -0.68180817365646362 0.012986361049115658 0.16902218759059906 -0.10813052207231522 -0.21644458174705505 0.0088924840092658997 0.33099377155303955 -0.23484672605991364 -0.074128672480583191 -0.40138578414916992 0.095999039709568024 -0.024544287472963333 -0.036705892533063889 0.059017080813646317 -0.25204455852508545 -0.073503151535987854 -0.68675470352172852 -0.32117390632629395 0.00091162399621680379 0.053640883415937424 0.054214645177125931 0.0015028056222945452 -0.0072548030875623226 -0.095629468560218811 -0.039511360228061676 0.11943689733743668 0.001077063730917871 0.059280205518007278 -0.020237555727362633 0.22141548991203308 0.088675841689109802 -0.10427998751401901 -0.11634743958711624
  0.21922285854816437 0.26779252290725708 0.30482658743858337 0.03806430846452713 0.027129247784614563 0.041331734508275986 0.33104032278060913 -0.2095007598400116 -0.037635449320077896 0.030933352187275887 -0.024393327534198761 -0.17629748582839966 -0.16446906328201294 0.016906840726733208 -0.036812353879213333 0.17632938921451569 0.34859785437583923 0.32115054130554199 -0.11769646406173706 0.59291654825210571 0.049433615058660507 -0.21609234809875488 0.2436852753162384 0.086704939603805542 -0.080987468361854553 -0.18296064436435699 -0.29664072394371033 0.080310434103012085 -0.072480045258998871 -0.16156104207038879 -0.051725581288337708 -0.0097735291346907616 0.18599328398704529 -0.088167287409305573 0.12584860622882843 -0.14984582364559174 0.17242921888828278 0.052598223090171814 0.3305060863494873 -0.18008838593959808 0.0072001186199486256 0.097101509571075439 -0.084031261503696442 0.048107631504535675 0.12722723186016083 -0.27460882067680359 0.16235062479972839 -0.36435255408287048 -0.26622796058654785 -0.2721063494682312 -0.20698139071464539 0.0042836028151214123 -0.22583915293216705 -0.025146491825580597 0.16010098159313202 -0.15078063309192657 -0.16491647064685822 0.22910372912883759 -0.0035512258764356375 -0.030658122152090073
  0.44583526253700256 -0.075674556195735931 0.016613077372312546 0.044463377445936203 0.40778866410255432 0.31268608570098877 0.0029945732094347477 0.042877763509750366 -0.05375409871339798 0.18049149215221405 -0.0043259095400571823 0.030005216598510742 0.027013590559363365 -0.020223425701260567 -0.0069431103765964508 0.34771347045898438 0.021921385079622269 0.407909095287323 -0.26127120852470398 0.19120493531227112 0.07649628072977066 -0.24786937236785889 0.083885893225669861 -0.2526913583278656 -0.0073140626773238182 -0.16645094752311707 -0.2889646589756012 0.014445388689637184 0.046212185174226761 0.24844028055667877 -0.12010971456766129 0.079885169863700867 -0.27561470866203308 -0.10012307018041611 -0.067754104733467102 0.01799933984875679 0.033832002431154251 0.13459953665733337 -0.12720903754234314 0.26867601275444031 -0.057589724659919739 0.059965081512928009 -0.21336911618709564 0.032575253397226334 -0.11065484583377838 -0.16716426610946655 0.023633398115634918 0.079596206545829773 0.0098013626411557198 0.018066644668579102 0.081131137907505035 0.086470700800418854 -0.49537134170532227 -0.6156233549118042 0.47403815388679504 0.028990196064114571 -0.0012127511436119676 -0.13622553646564484 0.11197148263454437 -0.03774087131023407
  -0.014325616881251335 0.15756139159202576 -0.13974790275096893 -0.070689313113689423 0.014086747542023659 -0.19315648078918457 -0.0022176408674567938 0.13208584487438202 -0.014415646903216839 -0.22658585011959076 0.15590716898441315 0.2340150773525238 0.18592599034309387 0.033578686416149139 0.37310516834259033 -0.083683647215366364 -0.023707538843154907 -0.096796721220016479 0.13795202970504761 -0.13650789856910706 0.14190413057804108 -0.023044325411319733 0.03066178597509861 -0.22083011269569397 0.055001892149448395 0.12787902355194092 0.014907014556229115 -0.26569205522537231 0.047225281596183777 0.1530107706785202 -0.20710195600986481 0.20378278195858002 0.062867969274520874 -0.21293899416923523 -0.55078315734863281 -0.089451633393764496 -0.18865105509757996 0.01535782590508461 -0.10071553289890289 -0.053852815181016922 -0.019359631463885307 0.32835647463798523 0.071268834173679352 -0.27721726894378662 -0.54256433248519897 -0.0044624931178987026 0.0020568377804011106 0.077982343733310699 -0.050701897591352463 -0.03780321404337883 0.20135483145713806 0.073664173483848572 0.15261499583721161 -0.05943254753947258 -0.034906446933746338 -0.10351687669754028 -0.10642196238040924 0.022222835570573807 -0.016532598063349724 -0.4366697371006012
  0.0014838328352198005 -0.15581105649471283 0.13821068406105042 0.055000733584165573 -0.029072225093841553 0.16595706343650818 -0.011953622102737427 -0.12115173786878586 0.031043380498886108 0.21017447113990784 -0.16794535517692566 -0.23532037436962128 -0.1719994843006134 -0.019122805446386337 -0.39212033152580261 0.072596237063407898 0.031742319464683533 0.09337664395570755 -0.14036042988300323 0.13238559663295746 -0.13491351902484894 0.043564602732658386 -0.015235455706715584 0.22408545017242432 -0.051457308232784271 -0.12791258096694946 -0.003395486855879426 0.27257111668586731 -0.036262713372707367 -0.14715017378330231 0.18723851442337036 -0.22000798583030701 -0.055584125220775604 0.22402727603912354 0.56044512987136841 0.08152848482131958 0.20566610991954803 -0.016737649217247963 0.08762812614440918 0.044227238744497299 0.021731210872530937 -0.32588061690330505 -0.06811358779668808 0.28008145093917847 0.56442314386367798 -0.012989667244255543 -0.010917712934315205 -0.093762896955013275 0.04074333980679512 0.025311080738902092 -0.19731563329696655 -0.081043332815170288 -0.13248066604137421 0.084446556866168976 0.030252084136009216 0.10553756356239319 0.10995985567569733 -0.030182488262653351 0.028495157137513161 0.43826574087142944
  -0.12290491908788681 -0.12415084987878799 -0.10037988424301147 -0.015596724115312099 0.26317030191421509 -0.48946848511695862 0.077803626656532288 0.23584505915641785 -0.11849338561296463 -0.40592131018638611 -0.11251302063465118 0.13452373445034027 0.57903903722763062 0.0044688871130347252 -0.0023508078884333372 0.15059985220432281 -0.30131986737251282 -0.08575112372636795 0.055919647216796875 -0.14644858241081238 -0.052117504179477692 0.040832638740539551 0.27880209684371948 -0.21505694091320038 -0.2201707512140274 0.11469919979572296 -0.056486576795578003 0.036708388477563858 0.018220679834485054 0.05454438179731369 -0.21759806573390961 -0.12837260961532593 0.086125530302524567 0.061332553625106812 -0.11537241190671921 0.085170723497867584 0.15722234547138214 -0.14699633419513702 -0.18673709034919739 -0.069485262036323547 0.29224935173988342 0.19743280112743378 0.19541342556476593 0.10451077669858932 -0.13800029456615448 -0.37178555130958557 -0.12179389595985413 0.039074912667274475 0.038626533001661301 -0.0065302252769470215 0.67233282327651978 -0.27713227272033691 0.15173099935054779 0.046136904507875443 -0.073449805378913879 -0.13208092749118805 -0.047918140888214111 -0.014779074117541313 0.050382331013679504 -0.091270610690116882
  0.083118371665477753 -0.26144528388977051 -0.059387717396020889 -0.10016392916440964 -0.0418693907558918 0.3077014684677124 -0.016194021329283714 0.034818824380636215 0.078355632722377777 0.23401398956775665 -0.2301241010427475 0.33997979760169983 -0.15808552503585815 0.12400146573781967 -0.089329086244106293 -0.057548947632312775 0.16023199260234833 0.0038524838164448738 0.05069289356470108 -0.043173279613256454 0.15675152838230133 -0.010061806999146938 -0.34531432390213013 -0.15810863673686981 0.24903653562068939 0.017081242054700851 0.051938951015472412 0.21313668787479401 0.10441455990076065 0.1059272363781929 -0.10659430921077728 0.123359315097332 0.12177114188671112 -0.15543226897716522 -0.081117413938045502 -0.15684759616851807 0.17822656035423279 -0.025442343205213547 -0.029796944931149483 -0.10193870216608047 -0.54401558637619019 0.19285506010055542 0.078257851302623749 0.17819206416606903 -0.0038250377401709557 0.3929329514503479 0.023202750831842422 0.075807265937328339 -0.12237256765365601 -0.13845959305763245 -0.20199321210384369 0.51545381546020508 0.10066686570644379 -0.16029685735702515 -0.10791447013616562 -0.099768474698066711 0.10095994919538498 -0.21754631400108337 0.024772098287940025 -0.058324344456195831
  -0.23846463859081268 0.0052871094085276127 -0.05548572912812233 0.44359222054481506 0.033216334879398346 0.11448147147893906 0.13840943574905396 -0.012087018229067326 -0.41047608852386475 0.20293289422988892 0.12146499752998352 -0.060768339782953262 -0.0379825159907341 -0.3787747323513031 0.14468051493167877 -0.0087165459990501404 -0.051119614392518997 -0.26628920435905457 -0.044551797211170197 -0.089940063655376434 0.069649174809455872 0.095244228839874268 0.022785935550928116 0.13665144145488739 0.10154861211776733 0.014234135858714581 0.10771641135215759 0.027162924408912659 -0.45212304592132568 -0.29195505380630493 0.19509345293045044 0.12797318398952484 -0.14364928007125854 -0.059230923652648926 0.010278106667101383 0.17638945579528809 -0.12115910649299622 0.049111410975456238 0.068725153803825378 0.13113129138946533 0.11943662911653519 -0.13962732255458832 0.042882341891527176 0.049263786524534225 -0.069190353155136108 0.05483514815568924 0.012501086108386517 0.052095230668783188 0.47231513261795044 0.44829460978507996 0.026969848200678825 -0.10195567458868027 -0.19572114944458008 -0.089626096189022064 -0.090040922164916992 0.014450805261731148 -0.03769896924495697 0.11976765841245651 -0.043113395571708679 0.092614978551864624
  0.43231961131095886 -0.077180884778499603 -0.000469260907266289 0.060546334832906723 0.41287878155708313 0.3055860698223114 -0.0030309534631669521 0.048454049974679947 -0.050841070711612701 0.17903169989585876 -0.0026246143970638514 0.03109431266784668 0.029580716043710709 -0.025993986055254936 -0.0054479176178574562 0.34638243913650513 0.016618143767118454 0.39836990833282471 -0.25473377108573914 0.18440569937229156 0.090378612279891968 -0.23537194728851318 0.086582787334918976 -0.2526739239692688 0.00061867869226261973 -0.18090564012527466 -0.27953898906707764 0.011446639895439148 0.042901761829853058 0.25127971172332764 -0.11782769858837128 0.079198002815246582 -0.2921518087387085 -0.099893994629383087 -0.069198228418827057 0.0051270183175802231 0.025692043825984001 0.13100966811180115 -0.15058439970016479 0.28704094886779785 -0.053393539041280746 0.055165063589811325 -0.20561082661151886 0.029782380908727646 -0.11238590627908707 -0.16702310740947723 0.022640524432063103 0.072387635707855225 0.024682952091097832 0.027612285688519478 0.083535000681877136 0.081472150981426239 -0.49764746427536011 -0.61628597974777222 0.48740476369857788 0.031817127019166946 0.0042004096321761608 -0.12693776190280914 0.12322274595499039 -0.036961648613214493
  0.013387897051870823 -0.37420415878295898 -0.011926336213946342 -0.047850508242845535 0.2098165899515152 0.11202555149793625 0.055778369307518005 0.18889547884464264 -0.01475234143435955 0.10526663810014725 -0.52120125293731689 0.43023741245269775 0.18664485216140747 0.076737560331821442 -0.25011333823204041 0.22163470089435577 -0.12284474074840546 0.070269592106342316 -0.05375250056385994 -0.021794641390442848 -0.046766169369220734 0.073455378413200378 -0.13405929505825043 -0.15222251415252686 0.018347393721342087 -0.028135081753134727 -0.024603443220257759 0.5646013617515564 0.063686788082122803 0.018213624134659767 -0.090146072208881378 0.094054475426673889 0.11615841835737228 -0.19894258677959442 0.085240371525287628 -0.0056320256553590298 0.44930660724639893 -0.13842080533504486 -0.090498358011245728 -0.079766198992729187 -0.22119206190109253 0.28819796442985535 0.14720112085342407 0.57552748918533325 0.19892412424087524 0.056495852768421173 -0.11534998565912247 0.032353125512599945 -0.052570529282093048 -0.083134457468986511 0.21983352303504944 0.18657553195953369 0.031831756234169006 -0.10236599296331406 -0.10036174207925797 -0.11739806830883026 -0.068389445543289185 -0.26872450113296509 0.16540101170539856 0.051979400217533112
  -0.014544558711349964 0.15755972266197205 -0.13980187475681305 -0.070811659097671509 0.013871031813323498 -0.19363929331302643 -0.002355178352445364 0.13224123418331146 -0.014226795174181461 -0.22690486907958984 0.15585480630397797 0.2338070273399353 0.18611466884613037 0.033731311559677124 0.37276053428649902 -0.083845950663089752 -0.023522615432739258 -0.096890389919281006 0.13791120052337646 -0.13649019598960876 0.14209774136543274 -0.022778373211622238 0.030959732830524445 -0.22081419825553894 0.05509616807103157 0.12784756720066071 0.015057340264320374 -0.26577848196029663 0.047351203858852386 0.15308070182800293 -0.20743173360824585 0.20331749320030212 0.062967829406261444 -0.21260559558868408 -0.5505518913269043 -0.089643992483615875 -0.18845094740390778 0.015341349877417088 -0.1009308248758316 -0.053994446992874146 -0.019285812973976135 0.32824286818504333 0.071320787072181702 -0.27731284499168396 -0.54220253229141235 -0.0047927922569215298 0.0019801454618573189 0.077674850821495056 -0.050816655158996582 -0.037969429045915604 0.20140399038791656 0.073530621826648712 0.15289701521396637 -0.059095345437526703 -0.034907504916191101 -0.10354296118021011 -0.1062377542257309 0.022201517596840858 -0.016386201605200768 -0.43656075000762939
  0.1105271577835083 0.14939168095588684 0.11354979872703552 -0.0085806231945753098 -0.30507224798202515 0.45367506146430969 -0.10134726017713547 -0.23494899272918701 0.14575985074043274 0.38826525211334229 0.10520715266466141 -0.14678207039833069 -0.5748525857925415 0.018590731546282768 -0.017161920666694641 -0.18082147836685181 0.35655459761619568 0.085664592683315277 -0.06293141096830368 0.15749228000640869 0.08045707643032074 -0.008105759508907795 -0.24805578589439392 0.21887576580047607 0.24453599750995636 -0.12085044384002686 0.07658078521490097 -0.037149198353290558 -0.0053123091347515583 -0.058405425399541855 0.17537476122379303 0.10721808671951294 -0.073390379548072815 -0.051645737141370773 0.12332859635353088 -0.10305937379598618 -0.12838415801525116 0.15582562983036041 0.17804506421089172 0.050763361155986786 -0.30492860078811646 -0.1825278252363205 -0.19723589718341827 -0.11453897505998611 0.16203160583972931 0.34139701724052429 0.12042581290006638 -0.076389573514461517 -0.061019148677587509 -0.015498235821723938 -0.69421136379241943 0.28555029630661011 -0.12763293087482452 -0.013118843547999859 0.065564975142478943 0.13939987123012543 0.04765169695019722 0.0099291885271668434 -0.038970023393630981 0.078618891537189484
  0.046406149864196777 0.55600911378860474 0.24477317929267883 -0.0095646530389785767 -0.076996535062789917 -0.080439858138561249 -0.039596505463123322 -0.16363832354545593 0.019285103306174278 -0.034291047602891922 0.071613550186157227 0.0094092944636940956 -0.016652923077344894 -0.042821384966373444 0.3588862419128418 -0.018965534865856171 0.17466072738170624 0.14078502357006073 -0.046881146728992462 0.18645603954792023 -0.085045523941516876 0.054885726422071457 0.29801037907600403 0.17146971821784973 -0.063942812383174896 -0.12336795032024384 -0.054416678845882416 0.025728791952133179 -0.047386076301336288 -0.20478464663028717 0.021624172106385231 0.35707798600196838 -0.084316179156303406 -0.39791944622993469 -0.24006718397140503 0.10787184536457062 -0.016279563307762146 0.12228353321552277 0.14493361115455627 0.07749476283788681 0.24331232905387878 0.35236683487892151 -0.10362517088651657 -0.026973528787493706 -0.21220923960208893 -0.24662782251834869 -0.00063230958767235279 -0.16832065582275391 -0.029510136693716049 0.048091217875480652 -0.025220159441232681 -0.17547877132892609 -0.15530262887477875 0.098744004964828491 0.034345991909503937 0.14190521836280823 -0.49867308139801025 0.1608852744102478 0.018504034727811813 -0.35289764404296875
  -0.047054748982191086 -0.52702552080154419 -0.24732230603694916 -0.010142623446881771 0.058627001941204071 0.046210978180170059 0.022570164874196053 0.163832888007164 -0.0021889279596507549 0.00080888188676908612 -0.037795595824718475 -0.044340580701828003 0.025456741452217102 0.058044545352458954 -0.35993778705596924 -0.00054630573140457273 -0.1565108448266983 -0.14087972044944763 0.041967280209064484 -0.18947702646255493 0.097079291939735413 -0.047181051224470139 -0.27066636085510254 -0.17773707211017609 0.06557115912437439 0.12755608558654785 0.059828538447618484 -0.073888249695301056 0.060805365443229675 0.21976116299629211 -0.045861322432756424 -0.38911119103431702 0.084681294858455658 0.43878963589668274 0.23569853603839874 -0.1141674816608429 0.0020076227374374866 -0.11419364809989929 -0.15527442097663879 -0.08284652978181839 -0.22614890336990356 -0.37212985754013062 0.095226451754570007 -0.024600375443696976 0.20636989176273346 0.21637818217277527 -0.00016858751769177616 0.15706652402877808 0.017875539138913155 -0.060960274189710617 0.022601431235671043 0.15599319338798523 0.17021864652633667 -0.080860890448093414 -0.024977888911962509 -0.1342085599899292 0.51518595218658447 -0.15613611042499542 -0.018411435186862946 0.34504720568656921
  0.0014834483154118061 -0.15579818189144135 0.13821372389793396 0.05500103160738945 -0.029082691296935081 0.1659453958272934 -0.011952976696193218 -0.12116051465272903 0.031039303168654442 0.21016660332679749 -0.1679261177778244 -0.23534582555294037 -0.1720053106546402 -0.019123725593090057 -0.39212384819984436 0.072585180401802063 0.031765703111886978 0.093375548720359802 -0.14036990702152252 0.13239468634128571 -0.13490030169487 0.043563764542341232 -0.015218459069728851 0.2240816056728363 -0.051449328660964966 -0.1279175877571106 -0.0033983574248850346 0.27254679799079895 -0.03626810759305954 -0.14715413749217987 0.18722346425056458 -0.22002893686294556 -0.055583346635103226 0.22404409945011139 0.56044667959213257 0.081522859632968903 0.20566336810588837 -0.016730161383748055 0.087629988789558411 0.044222045689821243 0.021730808541178703 -0.32589241862297058 -0.068120002746582031 0.28005605936050415 0.56442201137542725 -0.013005777262151241 -0.010916196741163731 -0.093778423964977264 0.040741398930549622 0.025306576862931252 -0.19732806086540222 -0.081046342849731445 -0.13248410820960999 0.084446616470813751 0.030255833640694618 0.10553598403930664 0.10996631532907486 -0.030176667496562004 0.028492692857980728 0.4382634162902832 ]
 [ -0.32383593916893005 0.51085478067398071 0.25163978338241577 -1.150374174118042 -0.10711640864610672 1.0608731508255005 -1.1515128612518311 0.48557677865028381 0.61259293556213379 -1.8701707124710083 -1.210568904876709 0.37181302905082703 0.17775906622409821 -2.35382080078125 -1.1479803323745728 -0.010607070289552212 0.25142976641654968 -0.068389557301998138 0.098458811640739441 0.21060013771057129 0.039263658225536346 0.12956021726131439 -1.4116808176040649 3.3924200534820557 0.30658671259880066 0.4601757824420929 0.0039681871421635151 -0.89275878667831421 0.78170639276504517 0.52238911390304565 0.10679586976766586 -1.1663768291473389 -1.5961353778839111 -1.0774303674697876 -1.1252888441085815 -0.11392153799533844 0.29403293132781982 0.28143593668937683 -1.2792056798934937 -1.4007569551467896 0.78795576095581055 2.0492074489593506 -0.21870504319667816 -0.79462862014770508 1.0574100017547607 -1.1685949563980103 0.12207497656345367 -0.089250572025775909 -1.205492377281189 -0.85836124420166016 0.16941694915294647 -0.68548649549484253 1.3707214593887329 0.3391650915145874 0.1281602531671524 -1.816590428352356 -0.72866141796112061 -0.58400052785873413 -0.065648265182971954 -1.2711682319641113 ]
 [ 0.74753803014755249 0.060874130576848984 0.037170417606830597 -0.70489698648452759 -0.68277698755264282 0.59712499380111694 -0.11922440677881241 0.078065142035484314 0.31995201110839844 -0.34460434317588806 -0.059296503663063049 -0.78927892446517944 -0.53099113702774048 0.76945817470550537 0.29799163341522217 -0.26754641532897949 -0.34466436505317688 -0.31987050175666809 -0.30742916464805603 -0.0060044941492378712 0.31995230913162231 -0.1838817298412323 -0.54060441255569458 0.32000359892845154 -0.10625625401735306 0.76340007781982422 0.3064398467540741 -0.18460704386234283 -0.16898952424526215 -0.46696403622627258 -0.76874417066574097 0.29939281940460205 0.59450465440750122 0.59319829940795898 -0.33954447507858276 1.3224316835403442 0.039523333311080933 0.16067218780517578 0.32008311152458191 -0.34461325407028198 -0.081747092306613922 -0.63512372970581055 0.26589462161064148 0.15845197439193726 -1.0029453039169312 0.319955974817276 0.040263187140226364 0.024567747488617897 0.0091444794088602066 -0.34452033042907715 ]
</Nnet>
